#mdl#2#5063
#rdr#3/0/0
10:b0%x[-1,0],
10:u1%x[-2,0],
10:u2%x[-2,0],
#qrk#81
1:O,
15:B-cost_relative,
19:B-fromloc.city_name,
20:B-fromloc.state_code,
17:B-toloc.city_name,
22:B-depart_date.day_name,
27:B-depart_time.period_of_day,
27:B-depart_date.date_relative,
14:B-airline_name,
13:B-flight_time,
27:B-depart_time.time_relative,
18:B-depart_time.time,
12:B-flight_mod,
14:B-airline_code,
20:B-fromloc.state_name,
19:B-stoploc.city_name,
11:B-city_name,
24:B-depart_date.day_number,
24:B-depart_date.month_name,
9:B-connect,
12:B-round_trip,
24:B-depart_time.period_mod,
22:B-fromloc.airport_name,
13:B-flight_stop,
12:B-state_name,
15:B-aircraft_code,
18:B-toloc.state_name,
18:B-arrive_time.time,
12:B-class_type,
15:B-flight_number,
27:B-arrive_time.period_of_day,
16:B-transport_type,
14:B-airport_name,
8:B-return,
18:B-depart_date.year,
15:B-period_of_day,
15:B-time_relative,
6:B-time,
13:B-fare_amount,
24:B-arrive_date.month_name,
24:B-arrive_date.day_number,
6:B-meal,
27:B-arrive_time.time_relative,
18:B-meal_description,
12:B-state_code,
9:B-economy,
24:B-return_date.month_name,
24:B-return_date.day_number,
20:B-toloc.airport_name,
5:B-mod,
13:B-flight_days,
28:B-depart_date.today_relative,
18:B-restriction_code,
17:B-fare_basis_code,
27:B-arrive_date.date_relative,
22:B-arrive_date.day_name,
4:B-or,
11:B-meal_code,
24:B-arrive_time.start_time,
22:B-arrive_time.end_time,
22:B-fromloc.airport_code,
20:B-toloc.airport_code,
14:B-airport_code,
24:B-arrive_time.period_mod,
18:B-toloc.state_code,
24:B-depart_time.start_time,
22:B-depart_time.end_time,
16:B-today_relative,
28:B-arrive_date.today_relative,
10:B-day_name,
20:B-stoploc.state_code,
27:B-return_date.date_relative,
22:B-stoploc.airport_name,
22:B-return_date.day_name,
11:B-days_code,
12:B-month_name,
12:B-day_number,
20:B-toloc.country_name,
28:B-return_date.today_relative,
24:B-return_time.period_mod,
27:B-return_time.period_of_day,
#qrk#2671
6:b0_x-1,
6:u1_x-2,
6:u2_x-2,
5:b0i'd,
6:u1_x-1,
6:u2_x-1,
6:b0like,
5:u1i'd,
5:u2i'd,
4:b0to,
6:u1like,
6:u2like,
6:b0find,
4:u1to,
4:u2to,
5:b0the,
6:u1find,
6:u2find,
10:b0cheapest,
5:u1the,
5:u2the,
8:b0flight,
10:u1cheapest,
10:u2cheapest,
6:b0from,
8:u1flight,
8:u2flight,
12:b0washington,
6:u1from,
6:u2from,
4:b0dc,
12:u1washington,
12:u2washington,
4:u1dc,
4:u2dc,
5:b0i'm,
11:b0traveling,
5:u1i'm,
5:u2i'm,
11:u1traveling,
11:u2traveling,
8:b0dallas,
8:u1dallas,
8:u2dallas,
3:b0i,
6:b0also,
3:u1i,
3:u2i,
6:b0need,
6:u1also,
6:u2also,
6:u1need,
6:u2need,
4:b0go,
4:u1go,
4:u2go,
15:b0san-francisco,
4:b0on,
15:u1san-francisco,
15:u2san-francisco,
11:b0wednesday,
4:u1on,
4:u2on,
9:b0evening,
11:u1wednesday,
11:u2wednesday,
9:u1evening,
9:u2evening,
7:b0thank,
5:b0you,
7:u1thank,
7:u2thank,
5:u1you,
5:u2you,
8:b0travel,
6:b0next,
8:u1travel,
8:u2travel,
6:u1next,
6:u2next,
5:b0fly,
22:b0continental-airlines,
5:u1fly,
5:u2fly,
9:b0between,
22:u1continental-airlines,
22:u2continental-airlines,
8:b0boston,
9:u1between,
9:u2between,
5:b0and,
8:u1boston,
8:u2boston,
8:b0please,
6:b0tell,
8:u1please,
8:u2please,
4:b0me,
6:u1tell,
6:u2tell,
4:u1me,
4:u2me,
9:b0flights,
9:u1flights,
9:u2flights,
14:b0philadelphia,
5:u1and,
5:u2and,
14:u1philadelphia,
14:u2philadelphia,
7:b0would,
7:u1would,
7:u2would,
6:b0fare,
6:u1fare,
6:u2fare,
9:b0atlanta,
9:u1atlanta,
9:u2atlanta,
3:b0a,
3:u1a,
3:u2a,
6:b0give,
6:u1give,
6:u2give,
14:b0flight-times,
14:u1flight-times,
14:u2flight-times,
11:b0baltimore,
4:b0in,
11:u1baltimore,
11:u2baltimore,
4:u1in,
4:u2in,
9:b0morning,
8:b0before,
9:u1morning,
9:u2morning,
23:b0times-of-your-flights,
23:u1times-of-your-flights,
23:u2times-of-your-flights,
9:b0leaving,
9:u1leaving,
9:u2leaving,
6:b0what,
6:u1what,
6:u2what,
4:b0do,
4:u1do,
4:u2do,
6:b0have,
6:u1have,
6:u2have,
8:b0denver,
8:u1denver,
8:u2denver,
10:b0arriving,
10:u1arriving,
10:u2arriving,
4:b0is,
6:b0your,
4:u1is,
4:u2is,
6:b0last,
6:u1your,
6:u2your,
6:u1last,
6:u2last,
7:b0there,
7:u1there,
7:u2there,
6:b0does,
19:b0american-airlines,
6:u1does,
6:u2does,
19:u1american-airlines,
19:u2american-airlines,
6:b0time,
6:u1time,
6:u2time,
10:b0earliest,
10:u1earliest,
10:u2earliest,
4:b0of,
4:u1of,
4:u2of,
7:b0could,
7:u1could,
7:u2could,
13:b0information,
12:b0concerning,
13:u1information,
13:u2information,
12:u1concerning,
12:u2concerning,
5:b0one,
5:u1one,
5:u2one,
4:b0as,
18:b0american-airline,
18:u1american-airline,
18:u2american-airline,
15:b0early-morning,
5:b0twa,
5:u1twa,
5:u2twa,
12:b0fort-worth,
7:b0texas,
12:u1fort-worth,
12:u2fort-worth,
7:u1texas,
7:u2texas,
12:b0interested,
12:u1interested,
12:u2interested,
6:b0that,
6:u1that,
6:u2that,
6:b0stop,
6:u1stop,
6:u2stop,
5:b0for,
5:u1for,
5:u2for,
12:b0pittsburgh,
12:u1pittsburgh,
12:u2pittsburgh,
6:b0want,
6:u1want,
6:u2want,
10:b0airlines,
10:u1airlines,
10:u2airlines,
8:b0ground,
16:b0transportation,
8:u1ground,
8:u2ground,
16:u1transportation,
16:u2transportation,
9:b0airport,
9:u1airport,
9:u2airport,
11:b0repeating,
11:u1repeating,
11:u2repeating,
6:b010am,
8:u1before,
8:u2before,
6:u110am,
6:u210am,
6:b0type,
6:u1type,
6:u2type,
10:b0aircraft,
10:u1aircraft,
10:u2aircraft,
8:b0flying,
8:u1flying,
8:u2flying,
17:b0united-airlines,
17:u1united-airlines,
17:u2united-airlines,
5:b0all,
7:b0right,
5:u1all,
5:u2all,
7:u1right,
7:u2right,
5:b0let,
5:u1let,
5:u2let,
6:b0know,
6:u1know,
6:u2know,
7:b0using,
7:u1using,
7:u2using,
6:b0they,
5:b0use,
6:u1they,
6:u2they,
5:u1use,
5:u2use,
7:b0these,
7:u1these,
7:u2these,
4:b010,
4:u110,
4:u210,
6:b0well,
6:b0i'll,
6:u1well,
6:u2well,
5:b0try,
6:u1i'll,
6:u2i'll,
5:u1try,
5:u2try,
6:b0kind,
6:u1kind,
6:u2kind,
7:b0flies,
7:u1flies,
7:u2flies,
12:b010-o'clock,
12:u110-o'clock,
12:u210-o'clock,
11:b0september,
11:b0twentieth,
11:u1september,
11:u2september,
11:u1twentieth,
11:u2twentieth,
10:b0stopover,
10:u1stopover,
10:u2stopover,
5:b0are,
5:u1are,
5:u2are,
4:b0an,
4:u1an,
4:u2an,
6:b0wish,
6:u1wish,
6:u2wish,
9:b0airline,
9:u1airline,
9:u2airline,
7:b0plane,
7:u1plane,
7:u2plane,
9:b0one-way,
9:u1one-way,
9:u2one-way,
11:b0available,
4:b0at,
11:u1available,
11:u2available,
10:b0noontime,
4:u1at,
4:u2at,
10:u1noontime,
10:u2noontime,
8:b0around,
8:u1around,
8:u2around,
16:b0delta-airlines,
16:u1delta-airlines,
16:u2delta-airlines,
18:b0eastern-airlines,
18:u1eastern-airlines,
18:u2eastern-airlines,
7:b0early,
4:u1as,
4:u2as,
7:u1early,
7:u2early,
10:b0possible,
10:u1possible,
10:u2possible,
5:b0day,
5:u1day,
5:u2day,
6:b0will,
8:b0arrive,
6:u1will,
6:u2will,
8:u1arrive,
8:u2arrive,
16:b0denver-airport,
16:u1denver-airport,
16:u2denver-airport,
10:b0downtown,
9:b0nonstop,
9:u1nonstop,
9:u2nonstop,
8:b0repeat,
8:u1repeat,
8:u2repeat,
12:b0departures,
12:u1departures,
12:u2departures,
8:b0monday,
8:b0august,
8:u1monday,
8:u2monday,
12:b0nineteenth,
8:u1august,
8:u2august,
12:u1nineteenth,
12:u2nineteenth,
6:b0rate,
6:u1rate,
6:u2rate,
5:b0any,
5:u1any,
5:u2any,
8:b0us-air,
8:u1us-air,
8:u2us-air,
7:b0we're,
7:b0going,
7:u1we're,
7:u2we're,
7:u1going,
7:u2going,
5:b0819,
5:u1819,
5:u2819,
6:b0take,
6:u1take,
6:u2take,
11:b09-o'clock,
11:u19-o'clock,
11:u29-o'clock,
5:b0out,
5:u1out,
5:u2out,
4:b0be,
9:b0staying,
4:u1be,
4:u2be,
9:u1staying,
9:u2staying,
10:u1downtown,
10:u2downtown,
5:b0two,
7:b0hours,
5:u1two,
5:u2two,
7:u1hours,
7:u2hours,
5:b0can,
5:u1can,
5:u2can,
7:b0about,
7:u1about,
7:u2about,
6:b0city,
6:u1city,
6:u2city,
6:b0very,
6:u1very,
6:u2very,
9:b0working,
9:u1working,
9:u2working,
10:b0scenario,
7:b0three,
10:u1scenario,
10:u2scenario,
7:u1three,
7:u2three,
5:b0727,
5:u1727,
5:u2727,
4:b0am,
4:u1am,
4:u2am,
8:b0number,
8:u1number,
8:u2number,
8:b0return,
8:u1return,
8:u2return,
7:b0bound,
7:u1bound,
7:u2bound,
8:b0friday,
6:b0this,
8:u1friday,
8:u2friday,
7:b0class,
9:b0service,
7:u1class,
7:u2class,
9:u1service,
9:u2service,
12:b0california,
12:u1california,
12:u2california,
5:b0get,
5:u1get,
5:u2get,
5:b0yes,
5:u1yes,
5:u2yes,
7:b0delta,
7:u1delta,
7:u2delta,
7:b0225pm,
7:u1225pm,
7:u2225pm,
8:b01158pm,
8:u11158pm,
8:u21158pm,
11:b0equipment,
11:u1equipment,
11:u2equipment,
6:b0used,
6:u1used,
6:u2used,
9:b0looking,
9:u1looking,
9:u2looking,
10:b0stopping,
10:u1stopping,
10:u2stopping,
8:b0ticket,
8:u1ticket,
8:u2ticket,
10:b0colorado,
10:u1colorado,
10:u2colorado,
9:b0georgia,
6:b0with,
9:u1georgia,
9:u2georgia,
6:u1with,
6:u2with,
13:b0coach-class,
6:b0seat,
13:u1coach-class,
13:u2coach-class,
6:u1seat,
6:u2seat,
4:b0or,
8:b0lowest,
4:u1or,
4:u2or,
8:u1lowest,
8:u2lowest,
5:b0buy,
5:u1buy,
5:u2buy,
11:b0afternoon,
11:u1afternoon,
11:u2afternoon,
5:b0230,
5:u1230,
5:u2230,
5:b0324,
5:u1324,
5:u2324,
7:b0110pm,
7:u1110pm,
7:u2110pm,
10:b0american,
10:u1american,
10:u2american,
5:b0813,
5:u1813,
5:u2813,
9:b0oakland,
9:u1oakland,
9:u2oakland,
6:b0goes,
10:b0straight,
6:u1goes,
6:u2goes,
9:b0through,
10:u1straight,
10:u2straight,
9:u1through,
9:u2through,
18:b0without-stopping,
18:u1without-stopping,
18:u2without-stopping,
9:b0another,
4:b0if,
4:u1if,
4:u2if,
9:b0enroute,
9:u1enroute,
9:u2enroute,
4:b0it,
4:u1it,
4:u2it,
5:b0may,
5:u1may,
5:u2may,
6:b02153,
6:u12153,
6:u22153,
13:b0first-class,
13:u1first-class,
13:u2first-class,
6:b0list,
6:u1list,
6:u2list,
8:b0making,
8:u1making,
8:u2making,
13:b0continental,
13:u1continental,
13:u2continental,
7:b0leave,
7:u1leave,
7:u2leave,
7:b0after,
12:b012-o'clock,
7:u1after,
7:u2after,
12:u112-o'clock,
12:u212-o'clock,
7:b0which,
8:b0leaves,
7:u1which,
7:u2which,
8:u1leaves,
8:u2leaves,
8:b01220pm,
8:u11220pm,
8:u21220pm,
11:b05-o'clock,
11:u15-o'clock,
11:u25-o'clock,
13:b0lowest-cost,
13:u1lowest-cost,
13:u2lowest-cost,
7:b0645am,
7:u1645am,
7:u2645am,
9:b0tuesday,
9:u1tuesday,
9:u2tuesday,
5:b0has,
5:u1has,
5:u2has,
5:b0how,
6:b0much,
5:u1how,
5:u2how,
6:u1much,
6:u2much,
12:b0round-trip,
12:u1round-trip,
12:u2round-trip,
6:b0long,
6:u1long,
6:u2long,
17:b0atlanta-airport,
6:b0into,
17:u1atlanta-airport,
17:u2atlanta-airport,
6:u1into,
6:u2into,
19:b0airport-limousine,
19:u1airport-limousine,
19:u2airport-limousine,
6:b0make,
6:u1make,
6:u2make,
6:b0trip,
6:u1trip,
6:u2trip,
7:b0again,
7:u1again,
7:u2again,
7:b0fares,
7:u1fares,
7:u2fares,
14:b0arrival-time,
14:u1arrival-time,
14:u2arrival-time,
7:b0755am,
7:u1755am,
7:u2755am,
8:b0latest,
8:u1latest,
8:u2latest,
5:b0755,
5:u1755,
5:u2755,
10:b0schedule,
10:u1schedule,
10:u2schedule,
5:b09pm,
5:u19pm,
5:u29pm,
10:b0november,
14:b0twenty-third,
10:u1november,
10:u2november,
14:u1twenty-third,
14:u2twenty-third,
6:b0year,
6:u1this,
6:u2this,
6:b01991,
6:u1year,
6:u2year,
6:u11991,
6:u21991,
6:b0okay,
6:b0just,
6:u1okay,
6:u2okay,
6:u1just,
6:u2just,
7:b0hello,
7:u1hello,
7:u2hello,
7:b0let's,
5:b0see,
7:u1let's,
7:u2let's,
5:u1see,
5:u2see,
15:b0delta-airline,
15:u1delta-airline,
15:u2delta-airline,
7:b0stops,
7:u1stops,
7:u2stops,
5:b0way,
5:u1way,
5:u2way,
8:b0united,
8:u1united,
8:u2united,
4:b0by,
16:b0united-airline,
16:u1united-airline,
16:u2united-airline,
4:b0oh,
4:u1oh,
4:u2oh,
17:b0eastern-airline,
17:u1eastern-airline,
17:u2eastern-airline,
6:b0some,
6:u1some,
6:u2some,
16:b0dallas-airport,
16:u1dallas-airport,
16:u2dallas-airport,
14:b0arrangements,
14:u1arrangements,
14:u2arrangements,
16:b0boston-airport,
16:u1boston-airport,
16:u2boston-airport,
11:b0departing,
11:u1departing,
11:u2departing,
9:b0airfare,
9:u1airfare,
9:u2airfare,
13:b0329-dollars,
13:u1329-dollars,
13:u2329-dollars,
6:b0cost,
6:u1cost,
6:u2cost,
5:b0air,
14:b0restrictions,
5:u1air,
5:u2air,
14:u1restrictions,
14:u2restrictions,
6:b0book,
6:u1book,
6:u2book,
7:b0coach,
10:b0discount,
7:u1coach,
7:u2coach,
9:b0arrange,
9:u1arrange,
9:u2arrange,
6:b0july,
6:b0sure,
6:u1sure,
6:u2sure,
11:b0determine,
11:u1determine,
11:u2determine,
9:b0seventh,
6:u1july,
6:u2july,
9:u1seventh,
9:u2seventh,
6:b0meal,
7:b0being,
6:u1meal,
6:u2meal,
5:b08am,
5:u18am,
5:u28am,
6:b0such,
6:u1such,
6:u2such,
7:b0types,
7:u1types,
7:u2types,
10:b0sometime,
10:u1sometime,
10:u2sometime,
8:b0direct,
8:u1direct,
8:u2direct,
9:b0arrives,
9:u1arrives,
9:u2arrives,
15:u1early-morning,
15:u2early-morning,
15:b0approximately,
6:b0many,
6:u1many,
6:u2many,
7:b0where,
7:u1where,
7:u2where,
5:b0420,
5:u1420,
5:u2420,
3:b05,
3:u15,
3:u25,
4:b0my,
7:b0final,
4:u1my,
4:u2my,
13:b0destination,
7:u1final,
7:u2final,
13:u1destination,
13:u2destination,
11:b0originate,
11:u1originate,
11:u2originate,
22:b0latest-time-possible,
22:u1latest-time-possible,
22:u2latest-time-possible,
8:b0during,
5:b0296,
8:b0serves,
5:u1296,
5:u2296,
7:b0first,
7:u1first,
7:u2first,
8:b0should,
8:u1should,
8:u2should,
7:b0their,
7:u1their,
7:u2their,
10:b0question,
10:u1question,
10:u2question,
6:b0live,
6:u1live,
6:u2live,
8:b0trying,
8:u1trying,
8:u2trying,
12:b0connection,
12:u1connection,
12:u2connection,
7:b0those,
11:b0thirtieth,
11:u1thirtieth,
11:u2thirtieth,
6:b0fine,
6:u1fine,
6:u2fine,
6:b0help,
6:u1help,
6:u2help,
5:b0now,
5:u1now,
5:u2now,
5:b0747,
5:u1747,
5:u2747,
6:b0able,
6:u1able,
6:u2able,
5:b0put,
5:u1put,
5:u2put,
16:b0twenty-seventh,
16:u1twenty-seventh,
16:u2twenty-seventh,
7:b0night,
7:u1night,
7:u2night,
7:b0630am,
7:u1630am,
7:u2630am,
7:b0rates,
7:u1rates,
7:u2rates,
17:b0least-expensive,
17:u1least-expensive,
17:u2least-expensive,
16:b0city-of-boston,
16:u1city-of-boston,
16:u2city-of-boston,
8:b0kindly,
8:u1kindly,
8:u2kindly,
8:b0inform,
8:u1inform,
8:u2inform,
9:b0eastern,
9:u1eastern,
9:u2eastern,
5:b0825,
5:u1825,
5:u2825,
6:b0when,
6:u1when,
6:u2when,
5:b0555,
5:u1555,
5:u2555,
7:b0sorry,
7:u1sorry,
7:u2sorry,
14:b0thirty-first,
14:u1thirty-first,
14:u2thirty-first,
6:b0then,
6:u1then,
6:u2then,
8:b0fourth,
8:u1fourth,
8:u2fourth,
6:b0plan,
6:u1plan,
6:u2plan,
10:b0no-stops,
10:u1no-stops,
10:u2no-stops,
9:b0economy,
9:u1economy,
9:u2economy,
10:b0thursday,
10:u1thursday,
10:u2thursday,
7:b0fifth,
7:u1fifth,
7:u2fifth,
9:b0october,
9:b0connect,
9:u1connect,
9:u2connect,
7:u1those,
7:u2those,
10:b0planning,
10:u1planning,
10:u2planning,
5:b0269,
5:u1269,
5:u2269,
5:b0428,
5:u1428,
5:u2428,
7:b0times,
7:u1times,
7:u2times,
7:b0makes,
7:u1makes,
7:u2makes,
10:b0one-stop,
10:u1one-stop,
10:u2one-stop,
7:b0april,
14:b0twenty-first,
7:u1april,
7:u2april,
14:u1twenty-first,
14:u2twenty-first,
11:b0beginning,
11:u1beginning,
11:u2beginning,
14:b0twenty-fifth,
14:u1twenty-fifth,
14:u2twenty-fifth,
11:b0returning,
11:u1returning,
11:u2returning,
11:b07-o'clock,
11:u17-o'clock,
11:u27-o'clock,
11:b0fifteenth,
11:u1fifteenth,
11:u2fifteenth,
9:b0sixteen,
9:u1sixteen,
9:u2sixteen,
11:b0seventeen,
11:u1seventeen,
11:u2seventeen,
8:b0twenty,
8:u1twenty,
8:u2twenty,
11:b08-o'clock,
11:u18-o'clock,
11:u28-o'clock,
6:b0four,
6:u1four,
6:u2four,
6:b01039,
6:u11039,
6:u21039,
7:b0great,
7:u1great,
7:u2great,
8:b0depart,
8:u1depart,
8:u2depart,
8:b0sounds,
8:u1sounds,
8:u2sounds,
12:b0twenty-one,
12:u1twenty-one,
12:u2twenty-one,
7:b0one's,
7:u1one's,
7:u2one's,
5:b0too,
5:u1too,
5:u2too,
15:b0twenty-second,
15:u1twenty-second,
15:u2twenty-second,
11:b0nighttime,
11:b0departure,
11:u1nighttime,
11:u2nighttime,
6:b0show,
6:u1show,
6:u2show,
19:b0dallas-fort-worth,
19:u1dallas-fort-worth,
19:u2dallas-fort-worth,
10:b0arrivals,
10:u1arrivals,
10:u2arrivals,
6:b0most,
6:u1most,
6:u2most,
13:b0connections,
13:u1connections,
13:u2connections,
7:b0tenth,
6:b0june,
6:u1june,
6:u2june,
7:b0daily,
7:u1daily,
7:u2daily,
19:b0stapleton-airport,
19:u1stapleton-airport,
19:u2stapleton-airport,
10:b0tomorrow,
8:b0thrift,
8:u1thrift,
8:u2thrift,
9:b0explain,
13:b0restriction,
9:u1explain,
9:u2explain,
6:b0code,
13:b0represented,
13:u1represented,
13:u2represented,
5:b07pm,
5:u17pm,
5:u27pm,
4:b0aa,
5:b0459,
4:u1aa,
4:u2aa,
8:b0cities,
8:u1cities,
8:u2cities,
9:b0besides,
9:u1besides,
9:u2besides,
9:b0provide,
9:u1provide,
9:u2provide,
5:b0jet,
5:u1jet,
5:u2jet,
6:b0only,
6:u1only,
6:u2only,
11:b0different,
11:u1different,
11:u2different,
9:b0classes,
9:u1classes,
9:u2classes,
3:b0b,
6:u1code,
6:u2code,
3:u1b,
3:u2b,
6:b0same,
6:u1same,
6:u2same,
9:b0booking,
9:u1booking,
9:u2booking,
15:b0no-later-than,
5:b02pm,
15:u1no-later-than,
15:u2no-later-than,
5:u12pm,
5:u22pm,
8:b0what's,
8:u1what's,
8:u2what's,
7:b0codes,
8:b0belong,
7:u1codes,
7:u2codes,
8:u1belong,
8:u2belong,
5:b0via,
9:b0layover,
9:u1layover,
9:u2layover,
6:b0more,
16:b0business-class,
6:u1more,
6:u2more,
16:u1business-class,
16:u2business-class,
6:b0than,
6:u1than,
6:u2than,
7:b0other,
15:b0economy-class,
15:u1economy-class,
15:u2economy-class,
16:b0late-afternoon,
16:u1late-afternoon,
16:u2late-afternoon,
5:b01pm,
5:u11pm,
5:u21pm,
11:b03-o'clock,
11:u13-o'clock,
11:u23-o'clock,
9:b012-noon,
9:u112-noon,
9:u212-noon,
9:b0delta's,
9:u1delta's,
9:u2delta's,
12:b0rental-car,
12:u1rental-car,
12:u2rental-car,
5:b0far,
5:u1far,
5:u2far,
10:b0saturday,
6:b0come,
6:u1come,
6:u2come,
10:b0smallest,
9:b0seating,
10:u1smallest,
10:u2smallest,
16:b0most-expensive,
16:u1most-expensive,
16:u2most-expensive,
9:b0tickets,
9:u1tickets,
9:u2tickets,
11:b0atlanta's,
6:b0noon,
6:u1noon,
6:u2noon,
13:b0originating,
13:u1originating,
13:u2originating,
8:b0offers,
8:u1offers,
8:u2offers,
9:b0heading,
9:u1heading,
9:u2heading,
5:b0279,
5:u1279,
5:u2279,
3:b03,
3:u13,
3:u23,
8:b0toward,
8:u1toward,
8:u2toward,
6:b0each,
6:u1each,
6:u2each,
11:b0lufthansa,
11:u1lufthansa,
11:u2lufthansa,
14:b0twenty-sixth,
6:b0name,
6:u1name,
6:u2name,
22:b0philadelphia-airport,
22:u1philadelphia-airport,
22:u2philadelphia-airport,
3:b01,
3:u11,
3:u21,
3:b04,
3:u14,
3:u24,
16:b0departure-time,
16:u1departure-time,
16:u2departure-time,
17:b0early-afternoon,
17:u1early-afternoon,
17:u2early-afternoon,
7:b0total,
7:u1total,
7:u2total,
10:b0capacity,
9:u1seating,
9:u2seating,
10:u1capacity,
10:u2capacity,
12:b0advertises,
8:b0having,
12:u1advertises,
12:u2advertises,
8:u1having,
8:u2having,
11:u1departure,
11:u2departure,
20:b0pittsburgh-airport,
20:u1pittsburgh-airport,
20:u2pittsburgh-airport,
7:b0kinds,
7:u1kinds,
7:u2kinds,
11:b0limousine,
11:u1limousine,
11:u2limousine,
41:b0dallas-fort-worth-international-airport,
41:u1dallas-fort-worth-international-airport,
41:u2dallas-fort-worth-international-airport,
8:b0within,
22:b0schedule-for-flights,
22:u1schedule-for-flights,
22:u2schedule-for-flights,
4:b0s-,
11:b0designate,
4:u1s-,
4:u2s-,
11:u1designate,
11:u2designate,
7:b0takes,
7:u1takes,
7:u2takes,
7:b0least,
8:b0amount,
7:u1least,
7:u2least,
8:u1amount,
8:u2amount,
8:b0planes,
8:u1planes,
8:u2planes,
9:b0usa-air,
9:u1usa-air,
9:u2usa-air,
8:b0prices,
8:u1prices,
8:u2prices,
9:b0various,
11:b0airplanes,
9:u1various,
9:u2various,
11:u1airplanes,
11:u2airplanes,
5:b0who,
5:b09am,
5:u19am,
5:u29am,
17:b0time-of-arrival,
17:u1time-of-arrival,
17:u2time-of-arrival,
17:b0departure-times,
17:u1departure-times,
17:u2departure-times,
11:b0including,
11:u1including,
11:u2including,
7:b0offer,
6:b0dc10,
7:u1offer,
7:u2offer,
6:u1dc10,
6:u2dc10,
8:b0eleven,
8:u1eleven,
8:u2eleven,
9:b0any-day,
9:u1any-day,
9:u2any-day,
5:b0352,
5:u1352,
5:u2352,
7:b0price,
7:u1price,
7:u2price,
11:b0operating,
11:u1operating,
11:u2operating,
10:b0services,
10:u1services,
10:u2services,
14:b0reservations,
14:u1reservations,
14:u2reservations,
6:b01765,
6:u11765,
6:u21765,
17:b0flight-schedule,
17:u1flight-schedule,
17:u2flight-schedule,
5:b0f28,
5:u1f28,
5:u2f28,
20:b0air-taxi-operation,
20:u1air-taxi-operation,
20:u2air-taxi-operation,
4:b0pm,
4:u1pm,
4:u2pm,
9:b0serving,
9:u1serving,
9:u2serving,
11:b0breakfast,
8:b0served,
11:u1breakfast,
11:u2breakfast,
8:u1served,
8:u2served,
10:b0anything,
10:u1anything,
10:u2anything,
5:b0say,
5:u1say,
5:u2say,
5:b0run,
5:u1run,
5:u2run,
7:b0seats,
7:u1seats,
7:u2seats,
7:u1other,
7:u2other,
9:b0earlier,
9:u1earlier,
9:u2earlier,
6:b01017,
6:u11017,
6:u21017,
7:b0later,
7:u1later,
7:u2later,
5:b06pm,
5:u16pm,
5:u26pm,
10:b0serviced,
10:u1serviced,
10:u2serviced,
5:b0dfw,
5:u1dfw,
5:u2dfw,
8:b01133am,
8:u11133am,
8:u21133am,
10:b0provided,
10:u1provided,
10:u2provided,
4:u1by,
4:u2by,
10:b0provides,
10:u1provides,
10:u2provides,
6:b0both,
6:u1both,
6:u2both,
7:b0meals,
7:u1meals,
7:u2meals,
10:b0airplane,
10:u1airplane,
10:u2airplane,
11:b06-o'clock,
8:b0sunday,
11:u16-o'clock,
11:u26-o'clock,
3:b08,
3:u18,
3:u28,
14:b0twenty-ninth,
14:u1twenty-ninth,
14:u2twenty-ninth,
7:b0third,
7:u1third,
7:u2third,
12:b0american's,
12:u1american's,
12:u2american's,
5:b0bwi,
5:u1bwi,
5:u2bwi,
7:b0still,
7:u1still,
7:u2still,
7:b0cover,
7:u1cover,
7:u2cover,
6:b0less,
6:u1less,
6:u2less,
13:b0200-dollars,
5:b0oak,
5:u1oak,
5:u2oak,
9:b0qx-fare,
9:u1qx-fare,
9:u2qx-fare,
14:b0lowest-price,
14:u1lowest-price,
14:u2lowest-price,
4:b082,
4:u182,
4:u282,
9:b0q-fares,
9:u1q-fares,
9:u2q-fares,
13:b0124-dollars,
13:u1124-dollars,
13:u2124-dollars,
4:b0ls,
7:b0stand,
4:u1ls,
4:u2ls,
9:b0carries,
9:u1carries,
9:u2carries,
6:b01505,
6:u11505,
6:u21505,
7:b0serve,
11:b0itinerary,
11:u1itinerary,
11:u2itinerary,
12:b0connecting,
12:u1connecting,
12:u2connecting,
9:b0departs,
9:u1departs,
9:u2departs,
7:b0local,
8:b0either,
8:u1either,
8:u2either,
27:b0dallas-fort-worth-airport,
27:u1dallas-fort-worth-airport,
27:u2dallas-fort-worth-airport,
12:b0passengers,
12:u1passengers,
12:u2passengers,
8:b0boeing,
5:b0737,
8:u1boeing,
8:u2boeing,
3:b06,
3:u16,
3:u26,
9:b0qualify,
9:u1qualify,
9:u2qualify,
10:b0describe,
10:u1describe,
10:u2describe,
5:b0j31,
5:b0705,
5:u1705,
5:u2705,
4:b071,
4:u171,
4:u271,
10:b0directly,
10:u1directly,
10:u2directly,
11:b0scheduled,
11:u1scheduled,
11:u2scheduled,
10:b0december,
11:b0turboprop,
11:u1turboprop,
11:u2turboprop,
7:b0catch,
7:u1catch,
7:u2catch,
20:b0lufthansa-airlines,
20:u1lufthansa-airlines,
20:u2lufthansa-airlines,
10:u1saturday,
10:u2saturday,
7:b0logan,
7:u1logan,
7:u2logan,
11:b02-o'clock,
11:u12-o'clock,
11:u22-o'clock,
10:b0distance,
10:u1distance,
10:u2distance,
11:b0companies,
11:u1companies,
11:u2companies,
8:u1serves,
8:u2serves,
8:b0people,
8:u1people,
8:u2people,
9:b0carried,
9:u1carried,
9:u2carried,
10:b0shortest,
10:u1shortest,
10:u2shortest,
9:b0january,
7:b0cheap,
7:u1cheap,
7:u2cheap,
9:b0reverse,
9:u1reverse,
9:u2reverse,
10:b0airports,
10:u1airports,
10:u2airports,
12:b0everywhere,
12:u1everywhere,
12:u2everywhere,
10:b0day-time,
10:u1day-time,
10:u2day-time,
6:b010pm,
6:u110pm,
6:u210pm,
17:b0midway-airlines,
17:u1midway-airlines,
17:u2midway-airlines,
7:u1tenth,
7:u2tenth,
12:b0capacities,
12:u1capacities,
12:u2capacities,
9:b0largest,
9:u1largest,
9:u2largest,
10:b0greatest,
10:u1greatest,
10:u2greatest,
5:b03pm,
5:u13pm,
5:u23pm,
4:b012,
4:u112,
4:u212,
3:b02,
3:u12,
3:u22,
7:b0sixth,
7:u1sixth,
7:u2sixth,
12:b0car-rental,
12:u1car-rental,
12:u2car-rental,
6:b0limo,
6:u1limo,
6:u2limo,
7:b0ninth,
8:b0coming,
7:u1ninth,
7:u2ninth,
6:b0back,
8:u1coming,
8:u2coming,
6:u1back,
6:u2back,
5:b0fit,
5:u1fit,
5:u2fit,
5:b072s,
6:b0once,
6:u1once,
6:u2once,
11:b0expensive,
11:u1expensive,
11:u2expensive,
7:b0eight,
9:b0charges,
9:u1charges,
9:u2charges,
4:b0no,
4:u1no,
4:u2no,
4:b0so,
4:u1so,
4:u2so,
6:b0here,
6:u1here,
6:u2here,
14:b0abbreviation,
4:b0ua,
14:u1abbreviation,
14:u2abbreviation,
4:b0co,
4:b0dl,
3:b0y,
12:b01700-hours,
12:u11700-hours,
12:u21700-hours,
7:b0under,
13:b0500-dollars,
7:u1under,
7:u2under,
13:u1500-dollars,
13:u2500-dollars,
10:b0airfares,
10:u1airfares,
10:u2airfares,
9:b0options,
9:u1options,
9:u2options,
9:b0arrival,
9:u1arrival,
9:u2arrival,
11:b01-o'clock,
11:u11-o'clock,
11:u21-o'clock,
11:b0regarding,
15:b0twenty-eighth,
9:b0display,
9:u1display,
9:u2display,
6:b012pm,
6:u112pm,
6:u212pm,
10:b0economic,
4:b0us,
5:b0345,
4:u1us,
4:u2us,
5:u1345,
5:u2345,
6:b0rent,
6:u1rent,
6:u2rent,
5:b0car,
5:u1car,
5:u2car,
33:b0stapleton-international-airport,
33:u1stapleton-international-airport,
33:u2stapleton-international-airport,
8:u1sunday,
8:u2sunday,
6:b01083,
4:u1dl,
4:u2dl,
6:u11083,
6:u21083,
5:b0201,
4:u1ua,
4:u2ua,
5:u1201,
5:u2201,
5:b0343,
5:u1343,
5:u2343,
5:b0323,
5:u1323,
5:u2323,
5:b0229,
5:u1229,
5:u2229,
6:b0week,
6:u1week,
6:u2week,
9:b0meaning,
9:u1meaning,
9:u2meaning,
4:b0qx,
4:u1qx,
4:u2qx,
9:b0weekday,
9:u1weekday,
9:u2weekday,
10:u1tomorrow,
10:u2tomorrow,
7:b0costs,
7:u1costs,
7:u2costs,
11:b0transport,
13:b0car-rentals,
13:u1car-rentals,
13:u2car-rentals,
11:b0saturdays,
11:u1saturdays,
11:u2saturdays,
5:b0d-s,
5:u1d-s,
5:u2d-s,
7:u1stand,
7:u2stand,
5:b0106,
5:u1106,
5:u2106,
9:b0grounds,
9:u1grounds,
9:u2grounds,
5:b0838,
5:u1838,
5:u2838,
13:b0reservation,
13:u1reservation,
13:u2reservation,
12:b0requesting,
12:u1requesting,
12:u2requesting,
10:b0starting,
10:u1starting,
10:u2starting,
5:b0402,
5:u1402,
5:u2402,
5:b0270,
5:u1270,
5:u2270,
5:b0297,
5:u1297,
5:u2297,
5:b0281,
5:u1281,
5:u2281,
10:b0tuesdays,
10:u1tuesdays,
10:u2tuesdays,
7:b0ap-80,
13:u1restriction,
13:u2restriction,
5:b04pm,
5:u14pm,
5:u24pm,
5:b08pm,
5:u18pm,
5:u28pm,
14:b09-o'clock-am,
14:b05-o'clock-pm,
24:b0the-day-after-tomorrow,
24:u1the-day-after-tomorrow,
24:u2the-day-after-tomorrow,
14:b03-o'clock-pm,
14:u13-o'clock-pm,
14:u23-o'clock-pm,
14:b08-o'clock-am,
14:u18-o'clock-am,
14:u28-o'clock-am,
14:u15-o'clock-pm,
14:u25-o'clock-pm,
7:u1serve,
7:u2serve,
13:b0us-airlines,
13:u1us-airlines,
13:u2us-airlines,
3:u1y,
3:u2y,
11:u1transport,
11:u2transport,
3:b0m,
12:b0continuing,
12:u1continuing,
12:u2continuing,
12:b0limousines,
12:u1limousines,
12:u2limousines,
6:b0taxi,
6:u1taxi,
6:u2taxi,
7:b0names,
7:u1names,
7:u2names,
4:b0qw,
4:u1qw,
4:u2qw,
8:b0listed,
8:u1listed,
8:u2listed,
6:b01055,
6:u11055,
6:u21055,
4:b0ea,
4:u1ea,
4:u2ea,
6:b0look,
6:u1look,
6:u2look,
7:b0today,
7:u1today,
7:u2today,
9:b0what're,
9:u1what're,
9:u2what're,
8:b0second,
8:u1second,
8:u2second,
6:b011am,
6:u111am,
6:u211am,
8:u1during,
8:u2during,
5:b0430,
5:u1430,
5:u2430,
7:b0838am,
7:u1838am,
7:u2838am,
5:u1via,
5:u2via,
8:b0thanks,
8:u1thanks,
8:u2thanks,
6:b0near,
5:b05pm,
6:u1near,
6:u2near,
5:u15pm,
5:u25pm,
7:b0close,
7:u1close,
7:u2close,
6:b01110,
6:u11110,
6:u21110,
23:b0san-francisco-airport,
23:u1san-francisco-airport,
23:u2san-francisco-airport,
7:b0while,
7:u1while,
7:u2while,
8:b0wanted,
8:u1wanted,
8:u2wanted,
9:b0maximum,
9:u1maximum,
9:u2maximum,
7:b0spend,
7:u1spend,
7:u2spend,
9:b0lastest,
9:u1lastest,
9:u2lastest,
9:b0longest,
9:u1longest,
9:u2longest,
5:b0but,
5:u1but,
5:u2but,
8:u1within,
8:u2within,
6:b0over,
6:u1over,
6:u2over,
5:b0852,
5:u1852,
5:u2852,
5:b0928,
5:u1928,
5:u2928,
7:b0start,
7:u1start,
7:u2start,
6:b0it's,
5:b0445,
5:u1445,
5:u2445,
20:b0washington-airport,
20:u1washington-airport,
20:u2washington-airport,
8:b0locate,
8:u1locate,
8:u2locate,
9:b0travels,
9:u1travels,
9:u2travels,
6:b0late,
6:u1late,
6:u2late,
6:b0zone,
6:u1zone,
6:u2zone,
13:b0inexpensive,
13:u1inexpensive,
13:u2inexpensive,
11:b0currently,
11:u1currently,
11:u2currently,
6:b0must,
6:u1must,
6:u2must,
10:b0midnight,
10:u1midnight,
10:u2midnight,
6:b0land,
6:u1land,
6:u2land,
17:b0oakland-airport,
17:u1oakland-airport,
17:u2oakland-airport,
18:b0transcontinental,
18:u1transcontinental,
18:u2transcontinental,
8:b0across,
8:u1across,
8:u2across,
11:b0continent,
11:u1continent,
11:u2continent,
7:b0430pm,
7:u1430pm,
7:u2430pm,
6:b0gets,
6:u1gets,
6:u2gets,
7:b0month,
7:u1month,
7:u2month,
10:u1december,
10:u2december,
10:b0connects,
10:u1connects,
10:u2connects,
10:b0vicinity,
10:u1vicinity,
10:u2vicinity,
8:b0begins,
8:u1begins,
8:u2begins,
7:b0lands,
7:u1lands,
7:u2lands,
7:b0don't,
7:u1don't,
7:u2don't,
11:b0stopovers,
11:u1stopovers,
11:u2stopovers,
5:b0757,
5:u1757,
5:u2757,
9:u1january,
9:u2january,
6:b01992,
6:u11992,
6:u21992,
9:u1october,
9:u2october,
14:b08-o'clock-pm,
14:u18-o'clock-pm,
14:u28-o'clock-pm,
8:b0define,
8:u1define,
8:u2define,
5:b0atl,
5:u1atl,
5:u2atl,
9:b0listing,
9:u1listing,
9:u2listing,
11:b04-o'clock,
11:u14-o'clock,
11:u24-o'clock,
5:b0746,
4:b0hi,
4:u1hi,
4:u2hi,
11:b0overnight,
11:u1overnight,
11:u2overnight,
9:b0without,
9:u1without,
9:u2without,
14:b0pennsylvania,
14:u1pennsylvania,
14:u2pennsylvania,
12:b0wednesdays,
12:u1wednesdays,
12:u2wednesdays,
6:b01291,
6:u11291,
6:u21291,
5:b0271,
5:u1271,
5:u2271,
6:b0sort,
6:u1sort,
6:u2sort,
14:b06-o'clock-pm,
14:u16-o'clock-pm,
14:u26-o'clock-pm,
14:b07-o'clock-am,
14:u17-o'clock-am,
14:u27-o'clock-am,
14:b05-o'clock-am,
14:u15-o'clock-am,
14:u25-o'clock-am,
5:b07am,
5:u17am,
5:u27am,
14:b01500-dollars,
4:b0up,
4:u1up,
4:u2up,
15:b0only-weekdays,
15:u1only-weekdays,
15:u2only-weekdays,
4:b0ap,
7:b0ap-57,
3:b0f,
3:u1f,
3:u2f,
4:b0fn,
13:b0rental-cars,
13:u1rental-cars,
13:u2rental-cars,
10:b0eleventh,
10:u1eleventh,
10:u2eleventh,
9:b0twelfth,
8:b0priced,
8:u1priced,
8:u2priced,
5:b0212,
5:u1212,
5:u2212,
10:b0anywhere,
10:u1anywhere,
10:u2anywhere,
6:b01850,
6:u11850,
6:u21850,
6:b01700,
6:u11700,
6:u21700,
5:b0217,
5:u1217,
5:u2217,
13:b0400-dollars,
13:u1400-dollars,
13:u2400-dollars,
6:b03357,
6:u13357,
6:u23357,
5:b0sfo,
5:u1sfo,
5:u2sfo,
5:b0non,
5:u1non,
5:u2non,
4:u1fn,
4:u2fn,
4:b0yn,
11:b0sixteenth,
11:u1sixteenth,
11:u2sixteenth,
6:b03724,
6:u13724,
6:u23724,
5:b0771,
5:u1771,
5:u2771,
18:b0flight-schedules,
18:u1flight-schedules,
18:u2flight-schedules,
9:b0include,
6:b0ap57,
14:b01000-dollars,
14:u11000-dollars,
14:u21000-dollars,
10:b0mornings,
10:u1mornings,
10:u2mornings,
9:b0whether,
9:u1include,
9:u2include,
9:u1whether,
9:u2whether,
9:b0offered,
9:u1offered,
9:u2offered,
13:b0round-trips,
13:u1round-trips,
13:u2round-trips,
9:b0toronto,
9:u1toronto,
9:u2toronto,
4:b0ac,
4:u1ac,
4:u2ac,
10:b0new-york,
10:u1new-york,
10:u2new-york,
11:b0milwaukee,
11:u1milwaukee,
11:u2milwaukee,
9:b0orlando,
9:u1orlando,
9:u2orlando,
9:b0ontario,
9:u1ontario,
9:u2ontario,
8:b0tacoma,
8:u1tacoma,
8:u2tacoma,
13:b0minneapolis,
13:u1minneapolis,
13:u2minneapolis,
11:b0san-diego,
11:u1san-diego,
11:u2san-diego,
16:b0salt-lake-city,
16:u1salt-lake-city,
16:u2salt-lake-city,
12:b0cincinnati,
12:u1cincinnati,
12:u2cincinnati,
7:b0miami,
7:u1miami,
7:u2miami,
20:b0southwest-airlines,
20:u1southwest-airlines,
20:u2southwest-airlines,
9:b0phoenix,
9:u1phoenix,
9:u2phoenix,
12:b0la-guardia,
8:b0dulles,
8:u1dulles,
8:u2dulles,
7:b0equal,
7:u1equal,
7:u2equal,
13:b0466-dollars,
13:u1466-dollars,
13:u2466-dollars,
7:b0along,
7:u1along,
7:u2along,
14:b0indianapolis,
14:u1indianapolis,
14:u2indianapolis,
9:b0burbank,
9:u1burbank,
9:u2burbank,
16:b0st.-petersburg,
16:u1st.-petersburg,
16:u2st.-petersburg,
10:b0san-jose,
10:u1san-jose,
10:u2san-jose,
24:b0salt-lake-city-airport,
24:u1salt-lake-city-airport,
24:u2salt-lake-city-airport,
7:b0tampa,
7:u1tampa,
7:u2tampa,
11:b0st.-louis,
11:u1st.-louis,
11:u2st.-louis,
9:b0houston,
9:u1houston,
9:u2houston,
9:b0symbols,
9:u1symbols,
9:u2symbols,
4:u1yn,
4:u2yn,
17:b0orlando-airport,
17:u1orlando-airport,
17:u2orlando-airport,
23:b0orlando-international,
23:u1orlando-international,
23:u2orlando-international,
5:b0417,
5:u1417,
5:u2417,
13:b0los-angeles,
13:u1los-angeles,
13:u2los-angeles,
25:b0minimum-connection-time,
25:u1minimum-connection-time,
25:u2minimum-connection-time,
6:b04400,
6:u14400,
6:u24400,
8:b0o'hare,
8:u1o'hare,
8:u2o'hare,
7:b0718am,
9:b0chicago,
9:u1chicago,
9:u2chicago,
10:b0montreal,
10:u1montreal,
10:u2montreal,
10:b0columbus,
10:u1columbus,
10:u2columbus,
8:b0newark,
8:u1newark,
8:u2newark,
11:b0cleveland,
11:u1cleveland,
11:u2cleveland,
12:b0new-jersey,
12:u1new-jersey,
12:u2new-jersey,
5:b0jfk,
5:u1jfk,
5:u2jfk,
12:u1la-guardia,
12:u2la-guardia,
11:b0nashville,
11:u1nashville,
11:u2nashville,
20:b0westchester-county,
20:u1westchester-county,
20:u2westchester-county,
11:b0las-vegas,
11:u1las-vegas,
11:u2las-vegas,
11:b0tower-air,
11:u1tower-air,
11:u2tower-air,
12:b0long-beach,
12:u1long-beach,
12:u2long-beach,
9:b0seattle,
9:u1seattle,
9:u2seattle,
7:b0bring,
7:u1bring,
7:u2bring,
9:b0calling,
9:u1calling,
9:u2calling,
5:b0mco,
5:u1mco,
5:u2mco,
9:b0memphis,
9:u1memphis,
9:u2memphis,
6:b0i've,
5:b0got,
6:u1i've,
6:u2i've,
10:b0somebody,
5:u1got,
5:u2got,
6:b0else,
10:u1somebody,
10:u2somebody,
6:u1else,
6:u2else,
7:b0wants,
5:u1who,
5:u2who,
7:u1wants,
7:u2wants,
11:b0charlotte,
11:u1charlotte,
11:u2charlotte,
3:b0q,
12:b0difference,
12:u1difference,
12:u2difference,
3:u1q,
3:u2q,
11:b0tennessee,
11:u1tennessee,
11:u2tennessee,
4:b0qo,
4:b0ff,
5:b0ewr,
7:b0train,
7:u1train,
7:u2train,
8:b0laying,
8:u1laying,
8:u2laying,
12:b0air-canada,
12:u1air-canada,
12:u2air-canada,
8:b0stands,
8:u1stands,
8:u2stands,
13:b0kansas-city,
13:u1kansas-city,
13:u2kansas-city,
9:b0florida,
9:u1florida,
9:u2florida,
9:b0landing,
9:u1landing,
9:u2landing,
6:b0soon,
6:u1soon,
6:u2soon,
5:b0ten,
5:u1ten,
5:u2ten,
19:b0san-diego-airport,
19:u1san-diego-airport,
19:u2san-diego-airport,
9:b0instead,
9:u1instead,
9:u2instead,
4:b0nw,
4:u1nw,
4:u2nw,
17:b0phoenix-airport,
17:u1phoenix-airport,
17:u2phoenix-airport,
6:b0uses,
6:u1uses,
6:u2uses,
5:b0lax,
5:u1lax,
5:u2lax,
9:b0numbers,
9:u1numbers,
9:u2numbers,
6:b0ohio,
6:u1ohio,
6:u2ohio,
11:b0minnesota,
11:u1minnesota,
11:u2minnesota,
15:b0new-york-city,
15:u1new-york-city,
15:u2new-york-city,
8:b0canada,
8:u1canada,
8:u2canada,
10:b0listings,
10:u1listings,
10:u2listings,
10:b0missouri,
10:u1missouri,
10:u2missouri,
6:b0utah,
6:u1utah,
6:u2utah,
6:b01222,
6:u11222,
6:u21222,
12:b0preferably,
12:u1preferably,
12:u2preferably,
8:b0497766,
8:u1497766,
8:u2497766,
7:b0810pm,
7:u1810pm,
7:u2810pm,
16:b0north-carolina,
16:u1north-carolina,
16:u2north-carolina,
6:b0runs,
6:u1runs,
6:u2runs,
5:b0505,
5:u1505,
5:u2505,
8:b0dinner,
8:b0that's,
8:u1dinner,
8:u2dinner,
8:u1that's,
8:u2that's,
8:b0eighth,
8:u1eighth,
8:u2eighth,
10:b0includes,
10:u1includes,
10:u2includes,
17:b0alaska-airlines,
17:u1alaska-airlines,
17:u2alaska-airlines,
8:b0nevada,
8:u1nevada,
8:u2nevada,
9:b0detroit,
10:b0michigan,
9:u1detroit,
9:u2detroit,
10:u1michigan,
10:u2michigan,
10:b0actually,
10:u1actually,
10:u2actually,
13:b0westchester,
13:u1westchester,
13:u2westchester,
7:b0thing,
7:u1thing,
7:u2thing,
5:b0130,
5:u1130,
5:u2130,
9:u1another,
9:u2another,
19:b0milwaukee-airport,
19:u1milwaukee-airport,
19:u2milwaukee-airport,
8:b0prefer,
8:u1prefer,
8:u2prefer,
8:b0quebec,
8:u1quebec,
8:u2quebec,
9:b0indiana,
9:u1indiana,
9:u2indiana,
10:b0reaching,
10:u1reaching,
10:u2reaching,
9:b0reaches,
9:u1reaches,
9:u2reaches,
3:b07,
3:u17,
3:u27,
11:b0following,
11:u1following,
11:u2following,
13:b0seventeenth,
13:u1seventeenth,
13:u2seventeenth,
12:b0fourteenth,
12:u1fourteenth,
12:u2fourteenth,
12:b0thirteenth,
12:u1thirteenth,
12:u2thirteenth,
6:b0date,
6:u1date,
6:u2date,
11:b0hopefully,
11:u1hopefully,
11:u2hopefully,
20:b0northwest-airlines,
20:u1northwest-airlines,
20:u2northwest-airlines,
6:b0days,
6:u1days,
6:u2days,
5:b0415,
5:u1415,
5:u2415,
9:b0arizona,
9:u1arizona,
9:u2arizona,
10:b0st.-paul,
10:u1st.-paul,
10:u2st.-paul,
11:b0northwest,
11:u1northwest,
11:u2northwest,
23:b0ontario-international,
23:u1ontario-international,
23:u2ontario-international,
9:b0friends,
9:u1friends,
9:u2friends,
14:u1twenty-sixth,
14:u2twenty-sixth,
20:b0la-guardia-airport,
20:u1la-guardia-airport,
20:u2la-guardia-airport,
4:b0la,
4:u1la,
4:u2la,
8:b0single,
8:u1single,
8:u2single,
12:b0eighteenth,
12:u1eighteenth,
12:u2eighteenth,
9:b0red-eye,
9:u1red-eye,
9:u2red-eye,
9:u1twelfth,
9:u2twelfth,
14:b0america-west,
14:u1america-west,
14:u2america-west,
11:b0southwest,
11:u1southwest,
11:u2southwest,
12:b0twenty-two,
12:u1twenty-two,
12:u2twenty-two,
5:b0six,
5:u1six,
5:u2six,
9:b0tonight,
9:u1tonight,
9:u2tonight,
7:b0visit,
7:u1visit,
7:u2visit,
6:b0them,
7:b0lives,
6:u1them,
6:u2them,
7:u1lives,
7:u2lives,
5:b0530,
5:u1530,
5:u2530,
21:b0trans-world-airline,
21:u1trans-world-airline,
21:u2trans-world-airline,
8:b01030am,
8:u11030am,
8:u21030am,
8:b01115am,
8:u11115am,
8:u21115am,
3:b09,
3:u19,
3:u29,
12:b0new-york's,
31:b0toronto-international-airport,
31:u1toronto-international-airport,
31:u2toronto-international-airport,
35:b0los-angeles-international-airport,
35:u1los-angeles-international-airport,
35:u2los-angeles-international-airport,
37:b0san-francisco-international-airport,
37:u1san-francisco-international-airport,
37:u2san-francisco-international-airport,
9:b0closest,
9:u1closest,
9:u2closest,
4:b019,
4:u119,
4:u219,
5:b0845,
5:u1845,
5:u2845,
7:b0lunch,
8:b0supper,
5:b0823,
5:u1823,
5:u2823,
6:b01024,
6:u11024,
6:u21024,
6:b01205,
6:u11205,
6:u21205,
5:b0305,
5:u1305,
5:u2305,
8:b0taking,
8:u1taking,
8:u2taking,
5:u1ewr,
5:u2ewr,
14:b09-o'clock-pm,
14:u19-o'clock-pm,
14:u29-o'clock-pm,
10:b0nonstops,
10:u1nonstops,
10:u2nonstops,
7:b0vegas,
7:u1vegas,
7:u2vegas,
10:b0sunday's,
10:u1sunday's,
10:u2sunday's,
13:b0wednesday's,
13:u1wednesday's,
13:u2wednesday's,
10:b0friday's,
10:u1friday's,
10:u2friday's,
15:u1twenty-eighth,
15:u2twenty-eighth,
17:b012-o'clock-noon,
17:u112-o'clock-noon,
17:u212-o'clock-noon,
5:b0ord,
10:b0february,
7:b0march,
10:u1february,
10:u2february,
7:u1march,
7:u2march,
19:b0northwest-airline,
19:u1northwest-airline,
19:u2northwest-airline,
5:b0iah,
5:b0hou,
12:b0love-field,
12:u1love-field,
12:u2love-field,
4:b0cp,
19:b0canadian-airlines,
9:b0choices,
9:u1choices,
9:u2choices,
7:u1718am,
7:u2718am,
12:b0dinnertime,
10:b0takeoffs,
10:u1takeoffs,
10:u2takeoffs,
10:b0landings,
10:u1landings,
10:u2landings,
5:b0off,
5:u1off,
5:u2off,
9:b0takeoff,
9:u1takeoff,
9:u2takeoff,
32:b0general-mitchell-international,
32:u1general-mitchell-international,
32:u2general-mitchell-international,
7:u1lunch,
7:u2lunch,
11:b0nationair,
11:u1nationair,
11:u2nationair,
19:u1canadian-airlines,
19:u2canadian-airlines,
33:b0canadian-airlines-international,
33:u1canadian-airlines-international,
33:u2canadian-airlines-international,
9:b0midwest,
9:b0express,
9:u1midwest,
9:u2midwest,
9:u1express,
9:u2express,
9:b0highest,
9:u1highest,
9:u2highest,
6561=0x1.0e7fbebbaeaa1p+2
6562=0x1.d2d7527ce3a4dp+0
6563=0x1.3d76ff045c90fp+1
6566=0x1.249a4f72ea5d7p+1
6567=0x1.1264e321ec1e3p+1
6569=0x1.ee5b5a3873309p+0
6570=0x1.60bf3fde75f4ep+0
6571=0x1.9cb04c09080fep-2
6572=0x1.7ab9555db14e1p+0
6573=0x1.158a1b85acc6dp+1
6574=0x1.9792fd7e0d12cp+0
6577=0x1.2b1f50786ff3bp+1
6579=0x1.1302ae5fd812fp-1
6581=0x1.ddc58dda432abp+0
6584=0x1.f0e4d9e27f7fbp-1
6589=0x1.e43f95ead3caep+0
6592=0x1.cca9cf5c1d6fcp+0
6610=0x1.90499bc102966p+0
6611=0x1.dafa594ac95d3p-5
6621=0x1.552eeb904448ap-1
6642=0x1.0e7fbebbaeaa1p+2
6643=0x1.d2d7527ce3a4dp+0
6644=0x1.3d76ff045c90fp+1
6647=0x1.249a4f72ea5d7p+1
6648=0x1.1264e321ec1e3p+1
6650=0x1.ee5b5a3873309p+0
6651=0x1.60bf3fde75f4ep+0
6652=0x1.9cb04c09080fep-2
6653=0x1.7ab9555db14e1p+0
6654=0x1.158a1b85acc6dp+1
6655=0x1.9792fd7e0d12cp+0
6658=0x1.2b1f50786ff3bp+1
6660=0x1.1302ae5fd812fp-1
6662=0x1.ddc58dda432abp+0
6665=0x1.f0e4d9e27f7fbp-1
6670=0x1.e43f95ead3caep+0
6673=0x1.cca9cf5c1d6fcp+0
6691=0x1.90499bc102966p+0
6692=0x1.dafa594ac95d3p-5
6702=0x1.552eeb904448ap-1
6723=0x1.defda87127d04p+2
13284=0x1.88e4c100f3b18p+0
13288=-0x1.a593660c80312p-7
13289=0x1.6857382f0afc6p-2
13290=0x1.0930f3295fc69p+0
13292=0x1.2b31aa37f86eep+0
13293=0x1.e65dd19284464p-1
13296=0x1.9cfc730d67f13p-2
13297=0x1.eb912421b34f5p-2
13300=0x1.54c362a95c284p+0
13302=0x1.ca45ba19a25c3p-3
13304=0x1.f02984379427p-5
13307=0x1.5dee354206cebp-2
13313=0x1.3a3e253a40ec6p+0
13316=0x1.43837f03aa04ep-1
13329=0x1.8cbaec46b4279p-2
13340=0x1.6d229a10440ep-1
13346=0x1.0d52ac8406548p-2
13365=0x1.88e4c100f3b1ap+0
13369=-0x1.a593660c80312p-7
13370=0x1.6857382f0afc6p-2
13371=0x1.0930f3295fc69p+0
13373=0x1.2b31aa37f86eep+0
13374=0x1.e65dd19284464p-1
13377=0x1.9cfc730d67f13p-2
13378=0x1.eb912421b34f5p-2
13381=0x1.54c362a95c284p+0
13383=0x1.ca45ba19a25c3p-3
13385=0x1.f02984379427p-5
13388=0x1.5dee354206cebp-2
13394=0x1.3a3e253a40ec6p+0
13397=0x1.43837f03aa04ep-1
13410=0x1.8cbaec46b4279p-2
13421=0x1.6d229a10440ep-1
13427=0x1.0d52ac8406548p-2
13446=0x1.469fbe6912b6fp+2
13465=0x1.2832ac23784ap-2
20007=0x1.bf8ed4b0f41c3p-6
20049=0x1.0107bb835d48p-2
20088=0x1.bf8ed4b0f41c3p-6
20130=0x1.0107bb835d48p-2
20169=0x1.0d57189d0a551p+3
20171=0x1.52affb360e574p+1
20173=0x1.78e1f03444ae6p+3
20184=0x1.a5462a8af682fp+1
20185=0x1.6ee4c8cbbb334p+2
20195=0x1.5ad9f967674d8p+2
20196=0x1.f7facf3e32f5cp+1
20207=0x1.e73eec8bdb9b1p+1
20214=0x1.f07fbbf286a0bp+1
20217=0x1.ed538f5a5b18p+2
20230=0x1.c8d99ee384de4p+2
20233=0x1.801e38c6a1e63p+2
20238=0x1.eabe72942b93fp+1
26730=0x1.c18e56a971274p+0
26734=-0x1.b99bd04fa743p+0
26736=0x1.2200eaa002494p+0
26738=0x1.46bb86f1e8cb4p-3
26739=0x1.3a5faa31482d9p+0
26742=0x1.e8859ca0f9e1fp-2
26746=0x1.63bc2b2bed6c8p+0
26750=-0x1.533aa8b66d894p-4
26758=0x1.505dbd6b06cc6p-2
26811=0x1.c18e56a971274p+0
26815=-0x1.b99bd04fa743p+0
26817=0x1.2200eaa002494p+0
26819=0x1.46bb86f1e8cb4p-3
26820=0x1.3a5faa31482d9p+0
26823=0x1.e8859ca0f9e1fp-2
26827=0x1.63bc2b2bed6c8p+0
26831=-0x1.533aa8b66d894p-4
26839=0x1.505dbd6b06cc6p-2
26892=0x1.911fbeff58044p+2
33453=0x1.05c08251aa035p+1
33454=0x1.b988866937334p-3
33455=0x1.2b6a8ffc0811p-1
33457=0x1.aa063c2b7e625p+0
33458=0x1.02d0b4989e4f7p+1
33459=0x1.00fd8ebf9ff96p+0
33460=0x1.c60399934a623p-1
33461=0x1.3e3bc3112f6ddp-1
33463=0x1.c4db134cda41cp-1
33465=0x1.087df4abe8e2p-2
33466=0x1.86012ebec58b6p-3
33469=0x1.79f854942b1e2p-2
33471=0x1.a8bf4697931a3p-2
33472=0x1.1ae3e6cf4e78cp-1
33473=0x1.893d69af377dep+0
33474=0x1.18dcbbadb1854p+0
33475=0x1.3dcec4a35f206p-3
33476=0x1.cae799d98f00dp+0
33479=0x1.104f8e37d3e93p+1
33481=0x1.49fe8cc2a45acp+0
33492=0x1.edaab33c15707p-3
33495=-0x1.a50ec347113c7p-1
33501=0x1.73b7eac734e3bp-1
33503=0x1.1eadb321a11ep+0
33504=0x1.b901027d9e645p+0
33507=-0x1.ea032efbedd06p-3
33508=-0x1.92ff353e252a8p-4
33509=0x1.751ee5371fc8bp-1
33517=0x1.2e93230f7e846p-1
33528=0x1.4ab15c7d4160ep-3
33534=0x1.05c08251aa035p+1
33535=0x1.b988866937334p-3
33536=0x1.2b6a8ffc0811p-1
33538=0x1.aa063c2b7e625p+0
33539=0x1.02d0b4989e4f7p+1
33540=0x1.00fd8ebf9ff96p+0
33541=0x1.c60399934a623p-1
33542=0x1.3e3bc3112f6ddp-1
33544=0x1.c4db134cda41cp-1
33546=0x1.087df4abe8e2p-2
33547=0x1.86012ebec58b6p-3
33550=0x1.79f854942b1e2p-2
33552=0x1.a8bf4697931a3p-2
33553=0x1.1ae3e6cf4e78cp-1
33554=0x1.893d69af377dep+0
33555=0x1.18dcbbadb1854p+0
33556=0x1.3dcec4a35f206p-3
33557=0x1.cae799d98f00dp+0
33560=0x1.104f8e37d3e93p+1
33562=0x1.49fe8cc2a45acp+0
33573=0x1.edaab33c15707p-3
33576=-0x1.a50ec347113c7p-1
33582=0x1.73b7eac734e3bp-1
33584=0x1.1eadb321a11ep+0
33585=0x1.b901027d9e645p+0
33588=-0x1.ea032efbedd06p-3
33589=-0x1.92ff353e252a8p-4
33590=0x1.751ee5371fc8bp-1
33598=0x1.2e93230f7e846p-1
33609=0x1.4ab15c7d4160ep-3
33615=0x1.901e93be8540cp+2
33616=0x1.b6c9e477384adp+2
33617=0x1.0da43806f5c55p+2
33619=0x1.18eef93933804p+2
33620=0x1.e6493ce189054p+1
33621=0x1.c297aab5e4417p+2
33622=0x1.3b8d92b6a11b1p+2
33623=0x1.410dff0d760f2p+2
33624=0x1.60ff754b7d2f5p+2
33626=0x1.38d01659b9ea9p+2
33627=0x1.c1b4f80a2d5ffp+2
33628=0x1.df255b13ef1cbp-5
33631=0x1.eb58780783239p+1
33632=0x1.baab008907139p+2
33634=0x1.9c05c09e6ee2cp+1
33635=0x1.ebacc7b7a5b24p+1
33636=0x1.b9fd20dd59791p+1
33637=0x1.6ea3437705389p+2
33638=0x1.d893b5b0605c6p+1
33640=0x1.a164f8f6246p+1
33642=0x1.8ac56d77b233cp+1
33643=0x1.22a1d4045a9d9p+2
33645=0x1.60594f7667b47p+2
33646=0x1.d602631cae5e1p+1
33647=0x1.b0b020aaf43c5p+2
33648=0x1.6655c02ac0f41p+0
33650=0x1.de18ea8d23faap+1
33656=0x1.3f455e8c2af51p+1
33657=0x1.1545d679dd018p+1
33658=0x1.d70115de32425p+0
33660=0x1.7a31b2f86f24bp+1
33663=0x1.d7a5de54a3821p+1
33664=0x1.72470551910d8p+2
33665=0x1.54df5d677a1c2p+1
33667=0x1.9ac8ed9336231p+1
33668=0x1.04643ce150365p+2
33686=0x1.b0288dc1a4a8cp+1
33694=0x1.c83568194c737p+1
33695=0x1.d0e6c458eead1p+1
33777=-0x1.70fa0179158cp-2
33939=-0x1.08e72650b573cp-1
33945=-0x1.02cecd4ae1197p-1
33969=-0x1.86aa7ce148d2ep-1
33981=-0x1.a10c3baa190b2p-4
34027=-0x1.4503b84b8c13ep-5
34911=-0x1.741401526badep-2
34941=-0x1.24a64e624b72fp-2
35009=-0x1.5305576e29cc7p-3
40176=0x1.6e5178a0db654p+0
40257=0x1.6e5178a0db654p+0
40338=-0x1.94e57f2b81819p+1
40419=0x1.00bd7a141259fp+3
40438=0x1.eebe0c48162c2p+1
40439=0x1.02056e7c0fd64p+3
40442=0x1.f758b47afb6aep+0
40447=0x1.37c6f12002c4cp+2
46899=0x1.94e4155409b95p+0
46901=0x1.e861b94aeee38p-4
46904=0x1.117f76750366ap-1
46905=0x1.10550fc859a66p+0
46906=0x1.35c60c97fa36ep-1
46907=0x1.3c8397759aa8dp-2
46908=0x1.af5c0c951615cp-2
46911=0x1.0ffed2b60d6fep+0
46912=0x1.3cfec56b27165p-1
46919=0x1.c5b0700ae7c4bp-3
46924=0x1.a3acef9bca99p-3
46927=0x1.ce5355dcaf77p-1
46928=-0x1.f77b6f196b0fap-10
46935=0x1.4c71b1e5f80c8p-1
46936=0x1.2bbd40a16ff94p-2
46940=0x1.959fc62d27a78p-2
46944=0x1.f79ff7ee71c6p-6
46950=0x1.a54100598b926p-1
46955=0x1.9be5190978ab2p-1
46959=0x1.e1c9eb7264a11p-2
46970=0x1.7f1f8e197daddp-2
46979=0x1.4b9cbebf2f1aep-1
46980=0x1.94e4155409b95p+0
46982=0x1.e861b94aeee38p-4
46985=0x1.117f76750366ap-1
46986=0x1.10550fc859a66p+0
46987=0x1.35c60c97fa36ep-1
46988=0x1.3c8397759aa8dp-2
46989=0x1.af5c0c951615cp-2
46992=0x1.0ffed2b60d6fep+0
46993=0x1.3cfec56b27165p-1
47000=0x1.c5b0700ae7c4bp-3
47005=0x1.a3acef9bca99p-3
47008=0x1.ce5355dcaf77p-1
47009=-0x1.f77b6f196b0fap-10
47016=0x1.4c71b1e5f80c8p-1
47017=0x1.2bbd40a16ff94p-2
47021=0x1.959fc62d27a78p-2
47025=0x1.f79ff7ee71c6p-6
47031=0x1.a54100598b926p-1
47036=0x1.9be5190978ab2p-1
47040=0x1.e1c9eb7264a11p-2
47051=0x1.7f1f8e197daddp-2
47060=0x1.4b9cbebf2f1aep-1
47061=0x1.a4b2ea8f81a7cp+2
47062=0x1.199e2f5990c38p+0
47066=0x1.aaab1042a6ec4p+0
47069=0x1.23d44b00cf8bp+2
47071=0x1.161e702032bfbp+2
47074=0x1.6c8fe6fd09fc8p+2
47090=0x1.e9ab84c8cc8f1p+2
47094=0x1.bf3d7ef802562p+0
47102=0x1.48e36040f5542p+2
47112=0x1.2c849a1355d56p+2
53622=0x1.24f193c2b9a52p+0
53703=0x1.24f193c2b9a52p+0
53784=0x1.f78e7184d29eap+2
53786=0x1.7422af6eb4e0dp+3
53787=0x1.9bef71641ff09p+2
53800=0x1.20b5aa5afed1dp+2
53806=0x1.309be0542e8aap+3
53835=0x1.1c0f0c4dfe9e2p+2
53844=0x1.e0e64826a1494p+2
60345=0x1.2fed7a5a9c17fp+0
60347=0x1.47bbe071e5467p+0
60348=0x1.00b4fd35d2b42p-3
60353=0x1.919c59a14e363p-1
60356=0x1.4361b55b7fd1ap-9
60357=0x1.3721f41ca8c6cp-3
60363=0x1.dea44bedc290ap-6
60366=0x1.d319dad7f7a04p-3
60367=0x1.0ba7e287c9592p-1
60374=0x1.e9cabd6139e6fp+0
60393=0x1.59e8a561875edp+0
60400=-0x1.19cbf0700775fp-7
60405=0x1.e9807ba548b2p-7
60426=0x1.2fed7a5a9c17fp+0
60428=0x1.47bbe071e5467p+0
60429=0x1.00b4fd35d2b42p-3
60434=0x1.919c59a14e363p-1
60437=0x1.4361b55b7fd1ap-9
60438=0x1.3721f41ca8c6cp-3
60444=0x1.dea44bedc290ap-6
60447=0x1.d319dad7f7a04p-3
60448=0x1.0ba7e287c9592p-1
60455=0x1.e9cabd6139e6fp+0
60474=0x1.59e8a561875edp+0
60481=-0x1.19cbf0700775fp-7
60486=0x1.e9807ba548b2p-7
60669=0x1.df8cc4e7db18ap+1
60672=0x1.5eeb7d5421f79p+2
60679=0x1.a7c01b65af1cbp+0
60687=0x1.66c6f20dd50afp+0
60831=0x1.0fd8a2b3c117cp+1
60852=0x1.04614a28f255bp+0
60859=0x1.d9c09f553b34bp+0
60895=0x1.d3da847fd736fp+2
61792=0x1.41dbb8412c097p+2
61847=0x1.f081d4e7cd8e8p+2
62613=0x1.4114fa9023105p+1
67068=0x1.bbc17cd3b7974p+0
67070=0x1.e7ec3c4a04313p-1
67071=0x1.fe5574c0ac6a2p-1
67076=0x1.71adba40bc83bp-1
67082=0x1.38344724ecff7p+1
67086=0x1.36ad97aefc605p+0
67090=0x1.18216f36d80cbp+1
67100=0x1.c221ccda43819p-1
67101=-0x1.01537bd49bd05p-4
67110=0x1.b06578911eb4p-1
67119=0x1.06c95d9614368p+0
67123=0x1.74fc3a6558f76p-1
67124=0x1.65d8a9f151294p+0
67149=0x1.bbc17cd3b7974p+0
67151=0x1.e7ec3c4a04313p-1
67152=0x1.fe5574c0ac6a2p-1
67157=0x1.71adba40bc83bp-1
67163=0x1.38344724ecff7p+1
67167=0x1.36ad97aefc605p+0
67171=0x1.18216f36d80cbp+1
67181=0x1.c221ccda43819p-1
67182=-0x1.01537bd49bd05p-4
67191=0x1.b06578911eb4p-1
67200=0x1.06c95d9614368p+0
67204=0x1.74fc3a6558f76p-1
67205=0x1.65d8a9f151294p+0
67392=-0x1.192bb08beeefcp+1
67473=0x1.b7c957820244cp+2
67475=0x1.a082208ab8aedp+2
67483=0x1.bf440e0324354p+0
67554=-0x1.bc6af59eb6c1fp+1
72414=0x1.577cae1c2baf6p+2
72418=0x1.eb3f88261a28p-1
72419=0x1.c6e9eadc94491p+1
72424=0x1.28a15973a52ccp-2
72435=0x1.95e570a36468p-1
72437=0x1.56de3925c4beep+1
72900=0x1.42c8f7be45141p+1
73791=0x1.56d50ff52ae23p-2
73795=0x1.a641a1a49a6a6p+0
73796=0x1.2325efe5a260cp-1
73806=0x1.e77a34e271ad2p-2
73808=0x1.d849e9e1f3122p-2
73812=0x1.b2c340b64c17cp-2
73814=0x1.1b2684ac65a4bp-1
73818=0x1.dfc5525118ce5p-1
73872=0x1.56d50ff52ae23p-2
73876=0x1.a641a1a49a6a6p+0
73877=0x1.2325efe5a260cp-1
73887=0x1.e77a34e271ad2p-2
73889=0x1.d849e9e1f3122p-2
73893=0x1.b2c340b64c17cp-2
73895=0x1.1b2684ac65a4bp-1
73899=0x1.dfc5525118ce5p-1
73953=0x1.a08f985dc7d96p-2
73955=0x1.f8aca4f29aa49p-4
73957=0x1.4a4fea8034c0bp-3
73958=0x1.26c53334abe5cp-1
73961=0x1.121a47a92e7a2p-5
73964=0x1.9ed2b4389398cp-1
73967=0x1.7dd0dfda0f135p+0
73968=-0x1.f6a9f3b6a24a5p-2
73971=0x1.6495b7d8ead18p-2
73979=0x1.210ee2b4a1a03p+0
74034=0x1.a08f985dc7d96p-2
74036=0x1.f8aca4f29aa49p-4
74038=0x1.4a4fea8034c0bp-3
74039=0x1.26c53334abe5cp-1
74042=0x1.121a47a92e7a2p-5
74045=0x1.9ed2b4389398cp-1
74048=0x1.7dd0dfda0f135p+0
74049=-0x1.f6a9f3b6a24a5p-2
74052=0x1.6495b7d8ead18p-2
74060=0x1.210ee2b4a1a03p+0
74115=0x1.d6a7330733a68p+2
80676=0x1.8fec437e8cf3ep+0
87237=0x1.fcd46ca45212dp-1
87253=0x1.fa1ce2d31981fp-3
87318=0x1.fcd46ca45212dp-1
87334=0x1.fa1ce2d31981fp-3
87561=-0x1.f40aed6db6e39p-3
87723=0x1.817274c2c5831p+2
87725=0x1.f44dbbfd8cdf7p+1
87733=0x1.656694716bfa7p-1
87744=0x1.f5500fad3fefp-1
87885=0x1.6774da5b1f298p+1
87887=0x1.e0bd1b2ec81acp-3
87889=0x1.442852f139009p-3
87890=0x1.16956f5774b32p-1
87892=-0x1.07d305c7cd8d6p+0
87905=0x1.46409be789ebfp+1
87913=0x1.8f84071422d9ep+0
87927=0x1.5a55ae2db990bp+1
88776=0x1.0c991d0c35b42p+2
88857=0x1.c0069412ffea7p+1
88924=0x1.0ff84af74effdp+2
94122=0x1.83632bc80ea8fp-2
94125=0x1.81c3441adf69bp-1
94126=0x1.17823e3864c4p+0
94127=-0x1.8990721a2d06dp-4
94128=0x1.a6318b3a779cdp-2
94130=0x1.fc3de9724b535p-2
94138=0x1.7e7feb4e5425cp-6
94140=0x1.719156cf8f2afp-6
94143=0x1.2efb57438ffb4p-2
94145=0x1.e147467bdecc6p-1
94161=-0x1.21fe23f102913p-4
94177=-0x1.c1244bd00a6edp-2
94203=0x1.83632bc80ea8fp-2
94206=0x1.81c3441adf69bp-1
94207=0x1.17823e3864c4p+0
94208=-0x1.8990721a2d06dp-4
94209=0x1.a6318b3a779cdp-2
94211=0x1.fc3de9724b535p-2
94219=0x1.7e7feb4e5425cp-6
94221=0x1.719156cf8f2afp-6
94224=0x1.2efb57438ffb4p-2
94226=0x1.e147467bdecc6p-1
94242=-0x1.21fe23f102913p-4
94258=-0x1.c1244bd00a6edp-2
94284=0x1.1b6eab0c40b04p+3
94290=0x1.4e3c6c5802ec1p+1
100845=0x1.3ee8b30905d05p+2
107406=0x1.2688ba0ce535fp+1
107411=0x1.1eecada8361f7p-1
107418=0x1.8c7025327c9bp-1
107449=0x1.25fb7c30b5862p+0
107487=0x1.2688ba0ce535fp+1
107492=0x1.1eecada8361f7p-1
107499=0x1.8c7025327c9bp-1
107530=0x1.25fb7c30b5862p+0
107568=0x1.1edb2324a216p+1
107580=0x1.3d8927c59389ap+0
114129=0x1.79a347c74b59cp-1
114152=0x1.1b9e4379ebd9fp+0
114210=0x1.79a347c74b59cp-1
114233=0x1.1b9e4379ebd9fp+0
114291=0x1.d0c40036a8ffp+0
114292=0x1.d55077714a0c8p-8
114295=-0x1.200de86a84c64p+0
114303=0x1.addcb22a2cb61p-1
114322=0x1.053cfbd150b29p-1
114372=0x1.d0c40036a8ffp+0
114373=0x1.d55077714a0c8p-8
114376=-0x1.200de86a84c64p+0
114384=0x1.addcb22a2cb61p-1
114403=0x1.053cfbd150b29p-1
114453=0x1.7f8fbebadc425p+2
114777=-0x1.bf8113ea35e0ap-1
121014=0x1.be74b31a41624p-4
121018=0x1.41f1165730d4p-10
121022=0x1.fe6535ea6d684p-2
121095=0x1.be74b31a41624p-4
121099=0x1.41f1165730d4p-10
121103=0x1.fe6535ea6d684p-2
121176=-0x1.05eae637eb09cp+1
121186=-0x1.42283a2b406fep-3
121338=0x1.1cd7d7fb8c018p+2
121340=0x1.14047bf2e6051p+2
121348=0x1.3532fc7cf816bp-1
121352=0x1.b4c2af97fae61p+0
121500=0x1.41b6e3df2a21ep+1
121502=0x1.a1157f2893a18p+0
121504=-0x1.e06b31e85e0abp-3
121505=0x1.90bdd13a2a1bep+0
121506=0x1.a22b0e70a60fap-1
121510=0x1.67e64d232cd51p-2
121512=0x1.55eb223d5515cp+0
121518=0x1.2539ca678d34ap-2
121520=0x1.576f645103536p+0
121523=0x1.32ea632394dcep-1
121526=-0x1.a56b9b4acf0cap-4
121528=0x1.a09f9522a327ep-2
121542=0x1.44cf79b29fd02p-1
121549=0x1.0fc65e72bc0cp+1
121550=0x1.fbfa4f626bc6dp-1
121551=-0x1.91429aa330aa7p-3
121556=0x1.d4c88465de02dp+0
122391=0x1.e5fdb301dbd5bp-5
122503=0x1.dd9f097985e8ep+1
127737=0x1.8b6b9d04e1191p+2
127739=0x1.1c69fc1b77d74p+0
127741=0x1.bb64e0b013b28p-1
127742=0x1.264976cc511cp+3
127743=0x1.f40968d5d0c75p-1
127744=0x1.8f87a3a47d01dp+1
127745=0x1.07905c8ec2dffp+3
127748=0x1.3a88c05783744p+1
127749=0x1.98801748568dap+1
127750=0x1.5413b495b78a3p+2
127754=0x1.a9f9fd71e8f81p+1
127755=0x1.8b1a6881cd675p+2
127758=0x1.7832e21b8a41dp+0
127759=0x1.ddd5dc3b7b59p+0
127764=0x1.6c5465f3904dcp+0
127765=0x1.ca2826a49b96bp+1
127776=0x1.1df59ddbf57c7p+2
127783=0x1.01d9811a2a504p+1
127792=0x1.bd665fc27083p+2
127793=0x1.a9fe27f4a8d12p+0
127806=0x1.27c323ac0f14bp+2
127810=0x1.9b4705afcd9ecp+1
134298=0x1.e8d25825e1edp-3
134302=0x1.bb8655e35f503p-1
134303=0x1.434d5ba3b912ep-3
134306=0x1.c0dc3e81ee8fbp-2
134308=-0x1.83efb443c653p-4
134309=0x1.d834271ab3dap-2
134315=0x1.e1be57444d81bp-2
134317=0x1.18562a578fc59p+0
134318=0x1.9efdceeea4debp+0
134320=-0x1.085a21c36ff8p-2
134325=0x1.efdb459cfe6b9p-2
134326=0x1.0b49282e0ae9p+0
134331=0x1.08d9322c264a8p+0
134337=-0x1.d1a2d59e19a68p-2
134340=0x1.4f95116dfe39fp-3
134349=0x1.f3dad95ff26cbp-3
134353=-0x1.064a6461b763fp-2
134367=0x1.062aa72569988p-2
134379=0x1.e8d25825e1edp-3
134383=0x1.bb8655e35f503p-1
134384=0x1.434d5ba3b912ep-3
134387=0x1.c0dc3e81ee8fbp-2
134389=-0x1.83efb443c653p-4
134390=0x1.d834271ab3dap-2
134396=0x1.e1be57444d81bp-2
134398=0x1.18562a578fc59p+0
134399=0x1.9efdceeea4debp+0
134401=-0x1.085a21c36ff8p-2
134406=0x1.efdb459cfe6b9p-2
134407=0x1.0b49282e0ae9p+0
134412=0x1.08d9322c264a8p+0
134418=-0x1.d1a2d59e19a68p-2
134421=0x1.4f95116dfe39fp-3
134430=0x1.f3dad95ff26cbp-3
134434=-0x1.064a6461b763fp-2
134448=0x1.062aa72569988p-2
134460=-0x1.ad2f2957d3d56p-1
134865=0x1.431e300c193fep+2
134870=0x1.d913b46a0565cp+0
134871=0x1.de5b719595ec2p+2
134872=0x1.16fe72c5d8a11p+0
134873=0x1.ae8df8de82df8p+1
134875=0x1.f4a5372526deap+1
134883=0x1.8098a0d7f763dp+1
134898=0x1.729ddab5ba249p+1
134921=0x1.d1f6adb56338cp+1
135108=-0x1.5d7e24df91624p-6
138915=0x1.38b4ea9217a68p+1
138945=0x1.e23fcc08c76a2p+2
138954=0x1.230fd42f08a4ap+2
138957=0x1.42be9da037c66p+2
140124=0x1.604345da9e414p+1
141021=0x1.4a4be995d5c3ap+0
141023=0x1.cd4b7c9e929cp-6
141026=0x1.d3f310cfbda1ep+0
141027=0x1.d33cf72ba54b7p-1
141028=0x1.476cb386062d2p+0
141031=0x1.5560de0aa8094p-1
141033=0x1.0774df910e1c6p-3
141034=0x1.367793e90052ap-2
141038=0x1.bee508620fab5p+0
141039=0x1.115d3399db4a8p-1
141041=0x1.2288f7ec8173dp-1
141046=0x1.a3927fd7c88c2p-1
141049=0x1.4505419313e59p-3
141050=0x1.8218e5180b4e8p-2
141051=0x1.8ca7f819e401bp-1
141056=0x1.5d9d326c34219p+0
141060=0x1.22a0244b53d1dp+0
141061=0x1.6fe3b9804285p+0
141062=-0x1.6b91e05a6dcaap-3
141063=0x1.a72f31b0dd501p-1
141068=0x1.2e953f15944efp-1
141076=0x1.ad88bd788c702p+0
141077=0x1.ca92993c257cfp-1
141102=0x1.4a4be995d5c3ap+0
141104=0x1.cd4b7c9e929cp-6
141107=0x1.d3f310cfbda1ep+0
141108=0x1.d33cf72ba54b7p-1
141109=0x1.476cb386062d2p+0
141112=0x1.5560de0aa8094p-1
141114=0x1.0774df910e1c6p-3
141115=0x1.367793e90052ap-2
141119=0x1.bee508620fab5p+0
141120=0x1.115d3399db4a8p-1
141122=0x1.2288f7ec8173dp-1
141127=0x1.a3927fd7c88c2p-1
141130=0x1.4505419313e59p-3
141131=0x1.8218e5180b4e8p-2
141132=0x1.8ca7f819e401bp-1
141137=0x1.5d9d326c34219p+0
141141=0x1.22a0244b53d1dp+0
141142=0x1.6fe3b9804285p+0
141143=-0x1.6b91e05a6dcaap-3
141144=0x1.a72f31b0dd501p-1
141149=0x1.2e953f15944efp-1
141157=0x1.ad88bd788c702p+0
141158=0x1.ca92993c257cfp-1
141183=-0x1.2f589ca89aca4p+1
141669=0x1.1faaed7eb7758p+2
141674=0x1.098f57670d515p+1
141676=0x1.cecc5609fd1f2p-2
141678=0x1.65324e8b2b873p+0
141687=0x1.c4895d0e29854p-1
141720=0x1.1b09bbfe246c3p+2
141725=0x1.41965c4326d51p+1
143613=0x1.3d765e04cb7e9p+2
144018=0x1.3b9ecb3803266p+1
147663=0x1.395187d068a9dp+1
147744=0x1.9b0e77e1fa322p-3
147748=-0x1.471a08064ed1dp-1
147749=0x1.47b28bce90ec4p+0
147750=0x1.7557434ddd469p-3
147752=0x1.f12f442eae29ap-2
147754=0x1.14449ccd78128p-3
147761=0x1.95e4dbd7747e6p+0
147767=0x1.16bfb2cbbcd15p-2
147771=0x1.23a534ab238f9p-1
147777=0x1.24a3125f058cp-4
147784=0x1.d121c2b6c7ce7p-1
147786=-0x1.2c5d1f03b021p-1
147789=0x1.dffc87fa15a87p-1
147820=0x1.3a21b16488e36p+0
147822=0x1.063045bc0811cp+0
147825=0x1.9b0e77e1fa322p-3
147829=-0x1.471a08064ed1dp-1
147830=0x1.47b28bce90ec4p+0
147831=0x1.7557434ddd469p-3
147833=0x1.f12f442eae29ap-2
147835=0x1.14449ccd78128p-3
147842=0x1.95e4dbd7747e6p+0
147848=0x1.16bfb2cbbcd15p-2
147852=0x1.23a534ab238f9p-1
147858=0x1.24a3125f058cp-4
147865=0x1.d121c2b6c7ce7p-1
147867=-0x1.2c5d1f03b021p-1
147870=0x1.dffc87fa15a87p-1
147901=0x1.3a21b16488e36p+0
147903=0x1.063045bc0811cp+0
147906=0x1.46ff00b3b5613p-2
147910=0x1.edb01d2250c98p-2
147911=0x1.cf46986236bcfp-5
147922=-0x1.8d9a1d69aedbbp-6
147923=0x1.c363d4102e902p-4
147952=0x1.70d95a7146c96p+0
147987=0x1.46ff00b3b5613p-2
147991=0x1.edb01d2250c98p-2
147992=0x1.cf46986236bcfp-5
148003=-0x1.8d9a1d69aedbbp-6
148004=0x1.c363d4102e902p-4
148033=0x1.70d95a7146c96p+0
148068=0x1.cbfdafe6c21a9p+2
154629=0x1.e0765bc1be698p+2
161352=0x1.117d4d6052e0bp+1
161403=0x1.75361bf523738p-2
161433=0x1.117d4d6052e0bp+1
161484=0x1.75361bf523738p-2
161514=0x1.408d7ca4b6e93p+1
161534=0x1.3c3d3b5d451afp+0
168075=0x1.ffdb7ebd34eb9p-1
168080=0x1.fc2c5aac3a4cp-3
168124=0x1.2d7437f1488aep-2
168642=0x1.24d3c8957bcap+3
168647=0x1.71f1af380a376p+3
169047=0x1.a63011e1bfeb6p+1
172504=0x1.5a3e32701f2c2p+3
173826=0x1.42622a4e10c8cp+2
174638=-0x1.817a0de4ab816p-8
174658=0x1.febb9162e1442p-3
174719=-0x1.817a0de4ab816p-8
174739=0x1.febb9162e1442p-3
174798=0x1.314b18d1dc9dbp+0
174804=-0x1.c01d402503936p-4
174831=0x1.b2b0b20e3c281p-1
174879=0x1.314b18d1dc9dbp+0
174885=-0x1.c01d402503936p-4
174912=0x1.b2b0b20e3c281p-1
174960=0x1.0cd5dc5ee0d1fp+2
174962=0x1.9557f6e7aa6c5p+1
174968=0x1.449138d458eb9p+1
174973=0x1.72d377f8e0257p-1
174981=0x1.44748b3013dffp+1
174983=0x1.a6b90de3f9ec7p+0
174985=0x1.531f42df3ca28p+1
175284=-0x1.8cdb8388393eep+0
175297=-0x1.0e5d5d832a266p-2
182169=0x1.736f2ea7b9babp+2
188082=0x1.b5909e8048d12p-4
188084=0x1.9ea756a95057bp-3
188090=0x1.ac60c7dac7d49p-2
188125=0x1.959971b65b73ep-1
188130=0x1.56a9de1660ddp-6
188163=0x1.b5909e8048d12p-4
188165=0x1.9ea756a95057bp-3
188171=0x1.ac60c7dac7d49p-2
188206=0x1.959971b65b73ep-1
188211=0x1.56a9de1660ddp-6
188244=0x1.00247633ee65bp+2
188246=0x1.a6717d118510dp+2
188266=0x1.2b53791a04f6p+2
188302=0x1.c27d2a78f673dp+2
188304=0x1.22434bfefc8acp+2
188309=0x1.b38908748e91bp+2
194967=-0x1.5c94b95819cbap+1
194971=0x1.62e751b026035p+0
195129=0x1.812265eddbde8p+2
195131=0x1.84fc174852117p+2
195132=0x1.66373a5337ef1p+1
195139=0x1.18a2b414a04b8p+0
195171=0x1.6622c62e7102bp+1
195180=0x1.72555d40a5c04p+2
195291=0x1.811a2ec9ac1ddp+1
195295=0x1.3ae122c5b1bf3p+1
195296=0x1.17816745b0b55p+1
195301=0x1.2b156bb3e324p+1
195314=0x1.160372a42a032p+0
195317=-0x1.754f2d415ed26p-2
195321=0x1.b182f2de5e24fp+0
195339=0x1.14c2847450fc5p+1
195342=0x1.d605fb733b8e3p+0
196263=0x1.7f9f6778dbd24p+1
201528=0x1.e5bf19c2457d4p+0
201542=0x1.acdf76d533671p-1
201550=0x1.a956145c08375p+0
201609=0x1.e5bf19c2457d4p+0
201623=0x1.acdf76d533671p-1
201631=0x1.a956145c08375p+0
201690=0x1.b1e8508644b89p+2
201692=0x1.1aaeafd7632eep+2
201694=0x1.de2ce93cf90e9p+2
201695=0x1.567f2df0608eap+2
201698=0x1.145b90b052775p+2
201699=0x1.9482a31b992ebp+1
201700=0x1.0069c054870fep+2
201703=0x1.1034cee6df80bp+1
201706=0x1.7a04ca199aa3fp+1
201707=0x1.c0797f218fa2ap+0
201710=0x1.afe19fb5892dap+1
201718=0x1.3fe82d85f8ea2p+1
201720=0x1.c690014fd7047p+0
201723=0x1.4ad54da72855dp+2
201732=0x1.e5369ab560c3bp+0
201743=0x1.c8764ca6712dp+1
201749=0x1.6e94084519623p+2
201751=0x1.ec6365c9ec4cfp+1
201754=0x1.4c024790ab79dp+1
201756=0x1.63347276be5ddp+2
208251=0x1.40866310b67bp-1
208253=0x1.731480c041cfap-2
208255=0x1.aceb07c93e0f5p+0
208256=0x1.c2c3e62fc627ap-2
208259=-0x1.ff78c5b5e91e1p-4
208262=0x1.3bdef177af52ap+0
208266=0x1.61aec22b4bbf9p-2
208268=0x1.0211c5e9f04e2p+0
208270=-0x1.840640b842384p-7
208278=0x1.c861da826879cp-1
208279=0x1.0367802fb096bp-1
208280=0x1.b819ef35051e8p-6
208290=0x1.d15bf22b995bp-3
208299=0x1.070494621a944p-2
208307=-0x1.60d1307f4f036p+0
208312=0x1.1a0ccf0349147p+0
208315=0x1.29db803c0de93p+0
208332=0x1.40866310b67bp-1
208334=0x1.731480c041cfap-2
208336=0x1.aceb07c93e0f5p+0
208337=0x1.c2c3e62fc627ap-2
208340=-0x1.ff78c5b5e91e1p-4
208343=0x1.3bdef177af52ap+0
208347=0x1.61aec22b4bbf9p-2
208349=0x1.0211c5e9f04e2p+0
208351=-0x1.840640b842384p-7
208359=0x1.c861da826879cp-1
208360=0x1.0367802fb096bp-1
208361=0x1.b819ef35051e8p-6
208371=0x1.d15bf22b995bp-3
208380=0x1.070494621a944p-2
208388=-0x1.60d1307f4f036p+0
208393=0x1.1a0ccf0349147p+0
208396=0x1.29db803c0de93p+0
208413=0x1.a529f331fe01cp+2
208456=0x1.38ca9391cd1dep-1
214974=0x1.e5903303c0674p+1
221535=0x1.fe25c76fdf624p-1
221541=0x1.3acf15990d0c7p-1
221543=0x1.ef94061f1e2d4p-2
221616=0x1.fe25c76fdf624p-1
221622=0x1.3acf15990d0c7p-1
221624=0x1.ef94061f1e2d4p-2
221697=0x1.35e7780729f32p+2
221699=0x1.4aba79143aff4p-1
221702=0x1.0e40de1fe81f3p+0
221703=0x1.19ce54c3f8043p+1
221705=0x1.7c14aec561964p+0
221706=0x1.a0939ed09f228p+0
221713=0x1.1ae49979afcc2p+0
221716=0x1.82c326239ddc9p-1
221717=0x1.32034da09d155p+1
221730=-0x1.c74584a80a057p-2
221732=0x1.fb0635f9fe6f9p-1
221742=0x1.60e039d42790ap-1
228258=0x1.632a54fda86b4p+0
228339=0x1.632a54fda86b4p+0
228420=0x1.3cdf9139a0c07p+0
228422=0x1.fb7a95e6b91dcp-3
228425=0x1.87179e732fbe1p-1
228426=0x1.126c6b6eb192fp-4
228428=0x1.391de3febb437p-1
228429=0x1.7f13927bd1039p-1
228432=0x1.48a134f40f73cp-2
228436=0x1.716e4087ef644p-2
228437=-0x1.c71ea5108c99bp-2
228440=0x1.731b224842ea4p-1
228443=0x1.efc7ecfcab1b2p-3
228450=-0x1.794df72640d9cp-1
228452=-0x1.610fa3ed60e68p-2
228469=-0x1.e8f96df61b19p-3
228470=0x1.2c57f7843bbdep-1
228473=0x1.258b34d6f9b2dp-1
228501=0x1.3cdf9139a0c07p+0
228503=0x1.fb7a95e6b91dcp-3
228506=0x1.87179e732fbe1p-1
228507=0x1.126c6b6eb192fp-4
228509=0x1.391de3febb437p-1
228510=0x1.7f13927bd1039p-1
228513=0x1.48a134f40f73cp-2
228517=0x1.716e4087ef644p-2
228518=-0x1.c71ea5108c99bp-2
228521=0x1.731b224842ea4p-1
228524=0x1.efc7ecfcab1b2p-3
228531=-0x1.794df72640d9cp-1
228533=-0x1.610fa3ed60e68p-2
228550=-0x1.e8f96df61b19p-3
228551=0x1.2c57f7843bbdep-1
228554=0x1.258b34d6f9b2dp-1
228582=0x1.b65c055e9948ap+2
228584=0x1.d58081d0d56abp+1
228586=0x1.fdc8dee3b9697p+1
228587=0x1.315ce6477c84cp+1
228589=0x1.cfb16fb5e65b2p+0
228590=0x1.383e2f3ba1a88p+1
228592=0x1.a6ed55eae117bp+1
228594=0x1.3b5fe18cb7e62p+2
228602=0x1.28908b778dfbp+1
228633=0x1.a5b282d1266bep+1
228645=0x1.e5471291f5b86p+0
235143=0x1.1de2add6061ep+0
235145=0x1.7cbc0595a84c8p+0
235147=0x1.c5fdcc6ffb75dp-3
235148=-0x1.03d6749accf62p-5
235149=0x1.2acaadb868d18p+0
235151=0x1.1570fb8845b2p+0
235152=0x1.11830d8250a89p+0
235154=0x1.eda8c4e0433ecp-3
235162=0x1.7f5c07315f1fcp-5
235165=0x1.464137152aee8p+0
235191=0x1.0d6dda4862b17p+0
235198=0x1.248fa3d2834c4p+0
235203=0x1.2535df1e9c341p+0
235224=0x1.1de2add6061ep+0
235226=0x1.7cbc0595a84c8p+0
235228=0x1.c5fdcc6ffb75dp-3
235229=-0x1.03d6749accf62p-5
235230=0x1.2acaadb868d18p+0
235232=0x1.1570fb8845b2p+0
235233=0x1.11830d8250a89p+0
235235=0x1.eda8c4e0433ecp-3
235243=0x1.7f5c07315f1fcp-5
235246=0x1.464137152aee8p+0
235272=0x1.0d6dda4862b17p+0
235279=0x1.248fa3d2834c4p+0
235284=0x1.2535df1e9c341p+0
235305=-0x1.0e7105a8b05b1p+0
235467=0x1.64cf40f3ade5ep+2
235477=0x1.49e5d1fe55e6ap+1
235523=0x1.38171954038e7p+1
235629=0x1.c4bac7e403213p+1
235630=0x1.7dff782fea70bp+1
235634=0x1.1ae2879632d02p+1
235635=0x1.8e2f8531cff76p+0
235636=0x1.0802826382768p+1
235652=0x1.93e10a49d1704p+0
235656=0x1.83e2b731bfb5p+0
235671=0x1.30045a0705911p+0
235684=0x1.a3a96425e8d38p+1
235685=0x1.0f966f7c5b80ap-1
236601=0x1.0f69e2043cc06p-2
241866=0x1.5367fecd887fp+0
241868=-0x1.67d751719be49p-5
241870=0x1.664d1088b27b7p-1
241872=0x1.79a11c51daa71p-2
241874=0x1.1ecce1ff22391p-4
241878=0x1.0dac4dcbd0f9dp-1
241882=0x1.5c18b3a595aedp-3
241886=0x1.12a0086122c46p-5
241888=0x1.d569c93adb041p-4
241889=0x1.0b6b0af6a79e1p+0
241892=0x1.2f48fb4e9076dp+0
241893=0x1.8873fa7f4f5c2p-1
241894=0x1.bd739d684604p-12
241895=0x1.c1ecc68921c2ap-4
241899=0x1.3b800c2855eddp-1
241907=0x1.6a4d74b55fd0ep-3
241908=0x1.2ab9f0ad1c877p-2
241909=0x1.3019ffd58715dp-3
241930=-0x1.207902fd2c2dfp-2
241937=0x1.0570e8ff6f4fbp-1
241947=0x1.5367fecd887fp+0
241949=-0x1.67d751719be49p-5
241951=0x1.664d1088b27b7p-1
241953=0x1.79a11c51daa71p-2
241955=0x1.1ecce1ff22391p-4
241959=0x1.0dac4dcbd0f9dp-1
241963=0x1.5c18b3a595aedp-3
241967=0x1.12a0086122c46p-5
241969=0x1.d569c93adb041p-4
241970=0x1.0b6b0af6a79e1p+0
241973=0x1.2f48fb4e9076dp+0
241974=0x1.8873fa7f4f5c2p-1
241975=0x1.bd739d684604p-12
241976=0x1.c1ecc68921c2ap-4
241980=0x1.3b800c2855eddp-1
241988=0x1.6a4d74b55fd0ep-3
241989=0x1.2ab9f0ad1c877p-2
241990=0x1.3019ffd58715dp-3
242011=-0x1.207902fd2c2dfp-2
242018=0x1.0570e8ff6f4fbp-1
242028=0x1.6035661bf6ab4p-1
242030=0x1.6313da08cdca8p-2
242032=0x1.5e437e379d25ap+0
242033=0x1.edce600c3de2ap-3
242035=0x1.b85da7f2f76a6p-1
242037=0x1.f4108590a9e3fp-1
242046=0x1.21f7f320a54b6p-5
242055=0x1.9570884d86deap-2
242066=0x1.9d43397249437p-2
242070=0x1.b06d025038d52p-3
242097=0x1.5d2cc2efab2f2p-1
242109=0x1.6035661bf6ab4p-1
242111=0x1.6313da08cdca8p-2
242113=0x1.5e437e379d25ap+0
242114=0x1.edce600c3de2ap-3
242116=0x1.b85da7f2f76a6p-1
242118=0x1.f4108590a9e3fp-1
242127=0x1.21f7f320a54b6p-5
242136=0x1.9570884d86deap-2
242147=0x1.9d43397249437p-2
242151=0x1.b06d025038d52p-3
242178=0x1.5d2cc2efab2f2p-1
242190=0x1.d8f633e14f6e8p+1
242221=0x1.2826f60f78787p-4
248751=0x1.ad24ec8631706p-2
248770=0x1.6fe8f442a9d9bp-1
248832=0x1.ad24ec8631706p-2
248851=0x1.6fe8f442a9d9bp-1
248913=0x1.c3827fea6d158p+2
248921=0x1.59f85116e258ap-2
248923=0x1.bbcac5aba6c6cp+0
248933=0x1.6ff8cea3fe397p+1
255474=0x1.4614d457afe77p+0
255476=0x1.956e27ba89247p-4
255501=-0x1.6c9b5e5407bf2p-10
255512=0x1.ed0fea994036p+0
255527=0x1.84fd44160603ap+0
255555=0x1.4614d457afe77p+0
255557=0x1.956e27ba89247p-4
255582=-0x1.6c9b5e5407bf2p-10
255593=0x1.ed0fea994036p+0
255608=0x1.84fd44160603ap+0
255636=-0x1.a3fb90bce90ebp-1
255669=-0x1.3f0c08705ccb1p-6
255798=0x1.5fec0c8c22064p+2
255816=0x1.6d6ea3c74f651p+0
255831=0x1.e8912bb6c6e39p+1
255960=0x1.247d4c85d31d2p+1
255961=0x1.0df9d07b22a39p-2
255966=0x1.453ba518ca656p+0
255970=0x1.110a1c7ab2327p-1
255980=0x1.1cf2e2430d71p-1
255983=-0x1.1fbd1d5b9b4c3p-3
255986=0x1.419807f48b784p+0
256002=0x1.ab14a51db3dfcp+1
256011=0x1.26b7a31d256cfp+0
256861=0x1.08a2ce91d7dd7p+1
256893=-0x1.b856507f8bd52p-1
256932=0x1.4c4afeeffafa2p+1
262197=0x1.3d59e4876c59dp-1
262199=0x1.dd69e0caeaacap-2
262201=0x1.03a278fe7eab8p+0
262202=0x1.1986726156eadp-2
262203=0x1.24bc016abe526p+0
262205=0x1.8470857ec7dcap-2
262207=0x1.27577a2e663f4p-5
262208=0x1.dcbcd29faa62fp-2
262215=-0x1.99f6792e8bf94p-4
262216=0x1.910e8d95591a8p-2
262230=0x1.994d628427422p-4
262236=0x1.2252f1f0cfd56p-1
262239=-0x1.95d823cd28137p-7
262252=0x1.5864ce5830d41p-2
262258=0x1.4978e8d814731p+0
262262=0x1.39ca5f509d12ap-3
262278=0x1.3d59e4876c59dp-1
262280=0x1.dd69e0caeaacap-2
262282=0x1.03a278fe7eab8p+0
262283=0x1.1986726156eadp-2
262284=0x1.24bc016abe526p+0
262286=0x1.8470857ec7dcap-2
262288=0x1.27577a2e663f4p-5
262289=0x1.dcbcd29faa62fp-2
262296=-0x1.99f6792e8bf94p-4
262297=0x1.910e8d95591a8p-2
262311=0x1.994d628427422p-4
262317=0x1.2252f1f0cfd56p-1
262320=-0x1.95d823cd28137p-7
262333=0x1.5864ce5830d41p-2
262339=0x1.4978e8d814731p+0
262343=0x1.39ca5f509d12ap-3
262359=0x1.926497b24ae95p+2
262361=0x1.229baeca43c9fp+2
262364=0x1.b3c5a6e4ad6bp+2
262365=0x1.2253d262a86a9p+2
262367=0x1.1b33d3ad2a64bp+2
262368=0x1.66b5bf2398d06p+1
262370=0x1.b5f21035b3724p+1
262371=0x1.9a7ca3fe94cdap+2
262372=0x1.8012895558f44p+0
262378=0x1.92dfa358f7a6p+1
262379=0x1.1d68bcf512649p+2
262382=0x1.f4863ef857bf5p+1
262384=0x1.a54b8f2108407p+2
262387=0x1.df30f9fce170cp+1
262390=0x1.3c9f891581e51p+2
262397=0x1.c4ccb60e9fc1dp+1
262400=0x1.c070f269abcd6p+2
262402=0x1.5008f34b25f44p+2
262414=0x1.8138d9efd7757p+2
262764=-0x1.f4e98d231e566p-2
262769=-0x1.2a8f9ef86dc15p-1
268920=0x1.b3309ffc0117fp+0
268922=0x1.74238ac84bc24p-3
268926=0x1.432d55f31cb11p-1
268928=0x1.70dc82e5d3e7ap-1
268930=0x1.707267a61d668p-1
268945=0x1.051182d87b339p-3
268948=0x1.1f18182a91f2ep+0
268949=-0x1.c1c1423d7fe81p-4
268969=0x1.231cd51a72477p+0
268971=0x1.f34d21225e3cfp-1
269001=0x1.b3309ffc0117fp+0
269003=0x1.74238ac84bc24p-3
269007=0x1.432d55f31cb11p-1
269009=0x1.70dc82e5d3e7ap-1
269011=0x1.707267a61d668p-1
269026=0x1.051182d87b339p-3
269029=0x1.1f18182a91f2ep+0
269030=-0x1.c1c1423d7fe81p-4
269050=0x1.231cd51a72477p+0
269052=0x1.f34d21225e3cfp-1
269082=0x1.496e418ddc7ffp+2
275648=0x1.4763cae9ef926p-1
275652=0x1.b13096eaaaf6ap-2
275662=0x1.85827a4a83f7cp-1
275729=0x1.4763cae9ef926p-1
275733=0x1.b13096eaaaf6ap-2
275743=0x1.85827a4a83f7cp-1
276534=0x1.71f5075cf7c77p+2
282368=0x1.4127bf69a688dp-5
282449=0x1.4127bf69a688dp-5
282528=-0x1.dd16a8ac44a65p+0
282690=0x1.0b2b305acf571p+2
282692=0x1.03a4464f18bb4p+0
282746=0x1.699603ab748p+0
282852=0x1.b3c5b9428e254p+1
282856=0x1.d559059c6952p-1
282857=0x1.38f274fbc3bc2p+0
282862=0x1.d0f4a146bc0f9p-1
282870=0x1.262c53c234c75p-3
282878=0x1.81a118b19636ap-3
282891=0x1.79ced949884c9p-1
282894=0x1.c23bc33facb83p+0
282903=0x1.96c0c1945920cp+0
282908=0x1.6ff916a85608bp+1
289089=0x1.9c678f621141ap+2
289091=0x1.5d4f7e9a79b22p+2
289093=0x1.ddfea2fc55e63p+2
289095=0x1.08a03c7d32021p+2
289104=0x1.a9f1197251712p+2
289105=0x1.ee25561c468d1p+2
289117=0x1.39a44fc793901p+2
289121=0x1.91cb1733fcf85p+1
289131=0x1.2d2fc4304d60dp+1
289134=0x1.590c860ce78dbp+0
289159=0x1.54cd6c9436233p+1
289161=0x1.2c3532baaf046p+1
295650=0x1.6b44916340b38p-2
295654=0x1.056a853291f17p+0
295658=-0x1.18508ed8fd23fp-4
295661=0x1.58b467cde9c15p-2
295668=-0x1.df2d324a38d24p-4
295672=-0x1.b742871b2706p-3
295677=0x1.e258e2368fb6fp-1
295678=0x1.8f689cee35e61p-1
295689=0x1.ee90b82285b74p-1
295690=0x1.965963a36102ap-3
295701=0x1.39a9a15c3c19ep-2
295715=0x1.d2334cf071187p-5
295717=0x1.fe85ecb0b548dp-1
295731=0x1.6b44916340b38p-2
295735=0x1.056a853291f17p+0
295739=-0x1.18508ed8fd23fp-4
295742=0x1.58b467cde9c15p-2
295749=-0x1.df2d324a38d24p-4
295753=-0x1.b742871b2706p-3
295758=0x1.e258e2368fb6fp-1
295759=0x1.8f689cee35e61p-1
295770=0x1.ee90b82285b74p-1
295771=0x1.965963a36102ap-3
295782=0x1.39a9a15c3c19ep-2
295796=0x1.d2334cf071187p-5
295798=0x1.fe85ecb0b548dp-1
295812=0x1.822b829b6146cp+0
295813=-0x1.deb440f33ad76p-3
295816=0x1.3fd08aad13875p-2
295817=-0x1.2365ca46391d1p-3
295818=0x1.136f3ebd1edffp+1
295819=0x1.0b76c775ab15ep-2
295824=-0x1.e60bca2d04bb1p-2
295827=0x1.6d4f642132b7fp-1
295828=0x1.a81df5a3d0aaap-2
295829=-0x1.40fd6edca1713p-2
295833=0x1.fc34b7cca51d6p-1
295836=0x1.8caabc720ca76p-1
295837=0x1.97781efeef91ap+0
295838=0x1.bb30278e5cee2p+0
295839=0x1.4e6973fe95ea7p+0
295842=0x1.2f22b49f4455ep+1
295847=0x1.61da792b7e452p+0
295853=0x1.e037c2e8d80c4p-1
295854=0x1.cb99f9814f514p+0
295856=0x1.e7666d555ab9ep-2
295866=0x1.bd9d5ed9b4fb4p-3
295867=0x1.f6e3c426fa9ddp-1
295876=-0x1.ae671ea36fa98p-4
295879=0x1.a8ae733e7b871p-1
295882=0x1.3da6974dac3c7p+0
295891=0x1.00d4158cccf6fp+0
295892=0x1.bd5d2fc65dde8p-1
295893=0x1.822b829b6146cp+0
295894=-0x1.deb440f33ad76p-3
295897=0x1.3fd08aad13875p-2
295898=-0x1.2365ca46391d1p-3
295899=0x1.136f3ebd1edffp+1
295900=0x1.0b76c775ab15ep-2
295905=-0x1.e60bca2d04bb1p-2
295908=0x1.6d4f642132b7fp-1
295909=0x1.a81df5a3d0aaap-2
295910=-0x1.40fd6edca1713p-2
295914=0x1.fc34b7cca51d6p-1
295917=0x1.8caabc720ca76p-1
295918=0x1.97781efeef91ap+0
295919=0x1.bb30278e5cee2p+0
295920=0x1.4e6973fe95ea7p+0
295923=0x1.2f22b49f4455ep+1
295928=0x1.61da792b7e452p+0
295934=0x1.e037c2e8d80c4p-1
295935=0x1.cb99f9814f514p+0
295937=0x1.e7666d555ab9ep-2
295947=0x1.bd9d5ed9b4fb4p-3
295948=0x1.f6e3c426fa9ddp-1
295957=-0x1.ae671ea36fa98p-4
295960=0x1.a8ae733e7b871p-1
295963=0x1.3da6974dac3c7p+0
295972=0x1.00d4158cccf6fp+0
295973=0x1.bd5d2fc65dde8p-1
295974=-0x1.a1f2cf61a9332p+1
296460=0x1.555f5db00d7ecp+2
296462=0x1.1453d06222349p+0
296470=0x1.41227978a7f2cp+1
296471=0x1.bd1f34268f70dp+1
296472=0x1.d1926771b181ep+1
296483=0x1.3734236e45f94p+2
296516=0x1.776e5e6877c59p+0
298404=0x1.3ce9fec17e559p+1
298809=0x1.fd4b92422b6f7p+1
298845=0x1.a3abc2b01db2dp+2
303345=0x1.1fe6b86d4d89p+2
303356=0x1.97112b1fec87dp+3
305937=0x1.6ea88461d6fd4p+2
305964=0x1.741637acba4cp+3
305967=0x1.36b5540fe72bbp+2
305993=0x1.fd2f987033cd1p+1
309096=0x1.567fc46e87e18p-2
309107=0x1.8425538c38c27p-2
309108=0x1.6ce57b3a54958p-6
309133=0x1.62cc0073970aep+0
309139=0x1.a6eb0546b5c21p-1
309152=0x1.3a261af7c5e26p-1
309165=0x1.4db4661dd22bep+0
309177=0x1.567fc46e87e18p-2
309188=0x1.8425538c38c27p-2
309189=0x1.6ce57b3a54958p-6
309214=0x1.62cc0073970aep+0
309220=0x1.a6eb0546b5c21p-1
309233=0x1.3a261af7c5e26p-1
309246=0x1.4db4661dd22bep+0
309987=0x1.5f5dcc52cbf28p+1
315981=0x1.57e20b2283e12p+2
315983=0x1.b7c6b2a2fbdb6p+2
315984=0x1.a81d308be5f79p+1
315986=0x1.5daf01dcbd3ffp+2
315987=0x1.b7ee548f32287p+0
315988=0x1.b5feaffb76a6dp+1
315991=0x1.17371c1f558e7p+2
315999=0x1.d36d12cf99ba5p+1
316002=0x1.e0ce98bf78dbap+1
316023=0x1.281f1c5ff11dap+1
316032=0x1.3feff365036ep+2
322542=0x1.4cf71974cd0f7p-1
322544=0x1.7a59d138003e4p-5
322547=0x1.8e0eb96a2e7e8p-1
322548=0x1.5574d01ea9889p+0
322550=-0x1.885a0adfa0276p-2
322552=0x1.2412ed5296008p-1
322553=0x1.8fe3bd25b9aa9p-1
322556=0x1.d60c4cdbb000ap-1
322559=0x1.45ec39979c186p-1
322560=0x1.0f6c2c4be1896p-1
322564=0x1.d2018756f963bp-2
322569=0x1.05b5552ca6681p-3
322584=-0x1.43aeaecc0cffbp-4
322593=0x1.96823c63f99a4p-1
322597=0x1.879e60cafa052p-3
322607=0x1.342a14604fc23p-1
322623=0x1.4cf71974cd0f7p-1
322625=0x1.7a59d138003e4p-5
322628=0x1.8e0eb96a2e7e8p-1
322629=0x1.5574d01ea9889p+0
322631=-0x1.885a0adfa0276p-2
322633=0x1.2412ed5296008p-1
322634=0x1.8fe3bd25b9aa9p-1
322637=0x1.d60c4cdbb000ap-1
322640=0x1.45ec39979c186p-1
322641=0x1.0f6c2c4be1896p-1
322645=0x1.d2018756f963bp-2
322650=0x1.05b5552ca6681p-3
322665=-0x1.43aeaecc0cffbp-4
322674=0x1.96823c63f99a4p-1
322678=0x1.879e60cafa052p-3
322688=0x1.342a14604fc23p-1
322704=0x1.502ea722a75d9p+2
322710=0x1.3b2be27f8e9b5p+1
322712=0x1.4aa916c93e667p+1
322713=0x1.8a55f6da269dfp+1
322724=0x1.3f0069243cb43p-3
322727=0x1.a8fd12595b5p+1
322732=0x1.d1a0c50a87236p-4
322735=0x1.293c6c88caa97p+1
329265=0x1.1fc06c85d57fbp+0
329273=0x1.1720dcb6c98abp-1
329278=0x1.47bd3f1532962p+0
329314=0x1.7afa74fa41fd7p-3
329318=0x1.e86e3331f45d1p-1
329322=0x1.0eccdaac3ecacp+0
329327=0x1.aa7283a3ad9ecp+0
329339=0x1.6721eb1eb9475p+0
329346=0x1.1fc06c85d57fbp+0
329354=0x1.1720dcb6c98abp-1
329359=0x1.47bd3f1532962p+0
329395=0x1.7afa74fa41fd7p-3
329399=0x1.e86e3331f45d1p-1
329403=0x1.0eccdaac3ecacp+0
329408=0x1.aa7283a3ad9ecp+0
329420=0x1.6721eb1eb9475p+0
329427=0x1.5960e9ed4cbap+2
335988=0x1.30772e0e40a7cp-3
335990=0x1.71c2ae95f0d52p+0
336069=0x1.30772e0e40a7cp-3
336071=0x1.71c2ae95f0d52p+0
336150=0x1.0385d3c1ad57ep+2
336173=0x1.4c6b0fe724be1p-1
336178=0x1.2642f7afda71bp+2
336201=0x1.0dbf4badbe6e7p+2
342711=0x1.3cbad2553addp+0
342713=0x1.dd0b37197ec12p-2
342717=0x1.81971b2ebb0d2p-2
342722=0x1.9951f3441eaa7p+0
342739=0x1.daff6e72bde92p+0
342741=0x1.0078a3c0a3d53p-2
342752=0x1.319804c2b4cd5p-1
342792=0x1.3cbad2553addp+0
342794=0x1.dd0b37197ec12p-2
342798=0x1.81971b2ebb0d2p-2
342803=0x1.9951f3441eaa7p+0
342820=0x1.daff6e72bde92p+0
342822=0x1.0078a3c0a3d53p-2
342833=0x1.319804c2b4cd5p-1
342873=-0x1.5c5049a9e7646p+0
342892=0x1.a77cffeefa0c5p+1
343035=0x1.6e2ff54ea78ep+2
343037=0x1.b82fb477c0622p+1
343045=0x1.3c88a0b60e8a1p+1
343049=0x1.2573aac3e0c68p+1
343053=0x1.815d7e1c3fd3cp+0
343091=0x1.ca5c90a4689cp+1
343197=0x1.3ee14a387967bp+1
343201=0x1.2c3775a4313d9p-2
343202=0x1.801aa7256c841p+0
343207=0x1.7290cdc07351cp-4
343217=0x1.ae0ab812e0268p+0
343218=0x1.bdfb31fce8cep-9
343220=-0x1.1c15cfb34aa68p-3
343223=0x1.89759dcde3bd2p+0
343225=0x1.1f2a3578e08f3p+0
343239=0x1.02f4e20e6028p+1
343248=0x1.e3d6853fd01ccp-4
343252=0x1.2c2f6ad6abba9p+1
343253=-0x1.17d2311ec95aep-7
344088=0x1.8cac7bfd349b9p+1
344098=0x1.6719212f5d7b9p+1
344130=-0x1.4a3bf62a716e8p+0
344169=0x1.14e94c7415471p+1
344193=0x1.89e0d763f22c2p+1
344200=0x1.f330845f9a6fbp+1
349434=0x1.f689c111300eep-2
349435=0x1.302d6e2e86f74p-4
349436=0x1.ff9080e17a553p-1
349438=0x1.31ab6855cb649p+0
349439=0x1.f2bb45818784ap-4
349442=0x1.9331dee602fb2p-3
349444=-0x1.a6a477c42c368p-9
349445=0x1.ffbc73f0ffacap-1
349446=0x1.a5515637b5d6ap-1
349447=0x1.9054176576d76p-3
349449=0x1.0338a27705438p-2
349451=0x1.0b4b8a2dd9f08p-4
349452=-0x1.78f0818be9871p-3
349461=0x1.a70e47549b73bp-1
349485=0x1.4dca57375492ap-1
349489=-0x1.64ea2f06fbc28p-1
349495=0x1.b83a16e486dddp-1
349515=0x1.f689c111300eep-2
349516=0x1.302d6e2e86f74p-4
349517=0x1.ff9080e17a553p-1
349519=0x1.31ab6855cb649p+0
349520=0x1.f2bb45818784ap-4
349523=0x1.9331dee602fb2p-3
349525=-0x1.a6a477c42c368p-9
349526=0x1.ffbc73f0ffacap-1
349527=0x1.a5515637b5d6ap-1
349528=0x1.9054176576d76p-3
349530=0x1.0338a27705438p-2
349532=0x1.0b4b8a2dd9f08p-4
349533=-0x1.78f0818be9871p-3
349542=0x1.a70e47549b73bp-1
349566=0x1.4dca57375492ap-1
349570=-0x1.64ea2f06fbc28p-1
349576=0x1.b83a16e486dddp-1
349596=0x1.8672b54fb34dcp+2
349600=0x1.8e3f67283abd9p+2
349635=0x1.a080dee50732p+1
349638=0x1.73970f269fc7fp+2
349920=-0x1.887151304595cp-2
350568=0x1.1e48668c68544p+2
356157=0x1.08993bf3b35a6p-1
356159=-0x1.134b8bd22298ap-1
356161=0x1.08a32e95bd7ddp+1
356162=-0x1.a31510b6802fbp-1
356167=-0x1.474cb801b8506p-6
356168=-0x1.081f4cfe40182p-1
356173=-0x1.0160e7ea351fep-1
356175=-0x1.943df4716d097p+0
356183=0x1.7ff0f2ac4ce67p+0
356184=0x1.1e9dc2db13e4p+0
356187=0x1.17edea39cab0ep+1
356196=0x1.e0d23e7cfdb78p-1
356197=0x1.fe0f5be2cb979p-1
356199=0x1.651b8709b7fe1p-1
356200=0x1.6338c7bd3557ap+0
356205=0x1.897913a0043e4p+0
356212=0x1.23fe6bdebe653p+0
356215=0x1.6e0e15cb1c477p+0
356238=0x1.08993bf3b35a6p-1
356240=-0x1.134b8bd22298ap-1
356242=0x1.08a32e95bd7ddp+1
356243=-0x1.a31510b6802fbp-1
356248=-0x1.474cb801b8506p-6
356249=-0x1.081f4cfe40182p-1
356254=-0x1.0160e7ea351fep-1
356256=-0x1.943df4716d097p+0
356264=0x1.7ff0f2ac4ce67p+0
356265=0x1.1e9dc2db13e4p+0
356268=0x1.17edea39cab0ep+1
356277=0x1.e0d23e7cfdb78p-1
356278=0x1.fe0f5be2cb979p-1
356280=0x1.651b8709b7fe1p-1
356281=0x1.6338c7bd3557ap+0
356286=0x1.897913a0043e4p+0
356293=0x1.23fe6bdebe653p+0
356296=0x1.6e0e15cb1c477p+0
356319=0x1.42fe397d31a0fp+2
356320=0x1.60fc56fd9642cp+0
356321=0x1.fb203966da59ep-1
356327=0x1.a3598671edc7fp+1
356332=0x1.1cd7faed16fc2p+2
356335=0x1.4fa9935bb047bp-4
356341=0x1.b4199c6ed63f2p-1
356342=0x1.d853ef3cf139ep+1
356351=0x1.982016d5fb462p+0
356368=0x1.18646d8479e91p+0
356381=0x1.0c336b0f5557p+2
356393=0x1.7273846a72ba2p+1
357615=-0x1.04bebd62695ap-1
362880=0x1.a341d101235b2p+0
362881=0x1.017a7d307ef28p+1
362892=0x1.a44e0da133a8fp+1
369441=0x1.599d1a9e35929p+0
369442=0x1.ad5558f177ee4p-4
369447=-0x1.ed2ffeb0bc60cp-2
369448=-0x1.60bd0270f3204p+0
369449=0x1.294e13a36454p-2
369450=0x1.3e6e0bfb7c24p-1
369452=0x1.37b06989c0ec8p-3
369453=0x1.168b41a4c143p-1
369454=0x1.c0905b9ac9cf8p+0
369457=0x1.8225eb4a06b47p+0
369458=-0x1.3e9f6417d230ep-2
369466=0x1.f365132ed95cap-1
369470=0x1.a33824ffbcdbcp+0
369472=0x1.1a82b6564fca6p-3
369473=-0x1.36c08561dc6p-3
369486=0x1.e90bbdfcbfbp-3
369493=0x1.fae6b41f5f0c8p-1
369494=0x1.3a8b03dadd91ep-1
369522=0x1.599d1a9e35929p+0
369523=0x1.ad5558f177ee4p-4
369528=-0x1.ed2ffeb0bc60cp-2
369529=-0x1.60bd0270f3204p+0
369530=0x1.294e13a36454p-2
369531=0x1.3e6e0bfb7c24p-1
369533=0x1.37b06989c0ec8p-3
369534=0x1.168b41a4c143p-1
369535=0x1.c0905b9ac9cf8p+0
369538=0x1.8225eb4a06b47p+0
369539=-0x1.3e9f6417d230ep-2
369547=0x1.f365132ed95cap-1
369551=0x1.a33824ffbcdbcp+0
369553=0x1.1a82b6564fca6p-3
369554=-0x1.36c08561dc6p-3
369567=0x1.e90bbdfcbfbp-3
369574=0x1.fae6b41f5f0c8p-1
369575=0x1.3a8b03dadd91ep-1
369603=0x1.9b4fa21e4c332p-2
369626=-0x1.d968ac8cead5fp-1
370575=0x1.a503d049a328cp+2
370598=0x1.d3c8990ab905ep+1
376326=0x1.09206eedda9e1p-1
376407=0x1.09206eedda9e1p-1
376488=0x1.2d3dc5c11c6aep+2
376493=0x1.89dc2d2237b8cp-4
376496=0x1.311d21b63b9bcp-1
376498=0x1.d16cca1acec36p+0
376511=0x1.b141fa03c8d28p-6
376519=0x1.2ddb4f8d2f362p+1
383049=0x1.1cbcae58395d3p-2
383053=-0x1.c78a5f5c85968p-2
383055=0x1.4e546ac1a5d5ep-1
383060=0x1.c12a5e0c1108fp-2
383065=0x1.69fd5338d75fcp+0
383076=0x1.53e8327ce50dp-1
383080=0x1.8dc4cf6964adfp-1
383090=-0x1.697c4e2bc6124p-6
383097=0x1.c8d562179fe2ep-1
383130=0x1.1cbcae58395d3p-2
383134=-0x1.c78a5f5c85968p-2
383136=0x1.4e546ac1a5d5ep-1
383141=0x1.c12a5e0c1108fp-2
383146=0x1.69fd5338d75fcp+0
383157=0x1.53e8327ce50dp-1
383161=0x1.8dc4cf6964adfp-1
383171=-0x1.697c4e2bc6124p-6
383178=0x1.c8d562179fe2ep-1
383211=0x1.76e88319d0cb4p+1
383219=0x1.eee2927883767p+1
383224=0x1.992ce8fd9c01bp+1
383227=0x1.571682ab20a97p+0
383263=0x1.e8b6f1b78e089p-3
383264=0x1.02af4aaf20cbcp+1
383268=0x1.66b94b25b5e3fp+1
383273=0x1.6c1ff1c7f6dap+1
389772=-0x1.a3d897590c9ffp+0
390420=0x1.e3d5998d84a99p+2
390425=0x1.cde9c7b06a803p+1
390471=0x1.ca4d6037a62fap+0
396333=0x1.26cb662cd8e6fp+1
396338=0x1.40593e13f4ap-2
396346=0x1.152e84b2fd445p+0
396365=0x1.acf792de9b73cp-1
396374=0x1.db9a6497c172ep-3
396414=0x1.26cb662cd8e6fp+1
396419=0x1.40593e13f4ap-2
396427=0x1.152e84b2fd445p+0
396446=0x1.acf792de9b73cp-1
396455=0x1.db9a6497c172ep-3
396497=0x1.742bed6f1bc0ap-2
396524=0x1.6e90e588c5ecdp-1
396578=0x1.742bed6f1bc0ap-2
396605=0x1.6e90e588c5ecdp-1
396657=0x1.9b57a82a029cdp+0
397386=0x1.a14ed7a4931fbp+2
399654=0x1.ef72497386358p+1
403218=0x1.3aa470a751dd5p+0
403222=0x1.6f4ef6675a2e4p-1
403299=0x1.3aa470a751dd5p+0
403303=0x1.6f4ef6675a2e4p-1
403380=-0x1.2d0306198f088p+0
404352=0x1.92c469cf92b95p+2
404354=0x1.1c019aa302402p+2
404358=0x1.05f2a65c8ce87p+2
404360=0x1.c99e00257fd08p+1
404361=0x1.7df8d118de18dp+1
404375=0x1.6aca3bc579f2dp+1
404395=0x1.3249ed720f52cp+2
408483=0x1.4591d3d5d7166p+1
409941=0x1.675ddf5fb758dp+0
409945=0x1.d49f1bd869ccfp-1
410022=0x1.675ddf5fb758dp+0
410026=0x1.d49f1bd869ccfp-1
410103=0x1.59a725694bb9bp+2
410105=0x1.55ed8e7c67864p+1
410107=0x1.b089e14543e84p+1
410108=0x1.cd8c7160a47a3p+0
410109=0x1.9da0704adf143p+1
410110=0x1.8b42904bc58aap+1
410111=0x1.eba0d19f5e82p+1
410118=0x1.692686d294c76p+1
410119=0x1.a640923edf0f6p+1
410121=0x1.5a6cc22d8f4a6p+2
410125=0x1.c625c5700e9f5p+0
410130=0x1.9c5d12f6c35d1p+0
410131=0x1.62a70c5b0e4d1p-1
410134=0x1.8c11323f8d6d5p+0
410141=0x1.8997e7aa8d2bap+1
410144=0x1.c85e4aead5d11p-1
410149=0x1.431be79edd529p+0
410160=0x1.70a7b35cc86f1p+0
410596=-0x1.51d33106f7dd4p+0
416664=0x1.8ee18b67a0adp+0
416666=0x1.d654c64ee5133p-2
416669=-0x1.d9b1e649d92b9p-2
416672=0x1.7908c96087d3p-8
416674=0x1.da638d562babdp-1
416677=0x1.5743e27e8c138p-1
416689=0x1.7dbfa5f89a35ep+0
416695=0x1.52ed7268c9baap+0
416696=0x1.2b19f58f4e3b4p-2
416698=0x1.c590f9f693c17p-1
416711=0x1.dc8ab03f5e8aap-1
416715=0x1.0b4b804f3fc02p+0
416745=0x1.8ee18b67a0adp+0
416747=0x1.d654c64ee5133p-2
416750=-0x1.d9b1e649d92b9p-2
416753=0x1.7908c96087d3p-8
416755=0x1.da638d562babdp-1
416758=0x1.5743e27e8c138p-1
416770=0x1.7dbfa5f89a35ep+0
416776=0x1.52ed7268c9baap+0
416777=0x1.2b19f58f4e3b4p-2
416779=0x1.c590f9f693c17p-1
416792=0x1.dc8ab03f5e8aap-1
416796=0x1.0b4b804f3fc02p+0
416826=0x1.11083ba79ba72p+2
423549=0x1.712995fc4e6a5p+2
436671=0x1.6fd1e96c2d5cp-1
436673=0x1.b010f10fed4abp-1
436676=-0x1.2efecaa5bde38p-1
436677=0x1.385404e4654b1p+0
436679=-0x1.a8733e1a9aa67p-2
436687=0x1.1f6d22a809c7fp+1
436703=0x1.088e211555b9ap+0
436726=-0x1.124ded3dc129fp-3
436752=0x1.6fd1e96c2d5cp-1
436754=0x1.b010f10fed4abp-1
436757=-0x1.2efecaa5bde38p-1
436758=0x1.385404e4654b1p+0
436760=-0x1.a8733e1a9aa67p-2
436768=0x1.1f6d22a809c7fp+1
436784=0x1.088e211555b9ap+0
436807=-0x1.124ded3dc129fp-3
436995=0x1.8c9122ef9feddp+1
437886=0x1.6eb8c0711f285p+1
439182=0x1.e2c81d7c2636fp-9
443556=0x1.eddfe050390a6p+0
443637=0x1.eddfe050390a6p+0
443718=0x1.9b5836749bbefp+2
443720=0x1.5666b783733f7p-2
443722=0x1.537c65425992dp+0
443730=0x1.5660caa59c48fp+1
443746=0x1.421b3dc403c2fp+1
450927=0x1.bae174f3655d9p+2
457002=-0x1.713622903bd18p-6
457488=0x1.ea88f2763fc85p+1
457496=0x1.511b19af4ecep-1
457497=0x1.9dabd833d906ep+2
457500=0x1.2852d05ab43cfp+1
457507=0x1.a1512ec1bed22p-1
463563=-0x1.860f80741aff4p-3
464616=0x1.607713b795969p+3
464624=0x1.61263663f7745p+2
470124=0x1.1a253c1220792p-1
470153=0x1.da0bba8690c57p-1
470205=0x1.1a253c1220792p-1
470234=0x1.da0bba8690c57p-1
470286=-0x1.b4024faf7abfap-7
470462=0x1.c45b79f87b942p-2
471516=0x1.30310f1955dc8p+2
471606=0x1.1d38d8f83bfa7p+2
477981=0x1.22868de0e6c3ap-2
483408=0x1.0fbd93a671fafp-1
483489=0x1.0fbd93a671fafp-1
483732=0x1.f5c3af44dc49p+1
490293=0x1.e16fe925e1dccp-1
490374=0x1.e16fe925e1dccp-1
490455=0x1.01b8d99f5f92p+3
490462=0x1.f40ddded4312fp+0
490463=0x1.372d30fcecfa3p+2
490468=0x1.c071fad38d8c2p+1
490474=0x1.a91c820823787p+0
490478=0x1.90d4c78c433ccp+1
490483=0x1.d1f0d7e5ad2bdp+1
497016=0x1.3e3034bd26f9bp+0
497018=0x1.41da40ac47c03p-1
497021=0x1.d783afb8f7226p-1
497027=0x1.ede55cc734c31p-4
497032=0x1.85d7b09b8dc92p-4
497037=0x1.1fe59ce4ca338p-6
497039=0x1.70d651014baap+0
497044=0x1.4b2d8e3e0d79cp+0
497048=0x1.092d557c12d58p-2
497057=0x1.185ae8eee691p-8
497058=0x1.e8536fe190f11p-3
497059=0x1.a7a34005fbce6p-2
497061=0x1.42f5966670557p-2
497065=0x1.5697ac659e6d2p+0
497071=0x1.0292a46e976f1p-2
497079=0x1.6084641f9cfaap-2
497097=0x1.3e3034bd26f9bp+0
497099=0x1.41da40ac47c03p-1
497102=0x1.d783afb8f7226p-1
497108=0x1.ede55cc734c31p-4
497113=0x1.85d7b09b8dc92p-4
497118=0x1.1fe59ce4ca338p-6
497120=0x1.70d651014baap+0
497125=0x1.4b2d8e3e0d79cp+0
497129=0x1.092d557c12d58p-2
497138=0x1.185ae8eee691p-8
497139=0x1.e8536fe190f11p-3
497140=0x1.a7a34005fbce6p-2
497142=0x1.42f5966670557p-2
497146=0x1.5697ac659e6d2p+0
497152=0x1.0292a46e976f1p-2
497160=0x1.6084641f9cfaap-2
497178=0x1.2feee4a172023p+2
497193=0x1.659654b2b026dp+2
503739=0x1.5c4a7434ecb3p+0
503754=0x1.a5d58cb9c08d7p+1
503820=0x1.5c4a7434ecb3p+0
503835=0x1.a5d58cb9c08d7p+1
503901=0x1.3aeddd06dc644p+2
503902=0x1.ec5cb10884431p-1
503903=0x1.5636bd1d01673p+1
503905=0x1.69d9103dbc355p+2
503906=0x1.691bfe934dc4ap+2
503908=0x1.5b4e16ca1cc73p+0
503909=0x1.64fff7e5539a9p+2
503914=0x1.4aeff7f92349fp+1
503917=0x1.d434eaf959ac6p+1
503919=0x1.f2c2c4d21de2cp+1
503929=0x1.6327b34a2f7a1p+1
503933=0x1.26c7d463056cp+1
503942=0x1.adbc1aecf1508p+1
503952=0x1.2c21f9905ef31p+2
503956=0x1.66ba585046a1p+1
503968=0x1.73c5149a5dae5p+1
503970=0x1.d058d7a7102f2p+0
510462=0x1.b4701755d9b2dp-1
510464=0x1.2f6f24e309b43p-1
510467=0x1.395e3a0d7937fp-1
510473=0x1.52cb37afef4e9p-2
510479=0x1.7a5b1d7fe6a2dp-1
510480=-0x1.a6e93d64c59fp-5
510487=0x1.c44fddff754b2p-1
510490=0x1.600a82f970004p-1
510503=0x1.7555f84aeb1d1p-1
510537=0x1.ffccb3e76afccp-2
510543=0x1.b4701755d9b2dp-1
510545=0x1.2f6f24e309b43p-1
510548=0x1.395e3a0d7937fp-1
510554=0x1.52cb37afef4e9p-2
510560=0x1.7a5b1d7fe6a2dp-1
510561=-0x1.a6e93d64c59fp-5
510568=0x1.c44fddff754b2p-1
510571=0x1.600a82f970004p-1
510584=0x1.7555f84aeb1d1p-1
510618=0x1.ffccb3e76afccp-2
510624=-0x1.56a1c81e0d907p+0
510786=0x1.6171b33ba982fp+2
510796=0x1.50bfd90bae07cp+1
510805=0x1.5d8e404b27b98p-6
510806=0x1.f8ef80d7087dep+1
510948=0x1.7e38f0425125bp+0
510953=0x1.0a75b04a8abcap+0
510955=-0x1.d40fc4a732d0ep-3
510968=0x1.1f079090d3441p-1
510971=0x1.26191e5139bc9p-6
510974=0x1.a3a4bdc694917p-1
510990=0x1.67b1a2e58fcbdp+0
510998=0x1.6b86756c8a33dp-4
511002=0x1.2b64f74ac799p+0
511003=0x1.68c79978931ecp-1
511839=0x1.ed7bfff137c2dp+0
511920=0x1.cd42d3dc1879dp+0
514512=-0x1.0024f3f6b59dap-5
517185=0x1.2f000e212bfbp-2
517189=0x1.07fffc99a8228p+0
517190=0x1.52999757c055ep-1
517196=-0x1.3347aa6c88b74p-3
517197=-0x1.28612ce0e4df8p-2
517202=0x1.1d12f8fe2ab89p-1
517205=0x1.df267bf1385ccp-1
517212=0x1.40a2eddf4607bp-2
517233=0x1.f3967acb4ad7fp-4
517240=0x1.176e515e12263p-1
517248=0x1.60a218498677ep-1
517249=0x1.74be3e5988c87p-1
517250=0x1.eed525bd6c3p-2
517266=0x1.2f000e212bfbp-2
517270=0x1.07fffc99a8228p+0
517271=0x1.52999757c055ep-1
517277=-0x1.3347aa6c88b74p-3
517278=-0x1.28612ce0e4df8p-2
517283=0x1.1d12f8fe2ab89p-1
517286=0x1.df267bf1385ccp-1
517293=0x1.40a2eddf4607bp-2
517314=0x1.f3967acb4ad7fp-4
517321=0x1.176e515e12263p-1
517329=0x1.60a218498677ep-1
517330=0x1.74be3e5988c87p-1
517331=0x1.eed525bd6c3p-2
517347=0x1.1143fecc010acp+0
517352=0x1.90c6f6f73d658p-1
517390=0x1.0eb5f70768959p+1
523908=0x1.5732b941ab6ffp+0
523912=-0x1.34942c281f963p+0
523914=0x1.781b71bd977bfp-3
523928=0x1.66802a5bb06a2p-3
523989=0x1.5732b941ab6ffp+0
523993=-0x1.34942c281f963p+0
523995=0x1.781b71bd977bfp-3
524009=0x1.66802a5bb06a2p-3
524070=0x1.7c09f4e7cc4a1p+2
530631=0x1.7aebf4abb6169p-1
530636=0x1.f9fa50b6ac3f7p-2
530644=0x1.597000de3b5fap-1
530647=0x1.6df246012c60ap+0
530653=0x1.b52e60aa56adap-1
530663=0x1.32be2fdd98934p+0
530674=-0x1.0e3a643553a7dp-3
530712=0x1.7aebf4abb6169p-1
530717=0x1.f9fa50b6ac3f7p-2
530725=0x1.597000de3b5fap-1
530728=0x1.6df246012c60ap+0
530734=0x1.b52e60aa56adap-1
530744=0x1.32be2fdd98934p+0
530755=-0x1.0e3a643553a7dp-3
530793=0x1.c97867be538d7p+2
530809=0x1.dc60891ec1514p+1
537354=0x1.d25519889a26bp+1
537358=-0x1.bd07d1151c8e9p-4
537363=-0x1.5eee1d2b03dc4p-1
537370=0x1.1b5001ea70e23p+2
537391=0x1.b703b28d279d6p+1
537416=0x1.1dbbe1b9e7c7ep+0
543915=0x1.db35330c57891p+0
543919=0x1.0bf28a6c6b30cp+1
543924=-0x1.8d54c1190dbcp-12
543931=0x1.aca84ecd012f1p+0
543977=0x1.46e82a3b0f1cep-1
543996=0x1.db35330c57891p+0
544000=0x1.0bf28a6c6b30cp+1
544005=-0x1.8d54c1190dbcp-12
544012=0x1.aca84ecd012f1p+0
544058=0x1.46e82a3b0f1cep-1
544077=0x1.542e8eeab4219p+0
544079=-0x1.42922c2ddfb3ep-3
544081=-0x1.f546bf64c9c6ep-2
544093=0x1.5daea6739096ap+1
544099=0x1.2cd796e8d3dc4p+0
544101=0x1.90ebb5b8d7128p+0
544109=0x1.0c67b9772abfp+1
544146=0x1.598b711b23fb5p+0
544158=0x1.542e8eeab4219p+0
544160=-0x1.42922c2ddfb3ep-3
544162=-0x1.f546bf64c9c6ep-2
544174=0x1.5daea6739096ap+1
544180=0x1.2cd796e8d3dc4p+0
544182=0x1.90ebb5b8d7128p+0
544190=0x1.0c67b9772abfp+1
544227=0x1.598b711b23fb5p+0
544239=0x1.5f659c584f87ap+2
544299=0x1.3b7dbf97bade6p+2
550800=0x1.9660ce5bcd31fp+0
550802=0x1.01eaffb1bd5e9p+1
550804=-0x1.b727d1dda14ecp-3
550816=0x1.6b91e8526a27cp+0
550881=0x1.9660ce5bcd31fp+0
550883=0x1.01eaffb1bd5e9p+1
550885=-0x1.b727d1dda14ecp-3
550897=0x1.6b91e8526a27cp+0
557685=0x1.52a767148417p+1
558576=0x1.70c0932940e99p-2
558578=0x1.3c6ebc99efbbdp+0
558604=0x1.88fd176deb302p+0
562950=0x1.f8e5184121fa4p+1
564246=0x1.d35ff901cec6ep+0
564248=0x1.e00dea82e52a9p-2
564251=0x1.b4a88adf8ad66p-1
564274=0x1.d0a9fd5acf869p-1
564288=0x1.49545f5e6e30ep-5
564301=0x1.41e01d04efc84p-1
564314=0x1.6beef595d0925p-1
564327=0x1.d35ff901cec6ep+0
564329=0x1.e00dea82e52a9p-2
564332=0x1.b4a88adf8ad66p-1
564355=0x1.d0a9fd5acf869p-1
564369=0x1.49545f5e6e30ep-5
564382=0x1.41e01d04efc84p-1
564395=0x1.6beef595d0925p-1
564408=-0x1.c17248d5496d2p-4
564410=0x1.8355a91f225c9p-1
564412=-0x1.237ba4b251965p-3
564416=-0x1.d54c617e22d73p-3
564426=-0x1.16d3a6d1b48bp+0
564435=0x1.70827a7b7532cp+0
564447=0x1.06515f3b28fc5p-1
564463=0x1.08bb2a5098a76p+0
564474=0x1.26837c40d4721p+1
564489=-0x1.c17248d5496d2p-4
564491=0x1.8355a91f225c9p-1
564493=-0x1.237ba4b251965p-3
564497=-0x1.d54c617e22d73p-3
564507=-0x1.16d3a6d1b48bp+0
564516=0x1.70827a7b7532cp+0
564528=0x1.06515f3b28fc5p-1
564544=0x1.08bb2a5098a76p+0
564555=0x1.26837c40d4721p+1
564570=0x1.43fef09141864p+2
571131=0x1.f51d3ccab343dp-1
571212=0x1.f51d3ccab343dp-1
571293=0x1.3e6a574bb90bbp+2
571301=0x1.5fb951da24a89p+0
577854=0x1.becb0c605aafap-1
577862=0x1.0a017d94d93f1p+0
577867=0x1.1acfef5f8356ap-1
577879=0x1.eaa13f4362a8dp+0
577935=0x1.becb0c605aafap-1
577943=0x1.0a017d94d93f1p+0
577948=0x1.1acfef5f8356ap-1
577960=0x1.eaa13f4362a8dp+0
578016=0x1.f2f6c2891e48dp+1
578024=0x1.9ac6ef58ac73cp-1
584606=0x1.9f3de98cf6c8dp-1
584687=0x1.9f3de98cf6c8dp-1
584739=-0x1.8d6b2751126e2p+0
585387=0x1.f198b51977e6fp+2
585415=0x1.cc1d6a3c5fd1fp+2
591300=0x1.18c2f1a893b97p-1
591308=0x1.39b9e47ec5fecp+0
591329=0x1.7401072399235p-1
591381=0x1.18c2f1a893b97p-1
591389=0x1.39b9e47ec5fecp+0
591410=0x1.7401072399235p-1
591462=0x1.4c6e0ae913909p+2
591467=0x1.8be05d874e07fp+0
591468=0x1.989808552b1fep-1
591470=0x1.d24826d968a58p+1
591474=0x1.0cd9a0a2c3bd9p+2
591481=0x1.afd3e23903a8bp+0
591482=0x1.2eef3b562d7eap+1
591485=0x1.9b147d69b779p+1
591490=0x1.0584f6022f6f8p+0
591503=0x1.c8d7b37aaee5ep-3
591512=0x1.778d32700eaaap+0
591624=-0x1.66b0eec881d18p+0
598023=0x1.e1c70b6af5402p+0
604584=0x1.0b415e0b4cf94p+0
604586=0x1.fb5be213086a6p-2
604589=0x1.3734478a04cc3p+0
604592=0x1.47cf5c1106c52p-1
604596=0x1.bba1708b85469p-3
604603=0x1.bf25730b2a3abp-3
604635=0x1.b4606f7d1f805p+0
604665=0x1.0b415e0b4cf94p+0
604667=0x1.fb5be213086a6p-2
604670=0x1.3734478a04cc3p+0
604673=0x1.47cf5c1106c52p-1
604677=0x1.bba1708b85469p-3
604684=0x1.bf25730b2a3abp-3
604716=0x1.b4606f7d1f805p+0
611631=0x1.e55afb390e1d1p+1
618192=0x1.7bb764c4c909bp-1
618273=0x1.7bb764c4c909bp-1
618354=0x1.ea6b12320b341p+0
618362=0x1.cbe4edad5a4a3p+2
618367=0x1.6312ade3e6407p+2
618379=0x1.f8bfdbf2dd816p+1
624940=0x1.bbadccce8fed6p-1
625021=0x1.bbadccce8fed6p-1
625077=0x1.e94e4880028ebp+0
631638=0x1.54d386ea3097cp-1
631670=0x1.f5a634116c14ep+1
638361=0x1.a212defc2e94fp-1
638442=0x1.a212defc2e94fp-1
638523=0x1.520ce5fdc8217p+2
651969=0x1.b099fcc5fcd07p+1
658530=0x1.658856f2d51f2p+2
665091=0x1.a24ec51808a25p-3
665172=0x1.a24ec51808a25p-3
665253=0x1.023f37d44573cp+0
671814=0x1.2196ebcb1b6e9p+1
671895=0x1.2196ebcb1b6e9p+1
671976=0x1.c132ba1e0b7bap+0
672057=0x1.c132ba1e0b7bap+0
672138=0x1.69dfced455506p+1
678699=0x1.930f2cb628fa9p-1
678780=0x1.930f2cb628fa9p-1
678861=0x1.419e9720b8f95p+2
685422=0x1.9e86e09d184d1p-1
685503=0x1.9e86e09d184d1p-1
686475=0x1.fa7b00d92be91p+0
692155=0x1.965c20549b0a4p-1
692236=0x1.965c20549b0a4p-1
693782=0x1.7334bbdbc8172p+3
700245=0x1.a95607534d75bp-4
705429=0x1.e8b4e721ac366p+0
705463=0x1.0c40cd1a0e3b4p+0
705510=0x1.e8b4e721ac366p+0
705544=0x1.0c40cd1a0e3b4p+0
705602=0x1.41fedcb594db5p-2
705683=0x1.41fedcb594db5p-2
705753=0x1.477f5a6349c7cp+2
712314=0x1.0ca13e4c38042p-3
712329=0x1.96a6a4ea731f7p+1
712395=0x1.0ca13e4c38042p-3
712410=0x1.96a6a4ea731f7p+1
712476=0x1.798535017f7b3p+2
712477=0x1.ab205a7201927p-2
712486=0x1.6314b265812cap+0
712489=0x1.b246c13ccffafp+0
712499=0x1.9f07b5d13516p+1
712504=0x1.4cc86335a529cp+2
712521=0x1.7bbc2f039eebap-1
719037=0x1.549d666093357p+0
719038=0x1.87df87be525c4p-10
719042=0x1.304bb62c5598ep+0
719043=0x1.d614f90d411acp-4
719067=-0x1.6b34cc4d235ecp-2
719118=0x1.549d666093357p+0
719119=0x1.87df87be525c4p-10
719123=0x1.304bb62c5598ep+0
719124=0x1.d614f90d411acp-4
719148=-0x1.6b34cc4d235ecp-2
719199=0x1.1c699d639f371p+1
719201=0x1.c8398b2ce62f4p-1
719205=0x1.192b281add8cep+2
719207=0x1.9ce1166b62e75p+0
719210=0x1.2c997e3cbd689p-2
719211=0x1.055839a1628afp+2
719220=-0x1.abcfac178a8c4p-3
719224=0x1.192bbf004a36p+2
719230=0x1.f8093e5d13242p-1
725760=0x1.387059d938ec3p+0
725772=0x1.dedcf08480f32p-3
725841=0x1.387059d938ec3p+0
725853=0x1.dedcf08480f32p-3
732483=0x1.62e5b8f5ad32dp-2
732487=-0x1.2740814a916f2p-3
732564=0x1.62e5b8f5ad32dp-2
732568=-0x1.2740814a916f2p-3
732645=0x1.37b2ff245273ap+2
732658=0x1.3db58fd0817d4p+2
732694=0x1.4e4fa1649fd01p+2
733131=-0x1.22222efde14cep-4
739206=0x1.70de2661f01a2p-1
739208=0x1.073d9cc6feb3dp+0
739211=0x1.ab168a914e806p-6
739219=0x1.c9b0cd2c69664p+0
739231=0x1.8c1ba50f41af5p-1
739249=-0x1.b5e5d7fe1ed63p-3
739255=0x1.e23a86248f4fdp-1
739287=0x1.70de2661f01a2p-1
739289=0x1.073d9cc6feb3dp+0
739292=0x1.ab168a914e806p-6
739300=0x1.c9b0cd2c69664p+0
739312=0x1.8c1ba50f41af5p-1
739330=-0x1.b5e5d7fe1ed63p-3
739336=0x1.e23a86248f4fdp-1
739368=0x1.2052b42ac03ebp+2
745929=0x1.b770f0517836fp-1
745931=0x1.8a1fdc4f4eedap-9
746010=0x1.b770f0517836fp-1
746012=0x1.8a1fdc4f4eedap-9
746091=-0x1.180d05f5b1f79p-1
746119=-0x1.996cd0bde0badp-2
747711=0x1.38f42c71c8808p+3
747713=0x1.9e291c8c679f3p+2
747739=0x1.4975e26ab661ep+2
747756=0x1.b6d98261513fdp+2
752652=0x1.b5a81acfb9606p-3
752670=0x1.98d6eb175793fp-2
752733=0x1.b5a81acfb9606p-3
752751=0x1.98d6eb175793fp-2
752814=0x1.143e51b9c8feep+2
752819=0x1.4dc0e237f1485p+1
752821=0x1.28a0c9b9bb8fdp-1
752824=0x1.209bff73b5f39p+0
752842=0x1.54ae99379cab3p-3
752855=0x1.4274b0c4a2805p+2
752865=0x1.9129e13560fp-1
759375=0x1.db11d084be16p+1
759377=0x1.f4806c847659ep-2
759379=0x1.9870e00426fe8p+1
759381=0x1.0a73ae18f02bp+1
759385=0x1.6df15a01c744fp+1
759386=0x1.bac99993a9465p+2
759390=0x1.68d41bf039a52p+1
759391=0x1.25c077322c512p+2
759397=0x1.3397b5a8ee518p+2
759402=0x1.7e08fea6f802p+2
759407=0x1.5051d3bd6b272p+2
759413=0x1.1fbe7c1277339p+0
759417=0x1.87a552e9b96fcp+1
759423=0x1.2ce9564fa5895p+2
759424=0x1.dd5ff4f8267cbp-1
765936=0x1.721646e493ef4p-1
765940=-0x1.20b07849f3cc6p-1
765942=0x1.790aa928bc8bdp-2
765952=0x1.f948527d4557bp+0
765968=0x1.b08ba051910fp+0
765989=0x1.2fe0c9d620a56p+0
765992=0x1.46f1523d076abp+0
766017=0x1.721646e493ef4p-1
766021=-0x1.20b07849f3cc6p-1
766023=0x1.790aa928bc8bdp-2
766033=0x1.f948527d4557bp+0
766049=0x1.b08ba051910fp+0
766070=0x1.2fe0c9d620a56p+0
766073=0x1.46f1523d076abp+0
766989=0x1.73e3c62674a9cp+1
772659=0x1.f6465ebea1e92p+0
772664=0x1.1f5b8767aca0ep-2
772666=-0x1.d2f3eb2b8c238p-5
772669=-0x1.7aeb5b5f9659dp-3
772670=0x1.3553a8d8d3ef7p-1
772671=0x1.3810c2f427a5bp-3
772682=0x1.a237b4b1c58adp-1
772685=0x1.6e68bac5d472dp+0
772686=0x1.4fca02f05db1ep+0
772691=0x1.13be8d0c3d966p+1
772697=0x1.0b1c9c1f271fap+0
772701=0x1.09dda982c53aep+0
772713=0x1.8348dcdf76a65p-1
772740=0x1.f6465ebea1e92p+0
772745=0x1.1f5b8767aca0ep-2
772747=-0x1.d2f3eb2b8c238p-5
772750=-0x1.7aeb5b5f9659dp-3
772751=0x1.3553a8d8d3ef7p-1
772752=0x1.3810c2f427a5bp-3
772763=0x1.a237b4b1c58adp-1
772766=0x1.6e68bac5d472dp+0
772767=0x1.4fca02f05db1ep+0
772772=0x1.13be8d0c3d966p+1
772778=0x1.0b1c9c1f271fap+0
772782=0x1.09dda982c53aep+0
772794=0x1.8348dcdf76a65p-1
773799=0x1.7b4b52a9bb327p+2
773804=0x1.5e15b78531e19p+3
775936=0x1.a2c250fb89c88p+2
776412=0x1.4d551ba2e99a8p+3
776415=0x1.e41a9f1bf6a5dp+1
779544=0x1.a21a1d5df02f3p+0
779598=0x1.3f251222324cep-1
779612=0x1.2e6df7671fa3p+0
779625=0x1.a21a1d5df02f3p+0
779679=0x1.3f251222324cep-1
779693=0x1.2e6df7671fa3p+0
780354=0x1.a8103e71fab68p+2
780356=0x1.37ee813c69861p+2
786279=0x1.f36e78721889p-4
786360=0x1.f36e78721889p-4
787077=0x1.5c2755652d659p+2
793157=-0x1.4f2b9b04a0447p-1
793314=-0x1.0794a0599f9fap-2
794124=0x1.6d08f00c544bbp+2
794853=0x1.e3f2922a90144p+2
794858=0x1.06f460fae3349p+3
794859=0x1.dad173ecef1e2p+2
794904=0x1.f28e26135c612p+2
798255=0x1.10dbd5538c69ap+2
798310=0x1.369f275b23906p+2
799713=0x1.1a62ab11f3b98p+0
799754=0x1.03e5f5a6020ep+0
799794=0x1.1a62ab11f3b98p+0
799835=0x1.03e5f5a6020ep+0
799875=0x1.289c0901007d2p-1
799881=0x1.38ffeee63a193p-1
799892=0x1.103e6e76b6801p+0
799905=0x1.716f8c5f53c6p-2
799930=0x1.14317b99764ffp-1
799956=0x1.289c0901007d2p-1
799962=0x1.38ffeee63a193p-1
799973=0x1.103e6e76b6801p+0
799986=0x1.716f8c5f53c6p-2
800011=0x1.14317b99764ffp-1
800037=0x1.6c355665be40ep+1
800057=0x1.989843dd2c576p+0
806631=0x1.7bc2e7431c839p-6
806712=0x1.7bc2e7431c839p-6
806760=0x1.8f3599689db77p+1
806767=0x1.0e05c66358c9ep+2
807246=-0x1.7df60e1481db4p-1
812511=0x1.5503b3677b4acp+0
813321=0x1.5ce4e8e86ffc2p+1
813402=0x1.5ce4e8e86ffc2p+1
813483=0x1.2448f39862567p+2
820044=0x1.3e378073b0584p+2
820048=0x1.d796fbbc7e7fap+0
820071=0x1.15c6a54837dabp+2
820086=0x1.5bb5af975a20cp+2
820098=0x1.5c99415d4a1f8p+0
820107=0x1.3c46f3617298ap+1
820368=-0x1.313abf48ff694p+0
826605=0x1.6476dc9d3e8b6p+0
826686=0x1.6476dc9d3e8b6p+0
826767=0x1.feddaf39e0305p-1
826769=-0x1.a68357e1f8e56p-8
826771=0x1.30b6c327d51f3p+1
826772=-0x1.30626f8d829d1p-1
826777=-0x1.729bee42d9792p-3
826778=-0x1.c0ab47e8ca44cp-1
826783=-0x1.5494051987ea4p-3
826794=0x1.5716d60f55d56p-2
826797=0x1.644766ebe60dap+0
826809=0x1.186e61002aa6ep+0
826815=0x1.d12ce9ead0e6ep+0
826822=0x1.35d06fca27bc9p+0
826823=0x1.1b64af1e505abp+0
826825=0x1.31c0722928448p+0
826848=0x1.feddaf39e0305p-1
826850=-0x1.a68357e1f8e56p-8
826852=0x1.30b6c327d51f3p+1
826853=-0x1.30626f8d829d1p-1
826858=-0x1.729bee42d9792p-3
826859=-0x1.c0ab47e8ca44cp-1
826864=-0x1.5494051987ea4p-3
826875=0x1.5716d60f55d56p-2
826878=0x1.644766ebe60dap+0
826890=0x1.186e61002aa6ep+0
826896=0x1.d12ce9ead0e6ep+0
826903=0x1.35d06fca27bc9p+0
826904=0x1.1b64af1e505abp+0
826906=0x1.31c0722928448p+0
827260=-0x1.2bd1e3b741ce5p+0
828711=0x1.6e5d8788c7a07p+0
830824=0x1.ed1c0cbbc1112p+2
833490=0x1.508bc0637a8cep-2
833494=-0x1.02c6f43d51399p+0
833495=0x1.28c958493ae32p-2
833571=0x1.508bc0637a8cep-2
833575=-0x1.02c6f43d51399p+0
833576=0x1.28c958493ae32p-2
833652=0x1.6dbd1c498672dp+2
833654=0x1.fd0d3ff1ea87ep+2
833656=0x1.25a35ffb11a59p+3
840213=-0x1.e091dcb895fe1p-1
840226=-0x1.4a4e4bfd3bafbp-2
842076=0x1.4a3dc12eae177p+3
842089=0x1.6029d83c3bc2p+2
842104=0x1.c043099198adp+1
842106=0x1.dc14cc5a6c901p+2
842132=0x1.a35c4cb279961p+2
846774=0x1.d3bcf0164f952p-2
846776=-0x1.fa359bc6314a7p-2
846778=0x1.62875a2ec212ap+0
846779=0x1.884ca24722012p-6
846837=0x1.58b5a20441892p+0
846855=0x1.d3bcf0164f952p-2
846857=-0x1.fa359bc6314a7p-2
846859=0x1.62875a2ec212ap+0
846860=0x1.884ca24722012p-6
846918=0x1.58b5a20441892p+0
853659=0x1.2d320d3006476p+0
860382=-0x1.9c91fe3c1a99ep+0
860787=0x1.175df54b65a91p+2
860792=0x1.cee160eda6a28p+0
860793=0x1.e043fa582c021p+2
860797=0x1.1ab1d2658c688p+0
860805=0x1.0428f0d1efe2ep+2
864837=0x1.47f63bf34b526p+0
864867=0x1.5ce1ac37ef144p+2
864879=0x1.06f6d1456e9eep+2
866006=0x1.a37c820d570dfp+2
868401=0x1.61b126115fc83p+2
868418=0x1.60d656a70f963p+3
870142=0x1.3a575d4ab4ca2p+3
870716=0x1.484b5d0a3c92ep+2
