#mdl#2#9583
#rdr#2/0/0
9:*0%x[1,0],
10:u1%x[-2,0],
#qrk#81
1:O,
15:B-cost_relative,
19:B-fromloc.city_name,
20:B-fromloc.state_code,
17:B-toloc.city_name,
22:B-depart_date.day_name,
27:B-depart_time.period_of_day,
27:B-depart_date.date_relative,
14:B-airline_name,
13:B-flight_time,
27:B-depart_time.time_relative,
18:B-depart_time.time,
12:B-flight_mod,
14:B-airline_code,
20:B-fromloc.state_name,
19:B-stoploc.city_name,
11:B-city_name,
24:B-depart_date.day_number,
24:B-depart_date.month_name,
9:B-connect,
12:B-round_trip,
24:B-depart_time.period_mod,
22:B-fromloc.airport_name,
13:B-flight_stop,
12:B-state_name,
15:B-aircraft_code,
18:B-toloc.state_name,
18:B-arrive_time.time,
12:B-class_type,
15:B-flight_number,
27:B-arrive_time.period_of_day,
16:B-transport_type,
14:B-airport_name,
8:B-return,
18:B-depart_date.year,
15:B-period_of_day,
15:B-time_relative,
6:B-time,
13:B-fare_amount,
24:B-arrive_date.month_name,
24:B-arrive_date.day_number,
6:B-meal,
27:B-arrive_time.time_relative,
18:B-meal_description,
12:B-state_code,
9:B-economy,
24:B-return_date.month_name,
24:B-return_date.day_number,
20:B-toloc.airport_name,
5:B-mod,
13:B-flight_days,
28:B-depart_date.today_relative,
18:B-restriction_code,
17:B-fare_basis_code,
27:B-arrive_date.date_relative,
22:B-arrive_date.day_name,
4:B-or,
11:B-meal_code,
24:B-arrive_time.start_time,
22:B-arrive_time.end_time,
22:B-fromloc.airport_code,
20:B-toloc.airport_code,
14:B-airport_code,
24:B-arrive_time.period_mod,
18:B-toloc.state_code,
24:B-depart_time.start_time,
22:B-depart_time.end_time,
16:B-today_relative,
28:B-arrive_date.today_relative,
10:B-day_name,
20:B-stoploc.state_code,
27:B-return_date.date_relative,
22:B-stoploc.airport_name,
22:B-return_date.day_name,
11:B-days_code,
12:B-month_name,
12:B-day_number,
20:B-toloc.country_name,
28:B-return_date.today_relative,
24:B-return_time.period_mod,
27:B-return_time.period_of_day,
#qrk#1905
6:*0like,
6:u1_x-2,
4:*0to,
6:u1_x-1,
6:*0find,
5:u1i'd,
5:*0the,
6:u1like,
10:*0cheapest,
4:u1to,
8:*0flight,
6:u1find,
6:*0from,
5:u1the,
12:*0washington,
10:u1cheapest,
4:*0dc,
8:u1flight,
6:u1from,
9:*0atlanta,
12:u1washington,
6:*0_x+1,
4:u1dc,
11:*0traveling,
8:*0dallas,
5:u1i'm,
11:u1traveling,
14:*0philadelphia,
8:u1dallas,
6:*0also,
6:*0need,
3:u1i,
4:*0go,
6:u1also,
6:u1need,
15:*0san-francisco,
4:*0on,
4:u1go,
11:*0wednesday,
9:*0evening,
15:u1san-francisco,
4:u1on,
11:u1wednesday,
9:u1evening,
5:*0you,
3:*0i,
7:u1thank,
5:u1you,
8:*0travel,
6:*0next,
8:u1travel,
6:u1next,
5:*0fly,
22:*0continental-airlines,
9:*0between,
8:*0boston,
5:u1fly,
5:*0and,
22:u1continental-airlines,
9:u1between,
8:u1boston,
6:*0tell,
4:*0me,
8:u1please,
9:*0flights,
6:u1tell,
4:u1me,
9:u1flights,
10:*0thursday,
5:u1and,
14:u1philadelphia,
7:*0would,
7:u1would,
6:*0fare,
6:u1fare,
9:u1atlanta,
3:*0a,
3:u1a,
6:*0give,
14:*0flight-times,
6:u1give,
14:u1flight-times,
11:*0baltimore,
4:*0in,
9:*0morning,
11:u1baltimore,
8:*0before,
4:u1in,
3:*08,
9:u1morning,
8:*0please,
23:*0times-of-your-flights,
23:u1times-of-your-flights,
11:*08-o'clock,
9:*0leaving,
9:u1leaving,
4:*0do,
6:u1what,
6:*0have,
4:u1do,
8:*0denver,
6:u1have,
10:*0arriving,
8:u1denver,
10:u1arriving,
4:*0is,
6:*0your,
6:*0last,
4:u1is,
6:u1your,
6:u1last,
7:*0there,
7:u1there,
19:*0american-airlines,
6:u1does,
19:u1american-airlines,
6:*0does,
6:*0time,
10:*0earliest,
6:u1time,
10:u1earliest,
4:*0of,
4:u1of,
7:u1could,
13:*0information,
12:*0concerning,
13:u1information,
12:u1concerning,
5:*0one,
5:u1one,
4:*0as,
10:*0possible,
18:*0american-airline,
18:u1american-airline,
15:*0early-morning,
17:*0times-of-flight,
5:*0twa,
5:u1twa,
12:*0fort-worth,
7:*0texas,
12:u1fort-worth,
7:u1texas,
12:u1interested,
12:*0interested,
6:*0that,
6:*0stop,
6:u1that,
6:u1stop,
12:*0pittsburgh,
5:*0for,
5:u1for,
12:u1pittsburgh,
6:*0want,
6:u1want,
8:*0monday,
10:*0airlines,
10:u1airlines,
8:*0ground,
16:*0transportation,
8:u1ground,
16:u1transportation,
9:*0airport,
9:u1airport,
10:*0downtown,
9:*0tuesday,
14:*0twenty-first,
11:u1repeating,
6:*010am,
6:*0what,
6:*0type,
8:u1before,
6:u110am,
10:*0aircraft,
6:u1type,
6:*0used,
10:u1aircraft,
8:*0flying,
8:u1flying,
17:*0united-airlines,
17:u1united-airlines,
7:*0right,
5:u1all,
5:*0let,
7:u1right,
6:*0know,
5:u1let,
6:u1know,
7:*0using,
7:u1using,
6:*0they,
5:*0use,
7:*0these,
6:u1they,
5:u1use,
4:*010,
7:u1these,
4:u110,
6:*0i'll,
5:*0try,
6:u1well,
6:u1i'll,
5:u1try,
6:*0kind,
6:u1kind,
7:*0flies,
7:u1flies,
12:*010-o'clock,
12:u110-o'clock,
11:*0september,
11:*0twentieth,
11:u1september,
11:u1twentieth,
10:*0stopover,
10:u1stopover,
5:*0are,
5:u1are,
4:*0an,
4:u1an,
12:*0connecting,
6:*0wish,
6:u1wish,
9:*0airline,
9:u1airline,
7:*0plane,
7:u1plane,
9:*0one-way,
9:u1one-way,
11:*0available,
4:*0at,
10:*0noontime,
11:u1available,
4:u1at,
10:u1noontime,
8:*0around,
8:u1around,
16:*0delta-airlines,
16:u1delta-airlines,
18:*0eastern-airlines,
18:u1eastern-airlines,
7:*0early,
4:u1as,
7:u1early,
5:*0day,
10:u1possible,
5:u1day,
6:*0will,
8:*0arrive,
6:u1will,
8:u1arrive,
16:*0denver-airport,
16:u1denver-airport,
9:*0nonstop,
9:u1nonstop,
8:*0repeat,
12:*0departures,
8:u1repeat,
8:*0august,
12:u1departures,
12:*0nineteenth,
8:u1monday,
8:u1august,
12:u1nineteenth,
6:*0rate,
6:u1rate,
5:*0any,
8:*0us-air,
5:u1any,
8:u1us-air,
7:*0going,
7:u1we're,
7:u1going,
5:*0819,
5:u1819,
6:*0take,
6:u1take,
11:*09-o'clock,
11:u19-o'clock,
5:*0out,
5:u1out,
4:*0be,
9:*0staying,
4:u1be,
9:u1staying,
10:u1downtown,
5:*0two,
7:*0hours,
7:*0could,
5:u1two,
7:u1hours,
5:u1can,
7:*0about,
7:u1about,
6:*0city,
6:u1city,
6:*0well,
5:*0i'm,
9:*0working,
6:u1very,
10:*0scenario,
7:*0three,
9:u1working,
10:u1scenario,
7:u1three,
5:*0727,
5:u1727,
9:*0georgia,
4:*0am,
4:u1am,
8:*0number,
8:u1number,
8:*0return,
8:u1return,
7:*0bound,
7:u1bound,
8:*0friday,
6:*0this,
6:*0week,
8:u1friday,
7:*0class,
9:*0service,
7:u1class,
9:u1service,
12:*0california,
14:*0pennsylvania,
12:u1california,
5:*0get,
5:u1get,
7:*0delta,
5:u1yes,
7:u1delta,
7:*0225pm,
8:*01158pm,
7:u1225pm,
8:u11158pm,
11:*0equipment,
11:u1equipment,
6:u1used,
9:*0looking,
9:u1looking,
10:*0stopping,
10:u1stopping,
8:*0ticket,
8:u1ticket,
10:*0colorado,
10:u1colorado,
6:*0with,
9:u1georgia,
6:u1with,
13:*0coach-class,
6:*0seat,
13:u1coach-class,
6:u1seat,
4:*0or,
8:*0lowest,
4:u1or,
8:u1lowest,
5:*0buy,
5:u1buy,
11:*0afternoon,
11:u1afternoon,
5:*0230,
5:u1230,
7:*0324pm,
5:*0324,
5:u1324,
7:*0110pm,
7:u1110pm,
13:*0seventeenth,
9:*0oakland,
10:*0american,
5:*0813,
10:u1american,
5:u1813,
9:u1oakland,
6:*0goes,
10:*0straight,
9:*0through,
6:u1goes,
10:u1straight,
9:u1through,
18:*0without-stopping,
9:*0another,
18:u1without-stopping,
4:*0if,
4:u1if,
9:*0enroute,
9:u1enroute,
4:*0it,
4:u1it,
5:u1may,
6:*02153,
6:u12153,
13:*0first-class,
13:u1first-class,
6:*0list,
6:u1list,
8:*0making,
8:u1making,
13:*0continental,
13:u1continental,
7:*0leave,
7:u1leave,
7:*0after,
12:*012-o'clock,
7:u1after,
12:u112-o'clock,
7:*0which,
8:*0leaves,
7:u1which,
8:*01220pm,
8:u1leaves,
8:u11220pm,
11:*05-o'clock,
11:u15-o'clock,
13:*0lowest-cost,
13:u1lowest-cost,
7:*0645am,
7:u1645am,
9:u1tuesday,
5:*0has,
5:u1has,
6:*0much,
5:u1how,
6:u1much,
12:*0round-trip,
12:u1round-trip,
6:*0long,
6:u1long,
17:*0atlanta-airport,
6:*0into,
17:u1atlanta-airport,
6:u1into,
19:*0airport-limousine,
19:u1airport-limousine,
6:*0make,
6:*0trip,
6:u1make,
6:u1trip,
7:u1again,
5:*0how,
7:*0fares,
7:u1fares,
14:*0arrival-time,
14:u1arrival-time,
7:*0755am,
7:u1755am,
8:*0latest,
8:u1latest,
5:*0755,
5:u1755,
10:*0schedule,
10:u1schedule,
5:*09pm,
5:u19pm,
14:*0twenty-ninth,
10:*0november,
14:*0twenty-third,
10:u1november,
6:*0year,
14:u1twenty-third,
6:*01991,
5:*0i'd,
6:u1this,
6:u1year,
6:u11991,
6:*0just,
6:u1okay,
6:u1just,
5:*08am,
7:u1hello,
7:*0let's,
5:*0see,
7:u1let's,
5:u1see,
15:*0delta-airline,
15:u1delta-airline,
7:*0stops,
7:u1stops,
5:*0way,
5:u1way,
5:*0all,
8:*0united,
8:u1united,
7:*0815am,
4:*0by,
16:*0united-airline,
16:u1united-airline,
4:u1oh,
17:*0eastern-airline,
17:u1eastern-airline,
6:*0some,
6:u1some,
5:*09am,
16:*0dallas-airport,
16:u1dallas-airport,
14:*0arrangements,
14:u1arrangements,
16:*0boston-airport,
16:u1boston-airport,
5:*0can,
11:*0departing,
11:u1departing,
9:*0airfare,
9:u1airfare,
13:*0329-dollars,
13:u1329-dollars,
6:*0cost,
6:u1cost,
5:*0air,
14:*0restrictions,
5:u1air,
14:u1restrictions,
13:*0416-dollars,
6:*0book,
6:u1book,
7:*0coach,
10:*0discount,
7:u1coach,
9:*0arrange,
9:u1arrange,
6:*0july,
9:*0seventh,
6:u1sure,
11:*0determine,
11:u1determine,
6:u1july,
9:u1seventh,
6:*0meal,
7:*0being,
8:*0served,
6:u1meal,
6:*0such,
5:u18am,
6:u1such,
7:*0types,
7:u1types,
6:*0dc10,
10:*0sometime,
10:u1sometime,
8:*0direct,
8:u1direct,
9:*012-noon,
9:*0arrives,
9:u1arrives,
15:u1early-morning,
15:*0approximately,
5:*01pm,
6:*0many,
6:u1many,
7:*0where,
7:u1where,
13:*0dinner-meal,
5:*0420,
5:u1420,
3:*05,
3:u15,
4:*0my,
7:*0final,
13:*0destination,
4:u1my,
7:u1final,
13:u1destination,
11:*0originate,
11:u1originate,
22:*0latest-time-possible,
22:u1latest-time-possible,
11:*0fifteenth,
8:*0during,
11:*0breakfast,
5:*0296,
8:*0serves,
5:u1296,
7:u1first,
17:*0early-afternoon,
8:*0should,
8:u1should,
7:*0615pm,
7:*0their,
7:u1their,
24:*0earliest-possible-time,
10:*0question,
10:u1question,
6:*0live,
6:u1live,
8:*0trying,
8:u1trying,
12:*0connection,
12:u1connection,
7:*0those,
11:*0thirtieth,
11:u1thirtieth,
6:u1fine,
6:*0help,
6:u1help,
6:*0very,
5:*0now,
5:u1now,
5:*0747,
5:u1747,
6:*0able,
5:*0put,
6:u1able,
5:u1put,
16:*0twenty-seventh,
16:u1twenty-seventh,
7:*0first,
7:*0night,
7:u1night,
7:u1630am,
5:*0650,
7:*0third,
7:*0rates,
7:u1rates,
17:*0least-expensive,
17:u1least-expensive,
16:*0city-of-boston,
16:u1city-of-boston,
8:u1kindly,
8:*0inform,
8:u1inform,
17:*012-o'clock-noon,
9:*0eastern,
5:*0825,
9:u1eastern,
5:u1825,
6:*0when,
6:u1when,
5:*0555,
5:u1555,
5:*06pm,
5:*05pm,
7:*0sorry,
7:u1sorry,
14:*0thirty-first,
14:u1thirty-first,
6:*0then,
6:u1then,
8:*0fourth,
8:u1fourth,
6:*0plan,
6:u1plan,
10:*0no-stops,
10:u1no-stops,
9:*0economy,
9:u1economy,
7:*0fifth,
10:u1thursday,
7:u1fifth,
15:*0twenty-eighth,
9:*0october,
9:*0twelfth,
9:*0numbers,
9:*0connect,
9:u1connect,
8:*0cities,
7:u1those,
5:*0may,
10:*0planning,
10:u1planning,
5:*0269,
5:u1269,
5:*0428,
5:u1428,
7:*0times,
7:u1times,
7:*0makes,
7:u1makes,
10:*0one-stop,
10:u1one-stop,
7:*0april,
7:u1april,
14:u1twenty-first,
11:*0beginning,
14:*0twenty-fifth,
11:u1beginning,
11:*0returning,
14:u1twenty-fifth,
7:*0sixth,
11:u1returning,
11:*07-o'clock,
11:u17-o'clock,
11:u1fifteenth,
9:*0sixteen,
9:u1sixteen,
11:*0seventeen,
11:u1seventeen,
8:*0twenty,
8:u1twenty,
11:u18-o'clock,
6:*0four,
6:u1four,
6:*01039,
6:u11039,
5:*0257,
7:*0we're,
7:u1great,
8:*0depart,
8:u1depart,
8:*0sounds,
7:*0great,
8:u1sounds,
12:*0twenty-one,
12:u1twenty-one,
7:*0one's,
5:*0too,
7:u1one's,
5:u1too,
15:*0twenty-second,
15:u1twenty-second,
11:*0nighttime,
11:*0departure,
11:u1nighttime,
6:u1show,
19:*0dallas-fort-worth,
29:*0san-francisco-international,
19:u1dallas-fort-worth,
10:*0arrivals,
10:u1arrivals,
6:*0most,
6:u1most,
13:*0connections,
13:u1connections,
7:*0tenth,
10:*0eleventh,
6:*0june,
6:u1june,
16:*0business-class,
7:*0daily,
7:u1daily,
19:*0stapleton-airport,
10:*0tomorrow,
19:u1stapleton-airport,
8:*0thrift,
8:u1thrift,
13:*0restriction,
6:*0ap80,
9:u1explain,
6:*0code,
4:*0qx,
13:*0represented,
10:*0database,
13:u1represented,
5:*07pm,
5:u17pm,
5:*0315,
4:*0aa,
5:*0459,
4:u1aa,
5:*0m80,
8:u1cities,
9:*0besides,
9:u1besides,
9:*0provide,
9:u1provide,
5:*0jet,
5:u1jet,
6:*0only,
6:u1only,
7:*0today,
4:*0dl,
11:*0different,
9:*0classes,
11:u1different,
9:u1classes,
3:*0b,
6:*0same,
6:u1code,
3:u1b,
6:u1same,
3:*0c,
9:*0booking,
9:u1booking,
4:*0yn,
15:*0no-later-than,
5:*02pm,
15:u1no-later-than,
5:u12pm,
8:u1what's,
6:*0ap57,
7:*0codes,
8:*0belong,
15:*0economy-class,
7:u1codes,
8:u1belong,
5:*0via,
9:*0layover,
9:u1layover,
6:*0more,
6:*0than,
6:u1more,
16:u1business-class,
7:*0other,
6:u1than,
15:u1economy-class,
16:*0late-afternoon,
16:u1late-afternoon,
5:u11pm,
11:*03-o'clock,
11:u13-o'clock,
9:u112-noon,
9:*0delta's,
9:u1delta's,
12:*0rental-car,
12:u1rental-car,
5:*0far,
5:u1far,
10:*0saturday,
6:*0come,
6:u1come,
10:*0smallest,
9:*0seating,
10:*0capacity,
10:u1smallest,
16:*0most-expensive,
9:*0tickets,
16:u1most-expensive,
9:u1tickets,
11:*0atlanta's,
6:*0noon,
6:u1noon,
13:*0originating,
13:u1originating,
7:*0210pm,
8:*0eighth,
7:*0ninth,
8:*0offers,
8:u1offers,
9:*0heading,
9:u1heading,
5:*0279,
5:u1279,
8:*0137338,
7:*0630am,
3:*03,
3:u13,
11:*01-o'clock,
8:*0toward,
8:u1toward,
17:*0oakland-airport,
6:*0each,
6:u1each,
3:*0k,
11:*0lufthansa,
11:u1lufthansa,
14:*0twenty-sixth,
6:*0name,
6:u1name,
22:*0philadelphia-airport,
22:u1philadelphia-airport,
3:*01,
3:u11,
3:*04,
3:u14,
16:*0departure-time,
16:u1departure-time,
17:u1early-afternoon,
11:*0limousine,
7:*0total,
7:u1total,
9:u1seating,
10:u1capacity,
12:*0advertises,
8:*0having,
12:u1advertises,
8:u1having,
3:*0f,
15:*0logan-airport,
11:u1departure,
20:*0pittsburgh-airport,
6:*0town,
20:u1pittsburgh-airport,
7:*0kinds,
7:u1kinds,
41:*0dallas-fort-worth-international-airport,
11:u1limousine,
41:u1dallas-fort-worth-international-airport,
7:*0eight,
8:*0within,
22:*0schedule-for-flights,
22:u1schedule-for-flights,
4:*0s-,
11:*0designate,
4:u1s-,
11:u1designate,
7:*0takes,
7:*0least,
8:*0amount,
7:u1takes,
7:u1least,
8:u1amount,
8:*0planes,
8:u1planes,
9:*0usa-air,
9:u1usa-air,
8:*0prices,
8:u1prices,
8:*0what's,
9:*0various,
11:*0airplanes,
9:u1various,
6:*0uses,
11:u1airplanes,
5:*0who,
5:u19am,
17:*0time-of-arrival,
17:u1time-of-arrival,
17:*0departure-times,
17:u1departure-times,
5:*08pm,
19:*0baltimore-airport,
6:*0show,
11:*0including,
11:u1including,
7:*0offer,
7:u1offer,
6:u1dc10,
8:*0eleven,
8:u1eleven,
9:*0any-day,
9:u1any-day,
5:*0352,
5:u1352,
7:*0price,
7:u1price,
11:*0operating,
9:*0sundays,
11:u1operating,
10:*0services,
10:u1services,
14:*0reservations,
14:u1reservations,
6:*01765,
6:u11765,
17:*0flight-schedule,
5:*0f28,
17:u1flight-schedule,
5:u1f28,
20:*0air-taxi-operation,
36:*0philadelphia-international-airport,
20:u1air-taxi-operation,
4:*0pm,
4:u1pm,
9:*0serving,
9:u1serving,
11:u1breakfast,
8:u1served,
10:u1anything,
5:*0say,
10:*0mealtime,
5:u1say,
7:*0thank,
5:*0run,
5:u1run,
7:*0seats,
7:u1seats,
7:u1other,
9:*0earlier,
6:*01017,
9:u1earlier,
6:u11017,
5:*0630,
14:*05-o'clock-pm,
14:*04-o'clock-pm,
7:*0later,
7:u1later,
14:*06-o'clock-pm,
5:u16pm,
10:*0serviced,
10:u1serviced,
5:*0dfw,
5:u1dfw,
8:*01133am,
6:*043pm,
8:u11133am,
10:*0provided,
10:u1provided,
4:u1by,
10:*0provides,
10:u1provides,
6:*0both,
6:u1both,
7:*0meals,
7:u1meals,
10:*0airplane,
10:u1airplane,
11:*06-o'clock,
8:*0sunday,
11:u16-o'clock,
6:*0mean,
3:u18,
14:u1twenty-ninth,
7:u1third,
12:*0american's,
12:u1american's,
5:*0bwi,
5:u1bwi,
7:*0still,
7:u1still,
7:*0cover,
7:u1cover,
6:*0less,
13:*0200-dollars,
6:u1less,
5:*0oak,
5:*0atl,
5:u1oak,
9:*0qx-fare,
9:u1qx-fare,
14:*0lowest-price,
14:u1lowest-price,
4:*082,
5:*0139,
4:u182,
9:*0q-fares,
9:u1q-fares,
13:*0124-dollars,
13:u1124-dollars,
4:*0ls,
7:*0stand,
4:u1ls,
7:*0level,
9:*0carries,
9:u1carries,
12:*0passengers,
6:*01505,
6:u11505,
7:*0serve,
7:*0lunch,
11:*0itinerary,
11:u1itinerary,
12:u1connecting,
9:*0departs,
9:u1departs,
7:*0local,
8:*0either,
8:u1either,
27:*0dallas-fort-worth-airport,
27:u1dallas-fort-worth-airport,
6:*01940,
8:*0boeing,
12:u1passengers,
5:*0737,
6:*0hold,
8:u1boeing,
3:*06,
3:u16,
9:*0qualify,
9:u1qualify,
10:u1describe,
5:*0j31,
5:*0733,
5:*072s,
5:*0734,
5:*0100,
13:*0415-dollars,
5:*0705,
5:u1705,
4:*071,
4:u171,
10:*0directly,
10:u1directly,
11:*0scheduled,
10:*0december,
11:u1scheduled,
11:*0turboprop,
11:u1turboprop,
9:*0doesn't,
7:*0catch,
7:u1catch,
20:*0lufthansa-airlines,
20:u1lufthansa-airlines,
10:u1saturday,
7:*0logan,
7:u1logan,
11:*02-o'clock,
11:u12-o'clock,
10:*0distance,
10:u1distance,
10:*0tuesdays,
11:*0companies,
11:u1companies,
8:u1serves,
8:*0people,
8:u1people,
9:*0carried,
9:u1carried,
10:*0shortest,
10:u1shortest,
9:*0january,
7:*0cheap,
7:u1cheap,
6:*0back,
9:*0reverse,
9:u1reverse,
10:*0airports,
10:u1airports,
12:*0everywhere,
12:u1everywhere,
10:*0day-time,
10:u1day-time,
6:*010pm,
6:u110pm,
17:*0midway-airlines,
17:u1midway-airlines,
7:u1tenth,
8:*0twelve,
12:*0capacities,
12:u1capacities,
9:*0largest,
9:u1largest,
10:*0greatest,
10:u1greatest,
5:*0767,
8:*0dinner,
7:*0snack,
5:*03pm,
5:u13pm,
4:*012,
3:*02,
4:u112,
3:u12,
7:u1sixth,
12:*0car-rental,
12:u1car-rental,
6:*0limo,
6:u1limo,
8:*0coming,
7:u1ninth,
8:u1coming,
6:u1back,
5:*0fit,
5:u1fit,
5:*0d9s,
5:*073s,
6:*0once,
6:u1once,
11:*0expensive,
11:u1expensive,
5:*0sfo,
9:*0charges,
9:u1charges,
4:*0no,
4:u1no,
5:*04pm,
4:*0so,
4:u1so,
6:*0here,
6:*011am,
6:u1here,
14:*0abbreviation,
4:*0ua,
14:u1abbreviation,
4:*0co,
9:*0weekday,
3:*0y,
12:*01300-hours,
12:*01600-hours,
5:*07am,
12:*01700-hours,
12:u11700-hours,
7:*0under,
13:*0500-dollars,
7:u1under,
13:u1500-dollars,
10:*0airfares,
10:u1airfares,
9:*0options,
9:u1options,
8:*0philly,
9:*0arrival,
9:u1arrival,
11:u11-o'clock,
11:*0regarding,
23:*0san-francisco-airport,
9:u1display,
8:*0second,
7:*0seven,
6:*012pm,
6:u112pm,
10:*0economic,
4:*098,
4:*0us,
5:*0345,
4:u1us,
5:u1345,
6:*0rent,
5:*0car,
6:u1rent,
33:*0stapleton-international-airport,
5:u1car,
33:u1stapleton-international-airport,
8:u1sunday,
6:*01083,
4:u1dl,
6:u11083,
11:*0saturdays,
5:*0201,
4:u1ua,
5:u1201,
5:*0343,
5:u1343,
5:*0323,
5:*0229,
5:u1323,
5:u1229,
6:u1week,
9:*0meaning,
9:u1meaning,
4:*0qw,
4:u1qx,
9:u1weekday,
10:u1tomorrow,
7:*0costs,
7:u1costs,
24:*0the-day-after-tomorrow,
11:*0transport,
5:*0210,
13:*0car-rentals,
13:u1car-rentals,
11:u1saturdays,
5:*0d-s,
5:u1d-s,
7:u1stand,
5:*0106,
5:u1106,
9:*0grounds,
9:u1grounds,
7:*0again,
5:*0838,
5:u1838,
13:*0reservation,
13:u1reservation,
12:u1requesting,
12:*0requesting,
10:*0starting,
10:u1starting,
12:*0afterwards,
5:*0402,
5:u1402,
5:*0270,
5:u1270,
5:*0297,
5:u1297,
5:*0281,
5:u1281,
12:*0wednesdays,
10:u1tuesdays,
11:*0thursdays,
12:*0fourteenth,
7:*0ap-80,
13:u1restriction,
7:*0ap-57,
5:u14pm,
5:u18pm,
14:*02-o'clock-pm,
14:*09-o'clock-am,
24:u1the-day-after-tomorrow,
14:*03-o'clock-pm,
14:u13-o'clock-pm,
14:*08-o'clock-pm,
14:*08-o'clock-am,
14:u18-o'clock-am,
14:u15-o'clock-pm,
7:u1serve,
13:*0us-airlines,
13:u1us-airlines,
15:*011-o'clock-am,
3:u1y,
9:*0explain,
11:u1transport,
3:*0m,
6:*0ap68,
12:*0continuing,
12:u1continuing,
12:*0limousines,
6:*0taxi,
12:u1limousines,
6:u1taxi,
6:*01209,
7:*0names,
7:u1names,
13:*0rental-cars,
4:u1qw,
6:*0sd-d,
8:*0listed,
6:*01055,
8:u1listed,
5:*0405,
6:u11055,
4:*0ea,
4:u1ea,
6:*0look,
6:u1look,
7:u1today,
9:u1what're,
8:u1second,
6:u111am,
8:u1during,
12:*0eighteenth,
8:*01045am,
5:*0430,
7:*0530pm,
5:u1430,
8:*01145am,
7:*0838am,
7:u1838am,
5:u1via,
8:u1thanks,
6:*0near,
6:u1near,
5:u15pm,
7:*0close,
7:u1close,
6:*01110,
6:u11110,
23:u1san-francisco-airport,
9:*0fifteen,
7:u1while,
8:*0wanted,
8:u1wanted,
12:*0afternoons,
9:*0maximum,
9:u1maximum,
7:*0spend,
7:u1spend,
9:*0lastest,
9:u1lastest,
9:*0longest,
9:u1longest,
5:*0but,
5:u1but,
8:u1within,
6:*01059,
6:*0over,
6:u1over,
4:*021,
5:*0852,
5:u1852,
5:*0928,
5:u1928,
7:*0start,
7:u1start,
10:*0bay-area,
7:*0order,
6:*0it's,
5:*0445,
7:*0515pm,
5:u1445,
20:*0washington-airport,
20:u1washington-airport,
25:*0maximum-number-of-stops,
8:u1locate,
11:*0hartfield,
9:*0travels,
9:u1travels,
6:*0late,
6:u1late,
6:*0zone,
6:u1zone,
13:*0inexpensive,
13:u1inexpensive,
11:*0currently,
11:u1currently,
5:*0530,
6:*0must,
6:u1must,
10:*0midnight,
10:u1midnight,
6:*0land,
6:u1land,
7:*0place,
17:u1oakland-airport,
7:*0730pm,
18:*0transcontinental,
18:u1transcontinental,
8:*0across,
11:*0continent,
8:u1across,
11:u1continent,
7:*0430pm,
7:*0630pm,
7:u1430pm,
6:*0gets,
6:u1gets,
7:*0month,
7:u1month,
10:u1december,
10:*0connects,
10:u1connects,
14:*07-o'clock-pm,
10:*0vicinity,
10:u1vicinity,
8:*0begins,
8:u1begins,
7:*0lands,
7:u1lands,
7:*0don't,
11:*0stopovers,
7:u1don't,
11:u1stopovers,
16:*0city-in-dallas,
5:*0757,
5:u1757,
6:*01992,
9:u1january,
6:u11992,
9:u1october,
15:*010-o'clock-pm,
14:u18-o'clock-pm,
8:u1define,
4:*0fn,
7:*0ap-55,
11:*0sixteenth,
5:u1atl,
9:*0listing,
9:u1listing,
6:*02100,
11:*04-o'clock,
11:u14-o'clock,
15:*0twenty-fourth,
5:*0746,
4:u1hi,
3:*0q,
11:*0overnight,
11:u1overnight,
9:*0without,
9:u1without,
14:u1pennsylvania,
12:u1wednesdays,
6:*01291,
6:u11291,
5:*0271,
5:u1271,
6:*0sort,
6:u1sort,
14:u16-o'clock-pm,
14:*07-o'clock-am,
14:u17-o'clock-am,
14:*05-o'clock-am,
14:u15-o'clock-am,
5:u17am,
14:*01500-dollars,
14:*01100-dollars,
4:*0up,
4:u1up,
9:*0mondays,
15:*0only-weekdays,
15:u1only-weekdays,
4:*0ap,
6:*0area,
8:*0proper,
3:u1f,
13:u1rental-cars,
10:u1eleventh,
8:*0priced,
8:u1priced,
5:*0212,
5:u1212,
10:*0anywhere,
6:*01850,
10:u1anywhere,
6:u11850,
6:*01700,
6:u11700,
5:*0217,
5:u1217,
13:*0300-dollars,
13:*0400-dollars,
13:u1400-dollars,
6:*03357,
6:u13357,
5:u1sfo,
8:*0summer,
5:*0non,
5:u1non,
4:u1fn,
10:*0mornings,
11:u1sixteenth,
14:*01000-dollars,
6:*00900,
6:*03724,
6:u13724,
5:*0771,
5:u1771,
18:*0flight-schedules,
18:u1flight-schedules,
9:*0include,
14:u11000-dollars,
10:u1mornings,
9:*0whether,
9:u1include,
9:*0offered,
9:u1whether,
9:u1offered,
13:*0round-trips,
13:u1round-trips,
9:*0toronto,
9:u1toronto,
4:*0ac,
4:u1ac,
10:*0new-york,
10:u1new-york,
15:*0new-york-city,
11:*0milwaukee,
9:*0orlando,
11:u1milwaukee,
9:u1orlando,
9:*0ontario,
8:*0tacoma,
9:u1ontario,
8:u1tacoma,
13:*0minneapolis,
11:*0san-diego,
13:u1minneapolis,
11:u1san-diego,
16:*0salt-lake-city,
12:*0cincinnati,
16:u1salt-lake-city,
12:u1cincinnati,
7:*0miami,
7:u1miami,
20:*0southwest-airlines,
20:u1southwest-airlines,
9:*0phoenix,
9:u1phoenix,
12:*0la-guardia,
8:*0dulles,
8:u1dulles,
13:*0los-angeles,
11:*0las-vegas,
7:*0equal,
13:*0466-dollars,
7:u1equal,
13:u1466-dollars,
13:*0932-dollars,
7:*0along,
7:u1along,
14:*0indianapolis,
9:*0memphis,
14:u1indianapolis,
9:*0burbank,
9:u1burbank,
16:*0st.-petersburg,
16:u1st.-petersburg,
15:*0abbreviations,
10:*0san-jose,
10:u1san-jose,
24:*0salt-lake-city-airport,
24:u1salt-lake-city-airport,
7:*0tampa,
11:*0st.-louis,
7:u1tampa,
11:u1st.-louis,
9:*0houston,
9:u1houston,
9:*0symbols,
9:u1symbols,
4:u1yn,
4:*0hp,
17:*0orlando-airport,
17:u1orlando-airport,
23:*0orlando-international,
23:u1orlando-international,
5:*0417,
5:u1417,
7:*0718am,
13:u1los-angeles,
25:*0minimum-connection-time,
26:*0houston-intercontinental,
25:u1minimum-connection-time,
6:*04400,
6:u14400,
6:*01026,
8:*0o'hare,
8:u1o'hare,
9:*0chicago,
9:u1chicago,
10:*0montreal,
13:*0150-dollars,
10:u1montreal,
10:*0columbus,
10:u1columbus,
10:*0st.-paul,
8:*0newark,
11:*0cleveland,
8:u1newark,
11:u1cleveland,
12:*0new-jersey,
12:u1new-jersey,
5:*0jfk,
5:u1jfk,
12:u1la-guardia,
11:*0nashville,
11:u1nashville,
10:*0weekdays,
20:*0westchester-county,
20:u1westchester-county,
11:u1las-vegas,
4:*0ff,
11:*0tower-air,
11:u1tower-air,
12:*0long-beach,
12:u1long-beach,
6:*0ohio,
4:*0sa,
9:*0seattle,
9:u1seattle,
6:*01993,
4:*0nw,
7:u1bring,
5:*0mco,
9:*0calling,
9:u1calling,
4:*0la,
5:u1mco,
9:u1memphis,
6:*0i've,
5:*0got,
10:*0somebody,
6:*0else,
6:u1i've,
5:u1got,
7:*0wants,
10:u1somebody,
6:u1else,
5:u1who,
7:u1wants,
11:*0charlotte,
11:u1charlotte,
13:*0kansas-city,
12:*0difference,
12:u1difference,
3:u1q,
11:*0tennessee,
16:*0north-carolina,
11:u1tennessee,
4:*0qo,
5:*0ewr,
5:*0bur,
7:u1train,
8:*0laying,
8:u1laying,
12:*0air-canada,
12:u1air-canada,
11:*0minnesota,
8:*0stands,
8:u1stands,
13:u1kansas-city,
9:*0florida,
9:u1florida,
9:*0landing,
9:u1landing,
6:*0soon,
6:u1soon,
5:*0ten,
5:u1ten,
17:*0during-the-week,
18:*0during-week-days,
19:*0san-diego-airport,
19:u1san-diego-airport,
9:u1instead,
32:*0as-soon-thereafter-as-possible,
4:u1nw,
17:*0phoenix-airport,
17:u1phoenix-airport,
13:*0meal-code-s,
6:u1uses,
5:*0lax,
5:u1lax,
9:u1numbers,
6:u1ohio,
11:u1minnesota,
8:*0canada,
15:u1new-york-city,
8:u1canada,
10:*0listings,
10:u1listings,
10:*0missouri,
6:*0utah,
10:u1missouri,
6:u1utah,
6:*01222,
6:u11222,
12:*0preferably,
12:u1preferably,
8:*0497766,
8:u1497766,
7:*0810pm,
7:u1810pm,
16:u1north-carolina,
6:*0runs,
6:u1runs,
5:*0505,
5:u1505,
8:*0that's,
8:u1dinner,
8:u1that's,
5:*0163,
12:*0thirteenth,
8:u1eighth,
10:*0includes,
10:u1includes,
17:*0alaska-airlines,
17:u1alaska-airlines,
8:*0nevada,
8:u1nevada,
9:*0detroit,
10:*0michigan,
9:u1detroit,
10:u1michigan,
10:*0actually,
10:u1actually,
13:*0westchester,
13:u1westchester,
7:*0thing,
7:u1thing,
5:*0130,
5:u1130,
9:u1another,
19:*0milwaukee-airport,
19:u1milwaukee-airport,
19:*0the-following-day,
12:*0twenty-six,
8:*0prefer,
8:u1prefer,
8:*0quebec,
8:u1quebec,
9:*0indiana,
9:u1indiana,
10:*0reaching,
10:u1reaching,
9:*0reaches,
3:*07,
9:u1reaches,
3:u17,
11:*0following,
11:u1following,
7:*0route,
13:u1seventeenth,
12:u1fourteenth,
12:u1thirteenth,
6:*0date,
6:u1date,
11:*0hopefully,
11:u1hopefully,
6:*0home,
20:*0northwest-airlines,
20:u1northwest-airlines,
6:*0days,
6:u1days,
5:*0415,
5:u1415,
9:*0arizona,
9:u1arizona,
10:u1st.-paul,
11:*0northwest,
11:u1northwest,
23:*0ontario-international,
23:u1ontario-international,
9:*0friends,
9:u1friends,
17:*0toronto-airport,
14:u1twenty-sixth,
20:*0la-guardia-airport,
20:u1la-guardia-airport,
4:u1la,
8:*0single,
8:u1single,
12:u1eighteenth,
9:*0red-eye,
9:u1red-eye,
9:u1twelfth,
12:*0twenty-two,
14:*0america-west,
11:*0southwest,
14:u1america-west,
11:u1southwest,
12:u1twenty-two,
5:*0six,
5:u1six,
11:*0salt-lake,
9:*0tonight,
9:u1tonight,
7:*0visit,
7:u1visit,
6:*0them,
7:*0lives,
6:u1them,
7:u1lives,
5:u1530,
24:*0st.-petersburg-airport,
5:*0539,
21:*0trans-world-airline,
21:u1trans-world-airline,
8:*01030am,
8:*01130am,
8:u11030am,
8:*01115am,
8:*01245pm,
8:u11115am,
3:*09,
3:u19,
18:*0at-the-same-time,
12:*0new-york's,
31:*0toronto-international-airport,
31:u1toronto-international-airport,
35:*0los-angeles-international-airport,
35:u1los-angeles-international-airport,
37:*0san-francisco-international-airport,
37:u1san-francisco-international-airport,
9:*0closest,
9:u1closest,
4:*019,
4:u119,
5:*0845,
5:u1845,
7:*0230pm,
8:*0supper,
5:*0823,
5:u1823,
6:*01024,
6:u11024,
6:*01205,
6:u11205,
5:*0305,
5:u1305,
7:*0723pm,
8:*01020pm,
8:*0nights,
9:*0fridays,
8:*01230pm,
7:*0934pm,
6:*02134,
8:*0taking,
8:u1taking,
5:*0311,
5:u1ewr,
14:*09-o'clock-pm,
14:u19-o'clock-pm,
10:*0nonstops,
10:u1nonstops,
7:*0vegas,
7:u1vegas,
3:*0h,
12:*01200-hours,
10:*0sunday's,
10:u1sunday's,
13:*0wednesday's,
13:u1wednesday's,
10:u1friday's,
15:u1twenty-eighth,
17:u112-o'clock-noon,
5:*0mia,
5:*0bna,
5:*0ord,
6:*011pm,
10:*0february,
21:*0continental-airline,
7:*0march,
10:u1february,
7:u1march,
12:*0love-field,
19:*0northwest-airline,
19:u1northwest-airline,
5:*0iah,
5:*0hou,
12:u1love-field,
33:*0canadian-airlines-international,
4:*0cp,
19:*0canadian-airlines,
9:*0choices,
9:u1choices,
7:u1718am,
12:*0dinnertime,
6:*01288,
5:*0d10,
10:*0takeoffs,
10:*0landings,
10:u1takeoffs,
32:*0general-mitchell-international,
10:u1landings,
40:*0general-mitchell-international-airport,
5:*0off,
5:u1off,
9:*0takeoff,
9:u1takeoff,
26:*0general-mitchell-airport,
32:u1general-mitchell-international,
9:*0located,
18:*0general-mitchell,
12:*0lunch-time,
7:u1lunch,
11:*0nationair,
11:u1nationair,
5:*0yyz,
24:*0lester-pearson-airport,
19:u1canadian-airlines,
33:u1canadian-airlines-international,
9:*0midwest,
9:*0express,
9:u1midwest,
9:u1express,
7:*0720am,
9:*0highest,
9:u1highest,
0=0x1.22298f01c63f5p+2
81=0x1.8f52d2e8b745fp+1
243=0x1.d953ef929b48p-1
405=0x1.365bd6bb6e6d1p-2
486=0x1.5b22d8ee72137p+0
1377=0x1.67a1807a48b0ep-1
1458=0x1.66bf60c2f18f9p+0
2349=0x1.431c7716e84c4p+0
3321=0x1.4a9b8d77a2ebdp-1
6642=0x1.710cadb75aa71p+2
6643=0x1.331aede9ef166p+1
6644=0x1.85f671721bd8fp+1
6645=-0x1.d0acc7c0ebe1ap-3
6646=-0x1.a19b350a5fe07p+0
6647=0x1.1f2317a7be778p+0
6648=0x1.0419248552379p+0
6649=0x1.d8676afd5626dp-6
6650=0x1.0ddc2b2f26b9p+1
6651=-0x1.c675ddc9f5df1p-4
6652=0x1.b2d6546254859p-3
6654=0x1.0d4fe6419a4cep+1
6655=0x1.71b35ddee9761p+0
6656=-0x1.c594aa09afbf6p-4
6657=-0x1.af51bec256338p-2
6658=0x1.d6514fff996ccp+0
6659=-0x1.43543714e1e7bp-3
6660=0x1.365a8dc354508p-6
6661=-0x1.1633b47bb36c3p+0
6662=0x1.fbbc1f97da516p+0
6663=-0x1.d4188c2bd8956p-1
6664=-0x1.c18e237a76221p-1
6665=0x1.dc42966e8cc3ap-1
6669=-0x1.59ea5806fc8b4p-1
6670=0x1.36955ea771cefp+0
6671=-0x1.684f7483203bdp-1
6672=-0x1.6bc446be43109p-3
6673=0x1.281cf2e3295dp+1
6675=-0x1.69396c0257272p-1
6685=-0x1.5d1904c71bf65p-1
6690=-0x1.ff89f4a592c6p-8
6691=0x1.1f8288ea15b4dp-4
6692=-0x1.2daa3987d8829p-5
6702=0x1.5d1ebd2bf7948p-11
6708=-0x1.21c2163380424p-3
6723=0x1.24d3577f1c72ap-1
6725=0x1.8fe8fb37f392ep+1
6726=0x1.40006150ec66dp+1
6727=0x1.c835599601fd8p-1
6728=0x1.f47e5ec269529p-2
6729=-0x1.33ddc654b7c9cp-7
6731=0x1.773963fb96827p-3
6732=-0x1.1bbaae3efa994p-4
6733=-0x1.af466d4f23e85p-4
6734=0x1.61aca6e06da82p-8
6735=-0x1.950e3838f0002p-3
6737=0x1.49e1e3a70b16ap+1
6738=0x1.1e879e9b6f62cp-1
6739=-0x1.6e5ab45511591p-2
6740=0x1.d10fbf2b7ebep-1
6741=-0x1.0f020857ff00dp-4
6743=-0x1.ad0c56637a8fdp-1
6745=0x1.6f44c85d71b9dp+0
6746=-0x1.78e494bf6c4aep-5
6750=0x1.1c030a641192p-3
6751=-0x1.0d530288fa00bp-4
6752=-0x1.738073626fa5ap-4
6753=-0x1.adcbc51041b63p-2
6754=0x1.6075ba099049bp-1
6755=0x1.0e9ddc3b6261fp-3
6756=0x1.b8476390463cp+0
6765=0x1.ff13a4903f6bdp-1
6767=0x1.4561c4997eb98p-3
6772=0x1.19c0dbe327c87p-3
6774=-0x1.19509641b663dp-6
6776=-0x1.100a1bf6a5942p-1
6778=-0x1.43f93087e3c68p-7
6779=0x1.35c26b7fa0786p-6
6783=0x1.0698f1e1ffcdep+1
6785=0x1.4ca4e6232cfcdp-3
6799=0x1.d089969e48b9ap-3
6804=0x1.c803237e77997p+1
6805=0x1.b2669ac07ddb8p+0
6806=0x1.051e455d9e02ap+2
6807=0x1.a8e68461a9491p-2
6808=0x1.ea8036e47e37ep+0
6809=0x1.1803a5ecfc9f4p+1
6810=0x1.10257cb7f2bf6p+1
6812=0x1.72d19483f103p+0
6817=0x1.10b5c3d16bf4fp-1
6818=-0x1.ef60450ccca9ep+0
6819=0x1.5525943f5c0a9p-1
6821=-0x1.0c519fa38e341p-4
6826=0x1.6aeb69a00cecdp+1
6831=0x1.af3ba8e043f12p+0
6835=-0x1.5f5994d6d097dp-14
6836=0x1.d50227426f358p-1
6837=0x1.055471097115ap+0
6846=0x1.6578cf7022679p+0
6853=0x1.b4fa394fd8c91p+0
6857=-0x1.5c3a6e476c981p-4
6864=0x1.90e75e1e06f14p+0
6866=0x1.dbbe1d14e863cp-1
6885=0x1.da7a078b3598bp+0
6966=0x1.0da07c445d967p+2
6968=-0x1.9ee088733bb1p-2
6969=0x1.9c75ccb0cde18p+1
6980=0x1.0d67dbeda38b3p+2
6988=0x1.8df12828e8af5p-4
7128=0x1.e336c267e9688p+0
7130=0x1.197d6b1a8f5c7p-3
7161=0x1.ca6c5def0511p+0
7170=0x1.da28fee83e13bp-1
7184=0x1.e5c4fe0fde7acp+0
7211=0x1.e7bef3162e27p-1
7290=0x1.1f84d831d94b8p+1
7292=0x1.acced69adb54cp-1
7452=0x1.cffa90b637741p+1
7454=0x1.86e661a06fe31p+0
7625=0x1.eb5f9cc433f6dp+0
7695=0x1.aa806112924a9p+0
7776=0x1.febdea14b9158p+0
7809=0x1.d4d0bee01d798p+0
8019=0x1.986954a621dbdp+0
8144=0x1.e99944a613b57p+0
8183=0x1.34aa099b1a5b5p+1
8279=0x1.2a37b7298f29bp+2
8424=0x1.94bb8fef2c2bp+0
8426=0x1.605129f478329p+1
9072=0x1.91394feca5904p+0
9155=0x1.7169390935af4p+1
9315=0x1.1f1393ed9fe9p+0
9639=0x1.ed27c60bd1919p+0
10127=0x1.d2317d9bccf0ep+0
10449=0x1.e807a0b23628dp+0
11342=0x1.22fcfe6ef2b3ep+1
11362=0x1.c3ac07eb0fdc1p+0
11400=0x1.eb0cffbc206cfp+0
12955=0x1.f6562d3f3c826p+0
13365=0x1.1a58ce3c2f6a8p+2
13366=0x1.0f2c00c69b7b5p-1
13367=0x1.80cde48f4036fp-3
13368=-0x1.3c73321772675p+0
13369=-0x1.39b664664f8dbp+1
13370=0x1.7b023a1dd131dp-1
13371=0x1.026e23dfbdd32p+0
13373=0x1.8a06a4f50a2ap+0
13374=0x1.5bf7c7f41c28ap+0
13375=-0x1.3ac551c8dbb31p+0
13376=-0x1.6721076fed9b4p-5
13377=0x1.6226a59476a78p-2
13378=0x1.d81ff15c37094p-1
13379=-0x1.33e3e698950fap+0
13380=-0x1.3bfd09a7446ep+0
13381=0x1.bb5f3039b41dap+0
13383=0x1.275eb22f16cbcp-1
13384=-0x1.96c512cb5aafdp+0
13385=0x1.f4c787a5bf99fp-2
13386=-0x1.62d5dc680e68bp-2
13387=-0x1.87a7f3995ab25p+0
13388=0x1.3e007a39972eap+0
13389=-0x1.24be6308a299cp-2
13390=-0x1.3b446b1261415p-2
13391=-0x1.3ddcbfe16fc05p-2
13392=-0x1.1053be60446dfp-1
13393=0x1.2f6d81a1f778bp-2
13394=0x1.f9aacddf2c965p+0
13395=-0x1.9d9bb760091dcp-3
13396=0x1.f4410586a4df9p-1
13398=-0x1.4c0a5c6e776cap-1
13399=-0x1.293e40b3ddb3fp-2
13400=-0x1.3d3112bb181bdp-2
13401=-0x1.2410fda1afe99p-2
13402=-0x1.258d82664d6cp-2
13403=-0x1.76311dcd65eaep-1
13405=-0x1.2fae0b0db7185p-2
13408=0x1.8bf871294b94bp-11
13409=-0x1.25e41834133b7p-2
13410=0x1.ad49769cfdb88p-5
13411=-0x1.2727121723465p-2
13412=-0x1.24a1cd323cb74p-2
13413=-0x1.d7381329b4b34p-3
13414=-0x1.581a534a78d3fp-2
13415=0x1.cb197ad815144p+0
13416=-0x1.327cb92370a91p+0
13417=-0x1.852113de23fe9p-1
13418=-0x1.c13d29f14250ep-2
13419=-0x1.2945a095dfefap-2
13421=0x1.49c3cd822de8dp-2
13422=-0x1.b02ebf0f4fc74p-1
13423=-0x1.2f63afdd85e1ep+0
13424=-0x1.2ca9f094e9609p-2
13426=-0x1.2996762d9bea8p-2
13427=0x1.0b9cc1bd636b8p-9
13428=-0x1.29f2ad56bbe7p-2
13429=-0x1.31b24f927d2a3p-2
13430=-0x1.2fd3edc44591cp+0
13431=-0x1.6f172b7e94939p-1
13432=-0x1.246f7ce17cfa9p-2
13433=-0x1.24652b31dd68dp-2
13434=-0x1.24647ee600e45p-2
13435=-0x1.24e5ef37543d3p-2
13436=-0x1.28784efd5fe7bp-2
13437=-0x1.244a159195cbcp-2
13438=-0x1.244a0a8395fc4p-2
13439=-0x1.250cfe49d4324p-2
13440=-0x1.2422cc17c0e3ap-2
13441=-0x1.24951c646cae9p-2
13442=-0x1.2630d5bcc2a85p-2
13443=-0x1.24393d71f83fdp-2
13444=-0x1.245a2b9e445ffp-2
13445=-0x1.248ea2a491364p-2
13446=0x1.3c984b83beaddp-1
13450=0x1.58b1652748a02p-1
13517=0x1.c89d14fefa209p+0
13527=0x1.db8ab155bcda4p+0
13531=0x1.62ab69dffab24p+0
13598=0x1.e21401d81852bp+0
13689=-0x1.c15d60746709fp+0
13851=0x1.5e95a933489c2p+0
14094=0x1.e0947d7ea9f5dp+0
20088=0x1.98105e7beb414p+2
20100=-0x1.71c860f9d84f2p-2
20130=0x1.7d19174603fdfp+0
20169=0x1.2e44d007dd82ep+2
20173=0x1.2c85b1a69ea6p-1
20174=0x1.0c8866e3ba344p+1
20178=0x1.46ecdfe9e5a09p-8
20182=0x1.803ffae95af66p-1
20184=0x1.d4325cc7f9c05p-6
20185=-0x1.07cd5cb230e4bp-3
20187=0x1.939feda452b1fp-1
20190=0x1.7074cc0f6675fp+0
20196=0x1.52f8963ce8a2ap-1
20202=0x1.664be21b1a4ebp+0
20222=0x1.377f06a4b9702p-3
20225=0x1.9429653381ec1p-1
20250=0x1.02278bf633d1bp+0
20254=0x1.c7c99aadb5e43p+0
20255=0x1.0eb18fbbc7f67p+1
20259=0x1.19db499fd5297p-5
20263=0x1.5e6f874c105f7p-1
20265=0x1.81e6909c963dfp-3
20266=-0x1.4a73a76b66d59p-5
20268=0x1.c3ef359c9bd14p+0
20271=-0x1.57c4d2cb33e62p-5
20277=0x1.83aa4a039c298p-4
20283=0x1.8074325a28059p+0
20303=0x1.02c514bd3b041p-1
20412=0x1.dc1e442ee236ep+0
20574=0x1.27a4b562676cbp+1
20655=0x1.305da84bad7a4p-1
20817=-0x1.83dfe154ffb52p-2
20979=0x1.13cabb7c0d7a3p+1
21141=0x1.19aeba04c4352p+1
21303=-0x1.23a68f04a3367p-2
21465=0x1.2bd56cdba06f4p+0
21546=0x1.cf0f42d117231p-1
21627=0x1.ad294599ebdeap-1
21683=0x1.f7cc84b70d88p+0
21789=-0x1.aeff2ebc87b9fp-1
21951=0x1.7fe347bb83a77p+1
22032=0x1.115259b96de8bp+1
22275=-0x1.d20662f72e48dp-9
22356=0x1.00f5a51c70714p-3
22437=0x1.877ea36a54e89p+0
22518=-0x1.bd50ef3e05cabp-3
22599=-0x1.760754ec49a16p-7
22680=-0x1.2e6d64c768173p-6
22761=-0x1.b9c61cbea91a4p-5
22842=0x1.d2a8f24ce6e04p-4
22923=0x1.c2ada8996057fp+0
23004=0x1.05dcda9f9f59fp-4
23247=0x1.83177cd4aa413p-2
23490=0x1.e4c684400b053p+0
23571=0x1.da32a309b4a05p-3
23652=0x1.6f699ca3a2576p-3
23679=0x1.362cb058097a7p+0
24791=0x1.fcf6ef096c31p+0
24807=0x1.019f5bf0a70e3p+1
24948=-0x1.2b75766478a35p-7
25029=0x1.c706763127247p-4
25353=0x1.90560bc4eb371p+0
25455=0x1.01659e4e8d891p+1
25596=0x1.72a7a234e0f2bp+0
26811=0x1.bd777e0d9fc2p+1
26812=0x1.44b5c0fd58eddp+0
26813=-0x1.ab11df32d9bfbp+1
26815=-0x1.129355539965cp+1
26816=-0x1.1c09ef607e03bp+0
26817=0x1.aa44486b99f8bp+0
26819=0x1.cc9c0d1f5dc74p-3
26820=0x1.4a236d6e64bbbp+1
26822=-0x1.27ceaf54950b5p-3
26823=0x1.60f423f82e53bp-1
26824=0x1.a5f3fc4e992f3p+0
26827=0x1.bdc377c08935fp+0
26830=-0x1.34c205aa6b338p-1
26831=-0x1.c4ada2433d442p-2
26834=0x1.efdf8c82dd3c4p+0
26839=0x1.a3722ff067fdap-1
26840=-0x1.a56f887931dacp-5
26842=0x1.c0cb7a0353754p-1
26852=0x1.b89d71f584202p-1
26854=-0x1.69e7253e31036p-7
26862=-0x1.cddcd82026a5dp-2
26892=0x1.4bfe15c37698ap+1
26973=0x1.32ea33486947ap+1
27297=0x1.7ef1126a66b54p+0
33534=0x1.eda8369172669p+1
33535=0x1.62415fc52547ep-3
33536=0x1.0bc3d41e0ab6dp+0
33537=-0x1.61be99988b76p-3
33538=0x1.9cc5cc7267c8bp+0
33539=0x1.e6efbd141b11bp+0
33540=0x1.cf9f5172d0c7fp-9
33541=0x1.2fdaf19156d78p+1
33542=0x1.1743182465344p-1
33543=-0x1.76b72fd0a42edp-2
33544=0x1.557be16581118p+1
33545=-0x1.98e4687500354p-2
33546=-0x1.d552388d31ea9p-1
33547=0x1.9885d6241021ep-7
33549=-0x1.688ac159946f8p+0
33550=-0x1.ff2182f1584c6p-7
33551=-0x1.395210a453da9p-1
33552=0x1.60ffeb3a03d3ep-1
33553=0x1.0f4c812f8778p+0
33554=0x1.e2af3bc8cf9aep+0
33555=0x1.3a74fb77e395dp+1
33557=0x1.01d499cae0dcdp+1
33558=-0x1.0a93e7898ab8fp-2
33559=-0x1.6f810e1c84fedp-3
33560=0x1.8daccfd5250c8p+1
33561=-0x1.d4e30396b2211p+0
33562=0x1.765df1945d629p+0
33563=-0x1.134e4c1a7cf6ep+0
33564=-0x1.b56f940f9c531p-2
33565=-0x1.8bf30ed74e853p-1
33566=-0x1.cbcd7a306a564p-3
33569=-0x1.0c206fb2af64ep-2
33570=-0x1.f43bd53ef4783p-3
33571=-0x1.015d8fbe82506p-2
33573=0x1.7c9485d6f565fp-1
33574=-0x1.18fbcb34bbc58p+0
33575=-0x1.792c3af43fa3p-2
33577=-0x1.21cb6ced35533p+0
33578=-0x1.14cf87071de69p-2
33580=-0x1.032deb2032661p-2
33581=-0x1.28e3901335866p-2
33582=0x1.494d81204bcfep-1
33583=0x1.00cc08fe4fb46p-11
33584=0x1.d17159c9ab68cp+0
33585=0x1.07a2350692494p+1
33586=-0x1.2d0772c2bfdedp-3
33587=-0x1.8edbe474fc9f2p-3
33588=-0x1.3971d63a137d8p-2
33589=-0x1.63295ff88a91ep+0
33590=0x1.b882f53164cb3p+0
33591=-0x1.07a8faab66ba1p-2
33594=-0x1.0e3a23d6c03bfp-2
33595=-0x1.2bbf08aa4081ep-7
33596=-0x1.01541ee69f87p-5
33597=-0x1.0505a150637bp-2
33598=0x1.b5b1d2d75166ep+1
33601=-0x1.076a8be86cbf9p-2
33602=-0x1.0ac98a1552f22p-2
33603=-0x1.06bd54fddb383p-2
33604=-0x1.0f4ad80891ab8p-2
33605=-0x1.1c72b67ad5882p-2
33606=-0x1.0107a7bf3b0eap-2
33607=-0x1.0107554870e0ap-2
33608=-0x1.0d0e5873a9ec6p-2
33609=0x1.99fb7dbf50555p-2
33610=-0x1.f615039709fc5p-3
33611=0x1.2570164a6a5f9p+0
33612=-0x1.00de45c3024bcp-2
33613=-0x1.f70b5aee06686p-3
33614=-0x1.09c26f25fdb4dp-2
33615=-0x1.af6488d020dd2p-8
33616=0x1.47cf967aa7bedp+0
33620=-0x1.48dce535dfffdp-4
33621=0x1.8ccebd8b7d8f5p+1
33622=-0x1.f84fe6265a6c2p-2
33623=0x1.554524d3b5846p+1
33624=-0x1.c2e63d8d75bdep-7
33625=-0x1.d8880a3343676p-2
33626=0x1.9b1580f708edep+0
33627=0x1.661801d8c3afdp+1
33628=0x1.e94b0ad5d8facp-1
33631=-0x1.53c7a27dd003ap-3
33633=-0x1.17ea95de693cbp-1
33634=0x1.64dd32a93c65bp+0
33635=0x1.77b0b2893901p-1
33636=-0x1.150ce3a8d712ep-6
33638=0x1.1eeef359670dap+1
33643=0x1.7ecd5e608fd5ap+0
33644=-0x1.5bb5ab9749a18p-3
33646=-0x1.c75eaf9a2b9f5p-3
33648=0x1.1adf581ae6812p-2
33657=-0x1.3c4da668191cbp-6
33658=0x1.bbcfbf081a3b7p+0
33660=0x1.3884981cce7aep+0
33665=-0x1.557041ff2f4d1p-2
33666=-0x1.af11fa58a7253p-5
33667=-0x1.e3dc39143f4bcp-3
33668=-0x1.5975a1f969354p+0
33671=-0x1.8cb79e1f5462bp-4
33676=0x1.409e00be32c22p-1
33679=-0x1.9fa93c8913793p-2
33696=0x1.29838b2c7de37p+1
33697=0x1.20be5955a27b6p+1
33698=0x1.09bbe0b75e153p-2
33700=0x1.91973c2553b06p-1
33702=0x1.49a394d46232ep-1
33704=0x1.7e6754f418f7cp+0
33705=-0x1.69cc87e7031ebp-13
33706=-0x1.13b942b3e680fp-8
33707=0x1.3871019ab200ap+0
33708=0x1.1a66647726628p+1
33709=0x1.cf9aacfc7530fp+0
33715=0x1.ebf0f39ecb913p-1
33716=0x1.bddade3f8f479p+0
33719=0x1.8bf7e3ae65537p-1
33724=0x1.8e29ac0142cc3p-10
33725=-0x1.8f9e829df52eep-9
33729=-0x1.375da8f4d1182p-5
33739=0x1.81b0ab7d868dfp-1
33741=-0x1.3b9f9d676353fp-7
33747=-0x1.a2352ab414fc4p-7
33749=-0x1.6cc2e4361352dp-2
33757=0x1.5efc29afdc491p-1
33760=-0x1.463b3a811d83dp-7
33783=-0x1.ecb47f0a720e2p-4
33796=0x1.8b4a0072287bap+0
33797=0x1.ac39bb7b29447p+1
33805=0x1.4f41474acbd4cp+1
34020=0x1.00e2c0cf49cedp+1
34028=0x1.082a8d3ca787fp+0
34101=-0x1.1efae28397618p-4
34107=0x1.4c039636ae03p-1
34190=0x1.8dd8b576f93a7p+0
34193=0x1.f27f00f57cf61p+0
34194=0x1.ab8ac707968dap+1
34201=0x1.ed5a0ad834882p+0
34205=0x1.c1499f8136a2bp+0
34210=0x1.cccc4321f34a2p+0
34344=0x1.9fc14fd58d26ap-1
34356=0x1.054fa0dd8da96p+0
34425=0x1.f47a2030efe03p+0
34587=0x1.d7d385cde72afp-1
34668=0x1.d940f7e4759dp+0
34674=0x1.cfe6f8b62d02dp+1
34676=0x1.e318732dad285p+1
34691=0x1.0f2f678c4829p+2
34696=0x1.bf09bcc7bb7b5p+0
34701=0x1.695d70f76c7d5p+2
34711=0x1.3c1bb6f97fc3p+2
34911=0x1.d920f42183e77p-1
35344=0x1.e5ffe9f3245d5p+0
35883=0x1.320c3a5a641edp+1
35906=0x1.e0a4daaef23c6p+0
35972=0x1.ff85d53b257d4p+1
36009=0x1.6cbbeab152eap+2
37673=0x1.c89d684b5c14dp+0
37769=0x1.e8da52d02310bp+0
40257=0x1.b7be81f1b1cfap+1
40258=0x1.1e8a8ce00b922p+1
40261=-0x1.7da86bde07328p-1
40263=-0x1.232277bc36328p-2
40265=-0x1.b6638fa42c82ap-5
40269=0x1.5822ca588547fp+0
40277=-0x1.1d5adb63b499cp-2
40280=0x1.e621c53c418f8p+0
40338=0x1.7ef469fc0ba68p+1
40340=-0x1.97cff4d9af458p+1
40341=-0x1.5b1c66e98203ap-1
40342=0x1.b8bcf5610984dp+0
40343=0x1.35bbfae34fd88p+1
40344=0x1.b5cd9e6fc5b2fp+0
40345=-0x1.ed9eb2931f276p-3
40346=0x1.e96f0b8585fa7p-1
40347=0x1.8f7588aecc08ep-1
40349=0x1.a26ccfd179b37p+0
40351=0x1.5cce499a7fef6p+0
40352=-0x1.d970df062288ap-3
40354=0x1.c6d719da3b45bp-6
40355=0x1.fa6dc51e89e18p-1
40356=0x1.dd9183a9b96e5p-7
40357=-0x1.14628854c0495p-2
40358=0x1.692e696df4381p+0
40359=0x1.126f702e4e255p-1
40361=0x1.a500b9fab32f6p-1
40363=0x1.40d4481a0c32p-1
40364=-0x1.cb736c3c4d53p-3
40365=0x1.36689108f6926p-2
40366=0x1.a8851f9eee40bp+0
40367=0x1.3bbacbc87ef87p+1
40368=0x1.184b7e00884ebp+0
40369=-0x1.6de841a621d4dp-8
40372=0x1.2903a0771e6f8p-1
40375=0x1.2ebc46c7cdd58p-1
40376=0x1.a61e420fd996ep-1
40378=0x1.2cab1ee3feea7p-1
40379=0x1.2150d67775b82p-2
40380=-0x1.e16200ad8d5abp-3
40381=-0x1.e4237ae559c5ap-3
40383=0x1.198732188998bp+0
40386=0x1.e9ecef95934dfp-2
40388=0x1.3c0066bfa59b3p-2
40389=0x1.03290193fa3b6p+1
40391=0x1.4a6b65ed0d228p-13
40393=0x1.d58b5c6a56c62p-2
40394=-0x1.54e21200c286cp-1
40398=-0x1.36422dbdef5a4p-2
40400=-0x1.d26c8bcab11a5p-3
40402=0x1.12e64e94a5f8dp-1
40409=-0x1.11b0d9e05ed6ap-2
40419=0x1.6999b418dbf4cp+1
40420=0x1.6df34ac837396p-11
40423=0x1.a331bcaf90b05p+1
40424=0x1.67cbf8a8c0293p+1
40425=0x1.51f1491c72dep+0
40427=0x1.f3b93917aa275p+1
40428=0x1.c3a1a308f2168p+0
40430=0x1.b07720691f173p-3
40431=0x1.2976b2e9b129bp-8
40432=0x1.c71014ce38645p+0
40435=0x1.851a86c24729fp+0
40436=-0x1.5c46663bc694p-4
40437=0x1.3f62bc9e05eb4p-3
40439=0x1.3cb42349062b4p+1
40441=0x1.643651922ad0ap-5
40442=0x1.90f952340da8fp+0
40444=0x1.7ac08530516a8p+0
40446=-0x1.95a169e497af5p-3
40447=0x1.21dd93ad70818p+0
40448=0x1.6f347dc94437cp+0
40449=-0x1.779c09f53222ap-5
40450=0x1.4c73985105699p-3
40452=0x1.747ea1379beb6p-2
40453=-0x1.268a26637a22bp-4
40456=0x1.1b77b8a0379bfp-1
40457=0x1.0067c64e064b7p+1
40460=0x1.eff1c7011ba56p-2
40464=0x1.3009106b9c897p+0
40467=0x1.0de1e924217bcp+1
40469=0x1.dc6d74a726e7bp-2
40470=0x1.0b53c0ab02674p+1
40472=0x1.d158725e42fd6p-4
40474=0x1.2c3a8298073dep+1
40500=0x1.2e5f60c5bff9bp+1
40520=0x1.26d016b481c97p+0
40581=-0x1.0645034e38f84p-3
40587=-0x1.1cf0962f60dap-7
40743=0x1.67d556f489b22p+0
40807=0x1.d9e65b023c9afp+0
40824=0x1.fbf9196467b83p+0
40830=0x1.473e8338149f5p+2
40905=0x1.1020297e40d63p+1
40991=0x1.33eaf92736f6cp+2
41067=0x1.cec3e37ec75bep+0
41072=-0x1.f5badb65489bap-5
41073=-0x1.c0340442a41f5p-4
41084=-0x1.24ed3a2e31d32p-9
41087=0x1.b85f2e6dcb86bp-3
41095=0x1.de1929daddfa9p+0
41096=0x1.5114c1ea0338ep+1
41118=0x1.40515ae3f076fp-1
41148=-0x1.4a4b533b82d6p-2
41229=-0x1.ed584c8700ef4p-3
41240=0x1.91b53642bc547p+2
41310=0x1.c3f25e495a56cp+0
41391=0x1.0c1ff04b37166p+1
41400=0x1.58fc0313f8123p+0
41420=-0x1.d919a6a7284cbp-6
41472=0x1.66c307a33aeebp+0
41501=0x1.241e9125edb8dp+2
41634=-0x1.741dfa81df156p-2
41715=-0x1.6dc55f8acea3p-1
41796=0x1.083ee6b56ee4p-1
41830=0x1.a92a47edc4cbp+1
41877=-0x1.5cac56cb70a0fp+0
41894=0x1.b73d9cf2e4787p+2
41905=0x1.d33adf8c7fc96p+0
41958=0x1.45bc94714ea69p+1
42039=0x1.8738e4695a0ebp+1
42068=-0x1.120a4f4f902e8p-5
42120=0x1.4d0558bb9c1e1p-9
42171=0x1.d2758338a8449p+1
42282=0x1.0e025ea8d2587p+1
42444=-0x1.cfe1d5d77967ep-2
42687=0x1.e87f2320eac06p+0
42707=0x1.484df87b67b3ap+1
42768=0x1.21468e3a800cbp+0
42849=0x1.5908235d8a279p+0
42930=-0x1.9002b3fde004dp-1
43092=0x1.a7e71e76eddaap+0
43618=0x1.8909b8b7c1a14p+1
43659=0x1.48432fc7c7da2p-6
43740=0x1.2a13043dfe8fbp-2
43821=-0x1.003dfd7a31578p-2
43848=0x1.eb18cc9c0723ap+0
43902=0x1.84debea4fa681p+0
44064=0x1.05016e46125a7p+0
44388=-0x1.77acb0c6fa872p-7
44469=0x1.e5a9e5c86520cp+0
44550=-0x1.7225865cea567p-6
44556=0x1.2336abc157349p+2
44571=0x1.ef1c826c95a46p+0
44631=-0x1.0a1c360a809e7p-2
44712=-0x1.5bc653c135137p-2
44874=-0x1.9e144c102e0fp-2
44904=0x1.73da076768496p+2
44955=-0x1.281264f707844p-1
44959=0x1.7c065367ab416p-1
44960=0x1.b4e97367a8ee3p+0
45000=0x1.ec1dc430f2612p+0
45117=-0x1.b04b70392685bp-3
46170=-0x1.0374c4fc5e576p-2
46980=0x1.129984e6cbf39p+2
46981=-0x1.215ef4f8545dcp+0
46982=-0x1.9b1d398192a29p-6
46983=-0x1.55501b02d5a79p-4
46984=-0x1.22ebe697e3d13p+0
46986=0x1.77f9a33da5616p+0
46987=0x1.d5c38f6f9579dp+0
46988=0x1.7be7824976cd2p-2
46989=0x1.7d31ba082b4f5p+0
46990=0x1.87c0fa0533164p-2
46991=-0x1.fe54d733540adp-1
46992=0x1.d5ce732658f08p-2
46993=0x1.873d9964fdaccp+0
46995=-0x1.58c2bc0f8bdc6p-3
46996=-0x1.f304467129f5fp-2
46997=-0x1.523b90239c175p-1
47000=0x1.1e5ee37c93ec7p+1
47002=-0x1.0faf7e69ee46p-1
47003=0x1.b53552edeaee5p-1
47005=0x1.84672b90db1e9p-6
47007=-0x1.307ac59a52866p-1
47008=0x1.67cda6fe8060bp+0
47010=-0x1.2b6e79bc3d10bp-3
47013=0x1.025b16e734654p+1
47016=0x1.28cb03a438fcap+0
47017=0x1.2a8741eb1b605p+0
47018=-0x1.6db46491c3669p-2
47021=0x1.0e96375df282ap-6
47022=-0x1.159177e9ac344p-1
47023=0x1.122a155a9120fp+0
47025=0x1.63692f852ba38p+0
47029=0x1.9ab69ded724ep-3
47030=-0x1.05e306e1047edp-1
47031=0x1.8d7364dfb93f8p-2
47032=0x1.210de36eb07d9p+0
47033=-0x1.8f2a3917c70ap-2
47035=-0x1.0be2a4691959cp-1
47036=0x1.7bbfb6a9fa66cp+1
47040=0x1.8cc1c1d6e6076p-2
47042=-0x1.7269886542834p-4
47046=-0x1.f4179018580d1p-5
47051=0x1.c061fa520e5d6p+1
47060=0x1.479a74d2afc82p+1
47061=0x1.9653984dd6434p+1
47063=0x1.2b06f0b465425p-5
47065=0x1.64a6added7749p+0
47117=0x1.2032067cbf18cp+1
47123=0x1.b30112d829f88p+0
47142=0x1.648cfff06f6e2p+0
47144=0x1.954d48b696d67p-3
47146=0x1.e5c71ebd273a3p+0
47198=-0x1.c58ff7938855ep-5
47204=0x1.a79dbefa27beap+0
47304=0x1.4643f9e9c323fp+1
47360=0x1.83b9e273c01e3p-2
47466=0x1.80d429f9c59dap-7
47522=0x1.dac27686d9a48p+1
47628=-0x1.f5a97cc67eb4bp-2
47790=0x1.5ac23b4ced1b1p-1
48033=0x1.0b4e6bfe575eep+0
48195=0x1.81821cc67f31cp-2
48276=-0x1.08f6ad07219b4p-12
48762=0x1.427d6a96d3a62p-12
49005=0x1.09aa3e182b3f4p+0
49167=0x1.5d25671448befp+0
49491=-0x1.ab086411cdfa4p+0
49653=0x1.1b0fb64f2fa08p+0
52002=0x1.232354e990529p+0
53703=0x1.123097004376cp+2
53707=-0x1.01d9c8583fbbap-9
53708=-0x1.ced2f2df303cep-6
53711=-0x1.69e4257faff3bp-4
53723=0x1.5e2c0dcf8ce1p+1
53731=0x1.82056d91aa666p+0
53784=0x1.93e6ab4c40c97p-1
53786=0x1.0039629014f73p+1
53788=0x1.6e4d304f52584p+1
53799=0x1.1e8178e291b8bp-2
53800=0x1.c7742c58ad868p+0
53865=0x1.298b5d02d6aadp-5
53867=0x1.67d68cf91ba9bp+1
53869=0x1.45b697c08a199p+1
53880=0x1.2d09924296774p+0
53881=0x1.ecdbab75eaac4p+0
54027=0x1.5114d1af899d2p+0
54189=0x1.77ff89883fap-7
55242=0x1.755e5676b3c23p-2
58405=0x1.097611189542ap+1
60426=0x1.b9395cea8a099p+0
60427=-0x1.bc18a433904bbp-2
60428=0x1.9e49da95d6bddp+1
60429=0x1.3e2f83187571cp+1
60430=0x1.db505ba1bfc6dp-2
60431=0x1.a2d972774b0f8p+0
60432=0x1.483fbffd2a0b9p-2
60433=-0x1.50d2484088a25p-4
60434=0x1.8d95bb317c139p+1
60435=-0x1.47af21445d227p-2
60436=-0x1.cb91d48e54757p-3
60437=0x1.df62461b602b6p-1
60439=0x1.03325faa3d673p+1
60444=0x1.fb5657e5273p+0
60446=-0x1.8140818e5bcb1p-1
60447=0x1.2085257847658p+1
60448=0x1.2a5d541e7025dp+0
60454=-0x1.962736e661817p-2
60455=0x1.5609dd45e812bp+1
60474=0x1.1e7792c5535d9p+1
60477=-0x1.006835edbf557p+0
60479=-0x1.01037cc8f39bep-5
60482=0x1.1a8130186a321p-2
60486=0x1.9bcfaf9d94e05p-4
60507=0x1.08e72fea904cdp+2
60509=-0x1.759ec33325684p-6
60510=0x1.dbd8fec43976bp+1
60511=-0x1.5ca05507fcc6p-1
60512=-0x1.28af8023e574ap-2
60515=0x1.1ad7ccf942b84p-3
60517=-0x1.37c0538317b21p-1
60521=0x1.afd4c898dd1d7p+1
60525=0x1.80ee382f3a95dp+0
60526=0x1.7491dee372c49p+0
60529=0x1.9a40f6e14bc56p+1
60539=0x1.278e80b6eda01p+1
60549=0x1.669377dd1e3ebp+0
60558=0x1.a5ab4e7ec9ab6p-2
60562=0x1.f5e1f0dc7cc08p-1
60563=0x1.687ce8df29458p+1
60588=0x1.12396c52de6cap+2
60590=0x1.be41a4d859c2dp+0
60600=0x1.72c9435251adcp+0
60605=0x1.6ae16562c6817p+0
60617=-0x1.ad854d2fc5cbcp-5
60669=0x1.47cd2a7da35cdp+0
60671=0x1.e4ef422915cbp-4
60681=0x1.b2dad036aaa32p+0
60698=-0x1.12659ae6651aap-5
60831=0x1.ffcb4741dffe4p+0
60912=0x1.af34116fd1911p-1
60993=0x1.c2b60201fc2ap-2
61074=0x1.40732630b70eap-3
61076=0x1.f9115c8f275e6p+0
61155=0x1.b31947626f7fap-2
61317=0x1.773f9792b8704p-7
61398=-0x1.5692617d3e963p-3
61641=0x1.21c34e69c75c6p-1
61722=0x1.8842742714637p-2
61803=-0x1.3dfc0f19e0a52p-3
61965=-0x1.8444b3fb09547p-4
62127=0x1.8e167009b07c1p-4
62144=0x1.01ef49d74161cp+1
62208=0x1.c15829fdc401dp-5
62289=0x1.0c500a159eb9ep-4
62532=0x1.da7618243848ep-9
62856=0x1.daa04b9d856a4p-4
62937=0x1.f30e181248aafp-11
63180=-0x1.5ae7c5497f42cp-2
63342=0x1.7931ce0dd56a5p-5
63747=0x1.5061e3e300931p-1
64557=-0x1.c4e4ea3491639p-6
64800=0x1.0942976b98624p-3
65529=-0x1.55575dac3a8d2p-7
65691=0x1.be924f0ce4e45p-1
67230=0x1.39c89308ed9f4p+1
67232=0x1.d59c3e5f0a001p-7
67234=0x1.a0056d21b4912p+1
67235=0x1.84483580cf9d6p+0
67236=-0x1.4f4b4148dc35cp-2
67237=-0x1.4a0b6f6864cdap-10
67242=0x1.617c36bb9a71dp-4
67243=-0x1.b843c6c03f9f6p-7
67245=0x1.0dfcdb5b15cb5p+1
67246=-0x1.54f7dc8e6eca5p-1
67247=0x1.3ebeb82d3cae1p+0
67248=0x1.7903bc53f2689p-2
67251=0x1.2d1d82c89912cp-4
67253=0x1.822475c4f7f21p-2
67257=0x1.0a65ee70152edp+0
67272=0x1.f32fb9d0c6da4p-6
67281=0x1.4ac04cf387f7ap-3
67288=0x1.42aa1ccdb07bbp-1
67311=0x1.2b6dd235f7a9ap+1
67312=-0x1.a62d9a094e75p-3
67313=0x1.467c8f39f52dep+0
67315=-0x1.bdb519c73fb26p-1
67316=0x1.1182a658e1e3p+1
67317=0x1.cc75823bc3d11p-1
67318=-0x1.fe593fc163eedp+0
67319=0x1.43c7639526f32p+0
67320=0x1.5a5cc99fc1a1dp-5
67321=-0x1.3540064f526a2p-1
67322=0x1.bd02388726bccp+0
67323=0x1.1adac0e1e28b4p-3
67324=0x1.bd55f2db6079fp-1
67326=0x1.d4db29919d74fp-2
67327=0x1.a23a1747aa0a2p-1
67328=0x1.54b16f4307761p-2
67329=0x1.475889bf666b9p-2
67330=0x1.7319399ef8c44p-4
67331=0x1.9468455b511c5p+0
67332=-0x1.5b1e743227b66p+0
67333=0x1.1459064c5b19ep+0
67334=0x1.bed8e73d75d44p+0
67335=0x1.456b48ac40518p-2
67336=0x1.4f9fdeff7f103p-2
67337=0x1.5d3b17e7e292fp-1
67338=0x1.999a48eda7c6ep+0
67339=0x1.47c57caf7b7f9p+0
67340=0x1.39427285b0779p+0
67341=0x1.e035d4068cfb1p-1
67342=0x1.95fca1294424ap-2
67343=0x1.8bb30624280bcp-1
67344=-0x1.e60a4191929c9p-6
67345=0x1.07291f6ea007fp-1
67346=0x1.b0ae86b5ccfdcp-3
67347=-0x1.3dc197d79e6bep-1
67349=0x1.b90b177760ffp-14
67350=-0x1.15b7998864578p+0
67351=0x1.7146ca278b43ap-2
67352=0x1.064e6e3e3dc45p-1
67353=-0x1.1109e3a0abbf5p+1
67354=0x1.ef33c2a5c7b8cp-1
67356=0x1.7584909eb6f36p-1
67357=-0x1.4cfa84cef2682p-1
67358=0x1.3e3f417909b37p-1
67359=0x1.fc3c00388cfecp-2
67360=-0x1.1b235ec4c0353p-8
67361=0x1.495965519fd87p-2
67362=0x1.065d4ad9be68ep+1
67363=0x1.1b75f33c9418cp-1
67364=0x1.385cd7d1a2cfbp-2
67365=-0x1.5e91a7ca8448bp-1
67366=0x1.47cfcd4a2e994p+0
67367=-0x1.d11dffd451e2p+0
67368=-0x1.c86031f5c0e13p-10
67369=-0x1.60d9e066d58b5p-1
67370=0x1.75967d5995d0ep-2
67371=-0x1.519865836127cp-1
67372=0x1.49bb2c3a68415p-1
67373=0x1.4c2a5e683b25bp-1
67374=-0x1.4a961977b07e9p-1
67375=0x1.3d1644d59ccd4p-2
67376=-0x1.95cf0a993f4dfp-1
67377=0x1.89c3711b90389p-3
67378=0x1.952b65b8b5f81p-2
67379=0x1.3b6fdfec749a4p-2
67381=0x1.6827bbb90cf6bp-2
67382=0x1.d690f5b23dc5ep-2
67385=0x1.18622fca5ef36p-6
67386=-0x1.4bd93528a3846p-1
67387=-0x1.4a2ab8265df9fp-1
67388=-0x1.5240a7f9f9f45p-1
67390=-0x1.557bd138a8b43p-1
67391=0x1.4f49558753bf5p-2
67392=0x1.79145139bf1edp+0
67393=0x1.81d4d48896502p-3
67394=0x1.949c12b44c287p+1
67395=-0x1.df3c43ef2b53ap-6
67396=0x1.ac485a3b65a5p+2
67397=0x1.8975cf5bdadacp+1
67398=0x1.ab8e2eba897b7p+1
67400=0x1.be1868c03f04cp+1
67402=0x1.fb754075bd7c3p-3
67403=0x1.09ccbee5bfd4bp+0
67404=0x1.d22db3555e631p+0
67405=0x1.774dda5bf1fc8p+1
67406=-0x1.b8d342d1e11cdp-8
67407=0x1.bf0230d5a707ap+1
67408=0x1.fdeedb476dc25p+1
67409=0x1.2702de9c9a779p+1
67410=0x1.24eb333c7133p+1
67412=0x1.e115a6171278cp-5
67414=0x1.6472c7676bcap+1
67415=0x1.115740db1682bp+0
67416=-0x1.18300ca045ac3p-2
67417=0x1.5e26b906103bfp+1
67418=0x1.f238e54c23ee6p-7
67419=0x1.4598a4bfc8fbep+0
67420=0x1.eea331ebdff7bp+0
67421=0x1.01afd84b9256p+0
67422=0x1.1ff29bd7f16aap+1
67423=0x1.8b9dedd4b9b9ap-1
67424=0x1.6f6fc4b43b996p+1
67425=0x1.3480cf1b4524ap-1
67426=-0x1.1ec3ab1d98dc6p-1
67427=-0x1.f641ff072a89dp-3
67430=0x1.16dc6d7a6dca3p+1
67432=-0x1.41128c0f12a94p-2
67433=0x1.563384d96c353p+1
67435=0x1.5adb8309453eep+1
67436=-0x1.24b87cf7682f3p-1
67437=0x1.bf2eca80e3bafp-2
67439=-0x1.1829a78b161b3p-1
67440=0x1.6623ca5cdad0cp+1
67441=-0x1.ec77ff3ea7359p-6
67442=-0x1.1740cc30778b4p-1
67443=0x1.f3f4c66613f84p-1
67444=0x1.44198ae941bb2p+1
67445=0x1.9860afe016a43p+1
67447=0x1.3131897024296p+1
67449=0x1.2a1e14b199a15p+0
67451=0x1.4e46f099ae83ep+1
67453=0x1.116f281e5d3f2p+1
67454=0x1.42596ae9a5567p+1
67456=0x1.5d9bf5038fcdap-3
67458=0x1.ac1328973494bp+0
67460=-0x1.1799b81d1dcd1p-2
67461=0x1.43af7c0321267p-3
67463=0x1.778e2b8c86446p+0
67464=0x1.5a38212056e17p-3
67465=0x1.45d9bc37eb945p-3
67466=0x1.812fcbda2f2b4p+0
67472=-0x1.3745336c23875p-2
67473=0x1.a263a65394ad4p+0
67493=0x1.4c97f991ff22fp-2
67511=0x1.20764492b9e25p+2
67554=0x1.ffc1b539a91a4p-1
67556=0x1.f32774cf0c196p+1
67557=0x1.b899ff9c95d04p+0
67568=0x1.b85dacc787189p+0
67574=0x1.38fff8bac08e1p+0
67576=0x1.4f145432a2e62p+0
67605=0x1.2dccabd80cb04p+1
67609=0x1.4f320651276f4p+0
67635=-0x1.9165f9d97660ap-2
67716=0x1.a4d20cf93e8b7p-1
67718=-0x1.f87fb6af45e8p-2
67721=0x1.1e1ca09423a04p+1
67722=0x1.5251862831c49p-3
67724=0x1.a0f75dc2af139p-8
67727=-0x1.b75641d4798c5p-3
67728=0x1.214852ddbe868p+1
67729=0x1.e7b7d22a0c70ap-3
67733=-0x1.bf07fadbb93c4p-2
67735=0x1.1096a38ddf70cp+0
67736=0x1.3b9347e1dd9efp+1
67739=0x1.198839bd84031p+1
67742=0x1.95f83b6b3c03bp+1
67743=-0x1.8fcacb7f345dep-1
67744=0x1.64e50d3ce353bp+0
67745=-0x1.fb3668e8bc44cp-12
67748=-0x1.2c6fe7f0f495cp-8
67764=0x1.1208ac3c24489p-1
67766=0x1.251cc0acc022fp+1
67767=0x1.618453d644b3bp+0
67771=0x1.e6730ae17be59p-7
67780=0x1.92413a4c5d88ep+1
67797=-0x1.59163628e886ep+0
67802=-0x1.361c8efefcc41p+0
67803=0x1.1e04c4f7def22p+2
67805=0x1.d94851318b1a8p+0
67808=-0x1.8de4f673d4d69p-2
67814=-0x1.f987b794eafcdp-2
67820=0x1.de8f2b5c9b775p-4
67824=-0x1.3d999833d40ccp-4
67825=0x1.c4de05cac41f7p-1
67827=-0x1.d6f7310b903e4p-1
67848=-0x1.dfc4c562c3d4dp-3
67852=-0x1.7ec980548ac57p-5
67878=0x1.f42dea7512126p-3
67887=0x1.ac0ea1407ec0dp+0
67901=0x1.3a726a9988f65p+1
67929=0x1.06b57eac25cf2p+1
67959=0x1.c1b5ac89d3472p-1
67964=0x1.f22b609a253f7p+1
68040=0x1.27eee7193010fp+0
68063=-0x1.03ba34de87688p-6
68068=0x1.8d735b52cf637p-2
68069=0x1.741d5a7adb5fap+1
68083=-0x1.07c2579f61d2ep-4
68089=0x1.c960ea91e2cb3p+0
68121=-0x1.14a48e3d643bcp-5
68202=0x1.745f1425b8bafp-5
68207=-0x1.cf4ee26cf69a5p-5
68208=0x1.798b907e73923p+1
68213=0x1.978754bc87452p+2
68229=-0x1.5a4f65b87233ap-2
68283=0x1.ac445c66aa194p-1
68288=0x1.cb14ff848910bp+0
68291=0x1.26e4303c62c32p+0
68311=0x1.97f1e7c3dbfc4p+0
68333=0x1.ccb064e43adc1p+0
68334=0x1.5f89f90165ff8p+1
68364=0x1.1e96d5dc32655p-1
68445=0x1.ccb61e0289af3p+0
68474=0x1.160227a10c38dp+2
68526=-0x1.8c3f9104ba588p-2
68607=0x1.445a852409759p+0
68613=-0x1.3b7a0a8932c57p+0
68622=0x1.91acbe45a02a5p-4
68637=-0x1.f243d67e854b3p-1
68677=0x1.7c33eb017116dp+1
68688=0x1.92704d49b0eb2p+0
68694=-0x1.3cd0e2d7daa99p-2
68712=0x1.642f2da724f03p+2
68718=-0x1.956b71c3404fp-4
68719=0x1.ced7193570edfp+0
68732=0x1.6df5d82348a53p+2
68755=0x1.d23128076139p+0
68769=-0x1.c37c57b480b47p-6
68780=0x1.41c44a2bc0577p-3
68803=0x1.3106c707b6907p+2
68814=0x1.48e457b96ac83p+1
68850=-0x1.0daa7a8bccebep+0
68855=-0x1.45605404f5ef1p-5
68867=0x1.c2d02afdeef4p+2
68931=-0x1.593cf4f5e101ep-5
69012=0x1.75b4a41270988p+0
69093=-0x1.e11eb2ef5aff4p-2
69098=0x1.3f390c75aff0ep-1
69099=0x1.0cb6170ad9117p+0
69144=0x1.a277b1dd4c0e1p+1
69174=-0x1.29d2c4c61dd5dp-5
69255=0x1.5c41fb5505e83p+0
69417=0x1.8330833e59d35p+0
69498=0x1.8050036468ee4p-1
69503=0x1.ab786e877d5d1p-2
69504=0x1.0bfd323a512eep+0
69579=0x1.22a9493f7d0e4p-3
69647=0x1.63880b288993ep+2
69660=0x1.641c4eee37b6cp+1
69680=0x1.88bac024c413dp+1
69741=0x1.be23072e72843p-1
69984=0x1.268ad689c6802p-2
70065=0x1.ee149e05e70f3p-8
70136=0x1.d189c0adde10ep+0
70143=0x1.d764ed12fd647p+0
70345=0x1.d7fbcf1c21c36p+0
70470=-0x1.7c831875d1d5p-1
70490=0x1.406259df59eb2p+1
70551=-0x1.a91804a98f582p-2
70591=0x1.b784876584ee8p+2
70632=-0x1.221bc1a273ba7p-5
70713=-0x1.e94b9564cf3p-6
70794=-0x1.68e68853dce5ep-1
70798=-0x1.256b886a1cb31p-5
70821=0x1.a4d34951ebe14p+2
70824=0x1.aa17315a50ce2p+1
70837=0x1.738c83c801938p+0
70875=0x1.768298093ad8p+0
71037=0x1.dc6d42c015f58p+0
71165=0x1.a14cd23cc6eb7p+2
71280=-0x1.bf3afb0b10b64p-3
71303=0x1.cabd792c085bep+1
71442=-0x1.5c6d8d489c9bap-5
71453=0x1.cf6b1b533bdadp-1
71523=-0x1.efb39fb9736b9p-2
71529=0x1.9e55e9b2217f9p+1
71604=0x1.b51a6b29cca05p+0
71685=0x1.9cdee3c79caaep+0
71723=-0x1.7abfd87d09156p-3
71821=0x1.2c651b0b8fff5p+2
71877=0x1.11f964c2ae92p+2
71928=-0x1.bec487a940f1fp-7
71930=0x1.a872c323300cdp+1
71932=0x1.7c2fcef1da649p+1
71933=0x1.a21a24b68f7fp+0
71934=0x1.a54a0aa4fe7a8p+1
71936=0x1.1251fac5016c5p+0
71957=0x1.9d09925408895p+0
72252=0x1.8496bcc48e644p-3
72414=0x1.7b11249357114p-1
72430=0x1.4e40f6acb166ap+0
72581=0x1.a0fe0709c86b8p-2
72599=0x1.7cf72877e02e4p+0
72738=-0x1.eeb58fff5e133p-6
73016=0x1.6f8deb4f81bb4p+2
73791=-0x1.f302047ab669bp-4
73871=0x1.66b5d6bc20a3bp+2
73953=0x1.df8a20bedce1ep+0
73955=0x1.1754f155cb591p-1
73957=0x1.70954364aa3f7p+1
73958=0x1.320334b5f4e06p+1
73959=-0x1.69b4937c066eep-5
73961=0x1.cac75f517fb4fp-1
73964=0x1.0a0966e0e6a89p+1
73967=0x1.d0356b0a0059cp-1
73968=-0x1.196084dbfb2c5p-2
73969=-0x1.8fba2680a002bp-2
73971=0x1.75194fa45735p-3
73979=0x1.0c1bd1bed8b08p-1
73980=-0x1.0047e7449a944p-3
74034=0x1.591c0b2a3bb1bp-1
74036=0x1.8b481e0105cb8p-1
74038=0x1.4849535568aep-13
74115=0x1.8e6215742d2f9p-1
74117=0x1.742d73d8e0d8cp+0
74119=0x1.031eefe5c3b87p-9
75735=0x1.b65b2e55395b3p+0
80676=0x1.ca401db957b85p+1
80678=0x1.089d386111486p-3
80680=0x1.1673e6aed95afp-1
80681=0x1.15df586b74d69p+0
80691=-0x1.73a205223f6ecp-4
80693=0x1.e644e186a3a1ep-1
80696=0x1.1b313e8522578p-1
80705=-0x1.3cc41b0c02b76p-8
80732=0x1.1ae2bfb715113p+0
80757=0x1.372c444335d8dp+0
80759=0x1.07eb74d3ffa8p+0
80761=0x1.d13dea5bc8c3ap+0
80762=0x1.666263a031c89p+0
80777=0x1.987210ed8e748p-1
80838=0x1.35cf7d72a8df8p-1
80919=0x1.23649294012edp+1
80975=0x1.e6587d0568fbap+0
81000=0x1.248d3572d4108p+0
81081=0x1.94118c4b6efp-2
81162=-0x1.d1cd943e4d3a6p-1
81243=0x1.a981851b7c94dp-1
81405=0x1.abe7b3a6953cp-1
81486=-0x1.2c6d4b55387fbp-4
81648=-0x1.81bdd56f88d4ep-12
81810=0x1.23137293610dp-5
81891=0x1.3bf2c65408226p-2
82232=0x1.01963fd5dbc5ep+1
82296=0x1.89c8a0a2c9925p+0
82377=0x1.75a90e740072bp-2
82539=0x1.7c95197bf6ce2p-1
82620=0x1.f8d2a53a2107fp+0
83025=-0x1.33178ef7c3d5dp-6
83106=0x1.168e2b260aa49p+0
83187=0x1.68681ed66872p-2
83268=0x1.9bf5a522d71a6p-1
84402=0x1.d56276aa3c69fp-1
84888=-0x1.331761bb80e5fp-3
87318=0x1.0f71446935ebcp+2
87320=0x1.1231c8d2e5783p-2
87334=0x1.a0a91a8b73f83p+0
87399=-0x1.f6e2f3bd1e59p-3
87401=-0x1.01d9420f4db15p-1
87403=0x1.41d42cfc5e3e1p+1
87404=0x1.1ac6e803ceb77p+0
87421=0x1.a3154b10a8c1bp+0
87480=0x1.022a398652ca6p+2
87482=0x1.ce77806f9f5e5p-1
87484=0x1.e506d7679198bp-1
87536=0x1.2b9bf0f2790dep+0
87561=0x1.30bb937f2088bp+0
87563=0x1.53639d1688e1cp-1
87565=0x1.76074d1b3bfd4p+0
87576=-0x1.7b6b34cddaf1ep-6
87723=0x1.555974ba1ee05p+1
87779=0x1.4da49c587913dp+1
87804=0x1.6f15355964c56p+0
87885=0x1.9ecda9d4df638p-1
87966=0x1.01f188e72ec24p+0
88047=0x1.80841bcf991e3p-3
88209=0x1.47443a3cc85aap-1
88452=0x1.d99c77dcb1a35p-3
88614=-0x1.da247dbab6a47p-6
88695=0x1.cbf893565f3e2p-2
88938=0x1.0705f045f60a7p-2
89181=-0x1.a6c6d46688994p-2
89343=-0x1.a72963cbfef36p-5
89424=0x1.539ca5fffbb78p-4
89829=0x1.90e68fcc3c2c7p+0
89910=0x1.ace8e71d1c1e6p-2
91692=-0x1.755c3916d7e85p-2
94122=0x1.9e068ece5e9a4p+0
94125=0x1.bcea2acdb0026p-3
94126=0x1.e0927b67e1f1fp+1
94127=0x1.46bf9aaaa3f48p+0
94128=0x1.06e84eb23be39p-2
94129=-0x1.4e91df7f03054p-8
94130=0x1.c3ec2cb3c5ca9p+0
94132=0x1.055fdd76a901dp+0
94133=0x1.7d24add2391bp-4
94135=-0x1.4d64cde54275bp-3
94137=0x1.db8038ffb60b7p+0
94138=-0x1.a3e8ea9635b35p-3
94140=0x1.d55c0383229e7p-7
94142=-0x1.60f79c0efe4b9p-3
94143=0x1.1ed39735acb94p-6
94144=-0x1.58838a983b23cp-2
94145=0x1.2e81c34e4a76p-7
94149=0x1.1a4218d0f2294p-1
94150=-0x1.cde95b7e56e66p+0
94152=-0x1.7107ed9721435p-3
94153=-0x1.ad10e00cbe1b7p-6
94154=-0x1.0fef80c738958p-2
94160=-0x1.5b40fc4c7e0cep-4
94161=0x1.ae287746ec973p-3
94163=-0x1.b47dd37e01b6ap-3
94164=0x1.10f856079be12p-1
94165=0x1.d8a0780484952p-8
94167=0x1.4601bc397ec7bp+0
94170=-0x1.93c09187700dap-4
94173=-0x1.268caa618d418p-2
94175=-0x1.91c1abd2e8d9ep-3
94177=-0x1.43a75d4c61469p-1
94180=-0x1.bbc6f3da6d141p-7
94181=-0x1.3ab50b076561p-6
94187=-0x1.e9e0fb2ef326cp-4
94203=0x1.8a67505c2168cp+0
94207=0x1.0499ab48890f2p+0
94220=0x1.4e1c6649bcd02p-1
94284=0x1.1c42dc78db733p+0
94288=0x1.071f0ae664c45p+1
94689=0x1.67a36ca5ba418p+0
95759=0x1.db27028195acbp+0
100845=0x1.02803016cbfc4p+2
100926=0x1.8ec336e6e3d03p-2
101331=0x1.31f9adc6030b7p+1
101412=0x1.4506317ee3a8dp+0
102222=0x1.f7e766ff6ecd3p-3
107487=0x1.a60a9822c4e7fp+2
107489=0x1.8722fe185f9a9p-4
107492=0x1.e5db80a4c5adap+1
107495=-0x1.9e679ae2f2056p-2
107499=-0x1.65f9bef240635p-6
107530=0x1.26f2d18afb979p+0
107568=0x1.2231f476235a9p+1
107576=0x1.5139bb9f5448dp+0
107649=0x1.2bf2381ea274ap+1
107657=0x1.71f64d45e806ep+0
107811=0x1.0fb628b0a901dp-2
108054=0x1.e6ead6a939c5cp-6
108297=0x1.2d5b6333985d1p+1
108540=0x1.44c9dbbc2e25cp-2
108702=0x1.71998488f5abfp+1
112914=-0x1.b3fa05f3adb0ep-11
114210=0x1.5a7378125ad2cp+1
114212=-0x1.e818d58fae78ep-10
114215=0x1.cd58986a2922ap-1
114233=0x1.4ac7477d8cefap+0
114253=0x1.a35ea79c35949p+0
114291=0x1.d404ae00ca4f8p+1
114292=0x1.0903dfa8d74cap+0
114293=-0x1.99c78387c280ap+1
114295=-0x1.a01990da74227p+0
114297=-0x1.4203ddea5a913p-1
114299=-0x1.3ecdbb102951bp-2
114303=0x1.3dc55d201a9ebp+0
114310=0x1.4a111817c6ce6p-1
114311=0x1.8aab5421f38d2p-1
114314=0x1.353a65abe83bep+0
114319=0x1.95454b933981dp-1
114322=0x1.b039e94fea75dp+1
114372=0x1.1cf6a9868315bp+2
114374=0x1.19858b4498c5bp+1
114375=0x1.0148d5afa73e7p+1
114376=-0x1.1738415b6a892p-3
114453=0x1.e3103cd43cc39p+0
114455=-0x1.680c4fa9f1f9cp-11
114457=-0x1.b0f93991f5995p-4
114615=0x1.733b45dd066f5p+1
114618=0x1.e98028c62a81ep+0
114696=0x1.3ea3da547039bp+1
114777=0x1.77d3838e75f3cp+0
114858=0x1.330fe19ded044p+0
115101=0x1.ec4ee6c45570bp-1
115182=0x1.040af7b76dc4fp-3
115344=0x1.b2f77c9a6cda3p-1
115587=-0x1.3d18e9d05dbcep+0
115749=-0x1.2fd7cd488402ap-8
116075=0x1.0109b756e63f9p+1
116721=0x1.fa18171b1e68bp+0
116802=0x1.13f358cf5339p-2
116883=0x1.2328f0f924b19p+0
118584=0x1.3fa96e6218623p+0
118908=0x1.569fd529e7625p-1
119151=-0x1.59d2e44a9805cp-5
119313=-0x1.8a6e5d8e5a2dcp-8
121014=0x1.f107637a1f1f4p+0
121015=-0x1.6121eb040febcp-1
121016=0x1.52c264f356fa9p+0
121017=-0x1.7d8357af634ffp-4
121018=0x1.2e5fcb6c24ddcp-1
121019=0x1.a2c885b318c69p-7
121020=0x1.852e6fc3d7893p-2
121021=-0x1.1b442f1286684p-3
121022=0x1.8d70eec8f9257p-1
121024=-0x1.f0e6eac07d77ep-2
121025=0x1.f83c998df86b2p+0
121026=-0x1.579eab64ec5cap-1
121028=-0x1.678334e75e47ap-4
121029=0x1.c7d12e374c122p-5
121030=0x1.7ff09613091f3p-3
121031=0x1.621516297842dp-4
121032=-0x1.396c3c2d6261p-1
121034=0x1.190f2e809c154p-2
121035=0x1.0fb8f37bd09eep-2
121036=-0x1.3dea8847dc365p-3
121037=0x1.f283a7356339dp-2
121038=-0x1.79c6beec4d4eep-4
121040=0x1.4c16810b0d844p-1
121041=0x1.220472bed18cep+1
121042=0x1.aba4df77b179ep+0
121043=0x1.942d08962100fp-2
121044=0x1.ced07925e487ap-3
121045=-0x1.1fcd340eae688p-3
121046=-0x1.6f0fd4fdcbb5ap-4
121047=0x1.6831f9ee8c08dp-2
121048=-0x1.70abfe39e8144p-4
121049=0x1.c8ee2e285440bp-3
121050=-0x1.7b588c2f666cp-4
121051=-0x1.7c48b74217ee9p-4
121052=-0x1.c24da516b2173p-4
121055=0x1.087be786c31c4p+0
121056=-0x1.899257d0a8c13p-4
121057=-0x1.1d03ac392b147p-1
121058=-0x1.22d20486de3e3p-3
121059=-0x1.c85a28598c786p-4
121060=-0x1.7b04675dd8984p-4
121061=-0x1.79514ff54bebcp-4
121063=-0x1.b5e3d3f08d6bfp-4
121064=-0x1.08f5356ef9fb2p-3
121065=0x1.1a38dd93d65a8p-1
121066=-0x1.09a690343bc1fp-3
121068=-0x1.7a6028fd4cbc8p-4
121071=-0x1.73e68ed253608p-4
121072=-0x1.cd563aa9b661p-4
121073=0x1.dc3a5cbcb0048p-2
121074=-0x1.c5f2507c60f58p-4
121075=0x1.c77dad1e7e18bp-3
121076=-0x1.6845d1759763p-4
121077=0x1.b3a1d8d42dcfp-2
121078=0x1.1f11d067b18dep+0
121079=-0x1.9db2af8540601p-4
121080=0x1.70cdd8f89f957p-2
121081=-0x1.7b57092ba8cf3p-4
121082=-0x1.7421e49b263f2p-4
121083=-0x1.79c93d5d5363fp-4
121084=0x1.aa29f0709ff97p-1
121085=-0x1.405a40a7c6d25p-3
121086=-0x1.7452964e8b33ep-4
121087=-0x1.7434fc661009p-4
121088=-0x1.739df3e1841bp-4
121089=-0x1.7e3b34e287008p-4
121090=-0x1.7e73ff82d01dbp-4
121091=-0x1.922258873e506p-4
121092=-0x1.749f0117bf245p-4
121093=-0x1.8cd913abc5781p-4
121094=-0x1.8cadc081c11d5p-4
121095=0x1.2e98716b3f916p+1
121097=0x1.6490d3e515d14p+1
121099=0x1.2a2d25248597ep+2
121100=0x1.d5fbac4e8b6ebp+0
121101=0x1.d76595a081453p+0
121103=0x1.8a6a37957df31p+0
121106=-0x1.7feb04ff3351fp-4
121110=0x1.7ea81b5bbfddfp+0
121111=0x1.4ab368fcae093p+0
121112=-0x1.01bb4e4620d78p-1
121116=0x1.1fe1a2c9d2e8cp-5
121118=0x1.7144bb571fbb6p-1
121120=0x1.2a6ae25fa3447p-3
121121=-0x1.717af0074c733p-2
121122=-0x1.b1d71320e7f6ap-1
121123=0x1.6bf0297a66cfp-1
121124=0x1.5493bd54c505bp+0
121125=0x1.0c63d76e0e3b2p-9
121128=0x1.54a7498643fe4p+0
121130=0x1.5ebfdaa9c0928p-2
121136=0x1.93900cb87d945p+0
121143=0x1.2cc20e537dea2p-2
121146=0x1.015bf50a42783p+1
121150=0x1.c6e1e25e96b97p-3
121154=0x1.6df6d4225e729p-2
121156=0x1.28c88a1feca2cp-2
121159=0x1.fde5592fb4095p-3
121161=0x1.5d55cbfe4cd0ap+0
121165=0x1.314d69a44d804p-3
121257=-0x1.c2d94db788812p-9
121419=0x1.faffd31abda7ap+0
121425=-0x1.3955e58b3f27p-3
121439=0x1.891c989bf0b2cp+0
121440=0x1.22005fff0827fp-1
121442=0x1.3ea234e8fb2ap-1
121445=0x1.5b82de995fcd1p+1
121447=0x1.1be0a3ee82189p+1
121482=0x1.c2c6faaf5ac0dp+0
121483=0x1.389610de4af9cp+1
121581=0x1.2518284eeb635p-1
121771=0x1.94e1555b2dc32p-1
121916=0x1.8662d97198beep+2
121986=0x1.7cf7c6e9561ddp-2
122067=0x1.af40a46a2c7d6p-1
122095=-0x1.7bfd4b21a64b3p-12
122380=0x1.f9da5832c0f03p+0
122528=0x1.f04598375b3d8p+0
122570=0x1.4f8a3a222bab3p+2
122634=0x1.066ff6b15ab04p+1
122715=0x1.df36e54ca1b36p-1
122802=0x1.6532dc0f3c12bp+2
122958=0x1.e42c816921822p+0
123201=0x1.4860a551b4145p-5
123205=-0x1.050314a27005ep-5
123363=0x1.4a03ef05ac981p+1
124524=0x1.9aa73cf3fb42dp+2
124578=0x1.7de9e8c988a7p+0
124740=0x1.f5610d794d182p-2
125145=-0x1.38b94c33a8e7cp-4
125580=0x1.d2ad849fab4b1p+0
126279=0x1.4f29f1b484cfap+1
126283=0x1.3f30131ccfc95p+0
127332=0x1.47437502346eep+1
127656=-0x1.d4b0836312d74p-4
127658=0x1.7fe1a31b4ddd7p+0
127659=-0x1.36a0af82070e6p-6
127660=0x1.8a384cc38fa3fp+1
127661=-0x1.d4d86c2e045dcp-2
127664=0x1.7ab142078fe0dp-7
127666=0x1.9c4a4cfd905bfp-1
127671=0x1.0af0c0ce988f2p+2
127674=0x1.66bb9f27ca3bdp+0
127678=-0x1.e03e61eeb6ab6p-4
127737=0x1.aaa5f3e04d1bp+1
127741=0x1.cb34ee86cdaf7p-2
127742=0x1.b3c4293d53ad3p-6
127744=0x1.9fd0937c3a9cdp+1
127747=-0x1.b8933a149ea3cp-6
127748=0x1.b21719b62e6a4p-2
127755=-0x1.fa5f5204945f2p-3
127764=0x1.6e31a46d4e726p+0
127791=0x1.d60e1eb146fa3p-1
127801=0x1.be396e4263dd6p-3
127818=0x1.b0f57cfa6464cp-2
127822=0x1.251015b36a634p+1
127825=0x1.44745d6b39bd8p+0
128142=0x1.160ba1f0657d4p+0
128149=0x1.b64f008a5a13bp+0
128163=0x1.3c143fd4af60dp-3
128206=0x1.d5f22c8230db3p-2
128223=0x1.9edf24a432e99p-1
128228=0x1.fc05416cc54p+0
128385=0x1.213300f83875bp+0
128466=0x1.6e01528e642cdp-10
128473=0x1.e32ff5ae30942p+0
128547=0x1.474c61fb68fa9p+0
128628=-0x1.ee275eef32b1bp-11
128639=0x1.ff387881cec88p+0
128709=0x1.c2f23e7f4230ap+0
128716=0x1.187fa58f16a2ap-6
128790=0x1.52350b354d023p+0
129438=0x1.95eedee373fbp-2
129924=0x1.0ddb3549d50f7p+0
130059=0x1.c1e4d8079dfadp+1
130086=0x1.fecc3d9c3f975p-5
130653=0x1.5a7ef79f3c23fp+0
131247=0x1.492ad44be9215p+1
133002=0x1.1555494bd42f9p+1
133974=0x1.6243dd5c7ca7bp+0
134379=0x1.145c2ac418aaap-1
134384=0x1.d0ee2a520b34fp+1
134385=-0x1.191d15352ee26p-1
134389=-0x1.46e09907bba22p-2
134391=0x1.3b6cc0c02004p+1
134400=0x1.cc8f61f1fcc5fp-1
134421=0x1.53a8ea2d6a09bp-4
134430=0x1.9ed17743501bp+1
134434=0x1.58a94861f99f4p+1
134435=0x1.42a66fc23db99p+0
134448=0x1.f6ab5afb998a3p-1
134458=0x1.0652a6203667p+1
134460=0x1.c9d960f77d64cp+1
134465=0x1.e2c38a80cfb3ap-1
134472=0x1.1da469053d6d4p+0
134481=0x1.09acf3348b71fp+0
134511=0x1.066ae989b5d8p+0
134515=-0x1.179765b90baefp-6
134529=0x1.1dd0041115b36p+0
134539=0x1.2da1008bedec4p+1
134784=-0x1.6ddf6fe73d818p-1
134789=0x1.3262c59db5a2dp+1
134826=0x1.bb77e46ce6043p+0
134835=0x1.60948e195531fp+1
134839=0x1.dbd3a62bf55d5p+0
134946=-0x1.a0772d4ac1706p-8
135002=0x1.63cae7ad18b4fp+2
136166=0x1.b24a32b9aadbap+0
138889=0x1.016ac694ac3e7p+1
141021=0x1.7cbb95a0b7fc1p+0
141022=-0x1.a955a75d17812p-1
141023=0x1.d0cc018957ecap-2
141024=-0x1.48124f9b8d447p-5
141025=0x1.5e188957944fp+1
141026=0x1.fac556237b75cp+0
141027=-0x1.01a6f780ad4c4p-1
141029=0x1.031fc039194b7p+1
141030=-0x1.8f304b25e0a26p-4
141031=0x1.f432405f0b6ap-2
141032=0x1.1d00c01d8ab91p+0
141034=0x1.62d1323a9e52cp-7
141035=-0x1.3586ca98b40e9p-8
141036=0x1.b32fd5e25fbdap+0
141037=-0x1.143c6f48087c2p+1
141038=0x1.3418da55f3045p-2
141039=0x1.82667a999f641p-2
141040=0x1.6a0cccb271c6fp-1
141041=0x1.25bd1d433cdfp+0
141043=-0x1.df2023c6b43b1p-1
141044=0x1.401f751de776fp+0
141046=-0x1.b00dc92c58e1dp-2
141047=-0x1.49062934e1d6dp-4
141048=0x1.477a62c437609p-2
141049=0x1.938a89f7cf196p-3
141050=-0x1.d0c9682c73969p-4
141051=-0x1.2243fd6fef9fap-1
141052=-0x1.fdb26e74a6aa3p-1
141053=-0x1.50046d864eb76p-2
141054=0x1.ae7d4b8723379p+0
141059=-0x1.ac7b38ca98e3fp-2
141060=-0x1.34993a017113dp-1
141062=-0x1.835a400fc7d67p-2
141063=0x1.c2fc1caf73c9dp-1
141069=0x1.63b013170aa7ep-2
141073=-0x1.1fb304de4d716p-2
141074=-0x1.0c5a77aa3a17p-1
141077=-0x1.862563f9ba219p-3
141080=-0x1.3147eff08dd81p-1
141082=-0x1.9c8a4b955e963p-4
141083=-0x1.068599256b7f8p-3
141085=-0x1.3c402961e11f4p-4
141086=0x1.1bcb69d4d98d6p-3
141087=-0x1.05e091aac5ecfp-2
141090=0x1.173765930f761p-2
141102=0x1.652350027bfcep+1
141103=0x1.00308e9eefe2dp-2
141104=-0x1.c6a14cc005713p-1
141106=-0x1.0f6f8452ba05fp+0
141107=0x1.17a5aae34d893p+1
141108=0x1.a32fbe02914adp+1
141109=0x1.9689bf9e97567p+0
141110=0x1.a7785e0747a74p-10
141111=-0x1.3d154490586bbp-1
141112=0x1.80426f3cb355p+0
141113=-0x1.05f5eefc37c69p-2
141114=0x1.acab56b558e56p+0
141115=0x1.282188f0fe268p-3
141116=-0x1.74e654c0c85f7p-3
141117=-0x1.7c71ba54e2366p-2
141118=-0x1.3ef294af96823p+0
141119=0x1.de925d70138b1p+1
141122=0x1.291778cf7ebd2p-2
141123=-0x1.8cf93bd177d55p-1
141124=-0x1.cff3a06e4992bp-1
141125=-0x1.00c27a3f0ea4fp+0
141126=-0x1.70bba4e911039p-3
141127=0x1.25e7717b8940bp+1
141128=-0x1.5153aeb6c98c9p-2
141129=-0x1.17b7f59d05899p+0
141130=0x1.ee829b7d2af19p-1
141131=0x1.6f8a2a40325dap+0
141132=0x1.f4e6541a5558p+0
141134=-0x1.f823f8e83c865p-3
141135=-0x1.e4740c06938ebp-3
141137=0x1.86c8cb6874a64p+0
141138=-0x1.4bf8d100b06bbp-3
141139=-0x1.5fb1af6d682c7p-3
141141=0x1.2dc89df15b42ap+0
141142=0x1.6248b9aa10beap+1
141143=-0x1.a46f8ee93ac35p-1
141144=0x1.b0fb29ce22f16p-1
141145=0x1.5f8ab7a03b4bcp-1
141146=-0x1.7746cc3717adep-3
141148=-0x1.8802a3f8b9841p-3
141149=0x1.a84cf7cb5d7f2p-10
141150=-0x1.a7bdb6d30265fp-1
141151=-0x1.710041c907b64p-3
141152=-0x1.ee6d284f16727p-3
141153=-0x1.880ae5f4c3c01p-2
141154=-0x1.6c710d6a4dc52p-3
141155=-0x1.b40973f875ebep-1
141156=-0x1.a2e4f4df95a7ep-3
141157=0x1.210c7fe58efc9p+1
141158=0x1.d4feb038550e2p+0
141159=-0x1.6e84c0e15ab75p-3
141160=-0x1.87d5835b9e1bp-1
141161=-0x1.8b7a60977cc8ap-1
141162=-0x1.8312022790c2dp-3
141164=-0x1.7f8c948b9a282p-1
141165=-0x1.5bd5ac9320e4ap-3
141166=-0x1.0b59c01806fb1p-2
141167=-0x1.4421bbe5c9682p-3
141168=-0x1.76ea3d784bb6p-1
141169=-0x1.6bed544fc3b85p-3
141170=-0x1.7663693bcf8e7p-3
141171=-0x1.5e113a4ea4e8bp-3
141172=-0x1.7bef60977e374p-3
141173=-0x1.b4231af53caa2p-3
141174=-0x1.5cc381b47a2b3p-3
141175=-0x1.5cc2aa9b92146p-3
141176=-0x1.7e40fba693ae9p-3
141177=-0x1.4bd69c22daf6dp-3
141178=-0x1.4d3d4b9416c91p-3
141179=-0x1.583955b9c37d7p-3
141180=-0x1.5c04b22a69778p-3
141181=-0x1.4ebd4f65e855ep-3
141182=-0x1.7405f6085e15p-3
141183=0x1.c34f5c47cfbb6p+0
141185=0x1.db05aaa145p-11
141187=-0x1.a8f60a2db790cp+0
141188=0x1.b44fbdc33a7a2p-1
141190=0x1.6f7c88d3e0659p+0
141193=0x1.975ad8146dc25p+0
141194=0x1.0f23a09f9aa7dp+0
141198=-0x1.0f765b98ed2aap-3
141199=-0x1.e0ed98ecec307p-2
141200=0x1.58c8f2967aeep+1
141205=-0x1.8f55841457393p-6
141206=0x1.3b62cd516e8cfp-6
141210=0x1.9f7c09bf18ec7p-1
141216=0x1.761b5e122eb1cp-2
141222=-0x1.ba39a4d3e46e5p-9
141223=0x1.70b047e53ac1cp+0
141228=0x1.425140a24e456p-1
141234=-0x1.3e0107b81768bp-5
141238=-0x1.005aef164ea08p-6
141239=0x1.3882e9a7568d7p+0
141259=0x1.83e0b1888d4d9p-1
141261=0x1.7f546a1398de2p-1
141264=0x1.b5966d4e31a14p+0
141266=0x1.d2244a44b3fbbp-3
141268=0x1.9ebb785006d77p-6
141269=0x1.b476abad08798p-1
141280=-0x1.d9e87200021eap-5
141281=0x1.b14d9d69f32c3p-4
141282=0x1.3b8ef9c5191a6p+0
141285=0x1.2952039c202d7p+0
141297=0x1.4100378e682a5p+1
141310=0x1.4cd9b438bdaadp-1
141315=0x1.08c96e867f18cp+0
141345=0x1.0577e7827faf1p+2
141350=0x1.3c2d55550a292p+0
141426=0x1.4b122e972243p-1
141431=0x1.d4059d3c291e2p+0
141750=0x1.fbc59263bf764p+0
141831=-0x1.c8d876bd5e4acp-10
142074=0x1.0513aac8a2e36p-3
142155=0x1.290be3645ca1fp+0
142317=0x1.254c6776862bfp-2
142398=0x1.2309869f279e4p+1
142641=0x1.2d8d4af9074e5p-2
142803=0x1.2f18b67dc8852p-1
143613=0x1.23d34af87d7d4p+0
143856=0x1.4e08f30b4547dp+0
144018=0x1.23692a831a183p+0
147987=0x1.5612545b00f8dp+1
147989=0x1.4bf158eddda3cp-2
147991=0x1.0ff3189d69a8dp+0
147992=0x1.b800d80a0884ap+0
147996=0x1.8127eec77beffp-1
148003=0x1.0d0dedaeccb93p+0
148004=0x1.50ecc7ce6e417p+0
148012=0x1.79d5cf1fa6ee4p-1
148013=0x1.65e83032a3276p-1
148017=-0x1.22d4acd269a06p-4
148051=0x1.609c188a53be2p-1
148068=0x1.2305d3ff73518p+0
148070=0x1.5f8b62eeb926cp+1
148072=0x1.96a8bbba67cd7p+1
148073=0x1.70cb90eaebd03p+0
148074=0x1.f203d18b28c37p-1
148077=0x1.65a01c29672dcp+0
148084=0x1.de71921bece0bp+0
148093=0x1.5f20f7292d80dp+0
148230=0x1.233724fe80db2p+0
148392=0x1.391a8a428920cp+0
148418=0x1.4a6350b8fbb29p+1
148456=0x1.b1bc8379db46ep+0
148473=0x1.11eb940e08e9bp-1
148554=0x1.42988b0f2f4cap+0
148640=0x1.ea3ce9d2128e8p-1
148716=0x1.23ec7300eafd6p-4
148959=0x1.4f2bbcdf001c6p-2
149040=0x1.4e99492cd11a1p+0
149283=0x1.dd44a64496e5cp-1
149364=-0x1.a7f60dbed6a08p-8
149543=0x1.6c9e8345d8624p+2
151551=0x1.115d694836e84p+0
152199=0x1.1bd72da4683f3p+0
154629=0x1.0de7654d8e24bp+1
154710=0x1.7cc1adfc0cd4dp+2
154714=-0x1.24e112f7e2ac4p-5
154720=0x1.530ff9b0b0833p-4
154722=-0x1.e4b87d8ed84fbp-4
154761=0x1.1443bc8a40f32p+2
154791=0x1.4f1caa77f8f56p-1
154819=0x1.77b20bcb0a638p+0
154872=0x1.596cafff0ec74p+1
154900=0x1.ac06d40062138p+0
155034=-0x1.211da33de4e13p-1
161433=0x1.398d31899392ep+1
161435=0x1.f9561b5c7d9bbp-1
161437=0x1.3d7fbafc9f16ep-1
161438=0x1.988980d902787p+0
161439=0x1.a7ff0b3a8aeb6p-10
161440=0x1.81c608981e38p-2
161441=0x1.2f9419f63aceep-2
161444=0x1.f4d3f0199278cp-2
161459=0x1.82f16a9804671p-1
161460=0x1.1a6eaae02b452p+1
161481=0x1.acadd03517ed7p+0
161514=0x1.0df29383ba695p+0
161516=0x1.fab7313b72847p+0
161518=0x1.4b4d0980e1e8ep+1
161519=-0x1.8a551f9c200e7p-5
161520=0x1.8437b1ab6d09p-2
161521=0x1.09454169fcf68p+0
161525=-0x1.cc50e0f11cabbp-3
161541=0x1.9fdff5b7285fp-1
161562=0x1.e8f2d0af20441p+0
161838=0x1.213debcd89778p-1
161843=0x1.ba15e49ff683ap-2
161864=0x1.35ce44a9efd3fp+0
161919=0x1.7595249049ec1p+1
162167=0x1.fd655ea6d4f07p+0
162335=0x1.81657123524cep+2
162351=-0x1.f12a22edb6024p-6
164187=0x1.7e9374dde53d1p+1
164943=0x1.9c9a8d2c52c11p+1
168077=0x1.8daeea48af6c2p-3
168079=0x1.f043bf65711d9p-2
168080=0x1.a2348efb11514p-8
168097=0x1.4cf7191b1002fp+0
168156=0x1.58a164fd4e513p+1
168157=-0x1.fcde5ec4d3d1ap-4
168161=0x1.6c02733856654p-4
168162=0x1.6c587358d5ab1p+1
168166=0x1.c7855955081d2p-3
168184=0x1.32b78a530d1f2p+0
168186=0x1.1f8821ccd1261p+0
168189=0x1.2d4f9b247e79bp+0
168198=0x1.764f361fb98ecp-7
168237=0x1.b5d822e199dd7p-1
168239=0x1.5f78e943f322cp+0
168241=0x1.045ffe416cc29p+0
168245=0x1.8fad86a5ad7b6p+1
168257=-0x1.0ab76ce17d8p-2
168318=0x1.707802e9305a1p+1
168320=0x1.8158b5b99152ep+0
168322=0x1.3fa12c9ead7fp+0
168326=0x1.b1c5b47a4de45p+1
168399=0x1.b8cda345f5e4dp+0
168480=-0x1.d5f2fe821eeb1p-1
168642=0x1.ba94980ca5c92p-1
168723=0x1.0e47dce7256abp-3
168966=0x1.9d509aca1fb4dp+1
169209=0x1.62059f2480fcfp+0
174879=0x1.4ff0e83a8a2a3p+1
174960=0x1.6f77d017b6dbfp+0
175284=0x1.2651571a95062p-1
175365=0x1.8db276caeeeecp+0
181521=0x1.babe2b31fed8bp+1
181523=-0x1.784b5ed00e598p-3
181525=0x1.bfb1473989213p-1
181526=0x1.6b37d47b89203p-2
181527=0x1.e602d08609434p-1
181529=0x1.90ebfeedabed8p+0
181530=0x1.b2609331de48cp+0
181532=0x1.d382a65f5debap+0
181537=0x1.449d029ab78a8p-7
181540=0x1.3c80c8b3ce43bp-1
181541=0x1.d75fd46f1c824p-1
181544=0x1.29ae8671e6c7bp+0
181548=-0x1.5dae0a6782ac2p-4
181549=0x1.0f2e4bc210deap+0
181552=0x1.3bc5c8bc9df64p-1
181587=0x1.271eac8db055fp-3
181602=0x1.a5828602ed8a6p+0
181604=0x1.1fc56264f5853p+0
181606=0x1.3296548acab65p+1
181608=0x1.053ffb2f84c43p+1
181610=0x1.12216e5f00b64p+1
181613=-0x1.34ba93163b4c5p-7
181618=0x1.d0e7ccb1984c7p-1
181621=0x1.2c37fbe87903dp+0
181622=0x1.158e66d3e79c6p+1
181625=0x1.06a92c5d00354p+1
181630=0x1.0e395425a0502p+1
181633=0x1.29c163f6e5f4ep+0
181668=0x1.0f3a585f5aeabp+0
181683=0x1.6e77829de17b4p-1
181764=-0x1.05dd73d03510fp-4
181926=0x1.5ebbd4d5054efp+0
182007=0x1.4fe7337404939p+0
182088=0x1.186e28a69c28p+0
182174=0x1.014b0eac55e11p+1
182250=0x1.0a2fd883faa45p+0
182423=0x1.689820b43a626p+2
182574=0x1.3fea2ba64f169p-12
182655=-0x1.562974cd911bfp-2
183141=0x1.04eb5496fc0f5p-6
183222=0x1.3655efe3e4f3bp+1
183465=0x1.47aeedd87624ap+0
183627=0x1.56e00d9818b13p-1
183870=0x1.cad260d22f4a7p+0
184113=-0x1.6fd34b58e399bp-8
185652=0x1.0e071bc305a1dp+1
185661=0x1.fef4c7edea23dp+0
185895=0x1.1b3cbb641c45cp-3
188163=0x1.f5a763a6d3dabp+1
188165=0x1.6aab030b26472p-2
188167=0x1.3790fd16855a2p-4
188169=0x1.250eebb463c05p+0
188171=0x1.1b7522290bee5p+0
188174=0x1.44e22d8b9a5fbp+1
188175=0x1.946a4ffca4919p+0
188192=-0x1.da789ad704522p-12
188244=0x1.6e28f81a4d1e8p+0
188246=0x1.0e0a3c8b69042p+0
188248=0x1.2f0790ab43341p-2
188252=0x1.5a200776b042ep+0
188256=0x1.f43487441a707p+0
188406=0x1.27eda540d62a5p+1
188487=-0x1.43c3ab6424f52p-9
188568=0x1.e6c641cfb9d78p-1
188649=-0x1.408f8d1354204p+1
188655=0x1.ffd80dc686c51p+0
188730=0x1.033e23ba2c6cep-3
188892=0x1.372ab753188fbp+0
188973=0x1.ceaafdad7d5f3p+0
189065=0x1.021a6ad882fd1p+1
189135=0x1.0560cd31f4fbdp-1
189297=0x1.01af4c731841ep-3
189378=-0x1.265f8e59ef633p-3
189459=-0x1.3c23b1a3116f2p-3
189783=0x1.e53a3840e43c6p-2
189864=0x1.def7a1eb8601p-10
190026=0x1.881cf99ea9c45p-2
190107=0x1.44291b3f0d94ap-2
190593=0x1.84e945a0666fep-1
190674=-0x1.85231ab09d6d4p-11
190755=0x1.0291af340b3e4p-4
190917=0x1.4fc7e5041b91p+1
190998=0x1.be409970bd01ep-3
191565=0x1.0ad7247241ecbp-1
192132=-0x1.3321e35910cb2p-4
192294=0x1.191097bd5a2b4p-1
192375=-0x1.f575d74750e3ap-1
192699=-0x1.b52e944db6b69p-6
192942=-0x1.3108437807908p-3
193104=0x1.e67439f12de2ap-8
193509=-0x1.7248a78d97abfp-8
194805=0x1.f2f7944e95936p-2
194806=0x1.34843a009b5a7p-2
194807=0x1.ba0523c32a60bp+0
194808=0x1.ae8b5342e9904p-5
194809=0x1.e5d6f06b51cf4p+0
194810=-0x1.05f2150cb4017p-5
194811=-0x1.746c8d6f4f196p-4
194812=-0x1.c0a769903caa4p-10
194813=0x1.07d4962d1ba6ap+1
194818=0x1.7058397b16cdfp-4
194820=-0x1.b86f8b827fc26p-6
194821=-0x1.c07ef11a48eb3p-4
194830=0x1.2cf2842a052d4p+0
194848=0x1.c5f8fb7f9ab6p-1
194853=0x1.e0c0dc25b82a5p-1
194856=0x1.dfd071145d46cp-1
194865=0x1.66a383a74d5dfp-3
194886=0x1.fe8731c09c34dp-3
194887=-0x1.593d95cc736ep-1
194888=0x1.bfc8570e6603fp+0
194889=0x1.2929e0a331a8ep+0
194890=0x1.7b73f63eef571p-1
194891=0x1.0d9c84394ccd8p+1
194892=0x1.50d944233d45bp+0
194893=-0x1.34f82db6423fcp-1
194894=0x1.ce55ce34240c9p-1
194895=0x1.ac82881a031dap-6
194896=-0x1.127c2d03d700bp-3
194897=0x1.bf19bf077560fp-1
194898=-0x1.dd96b2e29325ap-2
194899=0x1.0f0529c8594a3p+1
194900=0x1.bce0cc6e9a562p-1
194901=0x1.01573f63930d3p-2
194902=0x1.6ae0ecec0a4f3p-5
194903=0x1.b75584a28927ap-7
194904=-0x1.6def381959e8ep-1
194905=-0x1.0278eb6282938p-3
194906=0x1.b629614375b54p-1
194907=-0x1.3b431d16de4b9p-1
194908=0x1.3ae5cfc08d0fbp-1
194909=0x1.fc53c65b07f88p-2
194910=-0x1.87db6bf9c4163p-4
194911=-0x1.2446a773d6a5ep-3
194913=0x1.6844c5e571ffcp-2
194914=0x1.26bd4cf273ce9p-8
194915=0x1.0406b8ca99c0ap-1
194916=0x1.710554189bb5ep-1
194917=-0x1.0479c0a0257aap-3
194918=-0x1.1a4d26a7a58c2p-3
194919=-0x1.3374fe2c88d6cp-3
194920=-0x1.8fb397115951dp-4
194921=-0x1.a0a6c39861e8ap-4
194922=-0x1.83bb1acb2cfp-4
194923=-0x1.850ecdfce7739p-4
194924=0x1.9ee85a25d593dp-3
194926=0x1.78e12bf4e82bdp-3
194927=0x1.439fd6386b0cap-2
194928=-0x1.628527733315bp-1
194929=0x1.45915517f100cp-2
194930=-0x1.ed10d87769fa6p-4
194931=-0x1.c9780b28639cp-4
194932=-0x1.84cac27336ff4p-4
194933=-0x1.89cb18202b074p-4
194934=-0x1.371bb16576991p-3
194935=-0x1.90a4921d76654p-2
194936=-0x1.0115ce17f07bep-3
194937=0x1.8b13b7755acbdp+0
194938=-0x1.79ba090c4d0fcp-4
194939=0x1.b8fe16b0d4fc3p-2
194940=-0x1.85f33d95e458ap-4
194941=0x1.f44b5e1be4da2p-12
194943=-0x1.8550b71dea66ap-4
194944=0x1.6602c417dd29fp+0
194945=-0x1.774110c1b1bbbp-4
194946=0x1.b3762843dd637p-1
194947=-0x1.e76ab3d05f82cp-4
194948=-0x1.b5d1eb1333adap-4
194949=-0x1.942f750e264eap-4
194950=-0x1.52c14d2e882b9p-1
194951=0x1.980c53c55993dp+0
194952=-0x1.8b078518afbbdp-2
194953=-0x1.87d6a3a7b2a13p-4
194954=-0x1.82922727b74cp-4
194955=-0x1.88b1212237c5bp-4
194956=-0x1.9c4ab7c71529fp-4
194957=0x1.61b339f3949a8p-1
194958=-0x1.82e0a525b8284p-4
194959=-0x1.82a1fde6cbc5ep-4
194960=-0x1.85ce56742c1b8p-4
194961=-0x1.89a704c6e038fp-4
194962=-0x1.83e2752ef21f2p-4
194963=-0x1.91d9ec7ee2f53p-4
194964=-0x1.82f022acad79dp-4
194965=-0x1.8ef47bdea6b22p-4
194966=-0x1.884e28d5ea9dcp-4
194967=0x1.285069bcab23fp+1
194969=0x1.f91b56aaced9ap+1
194970=-0x1.e485a500eac55p-4
194971=0x1.a06695796bb5fp+1
194972=0x1.40e58061f591bp+1
194973=0x1.a0d5cb8868dcbp+0
194975=0x1.7755d707300cbp+1
194976=0x1.44721dd38dcebp-2
194978=0x1.2c4495e16f218p+1
194980=0x1.4dd8d79c3dc6cp-3
194982=0x1.cd52fe215cd6bp+0
194983=0x1.a143fbd57885fp-2
194984=0x1.c316fdf2af316p-10
194987=0x1.5b62a64f73f09p-8
194989=0x1.2239b29b5d124p+1
194990=0x1.3e57dd7757125p+1
194994=-0x1.6556642e7c17cp-4
194995=0x1.5a4eb63859cbep-2
194997=0x1.1d7da2943989bp+1
195008=0x1.3333d0a511823p-1
195010=0x1.baf67741cc818p-2
195018=0x1.795a772f189f4p-1
195020=0x1.75208ce5e9143p+0
195022=0x1.9d618bf124522p-2
195025=0x1.bc302220b8926p+1
195027=0x1.01a3d87124169p+1
195032=0x1.bcdd2044ba253p+1
195038=0x1.038ed7338014bp-1
195086=0x1.e28b2c7a2cd05p+0
195129=0x1.80315661b8c7fp-1
195131=0x1.3326ce04bf199p+1
195132=0x1.1598fd8805633p+2
195140=-0x1.cacc5f6787f5dp-4
195143=0x1.dcd46ce42c876p+1
195180=0x1.29d75555b996dp+0
195291=0x1.88bf72a8ff504p-8
195293=0x1.7828f1c144c28p-2
195295=0x1.3a61bad198217p+1
195311=0x1.2b0fea248c41fp+1
195317=0x1.20e997fec1869p+0
195342=0x1.5aa7f40f95f31p-2
195377=0x1.8c6a7ff89551dp-6
195378=0x1.61cd361001d7ep+1
195539=0x1.474332edab123p+1
195615=0x1.8a67012c80ce1p+0
195644=0x1.f09b7871b0d2bp+0
195782=-0x1.267b9b8db3ae5p-4
195788=0x1.dd1f1ebf7eb37p+1
195842=-0x1.753fba727fa2ep+0
195863=0x1.741605735c9e7p+0
195939=0x1.a607de7a5a888p-1
196263=-0x1.d9b60e40735bfp-3
196442=0x1.4d8931143242cp+2
196843=0x1.f5bc4076b4cf4p+0
197243=0x1.dba12211ebc5p+0
198166=0x1.f7ffaa23a0106p+0
198374=-0x1.3f91e09d75481p-7
198396=0x1.54cd0ee464876p+2
199505=0x1.868b934960602p+1
201528=0x1.920e5ab94c10ep+0
201530=0x1.7033c8260a6d9p+0
201532=-0x1.09785e1038273p-2
201533=0x1.44b026f4c0f74p+1
201609=0x1.72235229eb22ep+2
201611=-0x1.188460f65d57cp-3
201612=0x1.0c1a85ff58272p+1
201619=-0x1.3c9e98a62cccdp+0
201623=0x1.bc1faad934951p-1
201631=0x1.0b0929dd2b74fp+2
201651=-0x1.52b5d54a2363cp-2
201690=0x1.4f8968f5909a3p+0
201691=-0x1.00b7cd5346444p-4
201692=-0x1.309f26aea30e6p-2
201693=-0x1.9c1f452a995a5p-3
201694=0x1.127573d4c56b6p+2
201695=0x1.ad12b3eca457ep+0
201696=-0x1.60f492494e3a6p+0
201697=-0x1.3529c0af6aaep-4
201698=0x1.e0ba7ac67330bp-2
201699=-0x1.9505ddd362d74p-5
201700=-0x1.d982e940b8b8dp-7
201701=0x1.28a5cec388d14p+1
201705=0x1.08aff12dc2787p-2
201706=-0x1.6685e1c063b72p+0
201707=0x1.83aa598efc7a4p-6
201708=0x1.f10cc00710a9cp-2
201710=-0x1.8cf7df99f6091p-5
201711=0x1.4b6c4b7b0f3ap-4
201712=-0x1.d445fe412f199p-1
201713=-0x1.34491a082d253p-2
201715=-0x1.1554da89d42dcp-2
201717=0x1.370aadaa11f48p+0
201718=0x1.4eb7550612c2cp-2
201719=0x1.0be197fc09b13p-5
201720=-0x1.7e52cbe4ba9c1p-2
201721=-0x1.1924089c8a511p-2
201722=-0x1.d1bd014b72dep-3
201728=-0x1.f7fd4e92c0688p-3
201729=0x1.79f6407153fb7p-2
201731=-0x1.15d1af55dc7a6p-1
201732=-0x1.8a06e36427bd4p-6
201733=-0x1.f2733413661dcp-2
201741=0x1.221adbe59c829p-1
201742=-0x1.668aae6c502a1p-3
201743=-0x1.e38cca903f9d3p-2
201748=0x1.3dbd4674c680bp-6
201749=-0x1.62ae90dd9d664p-2
201751=0x1.235505385055dp+1
201752=-0x1.3fe99cc86f931p-2
201754=0x1.60c8b23acebb2p+1
201755=-0x1.61cfc3e46a323p-5
201756=-0x1.1f045af2db8f6p-5
201782=0x1.91b8c5a5e12e6p+0
201852=0x1.b7123d0052714p+1
202176=-0x1.d8de762f407bp-7
202673=0x1.00c6610bbc5b6p+1
204201=0x1.cd62bff5fe8dap+0
208413=0x1.9b37e7f680546p+2
208494=0x1.dd70b3dc6bd8bp+1
208818=0x1.45221bf1b6727p-1
208899=0x1.8c59af402250bp-3
209142=0x1.561d80b1c46aap-1
209385=0x1.1ae5f5117113ep+0
210924=0x1.2bf1adf53ff9ep-2
213678=0x1.0cc761e799adcp-1
214245=0x1.43a205a30916p+0
215055=0x1.3cf408ad3ab06p+2
215057=0x1.d9b50def84824p-3
215060=-0x1.cc49eee9e6fdp-9
215061=0x1.06ae6cccbb4f4p+0
215063=0x1.fe180ed882f5bp-3
215073=0x1.aabfd0739777fp-2
215075=-0x1.2b4ef644b4c81p-4
215078=0x1.24be08350ac29p+0
215136=0x1.71731e9e52394p+0
215137=-0x1.9bbdf71d9c12bp-3
215138=-0x1.c2048c4d5acdp-2
215140=0x1.3bbfa00bb946ep-1
215141=0x1.21371734476d2p+1
215142=0x1.5e7aabf580facp+1
215143=-0x1.5e0b8e479a6fep-1
215144=0x1.e13cd7908fe2fp+0
215145=-0x1.570ffa43f58a3p-1
215148=0x1.803ac6d110951p-1
215149=0x1.1ece37b3380d5p-2
215152=-0x1.ed774adc3b64cp-1
215153=0x1.869d2d5e0ad07p-8
215154=-0x1.6ade1117327ap-1
215155=0x1.33a68d21621eap+0
215156=0x1.2f368f5f4bd2ap+0
215157=0x1.ca4c0d8cedb82p-5
215159=0x1.451522fa2f78p+1
215164=0x1.914aa97c49a96p+0
215165=-0x1.d3f3a8c730a7cp-2
215166=0x1.4b6aee6637737p+0
215167=-0x1.f2c7dde8eda64p-1
215171=0x1.180c358e03fcep-1
215175=-0x1.b79ed2d91994p-4
215176=-0x1.c31a567f6ba65p-4
215177=-0x1.eea9b139b8cf1p-4
215178=-0x1.414de966a5939p-1
215179=0x1.04a3df49af50ap-2
215181=0x1.2c73e53ca8ef2p+0
215185=0x1.3a36b685be52ap-12
215186=0x1.a8e2a328067e5p+0
215187=-0x1.41635da1d7306p-3
215189=0x1.85e221ba16b9dp-2
215192=-0x1.80a4826dd9d08p-3
215196=-0x1.c88b5af76b53bp-4
215198=-0x1.35144aab4814cp-1
215217=0x1.8f6894e9488a2p+0
215218=0x1.9c902d8d74c4ap+0
215219=0x1.cc8e78044d81cp-2
215221=0x1.0c4aca6ceb80dp+1
215222=0x1.eeac90985adcep-5
215223=0x1.142aecf1d14b9p+0
215225=0x1.5671c873390eap+1
215227=0x1.24ccab60b8ed7p-5
215228=0x1.191bea4480accp-5
215229=0x1.143fa8fb198ap+0
215230=0x1.49985947f4281p+0
215234=0x1.80909f511f858p-4
215236=0x1.9724bb9f62866p+0
215237=0x1.60f9cc8ba4902p+0
215238=0x1.e6c2326da8ce2p-3
215240=0x1.4051b1973dc73p+0
215245=0x1.799f2d45ffb39p+0
215246=-0x1.1898c95f76ef1p-7
215247=-0x1.acedd1c366c6bp-9
215250=0x1.151e714c1e493p-5
215252=0x1.62ad0de5e947bp+0
215260=0x1.aee4fee60c3b3p+0
215262=0x1.d9bda48225022p-1
215266=0x1.b43672ee53f94p-3
215267=0x1.6eb82d42d5f01p+0
215270=0x1.7d8ba2a6df867p-3
215298=-0x1.184f76ca74d5cp+1
215318=0x1.b025c2c4a9c3bp+1
215321=0x1.94b0c29d9207fp-1
215379=-0x1.e96fbced6b025p-1
215541=0x1.0715f782ee792p-6
215546=0x1.921a704fab796p+0
215547=0x1.3c5ffb27d95e4p+0
215564=0x1.4fb2de1131016p-1
215622=-0x1.69a6d86bad4c4p-2
215628=0x1.ee15eded80858p+1
215630=0x1.24c72de89dc0ap+0
215645=0x1.6093012ffb6e5p+0
215703=-0x1.51ea0eb384b36p-4
215726=0x1.031a2cfd27514p+0
215789=0x1.690040b16e17p+2
215865=0x1.62c2e0a58c4f8p-4
215871=0x1.5522d3a3031e1p+0
215888=0x1.85c95dc8eea81p+0
215893=0x1.de9d1e4188226p-1
215946=0x1.2d8ae8d61dc83p+1
216195=0x1.01fe1149107fp+0
216513=-0x1.4dbbdf7c942fp-5
216594=0x1.128bfe7eff33bp+0
216675=-0x1.0c02df7cd9ebdp-4
216762=0x1.c884471db8952p+0
216784=0x1.e747c6e5833aep+0
216837=-0x1.c6a0432abf0cfp-3
216865=0x1.573c62c3b8145p+1
216887=0x1.689ee3c7f2ae9p+1
217093=0x1.fdaea4151c90dp+0
217110=0x1.6e83458351881p+2
217505=0x1.8dec04b268a1dp+0
217530=0x1.fc11d462547c2p+0
218295=0x1.9a62f6cba9397p-3
218538=0x1.715995dc9282dp-1
218862=0x1.595d3506e339dp-1
219186=-0x1.27da07222dccap-5
219194=0x1.c1cdc02ddd792p+0
219214=0x1.629a002370887p+2
219275=0x1.bc2c4478a3fd2p+0
219758=0x1.f2e99a0b11177p+0
219772=0x1.fa6944eec5a53p+0
221778=0x1.ac0ef45862f5ep+2
221859=0x1.c24b2fb16494p+1
221860=0x1.a47375268e647p+1
221861=-0x1.a79241b4bba65p-2
221863=-0x1.e6dc631dad2fdp+0
221864=-0x1.83b693ca445abp-3
221865=0x1.f8e1c32add4b7p-1
221867=0x1.07ee8d30a79a2p+0
221868=0x1.02ce95b45afb8p+1
221870=-0x1.8e35823ec1436p-2
221871=0x1.9ae94e81271f4p+1
221872=0x1.496b55bf36fe1p-3
221874=-0x1.c855cfd34b603p-2
221876=-0x1.4ead4b62183fcp-2
221878=0x1.87f731e5eda3dp-1
221879=0x1.9f3b0e9673353p+0
221881=-0x1.19a071c1ca75bp-2
221882=0x1.3da3420824a9dp+0
221886=-0x1.107e5f34496e6p-4
221887=0x1.2b9aa71476819p+0
221888=-0x1.a4c6b05b9e5fep-1
221890=0x1.744afaf2a9dffp+0
221900=0x1.4fcc46396311cp-2
221902=0x1.085c48f6ad4fcp-2
221904=0x1.67ccdac09908fp+0
221907=-0x1.cdace7f755ee4p-3
221909=0x1.484f168f8ff69p+0
221910=-0x1.491e5093ebc86p+0
221912=0x1.2952ca3e17265p-1
221914=-0x1.7b41f7401d645p-4
221940=0x1.2e460931ad9ap+1
221942=0x1.fe6d836f3ae7bp+1
221943=0x1.5efb20999a73ap-1
221944=0x1.0950f36b92fa8p+0
221945=0x1.4a95e6a6c9e08p+0
221946=0x1.3bb5912b94f06p-12
221947=0x1.df6a3e732be16p-1
221948=0x1.6ad62b39b6ca4p+1
221949=0x1.2398597908f62p-1
221950=0x1.ae1855e763dd7p-2
221951=0x1.908da995a9f3cp+0
221953=0x1.90751d43b7a35p+0
221955=-0x1.86b7dc08aab8dp-1
221956=-0x1.8049779c5c157p-1
221957=-0x1.46c2cad20dd85p-2
221958=0x1.d084f1280bb74p-1
221959=0x1.a302086d740b4p-3
221960=-0x1.594dd77cb990ep+0
221962=0x1.772d6840e59fp+1
221963=-0x1.bc657aef5b945p-2
221967=-0x1.4ffe8f0794e6ap-4
221968=0x1.7df61af6fc808p-1
221969=-0x1.b334e602b6482p-1
221971=-0x1.17ef87711e22fp-2
221972=-0x1.783fb2fcd8ec5p-3
221973=-0x1.5035cd638150ep-8
221981=0x1.19aa17b415a0dp-2
221985=-0x1.209f87b50091dp-2
221988=0x1.44eb49c2fa8acp+1
221991=-0x1.84c8f25c9fdfap-3
221995=0x1.0a88b93db1423p+1
221998=-0x1.3a028555756acp-3
222000=0x1.354c23dfc871ap+1
222021=0x1.9b82617917f44p+1
222025=0x1.9c2d08147d3fp-1
222026=0x1.530dbac2ae9c9p-4
222028=0x1.3e2a7b18fa4c4p+1
222031=-0x1.4574037f0be93p-3
222032=0x1.0094374a734d6p+1
222075=0x1.c728b6a0f0b3ap-4
222077=0x1.e3049a0cc84c4p+1
222102=0x1.17bc58f2f3e0dp-1
222106=0x1.b9cbc8755479bp+0
222113=-0x1.657c5dab33568p-5
222120=-0x1.001139d704659p-3
222158=-0x1.0b3127a37062p-2
222264=0x1.bef7949436135p-3
222426=0x1.7f0d0018307fep-1
222433=0x1.f3242b3096cf2p-1
222447=0x1.8a6453750c2c2p-4
222482=-0x1.1372a6221f452p-1
222507=0x1.61ae54d46ec2fp+0
222512=0x1.fc7e45524b0d4p+0
222563=0x1.b7ca25443064p+0
222588=0x1.df6d60f88318dp-2
222595=0x1.d2b193c3ae712p+0
222644=0x1.3043efd82b3ep+1
222750=-0x1.ca651dd940b5dp-4
222912=-0x1.0cfe98b363391p-2
222923=0x1.83b64d67dd2ecp+2
222993=0x1.146c2aa492a0cp+1
223049=0x1.efa46cf3a8cdbp+0
223398=0x1.6783a7c020a04p+0
223479=-0x1.27f573ec24e67p-2
223535=0x1.b9772e0268ae9p+0
223803=0x1.acdb578bcae7ep+1
224208=0x1.4202025af503p-6
224289=-0x1.122cef2a8784fp-4
224343=0x1.b5999d2716864p+0
224370=-0x1.35716030eed22p-4
227286=0x1.0fbc43991da34p+1
228339=0x1.80e66adac322dp+0
228663=0x1.a8bc7cb616442p+1
228665=0x1.d0d4623e39fb1p-3
228666=-0x1.1f18a0e1eaefp-5
228667=0x1.15aa83b548aafp+0
228668=-0x1.45b5f27e5b5aep-1
228669=0x1.4444ccd64a4f9p-1
228670=0x1.ad910ca8aa40dp-4
228671=-0x1.1175c9f130f02p-3
228673=0x1.03b71169b47e8p+0
228674=0x1.91842ec038698p-2
228675=0x1.35951886e6496p+1
228678=-0x1.b9ff849ab69a6p-3
228686=0x1.296a03906e7d4p+0
228689=0x1.a7568ea912634p+0
228690=0x1.4409572135025p-5
228691=0x1.68cf5436e161p-3
228692=0x1.35c8c5c064335p-6
228693=-0x1.006f26504be2ap-5
228695=-0x1.4bbbe38560719p-3
228696=0x1.1128f5752a2ap+1
228703=-0x1.3723db5fc4964p-3
228704=0x1.1b8e5b2c6ef23p-4
228705=0x1.2008dbd2e24e9p+0
228706=0x1.cba7a33427ffdp+0
228708=-0x1.d5d23ff2e1a9ep-5
228709=0x1.2244fe6f7c473p+0
228711=-0x1.365a31805d745p-3
228714=-0x1.0bbc9a70134c3p-1
228716=-0x1.cedf5c518bb6ep-8
228718=-0x1.1347a5ac094bap-4
228727=0x1.051e892c0f73bp+1
228734=0x1.04344177e2cc1p-2
228744=0x1.0fe801b2b473ap+1
228745=-0x1.5c4d32410bdb6p-1
228746=-0x1.063e7302b6076p-1
228748=0x1.f1ffae1780a7bp+1
228749=0x1.eebc13dca290cp+0
228752=0x1.de57e73e036cp-3
228753=0x1.e06d587c21978p-1
228755=0x1.977f6cf626d83p-1
228756=0x1.0208fbdac7bc7p+0
228757=-0x1.ee118a8d15d7cp-2
228759=-0x1.864b97f195b35p-3
228760=-0x1.8c44d3dbe07b7p+0
228762=0x1.21a705d1c179bp+1
228766=-0x1.c3fd1d73b233p-2
228767=-0x1.afc701422cfffp-3
228769=-0x1.3f048b6fd1256p-6
228771=0x1.a50163c494a3dp-1
228772=-0x1.2f16debe29e0cp-3
228774=-0x1.9eda90760e106p-4
228776=-0x1.49e394d06710cp-2
228782=0x1.90b3609eb260dp+1
228785=-0x1.803acafcf9e77p-3
228786=0x1.4f121263c7abep-1
228787=0x1.9e280c8bbb29ep-6
228792=0x1.46376f27e2143p+0
228795=-0x1.19b745806c862p-2
228797=-0x1.a51f223b93614p-3
228799=0x1.6aa751eba0e4ap-9
228803=-0x1.e1f83e19a10b9p-5
228813=0x1.17c66570b808p+0
228825=0x1.c0ae14d8ad999p+1
228842=0x1.b3c6c206d6f03p+0
228906=0x1.861d730bf913p-2
229068=-0x1.179385a2e9838p-9
229230=0x1.d6d257b2c5813p-1
229392=-0x1.899ff65809186p-3
229635=0x1.76e652c08c53bp+0
230202=0x1.2b19fdafd97fep+1
230381=0x1.0153f68bebe9bp+1
230931=0x1.6d9d3f003134ep+0
231012=0x1.4114a73df9ab7p+0
235467=0x1.7b23bb843bdc4p+2
235475=-0x1.2268321941441p+0
235479=-0x1.b5901c24df603p-2
235486=0x1.64313159010d6p+1
235510=0x1.8071143e6f667p+0
235548=-0x1.d18febc66fe37p-9
235549=0x1.e250dc38634e6p+1
235558=-0x1.65636d8b9c532p-3
235560=-0x1.11b0f8151df51p-4
235568=0x1.4ba1225ce8ffap+1
235576=0x1.e36ca837a52e2p+1
235593=0x1.c39a34586cca9p+1
235610=-0x1.3690fca4074e4p-6
235629=0x1.cd5917e2ffb4p+0
235630=0x1.a993bc1b4f1d3p+0
235649=0x1.f9d35fd141821p+0
235657=0x1.2e5f1abc96659p-1
235674=0x1.c39d8ae83ae29p-2
235710=0x1.58f09a6b5a6fp+0
235730=0x1.e7e714faba44bp+1
235738=0x1.4000d2a8a0316p+0
235791=-0x1.d05cd6dbb263fp-7
235953=0x1.edc81cc664477p-2
235954=0x1.0c37f3b2854cp+0
235973=-0x1.c8ff6d8d4c337p-11
235981=0x1.938a2551d7c99p-1
236034=-0x1.a9e4e1895594ap-6
236277=0x1.5cbcae999b9cfp-1
236682=0x1.37aaad92f7ca3p+0
237277=0x1.eff669fea666fp+1
237897=0x1.22a20e798d70cp+0
237942=0x1.e71ef42036246p+0
239274=0x1.3987becdf9234p+0
239302=0x1.d668ddb6fe942p+0
239922=0x1.d4831b7757dfcp+1
242190=0x1.32c063611aa1cp+1
242191=-0x1.6960f8e54fc3p+0
242192=0x1.176c392fd765bp+1
242194=-0x1.016bfaa6141a1p-6
242195=-0x1.f893638c97d94p-4
242196=-0x1.9e320d743b22dp-2
242198=0x1.e9ba00f1d3c58p+0
242202=-0x1.e456cefd19a51p-2
242203=0x1.10e1ce9f01beep-3
242210=0x1.b2a29194f452fp-3
242212=-0x1.1b32464bf53e4p-8
242218=-0x1.87ba663aac7fdp-7
242228=0x1.c69b090640d1p+1
242243=0x1.83272a557905ap+2
242250=0x1.4586e2ac28b65p-1
242271=0x1.1390ad9e48ca4p+1
242272=0x1.352e839845029p-14
242273=0x1.efa5f53bdf3f1p-6
242275=0x1.00f957db2358bp+2
242276=0x1.88476886314b9p+0
242277=0x1.625380eb0ea05p-4
242278=-0x1.224085139dc33p-4
242279=0x1.d2c6b903725eap+0
242280=-0x1.9a3bcc1a7c81fp-3
242281=0x1.e48590cf9661ap+0
242282=0x1.43825907a13a9p+0
242284=-0x1.33526e82b2f61p-1
242286=-0x1.2c59e17123eacp+0
242287=-0x1.9aceb05e5e09dp+0
242288=0x1.c58ff26672a97p-2
242289=0x1.19c748dd84802p-2
242290=0x1.d89f111f50dcdp-1
242292=0x1.1d2a305f2d3fdp-5
242293=-0x1.cbb106c1a5f25p-1
242294=-0x1.163d519c07eadp-2
242296=-0x1.c821204e54177p-4
242298=0x1.177c37dad59bbp-1
242299=-0x1.cc35679d3d979p-1
242301=-0x1.1c17adfe4ecdep-2
242302=-0x1.a095456933a14p-3
242303=-0x1.b2e6ce7d14774p-2
242304=0x1.68d4c2b32875dp+1
242309=-0x1.b5990f25d9f9cp-3
242310=0x1.9d30c9bd46cddp-1
242312=-0x1.47ba0bb43729fp-2
242314=-0x1.58a806af4e7b9p-2
242319=-0x1.34831ef20a995p-2
242322=-0x1.6cfafc5f62adbp-1
242323=-0x1.7c1abae08d5f5p-5
242324=-0x1.2d4fae7b9e936p-2
242326=0x1.322de3e075f59p-4
242330=-0x1.f3ef155216b4ep-4
242332=0x1.5d3c31459a0a2p+1
242333=-0x1.7d263463ed5b2p-5
242336=0x1.1c8316c8ab3f5p-4
242337=-0x1.c0379a78ee849p-6
242352=0x1.104c4381e5538p+2
242356=0x1.6f62b380fbebcp+0
242360=0x1.eedd3141251efp-1
242361=0x1.ccb4b5cd16ffap-1
242433=0x1.1f801c56605f1p+1
242437=0x1.a05fab53f837cp+0
242441=0x1.cf60b2596a959p-1
242442=0x1.3ac696e814285p+0
242514=0x1.4595b5d54dbfep-1
242595=0x1.51ebee9ce5bf9p-3
242757=0x1.d1f5ed5ad7508p+0
242838=0x1.9a54db64bb96bp-1
243081=0x1.05e9b9cf84855p+1
243162=-0x1.185374803a36dp-1
243324=0x1.09dacee36cf1ap-2
243486=0x1.15b4ccb72132p+1
243648=0x1.385169aade4bp-2
244296=0x1.42032a5b6432dp-1
244620=0x1.590a28158e717p-2
244782=0x1.d71c7a16dc3d1p-1
245025=0x1.c880fdb66bf13p-2
248994=0x1.2f97e5f0a63a8p+2
248996=-0x1.64073e01032b4p-5
248998=-0x1.33455592b2c9bp+0
248999=-0x1.124ff593206b8p-2
249000=0x1.15977eebb2741p+1
249002=0x1.15a2fcffd5f7p-2
249004=0x1.cdd92e8a50dfp+0
249007=0x1.bab59c16ad63dp-5
249014=0x1.e56f8473df4acp-3
249017=-0x1.80c423ad517ep-4
249019=0x1.0e5c307661aaap+2
249022=0x1.07f1e17b40541p+0
249043=0x1.e9874b60b975dp+0
249045=0x1.efd2b924caf4bp+1
249075=0x1.806390a5df3c8p-2
249083=0x1.a36988c564401p+0
249139=0x1.a9d6fbd54a2f4p-1
249156=0x1.4b8525574cdfep+0
249164=0x1.ce46b9d7cb5f6p+0
249544=0x1.f872e1145d984p-1
255717=0x1.0fc9190607226p-2
255726=-0x1.3e5520327fffep-11
255798=0x1.9818ac556a2b8p+0
255807=-0x1.2f40e765b1c64p-11
262359=0x1.05201ae5c7828p+2
262360=-0x1.2cd87d8e4cc6ep-1
262363=-0x1.3dc934c5c4d0fp-3
262364=0x1.1f95373081144p-6
262365=0x1.a52177e17eacbp-1
262367=0x1.30d82d12796a9p-4
262368=0x1.376df2820835bp+2
262371=-0x1.f934799b24784p-1
262378=0x1.76e148eaeae1p-6
262379=0x1.1932239e8cd29p+0
262387=-0x1.3b12374c888eap-3
262446=0x1.edb49575037b1p+0
262521=0x1.fa796ca564375p+1
262525=0x1.a6795111c5dep-3
262550=0x1.5d0bbdab079bep+1
262585=0x1.16df7ffeaf2a2p+1
262602=0x1.a66cdb72d85f8p+0
262606=0x1.e03e65ac46f9p+0
262631=-0x1.5bfc4864aaa2ap-6
262666=0x1.b2d387be45b43p+0
262764=0x1.634f866cc150cp+1
262845=-0x1.e1bf236c8d037p-4
262926=0x1.264e36c728781p-1
263007=0x1.26d4828666f55p-1
263088=0x1.6d0401c11819p-11
263250=-0x1.2834a1dea7812p-2
263331=0x1.1f497239d0e26p+1
263655=0x1.2165ec3e142ap+0
263684=0x1.710ab26303ef5p+2
263736=-0x1.b4fb6bc1fd2a9p-2
264222=-0x1.7e48488f7e7dfp-2
264384=-0x1.7a78a30852b73p-3
264627=0x1.136b908455e8bp+1
264870=0x1.2887e08c7d7a6p+0
264951=-0x1.54f9f59a1a8b4p-1
265113=0x1.ddb6d9d7f32b9p+0
266247=0x1.52a194bca2ee6p+1
266733=-0x1.fc4644a8f2538p-3
267057=0x1.d1596a1249a9dp-1
269163=0x1.260c670c4a88cp+1
269164=-0x1.c820db3347b76p-7
269165=-0x1.2c78a55279e5ep-3
269167=-0x1.245fc9ea92dfp-12
269168=0x1.0f6e307006fd9p+0
269169=-0x1.ebb093142406ep-2
269171=0x1.493459fe686dcp-8
269172=0x1.8c7b32720285p-2
269173=-0x1.820199d5eb4bap-2
269174=0x1.6d405362e1887p+0
269175=0x1.1902874566894p-1
269179=0x1.5daa0d20536e8p-4
269180=0x1.44704fa5de143p-2
269182=0x1.e626374abfa1ap+0
269184=0x1.a654b59f2e3p+0
269186=0x1.0f339f9a031ddp+0
269190=0x1.ce03f03597931p+0
269192=-0x1.ec017af09c065p-6
269193=0x1.0e17fbd75c642p-1
269194=0x1.64e0db81856abp+1
269196=0x1.cd0575a9f328p-1
269203=0x1.0d438e60cd101p-3
269205=0x1.68689277c6b26p-1
269206=-0x1.06eb2a88da0a6p-2
269214=0x1.1de35e0b4e998p-1
269218=0x1.b8744390722bfp-2
269219=0x1.d156829c92263p-3
269222=0x1.0facec18bd9e7p-2
269223=0x1.6a0b755c6f73cp-2
269226=0x1.633e2529e25fbp-1
269229=0x1.6fcd3da04bb2dp-1
269239=0x1.3f6dd5e2ead6fp-1
269244=0x1.9e7a2a8762bd7p+1
269246=0x1.f00198008d752p+0
269248=0x1.394f8789b5676p+1
269249=0x1.3d16cf9477e4bp+0
269252=0x1.816652fb30456p+0
269253=0x1.f041c936f692ap+0
269255=0x1.b8881bf124c87p-1
269256=0x1.8481080f3eb49p+0
269259=0x1.c304d9965347p-1
269260=0x1.7260a3a744ef9p-1
269263=0x1.52a79b69726f1p+0
269265=0x1.21b37f8678d17p+0
269266=0x1.2442e18a6f185p-3
269267=0x1.e2607b5c5ccf5p+0
269271=0x1.108cddd255c15p-1
269274=0x1.08649a3155fep+1
269275=0x1.809d8ee13308p+0
269277=0x1.6dd0d8f616dcep+0
269295=0x1.6bd7b1e43a555p-1
269303=0x1.3db653d579367p-2
269304=0x1.63a2a2f78791cp-1
269307=0x1.913ed1e162b1ep+0
269310=0x1.e44eb1485e071p+0
269406=0x1.428a5145ef9b2p+1
269427=0x1.a250b3957f759p+0
269487=0x1.7aa93d4707ca1p+0
269568=0x1.6ea0b6f9473fap+0
269572=-0x1.095709c122635p-6
269579=-0x1.07282568f77ecp-3
269587=0x1.f83702a531e21p+0
269589=0x1.7388b1da1f8f2p+0
269610=0x1.acf44de5b01e9p+0
269649=0x1.176cbe982a49bp+1
269730=0x1.6007f17fec994p+0
269786=0x1.f3235673d7eadp+0
269816=0x1.ed821a8a2a76dp+0
269892=0x1.0a3dc4d0e924ap+0
270065=0x1.6c898dec25a54p+2
270216=0x1.775b58ff1366dp+1
270297=0x1.a29c824a0bfcfp-2
270540=0x1.d05d40c462d3ep-2
270621=0x1.bbaa40403f8dep-2
270642=0x1.9d570e925e711p+0
270702=-0x1.3200fc69b45cfp-5
270719=0x1.4d10b7b41a5dp+2
