#mdl#2#10812
#rdr#1/0/0
10:u0%x[-2,0],
#qrk#81
1:O,
15:B-cost_relative,
19:B-fromloc.city_name,
20:B-fromloc.state_code,
17:B-toloc.city_name,
22:B-depart_date.day_name,
27:B-depart_time.period_of_day,
27:B-depart_date.date_relative,
14:B-airline_name,
13:B-flight_time,
27:B-depart_time.time_relative,
18:B-depart_time.time,
12:B-flight_mod,
14:B-airline_code,
20:B-fromloc.state_name,
19:B-stoploc.city_name,
11:B-city_name,
24:B-depart_date.day_number,
24:B-depart_date.month_name,
9:B-connect,
12:B-round_trip,
24:B-depart_time.period_mod,
22:B-fromloc.airport_name,
13:B-flight_stop,
12:B-state_name,
15:B-aircraft_code,
18:B-toloc.state_name,
18:B-arrive_time.time,
12:B-class_type,
15:B-flight_number,
27:B-arrive_time.period_of_day,
16:B-transport_type,
14:B-airport_name,
8:B-return,
18:B-depart_date.year,
15:B-period_of_day,
15:B-time_relative,
6:B-time,
13:B-fare_amount,
24:B-arrive_date.month_name,
24:B-arrive_date.day_number,
6:B-meal,
27:B-arrive_time.time_relative,
18:B-meal_description,
12:B-state_code,
9:B-economy,
24:B-return_date.month_name,
24:B-return_date.day_number,
20:B-toloc.airport_name,
5:B-mod,
13:B-flight_days,
28:B-depart_date.today_relative,
18:B-restriction_code,
17:B-fare_basis_code,
27:B-arrive_date.date_relative,
22:B-arrive_date.day_name,
4:B-or,
11:B-meal_code,
24:B-arrive_time.start_time,
22:B-arrive_time.end_time,
22:B-fromloc.airport_code,
20:B-toloc.airport_code,
14:B-airport_code,
24:B-arrive_time.period_mod,
18:B-toloc.state_code,
24:B-depart_time.start_time,
22:B-depart_time.end_time,
16:B-today_relative,
28:B-arrive_date.today_relative,
10:B-day_name,
20:B-stoploc.state_code,
27:B-return_date.date_relative,
22:B-stoploc.airport_name,
22:B-return_date.day_name,
11:B-days_code,
12:B-month_name,
12:B-day_number,
20:B-toloc.country_name,
28:B-return_date.today_relative,
24:B-return_time.period_mod,
27:B-return_time.period_of_day,
#qrk#880
6:u0_x-2,
6:u0_x-1,
5:u0i'd,
6:u0like,
4:u0to,
6:u0find,
5:u0the,
10:u0cheapest,
8:u0flight,
6:u0from,
12:u0washington,
4:u0dc,
5:u0i'm,
11:u0traveling,
8:u0dallas,
3:u0i,
6:u0also,
6:u0need,
4:u0go,
15:u0san-francisco,
4:u0on,
11:u0wednesday,
9:u0evening,
7:u0thank,
5:u0you,
8:u0travel,
6:u0next,
5:u0fly,
22:u0continental-airlines,
9:u0between,
8:u0boston,
8:u0please,
6:u0tell,
4:u0me,
9:u0flights,
5:u0and,
14:u0philadelphia,
7:u0would,
6:u0fare,
9:u0atlanta,
3:u0a,
6:u0give,
14:u0flight-times,
11:u0baltimore,
4:u0in,
9:u0morning,
23:u0times-of-your-flights,
9:u0leaving,
6:u0what,
4:u0do,
6:u0have,
8:u0denver,
10:u0arriving,
4:u0is,
6:u0your,
6:u0last,
7:u0there,
6:u0does,
19:u0american-airlines,
6:u0time,
10:u0earliest,
4:u0of,
7:u0could,
13:u0information,
12:u0concerning,
5:u0one,
18:u0american-airline,
5:u0twa,
12:u0fort-worth,
7:u0texas,
12:u0interested,
6:u0that,
6:u0stop,
5:u0for,
12:u0pittsburgh,
6:u0want,
10:u0airlines,
8:u0ground,
16:u0transportation,
9:u0airport,
11:u0repeating,
8:u0before,
6:u010am,
6:u0type,
10:u0aircraft,
8:u0flying,
17:u0united-airlines,
5:u0all,
7:u0right,
5:u0let,
6:u0know,
7:u0using,
6:u0they,
5:u0use,
7:u0these,
4:u010,
6:u0well,
6:u0i'll,
5:u0try,
6:u0kind,
7:u0flies,
12:u010-o'clock,
11:u0september,
11:u0twentieth,
10:u0stopover,
5:u0are,
4:u0an,
6:u0wish,
9:u0airline,
7:u0plane,
9:u0one-way,
11:u0available,
4:u0at,
10:u0noontime,
8:u0around,
16:u0delta-airlines,
18:u0eastern-airlines,
4:u0as,
7:u0early,
10:u0possible,
5:u0day,
6:u0will,
8:u0arrive,
16:u0denver-airport,
9:u0nonstop,
8:u0repeat,
12:u0departures,
8:u0monday,
8:u0august,
12:u0nineteenth,
6:u0rate,
5:u0any,
8:u0us-air,
7:u0we're,
7:u0going,
5:u0819,
6:u0take,
11:u09-o'clock,
5:u0out,
4:u0be,
9:u0staying,
10:u0downtown,
5:u0two,
7:u0hours,
5:u0can,
7:u0about,
6:u0city,
6:u0very,
9:u0working,
10:u0scenario,
7:u0three,
5:u0727,
4:u0am,
8:u0number,
8:u0return,
7:u0bound,
8:u0friday,
7:u0class,
9:u0service,
12:u0california,
5:u0get,
5:u0yes,
7:u0delta,
7:u0225pm,
8:u01158pm,
11:u0equipment,
6:u0used,
9:u0looking,
10:u0stopping,
8:u0ticket,
10:u0colorado,
9:u0georgia,
6:u0with,
13:u0coach-class,
6:u0seat,
4:u0or,
8:u0lowest,
5:u0buy,
11:u0afternoon,
5:u0230,
5:u0324,
7:u0110pm,
10:u0american,
5:u0813,
9:u0oakland,
6:u0goes,
10:u0straight,
9:u0through,
18:u0without-stopping,
4:u0if,
9:u0enroute,
4:u0it,
5:u0may,
6:u02153,
13:u0first-class,
6:u0list,
8:u0making,
13:u0continental,
7:u0leave,
7:u0after,
12:u012-o'clock,
7:u0which,
8:u0leaves,
8:u01220pm,
11:u05-o'clock,
13:u0lowest-cost,
7:u0645am,
9:u0tuesday,
5:u0has,
5:u0how,
6:u0much,
12:u0round-trip,
6:u0long,
17:u0atlanta-airport,
6:u0into,
19:u0airport-limousine,
6:u0make,
6:u0trip,
7:u0again,
7:u0fares,
14:u0arrival-time,
7:u0755am,
8:u0latest,
5:u0755,
10:u0schedule,
5:u09pm,
10:u0november,
14:u0twenty-third,
6:u0this,
6:u0year,
6:u01991,
6:u0okay,
6:u0just,
7:u0hello,
7:u0let's,
5:u0see,
15:u0delta-airline,
7:u0stops,
5:u0way,
8:u0united,
16:u0united-airline,
4:u0oh,
17:u0eastern-airline,
6:u0some,
16:u0dallas-airport,
14:u0arrangements,
16:u0boston-airport,
11:u0departing,
9:u0airfare,
13:u0329-dollars,
6:u0cost,
5:u0air,
14:u0restrictions,
6:u0book,
7:u0coach,
9:u0arrange,
6:u0sure,
11:u0determine,
6:u0july,
9:u0seventh,
6:u0meal,
5:u08am,
6:u0such,
7:u0types,
10:u0sometime,
8:u0direct,
9:u0arrives,
15:u0early-morning,
6:u0many,
7:u0where,
5:u0420,
3:u05,
4:u0my,
7:u0final,
13:u0destination,
11:u0originate,
22:u0latest-time-possible,
5:u0296,
7:u0first,
8:u0should,
7:u0their,
10:u0question,
6:u0live,
8:u0trying,
12:u0connection,
11:u0thirtieth,
6:u0fine,
6:u0help,
5:u0now,
5:u0747,
6:u0able,
5:u0put,
16:u0twenty-seventh,
7:u0night,
7:u0630am,
7:u0rates,
17:u0least-expensive,
16:u0city-of-boston,
8:u0kindly,
8:u0inform,
9:u0eastern,
5:u0825,
6:u0when,
5:u0555,
7:u0sorry,
14:u0thirty-first,
6:u0then,
8:u0fourth,
6:u0plan,
10:u0no-stops,
9:u0economy,
10:u0thursday,
7:u0fifth,
9:u0connect,
7:u0those,
10:u0planning,
5:u0269,
5:u0428,
7:u0times,
7:u0makes,
10:u0one-stop,
7:u0april,
14:u0twenty-first,
11:u0beginning,
14:u0twenty-fifth,
11:u0returning,
11:u07-o'clock,
11:u0fifteenth,
9:u0sixteen,
11:u0seventeen,
8:u0twenty,
11:u08-o'clock,
6:u0four,
6:u01039,
7:u0great,
8:u0depart,
8:u0sounds,
12:u0twenty-one,
7:u0one's,
5:u0too,
15:u0twenty-second,
11:u0nighttime,
6:u0show,
19:u0dallas-fort-worth,
10:u0arrivals,
6:u0most,
13:u0connections,
6:u0june,
7:u0daily,
19:u0stapleton-airport,
8:u0thrift,
9:u0explain,
13:u0represented,
5:u07pm,
4:u0aa,
8:u0cities,
9:u0besides,
9:u0provide,
5:u0jet,
6:u0only,
11:u0different,
9:u0classes,
6:u0code,
3:u0b,
6:u0same,
9:u0booking,
15:u0no-later-than,
5:u02pm,
8:u0what's,
7:u0codes,
8:u0belong,
9:u0layover,
6:u0more,
16:u0business-class,
6:u0than,
15:u0economy-class,
16:u0late-afternoon,
5:u01pm,
11:u03-o'clock,
9:u012-noon,
9:u0delta's,
12:u0rental-car,
5:u0far,
6:u0come,
10:u0smallest,
16:u0most-expensive,
9:u0tickets,
6:u0noon,
13:u0originating,
8:u0offers,
9:u0heading,
5:u0279,
3:u03,
8:u0toward,
6:u0each,
11:u0lufthansa,
6:u0name,
22:u0philadelphia-airport,
3:u01,
3:u04,
16:u0departure-time,
17:u0early-afternoon,
7:u0total,
9:u0seating,
10:u0capacity,
12:u0advertises,
8:u0having,
11:u0departure,
20:u0pittsburgh-airport,
7:u0kinds,
11:u0limousine,
41:u0dallas-fort-worth-international-airport,
22:u0schedule-for-flights,
4:u0s-,
11:u0designate,
7:u0takes,
7:u0least,
8:u0amount,
8:u0planes,
9:u0usa-air,
8:u0prices,
9:u0various,
11:u0airplanes,
5:u09am,
17:u0time-of-arrival,
17:u0departure-times,
11:u0including,
7:u0offer,
6:u0dc10,
8:u0eleven,
9:u0any-day,
5:u0352,
7:u0price,
11:u0operating,
10:u0services,
14:u0reservations,
6:u01765,
17:u0flight-schedule,
5:u0f28,
20:u0air-taxi-operation,
4:u0pm,
9:u0serving,
11:u0breakfast,
8:u0served,
10:u0anything,
5:u0say,
5:u0run,
7:u0seats,
7:u0other,
9:u0earlier,
6:u01017,
7:u0later,
5:u06pm,
10:u0serviced,
5:u0dfw,
8:u01133am,
10:u0provided,
4:u0by,
10:u0provides,
6:u0both,
7:u0meals,
10:u0airplane,
11:u06-o'clock,
3:u08,
14:u0twenty-ninth,
7:u0third,
12:u0american's,
5:u0bwi,
7:u0still,
7:u0cover,
6:u0less,
5:u0oak,
9:u0qx-fare,
14:u0lowest-price,
4:u082,
9:u0q-fares,
13:u0124-dollars,
4:u0ls,
9:u0carries,
6:u01505,
11:u0itinerary,
12:u0connecting,
9:u0departs,
8:u0either,
27:u0dallas-fort-worth-airport,
12:u0passengers,
8:u0boeing,
3:u06,
9:u0qualify,
10:u0describe,
5:u0705,
4:u071,
10:u0directly,
11:u0scheduled,
11:u0turboprop,
7:u0catch,
20:u0lufthansa-airlines,
10:u0saturday,
7:u0logan,
11:u02-o'clock,
10:u0distance,
11:u0companies,
8:u0serves,
8:u0people,
9:u0carried,
10:u0shortest,
7:u0cheap,
9:u0reverse,
10:u0airports,
12:u0everywhere,
10:u0day-time,
6:u010pm,
17:u0midway-airlines,
7:u0tenth,
12:u0capacities,
9:u0largest,
10:u0greatest,
5:u03pm,
4:u012,
3:u02,
7:u0sixth,
12:u0car-rental,
6:u0limo,
7:u0ninth,
8:u0coming,
6:u0back,
5:u0fit,
6:u0once,
11:u0expensive,
9:u0charges,
4:u0no,
4:u0so,
6:u0here,
14:u0abbreviation,
12:u01700-hours,
7:u0under,
13:u0500-dollars,
10:u0airfares,
9:u0options,
9:u0arrival,
11:u01-o'clock,
9:u0display,
6:u012pm,
4:u0us,
5:u0345,
6:u0rent,
5:u0car,
33:u0stapleton-international-airport,
8:u0sunday,
4:u0dl,
6:u01083,
4:u0ua,
5:u0201,
5:u0343,
5:u0323,
5:u0229,
6:u0week,
9:u0meaning,
4:u0qx,
9:u0weekday,
10:u0tomorrow,
7:u0costs,
13:u0car-rentals,
11:u0saturdays,
5:u0d-s,
7:u0stand,
5:u0106,
9:u0grounds,
5:u0838,
13:u0reservation,
12:u0requesting,
10:u0starting,
5:u0402,
5:u0270,
5:u0297,
5:u0281,
10:u0tuesdays,
13:u0restriction,
5:u04pm,
5:u08pm,
24:u0the-day-after-tomorrow,
14:u03-o'clock-pm,
14:u08-o'clock-am,
14:u05-o'clock-pm,
7:u0serve,
13:u0us-airlines,
3:u0y,
11:u0transport,
12:u0continuing,
12:u0limousines,
6:u0taxi,
7:u0names,
4:u0qw,
8:u0listed,
6:u01055,
4:u0ea,
6:u0look,
7:u0today,
9:u0what're,
8:u0second,
6:u011am,
8:u0during,
5:u0430,
7:u0838am,
5:u0via,
8:u0thanks,
6:u0near,
5:u05pm,
7:u0close,
6:u01110,
23:u0san-francisco-airport,
7:u0while,
8:u0wanted,
9:u0maximum,
7:u0spend,
9:u0lastest,
9:u0longest,
5:u0but,
8:u0within,
6:u0over,
5:u0852,
5:u0928,
7:u0start,
5:u0445,
20:u0washington-airport,
8:u0locate,
9:u0travels,
6:u0late,
6:u0zone,
13:u0inexpensive,
11:u0currently,
6:u0must,
10:u0midnight,
6:u0land,
17:u0oakland-airport,
18:u0transcontinental,
8:u0across,
11:u0continent,
7:u0430pm,
6:u0gets,
7:u0month,
10:u0december,
10:u0connects,
10:u0vicinity,
8:u0begins,
7:u0lands,
7:u0don't,
11:u0stopovers,
5:u0757,
9:u0january,
6:u01992,
9:u0october,
14:u08-o'clock-pm,
8:u0define,
5:u0atl,
9:u0listing,
11:u04-o'clock,
4:u0hi,
11:u0overnight,
9:u0without,
14:u0pennsylvania,
12:u0wednesdays,
6:u01291,
5:u0271,
6:u0sort,
14:u06-o'clock-pm,
14:u07-o'clock-am,
14:u05-o'clock-am,
5:u07am,
4:u0up,
15:u0only-weekdays,
3:u0f,
13:u0rental-cars,
10:u0eleventh,
8:u0priced,
5:u0212,
10:u0anywhere,
6:u01850,
6:u01700,
5:u0217,
13:u0400-dollars,
6:u03357,
5:u0sfo,
5:u0non,
4:u0fn,
11:u0sixteenth,
6:u03724,
5:u0771,
18:u0flight-schedules,
14:u01000-dollars,
10:u0mornings,
9:u0include,
9:u0whether,
9:u0offered,
13:u0round-trips,
9:u0toronto,
4:u0ac,
10:u0new-york,
11:u0milwaukee,
9:u0orlando,
9:u0ontario,
8:u0tacoma,
13:u0minneapolis,
11:u0san-diego,
16:u0salt-lake-city,
12:u0cincinnati,
7:u0miami,
20:u0southwest-airlines,
9:u0phoenix,
8:u0dulles,
7:u0equal,
13:u0466-dollars,
7:u0along,
14:u0indianapolis,
9:u0burbank,
16:u0st.-petersburg,
10:u0san-jose,
24:u0salt-lake-city-airport,
7:u0tampa,
11:u0st.-louis,
9:u0houston,
9:u0symbols,
4:u0yn,
17:u0orlando-airport,
23:u0orlando-international,
5:u0417,
13:u0los-angeles,
25:u0minimum-connection-time,
6:u04400,
8:u0o'hare,
9:u0chicago,
10:u0montreal,
10:u0columbus,
8:u0newark,
11:u0cleveland,
12:u0new-jersey,
5:u0jfk,
12:u0la-guardia,
11:u0nashville,
20:u0westchester-county,
11:u0las-vegas,
11:u0tower-air,
12:u0long-beach,
9:u0seattle,
7:u0bring,
9:u0calling,
5:u0mco,
9:u0memphis,
6:u0i've,
5:u0got,
10:u0somebody,
6:u0else,
5:u0who,
7:u0wants,
11:u0charlotte,
12:u0difference,
3:u0q,
11:u0tennessee,
7:u0train,
8:u0laying,
12:u0air-canada,
8:u0stands,
13:u0kansas-city,
9:u0florida,
9:u0landing,
6:u0soon,
5:u0ten,
19:u0san-diego-airport,
9:u0instead,
4:u0nw,
17:u0phoenix-airport,
6:u0uses,
5:u0lax,
9:u0numbers,
6:u0ohio,
11:u0minnesota,
15:u0new-york-city,
8:u0canada,
10:u0listings,
10:u0missouri,
6:u0utah,
6:u01222,
12:u0preferably,
8:u0497766,
7:u0810pm,
16:u0north-carolina,
6:u0runs,
5:u0505,
8:u0dinner,
8:u0that's,
8:u0eighth,
10:u0includes,
17:u0alaska-airlines,
8:u0nevada,
9:u0detroit,
10:u0michigan,
10:u0actually,
13:u0westchester,
7:u0thing,
5:u0130,
9:u0another,
19:u0milwaukee-airport,
8:u0prefer,
8:u0quebec,
9:u0indiana,
10:u0reaching,
9:u0reaches,
3:u07,
11:u0following,
13:u0seventeenth,
12:u0fourteenth,
12:u0thirteenth,
6:u0date,
11:u0hopefully,
20:u0northwest-airlines,
6:u0days,
5:u0415,
9:u0arizona,
10:u0st.-paul,
11:u0northwest,
23:u0ontario-international,
9:u0friends,
14:u0twenty-sixth,
20:u0la-guardia-airport,
4:u0la,
8:u0single,
12:u0eighteenth,
9:u0red-eye,
9:u0twelfth,
14:u0america-west,
11:u0southwest,
12:u0twenty-two,
5:u0six,
9:u0tonight,
7:u0visit,
6:u0them,
7:u0lives,
5:u0530,
21:u0trans-world-airline,
8:u01030am,
8:u01115am,
3:u09,
31:u0toronto-international-airport,
35:u0los-angeles-international-airport,
37:u0san-francisco-international-airport,
9:u0closest,
4:u019,
5:u0845,
5:u0823,
6:u01024,
6:u01205,
5:u0305,
8:u0taking,
5:u0ewr,
14:u09-o'clock-pm,
10:u0nonstops,
7:u0vegas,
10:u0sunday's,
13:u0wednesday's,
10:u0friday's,
15:u0twenty-eighth,
17:u012-o'clock-noon,
10:u0february,
7:u0march,
19:u0northwest-airline,
12:u0love-field,
9:u0choices,
7:u0718am,
10:u0takeoffs,
10:u0landings,
5:u0off,
9:u0takeoff,
32:u0general-mitchell-international,
7:u0lunch,
11:u0nationair,
19:u0canadian-airlines,
33:u0canadian-airlines-international,
9:u0midwest,
9:u0express,
9:u0highest,
0=0x1.ea9fab095321cp+3
1=0x1.d42a896c3235dp-1
2=0x1.6292e50feb45fp+1
3=-0x1.370c3ef3e025bp-2
4=-0x1.370c3ef3e025bp-2
5=0x1.2b614750f2e12p-1
6=0x1.5c4fc91b48ed4p-1
7=-0x1.02572fe055059p-2
8=0x1.547a5eab533cp+1
9=-0x1.02572fe056a32p-2
10=-0x1.02572fe056602p-2
11=-0x1.02572fe056a32p-2
12=0x1.d42a896c35f09p-1
14=-0x1.370c3ef3e025bp-2
15=-0x1.370c3ef3e025bp-2
17=-0x1.370c3ef3e025bp-2
18=-0x1.02572fe056a32p-2
19=-0x1.370c3ef3e025bp-2
20=0x1.9e7d6442906f6p+1
21=-0x1.370c3ef3e025bp-2
22=-0x1.370c3ef3e025bp-2
23=0x1.7d83f9cd52114p-3
24=-0x1.370c3ef3e025bp-2
25=-0x1.370c3ef3e025bp-2
26=-0x1.370c3ef3e025bp-2
27=-0x1.370c3ef3e025bp-2
28=0x1.383a886e67c7p-3
29=-0x1.370c3ef3e025bp-2
30=-0x1.370c3ef3e025bp-2
32=-0x1.370c3ef3e025bp-2
33=-0x1.370c3ef3e025bp-2
34=-0x1.370c3ef3e025bp-2
35=-0x1.370c3ef3e025bp-2
36=-0x1.370c3ef3e025bp-2
37=-0x1.370c3ef3e025bp-2
38=-0x1.370c3ef3e025bp-2
39=-0x1.370c3ef3e025bp-2
40=-0x1.370c3ef3e025bp-2
41=-0x1.370c3ef3e025bp-2
42=-0x1.370c3ef3e025bp-2
43=-0x1.370c3ef3e025bp-2
44=-0x1.370c3ef3e025bp-2
45=-0x1.02572fe05505cp-2
46=-0x1.370c3ef3e025bp-2
47=-0x1.370c3ef3e025bp-2
48=-0x1.370c3ef3e025bp-2
49=-0x1.02572fe05505ap-2
50=-0x1.02572fe05505ap-2
51=-0x1.370c3ef3e025bp-2
52=-0x1.370c3ef3e025bp-2
53=-0x1.370c3ef3e025bp-2
54=-0x1.370c3ef3e025bp-2
55=-0x1.370c3ef3e025bp-2
56=-0x1.370c3ef3e025bp-2
57=-0x1.370c3ef3e025bp-2
58=-0x1.370c3ef3e025bp-2
59=-0x1.370c3ef3e025bp-2
60=-0x1.02572fe05505dp-2
61=-0x1.370c3ef3e025bp-2
62=-0x1.370c3ef3e025bp-2
63=-0x1.370c3ef3e025bp-2
64=-0x1.370c3ef3e025bp-2
65=-0x1.370c3ef3e025bp-2
66=-0x1.370c3ef3e025bp-2
67=-0x1.370c3ef3e025bp-2
68=-0x1.370c3ef3e025bp-2
69=-0x1.370c3ef3e025bp-2
70=-0x1.370c3ef3e025bp-2
71=-0x1.370c3ef3e025bp-2
72=-0x1.370c3ef3e025bp-2
73=-0x1.370c3ef3e025bp-2
74=-0x1.370c3ef3e025bp-2
75=-0x1.370c3ef3e025bp-2
76=-0x1.370c3ef3e025bp-2
77=-0x1.370c3ef3e025bp-2
78=-0x1.370c3ef3e025bp-2
79=-0x1.370c3ef3e025bp-2
80=-0x1.370c3ef3e025bp-2
81=0x1.f749c7d15c23ep+3
82=0x1.a871eb8f8cbbcp-5
83=0x1.7c82cb3755a9cp+1
84=-0x1.3c285b98dde2p-2
85=-0x1.3c285b98dde2p-2
86=0x1.18a2e84823d78p-1
87=0x1.46b8e8276b5dp+1
88=-0x1.07a3a2e5ac657p-2
89=0x1.7a48b4d27234bp+3
90=0x1.9f844dee8d332p-1
91=-0x1.3c285b98dde2p-2
92=-0x1.07a3a2e5adb76p-2
93=0x1.848fb661662ccp-3
95=-0x1.3c285b98dde2p-2
96=-0x1.3c285b98dde2p-2
97=0x1.848fb6616629cp-3
98=-0x1.07a3a2e5adfbp-2
99=0x1.325e576afb85p-1
100=-0x1.3c285b98dde2p-2
101=0x1.e3274d22d7c2ep-1
102=-0x1.3c285b98dde2p-2
103=-0x1.3c285b98dde2p-2
104=0x1.a0a2a205dddep+0
105=-0x1.3c285b98dde2p-2
106=-0x1.3c285b98dde2p-2
107=-0x1.3c285b98dde2p-2
108=-0x1.3c285b98dde2p-2
109=0x1.3f45006479ec8p-3
110=0x1.848fb66160868p-3
111=-0x1.3c285b98dde2p-2
112=-0x1.3e00fe287c0abp-5
113=-0x1.07a3a2e5adf46p-2
114=-0x1.3c285b98dde2p-2
115=-0x1.3c285b98dde2p-2
116=-0x1.3c285b98dde2p-2
117=-0x1.3c285b98dde2p-2
118=-0x1.3c285b98dde2p-2
119=-0x1.3c285b98dde2p-2
120=-0x1.3c285b98dde2p-2
121=-0x1.3c285b98dde2p-2
122=-0x1.07a3a2e5adfaep-2
123=-0x1.3c285b98dde2p-2
124=-0x1.7e8cce9b7f47fp-3
125=-0x1.3c285b98dde2p-2
126=-0x1.ce0cb4b2d6502p-4
127=-0x1.3c285b98dde2p-2
128=-0x1.3c285b98dde2p-2
129=-0x1.3c285b98dde2p-2
130=-0x1.3c285b98dde2p-2
131=0x1.9f844dee91be8p-1
132=-0x1.3c285b98dde2p-2
133=-0x1.3c285b98dde2p-2
134=-0x1.3c285b98dde2p-2
135=-0x1.3c285b98dde2p-2
136=-0x1.3c285b98dde2p-2
137=-0x1.7e8cce9b789f8p-3
138=-0x1.3c285b98dde2p-2
139=-0x1.3c285b98dde2p-2
140=-0x1.3c285b98dde2p-2
141=-0x1.07a3a2e5ac808p-2
142=-0x1.3c285b98dde2p-2
143=-0x1.07a3a2e5ac654p-2
144=-0x1.3c285b98dde2p-2
145=-0x1.3c285b98dde2p-2
146=-0x1.3c285b98dde2p-2
147=-0x1.3c285b98dde2p-2
148=-0x1.3c285b98dde2p-2
149=-0x1.3c285b98dde2p-2
150=-0x1.3c285b98dde2p-2
151=-0x1.3c285b98dde2p-2
152=-0x1.3c285b98dde2p-2
153=-0x1.3c285b98dde2p-2
154=-0x1.3c285b98dde2p-2
155=-0x1.3c285b98dde2p-2
156=-0x1.3c285b98dde2p-2
157=-0x1.3c285b98dde2p-2
158=-0x1.3c285b98dde2p-2
159=-0x1.3c285b98dde2p-2
160=-0x1.3c285b98dde2p-2
161=-0x1.3c285b98dde2p-2
162=0x1.18122bb93d9d3p+3
163=-0x1.70b516f2474e5p-8
164=-0x1.70b516f2474e5p-8
165=-0x1.70b516f2474e5p-8
166=-0x1.70b516f2474e5p-8
167=-0x1.70b516f2474e5p-8
168=-0x1.70b516f2474e5p-8
169=-0x1.70b516f2474e5p-8
170=0x1.83f1a7c63975ep-4
171=-0x1.70b516f2474e5p-8
172=-0x1.70b516f2474e5p-8
173=-0x1.70b516f2474e5p-8
174=-0x1.70b516f2474e5p-8
175=-0x1.70b516f2474e5p-8
176=-0x1.70b516f2474e5p-8
177=-0x1.70b516f2474e5p-8
178=-0x1.70b516f2474e5p-8
179=-0x1.70b516f2474e5p-8
180=-0x1.70b516f2474e5p-8
181=-0x1.70b516f2474e5p-8
182=-0x1.70b516f2474e5p-8
183=-0x1.70b516f2474e5p-8
184=-0x1.70b516f2474e5p-8
185=-0x1.70b516f2474e5p-8
186=-0x1.70b516f2474e5p-8
187=-0x1.70b516f2474e5p-8
188=-0x1.70b516f2474e5p-8
189=-0x1.70b516f2474e5p-8
190=-0x1.70b516f2474e5p-8
191=-0x1.70b516f2474e5p-8
192=-0x1.70b516f2474e5p-8
193=-0x1.70b516f2474e5p-8
194=-0x1.70b516f2474e5p-8
195=-0x1.70b516f2474e5p-8
196=-0x1.70b516f2474e5p-8
197=-0x1.70b516f2474e5p-8
198=-0x1.70b516f2474e5p-8
199=-0x1.70b516f2474e5p-8
200=-0x1.70b516f2474e5p-8
201=-0x1.70b516f2474e5p-8
202=-0x1.70b516f2474e5p-8
203=-0x1.70b516f2474e5p-8
204=0x1.83f1a7c639955p-4
205=-0x1.70b516f2474e5p-8
206=-0x1.70b516f2474e5p-8
207=-0x1.70b516f2474e5p-8
208=-0x1.70b516f2474e5p-8
209=-0x1.70b516f2474e5p-8
210=-0x1.70b516f2474e5p-8
211=-0x1.70b516f2474e5p-8
212=-0x1.70b516f2474e5p-8
213=-0x1.70b516f2474e5p-8
214=-0x1.70b516f2474e5p-8
215=-0x1.70b516f2474e5p-8
216=-0x1.70b516f2474e5p-8
217=-0x1.70b516f2474e5p-8
218=-0x1.70b516f2474e5p-8
219=-0x1.70b516f2474e5p-8
220=-0x1.70b516f2474e5p-8
221=-0x1.70b516f2474e5p-8
222=-0x1.70b516f2474e5p-8
223=-0x1.70b516f2474e5p-8
224=-0x1.70b516f2474e5p-8
225=-0x1.70b516f2474e5p-8
226=-0x1.70b516f2474e5p-8
227=-0x1.70b516f2474e5p-8
228=-0x1.70b516f2474e5p-8
229=-0x1.70b516f2474e5p-8
230=-0x1.70b516f2474e5p-8
231=-0x1.70b516f2474e5p-8
232=-0x1.70b516f2474e5p-8
233=-0x1.70b516f2474e5p-8
234=-0x1.70b516f2474e5p-8
235=-0x1.70b516f2474e5p-8
236=-0x1.70b516f2474e5p-8
237=-0x1.70b516f2474e5p-8
238=-0x1.70b516f2474e5p-8
239=-0x1.70b516f2474e5p-8
240=-0x1.70b516f2474e5p-8
241=-0x1.70b516f2474e5p-8
242=-0x1.70b516f2474e5p-8
243=0x1.8a9aef1f88382p+2
244=0x1.7e34c9458f80cp+0
245=-0x1.b2627d22254ccp-4
246=-0x1.b2627d22254ccp-4
247=-0x1.b2627d22254ccp-4
248=-0x1.b2627d22254ccp-4
249=0x1.00f4f8b60146cp+1
250=-0x1.b2627d22254ccp-4
251=0x1.02fdf4deafba7p-2
252=0x1.9f06737c0ecd4p-1
253=-0x1.b2627d22254ccp-4
254=-0x1.b2627d22254ccp-4
255=0x1.7e34c9458f75ap+0
256=0x1.836247962912cp-2
257=-0x1.b2627d22254ccp-4
258=-0x1.b2627d22254ccp-4
259=0x1.dd6f994134e2ep-5
260=-0x1.b2627d22254ccp-4
261=-0x1.b2627d22254ccp-4
262=-0x1.b2627d22254ccp-4
264=-0x1.b2627d22254ccp-4
265=-0x1.b2627d22254ccp-4
266=0x1.7e34c9458f705p+0
267=-0x1.b2627d22254ccp-4
268=-0x1.b2627d22254ccp-4
269=-0x1.b2627d22254ccp-4
270=-0x1.b2627d22254ccp-4
271=0x1.7eb34efbc1e48p-2
272=-0x1.b2627d22254ccp-4
273=-0x1.b2627d22254ccp-4
275=-0x1.b2627d22254ccp-4
276=-0x1.b2627d22254ccp-4
277=-0x1.b2627d22254ccp-4
278=-0x1.b2627d22254ccp-4
279=-0x1.b2627d22254ccp-4
280=-0x1.b2627d22254ccp-4
281=-0x1.b2627d22254ccp-4
282=-0x1.b2627d22254ccp-4
283=-0x1.b2627d22254ccp-4
285=-0x1.b2627d22254ccp-4
286=-0x1.b2627d22254ccp-4
287=-0x1.b2627d22254ccp-4
288=-0x1.b2627d22254ccp-4
289=-0x1.b2627d22254ccp-4
290=-0x1.b2627d22254ccp-4
291=-0x1.b2627d22254ccp-4
292=-0x1.b2627d22254ccp-4
293=-0x1.b2627d22254ccp-4
294=-0x1.b2627d22254ccp-4
295=-0x1.b2627d22254ccp-4
296=-0x1.b2627d22254ccp-4
297=-0x1.b2627d22254ccp-4
298=-0x1.b2627d22254ccp-4
299=-0x1.b2627d22254ccp-4
300=-0x1.b2627d22254ccp-4
301=-0x1.b2627d22254ccp-4
302=-0x1.b2627d22254ccp-4
303=-0x1.b2627d22254ccp-4
304=-0x1.b2627d22254ccp-4
305=-0x1.b2627d22254ccp-4
306=-0x1.b2627d22254ccp-4
307=-0x1.b2627d22254ccp-4
308=-0x1.b2627d22254ccp-4
309=-0x1.b2627d22254ccp-4
310=-0x1.b2627d22254ccp-4
311=-0x1.b2627d22254ccp-4
312=-0x1.b2627d22254ccp-4
313=-0x1.b2627d22254ccp-4
314=-0x1.b2627d22254ccp-4
315=-0x1.b2627d22254ccp-4
316=-0x1.b2627d22254ccp-4
317=-0x1.b2627d22254ccp-4
318=-0x1.b2627d22254ccp-4
319=-0x1.b2627d22254ccp-4
320=-0x1.b2627d22254ccp-4
321=-0x1.b2627d22254ccp-4
322=-0x1.b2627d22254ccp-4
323=-0x1.b2627d22254ccp-4
324=0x1.94ccec6f8e884p+2
325=0x1.a49407a5b3768p+0
326=0x1.fdc3b4c64e7cap+0
327=-0x1.8f68b87b3d747p-2
328=0x1.fa75b0cf70774p+1
329=0x1.0fd5a2f1065e2p+2
330=0x1.61c93d469a85ep-5
331=0x1.9286cab70a164p+0
332=0x1.6d3060bd6c9b1p-1
333=-0x1.8f68b87b3d747p-2
334=0x1.08169ee83e365p+2
335=-0x1.0456426f30039p-2
336=-0x1.1d5605388afa4p-3
337=-0x1.1d5605388b543p-3
338=-0x1.8f68b87b3d747p-2
339=-0x1.8f68b87b3d747p-2
340=-0x1.0456426f3003cp-2
341=-0x1.8f68b87b3d747p-2
342=0x1.390ff90282ea5p-3
343=0x1.126e9cf0075ebp-3
344=0x1.0e05f305c7884p+2
345=0x1.29f9a7136701bp+1
346=-0x1.0456426f30034p-2
347=0x1.a49407a5b2a34p+0
348=-0x1.8f68b87b3d747p-2
349=-0x1.8f68b87b3d747p-2
350=0x1.249c21aa870ep+2
351=-0x1.8f68b87b3d747p-2
352=0x1.4325437d55672p+0
353=-0x1.8f68b87b3d747p-2
354=-0x1.8f68b87b3d747p-2
355=-0x1.8f68b87b3d747p-2
356=-0x1.8f68b87b3d747p-2
357=-0x1.0456426f30032p-2
358=-0x1.8f68b87b3d747p-2
359=-0x1.8f68b87b3d747p-2
360=-0x1.8f68b87b3d747p-2
361=-0x1.8f68b87b3d747p-2
362=-0x1.8f68b87b3d747p-2
363=-0x1.1d5605388acd5p-3
364=-0x1.8f68b87b3d747p-2
365=-0x1.8f68b87b3d747p-2
366=-0x1.011ce196b666fp-4
367=-0x1.8f68b87b3d747p-2
368=-0x1.8f68b87b3d747p-2
369=-0x1.0456426f302dap-2
370=-0x1.8f68b87b3d747p-2
371=-0x1.8f68b87b3d747p-2
372=-0x1.1d5605388acbbp-3
373=-0x1.0456426f3003ep-2
374=0x1.f9fdcc7a862e8p-2
375=0x1.29f9a71366bffp+1
376=-0x1.8f68b87b3d747p-2
377=-0x1.8f68b87b3d747p-2
378=-0x1.8f68b87b3d747p-2
379=-0x1.8f68b87b3d747p-2
380=0x1.126e9cf00b64p-3
381=-0x1.8f68b87b3d747p-2
382=-0x1.8f68b87b3d747p-2
383=-0x1.8f68b87b3d747p-2
384=-0x1.8f68b87b3d747p-2
385=-0x1.8f68b87b3d747p-2
386=-0x1.8f68b87b3d747p-2
387=-0x1.8f68b87b3d747p-2
388=0x1.2ba42c1b53087p+2
389=-0x1.8f68b87b3d747p-2
390=-0x1.8f68b87b3d747p-2
391=-0x1.8f68b87b3d747p-2
392=-0x1.8f68b87b3d747p-2
393=-0x1.8f68b87b3d747p-2
394=-0x1.8f68b87b3d747p-2
395=-0x1.8f68b87b3d747p-2
396=-0x1.8f68b87b3d747p-2
397=-0x1.8f68b87b3d747p-2
398=-0x1.8f68b87b3d747p-2
399=-0x1.0456426f30036p-2
400=-0x1.8f68b87b3d747p-2
401=-0x1.011ce196b6624p-4
402=-0x1.8f68b87b3d747p-2
403=-0x1.8f68b87b3d747p-2
404=-0x1.8f68b87b3d747p-2
405=0x1.6e6dc5da66bf1p+2
406=0x1.20b7f55c31055p+1
407=0x1.7f55c59924b89p-8
408=-0x1.ad553215285c1p-6
409=-0x1.ad553215285c1p-6
410=-0x1.ad553215285c1p-6
411=-0x1.ad553215285c1p-6
412=-0x1.ad553215285c1p-6
413=0x1.7f55c59924b86p-8
414=-0x1.ad553215285c1p-6
415=-0x1.ad553215285c1p-6
416=-0x1.ad553215285c1p-6
417=0x1.d83e23c9f3905p-1
418=-0x1.ad553215285c1p-6
419=-0x1.ad553215285c1p-6
420=-0x1.ad553215285c1p-6
421=-0x1.ad553215285c1p-6
422=-0x1.ad553215285c1p-6
423=-0x1.ad553215285c1p-6
424=-0x1.ad553215285c1p-6
425=-0x1.ad553215285c1p-6
426=-0x1.ad553215285c1p-6
427=-0x1.ad553215285c1p-6
428=0x1.f64053b6fb40ap-3
429=-0x1.ad553215285c1p-6
430=-0x1.ad553215285c1p-6
431=-0x1.ad553215285c1p-6
432=-0x1.ad553215285c1p-6
433=-0x1.ad553215285c1p-6
434=-0x1.ad553215285c1p-6
435=-0x1.ad553215285c1p-6
436=-0x1.ad553215285c1p-6
437=-0x1.ad553215285c1p-6
438=-0x1.ad553215285c1p-6
439=-0x1.ad553215285c1p-6
440=-0x1.ad553215285c1p-6
441=-0x1.ad553215285c1p-6
442=-0x1.ad553215285c1p-6
443=-0x1.ad553215285c1p-6
444=-0x1.ad553215285c1p-6
445=-0x1.ad553215285c1p-6
446=-0x1.ad553215285c1p-6
447=-0x1.ad553215285c1p-6
448=-0x1.ad553215285c1p-6
449=-0x1.ad553215285c1p-6
450=-0x1.ad553215285c1p-6
451=-0x1.ad553215285c1p-6
452=-0x1.ad553215285c1p-6
453=-0x1.ad553215285c1p-6
454=-0x1.ad553215285c1p-6
455=-0x1.ad553215285c1p-6
456=-0x1.ad553215285c1p-6
457=-0x1.ad553215285c1p-6
458=-0x1.ad553215285c1p-6
459=-0x1.ad553215285c1p-6
460=-0x1.ad553215285c1p-6
461=-0x1.ad553215285c1p-6
462=-0x1.ad553215285c1p-6
463=-0x1.ad553215285c1p-6
464=-0x1.ad553215285c1p-6
465=-0x1.ad553215285c1p-6
466=-0x1.ad553215285c1p-6
467=-0x1.ad553215285c1p-6
468=-0x1.ad553215285c1p-6
469=-0x1.ad553215285c1p-6
470=-0x1.ad553215285c1p-6
471=-0x1.ad553215285c1p-6
472=-0x1.ad553215285c1p-6
473=-0x1.ad553215285c1p-6
474=-0x1.ad553215285c1p-6
475=-0x1.ad553215285c1p-6
476=-0x1.ad553215285c1p-6
477=-0x1.ad553215285c1p-6
478=-0x1.ad553215285c1p-6
479=-0x1.ad553215285c1p-6
480=-0x1.ad553215285c1p-6
481=-0x1.ad553215285c1p-6
482=-0x1.ad553215285c1p-6
483=-0x1.ad553215285c1p-6
484=-0x1.ad553215285c1p-6
485=-0x1.ad553215285c1p-6
486=0x1.a067ade66acap+3
487=-0x1.c6828caedddd8p-3
488=0x1.d739d9a60448bp-4
489=-0x1.c6828caedddd8p-3
490=-0x1.27bbfef30719bp-3
491=0x1.d739d9a607c4ep-4
492=0x1.9170c03a9a17ap+0
493=0x1.267efe6b56684p-4
494=0x1.01adfa58b6533p+0
495=0x1.d739d9a602e66p-4
496=0x1.5f199751614ffp-2
497=-0x1.c6828caedddd8p-3
498=0x1.d739d9a6064fcp-4
499=0x1.9a9df0a49d989p-2
500=-0x1.c6828caedddd8p-3
501=-0x1.c6828caedddd8p-3
502=-0x1.c6828caedddd8p-3
503=-0x1.c6828caedddd8p-3
504=-0x1.c6828caedddd8p-3
505=-0x1.27bbfef30719dp-3
506=0x1.4b5da1ef73a2ep+3
507=-0x1.c6828caedddd8p-3
508=-0x1.c6828caedddd8p-3
509=0x1.5f19975161cb7p-2
510=-0x1.c6828caedddd8p-3
511=-0x1.27bbfef308ab4p-3
512=-0x1.c6828caedddd8p-3
513=-0x1.c6828caedddd8p-3
514=0x1.2133739b4e5ffp+0
515=-0x1.27bbfef30719bp-3
516=-0x1.c6828caedddd8p-3
517=-0x1.27bbfef307196p-3
518=-0x1.c6828caedddd8p-3
519=0x1.d739d9a6077cfp-4
520=-0x1.c6828caedddd8p-3
521=-0x1.c6828caedddd8p-3
522=-0x1.27bbfef307268p-3
523=-0x1.27bbfef3079fdp-3
524=-0x1.c6828caedddd8p-3
525=-0x1.c6828caedddd8p-3
526=-0x1.c6828caedddd8p-3
527=-0x1.27bbfef307196p-3
528=-0x1.c6828caedddd8p-3
529=0x1.d739d9a607c4ap-4
530=-0x1.c6828caedddd8p-3
531=0x1.267efe6b55ddcp-4
532=-0x1.c6828caedddd8p-3
533=-0x1.c6828caedddd8p-3
534=-0x1.c6828caedddd8p-3
535=-0x1.27bbfef3074c4p-3
536=-0x1.c6828caedddd8p-3
537=-0x1.11eb2f22b2514p-4
538=-0x1.11eb2f22b24fap-4
539=-0x1.c6828caedddd8p-3
540=-0x1.c6828caedddd8p-3
541=-0x1.c6828caedddd8p-3
542=0x1.5f19975161bccp-2
543=-0x1.c6828caedddd8p-3
544=-0x1.c6828caedddd8p-3
545=-0x1.c6828caedddd8p-3
546=-0x1.27bbfef308ab4p-3
547=-0x1.c6828caedddd8p-3
548=-0x1.c6828caedddd8p-3
549=-0x1.c6828caedddd8p-3
550=-0x1.c6828caedddd8p-3
551=-0x1.c6828caedddd8p-3
552=-0x1.c6828caedddd8p-3
553=-0x1.c6828caedddd8p-3
554=-0x1.c6828caedddd8p-3
555=-0x1.c6828caedddd8p-3
556=-0x1.c6828caedddd8p-3
557=0x1.094458a197a4p-1
558=-0x1.c6828caedddd8p-3
559=-0x1.c6828caedddd8p-3
560=-0x1.c6828caedddd8p-3
561=-0x1.c6828caedddd8p-3
562=-0x1.c6828caedddd8p-3
563=-0x1.c6828caedddd8p-3
564=-0x1.c6828caedddd8p-3
565=-0x1.c6828caedddd8p-3
566=-0x1.11eb2f22b254p-4
567=0x1.01a5f2876ddd5p+3
568=-0x1.2e9c981d3a489p-7
569=-0x1.2e9c981d3a489p-7
570=-0x1.2e9c981d3a489p-7
571=-0x1.2e9c981d3a489p-7
572=-0x1.2e9c981d3a489p-7
573=-0x1.2e9c981d3a489p-7
574=-0x1.2e9c981d3a489p-7
575=-0x1.2e9c981d3a489p-7
576=-0x1.2e9c981d3a489p-7
577=-0x1.2e9c981d3a489p-7
578=-0x1.2e9c981d3a489p-7
579=-0x1.2e9c981d3a489p-7
580=-0x1.2e9c981d3a489p-7
581=-0x1.2e9c981d3a489p-7
582=-0x1.2e9c981d3a489p-7
583=-0x1.2e9c981d3a489p-7
584=-0x1.2e9c981d3a489p-7
585=-0x1.2e9c981d3a489p-7
586=-0x1.2e9c981d3a489p-7
587=0x1.4d192477df77ep-2
588=-0x1.2e9c981d3a489p-7
589=-0x1.2e9c981d3a489p-7
590=-0x1.2e9c981d3a489p-7
591=-0x1.2e9c981d3a489p-7
592=-0x1.2e9c981d3a489p-7
593=-0x1.2e9c981d3a489p-7
594=-0x1.2e9c981d3a489p-7
595=0x1.2cb1f9b9a54dfp-4
596=-0x1.2e9c981d3a489p-7
597=-0x1.2e9c981d3a489p-7
598=-0x1.2e9c981d3a489p-7
599=-0x1.2e9c981d3a489p-7
600=-0x1.2e9c981d3a489p-7
601=-0x1.2e9c981d3a489p-7
602=-0x1.2e9c981d3a489p-7
603=-0x1.2e9c981d3a489p-7
604=-0x1.2e9c981d3a489p-7
605=-0x1.2e9c981d3a489p-7
606=-0x1.2e9c981d3a489p-7
607=-0x1.2e9c981d3a489p-7
608=-0x1.2e9c981d3a489p-7
609=-0x1.2e9c981d3a489p-7
610=-0x1.2e9c981d3a489p-7
611=-0x1.2e9c981d3a489p-7
612=-0x1.2e9c981d3a489p-7
613=-0x1.2e9c981d3a489p-7
614=-0x1.2e9c981d3a489p-7
615=-0x1.2e9c981d3a489p-7
616=-0x1.2e9c981d3a489p-7
617=-0x1.2e9c981d3a489p-7
618=-0x1.2e9c981d3a489p-7
619=-0x1.2e9c981d3a489p-7
620=-0x1.2e9c981d3a489p-7
621=-0x1.2e9c981d3a489p-7
622=-0x1.2e9c981d3a489p-7
623=-0x1.2e9c981d3a489p-7
624=-0x1.2e9c981d3a489p-7
625=-0x1.2e9c981d3a489p-7
626=-0x1.2e9c981d3a489p-7
627=-0x1.2e9c981d3a489p-7
628=-0x1.2e9c981d3a489p-7
629=-0x1.2e9c981d3a489p-7
630=-0x1.2e9c981d3a489p-7
631=-0x1.2e9c981d3a489p-7
632=-0x1.2e9c981d3a489p-7
633=-0x1.2e9c981d3a489p-7
634=-0x1.2e9c981d3a489p-7
635=-0x1.2e9c981d3a489p-7
636=-0x1.2e9c981d3a489p-7
637=-0x1.2e9c981d3a489p-7
638=-0x1.2e9c981d3a489p-7
639=-0x1.2e9c981d3a489p-7
640=-0x1.2e9c981d3a489p-7
641=-0x1.2e9c981d3a489p-7
642=-0x1.2e9c981d3a489p-7
643=-0x1.2e9c981d3a489p-7
644=-0x1.2e9c981d3a489p-7
645=-0x1.2e9c981d3a489p-7
646=-0x1.2e9c981d3a489p-7
647=-0x1.2e9c981d3a489p-7
648=0x1.64f03acc8ccecp+2
649=-0x1.7b90b7bac01d2p-3
650=0x1.cc18d4f443863p+2
651=0x1.f1559d1488265p-3
652=0x1.c45afdb539ae6p-1
653=0x1.c4455667f559cp+1
654=0x1.35a30609067dp-4
655=-0x1.7b90b7bac01d2p-3
656=0x1.38adc6b979a7fp+2
657=-0x1.7b90b7bac01d2p-3
658=-0x1.7b90b7bac01d2p-3
659=0x1.31c6672e55b56p-1
660=-0x1.bb999e3fa4eb7p-5
661=0x1.90ab4918dc903p-3
662=-0x1.7b90b7bac01d2p-3
663=-0x1.7b90b7bac01d2p-3
664=-0x1.7b90b7bac01d2p-3
665=-0x1.7b90b7bac01d2p-3
666=0x1.4164f2f852e19p-1
667=-0x1.7b90b7bac01d2p-3
668=-0x1.7b90b7bac01d2p-3
669=0x1.35a3060905259p-4
670=0x1.f1559d1485cbcp-3
671=-0x1.7b90b7bac01d2p-3
672=-0x1.7b90b7bac01d2p-3
673=-0x1.7b90b7bac01d2p-3
674=-0x1.7b90b7bac01d2p-3
675=-0x1.7b90b7bac01d2p-3
676=-0x1.7b90b7bac01d2p-3
677=0x1.d93e29ff4e234p+1
678=-0x1.7b90b7bac01d2p-3
679=-0x1.7b90b7bac01d2p-3
680=-0x1.7b90b7bac01d2p-3
681=-0x1.7b90b7bac01d2p-3
682=-0x1.7b90b7bac01d2p-3
683=-0x1.7b90b7bac01d2p-3
684=-0x1.7b90b7bac01d2p-3
685=-0x1.7b90b7bac01d2p-3
686=-0x1.7b90b7bac01d2p-3
687=-0x1.7b90b7bac01d2p-3
688=-0x1.7b90b7bac01d2p-3
689=-0x1.7b90b7bac01d2p-3
690=-0x1.7b90b7bac01d2p-3
691=-0x1.7b90b7bac01d2p-3
692=-0x1.7b90b7bac01d2p-3
693=-0x1.7b90b7bac01d2p-3
694=-0x1.7b90b7bac01d2p-3
695=-0x1.7b90b7bac01d2p-3
696=0x1.35a30609067d6p-4
697=-0x1.7b90b7bac01d2p-3
698=-0x1.7b90b7bac01d2p-3
699=-0x1.7b90b7bac01d2p-3
700=-0x1.7b90b7bac01d2p-3
701=-0x1.7b90b7bac01d2p-3
702=-0x1.7b90b7bac01d2p-3
703=-0x1.7b90b7bac01d2p-3
704=-0x1.bb999e3fa651bp-5
705=-0x1.7b90b7bac01d2p-3
706=-0x1.7b90b7bac01d2p-3
707=-0x1.7b90b7bac01d2p-3
708=-0x1.bb999e3fa64eep-5
709=-0x1.7b90b7bac01d2p-3
710=-0x1.7b90b7bac01d2p-3
711=-0x1.7b90b7bac01d2p-3
712=-0x1.7b90b7bac01d2p-3
713=-0x1.7b90b7bac01d2p-3
714=-0x1.7b90b7bac01d2p-3
715=-0x1.7b90b7bac01d2p-3
716=-0x1.7b90b7bac01d2p-3
717=-0x1.7b90b7bac01d2p-3
718=-0x1.7b90b7bac01d2p-3
719=-0x1.7b90b7bac01d2p-3
720=-0x1.7b90b7bac01d2p-3
721=-0x1.7b90b7bac01d2p-3
722=-0x1.7b90b7bac01d2p-3
723=-0x1.7b90b7bac01d2p-3
724=-0x1.7b90b7bac01d2p-3
725=-0x1.7b90b7bac01d2p-3
726=-0x1.7b90b7bac01d2p-3
727=-0x1.7b90b7bac01d2p-3
728=-0x1.7b90b7bac01d2p-3
729=0x1.581c428d56674p+4
730=-0x1.0dc6e41e5ed96p-2
731=0x1.7fb0fdde21e26p-3
732=0x1.1e4c56d1260e2p+1
733=-0x1.4e7abf9685479p-2
734=-0x1.4e7abf9685479p-2
735=-0x1.4e7abf9685479p-2
736=-0x1.4e7abf9685479p-2
737=-0x1.0dc6e41e5e527p-2
738=-0x1.4e7abf9685479p-2
739=-0x1.0dc6e41e5e527p-2
740=-0x1.4e7abf9685479p-2
741=-0x1.4e7abf9685479p-2
742=-0x1.4e7abf9685479p-2
743=0x1.0bad17b936065p+1
744=-0x1.4e7abf9685479p-2
745=-0x1.4e7abf9685479p-2
746=-0x1.4e7abf9685479p-2
747=-0x1.cc5d8ed439b4fp-4
748=-0x1.0dc6e41e5f52dp-2
749=-0x1.4e7abf9685479p-2
750=-0x1.4e7abf9685479p-2
751=0x1.30a2d2bc0ce3ap+1
752=-0x1.4e7abf9685479p-2
753=-0x1.4e7abf9685479p-2
754=-0x1.4e7abf9685479p-2
755=-0x1.4e7abf9685479p-2
756=-0x1.4e7abf9685479p-2
757=-0x1.4e7abf9685479p-2
758=-0x1.4e7abf9685479p-2
759=-0x1.4e7abf9685479p-2
760=-0x1.4e7abf9685479p-2
761=-0x1.80de275d46d55p-3
762=-0x1.4e7abf9685479p-2
763=-0x1.4e7abf9685479p-2
764=-0x1.4e7abf9685479p-2
765=-0x1.4e7abf9685479p-2
766=-0x1.4e7abf9685479p-2
767=-0x1.4e7abf9685479p-2
768=-0x1.4e7abf9685479p-2
769=-0x1.4e7abf9685479p-2
770=-0x1.4e7abf9685479p-2
771=-0x1.2dfea194bf49ep-5
772=-0x1.4e7abf9685479p-2
773=-0x1.4e7abf9685479p-2
774=-0x1.4e7abf9685479p-2
775=-0x1.4e7abf9685479p-2
776=-0x1.4e7abf9685479p-2
777=-0x1.4e7abf9685479p-2
778=-0x1.4e7abf9685479p-2
779=-0x1.4e7abf9685479p-2
780=-0x1.0dc6e41e5e528p-2
781=-0x1.4e7abf9685479p-2
782=-0x1.4e7abf9685479p-2
783=-0x1.4e7abf9685479p-2
784=-0x1.0dc6e41e5e99ap-2
785=0x1.0acda9261879cp-1
786=-0x1.4e7abf9685479p-2
787=-0x1.4e7abf9685479p-2
788=-0x1.4e7abf9685479p-2
789=-0x1.4e7abf9685479p-2
790=-0x1.4e7abf9685479p-2
791=-0x1.4e7abf9685479p-2
792=-0x1.4e7abf9685479p-2
793=-0x1.4e7abf9685479p-2
794=-0x1.4e7abf9685479p-2
795=-0x1.4e7abf9685479p-2
796=-0x1.4e7abf9685479p-2
797=-0x1.4e7abf9685479p-2
798=-0x1.4e7abf9685479p-2
799=-0x1.4e7abf9685479p-2
800=-0x1.4e7abf9685479p-2
801=-0x1.4e7abf9685479p-2
802=-0x1.4e7abf9685479p-2
803=-0x1.4e7abf9685479p-2
804=-0x1.4e7abf9685479p-2
805=-0x1.4e7abf9685479p-2
806=-0x1.4e7abf9685479p-2
807=-0x1.4e7abf9685479p-2
808=-0x1.4e7abf9685479p-2
809=-0x1.4e7abf9685479p-2
810=0x1.3559adf0af2e1p+2
811=-0x1.cf162153b141bp-3
812=0x1.083d1b6860951p-4
813=-0x1.cf162153b141bp-3
814=0x1.217617cbea868p+2
815=0x1.b7d174f8d3c2dp+0
816=-0x1.cf162153b141bp-3
817=-0x1.cf162153b141bp-3
819=-0x1.cf162153b141bp-3
820=0x1.083d1b68607d9p-4
821=0x1.083d1b6860d16p-4
823=-0x1.cf162153b141bp-3
824=-0x1.cf162153b141bp-3
825=0x1.1426f67bd4d3dp-2
826=-0x1.cf162153b141bp-3
827=0x1.c7e70c814e4c9p-4
828=0x1.1426f67bd4cb4p-2
829=-0x1.cf162153b141bp-3
830=-0x1.cf162153b141bp-3
832=-0x1.cf162153b141bp-3
834=-0x1.cf162153b141bp-3
835=-0x1.cf162153b141bp-3
836=-0x1.cf162153b141bp-3
837=0x1.c7e70c814e208p-4
838=-0x1.cf162153b141bp-3
839=-0x1.cf162153b141bp-3
840=-0x1.cf162153b141bp-3
841=-0x1.cf162153b141bp-3
842=-0x1.cf162153b141bp-3
843=-0x1.cf162153b141bp-3
844=-0x1.cf162153b141bp-3
845=-0x1.cf162153b141bp-3
846=-0x1.cf162153b141bp-3
847=-0x1.cf162153b141bp-3
848=-0x1.cf162153b141bp-3
849=-0x1.cf162153b141bp-3
850=-0x1.cf162153b141bp-3
851=-0x1.cf162153b141bp-3
852=0x1.083d1b6860af4p-4
853=-0x1.cf162153b141bp-3
854=-0x1.cf162153b141bp-3
855=-0x1.cf162153b141bp-3
856=-0x1.cf162153b141bp-3
857=-0x1.cf162153b141bp-3
858=-0x1.cf162153b141bp-3
859=-0x1.cf162153b141bp-3
860=-0x1.cf162153b141bp-3
862=-0x1.cf162153b141bp-3
863=-0x1.cf162153b141bp-3
864=-0x1.cf162153b141bp-3
865=-0x1.cf162153b141bp-3
866=-0x1.cf162153b141bp-3
867=-0x1.cf162153b141bp-3
868=0x1.083d1b686031bp-4
869=-0x1.cf162153b141bp-3
870=-0x1.cf162153b141bp-3
871=-0x1.cf162153b141bp-3
872=-0x1.cf162153b141bp-3
873=-0x1.cf162153b141bp-3
874=-0x1.cf162153b141bp-3
875=-0x1.cf162153b141bp-3
876=-0x1.cf162153b141bp-3
877=-0x1.cf162153b141bp-3
878=-0x1.cf162153b141bp-3
879=-0x1.cf162153b141bp-3
880=-0x1.cf162153b141bp-3
881=-0x1.cf162153b141bp-3
882=-0x1.cf162153b141bp-3
883=-0x1.cf162153b141bp-3
884=-0x1.cf162153b141bp-3
885=-0x1.cf162153b141bp-3
886=-0x1.cf162153b141bp-3
887=-0x1.cf162153b141bp-3
888=-0x1.cf162153b141bp-3
889=-0x1.cf162153b141bp-3
890=-0x1.cf162153b141bp-3
891=0x1.6a8b4fb79db52p+1
892=-0x1.4e4993189c38dp-4
893=0x1.20d2b19bdf287p-4
894=-0x1.4e4993189c38dp-4
895=0x1.11751250fc991p+2
896=0x1.42fda9856a9d4p+1
897=-0x1.4e4993189c38dp-4
898=-0x1.4e4993189c38dp-4
899=0x1.20d2b19bdf29cp-4
900=-0x1.4e4993189c38dp-4
901=-0x1.4e4993189c38dp-4
902=0x1.25515c8893361p-1
903=-0x1.4e4993189c38dp-4
904=-0x1.4e4993189c38dp-4
906=-0x1.4e4993189c38dp-4
907=-0x1.4e4993189c38dp-4
908=-0x1.4e4993189c38dp-4
909=0x1.3c9d4d7cc0ae6p+0
910=-0x1.4e4993189c38dp-4
911=-0x1.4e4993189c38dp-4
912=-0x1.4e4993189c38dp-4
913=-0x1.4e4993189c38dp-4
914=-0x1.4e4993189c38dp-4
915=-0x1.4e4993189c38dp-4
916=-0x1.4e4993189c38dp-4
918=-0x1.4e4993189c38dp-4
919=-0x1.4e4993189c38dp-4
920=-0x1.4e4993189c38dp-4
921=-0x1.4e4993189c38dp-4
922=-0x1.4e4993189c38dp-4
923=-0x1.4e4993189c38dp-4
924=-0x1.4e4993189c38dp-4
925=-0x1.4e4993189c38dp-4
926=-0x1.4e4993189c38dp-4
927=-0x1.4e4993189c38dp-4
928=-0x1.4e4993189c38dp-4
929=-0x1.4e4993189c38dp-4
930=-0x1.4e4993189c38dp-4
931=-0x1.4e4993189c38dp-4
932=-0x1.4e4993189c38dp-4
933=0x1.20d2b19bdf29ep-4
934=-0x1.4e4993189c38dp-4
935=-0x1.4e4993189c38dp-4
936=-0x1.4e4993189c38dp-4
937=-0x1.4e4993189c38dp-4
938=-0x1.4e4993189c38dp-4
939=-0x1.4e4993189c38dp-4
940=-0x1.4e4993189c38dp-4
941=-0x1.4e4993189c38dp-4
942=-0x1.4e4993189c38dp-4
943=-0x1.4e4993189c38dp-4
944=-0x1.4e4993189c38dp-4
945=-0x1.4e4993189c38dp-4
946=-0x1.4e4993189c38dp-4
947=-0x1.4e4993189c38dp-4
948=-0x1.4e4993189c38dp-4
949=-0x1.4e4993189c38dp-4
950=-0x1.4e4993189c38dp-4
951=-0x1.4e4993189c38dp-4
952=-0x1.4e4993189c38dp-4
953=-0x1.4e4993189c38dp-4
954=-0x1.4e4993189c38dp-4
955=-0x1.4e4993189c38dp-4
956=-0x1.4e4993189c38dp-4
957=-0x1.4e4993189c38dp-4
958=-0x1.4e4993189c38dp-4
959=-0x1.4e4993189c38dp-4
960=-0x1.4e4993189c38dp-4
961=-0x1.4e4993189c38dp-4
962=-0x1.4e4993189c38dp-4
963=-0x1.4e4993189c38dp-4
964=-0x1.4e4993189c38dp-4
965=-0x1.4e4993189c38dp-4
966=-0x1.4e4993189c38dp-4
967=-0x1.4e4993189c38dp-4
968=-0x1.4e4993189c38dp-4
969=-0x1.4e4993189c38dp-4
970=-0x1.4e4993189c38dp-4
971=-0x1.4e4993189c38dp-4
972=0x1.bb54c3dce747cp+2
974=0x1.fc560d4481942p-8
988=0x1.fc560d4481941p-8
1053=0x1.2081fa7734ca8p-4
1055=0x1.af45d4bbeab06p-2
1057=0x1.f7750267dd313p-3
1058=0x1.2081fa7734cb6p-4
1075=0x1.2081fa7734cbap-4
1134=0x1.02d50ad4043afp+2
1135=-0x1.aa9a99d285e19p-5
1136=0x1.0f62675b15d29p-1
1137=-0x1.aa9a99d286589p-5
1138=0x1.52698d1a53858p+2
1139=0x1.6ce4e0b60904ap+1
1140=0x1.f741d265ad9a7p-8
1141=-0x1.3b8539f26fd3fp-3
1142=0x1.2f1509372dce9p+0
1143=-0x1.3b8539f26fd3fp-3
1144=0x1.b7d0240aa04c7p-1
1145=0x1.6f90535db4e74p-3
1146=-0x1.3b8539f26fd3fp-3
1147=-0x1.3b8539f26fd3fp-3
1148=-0x1.3b8539f26fd3fp-3
1149=0x1.6f84148dd1146p-4
1150=-0x1.aa9a99d28612ep-5
1151=-0x1.3b8539f26fd3fp-3
1152=0x1.80fccc9129002p+0
1153=-0x1.3b8539f26fd3fp-3
1154=-0x1.3b8539f26fd3fp-3
1155=-0x1.aa9a99d285e75p-5
1156=-0x1.3b8539f26fd3fp-3
1157=-0x1.aa9a99d285dc8p-5
1158=-0x1.3b8539f26fd3fp-3
1159=-0x1.3b8539f26fd3fp-3
1160=-0x1.3b8539f26fd3fp-3
1161=0x1.0f62675b15d32p-1
1162=-0x1.3b8539f26fd3fp-3
1163=-0x1.3b8539f26fd3fp-3
1164=-0x1.3b8539f26fd3fp-3
1165=-0x1.3b8539f26fd3fp-3
1166=-0x1.3b8539f26fd3fp-3
1167=-0x1.3b8539f26fd3fp-3
1168=-0x1.3b8539f26fd3fp-3
1169=-0x1.3b8539f26fd3fp-3
1170=-0x1.3b8539f26fd3fp-3
1171=-0x1.3b8539f26fd3fp-3
1172=-0x1.3b8539f26fd3fp-3
1173=-0x1.aa9a99d286b37p-5
1174=-0x1.3b8539f26fd3fp-3
1175=-0x1.3b8539f26fd3fp-3
1176=0x1.6f84148dd1207p-4
1177=-0x1.aa9a99d2862e4p-5
1178=-0x1.3b8539f26fd3fp-3
1179=0x1.6f90535db3e86p-3
1180=-0x1.3b8539f26fd3fp-3
1181=-0x1.3b8539f26fd3fp-3
1182=-0x1.3b8539f26fd3fp-3
1183=-0x1.3b8539f26fd3fp-3
1184=-0x1.3b8539f26fd3fp-3
1185=-0x1.3b8539f26fd3fp-3
1186=-0x1.3b8539f26fd3fp-3
1187=-0x1.3b8539f26fd3fp-3
1188=-0x1.3b8539f26fd3fp-3
1189=-0x1.3b8539f26fd3fp-3
1190=-0x1.3b8539f26fd3fp-3
1191=-0x1.3b8539f26fd3fp-3
1192=-0x1.3b8539f26fd3fp-3
1193=-0x1.3b8539f26fd3fp-3
1194=-0x1.3b8539f26fd3fp-3
1195=-0x1.3b8539f26fd3fp-3
1196=-0x1.3b8539f26fd3fp-3
1197=-0x1.3b8539f26fd3fp-3
1198=-0x1.3b8539f26fd3fp-3
1199=-0x1.3b8539f26fd3fp-3
1200=-0x1.3b8539f26fd3fp-3
1201=-0x1.3b8539f26fd3fp-3
1202=-0x1.3b8539f26fd3fp-3
1203=-0x1.3b8539f26fd3fp-3
1204=-0x1.3b8539f26fd3fp-3
1205=-0x1.3b8539f26fd3fp-3
1206=-0x1.3b8539f26fd3fp-3
1207=-0x1.3b8539f26fd3fp-3
1208=-0x1.3b8539f26fd3fp-3
1209=-0x1.3b8539f26fd3fp-3
1210=-0x1.3b8539f26fd3fp-3
1211=-0x1.3b8539f26fd3fp-3
1212=-0x1.3b8539f26fd3fp-3
1213=-0x1.3b8539f26fd3fp-3
1214=-0x1.3b8539f26fd3fp-3
1215=0x1.35f72f04cd0bap+3
1216=-0x1.2bf3b6e20a528p-4
1217=0x1.75d5a4c4921ccp-6
1218=-0x1.2bf3b6e20a528p-4
1219=-0x1.2bf3b6e20a528p-4
1220=0x1.2d93514e39896p-3
1221=-0x1.2bf3b6e20a528p-4
1222=-0x1.2bf3b6e20a528p-4
1223=-0x1.2bf3b6e20a528p-4
1224=-0x1.2bf3b6e20a528p-4
1225=-0x1.2bf3b6e20a528p-4
1226=-0x1.2bf3b6e20a528p-4
1227=0x1.75d5a4c492134p-6
1228=-0x1.2bf3b6e20a528p-4
1229=-0x1.2bf3b6e20a528p-4
1230=-0x1.2bf3b6e20a528p-4
1231=-0x1.2bf3b6e20a528p-4
1232=-0x1.2bf3b6e20a528p-4
1233=-0x1.2bf3b6e20a528p-4
1234=-0x1.2bf3b6e20a528p-4
1235=-0x1.2bf3b6e20a528p-4
1236=-0x1.2bf3b6e20a528p-4
1237=-0x1.2bf3b6e20a528p-4
1238=-0x1.2bf3b6e20a528p-4
1239=-0x1.2bf3b6e20a528p-4
1240=-0x1.2bf3b6e20a528p-4
1241=-0x1.2bf3b6e20a528p-4
1242=-0x1.2bf3b6e20a528p-4
1243=-0x1.2bf3b6e20a528p-4
1244=-0x1.2bf3b6e20a528p-4
1245=-0x1.2bf3b6e20a528p-4
1246=-0x1.2bf3b6e20a528p-4
1247=-0x1.2bf3b6e20a528p-4
1248=-0x1.2bf3b6e20a528p-4
1249=-0x1.2bf3b6e20a528p-4
1250=-0x1.2bf3b6e20a528p-4
1251=-0x1.2bf3b6e20a528p-4
1252=-0x1.2bf3b6e20a528p-4
1253=-0x1.2bf3b6e20a528p-4
1254=-0x1.2bf3b6e20a528p-4
1255=-0x1.2bf3b6e20a528p-4
1256=-0x1.2bf3b6e20a528p-4
1257=-0x1.2bf3b6e20a528p-4
1258=0x1.75d5a4c494595p-6
1259=-0x1.2bf3b6e20a528p-4
1260=-0x1.2bf3b6e20a528p-4
1261=-0x1.2bf3b6e20a528p-4
1262=-0x1.2bf3b6e20a528p-4
1263=-0x1.2bf3b6e20a528p-4
1264=-0x1.2bf3b6e20a528p-4
1265=-0x1.2bf3b6e20a528p-4
1266=-0x1.2bf3b6e20a528p-4
1267=-0x1.2bf3b6e20a528p-4
1268=-0x1.2bf3b6e20a528p-4
1269=-0x1.2bf3b6e20a528p-4
1270=-0x1.2bf3b6e20a528p-4
1271=-0x1.2bf3b6e20a528p-4
1272=-0x1.2bf3b6e20a528p-4
1273=-0x1.2bf3b6e20a528p-4
1274=-0x1.2bf3b6e20a528p-4
1275=-0x1.2bf3b6e20a528p-4
1276=-0x1.2bf3b6e20a528p-4
1277=-0x1.2bf3b6e20a528p-4
1278=-0x1.2bf3b6e20a528p-4
1279=-0x1.2bf3b6e20a528p-4
1280=-0x1.2bf3b6e20a528p-4
1281=-0x1.2bf3b6e20a528p-4
1282=-0x1.2bf3b6e20a528p-4
1283=-0x1.2bf3b6e20a528p-4
1284=-0x1.2bf3b6e20a528p-4
1285=-0x1.2bf3b6e20a528p-4
1286=-0x1.2bf3b6e20a528p-4
1287=-0x1.2bf3b6e20a528p-4
1288=-0x1.2bf3b6e20a528p-4
1289=-0x1.2bf3b6e20a528p-4
1290=-0x1.2bf3b6e20a528p-4
1291=-0x1.2bf3b6e20a528p-4
1292=-0x1.2bf3b6e20a528p-4
1293=-0x1.2bf3b6e20a528p-4
1294=-0x1.2bf3b6e20a528p-4
1295=-0x1.2bf3b6e20a528p-4
1296=0x1.3c379a898b2d3p+1
1301=0x1.c51dde71f87dp-3
1319=0x1.8004570cd388ap-5
1339=0x1.8004570cd387p-5
1377=0x1.a536a06c0ec02p+2
1378=0x1.28199ac9cd7fap-3
1379=-0x1.d937ae39c7fefp-7
1380=-0x1.d937ae39c7fefp-7
1381=-0x1.d937ae39c7fefp-7
1382=0x1.246e776c7768ep-4
1383=-0x1.d937ae39c7fefp-7
1384=-0x1.d937ae39c7fefp-7
1385=0x1.246e776c77592p-4
1386=-0x1.d937ae39c7fefp-7
1387=-0x1.d937ae39c7fefp-7
1388=-0x1.d937ae39c7fefp-7
1389=0x1.a082f2dbf7f01p-1
1390=-0x1.d937ae39c7fefp-7
1391=-0x1.d937ae39c7fefp-7
1392=-0x1.d937ae39c7fefp-7
1393=-0x1.d937ae39c7fefp-7
1394=-0x1.d937ae39c7fefp-7
1395=-0x1.d937ae39c7fefp-7
1396=0x1.246e776c76c59p-4
1397=0x1.3093e40899dcdp-2
1398=-0x1.d937ae39c7fefp-7
1399=-0x1.d937ae39c7fefp-7
1400=0x1.28199ac9cd70dp-3
1401=-0x1.d937ae39c7fefp-7
1402=-0x1.d937ae39c7fefp-7
1403=-0x1.d937ae39c7fefp-7
1404=-0x1.d937ae39c7fefp-7
1405=0x1.3093e40899e54p-2
1406=-0x1.d937ae39c7fefp-7
1407=-0x1.d937ae39c7fefp-7
1408=0x1.28199ac9cd816p-3
1409=-0x1.d937ae39c7fefp-7
1410=-0x1.d937ae39c7fefp-7
1411=-0x1.d937ae39c7fefp-7
1412=-0x1.d937ae39c7fefp-7
1413=-0x1.d937ae39c7fefp-7
1414=-0x1.d937ae39c7fefp-7
1415=-0x1.d937ae39c7fefp-7
1416=-0x1.d937ae39c7fefp-7
1417=-0x1.d937ae39c7fefp-7
1418=-0x1.d937ae39c7fefp-7
1419=-0x1.d937ae39c7fefp-7
1420=-0x1.d937ae39c7fefp-7
1421=-0x1.d937ae39c7fefp-7
1422=-0x1.d937ae39c7fefp-7
1423=-0x1.d937ae39c7fefp-7
1424=-0x1.d937ae39c7fefp-7
1425=-0x1.d937ae39c7fefp-7
1426=-0x1.d937ae39c7fefp-7
1427=-0x1.d937ae39c7fefp-7
1428=-0x1.d937ae39c7fefp-7
1429=-0x1.d937ae39c7fefp-7
1430=-0x1.d937ae39c7fefp-7
1431=-0x1.d937ae39c7fefp-7
1432=-0x1.d937ae39c7fefp-7
1433=-0x1.d937ae39c7fefp-7
1434=-0x1.d937ae39c7fefp-7
1435=-0x1.d937ae39c7fefp-7
1436=-0x1.d937ae39c7fefp-7
1437=-0x1.d937ae39c7fefp-7
1438=-0x1.d937ae39c7fefp-7
1439=-0x1.d937ae39c7fefp-7
1440=-0x1.d937ae39c7fefp-7
1441=-0x1.d937ae39c7fefp-7
1442=-0x1.d937ae39c7fefp-7
1443=-0x1.d937ae39c7fefp-7
1444=-0x1.d937ae39c7fefp-7
1445=-0x1.d937ae39c7fefp-7
1446=-0x1.d937ae39c7fefp-7
1447=-0x1.d937ae39c7fefp-7
1448=-0x1.d937ae39c7fefp-7
1449=-0x1.d937ae39c7fefp-7
1450=-0x1.d937ae39c7fefp-7
1451=-0x1.d937ae39c7fefp-7
1452=-0x1.d937ae39c7fefp-7
1453=-0x1.d937ae39c7fefp-7
1454=-0x1.d937ae39c7fefp-7
1455=-0x1.d937ae39c7fefp-7
1456=-0x1.d937ae39c7fefp-7
1457=-0x1.d937ae39c7fefp-7
1458=0x1.1c143923e87b2p-1
1459=-0x1.e233ddac4e218p-5
1460=0x1.5e8b2a6aa8bcfp+2
1461=-0x1.e233ddac4e218p-5
1462=0x1.6ab9a94842bc3p+1
1463=-0x1.e233ddac4e218p-5
1464=-0x1.e233ddac4e218p-5
1465=-0x1.e233ddac4e218p-5
1466=0x1.48b41d38b3fbdp-11
1467=-0x1.e233ddac4e218p-5
1468=0x1.48b41d38b3f48p-11
1469=-0x1.e233ddac4e218p-5
1470=-0x1.e233ddac4e218p-5
1471=-0x1.e233ddac4e218p-5
1472=-0x1.e233ddac4e218p-5
1473=0x1.0e313cc2cadd7p+0
1474=-0x1.e233ddac4e218p-5
1475=-0x1.e233ddac4e218p-5
1476=0x1.48b41d38b3f94p-11
1477=-0x1.e233ddac4e218p-5
1478=-0x1.e233ddac4e218p-5
1479=-0x1.e233ddac4e218p-5
1480=-0x1.e233ddac4e218p-5
1481=-0x1.e233ddac4e218p-5
1482=-0x1.e233ddac4e218p-5
1483=-0x1.e233ddac4e218p-5
1484=-0x1.e233ddac4e218p-5
1485=-0x1.e233ddac4e218p-5
1486=-0x1.e233ddac4e218p-5
1487=-0x1.e233ddac4e218p-5
1488=-0x1.e233ddac4e218p-5
1489=-0x1.e233ddac4e218p-5
1490=-0x1.e233ddac4e218p-5
1491=-0x1.e233ddac4e218p-5
1492=-0x1.e233ddac4e218p-5
1493=-0x1.e233ddac4e218p-5
1494=-0x1.e233ddac4e218p-5
1495=-0x1.e233ddac4e218p-5
1496=-0x1.e233ddac4e218p-5
1497=-0x1.e233ddac4e218p-5
1498=-0x1.e233ddac4e218p-5
1499=-0x1.e233ddac4e218p-5
1500=-0x1.e233ddac4e218p-5
1501=-0x1.e233ddac4e218p-5
1502=-0x1.e233ddac4e218p-5
1503=-0x1.e233ddac4e218p-5
1504=-0x1.e233ddac4e218p-5
1505=-0x1.e233ddac4e218p-5
1506=-0x1.e233ddac4e218p-5
1507=-0x1.e233ddac4e218p-5
1508=-0x1.e233ddac4e218p-5
1509=-0x1.e233ddac4e218p-5
1510=-0x1.e233ddac4e218p-5
1511=-0x1.e233ddac4e218p-5
1512=-0x1.e233ddac4e218p-5
1513=-0x1.e233ddac4e218p-5
1514=-0x1.e233ddac4e218p-5
1515=-0x1.e233ddac4e218p-5
1516=-0x1.e233ddac4e218p-5
1517=-0x1.e233ddac4e218p-5
1518=-0x1.e233ddac4e218p-5
1519=-0x1.e233ddac4e218p-5
1520=-0x1.e233ddac4e218p-5
1521=-0x1.e233ddac4e218p-5
1522=-0x1.e233ddac4e218p-5
1523=-0x1.e233ddac4e218p-5
1524=-0x1.e233ddac4e218p-5
1525=-0x1.e233ddac4e218p-5
1526=-0x1.e233ddac4e218p-5
1527=-0x1.e233ddac4e218p-5
1528=-0x1.e233ddac4e218p-5
1529=-0x1.e233ddac4e218p-5
1530=-0x1.e233ddac4e218p-5
1531=-0x1.e233ddac4e218p-5
1532=-0x1.e233ddac4e218p-5
1533=-0x1.e233ddac4e218p-5
1534=-0x1.e233ddac4e218p-5
1535=-0x1.e233ddac4e218p-5
1536=-0x1.e233ddac4e218p-5
1537=-0x1.e233ddac4e218p-5
1538=-0x1.e233ddac4e218p-5
1539=0x1.0d7d31c54767dp+2
1540=-0x1.3a0bec8c29479p-2
1541=0x1.c84a2db6cee61p+0
1542=-0x1.3a0bec8c29479p-2
1543=0x1.273f1eed71643p+2
1544=0x1.af2436fca7f82p+1
1545=-0x1.22ed576bb7751p-3
1546=-0x1.22ed576bb774fp-3
1547=0x1.61f571e8da489p+1
1548=-0x1.3a0bec8c29479p-2
1549=0x1.bdc883ed3ea04p-1
1550=0x1.123fed0ae2469p+1
1551=-0x1.22ed576bb77eep-3
1552=-0x1.8244875af2adep-7
1553=-0x1.3a0bec8c29479p-2
1554=0x1.6d8649208f302p-1
1555=-0x1.3a0bec8c29479p-2
1556=-0x1.8244875ae9c6cp-7
1557=0x1.2db5d658f0b58p+1
1558=-0x1.8244875aef7cp-7
1559=0x1.0300f1eecfbddp-4
1560=-0x1.22ed576bb774cp-3
1561=-0x1.3a0bec8c29479p-2
1562=0x1.2d33f0ca5171bp-2
1563=-0x1.3a0bec8c29479p-2
1564=-0x1.3a0bec8c29479p-2
1565=-0x1.3a0bec8c29479p-2
1566=0x1.6d8649208f3cep-1
1567=-0x1.8244875af2456p-7
1568=-0x1.3a0bec8c29479p-2
1569=-0x1.3a0bec8c29479p-2
1570=-0x1.3a0bec8c29479p-2
1571=-0x1.3a0bec8c29479p-2
1572=0x1.0300f1eed0162p-4
1573=-0x1.3a0bec8c29479p-2
1574=-0x1.3a0bec8c29479p-2
1575=-0x1.3a0bec8c29479p-2
1576=-0x1.3a0bec8c29479p-2
1577=-0x1.3a0bec8c29479p-2
1578=-0x1.3a0bec8c29479p-2
1579=-0x1.3a0bec8c29479p-2
1580=-0x1.3a0bec8c29479p-2
1581=0x1.e8b03d3aacc75p-3
1582=-0x1.22ed576bb77b9p-3
1583=-0x1.3a0bec8c29479p-2
1584=-0x1.3a0bec8c29479p-2
1585=-0x1.3a0bec8c29479p-2
1586=-0x1.3a0bec8c29479p-2
1587=-0x1.8244875ae80e7p-7
1588=-0x1.3a0bec8c29479p-2
1589=-0x1.3a0bec8c29479p-2
1590=-0x1.22ed576bb774fp-3
1591=-0x1.3a0bec8c29479p-2
1592=-0x1.3a0bec8c29479p-2
1593=-0x1.3a0bec8c29479p-2
1594=-0x1.22ed576bb774bp-3
1595=-0x1.3a0bec8c29479p-2
1596=-0x1.3a0bec8c29479p-2
1597=-0x1.3a0bec8c29479p-2
1598=-0x1.3a0bec8c29479p-2
1599=-0x1.3a0bec8c29479p-2
1600=-0x1.3a0bec8c29479p-2
1601=-0x1.3a0bec8c29479p-2
1602=-0x1.3a0bec8c29479p-2
1603=-0x1.3a0bec8c29479p-2
1604=-0x1.22ed576bb7fbep-3
1605=-0x1.3a0bec8c29479p-2
1606=-0x1.3a0bec8c29479p-2
1607=-0x1.3a0bec8c29479p-2
1608=-0x1.22ed576bb7752p-3
1609=-0x1.3a0bec8c29479p-2
1610=-0x1.3a0bec8c29479p-2
1611=-0x1.3a0bec8c29479p-2
1612=-0x1.3a0bec8c29479p-2
1613=-0x1.3a0bec8c29479p-2
1614=-0x1.3a0bec8c29479p-2
1615=-0x1.3a0bec8c29479p-2
1616=-0x1.3a0bec8c29479p-2
1617=-0x1.3a0bec8c29479p-2
1618=-0x1.3a0bec8c29479p-2
1619=-0x1.3a0bec8c29479p-2
1620=0x1.6e0758dddb954p+2
1621=0x1.ccb2a7ae16c57p-3
1623=-0x1.6216e257072ebp-2
1625=0x1.dbbc18e90ffb4p+1
1626=0x1.10efa3c6008edp+2
1627=0x1.bc41ca664d0ebp-1
1628=0x1.4926e09a071c4p-2
1629=-0x1.6216e257072ebp-2
1630=0x1.857d50bbe2d75p+1
1631=-0x1.338d092bfa7bap-4
1632=0x1.bc41ca664e655p-1
1633=0x1.ccb2a7ae17783p-3
1634=-0x1.6216e257072ebp-2
1635=-0x1.6216e257072ebp-2
1636=-0x1.6216e257072ebp-2
1637=0x1.4682886626a01p+2
1638=0x1.d6173c4274e4p+1
1639=-0x1.6216e257072ebp-2
1640=0x1.ccb2a7ae17e8bp-3
1641=-0x1.6216e257072ebp-2
1642=-0x1.6216e257072ebp-2
1643=-0x1.6216e257072ebp-2
1644=-0x1.6216e257072ebp-2
1645=0x1.bc41ca664e657p-1
1646=-0x1.6216e257072ebp-2
1647=-0x1.6216e257072ebp-2
1648=0x1.239a743d1393ep-1
1649=0x1.239a743d1388p-1
1650=0x1.239a743d13e34p-1
1651=-0x1.6216e257072ebp-2
1652=-0x1.6216e257072ebp-2
1653=-0x1.6216e257072ebp-2
1654=-0x1.6216e257072ebp-2
1656=-0x1.6216e257072ebp-2
1657=-0x1.6216e257072ebp-2
1658=-0x1.6216e257072ebp-2
1659=0x1.bc41ca664e4fp-1
1660=0x1.c9b31dfa4bde5p+1
1661=-0x1.6216e257072ebp-2
1662=0x1.c79c7fd0e43c4p-1
1664=-0x1.6216e257072ebp-2
1665=-0x1.6216e257072ebp-2
1666=-0x1.6216e257072ebp-2
1667=-0x1.338d092bfa688p-4
1668=-0x1.6216e257072ebp-2
1669=-0x1.6216e257072ebp-2
1670=-0x1.6216e257072ebp-2
1671=-0x1.338d092bfb1c6p-4
1672=-0x1.6216e257072ebp-2
1673=-0x1.6216e257072ebp-2
1674=-0x1.6216e257072ebp-2
1675=0x1.2e3e2b442ed37p-1
1676=0x1.ef84087368517p-1
1677=-0x1.6216e257072ebp-2
1678=-0x1.6216e257072ebp-2
1679=-0x1.6216e257072ebp-2
1680=-0x1.6216e257072ebp-2
1681=-0x1.6216e257072ebp-2
1682=-0x1.6216e257072ebp-2
1683=-0x1.6216e257072ebp-2
1684=-0x1.6216e257072ebp-2
1685=-0x1.6216e257072ebp-2
1686=-0x1.6216e257072ebp-2
1687=-0x1.6216e257072ebp-2
1688=-0x1.6216e257072ebp-2
1689=-0x1.6216e257072ebp-2
1690=-0x1.6216e257072ebp-2
1691=-0x1.6216e257072ebp-2
1692=-0x1.6216e257072ebp-2
1693=-0x1.6216e257072ebp-2
1694=-0x1.6216e257072ebp-2
1695=-0x1.6216e257072ebp-2
1696=-0x1.6216e257072ebp-2
1697=-0x1.6216e257072ebp-2
1698=-0x1.6216e257072ebp-2
1699=-0x1.6216e257072ebp-2
1700=-0x1.6216e257072ebp-2
1701=0x1.01a77d64c9469p+2
1702=-0x1.322adde090d18p-3
1703=0x1.22b000e921615p+1
1704=-0x1.322adde090d18p-3
1705=-0x1.322adde090d18p-3
1706=0x1.07a204fcf5a06p-1
1708=0x1.5bdc6bc7772ddp-1
1710=-0x1.322adde090d18p-3
1711=0x1.07a204fcf5a06p-1
1712=0x1.54502023193bdp+0
1713=-0x1.322adde090d18p-3
1714=-0x1.322adde090d18p-3
1715=-0x1.322adde090d18p-3
1716=-0x1.322adde090d18p-3
1717=-0x1.322adde090d18p-3
1718=0x1.a5fed2a21e503p+0
1720=-0x1.322adde090d18p-3
1721=-0x1.322adde090d18p-3
1722=-0x1.322adde090d18p-3
1723=-0x1.322adde090d18p-3
1725=-0x1.322adde090d18p-3
1726=-0x1.322adde090d18p-3
1727=-0x1.322adde090d18p-3
1728=0x1.5bdc6bc7772f2p-1
1729=-0x1.322adde090d18p-3
1730=-0x1.322adde090d18p-3
1731=-0x1.322adde090d18p-3
1732=-0x1.322adde090d18p-3
1733=-0x1.322adde090d18p-3
1735=-0x1.322adde090d18p-3
1736=-0x1.322adde090d18p-3
1737=-0x1.322adde090d18p-3
1738=-0x1.322adde090d18p-3
1739=-0x1.322adde090d18p-3
1740=-0x1.322adde090d18p-3
1741=0x1.789773bcaf038p-3
1742=-0x1.322adde090d18p-3
1744=-0x1.322adde090d18p-3
1745=-0x1.322adde090d18p-3
1747=-0x1.322adde090d18p-3
1748=-0x1.322adde090d18p-3
1749=-0x1.322adde090d18p-3
1750=-0x1.322adde090d18p-3
1751=-0x1.322adde090d18p-3
1752=-0x1.322adde090d18p-3
1753=-0x1.322adde090d18p-3
1754=-0x1.322adde090d18p-3
1755=-0x1.322adde090d18p-3
1756=-0x1.322adde090d18p-3
1757=0x1.07a204fcf5a18p-1
1758=-0x1.322adde090d18p-3
1759=-0x1.322adde090d18p-3
1760=-0x1.322adde090d18p-3
1761=-0x1.322adde090d18p-3
1762=-0x1.322adde090d18p-3
1763=-0x1.322adde090d18p-3
1764=-0x1.322adde090d18p-3
1765=-0x1.322adde090d18p-3
1766=-0x1.322adde090d18p-3
1767=-0x1.322adde090d18p-3
1768=-0x1.322adde090d18p-3
1769=-0x1.322adde090d18p-3
1770=-0x1.322adde090d18p-3
1771=-0x1.322adde090d18p-3
1772=-0x1.322adde090d18p-3
1773=-0x1.322adde090d18p-3
1774=-0x1.322adde090d18p-3
1775=-0x1.322adde090d18p-3
1776=-0x1.322adde090d18p-3
1778=-0x1.322adde090d18p-3
1780=-0x1.322adde090d18p-3
1781=-0x1.322adde090d18p-3
1782=0x1.1d877c014516p+2
1783=-0x1.f32c529800c52p-6
1784=0x1.f7ff58494f2ccp-1
1785=-0x1.f32c529800c52p-6
1786=0x1.122371399bd9cp-3
1787=0x1.4a668357c3c5dp-1
1788=-0x1.f32c529800c52p-6
1789=-0x1.f32c529800c52p-6
1790=0x1.ff119d3b0413cp-11
1791=-0x1.f32c529800c52p-6
1792=-0x1.f32c529800c52p-6
1793=-0x1.f32c529800c52p-6
1794=-0x1.f32c529800c52p-6
1795=-0x1.f32c529800c52p-6
1796=-0x1.f32c529800c52p-6
1797=-0x1.f32c529800c52p-6
1798=-0x1.f32c529800c52p-6
1799=0x1.ff119d3b04138p-11
1800=0x1.f7ff58494f2ccp-1
1801=-0x1.f32c529800c52p-6
1802=-0x1.f32c529800c52p-6
1803=0x1.ff119d3b04134p-11
1804=-0x1.f32c529800c52p-6
1805=-0x1.f32c529800c52p-6
1806=-0x1.f32c529800c52p-6
1807=-0x1.f32c529800c52p-6
1808=-0x1.f32c529800c52p-6
1809=-0x1.f32c529800c52p-6
1810=-0x1.f32c529800c52p-6
1811=-0x1.f32c529800c52p-6
1812=-0x1.f32c529800c52p-6
1813=-0x1.f32c529800c52p-6
1814=-0x1.f32c529800c52p-6
1815=0x1.122371399bd4p-3
1816=-0x1.f32c529800c52p-6
1817=-0x1.f32c529800c52p-6
1818=-0x1.f32c529800c52p-6
1819=-0x1.f32c529800c52p-6
1820=-0x1.f32c529800c52p-6
1821=-0x1.f32c529800c52p-6
1822=-0x1.f32c529800c52p-6
1823=-0x1.f32c529800c52p-6
1824=-0x1.f32c529800c52p-6
1825=-0x1.f32c529800c52p-6
1826=-0x1.f32c529800c52p-6
1827=-0x1.f32c529800c52p-6
1828=0x1.ff119d3b04138p-11
1829=-0x1.f32c529800c52p-6
1830=-0x1.f32c529800c52p-6
1831=-0x1.f32c529800c52p-6
1832=-0x1.f32c529800c52p-6
1833=0x1.ff119d3b0413ap-11
1834=-0x1.f32c529800c52p-6
1835=-0x1.f32c529800c52p-6
1836=-0x1.f32c529800c52p-6
1837=-0x1.f32c529800c52p-6
1838=-0x1.f32c529800c52p-6
1839=-0x1.f32c529800c52p-6
1840=-0x1.f32c529800c52p-6
1841=-0x1.f32c529800c52p-6
1842=-0x1.f32c529800c52p-6
1843=-0x1.f32c529800c52p-6
1844=-0x1.f32c529800c52p-6
1845=-0x1.f32c529800c52p-6
1846=-0x1.f32c529800c52p-6
1847=-0x1.f32c529800c52p-6
1848=-0x1.f32c529800c52p-6
1849=-0x1.f32c529800c52p-6
1850=-0x1.f32c529800c52p-6
1851=-0x1.f32c529800c52p-6
1852=-0x1.f32c529800c52p-6
1853=-0x1.f32c529800c52p-6
1854=-0x1.f32c529800c52p-6
1855=-0x1.f32c529800c52p-6
1856=-0x1.f32c529800c52p-6
1857=-0x1.f32c529800c52p-6
1858=-0x1.f32c529800c52p-6
1859=-0x1.f32c529800c52p-6
1860=-0x1.f32c529800c52p-6
1861=-0x1.f32c529800c52p-6
1862=-0x1.f32c529800c52p-6
1863=0x1.368782b0e5c38p-1
1944=0x1.055dd257f546fp+3
1945=-0x1.bca5bf52e8851p-8
1946=-0x1.bca5bf52e8851p-8
1947=-0x1.bca5bf52e8851p-8
1948=-0x1.bca5bf52e8851p-8
1949=-0x1.bca5bf52e8851p-8
1950=-0x1.bca5bf52e8851p-8
1951=-0x1.bca5bf52e8851p-8
1952=-0x1.bca5bf52e8851p-8
1953=-0x1.bca5bf52e8851p-8
1954=0x1.6d9b7d5572b2dp-4
1955=-0x1.bca5bf52e8851p-8
1956=-0x1.bca5bf52e8851p-8
1957=-0x1.bca5bf52e8851p-8
1958=-0x1.bca5bf52e8851p-8
1959=-0x1.bca5bf52e8851p-8
1960=-0x1.bca5bf52e8851p-8
1961=-0x1.bca5bf52e8851p-8
1962=-0x1.bca5bf52e8851p-8
1963=-0x1.bca5bf52e8851p-8
1964=-0x1.bca5bf52e8851p-8
1965=-0x1.bca5bf52e8851p-8
1966=-0x1.bca5bf52e8851p-8
1967=-0x1.bca5bf52e8851p-8
1968=-0x1.bca5bf52e8851p-8
1969=-0x1.bca5bf52e8851p-8
1970=-0x1.bca5bf52e8851p-8
1971=-0x1.bca5bf52e8851p-8
1972=-0x1.bca5bf52e8851p-8
1973=-0x1.bca5bf52e8851p-8
1974=-0x1.bca5bf52e8851p-8
1975=-0x1.bca5bf52e8851p-8
1976=-0x1.bca5bf52e8851p-8
1977=-0x1.bca5bf52e8851p-8
1978=-0x1.bca5bf52e8851p-8
1979=-0x1.bca5bf52e8851p-8
1980=-0x1.bca5bf52e8851p-8
1981=-0x1.bca5bf52e8851p-8
1982=-0x1.bca5bf52e8851p-8
1983=-0x1.bca5bf52e8851p-8
1984=-0x1.bca5bf52e8851p-8
1985=-0x1.bca5bf52e8851p-8
1986=-0x1.bca5bf52e8851p-8
1987=-0x1.bca5bf52e8851p-8
1988=-0x1.bca5bf52e8851p-8
1989=-0x1.bca5bf52e8851p-8
1990=-0x1.bca5bf52e8851p-8
1991=-0x1.bca5bf52e8851p-8
1992=-0x1.bca5bf52e8851p-8
1993=-0x1.bca5bf52e8851p-8
1994=-0x1.bca5bf52e8851p-8
1995=0x1.5c9248158351ep-2
1996=-0x1.bca5bf52e8851p-8
1997=-0x1.bca5bf52e8851p-8
1998=-0x1.bca5bf52e8851p-8
1999=-0x1.bca5bf52e8851p-8
2000=-0x1.bca5bf52e8851p-8
2001=-0x1.bca5bf52e8851p-8
2002=-0x1.bca5bf52e8851p-8
2003=-0x1.bca5bf52e8851p-8
2004=-0x1.bca5bf52e8851p-8
2005=-0x1.bca5bf52e8851p-8
2006=-0x1.bca5bf52e8851p-8
2007=-0x1.bca5bf52e8851p-8
2008=-0x1.bca5bf52e8851p-8
2009=-0x1.bca5bf52e8851p-8
2010=-0x1.bca5bf52e8851p-8
2011=-0x1.bca5bf52e8851p-8
2012=-0x1.bca5bf52e8851p-8
2013=-0x1.bca5bf52e8851p-8
2014=-0x1.bca5bf52e8851p-8
2015=-0x1.bca5bf52e8851p-8
2016=-0x1.bca5bf52e8851p-8
2017=-0x1.bca5bf52e8851p-8
2018=-0x1.bca5bf52e8851p-8
2019=-0x1.bca5bf52e8851p-8
2020=-0x1.bca5bf52e8851p-8
2021=-0x1.bca5bf52e8851p-8
2022=-0x1.bca5bf52e8851p-8
2023=-0x1.bca5bf52e8851p-8
2024=-0x1.bca5bf52e8851p-8
2025=0x1.84a8b5670449ap+1
2027=0x1.5ae90ba730645p+1
2029=0x1.60c5eb896389ap-2
2030=0x1.aab1f71a82ac6p-10
2047=0x1.60eab5d9783cfp-3
2106=0x1.41ce40ecdb57fp+2
2111=0x1.bbde5b03fa4e4p-9
2112=0x1.5f85cf92d82b3p-1
2116=0x1.5d2af6cd99ad1p-3
2134=0x1.bbde5b03fa504p-9
2136=0x1.bbde5b03fa4b6p-9
2139=0x1.bbde5b03fa4c4p-9
2148=0x1.bbde5b03fa4ccp-9
2187=0x1.f76e408724651p+1
2189=0x1.759ed63e27563p+2
2191=0x1.21a49fa5195fep+1
2193=-0x1.7d8caf1563828p-4
2194=-0x1.7d8caf1563828p-4
2195=0x1.1b66a7d929a78p+0
2196=-0x1.7d8caf1563828p-4
2197=-0x1.7d8caf1563828p-4
2199=-0x1.7d8caf1563828p-4
2201=-0x1.7d8caf1563828p-4
2202=-0x1.7d8caf1563828p-4
2203=-0x1.7d8caf1563828p-4
2204=-0x1.7d8caf1563828p-4
2205=-0x1.7d8caf1563828p-4
2206=-0x1.7d8caf1563828p-4
2207=-0x1.7d8caf1563828p-4
2208=-0x1.7d8caf1563828p-4
2210=-0x1.7d8caf1563828p-4
2211=-0x1.7d8caf1563828p-4
2213=-0x1.7d8caf1563828p-4
2214=-0x1.7d8caf1563828p-4
2215=-0x1.7d8caf1563828p-4
2216=-0x1.7d8caf1563828p-4
2217=-0x1.7d8caf1563828p-4
2218=-0x1.7d8caf1563828p-4
2219=-0x1.7d8caf1563828p-4
2220=-0x1.7d8caf1563828p-4
2221=-0x1.7d8caf1563828p-4
2222=-0x1.7d8caf1563828p-4
2223=-0x1.7d8caf1563828p-4
2224=-0x1.7d8caf1563828p-4
2225=-0x1.7d8caf1563828p-4
2226=-0x1.7d8caf1563828p-4
2227=-0x1.7d8caf1563828p-4
2228=-0x1.7d8caf1563828p-4
2229=-0x1.7d8caf1563828p-4
2231=-0x1.7d8caf1563828p-4
2232=-0x1.7d8caf1563828p-4
2233=-0x1.7d8caf1563828p-4
2234=-0x1.7d8caf1563828p-4
2236=-0x1.7d8caf1563828p-4
2237=-0x1.7d8caf1563828p-4
2238=0x1.456b06d043786p-3
2239=-0x1.7d8caf1563828p-4
2240=-0x1.7d8caf1563828p-4
2241=-0x1.7d8caf1563828p-4
2242=-0x1.7d8caf1563828p-4
2243=-0x1.7d8caf1563828p-4
2244=-0x1.7d8caf1563828p-4
2245=-0x1.7d8caf1563828p-4
2246=-0x1.7d8caf1563828p-4
2248=-0x1.7d8caf1563828p-4
2249=-0x1.7d8caf1563828p-4
2250=-0x1.7d8caf1563828p-4
2251=-0x1.7d8caf1563828p-4
2252=-0x1.7d8caf1563828p-4
2253=-0x1.7d8caf1563828p-4
2254=-0x1.7d8caf1563828p-4
2255=-0x1.7d8caf1563828p-4
2256=-0x1.7d8caf1563828p-4
2257=-0x1.7d8caf1563828p-4
2258=-0x1.7d8caf1563828p-4
2259=-0x1.7d8caf1563828p-4
2260=-0x1.7d8caf1563828p-4
2261=-0x1.7d8caf1563828p-4
2262=-0x1.7d8caf1563828p-4
2263=-0x1.7d8caf1563828p-4
2264=-0x1.7d8caf1563828p-4
2265=-0x1.7d8caf1563828p-4
2266=-0x1.7d8caf1563828p-4
2267=-0x1.7d8caf1563828p-4
2268=0x1.18a2115c81efep+0
2270=0x1.d84314894a5b6p-1
2273=0x1.cdd61c0fe6011p-3
2278=0x1.a188073247b28p-5
2286=0x1.a188073247bp-5
2349=0x1.fe0d902a2cc6ep+2
2350=-0x1.6de6a43f2181cp-6
2351=-0x1.6de6a43f2181cp-6
2352=0x1.06d8b83a0f1dp-2
2353=-0x1.6de6a43f2181cp-6
2354=-0x1.6de6a43f2181cp-6
2355=-0x1.6de6a43f2181cp-6
2356=-0x1.6de6a43f2181cp-6
2357=-0x1.6de6a43f2181cp-6
2358=-0x1.6de6a43f2181cp-6
2359=-0x1.6de6a43f2181cp-6
2360=-0x1.6de6a43f2181cp-6
2361=-0x1.6de6a43f2181cp-6
2362=-0x1.6de6a43f2181cp-6
2363=0x1.a4df74b097327p-4
2364=-0x1.6de6a43f2181cp-6
2365=-0x1.6de6a43f2181cp-6
2366=-0x1.6de6a43f2181cp-6
2367=-0x1.6de6a43f2181cp-6
2368=-0x1.6de6a43f2181cp-6
2369=-0x1.6de6a43f2181cp-6
2370=-0x1.6de6a43f2181cp-6
2371=0x1.09dae7c7b456p-1
2372=-0x1.6de6a43f2181cp-6
2373=-0x1.6de6a43f2181cp-6
2374=-0x1.6de6a43f2181cp-6
2375=-0x1.6de6a43f2181cp-6
2376=-0x1.6de6a43f2181cp-6
2377=-0x1.6de6a43f2181cp-6
2378=-0x1.6de6a43f2181cp-6
2379=-0x1.6de6a43f2181cp-6
2380=-0x1.6de6a43f2181cp-6
2381=-0x1.6de6a43f2181cp-6
2382=-0x1.6de6a43f2181cp-6
2383=-0x1.6de6a43f2181cp-6
2384=-0x1.6de6a43f2181cp-6
2385=-0x1.6de6a43f2181cp-6
2386=-0x1.6de6a43f2181cp-6
2387=-0x1.6de6a43f2181cp-6
2388=-0x1.6de6a43f2181cp-6
2389=-0x1.6de6a43f2181cp-6
2390=-0x1.6de6a43f2181cp-6
2391=-0x1.6de6a43f2181cp-6
2392=-0x1.6de6a43f2181cp-6
2393=-0x1.6de6a43f2181cp-6
2394=-0x1.6de6a43f2181cp-6
2395=-0x1.6de6a43f2181cp-6
2396=-0x1.6de6a43f2181cp-6
2397=-0x1.6de6a43f2181cp-6
2398=-0x1.6de6a43f2181cp-6
2399=-0x1.6de6a43f2181cp-6
2400=-0x1.6de6a43f2181cp-6
2401=-0x1.6de6a43f2181cp-6
2402=-0x1.6de6a43f2181cp-6
2403=-0x1.6de6a43f2181cp-6
2404=-0x1.6de6a43f2181cp-6
2405=-0x1.6de6a43f2181cp-6
2406=-0x1.6de6a43f2181cp-6
2407=-0x1.6de6a43f2181cp-6
2408=-0x1.6de6a43f2181cp-6
2409=-0x1.6de6a43f2181cp-6
2410=-0x1.6de6a43f2181cp-6
2411=-0x1.6de6a43f2181cp-6
2412=-0x1.6de6a43f2181cp-6
2413=-0x1.6de6a43f2181cp-6
2414=-0x1.6de6a43f2181cp-6
2415=-0x1.6de6a43f2181cp-6
2416=-0x1.6de6a43f2181cp-6
2417=-0x1.6de6a43f2181cp-6
2418=-0x1.6de6a43f2181cp-6
2419=-0x1.6de6a43f2181cp-6
2420=-0x1.6de6a43f2181cp-6
2421=-0x1.6de6a43f2181cp-6
2422=-0x1.6de6a43f2181cp-6
2423=-0x1.6de6a43f2181cp-6
2424=-0x1.6de6a43f2181cp-6
2425=-0x1.6de6a43f2181cp-6
2426=-0x1.6de6a43f2181cp-6
2427=-0x1.6de6a43f2181cp-6
2428=-0x1.6de6a43f2181cp-6
2429=-0x1.6de6a43f2181cp-6
2430=0x1.151e6446fe1d6p+2
2431=-0x1.b2b9e2e2b4332p-3
2432=0x1.7def9a8b724ffp-1
2433=-0x1.b2b9e2e2b4332p-3
2434=0x1.8aa87737693cap+2
2435=0x1.bd5a51092bfa1p+1
2436=-0x1.b2b9e2e2b4332p-3
2437=-0x1.b2b9e2e2b4332p-3
2438=0x1.bd60e80e17131p-2
2439=-0x1.b2b9e2e2b4332p-3
2440=0x1.bd60e80e171bep-2
2441=0x1.5b0f77814ac18p+1
2442=-0x1.5e7befdb7a662p-4
2443=-0x1.5e7befdb79a96p-4
2444=-0x1.b2b9e2e2b4332p-3
2445=0x1.6e2c245c6c21ap-5
2446=-0x1.b2b9e2e2b4332p-3
2447=0x1.6e2c245c6ad29p-5
2448=0x1.4a4888ce8347ep+1
2449=-0x1.b2b9e2e2b4332p-3
2450=-0x1.b2b9e2e2b4332p-3
2451=-0x1.5e7befdb7a6efp-4
2452=-0x1.b2b9e2e2b4332p-3
2453=-0x1.b2b9e2e2b4332p-3
2454=-0x1.b2b9e2e2b4332p-3
2455=-0x1.b2b9e2e2b4332p-3
2456=-0x1.b2b9e2e2b4332p-3
2457=0x1.64af0afa1f09ep-1
2458=0x1.6e2c245c6ae37p-5
2459=-0x1.5e7befdb7a661p-4
2460=-0x1.b2b9e2e2b4332p-3
2461=-0x1.b2b9e2e2b4332p-3
2462=-0x1.b2b9e2e2b4332p-3
2463=-0x1.b2b9e2e2b4332p-3
2464=-0x1.b2b9e2e2b4332p-3
2465=-0x1.b2b9e2e2b4332p-3
2466=-0x1.b2b9e2e2b4332p-3
2467=-0x1.b2b9e2e2b4332p-3
2468=-0x1.b2b9e2e2b4332p-3
2469=0x1.6e2c245c6af1p-5
2470=-0x1.b2b9e2e2b4332p-3
2471=-0x1.b2b9e2e2b4332p-3
2472=-0x1.5e7befdb7a654p-4
2473=-0x1.b2b9e2e2b4332p-3
2474=-0x1.b2b9e2e2b4332p-3
2475=-0x1.b2b9e2e2b4332p-3
2476=-0x1.b2b9e2e2b4332p-3
2477=-0x1.b2b9e2e2b4332p-3
2478=-0x1.5e7befdb7a522p-4
2479=-0x1.b2b9e2e2b4332p-3
2480=-0x1.b2b9e2e2b4332p-3
2481=0x1.6e2c245c6adp-5
2482=-0x1.b2b9e2e2b4332p-3
2483=-0x1.b2b9e2e2b4332p-3
2484=-0x1.b2b9e2e2b4332p-3
2485=-0x1.5e7befdb79a04p-4
2486=-0x1.b2b9e2e2b4332p-3
2487=-0x1.b2b9e2e2b4332p-3
2488=-0x1.5e7befdb7a662p-4
2489=-0x1.b2b9e2e2b4332p-3
2490=-0x1.b2b9e2e2b4332p-3
2491=0x1.bd60e80e171b4p-2
2492=-0x1.b2b9e2e2b4332p-3
2493=-0x1.b2b9e2e2b4332p-3
2494=0x1.dcd51932571c6p-2
2495=-0x1.b2b9e2e2b4332p-3
2496=-0x1.b2b9e2e2b4332p-3
2497=-0x1.b2b9e2e2b4332p-3
2498=-0x1.b2b9e2e2b4332p-3
2499=-0x1.b2b9e2e2b4332p-3
2500=-0x1.b2b9e2e2b4332p-3
2501=-0x1.b2b9e2e2b4332p-3
2502=-0x1.b2b9e2e2b4332p-3
2503=-0x1.b2b9e2e2b4332p-3
2504=-0x1.b2b9e2e2b4332p-3
2505=-0x1.b2b9e2e2b4332p-3
2506=-0x1.b2b9e2e2b4332p-3
2507=-0x1.b2b9e2e2b4332p-3
2508=-0x1.b2b9e2e2b4332p-3
2509=-0x1.b2b9e2e2b4332p-3
2510=-0x1.b2b9e2e2b4332p-3
2511=0x1.e483a794af46ep+2
2512=-0x1.7fcb3b736735ap-7
2513=0x1.d3b08e0bd5daap-4
2514=-0x1.7fcb3b736735ap-7
2515=-0x1.7fcb3b736735ap-7
2516=-0x1.7fcb3b736735ap-7
2517=0x1.4366add422012p-3
2518=-0x1.7fcb3b736735ap-7
2519=0x1.4366add421c39p-3
2520=-0x1.7fcb3b736735ap-7
2521=-0x1.7fcb3b736735ap-7
2522=-0x1.7fcb3b736735ap-7
2523=-0x1.7fcb3b736735ap-7
2524=-0x1.7fcb3b736735ap-7
2525=-0x1.7fcb3b736735ap-7
2526=-0x1.7fcb3b736735ap-7
2527=-0x1.7fcb3b736735ap-7
2528=-0x1.7fcb3b736735ap-7
2529=0x1.d3b08e0bd60a6p-4
2530=-0x1.7fcb3b736735ap-7
2531=-0x1.7fcb3b736735ap-7
2532=-0x1.7fcb3b736735ap-7
2533=-0x1.7fcb3b736735ap-7
2534=0x1.4366add42309dp-3
2535=-0x1.7fcb3b736735ap-7
2536=-0x1.7fcb3b736735ap-7
2537=-0x1.7fcb3b736735ap-7
2538=-0x1.7fcb3b736735ap-7
2539=-0x1.7fcb3b736735ap-7
2540=-0x1.7fcb3b736735ap-7
2541=-0x1.7fcb3b736735ap-7
2542=-0x1.7fcb3b736735ap-7
2543=-0x1.7fcb3b736735ap-7
2544=-0x1.7fcb3b736735ap-7
2545=-0x1.7fcb3b736735ap-7
2546=-0x1.7fcb3b736735ap-7
2547=-0x1.7fcb3b736735ap-7
2548=-0x1.7fcb3b736735ap-7
2549=-0x1.7fcb3b736735ap-7
2550=-0x1.7fcb3b736735ap-7
2551=-0x1.7fcb3b736735ap-7
2552=-0x1.7fcb3b736735ap-7
2553=-0x1.7fcb3b736735ap-7
2554=-0x1.7fcb3b736735ap-7
2555=-0x1.7fcb3b736735ap-7
2556=-0x1.7fcb3b736735ap-7
2557=-0x1.7fcb3b736735ap-7
2558=-0x1.7fcb3b736735ap-7
2559=-0x1.7fcb3b736735ap-7
2560=-0x1.7fcb3b736735ap-7
2561=-0x1.7fcb3b736735ap-7
2562=-0x1.7fcb3b736735ap-7
2563=-0x1.7fcb3b736735ap-7
2564=-0x1.7fcb3b736735ap-7
2565=-0x1.7fcb3b736735ap-7
2566=-0x1.7fcb3b736735ap-7
2567=-0x1.7fcb3b736735ap-7
2568=-0x1.7fcb3b736735ap-7
2569=-0x1.7fcb3b736735ap-7
2570=-0x1.7fcb3b736735ap-7
2571=-0x1.7fcb3b736735ap-7
2572=-0x1.7fcb3b736735ap-7
2573=-0x1.7fcb3b736735ap-7
2574=-0x1.7fcb3b736735ap-7
2575=-0x1.7fcb3b736735ap-7
2576=-0x1.7fcb3b736735ap-7
2577=-0x1.7fcb3b736735ap-7
2578=-0x1.7fcb3b736735ap-7
2579=-0x1.7fcb3b736735ap-7
2580=-0x1.7fcb3b736735ap-7
2581=-0x1.7fcb3b736735ap-7
2582=-0x1.7fcb3b736735ap-7
2583=-0x1.7fcb3b736735ap-7
2584=-0x1.7fcb3b736735ap-7
2585=-0x1.7fcb3b736735ap-7
2586=-0x1.7fcb3b736735ap-7
2587=-0x1.7fcb3b736735ap-7
2588=-0x1.7fcb3b736735ap-7
2589=-0x1.7fcb3b736735ap-7
2590=-0x1.7fcb3b736735ap-7
2591=-0x1.7fcb3b736735ap-7
2592=0x1.28951791f3487p+3
2673=0x1.b59501078f5cfp+2
2674=0x1.2820fca34f27p+2
2675=0x1.5113076c2e972p-1
2676=-0x1.29a02b8b8ba07p-2
2677=-0x1.32607a1f0b6c1p-4
2678=0x1.34ef9e23d62b4p-2
2679=0x1.972ccadf9b1dap-1
2680=-0x1.29a02b8b8ba07p-2
2681=0x1.a698e7056719ep+1
2682=0x1.cc97ede8fc634p-1
2683=-0x1.29a02b8b8ba07p-2
2684=-0x1.29a02b8b8ba07p-2
2685=0x1.2820fca34f4acp+2
2686=0x1.577144870b6c7p-5
2687=-0x1.29a02b8b8ba07p-2
2688=-0x1.29a02b8b8ba07p-2
2689=-0x1.32607a1f0b6c5p-4
2690=-0x1.29a02b8b8ba07p-2
2691=-0x1.29a02b8b8ba07p-2
2692=0x1.dc3f877c91a64p-3
2693=0x1.a1393e04385f7p+1
2694=-0x1.29a02b8b8ba07p-2
2695=-0x1.29a02b8b8ba07p-2
2696=0x1.972ccadf9ad02p-1
2697=-0x1.29a02b8b8ba07p-2
2698=-0x1.29a02b8b8ba07p-2
2699=-0x1.29a02b8b8ba07p-2
2700=-0x1.29a02b8b8ba07p-2
2701=0x1.050309fd13ee2p+0
2702=-0x1.29a02b8b8ba07p-2
2703=-0x1.29a02b8b8ba07p-2
2704=0x1.577144870b014p-5
2705=-0x1.29a02b8b8ba07p-2
2706=-0x1.29a02b8b8ba07p-2
2707=-0x1.29a02b8b8ba07p-2
2708=-0x1.29a02b8b8ba07p-2
2709=-0x1.29a02b8b8ba07p-2
2710=-0x1.29a02b8b8ba07p-2
2711=-0x1.29a02b8b8ba07p-2
2712=-0x1.29a02b8b8ba07p-2
2713=-0x1.29a02b8b8ba07p-2
2714=-0x1.32607a1f0b6bap-4
2715=-0x1.29a02b8b8ba07p-2
2716=0x1.577144870dc44p-5
2717=-0x1.29a02b8b8ba07p-2
2718=0x1.dc3f877c8faf8p-3
2719=-0x1.29a02b8b8ba07p-2
2720=-0x1.29a02b8b8ba07p-2
2721=-0x1.29a02b8b8ba07p-2
2722=-0x1.29a02b8b8ba07p-2
2723=0x1.34ef9e23d4ddp-2
2724=-0x1.29a02b8b8ba07p-2
2725=-0x1.29a02b8b8ba07p-2
2726=-0x1.32607a1f0a642p-4
2727=-0x1.29a02b8b8ba07p-2
2728=-0x1.29a02b8b8ba07p-2
2729=-0x1.29a02b8b8ba07p-2
2730=-0x1.29a02b8b8ba07p-2
2731=-0x1.29a02b8b8ba07p-2
2732=-0x1.29a02b8b8ba07p-2
2733=-0x1.29a02b8b8ba07p-2
2734=-0x1.29a02b8b8ba07p-2
2735=-0x1.29a02b8b8ba07p-2
2736=-0x1.29a02b8b8ba07p-2
2737=-0x1.29a02b8b8ba07p-2
2738=-0x1.29a02b8b8ba07p-2
2739=-0x1.29a02b8b8ba07p-2
2740=-0x1.29a02b8b8ba07p-2
2741=-0x1.29a02b8b8ba07p-2
2742=-0x1.29a02b8b8ba07p-2
2743=-0x1.29a02b8b8ba07p-2
2744=-0x1.29a02b8b8ba07p-2
2745=-0x1.29a02b8b8ba07p-2
2746=-0x1.29a02b8b8ba07p-2
2747=-0x1.29a02b8b8ba07p-2
2748=-0x1.29a02b8b8ba07p-2
2749=-0x1.29a02b8b8ba07p-2
2750=-0x1.29a02b8b8ba07p-2
2751=-0x1.29a02b8b8ba07p-2
2752=-0x1.29a02b8b8ba07p-2
2753=-0x1.29a02b8b8ba07p-2
2754=0x1.b3a74d90c4485p+3
2755=-0x1.184b2e339c3b7p-2
2756=0x1.c656c250927ddp+3
2757=-0x1.934c679dbb278p-3
2758=0x1.1bc635e012826p+2
2759=0x1.8038e9d410cfcp+0
2760=-0x1.eb6e73b54991ep-4
2761=-0x1.eb6e73b548b7bp-4
2762=0x1.74d93cab81184p+3
2763=-0x1.eb6e73b546af8p-4
2764=0x1.1f0957251172fp-3
2765=0x1.7dbf7aca7d134p-1
2766=-0x1.184b2e339c3b7p-2
2767=0x1.f03e15d503637p-4
2768=-0x1.184b2e339c3b7p-2
2769=-0x1.184b2e339c3b7p-2
2770=-0x1.184b2e339c3b7p-2
2771=-0x1.184b2e339c3b7p-2
2772=0x1.7dbf7aca7cb36p-1
2773=-0x1.934c679dbb21cp-3
2774=-0x1.184b2e339c3b7p-2
2775=-0x1.934c679dbb222p-3
2776=0x1.d314f079ca8d8p+0
2777=-0x1.184b2e339c3b7p-2
2778=-0x1.184b2e339c3b7p-2
2779=-0x1.184b2e339c3b7p-2
2780=-0x1.184b2e339c3b7p-2
2781=-0x1.184b2e339c3b7p-2
2782=0x1.14b47e75406fcp-4
2783=-0x1.184b2e339c3b7p-2
2784=-0x1.184b2e339c3b7p-2
2785=-0x1.184b2e339c3b7p-2
2786=-0x1.184b2e339c3b7p-2
2787=-0x1.184b2e339c3b7p-2
2788=-0x1.184b2e339c3b7p-2
2789=-0x1.184b2e339c3b7p-2
2790=-0x1.184b2e339c3b7p-2
2791=-0x1.184b2e339c3b7p-2
2792=-0x1.184b2e339c3b7p-2
2793=-0x1.184b2e339c3b7p-2
2794=-0x1.184b2e339c3b7p-2
2795=-0x1.934c679dbb289p-3
2796=-0x1.eb6e73b54ac7ep-4
2797=-0x1.184b2e339c3b7p-2
2798=-0x1.184b2e339c3b7p-2
2799=-0x1.184b2e339c3b7p-2
2800=-0x1.184b2e339c3b7p-2
2801=-0x1.184b2e339c3b7p-2
2802=0x1.14b47e7543e65p-4
2803=-0x1.184b2e339c3b7p-2
2804=-0x1.184b2e339c3b7p-2
2805=-0x1.934c679dbb266p-3
2806=-0x1.184b2e339c3b7p-2
2807=-0x1.184b2e339c3b7p-2
2808=-0x1.184b2e339c3b7p-2
2809=0x1.7dbf7aca78cc4p-1
2810=-0x1.184b2e339c3b7p-2
2811=-0x1.184b2e339c3b7p-2
2812=-0x1.184b2e339c3b7p-2
2813=-0x1.184b2e339c3b7p-2
2814=0x1.14b47e754191ep-4
2815=-0x1.184b2e339c3b7p-2
2816=-0x1.184b2e339c3b7p-2
2817=-0x1.184b2e339c3b7p-2
2818=-0x1.184b2e339c3b7p-2
2819=-0x1.184b2e339c3b7p-2
2820=-0x1.184b2e339c3b7p-2
2821=-0x1.184b2e339c3b7p-2
2822=-0x1.184b2e339c3b7p-2
2823=-0x1.184b2e339c3b7p-2
2824=-0x1.184b2e339c3b7p-2
2825=-0x1.184b2e339c3b7p-2
2826=-0x1.184b2e339c3b7p-2
2827=-0x1.184b2e339c3b7p-2
2828=-0x1.184b2e339c3b7p-2
2829=-0x1.184b2e339c3b7p-2
2830=-0x1.184b2e339c3b7p-2
2831=-0x1.184b2e339c3b7p-2
2832=-0x1.184b2e339c3b7p-2
2833=-0x1.184b2e339c3b7p-2
2834=-0x1.184b2e339c3b7p-2
2835=0x1.74b9b8a92b6c7p+2
2836=0x1.c52093d25cff8p-5
2837=0x1.9cf523862a754p+0
2838=-0x1.36dd4cb68381ap-3
2839=0x1.469777ed120fdp+0
2840=-0x1.48986d52b0eaep-6
2841=0x1.277cc4834cd2fp-2
2842=-0x1.48986d52ae248p-6
2843=-0x1.48986d52b0eacp-6
2844=-0x1.48986d52ada1ep-6
2845=0x1.dedb49c5e75cbp-1
2846=0x1.450d65d8fc65ap-2
2847=0x1.dedb49c5e7532p-1
2848=-0x1.48986d52ada1cp-6
2849=-0x1.36dd4cb68381ap-3
2850=-0x1.36dd4cb68381ap-3
2851=-0x1.48986d52ada0fp-6
2852=-0x1.48986d52b0ea7p-6
2853=0x1.c52093d25eb88p-5
2854=-0x1.36dd4cb68381ap-3
2855=-0x1.48986d52af9a7p-6
2856=-0x1.48986d52adce5p-6
2857=-0x1.48986d52b0e85p-6
2858=0x1.0b2b84be4b238p-3
2859=-0x1.36dd4cb68381ap-3
2860=-0x1.36dd4cb68381ap-3
2861=0x1.0b2b84be4b1d4p-3
2862=0x1.0b2b84be4b2d1p-3
2863=0x1.c52093d25c927p-5
2864=-0x1.48986d52ade4dp-6
2865=-0x1.36dd4cb68381ap-3
2866=-0x1.36dd4cb68381ap-3
2867=-0x1.36dd4cb68381ap-3
2868=0x1.0b2b84be4b0ccp-3
2869=-0x1.36dd4cb68381ap-3
2870=-0x1.36dd4cb68381ap-3
2871=-0x1.36dd4cb68381ap-3
2872=-0x1.36dd4cb68381ap-3
2873=-0x1.36dd4cb68381ap-3
2874=-0x1.36dd4cb68381ap-3
2875=-0x1.36dd4cb68381ap-3
2876=-0x1.48986d52b0ea2p-6
2877=0x1.9cf523862a785p+0
2878=0x1.0b2b84be4b0e2p-3
2879=-0x1.36dd4cb68381ap-3
2880=-0x1.36dd4cb68381ap-3
2881=0x1.c52093d25edbep-5
2882=-0x1.36dd4cb68381ap-3
2883=-0x1.36dd4cb68381ap-3
2884=-0x1.36dd4cb68381ap-3
2885=-0x1.36dd4cb68381ap-3
2886=-0x1.36dd4cb68381ap-3
2887=-0x1.36dd4cb68381ap-3
2888=-0x1.36dd4cb68381ap-3
2889=-0x1.36dd4cb68381ap-3
2890=-0x1.36dd4cb68381ap-3
2891=-0x1.36dd4cb68381ap-3
2892=-0x1.36dd4cb68381ap-3
2893=-0x1.36dd4cb68381ap-3
2894=-0x1.36dd4cb68381ap-3
2895=-0x1.36dd4cb68381ap-3
2896=-0x1.36dd4cb68381ap-3
2897=-0x1.36dd4cb68381ap-3
2898=-0x1.36dd4cb68381ap-3
2899=0x1.277cc4834cf76p-2
2900=-0x1.36dd4cb68381ap-3
2901=-0x1.36dd4cb68381ap-3
2902=-0x1.36dd4cb68381ap-3
2903=-0x1.36dd4cb68381ap-3
2904=-0x1.36dd4cb68381ap-3
2905=-0x1.36dd4cb68381ap-3
2906=-0x1.48986d52b06dfp-6
2907=-0x1.36dd4cb68381ap-3
2908=-0x1.36dd4cb68381ap-3
2909=-0x1.36dd4cb68381ap-3
2910=-0x1.36dd4cb68381ap-3
2911=-0x1.36dd4cb68381ap-3
2912=-0x1.36dd4cb68381ap-3
2913=-0x1.36dd4cb68381ap-3
2914=-0x1.36dd4cb68381ap-3
2915=-0x1.36dd4cb68381ap-3
2916=0x1.10ad7fc750ba8p+2
2917=-0x1.55ca8472d2f31p-3
2918=0x1.5a4219e575431p-1
2919=-0x1.55ca8472d2f31p-3
2920=0x1.4c77292715aebp+2
2921=0x1.873f58e5ce60ep+1
2922=-0x1.212e109862cbep-4
2923=-0x1.212e109862ce9p-4
2924=0x1.3973534e52ec2p-3
2925=-0x1.212e109862db4p-4
2926=-0x1.212e109862cefp-4
2927=0x1.73d9765733ffap-4
2928=0x1.9f340dd3b4c1p-8
2929=-0x1.55ca8472d2f31p-3
2930=-0x1.55ca8472d2f31p-3
2931=-0x1.55ca8472d2f31p-3
2932=-0x1.55ca8472d2f31p-3
2933=-0x1.55ca8472d2f31p-3
2934=0x1.7ae7c7f4f9bc4p+0
2935=-0x1.55ca8472d2f31p-3
2936=-0x1.55ca8472d2f31p-3
2937=-0x1.55ca8472d2f31p-3
2938=-0x1.55ca8472d2f31p-3
2939=-0x1.55ca8472d2f31p-3
2940=-0x1.55ca8472d2f31p-3
2941=-0x1.55ca8472d2f31p-3
2942=-0x1.55ca8472d2f31p-3
2943=0x1.5a4219e57543p-1
2944=-0x1.55ca8472d2f31p-3
2945=-0x1.55ca8472d2f31p-3
2946=-0x1.55ca8472d2f31p-3
2947=-0x1.55ca8472d2f31p-3
2948=-0x1.55ca8472d2f31p-3
2949=-0x1.55ca8472d2f31p-3
2950=-0x1.55ca8472d2f31p-3
2951=-0x1.55ca8472d2f31p-3
2952=-0x1.55ca8472d2f31p-3
2953=-0x1.55ca8472d2f31p-3
2954=0x1.0063b3c8212fbp+0
2955=-0x1.55ca8472d2f31p-3
2956=-0x1.55ca8472d2f31p-3
2957=-0x1.55ca8472d2f31p-3
2958=0x1.085bca18e9e5bp-1
2959=-0x1.212e109862e14p-4
2960=-0x1.55ca8472d2f31p-3
2961=-0x1.55ca8472d2f31p-3
2962=-0x1.55ca8472d2f31p-3
2963=-0x1.55ca8472d2f31p-3
2964=0x1.3973534e5252bp-3
2965=-0x1.55ca8472d2f31p-3
2966=-0x1.55ca8472d2f31p-3
2967=-0x1.55ca8472d2f31p-3
2968=-0x1.55ca8472d2f31p-3
2969=-0x1.55ca8472d2f31p-3
2970=-0x1.55ca8472d2f31p-3
2971=-0x1.212e109862cbbp-4
2972=-0x1.55ca8472d2f31p-3
2973=-0x1.55ca8472d2f31p-3
2974=-0x1.55ca8472d2f31p-3
2975=-0x1.55ca8472d2f31p-3
2976=-0x1.55ca8472d2f31p-3
2977=-0x1.55ca8472d2f31p-3
2978=-0x1.55ca8472d2f31p-3
2979=-0x1.55ca8472d2f31p-3
2980=-0x1.55ca8472d2f31p-3
2981=-0x1.55ca8472d2f31p-3
2982=-0x1.55ca8472d2f31p-3
2983=-0x1.55ca8472d2f31p-3
2984=-0x1.55ca8472d2f31p-3
2985=-0x1.212e109862ceep-4
2986=-0x1.55ca8472d2f31p-3
2987=-0x1.55ca8472d2f31p-3
2988=-0x1.55ca8472d2f31p-3
2989=-0x1.55ca8472d2f31p-3
2990=-0x1.55ca8472d2f31p-3
2991=-0x1.55ca8472d2f31p-3
2992=-0x1.55ca8472d2f31p-3
2993=-0x1.55ca8472d2f31p-3
2994=-0x1.55ca8472d2f31p-3
2995=-0x1.55ca8472d2f31p-3
2996=-0x1.55ca8472d2f31p-3
2997=0x1.0d937006435aap+3
2998=-0x1.0ca7d2eb287ep-7
2999=-0x1.0ca7d2eb287ep-7
3000=-0x1.0ca7d2eb287ep-7
3001=-0x1.0ca7d2eb287ep-7
3002=-0x1.0ca7d2eb287ep-7
3003=-0x1.0ca7d2eb287ep-7
3004=-0x1.0ca7d2eb287ep-7
3005=-0x1.0ca7d2eb287ep-7
3006=-0x1.0ca7d2eb287ep-7
3007=-0x1.0ca7d2eb287ep-7
3008=-0x1.0ca7d2eb287ep-7
3009=-0x1.0ca7d2eb287ep-7
3010=-0x1.0ca7d2eb287ep-7
3011=-0x1.0ca7d2eb287ep-7
3012=-0x1.0ca7d2eb287ep-7
3013=-0x1.0ca7d2eb287ep-7
3014=-0x1.0ca7d2eb287ep-7
3015=-0x1.0ca7d2eb287ep-7
3016=0x1.a360146ed0065p-3
3017=-0x1.0ca7d2eb287ep-7
3018=-0x1.0ca7d2eb287ep-7
3019=-0x1.0ca7d2eb287ep-7
3020=-0x1.0ca7d2eb287ep-7
3021=-0x1.0ca7d2eb287ep-7
3022=-0x1.0ca7d2eb287ep-7
3023=-0x1.0ca7d2eb287ep-7
3024=-0x1.0ca7d2eb287ep-7
3025=-0x1.0ca7d2eb287ep-7
3026=-0x1.0ca7d2eb287ep-7
3027=-0x1.0ca7d2eb287ep-7
3028=-0x1.0ca7d2eb287ep-7
3029=-0x1.0ca7d2eb287ep-7
3030=-0x1.0ca7d2eb287ep-7
3031=-0x1.0ca7d2eb287ep-7
3032=-0x1.0ca7d2eb287ep-7
3033=-0x1.0ca7d2eb287ep-7
3034=-0x1.0ca7d2eb287ep-7
3035=-0x1.0ca7d2eb287ep-7
3036=-0x1.0ca7d2eb287ep-7
3037=-0x1.0ca7d2eb287ep-7
3038=-0x1.0ca7d2eb287ep-7
3039=0x1.113668d4ea32ep-3
3040=0x1.113668d4ea4aep-3
3041=-0x1.0ca7d2eb287ep-7
3042=-0x1.0ca7d2eb287ep-7
3043=-0x1.0ca7d2eb287ep-7
3044=-0x1.0ca7d2eb287ep-7
3045=-0x1.0ca7d2eb287ep-7
3046=-0x1.0ca7d2eb287ep-7
3047=-0x1.0ca7d2eb287ep-7
3048=-0x1.0ca7d2eb287ep-7
3049=-0x1.0ca7d2eb287ep-7
3050=-0x1.0ca7d2eb287ep-7
3051=-0x1.0ca7d2eb287ep-7
3052=-0x1.0ca7d2eb287ep-7
3053=-0x1.0ca7d2eb287ep-7
3054=-0x1.0ca7d2eb287ep-7
3055=-0x1.0ca7d2eb287ep-7
3056=-0x1.0ca7d2eb287ep-7
3057=-0x1.0ca7d2eb287ep-7
3058=-0x1.0ca7d2eb287ep-7
3059=-0x1.0ca7d2eb287ep-7
3060=-0x1.0ca7d2eb287ep-7
3061=-0x1.0ca7d2eb287ep-7
3062=-0x1.0ca7d2eb287ep-7
3063=-0x1.0ca7d2eb287ep-7
3064=-0x1.0ca7d2eb287ep-7
3065=-0x1.0ca7d2eb287ep-7
3066=-0x1.0ca7d2eb287ep-7
3067=-0x1.0ca7d2eb287ep-7
3068=-0x1.0ca7d2eb287ep-7
3069=-0x1.0ca7d2eb287ep-7
3070=-0x1.0ca7d2eb287ep-7
3071=-0x1.0ca7d2eb287ep-7
3072=-0x1.0ca7d2eb287ep-7
3073=-0x1.0ca7d2eb287ep-7
3074=-0x1.0ca7d2eb287ep-7
3075=-0x1.0ca7d2eb287ep-7
3076=-0x1.0ca7d2eb287ep-7
3077=-0x1.0ca7d2eb287ep-7
3078=0x1.1118c41ac8b3ep+2
3080=0x1.57ff59a52940ap+2
3081=-0x1.803fe8fa45202p-3
3083=-0x1.803fe8fa45202p-3
3084=-0x1.803fe8fa45202p-3
3085=-0x1.803fe8fa45202p-3
3086=0x1.67e291f6a8805p+0
3087=-0x1.803fe8fa45202p-3
3088=-0x1.803fe8fa45202p-3
3090=-0x1.803fe8fa45202p-3
3092=-0x1.803fe8fa45202p-3
3093=-0x1.803fe8fa45202p-3
3094=-0x1.803fe8fa45202p-3
3095=-0x1.803fe8fa45202p-3
3096=0x1.d2384b1749f8dp-4
3097=-0x1.803fe8fa45202p-3
3099=-0x1.803fe8fa45202p-3
3100=-0x1.803fe8fa45202p-3
3101=-0x1.803fe8fa45202p-3
3102=-0x1.803fe8fa45202p-3
3103=-0x1.803fe8fa45202p-3
3104=-0x1.803fe8fa45202p-3
3105=-0x1.803fe8fa45202p-3
3106=-0x1.803fe8fa45202p-3
3107=-0x1.803fe8fa45202p-3
3108=-0x1.803fe8fa45202p-3
3109=-0x1.803fe8fa45202p-3
3110=-0x1.803fe8fa45202p-3
3111=-0x1.803fe8fa45202p-3
3112=-0x1.803fe8fa45202p-3
3113=-0x1.803fe8fa45202p-3
3114=-0x1.803fe8fa45202p-3
3115=-0x1.803fe8fa45202p-3
3116=0x1.fa20fe57486b2p-5
3117=-0x1.803fe8fa45202p-3
3118=-0x1.803fe8fa45202p-3
3119=-0x1.803fe8fa45202p-3
3120=-0x1.803fe8fa45202p-3
3121=-0x1.803fe8fa45202p-3
3122=-0x1.803fe8fa45202p-3
3123=-0x1.803fe8fa45202p-3
3124=-0x1.803fe8fa45202p-3
3125=-0x1.803fe8fa45202p-3
3126=-0x1.803fe8fa45202p-3
3127=-0x1.803fe8fa45202p-3
3128=-0x1.803fe8fa45202p-3
3129=-0x1.803fe8fa45202p-3
3130=-0x1.803fe8fa45202p-3
3131=0x1.2a64d2b1ea7e1p+2
3132=-0x1.803fe8fa45202p-3
3133=-0x1.803fe8fa45202p-3
3134=-0x1.803fe8fa45202p-3
3135=-0x1.803fe8fa45202p-3
3136=-0x1.803fe8fa45202p-3
3137=-0x1.803fe8fa45202p-3
3139=-0x1.803fe8fa45202p-3
3140=-0x1.803fe8fa45202p-3
3141=-0x1.803fe8fa45202p-3
3142=-0x1.803fe8fa45202p-3
3143=-0x1.803fe8fa45202p-3
3144=-0x1.803fe8fa45202p-3
3145=-0x1.803fe8fa45202p-3
3146=-0x1.803fe8fa45202p-3
3147=-0x1.803fe8fa45202p-3
3148=-0x1.803fe8fa45202p-3
3149=-0x1.803fe8fa45202p-3
3150=-0x1.803fe8fa45202p-3
3151=-0x1.803fe8fa45202p-3
3152=-0x1.803fe8fa45202p-3
3153=-0x1.803fe8fa45202p-3
3154=-0x1.803fe8fa45202p-3
3155=-0x1.803fe8fa45202p-3
3156=-0x1.803fe8fa45202p-3
3157=-0x1.803fe8fa45202p-3
3158=-0x1.803fe8fa45202p-3
3159=0x1.19ea81c44d9fcp+2
3160=-0x1.0cd905c542823p-4
3161=0x1.b5e4f3f8d1b41p-1
3162=-0x1.6a2d03f7ed074p-3
3163=0x1.5b9db3c27eadep+2
3164=0x1.7dcf53cdf89dap+1
3165=0x1.bca29610bf19ap-5
3166=-0x1.6a2d03f7ed074p-3
3167=0x1.b5e4f3f8d1b18p-1
3168=-0x1.6a2d03f7ed074p-3
3169=0x1.15ba1db098167p-2
3170=0x1.49c4b87f152e5p+1
3171=-0x1.0cd905c542821p-4
3172=-0x1.6a2d03f7ed074p-3
3173=-0x1.6a2d03f7ed074p-3
3174=-0x1.6a2d03f7ed074p-3
3175=-0x1.6a2d03f7ed074p-3
3176=0x1.4e5cf0df3914dp-4
3177=0x1.f9d523d30e749p+0
3178=-0x1.0cd905c542824p-4
3179=-0x1.0cd905c542825p-4
3180=-0x1.0cd905c542669p-4
3181=-0x1.6a2d03f7ed074p-3
3182=-0x1.6a2d03f7ed074p-3
3183=-0x1.6a2d03f7ed074p-3
3184=-0x1.6a2d03f7ed074p-3
3185=-0x1.6a2d03f7ed074p-3
3186=0x1.4e5cf0df39168p-4
3187=-0x1.6a2d03f7ed074p-3
3188=-0x1.6a2d03f7ed074p-3
3189=-0x1.6a2d03f7ed074p-3
3190=-0x1.6a2d03f7ed074p-3
3191=-0x1.6a2d03f7ed074p-3
3192=0x1.4e5cf0df3915cp-4
3193=-0x1.6a2d03f7ed074p-3
3194=-0x1.6a2d03f7ed074p-3
3195=-0x1.6a2d03f7ed074p-3
3196=-0x1.6a2d03f7ed074p-3
3197=-0x1.6a2d03f7ed074p-3
3198=0x1.4e5cf0df3914cp-4
3199=-0x1.6a2d03f7ed074p-3
3200=-0x1.6a2d03f7ed074p-3
3201=-0x1.0cd905c542825p-4
3202=-0x1.6a2d03f7ed074p-3
3203=-0x1.6a2d03f7ed074p-3
3204=-0x1.6a2d03f7ed074p-3
3205=-0x1.6a2d03f7ed074p-3
3206=-0x1.6a2d03f7ed074p-3
3207=-0x1.6a2d03f7ed074p-3
3208=-0x1.6a2d03f7ed074p-3
3209=-0x1.6a2d03f7ed074p-3
3210=-0x1.6a2d03f7ed074p-3
3211=-0x1.6a2d03f7ed074p-3
3212=-0x1.6a2d03f7ed074p-3
3213=-0x1.6a2d03f7ed074p-3
3214=0x1.bca29610c1b73p-5
3215=-0x1.6a2d03f7ed074p-3
3216=-0x1.6a2d03f7ed074p-3
3217=-0x1.6a2d03f7ed074p-3
3218=-0x1.6a2d03f7ed074p-3
3219=-0x1.6a2d03f7ed074p-3
3220=0x1.920d9fee7291ap-3
3221=-0x1.6a2d03f7ed074p-3
3222=-0x1.6a2d03f7ed074p-3
3223=-0x1.6a2d03f7ed074p-3
3224=-0x1.0cd905c542822p-4
3225=-0x1.6a2d03f7ed074p-3
3226=-0x1.6a2d03f7ed074p-3
3227=-0x1.6a2d03f7ed074p-3
3228=-0x1.6a2d03f7ed074p-3
3229=-0x1.6a2d03f7ed074p-3
3230=-0x1.6a2d03f7ed074p-3
3231=-0x1.6a2d03f7ed074p-3
3232=-0x1.6a2d03f7ed074p-3
3233=-0x1.6a2d03f7ed074p-3
3234=-0x1.6a2d03f7ed074p-3
3235=-0x1.6a2d03f7ed074p-3
3236=-0x1.6a2d03f7ed074p-3
3237=-0x1.6a2d03f7ed074p-3
3238=-0x1.6a2d03f7ed074p-3
3239=-0x1.6a2d03f7ed074p-3
3240=0x1.dc7c461f7b836p+2
3242=0x1.6fa9537d3cadep-5
3243=-0x1.690bb485f8ff6p-4
3244=-0x1.690bb485f8ff6p-4
3245=-0x1.690bb485f8ff6p-4
3246=0x1.55723a13d6b86p-1
3247=-0x1.690bb485f8ff6p-4
3248=0x1.6fa9537d3c311p-5
3249=-0x1.690bb485f8ff6p-4
3250=0x1.cf54b0853a784p-2
3251=-0x1.690bb485f8ff6p-4
3252=-0x1.690bb485f8ff6p-4
3254=-0x1.690bb485f8ff6p-4
3255=-0x1.690bb485f8ff6p-4
3256=-0x1.690bb485f8ff6p-4
3257=-0x1.690bb485f8ff6p-4
3258=-0x1.690bb485f8ff6p-4
3259=-0x1.690bb485f8ff6p-4
3260=0x1.6fa9537d3cc01p-5
3261=-0x1.690bb485f8ff6p-4
3262=-0x1.690bb485f8ff6p-4
3263=-0x1.690bb485f8ff6p-4
3264=-0x1.690bb485f8ff6p-4
3265=0x1.9e4952741eaf9p-1
3266=-0x1.690bb485f8ff6p-4
3267=-0x1.690bb485f8ff6p-4
3268=0x1.6fa9537d3cd73p-5
3269=-0x1.690bb485f8ff6p-4
3270=-0x1.690bb485f8ff6p-4
3271=-0x1.690bb485f8ff6p-4
3272=-0x1.690bb485f8ff6p-4
3273=-0x1.690bb485f8ff6p-4
3274=-0x1.690bb485f8ff6p-4
3275=-0x1.690bb485f8ff6p-4
3276=-0x1.690bb485f8ff6p-4
3277=-0x1.690bb485f8ff6p-4
3278=-0x1.690bb485f8ff6p-4
3279=-0x1.690bb485f8ff6p-4
3280=-0x1.690bb485f8ff6p-4
3281=-0x1.690bb485f8ff6p-4
3282=-0x1.690bb485f8ff6p-4
3283=-0x1.690bb485f8ff6p-4
3284=-0x1.690bb485f8ff6p-4
3285=-0x1.690bb485f8ff6p-4
3286=-0x1.690bb485f8ff6p-4
3287=-0x1.690bb485f8ff6p-4
3288=-0x1.690bb485f8ff6p-4
3290=-0x1.690bb485f8ff6p-4
3291=0x1.e41fbdb4f2e04p-2
3292=-0x1.690bb485f8ff6p-4
3293=-0x1.690bb485f8ff6p-4
3294=-0x1.690bb485f8ff6p-4
3295=-0x1.690bb485f8ff6p-4
3296=-0x1.690bb485f8ff6p-4
3297=-0x1.690bb485f8ff6p-4
3298=-0x1.690bb485f8ff6p-4
3299=-0x1.690bb485f8ff6p-4
3300=-0x1.690bb485f8ff6p-4
3301=-0x1.690bb485f8ff6p-4
3302=-0x1.690bb485f8ff6p-4
3303=-0x1.690bb485f8ff6p-4
3304=-0x1.690bb485f8ff6p-4
3305=-0x1.690bb485f8ff6p-4
3306=-0x1.690bb485f8ff6p-4
3307=-0x1.690bb485f8ff6p-4
3308=-0x1.690bb485f8ff6p-4
3309=-0x1.690bb485f8ff6p-4
3310=-0x1.690bb485f8ff6p-4
3311=-0x1.690bb485f8ff6p-4
3312=-0x1.690bb485f8ff6p-4
3313=-0x1.690bb485f8ff6p-4
3314=-0x1.690bb485f8ff6p-4
3315=-0x1.690bb485f8ff6p-4
3316=-0x1.690bb485f8ff6p-4
3317=-0x1.690bb485f8ff6p-4
3318=-0x1.690bb485f8ff6p-4
3319=-0x1.690bb485f8ff6p-4
3320=-0x1.690bb485f8ff6p-4
3321=0x1.ac7fa08a20e51p+2
3322=-0x1.84e9448e25dap-8
3323=-0x1.84e9448e25dap-8
3324=-0x1.84e9448e25dap-8
3325=-0x1.84e9448e25dap-8
3326=0x1.42b3c73064f19p-4
3327=0x1.231bf88553a3ap-2
3328=-0x1.84e9448e25dap-8
3329=0x1.231bf88553a46p-2
3330=0x1.f941b497f3d4ep-4
3331=-0x1.84e9448e25dap-8
3332=-0x1.84e9448e25dap-8
3333=-0x1.84e9448e25dap-8
3334=-0x1.84e9448e25dap-8
3335=-0x1.84e9448e25dap-8
3336=-0x1.84e9448e25dap-8
3337=-0x1.84e9448e25dap-8
3338=-0x1.84e9448e25dap-8
3339=-0x1.84e9448e25dap-8
3340=0x1.42b3c73065101p-4
3341=0x1.231bf88553a24p-2
3342=-0x1.84e9448e25dap-8
3343=-0x1.84e9448e25dap-8
3344=0x1.42b3c73064f18p-4
3345=-0x1.84e9448e25dap-8
3346=-0x1.84e9448e25dap-8
3347=-0x1.84e9448e25dap-8
3348=-0x1.84e9448e25dap-8
3349=-0x1.84e9448e25dap-8
3350=-0x1.84e9448e25dap-8
3351=-0x1.84e9448e25dap-8
3352=-0x1.84e9448e25dap-8
3353=-0x1.84e9448e25dap-8
3354=-0x1.84e9448e25dap-8
3355=-0x1.84e9448e25dap-8
3356=-0x1.84e9448e25dap-8
3357=-0x1.84e9448e25dap-8
3358=-0x1.84e9448e25dap-8
3359=-0x1.84e9448e25dap-8
3360=-0x1.84e9448e25dap-8
3361=-0x1.84e9448e25dap-8
3362=-0x1.84e9448e25dap-8
3363=-0x1.84e9448e25dap-8
3364=-0x1.84e9448e25dap-8
3365=-0x1.84e9448e25dap-8
3366=-0x1.84e9448e25dap-8
3367=-0x1.84e9448e25dap-8
3368=-0x1.84e9448e25dap-8
3369=-0x1.84e9448e25dap-8
3370=-0x1.84e9448e25dap-8
3371=-0x1.84e9448e25dap-8
3372=-0x1.84e9448e25dap-8
3373=-0x1.84e9448e25dap-8
3374=-0x1.84e9448e25dap-8
3375=-0x1.84e9448e25dap-8
3376=-0x1.84e9448e25dap-8
3377=-0x1.84e9448e25dap-8
3378=-0x1.84e9448e25dap-8
3379=-0x1.84e9448e25dap-8
3380=-0x1.84e9448e25dap-8
3381=-0x1.84e9448e25dap-8
3382=-0x1.84e9448e25dap-8
3383=-0x1.84e9448e25dap-8
3384=-0x1.84e9448e25dap-8
3385=-0x1.84e9448e25dap-8
3386=-0x1.84e9448e25dap-8
3387=-0x1.84e9448e25dap-8
3388=-0x1.84e9448e25dap-8
3389=-0x1.84e9448e25dap-8
3390=-0x1.84e9448e25dap-8
3391=-0x1.84e9448e25dap-8
3392=-0x1.84e9448e25dap-8
3393=-0x1.84e9448e25dap-8
3394=-0x1.84e9448e25dap-8
3395=-0x1.84e9448e25dap-8
3396=-0x1.84e9448e25dap-8
3397=-0x1.84e9448e25dap-8
3398=-0x1.84e9448e25dap-8
3399=-0x1.84e9448e25dap-8
3400=-0x1.84e9448e25dap-8
3401=-0x1.84e9448e25dap-8
3402=0x1.ee2f531b458bep-3
3404=0x1.1dba1cb992583p+0
3408=0x1.0ebe8f600d881p-4
3483=0x1.f08adeb6bc4f6p+1
3484=-0x1.8fd1abd0638ecp-3
3485=0x1.4b3ebe2c5fb37p+1
3486=-0x1.8fd1abd0638ecp-3
3487=0x1.3f72cc95fcadep+2
3488=0x1.03b62ac24c856p+1
3489=-0x1.85556e60b40fep-4
3490=-0x1.8fd1abd0638ecp-3
3491=0x1.46b0b1a006e29p-1
3492=-0x1.2597e8c707146p-7
3493=-0x1.8fd1abd0638ecp-3
3494=0x1.1df26971f5d03p+0
3495=-0x1.8fd1abd0638ecp-3
3496=-0x1.8fd1abd0638ecp-3
3497=-0x1.8fd1abd0638ecp-3
3498=-0x1.85556e60b4656p-4
3499=-0x1.8fd1abd0638ecp-3
3500=-0x1.85556e60b44d4p-4
3501=0x1.7e872d21c7c76p+1
3502=-0x1.8fd1abd0638ecp-3
3503=-0x1.8fd1abd0638ecp-3
3504=-0x1.8fd1abd0638ecp-3
3505=-0x1.8fd1abd0638ecp-3
3506=-0x1.8fd1abd0638ecp-3
3507=-0x1.8fd1abd0638ecp-3
3508=-0x1.8fd1abd0638ecp-3
3509=-0x1.8fd1abd0638ecp-3
3510=0x1.eadb7cba741e4p-1
3511=0x1.28b2ef604ab81p-3
3512=-0x1.8fd1abd0638ecp-3
3513=-0x1.8fd1abd0638ecp-3
3514=-0x1.8fd1abd0638ecp-3
3515=-0x1.8fd1abd0638ecp-3
3516=-0x1.8fd1abd0638ecp-3
3517=-0x1.8fd1abd0638ecp-3
3518=-0x1.8fd1abd0638ecp-3
3519=-0x1.8fd1abd0638ecp-3
3520=-0x1.8fd1abd0638ecp-3
3521=-0x1.8fd1abd0638ecp-3
3522=0x1.6dc4aad523ebep+0
3523=-0x1.85556e60b4598p-4
3524=-0x1.8fd1abd0638ecp-3
3525=-0x1.8fd1abd0638ecp-3
3526=-0x1.8fd1abd0638ecp-3
3527=-0x1.8fd1abd0638ecp-3
3528=-0x1.2597e8c707264p-7
3529=-0x1.8fd1abd0638ecp-3
3530=-0x1.8fd1abd0638ecp-3
3531=-0x1.8fd1abd0638ecp-3
3532=-0x1.8fd1abd0638ecp-3
3533=-0x1.8fd1abd0638ecp-3
3534=-0x1.85556e60b43acp-4
3535=-0x1.8fd1abd0638ecp-3
3536=-0x1.8fd1abd0638ecp-3
3537=-0x1.8fd1abd0638ecp-3
3538=-0x1.85556e60b4221p-4
3539=-0x1.85556e60b40fap-4
3540=-0x1.8fd1abd0638ecp-3
3541=-0x1.2597e8c70c224p-7
3542=-0x1.8fd1abd0638ecp-3
3543=-0x1.8fd1abd0638ecp-3
3544=-0x1.8fd1abd0638ecp-3
3545=-0x1.8fd1abd0638ecp-3
3546=-0x1.8fd1abd0638ecp-3
3547=-0x1.8fd1abd0638ecp-3
3548=0x1.eadb7cba741f5p-1
3549=-0x1.8fd1abd0638ecp-3
3550=-0x1.85556e60b43acp-4
3551=-0x1.8fd1abd0638ecp-3
3552=-0x1.8fd1abd0638ecp-3
3553=-0x1.8fd1abd0638ecp-3
3554=-0x1.8fd1abd0638ecp-3
3555=-0x1.8fd1abd0638ecp-3
3556=-0x1.8fd1abd0638ecp-3
3557=-0x1.8fd1abd0638ecp-3
3558=-0x1.8fd1abd0638ecp-3
3559=-0x1.8fd1abd0638ecp-3
3560=-0x1.8fd1abd0638ecp-3
3561=-0x1.8fd1abd0638ecp-3
3562=-0x1.8fd1abd0638ecp-3
3563=-0x1.8fd1abd0638ecp-3
3564=0x1.429f1b98600bep+2
3565=-0x1.aa017771f1de7p-4
3566=-0x1.bd848d52d6b0dp-3
3567=-0x1.aa017771f1eefp-4
3568=-0x1.aa017771f1e3cp-4
3569=-0x1.bd848d52d6b0dp-3
3570=0x1.29563fe77ef5ep+2
3571=0x1.286fb5ee3d647p-2
3572=-0x1.bd848d52d6b0dp-3
3573=-0x1.bd848d52d6b0dp-3
3574=0x1.286fb5ee3be12p-2
3575=-0x1.bd848d52d6b0dp-3
3576=-0x1.bd848d52d6b0dp-3
3577=-0x1.bd848d52d6b0dp-3
3578=-0x1.bd848d52d6b0dp-3
3579=0x1.ed39983211719p-15
3580=-0x1.aa017771f1e3cp-4
3581=-0x1.bd848d52d6b0dp-3
3582=-0x1.bd848d52d6b0dp-3
3583=-0x1.bd848d52d6b0dp-3
3584=-0x1.bd848d52d6b0dp-3
3585=0x1.ed3998321218ep-15
3586=-0x1.aa017771f1df4p-4
3587=-0x1.bd848d52d6b0dp-3
3588=-0x1.aa017771f1e97p-4
3589=0x1.c1676dc9a8dbdp-3
3590=0x1.aa865b013a4aap-2
3591=0x1.ed39983211f2cp-15
3592=-0x1.bd848d52d6b0dp-3
3593=-0x1.bd848d52d6b0dp-3
3594=0x1.b9e8f44f77595p+1
3595=-0x1.bd848d52d6b0dp-3
3596=-0x1.aa017771f1df2p-4
3597=-0x1.bd848d52d6b0dp-3
3598=-0x1.bd848d52d6b0dp-3
3599=0x1.ed39983211d3p-15
3600=-0x1.bd848d52d6b0dp-3
3601=-0x1.bd848d52d6b0dp-3
3602=-0x1.bd848d52d6b0dp-3
3603=-0x1.bd848d52d6b0dp-3
3604=-0x1.bd848d52d6b0dp-3
3605=0x1.ed39983211d41p-15
3606=0x1.b7c96e7709469p+1
3607=-0x1.bd848d52d6b0dp-3
3608=0x1.9cc1a3b9b425ep-1
3609=-0x1.bd848d52d6b0dp-3
3610=-0x1.bd848d52d6b0dp-3
3611=-0x1.bd848d52d6b0dp-3
3612=-0x1.bd848d52d6b0dp-3
3613=-0x1.bd848d52d6b0dp-3
3614=-0x1.bd848d52d6b0dp-3
3615=-0x1.bd848d52d6b0dp-3
3616=-0x1.bd848d52d6b0dp-3
3617=-0x1.bd848d52d6b0dp-3
3618=-0x1.aa017771f1dfp-4
3619=0x1.286fb5ee3e6e4p-2
3620=-0x1.bd848d52d6b0dp-3
3621=-0x1.bd848d52d6b0dp-3
3622=-0x1.bd848d52d6b0dp-3
3623=-0x1.bd848d52d6b0dp-3
3624=-0x1.bd848d52d6b0dp-3
3625=-0x1.bd848d52d6b0dp-3
3626=-0x1.bd848d52d6b0dp-3
3627=-0x1.bd848d52d6b0dp-3
3628=0x1.ed39983211b43p-15
3629=-0x1.bd848d52d6b0dp-3
3630=-0x1.bd848d52d6b0dp-3
3631=-0x1.aa017771f1df3p-4
3632=-0x1.bd848d52d6b0dp-3
3633=-0x1.bd848d52d6b0dp-3
3634=0x1.c1676dc9a99dep-3
3635=-0x1.bd848d52d6b0dp-3
3636=-0x1.bd848d52d6b0dp-3
3637=-0x1.bd848d52d6b0dp-3
3638=-0x1.bd848d52d6b0dp-3
3639=-0x1.bd848d52d6b0dp-3
3640=-0x1.bd848d52d6b0dp-3
3641=-0x1.bd848d52d6b0dp-3
3642=-0x1.bd848d52d6b0dp-3
3643=0x1.ed3998321180ep-15
3644=-0x1.aa017771f1df2p-4
3645=0x1.27ab78fe80f9fp+2
3646=-0x1.0fc7a6d538824p-3
3647=0x1.d2e10c1e3ff75p+1
3648=-0x1.0fc7a6d538824p-3
3649=0x1.2ba80cfe81691p-5
3650=0x1.2ba80cfe8158ep-5
3651=-0x1.0fc7a6d538824p-3
3652=-0x1.0fc7a6d538824p-3
3653=0x1.2ba80cfe814b7p-5
3654=-0x1.0fc7a6d538824p-3
3656=0x1.bc49a6eae6beep-1
3658=-0x1.0fc7a6d538824p-3
3659=-0x1.0fc7a6d538824p-3
3660=-0x1.0fc7a6d538824p-3
3661=-0x1.0fc7a6d538824p-3
3662=-0x1.0fc7a6d538824p-3
3663=0x1.005ae19fedd8bp+1
3664=-0x1.0fc7a6d538824p-3
3665=-0x1.0fc7a6d538824p-3
3666=-0x1.0fc7a6d538824p-3
3668=-0x1.0fc7a6d538824p-3
3669=-0x1.0fc7a6d538824p-3
3670=-0x1.0fc7a6d538824p-3
3671=-0x1.0fc7a6d538824p-3
3672=-0x1.0fc7a6d538824p-3
3673=-0x1.0fc7a6d538824p-3
3674=-0x1.0fc7a6d538824p-3
3675=-0x1.0fc7a6d538824p-3
3676=-0x1.0fc7a6d538824p-3
3677=-0x1.0fc7a6d538824p-3
3678=-0x1.0fc7a6d538824p-3
3679=-0x1.0fc7a6d538824p-3
3680=-0x1.0fc7a6d538824p-3
3681=-0x1.0fc7a6d538824p-3
3683=-0x1.0fc7a6d538824p-3
3684=-0x1.0fc7a6d538824p-3
3685=-0x1.0fc7a6d538824p-3
3686=-0x1.0fc7a6d538824p-3
3688=0x1.9f75de6cc6043p-3
3689=-0x1.0fc7a6d538824p-3
3690=-0x1.0fc7a6d538824p-3
3691=-0x1.0fc7a6d538824p-3
3692=-0x1.0fc7a6d538824p-3
3693=-0x1.0fc7a6d538824p-3
3694=-0x1.0fc7a6d538824p-3
3695=-0x1.0fc7a6d538824p-3
3696=-0x1.0fc7a6d538824p-3
3697=-0x1.0fc7a6d538824p-3
3698=-0x1.0fc7a6d538824p-3
3699=-0x1.0fc7a6d538824p-3
3700=-0x1.0fc7a6d538824p-3
3702=-0x1.0fc7a6d538824p-3
3703=-0x1.0fc7a6d538824p-3
3704=-0x1.0fc7a6d538824p-3
3705=-0x1.0fc7a6d538824p-3
3706=-0x1.0fc7a6d538824p-3
3707=-0x1.0fc7a6d538824p-3
3708=-0x1.0fc7a6d538824p-3
3709=-0x1.0fc7a6d538824p-3
3710=-0x1.0fc7a6d538824p-3
3711=-0x1.0fc7a6d538824p-3
3712=-0x1.0fc7a6d538824p-3
3713=-0x1.0fc7a6d538824p-3
3715=-0x1.0fc7a6d538824p-3
3716=-0x1.0fc7a6d538824p-3
3717=-0x1.0fc7a6d538824p-3
3718=-0x1.0fc7a6d538824p-3
3719=-0x1.0fc7a6d538824p-3
3720=-0x1.0fc7a6d538824p-3
3721=-0x1.0fc7a6d538824p-3
3722=-0x1.0fc7a6d538824p-3
3723=-0x1.0fc7a6d538824p-3
3724=-0x1.0fc7a6d538824p-3
3725=-0x1.0fc7a6d538824p-3
3726=0x1.5fb8b4511323ep-4
3807=0x1.384207b42cf78p+2
3808=-0x1.1baffcdd04c4ep-2
3809=0x1.ce3480af037a6p+1
3810=-0x1.314d4114bf0e3p-4
3811=-0x1.1baffcdd04c4ep-2
3812=0x1.afed158b7aebdp+1
3813=0x1.7a0cfd40c4e83p+0
3814=-0x1.314d4114bf4d5p-4
3815=-0x1.1baffcdd04c4ep-2
3816=-0x1.1baffcdd04c4ep-2
3817=0x1.529e6aa7a02d6p+0
3818=0x1.e8643fd500ac9p+1
3819=-0x1.1baffcdd04c4ep-2
3820=-0x1.1baffcdd04c4ep-2
3821=0x1.1ecc6d9a88fb4p-7
3822=-0x1.1baffcdd04c4ep-2
3823=-0x1.1baffcdd04c4ep-2
3824=0x1.02c1b81fc6ea2p+0
3825=0x1.c7c846c7142c8p+0
3826=-0x1.1baffcdd04c4ep-2
3827=-0x1.1baffcdd04c4ep-2
3828=0x1.1ecc6d9a88d7ep-7
3829=0x1.1ecc6d9a89912p-7
3830=-0x1.1baffcdd04c4ep-2
3831=-0x1.1baffcdd04c4ep-2
3832=-0x1.1baffcdd04c4ep-2
3833=-0x1.1baffcdd04c4ep-2
3834=0x1.1ecc6d9a88bbep-7
3835=-0x1.1baffcdd04c4ep-2
3836=-0x1.1baffcdd04c4ep-2
3837=-0x1.1baffcdd04c4ep-2
3838=-0x1.1baffcdd04c4ep-2
3839=-0x1.1baffcdd04c4ep-2
3840=-0x1.1baffcdd04c4ep-2
3841=-0x1.1baffcdd04c4ep-2
3842=-0x1.1baffcdd04c4ep-2
3843=-0x1.1baffcdd04c4ep-2
3844=-0x1.1baffcdd04c4ep-2
3845=-0x1.1baffcdd04c4ep-2
3846=-0x1.1baffcdd04c4ep-2
3847=-0x1.1baffcdd04c4ep-2
3848=-0x1.1baffcdd04c4ep-2
3849=-0x1.1baffcdd04c4ep-2
3850=-0x1.1baffcdd04c4ep-2
3851=-0x1.1baffcdd04c4ep-2
3852=-0x1.1baffcdd04c4ep-2
3853=-0x1.1baffcdd04c4ep-2
3854=-0x1.1baffcdd04c4ep-2
3855=-0x1.1baffcdd04c4ep-2
3856=-0x1.1baffcdd04c4ep-2
3857=-0x1.1baffcdd04c4ep-2
3858=0x1.1ecc6d9a87f76p-7
3859=-0x1.1baffcdd04c4ep-2
3860=-0x1.1baffcdd04c4ep-2
3861=-0x1.1baffcdd04c4ep-2
3862=-0x1.314d4114bf0f7p-4
3863=-0x1.314d4114bf0f3p-4
3864=-0x1.1baffcdd04c4ep-2
3865=-0x1.1baffcdd04c4ep-2
3866=-0x1.1baffcdd04c4ep-2
3867=-0x1.1baffcdd04c4ep-2
3868=-0x1.1baffcdd04c4ep-2
3869=-0x1.1baffcdd04c4ep-2
3870=-0x1.1baffcdd04c4ep-2
3871=-0x1.1baffcdd04c4ep-2
3872=0x1.1ecc6d9a88679p-7
3873=-0x1.1baffcdd04c4ep-2
3874=-0x1.1baffcdd04c4ep-2
3875=-0x1.1baffcdd04c4ep-2
3876=-0x1.1baffcdd04c4ep-2
3877=-0x1.1baffcdd04c4ep-2
3878=-0x1.1baffcdd04c4ep-2
3879=-0x1.1baffcdd04c4ep-2
3880=-0x1.1baffcdd04c4ep-2
3881=-0x1.1baffcdd04c4ep-2
3882=-0x1.1baffcdd04c4ep-2
3883=-0x1.1baffcdd04c4ep-2
3884=-0x1.1baffcdd04c4ep-2
3885=-0x1.1baffcdd04c4ep-2
3886=-0x1.1baffcdd04c4ep-2
3887=-0x1.1baffcdd04c4ep-2
3888=0x1.386d22d69960cp+3
3889=-0x1.1aa813edfc3ap-4
3890=-0x1.2d9add9ed0e36p-3
3891=-0x1.2d9add9ed0e36p-3
3892=-0x1.2d9add9ed0e36p-3
3893=-0x1.2d9add9ed0e36p-3
3894=-0x1.2d9add9ed0e36p-3
3895=-0x1.2d9add9ed0e36p-3
3896=0x1.3d6869d8958b1p-2
3897=-0x1.2d9add9ed0e36p-3
3898=-0x1.2d9add9ed0e36p-3
3899=-0x1.2d9add9ed0e36p-3
3900=0x1.635eec3b7bd8ep-5
3901=0x1.57f59685b9c7bp+1
3902=-0x1.2d9add9ed0e36p-3
3903=-0x1.2d9add9ed0e36p-3
3904=-0x1.2d9add9ed0e36p-3
3905=-0x1.2d9add9ed0e36p-3
3906=-0x1.2d9add9ed0e36p-3
3907=0x1.635eec3b7dd53p-5
3908=-0x1.2d9add9ed0e36p-3
3909=-0x1.2d9add9ed0e36p-3
3910=-0x1.2d9add9ed0e36p-3
3911=-0x1.2d9add9ed0e36p-3
3912=-0x1.2d9add9ed0e36p-3
3913=-0x1.2d9add9ed0e36p-3
3914=-0x1.2d9add9ed0e36p-3
3915=-0x1.2d9add9ed0e36p-3
3916=0x1.635eec3b7a7a8p-5
3917=-0x1.2d9add9ed0e36p-3
3918=-0x1.2d9add9ed0e36p-3
3919=-0x1.2d9add9ed0e36p-3
3920=-0x1.2d9add9ed0e36p-3
3921=-0x1.2d9add9ed0e36p-3
3922=-0x1.2d9add9ed0e36p-3
3923=-0x1.2d9add9ed0e36p-3
3924=-0x1.2d9add9ed0e36p-3
3925=-0x1.2d9add9ed0e36p-3
3926=-0x1.2d9add9ed0e36p-3
3927=-0x1.2d9add9ed0e36p-3
3928=-0x1.2d9add9ed0e36p-3
3929=-0x1.2d9add9ed0e36p-3
3930=-0x1.2d9add9ed0e36p-3
3931=-0x1.2d9add9ed0e36p-3
3932=-0x1.2d9add9ed0e36p-3
3933=-0x1.2d9add9ed0e36p-3
3934=-0x1.2d9add9ed0e36p-3
3935=-0x1.2d9add9ed0e36p-3
3936=-0x1.2d9add9ed0e36p-3
3937=-0x1.1aa813edfc3a2p-4
3938=-0x1.2d9add9ed0e36p-3
3939=-0x1.2d9add9ed0e36p-3
3940=-0x1.1aa813edfd3f5p-4
3941=0x1.2aa1e821a871cp-4
3942=-0x1.2d9add9ed0e36p-3
3943=-0x1.2d9add9ed0e36p-3
3944=-0x1.2d9add9ed0e36p-3
3945=0x1.2aa1e821a5794p-4
3946=-0x1.2d9add9ed0e36p-3
3947=-0x1.2d9add9ed0e36p-3
3948=-0x1.2d9add9ed0e36p-3
3949=-0x1.2d9add9ed0e36p-3
3950=0x1.f4206de52c97cp+1
3951=-0x1.2d9add9ed0e36p-3
3952=-0x1.2d9add9ed0e36p-3
3953=-0x1.2d9add9ed0e36p-3
3954=-0x1.2d9add9ed0e36p-3
3955=-0x1.2d9add9ed0e36p-3
3956=-0x1.2d9add9ed0e36p-3
3957=-0x1.2d9add9ed0e36p-3
3958=-0x1.2d9add9ed0e36p-3
3959=-0x1.2d9add9ed0e36p-3
3960=-0x1.2d9add9ed0e36p-3
3961=-0x1.2d9add9ed0e36p-3
3962=0x1.2aa1e821a81eap-4
3963=-0x1.2d9add9ed0e36p-3
3964=-0x1.2d9add9ed0e36p-3
3965=-0x1.2d9add9ed0e36p-3
3966=-0x1.2d9add9ed0e36p-3
3967=-0x1.2d9add9ed0e36p-3
3968=-0x1.2d9add9ed0e36p-3
3969=0x1.1d7949220b9d5p+3
3971=0x1.15f489ae1626p-6
3977=0x1.15f489ae16269p-6
4050=0x1.50b8505539823p+2
4051=0x1.f4e9e182ebc47p-6
4052=0x1.f4d119397be6ap+1
4053=-0x1.2136eef5dbc59p-3
4054=-0x1.2136eef5dbc59p-3
4056=0x1.52c8aed0a8fa8p+0
4057=-0x1.2136eef5dbc59p-3
4058=0x1.591f7e4b8bf01p-2
4059=-0x1.2136eef5dbc59p-3
4061=0x1.f4e9e182ebb93p-6
4064=-0x1.2136eef5dbc59p-3
4065=-0x1.2136eef5dbc59p-3
4066=-0x1.2136eef5dbc59p-3
4067=-0x1.2136eef5dbc59p-3
4068=-0x1.2136eef5dbc59p-3
4070=-0x1.2136eef5dbc59p-3
4071=-0x1.2136eef5dbc59p-3
4072=-0x1.2136eef5dbc59p-3
4073=-0x1.2136eef5dbc59p-3
4074=-0x1.2136eef5dbc59p-3
4076=-0x1.2136eef5dbc59p-3
4077=-0x1.2136eef5dbc59p-3
4078=0x1.018bc0080a9abp-1
4079=-0x1.2136eef5dbc59p-3
4080=0x1.f4e9e182ebbfdp-6
4082=-0x1.2136eef5dbc59p-3
4083=-0x1.2136eef5dbc59p-3
4084=-0x1.2136eef5dbc59p-3
4085=-0x1.2136eef5dbc59p-3
4086=-0x1.2136eef5dbc59p-3
4087=-0x1.2136eef5dbc59p-3
4088=-0x1.2136eef5dbc59p-3
4089=-0x1.2136eef5dbc59p-3
4090=-0x1.2136eef5dbc59p-3
4091=0x1.f4e9e182ebbc5p-6
4092=-0x1.2136eef5dbc59p-3
4093=-0x1.2136eef5dbc59p-3
4094=-0x1.2136eef5dbc59p-3
4095=-0x1.2136eef5dbc59p-3
4096=-0x1.2136eef5dbc59p-3
4097=-0x1.2136eef5dbc59p-3
4098=-0x1.2136eef5dbc59p-3
4099=-0x1.2136eef5dbc59p-3
4100=-0x1.2136eef5dbc59p-3
4101=-0x1.2136eef5dbc59p-3
4102=-0x1.2136eef5dbc59p-3
4103=-0x1.2136eef5dbc59p-3
4104=-0x1.2136eef5dbc59p-3
4105=-0x1.2136eef5dbc59p-3
4106=-0x1.2136eef5dbc59p-3
4107=-0x1.2136eef5dbc59p-3
4108=-0x1.2136eef5dbc59p-3
4109=-0x1.2136eef5dbc59p-3
4110=-0x1.2136eef5dbc59p-3
4111=-0x1.2136eef5dbc59p-3
4112=-0x1.2136eef5dbc59p-3
4113=-0x1.2136eef5dbc59p-3
4114=-0x1.2136eef5dbc59p-3
4115=-0x1.2136eef5dbc59p-3
4116=-0x1.2136eef5dbc59p-3
4117=-0x1.2136eef5dbc59p-3
4118=-0x1.2136eef5dbc59p-3
4119=-0x1.2136eef5dbc59p-3
4120=-0x1.2136eef5dbc59p-3
4121=-0x1.2136eef5dbc59p-3
4122=-0x1.2136eef5dbc59p-3
4123=-0x1.2136eef5dbc59p-3
4124=-0x1.2136eef5dbc59p-3
4125=-0x1.2136eef5dbc59p-3
4126=-0x1.2136eef5dbc59p-3
4127=-0x1.2136eef5dbc59p-3
4128=-0x1.2136eef5dbc59p-3
4129=-0x1.2136eef5dbc59p-3
4130=-0x1.2136eef5dbc59p-3
4131=0x1.0fb82ee8dd866p+2
4132=-0x1.0a6af26561ee8p-3
4133=0x1.276f956e52707p+1
4134=-0x1.d298515192ea4p-3
4135=0x1.53d5125f4a3d6p+2
4136=0x1.489449669d688p+1
4137=-0x1.d216d0c9135e9p-6
4138=-0x1.d298515192ea4p-3
4139=0x1.242eb53582d6ap+1
4140=-0x1.d298515192ea4p-3
4141=-0x1.0a6af26562688p-3
4142=0x1.489449669dacep+1
4143=-0x1.0a6af26562688p-3
4144=-0x1.0a6af265623a8p-3
4145=-0x1.d298515192ea4p-3
4146=-0x1.0a6af26561ee8p-3
4147=-0x1.d298515192ea4p-3
4148=-0x1.d216d0c9148eep-6
4149=0x1.276f956e525edp+1
4150=-0x1.d298515192ea4p-3
4151=-0x1.d298515192ea4p-3
4152=-0x1.0a6af265622b4p-3
4153=-0x1.d298515192ea4p-3
4154=-0x1.d298515192ea4p-3
4155=-0x1.d298515192ea4p-3
4156=-0x1.d298515192ea4p-3
4157=-0x1.d298515192ea4p-3
4158=0x1.00dda7728f084p+0
4159=-0x1.d298515192ea4p-3
4160=-0x1.d298515192ea4p-3
4161=-0x1.d298515192ea4p-3
4162=-0x1.d298515192ea4p-3
4163=-0x1.d298515192ea4p-3
4164=-0x1.d298515192ea4p-3
4165=-0x1.d298515192ea4p-3
4166=-0x1.d298515192ea4p-3
4167=-0x1.d298515192ea4p-3
4168=-0x1.d298515192ea4p-3
4169=-0x1.d298515192ea4p-3
4170=-0x1.d216d0c914337p-6
4171=-0x1.d298515192ea4p-3
4172=-0x1.d298515192ea4p-3
4173=0x1.23b31f96502d5p-1
4174=-0x1.d298515192ea4p-3
4175=-0x1.d298515192ea4p-3
