#mdl#2#10557
#rdr#6/0/0
10:u0%x[-2,0],
10:b1%x[-1,0],
10:u2%x[-2,0],
9:*3%x[1,0],
9:*4%x[1,0],
10:u5%x[-2,0],
#qrk#81
1:O,
15:B-cost_relative,
19:B-fromloc.city_name,
20:B-fromloc.state_code,
17:B-toloc.city_name,
22:B-depart_date.day_name,
27:B-depart_time.period_of_day,
27:B-depart_date.date_relative,
14:B-airline_name,
13:B-flight_time,
27:B-depart_time.time_relative,
18:B-depart_time.time,
12:B-flight_mod,
14:B-airline_code,
20:B-fromloc.state_name,
19:B-stoploc.city_name,
11:B-city_name,
24:B-depart_date.day_number,
24:B-depart_date.month_name,
9:B-connect,
12:B-round_trip,
24:B-depart_time.period_mod,
22:B-fromloc.airport_name,
13:B-flight_stop,
12:B-state_name,
15:B-aircraft_code,
18:B-toloc.state_name,
18:B-arrive_time.time,
12:B-class_type,
15:B-flight_number,
27:B-arrive_time.period_of_day,
16:B-transport_type,
14:B-airport_name,
8:B-return,
18:B-depart_date.year,
15:B-period_of_day,
15:B-time_relative,
6:B-time,
13:B-fare_amount,
24:B-arrive_date.month_name,
24:B-arrive_date.day_number,
6:B-meal,
27:B-arrive_time.time_relative,
18:B-meal_description,
12:B-state_code,
9:B-economy,
24:B-return_date.month_name,
24:B-return_date.day_number,
20:B-toloc.airport_name,
5:B-mod,
13:B-flight_days,
28:B-depart_date.today_relative,
18:B-restriction_code,
17:B-fare_basis_code,
27:B-arrive_date.date_relative,
22:B-arrive_date.day_name,
4:B-or,
11:B-meal_code,
24:B-arrive_time.start_time,
22:B-arrive_time.end_time,
22:B-fromloc.airport_code,
20:B-toloc.airport_code,
14:B-airport_code,
24:B-arrive_time.period_mod,
18:B-toloc.state_code,
24:B-depart_time.start_time,
22:B-depart_time.end_time,
16:B-today_relative,
28:B-arrive_date.today_relative,
10:B-day_name,
20:B-stoploc.state_code,
27:B-return_date.date_relative,
22:B-stoploc.airport_name,
22:B-return_date.day_name,
11:B-days_code,
12:B-month_name,
12:B-day_number,
20:B-toloc.country_name,
28:B-return_date.today_relative,
24:B-return_time.period_mod,
27:B-return_time.period_of_day,
#qrk#5601
6:u0_x-2,
6:b1_x-1,
6:u2_x-2,
6:*3like,
6:*4like,
6:u5_x-2,
6:u0_x-1,
5:b1i'd,
6:u2_x-1,
4:*3to,
4:*4to,
6:u5_x-1,
5:u0i'd,
6:b1like,
5:u2i'd,
6:*3find,
6:*4find,
5:u5i'd,
6:u0like,
4:b1to,
6:u2like,
5:*3the,
5:*4the,
6:u5like,
4:u0to,
6:b1find,
4:u2to,
10:*3cheapest,
10:*4cheapest,
4:u5to,
6:u0find,
5:b1the,
6:u2find,
8:*3flight,
8:*4flight,
6:u5find,
5:u0the,
10:b1cheapest,
5:u2the,
6:*3from,
6:*4from,
5:u5the,
10:u0cheapest,
8:b1flight,
10:u2cheapest,
12:*3washington,
12:*4washington,
10:u5cheapest,
8:u0flight,
6:b1from,
8:u2flight,
4:*3dc,
4:*4dc,
8:u5flight,
6:u0from,
12:b1washington,
6:u2from,
6:u5from,
12:u0washington,
4:b1dc,
12:u2washington,
9:*3atlanta,
9:*4atlanta,
12:u5washington,
4:u0dc,
4:u2dc,
6:*3_x+1,
6:*4_x+1,
4:u5dc,
11:*3traveling,
11:*4traveling,
5:b1i'm,
5:u0i'm,
11:b1traveling,
5:u2i'm,
8:*3dallas,
8:*4dallas,
5:u5i'm,
11:u0traveling,
11:u2traveling,
11:u5traveling,
8:b1dallas,
14:*3philadelphia,
14:*4philadelphia,
8:u0dallas,
8:u2dallas,
8:u5dallas,
6:*3also,
6:*4also,
3:b1i,
6:*3need,
6:*4need,
3:u0i,
6:b1also,
3:u2i,
3:u5i,
6:u0also,
6:b1need,
6:u2also,
4:*3go,
4:*4go,
6:u5also,
6:u0need,
6:u2need,
6:u5need,
4:b1go,
15:*3san-francisco,
15:*4san-francisco,
4:u0go,
4:u2go,
4:*3on,
4:*4on,
4:u5go,
15:b1san-francisco,
11:*3wednesday,
11:*4wednesday,
15:u0san-francisco,
4:b1on,
15:u2san-francisco,
9:*3evening,
9:*4evening,
15:u5san-francisco,
4:u0on,
11:b1wednesday,
4:u2on,
4:u5on,
11:u0wednesday,
9:b1evening,
11:u2wednesday,
11:u5wednesday,
9:u0evening,
9:u2evening,
9:u5evening,
5:*3you,
5:*4you,
7:b1thank,
3:*3i,
3:*4i,
7:u0thank,
5:b1you,
7:u2thank,
7:u5thank,
5:u0you,
5:u2you,
5:u5you,
8:*3travel,
8:*4travel,
6:*3next,
6:*4next,
8:b1travel,
8:u0travel,
6:b1next,
8:u2travel,
8:u5travel,
6:u0next,
6:u2next,
6:u5next,
5:*3fly,
5:*4fly,
22:*3continental-airlines,
22:*4continental-airlines,
5:b1fly,
9:*3between,
9:*4between,
5:u0fly,
22:b1continental-airlines,
5:u2fly,
8:*3boston,
8:*4boston,
5:u5fly,
22:u0continental-airlines,
9:b1between,
22:u2continental-airlines,
5:*3and,
5:*4and,
22:u5continental-airlines,
9:u0between,
8:b1boston,
9:u2between,
9:u5between,
8:u0boston,
5:b1and,
8:u2boston,
8:u5boston,
6:*3tell,
6:*4tell,
8:b1please,
4:*3me,
4:*4me,
8:u0please,
6:b1tell,
8:u2please,
8:u5please,
6:u0tell,
4:b1me,
6:u2tell,
9:*3flights,
9:*4flights,
6:u5tell,
4:u0me,
4:u2me,
4:u5me,
9:b1flights,
9:u0flights,
9:u2flights,
9:u5flights,
5:u0and,
14:b1philadelphia,
5:u2and,
10:*3thursday,
10:*4thursday,
5:u5and,
14:u0philadelphia,
14:u2philadelphia,
14:u5philadelphia,
7:*3would,
7:*4would,
7:b1would,
7:u0would,
7:u2would,
7:u5would,
6:*3fare,
6:*4fare,
6:b1fare,
6:u0fare,
6:u2fare,
6:u5fare,
9:b1atlanta,
9:u0atlanta,
9:u2atlanta,
9:u5atlanta,
3:*3a,
3:*4a,
3:b1a,
3:u0a,
3:u2a,
3:u5a,
6:*3give,
6:*4give,
6:b1give,
6:u0give,
6:u2give,
14:*3flight-times,
14:*4flight-times,
6:u5give,
14:b1flight-times,
14:u0flight-times,
14:u2flight-times,
14:u5flight-times,
11:*3baltimore,
11:*4baltimore,
4:*3in,
4:*4in,
11:b1baltimore,
11:u0baltimore,
4:b1in,
11:u2baltimore,
9:*3morning,
9:*4morning,
11:u5baltimore,
4:u0in,
4:u2in,
8:*3before,
8:*4before,
4:u5in,
9:b1morning,
3:*38,
3:*48,
9:u0morning,
8:b1before,
9:u2morning,
9:u5morning,
8:*3please,
8:*4please,
23:*3times-of-your-flights,
23:*4times-of-your-flights,
23:b1times-of-your-flights,
23:u0times-of-your-flights,
23:u2times-of-your-flights,
23:u5times-of-your-flights,
11:*38-o'clock,
11:*48-o'clock,
9:*3leaving,
9:*4leaving,
9:b1leaving,
9:u0leaving,
9:u2leaving,
9:u5leaving,
6:b1what,
4:*3do,
4:*4do,
6:u0what,
6:u2what,
6:u5what,
4:b1do,
6:*3have,
6:*4have,
4:u0do,
4:u2do,
4:u5do,
6:b1have,
8:*3denver,
8:*4denver,
6:u0have,
6:u2have,
6:u5have,
8:b1denver,
10:*3arriving,
10:*4arriving,
8:u0denver,
8:u2denver,
8:u5denver,
10:b1arriving,
10:u0arriving,
10:u2arriving,
10:u5arriving,
4:*3is,
4:*4is,
6:*3your,
6:*4your,
4:b1is,
6:*3last,
6:*4last,
4:u0is,
6:b1your,
4:u2is,
4:u5is,
6:u0your,
6:b1last,
6:u2your,
6:u5your,
6:u0last,
6:u2last,
6:u5last,
7:*3there,
7:*4there,
7:b1there,
7:u0there,
7:u2there,
7:u5there,
19:*3american-airlines,
19:*4american-airlines,
6:b1does,
6:u0does,
19:b1american-airlines,
6:u2does,
6:u5does,
19:u0american-airlines,
19:u2american-airlines,
19:u5american-airlines,
6:*3does,
6:*4does,
6:*3time,
6:*4time,
6:b1time,
10:*3earliest,
10:*4earliest,
6:u0time,
6:u2time,
6:u5time,
10:b1earliest,
10:u0earliest,
10:u2earliest,
10:u5earliest,
4:*3of,
4:*4of,
4:b1of,
4:u0of,
4:u2of,
4:u5of,
7:b1could,
7:u0could,
7:u2could,
7:u5could,
13:*3information,
13:*4information,
12:*3concerning,
12:*4concerning,
13:b1information,
13:u0information,
12:b1concerning,
13:u2information,
13:u5information,
12:u0concerning,
12:u2concerning,
12:u5concerning,
5:*3one,
5:*4one,
5:b1one,
5:u0one,
5:u2one,
5:u5one,
4:*3as,
4:*4as,
10:*3possible,
10:*4possible,
4:b1as,
18:*3american-airline,
18:*4american-airline,
18:b1american-airline,
18:u0american-airline,
18:u2american-airline,
18:u5american-airline,
15:*3early-morning,
15:*4early-morning,
17:*3times-of-flight,
17:*4times-of-flight,
15:b1early-morning,
5:*3twa,
5:*4twa,
5:b1twa,
5:u0twa,
5:u2twa,
5:u5twa,
12:*3fort-worth,
12:*4fort-worth,
7:*3texas,
7:*4texas,
12:b1fort-worth,
12:u0fort-worth,
7:b1texas,
12:u2fort-worth,
12:u5fort-worth,
7:u0texas,
7:u2texas,
7:u5texas,
12:b1interested,
12:u0interested,
12:u2interested,
12:u5interested,
12:*3interested,
12:*4interested,
6:*3that,
6:*4that,
6:b1that,
6:*3stop,
6:*4stop,
6:u0that,
6:u2that,
6:u5that,
6:b1stop,
6:u0stop,
6:u2stop,
6:u5stop,
12:*3pittsburgh,
12:*4pittsburgh,
5:*3for,
5:*4for,
5:b1for,
5:u0for,
5:u2for,
5:u5for,
12:b1pittsburgh,
12:u0pittsburgh,
12:u2pittsburgh,
12:u5pittsburgh,
6:*3want,
6:*4want,
6:b1want,
6:u0want,
6:u2want,
6:u5want,
8:*3monday,
8:*4monday,
10:*3airlines,
10:*4airlines,
10:b1airlines,
10:u0airlines,
10:u2airlines,
10:u5airlines,
8:*3ground,
8:*4ground,
16:*3transportation,
16:*4transportation,
8:b1ground,
8:u0ground,
16:b1transportation,
8:u2ground,
8:u5ground,
16:u0transportation,
16:u2transportation,
16:u5transportation,
9:*3airport,
9:*4airport,
9:b1airport,
9:u0airport,
9:u2airport,
9:u5airport,
10:*3downtown,
10:*4downtown,
9:*3tuesday,
9:*4tuesday,
14:*3twenty-first,
14:*4twenty-first,
11:b1repeating,
11:u0repeating,
11:u2repeating,
11:u5repeating,
6:*310am,
6:*410am,
6:*3what,
6:*4what,
8:u0before,
6:b110am,
8:u2before,
6:*3type,
6:*4type,
8:u5before,
6:u010am,
6:u210am,
6:u510am,
6:b1type,
10:*3aircraft,
10:*4aircraft,
6:u0type,
6:u2type,
6:u5type,
10:b1aircraft,
6:*3used,
6:*4used,
10:u0aircraft,
10:u2aircraft,
10:u5aircraft,
8:*3flying,
8:*4flying,
8:b1flying,
8:u0flying,
8:u2flying,
8:u5flying,
17:*3united-airlines,
17:*4united-airlines,
17:b1united-airlines,
17:u0united-airlines,
17:u2united-airlines,
17:u5united-airlines,
7:*3right,
7:*4right,
5:b1all,
5:u0all,
7:b1right,
5:u2all,
5:u5all,
7:u0right,
7:u2right,
5:*3let,
5:*4let,
7:u5right,
5:b1let,
6:*3know,
6:*4know,
5:u0let,
5:u2let,
5:u5let,
6:b1know,
6:u0know,
6:u2know,
6:u5know,
7:*3using,
7:*4using,
7:b1using,
7:u0using,
7:u2using,
7:u5using,
6:*3they,
6:*4they,
5:*3use,
5:*4use,
6:b1they,
6:u0they,
5:b1use,
6:u2they,
7:*3these,
7:*4these,
6:u5they,
5:u0use,
5:u2use,
5:u5use,
7:b1these,
7:u0these,
7:u2these,
4:*310,
4:*410,
7:u5these,
4:b110,
4:u010,
4:u210,
4:u510,
6:*3i'll,
6:*4i'll,
6:b1well,
5:*3try,
5:*4try,
6:u0well,
6:b1i'll,
6:u2well,
6:u5well,
6:u0i'll,
5:b1try,
6:u2i'll,
6:u5i'll,
5:u0try,
5:u2try,
5:u5try,
6:*3kind,
6:*4kind,
6:b1kind,
6:u0kind,
6:u2kind,
6:u5kind,
7:*3flies,
7:*4flies,
7:b1flies,
7:u0flies,
7:u2flies,
7:u5flies,
12:*310-o'clock,
12:*410-o'clock,
12:b110-o'clock,
12:u010-o'clock,
12:u210-o'clock,
12:u510-o'clock,
11:*3september,
11:*4september,
11:*3twentieth,
11:*4twentieth,
11:b1september,
11:u0september,
11:b1twentieth,
11:u2september,
11:u5september,
11:u0twentieth,
11:u2twentieth,
11:u5twentieth,
10:*3stopover,
10:*4stopover,
10:b1stopover,
10:u0stopover,
10:u2stopover,
10:u5stopover,
5:*3are,
5:*4are,
5:b1are,
5:u0are,
5:u2are,
5:u5are,
4:*3an,
4:*4an,
4:b1an,
4:u0an,
4:u2an,
4:u5an,
12:*3connecting,
12:*4connecting,
6:*3wish,
6:*4wish,
6:b1wish,
6:u0wish,
6:u2wish,
6:u5wish,
9:*3airline,
9:*4airline,
9:b1airline,
9:u0airline,
9:u2airline,
9:u5airline,
7:*3plane,
7:*4plane,
7:b1plane,
7:u0plane,
7:u2plane,
7:u5plane,
9:*3one-way,
9:*4one-way,
9:b1one-way,
9:u0one-way,
9:u2one-way,
9:u5one-way,
11:*3available,
11:*4available,
4:*3at,
4:*4at,
11:b1available,
10:*3noontime,
10:*4noontime,
11:u0available,
4:b1at,
11:u2available,
11:u5available,
4:u0at,
10:b1noontime,
4:u2at,
4:u5at,
10:u0noontime,
10:u2noontime,
10:u5noontime,
8:*3around,
8:*4around,
8:b1around,
8:u0around,
8:u2around,
8:u5around,
16:*3delta-airlines,
16:*4delta-airlines,
16:b1delta-airlines,
16:u0delta-airlines,
16:u2delta-airlines,
16:u5delta-airlines,
18:*3eastern-airlines,
18:*4eastern-airlines,
18:b1eastern-airlines,
18:u0eastern-airlines,
18:u2eastern-airlines,
18:u5eastern-airlines,
7:*3early,
7:*4early,
4:u0as,
7:b1early,
4:u2as,
4:u5as,
7:u0early,
7:u2early,
7:u5early,
10:b1possible,
10:u0possible,
10:u2possible,
5:*3day,
5:*4day,
10:u5possible,
5:b1day,
5:u0day,
5:u2day,
5:u5day,
6:*3will,
6:*4will,
8:*3arrive,
8:*4arrive,
6:b1will,
6:u0will,
8:b1arrive,
6:u2will,
6:u5will,
8:u0arrive,
8:u2arrive,
8:u5arrive,
16:*3denver-airport,
16:*4denver-airport,
16:b1denver-airport,
16:u0denver-airport,
16:u2denver-airport,
16:u5denver-airport,
10:b1downtown,
9:*3nonstop,
9:*4nonstop,
9:b1nonstop,
9:u0nonstop,
9:u2nonstop,
9:u5nonstop,
8:*3repeat,
8:*4repeat,
8:b1repeat,
8:u0repeat,
8:u2repeat,
12:*3departures,
12:*4departures,
8:u5repeat,
12:b1departures,
12:u0departures,
12:u2departures,
8:*3august,
8:*4august,
12:u5departures,
8:b1monday,
12:*3nineteenth,
12:*4nineteenth,
8:u0monday,
8:b1august,
8:u2monday,
8:u5monday,
8:u0august,
12:b1nineteenth,
8:u2august,
8:u5august,
12:u0nineteenth,
12:u2nineteenth,
12:u5nineteenth,
6:*3rate,
6:*4rate,
6:b1rate,
6:u0rate,
6:u2rate,
6:u5rate,
5:*3any,
5:*4any,
5:b1any,
5:u0any,
5:u2any,
8:*3us-air,
8:*4us-air,
5:u5any,
8:b1us-air,
8:u0us-air,
8:u2us-air,
8:u5us-air,
7:*3going,
7:*4going,
7:b1we're,
7:u0we're,
7:b1going,
7:u2we're,
7:u5we're,
7:u0going,
7:u2going,
7:u5going,
5:*3819,
5:*4819,
5:b1819,
5:u0819,
5:u2819,
5:u5819,
6:*3take,
6:*4take,
6:b1take,
6:u0take,
6:u2take,
6:u5take,
11:*39-o'clock,
11:*49-o'clock,
11:b19-o'clock,
11:u09-o'clock,
11:u29-o'clock,
11:u59-o'clock,
5:*3out,
5:*4out,
5:b1out,
5:u0out,
5:u2out,
5:u5out,
4:*3be,
4:*4be,
9:*3staying,
9:*4staying,
4:b1be,
4:u0be,
9:b1staying,
4:u2be,
4:u5be,
9:u0staying,
9:u2staying,
9:u5staying,
10:u0downtown,
10:u2downtown,
10:u5downtown,
5:*3two,
5:*4two,
7:*3hours,
7:*4hours,
5:b1two,
7:*3could,
7:*4could,
5:u0two,
7:b1hours,
5:u2two,
5:u5two,
7:u0hours,
7:u2hours,
7:u5hours,
5:b1can,
5:u0can,
5:u2can,
5:u5can,
7:*3about,
7:*4about,
7:b1about,
7:u0about,
7:u2about,
7:u5about,
6:*3city,
6:*4city,
6:b1city,
6:u0city,
6:u2city,
6:u5city,
6:*3well,
6:*4well,
6:b1very,
5:*3i'm,
5:*4i'm,
6:u0very,
6:u2very,
9:*3working,
9:*4working,
6:u5very,
9:b1working,
10:*3scenario,
10:*4scenario,
9:u0working,
9:u2working,
7:*3three,
7:*4three,
9:u5working,
10:b1scenario,
10:u0scenario,
7:b1three,
10:u2scenario,
10:u5scenario,
7:u0three,
7:u2three,
7:u5three,
5:*3727,
5:*4727,
5:b1727,
5:u0727,
5:u2727,
5:u5727,
9:*3georgia,
9:*4georgia,
4:*3am,
4:*4am,
4:b1am,
4:u0am,
4:u2am,
4:u5am,
8:*3number,
8:*4number,
8:b1number,
8:u0number,
8:u2number,
8:u5number,
8:*3return,
8:*4return,
8:b1return,
8:u0return,
8:u2return,
8:u5return,
7:*3bound,
7:*4bound,
7:b1bound,
7:u0bound,
7:u2bound,
7:u5bound,
8:*3friday,
8:*4friday,
6:*3this,
6:*4this,
8:b1friday,
6:*3week,
6:*4week,
8:u0friday,
6:b1this,
8:u2friday,
8:u5friday,
7:*3class,
7:*4class,
9:*3service,
9:*4service,
7:b1class,
7:u0class,
9:b1service,
7:u2class,
7:u5class,
9:u0service,
9:u2service,
9:u5service,
12:*3california,
12:*4california,
12:b1california,
12:u0california,
12:u2california,
14:*3pennsylvania,
14:*4pennsylvania,
12:u5california,
5:*3get,
5:*4get,
5:b1get,
5:u0get,
5:u2get,
5:u5get,
5:b1yes,
5:u0yes,
5:u2yes,
7:*3delta,
7:*4delta,
5:u5yes,
7:b1delta,
7:u0delta,
7:u2delta,
7:u5delta,
7:*3225pm,
7:*4225pm,
7:b1225pm,
7:u0225pm,
7:u2225pm,
8:*31158pm,
8:*41158pm,
7:u5225pm,
8:b11158pm,
8:u01158pm,
8:u21158pm,
8:u51158pm,
11:*3equipment,
11:*4equipment,
11:b1equipment,
11:u0equipment,
11:u2equipment,
11:u5equipment,
6:b1used,
6:u0used,
6:u2used,
6:u5used,
9:*3looking,
9:*4looking,
9:b1looking,
9:u0looking,
9:u2looking,
9:u5looking,
10:*3stopping,
10:*4stopping,
10:b1stopping,
10:u0stopping,
10:u2stopping,
10:u5stopping,
8:*3ticket,
8:*4ticket,
8:b1ticket,
8:u0ticket,
8:u2ticket,
8:u5ticket,
10:*3colorado,
10:*4colorado,
10:b1colorado,
10:u0colorado,
10:u2colorado,
10:u5colorado,
6:*3with,
6:*4with,
9:b1georgia,
9:u0georgia,
6:b1with,
9:u2georgia,
9:u5georgia,
6:u0with,
6:u2with,
6:u5with,
13:*3coach-class,
13:*4coach-class,
6:*3seat,
6:*4seat,
13:b1coach-class,
13:u0coach-class,
6:b1seat,
13:u2coach-class,
13:u5coach-class,
6:u0seat,
6:u2seat,
6:u5seat,
4:*3or,
4:*4or,
8:*3lowest,
8:*4lowest,
4:b1or,
4:u0or,
8:b1lowest,
4:u2or,
4:u5or,
8:u0lowest,
8:u2lowest,
8:u5lowest,
5:*3buy,
5:*4buy,
5:b1buy,
5:u0buy,
5:u2buy,
5:u5buy,
11:*3afternoon,
11:*4afternoon,
11:b1afternoon,
11:u0afternoon,
11:u2afternoon,
11:u5afternoon,
5:*3230,
5:*4230,
5:b1230,
5:u0230,
5:u2230,
5:u5230,
7:*3324pm,
7:*4324pm,
5:*3324,
5:*4324,
5:b1324,
5:u0324,
5:u2324,
5:u5324,
7:*3110pm,
7:*4110pm,
7:b1110pm,
7:u0110pm,
7:u2110pm,
7:u5110pm,
13:*3seventeenth,
13:*4seventeenth,
9:*3oakland,
9:*4oakland,
10:*3american,
10:*4american,
10:b1american,
5:*3813,
5:*4813,
10:u0american,
10:u2american,
10:u5american,
5:b1813,
5:u0813,
5:u2813,
5:u5813,
9:b1oakland,
9:u0oakland,
9:u2oakland,
9:u5oakland,
6:*3goes,
6:*4goes,
10:*3straight,
10:*4straight,
6:b1goes,
9:*3through,
9:*4through,
6:u0goes,
10:b1straight,
6:u2goes,
6:u5goes,
10:u0straight,
9:b1through,
10:u2straight,
10:u5straight,
9:u0through,
9:u2through,
9:u5through,
18:*3without-stopping,
18:*4without-stopping,
18:b1without-stopping,
9:*3another,
9:*4another,
18:u0without-stopping,
18:u2without-stopping,
18:u5without-stopping,
9:b1another,
4:*3if,
4:*4if,
4:b1if,
4:u0if,
4:u2if,
4:u5if,
9:*3enroute,
9:*4enroute,
9:b1enroute,
9:u0enroute,
9:u2enroute,
9:u5enroute,
4:*3it,
4:*4it,
4:b1it,
4:u0it,
4:u2it,
4:u5it,
5:b1may,
5:u0may,
5:u2may,
5:u5may,
6:*32153,
6:*42153,
6:b12153,
6:u02153,
6:u22153,
6:u52153,
13:*3first-class,
13:*4first-class,
13:b1first-class,
13:u0first-class,
13:u2first-class,
13:u5first-class,
6:*3list,
6:*4list,
6:b1list,
6:u0list,
6:u2list,
6:u5list,
8:*3making,
8:*4making,
8:b1making,
8:u0making,
8:u2making,
8:u5making,
13:*3continental,
13:*4continental,
13:b1continental,
13:u0continental,
13:u2continental,
13:u5continental,
7:*3leave,
7:*4leave,
7:b1leave,
7:u0leave,
7:u2leave,
7:u5leave,
7:*3after,
7:*4after,
12:*312-o'clock,
12:*412-o'clock,
7:b1after,
7:u0after,
12:b112-o'clock,
7:u2after,
7:u5after,
12:u012-o'clock,
12:u212-o'clock,
12:u512-o'clock,
7:*3which,
7:*4which,
8:*3leaves,
8:*4leaves,
7:b1which,
7:u0which,
8:b1leaves,
7:u2which,
7:u5which,
8:u0leaves,
8:u2leaves,
8:*31220pm,
8:*41220pm,
8:u5leaves,
8:b11220pm,
8:u01220pm,
8:u21220pm,
8:u51220pm,
11:*35-o'clock,
11:*45-o'clock,
11:b15-o'clock,
11:u05-o'clock,
11:u25-o'clock,
11:u55-o'clock,
13:*3lowest-cost,
13:*4lowest-cost,
13:b1lowest-cost,
13:u0lowest-cost,
13:u2lowest-cost,
13:u5lowest-cost,
7:*3645am,
7:*4645am,
7:b1645am,
7:u0645am,
7:u2645am,
7:u5645am,
9:b1tuesday,
9:u0tuesday,
9:u2tuesday,
9:u5tuesday,
5:*3has,
5:*4has,
5:b1has,
5:u0has,
5:u2has,
5:u5has,
6:*3much,
6:*4much,
5:b1how,
5:u0how,
6:b1much,
5:u2how,
5:u5how,
6:u0much,
6:u2much,
6:u5much,
12:*3round-trip,
12:*4round-trip,
12:b1round-trip,
12:u0round-trip,
12:u2round-trip,
12:u5round-trip,
6:*3long,
6:*4long,
6:b1long,
6:u0long,
6:u2long,
6:u5long,
17:*3atlanta-airport,
17:*4atlanta-airport,
6:*3into,
6:*4into,
17:b1atlanta-airport,
17:u0atlanta-airport,
6:b1into,
17:u2atlanta-airport,
17:u5atlanta-airport,
6:u0into,
6:u2into,
6:u5into,
19:*3airport-limousine,
19:*4airport-limousine,
19:b1airport-limousine,
19:u0airport-limousine,
19:u2airport-limousine,
19:u5airport-limousine,
6:*3make,
6:*4make,
6:b1make,
6:*3trip,
6:*4trip,
6:u0make,
6:u2make,
6:u5make,
6:b1trip,
6:u0trip,
6:u2trip,
6:u5trip,
7:b1again,
7:u0again,
7:u2again,
7:u5again,
5:*3how,
5:*4how,
7:*3fares,
7:*4fares,
7:b1fares,
7:u0fares,
7:u2fares,
7:u5fares,
14:*3arrival-time,
14:*4arrival-time,
14:b1arrival-time,
14:u0arrival-time,
14:u2arrival-time,
14:u5arrival-time,
7:*3755am,
7:*4755am,
7:b1755am,
7:u0755am,
7:u2755am,
7:u5755am,
8:*3latest,
8:*4latest,
8:b1latest,
8:u0latest,
8:u2latest,
8:u5latest,
5:*3755,
5:*4755,
5:b1755,
5:u0755,
5:u2755,
5:u5755,
10:*3schedule,
10:*4schedule,
10:b1schedule,
10:u0schedule,
10:u2schedule,
10:u5schedule,
5:*39pm,
5:*49pm,
5:b19pm,
5:u09pm,
5:u29pm,
5:u59pm,
14:*3twenty-ninth,
14:*4twenty-ninth,
10:*3november,
10:*4november,
14:*3twenty-third,
14:*4twenty-third,
10:b1november,
10:u0november,
14:b1twenty-third,
10:u2november,
10:u5november,
14:u0twenty-third,
14:u2twenty-third,
6:*3year,
6:*4year,
14:u5twenty-third,
6:*31991,
6:*41991,
6:u0this,
6:b1year,
6:u2this,
5:*3i'd,
5:*4i'd,
6:u5this,
6:u0year,
6:b11991,
6:u2year,
6:u5year,
6:u01991,
6:u21991,
6:u51991,
6:*3just,
6:*4just,
6:b1okay,
6:u0okay,
6:b1just,
6:u2okay,
6:u5okay,
6:u0just,
6:u2just,
6:u5just,
5:*38am,
5:*48am,
7:b1hello,
7:u0hello,
7:u2hello,
7:u5hello,
7:*3let's,
7:*4let's,
5:*3see,
5:*4see,
7:b1let's,
7:u0let's,
5:b1see,
7:u2let's,
7:u5let's,
5:u0see,
5:u2see,
5:u5see,
15:*3delta-airline,
15:*4delta-airline,
15:b1delta-airline,
15:u0delta-airline,
15:u2delta-airline,
15:u5delta-airline,
7:*3stops,
7:*4stops,
7:b1stops,
7:u0stops,
7:u2stops,
7:u5stops,
5:*3way,
5:*4way,
5:b1way,
5:u0way,
5:u2way,
5:u5way,
5:*3all,
5:*4all,
8:*3united,
8:*4united,
8:b1united,
8:u0united,
8:u2united,
8:u5united,
7:*3815am,
7:*4815am,
4:*3by,
4:*4by,
16:*3united-airline,
16:*4united-airline,
4:b1by,
16:b1united-airline,
16:u0united-airline,
16:u2united-airline,
16:u5united-airline,
4:b1oh,
4:u0oh,
4:u2oh,
4:u5oh,
17:*3eastern-airline,
17:*4eastern-airline,
17:b1eastern-airline,
17:u0eastern-airline,
17:u2eastern-airline,
17:u5eastern-airline,
6:*3some,
6:*4some,
6:b1some,
6:u0some,
6:u2some,
6:u5some,
5:*39am,
5:*49am,
16:*3dallas-airport,
16:*4dallas-airport,
16:b1dallas-airport,
16:u0dallas-airport,
16:u2dallas-airport,
16:u5dallas-airport,
14:*3arrangements,
14:*4arrangements,
14:b1arrangements,
14:u0arrangements,
14:u2arrangements,
14:u5arrangements,
16:*3boston-airport,
16:*4boston-airport,
16:b1boston-airport,
16:u0boston-airport,
16:u2boston-airport,
16:u5boston-airport,
5:*3can,
5:*4can,
11:*3departing,
11:*4departing,
11:b1departing,
11:u0departing,
11:u2departing,
11:u5departing,
9:*3airfare,
9:*4airfare,
9:b1airfare,
9:u0airfare,
9:u2airfare,
9:u5airfare,
13:*3329-dollars,
13:*4329-dollars,
13:b1329-dollars,
13:u0329-dollars,
13:u2329-dollars,
13:u5329-dollars,
6:*3cost,
6:*4cost,
6:b1cost,
6:u0cost,
6:u2cost,
6:u5cost,
5:*3air,
5:*4air,
14:*3restrictions,
14:*4restrictions,
5:b1air,
5:u0air,
14:b1restrictions,
5:u2air,
5:u5air,
14:u0restrictions,
14:u2restrictions,
14:u5restrictions,
13:*3416-dollars,
13:*4416-dollars,
6:*3book,
6:*4book,
6:b1book,
6:u0book,
6:u2book,
6:u5book,
7:*3coach,
7:*4coach,
10:*3discount,
10:*4discount,
7:b1coach,
7:u0coach,
10:b1discount,
7:u2coach,
7:u5coach,
9:*3arrange,
9:*4arrange,
9:b1arrange,
9:u0arrange,
9:u2arrange,
9:u5arrange,
6:*3july,
6:*4july,
9:*3seventh,
9:*4seventh,
6:b1july,
6:b1sure,
6:u0sure,
6:u2sure,
6:u5sure,
11:*3determine,
11:*4determine,
11:b1determine,
11:u0determine,
11:u2determine,
11:u5determine,
6:u0july,
9:b1seventh,
6:u2july,
6:u5july,
9:u0seventh,
9:u2seventh,
9:u5seventh,
6:*3meal,
6:*4meal,
7:*3being,
7:*4being,
6:b1meal,
8:*3served,
8:*4served,
6:u0meal,
7:b1being,
6:u2meal,
6:u5meal,
5:b18am,
5:u08am,
5:u28am,
6:*3such,
6:*4such,
5:u58am,
6:b1such,
6:u0such,
6:u2such,
6:u5such,
7:*3types,
7:*4types,
7:b1types,
7:u0types,
7:u2types,
7:u5types,
6:*3dc10,
6:*4dc10,
10:*3sometime,
10:*4sometime,
10:b1sometime,
10:u0sometime,
10:u2sometime,
10:u5sometime,
8:*3direct,
8:*4direct,
8:b1direct,
8:u0direct,
8:u2direct,
8:u5direct,
9:*312-noon,
9:*412-noon,
9:*3arrives,
9:*4arrives,
9:b1arrives,
9:u0arrives,
9:u2arrives,
9:u5arrives,
15:u0early-morning,
15:u2early-morning,
15:u5early-morning,
15:*3approximately,
15:*4approximately,
5:*31pm,
5:*41pm,
15:b1approximately,
6:*3many,
6:*4many,
6:b1many,
6:u0many,
6:u2many,
6:u5many,
7:*3where,
7:*4where,
7:b1where,
7:u0where,
7:u2where,
7:u5where,
13:*3dinner-meal,
13:*4dinner-meal,
5:*3420,
5:*4420,
5:b1420,
5:u0420,
5:u2420,
5:u5420,
3:*35,
3:*45,
3:b15,
3:u05,
3:u25,
3:u55,
4:*3my,
4:*4my,
7:*3final,
7:*4final,
4:b1my,
13:*3destination,
13:*4destination,
4:u0my,
7:b1final,
4:u2my,
4:u5my,
7:u0final,
13:b1destination,
7:u2final,
7:u5final,
13:u0destination,
13:u2destination,
13:u5destination,
11:*3originate,
11:*4originate,
11:b1originate,
11:u0originate,
11:u2originate,
11:u5originate,
22:*3latest-time-possible,
22:*4latest-time-possible,
22:b1latest-time-possible,
22:u0latest-time-possible,
22:u2latest-time-possible,
22:u5latest-time-possible,
11:*3fifteenth,
11:*4fifteenth,
8:*3during,
8:*4during,
11:*3breakfast,
11:*4breakfast,
8:b1during,
5:*3296,
5:*4296,
8:*3serves,
8:*4serves,
5:b1296,
5:u0296,
8:b1serves,
5:u2296,
5:u5296,
7:b1first,
7:u0first,
7:u2first,
7:u5first,
17:*3early-afternoon,
17:*4early-afternoon,
8:*3should,
8:*4should,
8:b1should,
8:u0should,
8:u2should,
8:u5should,
7:*3615pm,
7:*4615pm,
7:*3their,
7:*4their,
7:b1their,
7:u0their,
7:u2their,
7:u5their,
24:*3earliest-possible-time,
24:*4earliest-possible-time,
10:*3question,
10:*4question,
10:b1question,
10:u0question,
10:u2question,
10:u5question,
6:*3live,
6:*4live,
6:b1live,
6:u0live,
6:u2live,
6:u5live,
8:*3trying,
8:*4trying,
8:b1trying,
8:u0trying,
8:u2trying,
8:u5trying,
12:*3connection,
12:*4connection,
12:b1connection,
12:u0connection,
12:u2connection,
12:u5connection,
7:*3those,
7:*4those,
7:b1those,
11:*3thirtieth,
11:*4thirtieth,
11:b1thirtieth,
11:u0thirtieth,
11:u2thirtieth,
11:u5thirtieth,
6:b1fine,
6:u0fine,
6:u2fine,
6:u5fine,
6:*3help,
6:*4help,
6:b1help,
6:u0help,
6:u2help,
6:u5help,
6:*3very,
6:*4very,
5:*3now,
5:*4now,
5:b1now,
5:u0now,
5:u2now,
5:u5now,
5:*3747,
5:*4747,
5:b1747,
5:u0747,
5:u2747,
5:u5747,
6:*3able,
6:*4able,
6:b1able,
5:*3put,
5:*4put,
6:u0able,
6:u2able,
6:u5able,
5:b1put,
5:u0put,
5:u2put,
5:u5put,
16:*3twenty-seventh,
16:*4twenty-seventh,
16:b1twenty-seventh,
16:u0twenty-seventh,
16:u2twenty-seventh,
16:u5twenty-seventh,
7:*3first,
7:*4first,
7:*3night,
7:*4night,
7:b1night,
7:u0night,
7:u2night,
7:u5night,
7:b1630am,
7:u0630am,
7:u2630am,
7:u5630am,
5:*3650,
5:*4650,
7:*3third,
7:*4third,
7:*3rates,
7:*4rates,
7:b1rates,
7:u0rates,
7:u2rates,
7:u5rates,
17:*3least-expensive,
17:*4least-expensive,
17:b1least-expensive,
17:u0least-expensive,
17:u2least-expensive,
17:u5least-expensive,
16:*3city-of-boston,
16:*4city-of-boston,
16:b1city-of-boston,
16:u0city-of-boston,
16:u2city-of-boston,
16:u5city-of-boston,
8:b1kindly,
8:u0kindly,
8:u2kindly,
8:u5kindly,
8:*3inform,
8:*4inform,
8:b1inform,
8:u0inform,
8:u2inform,
8:u5inform,
17:*312-o'clock-noon,
17:*412-o'clock-noon,
9:*3eastern,
9:*4eastern,
9:b1eastern,
5:*3825,
5:*4825,
9:u0eastern,
9:u2eastern,
9:u5eastern,
5:b1825,
5:u0825,
5:u2825,
5:u5825,
6:*3when,
6:*4when,
6:b1when,
6:u0when,
6:u2when,
6:u5when,
5:*3555,
5:*4555,
5:b1555,
5:u0555,
5:u2555,
5:u5555,
5:*36pm,
5:*46pm,
5:*35pm,
5:*45pm,
7:*3sorry,
7:*4sorry,
7:b1sorry,
7:u0sorry,
7:u2sorry,
7:u5sorry,
14:*3thirty-first,
14:*4thirty-first,
14:b1thirty-first,
14:u0thirty-first,
14:u2thirty-first,
14:u5thirty-first,
6:*3then,
6:*4then,
6:b1then,
6:u0then,
6:u2then,
6:u5then,
8:*3fourth,
8:*4fourth,
8:b1fourth,
8:u0fourth,
8:u2fourth,
8:u5fourth,
6:*3plan,
6:*4plan,
6:b1plan,
6:u0plan,
6:u2plan,
6:u5plan,
10:*3no-stops,
10:*4no-stops,
10:b1no-stops,
10:u0no-stops,
10:u2no-stops,
10:u5no-stops,
9:*3economy,
9:*4economy,
9:b1economy,
9:u0economy,
9:u2economy,
9:u5economy,
10:b1thursday,
7:*3fifth,
7:*4fifth,
10:u0thursday,
10:u2thursday,
10:u5thursday,
7:b1fifth,
7:u0fifth,
7:u2fifth,
7:u5fifth,
15:*3twenty-eighth,
15:*4twenty-eighth,
9:*3october,
9:*4october,
9:b1october,
9:*3twelfth,
9:*4twelfth,
9:*3numbers,
9:*4numbers,
9:*3connect,
9:*4connect,
9:b1connect,
9:u0connect,
9:u2connect,
9:u5connect,
8:*3cities,
8:*4cities,
7:u0those,
7:u2those,
7:u5those,
5:*3may,
5:*4may,
10:*3planning,
10:*4planning,
10:b1planning,
10:u0planning,
10:u2planning,
10:u5planning,
5:*3269,
5:*4269,
5:b1269,
5:u0269,
5:u2269,
5:u5269,
5:*3428,
5:*4428,
5:b1428,
5:u0428,
5:u2428,
5:u5428,
7:*3times,
7:*4times,
7:b1times,
7:u0times,
7:u2times,
7:u5times,
7:*3makes,
7:*4makes,
7:b1makes,
7:u0makes,
7:u2makes,
7:u5makes,
10:*3one-stop,
10:*4one-stop,
10:b1one-stop,
10:u0one-stop,
10:u2one-stop,
10:u5one-stop,
7:*3april,
7:*4april,
7:b1april,
7:u0april,
14:b1twenty-first,
7:u2april,
7:u5april,
14:u0twenty-first,
14:u2twenty-first,
14:u5twenty-first,
11:*3beginning,
11:*4beginning,
11:b1beginning,
11:u0beginning,
11:u2beginning,
14:*3twenty-fifth,
14:*4twenty-fifth,
11:u5beginning,
14:b1twenty-fifth,
11:*3returning,
11:*4returning,
14:u0twenty-fifth,
14:u2twenty-fifth,
14:u5twenty-fifth,
11:b1returning,
11:u0returning,
11:u2returning,
7:*3sixth,
7:*4sixth,
11:u5returning,
11:*37-o'clock,
11:*47-o'clock,
11:b17-o'clock,
11:u07-o'clock,
11:u27-o'clock,
11:u57-o'clock,
11:b1fifteenth,
11:u0fifteenth,
11:u2fifteenth,
11:u5fifteenth,
9:*3sixteen,
9:*4sixteen,
9:b1sixteen,
9:u0sixteen,
9:u2sixteen,
9:u5sixteen,
11:*3seventeen,
11:*4seventeen,
11:b1seventeen,
11:u0seventeen,
11:u2seventeen,
11:u5seventeen,
8:*3twenty,
8:*4twenty,
8:b1twenty,
8:u0twenty,
8:u2twenty,
8:u5twenty,
11:b18-o'clock,
11:u08-o'clock,
11:u28-o'clock,
11:u58-o'clock,
6:*3four,
6:*4four,
6:b1four,
6:u0four,
6:u2four,
6:u5four,
6:*31039,
6:*41039,
6:b11039,
6:u01039,
6:u21039,
6:u51039,
5:*3257,
5:*4257,
7:*3we're,
7:*4we're,
7:b1great,
7:u0great,
7:u2great,
7:u5great,
8:*3depart,
8:*4depart,
8:b1depart,
8:u0depart,
8:u2depart,
8:u5depart,
8:*3sounds,
8:*4sounds,
7:*3great,
7:*4great,
8:b1sounds,
8:u0sounds,
8:u2sounds,
8:u5sounds,
12:*3twenty-one,
12:*4twenty-one,
12:b1twenty-one,
12:u0twenty-one,
12:u2twenty-one,
12:u5twenty-one,
7:*3one's,
7:*4one's,
7:b1one's,
5:*3too,
5:*4too,
7:u0one's,
7:u2one's,
7:u5one's,
5:b1too,
5:u0too,
5:u2too,
5:u5too,
15:*3twenty-second,
15:*4twenty-second,
15:b1twenty-second,
15:u0twenty-second,
15:u2twenty-second,
15:u5twenty-second,
11:*3nighttime,
11:*4nighttime,
11:*3departure,
11:*4departure,
11:b1nighttime,
11:u0nighttime,
11:b1departure,
11:u2nighttime,
11:u5nighttime,
6:b1show,
6:u0show,
6:u2show,
6:u5show,
19:*3dallas-fort-worth,
19:*4dallas-fort-worth,
19:b1dallas-fort-worth,
29:*3san-francisco-international,
29:*4san-francisco-international,
19:u0dallas-fort-worth,
19:u2dallas-fort-worth,
19:u5dallas-fort-worth,
10:*3arrivals,
10:*4arrivals,
10:b1arrivals,
10:u0arrivals,
10:u2arrivals,
10:u5arrivals,
6:*3most,
6:*4most,
6:b1most,
6:u0most,
6:u2most,
6:u5most,
13:*3connections,
13:*4connections,
13:b1connections,
13:u0connections,
13:u2connections,
13:u5connections,
7:*3tenth,
7:*4tenth,
7:b1tenth,
10:*3eleventh,
10:*4eleventh,
6:*3june,
6:*4june,
6:b1june,
6:u0june,
6:u2june,
6:u5june,
16:*3business-class,
16:*4business-class,
7:*3daily,
7:*4daily,
7:b1daily,
7:u0daily,
7:u2daily,
7:u5daily,
19:*3stapleton-airport,
19:*4stapleton-airport,
19:b1stapleton-airport,
10:*3tomorrow,
10:*4tomorrow,
19:u0stapleton-airport,
19:u2stapleton-airport,
19:u5stapleton-airport,
10:b1tomorrow,
8:*3thrift,
8:*4thrift,
8:b1thrift,
8:u0thrift,
8:u2thrift,
8:u5thrift,
13:*3restriction,
13:*4restriction,
9:b1explain,
6:*3ap80,
6:*4ap80,
9:u0explain,
13:b1restriction,
9:u2explain,
9:u5explain,
6:*3code,
6:*4code,
4:*3qx,
4:*4qx,
6:b1code,
13:*3represented,
13:*4represented,
13:b1represented,
13:u0represented,
13:u2represented,
10:*3database,
10:*4database,
13:u5represented,
5:*37pm,
5:*47pm,
5:b17pm,
5:u07pm,
5:u27pm,
5:u57pm,
5:*3315,
5:*4315,
4:*3aa,
4:*4aa,
5:*3459,
5:*4459,
4:b1aa,
4:u0aa,
5:b1459,
4:u2aa,
4:u5aa,
5:*3m80,
5:*4m80,
8:b1cities,
8:u0cities,
8:u2cities,
8:u5cities,
9:*3besides,
9:*4besides,
9:b1besides,
9:u0besides,
9:u2besides,
9:u5besides,
9:*3provide,
9:*4provide,
9:b1provide,
9:u0provide,
9:u2provide,
9:u5provide,
5:*3jet,
5:*4jet,
5:b1jet,
5:u0jet,
5:u2jet,
5:u5jet,
6:*3only,
6:*4only,
6:b1only,
6:u0only,
6:u2only,
6:u5only,
7:*3today,
7:*4today,
4:*3dl,
4:*4dl,
11:*3different,
11:*4different,
11:b1different,
9:*3classes,
9:*4classes,
11:u0different,
11:u2different,
11:u5different,
9:b1classes,
9:u0classes,
9:u2classes,
9:u5classes,
3:*3b,
3:*4b,
6:u0code,
3:b1b,
6:u2code,
6:*3same,
6:*4same,
6:u5code,
3:u0b,
3:u2b,
3:u5b,
6:b1same,
6:u0same,
6:u2same,
6:u5same,
3:*3c,
3:*4c,
9:*3booking,
9:*4booking,
9:b1booking,
9:u0booking,
9:u2booking,
9:u5booking,
4:*3yn,
4:*4yn,
15:*3no-later-than,
15:*4no-later-than,
5:*32pm,
5:*42pm,
15:b1no-later-than,
15:u0no-later-than,
5:b12pm,
15:u2no-later-than,
15:u5no-later-than,
5:u02pm,
5:u22pm,
5:u52pm,
8:b1what's,
8:u0what's,
8:u2what's,
8:u5what's,
6:*3ap57,
6:*4ap57,
7:*3codes,
7:*4codes,
8:*3belong,
8:*4belong,
7:b1codes,
7:u0codes,
8:b1belong,
7:u2codes,
15:*3economy-class,
15:*4economy-class,
7:u5codes,
8:u0belong,
8:u2belong,
8:u5belong,
5:*3via,
5:*4via,
5:b1via,
9:*3layover,
9:*4layover,
9:b1layover,
9:u0layover,
9:u2layover,
9:u5layover,
6:*3more,
6:*4more,
6:b1more,
6:u0more,
16:b1business-class,
6:u2more,
6:*3than,
6:*4than,
6:u5more,
16:u0business-class,
16:u2business-class,
16:u5business-class,
6:b1than,
7:*3other,
7:*4other,
6:u0than,
6:u2than,
6:u5than,
7:b1other,
15:b1economy-class,
15:u0economy-class,
15:u2economy-class,
15:u5economy-class,
16:*3late-afternoon,
16:*4late-afternoon,
16:b1late-afternoon,
16:u0late-afternoon,
16:u2late-afternoon,
16:u5late-afternoon,
5:b11pm,
5:u01pm,
5:u21pm,
5:u51pm,
11:*33-o'clock,
11:*43-o'clock,
11:b13-o'clock,
11:u03-o'clock,
11:u23-o'clock,
11:u53-o'clock,
9:b112-noon,
9:u012-noon,
9:u212-noon,
9:u512-noon,
9:*3delta's,
9:*4delta's,
9:b1delta's,
9:u0delta's,
9:u2delta's,
9:u5delta's,
12:*3rental-car,
12:*4rental-car,
12:b1rental-car,
12:u0rental-car,
12:u2rental-car,
12:u5rental-car,
5:*3far,
5:*4far,
5:b1far,
5:u0far,
5:u2far,
5:u5far,
10:*3saturday,
10:*4saturday,
10:b1saturday,
6:*3come,
6:*4come,
6:b1come,
6:u0come,
6:u2come,
6:u5come,
10:*3smallest,
10:*4smallest,
9:*3seating,
9:*4seating,
10:b1smallest,
10:*3capacity,
10:*4capacity,
10:u0smallest,
9:b1seating,
10:u2smallest,
10:u5smallest,
16:*3most-expensive,
16:*4most-expensive,
16:b1most-expensive,
9:*3tickets,
9:*4tickets,
16:u0most-expensive,
16:u2most-expensive,
16:u5most-expensive,
9:b1tickets,
9:u0tickets,
9:u2tickets,
9:u5tickets,
11:*3atlanta's,
11:*4atlanta's,
11:b1atlanta's,
6:*3noon,
6:*4noon,
6:b1noon,
6:u0noon,
6:u2noon,
6:u5noon,
13:*3originating,
13:*4originating,
13:b1originating,
13:u0originating,
13:u2originating,
13:u5originating,
7:*3210pm,
7:*4210pm,
8:*3eighth,
8:*4eighth,
7:*3ninth,
7:*4ninth,
8:*3offers,
8:*4offers,
8:b1offers,
8:u0offers,
8:u2offers,
8:u5offers,
9:*3heading,
9:*4heading,
9:b1heading,
9:u0heading,
9:u2heading,
9:u5heading,
5:*3279,
5:*4279,
5:b1279,
5:u0279,
5:u2279,
5:u5279,
8:*3137338,
8:*4137338,
7:*3630am,
7:*4630am,
3:*33,
3:*43,
3:b13,
3:u03,
3:u23,
3:u53,
11:*31-o'clock,
11:*41-o'clock,
8:*3toward,
8:*4toward,
8:b1toward,
8:u0toward,
8:u2toward,
8:u5toward,
17:*3oakland-airport,
17:*4oakland-airport,
6:*3each,
6:*4each,
6:b1each,
6:u0each,
6:u2each,
6:u5each,
3:*3k,
3:*4k,
11:*3lufthansa,
11:*4lufthansa,
11:b1lufthansa,
11:u0lufthansa,
11:u2lufthansa,
11:u5lufthansa,
14:*3twenty-sixth,
14:*4twenty-sixth,
14:b1twenty-sixth,
6:*3name,
6:*4name,
6:b1name,
6:u0name,
6:u2name,
6:u5name,
22:*3philadelphia-airport,
22:*4philadelphia-airport,
22:b1philadelphia-airport,
22:u0philadelphia-airport,
22:u2philadelphia-airport,
22:u5philadelphia-airport,
3:*31,
3:*41,
3:b11,
3:u01,
3:u21,
3:u51,
3:*34,
3:*44,
3:b14,
3:u04,
3:u24,
3:u54,
16:*3departure-time,
16:*4departure-time,
16:b1departure-time,
16:u0departure-time,
16:u2departure-time,
16:u5departure-time,
17:b1early-afternoon,
17:u0early-afternoon,
17:u2early-afternoon,
17:u5early-afternoon,
11:*3limousine,
11:*4limousine,
7:*3total,
7:*4total,
7:b1total,
7:u0total,
7:u2total,
7:u5total,
9:u0seating,
10:b1capacity,
9:u2seating,
9:u5seating,
10:u0capacity,
10:u2capacity,
10:u5capacity,
12:*3advertises,
12:*4advertises,
8:*3having,
8:*4having,
12:b1advertises,
12:u0advertises,
8:b1having,
12:u2advertises,
12:u5advertises,
8:u0having,
8:u2having,
8:u5having,
3:*3f,
3:*4f,
15:*3logan-airport,
15:*4logan-airport,
11:u0departure,
11:u2departure,
11:u5departure,
20:*3pittsburgh-airport,
20:*4pittsburgh-airport,
20:b1pittsburgh-airport,
20:u0pittsburgh-airport,
20:u2pittsburgh-airport,
6:*3town,
6:*4town,
20:u5pittsburgh-airport,
7:*3kinds,
7:*4kinds,
7:b1kinds,
7:u0kinds,
7:u2kinds,
7:u5kinds,
11:b1limousine,
41:*3dallas-fort-worth-international-airport,
41:*4dallas-fort-worth-international-airport,
11:u0limousine,
11:u2limousine,
11:u5limousine,
41:b1dallas-fort-worth-international-airport,
41:u0dallas-fort-worth-international-airport,
41:u2dallas-fort-worth-international-airport,
41:u5dallas-fort-worth-international-airport,
7:*3eight,
7:*4eight,
8:*3within,
8:*4within,
8:b1within,
22:*3schedule-for-flights,
22:*4schedule-for-flights,
22:b1schedule-for-flights,
22:u0schedule-for-flights,
22:u2schedule-for-flights,
22:u5schedule-for-flights,
4:*3s-,
4:*4s-,
11:*3designate,
11:*4designate,
4:b1s-,
4:u0s-,
11:b1designate,
4:u2s-,
4:u5s-,
11:u0designate,
11:u2designate,
11:u5designate,
7:*3takes,
7:*4takes,
7:b1takes,
7:*3least,
7:*4least,
7:u0takes,
7:u2takes,
8:*3amount,
8:*4amount,
7:u5takes,
7:b1least,
7:u0least,
8:b1amount,
7:u2least,
7:u5least,
8:u0amount,
8:u2amount,
8:u5amount,
8:*3planes,
8:*4planes,
8:b1planes,
8:u0planes,
8:u2planes,
8:u5planes,
9:*3usa-air,
9:*4usa-air,
9:b1usa-air,
9:u0usa-air,
9:u2usa-air,
9:u5usa-air,
8:*3prices,
8:*4prices,
8:b1prices,
8:u0prices,
8:u2prices,
8:u5prices,
8:*3what's,
8:*4what's,
9:*3various,
9:*4various,
11:*3airplanes,
11:*4airplanes,
9:b1various,
9:u0various,
11:b1airplanes,
9:u2various,
9:u5various,
11:u0airplanes,
11:u2airplanes,
6:*3uses,
6:*4uses,
11:u5airplanes,
5:*3who,
5:*4who,
5:b1who,
5:b19am,
5:u09am,
5:u29am,
5:u59am,
17:*3time-of-arrival,
17:*4time-of-arrival,
17:b1time-of-arrival,
17:u0time-of-arrival,
17:u2time-of-arrival,
17:u5time-of-arrival,
17:*3departure-times,
17:*4departure-times,
17:b1departure-times,
17:u0departure-times,
17:u2departure-times,
17:u5departure-times,
5:*38pm,
5:*48pm,
19:*3baltimore-airport,
19:*4baltimore-airport,
6:*3show,
6:*4show,
11:*3including,
11:*4including,
11:b1including,
11:u0including,
11:u2including,
11:u5including,
7:*3offer,
7:*4offer,
7:b1offer,
7:u0offer,
6:b1dc10,
7:u2offer,
7:u5offer,
6:u0dc10,
6:u2dc10,
6:u5dc10,
8:*3eleven,
8:*4eleven,
8:b1eleven,
8:u0eleven,
8:u2eleven,
8:u5eleven,
9:*3any-day,
9:*4any-day,
9:b1any-day,
9:u0any-day,
9:u2any-day,
9:u5any-day,
5:*3352,
5:*4352,
5:b1352,
5:u0352,
5:u2352,
5:u5352,
7:*3price,
7:*4price,
7:b1price,
7:u0price,
7:u2price,
7:u5price,
11:*3operating,
11:*4operating,
11:b1operating,
9:*3sundays,
9:*4sundays,
11:u0operating,
11:u2operating,
11:u5operating,
10:*3services,
10:*4services,
10:b1services,
10:u0services,
10:u2services,
10:u5services,
14:*3reservations,
14:*4reservations,
14:b1reservations,
14:u0reservations,
14:u2reservations,
14:u5reservations,
6:*31765,
6:*41765,
6:b11765,
6:u01765,
6:u21765,
6:u51765,
17:*3flight-schedule,
17:*4flight-schedule,
17:b1flight-schedule,
17:u0flight-schedule,
17:u2flight-schedule,
5:*3f28,
5:*4f28,
17:u5flight-schedule,
5:b1f28,
5:u0f28,
5:u2f28,
5:u5f28,
20:*3air-taxi-operation,
20:*4air-taxi-operation,
20:b1air-taxi-operation,
36:*3philadelphia-international-airport,
36:*4philadelphia-international-airport,
20:u0air-taxi-operation,
20:u2air-taxi-operation,
20:u5air-taxi-operation,
4:*3pm,
4:*4pm,
4:b1pm,
4:u0pm,
4:u2pm,
4:u5pm,
9:*3serving,
9:*4serving,
9:b1serving,
9:u0serving,
9:u2serving,
9:u5serving,
11:b1breakfast,
11:u0breakfast,
8:b1served,
11:u2breakfast,
11:u5breakfast,
8:u0served,
8:u2served,
8:u5served,
10:b1anything,
10:u0anything,
10:u2anything,
10:u5anything,
5:*3say,
5:*4say,
5:b1say,
10:*3mealtime,
10:*4mealtime,
5:u0say,
5:u2say,
5:u5say,
7:*3thank,
7:*4thank,
5:*3run,
5:*4run,
5:b1run,
5:u0run,
5:u2run,
5:u5run,
7:*3seats,
7:*4seats,
7:b1seats,
7:u0seats,
7:u2seats,
7:u5seats,
7:u0other,
7:u2other,
7:u5other,
9:*3earlier,
9:*4earlier,
9:b1earlier,
6:*31017,
6:*41017,
9:u0earlier,
9:u2earlier,
9:u5earlier,
6:b11017,
6:u01017,
6:u21017,
6:u51017,
5:*3630,
5:*4630,
14:*35-o'clock-pm,
14:*45-o'clock-pm,
14:*34-o'clock-pm,
14:*44-o'clock-pm,
7:*3later,
7:*4later,
7:b1later,
7:u0later,
7:u2later,
7:u5later,
14:*36-o'clock-pm,
14:*46-o'clock-pm,
5:b16pm,
5:u06pm,
5:u26pm,
5:u56pm,
10:*3serviced,
10:*4serviced,
10:b1serviced,
10:u0serviced,
10:u2serviced,
10:u5serviced,
5:*3dfw,
5:*4dfw,
5:b1dfw,
5:u0dfw,
5:u2dfw,
5:u5dfw,
8:*31133am,
8:*41133am,
8:b11133am,
6:*343pm,
6:*443pm,
8:u01133am,
8:u21133am,
8:u51133am,
10:*3provided,
10:*4provided,
10:b1provided,
10:u0provided,
10:u2provided,
10:u5provided,
4:u0by,
4:u2by,
4:u5by,
10:*3provides,
10:*4provides,
10:b1provides,
10:u0provides,
10:u2provides,
10:u5provides,
6:*3both,
6:*4both,
6:b1both,
6:u0both,
6:u2both,
6:u5both,
7:*3meals,
7:*4meals,
7:b1meals,
7:u0meals,
7:u2meals,
7:u5meals,
10:*3airplane,
10:*4airplane,
10:b1airplane,
10:u0airplane,
10:u2airplane,
10:u5airplane,
11:*36-o'clock,
11:*46-o'clock,
8:*3sunday,
8:*4sunday,
11:b16-o'clock,
11:u06-o'clock,
8:b1sunday,
11:u26-o'clock,
11:u56-o'clock,
6:*3mean,
6:*4mean,
3:b18,
3:u08,
3:u28,
3:u58,
14:b1twenty-ninth,
14:u0twenty-ninth,
14:u2twenty-ninth,
14:u5twenty-ninth,
7:b1third,
7:u0third,
7:u2third,
7:u5third,
12:*3american's,
12:*4american's,
12:b1american's,
12:u0american's,
12:u2american's,
12:u5american's,
5:*3bwi,
5:*4bwi,
5:b1bwi,
5:u0bwi,
5:u2bwi,
5:u5bwi,
7:*3still,
7:*4still,
7:b1still,
7:u0still,
7:u2still,
7:u5still,
7:*3cover,
7:*4cover,
7:b1cover,
7:u0cover,
7:u2cover,
7:u5cover,
6:*3less,
6:*4less,
6:b1less,
13:*3200-dollars,
13:*4200-dollars,
6:u0less,
6:u2less,
6:u5less,
13:b1200-dollars,
5:*3oak,
5:*4oak,
5:b1oak,
5:*3atl,
5:*4atl,
5:u0oak,
5:u2oak,
5:u5oak,
9:*3qx-fare,
9:*4qx-fare,
9:b1qx-fare,
9:u0qx-fare,
9:u2qx-fare,
9:u5qx-fare,
14:*3lowest-price,
14:*4lowest-price,
14:b1lowest-price,
14:u0lowest-price,
14:u2lowest-price,
14:u5lowest-price,
4:*382,
4:*482,
4:b182,
4:u082,
4:u282,
5:*3139,
5:*4139,
4:u582,
9:*3q-fares,
9:*4q-fares,
9:b1q-fares,
9:u0q-fares,
9:u2q-fares,
9:u5q-fares,
13:*3124-dollars,
13:*4124-dollars,
13:b1124-dollars,
13:u0124-dollars,
13:u2124-dollars,
13:u5124-dollars,
4:*3ls,
4:*4ls,
7:*3stand,
7:*4stand,
4:b1ls,
4:u0ls,
7:b1stand,
4:u2ls,
4:u5ls,
7:*3level,
7:*4level,
9:*3carries,
9:*4carries,
9:b1carries,
9:u0carries,
9:u2carries,
9:u5carries,
12:*3passengers,
12:*4passengers,
6:*31505,
6:*41505,
6:b11505,
6:u01505,
6:u21505,
6:u51505,
7:*3serve,
7:*4serve,
7:*3lunch,
7:*4lunch,
7:b1serve,
11:*3itinerary,
11:*4itinerary,
11:b1itinerary,
11:u0itinerary,
11:u2itinerary,
11:u5itinerary,
12:b1connecting,
12:u0connecting,
12:u2connecting,
12:u5connecting,
9:*3departs,
9:*4departs,
9:b1departs,
9:u0departs,
9:u2departs,
9:u5departs,
7:*3local,
7:*4local,
7:b1local,
8:*3either,
8:*4either,
8:b1either,
8:u0either,
8:u2either,
8:u5either,
27:*3dallas-fort-worth-airport,
27:*4dallas-fort-worth-airport,
27:b1dallas-fort-worth-airport,
27:u0dallas-fort-worth-airport,
27:u2dallas-fort-worth-airport,
27:u5dallas-fort-worth-airport,
6:*31940,
6:*41940,
12:b1passengers,
12:u0passengers,
12:u2passengers,
8:*3boeing,
8:*4boeing,
12:u5passengers,
5:*3737,
5:*4737,
8:b1boeing,
6:*3hold,
6:*4hold,
8:u0boeing,
5:b1737,
8:u2boeing,
8:u5boeing,
3:*36,
3:*46,
3:b16,
3:u06,
3:u26,
3:u56,
9:*3qualify,
9:*4qualify,
9:b1qualify,
9:u0qualify,
9:u2qualify,
9:u5qualify,
10:b1describe,
10:u0describe,
10:u2describe,
10:u5describe,
5:*3j31,
5:*4j31,
5:b1j31,
5:*3733,
5:*4733,
5:*372s,
5:*472s,
5:*3734,
5:*4734,
5:*3100,
5:*4100,
13:*3415-dollars,
13:*4415-dollars,
5:*3705,
5:*4705,
5:b1705,
5:u0705,
5:u2705,
5:u5705,
4:*371,
4:*471,
4:b171,
4:u071,
4:u271,
4:u571,
10:*3directly,
10:*4directly,
10:b1directly,
10:u0directly,
10:u2directly,
10:u5directly,
11:*3scheduled,
11:*4scheduled,
11:b1scheduled,
10:*3december,
10:*4december,
11:u0scheduled,
11:u2scheduled,
11:u5scheduled,
10:b1december,
11:*3turboprop,
11:*4turboprop,
11:b1turboprop,
11:u0turboprop,
11:u2turboprop,
11:u5turboprop,
9:*3doesn't,
9:*4doesn't,
7:*3catch,
7:*4catch,
7:b1catch,
7:u0catch,
7:u2catch,
7:u5catch,
20:*3lufthansa-airlines,
20:*4lufthansa-airlines,
20:b1lufthansa-airlines,
20:u0lufthansa-airlines,
20:u2lufthansa-airlines,
20:u5lufthansa-airlines,
10:u0saturday,
10:u2saturday,
10:u5saturday,
7:*3logan,
7:*4logan,
7:b1logan,
7:u0logan,
7:u2logan,
7:u5logan,
11:*32-o'clock,
11:*42-o'clock,
11:b12-o'clock,
11:u02-o'clock,
11:u22-o'clock,
11:u52-o'clock,
10:*3distance,
10:*4distance,
10:b1distance,
10:u0distance,
10:u2distance,
10:u5distance,
10:*3tuesdays,
10:*4tuesdays,
11:*3companies,
11:*4companies,
11:b1companies,
11:u0companies,
11:u2companies,
11:u5companies,
8:u0serves,
8:u2serves,
8:u5serves,
8:*3people,
8:*4people,
8:b1people,
8:u0people,
8:u2people,
8:u5people,
9:*3carried,
9:*4carried,
9:b1carried,
9:u0carried,
9:u2carried,
9:u5carried,
10:*3shortest,
10:*4shortest,
10:b1shortest,
10:u0shortest,
10:u2shortest,
10:u5shortest,
9:*3january,
9:*4january,
9:b1january,
7:*3cheap,
7:*4cheap,
7:b1cheap,
7:u0cheap,
7:u2cheap,
7:u5cheap,
6:*3back,
6:*4back,
9:*3reverse,
9:*4reverse,
9:b1reverse,
9:u0reverse,
9:u2reverse,
9:u5reverse,
10:*3airports,
10:*4airports,
10:b1airports,
10:u0airports,
10:u2airports,
10:u5airports,
12:*3everywhere,
12:*4everywhere,
12:b1everywhere,
12:u0everywhere,
12:u2everywhere,
12:u5everywhere,
10:*3day-time,
10:*4day-time,
10:b1day-time,
10:u0day-time,
10:u2day-time,
10:u5day-time,
6:*310pm,
6:*410pm,
6:b110pm,
6:u010pm,
6:u210pm,
6:u510pm,
17:*3midway-airlines,
17:*4midway-airlines,
17:b1midway-airlines,
17:u0midway-airlines,
17:u2midway-airlines,
17:u5midway-airlines,
7:u0tenth,
7:u2tenth,
7:u5tenth,
8:*3twelve,
8:*4twelve,
12:*3capacities,
12:*4capacities,
12:b1capacities,
12:u0capacities,
12:u2capacities,
12:u5capacities,
9:*3largest,
9:*4largest,
9:b1largest,
9:u0largest,
9:u2largest,
9:u5largest,
10:*3greatest,
10:*4greatest,
10:b1greatest,
10:u0greatest,
10:u2greatest,
10:u5greatest,
5:*3767,
5:*4767,
8:*3dinner,
8:*4dinner,
7:*3snack,
7:*4snack,
5:*33pm,
5:*43pm,
5:b13pm,
5:u03pm,
5:u23pm,
5:u53pm,
4:*312,
4:*412,
4:b112,
3:*32,
3:*42,
4:u012,
4:u212,
4:u512,
3:b12,
3:u02,
3:u22,
3:u52,
7:b1sixth,
7:u0sixth,
7:u2sixth,
7:u5sixth,
12:*3car-rental,
12:*4car-rental,
12:b1car-rental,
12:u0car-rental,
12:u2car-rental,
12:u5car-rental,
6:*3limo,
6:*4limo,
6:b1limo,
6:u0limo,
6:u2limo,
6:u5limo,
8:*3coming,
8:*4coming,
7:b1ninth,
7:u0ninth,
8:b1coming,
7:u2ninth,
7:u5ninth,
8:u0coming,
6:b1back,
8:u2coming,
8:u5coming,
6:u0back,
6:u2back,
6:u5back,
5:*3fit,
5:*4fit,
5:b1fit,
5:u0fit,
5:u2fit,
5:u5fit,
5:b172s,
5:*3d9s,
5:*4d9s,
5:*373s,
5:*473s,
6:*3once,
6:*4once,
6:b1once,
6:u0once,
6:u2once,
6:u5once,
11:*3expensive,
11:*4expensive,
11:b1expensive,
11:u0expensive,
11:u2expensive,
11:u5expensive,
7:b1eight,
5:*3sfo,
5:*4sfo,
9:*3charges,
9:*4charges,
9:b1charges,
9:u0charges,
9:u2charges,
9:u5charges,
4:*3no,
4:*4no,
4:b1no,
4:u0no,
4:u2no,
4:u5no,
5:*34pm,
5:*44pm,
4:*3so,
4:*4so,
4:b1so,
4:u0so,
4:u2so,
4:u5so,
6:*3here,
6:*4here,
6:b1here,
6:*311am,
6:*411am,
6:u0here,
6:u2here,
6:u5here,
14:*3abbreviation,
14:*4abbreviation,
4:*3ua,
4:*4ua,
14:b1abbreviation,
14:u0abbreviation,
4:b1ua,
14:u2abbreviation,
14:u5abbreviation,
4:*3co,
4:*4co,
4:b1co,
4:b1dl,
9:*3weekday,
9:*4weekday,
3:*3y,
3:*4y,
3:b1y,
12:*31300-hours,
12:*41300-hours,
12:*31600-hours,
12:*41600-hours,
5:*37am,
5:*47am,
12:*31700-hours,
12:*41700-hours,
12:b11700-hours,
12:u01700-hours,
12:u21700-hours,
12:u51700-hours,
7:*3under,
7:*4under,
13:*3500-dollars,
13:*4500-dollars,
7:b1under,
7:u0under,
13:b1500-dollars,
7:u2under,
7:u5under,
13:u0500-dollars,
13:u2500-dollars,
13:u5500-dollars,
10:*3airfares,
10:*4airfares,
10:b1airfares,
10:u0airfares,
10:u2airfares,
10:u5airfares,
9:*3options,
9:*4options,
9:b1options,
9:u0options,
9:u2options,
9:u5options,
8:*3philly,
8:*4philly,
9:*3arrival,
9:*4arrival,
9:b1arrival,
9:u0arrival,
9:u2arrival,
9:u5arrival,
11:b11-o'clock,
11:u01-o'clock,
11:u21-o'clock,
11:u51-o'clock,
11:*3regarding,
11:*4regarding,
23:*3san-francisco-airport,
23:*4san-francisco-airport,
11:b1regarding,
15:b1twenty-eighth,
9:b1display,
9:u0display,
9:u2display,
9:u5display,
8:*3second,
8:*4second,
7:*3seven,
7:*4seven,
6:*312pm,
6:*412pm,
6:b112pm,
6:u012pm,
6:u212pm,
6:u512pm,
10:*3economic,
10:*4economic,
10:b1economic,
4:*398,
4:*498,
4:*3us,
4:*4us,
5:*3345,
5:*4345,
4:b1us,
4:u0us,
5:b1345,
4:u2us,
4:u5us,
5:u0345,
5:u2345,
5:u5345,
6:*3rent,
6:*4rent,
6:b1rent,
5:*3car,
5:*4car,
6:u0rent,
6:u2rent,
6:u5rent,
5:b1car,
33:*3stapleton-international-airport,
33:*4stapleton-international-airport,
5:u0car,
5:u2car,
5:u5car,
33:b1stapleton-international-airport,
33:u0stapleton-international-airport,
33:u2stapleton-international-airport,
33:u5stapleton-international-airport,
8:u0sunday,
8:u2sunday,
8:u5sunday,
6:*31083,
6:*41083,
4:u0dl,
6:b11083,
4:u2dl,
4:u5dl,
6:u01083,
6:u21083,
6:u51083,
11:*3saturdays,
11:*4saturdays,
5:*3201,
5:*4201,
4:u0ua,
5:b1201,
4:u2ua,
4:u5ua,
5:u0201,
5:u2201,
5:u5201,
5:*3343,
5:*4343,
5:b1343,
5:u0343,
5:u2343,
5:u5343,
5:*3323,
5:*4323,
5:b1323,
5:*3229,
5:*4229,
5:u0323,
5:u2323,
5:u5323,
5:b1229,
5:u0229,
5:u2229,
5:u5229,
6:b1week,
6:u0week,
6:u2week,
6:u5week,
9:*3meaning,
9:*4meaning,
9:b1meaning,
9:u0meaning,
9:u2meaning,
9:u5meaning,
4:b1qx,
4:*3qw,
4:*4qw,
4:u0qx,
4:u2qx,
4:u5qx,
9:b1weekday,
9:u0weekday,
9:u2weekday,
9:u5weekday,
10:u0tomorrow,
10:u2tomorrow,
10:u5tomorrow,
7:*3costs,
7:*4costs,
7:b1costs,
7:u0costs,
7:u2costs,
7:u5costs,
24:*3the-day-after-tomorrow,
24:*4the-day-after-tomorrow,
11:*3transport,
11:*4transport,
11:b1transport,
5:*3210,
5:*4210,
13:*3car-rentals,
13:*4car-rentals,
13:b1car-rentals,
13:u0car-rentals,
13:u2car-rentals,
13:u5car-rentals,
11:b1saturdays,
11:u0saturdays,
11:u2saturdays,
11:u5saturdays,
5:*3d-s,
5:*4d-s,
5:b1d-s,
5:u0d-s,
5:u2d-s,
5:u5d-s,
7:u0stand,
7:u2stand,
7:u5stand,
5:*3106,
5:*4106,
5:b1106,
5:u0106,
5:u2106,
5:u5106,
9:*3grounds,
9:*4grounds,
9:b1grounds,
9:u0grounds,
9:u2grounds,
9:u5grounds,
7:*3again,
7:*4again,
5:*3838,
5:*4838,
5:b1838,
5:u0838,
5:u2838,
5:u5838,
13:*3reservation,
13:*4reservation,
13:b1reservation,
13:u0reservation,
13:u2reservation,
13:u5reservation,
12:b1requesting,
12:u0requesting,
12:u2requesting,
12:u5requesting,
12:*3requesting,
12:*4requesting,
10:*3starting,
10:*4starting,
10:b1starting,
10:u0starting,
10:u2starting,
10:u5starting,
12:*3afterwards,
12:*4afterwards,
5:*3402,
5:*4402,
5:b1402,
5:u0402,
5:u2402,
5:u5402,
5:*3270,
5:*4270,
5:b1270,
5:u0270,
5:u2270,
5:u5270,
5:*3297,
5:*4297,
5:b1297,
5:u0297,
5:u2297,
5:u5297,
5:*3281,
5:*4281,
5:b1281,
5:u0281,
5:u2281,
5:u5281,
10:b1tuesdays,
12:*3wednesdays,
12:*4wednesdays,
10:u0tuesdays,
10:u2tuesdays,
10:u5tuesdays,
11:*3thursdays,
11:*4thursdays,
12:*3fourteenth,
12:*4fourteenth,
7:*3ap-80,
7:*4ap-80,
13:u0restriction,
7:b1ap-80,
13:u2restriction,
13:u5restriction,
7:*3ap-57,
7:*4ap-57,
5:b14pm,
5:u04pm,
5:u24pm,
5:u54pm,
5:b18pm,
5:u08pm,
5:u28pm,
5:u58pm,
14:*32-o'clock-pm,
14:*42-o'clock-pm,
14:*39-o'clock-am,
14:*49-o'clock-am,
14:b19-o'clock-am,
14:b15-o'clock-pm,
24:b1the-day-after-tomorrow,
24:u0the-day-after-tomorrow,
24:u2the-day-after-tomorrow,
24:u5the-day-after-tomorrow,
14:*33-o'clock-pm,
14:*43-o'clock-pm,
14:b13-o'clock-pm,
14:u03-o'clock-pm,
14:u23-o'clock-pm,
14:u53-o'clock-pm,
14:*38-o'clock-pm,
14:*48-o'clock-pm,
14:*38-o'clock-am,
14:*48-o'clock-am,
14:b18-o'clock-am,
14:u08-o'clock-am,
14:u28-o'clock-am,
14:u58-o'clock-am,
14:u05-o'clock-pm,
14:u25-o'clock-pm,
14:u55-o'clock-pm,
7:u0serve,
7:u2serve,
7:u5serve,
13:*3us-airlines,
13:*4us-airlines,
13:b1us-airlines,
13:u0us-airlines,
13:u2us-airlines,
13:u5us-airlines,
15:*311-o'clock-am,
15:*411-o'clock-am,
3:u0y,
3:u2y,
3:u5y,
9:*3explain,
9:*4explain,
11:u0transport,
11:u2transport,
11:u5transport,
3:*3m,
3:*4m,
3:b1m,
6:*3ap68,
6:*4ap68,
12:*3continuing,
12:*4continuing,
12:b1continuing,
12:u0continuing,
12:u2continuing,
12:u5continuing,
12:*3limousines,
12:*4limousines,
12:b1limousines,
6:*3taxi,
6:*4taxi,
12:u0limousines,
12:u2limousines,
12:u5limousines,
6:b1taxi,
6:u0taxi,
6:u2taxi,
6:u5taxi,
6:*31209,
6:*41209,
7:*3names,
7:*4names,
7:b1names,
7:u0names,
7:u2names,
7:u5names,
13:*3rental-cars,
13:*4rental-cars,
4:b1qw,
4:u0qw,
4:u2qw,
4:u5qw,
6:*3sd-d,
6:*4sd-d,
8:*3listed,
8:*4listed,
8:b1listed,
6:*31055,
6:*41055,
8:u0listed,
8:u2listed,
8:u5listed,
6:b11055,
5:*3405,
5:*4405,
6:u01055,
6:u21055,
6:u51055,
4:*3ea,
4:*4ea,
4:b1ea,
4:u0ea,
4:u2ea,
4:u5ea,
6:*3look,
6:*4look,
6:b1look,
6:u0look,
6:u2look,
6:u5look,
7:b1today,
7:u0today,
7:u2today,
7:u5today,
9:b1what're,
9:u0what're,
9:u2what're,
9:u5what're,
8:b1second,
8:u0second,
8:u2second,
8:u5second,
6:b111am,
6:u011am,
6:u211am,
6:u511am,
8:u0during,
8:u2during,
8:u5during,
12:*3eighteenth,
12:*4eighteenth,
8:*31045am,
8:*41045am,
5:*3430,
5:*4430,
5:b1430,
7:*3530pm,
7:*4530pm,
5:u0430,
5:u2430,
5:u5430,
8:*31145am,
8:*41145am,
7:*3838am,
7:*4838am,
7:b1838am,
7:u0838am,
7:u2838am,
7:u5838am,
5:u0via,
5:u2via,
5:u5via,
8:b1thanks,
8:u0thanks,
8:u2thanks,
8:u5thanks,
6:*3near,
6:*4near,
6:b1near,
6:u0near,
5:b15pm,
6:u2near,
6:u5near,
5:u05pm,
5:u25pm,
5:u55pm,
7:*3close,
7:*4close,
7:b1close,
7:u0close,
7:u2close,
7:u5close,
6:*31110,
6:*41110,
6:b11110,
6:u01110,
6:u21110,
6:u51110,
23:b1san-francisco-airport,
23:u0san-francisco-airport,
23:u2san-francisco-airport,
23:u5san-francisco-airport,
9:*3fifteen,
9:*4fifteen,
7:b1while,
7:u0while,
7:u2while,
7:u5while,
8:*3wanted,
8:*4wanted,
8:b1wanted,
8:u0wanted,
8:u2wanted,
8:u5wanted,
12:*3afternoons,
12:*4afternoons,
9:*3maximum,
9:*4maximum,
9:b1maximum,
9:u0maximum,
9:u2maximum,
9:u5maximum,
7:*3spend,
7:*4spend,
7:b1spend,
7:u0spend,
7:u2spend,
7:u5spend,
9:*3lastest,
9:*4lastest,
9:b1lastest,
9:u0lastest,
9:u2lastest,
9:u5lastest,
9:*3longest,
9:*4longest,
9:b1longest,
9:u0longest,
9:u2longest,
9:u5longest,
5:*3but,
5:*4but,
5:b1but,
5:u0but,
5:u2but,
5:u5but,
8:u0within,
8:u2within,
8:u5within,
6:*31059,
6:*41059,
6:*3over,
6:*4over,
6:b1over,
6:u0over,
6:u2over,
6:u5over,
4:*321,
4:*421,
5:*3852,
5:*4852,
5:b1852,
5:u0852,
5:u2852,
5:u5852,
5:*3928,
5:*4928,
5:b1928,
5:u0928,
5:u2928,
5:u5928,
7:*3start,
7:*4start,
7:b1start,
7:u0start,
7:u2start,
7:u5start,
10:*3bay-area,
10:*4bay-area,
7:*3order,
7:*4order,
6:*3it's,
6:*4it's,
6:b1it's,
5:*3445,
5:*4445,
5:b1445,
7:*3515pm,
7:*4515pm,
5:u0445,
5:u2445,
5:u5445,
20:*3washington-airport,
20:*4washington-airport,
20:b1washington-airport,
20:u0washington-airport,
20:u2washington-airport,
20:u5washington-airport,
25:*3maximum-number-of-stops,
25:*4maximum-number-of-stops,
8:b1locate,
8:u0locate,
8:u2locate,
8:u5locate,
11:*3hartfield,
11:*4hartfield,
9:*3travels,
9:*4travels,
9:b1travels,
9:u0travels,
9:u2travels,
9:u5travels,
6:*3late,
6:*4late,
6:b1late,
6:u0late,
6:u2late,
6:u5late,
6:*3zone,
6:*4zone,
6:b1zone,
6:u0zone,
6:u2zone,
6:u5zone,
13:*3inexpensive,
13:*4inexpensive,
13:b1inexpensive,
13:u0inexpensive,
13:u2inexpensive,
13:u5inexpensive,
11:*3currently,
11:*4currently,
11:b1currently,
11:u0currently,
11:u2currently,
11:u5currently,
5:*3530,
5:*4530,
6:*3must,
6:*4must,
6:b1must,
6:u0must,
6:u2must,
6:u5must,
10:*3midnight,
10:*4midnight,
10:b1midnight,
10:u0midnight,
10:u2midnight,
10:u5midnight,
6:*3land,
6:*4land,
6:b1land,
6:u0land,
6:u2land,
6:u5land,
7:*3place,
7:*4place,
17:b1oakland-airport,
17:u0oakland-airport,
17:u2oakland-airport,
17:u5oakland-airport,
7:*3730pm,
7:*4730pm,
18:*3transcontinental,
18:*4transcontinental,
18:b1transcontinental,
18:u0transcontinental,
18:u2transcontinental,
18:u5transcontinental,
8:*3across,
8:*4across,
8:b1across,
11:*3continent,
11:*4continent,
8:u0across,
8:u2across,
8:u5across,
11:b1continent,
11:u0continent,
11:u2continent,
11:u5continent,
7:*3430pm,
7:*4430pm,
7:b1430pm,
7:*3630pm,
7:*4630pm,
7:u0430pm,
7:u2430pm,
7:u5430pm,
6:*3gets,
6:*4gets,
6:b1gets,
6:u0gets,
6:u2gets,
6:u5gets,
7:*3month,
7:*4month,
7:b1month,
7:u0month,
7:u2month,
7:u5month,
10:u0december,
10:u2december,
10:u5december,
10:*3connects,
10:*4connects,
10:b1connects,
10:u0connects,
10:u2connects,
10:u5connects,
14:*37-o'clock-pm,
14:*47-o'clock-pm,
10:*3vicinity,
10:*4vicinity,
10:b1vicinity,
10:u0vicinity,
10:u2vicinity,
10:u5vicinity,
8:*3begins,
8:*4begins,
8:b1begins,
8:u0begins,
8:u2begins,
8:u5begins,
7:*3lands,
7:*4lands,
7:b1lands,
7:u0lands,
7:u2lands,
7:u5lands,
7:*3don't,
7:*4don't,
7:b1don't,
7:u0don't,
7:u2don't,
11:*3stopovers,
11:*4stopovers,
7:u5don't,
11:b1stopovers,
11:u0stopovers,
11:u2stopovers,
11:u5stopovers,
16:*3city-in-dallas,
16:*4city-in-dallas,
5:*3757,
5:*4757,
5:b1757,
5:u0757,
5:u2757,
5:u5757,
6:*31992,
6:*41992,
9:u0january,
9:u2january,
9:u5january,
6:b11992,
6:u01992,
6:u21992,
6:u51992,
9:u0october,
9:u2october,
9:u5october,
14:b18-o'clock-pm,
15:*310-o'clock-pm,
15:*410-o'clock-pm,
14:u08-o'clock-pm,
14:u28-o'clock-pm,
14:u58-o'clock-pm,
8:b1define,
8:u0define,
8:u2define,
8:u5define,
4:*3fn,
4:*4fn,
7:*3ap-55,
7:*4ap-55,
11:*3sixteenth,
11:*4sixteenth,
5:b1atl,
5:u0atl,
5:u2atl,
5:u5atl,
9:*3listing,
9:*4listing,
9:b1listing,
9:u0listing,
9:u2listing,
9:u5listing,
6:*32100,
6:*42100,
11:*34-o'clock,
11:*44-o'clock,
11:b14-o'clock,
11:u04-o'clock,
11:u24-o'clock,
11:u54-o'clock,
15:*3twenty-fourth,
15:*4twenty-fourth,
5:*3746,
5:*4746,
5:b1746,
4:b1hi,
4:u0hi,
4:u2hi,
4:u5hi,
3:*3q,
3:*4q,
11:*3overnight,
11:*4overnight,
11:b1overnight,
11:u0overnight,
11:u2overnight,
11:u5overnight,
9:*3without,
9:*4without,
9:b1without,
9:u0without,
9:u2without,
9:u5without,
14:b1pennsylvania,
14:u0pennsylvania,
14:u2pennsylvania,
14:u5pennsylvania,
12:b1wednesdays,
12:u0wednesdays,
12:u2wednesdays,
12:u5wednesdays,
6:*31291,
6:*41291,
6:b11291,
6:u01291,
6:u21291,
6:u51291,
5:*3271,
5:*4271,
5:b1271,
5:u0271,
5:u2271,
5:u5271,
6:*3sort,
6:*4sort,
6:b1sort,
6:u0sort,
6:u2sort,
6:u5sort,
14:b16-o'clock-pm,
14:u06-o'clock-pm,
14:u26-o'clock-pm,
14:u56-o'clock-pm,
14:*37-o'clock-am,
14:*47-o'clock-am,
14:b17-o'clock-am,
14:u07-o'clock-am,
14:u27-o'clock-am,
14:u57-o'clock-am,
14:*35-o'clock-am,
14:*45-o'clock-am,
14:b15-o'clock-am,
14:u05-o'clock-am,
14:u25-o'clock-am,
14:u55-o'clock-am,
5:b17am,
5:u07am,
5:u27am,
5:u57am,
14:*31500-dollars,
14:*41500-dollars,
14:b11500-dollars,
14:*31100-dollars,
14:*41100-dollars,
4:*3up,
4:*4up,
4:b1up,
4:u0up,
4:u2up,
4:u5up,
9:*3mondays,
9:*4mondays,
15:*3only-weekdays,
15:*4only-weekdays,
15:b1only-weekdays,
15:u0only-weekdays,
15:u2only-weekdays,
15:u5only-weekdays,
4:*3ap,
4:*4ap,
4:b1ap,
6:*3area,
6:*4area,
8:*3proper,
8:*4proper,
7:b1ap-57,
3:b1f,
3:u0f,
3:u2f,
3:u5f,
4:b1fn,
13:b1rental-cars,
13:u0rental-cars,
13:u2rental-cars,
13:u5rental-cars,
10:b1eleventh,
10:u0eleventh,
10:u2eleventh,
10:u5eleventh,
9:b1twelfth,
8:*3priced,
8:*4priced,
8:b1priced,
8:u0priced,
8:u2priced,
8:u5priced,
5:*3212,
5:*4212,
5:b1212,
5:u0212,
5:u2212,
5:u5212,
10:*3anywhere,
10:*4anywhere,
10:b1anywhere,
6:*31850,
6:*41850,
10:u0anywhere,
10:u2anywhere,
10:u5anywhere,
6:b11850,
6:u01850,
6:u21850,
6:u51850,
6:*31700,
6:*41700,
6:b11700,
6:u01700,
6:u21700,
6:u51700,
5:*3217,
5:*4217,
5:b1217,
5:u0217,
5:u2217,
5:u5217,
13:*3300-dollars,
13:*4300-dollars,
13:*3400-dollars,
13:*4400-dollars,
13:b1400-dollars,
13:u0400-dollars,
13:u2400-dollars,
13:u5400-dollars,
6:*33357,
6:*43357,
6:b13357,
6:u03357,
6:u23357,
6:u53357,
5:b1sfo,
5:u0sfo,
5:u2sfo,
5:u5sfo,
8:*3summer,
8:*4summer,
5:*3non,
5:*4non,
5:b1non,
5:u0non,
5:u2non,
5:u5non,
4:u0fn,
4:u2fn,
4:u5fn,
10:*3mornings,
10:*4mornings,
4:b1yn,
11:b1sixteenth,
11:u0sixteenth,
11:u2sixteenth,
11:u5sixteenth,
14:*31000-dollars,
14:*41000-dollars,
6:*30900,
6:*40900,
6:*33724,
6:*43724,
6:b13724,
6:u03724,
6:u23724,
6:u53724,
5:*3771,
5:*4771,
5:b1771,
5:u0771,
5:u2771,
5:u5771,
18:*3flight-schedules,
18:*4flight-schedules,
18:b1flight-schedules,
18:u0flight-schedules,
18:u2flight-schedules,
18:u5flight-schedules,
9:*3include,
9:*4include,
9:b1include,
6:b1ap57,
14:b11000-dollars,
14:u01000-dollars,
14:u21000-dollars,
14:u51000-dollars,
10:b1mornings,
10:u0mornings,
10:u2mornings,
10:u5mornings,
9:*3whether,
9:*4whether,
9:u0include,
9:b1whether,
9:u2include,
9:u5include,
9:u0whether,
9:u2whether,
9:*3offered,
9:*4offered,
9:u5whether,
9:b1offered,
9:u0offered,
9:u2offered,
9:u5offered,
13:*3round-trips,
13:*4round-trips,
13:b1round-trips,
13:u0round-trips,
13:u2round-trips,
13:u5round-trips,
9:*3toronto,
9:*4toronto,
9:b1toronto,
9:u0toronto,
9:u2toronto,
9:u5toronto,
4:*3ac,
4:*4ac,
4:b1ac,
4:u0ac,
4:u2ac,
4:u5ac,
10:*3new-york,
10:*4new-york,
10:b1new-york,
10:u0new-york,
10:u2new-york,
10:u5new-york,
15:*3new-york-city,
15:*4new-york-city,
11:*3milwaukee,
11:*4milwaukee,
11:b1milwaukee,
9:*3orlando,
9:*4orlando,
11:u0milwaukee,
11:u2milwaukee,
11:u5milwaukee,
9:b1orlando,
9:u0orlando,
9:u2orlando,
9:u5orlando,
9:*3ontario,
9:*4ontario,
9:b1ontario,
8:*3tacoma,
8:*4tacoma,
9:u0ontario,
9:u2ontario,
9:u5ontario,
8:b1tacoma,
8:u0tacoma,
8:u2tacoma,
8:u5tacoma,
13:*3minneapolis,
13:*4minneapolis,
13:b1minneapolis,
11:*3san-diego,
11:*4san-diego,
13:u0minneapolis,
13:u2minneapolis,
13:u5minneapolis,
11:b1san-diego,
11:u0san-diego,
11:u2san-diego,
11:u5san-diego,
16:*3salt-lake-city,
16:*4salt-lake-city,
16:b1salt-lake-city,
12:*3cincinnati,
12:*4cincinnati,
16:u0salt-lake-city,
16:u2salt-lake-city,
16:u5salt-lake-city,
12:b1cincinnati,
12:u0cincinnati,
12:u2cincinnati,
12:u5cincinnati,
7:*3miami,
7:*4miami,
7:b1miami,
7:u0miami,
7:u2miami,
7:u5miami,
20:*3southwest-airlines,
20:*4southwest-airlines,
20:b1southwest-airlines,
20:u0southwest-airlines,
20:u2southwest-airlines,
20:u5southwest-airlines,
9:*3phoenix,
9:*4phoenix,
9:b1phoenix,
9:u0phoenix,
9:u2phoenix,
9:u5phoenix,
12:*3la-guardia,
12:*4la-guardia,
12:b1la-guardia,
8:*3dulles,
8:*4dulles,
8:b1dulles,
8:u0dulles,
8:u2dulles,
8:u5dulles,
13:*3los-angeles,
13:*4los-angeles,
11:*3las-vegas,
11:*4las-vegas,
7:*3equal,
7:*4equal,
7:b1equal,
13:*3466-dollars,
13:*4466-dollars,
7:u0equal,
7:u2equal,
7:u5equal,
13:b1466-dollars,
13:u0466-dollars,
13:u2466-dollars,
13:u5466-dollars,
13:*3932-dollars,
13:*4932-dollars,
7:*3along,
7:*4along,
7:b1along,
7:u0along,
7:u2along,
7:u5along,
14:*3indianapolis,
14:*4indianapolis,
14:b1indianapolis,
9:*3memphis,
9:*4memphis,
14:u0indianapolis,
14:u2indianapolis,
14:u5indianapolis,
9:*3burbank,
9:*4burbank,
9:b1burbank,
9:u0burbank,
9:u2burbank,
9:u5burbank,
16:*3st.-petersburg,
16:*4st.-petersburg,
16:b1st.-petersburg,
16:u0st.-petersburg,
16:u2st.-petersburg,
16:u5st.-petersburg,
15:*3abbreviations,
15:*4abbreviations,
10:*3san-jose,
10:*4san-jose,
10:b1san-jose,
10:u0san-jose,
10:u2san-jose,
10:u5san-jose,
24:*3salt-lake-city-airport,
24:*4salt-lake-city-airport,
24:b1salt-lake-city-airport,
24:u0salt-lake-city-airport,
24:u2salt-lake-city-airport,
24:u5salt-lake-city-airport,
7:*3tampa,
7:*4tampa,
7:b1tampa,
11:*3st.-louis,
11:*4st.-louis,
7:u0tampa,
7:u2tampa,
7:u5tampa,
11:b1st.-louis,
11:u0st.-louis,
11:u2st.-louis,
11:u5st.-louis,
9:*3houston,
9:*4houston,
9:b1houston,
9:u0houston,
9:u2houston,
9:u5houston,
9:*3symbols,
9:*4symbols,
9:b1symbols,
9:u0symbols,
9:u2symbols,
9:u5symbols,
4:u0yn,
4:u2yn,
4:u5yn,
4:*3hp,
4:*4hp,
17:*3orlando-airport,
17:*4orlando-airport,
17:b1orlando-airport,
17:u0orlando-airport,
17:u2orlando-airport,
17:u5orlando-airport,
23:*3orlando-international,
23:*4orlando-international,
23:b1orlando-international,
23:u0orlando-international,
23:u2orlando-international,
23:u5orlando-international,
5:*3417,
5:*4417,
5:b1417,
5:u0417,
5:u2417,
5:u5417,
7:*3718am,
7:*4718am,
13:b1los-angeles,
13:u0los-angeles,
13:u2los-angeles,
13:u5los-angeles,
25:*3minimum-connection-time,
25:*4minimum-connection-time,
25:b1minimum-connection-time,
26:*3houston-intercontinental,
26:*4houston-intercontinental,
25:u0minimum-connection-time,
25:u2minimum-connection-time,
25:u5minimum-connection-time,
6:*34400,
6:*44400,
6:b14400,
6:u04400,
6:u24400,
6:u54400,
6:*31026,
6:*41026,
8:*3o'hare,
8:*4o'hare,
8:b1o'hare,
8:u0o'hare,
8:u2o'hare,
8:u5o'hare,
7:b1718am,
9:*3chicago,
9:*4chicago,
9:b1chicago,
9:u0chicago,
9:u2chicago,
9:u5chicago,
10:*3montreal,
10:*4montreal,
10:b1montreal,
10:u0montreal,
10:u2montreal,
13:*3150-dollars,
13:*4150-dollars,
10:u5montreal,
10:*3columbus,
10:*4columbus,
10:b1columbus,
10:u0columbus,
10:u2columbus,
10:u5columbus,
10:*3st.-paul,
10:*4st.-paul,
8:*3newark,
8:*4newark,
8:b1newark,
11:*3cleveland,
11:*4cleveland,
8:u0newark,
8:u2newark,
8:u5newark,
11:b1cleveland,
11:u0cleveland,
11:u2cleveland,
11:u5cleveland,
12:*3new-jersey,
12:*4new-jersey,
12:b1new-jersey,
12:u0new-jersey,
12:u2new-jersey,
12:u5new-jersey,
5:*3jfk,
5:*4jfk,
5:b1jfk,
5:u0jfk,
5:u2jfk,
5:u5jfk,
12:u0la-guardia,
12:u2la-guardia,
12:u5la-guardia,
11:*3nashville,
11:*4nashville,
11:b1nashville,
11:u0nashville,
11:u2nashville,
11:u5nashville,
10:*3weekdays,
10:*4weekdays,
20:*3westchester-county,
20:*4westchester-county,
20:b1westchester-county,
20:u0westchester-county,
20:u2westchester-county,
20:u5westchester-county,
11:b1las-vegas,
11:u0las-vegas,
11:u2las-vegas,
11:u5las-vegas,
4:*3ff,
4:*4ff,
11:*3tower-air,
11:*4tower-air,
11:b1tower-air,
11:u0tower-air,
11:u2tower-air,
11:u5tower-air,
12:*3long-beach,
12:*4long-beach,
12:b1long-beach,
12:u0long-beach,
12:u2long-beach,
12:u5long-beach,
6:*3ohio,
6:*4ohio,
4:*3sa,
4:*4sa,
9:*3seattle,
9:*4seattle,
9:b1seattle,
9:u0seattle,
9:u2seattle,
9:u5seattle,
6:*31993,
6:*41993,
4:*3nw,
4:*4nw,
7:b1bring,
7:u0bring,
7:u2bring,
7:u5bring,
5:*3mco,
5:*4mco,
9:*3calling,
9:*4calling,
9:b1calling,
9:u0calling,
9:u2calling,
9:u5calling,
4:*3la,
4:*4la,
5:b1mco,
5:u0mco,
5:u2mco,
5:u5mco,
9:b1memphis,
9:u0memphis,
9:u2memphis,
9:u5memphis,
6:*3i've,
6:*4i've,
5:*3got,
5:*4got,
6:b1i've,
10:*3somebody,
10:*4somebody,
6:u0i've,
5:b1got,
6:u2i've,
6:*3else,
6:*4else,
6:u5i've,
5:u0got,
10:b1somebody,
5:u2got,
5:u5got,
10:u0somebody,
6:b1else,
10:u2somebody,
7:*3wants,
7:*4wants,
10:u5somebody,
6:u0else,
6:u2else,
6:u5else,
5:u0who,
7:b1wants,
5:u2who,
5:u5who,
7:u0wants,
7:u2wants,
7:u5wants,
11:*3charlotte,
11:*4charlotte,
11:b1charlotte,
11:u0charlotte,
11:u2charlotte,
11:u5charlotte,
13:*3kansas-city,
13:*4kansas-city,
3:b1q,
12:*3difference,
12:*4difference,
12:b1difference,
12:u0difference,
12:u2difference,
12:u5difference,
3:u0q,
3:u2q,
3:u5q,
11:*3tennessee,
11:*4tennessee,
11:b1tennessee,
11:u0tennessee,
11:u2tennessee,
16:*3north-carolina,
16:*4north-carolina,
11:u5tennessee,
4:*3qo,
4:*4qo,
4:b1qo,
4:b1ff,
5:*3ewr,
5:*4ewr,
5:b1ewr,
5:*3bur,
5:*4bur,
7:b1train,
7:u0train,
7:u2train,
7:u5train,
8:*3laying,
8:*4laying,
8:b1laying,
8:u0laying,
8:u2laying,
8:u5laying,
12:*3air-canada,
12:*4air-canada,
12:b1air-canada,
12:u0air-canada,
12:u2air-canada,
12:u5air-canada,
11:*3minnesota,
11:*4minnesota,
8:*3stands,
8:*4stands,
8:b1stands,
8:u0stands,
8:u2stands,
8:u5stands,
13:b1kansas-city,
13:u0kansas-city,
13:u2kansas-city,
13:u5kansas-city,
9:*3florida,
9:*4florida,
9:b1florida,
9:u0florida,
9:u2florida,
9:u5florida,
9:*3landing,
9:*4landing,
9:b1landing,
9:u0landing,
9:u2landing,
9:u5landing,
6:*3soon,
6:*4soon,
6:b1soon,
6:u0soon,
6:u2soon,
6:u5soon,
5:*3ten,
5:*4ten,
5:b1ten,
5:u0ten,
5:u2ten,
5:u5ten,
17:*3during-the-week,
17:*4during-the-week,
18:*3during-week-days,
18:*4during-week-days,
19:*3san-diego-airport,
19:*4san-diego-airport,
19:b1san-diego-airport,
19:u0san-diego-airport,
19:u2san-diego-airport,
19:u5san-diego-airport,
9:b1instead,
9:u0instead,
9:u2instead,
9:u5instead,
32:*3as-soon-thereafter-as-possible,
32:*4as-soon-thereafter-as-possible,
4:b1nw,
4:u0nw,
4:u2nw,
4:u5nw,
17:*3phoenix-airport,
17:*4phoenix-airport,
17:b1phoenix-airport,
17:u0phoenix-airport,
17:u2phoenix-airport,
17:u5phoenix-airport,
13:*3meal-code-s,
13:*4meal-code-s,
6:b1uses,
6:u0uses,
6:u2uses,
6:u5uses,
5:*3lax,
5:*4lax,
5:b1lax,
5:u0lax,
5:u2lax,
5:u5lax,
9:b1numbers,
9:u0numbers,
9:u2numbers,
9:u5numbers,
6:b1ohio,
6:u0ohio,
6:u2ohio,
6:u5ohio,
11:b1minnesota,
11:u0minnesota,
11:u2minnesota,
11:u5minnesota,
15:b1new-york-city,
15:u0new-york-city,
15:u2new-york-city,
8:*3canada,
8:*4canada,
15:u5new-york-city,
8:b1canada,
8:u0canada,
8:u2canada,
8:u5canada,
10:*3listings,
10:*4listings,
10:b1listings,
10:u0listings,
10:u2listings,
10:u5listings,
10:*3missouri,
10:*4missouri,
10:b1missouri,
10:u0missouri,
10:u2missouri,
6:*3utah,
6:*4utah,
10:u5missouri,
6:b1utah,
6:u0utah,
6:u2utah,
6:u5utah,
6:*31222,
6:*41222,
6:b11222,
6:u01222,
6:u21222,
6:u51222,
12:*3preferably,
12:*4preferably,
12:b1preferably,
12:u0preferably,
12:u2preferably,
12:u5preferably,
8:*3497766,
8:*4497766,
8:b1497766,
8:u0497766,
8:u2497766,
8:u5497766,
7:*3810pm,
7:*4810pm,
7:b1810pm,
7:u0810pm,
7:u2810pm,
7:u5810pm,
16:b1north-carolina,
16:u0north-carolina,
16:u2north-carolina,
16:u5north-carolina,
6:*3runs,
6:*4runs,
6:b1runs,
6:u0runs,
6:u2runs,
6:u5runs,
5:*3505,
5:*4505,
5:b1505,
5:u0505,
5:u2505,
5:u5505,
8:*3that's,
8:*4that's,
8:b1dinner,
8:u0dinner,
8:b1that's,
8:u2dinner,
8:u5dinner,
8:u0that's,
8:u2that's,
8:u5that's,
5:*3163,
5:*4163,
12:*3thirteenth,
12:*4thirteenth,
8:b1eighth,
8:u0eighth,
8:u2eighth,
8:u5eighth,
10:*3includes,
10:*4includes,
10:b1includes,
10:u0includes,
10:u2includes,
10:u5includes,
17:*3alaska-airlines,
17:*4alaska-airlines,
17:b1alaska-airlines,
17:u0alaska-airlines,
17:u2alaska-airlines,
17:u5alaska-airlines,
8:*3nevada,
8:*4nevada,
8:b1nevada,
8:u0nevada,
8:u2nevada,
8:u5nevada,
9:*3detroit,
9:*4detroit,
10:*3michigan,
10:*4michigan,
9:b1detroit,
9:u0detroit,
10:b1michigan,
9:u2detroit,
9:u5detroit,
10:u0michigan,
10:u2michigan,
10:u5michigan,
10:*3actually,
10:*4actually,
10:b1actually,
10:u0actually,
10:u2actually,
10:u5actually,
13:*3westchester,
13:*4westchester,
13:b1westchester,
13:u0westchester,
13:u2westchester,
13:u5westchester,
7:*3thing,
7:*4thing,
7:b1thing,
7:u0thing,
7:u2thing,
7:u5thing,
5:*3130,
5:*4130,
5:b1130,
5:u0130,
5:u2130,
5:u5130,
9:u0another,
9:u2another,
9:u5another,
19:*3milwaukee-airport,
19:*4milwaukee-airport,
19:b1milwaukee-airport,
19:u0milwaukee-airport,
19:u2milwaukee-airport,
19:u5milwaukee-airport,
19:*3the-following-day,
19:*4the-following-day,
12:*3twenty-six,
12:*4twenty-six,
8:*3prefer,
8:*4prefer,
8:b1prefer,
8:u0prefer,
8:u2prefer,
8:u5prefer,
8:*3quebec,
8:*4quebec,
8:b1quebec,
8:u0quebec,
8:u2quebec,
8:u5quebec,
9:*3indiana,
9:*4indiana,
9:b1indiana,
9:u0indiana,
9:u2indiana,
9:u5indiana,
10:*3reaching,
10:*4reaching,
10:b1reaching,
10:u0reaching,
10:u2reaching,
10:u5reaching,
9:*3reaches,
9:*4reaches,
9:b1reaches,
9:u0reaches,
9:u2reaches,
3:*37,
3:*47,
9:u5reaches,
3:b17,
3:u07,
3:u27,
3:u57,
11:*3following,
11:*4following,
11:b1following,
11:u0following,
11:u2following,
11:u5following,
7:*3route,
7:*4route,
13:b1seventeenth,
13:u0seventeenth,
13:u2seventeenth,
13:u5seventeenth,
12:b1fourteenth,
12:u0fourteenth,
12:u2fourteenth,
12:u5fourteenth,
12:b1thirteenth,
12:u0thirteenth,
12:u2thirteenth,
12:u5thirteenth,
6:*3date,
6:*4date,
6:b1date,
6:u0date,
6:u2date,
6:u5date,
11:*3hopefully,
11:*4hopefully,
11:b1hopefully,
11:u0hopefully,
11:u2hopefully,
11:u5hopefully,
6:*3home,
6:*4home,
20:*3northwest-airlines,
20:*4northwest-airlines,
20:b1northwest-airlines,
20:u0northwest-airlines,
20:u2northwest-airlines,
20:u5northwest-airlines,
6:*3days,
6:*4days,
6:b1days,
6:u0days,
6:u2days,
6:u5days,
5:*3415,
5:*4415,
5:b1415,
5:u0415,
5:u2415,
5:u5415,
9:*3arizona,
9:*4arizona,
9:b1arizona,
9:u0arizona,
9:u2arizona,
9:u5arizona,
10:b1st.-paul,
10:u0st.-paul,
10:u2st.-paul,
10:u5st.-paul,
11:*3northwest,
11:*4northwest,
11:b1northwest,
11:u0northwest,
11:u2northwest,
11:u5northwest,
23:*3ontario-international,
23:*4ontario-international,
23:b1ontario-international,
23:u0ontario-international,
23:u2ontario-international,
23:u5ontario-international,
9:*3friends,
9:*4friends,
9:b1friends,
9:u0friends,
9:u2friends,
9:u5friends,
17:*3toronto-airport,
17:*4toronto-airport,
14:u0twenty-sixth,
14:u2twenty-sixth,
14:u5twenty-sixth,
20:*3la-guardia-airport,
20:*4la-guardia-airport,
20:b1la-guardia-airport,
20:u0la-guardia-airport,
20:u2la-guardia-airport,
20:u5la-guardia-airport,
4:b1la,
4:u0la,
4:u2la,
4:u5la,
8:*3single,
8:*4single,
8:b1single,
8:u0single,
8:u2single,
8:u5single,
12:b1eighteenth,
12:u0eighteenth,
12:u2eighteenth,
12:u5eighteenth,
9:*3red-eye,
9:*4red-eye,
9:b1red-eye,
9:u0red-eye,
9:u2red-eye,
9:u5red-eye,
9:u0twelfth,
9:u2twelfth,
9:u5twelfth,
12:*3twenty-two,
12:*4twenty-two,
14:*3america-west,
14:*4america-west,
14:b1america-west,
11:*3southwest,
11:*4southwest,
14:u0america-west,
14:u2america-west,
14:u5america-west,
11:b1southwest,
11:u0southwest,
11:u2southwest,
11:u5southwest,
12:b1twenty-two,
12:u0twenty-two,
12:u2twenty-two,
12:u5twenty-two,
5:*3six,
5:*4six,
5:b1six,
5:u0six,
5:u2six,
5:u5six,
11:*3salt-lake,
11:*4salt-lake,
9:*3tonight,
9:*4tonight,
9:b1tonight,
9:u0tonight,
9:u2tonight,
9:u5tonight,
7:*3visit,
7:*4visit,
7:b1visit,
7:u0visit,
7:u2visit,
7:u5visit,
6:*3them,
6:*4them,
7:*3lives,
7:*4lives,
6:b1them,
6:u0them,
7:b1lives,
6:u2them,
6:u5them,
7:u0lives,
7:u2lives,
7:u5lives,
5:b1530,
5:u0530,
5:u2530,
5:u5530,
24:*3st.-petersburg-airport,
24:*4st.-petersburg-airport,
5:*3539,
5:*4539,
21:*3trans-world-airline,
21:*4trans-world-airline,
21:b1trans-world-airline,
21:u0trans-world-airline,
21:u2trans-world-airline,
21:u5trans-world-airline,
8:*31030am,
8:*41030am,
8:b11030am,
8:*31130am,
8:*41130am,
8:u01030am,
8:u21030am,
8:u51030am,
8:*31115am,
8:*41115am,
8:b11115am,
8:*31245pm,
8:*41245pm,
8:u01115am,
8:u21115am,
8:u51115am,
3:*39,
3:*49,
3:b19,
3:u09,
3:u29,
3:u59,
18:*3at-the-same-time,
18:*4at-the-same-time,
12:*3new-york's,
12:*4new-york's,
12:b1new-york's,
31:*3toronto-international-airport,
31:*4toronto-international-airport,
31:b1toronto-international-airport,
31:u0toronto-international-airport,
31:u2toronto-international-airport,
31:u5toronto-international-airport,
35:*3los-angeles-international-airport,
35:*4los-angeles-international-airport,
35:b1los-angeles-international-airport,
35:u0los-angeles-international-airport,
35:u2los-angeles-international-airport,
35:u5los-angeles-international-airport,
37:*3san-francisco-international-airport,
37:*4san-francisco-international-airport,
37:b1san-francisco-international-airport,
37:u0san-francisco-international-airport,
37:u2san-francisco-international-airport,
37:u5san-francisco-international-airport,
9:*3closest,
9:*4closest,
9:b1closest,
9:u0closest,
9:u2closest,
9:u5closest,
4:*319,
4:*419,
4:b119,
4:u019,
4:u219,
4:u519,
5:*3845,
5:*4845,
5:b1845,
5:u0845,
5:u2845,
5:u5845,
7:*3230pm,
7:*4230pm,
7:b1lunch,
8:*3supper,
8:*4supper,
8:b1supper,
5:*3823,
5:*4823,
5:b1823,
5:u0823,
5:u2823,
5:u5823,
6:*31024,
6:*41024,
6:b11024,
6:u01024,
6:u21024,
6:u51024,
6:*31205,
6:*41205,
6:b11205,
6:u01205,
6:u21205,
6:u51205,
5:*3305,
5:*4305,
5:b1305,
5:u0305,
5:u2305,
5:u5305,
7:*3723pm,
7:*4723pm,
8:*31020pm,
8:*41020pm,
8:*3nights,
8:*4nights,
9:*3fridays,
9:*4fridays,
8:*31230pm,
8:*41230pm,
7:*3934pm,
7:*4934pm,
6:*32134,
6:*42134,
8:*3taking,
8:*4taking,
8:b1taking,
8:u0taking,
8:u2taking,
8:u5taking,
5:*3311,
5:*4311,
5:u0ewr,
5:u2ewr,
5:u5ewr,
14:*39-o'clock-pm,
14:*49-o'clock-pm,
14:b19-o'clock-pm,
14:u09-o'clock-pm,
14:u29-o'clock-pm,
14:u59-o'clock-pm,
10:*3nonstops,
10:*4nonstops,
10:b1nonstops,
10:u0nonstops,
10:u2nonstops,
10:u5nonstops,
7:*3vegas,
7:*4vegas,
7:b1vegas,
7:u0vegas,
7:u2vegas,
7:u5vegas,
3:*3h,
3:*4h,
12:*31200-hours,
12:*41200-hours,
10:*3sunday's,
10:*4sunday's,
10:b1sunday's,
10:u0sunday's,
10:u2sunday's,
10:u5sunday's,
13:*3wednesday's,
13:*4wednesday's,
13:b1wednesday's,
13:u0wednesday's,
13:u2wednesday's,
13:u5wednesday's,
10:b1friday's,
10:u0friday's,
10:u2friday's,
10:u5friday's,
15:u0twenty-eighth,
15:u2twenty-eighth,
15:u5twenty-eighth,
17:b112-o'clock-noon,
17:u012-o'clock-noon,
17:u212-o'clock-noon,
17:u512-o'clock-noon,
5:*3mia,
5:*4mia,
5:*3bna,
5:*4bna,
5:*3ord,
5:*4ord,
5:b1ord,
6:*311pm,
6:*411pm,
10:*3february,
10:*4february,
10:b1february,
21:*3continental-airline,
21:*4continental-airline,
7:*3march,
7:*4march,
7:b1march,
10:u0february,
10:u2february,
10:u5february,
7:u0march,
7:u2march,
7:u5march,
12:*3love-field,
12:*4love-field,
19:*3northwest-airline,
19:*4northwest-airline,
19:b1northwest-airline,
19:u0northwest-airline,
19:u2northwest-airline,
19:u5northwest-airline,
5:*3iah,
5:*4iah,
5:b1iah,
5:*3hou,
5:*4hou,
5:b1hou,
12:b1love-field,
12:u0love-field,
12:u2love-field,
12:u5love-field,
33:*3canadian-airlines-international,
33:*4canadian-airlines-international,
4:*3cp,
4:*4cp,
4:b1cp,
19:*3canadian-airlines,
19:*4canadian-airlines,
19:b1canadian-airlines,
9:*3choices,
9:*4choices,
9:b1choices,
9:u0choices,
9:u2choices,
9:u5choices,
7:u0718am,
7:u2718am,
7:u5718am,
12:*3dinnertime,
12:*4dinnertime,
12:b1dinnertime,
6:*31288,
6:*41288,
5:*3d10,
5:*4d10,
10:*3takeoffs,
10:*4takeoffs,
10:b1takeoffs,
10:*3landings,
10:*4landings,
10:u0takeoffs,
10:u2takeoffs,
10:u5takeoffs,
10:b1landings,
32:*3general-mitchell-international,
32:*4general-mitchell-international,
10:u0landings,
10:u2landings,
10:u5landings,
40:*3general-mitchell-international-airport,
40:*4general-mitchell-international-airport,
5:*3off,
5:*4off,
5:b1off,
5:u0off,
5:u2off,
5:u5off,
9:*3takeoff,
9:*4takeoff,
9:b1takeoff,
9:u0takeoff,
9:u2takeoff,
9:u5takeoff,
26:*3general-mitchell-airport,
26:*4general-mitchell-airport,
32:b1general-mitchell-international,
32:u0general-mitchell-international,
32:u2general-mitchell-international,
32:u5general-mitchell-international,
9:*3located,
9:*4located,
18:*3general-mitchell,
18:*4general-mitchell,
12:*3lunch-time,
12:*4lunch-time,
7:u0lunch,
7:u2lunch,
7:u5lunch,
11:*3nationair,
11:*4nationair,
11:b1nationair,
11:u0nationair,
11:u2nationair,
11:u5nationair,
5:*3yyz,
5:*4yyz,
24:*3lester-pearson-airport,
24:*4lester-pearson-airport,
19:u0canadian-airlines,
19:u2canadian-airlines,
19:u5canadian-airlines,
33:b1canadian-airlines-international,
33:u0canadian-airlines-international,
33:u2canadian-airlines-international,
33:u5canadian-airlines-international,
9:*3midwest,
9:*4midwest,
9:*3express,
9:*4express,
9:b1midwest,
9:u0midwest,
9:b1express,
9:u2midwest,
9:u5midwest,
9:u0express,
9:u2express,
9:u5express,
7:*3720am,
7:*4720am,
9:*3highest,
9:*4highest,
9:b1highest,
9:u0highest,
9:u2highest,
9:u5highest,
0=0x1.051ac219003e4p+1
1=0x1.4330691dba6e3p-2
2=0x1.287a5e16254a1p-1
5=0x1.b1929b2356608p-2
6=0x1.d97d4158f559ep-2
8=0x1.404e86f69b6bep-1
11=0x1.f5c9f11d876cep-5
12=0x1.35119f256868ap-1
13=0x1.12fb916eb7726p-1
16=0x1.2f35676143481p-1
20=0x1.123586c32fb43p-1
23=0x1.980a0a9ce1393p-5
28=0x1.18d6d30000ca6p-2
31=0x1.06b76a93dd61ap-1
49=0x1.c12651833de98p-3
6642=0x1.051ac219003e4p+1
6643=0x1.4330691dba6e3p-2
6644=0x1.287a5e16254a1p-1
6647=0x1.b1929b2356608p-2
6648=0x1.d97d4158f559ep-2
6650=0x1.404e86f69b6bep-1
6653=0x1.f5c9f11d876cep-5
6654=0x1.35119f256868ap-1
6655=0x1.12fb916eb7726p-1
6658=0x1.2f35676143481p-1
6662=0x1.123586c32fb43p-1
6665=0x1.980a0a9ce1393p-5
6670=0x1.18d6d30000ca6p-2
6673=0x1.06b76a93dd61ap-1
6691=0x1.c12651833de98p-3
6723=0x1.4bd2ed452c298p-2
6804=0x1.06cdf6eccf026p+0
7209=0x1.84817c222c056p-5
7776=-0x1.5f1659348afb1p-6
8181=0x1.20c5f2a066cbcp-4
9072=0x1.243109082f45ap-1
13365=0x1.4bd2ed452c298p-2
13446=0x1.06cdf6eccf026p+0
13851=0x1.84817c222c056p-5
14418=-0x1.5f1659348afb1p-6
14823=0x1.20c5f2a066cbcp-4
15714=0x1.243109082f45ap-1
20007=0x1.051ac219003e4p+1
20008=0x1.4330691dba6e3p-2
20009=0x1.287a5e16254a1p-1
20012=0x1.b1929b2356608p-2
20013=0x1.d97d4158f559ep-2
20015=0x1.404e86f69b6bep-1
20018=0x1.f5c9f11d876cep-5
20019=0x1.35119f256868ap-1
20020=0x1.12fb916eb7726p-1
20023=0x1.2f35676143481p-1
20027=0x1.123586c32fb43p-1
20030=0x1.980a0a9ce1393p-5
20035=0x1.18d6d30000ca6p-2
20038=0x1.06b76a93dd61ap-1
20056=0x1.c12651833de98p-3
20088=0x1.cfcef697cb925p-1
20089=0x1.5a163c72e0b37p-4
20092=-0x1.7a702160218b8p-4
20094=0x1.2839f3cbf0575p-2
20096=0x1.e76d9b0773c59p-2
20097=0x1.855b7d0aaef32p-2
20101=0x1.38620ff1aaa7p-3
20104=0x1.a09a59a1a8acap-1
20106=0x1.ffa261fc5b86cp-3
20117=0x1.929becc83128cp-1
20120=0x1.0aa132a0ae008p-2
20133=0x1.e6fb989f89aa1p-7
20144=0x1.9a990da382988p-5
20169=0x1.33a15a6e102b8p+2
26730=0x1.cfcef697cb925p-1
26731=0x1.5a163c72e0b37p-4
26734=-0x1.7a702160218b8p-4
26736=0x1.2839f3cbf0575p-2
26738=0x1.e76d9b0773c59p-2
26739=0x1.855b7d0aaef32p-2
26743=0x1.38620ff1aaa7p-3
26746=0x1.a09a59a1a8acap-1
26748=0x1.ffa261fc5b86cp-3
26759=0x1.929becc83128cp-1
26762=0x1.0aa132a0ae008p-2
26775=0x1.e6fb989f89aa1p-7
26786=0x1.9a990da382988p-5
26811=0x1.8f4195083869cp-3
26813=0x1.ff937d264d74fp+0
26814=0x1.61be19a7d8b1bp-1
26825=0x1.033640057643ap+0
26826=0x1.5d651c3f6d15cp-3
26833=0x1.d4c04ef9b9628p-2
26843=0x1.61011a4bc8e3p-4
26853=0x1.9e60d007a4e2ap-5
26871=0x1.562c8e0e9a47cp+0
26873=0x1.2576d975b51b7p-3
26887=0x1.7d1c6400fb046p-4
26892=0x1.2f81df6c75a4bp+0
26894=0x1.84f8511914edp-2
26895=0x1.f0b54fe926ab4p-1
26896=0x1.590d2a98b6f27p-2
26897=0x1.60fb88650014p-2
26907=0x1.6c7eb8efd188dp-1
26914=0x1.8ae1963624ed7p-1
26919=0x1.27218f21d2054p-1
26924=0x1.81b4435b43527p-2
26934=0x1.f347e151d1e2p-4
26941=0x1.9d6c39acf3f7bp-1
26952=0x1.9ecebdcca1303p-4
26954=0x1.74e7b55e0b56p-1
27054=0x1.0a3998f460b11p+0
27056=-0x1.43fa25f814e17p-1
27068=0x1.cb9bb9ecced9ep+0
27216=0x1.e2ba1cb36c06bp-2
27218=-0x1.fb59b4d258c08p-6
27380=0x1.1ffb11fb33fd9p-6
27540=0x1.312015a0ef07cp-1
27542=0x1.7b54904675862p-1
28271=0x1.da5bf897b6feap-3
28514=0x1.13c17efb66eap+0
29243=0x1.234a6f2cd3bf5p-1
29727=0x1.179142089b16p-1
30215=0x1.ae7dca783a09fp-3
31450=0x1.ce2b3833c38ddp-1
31488=0x1.b9760af8b176bp-1
33043=0x1.7cafaf88d47d6p-2
33453=0x1.8f4195083869cp-3
33455=0x1.ff937d264d74fp+0
33456=0x1.61be19a7d8b1bp-1
33467=0x1.033640057643ap+0
33468=0x1.5d651c3f6d15cp-3
33475=0x1.d4c04ef9b9628p-2
33485=0x1.61011a4bc8e3p-4
33495=0x1.9e60d007a4e2ap-5
33513=0x1.562c8e0e9a47cp+0
33515=0x1.2576d975b51b7p-3
33529=0x1.7d1c6400fb046p-4
33534=0x1.2f81df6c75a4bp+0
33536=0x1.84f8511914edp-2
33537=0x1.f0b54fe926ab4p-1
33538=0x1.590d2a98b6f27p-2
33539=0x1.60fb88650014p-2
33549=0x1.6c7eb8efd188dp-1
33556=0x1.8ae1963624ed7p-1
33561=0x1.27218f21d2054p-1
33566=0x1.81b4435b43527p-2
33576=0x1.f347e151d1e2p-4
33583=0x1.9d6c39acf3f7bp-1
33594=0x1.9ecebdcca1303p-4
33596=0x1.74e7b55e0b56p-1
33696=0x1.0a3998f460b11p+0
33698=-0x1.43fa25f814e17p-1
33710=0x1.cb9bb9ecced9ep+0
33858=0x1.e2ba1cb36c06bp-2
33860=-0x1.fb59b4d258c08p-6
34022=0x1.1ffb11fb33fd9p-6
34182=0x1.312015a0ef07cp-1
34184=0x1.7b54904675862p-1
34913=0x1.da5bf897b6feap-3
35156=0x1.13c17efb66eap+0
35885=0x1.234a6f2cd3bf5p-1
36369=0x1.179142089b16p-1
36857=0x1.ae7dca783a09fp-3
38092=0x1.ce2b3833c38ddp-1
38130=0x1.b9760af8b176bp-1
39685=0x1.7cafaf88d47d6p-2
40095=0x1.cfcef697cb925p-1
40096=0x1.5a163c72e0b37p-4
40099=-0x1.7a702160218b8p-4
40101=0x1.2839f3cbf0575p-2
40103=0x1.e76d9b0773c59p-2
40104=0x1.855b7d0aaef32p-2
40108=0x1.38620ff1aaa7p-3
40111=0x1.a09a59a1a8acap-1
40113=0x1.ffa261fc5b86cp-3
40124=0x1.929becc83128cp-1
40127=0x1.0aa132a0ae008p-2
40140=0x1.e6fb989f89aa1p-7
40151=0x1.9a990da382988p-5
40176=0x1.748d95744dbf8p-2
40257=0x1.136d350dffdcbp+2
40276=0x1.a5537527ac9aep-5
46818=0x1.748d95744dbf8p-2
47547=0x1.14db34a34041ep+0
54189=0x1.14db34a34041ep+0
60183=0x1.748d95744dbf8p-2
60264=0x1.a7ff0350ed973p-1
60268=-0x1.e34b8461d0a3cp-1
60270=0x1.30a3870ce5e6p-1
60273=0x1.5f6e92d12f17p-1
60280=0x1.a6f741e9ba436p-1
60284=-0x1.e02a1e944e013p-5
60292=0x1.10ef3e672794cp-2
60345=0x1.412284818a465p+2
60347=0x1.5e4b2ce98ea8ap-6
60349=0x1.0f2a92613f024p+3
60350=-0x1.82629910bc042p-3
60361=0x1.c43615559fdc3p+0
60371=0x1.8e34c8f74e8f5p+1
60372=0x1.0cae0fa74b0b6p+0
60383=0x1.11e67faec7024p-1
60390=0x1.184c7ad0d7509p+1
60393=0x1.2e642da0d7ac8p+2
60406=0x1.113de46cfcc5cp+2
60409=0x1.d500516146999p+1
60414=0x1.612c008571c14p-2
66906=0x1.a7ff0350ed973p-1
66910=-0x1.e34b8461d0a3cp-1
66912=0x1.30a3870ce5e6p-1
66915=0x1.5f6e92d12f17p-1
66922=0x1.a6f741e9ba436p-1
66926=-0x1.e02a1e944e013p-5
66934=0x1.10ef3e672794cp-2
66987=0x1.62ce7fff55d74p+0
66991=0x1.7c28b551b2f78p-9
67005=0x1.526a6c1ae5e09p-2
67008=0x1.5125e5cc48947p-1
67014=0x1.4bb2550f31fe4p-3
67068=0x1.5a16ae5b681d4p-3
67072=0x1.caf926b4d6c6p-3
67073=0x1.55331989bf447p-1
67086=0x1.07f01556351bbp-1
67101=0x1.2314258cee432p-4
67392=0x1.20d0d1ee3a887p-2
67797=0x1.cf875b95551f7p-2
67959=0x1.c5a8d89d1c6f9p-2
68040=-0x1.8bc9e496c0c31p-6
68445=0x1.c42af9a931a48p-5
68769=0x1.5bedf847d4332p-1
68850=0x1.27efe052720b9p-1
69255=0x1.7368d6062186p-1
69741=0x1.98833f365d97p-2
70065=0x1.576f250c962b2p-1
70308=0x1.3dccbe2ebb92ap-1
72171=0x1.18eb51c79468bp-1
72252=-0x1.330f5c2c76bfap-1
72273=0x1.74954aa3e9266p-1
72414=0x1.37eda536a9296p-1
73629=0x1.62ce7fff55d74p+0
73633=0x1.7c28b551b2f78p-9
73647=0x1.526a6c1ae5e09p-2
73650=0x1.5125e5cc48947p-1
73656=0x1.4bb2550f31fe4p-3
73710=0x1.5a16ae5b681d4p-3
73714=0x1.caf926b4d6c6p-3
73715=0x1.55331989bf447p-1
73728=0x1.07f01556351bbp-1
73743=0x1.2314258cee432p-4
74034=0x1.20d0d1ee3a887p-2
74439=0x1.cf875b95551f7p-2
74601=0x1.c5a8d89d1c6f9p-2
74682=-0x1.8bc9e496c0c31p-6
75087=0x1.c42af9a931a48p-5
75411=0x1.5bedf847d4332p-1
75492=0x1.27efe052720b9p-1
75897=0x1.7368d6062186p-1
76383=0x1.98833f365d97p-2
76707=0x1.576f250c962b2p-1
76950=0x1.3dccbe2ebb92ap-1
78813=0x1.18eb51c79468bp-1
78894=-0x1.330f5c2c76bfap-1
78915=0x1.74954aa3e9266p-1
79056=0x1.37eda536a9296p-1
80271=0x1.a7ff0350ed973p-1
80275=-0x1.e34b8461d0a3cp-1
80277=0x1.30a3870ce5e6p-1
80280=0x1.5f6e92d12f17p-1
80287=0x1.a6f741e9ba436p-1
80291=-0x1.e02a1e944e013p-5
80299=0x1.10ef3e672794cp-2
80352=0x1.161951e9458c8p+0
80353=0x1.4fd72f57374bap-4
80354=0x1.06ffc1bdd0a1bp-3
80356=0x1.cd61c1efee0cp-1
80357=0x1.4ad6a378c6865p-1
80358=0x1.385865f868f68p-2
80359=0x1.73eaff21e82dp-1
80360=0x1.ce8267f966df6p-3
80362=0x1.87f6a3c518c55p-1
80365=0x1.146ded8ebd4d6p-4
80368=0x1.ff3d7d0aa5198p-4
80371=0x1.25f0395fcf1f8p-2
80372=0x1.22bef896ce334p-1
80373=0x1.719cabaf6d968p-1
80375=0x1.80d5f1e6ebdb8p-1
80378=0x1.fa81115d4d3cfp-1
80380=0x1.17cf8c5e0c943p-1
80391=0x1.efc10f75d7affp-5
80394=-0x1.adb852b395c4fp-2
80400=0x1.d8b194efb14a3p-2
80402=0x1.29af0ce60687bp-1
80403=0x1.51c2126e53e4dp-1
80406=-0x1.fe4c1ec9f77aap-6
80407=-0x1.077d2456f9fa8p-3
80408=0x1.3d95aa8d0352fp-1
80416=0x1.d541c7a8ebe6ep-5
80429=0x1.04090752505ep-3
80433=0x1.ca7847e0f7266p+1
86994=0x1.161951e9458c8p+0
86995=0x1.4fd72f57374bap-4
86996=0x1.06ffc1bdd0a1bp-3
86998=0x1.cd61c1efee0cp-1
86999=0x1.4ad6a378c6865p-1
87000=0x1.385865f868f68p-2
87001=0x1.73eaff21e82dp-1
87002=0x1.ce8267f966df6p-3
87004=0x1.87f6a3c518c55p-1
87007=0x1.146ded8ebd4d6p-4
87010=0x1.ff3d7d0aa5198p-4
87013=0x1.25f0395fcf1f8p-2
87014=0x1.22bef896ce334p-1
87015=0x1.719cabaf6d968p-1
87017=0x1.80d5f1e6ebdb8p-1
87020=0x1.fa81115d4d3cfp-1
87022=0x1.17cf8c5e0c943p-1
87033=0x1.efc10f75d7affp-5
87036=-0x1.adb852b395c4fp-2
87042=0x1.d8b194efb14a3p-2
87044=0x1.29af0ce60687bp-1
87045=0x1.51c2126e53e4dp-1
87048=-0x1.fe4c1ec9f77aap-6
87049=-0x1.077d2456f9fa8p-3
87050=0x1.3d95aa8d0352fp-1
87058=0x1.d541c7a8ebe6ep-5
87071=0x1.04090752505ep-3
87075=0x1.3148767d5aedp-3
87156=0x1.22b516ea77532p-1
93717=0x1.3148767d5aedp-3
93798=0x1.22b516ea77532p-1
100359=0x1.161951e9458c8p+0
100360=0x1.4fd72f57374bap-4
100361=0x1.06ffc1bdd0a1bp-3
100363=0x1.cd61c1efee0cp-1
100364=0x1.4ad6a378c6865p-1
100365=0x1.385865f868f68p-2
100366=0x1.73eaff21e82dp-1
100367=0x1.ce8267f966df6p-3
100369=0x1.87f6a3c518c55p-1
100372=0x1.146ded8ebd4d6p-4
100375=0x1.ff3d7d0aa5198p-4
100378=0x1.25f0395fcf1f8p-2
100379=0x1.22bef896ce334p-1
100380=0x1.719cabaf6d968p-1
100382=0x1.80d5f1e6ebdb8p-1
100385=0x1.fa81115d4d3cfp-1
100387=0x1.17cf8c5e0c943p-1
100398=0x1.efc10f75d7affp-5
100401=-0x1.adb852b395c4fp-2
100407=0x1.d8b194efb14a3p-2
100409=0x1.29af0ce60687bp-1
100410=0x1.51c2126e53e4dp-1
100413=-0x1.fe4c1ec9f77aap-6
100414=-0x1.077d2456f9fa8p-3
100415=0x1.3d95aa8d0352fp-1
100423=0x1.d541c7a8ebe6ep-5
100436=0x1.04090752505ep-3
100440=0x1.5c84720a632e8p-1
100521=0x1.0e38202e13be8p+2
100522=0x1.628f2f1c4fe4dp+2
100523=0x1.bb0bba47649c6p-2
100525=0x1.82d0b7f7cfffbp+0
100526=0x1.4db59256c3076p+0
100527=0x1.230ad1d97c2a1p+2
100528=0x1.eb5d3cc5e1f3fp+1
100529=0x1.11de11e5a426bp+1
100530=0x1.cd8f8edec33fp+1
100532=0x1.2ed1ca9f25bc8p+1
100533=0x1.31c84807c9ec3p+2
100537=0x1.98abad3a43bacp+0
100538=0x1.304ce886d1535p+2
100540=0x1.5b888638da314p-1
100541=0x1.a56a6b03c7a9dp+0
100542=0x1.2d2dcd414da76p+1
100543=0x1.9ad360dab9502p+1
100544=0x1.d0d859ae312bep+0
100546=0x1.6b2bc18c2746fp-1
100548=0x1.5e1685b978c44p-1
100549=0x1.164661000ccd7p+1
100551=0x1.ffc2c27590333p+1
100552=0x1.142af6788012cp+1
100553=0x1.022b046d6a2f4p+2
100554=0x1.03f5185d75cd5p-2
100556=0x1.1a803e66d943ap+1
100563=0x1.32ba561368ee3p-2
100564=0x1.649704ad0c74dp-3
100566=0x1.ac742a756b567p+0
100569=0x1.929c0d6660b0fp-2
100570=0x1.324484c1b6cb9p+2
100571=0x1.685607092290fp-2
100573=0x1.4c5b899dd0bcep-2
100574=0x1.1e486bffa766bp+1
100592=0x1.b6a1250d198ep-1
100600=0x1.7411353be77e3p+0
100601=0x1.b6d74ce0d8a23p-1
100683=-0x1.7d042f0b1be3cp-1
100705=-0x1.ba064d8da3568p-8
100845=-0x1.518e86d41a1c6p-1
100851=-0x1.159e28839e891p-1
100871=-0x1.5aeba959a9b5bp-4
100875=-0x1.2dc39ffee1e2ap-8
100887=-0x1.3e0eafa27825p-5
100926=-0x1.593679de61a38p-1
100932=-0x1.2ab74b4f8e10ap+0
101007=-0x1.2ee37ad2bb495p-1
101169=-0x1.979fe99f7a0a4p+0
101817=-0x1.6375962c3c84p-3
101996=-0x1.00447ecaa39f4p-2
104571=-0x1.a582509736dbp-6
105006=-0x1.ffb1f6791cd9fp-4
107082=0x1.5c84720a632e8p-1
107163=0x1.b9038a604b503p-3
107164=0x1.8407cb48d3decp-2
107169=0x1.e2cbf8358a362p-1
107171=0x1.5f8fdf92cad62p+0
107174=0x1.3178a49210f09p+0
107175=0x1.11f46ba742a79p+0
107176=0x1.1c75c359e442p-7
107182=0x1.f249b49d59d63p-2
107186=0x1.021abaf643eb1p-1
107206=0x1.88f4a3e77114fp-1
107244=0x1.573627e1523a7p-1
107245=0x1.40a947af5d87fp-1
107246=0x1.7da21f37f0cf5p-4
107250=0x1.b62f017a82c62p-3
107252=0x1.e4b5f892a8ad2p-5
107255=0x1.5f386d16acc2fp-1
107256=0x1.5126b12662036p-1
107257=0x1.56d2e6d12fc4dp-1
107263=0x1.5caae7462a19p-2
107264=0x1.efb25ce23dadcp-3
107267=0x1.9fdf5d9ec3756p-5
107272=-0x1.9a3d50697e1e7p-3
107277=-0x1.c092dc8ec48c3p-7
107287=0x1.4920cd7e84e0fp-3
107344=0x1.6366bee65115fp-1
107353=0x1.c6ec71088075cp-6
107568=0x1.86ea99107f25ep-4
107730=-0x1.15ca05947273ap-1
107738=0x1.8887b9c5791eep-12
107741=0x1.69b78f136f635p-1
107742=0x1.56e710b73e4ep+0
107749=0x1.7a48a49933969p-3
107758=0x1.8ea3dce0b531ap-3
107904=0x1.f9f08a7dacbc9p-2
107973=0x1.95886fbdd5587p-2
108216=0x1.4652dda7a7897p-2
108222=0x1.6534cc4bb98ecp+0
108224=0x1.365dfd4a74239p+0
108239=0x1.c0b6c3f9a5565p+0
108244=0x1.7adb293777b34p-3
108249=0x1.21a772539213ap-1
108259=0x1.b0a2d1e20ea84p+0
109431=0x1.91f5ea1bfcee9p-3
109454=0x1.1af6eecc259dap-6
109520=0x1.17d996e515204p-2
111221=0x1.8f0e49e3d49b6p-2
111317=0x1.18392dd93c868p+0
113805=0x1.b9038a604b503p-3
113806=0x1.8407cb48d3decp-2
113811=0x1.e2cbf8358a362p-1
113813=0x1.5f8fdf92cad62p+0
113816=0x1.3178a49210f09p+0
113817=0x1.11f46ba742a79p+0
113818=0x1.1c75c359e442p-7
113824=0x1.f249b49d59d63p-2
113828=0x1.021abaf643eb1p-1
113848=0x1.88f4a3e77114fp-1
113886=0x1.573627e1523a7p-1
113887=0x1.40a947af5d87fp-1
113888=0x1.7da21f37f0cf5p-4
113892=0x1.b62f017a82c62p-3
113894=0x1.e4b5f892a8ad2p-5
113897=0x1.5f386d16acc2fp-1
113898=0x1.5126b12662036p-1
113899=0x1.56d2e6d12fc4dp-1
113905=0x1.5caae7462a19p-2
113906=0x1.efb25ce23dadcp-3
113909=0x1.9fdf5d9ec3756p-5
113914=-0x1.9a3d50697e1e7p-3
113919=-0x1.c092dc8ec48c3p-7
113929=0x1.4920cd7e84e0fp-3
113986=0x1.6366bee65115fp-1
113995=0x1.c6ec71088075cp-6
114210=0x1.86ea99107f25ep-4
114372=-0x1.15ca05947273ap-1
114380=0x1.8887b9c5791eep-12
114383=0x1.69b78f136f635p-1
114384=0x1.56e710b73e4ep+0
114391=0x1.7a48a49933969p-3
114400=0x1.8ea3dce0b531ap-3
114546=0x1.f9f08a7dacbc9p-2
114615=0x1.95886fbdd5587p-2
114858=0x1.4652dda7a7897p-2
114864=0x1.6534cc4bb98ecp+0
114866=0x1.365dfd4a74239p+0
114881=0x1.c0b6c3f9a5565p+0
114886=0x1.7adb293777b34p-3
114891=0x1.21a772539213ap-1
114901=0x1.b0a2d1e20ea84p+0
116073=0x1.91f5ea1bfcee9p-3
116096=0x1.1af6eecc259dap-6
116162=0x1.17d996e515204p-2
117863=0x1.8f0e49e3d49b6p-2
117959=0x1.18392dd93c868p+0
120447=0x1.5c84720a632e8p-1
120528=0x1.f50e16d7208e8p-1
120530=0x1.6dd332c985678p-4
120532=-0x1.224a2ebd68b5bp-8
120534=0x1.76a7933cfc352p-2
120535=0x1.d17793b6e548dp-2
120537=0x1.1dddeaaa83c65p-2
120540=0x1.2f972d372bbefp-1
120541=0x1.2b493509ce9d4p-2
120548=0x1.3c1387f4ac1f3p-4
120553=0x1.b64cbba5d8191p-3
120556=0x1.0527059cb87edp-2
120564=0x1.5fbedcfcdc939p-2
120565=0x1.1fc5c309a724p-2
120569=0x1.8fd2b6cd2d9ccp-4
120579=0x1.4cc1bc96ec8f8p-3
120584=0x1.8c7824141198cp-1
120588=0x1.081b4bf371207p-1
120599=0x1.5f4516f33a68fp-1
120608=0x1.45307df7d7f39p-1
120609=-0x1.b6bf4e2c9f6f7p+0
120690=0x1.9e5d31b1f516ap+2
120709=0x1.34a9cfb09d4ffp+0
120710=0x1.af282855fbc9ep+2
120713=0x1.35f88ab480a84p+0
120718=0x1.87974026d4101p+1
127170=0x1.f50e16d7208e8p-1
127172=0x1.6dd332c985678p-4
127174=-0x1.224a2ebd68b5bp-8
127176=0x1.76a7933cfc352p-2
127177=0x1.d17793b6e548dp-2
127179=0x1.1dddeaaa83c65p-2
127182=0x1.2f972d372bbefp-1
127183=0x1.2b493509ce9d4p-2
127190=0x1.3c1387f4ac1f3p-4
127195=0x1.b64cbba5d8191p-3
127198=0x1.0527059cb87edp-2
127206=0x1.5fbedcfcdc939p-2
127207=0x1.1fc5c309a724p-2
127211=0x1.8fd2b6cd2d9ccp-4
127221=0x1.4cc1bc96ec8f8p-3
127226=0x1.8c7824141198cp-1
127230=0x1.081b4bf371207p-1
127241=0x1.5f4516f33a68fp-1
127250=0x1.45307df7d7f39p-1
127251=0x1.dba5eabb510cfp-2
127253=-0x1.82d5f5e55762p-1
127256=0x1.f51f23ef25fedp-2
127257=0x1.4d13dccd12651p-2
127259=0x1.061cbb36345eep-3
127260=0x1.45a84fe5f05adp-2
127262=0x1.c58a1c7c43a59p-2
127279=0x1.c4b231974ee5bp-2
127280=0x1.80f20065a55bap-1
127284=-0x1.9b82f174610b8p-3
127285=0x1.be90871d47397p-2
127288=0x1.5ef963d1909c2p-4
127289=0x1.471257346627ep-3
127296=0x1.5fae324248c52p-3
127299=0x1.8a039523bb811p-4
127302=0x1.2bd0d0c23d5p-1
127304=0x1.24713ecff3e4fp-3
127306=0x1.5a966c8c7add8p-4
127332=0x1.37f4c2cfc3f9dp-1
127336=0x1.a6a3d7bb0a826p-3
127337=0x1.a0d9f8f6639e7p-3
127340=0x1.4a322f482b3fp-1
127341=0x1.6203c9c4e36e3p-2
127345=0x1.0529fdc637056p-4
127352=0x1.e245234dbf1fap-1
127355=0x1.24063194c5faep+0
127357=0x1.464ba860debbbp-1
127361=0x1.8fb8dda1248aep-5
127362=-0x1.29954bb25ff4p-9
127365=0x1.90420395cb9cap-4
127369=0x1.e158419f560ep-2
127370=0x1.60377f5034897p+0
127377=0x1.057a4c133d916p-3
127380=0x1.113e4e4d89d52p-1
127383=0x1.2310c105fb255p-2
127385=0x1.e505500107922p-4
127387=0x1.2adbcd4e039dap-2
127413=0x1.3e19ed2ec7028p-1
127737=0x1.30a3cf7024845p-1
127743=0x1.2ab155e330594p+0
127818=0x1.98ad037a4b25dp-2
127904=0x1.d8993a784bfa2p-1
127980=0x1.ac59965c7688p-2
128000=0x1.3b210c4c233cfp-2
128008=0x1.c22d24e18448ep-3
128009=0x1.86ad52cb0ac61p+0
128031=0x1.bbdc85540af14p-5
128153=0x1.56674eacedef9p+0
128223=0x1.1f12eec1b4d42p+0
128304=0x1.199423717e1a3p-1
128313=0x1.dd5e222988e85p-1
128414=0x1.e9afa57f75be3p+0
128709=0x1.12c155256b206p-2
128743=0x1.4be00f8c53804p+0
128807=0x1.98fb8948e1817p-1
128818=0x1.950cc0b68d902p-1
128871=0x1.e06039bf7018ap-1
128952=0x1.a859ed47ddb5ap-1
129084=0x1.9161518817f42p-2
129195=0x1.66f269cd66448p-2
129600=0x1.a49c0ae8dba6p-7
129681=0x1.c0c6d1dbd4027p-1
130531=0x1.4f2f7132597bbp-1
130761=0x1.1fa9012983748p-6
130815=0x1.3b8149a12d63bp-1
131382=0x1.ac2ea787eccecp-5
131484=0x1.569432e7434f4p+0
131817=0x1.2be671da5ac1ep+1
131913=0x1.6f0dd4383b80bp-1
133893=0x1.dba5eabb510cfp-2
133895=-0x1.82d5f5e55762p-1
133898=0x1.f51f23ef25fedp-2
133899=0x1.4d13dccd12651p-2
133901=0x1.061cbb36345eep-3
133902=0x1.45a84fe5f05adp-2
133904=0x1.c58a1c7c43a59p-2
133921=0x1.c4b231974ee5bp-2
133922=0x1.80f20065a55bap-1
133926=-0x1.9b82f174610b8p-3
133927=0x1.be90871d47397p-2
133930=0x1.5ef963d1909c2p-4
133931=0x1.471257346627ep-3
133938=0x1.5fae324248c52p-3
133941=0x1.8a039523bb811p-4
133944=0x1.2bd0d0c23d5p-1
133946=0x1.24713ecff3e4fp-3
133948=0x1.5a966c8c7add8p-4
133974=0x1.37f4c2cfc3f9dp-1
133978=0x1.a6a3d7bb0a826p-3
133979=0x1.a0d9f8f6639e7p-3
133982=0x1.4a322f482b3fp-1
133983=0x1.6203c9c4e36e3p-2
133987=0x1.0529fdc637056p-4
133994=0x1.e245234dbf1fap-1
133997=0x1.24063194c5faep+0
133999=0x1.464ba860debbbp-1
134003=0x1.8fb8dda1248aep-5
134004=-0x1.29954bb25ff4p-9
134007=0x1.90420395cb9cap-4
134011=0x1.e158419f560ep-2
134012=0x1.60377f5034897p+0
134019=0x1.057a4c133d916p-3
134022=0x1.113e4e4d89d52p-1
134025=0x1.2310c105fb255p-2
134027=0x1.e505500107922p-4
134029=0x1.2adbcd4e039dap-2
134055=0x1.3e19ed2ec7028p-1
134379=0x1.30a3cf7024845p-1
134385=0x1.2ab155e330594p+0
134460=0x1.98ad037a4b25dp-2
134546=0x1.d8993a784bfa2p-1
134622=0x1.ac59965c7688p-2
134642=0x1.3b210c4c233cfp-2
134650=0x1.c22d24e18448ep-3
134651=0x1.86ad52cb0ac61p+0
134673=0x1.bbdc85540af14p-5
134795=0x1.56674eacedef9p+0
134865=0x1.1f12eec1b4d42p+0
134946=0x1.199423717e1a3p-1
134955=0x1.dd5e222988e85p-1
135056=0x1.e9afa57f75be3p+0
135351=0x1.12c155256b206p-2
135385=0x1.4be00f8c53804p+0
135449=0x1.98fb8948e1817p-1
135460=0x1.950cc0b68d902p-1
135513=0x1.e06039bf7018ap-1
135594=0x1.a859ed47ddb5ap-1
135726=0x1.9161518817f42p-2
135837=0x1.66f269cd66448p-2
136242=0x1.a49c0ae8dba6p-7
136323=0x1.c0c6d1dbd4027p-1
137173=0x1.4f2f7132597bbp-1
137403=0x1.1fa9012983748p-6
137457=0x1.3b8149a12d63bp-1
138024=0x1.ac2ea787eccecp-5
138126=0x1.569432e7434f4p+0
138459=0x1.2be671da5ac1ep+1
138555=0x1.6f0dd4383b80bp-1
140535=0x1.f50e16d7208e8p-1
140537=0x1.6dd332c985678p-4
140539=-0x1.224a2ebd68b5bp-8
140541=0x1.76a7933cfc352p-2
140542=0x1.d17793b6e548dp-2
140544=0x1.1dddeaaa83c65p-2
140547=0x1.2f972d372bbefp-1
140548=0x1.2b493509ce9d4p-2
140555=0x1.3c1387f4ac1f3p-4
140560=0x1.b64cbba5d8191p-3
140563=0x1.0527059cb87edp-2
140571=0x1.5fbedcfcdc939p-2
140572=0x1.1fc5c309a724p-2
140576=0x1.8fd2b6cd2d9ccp-4
140586=0x1.4cc1bc96ec8f8p-3
140591=0x1.8c7824141198cp-1
140595=0x1.081b4bf371207p-1
140606=0x1.5f4516f33a68fp-1
140615=0x1.45307df7d7f39p-1
140616=0x1.ce4bb3e148616p-1
140697=0x1.40221ebb4237p+2
140698=0x1.14c9228f48331p-3
140702=0x1.34eb1cca1767p+0
140705=0x1.1f09df877aeafp+1
140707=0x1.548a1fdff888ap+1
140710=0x1.fcb9f90e2daa6p+1
140726=0x1.986732ab400c3p+2
140730=0x1.214875a818e39p+1
140738=0x1.fb6540925e7eep+1
140748=0x1.d8115ba0aaffap+1
142722=-0x1.526fe1e0a209ap-4
147258=0x1.ce4bb3e148616p-1
147343=0x1.198cca583798bp-7
147395=0x1.7a78f206fce35p-1
147401=0x1.1cacb8dff705ap-1
147420=0x1.b102ae26858bdp-2
147424=0x1.237f4b3ce8392p-4
147482=0x1.2da38e394970bp-1
147582=0x1.ae8c54fb5911fp-4
147800=0x1.cab79b2eda6a3p-2
149283=0x1.9ded21054b339p-3
149445=0x1.7aae4192aeeb4p-6
153985=0x1.198cca583798bp-7
154037=0x1.7a78f206fce35p-1
154043=0x1.1cacb8dff705ap-1
154062=0x1.b102ae26858bdp-2
154066=0x1.237f4b3ce8392p-4
154124=0x1.2da38e394970bp-1
154224=0x1.ae8c54fb5911fp-4
154442=0x1.cab79b2eda6a3p-2
155925=0x1.9ded21054b339p-3
156087=0x1.7aae4192aeeb4p-6
160623=0x1.ce4bb3e148616p-1
160704=0x1.ef58cdba81eafp-2
160706=0x1.3d6c4ba12ce4bp-1
160707=0x1.efeeff5ef9624p-3
160708=-0x1.4ff3caa44c3bep-6
160709=0x1.5e2db7a7bc166p-8
160712=0x1.067939a0a1f74p-1
160715=0x1.8c24702ae89a5p-3
160716=0x1.e494ac87b04e1p-7
160722=0x1.fdfc5e5545e2p-9
160725=0x1.633a268cb1703p-3
160726=0x1.44889c6b922cfp-2
160733=0x1.ec66fd993c7b4p-1
160752=0x1.88b901fd836b3p-1
160764=0x1.7cb3e0b237aep-9
160785=0x1.d9ddd64375c48p+1
160787=0x1.c841aff4088eep+2
160788=0x1.6f28d370be01p+1
160789=-0x1.2e6a3762e0f0bp-2
160801=0x1.32cf7072465p-1
160807=0x1.54d1f3ece2f54p+2
160836=0x1.980fec96865d3p-2
160845=0x1.18bf979beac84p+2
163136=-0x1.8e9e078f3e884p-3
167346=0x1.ef58cdba81eafp-2
167348=0x1.3d6c4ba12ce4bp-1
167349=0x1.efeeff5ef9624p-3
167350=-0x1.4ff3caa44c3bep-6
167351=0x1.5e2db7a7bc166p-8
167354=0x1.067939a0a1f74p-1
167357=0x1.8c24702ae89a5p-3
167358=0x1.e494ac87b04e1p-7
167364=0x1.fdfc5e5545e2p-9
167367=0x1.633a268cb1703p-3
167368=0x1.44889c6b922cfp-2
167375=0x1.ec66fd993c7b4p-1
167394=0x1.88b901fd836b3p-1
167406=0x1.7cb3e0b237aep-9
167429=0x1.a121abca6d43p-3
167431=0x1.70d7f9bf8ab36p-3
167443=0x1.4d8fbbd95504dp-4
167510=0x1.2ced0feb27d5p-1
167524=0x1.15274a0e860a8p-1
172048=0x1.e697b6bd28p-2
174071=0x1.a121abca6d43p-3
174073=0x1.70d7f9bf8ab36p-3
174085=0x1.4d8fbbd95504dp-4
174152=0x1.2ced0feb27d5p-1
174166=0x1.15274a0e860a8p-1
178690=0x1.e697b6bd28p-2
180711=0x1.ef58cdba81eafp-2
180713=0x1.3d6c4ba12ce4bp-1
180714=0x1.efeeff5ef9624p-3
180715=-0x1.4ff3caa44c3bep-6
180716=0x1.5e2db7a7bc166p-8
180719=0x1.067939a0a1f74p-1
180722=0x1.8c24702ae89a5p-3
180723=0x1.e494ac87b04e1p-7
180729=0x1.fdfc5e5545e2p-9
180732=0x1.633a268cb1703p-3
180733=0x1.44889c6b922cfp-2
180740=0x1.ec66fd993c7b4p-1
180759=0x1.88b901fd836b3p-1
180771=0x1.7cb3e0b237aep-9
180792=0x1.0b3721c9bdf6fp+0
180794=0x1.a990cd1b9a6c6p-4
180795=0x1.2c1c5bfe0381cp-1
180796=-0x1.efd60c3b7a056p-5
180800=0x1.103c7cf70d628p-2
180802=-0x1.7270dd736dbf6p-5
180806=0x1.9c0c66cf17a6fp-1
180810=0x1.df601f17dd2a5p-2
180814=0x1.317af4417178dp+0
180824=0x1.b7cdfb2f11f49p-2
180834=0x1.b2b457d091178p-2
180847=0x1.148176b3fdb2ep-3
180848=0x1.e19421a1d9ed2p-1
180873=-0x1.f852c6da99b36p-1
181035=0x1.40141fa3aff8cp+1
181038=0x1.46c6d5f3ef371p+2
181045=0x1.9fb7798ce24cdp+0
181053=0x1.7fdef5c62ff9dp-1
181197=0x1.b8b4aa12dd896p+0
181202=-0x1.6fd143f5c4a44p-2
181218=0x1.10cc30bad65e5p+0
181220=-0x1.bb7887f37a679p-3
181223=-0x1.adf3ad846584p-1
181225=0x1.de81c17823186p+0
181261=0x1.b76473c787c55p+2
182158=0x1.c87584d78dc05p+2
182213=0x1.8266c5e977078p+2
182979=0x1.834143b87deb2p+0
187434=0x1.0b3721c9bdf6fp+0
187436=0x1.a990cd1b9a6c6p-4
187437=0x1.2c1c5bfe0381cp-1
187438=-0x1.efd60c3b7a056p-5
187442=0x1.103c7cf70d628p-2
187444=-0x1.7270dd736dbf6p-5
187448=0x1.9c0c66cf17a6fp-1
187452=0x1.df601f17dd2a5p-2
187456=0x1.317af4417178dp+0
187466=0x1.b7cdfb2f11f49p-2
187476=0x1.b2b457d091178p-2
187489=0x1.148176b3fdb2ep-3
187490=0x1.e19421a1d9ed2p-1
