#mdl#2#11536
#rdr#6/0/0
10:u0%x[-2,0],
10:u1%x[-2,0],
10:b2%x[-1,0],
10:b3%x[-1,0],
10:b4%x[-1,0],
10:b5%x[-1,0],
#qrk#81
1:O,
15:B-cost_relative,
19:B-fromloc.city_name,
20:B-fromloc.state_code,
17:B-toloc.city_name,
22:B-depart_date.day_name,
27:B-depart_time.period_of_day,
27:B-depart_date.date_relative,
14:B-airline_name,
13:B-flight_time,
27:B-depart_time.time_relative,
18:B-depart_time.time,
12:B-flight_mod,
14:B-airline_code,
20:B-fromloc.state_name,
19:B-stoploc.city_name,
11:B-city_name,
24:B-depart_date.day_number,
24:B-depart_date.month_name,
9:B-connect,
12:B-round_trip,
24:B-depart_time.period_mod,
22:B-fromloc.airport_name,
13:B-flight_stop,
12:B-state_name,
15:B-aircraft_code,
18:B-toloc.state_name,
18:B-arrive_time.time,
12:B-class_type,
15:B-flight_number,
27:B-arrive_time.period_of_day,
16:B-transport_type,
14:B-airport_name,
8:B-return,
18:B-depart_date.year,
15:B-period_of_day,
15:B-time_relative,
6:B-time,
13:B-fare_amount,
24:B-arrive_date.month_name,
24:B-arrive_date.day_number,
6:B-meal,
27:B-arrive_time.time_relative,
18:B-meal_description,
12:B-state_code,
9:B-economy,
24:B-return_date.month_name,
24:B-return_date.day_number,
20:B-toloc.airport_name,
5:B-mod,
13:B-flight_days,
28:B-depart_date.today_relative,
18:B-restriction_code,
17:B-fare_basis_code,
27:B-arrive_date.date_relative,
22:B-arrive_date.day_name,
4:B-or,
11:B-meal_code,
24:B-arrive_time.start_time,
22:B-arrive_time.end_time,
22:B-fromloc.airport_code,
20:B-toloc.airport_code,
14:B-airport_code,
24:B-arrive_time.period_mod,
18:B-toloc.state_code,
24:B-depart_time.start_time,
22:B-depart_time.end_time,
16:B-today_relative,
28:B-arrive_date.today_relative,
10:B-day_name,
20:B-stoploc.state_code,
27:B-return_date.date_relative,
22:B-stoploc.airport_name,
22:B-return_date.day_name,
11:B-days_code,
12:B-month_name,
12:B-day_number,
20:B-toloc.country_name,
28:B-return_date.today_relative,
24:B-return_time.period_mod,
27:B-return_time.period_of_day,
#qrk#5404
6:u0_x-2,
6:u1_x-2,
6:b2_x-1,
6:b3_x-1,
6:b4_x-1,
6:b5_x-1,
6:u0_x-1,
6:u1_x-1,
5:b2i'd,
5:b3i'd,
5:b4i'd,
5:b5i'd,
5:u0i'd,
5:u1i'd,
6:b2like,
6:b3like,
6:b4like,
6:b5like,
6:u0like,
6:u1like,
4:b2to,
4:b3to,
4:b4to,
4:b5to,
4:u0to,
4:u1to,
6:b2find,
6:b3find,
6:b4find,
6:b5find,
6:u0find,
6:u1find,
5:b2the,
5:b3the,
5:b4the,
5:b5the,
5:u0the,
5:u1the,
10:b2cheapest,
10:b3cheapest,
10:b4cheapest,
10:b5cheapest,
10:u0cheapest,
10:u1cheapest,
8:b2flight,
8:b3flight,
8:b4flight,
8:b5flight,
8:u0flight,
8:u1flight,
6:b2from,
6:b3from,
6:b4from,
6:b5from,
6:u0from,
6:u1from,
12:b2washington,
12:b3washington,
12:b4washington,
12:b5washington,
12:u0washington,
12:u1washington,
4:b2dc,
4:b3dc,
4:b4dc,
4:b5dc,
4:u0dc,
4:u1dc,
5:b2i'm,
5:b3i'm,
5:b4i'm,
5:b5i'm,
5:u0i'm,
5:u1i'm,
11:b2traveling,
11:b3traveling,
11:b4traveling,
11:b5traveling,
11:u0traveling,
11:u1traveling,
8:b2dallas,
8:b3dallas,
8:b4dallas,
8:b5dallas,
8:u0dallas,
8:u1dallas,
3:b2i,
3:b3i,
3:b4i,
3:b5i,
3:u0i,
3:u1i,
6:b2also,
6:b3also,
6:b4also,
6:b5also,
6:u0also,
6:u1also,
6:b2need,
6:b3need,
6:b4need,
6:b5need,
6:u0need,
6:u1need,
4:b2go,
4:b3go,
4:b4go,
4:b5go,
4:u0go,
4:u1go,
15:b2san-francisco,
15:b3san-francisco,
15:b4san-francisco,
15:b5san-francisco,
15:u0san-francisco,
15:u1san-francisco,
4:b2on,
4:b3on,
4:b4on,
4:b5on,
4:u0on,
4:u1on,
11:b2wednesday,
11:b3wednesday,
11:b4wednesday,
11:b5wednesday,
11:u0wednesday,
11:u1wednesday,
9:b2evening,
9:b3evening,
9:b4evening,
9:b5evening,
9:u0evening,
9:u1evening,
7:b2thank,
7:b3thank,
7:b4thank,
7:b5thank,
7:u0thank,
7:u1thank,
5:b2you,
5:b3you,
5:b4you,
5:b5you,
5:u0you,
5:u1you,
8:b2travel,
8:b3travel,
8:b4travel,
8:b5travel,
8:u0travel,
8:u1travel,
6:b2next,
6:b3next,
6:b4next,
6:b5next,
6:u0next,
6:u1next,
5:b2fly,
5:b3fly,
5:b4fly,
5:b5fly,
5:u0fly,
5:u1fly,
22:b2continental-airlines,
22:b3continental-airlines,
22:b4continental-airlines,
22:b5continental-airlines,
22:u0continental-airlines,
22:u1continental-airlines,
9:b2between,
9:b3between,
9:b4between,
9:b5between,
9:u0between,
9:u1between,
8:b2boston,
8:b3boston,
8:b4boston,
8:b5boston,
8:u0boston,
8:u1boston,
5:b2and,
5:b3and,
5:b4and,
5:b5and,
8:b2please,
8:b3please,
8:b4please,
8:b5please,
8:u0please,
8:u1please,
6:b2tell,
6:b3tell,
6:b4tell,
6:b5tell,
6:u0tell,
6:u1tell,
4:b2me,
4:b3me,
4:b4me,
4:b5me,
4:u0me,
4:u1me,
9:b2flights,
9:b3flights,
9:b4flights,
9:b5flights,
9:u0flights,
9:u1flights,
5:u0and,
5:u1and,
14:b2philadelphia,
14:b3philadelphia,
14:b4philadelphia,
14:b5philadelphia,
14:u0philadelphia,
14:u1philadelphia,
7:b2would,
7:b3would,
7:b4would,
7:b5would,
7:u0would,
7:u1would,
6:b2fare,
6:b3fare,
6:b4fare,
6:b5fare,
6:u0fare,
6:u1fare,
9:b2atlanta,
9:b3atlanta,
9:b4atlanta,
9:b5atlanta,
9:u0atlanta,
9:u1atlanta,
3:b2a,
3:b3a,
3:b4a,
3:b5a,
3:u0a,
3:u1a,
6:b2give,
6:b3give,
6:b4give,
6:b5give,
6:u0give,
6:u1give,
14:b2flight-times,
14:b3flight-times,
14:b4flight-times,
14:b5flight-times,
14:u0flight-times,
14:u1flight-times,
11:b2baltimore,
11:b3baltimore,
11:b4baltimore,
11:b5baltimore,
11:u0baltimore,
11:u1baltimore,
4:b2in,
4:b3in,
4:b4in,
4:b5in,
4:u0in,
4:u1in,
9:b2morning,
9:b3morning,
9:b4morning,
9:b5morning,
9:u0morning,
9:u1morning,
8:b2before,
8:b3before,
8:b4before,
8:b5before,
23:b2times-of-your-flights,
23:b3times-of-your-flights,
23:b4times-of-your-flights,
23:b5times-of-your-flights,
23:u0times-of-your-flights,
23:u1times-of-your-flights,
9:b2leaving,
9:b3leaving,
9:b4leaving,
9:b5leaving,
9:u0leaving,
9:u1leaving,
6:b2what,
6:b3what,
6:b4what,
6:b5what,
6:u0what,
6:u1what,
4:b2do,
4:b3do,
4:b4do,
4:b5do,
4:u0do,
4:u1do,
6:b2have,
6:b3have,
6:b4have,
6:b5have,
6:u0have,
6:u1have,
8:b2denver,
8:b3denver,
8:b4denver,
8:b5denver,
8:u0denver,
8:u1denver,
10:b2arriving,
10:b3arriving,
10:b4arriving,
10:b5arriving,
10:u0arriving,
10:u1arriving,
4:b2is,
4:b3is,
4:b4is,
4:b5is,
4:u0is,
4:u1is,
6:b2your,
6:b3your,
6:b4your,
6:b5your,
6:u0your,
6:u1your,
6:b2last,
6:b3last,
6:b4last,
6:b5last,
6:u0last,
6:u1last,
7:b2there,
7:b3there,
7:b4there,
7:b5there,
7:u0there,
7:u1there,
6:b2does,
6:b3does,
6:b4does,
6:b5does,
6:u0does,
6:u1does,
19:b2american-airlines,
19:b3american-airlines,
19:b4american-airlines,
19:b5american-airlines,
19:u0american-airlines,
19:u1american-airlines,
6:b2time,
6:b3time,
6:b4time,
6:b5time,
6:u0time,
6:u1time,
10:b2earliest,
10:b3earliest,
10:b4earliest,
10:b5earliest,
10:u0earliest,
10:u1earliest,
4:b2of,
4:b3of,
4:b4of,
4:b5of,
4:u0of,
4:u1of,
7:b2could,
7:b3could,
7:b4could,
7:b5could,
7:u0could,
7:u1could,
13:b2information,
13:b3information,
13:b4information,
13:b5information,
13:u0information,
13:u1information,
12:b2concerning,
12:b3concerning,
12:b4concerning,
12:b5concerning,
12:u0concerning,
12:u1concerning,
5:b2one,
5:b3one,
5:b4one,
5:b5one,
5:u0one,
5:u1one,
4:b2as,
4:b3as,
4:b4as,
4:b5as,
18:b2american-airline,
18:b3american-airline,
18:b4american-airline,
18:b5american-airline,
18:u0american-airline,
18:u1american-airline,
15:b2early-morning,
15:b3early-morning,
15:b4early-morning,
15:b5early-morning,
5:b2twa,
5:b3twa,
5:b4twa,
5:b5twa,
5:u0twa,
5:u1twa,
12:b2fort-worth,
12:b3fort-worth,
12:b4fort-worth,
12:b5fort-worth,
12:u0fort-worth,
12:u1fort-worth,
7:b2texas,
7:b3texas,
7:b4texas,
7:b5texas,
7:u0texas,
7:u1texas,
12:b2interested,
12:b3interested,
12:b4interested,
12:b5interested,
12:u0interested,
12:u1interested,
6:b2that,
6:b3that,
6:b4that,
6:b5that,
6:u0that,
6:u1that,
6:b2stop,
6:b3stop,
6:b4stop,
6:b5stop,
6:u0stop,
6:u1stop,
5:b2for,
5:b3for,
5:b4for,
5:b5for,
5:u0for,
5:u1for,
12:b2pittsburgh,
12:b3pittsburgh,
12:b4pittsburgh,
12:b5pittsburgh,
12:u0pittsburgh,
12:u1pittsburgh,
6:b2want,
6:b3want,
6:b4want,
6:b5want,
6:u0want,
6:u1want,
10:b2airlines,
10:b3airlines,
10:b4airlines,
10:b5airlines,
10:u0airlines,
10:u1airlines,
8:b2ground,
8:b3ground,
8:b4ground,
8:b5ground,
8:u0ground,
8:u1ground,
16:b2transportation,
16:b3transportation,
16:b4transportation,
16:b5transportation,
16:u0transportation,
16:u1transportation,
9:b2airport,
9:b3airport,
9:b4airport,
9:b5airport,
9:u0airport,
9:u1airport,
11:b2repeating,
11:b3repeating,
11:b4repeating,
11:b5repeating,
11:u0repeating,
11:u1repeating,
8:u0before,
8:u1before,
6:b210am,
6:b310am,
6:b410am,
6:b510am,
6:u010am,
6:u110am,
6:b2type,
6:b3type,
6:b4type,
6:b5type,
6:u0type,
6:u1type,
10:b2aircraft,
10:b3aircraft,
10:b4aircraft,
10:b5aircraft,
10:u0aircraft,
10:u1aircraft,
8:b2flying,
8:b3flying,
8:b4flying,
8:b5flying,
8:u0flying,
8:u1flying,
17:b2united-airlines,
17:b3united-airlines,
17:b4united-airlines,
17:b5united-airlines,
17:u0united-airlines,
17:u1united-airlines,
5:b2all,
5:b3all,
5:b4all,
5:b5all,
5:u0all,
5:u1all,
7:b2right,
7:b3right,
7:b4right,
7:b5right,
7:u0right,
7:u1right,
5:b2let,
5:b3let,
5:b4let,
5:b5let,
5:u0let,
5:u1let,
6:b2know,
6:b3know,
6:b4know,
6:b5know,
6:u0know,
6:u1know,
7:b2using,
7:b3using,
7:b4using,
7:b5using,
7:u0using,
7:u1using,
6:b2they,
6:b3they,
6:b4they,
6:b5they,
6:u0they,
6:u1they,
5:b2use,
5:b3use,
5:b4use,
5:b5use,
5:u0use,
5:u1use,
7:b2these,
7:b3these,
7:b4these,
7:b5these,
7:u0these,
7:u1these,
4:b210,
4:b310,
4:b410,
4:b510,
4:u010,
4:u110,
6:b2well,
6:b3well,
6:b4well,
6:b5well,
6:u0well,
6:u1well,
6:b2i'll,
6:b3i'll,
6:b4i'll,
6:b5i'll,
6:u0i'll,
6:u1i'll,
5:b2try,
5:b3try,
5:b4try,
5:b5try,
5:u0try,
5:u1try,
6:b2kind,
6:b3kind,
6:b4kind,
6:b5kind,
6:u0kind,
6:u1kind,
7:b2flies,
7:b3flies,
7:b4flies,
7:b5flies,
7:u0flies,
7:u1flies,
12:b210-o'clock,
12:b310-o'clock,
12:b410-o'clock,
12:b510-o'clock,
12:u010-o'clock,
12:u110-o'clock,
11:b2september,
11:b3september,
11:b4september,
11:b5september,
11:u0september,
11:u1september,
11:b2twentieth,
11:b3twentieth,
11:b4twentieth,
11:b5twentieth,
11:u0twentieth,
11:u1twentieth,
10:b2stopover,
10:b3stopover,
10:b4stopover,
10:b5stopover,
10:u0stopover,
10:u1stopover,
5:b2are,
5:b3are,
5:b4are,
5:b5are,
5:u0are,
5:u1are,
4:b2an,
4:b3an,
4:b4an,
4:b5an,
4:u0an,
4:u1an,
6:b2wish,
6:b3wish,
6:b4wish,
6:b5wish,
6:u0wish,
6:u1wish,
9:b2airline,
9:b3airline,
9:b4airline,
9:b5airline,
9:u0airline,
9:u1airline,
7:b2plane,
7:b3plane,
7:b4plane,
7:b5plane,
7:u0plane,
7:u1plane,
9:b2one-way,
9:b3one-way,
9:b4one-way,
9:b5one-way,
9:u0one-way,
9:u1one-way,
11:b2available,
11:b3available,
11:b4available,
11:b5available,
11:u0available,
11:u1available,
4:b2at,
4:b3at,
4:b4at,
4:b5at,
4:u0at,
4:u1at,
10:b2noontime,
10:b3noontime,
10:b4noontime,
10:b5noontime,
10:u0noontime,
10:u1noontime,
8:b2around,
8:b3around,
8:b4around,
8:b5around,
8:u0around,
8:u1around,
16:b2delta-airlines,
16:b3delta-airlines,
16:b4delta-airlines,
16:b5delta-airlines,
16:u0delta-airlines,
16:u1delta-airlines,
18:b2eastern-airlines,
18:b3eastern-airlines,
18:b4eastern-airlines,
18:b5eastern-airlines,
18:u0eastern-airlines,
18:u1eastern-airlines,
4:u0as,
4:u1as,
7:b2early,
7:b3early,
7:b4early,
7:b5early,
7:u0early,
7:u1early,
10:b2possible,
10:b3possible,
10:b4possible,
10:b5possible,
10:u0possible,
10:u1possible,
5:b2day,
5:b3day,
5:b4day,
5:b5day,
5:u0day,
5:u1day,
6:b2will,
6:b3will,
6:b4will,
6:b5will,
6:u0will,
6:u1will,
8:b2arrive,
8:b3arrive,
8:b4arrive,
8:b5arrive,
8:u0arrive,
8:u1arrive,
16:b2denver-airport,
16:b3denver-airport,
16:b4denver-airport,
16:b5denver-airport,
16:u0denver-airport,
16:u1denver-airport,
10:b2downtown,
10:b3downtown,
10:b4downtown,
10:b5downtown,
9:b2nonstop,
9:b3nonstop,
9:b4nonstop,
9:b5nonstop,
9:u0nonstop,
9:u1nonstop,
8:b2repeat,
8:b3repeat,
8:b4repeat,
8:b5repeat,
8:u0repeat,
8:u1repeat,
12:b2departures,
12:b3departures,
12:b4departures,
12:b5departures,
12:u0departures,
12:u1departures,
8:b2monday,
8:b3monday,
8:b4monday,
8:b5monday,
8:u0monday,
8:u1monday,
8:b2august,
8:b3august,
8:b4august,
8:b5august,
8:u0august,
8:u1august,
12:b2nineteenth,
12:b3nineteenth,
12:b4nineteenth,
12:b5nineteenth,
12:u0nineteenth,
12:u1nineteenth,
6:b2rate,
6:b3rate,
6:b4rate,
6:b5rate,
6:u0rate,
6:u1rate,
5:b2any,
5:b3any,
5:b4any,
5:b5any,
5:u0any,
5:u1any,
8:b2us-air,
8:b3us-air,
8:b4us-air,
8:b5us-air,
8:u0us-air,
8:u1us-air,
7:b2we're,
7:b3we're,
7:b4we're,
7:b5we're,
7:u0we're,
7:u1we're,
7:b2going,
7:b3going,
7:b4going,
7:b5going,
7:u0going,
7:u1going,
5:b2819,
5:b3819,
5:b4819,
5:b5819,
5:u0819,
5:u1819,
6:b2take,
6:b3take,
6:b4take,
6:b5take,
6:u0take,
6:u1take,
11:b29-o'clock,
11:b39-o'clock,
11:b49-o'clock,
11:b59-o'clock,
11:u09-o'clock,
11:u19-o'clock,
5:b2out,
5:b3out,
5:b4out,
5:b5out,
5:u0out,
5:u1out,
4:b2be,
4:b3be,
4:b4be,
4:b5be,
4:u0be,
4:u1be,
9:b2staying,
9:b3staying,
9:b4staying,
9:b5staying,
9:u0staying,
9:u1staying,
10:u0downtown,
10:u1downtown,
5:b2two,
5:b3two,
5:b4two,
5:b5two,
5:u0two,
5:u1two,
7:b2hours,
7:b3hours,
7:b4hours,
7:b5hours,
7:u0hours,
7:u1hours,
5:b2can,
5:b3can,
5:b4can,
5:b5can,
5:u0can,
5:u1can,
7:b2about,
7:b3about,
7:b4about,
7:b5about,
7:u0about,
7:u1about,
6:b2city,
6:b3city,
6:b4city,
6:b5city,
6:u0city,
6:u1city,
6:b2very,
6:b3very,
6:b4very,
6:b5very,
6:u0very,
6:u1very,
9:b2working,
9:b3working,
9:b4working,
9:b5working,
9:u0working,
9:u1working,
10:b2scenario,
10:b3scenario,
10:b4scenario,
10:b5scenario,
10:u0scenario,
10:u1scenario,
7:b2three,
7:b3three,
7:b4three,
7:b5three,
7:u0three,
7:u1three,
5:b2727,
5:b3727,
5:b4727,
5:b5727,
5:u0727,
5:u1727,
4:b2am,
4:b3am,
4:b4am,
4:b5am,
4:u0am,
4:u1am,
8:b2number,
8:b3number,
8:b4number,
8:b5number,
8:u0number,
8:u1number,
8:b2return,
8:b3return,
8:b4return,
8:b5return,
8:u0return,
8:u1return,
7:b2bound,
7:b3bound,
7:b4bound,
7:b5bound,
7:u0bound,
7:u1bound,
8:b2friday,
8:b3friday,
8:b4friday,
8:b5friday,
8:u0friday,
8:u1friday,
6:b2this,
6:b3this,
6:b4this,
6:b5this,
7:b2class,
7:b3class,
7:b4class,
7:b5class,
7:u0class,
7:u1class,
9:b2service,
9:b3service,
9:b4service,
9:b5service,
9:u0service,
9:u1service,
12:b2california,
12:b3california,
12:b4california,
12:b5california,
12:u0california,
12:u1california,
5:b2get,
5:b3get,
5:b4get,
5:b5get,
5:u0get,
5:u1get,
5:b2yes,
5:b3yes,
5:b4yes,
5:b5yes,
5:u0yes,
5:u1yes,
7:b2delta,
7:b3delta,
7:b4delta,
7:b5delta,
7:u0delta,
7:u1delta,
7:b2225pm,
7:b3225pm,
7:b4225pm,
7:b5225pm,
7:u0225pm,
7:u1225pm,
8:b21158pm,
8:b31158pm,
8:b41158pm,
8:b51158pm,
8:u01158pm,
8:u11158pm,
11:b2equipment,
11:b3equipment,
11:b4equipment,
11:b5equipment,
11:u0equipment,
11:u1equipment,
6:b2used,
6:b3used,
6:b4used,
6:b5used,
6:u0used,
6:u1used,
9:b2looking,
9:b3looking,
9:b4looking,
9:b5looking,
9:u0looking,
9:u1looking,
10:b2stopping,
10:b3stopping,
10:b4stopping,
10:b5stopping,
10:u0stopping,
10:u1stopping,
8:b2ticket,
8:b3ticket,
8:b4ticket,
8:b5ticket,
8:u0ticket,
8:u1ticket,
10:b2colorado,
10:b3colorado,
10:b4colorado,
10:b5colorado,
10:u0colorado,
10:u1colorado,
9:b2georgia,
9:b3georgia,
9:b4georgia,
9:b5georgia,
9:u0georgia,
9:u1georgia,
6:b2with,
6:b3with,
6:b4with,
6:b5with,
6:u0with,
6:u1with,
13:b2coach-class,
13:b3coach-class,
13:b4coach-class,
13:b5coach-class,
13:u0coach-class,
13:u1coach-class,
6:b2seat,
6:b3seat,
6:b4seat,
6:b5seat,
6:u0seat,
6:u1seat,
4:b2or,
4:b3or,
4:b4or,
4:b5or,
4:u0or,
4:u1or,
8:b2lowest,
8:b3lowest,
8:b4lowest,
8:b5lowest,
8:u0lowest,
8:u1lowest,
5:b2buy,
5:b3buy,
5:b4buy,
5:b5buy,
5:u0buy,
5:u1buy,
11:b2afternoon,
11:b3afternoon,
11:b4afternoon,
11:b5afternoon,
11:u0afternoon,
11:u1afternoon,
5:b2230,
5:b3230,
5:b4230,
5:b5230,
5:u0230,
5:u1230,
5:b2324,
5:b3324,
5:b4324,
5:b5324,
5:u0324,
5:u1324,
7:b2110pm,
7:b3110pm,
7:b4110pm,
7:b5110pm,
7:u0110pm,
7:u1110pm,
10:b2american,
10:b3american,
10:b4american,
10:b5american,
10:u0american,
10:u1american,
5:b2813,
5:b3813,
5:b4813,
5:b5813,
5:u0813,
5:u1813,
9:b2oakland,
9:b3oakland,
9:b4oakland,
9:b5oakland,
9:u0oakland,
9:u1oakland,
6:b2goes,
6:b3goes,
6:b4goes,
6:b5goes,
6:u0goes,
6:u1goes,
10:b2straight,
10:b3straight,
10:b4straight,
10:b5straight,
10:u0straight,
10:u1straight,
9:b2through,
9:b3through,
9:b4through,
9:b5through,
9:u0through,
9:u1through,
18:b2without-stopping,
18:b3without-stopping,
18:b4without-stopping,
18:b5without-stopping,
18:u0without-stopping,
18:u1without-stopping,
9:b2another,
9:b3another,
9:b4another,
9:b5another,
4:b2if,
4:b3if,
4:b4if,
4:b5if,
4:u0if,
4:u1if,
9:b2enroute,
9:b3enroute,
9:b4enroute,
9:b5enroute,
9:u0enroute,
9:u1enroute,
4:b2it,
4:b3it,
4:b4it,
4:b5it,
4:u0it,
4:u1it,
5:b2may,
5:b3may,
5:b4may,
5:b5may,
5:u0may,
5:u1may,
6:b22153,
6:b32153,
6:b42153,
6:b52153,
6:u02153,
6:u12153,
13:b2first-class,
13:b3first-class,
13:b4first-class,
13:b5first-class,
13:u0first-class,
13:u1first-class,
6:b2list,
6:b3list,
6:b4list,
6:b5list,
6:u0list,
6:u1list,
8:b2making,
8:b3making,
8:b4making,
8:b5making,
8:u0making,
8:u1making,
13:b2continental,
13:b3continental,
13:b4continental,
13:b5continental,
13:u0continental,
13:u1continental,
7:b2leave,
7:b3leave,
7:b4leave,
7:b5leave,
7:u0leave,
7:u1leave,
7:b2after,
7:b3after,
7:b4after,
7:b5after,
7:u0after,
7:u1after,
12:b212-o'clock,
12:b312-o'clock,
12:b412-o'clock,
12:b512-o'clock,
12:u012-o'clock,
12:u112-o'clock,
7:b2which,
7:b3which,
7:b4which,
7:b5which,
7:u0which,
7:u1which,
8:b2leaves,
8:b3leaves,
8:b4leaves,
8:b5leaves,
8:u0leaves,
8:u1leaves,
8:b21220pm,
8:b31220pm,
8:b41220pm,
8:b51220pm,
8:u01220pm,
8:u11220pm,
11:b25-o'clock,
11:b35-o'clock,
11:b45-o'clock,
11:b55-o'clock,
11:u05-o'clock,
11:u15-o'clock,
13:b2lowest-cost,
13:b3lowest-cost,
13:b4lowest-cost,
13:b5lowest-cost,
13:u0lowest-cost,
13:u1lowest-cost,
7:b2645am,
7:b3645am,
7:b4645am,
7:b5645am,
7:u0645am,
7:u1645am,
9:b2tuesday,
9:b3tuesday,
9:b4tuesday,
9:b5tuesday,
9:u0tuesday,
9:u1tuesday,
5:b2has,
5:b3has,
5:b4has,
5:b5has,
5:u0has,
5:u1has,
5:b2how,
5:b3how,
5:b4how,
5:b5how,
5:u0how,
5:u1how,
6:b2much,
6:b3much,
6:b4much,
6:b5much,
6:u0much,
6:u1much,
12:b2round-trip,
12:b3round-trip,
12:b4round-trip,
12:b5round-trip,
12:u0round-trip,
12:u1round-trip,
6:b2long,
6:b3long,
6:b4long,
6:b5long,
6:u0long,
6:u1long,
17:b2atlanta-airport,
17:b3atlanta-airport,
17:b4atlanta-airport,
17:b5atlanta-airport,
17:u0atlanta-airport,
17:u1atlanta-airport,
6:b2into,
6:b3into,
6:b4into,
6:b5into,
6:u0into,
6:u1into,
19:b2airport-limousine,
19:b3airport-limousine,
19:b4airport-limousine,
19:b5airport-limousine,
19:u0airport-limousine,
19:u1airport-limousine,
6:b2make,
6:b3make,
6:b4make,
6:b5make,
6:u0make,
6:u1make,
6:b2trip,
6:b3trip,
6:b4trip,
6:b5trip,
6:u0trip,
6:u1trip,
7:b2again,
7:b3again,
7:b4again,
7:b5again,
7:u0again,
7:u1again,
7:b2fares,
7:b3fares,
7:b4fares,
7:b5fares,
7:u0fares,
7:u1fares,
14:b2arrival-time,
14:b3arrival-time,
14:b4arrival-time,
14:b5arrival-time,
14:u0arrival-time,
14:u1arrival-time,
7:b2755am,
7:b3755am,
7:b4755am,
7:b5755am,
7:u0755am,
7:u1755am,
8:b2latest,
8:b3latest,
8:b4latest,
8:b5latest,
8:u0latest,
8:u1latest,
5:b2755,
5:b3755,
5:b4755,
5:b5755,
5:u0755,
5:u1755,
10:b2schedule,
10:b3schedule,
10:b4schedule,
10:b5schedule,
10:u0schedule,
10:u1schedule,
5:b29pm,
5:b39pm,
5:b49pm,
5:b59pm,
5:u09pm,
5:u19pm,
10:b2november,
10:b3november,
10:b4november,
10:b5november,
10:u0november,
10:u1november,
14:b2twenty-third,
14:b3twenty-third,
14:b4twenty-third,
14:b5twenty-third,
14:u0twenty-third,
14:u1twenty-third,
6:u0this,
6:u1this,
6:b2year,
6:b3year,
6:b4year,
6:b5year,
6:u0year,
6:u1year,
6:b21991,
6:b31991,
6:b41991,
6:b51991,
6:u01991,
6:u11991,
6:b2okay,
6:b3okay,
6:b4okay,
6:b5okay,
6:u0okay,
6:u1okay,
6:b2just,
6:b3just,
6:b4just,
6:b5just,
6:u0just,
6:u1just,
7:b2hello,
7:b3hello,
7:b4hello,
7:b5hello,
7:u0hello,
7:u1hello,
7:b2let's,
7:b3let's,
7:b4let's,
7:b5let's,
7:u0let's,
7:u1let's,
5:b2see,
5:b3see,
5:b4see,
5:b5see,
5:u0see,
5:u1see,
15:b2delta-airline,
15:b3delta-airline,
15:b4delta-airline,
15:b5delta-airline,
15:u0delta-airline,
15:u1delta-airline,
7:b2stops,
7:b3stops,
7:b4stops,
7:b5stops,
7:u0stops,
7:u1stops,
5:b2way,
5:b3way,
5:b4way,
5:b5way,
5:u0way,
5:u1way,
8:b2united,
8:b3united,
8:b4united,
8:b5united,
8:u0united,
8:u1united,
4:b2by,
4:b3by,
4:b4by,
4:b5by,
16:b2united-airline,
16:b3united-airline,
16:b4united-airline,
16:b5united-airline,
16:u0united-airline,
16:u1united-airline,
4:b2oh,
4:b3oh,
4:b4oh,
4:b5oh,
4:u0oh,
4:u1oh,
17:b2eastern-airline,
17:b3eastern-airline,
17:b4eastern-airline,
17:b5eastern-airline,
17:u0eastern-airline,
17:u1eastern-airline,
6:b2some,
6:b3some,
6:b4some,
6:b5some,
6:u0some,
6:u1some,
16:b2dallas-airport,
16:b3dallas-airport,
16:b4dallas-airport,
16:b5dallas-airport,
16:u0dallas-airport,
16:u1dallas-airport,
14:b2arrangements,
14:b3arrangements,
14:b4arrangements,
14:b5arrangements,
14:u0arrangements,
14:u1arrangements,
16:b2boston-airport,
16:b3boston-airport,
16:b4boston-airport,
16:b5boston-airport,
16:u0boston-airport,
16:u1boston-airport,
11:b2departing,
11:b3departing,
11:b4departing,
11:b5departing,
11:u0departing,
11:u1departing,
9:b2airfare,
9:b3airfare,
9:b4airfare,
9:b5airfare,
9:u0airfare,
9:u1airfare,
13:b2329-dollars,
13:b3329-dollars,
13:b4329-dollars,
13:b5329-dollars,
13:u0329-dollars,
13:u1329-dollars,
6:b2cost,
6:b3cost,
6:b4cost,
6:b5cost,
6:u0cost,
6:u1cost,
5:b2air,
5:b3air,
5:b4air,
5:b5air,
5:u0air,
5:u1air,
14:b2restrictions,
14:b3restrictions,
14:b4restrictions,
14:b5restrictions,
14:u0restrictions,
14:u1restrictions,
6:b2book,
6:b3book,
6:b4book,
6:b5book,
6:u0book,
6:u1book,
7:b2coach,
7:b3coach,
7:b4coach,
7:b5coach,
7:u0coach,
7:u1coach,
10:b2discount,
10:b3discount,
10:b4discount,
10:b5discount,
9:b2arrange,
9:b3arrange,
9:b4arrange,
9:b5arrange,
9:u0arrange,
9:u1arrange,
6:b2july,
6:b3july,
6:b4july,
6:b5july,
6:b2sure,
6:b3sure,
6:b4sure,
6:b5sure,
6:u0sure,
6:u1sure,
11:b2determine,
11:b3determine,
11:b4determine,
11:b5determine,
11:u0determine,
11:u1determine,
6:u0july,
6:u1july,
9:b2seventh,
9:b3seventh,
9:b4seventh,
9:b5seventh,
9:u0seventh,
9:u1seventh,
6:b2meal,
6:b3meal,
6:b4meal,
6:b5meal,
6:u0meal,
6:u1meal,
7:b2being,
7:b3being,
7:b4being,
7:b5being,
5:b28am,
5:b38am,
5:b48am,
5:b58am,
5:u08am,
5:u18am,
6:b2such,
6:b3such,
6:b4such,
6:b5such,
6:u0such,
6:u1such,
7:b2types,
7:b3types,
7:b4types,
7:b5types,
7:u0types,
7:u1types,
10:b2sometime,
10:b3sometime,
10:b4sometime,
10:b5sometime,
10:u0sometime,
10:u1sometime,
8:b2direct,
8:b3direct,
8:b4direct,
8:b5direct,
8:u0direct,
8:u1direct,
9:b2arrives,
9:b3arrives,
9:b4arrives,
9:b5arrives,
9:u0arrives,
9:u1arrives,
15:u0early-morning,
15:u1early-morning,
15:b2approximately,
15:b3approximately,
15:b4approximately,
15:b5approximately,
6:b2many,
6:b3many,
6:b4many,
6:b5many,
6:u0many,
6:u1many,
7:b2where,
7:b3where,
7:b4where,
7:b5where,
7:u0where,
7:u1where,
5:b2420,
5:b3420,
5:b4420,
5:b5420,
5:u0420,
5:u1420,
3:b25,
3:b35,
3:b45,
3:b55,
3:u05,
3:u15,
4:b2my,
4:b3my,
4:b4my,
4:b5my,
4:u0my,
4:u1my,
7:b2final,
7:b3final,
7:b4final,
7:b5final,
7:u0final,
7:u1final,
13:b2destination,
13:b3destination,
13:b4destination,
13:b5destination,
13:u0destination,
13:u1destination,
11:b2originate,
11:b3originate,
11:b4originate,
11:b5originate,
11:u0originate,
11:u1originate,
22:b2latest-time-possible,
22:b3latest-time-possible,
22:b4latest-time-possible,
22:b5latest-time-possible,
22:u0latest-time-possible,
22:u1latest-time-possible,
8:b2during,
8:b3during,
8:b4during,
8:b5during,
5:b2296,
5:b3296,
5:b4296,
5:b5296,
5:u0296,
5:u1296,
8:b2serves,
8:b3serves,
8:b4serves,
8:b5serves,
7:b2first,
7:b3first,
7:b4first,
7:b5first,
7:u0first,
7:u1first,
8:b2should,
8:b3should,
8:b4should,
8:b5should,
8:u0should,
8:u1should,
7:b2their,
7:b3their,
7:b4their,
7:b5their,
7:u0their,
7:u1their,
10:b2question,
10:b3question,
10:b4question,
10:b5question,
10:u0question,
10:u1question,
6:b2live,
6:b3live,
6:b4live,
6:b5live,
6:u0live,
6:u1live,
8:b2trying,
8:b3trying,
8:b4trying,
8:b5trying,
8:u0trying,
8:u1trying,
12:b2connection,
12:b3connection,
12:b4connection,
12:b5connection,
12:u0connection,
12:u1connection,
7:b2those,
7:b3those,
7:b4those,
7:b5those,
11:b2thirtieth,
11:b3thirtieth,
11:b4thirtieth,
11:b5thirtieth,
11:u0thirtieth,
11:u1thirtieth,
6:b2fine,
6:b3fine,
6:b4fine,
6:b5fine,
6:u0fine,
6:u1fine,
6:b2help,
6:b3help,
6:b4help,
6:b5help,
6:u0help,
6:u1help,
5:b2now,
5:b3now,
5:b4now,
5:b5now,
5:u0now,
5:u1now,
5:b2747,
5:b3747,
5:b4747,
5:b5747,
5:u0747,
5:u1747,
6:b2able,
6:b3able,
6:b4able,
6:b5able,
6:u0able,
6:u1able,
5:b2put,
5:b3put,
5:b4put,
5:b5put,
5:u0put,
5:u1put,
16:b2twenty-seventh,
16:b3twenty-seventh,
16:b4twenty-seventh,
16:b5twenty-seventh,
16:u0twenty-seventh,
16:u1twenty-seventh,
7:b2night,
7:b3night,
7:b4night,
7:b5night,
7:u0night,
7:u1night,
7:b2630am,
7:b3630am,
7:b4630am,
7:b5630am,
7:u0630am,
7:u1630am,
7:b2rates,
7:b3rates,
7:b4rates,
7:b5rates,
7:u0rates,
7:u1rates,
17:b2least-expensive,
17:b3least-expensive,
17:b4least-expensive,
17:b5least-expensive,
17:u0least-expensive,
17:u1least-expensive,
16:b2city-of-boston,
16:b3city-of-boston,
16:b4city-of-boston,
16:b5city-of-boston,
16:u0city-of-boston,
16:u1city-of-boston,
8:b2kindly,
8:b3kindly,
8:b4kindly,
8:b5kindly,
8:u0kindly,
8:u1kindly,
8:b2inform,
8:b3inform,
8:b4inform,
8:b5inform,
8:u0inform,
8:u1inform,
9:b2eastern,
9:b3eastern,
9:b4eastern,
9:b5eastern,
9:u0eastern,
9:u1eastern,
5:b2825,
5:b3825,
5:b4825,
5:b5825,
5:u0825,
5:u1825,
6:b2when,
6:b3when,
6:b4when,
6:b5when,
6:u0when,
6:u1when,
5:b2555,
5:b3555,
5:b4555,
5:b5555,
5:u0555,
5:u1555,
7:b2sorry,
7:b3sorry,
7:b4sorry,
7:b5sorry,
7:u0sorry,
7:u1sorry,
14:b2thirty-first,
14:b3thirty-first,
14:b4thirty-first,
14:b5thirty-first,
14:u0thirty-first,
14:u1thirty-first,
6:b2then,
6:b3then,
6:b4then,
6:b5then,
6:u0then,
6:u1then,
8:b2fourth,
8:b3fourth,
8:b4fourth,
8:b5fourth,
8:u0fourth,
8:u1fourth,
6:b2plan,
6:b3plan,
6:b4plan,
6:b5plan,
6:u0plan,
6:u1plan,
10:b2no-stops,
10:b3no-stops,
10:b4no-stops,
10:b5no-stops,
10:u0no-stops,
10:u1no-stops,
9:b2economy,
9:b3economy,
9:b4economy,
9:b5economy,
9:u0economy,
9:u1economy,
10:b2thursday,
10:b3thursday,
10:b4thursday,
10:b5thursday,
10:u0thursday,
10:u1thursday,
7:b2fifth,
7:b3fifth,
7:b4fifth,
7:b5fifth,
7:u0fifth,
7:u1fifth,
9:b2october,
9:b3october,
9:b4october,
9:b5october,
9:b2connect,
9:b3connect,
9:b4connect,
9:b5connect,
9:u0connect,
9:u1connect,
7:u0those,
7:u1those,
10:b2planning,
10:b3planning,
10:b4planning,
10:b5planning,
10:u0planning,
10:u1planning,
5:b2269,
5:b3269,
5:b4269,
5:b5269,
5:u0269,
5:u1269,
5:b2428,
5:b3428,
5:b4428,
5:b5428,
5:u0428,
5:u1428,
7:b2times,
7:b3times,
7:b4times,
7:b5times,
7:u0times,
7:u1times,
7:b2makes,
7:b3makes,
7:b4makes,
7:b5makes,
7:u0makes,
7:u1makes,
10:b2one-stop,
10:b3one-stop,
10:b4one-stop,
10:b5one-stop,
10:u0one-stop,
10:u1one-stop,
7:b2april,
7:b3april,
7:b4april,
7:b5april,
7:u0april,
7:u1april,
14:b2twenty-first,
14:b3twenty-first,
14:b4twenty-first,
14:b5twenty-first,
14:u0twenty-first,
14:u1twenty-first,
11:b2beginning,
11:b3beginning,
11:b4beginning,
11:b5beginning,
11:u0beginning,
11:u1beginning,
14:b2twenty-fifth,
14:b3twenty-fifth,
14:b4twenty-fifth,
14:b5twenty-fifth,
14:u0twenty-fifth,
14:u1twenty-fifth,
11:b2returning,
11:b3returning,
11:b4returning,
11:b5returning,
11:u0returning,
11:u1returning,
11:b27-o'clock,
11:b37-o'clock,
11:b47-o'clock,
11:b57-o'clock,
11:u07-o'clock,
11:u17-o'clock,
11:b2fifteenth,
11:b3fifteenth,
11:b4fifteenth,
11:b5fifteenth,
11:u0fifteenth,
11:u1fifteenth,
9:b2sixteen,
9:b3sixteen,
9:b4sixteen,
9:b5sixteen,
9:u0sixteen,
9:u1sixteen,
11:b2seventeen,
11:b3seventeen,
11:b4seventeen,
11:b5seventeen,
11:u0seventeen,
11:u1seventeen,
8:b2twenty,
8:b3twenty,
8:b4twenty,
8:b5twenty,
8:u0twenty,
8:u1twenty,
11:b28-o'clock,
11:b38-o'clock,
11:b48-o'clock,
11:b58-o'clock,
11:u08-o'clock,
11:u18-o'clock,
6:b2four,
6:b3four,
6:b4four,
6:b5four,
6:u0four,
6:u1four,
6:b21039,
6:b31039,
6:b41039,
6:b51039,
6:u01039,
6:u11039,
7:b2great,
7:b3great,
7:b4great,
7:b5great,
7:u0great,
7:u1great,
8:b2depart,
8:b3depart,
8:b4depart,
8:b5depart,
8:u0depart,
8:u1depart,
8:b2sounds,
8:b3sounds,
8:b4sounds,
8:b5sounds,
8:u0sounds,
8:u1sounds,
12:b2twenty-one,
12:b3twenty-one,
12:b4twenty-one,
12:b5twenty-one,
12:u0twenty-one,
12:u1twenty-one,
7:b2one's,
7:b3one's,
7:b4one's,
7:b5one's,
7:u0one's,
7:u1one's,
5:b2too,
5:b3too,
5:b4too,
5:b5too,
5:u0too,
5:u1too,
15:b2twenty-second,
15:b3twenty-second,
15:b4twenty-second,
15:b5twenty-second,
15:u0twenty-second,
15:u1twenty-second,
11:b2nighttime,
11:b3nighttime,
11:b4nighttime,
11:b5nighttime,
11:u0nighttime,
11:u1nighttime,
11:b2departure,
11:b3departure,
11:b4departure,
11:b5departure,
6:b2show,
6:b3show,
6:b4show,
6:b5show,
6:u0show,
6:u1show,
19:b2dallas-fort-worth,
19:b3dallas-fort-worth,
19:b4dallas-fort-worth,
19:b5dallas-fort-worth,
19:u0dallas-fort-worth,
19:u1dallas-fort-worth,
10:b2arrivals,
10:b3arrivals,
10:b4arrivals,
10:b5arrivals,
10:u0arrivals,
10:u1arrivals,
6:b2most,
6:b3most,
6:b4most,
6:b5most,
6:u0most,
6:u1most,
13:b2connections,
13:b3connections,
13:b4connections,
13:b5connections,
13:u0connections,
13:u1connections,
7:b2tenth,
7:b3tenth,
7:b4tenth,
7:b5tenth,
6:b2june,
6:b3june,
6:b4june,
6:b5june,
6:u0june,
6:u1june,
7:b2daily,
7:b3daily,
7:b4daily,
7:b5daily,
7:u0daily,
7:u1daily,
19:b2stapleton-airport,
19:b3stapleton-airport,
19:b4stapleton-airport,
19:b5stapleton-airport,
19:u0stapleton-airport,
19:u1stapleton-airport,
10:b2tomorrow,
10:b3tomorrow,
10:b4tomorrow,
10:b5tomorrow,
8:b2thrift,
8:b3thrift,
8:b4thrift,
8:b5thrift,
8:u0thrift,
8:u1thrift,
9:b2explain,
9:b3explain,
9:b4explain,
9:b5explain,
9:u0explain,
9:u1explain,
13:b2restriction,
13:b3restriction,
13:b4restriction,
13:b5restriction,
6:b2code,
6:b3code,
6:b4code,
6:b5code,
13:b2represented,
13:b3represented,
13:b4represented,
13:b5represented,
13:u0represented,
13:u1represented,
5:b27pm,
5:b37pm,
5:b47pm,
5:b57pm,
5:u07pm,
5:u17pm,
4:b2aa,
4:b3aa,
4:b4aa,
4:b5aa,
4:u0aa,
4:u1aa,
5:b2459,
5:b3459,
5:b4459,
5:b5459,
8:b2cities,
8:b3cities,
8:b4cities,
8:b5cities,
8:u0cities,
8:u1cities,
9:b2besides,
9:b3besides,
9:b4besides,
9:b5besides,
9:u0besides,
9:u1besides,
9:b2provide,
9:b3provide,
9:b4provide,
9:b5provide,
9:u0provide,
9:u1provide,
5:b2jet,
5:b3jet,
5:b4jet,
5:b5jet,
5:u0jet,
5:u1jet,
6:b2only,
6:b3only,
6:b4only,
6:b5only,
6:u0only,
6:u1only,
11:b2different,
11:b3different,
11:b4different,
11:b5different,
11:u0different,
11:u1different,
9:b2classes,
9:b3classes,
9:b4classes,
9:b5classes,
9:u0classes,
9:u1classes,
6:u0code,
6:u1code,
3:b2b,
3:b3b,
3:b4b,
3:b5b,
3:u0b,
3:u1b,
6:b2same,
6:b3same,
6:b4same,
6:b5same,
6:u0same,
6:u1same,
9:b2booking,
9:b3booking,
9:b4booking,
9:b5booking,
9:u0booking,
9:u1booking,
15:b2no-later-than,
15:b3no-later-than,
15:b4no-later-than,
15:b5no-later-than,
15:u0no-later-than,
15:u1no-later-than,
5:b22pm,
5:b32pm,
5:b42pm,
5:b52pm,
5:u02pm,
5:u12pm,
8:b2what's,
8:b3what's,
8:b4what's,
8:b5what's,
8:u0what's,
8:u1what's,
7:b2codes,
7:b3codes,
7:b4codes,
7:b5codes,
7:u0codes,
7:u1codes,
8:b2belong,
8:b3belong,
8:b4belong,
8:b5belong,
8:u0belong,
8:u1belong,
5:b2via,
5:b3via,
5:b4via,
5:b5via,
9:b2layover,
9:b3layover,
9:b4layover,
9:b5layover,
9:u0layover,
9:u1layover,
6:b2more,
6:b3more,
6:b4more,
6:b5more,
6:u0more,
6:u1more,
16:b2business-class,
16:b3business-class,
16:b4business-class,
16:b5business-class,
16:u0business-class,
16:u1business-class,
6:b2than,
6:b3than,
6:b4than,
6:b5than,
6:u0than,
6:u1than,
7:b2other,
7:b3other,
7:b4other,
7:b5other,
15:b2economy-class,
15:b3economy-class,
15:b4economy-class,
15:b5economy-class,
15:u0economy-class,
15:u1economy-class,
16:b2late-afternoon,
16:b3late-afternoon,
16:b4late-afternoon,
16:b5late-afternoon,
16:u0late-afternoon,
16:u1late-afternoon,
5:b21pm,
5:b31pm,
5:b41pm,
5:b51pm,
5:u01pm,
5:u11pm,
11:b23-o'clock,
11:b33-o'clock,
11:b43-o'clock,
11:b53-o'clock,
11:u03-o'clock,
11:u13-o'clock,
9:b212-noon,
9:b312-noon,
9:b412-noon,
9:b512-noon,
9:u012-noon,
9:u112-noon,
9:b2delta's,
9:b3delta's,
9:b4delta's,
9:b5delta's,
9:u0delta's,
9:u1delta's,
12:b2rental-car,
12:b3rental-car,
12:b4rental-car,
12:b5rental-car,
12:u0rental-car,
12:u1rental-car,
5:b2far,
5:b3far,
5:b4far,
5:b5far,
5:u0far,
5:u1far,
10:b2saturday,
10:b3saturday,
10:b4saturday,
10:b5saturday,
6:b2come,
6:b3come,
6:b4come,
6:b5come,
6:u0come,
6:u1come,
10:b2smallest,
10:b3smallest,
10:b4smallest,
10:b5smallest,
10:u0smallest,
10:u1smallest,
9:b2seating,
9:b3seating,
9:b4seating,
9:b5seating,
16:b2most-expensive,
16:b3most-expensive,
16:b4most-expensive,
16:b5most-expensive,
16:u0most-expensive,
16:u1most-expensive,
9:b2tickets,
9:b3tickets,
9:b4tickets,
9:b5tickets,
9:u0tickets,
9:u1tickets,
11:b2atlanta's,
11:b3atlanta's,
11:b4atlanta's,
11:b5atlanta's,
6:b2noon,
6:b3noon,
6:b4noon,
6:b5noon,
6:u0noon,
6:u1noon,
13:b2originating,
13:b3originating,
13:b4originating,
13:b5originating,
13:u0originating,
13:u1originating,
8:b2offers,
8:b3offers,
8:b4offers,
8:b5offers,
8:u0offers,
8:u1offers,
9:b2heading,
9:b3heading,
9:b4heading,
9:b5heading,
9:u0heading,
9:u1heading,
5:b2279,
5:b3279,
5:b4279,
5:b5279,
5:u0279,
5:u1279,
3:b23,
3:b33,
3:b43,
3:b53,
3:u03,
3:u13,
8:b2toward,
8:b3toward,
8:b4toward,
8:b5toward,
8:u0toward,
8:u1toward,
6:b2each,
6:b3each,
6:b4each,
6:b5each,
6:u0each,
6:u1each,
11:b2lufthansa,
11:b3lufthansa,
11:b4lufthansa,
11:b5lufthansa,
11:u0lufthansa,
11:u1lufthansa,
14:b2twenty-sixth,
14:b3twenty-sixth,
14:b4twenty-sixth,
14:b5twenty-sixth,
6:b2name,
6:b3name,
6:b4name,
6:b5name,
6:u0name,
6:u1name,
22:b2philadelphia-airport,
22:b3philadelphia-airport,
22:b4philadelphia-airport,
22:b5philadelphia-airport,
22:u0philadelphia-airport,
22:u1philadelphia-airport,
3:b21,
3:b31,
3:b41,
3:b51,
3:u01,
3:u11,
3:b24,
3:b34,
3:b44,
3:b54,
3:u04,
3:u14,
16:b2departure-time,
16:b3departure-time,
16:b4departure-time,
16:b5departure-time,
16:u0departure-time,
16:u1departure-time,
17:b2early-afternoon,
17:b3early-afternoon,
17:b4early-afternoon,
17:b5early-afternoon,
17:u0early-afternoon,
17:u1early-afternoon,
7:b2total,
7:b3total,
7:b4total,
7:b5total,
7:u0total,
7:u1total,
9:u0seating,
9:u1seating,
10:b2capacity,
10:b3capacity,
10:b4capacity,
10:b5capacity,
10:u0capacity,
10:u1capacity,
12:b2advertises,
12:b3advertises,
12:b4advertises,
12:b5advertises,
12:u0advertises,
12:u1advertises,
8:b2having,
8:b3having,
8:b4having,
8:b5having,
8:u0having,
8:u1having,
11:u0departure,
11:u1departure,
20:b2pittsburgh-airport,
20:b3pittsburgh-airport,
20:b4pittsburgh-airport,
20:b5pittsburgh-airport,
20:u0pittsburgh-airport,
20:u1pittsburgh-airport,
7:b2kinds,
7:b3kinds,
7:b4kinds,
7:b5kinds,
7:u0kinds,
7:u1kinds,
11:b2limousine,
11:b3limousine,
11:b4limousine,
11:b5limousine,
11:u0limousine,
11:u1limousine,
41:b2dallas-fort-worth-international-airport,
41:b3dallas-fort-worth-international-airport,
41:b4dallas-fort-worth-international-airport,
41:b5dallas-fort-worth-international-airport,
41:u0dallas-fort-worth-international-airport,
41:u1dallas-fort-worth-international-airport,
8:b2within,
8:b3within,
8:b4within,
8:b5within,
22:b2schedule-for-flights,
22:b3schedule-for-flights,
22:b4schedule-for-flights,
22:b5schedule-for-flights,
22:u0schedule-for-flights,
22:u1schedule-for-flights,
4:b2s-,
4:b3s-,
4:b4s-,
4:b5s-,
4:u0s-,
4:u1s-,
11:b2designate,
11:b3designate,
11:b4designate,
11:b5designate,
11:u0designate,
11:u1designate,
7:b2takes,
7:b3takes,
7:b4takes,
7:b5takes,
7:u0takes,
7:u1takes,
7:b2least,
7:b3least,
7:b4least,
7:b5least,
7:u0least,
7:u1least,
8:b2amount,
8:b3amount,
8:b4amount,
8:b5amount,
8:u0amount,
8:u1amount,
8:b2planes,
8:b3planes,
8:b4planes,
8:b5planes,
8:u0planes,
8:u1planes,
9:b2usa-air,
9:b3usa-air,
9:b4usa-air,
9:b5usa-air,
9:u0usa-air,
9:u1usa-air,
8:b2prices,
8:b3prices,
8:b4prices,
8:b5prices,
8:u0prices,
8:u1prices,
9:b2various,
9:b3various,
9:b4various,
9:b5various,
9:u0various,
9:u1various,
11:b2airplanes,
11:b3airplanes,
11:b4airplanes,
11:b5airplanes,
11:u0airplanes,
11:u1airplanes,
5:b2who,
5:b3who,
5:b4who,
5:b5who,
5:b29am,
5:b39am,
5:b49am,
5:b59am,
5:u09am,
5:u19am,
17:b2time-of-arrival,
17:b3time-of-arrival,
17:b4time-of-arrival,
17:b5time-of-arrival,
17:u0time-of-arrival,
17:u1time-of-arrival,
17:b2departure-times,
17:b3departure-times,
17:b4departure-times,
17:b5departure-times,
17:u0departure-times,
17:u1departure-times,
11:b2including,
11:b3including,
11:b4including,
11:b5including,
11:u0including,
11:u1including,
7:b2offer,
7:b3offer,
7:b4offer,
7:b5offer,
7:u0offer,
7:u1offer,
6:b2dc10,
6:b3dc10,
6:b4dc10,
6:b5dc10,
6:u0dc10,
6:u1dc10,
8:b2eleven,
8:b3eleven,
8:b4eleven,
8:b5eleven,
8:u0eleven,
8:u1eleven,
9:b2any-day,
9:b3any-day,
9:b4any-day,
9:b5any-day,
9:u0any-day,
9:u1any-day,
5:b2352,
5:b3352,
5:b4352,
5:b5352,
5:u0352,
5:u1352,
7:b2price,
7:b3price,
7:b4price,
7:b5price,
7:u0price,
7:u1price,
11:b2operating,
11:b3operating,
11:b4operating,
11:b5operating,
11:u0operating,
11:u1operating,
10:b2services,
10:b3services,
10:b4services,
10:b5services,
10:u0services,
10:u1services,
14:b2reservations,
14:b3reservations,
14:b4reservations,
14:b5reservations,
14:u0reservations,
14:u1reservations,
6:b21765,
6:b31765,
6:b41765,
6:b51765,
6:u01765,
6:u11765,
17:b2flight-schedule,
17:b3flight-schedule,
17:b4flight-schedule,
17:b5flight-schedule,
17:u0flight-schedule,
17:u1flight-schedule,
5:b2f28,
5:b3f28,
5:b4f28,
5:b5f28,
5:u0f28,
5:u1f28,
20:b2air-taxi-operation,
20:b3air-taxi-operation,
20:b4air-taxi-operation,
20:b5air-taxi-operation,
20:u0air-taxi-operation,
20:u1air-taxi-operation,
4:b2pm,
4:b3pm,
4:b4pm,
4:b5pm,
4:u0pm,
4:u1pm,
9:b2serving,
9:b3serving,
9:b4serving,
9:b5serving,
9:u0serving,
9:u1serving,
11:b2breakfast,
11:b3breakfast,
11:b4breakfast,
11:b5breakfast,
11:u0breakfast,
11:u1breakfast,
8:b2served,
8:b3served,
8:b4served,
8:b5served,
8:u0served,
8:u1served,
10:b2anything,
10:b3anything,
10:b4anything,
10:b5anything,
10:u0anything,
10:u1anything,
5:b2say,
5:b3say,
5:b4say,
5:b5say,
5:u0say,
5:u1say,
5:b2run,
5:b3run,
5:b4run,
5:b5run,
5:u0run,
5:u1run,
7:b2seats,
7:b3seats,
7:b4seats,
7:b5seats,
7:u0seats,
7:u1seats,
7:u0other,
7:u1other,
9:b2earlier,
9:b3earlier,
9:b4earlier,
9:b5earlier,
9:u0earlier,
9:u1earlier,
6:b21017,
6:b31017,
6:b41017,
6:b51017,
6:u01017,
6:u11017,
7:b2later,
7:b3later,
7:b4later,
7:b5later,
7:u0later,
7:u1later,
5:b26pm,
5:b36pm,
5:b46pm,
5:b56pm,
5:u06pm,
5:u16pm,
10:b2serviced,
10:b3serviced,
10:b4serviced,
10:b5serviced,
10:u0serviced,
10:u1serviced,
5:b2dfw,
5:b3dfw,
5:b4dfw,
5:b5dfw,
5:u0dfw,
5:u1dfw,
8:b21133am,
8:b31133am,
8:b41133am,
8:b51133am,
8:u01133am,
8:u11133am,
10:b2provided,
10:b3provided,
10:b4provided,
10:b5provided,
10:u0provided,
10:u1provided,
4:u0by,
4:u1by,
10:b2provides,
10:b3provides,
10:b4provides,
10:b5provides,
10:u0provides,
10:u1provides,
6:b2both,
6:b3both,
6:b4both,
6:b5both,
6:u0both,
6:u1both,
7:b2meals,
7:b3meals,
7:b4meals,
7:b5meals,
7:u0meals,
7:u1meals,
10:b2airplane,
10:b3airplane,
10:b4airplane,
10:b5airplane,
10:u0airplane,
10:u1airplane,
11:b26-o'clock,
11:b36-o'clock,
11:b46-o'clock,
11:b56-o'clock,
11:u06-o'clock,
11:u16-o'clock,
8:b2sunday,
8:b3sunday,
8:b4sunday,
8:b5sunday,
3:b28,
3:b38,
3:b48,
3:b58,
3:u08,
3:u18,
14:b2twenty-ninth,
14:b3twenty-ninth,
14:b4twenty-ninth,
14:b5twenty-ninth,
14:u0twenty-ninth,
14:u1twenty-ninth,
7:b2third,
7:b3third,
7:b4third,
7:b5third,
7:u0third,
7:u1third,
12:b2american's,
12:b3american's,
12:b4american's,
12:b5american's,
12:u0american's,
12:u1american's,
5:b2bwi,
5:b3bwi,
5:b4bwi,
5:b5bwi,
5:u0bwi,
5:u1bwi,
7:b2still,
7:b3still,
7:b4still,
7:b5still,
7:u0still,
7:u1still,
7:b2cover,
7:b3cover,
7:b4cover,
7:b5cover,
7:u0cover,
7:u1cover,
6:b2less,
6:b3less,
6:b4less,
6:b5less,
6:u0less,
6:u1less,
13:b2200-dollars,
13:b3200-dollars,
13:b4200-dollars,
13:b5200-dollars,
5:b2oak,
5:b3oak,
5:b4oak,
5:b5oak,
5:u0oak,
5:u1oak,
9:b2qx-fare,
9:b3qx-fare,
9:b4qx-fare,
9:b5qx-fare,
9:u0qx-fare,
9:u1qx-fare,
14:b2lowest-price,
14:b3lowest-price,
14:b4lowest-price,
14:b5lowest-price,
14:u0lowest-price,
14:u1lowest-price,
4:b282,
4:b382,
4:b482,
4:b582,
4:u082,
4:u182,
9:b2q-fares,
9:b3q-fares,
9:b4q-fares,
9:b5q-fares,
9:u0q-fares,
9:u1q-fares,
13:b2124-dollars,
13:b3124-dollars,
13:b4124-dollars,
13:b5124-dollars,
13:u0124-dollars,
13:u1124-dollars,
4:b2ls,
4:b3ls,
4:b4ls,
4:b5ls,
4:u0ls,
4:u1ls,
7:b2stand,
7:b3stand,
7:b4stand,
7:b5stand,
9:b2carries,
9:b3carries,
9:b4carries,
9:b5carries,
9:u0carries,
9:u1carries,
6:b21505,
6:b31505,
6:b41505,
6:b51505,
6:u01505,
6:u11505,
7:b2serve,
7:b3serve,
7:b4serve,
7:b5serve,
11:b2itinerary,
11:b3itinerary,
11:b4itinerary,
11:b5itinerary,
11:u0itinerary,
11:u1itinerary,
12:b2connecting,
12:b3connecting,
12:b4connecting,
12:b5connecting,
12:u0connecting,
12:u1connecting,
9:b2departs,
9:b3departs,
9:b4departs,
9:b5departs,
9:u0departs,
9:u1departs,
7:b2local,
7:b3local,
7:b4local,
7:b5local,
8:b2either,
8:b3either,
8:b4either,
8:b5either,
8:u0either,
8:u1either,
27:b2dallas-fort-worth-airport,
27:b3dallas-fort-worth-airport,
27:b4dallas-fort-worth-airport,
27:b5dallas-fort-worth-airport,
27:u0dallas-fort-worth-airport,
27:u1dallas-fort-worth-airport,
12:b2passengers,
12:b3passengers,
12:b4passengers,
12:b5passengers,
12:u0passengers,
12:u1passengers,
8:b2boeing,
8:b3boeing,
8:b4boeing,
8:b5boeing,
8:u0boeing,
8:u1boeing,
5:b2737,
5:b3737,
5:b4737,
5:b5737,
3:b26,
3:b36,
3:b46,
3:b56,
3:u06,
3:u16,
9:b2qualify,
9:b3qualify,
9:b4qualify,
9:b5qualify,
9:u0qualify,
9:u1qualify,
10:b2describe,
10:b3describe,
10:b4describe,
10:b5describe,
10:u0describe,
10:u1describe,
5:b2j31,
5:b3j31,
5:b4j31,
5:b5j31,
5:b2705,
5:b3705,
5:b4705,
5:b5705,
5:u0705,
5:u1705,
4:b271,
4:b371,
4:b471,
4:b571,
4:u071,
4:u171,
10:b2directly,
10:b3directly,
10:b4directly,
10:b5directly,
10:u0directly,
10:u1directly,
11:b2scheduled,
11:b3scheduled,
11:b4scheduled,
11:b5scheduled,
11:u0scheduled,
11:u1scheduled,
10:b2december,
10:b3december,
10:b4december,
10:b5december,
11:b2turboprop,
11:b3turboprop,
11:b4turboprop,
11:b5turboprop,
11:u0turboprop,
11:u1turboprop,
7:b2catch,
7:b3catch,
7:b4catch,
7:b5catch,
7:u0catch,
7:u1catch,
20:b2lufthansa-airlines,
20:b3lufthansa-airlines,
20:b4lufthansa-airlines,
20:b5lufthansa-airlines,
20:u0lufthansa-airlines,
20:u1lufthansa-airlines,
10:u0saturday,
10:u1saturday,
7:b2logan,
7:b3logan,
7:b4logan,
7:b5logan,
7:u0logan,
7:u1logan,
11:b22-o'clock,
11:b32-o'clock,
11:b42-o'clock,
11:b52-o'clock,
11:u02-o'clock,
11:u12-o'clock,
10:b2distance,
10:b3distance,
10:b4distance,
10:b5distance,
10:u0distance,
10:u1distance,
11:b2companies,
11:b3companies,
11:b4companies,
11:b5companies,
11:u0companies,
11:u1companies,
8:u0serves,
8:u1serves,
8:b2people,
8:b3people,
8:b4people,
8:b5people,
8:u0people,
8:u1people,
9:b2carried,
9:b3carried,
9:b4carried,
9:b5carried,
9:u0carried,
9:u1carried,
10:b2shortest,
10:b3shortest,
10:b4shortest,
10:b5shortest,
10:u0shortest,
10:u1shortest,
9:b2january,
9:b3january,
9:b4january,
9:b5january,
7:b2cheap,
7:b3cheap,
7:b4cheap,
7:b5cheap,
7:u0cheap,
7:u1cheap,
9:b2reverse,
9:b3reverse,
9:b4reverse,
9:b5reverse,
9:u0reverse,
9:u1reverse,
10:b2airports,
10:b3airports,
10:b4airports,
10:b5airports,
10:u0airports,
10:u1airports,
12:b2everywhere,
12:b3everywhere,
12:b4everywhere,
12:b5everywhere,
12:u0everywhere,
12:u1everywhere,
10:b2day-time,
10:b3day-time,
10:b4day-time,
10:b5day-time,
10:u0day-time,
10:u1day-time,
6:b210pm,
6:b310pm,
6:b410pm,
6:b510pm,
6:u010pm,
6:u110pm,
17:b2midway-airlines,
17:b3midway-airlines,
17:b4midway-airlines,
17:b5midway-airlines,
17:u0midway-airlines,
17:u1midway-airlines,
7:u0tenth,
7:u1tenth,
12:b2capacities,
12:b3capacities,
12:b4capacities,
12:b5capacities,
12:u0capacities,
12:u1capacities,
9:b2largest,
9:b3largest,
9:b4largest,
9:b5largest,
9:u0largest,
9:u1largest,
10:b2greatest,
10:b3greatest,
10:b4greatest,
10:b5greatest,
10:u0greatest,
10:u1greatest,
5:b23pm,
5:b33pm,
5:b43pm,
5:b53pm,
5:u03pm,
5:u13pm,
4:b212,
4:b312,
4:b412,
4:b512,
4:u012,
4:u112,
3:b22,
3:b32,
3:b42,
3:b52,
3:u02,
3:u12,
7:b2sixth,
7:b3sixth,
7:b4sixth,
7:b5sixth,
7:u0sixth,
7:u1sixth,
12:b2car-rental,
12:b3car-rental,
12:b4car-rental,
12:b5car-rental,
12:u0car-rental,
12:u1car-rental,
6:b2limo,
6:b3limo,
6:b4limo,
6:b5limo,
6:u0limo,
6:u1limo,
7:b2ninth,
7:b3ninth,
7:b4ninth,
7:b5ninth,
7:u0ninth,
7:u1ninth,
8:b2coming,
8:b3coming,
8:b4coming,
8:b5coming,
8:u0coming,
8:u1coming,
6:b2back,
6:b3back,
6:b4back,
6:b5back,
6:u0back,
6:u1back,
5:b2fit,
5:b3fit,
5:b4fit,
5:b5fit,
5:u0fit,
5:u1fit,
5:b272s,
5:b372s,
5:b472s,
5:b572s,
6:b2once,
6:b3once,
6:b4once,
6:b5once,
6:u0once,
6:u1once,
11:b2expensive,
11:b3expensive,
11:b4expensive,
11:b5expensive,
11:u0expensive,
11:u1expensive,
7:b2eight,
7:b3eight,
7:b4eight,
7:b5eight,
9:b2charges,
9:b3charges,
9:b4charges,
9:b5charges,
9:u0charges,
9:u1charges,
4:b2no,
4:b3no,
4:b4no,
4:b5no,
4:u0no,
4:u1no,
4:b2so,
4:b3so,
4:b4so,
4:b5so,
4:u0so,
4:u1so,
6:b2here,
6:b3here,
6:b4here,
6:b5here,
6:u0here,
6:u1here,
14:b2abbreviation,
14:b3abbreviation,
14:b4abbreviation,
14:b5abbreviation,
14:u0abbreviation,
14:u1abbreviation,
4:b2ua,
4:b3ua,
4:b4ua,
4:b5ua,
4:b2co,
4:b3co,
4:b4co,
4:b5co,
4:b2dl,
4:b3dl,
4:b4dl,
4:b5dl,
3:b2y,
3:b3y,
3:b4y,
3:b5y,
12:b21700-hours,
12:b31700-hours,
12:b41700-hours,
12:b51700-hours,
12:u01700-hours,
12:u11700-hours,
7:b2under,
7:b3under,
7:b4under,
7:b5under,
7:u0under,
7:u1under,
13:b2500-dollars,
13:b3500-dollars,
13:b4500-dollars,
13:b5500-dollars,
13:u0500-dollars,
13:u1500-dollars,
10:b2airfares,
10:b3airfares,
10:b4airfares,
10:b5airfares,
10:u0airfares,
10:u1airfares,
9:b2options,
9:b3options,
9:b4options,
9:b5options,
9:u0options,
9:u1options,
9:b2arrival,
9:b3arrival,
9:b4arrival,
9:b5arrival,
9:u0arrival,
9:u1arrival,
11:b21-o'clock,
11:b31-o'clock,
11:b41-o'clock,
11:b51-o'clock,
11:u01-o'clock,
11:u11-o'clock,
11:b2regarding,
11:b3regarding,
11:b4regarding,
11:b5regarding,
15:b2twenty-eighth,
15:b3twenty-eighth,
15:b4twenty-eighth,
15:b5twenty-eighth,
9:b2display,
9:b3display,
9:b4display,
9:b5display,
9:u0display,
9:u1display,
6:b212pm,
6:b312pm,
6:b412pm,
6:b512pm,
6:u012pm,
6:u112pm,
10:b2economic,
10:b3economic,
10:b4economic,
10:b5economic,
4:b2us,
4:b3us,
4:b4us,
4:b5us,
4:u0us,
4:u1us,
5:b2345,
5:b3345,
5:b4345,
5:b5345,
5:u0345,
5:u1345,
6:b2rent,
6:b3rent,
6:b4rent,
6:b5rent,
6:u0rent,
6:u1rent,
5:b2car,
5:b3car,
5:b4car,
5:b5car,
5:u0car,
5:u1car,
33:b2stapleton-international-airport,
33:b3stapleton-international-airport,
33:b4stapleton-international-airport,
33:b5stapleton-international-airport,
33:u0stapleton-international-airport,
33:u1stapleton-international-airport,
8:u0sunday,
8:u1sunday,
4:u0dl,
4:u1dl,
6:b21083,
6:b31083,
6:b41083,
6:b51083,
6:u01083,
6:u11083,
4:u0ua,
4:u1ua,
5:b2201,
5:b3201,
5:b4201,
5:b5201,
5:u0201,
5:u1201,
5:b2343,
5:b3343,
5:b4343,
5:b5343,
5:u0343,
5:u1343,
5:b2323,
5:b3323,
5:b4323,
5:b5323,
5:u0323,
5:u1323,
5:b2229,
5:b3229,
5:b4229,
5:b5229,
5:u0229,
5:u1229,
6:b2week,
6:b3week,
6:b4week,
6:b5week,
6:u0week,
6:u1week,
9:b2meaning,
9:b3meaning,
9:b4meaning,
9:b5meaning,
9:u0meaning,
9:u1meaning,
4:b2qx,
4:b3qx,
4:b4qx,
4:b5qx,
4:u0qx,
4:u1qx,
9:b2weekday,
9:b3weekday,
9:b4weekday,
9:b5weekday,
9:u0weekday,
9:u1weekday,
10:u0tomorrow,
10:u1tomorrow,
7:b2costs,
7:b3costs,
7:b4costs,
7:b5costs,
7:u0costs,
7:u1costs,
11:b2transport,
11:b3transport,
11:b4transport,
11:b5transport,
13:b2car-rentals,
13:b3car-rentals,
13:b4car-rentals,
13:b5car-rentals,
13:u0car-rentals,
13:u1car-rentals,
11:b2saturdays,
11:b3saturdays,
11:b4saturdays,
11:b5saturdays,
11:u0saturdays,
11:u1saturdays,
5:b2d-s,
5:b3d-s,
5:b4d-s,
5:b5d-s,
5:u0d-s,
5:u1d-s,
7:u0stand,
7:u1stand,
5:b2106,
5:b3106,
5:b4106,
5:b5106,
5:u0106,
5:u1106,
9:b2grounds,
9:b3grounds,
9:b4grounds,
9:b5grounds,
9:u0grounds,
9:u1grounds,
5:b2838,
5:b3838,
5:b4838,
5:b5838,
5:u0838,
5:u1838,
13:b2reservation,
13:b3reservation,
13:b4reservation,
13:b5reservation,
13:u0reservation,
13:u1reservation,
12:b2requesting,
12:b3requesting,
12:b4requesting,
12:b5requesting,
12:u0requesting,
12:u1requesting,
10:b2starting,
10:b3starting,
10:b4starting,
10:b5starting,
10:u0starting,
10:u1starting,
5:b2402,
5:b3402,
5:b4402,
5:b5402,
5:u0402,
5:u1402,
5:b2270,
5:b3270,
5:b4270,
5:b5270,
5:u0270,
5:u1270,
5:b2297,
5:b3297,
5:b4297,
5:b5297,
5:u0297,
5:u1297,
5:b2281,
5:b3281,
5:b4281,
5:b5281,
5:u0281,
5:u1281,
10:b2tuesdays,
10:b3tuesdays,
10:b4tuesdays,
10:b5tuesdays,
10:u0tuesdays,
10:u1tuesdays,
13:u0restriction,
13:u1restriction,
7:b2ap-80,
7:b3ap-80,
7:b4ap-80,
7:b5ap-80,
5:b24pm,
5:b34pm,
5:b44pm,
5:b54pm,
5:u04pm,
5:u14pm,
5:b28pm,
5:b38pm,
5:b48pm,
5:b58pm,
5:u08pm,
5:u18pm,
14:b29-o'clock-am,
14:b39-o'clock-am,
14:b49-o'clock-am,
14:b59-o'clock-am,
14:b25-o'clock-pm,
14:b35-o'clock-pm,
14:b45-o'clock-pm,
14:b55-o'clock-pm,
24:b2the-day-after-tomorrow,
24:b3the-day-after-tomorrow,
24:b4the-day-after-tomorrow,
24:b5the-day-after-tomorrow,
24:u0the-day-after-tomorrow,
24:u1the-day-after-tomorrow,
14:b23-o'clock-pm,
14:b33-o'clock-pm,
14:b43-o'clock-pm,
14:b53-o'clock-pm,
14:u03-o'clock-pm,
14:u13-o'clock-pm,
14:b28-o'clock-am,
14:b38-o'clock-am,
14:b48-o'clock-am,
14:b58-o'clock-am,
14:u08-o'clock-am,
14:u18-o'clock-am,
14:u05-o'clock-pm,
14:u15-o'clock-pm,
7:u0serve,
7:u1serve,
13:b2us-airlines,
13:b3us-airlines,
13:b4us-airlines,
13:b5us-airlines,
13:u0us-airlines,
13:u1us-airlines,
3:u0y,
3:u1y,
11:u0transport,
11:u1transport,
3:b2m,
3:b3m,
3:b4m,
3:b5m,
12:b2continuing,
12:b3continuing,
12:b4continuing,
12:b5continuing,
12:u0continuing,
12:u1continuing,
12:b2limousines,
12:b3limousines,
12:b4limousines,
12:b5limousines,
12:u0limousines,
12:u1limousines,
6:b2taxi,
6:b3taxi,
6:b4taxi,
6:b5taxi,
6:u0taxi,
6:u1taxi,
7:b2names,
7:b3names,
7:b4names,
7:b5names,
7:u0names,
7:u1names,
4:b2qw,
4:b3qw,
4:b4qw,
4:b5qw,
4:u0qw,
4:u1qw,
8:b2listed,
8:b3listed,
8:b4listed,
8:b5listed,
8:u0listed,
8:u1listed,
6:b21055,
6:b31055,
6:b41055,
6:b51055,
6:u01055,
6:u11055,
4:b2ea,
4:b3ea,
4:b4ea,
4:b5ea,
4:u0ea,
4:u1ea,
6:b2look,
6:b3look,
6:b4look,
6:b5look,
6:u0look,
6:u1look,
7:b2today,
7:b3today,
7:b4today,
7:b5today,
7:u0today,
7:u1today,
9:b2what're,
9:b3what're,
9:b4what're,
9:b5what're,
9:u0what're,
9:u1what're,
8:b2second,
8:b3second,
8:b4second,
8:b5second,
8:u0second,
8:u1second,
6:b211am,
6:b311am,
6:b411am,
6:b511am,
6:u011am,
6:u111am,
8:u0during,
8:u1during,
5:b2430,
5:b3430,
5:b4430,
5:b5430,
5:u0430,
5:u1430,
7:b2838am,
7:b3838am,
7:b4838am,
7:b5838am,
7:u0838am,
7:u1838am,
5:u0via,
5:u1via,
8:b2thanks,
8:b3thanks,
8:b4thanks,
8:b5thanks,
8:u0thanks,
8:u1thanks,
6:b2near,
6:b3near,
6:b4near,
6:b5near,
6:u0near,
6:u1near,
5:b25pm,
5:b35pm,
5:b45pm,
5:b55pm,
5:u05pm,
5:u15pm,
7:b2close,
7:b3close,
7:b4close,
7:b5close,
7:u0close,
7:u1close,
6:b21110,
6:b31110,
6:b41110,
6:b51110,
6:u01110,
6:u11110,
23:b2san-francisco-airport,
23:b3san-francisco-airport,
23:b4san-francisco-airport,
23:b5san-francisco-airport,
23:u0san-francisco-airport,
23:u1san-francisco-airport,
7:b2while,
7:b3while,
7:b4while,
7:b5while,
7:u0while,
7:u1while,
8:b2wanted,
8:b3wanted,
8:b4wanted,
8:b5wanted,
8:u0wanted,
8:u1wanted,
9:b2maximum,
9:b3maximum,
9:b4maximum,
9:b5maximum,
9:u0maximum,
9:u1maximum,
7:b2spend,
7:b3spend,
7:b4spend,
7:b5spend,
7:u0spend,
7:u1spend,
9:b2lastest,
9:b3lastest,
9:b4lastest,
9:b5lastest,
9:u0lastest,
9:u1lastest,
9:b2longest,
9:b3longest,
9:b4longest,
9:b5longest,
9:u0longest,
9:u1longest,
5:b2but,
5:b3but,
5:b4but,
5:b5but,
5:u0but,
5:u1but,
8:u0within,
8:u1within,
6:b2over,
6:b3over,
6:b4over,
6:b5over,
6:u0over,
6:u1over,
5:b2852,
5:b3852,
5:b4852,
5:b5852,
5:u0852,
5:u1852,
5:b2928,
5:b3928,
5:b4928,
5:b5928,
5:u0928,
5:u1928,
7:b2start,
7:b3start,
7:b4start,
7:b5start,
7:u0start,
7:u1start,
6:b2it's,
6:b3it's,
6:b4it's,
6:b5it's,
5:b2445,
5:b3445,
5:b4445,
5:b5445,
5:u0445,
5:u1445,
20:b2washington-airport,
20:b3washington-airport,
20:b4washington-airport,
20:b5washington-airport,
20:u0washington-airport,
20:u1washington-airport,
8:b2locate,
8:b3locate,
8:b4locate,
8:b5locate,
8:u0locate,
8:u1locate,
9:b2travels,
9:b3travels,
9:b4travels,
9:b5travels,
9:u0travels,
9:u1travels,
6:b2late,
6:b3late,
6:b4late,
6:b5late,
6:u0late,
6:u1late,
6:b2zone,
6:b3zone,
6:b4zone,
6:b5zone,
6:u0zone,
6:u1zone,
13:b2inexpensive,
13:b3inexpensive,
13:b4inexpensive,
13:b5inexpensive,
13:u0inexpensive,
13:u1inexpensive,
11:b2currently,
11:b3currently,
11:b4currently,
11:b5currently,
11:u0currently,
11:u1currently,
6:b2must,
6:b3must,
6:b4must,
6:b5must,
6:u0must,
6:u1must,
10:b2midnight,
10:b3midnight,
10:b4midnight,
10:b5midnight,
10:u0midnight,
10:u1midnight,
6:b2land,
6:b3land,
6:b4land,
6:b5land,
6:u0land,
6:u1land,
17:b2oakland-airport,
17:b3oakland-airport,
17:b4oakland-airport,
17:b5oakland-airport,
17:u0oakland-airport,
17:u1oakland-airport,
18:b2transcontinental,
18:b3transcontinental,
18:b4transcontinental,
18:b5transcontinental,
18:u0transcontinental,
18:u1transcontinental,
8:b2across,
8:b3across,
8:b4across,
8:b5across,
8:u0across,
8:u1across,
11:b2continent,
11:b3continent,
11:b4continent,
11:b5continent,
11:u0continent,
11:u1continent,
7:b2430pm,
7:b3430pm,
7:b4430pm,
7:b5430pm,
7:u0430pm,
7:u1430pm,
6:b2gets,
6:b3gets,
6:b4gets,
6:b5gets,
6:u0gets,
6:u1gets,
7:b2month,
7:b3month,
7:b4month,
7:b5month,
7:u0month,
7:u1month,
10:u0december,
10:u1december,
10:b2connects,
10:b3connects,
10:b4connects,
10:b5connects,
10:u0connects,
10:u1connects,
10:b2vicinity,
10:b3vicinity,
10:b4vicinity,
10:b5vicinity,
10:u0vicinity,
10:u1vicinity,
8:b2begins,
8:b3begins,
8:b4begins,
8:b5begins,
8:u0begins,
8:u1begins,
7:b2lands,
7:b3lands,
7:b4lands,
7:b5lands,
7:u0lands,
7:u1lands,
7:b2don't,
7:b3don't,
7:b4don't,
7:b5don't,
7:u0don't,
7:u1don't,
11:b2stopovers,
11:b3stopovers,
11:b4stopovers,
11:b5stopovers,
11:u0stopovers,
11:u1stopovers,
5:b2757,
5:b3757,
5:b4757,
5:b5757,
5:u0757,
5:u1757,
9:u0january,
9:u1january,
6:b21992,
6:b31992,
6:b41992,
6:b51992,
6:u01992,
6:u11992,
9:u0october,
9:u1october,
14:b28-o'clock-pm,
14:b38-o'clock-pm,
14:b48-o'clock-pm,
14:b58-o'clock-pm,
14:u08-o'clock-pm,
14:u18-o'clock-pm,
8:b2define,
8:b3define,
8:b4define,
8:b5define,
8:u0define,
8:u1define,
5:b2atl,
5:b3atl,
5:b4atl,
5:b5atl,
5:u0atl,
5:u1atl,
9:b2listing,
9:b3listing,
9:b4listing,
9:b5listing,
9:u0listing,
9:u1listing,
11:b24-o'clock,
11:b34-o'clock,
11:b44-o'clock,
11:b54-o'clock,
11:u04-o'clock,
11:u14-o'clock,
5:b2746,
5:b3746,
5:b4746,
5:b5746,
4:b2hi,
4:b3hi,
4:b4hi,
4:b5hi,
4:u0hi,
4:u1hi,
11:b2overnight,
11:b3overnight,
11:b4overnight,
11:b5overnight,
11:u0overnight,
11:u1overnight,
9:b2without,
9:b3without,
9:b4without,
9:b5without,
9:u0without,
9:u1without,
14:b2pennsylvania,
14:b3pennsylvania,
14:b4pennsylvania,
14:b5pennsylvania,
14:u0pennsylvania,
14:u1pennsylvania,
12:b2wednesdays,
12:b3wednesdays,
12:b4wednesdays,
12:b5wednesdays,
12:u0wednesdays,
12:u1wednesdays,
6:b21291,
6:b31291,
6:b41291,
6:b51291,
6:u01291,
6:u11291,
5:b2271,
5:b3271,
5:b4271,
5:b5271,
5:u0271,
5:u1271,
6:b2sort,
6:b3sort,
6:b4sort,
6:b5sort,
6:u0sort,
6:u1sort,
14:b26-o'clock-pm,
14:b36-o'clock-pm,
14:b46-o'clock-pm,
14:b56-o'clock-pm,
14:u06-o'clock-pm,
14:u16-o'clock-pm,
14:b27-o'clock-am,
14:b37-o'clock-am,
14:b47-o'clock-am,
14:b57-o'clock-am,
14:u07-o'clock-am,
14:u17-o'clock-am,
14:b25-o'clock-am,
14:b35-o'clock-am,
14:b45-o'clock-am,
14:b55-o'clock-am,
14:u05-o'clock-am,
14:u15-o'clock-am,
5:b27am,
5:b37am,
5:b47am,
5:b57am,
5:u07am,
5:u17am,
14:b21500-dollars,
14:b31500-dollars,
14:b41500-dollars,
14:b51500-dollars,
4:b2up,
4:b3up,
4:b4up,
4:b5up,
4:u0up,
4:u1up,
15:b2only-weekdays,
15:b3only-weekdays,
15:b4only-weekdays,
15:b5only-weekdays,
15:u0only-weekdays,
15:u1only-weekdays,
4:b2ap,
4:b3ap,
4:b4ap,
4:b5ap,
7:b2ap-57,
7:b3ap-57,
7:b4ap-57,
7:b5ap-57,
3:b2f,
3:b3f,
3:b4f,
3:b5f,
3:u0f,
3:u1f,
4:b2fn,
4:b3fn,
4:b4fn,
4:b5fn,
13:b2rental-cars,
13:b3rental-cars,
13:b4rental-cars,
13:b5rental-cars,
13:u0rental-cars,
13:u1rental-cars,
10:b2eleventh,
10:b3eleventh,
10:b4eleventh,
10:b5eleventh,
10:u0eleventh,
10:u1eleventh,
9:b2twelfth,
9:b3twelfth,
9:b4twelfth,
9:b5twelfth,
8:b2priced,
8:b3priced,
8:b4priced,
8:b5priced,
8:u0priced,
8:u1priced,
5:b2212,
5:b3212,
5:b4212,
5:b5212,
5:u0212,
5:u1212,
10:b2anywhere,
10:b3anywhere,
10:b4anywhere,
10:b5anywhere,
10:u0anywhere,
10:u1anywhere,
6:b21850,
6:b31850,
6:b41850,
6:b51850,
6:u01850,
6:u11850,
6:b21700,
6:b31700,
6:b41700,
6:b51700,
6:u01700,
6:u11700,
5:b2217,
5:b3217,
5:b4217,
5:b5217,
5:u0217,
5:u1217,
13:b2400-dollars,
13:b3400-dollars,
13:b4400-dollars,
13:b5400-dollars,
13:u0400-dollars,
13:u1400-dollars,
6:b23357,
6:b33357,
6:b43357,
6:b53357,
6:u03357,
6:u13357,
5:b2sfo,
5:b3sfo,
5:b4sfo,
5:b5sfo,
5:u0sfo,
5:u1sfo,
5:b2non,
5:b3non,
5:b4non,
5:b5non,
5:u0non,
5:u1non,
4:u0fn,
4:u1fn,
4:b2yn,
4:b3yn,
4:b4yn,
4:b5yn,
11:b2sixteenth,
11:b3sixteenth,
11:b4sixteenth,
11:b5sixteenth,
11:u0sixteenth,
11:u1sixteenth,
6:b23724,
6:b33724,
6:b43724,
6:b53724,
6:u03724,
6:u13724,
5:b2771,
5:b3771,
5:b4771,
5:b5771,
5:u0771,
5:u1771,
18:b2flight-schedules,
18:b3flight-schedules,
18:b4flight-schedules,
18:b5flight-schedules,
18:u0flight-schedules,
18:u1flight-schedules,
9:b2include,
9:b3include,
9:b4include,
9:b5include,
6:b2ap57,
6:b3ap57,
6:b4ap57,
6:b5ap57,
14:b21000-dollars,
14:b31000-dollars,
14:b41000-dollars,
14:b51000-dollars,
14:u01000-dollars,
14:u11000-dollars,
10:b2mornings,
10:b3mornings,
10:b4mornings,
10:b5mornings,
10:u0mornings,
10:u1mornings,
9:u0include,
9:u1include,
9:b2whether,
9:b3whether,
9:b4whether,
9:b5whether,
9:u0whether,
9:u1whether,
9:b2offered,
9:b3offered,
9:b4offered,
9:b5offered,
9:u0offered,
9:u1offered,
13:b2round-trips,
13:b3round-trips,
13:b4round-trips,
13:b5round-trips,
13:u0round-trips,
13:u1round-trips,
9:b2toronto,
9:b3toronto,
9:b4toronto,
9:b5toronto,
9:u0toronto,
9:u1toronto,
4:b2ac,
4:b3ac,
4:b4ac,
4:b5ac,
4:u0ac,
4:u1ac,
10:b2new-york,
10:b3new-york,
10:b4new-york,
10:b5new-york,
10:u0new-york,
10:u1new-york,
11:b2milwaukee,
11:b3milwaukee,
11:b4milwaukee,
11:b5milwaukee,
11:u0milwaukee,
11:u1milwaukee,
9:b2orlando,
9:b3orlando,
9:b4orlando,
9:b5orlando,
9:u0orlando,
9:u1orlando,
9:b2ontario,
9:b3ontario,
9:b4ontario,
9:b5ontario,
9:u0ontario,
9:u1ontario,
8:b2tacoma,
8:b3tacoma,
8:b4tacoma,
8:b5tacoma,
8:u0tacoma,
8:u1tacoma,
13:b2minneapolis,
13:b3minneapolis,
13:b4minneapolis,
13:b5minneapolis,
13:u0minneapolis,
13:u1minneapolis,
11:b2san-diego,
11:b3san-diego,
11:b4san-diego,
11:b5san-diego,
11:u0san-diego,
11:u1san-diego,
16:b2salt-lake-city,
16:b3salt-lake-city,
16:b4salt-lake-city,
16:b5salt-lake-city,
16:u0salt-lake-city,
16:u1salt-lake-city,
12:b2cincinnati,
12:b3cincinnati,
12:b4cincinnati,
12:b5cincinnati,
12:u0cincinnati,
12:u1cincinnati,
7:b2miami,
7:b3miami,
7:b4miami,
7:b5miami,
7:u0miami,
7:u1miami,
20:b2southwest-airlines,
20:b3southwest-airlines,
20:b4southwest-airlines,
20:b5southwest-airlines,
20:u0southwest-airlines,
20:u1southwest-airlines,
9:b2phoenix,
9:b3phoenix,
9:b4phoenix,
9:b5phoenix,
9:u0phoenix,
9:u1phoenix,
12:b2la-guardia,
12:b3la-guardia,
12:b4la-guardia,
12:b5la-guardia,
8:b2dulles,
8:b3dulles,
8:b4dulles,
8:b5dulles,
8:u0dulles,
8:u1dulles,
7:b2equal,
7:b3equal,
7:b4equal,
7:b5equal,
7:u0equal,
7:u1equal,
13:b2466-dollars,
13:b3466-dollars,
13:b4466-dollars,
13:b5466-dollars,
13:u0466-dollars,
13:u1466-dollars,
7:b2along,
7:b3along,
7:b4along,
7:b5along,
7:u0along,
7:u1along,
14:b2indianapolis,
14:b3indianapolis,
14:b4indianapolis,
14:b5indianapolis,
14:u0indianapolis,
14:u1indianapolis,
9:b2burbank,
9:b3burbank,
9:b4burbank,
9:b5burbank,
9:u0burbank,
9:u1burbank,
16:b2st.-petersburg,
16:b3st.-petersburg,
16:b4st.-petersburg,
16:b5st.-petersburg,
16:u0st.-petersburg,
16:u1st.-petersburg,
10:b2san-jose,
10:b3san-jose,
10:b4san-jose,
10:b5san-jose,
10:u0san-jose,
10:u1san-jose,
24:b2salt-lake-city-airport,
24:b3salt-lake-city-airport,
24:b4salt-lake-city-airport,
24:b5salt-lake-city-airport,
24:u0salt-lake-city-airport,
24:u1salt-lake-city-airport,
7:b2tampa,
7:b3tampa,
7:b4tampa,
7:b5tampa,
7:u0tampa,
7:u1tampa,
11:b2st.-louis,
11:b3st.-louis,
11:b4st.-louis,
11:b5st.-louis,
11:u0st.-louis,
11:u1st.-louis,
9:b2houston,
9:b3houston,
9:b4houston,
9:b5houston,
9:u0houston,
9:u1houston,
9:b2symbols,
9:b3symbols,
9:b4symbols,
9:b5symbols,
9:u0symbols,
9:u1symbols,
4:u0yn,
4:u1yn,
17:b2orlando-airport,
17:b3orlando-airport,
17:b4orlando-airport,
17:b5orlando-airport,
17:u0orlando-airport,
17:u1orlando-airport,
23:b2orlando-international,
23:b3orlando-international,
23:b4orlando-international,
23:b5orlando-international,
23:u0orlando-international,
23:u1orlando-international,
5:b2417,
5:b3417,
5:b4417,
5:b5417,
5:u0417,
5:u1417,
13:b2los-angeles,
13:b3los-angeles,
13:b4los-angeles,
13:b5los-angeles,
13:u0los-angeles,
13:u1los-angeles,
25:b2minimum-connection-time,
25:b3minimum-connection-time,
25:b4minimum-connection-time,
25:b5minimum-connection-time,
25:u0minimum-connection-time,
25:u1minimum-connection-time,
6:b24400,
6:b34400,
6:b44400,
6:b54400,
6:u04400,
6:u14400,
8:b2o'hare,
8:b3o'hare,
8:b4o'hare,
8:b5o'hare,
8:u0o'hare,
8:u1o'hare,
7:b2718am,
7:b3718am,
7:b4718am,
7:b5718am,
9:b2chicago,
9:b3chicago,
9:b4chicago,
9:b5chicago,
9:u0chicago,
9:u1chicago,
10:b2montreal,
10:b3montreal,
10:b4montreal,
10:b5montreal,
10:u0montreal,
10:u1montreal,
10:b2columbus,
10:b3columbus,
10:b4columbus,
10:b5columbus,
10:u0columbus,
10:u1columbus,
8:b2newark,
8:b3newark,
8:b4newark,
8:b5newark,
8:u0newark,
8:u1newark,
11:b2cleveland,
11:b3cleveland,
11:b4cleveland,
11:b5cleveland,
11:u0cleveland,
11:u1cleveland,
12:b2new-jersey,
12:b3new-jersey,
12:b4new-jersey,
12:b5new-jersey,
12:u0new-jersey,
12:u1new-jersey,
5:b2jfk,
5:b3jfk,
5:b4jfk,
5:b5jfk,
5:u0jfk,
5:u1jfk,
12:u0la-guardia,
12:u1la-guardia,
11:b2nashville,
11:b3nashville,
11:b4nashville,
11:b5nashville,
11:u0nashville,
11:u1nashville,
20:b2westchester-county,
20:b3westchester-county,
20:b4westchester-county,
20:b5westchester-county,
20:u0westchester-county,
20:u1westchester-county,
11:b2las-vegas,
11:b3las-vegas,
11:b4las-vegas,
11:b5las-vegas,
11:u0las-vegas,
11:u1las-vegas,
11:b2tower-air,
11:b3tower-air,
11:b4tower-air,
11:b5tower-air,
11:u0tower-air,
11:u1tower-air,
12:b2long-beach,
12:b3long-beach,
12:b4long-beach,
12:b5long-beach,
12:u0long-beach,
12:u1long-beach,
9:b2seattle,
9:b3seattle,
9:b4seattle,
9:b5seattle,
9:u0seattle,
9:u1seattle,
7:b2bring,
7:b3bring,
7:b4bring,
7:b5bring,
7:u0bring,
7:u1bring,
9:b2calling,
9:b3calling,
9:b4calling,
9:b5calling,
9:u0calling,
9:u1calling,
5:b2mco,
5:b3mco,
5:b4mco,
5:b5mco,
5:u0mco,
5:u1mco,
9:b2memphis,
9:b3memphis,
9:b4memphis,
9:b5memphis,
9:u0memphis,
9:u1memphis,
6:b2i've,
6:b3i've,
6:b4i've,
6:b5i've,
6:u0i've,
6:u1i've,
5:b2got,
5:b3got,
5:b4got,
5:b5got,
5:u0got,
5:u1got,
10:b2somebody,
10:b3somebody,
10:b4somebody,
10:b5somebody,
10:u0somebody,
10:u1somebody,
6:b2else,
6:b3else,
6:b4else,
6:b5else,
6:u0else,
6:u1else,
5:u0who,
5:u1who,
7:b2wants,
7:b3wants,
7:b4wants,
7:b5wants,
7:u0wants,
7:u1wants,
11:b2charlotte,
11:b3charlotte,
11:b4charlotte,
11:b5charlotte,
11:u0charlotte,
11:u1charlotte,
3:b2q,
3:b3q,
3:b4q,
3:b5q,
12:b2difference,
12:b3difference,
12:b4difference,
12:b5difference,
12:u0difference,
12:u1difference,
3:u0q,
3:u1q,
11:b2tennessee,
11:b3tennessee,
11:b4tennessee,
11:b5tennessee,
11:u0tennessee,
11:u1tennessee,
4:b2qo,
4:b3qo,
4:b4qo,
4:b5qo,
4:b2ff,
4:b3ff,
4:b4ff,
4:b5ff,
5:b2ewr,
5:b3ewr,
5:b4ewr,
5:b5ewr,
7:b2train,
7:b3train,
7:b4train,
7:b5train,
7:u0train,
7:u1train,
8:b2laying,
8:b3laying,
8:b4laying,
8:b5laying,
8:u0laying,
8:u1laying,
12:b2air-canada,
12:b3air-canada,
12:b4air-canada,
12:b5air-canada,
12:u0air-canada,
12:u1air-canada,
8:b2stands,
8:b3stands,
8:b4stands,
8:b5stands,
8:u0stands,
8:u1stands,
13:b2kansas-city,
13:b3kansas-city,
13:b4kansas-city,
13:b5kansas-city,
13:u0kansas-city,
13:u1kansas-city,
9:b2florida,
9:b3florida,
9:b4florida,
9:b5florida,
9:u0florida,
9:u1florida,
9:b2landing,
9:b3landing,
9:b4landing,
9:b5landing,
9:u0landing,
9:u1landing,
6:b2soon,
6:b3soon,
6:b4soon,
6:b5soon,
6:u0soon,
6:u1soon,
5:b2ten,
5:b3ten,
5:b4ten,
5:b5ten,
5:u0ten,
5:u1ten,
19:b2san-diego-airport,
19:b3san-diego-airport,
19:b4san-diego-airport,
19:b5san-diego-airport,
19:u0san-diego-airport,
19:u1san-diego-airport,
9:b2instead,
9:b3instead,
9:b4instead,
9:b5instead,
9:u0instead,
9:u1instead,
4:b2nw,
4:b3nw,
4:b4nw,
4:b5nw,
4:u0nw,
4:u1nw,
17:b2phoenix-airport,
17:b3phoenix-airport,
17:b4phoenix-airport,
17:b5phoenix-airport,
17:u0phoenix-airport,
17:u1phoenix-airport,
6:b2uses,
6:b3uses,
6:b4uses,
6:b5uses,
6:u0uses,
6:u1uses,
5:b2lax,
5:b3lax,
5:b4lax,
5:b5lax,
5:u0lax,
5:u1lax,
9:b2numbers,
9:b3numbers,
9:b4numbers,
9:b5numbers,
9:u0numbers,
9:u1numbers,
6:b2ohio,
6:b3ohio,
6:b4ohio,
6:b5ohio,
6:u0ohio,
6:u1ohio,
11:b2minnesota,
11:b3minnesota,
11:b4minnesota,
11:b5minnesota,
11:u0minnesota,
11:u1minnesota,
15:b2new-york-city,
15:b3new-york-city,
15:b4new-york-city,
15:b5new-york-city,
15:u0new-york-city,
15:u1new-york-city,
8:b2canada,
8:b3canada,
8:b4canada,
8:b5canada,
8:u0canada,
8:u1canada,
10:b2listings,
10:b3listings,
10:b4listings,
10:b5listings,
10:u0listings,
10:u1listings,
10:b2missouri,
10:b3missouri,
10:b4missouri,
10:b5missouri,
10:u0missouri,
10:u1missouri,
6:b2utah,
6:b3utah,
6:b4utah,
6:b5utah,
6:u0utah,
6:u1utah,
6:b21222,
6:b31222,
6:b41222,
6:b51222,
6:u01222,
6:u11222,
12:b2preferably,
12:b3preferably,
12:b4preferably,
12:b5preferably,
12:u0preferably,
12:u1preferably,
8:b2497766,
8:b3497766,
8:b4497766,
8:b5497766,
8:u0497766,
8:u1497766,
7:b2810pm,
7:b3810pm,
7:b4810pm,
7:b5810pm,
7:u0810pm,
7:u1810pm,
16:b2north-carolina,
16:b3north-carolina,
16:b4north-carolina,
16:b5north-carolina,
16:u0north-carolina,
16:u1north-carolina,
6:b2runs,
6:b3runs,
6:b4runs,
6:b5runs,
6:u0runs,
6:u1runs,
5:b2505,
5:b3505,
5:b4505,
5:b5505,
5:u0505,
5:u1505,
8:b2dinner,
8:b3dinner,
8:b4dinner,
8:b5dinner,
8:u0dinner,
8:u1dinner,
8:b2that's,
8:b3that's,
8:b4that's,
8:b5that's,
8:u0that's,
8:u1that's,
8:b2eighth,
8:b3eighth,
8:b4eighth,
8:b5eighth,
8:u0eighth,
8:u1eighth,
10:b2includes,
10:b3includes,
10:b4includes,
10:b5includes,
10:u0includes,
10:u1includes,
17:b2alaska-airlines,
17:b3alaska-airlines,
17:b4alaska-airlines,
17:b5alaska-airlines,
17:u0alaska-airlines,
17:u1alaska-airlines,
8:b2nevada,
8:b3nevada,
8:b4nevada,
8:b5nevada,
8:u0nevada,
8:u1nevada,
9:b2detroit,
9:b3detroit,
9:b4detroit,
9:b5detroit,
9:u0detroit,
9:u1detroit,
10:b2michigan,
10:b3michigan,
10:b4michigan,
10:b5michigan,
10:u0michigan,
10:u1michigan,
10:b2actually,
10:b3actually,
10:b4actually,
10:b5actually,
10:u0actually,
10:u1actually,
13:b2westchester,
13:b3westchester,
13:b4westchester,
13:b5westchester,
13:u0westchester,
13:u1westchester,
7:b2thing,
7:b3thing,
7:b4thing,
7:b5thing,
7:u0thing,
7:u1thing,
5:b2130,
5:b3130,
5:b4130,
5:b5130,
5:u0130,
5:u1130,
9:u0another,
9:u1another,
19:b2milwaukee-airport,
19:b3milwaukee-airport,
19:b4milwaukee-airport,
19:b5milwaukee-airport,
19:u0milwaukee-airport,
19:u1milwaukee-airport,
8:b2prefer,
8:b3prefer,
8:b4prefer,
8:b5prefer,
8:u0prefer,
8:u1prefer,
8:b2quebec,
8:b3quebec,
8:b4quebec,
8:b5quebec,
8:u0quebec,
8:u1quebec,
9:b2indiana,
9:b3indiana,
9:b4indiana,
9:b5indiana,
9:u0indiana,
9:u1indiana,
10:b2reaching,
10:b3reaching,
10:b4reaching,
10:b5reaching,
10:u0reaching,
10:u1reaching,
9:b2reaches,
9:b3reaches,
9:b4reaches,
9:b5reaches,
9:u0reaches,
9:u1reaches,
3:b27,
3:b37,
3:b47,
3:b57,
3:u07,
3:u17,
11:b2following,
11:b3following,
11:b4following,
11:b5following,
11:u0following,
11:u1following,
13:b2seventeenth,
13:b3seventeenth,
13:b4seventeenth,
13:b5seventeenth,
13:u0seventeenth,
13:u1seventeenth,
12:b2fourteenth,
12:b3fourteenth,
12:b4fourteenth,
12:b5fourteenth,
12:u0fourteenth,
12:u1fourteenth,
12:b2thirteenth,
12:b3thirteenth,
12:b4thirteenth,
12:b5thirteenth,
12:u0thirteenth,
12:u1thirteenth,
6:b2date,
6:b3date,
6:b4date,
6:b5date,
6:u0date,
6:u1date,
11:b2hopefully,
11:b3hopefully,
11:b4hopefully,
11:b5hopefully,
11:u0hopefully,
11:u1hopefully,
20:b2northwest-airlines,
20:b3northwest-airlines,
20:b4northwest-airlines,
20:b5northwest-airlines,
20:u0northwest-airlines,
20:u1northwest-airlines,
6:b2days,
6:b3days,
6:b4days,
6:b5days,
6:u0days,
6:u1days,
5:b2415,
5:b3415,
5:b4415,
5:b5415,
5:u0415,
5:u1415,
9:b2arizona,
9:b3arizona,
9:b4arizona,
9:b5arizona,
9:u0arizona,
9:u1arizona,
10:b2st.-paul,
10:b3st.-paul,
10:b4st.-paul,
10:b5st.-paul,
10:u0st.-paul,
10:u1st.-paul,
11:b2northwest,
11:b3northwest,
11:b4northwest,
11:b5northwest,
11:u0northwest,
11:u1northwest,
23:b2ontario-international,
23:b3ontario-international,
23:b4ontario-international,
23:b5ontario-international,
23:u0ontario-international,
23:u1ontario-international,
9:b2friends,
9:b3friends,
9:b4friends,
9:b5friends,
9:u0friends,
9:u1friends,
14:u0twenty-sixth,
14:u1twenty-sixth,
20:b2la-guardia-airport,
20:b3la-guardia-airport,
20:b4la-guardia-airport,
20:b5la-guardia-airport,
20:u0la-guardia-airport,
20:u1la-guardia-airport,
4:b2la,
4:b3la,
4:b4la,
4:b5la,
4:u0la,
4:u1la,
8:b2single,
8:b3single,
8:b4single,
8:b5single,
8:u0single,
8:u1single,
12:b2eighteenth,
12:b3eighteenth,
12:b4eighteenth,
12:b5eighteenth,
12:u0eighteenth,
12:u1eighteenth,
9:b2red-eye,
9:b3red-eye,
9:b4red-eye,
9:b5red-eye,
9:u0red-eye,
9:u1red-eye,
9:u0twelfth,
9:u1twelfth,
14:b2america-west,
14:b3america-west,
14:b4america-west,
14:b5america-west,
14:u0america-west,
14:u1america-west,
11:b2southwest,
11:b3southwest,
11:b4southwest,
11:b5southwest,
11:u0southwest,
11:u1southwest,
12:b2twenty-two,
12:b3twenty-two,
12:b4twenty-two,
12:b5twenty-two,
12:u0twenty-two,
12:u1twenty-two,
5:b2six,
5:b3six,
5:b4six,
5:b5six,
5:u0six,
5:u1six,
9:b2tonight,
9:b3tonight,
9:b4tonight,
9:b5tonight,
9:u0tonight,
9:u1tonight,
7:b2visit,
7:b3visit,
7:b4visit,
7:b5visit,
7:u0visit,
7:u1visit,
6:b2them,
6:b3them,
6:b4them,
6:b5them,
6:u0them,
6:u1them,
7:b2lives,
7:b3lives,
7:b4lives,
7:b5lives,
7:u0lives,
7:u1lives,
5:b2530,
5:b3530,
5:b4530,
5:b5530,
5:u0530,
5:u1530,
21:b2trans-world-airline,
21:b3trans-world-airline,
21:b4trans-world-airline,
21:b5trans-world-airline,
21:u0trans-world-airline,
21:u1trans-world-airline,
8:b21030am,
8:b31030am,
8:b41030am,
8:b51030am,
8:u01030am,
8:u11030am,
8:b21115am,
8:b31115am,
8:b41115am,
8:b51115am,
8:u01115am,
8:u11115am,
3:b29,
3:b39,
3:b49,
3:b59,
3:u09,
3:u19,
12:b2new-york's,
12:b3new-york's,
12:b4new-york's,
12:b5new-york's,
31:b2toronto-international-airport,
31:b3toronto-international-airport,
31:b4toronto-international-airport,
31:b5toronto-international-airport,
31:u0toronto-international-airport,
31:u1toronto-international-airport,
35:b2los-angeles-international-airport,
35:b3los-angeles-international-airport,
35:b4los-angeles-international-airport,
35:b5los-angeles-international-airport,
35:u0los-angeles-international-airport,
35:u1los-angeles-international-airport,
37:b2san-francisco-international-airport,
37:b3san-francisco-international-airport,
37:b4san-francisco-international-airport,
37:b5san-francisco-international-airport,
37:u0san-francisco-international-airport,
37:u1san-francisco-international-airport,
9:b2closest,
9:b3closest,
9:b4closest,
9:b5closest,
9:u0closest,
9:u1closest,
4:b219,
4:b319,
4:b419,
4:b519,
4:u019,
4:u119,
5:b2845,
5:b3845,
5:b4845,
5:b5845,
5:u0845,
5:u1845,
7:b2lunch,
7:b3lunch,
7:b4lunch,
7:b5lunch,
8:b2supper,
8:b3supper,
8:b4supper,
8:b5supper,
5:b2823,
5:b3823,
5:b4823,
5:b5823,
5:u0823,
5:u1823,
6:b21024,
6:b31024,
6:b41024,
6:b51024,
6:u01024,
6:u11024,
6:b21205,
6:b31205,
6:b41205,
6:b51205,
6:u01205,
6:u11205,
5:b2305,
5:b3305,
5:b4305,
5:b5305,
5:u0305,
5:u1305,
8:b2taking,
8:b3taking,
8:b4taking,
8:b5taking,
8:u0taking,
8:u1taking,
5:u0ewr,
5:u1ewr,
14:b29-o'clock-pm,
14:b39-o'clock-pm,
14:b49-o'clock-pm,
14:b59-o'clock-pm,
14:u09-o'clock-pm,
14:u19-o'clock-pm,
10:b2nonstops,
10:b3nonstops,
10:b4nonstops,
10:b5nonstops,
10:u0nonstops,
10:u1nonstops,
7:b2vegas,
7:b3vegas,
7:b4vegas,
7:b5vegas,
7:u0vegas,
7:u1vegas,
10:b2sunday's,
10:b3sunday's,
10:b4sunday's,
10:b5sunday's,
10:u0sunday's,
10:u1sunday's,
13:b2wednesday's,
13:b3wednesday's,
13:b4wednesday's,
13:b5wednesday's,
13:u0wednesday's,
13:u1wednesday's,
10:b2friday's,
10:b3friday's,
10:b4friday's,
10:b5friday's,
10:u0friday's,
10:u1friday's,
15:u0twenty-eighth,
15:u1twenty-eighth,
17:b212-o'clock-noon,
17:b312-o'clock-noon,
17:b412-o'clock-noon,
17:b512-o'clock-noon,
17:u012-o'clock-noon,
17:u112-o'clock-noon,
5:b2ord,
5:b3ord,
5:b4ord,
5:b5ord,
10:b2february,
10:b3february,
10:b4february,
10:b5february,
7:b2march,
7:b3march,
7:b4march,
7:b5march,
10:u0february,
10:u1february,
7:u0march,
7:u1march,
19:b2northwest-airline,
19:b3northwest-airline,
19:b4northwest-airline,
19:b5northwest-airline,
19:u0northwest-airline,
19:u1northwest-airline,
5:b2iah,
5:b3iah,
5:b4iah,
5:b5iah,
5:b2hou,
5:b3hou,
5:b4hou,
5:b5hou,
12:b2love-field,
12:b3love-field,
12:b4love-field,
12:b5love-field,
12:u0love-field,
12:u1love-field,
4:b2cp,
4:b3cp,
4:b4cp,
4:b5cp,
19:b2canadian-airlines,
19:b3canadian-airlines,
19:b4canadian-airlines,
19:b5canadian-airlines,
9:b2choices,
9:b3choices,
9:b4choices,
9:b5choices,
9:u0choices,
9:u1choices,
7:u0718am,
7:u1718am,
12:b2dinnertime,
12:b3dinnertime,
12:b4dinnertime,
12:b5dinnertime,
10:b2takeoffs,
10:b3takeoffs,
10:b4takeoffs,
10:b5takeoffs,
10:u0takeoffs,
10:u1takeoffs,
10:b2landings,
10:b3landings,
10:b4landings,
10:b5landings,
10:u0landings,
10:u1landings,
5:b2off,
5:b3off,
5:b4off,
5:b5off,
5:u0off,
5:u1off,
9:b2takeoff,
9:b3takeoff,
9:b4takeoff,
9:b5takeoff,
9:u0takeoff,
9:u1takeoff,
32:b2general-mitchell-international,
32:b3general-mitchell-international,
32:b4general-mitchell-international,
32:b5general-mitchell-international,
32:u0general-mitchell-international,
32:u1general-mitchell-international,
7:u0lunch,
7:u1lunch,
11:b2nationair,
11:b3nationair,
11:b4nationair,
11:b5nationair,
11:u0nationair,
11:u1nationair,
19:u0canadian-airlines,
19:u1canadian-airlines,
33:b2canadian-airlines-international,
33:b3canadian-airlines-international,
33:b4canadian-airlines-international,
33:b5canadian-airlines-international,
33:u0canadian-airlines-international,
33:u1canadian-airlines-international,
9:b2midwest,
9:b3midwest,
9:b4midwest,
9:b5midwest,
9:u0midwest,
9:u1midwest,
9:b2express,
9:b3express,
9:b4express,
9:b5express,
9:u0express,
9:u1express,
9:b2highest,
9:b3highest,
9:b4highest,
9:b5highest,
9:u0highest,
9:u1highest,
0=0x1.b1bca34df3132p+1
1=0x1.28520811dde33p-1
2=0x1.94e78f56233b3p+0
5=0x1.594c119b6937bp+0
6=0x1.4c9edce500569p+0
8=0x1.1fa359dbf1649p+0
9=0x1.acfb2e33c4b3dp-2
11=0x1.ddf3ffe23e1ebp-2
12=0x1.39f28c55b9197p+0
13=0x1.a855b02f46a3cp-1
16=0x1.94d4680aab8cfp+0
20=0x1.7ed00b37a678ap-1
23=0x1.afd6ecd5340f4p-11
28=0x1.5a2e3d8b56087p-1
31=0x1.05be45f4836c6p+0
49=0x1.184ed4e1d8323p-1
81=0x1.b1bca34df3132p+1
82=0x1.28520811dde33p-1
83=0x1.94e78f56233b3p+0
86=0x1.594c119b6937bp+0
87=0x1.4c9edce500569p+0
89=0x1.1fa359dbf1649p+0
90=0x1.acfb2e33c4b3dp-2
92=0x1.ddf3ffe23e1ebp-2
93=0x1.39f28c55b9197p+0
94=0x1.a855b02f46a3cp-1
97=0x1.94d4680aab8cfp+0
101=0x1.7ed00b37a678ap-1
104=0x1.afd6ecd5340f4p-11
109=0x1.5a2e3d8b56087p-1
112=0x1.05be45f4836c6p+0
130=0x1.184ed4e1d8323p-1
26406=0x1.4d3f2431b4bd7p+0
26410=-0x1.d5bd08bf30591p-3
26411=0x1.7cc25a014ec0ap-4
26412=0x1.c17b3ea0340dep-1
26414=0x1.f212af83722fcp-1
26415=0x1.3e2e9a4568648p-1
26418=0x1.d44cead47945dp-3
26419=0x1.36fe66fd04806p-3
26422=0x1.4b2a90c7231fdp+0
26424=0x1.ab25e6aa4835ap-5
26428=-0x1.549a6937bb058p-9
26429=0x1.22650a3d32444p-5
26435=0x1.ec634aa8b970bp-1
26436=-0x1.5b8db856afe4p-12
26438=0x1.7a438903abb5bp-2
26451=0x1.0dffb764c875bp-3
26459=-0x1.207e39e98e017p-4
26462=0x1.26c807a2a213cp-1
26468=0x1.c7b602ee002b7p-3
26487=0x1.4d3f2431b4bd7p+0
26491=-0x1.d5bd08bf30591p-3
26492=0x1.7cc25a014ec0ap-4
26493=0x1.c17b3ea0340dep-1
26495=0x1.f212af83722fcp-1
26496=0x1.3e2e9a4568648p-1
26499=0x1.d44cead47945dp-3
26500=0x1.36fe66fd04806p-3
26503=0x1.4b2a90c7231fdp+0
26505=0x1.ab25e6aa4835ap-5
26509=-0x1.549a6937bb058p-9
26510=0x1.22650a3d32444p-5
26516=0x1.ec634aa8b970bp-1
26517=-0x1.5b8db856afe4p-12
26519=0x1.7a438903abb5bp-2
26532=0x1.0dffb764c875bp-3
26540=-0x1.207e39e98e017p-4
26543=0x1.26c807a2a213cp-1
26549=0x1.c7b602ee002b7p-3
26568=0x1.fd3ea29c5b6cep+0
33129=0x1.fd3ea29c5b6cep+0
39690=0x1.fd3ea29c5b6cep+0
46251=0x1.fd3ea29c5b6cep+0
52812=0x1.d9b0a6d406dbbp-3
52854=0x1.6169f975a3de7p-5
52893=0x1.d9b0a6d406dbbp-3
52935=0x1.6169f975a3de7p-5
52974=0x1.473036ef9e928p+0
52993=0x1.4bae05ac73e35p-2
59535=0x1.473036ef9e928p+0
59554=0x1.4bae05ac73e35p-2
66096=0x1.473036ef9e928p+0
66115=0x1.4bae05ac73e35p-2
72657=0x1.473036ef9e928p+0
72676=0x1.4bae05ac73e35p-2
79218=0x1.8dbcc352afe75p+0
79222=-0x1.e36f697205c3cp+0
79224=0x1.09a105e336bedp+0
79227=0x1.36fcb43a1f44p+0
79230=0x1.30a25f6661f9ep-2
79234=0x1.40fd1de50b5bdp+0
79238=-0x1.02f325b30e0bfp-4
79266=-0x1.92735348d56cbp-6
79299=0x1.8dbcc352afe75p+0
79303=-0x1.e36f697205c3cp+0
79305=0x1.09a105e336bedp+0
79308=0x1.36fcb43a1f44p+0
79311=0x1.30a25f6661f9ep-2
79315=0x1.40fd1de50b5bdp+0
79319=-0x1.02f325b30e0bfp-4
79347=-0x1.92735348d56cbp-6
79380=0x1.5f0d1a1f5d153p+2
79382=0x1.0301d0b862be5p+2
79384=0x1.9559d17a9876p+2
79395=0x1.be2fa14d61eep+1
79396=0x1.2feea71b72dep+2
79406=0x1.4900c7ba8926bp+2
79407=0x1.0755582aeeff7p+2
79418=0x1.967c72fbfde18p+1
79425=0x1.967d1fcc758f4p+1
79428=0x1.516ca1f82b208p+2
79441=0x1.489dd98a6c8e6p+2
79444=0x1.34afa88efc102p+2
79449=0x1.9678b077dbbb7p+1
85941=0x1.5f0d1a1f5d153p+2
85943=0x1.0301d0b862be5p+2
85945=0x1.9559d17a9876p+2
85956=0x1.be2fa14d61eep+1
85957=0x1.2feea71b72dep+2
85967=0x1.4900c7ba8926bp+2
85968=0x1.0755582aeeff7p+2
85979=0x1.967c72fbfde18p+1
85986=0x1.967d1fcc758f4p+1
85989=0x1.516ca1f82b208p+2
86002=0x1.489dd98a6c8e6p+2
86005=0x1.34afa88efc102p+2
86010=0x1.9678b077dbbb7p+1
92502=0x1.5f0d1a1f5d153p+2
92504=0x1.0301d0b862be5p+2
92506=0x1.9559d17a9876p+2
92517=0x1.be2fa14d61eep+1
92518=0x1.2feea71b72dep+2
92528=0x1.4900c7ba8926bp+2
92529=0x1.0755582aeeff7p+2
92540=0x1.967c72fbfde18p+1
92547=0x1.967d1fcc758f4p+1
92550=0x1.516ca1f82b208p+2
92563=0x1.489dd98a6c8e6p+2
92566=0x1.34afa88efc102p+2
92571=0x1.9678b077dbbb7p+1
99063=0x1.5f0d1a1f5d153p+2
99065=0x1.0301d0b862be5p+2
99067=0x1.9559d17a9876p+2
99078=0x1.be2fa14d61eep+1
99079=0x1.2feea71b72dep+2
99089=0x1.4900c7ba8926bp+2
99090=0x1.0755582aeeff7p+2
99101=0x1.967c72fbfde18p+1
99108=0x1.967d1fcc758f4p+1
99111=0x1.516ca1f82b208p+2
99124=0x1.489dd98a6c8e6p+2
99127=0x1.34afa88efc102p+2
99132=0x1.9678b077dbbb7p+1
105624=0x1.d0f0257c5092bp+0
105625=0x1.9b0dadb596da6p-4
105626=0x1.83cd82c891c4ep-2
105628=0x1.8fa5ef4d37e36p+0
105629=0x1.f391160696a6fp+0
105630=0x1.e724375e4b9bep-1
105631=0x1.f6bbc7d6a423p-1
105632=0x1.e849d53679508p-2
105633=-0x1.08b4646e3a385p-6
105634=0x1.c9723927fe4e2p-1
105635=0x1.045cfcb66ec6bp-4
105636=0x1.d149b833ee8d4p-4
105637=0x1.8d966a834f84dp-4
105638=-0x1.f684c86eeb668p-5
105639=-0x1.83817486e8dap-8
105640=0x1.2c7c83a19447dp-2
105641=-0x1.6488cb3094c8ap-5
105643=0x1.01f552d04519p-1
105644=0x1.7d177614d0148p+0
105645=0x1.f0253fd663edcp-1
105646=0x1.8247b603a37e8p-9
105647=0x1.ad3e465ba6d7ap+0
105650=0x1.00b113eb099d6p+1
105652=0x1.2b142bb411dcep+0
105654=-0x1.34dc09d01745cp-5
105656=-0x1.fe82e79a87f0bp-6
105663=0x1.8baac10389162p-4
105666=-0x1.aa9149896b277p-1
105672=0x1.47256a60d6479p-1
105674=0x1.0a90cc9e14e81p+0
105675=0x1.a40c202bb9b5bp+0
105678=-0x1.588de44ccf029p-2
105679=-0x1.d1c52bd097639p-4
105680=0x1.4f939029aabep-1
105688=0x1.3a55c5dd10a31p-1
105699=0x1.c67a51eafc6cdp-3
105705=0x1.d0f0257c5092bp+0
105706=0x1.9b0dadb596da6p-4
105707=0x1.83cd82c891c4ep-2
105709=0x1.8fa5ef4d37e36p+0
105710=0x1.f391160696a6fp+0
105711=0x1.e724375e4b9bep-1
105712=0x1.f6bbc7d6a423p-1
105713=0x1.e849d53679508p-2
105714=-0x1.08b4646e3a385p-6
105715=0x1.c9723927fe4e2p-1
105716=0x1.045cfcb66ec6bp-4
105717=0x1.d149b833ee8d4p-4
105718=0x1.8d966a834f84dp-4
105719=-0x1.f684c86eeb668p-5
105720=-0x1.83817486e8dap-8
105721=0x1.2c7c83a19447dp-2
105722=-0x1.6488cb3094c8ap-5
105724=0x1.01f552d04519p-1
105725=0x1.7d177614d0148p+0
105726=0x1.f0253fd663edcp-1
105727=0x1.8247b603a37e8p-9
105728=0x1.ad3e465ba6d7ap+0
105731=0x1.00b113eb099d6p+1
105733=0x1.2b142bb411dcep+0
105735=-0x1.34dc09d01745cp-5
105737=-0x1.fe82e79a87f0bp-6
105744=0x1.8baac10389162p-4
105747=-0x1.aa9149896b277p-1
105753=0x1.47256a60d6479p-1
105755=0x1.0a90cc9e14e81p+0
105756=0x1.a40c202bb9b5bp+0
105759=-0x1.588de44ccf029p-2
105760=-0x1.d1c52bd097639p-4
105761=0x1.4f939029aabep-1
105769=0x1.3a55c5dd10a31p-1
105780=0x1.c67a51eafc6cdp-3
105786=0x1.7ea6a3b353753p+0
106110=-0x1.55e807c6f0c1dp-9
112347=0x1.7ea6a3b353753p+0
112671=-0x1.55e807c6f0c1dp-9
118908=0x1.7ea6a3b353753p+0
119232=-0x1.55e807c6f0c1dp-9
125469=0x1.7ea6a3b353753p+0
125793=-0x1.55e807c6f0c1dp-9
132030=0x1.60d9e7b9ece46p+0
132111=0x1.60d9e7b9ece46p+0
132192=0x1.a759d33cd5893p+0
132193=0x1.be5b71a214136p+0
132194=0x1.151df5d1d6265p+0
132196=0x1.301c907c5a508p+0
132197=0x1.0e7f03656afdcp+0
132198=0x1.c38e2d8518056p+0
132199=0x1.2b57a9fbdc4a3p+0
132200=0x1.50ad8670281a6p+0
132201=0x1.5f215686c50bcp+0
132203=0x1.467ca03b82d07p+0
132204=0x1.c82f0b8fe7469p+0
132205=0x1.386fa2a000bacp-5
132208=0x1.02143de48ddd2p+0
132209=0x1.c26b6996f39fbp+0
132211=0x1.89c4806451bbap-1
132212=0x1.db379cda42eb5p-1
132213=0x1.dc204e940b6ep-1
132214=0x1.79d03d5be0ba4p+0
132215=0x1.e7cc5b08fc12cp-1
132217=0x1.ab0fc7d18cb23p-1
132219=0x1.a8fb154d305b5p-1
132220=0x1.1fb648ecbcfd1p+0
132222=0x1.7699c2fbaf823p+0
132223=0x1.1cff18d149c91p+0
132224=0x1.aaac7dc0659dbp+0
132225=0x1.90569fba85bf8p-2
132227=0x1.f8e1b4fcaa5fcp-1
132233=0x1.358225939cbcap-1
132234=0x1.b557a3e0cfc4bp-2
132235=0x1.30359b6904fa8p-1
132237=0x1.a8a164d5e11c5p-1
132240=0x1.df20c5e7e3ed2p-1
132241=0x1.82dcf5224d103p+0
132242=0x1.732166e0e590cp-1
132244=0x1.b234f5abe9d74p-1
132245=0x1.01a03326bf70dp+0
132263=0x1.8e6977b629c79p-1
132271=0x1.c66142618708dp-1
132272=0x1.c4f9bbc301997p-1
132354=-0x1.5fef12553c8b6p-1
132376=-0x1.2a6f8a40aa731p-5
132522=-0x1.ffc2fe506dea6p-4
132546=-0x1.e55a8f3cfe924p-4
132558=-0x1.f97690760a565p-9
132604=-0x1.5af801672609ap-10
133494=-0x1.be5b65859d0adp-7
138753=0x1.a759d33cd5893p+0
138754=0x1.be5b71a214136p+0
138755=0x1.151df5d1d6265p+0
138757=0x1.301c907c5a508p+0
138758=0x1.0e7f03656afdcp+0
138759=0x1.c38e2d8518056p+0
138760=0x1.2b57a9fbdc4a3p+0
138761=0x1.50ad8670281a6p+0
138762=0x1.5f215686c50bcp+0
138764=0x1.467ca03b82d07p+0
138765=0x1.c82f0b8fe7469p+0
138766=0x1.386fa2a000bacp-5
138769=0x1.02143de48ddd2p+0
138770=0x1.c26b6996f39fbp+0
138772=0x1.89c4806451bbap-1
138773=0x1.db379cda42eb5p-1
138774=0x1.dc204e940b6ep-1
138775=0x1.79d03d5be0ba4p+0
138776=0x1.e7cc5b08fc12cp-1
138778=0x1.ab0fc7d18cb23p-1
138780=0x1.a8fb154d305b5p-1
138781=0x1.1fb648ecbcfd1p+0
138783=0x1.7699c2fbaf823p+0
138784=0x1.1cff18d149c91p+0
138785=0x1.aaac7dc0659dbp+0
138786=0x1.90569fba85bf8p-2
138788=0x1.f8e1b4fcaa5fcp-1
138794=0x1.358225939cbcap-1
138795=0x1.b557a3e0cfc4bp-2
138796=0x1.30359b6904fa8p-1
138798=0x1.a8a164d5e11c5p-1
138801=0x1.df20c5e7e3ed2p-1
138802=0x1.82dcf5224d103p+0
138803=0x1.732166e0e590cp-1
138805=0x1.b234f5abe9d74p-1
138806=0x1.01a03326bf70dp+0
138824=0x1.8e6977b629c79p-1
138832=0x1.c66142618708dp-1
138833=0x1.c4f9bbc301997p-1
138915=-0x1.5fef12553c8b6p-1
138937=-0x1.2a6f8a40aa731p-5
139083=-0x1.ffc2fe506dea6p-4
139107=-0x1.e55a8f3cfe924p-4
139119=-0x1.f97690760a565p-9
139165=-0x1.5af801672609ap-10
140055=-0x1.be5b65859d0adp-7
145314=0x1.a759d33cd5893p+0
145315=0x1.be5b71a214136p+0
145316=0x1.151df5d1d6265p+0
145318=0x1.301c907c5a508p+0
145319=0x1.0e7f03656afdcp+0
145320=0x1.c38e2d8518056p+0
145321=0x1.2b57a9fbdc4a3p+0
145322=0x1.50ad8670281a6p+0
145323=0x1.5f215686c50bcp+0
145325=0x1.467ca03b82d07p+0
145326=0x1.c82f0b8fe7469p+0
145327=0x1.386fa2a000bacp-5
145330=0x1.02143de48ddd2p+0
145331=0x1.c26b6996f39fbp+0
145333=0x1.89c4806451bbap-1
145334=0x1.db379cda42eb5p-1
145335=0x1.dc204e940b6ep-1
145336=0x1.79d03d5be0ba4p+0
145337=0x1.e7cc5b08fc12cp-1
145339=0x1.ab0fc7d18cb23p-1
145341=0x1.a8fb154d305b5p-1
145342=0x1.1fb648ecbcfd1p+0
145344=0x1.7699c2fbaf823p+0
145345=0x1.1cff18d149c91p+0
145346=0x1.aaac7dc0659dbp+0
145347=0x1.90569fba85bf8p-2
145349=0x1.f8e1b4fcaa5fcp-1
145355=0x1.358225939cbcap-1
145356=0x1.b557a3e0cfc4bp-2
145357=0x1.30359b6904fa8p-1
145359=0x1.a8a164d5e11c5p-1
145362=0x1.df20c5e7e3ed2p-1
145363=0x1.82dcf5224d103p+0
145364=0x1.732166e0e590cp-1
145366=0x1.b234f5abe9d74p-1
145367=0x1.01a03326bf70dp+0
145385=0x1.8e6977b629c79p-1
145393=0x1.c66142618708dp-1
145394=0x1.c4f9bbc301997p-1
145476=-0x1.5fef12553c8b6p-1
145498=-0x1.2a6f8a40aa731p-5
145644=-0x1.ffc2fe506dea6p-4
145668=-0x1.e55a8f3cfe924p-4
145680=-0x1.f97690760a565p-9
145726=-0x1.5af801672609ap-10
146616=-0x1.be5b65859d0adp-7
151875=0x1.a759d33cd5893p+0
151876=0x1.be5b71a214136p+0
151877=0x1.151df5d1d6265p+0
151879=0x1.301c907c5a508p+0
151880=0x1.0e7f03656afdcp+0
151881=0x1.c38e2d8518056p+0
151882=0x1.2b57a9fbdc4a3p+0
151883=0x1.50ad8670281a6p+0
151884=0x1.5f215686c50bcp+0
151886=0x1.467ca03b82d07p+0
151887=0x1.c82f0b8fe7469p+0
151888=0x1.386fa2a000bacp-5
151891=0x1.02143de48ddd2p+0
151892=0x1.c26b6996f39fbp+0
151894=0x1.89c4806451bbap-1
151895=0x1.db379cda42eb5p-1
151896=0x1.dc204e940b6ep-1
151897=0x1.79d03d5be0ba4p+0
151898=0x1.e7cc5b08fc12cp-1
151900=0x1.ab0fc7d18cb23p-1
151902=0x1.a8fb154d305b5p-1
151903=0x1.1fb648ecbcfd1p+0
151905=0x1.7699c2fbaf823p+0
151906=0x1.1cff18d149c91p+0
151907=0x1.aaac7dc0659dbp+0
151908=0x1.90569fba85bf8p-2
151910=0x1.f8e1b4fcaa5fcp-1
151916=0x1.358225939cbcap-1
151917=0x1.b557a3e0cfc4bp-2
151918=0x1.30359b6904fa8p-1
151920=0x1.a8a164d5e11c5p-1
151923=0x1.df20c5e7e3ed2p-1
151924=0x1.82dcf5224d103p+0
151925=0x1.732166e0e590cp-1
151927=0x1.b234f5abe9d74p-1
151928=0x1.01a03326bf70dp+0
151946=0x1.8e6977b629c79p-1
151954=0x1.c66142618708dp-1
151955=0x1.c4f9bbc301997p-1
152037=-0x1.5fef12553c8b6p-1
152059=-0x1.2a6f8a40aa731p-5
152205=-0x1.ffc2fe506dea6p-4
152229=-0x1.e55a8f3cfe924p-4
152241=-0x1.f97690760a565p-9
152287=-0x1.5af801672609ap-10
153177=-0x1.be5b65859d0adp-7
158436=0x1.70f4d3c6753e2p+0
158438=0x1.2d67e0018a12fp-3
158441=0x1.e6310a7a33943p-2
158442=0x1.eca566853d0aap-1
158443=0x1.5798d6a38e6a4p-1
158444=0x1.3faa14bc8dc18p-2
158445=0x1.c8810ee0a99bp-2
158448=0x1.1ce67a1c57ef5p+0
158449=0x1.1e88047c0ff6ep-1
158456=0x1.e9d4be4939b05p-3
158461=0x1.3e40e65277421p-2
158464=0x1.7096cd715728dp-1
158465=-0x1.29d842f374ff4p-5
158472=0x1.478ed3fe981aap-1
158473=0x1.c6b0f5252b609p-2
158477=0x1.c2d8709ea130ap-2
158481=0x1.0886d44f10781p-4
158487=0x1.c4ff0d554e97bp-1
158492=0x1.98539cd39c134p-1
158496=0x1.c6f4e24942737p-2
158507=0x1.1fdbea336d3d6p-1
158516=0x1.754106ab30088p-1
158517=0x1.70f4d3c6753e2p+0
158519=0x1.2d67e0018a12fp-3
158522=0x1.e6310a7a33943p-2
158523=0x1.eca566853d0aap-1
158524=0x1.5798d6a38e6a4p-1
158525=0x1.3faa14bc8dc18p-2
158526=0x1.c8810ee0a99bp-2
158529=0x1.1ce67a1c57ef5p+0
158530=0x1.1e88047c0ff6ep-1
158537=0x1.e9d4be4939b05p-3
158542=0x1.3e40e65277421p-2
158545=0x1.7096cd715728dp-1
158546=-0x1.29d842f374ff4p-5
158553=0x1.478ed3fe981aap-1
158554=0x1.c6b0f5252b609p-2
158558=0x1.c2d8709ea130ap-2
158562=0x1.0886d44f10781p-4
158568=0x1.c4ff0d554e97bp-1
158573=0x1.98539cd39c134p-1
158577=0x1.c6f4e24942737p-2
158588=0x1.1fdbea336d3d6p-1
158597=0x1.754106ab30088p-1
158598=-0x1.c66dcbc761673p-5
158679=0x1.127307ef75ac8p+1
158698=0x1.f858543c9451ap-1
158699=0x1.0ba14f37ac075p+1
158702=0x1.aa30cfbb872bfp-2
158707=0x1.40167dd1fe834p+0
165159=-0x1.c66dcbc761673p-5
165240=0x1.127307ef75ac8p+1
165259=0x1.f858543c9451ap-1
165260=0x1.0ba14f37ac075p+1
165263=0x1.aa30cfbb872bfp-2
165268=0x1.40167dd1fe834p+0
171720=-0x1.c66dcbc761673p-5
171801=0x1.127307ef75ac8p+1
171820=0x1.f858543c9451ap-1
171821=0x1.0ba14f37ac075p+1
171824=0x1.aa30cfbb872bfp-2
171829=0x1.40167dd1fe834p+0
178281=-0x1.c66dcbc761673p-5
178362=0x1.127307ef75ac8p+1
178381=0x1.f858543c9451ap-1
178382=0x1.0ba14f37ac075p+1
178385=0x1.aa30cfbb872bfp-2
178390=0x1.40167dd1fe834p+0
184842=0x1.2d90334b74553p+0
184923=0x1.2d90334b74553p+0
185004=0x1.ac5523ed108bep+0
185005=0x1.4426be9a818dcp-2
185009=0x1.4a242d8b1babcp-1
185012=0x1.300ffcdc3f0c3p+0
185014=0x1.1218d14576124p+0
185017=0x1.7106ec1275bc5p+0
185033=0x1.f89c39e6b6bd5p+0
185037=0x1.41128bc1d4621p-1
185045=0x1.4b047d3c5455dp+0
185055=0x1.2e0158c5b7b0fp+0
191565=0x1.ac5523ed108bep+0
191566=0x1.4426be9a818dcp-2
191570=0x1.4a242d8b1babcp-1
191573=0x1.300ffcdc3f0c3p+0
191575=0x1.1218d14576124p+0
191578=0x1.7106ec1275bc5p+0
191594=0x1.f89c39e6b6bd5p+0
191598=0x1.41128bc1d4621p-1
191606=0x1.4b047d3c5455dp+0
191616=0x1.2e0158c5b7b0fp+0
198126=0x1.ac5523ed108bep+0
198127=0x1.4426be9a818dcp-2
198131=0x1.4a242d8b1babcp-1
198134=0x1.300ffcdc3f0c3p+0
198136=0x1.1218d14576124p+0
198139=0x1.7106ec1275bc5p+0
198155=0x1.f89c39e6b6bd5p+0
198159=0x1.41128bc1d4621p-1
198167=0x1.4b047d3c5455dp+0
198177=0x1.2e0158c5b7b0fp+0
204687=0x1.ac5523ed108bep+0
204688=0x1.4426be9a818dcp-2
204692=0x1.4a242d8b1babcp-1
204695=0x1.300ffcdc3f0c3p+0
204697=0x1.1218d14576124p+0
204700=0x1.7106ec1275bc5p+0
204716=0x1.f89c39e6b6bd5p+0
204720=0x1.41128bc1d4621p-1
204728=0x1.4b047d3c5455dp+0
204738=0x1.2e0158c5b7b0fp+0
211248=0x1.14df07921c873p+0
211250=0x1.4ee89dfef8eap+0
211251=0x1.7941a67f66582p-3
211252=-0x1.e939c0cf2eb6bp-11
211256=0x1.a1784f3bf1d4bp-1
211259=0x1.2315be410066fp-4
211260=0x1.d2d8a321b1983p-4
211269=0x1.207364ead4cf9p-2
211270=0x1.f4498a7a11f07p-3
211277=0x1.f93f47d5bd4fap+0
211296=0x1.6ace856fe11b8p+0
211303=-0x1.18c58040a97b9p-7
211308=0x1.52615458edc6ap-3
211329=0x1.14df07921c873p+0
211331=0x1.4ee89dfef8eap+0
211332=0x1.7941a67f66582p-3
211333=-0x1.e939c0cf2eb6bp-11
211337=0x1.a1784f3bf1d4bp-1
211340=0x1.2315be410066fp-4
211341=0x1.d2d8a321b1983p-4
211350=0x1.207364ead4cf9p-2
211351=0x1.f4498a7a11f07p-3
211358=0x1.f93f47d5bd4fap+0
211377=0x1.6ace856fe11b8p+0
211384=-0x1.18c58040a97b9p-7
211389=0x1.52615458edc6ap-3
211410=0x1.0908119e6eac7p+1
211412=0x1.76a167a8b59dcp+1
211413=0x1.5f952ee1d1bfdp+0
211426=0x1.4e545f5081d03p+0
211432=0x1.36f688347d734p+1
211461=0x1.4a9eb7eaa2109p+0
211470=0x1.d81f7c5a7241fp+0
217971=0x1.0908119e6eac7p+1
217973=0x1.76a167a8b59dcp+1
217974=0x1.5f952ee1d1bfdp+0
217987=0x1.4e545f5081d03p+0
217993=0x1.36f688347d734p+1
218022=0x1.4a9eb7eaa2109p+0
218031=0x1.d81f7c5a7241fp+0
224532=0x1.0908119e6eac7p+1
224534=0x1.76a167a8b59dcp+1
224535=0x1.5f952ee1d1bfdp+0
224548=0x1.4e545f5081d03p+0
224554=0x1.36f688347d734p+1
224583=0x1.4a9eb7eaa2109p+0
224592=0x1.d81f7c5a7241fp+0
231093=0x1.0908119e6eac7p+1
231095=0x1.76a167a8b59dcp+1
231096=0x1.5f952ee1d1bfdp+0
231109=0x1.4e545f5081d03p+0
231115=0x1.36f688347d734p+1
231144=0x1.4a9eb7eaa2109p+0
231153=0x1.d81f7c5a7241fp+0
237654=0x1.4f5de7f5ba3cbp+0
237656=0x1.26333d82b094fp-1
237657=0x1.abcdf773bc021p-2
237658=-0x1.498275402c9f1p-4
237662=0x1.33de1e66e4a4ep-2
237668=0x1.157921851d008p+1
237672=0x1.76e9af7c56069p-1
237676=0x1.e4d30021e6297p+0
237686=0x1.7cd2d66e15bap-1
237687=-0x1.ebdca63b5b648p-5
237696=0x1.e72bf328722dp-2
237705=0x1.e810da5d00257p-2
237709=0x1.cc5b3f05154adp-2
237710=0x1.325ecf61da3p+0
237735=0x1.4f5de7f5ba3cbp+0
237737=0x1.26333d82b094fp-1
237738=0x1.abcdf773bc021p-2
237739=-0x1.498275402c9f1p-4
237743=0x1.33de1e66e4a4ep-2
237749=0x1.157921851d008p+1
237753=0x1.76e9af7c56069p-1
237757=0x1.e4d30021e6297p+0
237767=0x1.7cd2d66e15bap-1
237768=-0x1.ebdca63b5b648p-5
237777=0x1.e72bf328722dp-2
237786=0x1.e810da5d00257p-2
237790=0x1.cc5b3f05154adp-2
237791=0x1.325ecf61da3p+0
237978=0x1.f9b9848916312p-1
237981=0x1.4fa585d81980fp+0
237988=0x1.9ca41319ea904p-2
237996=0x1.b66e7f5ab79bap-3
238140=0x1.4ab055dd6231ep-1
238158=0x1.0b2bc46576906p-11
238161=0x1.e4a03784b9bc1p-3
238168=0x1.cc9f9718ac628p-2
238204=0x1.d06585c7ba976p+0
239101=0x1.530afb7fed1fap+0
239156=0x1.dc864d903be87p+0
239922=0x1.5c4a9a45e86dbp-1
244539=0x1.f9b9848916312p-1
244542=0x1.4fa585d81980fp+0
244549=0x1.9ca41319ea904p-2
244557=0x1.b66e7f5ab79bap-3
244701=0x1.4ab055dd6231ep-1
244719=0x1.0b2bc46576906p-11
244722=0x1.e4a03784b9bc1p-3
244729=0x1.cc9f9718ac628p-2
244765=0x1.d06585c7ba976p+0
245662=0x1.530afb7fed1fap+0
245717=0x1.dc864d903be87p+0
246483=0x1.5c4a9a45e86dbp-1
251100=0x1.f9b9848916312p-1
251103=0x1.4fa585d81980fp+0
251110=0x1.9ca41319ea904p-2
251118=0x1.b66e7f5ab79bap-3
251262=0x1.4ab055dd6231ep-1
251280=0x1.0b2bc46576906p-11
251283=0x1.e4a03784b9bc1p-3
251290=0x1.cc9f9718ac628p-2
251326=0x1.d06585c7ba976p+0
252223=0x1.530afb7fed1fap+0
252278=0x1.dc864d903be87p+0
253044=0x1.5c4a9a45e86dbp-1
257661=0x1.f9b9848916312p-1
257664=0x1.4fa585d81980fp+0
257671=0x1.9ca41319ea904p-2
257679=0x1.b66e7f5ab79bap-3
257823=0x1.4ab055dd6231ep-1
257841=0x1.0b2bc46576906p-11
257844=0x1.e4a03784b9bc1p-3
257851=0x1.cc9f9718ac628p-2
257887=0x1.d06585c7ba976p+0
258784=0x1.530afb7fed1fap+0
258839=0x1.dc864d903be87p+0
259605=0x1.5c4a9a45e86dbp-1
264060=0x1.00b39c48d1a0ap-4
264064=0x1.838ec9fa067dfp+0
264065=0x1.201c82a84e0bp-1
264075=0x1.1316646f33ef7p-1
264077=0x1.8240a0893d8fbp-2
264081=0x1.50ca107031566p-3
264083=0x1.f1a36a9e793b7p-2
264087=0x1.9cbdcbf9ff92cp-1
264141=0x1.00b39c48d1a0ap-4
264145=0x1.838ec9fa067dfp+0
264146=0x1.201c82a84e0bp-1
264156=0x1.1316646f33ef7p-1
264158=0x1.8240a0893d8fbp-2
264162=0x1.50ca107031566p-3
264164=0x1.f1a36a9e793b7p-2
264168=0x1.9cbdcbf9ff92cp-1
264222=-0x1.6d89bdb25dba2p-4
264384=-0x1.8a47dc1a4f77p-1
264465=0x1.e2ec4d2f6e088p+0
264467=0x1.569da28dd99d6p+0
264475=0x1.a8e75144e7d14p-1
264546=-0x1.8190bb6eb343cp-1
267786=0x1.c0ff1707bb6b5p-5
269406=0x1.8418f04898598p+0
269410=0x1.f0c548fc4126ep-2
269411=0x1.e02ea91d7aa22p-1
269416=0x1.80885cbaab4e7p-4
269427=0x1.36a746a90ac9p-2
269429=0x1.e9ec4eb4d9276p-1
269892=0x1.9dd9562db475p-1
270783=-0x1.6d89bdb25dba2p-4
270945=-0x1.8a47dc1a4f77p-1
271026=0x1.e2ec4d2f6e088p+0
271028=0x1.569da28dd99d6p+0
271036=0x1.a8e75144e7d14p-1
271107=-0x1.8190bb6eb343cp-1
274347=0x1.c0ff1707bb6b5p-5
275967=0x1.8418f04898598p+0
275971=0x1.f0c548fc4126ep-2
275972=0x1.e02ea91d7aa22p-1
275977=0x1.80885cbaab4e7p-4
275988=0x1.36a746a90ac9p-2
275990=0x1.e9ec4eb4d9276p-1
276453=0x1.9dd9562db475p-1
277344=-0x1.6d89bdb25dba2p-4
277506=-0x1.8a47dc1a4f77p-1
277587=0x1.e2ec4d2f6e088p+0
277589=0x1.569da28dd99d6p+0
277597=0x1.a8e75144e7d14p-1
277668=-0x1.8190bb6eb343cp-1
280908=0x1.c0ff1707bb6b5p-5
282528=0x1.8418f04898598p+0
282532=0x1.f0c548fc4126ep-2
282533=0x1.e02ea91d7aa22p-1
282538=0x1.80885cbaab4e7p-4
282549=0x1.36a746a90ac9p-2
282551=0x1.e9ec4eb4d9276p-1
283014=0x1.9dd9562db475p-1
283905=-0x1.6d89bdb25dba2p-4
284067=-0x1.8a47dc1a4f77p-1
284148=0x1.e2ec4d2f6e088p+0
284150=0x1.569da28dd99d6p+0
284158=0x1.a8e75144e7d14p-1
284229=-0x1.8190bb6eb343cp-1
287469=0x1.c0ff1707bb6b5p-5
289089=0x1.8418f04898598p+0
289093=0x1.f0c548fc4126ep-2
289094=0x1.e02ea91d7aa22p-1
289099=0x1.80885cbaab4e7p-4
289110=0x1.36a746a90ac9p-2
289112=0x1.e9ec4eb4d9276p-1
289575=0x1.9dd9562db475p-1
290466=0x1.b15bf64c2fdf2p-3
290468=0x1.346e2a7265861p-3
290470=0x1.070d016246622p-3
290471=0x1.e6e3d8ad901bcp-2
290474=0x1.b0ccd457a3e33p-8
290477=0x1.87e387054b46ap-1
290480=0x1.21cb311df0d06p+0
290481=-0x1.51aa371667d72p-2
290484=0x1.500ba6c45143ap-2
290492=0x1.00de5eeab9f4cp+0
290505=-0x1.7a1b628af273bp-4
290521=-0x1.39d89a0655181p-4
290547=0x1.b15bf64c2fdf2p-3
290549=0x1.346e2a7265861p-3
290551=0x1.070d016246622p-3
290552=0x1.e6e3d8ad901bcp-2
290555=0x1.b0ccd457a3e33p-8
290558=0x1.87e387054b46ap-1
290561=0x1.21cb311df0d06p+0
290562=-0x1.51aa371667d72p-2
290565=0x1.500ba6c45143ap-2
290573=0x1.00de5eeab9f4cp+0
290586=-0x1.7a1b628af273bp-4
290602=-0x1.39d89a0655181p-4
290628=0x1.05104326f0714p+1
297189=0x1.05104326f0714p+1
303750=0x1.05104326f0714p+1
310311=0x1.05104326f0714p+1
316872=0x1.06c588dffdb54p+0
316888=0x1.1db22a6a0eb15p-2
316953=0x1.06c588dffdb54p+0
316969=0x1.1db22a6a0eb15p-2
317034=0x1.86fc3aa37061dp-2
323595=0x1.86fc3aa37061dp-2
330156=0x1.86fc3aa37061dp-2
336717=0x1.86fc3aa37061dp-2
343440=-0x1.0c94a0236b48bp-4
343602=0x1.8aa579d08b96ep+0
343604=0x1.0252eb07a9788p+0
343612=0x1.992baff145ef5p-3
343623=0x1.d5b81d288f6d6p-3
343764=0x1.803d65aa9404bp-1
343766=0x1.23cab5fab11fep-5
343768=0x1.a1d1a12a6b071p-6
343769=0x1.46e863fb4efap-3
343771=-0x1.d238b7bd7ea2fp-3
343784=0x1.3cc71494d698dp-1
343792=0x1.94cb118e75cd1p-2
343806=0x1.1eec858e74d7cp-1
344655=0x1.21ea654456fe3p+0
344736=0x1.ca78100939ccap-1
344803=0x1.00fc064b826acp+0
350001=-0x1.0c94a0236b48bp-4
350163=0x1.8aa579d08b96ep+0
350165=0x1.0252eb07a9788p+0
350173=0x1.992baff145ef5p-3
350184=0x1.d5b81d288f6d6p-3
350325=0x1.803d65aa9404bp-1
350327=0x1.23cab5fab11fep-5
350329=0x1.a1d1a12a6b071p-6
350330=0x1.46e863fb4efap-3
350332=-0x1.d238b7bd7ea2fp-3
350345=0x1.3cc71494d698dp-1
350353=0x1.94cb118e75cd1p-2
350367=0x1.1eec858e74d7cp-1
351216=0x1.21ea654456fe3p+0
351297=0x1.ca78100939ccap-1
351364=0x1.00fc064b826acp+0
356562=-0x1.0c94a0236b48bp-4
356724=0x1.8aa579d08b96ep+0
356726=0x1.0252eb07a9788p+0
356734=0x1.992baff145ef5p-3
356745=0x1.d5b81d288f6d6p-3
356886=0x1.803d65aa9404bp-1
356888=0x1.23cab5fab11fep-5
356890=0x1.a1d1a12a6b071p-6
356891=0x1.46e863fb4efap-3
356893=-0x1.d238b7bd7ea2fp-3
356906=0x1.3cc71494d698dp-1
356914=0x1.94cb118e75cd1p-2
356928=0x1.1eec858e74d7cp-1
357777=0x1.21ea654456fe3p+0
357858=0x1.ca78100939ccap-1
357925=0x1.00fc064b826acp+0
363123=-0x1.0c94a0236b48bp-4
363285=0x1.8aa579d08b96ep+0
363287=0x1.0252eb07a9788p+0
363295=0x1.992baff145ef5p-3
363306=0x1.d5b81d288f6d6p-3
363447=0x1.803d65aa9404bp-1
363449=0x1.23cab5fab11fep-5
363451=0x1.a1d1a12a6b071p-6
363452=0x1.46e863fb4efap-3
363454=-0x1.d238b7bd7ea2fp-3
363467=0x1.3cc71494d698dp-1
363475=0x1.94cb118e75cd1p-2
363489=0x1.1eec858e74d7cp-1
364338=0x1.21ea654456fe3p+0
364419=0x1.ca78100939ccap-1
364486=0x1.00fc064b826acp+0
369684=0x1.fb14b4262b47p-3
369687=0x1.c1e92c43a4dcp-2
369688=0x1.1618724e04dcdp+0
369689=-0x1.17a717bcfa2cdp-2
369690=0x1.1b1089df4c178p-2
369692=0x1.5caa5397dc2cbp-2
369702=0x1.0803d3fbcb0dbp-3
369705=0x1.8b616bd6e3e96p-3
369707=0x1.046ad8f10afe9p+0
369727=0x1.115994fe16f13p-4
369739=-0x1.3ed6422232bc5p-1
369765=0x1.fb14b4262b47p-3
369768=0x1.c1e92c43a4dcp-2
369769=0x1.1618724e04dcdp+0
369770=-0x1.17a717bcfa2cdp-2
369771=0x1.1b1089df4c178p-2
369773=0x1.5caa5397dc2cbp-2
369783=0x1.0803d3fbcb0dbp-3
369786=0x1.8b616bd6e3e96p-3
369788=0x1.046ad8f10afe9p+0
369808=0x1.115994fe16f13p-4
369820=-0x1.3ed6422232bc5p-1
369846=0x1.2055f1c76ed3ap+1
369852=0x1.43dc5f564a002p-1
376407=0x1.2055f1c76ed3ap+1
376413=0x1.43dc5f564a002p-1
382968=0x1.2055f1c76ed3ap+1
382974=0x1.43dc5f564a002p-1
389529=0x1.2055f1c76ed3ap+1
389535=0x1.43dc5f564a002p-1
396090=0x1.0ed06881bbd09p+1
396095=0x1.051c9d02b82dfp-2
396102=0x1.673a87a901ca8p-2
396133=0x1.4e9c72f93d657p-1
396171=0x1.0ed06881bbd09p+1
396176=0x1.051c9d02b82dfp-2
396183=0x1.673a87a901ca8p-2
396214=0x1.4e9c72f93d657p-1
396252=0x1.410567d0e056ep+0
402813=0x1.410567d0e056ep+0
409374=0x1.410567d0e056ep+0
415935=0x1.410567d0e056ep+0
422496=0x1.9553bc4d31713p-2
422519=0x1.1bc8734644f4p-1
422539=0x1.b4fa083d7e7d6p-3
422577=0x1.9553bc4d31713p-2
422600=0x1.1bc8734644f4p-1
422620=0x1.b4fa083d7e7d6p-3
422658=0x1.36e4771981241p-1
422670=0x1.c8008d2b897edp-2
429219=0x1.36e4771981241p-1
429231=0x1.c8008d2b897edp-2
435780=0x1.36e4771981241p-1
435792=0x1.c8008d2b897edp-2
442341=0x1.36e4771981241p-1
442353=0x1.c8008d2b897edp-2
448902=0x1.b4cca754e638cp+0
448903=0x1.defdcd9ecc27fp-7
448906=-0x1.b4a6b0bead4f2p-1
448914=0x1.8bec42d188406p-1
448933=0x1.6511be7b38fb3p-3
448983=0x1.b4cca754e638cp+0
448984=0x1.defdcd9ecc27fp-7
448987=-0x1.b4a6b0bead4f2p-1
448995=0x1.8bec42d188406p-1
449014=0x1.6511be7b38fb3p-3
449064=0x1.541771d14d728p+0
449388=-0x1.2c04dbcc1cc7fp-2
455625=0x1.541771d14d728p+0
455949=-0x1.2c04dbcc1cc7fp-2
462186=0x1.541771d14d728p+0
462510=-0x1.2c04dbcc1cc7fp-2
468747=0x1.541771d14d728p+0
469071=-0x1.2c04dbcc1cc7fp-2
475312=0x1.3ee750c90cf8p-6
475313=-0x1.c021cee43bbf8p-5
475316=0x1.4c914e018815cp-2
475323=0x1.4c50069779b63p-2
475330=-0x1.0cba57b94cd68p-5
475393=0x1.3ee750c90cf8p-6
475394=-0x1.c021cee43bbf8p-5
475397=0x1.4c914e018815cp-2
475404=0x1.4c50069779b63p-2
475411=-0x1.0cba57b94cd68p-5
475470=-0x1.3965cab85e695p-1
475480=-0x1.742ebcc37f625p-6
475632=0x1.2ee3976d9b00cp+0
475634=0x1.1a2f91d78d449p+0
475642=0x1.9242e3156f8dbp-3
475646=0x1.00fd3d7b09f77p-1
475794=0x1.641213a0f52d3p-1
475796=0x1.8e6b2bd770df2p-2
475798=-0x1.bdcdae24a9daap-5
475799=0x1.96964b4b81327p-2
475800=0x1.ac0e56a1226ep-3
475804=0x1.c22c9f458c8bbp-4
475806=0x1.406adf5af5db9p-2
475812=0x1.769f636e4abddp-4
475814=0x1.3a6548da8724ep-2
475817=0x1.8472d10a26e3ap-3
475822=0x1.39cd8bcb7801fp-3
475836=0x1.afbacad742eeep-3
475843=0x1.50104c4cb979dp-1
475844=0x1.ddd77e67f24acp-3
475845=-0x1.81bc9bc2a703ap-5
475850=0x1.ba381d02816abp-2
476685=0x1.014074917c124p-4
476766=0x1.4c2f58bf973b2p-8
476797=0x1.df91f86c52f4cp-1
482031=-0x1.3965cab85e695p-1
482041=-0x1.742ebcc37f625p-6
