#mdl#2#6957
#rdr#6/0/0
9:*0%x[1,0],
10:u1%x[-2,0],
9:*2%x[1,0],
10:u3%x[-2,0],
10:b4%x[-1,0],
9:u5%x[0,0],
#qrk#81
1:O,
15:B-cost_relative,
19:B-fromloc.city_name,
20:B-fromloc.state_code,
17:B-toloc.city_name,
22:B-depart_date.day_name,
27:B-depart_time.period_of_day,
27:B-depart_date.date_relative,
14:B-airline_name,
13:B-flight_time,
27:B-depart_time.time_relative,
18:B-depart_time.time,
12:B-flight_mod,
14:B-airline_code,
20:B-fromloc.state_name,
19:B-stoploc.city_name,
11:B-city_name,
24:B-depart_date.day_number,
24:B-depart_date.month_name,
9:B-connect,
12:B-round_trip,
24:B-depart_time.period_mod,
22:B-fromloc.airport_name,
13:B-flight_stop,
12:B-state_name,
15:B-aircraft_code,
18:B-toloc.state_name,
18:B-arrive_time.time,
12:B-class_type,
15:B-flight_number,
27:B-arrive_time.period_of_day,
16:B-transport_type,
14:B-airport_name,
8:B-return,
18:B-depart_date.year,
15:B-period_of_day,
15:B-time_relative,
6:B-time,
13:B-fare_amount,
24:B-arrive_date.month_name,
24:B-arrive_date.day_number,
6:B-meal,
27:B-arrive_time.time_relative,
18:B-meal_description,
12:B-state_code,
9:B-economy,
24:B-return_date.month_name,
24:B-return_date.day_number,
20:B-toloc.airport_name,
5:B-mod,
13:B-flight_days,
28:B-depart_date.today_relative,
18:B-restriction_code,
17:B-fare_basis_code,
27:B-arrive_date.date_relative,
22:B-arrive_date.day_name,
4:B-or,
11:B-meal_code,
24:B-arrive_time.start_time,
22:B-arrive_time.end_time,
22:B-fromloc.airport_code,
20:B-toloc.airport_code,
14:B-airport_code,
24:B-arrive_time.period_mod,
18:B-toloc.state_code,
24:B-depart_time.start_time,
22:B-depart_time.end_time,
16:B-today_relative,
28:B-arrive_date.today_relative,
10:B-day_name,
20:B-stoploc.state_code,
27:B-return_date.date_relative,
22:B-stoploc.airport_name,
22:B-return_date.day_name,
11:B-days_code,
12:B-month_name,
12:B-day_number,
20:B-toloc.country_name,
28:B-return_date.today_relative,
24:B-return_time.period_mod,
27:B-return_time.period_of_day,
#qrk#5766
6:*0like,
6:u1_x-2,
6:*2like,
6:u3_x-2,
6:b4_x-1,
5:u5i'd,
4:*0to,
6:u1_x-1,
4:*2to,
6:u3_x-1,
5:b4i'd,
6:u5like,
6:*0find,
5:u1i'd,
6:*2find,
5:u3i'd,
6:b4like,
4:u5to,
5:*0the,
6:u1like,
5:*2the,
6:u3like,
4:b4to,
6:u5find,
10:*0cheapest,
4:u1to,
10:*2cheapest,
4:u3to,
6:b4find,
5:u5the,
8:*0flight,
6:u1find,
8:*2flight,
6:u3find,
5:b4the,
10:u5cheapest,
6:*0from,
5:u1the,
6:*2from,
5:u3the,
10:b4cheapest,
8:u5flight,
12:*0washington,
10:u1cheapest,
12:*2washington,
10:u3cheapest,
8:b4flight,
6:u5from,
4:*0dc,
8:u1flight,
4:*2dc,
8:u3flight,
6:b4from,
12:u5washington,
6:u1from,
6:u3from,
12:b4washington,
4:u5dc,
9:*0atlanta,
12:u1washington,
9:*2atlanta,
12:u3washington,
4:b4dc,
6:*0_x+1,
4:u1dc,
6:*2_x+1,
4:u3dc,
9:u5atlanta,
11:*0traveling,
11:*2traveling,
5:u5i'm,
5:b4i'm,
11:u5traveling,
8:*0dallas,
5:u1i'm,
8:*2dallas,
5:u3i'm,
11:b4traveling,
11:u1traveling,
11:u3traveling,
8:u5dallas,
14:*0philadelphia,
14:*2philadelphia,
8:b4dallas,
8:u1dallas,
8:u3dallas,
14:u5philadelphia,
6:*0also,
6:*2also,
3:u5i,
6:*0need,
6:*2need,
3:b4i,
6:u5also,
3:u1i,
3:u3i,
6:b4also,
6:u5need,
4:*0go,
6:u1also,
4:*2go,
6:u3also,
6:b4need,
6:u1need,
6:u3need,
4:u5go,
15:*0san-francisco,
15:*2san-francisco,
4:b4go,
4:*0on,
4:u1go,
4:*2on,
4:u3go,
15:u5san-francisco,
11:*0wednesday,
11:*2wednesday,
15:b4san-francisco,
4:u5on,
9:*0evening,
15:u1san-francisco,
9:*2evening,
15:u3san-francisco,
4:b4on,
11:u5wednesday,
4:u1on,
4:u3on,
11:b4wednesday,
9:u5evening,
11:u1wednesday,
11:u3wednesday,
9:b4evening,
9:u1evening,
9:u3evening,
5:*0you,
5:*2you,
7:u5thank,
3:*0i,
3:*2i,
7:b4thank,
5:u5you,
7:u1thank,
7:u3thank,
5:b4you,
5:u1you,
5:u3you,
8:*0travel,
8:*2travel,
6:*0next,
6:*2next,
8:u5travel,
8:b4travel,
6:u5next,
8:u1travel,
8:u3travel,
6:b4next,
6:u1next,
6:u3next,
5:*0fly,
5:*2fly,
22:*0continental-airlines,
22:*2continental-airlines,
5:u5fly,
9:*0between,
9:*2between,
5:b4fly,
22:u5continental-airlines,
8:*0boston,
5:u1fly,
8:*2boston,
5:u3fly,
22:b4continental-airlines,
9:u5between,
5:*0and,
22:u1continental-airlines,
5:*2and,
22:u3continental-airlines,
9:b4between,
8:u5boston,
9:u1between,
9:u3between,
8:b4boston,
5:u5and,
8:u1boston,
8:u3boston,
5:b4and,
6:*0tell,
6:*2tell,
8:u5please,
4:*0me,
4:*2me,
8:b4please,
6:u5tell,
8:u1please,
8:u3please,
6:b4tell,
4:u5me,
9:*0flights,
6:u1tell,
9:*2flights,
6:u3tell,
4:b4me,
4:u1me,
4:u3me,
9:u5flights,
9:b4flights,
9:u1flights,
9:u3flights,
10:*0thursday,
5:u1and,
10:*2thursday,
5:u3and,
14:b4philadelphia,
14:u1philadelphia,
14:u3philadelphia,
10:u5thursday,
7:*0would,
7:*2would,
7:u5would,
7:b4would,
7:u1would,
7:u3would,
6:*0fare,
6:*2fare,
6:u5fare,
6:b4fare,
6:u1fare,
6:u3fare,
9:b4atlanta,
9:u1atlanta,
9:u3atlanta,
3:*0a,
3:*2a,
3:u5a,
3:b4a,
3:u1a,
3:u3a,
6:*0give,
6:*2give,
6:u5give,
6:b4give,
14:*0flight-times,
6:u1give,
14:*2flight-times,
6:u3give,
14:u5flight-times,
14:b4flight-times,
14:u1flight-times,
14:u3flight-times,
11:*0baltimore,
11:*2baltimore,
4:*0in,
4:*2in,
11:u5baltimore,
11:b4baltimore,
4:u5in,
9:*0morning,
11:u1baltimore,
9:*2morning,
11:u3baltimore,
4:b4in,
8:*0before,
4:u1in,
8:*2before,
4:u3in,
9:u5morning,
3:*08,
3:*28,
9:b4morning,
8:u5before,
9:u1morning,
9:u3morning,
8:b4before,
3:u58,
8:*0please,
8:*2please,
23:*0times-of-your-flights,
23:*2times-of-your-flights,
23:u5times-of-your-flights,
23:b4times-of-your-flights,
23:u1times-of-your-flights,
23:u3times-of-your-flights,
11:*08-o'clock,
11:*28-o'clock,
11:u58-o'clock,
9:*0leaving,
9:*2leaving,
9:u5leaving,
9:b4leaving,
9:u1leaving,
9:u3leaving,
6:u5what,
4:*0do,
4:*2do,
6:b4what,
6:u1what,
6:u3what,
4:u5do,
6:*0have,
6:*2have,
4:b4do,
4:u1do,
4:u3do,
6:u5have,
8:*0denver,
8:*2denver,
6:b4have,
6:u1have,
6:u3have,
8:u5denver,
10:*0arriving,
10:*2arriving,
8:b4denver,
8:u1denver,
8:u3denver,
10:u5arriving,
10:b4arriving,
10:u1arriving,
10:u3arriving,
4:*0is,
4:*2is,
6:*0your,
6:*2your,
4:u5is,
6:*0last,
6:*2last,
4:b4is,
6:u5your,
4:u1is,
4:u3is,
6:b4your,
6:u5last,
6:u1your,
6:u3your,
6:b4last,
6:u1last,
6:u3last,
7:*0there,
7:*2there,
7:u5there,
7:b4there,
7:u1there,
7:u3there,
19:*0american-airlines,
19:*2american-airlines,
6:u5does,
6:b4does,
19:u5american-airlines,
6:u1does,
6:u3does,
19:b4american-airlines,
19:u1american-airlines,
19:u3american-airlines,
6:*0does,
6:*2does,
6:*0time,
6:*2time,
6:u5time,
10:*0earliest,
10:*2earliest,
6:b4time,
6:u1time,
6:u3time,
10:u5earliest,
10:b4earliest,
10:u1earliest,
10:u3earliest,
4:*0of,
4:*2of,
4:u5of,
4:b4of,
4:u1of,
4:u3of,
7:u5could,
7:b4could,
7:u1could,
7:u3could,
13:*0information,
13:*2information,
12:*0concerning,
12:*2concerning,
13:u5information,
13:b4information,
12:u5concerning,
13:u1information,
13:u3information,
12:b4concerning,
12:u1concerning,
12:u3concerning,
5:*0one,
5:*2one,
5:u5one,
5:b4one,
5:u1one,
5:u3one,
4:*0as,
4:*2as,
10:*0possible,
10:*2possible,
4:u5as,
4:b4as,
10:u5possible,
18:*0american-airline,
18:*2american-airline,
18:u5american-airline,
18:b4american-airline,
18:u1american-airline,
18:u3american-airline,
15:*0early-morning,
15:*2early-morning,
17:*0times-of-flight,
17:*2times-of-flight,
15:u5early-morning,
15:b4early-morning,
17:u5times-of-flight,
5:*0twa,
5:*2twa,
5:u5twa,
5:b4twa,
5:u1twa,
5:u3twa,
12:*0fort-worth,
12:*2fort-worth,
7:*0texas,
7:*2texas,
12:u5fort-worth,
12:b4fort-worth,
7:u5texas,
12:u1fort-worth,
12:u3fort-worth,
7:b4texas,
7:u1texas,
7:u3texas,
12:u5interested,
12:b4interested,
12:u1interested,
12:u3interested,
12:*0interested,
12:*2interested,
6:*0that,
6:*2that,
6:u5that,
6:*0stop,
6:*2stop,
6:b4that,
6:u1that,
6:u3that,
6:u5stop,
6:b4stop,
6:u1stop,
6:u3stop,
12:*0pittsburgh,
12:*2pittsburgh,
12:u5pittsburgh,
5:*0for,
5:*2for,
5:u5for,
5:b4for,
5:u1for,
5:u3for,
12:b4pittsburgh,
12:u1pittsburgh,
12:u3pittsburgh,
6:*0want,
6:*2want,
6:u5want,
6:b4want,
6:u1want,
6:u3want,
8:*0monday,
8:*2monday,
8:u5monday,
10:*0airlines,
10:*2airlines,
10:u5airlines,
10:b4airlines,
10:u1airlines,
10:u3airlines,
8:*0ground,
8:*2ground,
16:*0transportation,
16:*2transportation,
8:u5ground,
8:b4ground,
16:u5transportation,
8:u1ground,
8:u3ground,
16:b4transportation,
16:u1transportation,
16:u3transportation,
9:*0airport,
9:*2airport,
9:u5airport,
9:b4airport,
9:u1airport,
9:u3airport,
10:*0downtown,
10:*2downtown,
10:u5downtown,
9:*0tuesday,
9:*2tuesday,
9:u5tuesday,
14:*0twenty-first,
14:*2twenty-first,
14:u5twenty-first,
11:u5repeating,
11:b4repeating,
11:u1repeating,
11:u3repeating,
6:*010am,
6:*210am,
6:*0what,
6:*2what,
6:u510am,
6:*0type,
8:u1before,
6:*2type,
8:u3before,
6:b410am,
6:u110am,
6:u310am,
6:u5type,
10:*0aircraft,
10:*2aircraft,
6:b4type,
6:u1type,
6:u3type,
10:u5aircraft,
6:*0used,
6:*2used,
10:b4aircraft,
10:u1aircraft,
10:u3aircraft,
6:u5used,
8:*0flying,
8:*2flying,
8:u5flying,
8:b4flying,
8:u1flying,
8:u3flying,
17:*0united-airlines,
17:*2united-airlines,
17:u5united-airlines,
17:b4united-airlines,
17:u1united-airlines,
17:u3united-airlines,
7:*0right,
7:*2right,
5:u5all,
5:b4all,
7:u5right,
5:u1all,
5:u3all,
7:b4right,
5:*0let,
7:u1right,
5:*2let,
7:u3right,
5:u5let,
6:*0know,
6:*2know,
5:b4let,
5:u1let,
5:u3let,
6:u5know,
6:b4know,
6:u1know,
6:u3know,
7:*0using,
7:*2using,
7:u5using,
7:b4using,
7:u1using,
7:u3using,
6:*0they,
6:*2they,
5:*0use,
5:*2use,
6:u5they,
6:b4they,
5:u5use,
7:*0these,
6:u1they,
7:*2these,
6:u3they,
5:b4use,
5:u1use,
5:u3use,
7:u5these,
7:b4these,
4:*010,
7:u1these,
4:*210,
7:u3these,
4:u510,
4:b410,
4:u110,
4:u310,
6:*0i'll,
6:*2i'll,
6:u5well,
5:*0try,
5:*2try,
6:b4well,
6:u5i'll,
6:u1well,
6:u3well,
6:b4i'll,
5:u5try,
6:u1i'll,
6:u3i'll,
5:b4try,
5:u1try,
5:u3try,
6:*0kind,
6:*2kind,
6:u5kind,
6:b4kind,
6:u1kind,
6:u3kind,
7:*0flies,
7:*2flies,
7:u5flies,
7:b4flies,
7:u1flies,
7:u3flies,
12:*010-o'clock,
12:*210-o'clock,
12:u510-o'clock,
12:b410-o'clock,
12:u110-o'clock,
12:u310-o'clock,
11:*0september,
11:*2september,
11:*0twentieth,
11:*2twentieth,
11:u5september,
11:b4september,
11:u5twentieth,
11:u1september,
11:u3september,
11:b4twentieth,
11:u1twentieth,
11:u3twentieth,
10:*0stopover,
10:*2stopover,
10:u5stopover,
10:b4stopover,
10:u1stopover,
10:u3stopover,
5:*0are,
5:*2are,
5:u5are,
5:b4are,
5:u1are,
5:u3are,
4:*0an,
4:*2an,
4:u5an,
4:b4an,
4:u1an,
4:u3an,
12:*0connecting,
12:*2connecting,
12:u5connecting,
6:*0wish,
6:*2wish,
6:u5wish,
6:b4wish,
6:u1wish,
6:u3wish,
9:*0airline,
9:*2airline,
9:u5airline,
9:b4airline,
9:u1airline,
9:u3airline,
7:*0plane,
7:*2plane,
7:u5plane,
7:b4plane,
7:u1plane,
7:u3plane,
9:*0one-way,
9:*2one-way,
9:u5one-way,
9:b4one-way,
9:u1one-way,
9:u3one-way,
11:*0available,
11:*2available,
4:*0at,
4:*2at,
11:u5available,
10:*0noontime,
10:*2noontime,
11:b4available,
4:u5at,
11:u1available,
11:u3available,
4:b4at,
10:u5noontime,
4:u1at,
4:u3at,
10:b4noontime,
10:u1noontime,
10:u3noontime,
8:*0around,
8:*2around,
8:u5around,
8:b4around,
8:u1around,
8:u3around,
16:*0delta-airlines,
16:*2delta-airlines,
16:u5delta-airlines,
16:b4delta-airlines,
16:u1delta-airlines,
16:u3delta-airlines,
18:*0eastern-airlines,
18:*2eastern-airlines,
18:u5eastern-airlines,
18:b4eastern-airlines,
18:u1eastern-airlines,
18:u3eastern-airlines,
7:*0early,
7:*2early,
7:u5early,
4:u1as,
4:u3as,
7:b4early,
7:u1early,
7:u3early,
10:b4possible,
5:*0day,
10:u1possible,
5:*2day,
10:u3possible,
5:u5day,
5:b4day,
5:u1day,
5:u3day,
6:*0will,
6:*2will,
8:*0arrive,
8:*2arrive,
6:u5will,
6:b4will,
8:u5arrive,
6:u1will,
6:u3will,
8:b4arrive,
8:u1arrive,
8:u3arrive,
16:*0denver-airport,
16:*2denver-airport,
16:u5denver-airport,
16:b4denver-airport,
16:u1denver-airport,
16:u3denver-airport,
10:b4downtown,
9:*0nonstop,
9:*2nonstop,
9:u5nonstop,
9:b4nonstop,
9:u1nonstop,
9:u3nonstop,
8:*0repeat,
8:*2repeat,
8:u5repeat,
8:b4repeat,
12:*0departures,
8:u1repeat,
12:*2departures,
8:u3repeat,
12:u5departures,
12:b4departures,
8:*0august,
12:u1departures,
8:*2august,
12:u3departures,
12:*0nineteenth,
12:*2nineteenth,
8:b4monday,
8:u5august,
8:u1monday,
8:u3monday,
8:b4august,
12:u5nineteenth,
8:u1august,
8:u3august,
12:b4nineteenth,
12:u1nineteenth,
12:u3nineteenth,
6:*0rate,
6:*2rate,
6:u5rate,
6:b4rate,
6:u1rate,
6:u3rate,
5:*0any,
5:*2any,
5:u5any,
5:b4any,
8:*0us-air,
5:u1any,
8:*2us-air,
5:u3any,
8:u5us-air,
8:b4us-air,
8:u1us-air,
8:u3us-air,
7:*0going,
7:*2going,
7:u5we're,
7:b4we're,
7:u5going,
7:u1we're,
7:u3we're,
7:b4going,
7:u1going,
7:u3going,
5:*0819,
5:*2819,
5:u5819,
5:b4819,
5:u1819,
5:u3819,
6:*0take,
6:*2take,
6:u5take,
6:b4take,
6:u1take,
6:u3take,
11:*09-o'clock,
11:*29-o'clock,
11:u59-o'clock,
11:b49-o'clock,
11:u19-o'clock,
11:u39-o'clock,
5:*0out,
5:*2out,
5:u5out,
5:b4out,
5:u1out,
5:u3out,
4:*0be,
4:*2be,
9:*0staying,
9:*2staying,
4:u5be,
4:b4be,
9:u5staying,
4:u1be,
4:u3be,
9:b4staying,
9:u1staying,
9:u3staying,
10:u1downtown,
10:u3downtown,
5:*0two,
5:*2two,
7:*0hours,
7:*2hours,
5:u5two,
7:*0could,
7:*2could,
5:b4two,
7:u5hours,
5:u1two,
5:u3two,
7:b4hours,
7:u1hours,
7:u3hours,
5:u5can,
5:b4can,
5:u1can,
5:u3can,
7:*0about,
7:*2about,
7:u5about,
7:b4about,
7:u1about,
7:u3about,
6:*0city,
6:*2city,
6:u5city,
6:b4city,
6:u1city,
6:u3city,
6:*0well,
6:*2well,
6:u5very,
5:*0i'm,
5:*2i'm,
6:b4very,
9:*0working,
6:u1very,
9:*2working,
6:u3very,
9:u5working,
10:*0scenario,
10:*2scenario,
9:b4working,
7:*0three,
9:u1working,
7:*2three,
9:u3working,
10:u5scenario,
10:b4scenario,
7:u5three,
10:u1scenario,
10:u3scenario,
7:b4three,
7:u1three,
7:u3three,
5:*0727,
5:*2727,
5:u5727,
5:b4727,
5:u1727,
5:u3727,
9:*0georgia,
9:*2georgia,
9:u5georgia,
4:*0am,
4:*2am,
4:u5am,
4:b4am,
4:u1am,
4:u3am,
8:*0number,
8:*2number,
8:u5number,
8:b4number,
8:u1number,
8:u3number,
8:*0return,
8:*2return,
8:u5return,
8:b4return,
8:u1return,
8:u3return,
7:*0bound,
7:*2bound,
7:u5bound,
7:b4bound,
7:u1bound,
7:u3bound,
8:*0friday,
8:*2friday,
6:*0this,
6:*2this,
8:u5friday,
6:*0week,
6:*2week,
8:b4friday,
6:u5this,
8:u1friday,
8:u3friday,
6:b4this,
6:u5week,
7:*0class,
7:*2class,
9:*0service,
9:*2service,
7:u5class,
7:b4class,
9:u5service,
7:u1class,
7:u3class,
9:b4service,
9:u1service,
9:u3service,
12:*0california,
12:*2california,
12:u5california,
12:b4california,
14:*0pennsylvania,
12:u1california,
14:*2pennsylvania,
12:u3california,
14:u5pennsylvania,
5:*0get,
5:*2get,
5:u5get,
5:b4get,
5:u1get,
5:u3get,
5:u5yes,
5:b4yes,
7:*0delta,
5:u1yes,
7:*2delta,
5:u3yes,
7:u5delta,
7:b4delta,
7:u1delta,
7:u3delta,
7:*0225pm,
7:*2225pm,
7:u5225pm,
7:b4225pm,
8:*01158pm,
7:u1225pm,
8:*21158pm,
7:u3225pm,
8:u51158pm,
8:b41158pm,
8:u11158pm,
8:u31158pm,
11:*0equipment,
11:*2equipment,
11:u5equipment,
11:b4equipment,
11:u1equipment,
11:u3equipment,
6:b4used,
6:u1used,
6:u3used,
9:*0looking,
9:*2looking,
9:u5looking,
9:b4looking,
9:u1looking,
9:u3looking,
10:*0stopping,
10:*2stopping,
10:u5stopping,
10:b4stopping,
10:u1stopping,
10:u3stopping,
8:*0ticket,
8:*2ticket,
8:u5ticket,
8:b4ticket,
8:u1ticket,
8:u3ticket,
10:*0colorado,
10:*2colorado,
10:u5colorado,
10:b4colorado,
10:u1colorado,
10:u3colorado,
6:*0with,
6:*2with,
9:b4georgia,
6:u5with,
9:u1georgia,
9:u3georgia,
6:b4with,
6:u1with,
6:u3with,
13:*0coach-class,
13:*2coach-class,
6:*0seat,
6:*2seat,
13:u5coach-class,
13:b4coach-class,
6:u5seat,
13:u1coach-class,
13:u3coach-class,
6:b4seat,
6:u1seat,
6:u3seat,
4:*0or,
4:*2or,
8:*0lowest,
8:*2lowest,
4:u5or,
4:b4or,
8:u5lowest,
4:u1or,
4:u3or,
8:b4lowest,
8:u1lowest,
8:u3lowest,
5:*0buy,
5:*2buy,
5:u5buy,
5:b4buy,
5:u1buy,
5:u3buy,
11:*0afternoon,
11:*2afternoon,
11:u5afternoon,
11:b4afternoon,
11:u1afternoon,
11:u3afternoon,
5:*0230,
5:*2230,
5:u5230,
5:b4230,
5:u1230,
5:u3230,
7:*0324pm,
7:*2324pm,
7:u5324pm,
5:*0324,
5:*2324,
5:u5324,
5:b4324,
5:u1324,
5:u3324,
7:*0110pm,
7:*2110pm,
7:u5110pm,
7:b4110pm,
7:u1110pm,
7:u3110pm,
13:*0seventeenth,
13:*2seventeenth,
13:u5seventeenth,
9:*0oakland,
9:*2oakland,
9:u5oakland,
10:*0american,
10:*2american,
10:u5american,
5:*0813,
5:*2813,
10:b4american,
10:u1american,
10:u3american,
5:u5813,
5:b4813,
5:u1813,
5:u3813,
9:b4oakland,
9:u1oakland,
9:u3oakland,
6:*0goes,
6:*2goes,
10:*0straight,
10:*2straight,
6:u5goes,
9:*0through,
9:*2through,
6:b4goes,
10:u5straight,
6:u1goes,
6:u3goes,
10:b4straight,
9:u5through,
10:u1straight,
10:u3straight,
9:b4through,
9:u1through,
9:u3through,
18:*0without-stopping,
18:*2without-stopping,
18:u5without-stopping,
9:*0another,
9:*2another,
18:b4without-stopping,
18:u1without-stopping,
18:u3without-stopping,
9:u5another,
9:b4another,
4:*0if,
4:*2if,
4:u5if,
4:b4if,
4:u1if,
4:u3if,
9:*0enroute,
9:*2enroute,
9:u5enroute,
9:b4enroute,
9:u1enroute,
9:u3enroute,
4:*0it,
4:*2it,
4:u5it,
4:b4it,
4:u1it,
4:u3it,
5:u5may,
5:b4may,
5:u1may,
5:u3may,
6:*02153,
6:*22153,
6:u52153,
6:b42153,
6:u12153,
6:u32153,
13:*0first-class,
13:*2first-class,
13:u5first-class,
13:b4first-class,
13:u1first-class,
13:u3first-class,
6:*0list,
6:*2list,
6:u5list,
6:b4list,
6:u1list,
6:u3list,
8:*0making,
8:*2making,
8:u5making,
8:b4making,
8:u1making,
8:u3making,
13:*0continental,
13:*2continental,
13:u5continental,
13:b4continental,
13:u1continental,
13:u3continental,
7:*0leave,
7:*2leave,
7:u5leave,
7:b4leave,
7:u1leave,
7:u3leave,
7:*0after,
7:*2after,
12:*012-o'clock,
12:*212-o'clock,
7:u5after,
7:b4after,
12:u512-o'clock,
7:u1after,
7:u3after,
12:b412-o'clock,
12:u112-o'clock,
12:u312-o'clock,
7:*0which,
7:*2which,
8:*0leaves,
8:*2leaves,
7:u5which,
7:b4which,
8:u5leaves,
7:u1which,
7:u3which,
8:b4leaves,
8:*01220pm,
8:u1leaves,
8:*21220pm,
8:u3leaves,
8:u51220pm,
8:b41220pm,
8:u11220pm,
8:u31220pm,
11:*05-o'clock,
11:*25-o'clock,
11:u55-o'clock,
11:b45-o'clock,
11:u15-o'clock,
11:u35-o'clock,
13:*0lowest-cost,
13:*2lowest-cost,
13:u5lowest-cost,
13:b4lowest-cost,
13:u1lowest-cost,
13:u3lowest-cost,
7:*0645am,
7:*2645am,
7:u5645am,
7:b4645am,
7:u1645am,
7:u3645am,
9:b4tuesday,
9:u1tuesday,
9:u3tuesday,
5:*0has,
5:*2has,
5:u5has,
5:b4has,
5:u1has,
5:u3has,
6:*0much,
6:*2much,
5:u5how,
5:b4how,
6:u5much,
5:u1how,
5:u3how,
6:b4much,
6:u1much,
6:u3much,
12:*0round-trip,
12:*2round-trip,
12:u5round-trip,
12:b4round-trip,
12:u1round-trip,
12:u3round-trip,
6:*0long,
6:*2long,
6:u5long,
6:b4long,
6:u1long,
6:u3long,
17:*0atlanta-airport,
17:*2atlanta-airport,
6:*0into,
6:*2into,
17:u5atlanta-airport,
17:b4atlanta-airport,
6:u5into,
17:u1atlanta-airport,
17:u3atlanta-airport,
6:b4into,
6:u1into,
6:u3into,
19:*0airport-limousine,
19:*2airport-limousine,
19:u5airport-limousine,
19:b4airport-limousine,
19:u1airport-limousine,
19:u3airport-limousine,
6:*0make,
6:*2make,
6:u5make,
6:*0trip,
6:*2trip,
6:b4make,
6:u1make,
6:u3make,
6:u5trip,
6:b4trip,
6:u1trip,
6:u3trip,
7:u5again,
7:b4again,
7:u1again,
7:u3again,
5:*0how,
5:*2how,
7:*0fares,
7:*2fares,
7:u5fares,
7:b4fares,
7:u1fares,
7:u3fares,
14:*0arrival-time,
14:*2arrival-time,
14:u5arrival-time,
14:b4arrival-time,
14:u1arrival-time,
14:u3arrival-time,
7:*0755am,
7:*2755am,
7:u5755am,
7:b4755am,
7:u1755am,
7:u3755am,
8:*0latest,
8:*2latest,
8:u5latest,
8:b4latest,
8:u1latest,
8:u3latest,
5:*0755,
5:*2755,
5:u5755,
5:b4755,
5:u1755,
5:u3755,
10:*0schedule,
10:*2schedule,
10:u5schedule,
10:b4schedule,
10:u1schedule,
10:u3schedule,
5:*09pm,
5:*29pm,
5:u59pm,
5:b49pm,
5:u19pm,
5:u39pm,
14:*0twenty-ninth,
14:*2twenty-ninth,
14:u5twenty-ninth,
10:*0november,
10:*2november,
14:*0twenty-third,
14:*2twenty-third,
10:u5november,
10:b4november,
14:u5twenty-third,
10:u1november,
10:u3november,
14:b4twenty-third,
6:*0year,
14:u1twenty-third,
6:*2year,
14:u3twenty-third,
6:*01991,
6:*21991,
6:u5year,
5:*0i'd,
6:u1this,
5:*2i'd,
6:u3this,
6:b4year,
6:u51991,
6:u1year,
6:u3year,
6:b41991,
6:u11991,
6:u31991,
6:*0just,
6:*2just,
6:u5okay,
6:b4okay,
6:u5just,
6:u1okay,
6:u3okay,
6:b4just,
6:u1just,
6:u3just,
5:*08am,
5:*28am,
5:u58am,
7:u5hello,
7:b4hello,
7:u1hello,
7:u3hello,
7:*0let's,
7:*2let's,
5:*0see,
5:*2see,
7:u5let's,
7:b4let's,
5:u5see,
7:u1let's,
7:u3let's,
5:b4see,
5:u1see,
5:u3see,
15:*0delta-airline,
15:*2delta-airline,
15:u5delta-airline,
15:b4delta-airline,
15:u1delta-airline,
15:u3delta-airline,
7:*0stops,
7:*2stops,
7:u5stops,
7:b4stops,
7:u1stops,
7:u3stops,
5:*0way,
5:*2way,
5:u5way,
5:b4way,
5:u1way,
5:u3way,
5:*0all,
5:*2all,
8:*0united,
8:*2united,
8:u5united,
8:b4united,
8:u1united,
8:u3united,
7:*0815am,
7:*2815am,
7:u5815am,
4:*0by,
4:*2by,
16:*0united-airline,
16:*2united-airline,
4:u5by,
4:b4by,
16:u5united-airline,
16:b4united-airline,
16:u1united-airline,
16:u3united-airline,
4:u5oh,
4:b4oh,
4:u1oh,
4:u3oh,
17:*0eastern-airline,
17:*2eastern-airline,
17:u5eastern-airline,
17:b4eastern-airline,
17:u1eastern-airline,
17:u3eastern-airline,
6:*0some,
6:*2some,
6:u5some,
6:b4some,
6:u1some,
6:u3some,
5:*09am,
5:*29am,
5:u59am,
16:*0dallas-airport,
16:*2dallas-airport,
16:u5dallas-airport,
16:b4dallas-airport,
16:u1dallas-airport,
16:u3dallas-airport,
14:*0arrangements,
14:*2arrangements,
14:u5arrangements,
14:b4arrangements,
14:u1arrangements,
14:u3arrangements,
16:*0boston-airport,
16:*2boston-airport,
16:u5boston-airport,
16:b4boston-airport,
16:u1boston-airport,
16:u3boston-airport,
5:*0can,
5:*2can,
11:*0departing,
11:*2departing,
11:u5departing,
11:b4departing,
11:u1departing,
11:u3departing,
9:*0airfare,
9:*2airfare,
9:u5airfare,
9:b4airfare,
9:u1airfare,
9:u3airfare,
13:*0329-dollars,
13:*2329-dollars,
13:u5329-dollars,
13:b4329-dollars,
13:u1329-dollars,
13:u3329-dollars,
6:*0cost,
6:*2cost,
6:u5cost,
6:b4cost,
6:u1cost,
6:u3cost,
5:*0air,
5:*2air,
14:*0restrictions,
14:*2restrictions,
5:u5air,
5:b4air,
14:u5restrictions,
5:u1air,
5:u3air,
14:b4restrictions,
14:u1restrictions,
14:u3restrictions,
13:*0416-dollars,
13:*2416-dollars,
13:u5416-dollars,
6:*0book,
6:*2book,
6:u5book,
6:b4book,
6:u1book,
6:u3book,
7:*0coach,
7:*2coach,
10:*0discount,
10:*2discount,
7:u5coach,
7:b4coach,
10:u5discount,
7:u1coach,
7:u3coach,
10:b4discount,
9:*0arrange,
9:*2arrange,
9:u5arrange,
9:b4arrange,
9:u1arrange,
9:u3arrange,
6:*0july,
6:*2july,
9:*0seventh,
9:*2seventh,
6:u5july,
6:b4july,
9:u5seventh,
6:u5sure,
6:b4sure,
6:u1sure,
6:u3sure,
11:*0determine,
11:*2determine,
11:u5determine,
11:b4determine,
11:u1determine,
11:u3determine,
6:u1july,
6:u3july,
9:b4seventh,
9:u1seventh,
9:u3seventh,
6:*0meal,
6:*2meal,
7:*0being,
7:*2being,
6:u5meal,
8:*0served,
8:*2served,
6:b4meal,
7:u5being,
6:u1meal,
6:u3meal,
7:b4being,
8:u5served,
5:b48am,
6:*0such,
5:u18am,
6:*2such,
5:u38am,
6:u5such,
6:b4such,
6:u1such,
6:u3such,
7:*0types,
7:*2types,
7:u5types,
7:b4types,
7:u1types,
7:u3types,
6:*0dc10,
6:*2dc10,
6:u5dc10,
10:*0sometime,
10:*2sometime,
10:u5sometime,
10:b4sometime,
10:u1sometime,
10:u3sometime,
8:*0direct,
8:*2direct,
8:u5direct,
8:b4direct,
8:u1direct,
8:u3direct,
9:*012-noon,
9:*212-noon,
9:u512-noon,
9:*0arrives,
9:*2arrives,
9:u5arrives,
9:b4arrives,
9:u1arrives,
9:u3arrives,
15:u1early-morning,
15:u3early-morning,
15:*0approximately,
15:*2approximately,
5:*01pm,
5:*21pm,
15:u5approximately,
15:b4approximately,
5:u51pm,
6:*0many,
6:*2many,
6:u5many,
6:b4many,
6:u1many,
6:u3many,
7:*0where,
7:*2where,
7:u5where,
7:b4where,
7:u1where,
7:u3where,
13:*0dinner-meal,
13:*2dinner-meal,
13:u5dinner-meal,
5:*0420,
5:*2420,
5:u5420,
5:b4420,
5:u1420,
5:u3420,
3:*05,
3:*25,
3:u55,
3:b45,
3:u15,
3:u35,
4:*0my,
4:*2my,
7:*0final,
7:*2final,
4:u5my,
13:*0destination,
13:*2destination,
4:b4my,
7:u5final,
4:u1my,
4:u3my,
7:b4final,
13:u5destination,
7:u1final,
7:u3final,
13:b4destination,
13:u1destination,
13:u3destination,
11:*0originate,
11:*2originate,
11:u5originate,
11:b4originate,
11:u1originate,
11:u3originate,
22:*0latest-time-possible,
22:*2latest-time-possible,
22:u5latest-time-possible,
22:b4latest-time-possible,
22:u1latest-time-possible,
22:u3latest-time-possible,
11:*0fifteenth,
11:*2fifteenth,
11:u5fifteenth,
8:*0during,
8:*2during,
11:*0breakfast,
11:*2breakfast,
8:u5during,
8:b4during,
11:u5breakfast,
5:*0296,
5:*2296,
8:*0serves,
8:*2serves,
5:u5296,
5:b4296,
8:u5serves,
5:u1296,
5:u3296,
8:b4serves,
7:u5first,
7:b4first,
7:u1first,
7:u3first,
17:*0early-afternoon,
17:*2early-afternoon,
17:u5early-afternoon,
8:*0should,
8:*2should,
8:u5should,
8:b4should,
8:u1should,
8:u3should,
7:*0615pm,
7:*2615pm,
7:u5615pm,
7:*0their,
7:*2their,
7:u5their,
7:b4their,
7:u1their,
7:u3their,
24:*0earliest-possible-time,
24:*2earliest-possible-time,
24:u5earliest-possible-time,
10:*0question,
10:*2question,
10:u5question,
10:b4question,
10:u1question,
10:u3question,
6:*0live,
6:*2live,
6:u5live,
6:b4live,
6:u1live,
6:u3live,
8:*0trying,
8:*2trying,
8:u5trying,
8:b4trying,
8:u1trying,
8:u3trying,
12:*0connection,
12:*2connection,
12:u5connection,
12:b4connection,
12:u1connection,
12:u3connection,
7:*0those,
7:*2those,
7:u5those,
7:b4those,
11:*0thirtieth,
11:*2thirtieth,
11:u5thirtieth,
11:b4thirtieth,
11:u1thirtieth,
11:u3thirtieth,
6:u5fine,
6:b4fine,
6:u1fine,
6:u3fine,
6:*0help,
6:*2help,
6:u5help,
6:b4help,
6:u1help,
6:u3help,
6:*0very,
6:*2very,
5:*0now,
5:*2now,
5:u5now,
5:b4now,
5:u1now,
5:u3now,
5:*0747,
5:*2747,
5:u5747,
5:b4747,
5:u1747,
5:u3747,
6:*0able,
6:*2able,
6:u5able,
5:*0put,
5:*2put,
6:b4able,
6:u1able,
6:u3able,
5:u5put,
5:b4put,
5:u1put,
5:u3put,
16:*0twenty-seventh,
16:*2twenty-seventh,
16:u5twenty-seventh,
16:b4twenty-seventh,
16:u1twenty-seventh,
16:u3twenty-seventh,
7:*0first,
7:*2first,
7:*0night,
7:*2night,
7:u5night,
7:b4night,
7:u1night,
7:u3night,
7:u5630am,
7:b4630am,
7:u1630am,
7:u3630am,
5:*0650,
5:*2650,
5:u5650,
7:*0third,
7:*2third,
7:u5third,
7:*0rates,
7:*2rates,
7:u5rates,
7:b4rates,
7:u1rates,
7:u3rates,
17:*0least-expensive,
17:*2least-expensive,
17:u5least-expensive,
17:b4least-expensive,
17:u1least-expensive,
17:u3least-expensive,
16:*0city-of-boston,
16:*2city-of-boston,
16:u5city-of-boston,
16:b4city-of-boston,
16:u1city-of-boston,
16:u3city-of-boston,
8:u5kindly,
8:b4kindly,
8:u1kindly,
8:u3kindly,
8:*0inform,
8:*2inform,
8:u5inform,
8:b4inform,
8:u1inform,
8:u3inform,
17:*012-o'clock-noon,
17:*212-o'clock-noon,
17:u512-o'clock-noon,
9:*0eastern,
9:*2eastern,
9:u5eastern,
5:*0825,
5:*2825,
9:b4eastern,
9:u1eastern,
9:u3eastern,
5:u5825,
5:b4825,
5:u1825,
5:u3825,
6:*0when,
6:*2when,
6:u5when,
6:b4when,
6:u1when,
6:u3when,
5:*0555,
5:*2555,
5:u5555,
5:b4555,
5:u1555,
5:u3555,
5:*06pm,
5:*26pm,
5:u56pm,
5:*05pm,
5:*25pm,
5:u55pm,
7:*0sorry,
7:*2sorry,
7:u5sorry,
7:b4sorry,
7:u1sorry,
7:u3sorry,
14:*0thirty-first,
14:*2thirty-first,
14:u5thirty-first,
14:b4thirty-first,
14:u1thirty-first,
14:u3thirty-first,
6:*0then,
6:*2then,
6:u5then,
6:b4then,
6:u1then,
6:u3then,
8:*0fourth,
8:*2fourth,
8:u5fourth,
8:b4fourth,
8:u1fourth,
8:u3fourth,
6:*0plan,
6:*2plan,
6:u5plan,
6:b4plan,
6:u1plan,
6:u3plan,
10:*0no-stops,
10:*2no-stops,
10:u5no-stops,
10:b4no-stops,
10:u1no-stops,
10:u3no-stops,
9:*0economy,
9:*2economy,
9:u5economy,
9:b4economy,
9:u1economy,
9:u3economy,
7:*0fifth,
7:*2fifth,
10:b4thursday,
10:u1thursday,
10:u3thursday,
7:u5fifth,
7:b4fifth,
7:u1fifth,
7:u3fifth,
15:*0twenty-eighth,
15:*2twenty-eighth,
15:u5twenty-eighth,
9:*0october,
9:*2october,
9:u5october,
9:b4october,
9:*0twelfth,
9:*2twelfth,
9:u5twelfth,
9:*0numbers,
9:*2numbers,
9:u5numbers,
9:*0connect,
9:*2connect,
9:u5connect,
9:b4connect,
9:u1connect,
9:u3connect,
8:*0cities,
8:*2cities,
7:u1those,
7:u3those,
8:u5cities,
5:*0may,
5:*2may,
10:*0planning,
10:*2planning,
10:u5planning,
10:b4planning,
10:u1planning,
10:u3planning,
5:*0269,
5:*2269,
5:u5269,
5:b4269,
5:u1269,
5:u3269,
5:*0428,
5:*2428,
5:u5428,
5:b4428,
5:u1428,
5:u3428,
7:*0times,
7:*2times,
7:u5times,
7:b4times,
7:u1times,
7:u3times,
7:*0makes,
7:*2makes,
7:u5makes,
7:b4makes,
7:u1makes,
7:u3makes,
10:*0one-stop,
10:*2one-stop,
10:u5one-stop,
10:b4one-stop,
10:u1one-stop,
10:u3one-stop,
7:*0april,
7:*2april,
7:u5april,
7:b4april,
7:u1april,
7:u3april,
14:b4twenty-first,
14:u1twenty-first,
14:u3twenty-first,
11:*0beginning,
11:*2beginning,
11:u5beginning,
11:b4beginning,
14:*0twenty-fifth,
11:u1beginning,
14:*2twenty-fifth,
11:u3beginning,
14:u5twenty-fifth,
11:*0returning,
11:*2returning,
14:b4twenty-fifth,
14:u1twenty-fifth,
14:u3twenty-fifth,
11:u5returning,
11:b4returning,
7:*0sixth,
11:u1returning,
7:*2sixth,
11:u3returning,
7:u5sixth,
11:*07-o'clock,
11:*27-o'clock,
11:u57-o'clock,
11:b47-o'clock,
11:u17-o'clock,
11:u37-o'clock,
11:b4fifteenth,
11:u1fifteenth,
11:u3fifteenth,
9:*0sixteen,
9:*2sixteen,
9:u5sixteen,
9:b4sixteen,
9:u1sixteen,
9:u3sixteen,
11:*0seventeen,
11:*2seventeen,
11:u5seventeen,
11:b4seventeen,
11:u1seventeen,
11:u3seventeen,
8:*0twenty,
8:*2twenty,
8:u5twenty,
8:b4twenty,
8:u1twenty,
8:u3twenty,
11:b48-o'clock,
11:u18-o'clock,
11:u38-o'clock,
6:*0four,
6:*2four,
6:u5four,
6:b4four,
6:u1four,
6:u3four,
6:*01039,
6:*21039,
6:u51039,
6:b41039,
6:u11039,
6:u31039,
5:*0257,
5:*2257,
5:u5257,
7:*0we're,
7:*2we're,
7:u5great,
7:b4great,
7:u1great,
7:u3great,
8:*0depart,
8:*2depart,
8:u5depart,
8:b4depart,
8:u1depart,
8:u3depart,
8:*0sounds,
8:*2sounds,
7:*0great,
7:*2great,
8:u5sounds,
8:b4sounds,
8:u1sounds,
8:u3sounds,
12:*0twenty-one,
12:*2twenty-one,
12:u5twenty-one,
12:b4twenty-one,
12:u1twenty-one,
12:u3twenty-one,
7:*0one's,
7:*2one's,
7:u5one's,
5:*0too,
5:*2too,
7:b4one's,
7:u1one's,
7:u3one's,
5:u5too,
5:b4too,
5:u1too,
5:u3too,
15:*0twenty-second,
15:*2twenty-second,
15:u5twenty-second,
15:b4twenty-second,
15:u1twenty-second,
15:u3twenty-second,
11:*0nighttime,
11:*2nighttime,
11:*0departure,
11:*2departure,
11:u5nighttime,
11:b4nighttime,
11:u5departure,
11:u1nighttime,
11:u3nighttime,
11:b4departure,
6:u5show,
6:b4show,
6:u1show,
6:u3show,
19:*0dallas-fort-worth,
19:*2dallas-fort-worth,
19:u5dallas-fort-worth,
29:*0san-francisco-international,
29:*2san-francisco-international,
19:b4dallas-fort-worth,
19:u1dallas-fort-worth,
19:u3dallas-fort-worth,
29:u5san-francisco-international,
10:*0arrivals,
10:*2arrivals,
10:u5arrivals,
10:b4arrivals,
10:u1arrivals,
10:u3arrivals,
6:*0most,
6:*2most,
6:u5most,
6:b4most,
6:u1most,
6:u3most,
13:*0connections,
13:*2connections,
13:u5connections,
13:b4connections,
13:u1connections,
13:u3connections,
7:*0tenth,
7:*2tenth,
7:u5tenth,
7:b4tenth,
10:*0eleventh,
10:*2eleventh,
10:u5eleventh,
6:*0june,
6:*2june,
6:u5june,
6:b4june,
6:u1june,
6:u3june,
16:*0business-class,
16:*2business-class,
16:u5business-class,
7:*0daily,
7:*2daily,
7:u5daily,
7:b4daily,
7:u1daily,
7:u3daily,
19:*0stapleton-airport,
19:*2stapleton-airport,
19:u5stapleton-airport,
10:*0tomorrow,
10:*2tomorrow,
19:b4stapleton-airport,
19:u1stapleton-airport,
19:u3stapleton-airport,
10:u5tomorrow,
10:b4tomorrow,
8:*0thrift,
8:*2thrift,
8:u5thrift,
8:b4thrift,
8:u1thrift,
8:u3thrift,
13:*0restriction,
13:*2restriction,
9:u5explain,
6:*0ap80,
6:*2ap80,
9:b4explain,
13:u5restriction,
9:u1explain,
9:u3explain,
13:b4restriction,
6:u5ap80,
6:*0code,
6:*2code,
4:*0qx,
4:*2qx,
6:u5code,
6:b4code,
4:u5qx,
13:*0represented,
13:*2represented,
13:u5represented,
13:b4represented,
10:*0database,
13:u1represented,
10:*2database,
13:u3represented,
10:u5database,
5:*07pm,
5:*27pm,
5:u57pm,
5:b47pm,
5:u17pm,
5:u37pm,
5:*0315,
5:*2315,
5:u5315,
4:*0aa,
4:*2aa,
5:*0459,
5:*2459,
4:u5aa,
4:b4aa,
5:u5459,
4:u1aa,
4:u3aa,
5:b4459,
5:*0m80,
5:*2m80,
5:u5m80,
8:b4cities,
8:u1cities,
8:u3cities,
9:*0besides,
9:*2besides,
9:u5besides,
9:b4besides,
9:u1besides,
9:u3besides,
9:*0provide,
9:*2provide,
9:u5provide,
9:b4provide,
9:u1provide,
9:u3provide,
5:*0jet,
5:*2jet,
5:u5jet,
5:b4jet,
5:u1jet,
5:u3jet,
6:*0only,
6:*2only,
6:u5only,
6:b4only,
6:u1only,
6:u3only,
7:*0today,
7:*2today,
7:u5today,
4:*0dl,
4:*2dl,
4:u5dl,
11:*0different,
11:*2different,
11:u5different,
9:*0classes,
9:*2classes,
11:b4different,
11:u1different,
11:u3different,
9:u5classes,
9:b4classes,
9:u1classes,
9:u3classes,
3:*0b,
3:*2b,
3:u5b,
6:*0same,
6:u1code,
6:*2same,
6:u3code,
3:b4b,
3:u1b,
3:u3b,
6:u5same,
6:b4same,
6:u1same,
6:u3same,
3:*0c,
3:*2c,
3:u5c,
9:*0booking,
9:*2booking,
9:u5booking,
9:b4booking,
9:u1booking,
9:u3booking,
4:*0yn,
4:*2yn,
4:u5yn,
15:*0no-later-than,
15:*2no-later-than,
5:*02pm,
5:*22pm,
15:u5no-later-than,
15:b4no-later-than,
5:u52pm,
15:u1no-later-than,
15:u3no-later-than,
5:b42pm,
5:u12pm,
5:u32pm,
8:u5what's,
8:b4what's,
8:u1what's,
8:u3what's,
6:*0ap57,
6:*2ap57,
6:u5ap57,
7:*0codes,
7:*2codes,
8:*0belong,
8:*2belong,
7:u5codes,
7:b4codes,
8:u5belong,
15:*0economy-class,
7:u1codes,
15:*2economy-class,
7:u3codes,
8:b4belong,
8:u1belong,
8:u3belong,
15:u5economy-class,
5:*0via,
5:*2via,
5:u5via,
5:b4via,
9:*0layover,
9:*2layover,
9:u5layover,
9:b4layover,
9:u1layover,
9:u3layover,
6:*0more,
6:*2more,
6:u5more,
6:b4more,
6:*0than,
6:u1more,
6:*2than,
6:u3more,
16:b4business-class,
16:u1business-class,
16:u3business-class,
6:u5than,
7:*0other,
7:*2other,
6:b4than,
6:u1than,
6:u3than,
7:u5other,
7:b4other,
15:b4economy-class,
15:u1economy-class,
15:u3economy-class,
16:*0late-afternoon,
16:*2late-afternoon,
16:u5late-afternoon,
16:b4late-afternoon,
16:u1late-afternoon,
16:u3late-afternoon,
5:b41pm,
5:u11pm,
5:u31pm,
11:*03-o'clock,
11:*23-o'clock,
11:u53-o'clock,
11:b43-o'clock,
11:u13-o'clock,
11:u33-o'clock,
9:b412-noon,
9:u112-noon,
9:u312-noon,
9:*0delta's,
9:*2delta's,
9:u5delta's,
9:b4delta's,
9:u1delta's,
9:u3delta's,
12:*0rental-car,
12:*2rental-car,
12:u5rental-car,
12:b4rental-car,
12:u1rental-car,
12:u3rental-car,
5:*0far,
5:*2far,
5:u5far,
5:b4far,
5:u1far,
5:u3far,
10:*0saturday,
10:*2saturday,
10:u5saturday,
10:b4saturday,
6:*0come,
6:*2come,
6:u5come,
6:b4come,
6:u1come,
6:u3come,
10:*0smallest,
10:*2smallest,
9:*0seating,
9:*2seating,
10:u5smallest,
10:*0capacity,
10:*2capacity,
10:b4smallest,
9:u5seating,
10:u1smallest,
10:u3smallest,
9:b4seating,
10:u5capacity,
16:*0most-expensive,
16:*2most-expensive,
16:u5most-expensive,
9:*0tickets,
9:*2tickets,
16:b4most-expensive,
16:u1most-expensive,
16:u3most-expensive,
9:u5tickets,
9:b4tickets,
9:u1tickets,
9:u3tickets,
11:*0atlanta's,
11:*2atlanta's,
11:u5atlanta's,
11:b4atlanta's,
6:*0noon,
6:*2noon,
6:u5noon,
6:b4noon,
6:u1noon,
6:u3noon,
13:*0originating,
13:*2originating,
13:u5originating,
13:b4originating,
13:u1originating,
13:u3originating,
7:*0210pm,
7:*2210pm,
7:u5210pm,
8:*0eighth,
8:*2eighth,
8:u5eighth,
7:*0ninth,
7:*2ninth,
7:u5ninth,
8:*0offers,
8:*2offers,
8:u5offers,
8:b4offers,
8:u1offers,
8:u3offers,
9:*0heading,
9:*2heading,
9:u5heading,
9:b4heading,
9:u1heading,
9:u3heading,
5:*0279,
5:*2279,
5:u5279,
5:b4279,
5:u1279,
5:u3279,
8:*0137338,
8:*2137338,
8:u5137338,
7:*0630am,
7:*2630am,
3:*03,
3:*23,
3:u53,
3:b43,
3:u13,
3:u33,
11:*01-o'clock,
11:*21-o'clock,
11:u51-o'clock,
8:*0toward,
8:*2toward,
8:u5toward,
8:b4toward,
8:u1toward,
8:u3toward,
17:*0oakland-airport,
17:*2oakland-airport,
17:u5oakland-airport,
6:*0each,
6:*2each,
6:u5each,
6:b4each,
6:u1each,
6:u3each,
3:*0k,
3:*2k,
3:u5k,
11:*0lufthansa,
11:*2lufthansa,
11:u5lufthansa,
11:b4lufthansa,
11:u1lufthansa,
11:u3lufthansa,
14:*0twenty-sixth,
14:*2twenty-sixth,
14:u5twenty-sixth,
14:b4twenty-sixth,
6:*0name,
6:*2name,
6:u5name,
6:b4name,
6:u1name,
6:u3name,
22:*0philadelphia-airport,
22:*2philadelphia-airport,
22:u5philadelphia-airport,
22:b4philadelphia-airport,
22:u1philadelphia-airport,
22:u3philadelphia-airport,
3:*01,
3:*21,
3:u51,
3:b41,
3:u11,
3:u31,
3:*04,
3:*24,
3:u54,
3:b44,
3:u14,
3:u34,
16:*0departure-time,
16:*2departure-time,
16:u5departure-time,
16:b4departure-time,
16:u1departure-time,
16:u3departure-time,
17:b4early-afternoon,
17:u1early-afternoon,
17:u3early-afternoon,
11:*0limousine,
11:*2limousine,
11:u5limousine,
7:*0total,
7:*2total,
7:u5total,
7:b4total,
7:u1total,
7:u3total,
9:u1seating,
9:u3seating,
10:b4capacity,
10:u1capacity,
10:u3capacity,
12:*0advertises,
12:*2advertises,
8:*0having,
8:*2having,
12:u5advertises,
12:b4advertises,
8:u5having,
12:u1advertises,
12:u3advertises,
8:b4having,
8:u1having,
8:u3having,
3:*0f,
3:*2f,
3:u5f,
15:*0logan-airport,
15:*2logan-airport,
15:u5logan-airport,
11:u1departure,
11:u3departure,
20:*0pittsburgh-airport,
20:*2pittsburgh-airport,
20:u5pittsburgh-airport,
20:b4pittsburgh-airport,
6:*0town,
20:u1pittsburgh-airport,
6:*2town,
20:u3pittsburgh-airport,
6:u5town,
7:*0kinds,
7:*2kinds,
7:u5kinds,
7:b4kinds,
7:u1kinds,
7:u3kinds,
41:*0dallas-fort-worth-international-airport,
41:*2dallas-fort-worth-international-airport,
11:b4limousine,
11:u1limousine,
11:u3limousine,
41:u5dallas-fort-worth-international-airport,
41:b4dallas-fort-worth-international-airport,
41:u1dallas-fort-worth-international-airport,
41:u3dallas-fort-worth-international-airport,
7:*0eight,
7:*2eight,
7:u5eight,
8:*0within,
8:*2within,
8:u5within,
8:b4within,
22:*0schedule-for-flights,
22:*2schedule-for-flights,
22:u5schedule-for-flights,
22:b4schedule-for-flights,
22:u1schedule-for-flights,
22:u3schedule-for-flights,
4:*0s-,
4:*2s-,
11:*0designate,
11:*2designate,
4:u5s-,
4:b4s-,
11:u5designate,
4:u1s-,
4:u3s-,
11:b4designate,
11:u1designate,
11:u3designate,
7:*0takes,
7:*2takes,
7:u5takes,
7:*0least,
7:*2least,
7:b4takes,
8:*0amount,
7:u1takes,
8:*2amount,
7:u3takes,
7:u5least,
7:b4least,
8:u5amount,
7:u1least,
7:u3least,
8:b4amount,
8:u1amount,
8:u3amount,
8:*0planes,
8:*2planes,
8:u5planes,
8:b4planes,
8:u1planes,
8:u3planes,
9:*0usa-air,
9:*2usa-air,
9:u5usa-air,
9:b4usa-air,
9:u1usa-air,
9:u3usa-air,
8:*0prices,
8:*2prices,
8:u5prices,
8:b4prices,
8:u1prices,
8:u3prices,
8:*0what's,
8:*2what's,
9:*0various,
9:*2various,
11:*0airplanes,
11:*2airplanes,
9:u5various,
9:b4various,
11:u5airplanes,
9:u1various,
9:u3various,
11:b4airplanes,
6:*0uses,
11:u1airplanes,
6:*2uses,
11:u3airplanes,
6:u5uses,
5:*0who,
5:*2who,
5:u5who,
5:b4who,
5:b49am,
5:u19am,
5:u39am,
17:*0time-of-arrival,
17:*2time-of-arrival,
17:u5time-of-arrival,
17:b4time-of-arrival,
17:u1time-of-arrival,
17:u3time-of-arrival,
17:*0departure-times,
17:*2departure-times,
17:u5departure-times,
17:b4departure-times,
17:u1departure-times,
17:u3departure-times,
5:*08pm,
5:*28pm,
5:u58pm,
19:*0baltimore-airport,
19:*2baltimore-airport,
19:u5baltimore-airport,
6:*0show,
6:*2show,
11:*0including,
11:*2including,
11:u5including,
11:b4including,
11:u1including,
11:u3including,
7:*0offer,
7:*2offer,
7:u5offer,
7:b4offer,
7:u1offer,
7:u3offer,
6:b4dc10,
6:u1dc10,
6:u3dc10,
8:*0eleven,
8:*2eleven,
8:u5eleven,
8:b4eleven,
8:u1eleven,
8:u3eleven,
9:*0any-day,
9:*2any-day,
9:u5any-day,
9:b4any-day,
9:u1any-day,
9:u3any-day,
5:*0352,
5:*2352,
5:u5352,
5:b4352,
5:u1352,
5:u3352,
7:*0price,
7:*2price,
7:u5price,
7:b4price,
7:u1price,
7:u3price,
11:*0operating,
11:*2operating,
11:u5operating,
9:*0sundays,
9:*2sundays,
11:b4operating,
11:u1operating,
11:u3operating,
9:u5sundays,
10:*0services,
10:*2services,
10:u5services,
10:b4services,
10:u1services,
10:u3services,
14:*0reservations,
14:*2reservations,
14:u5reservations,
14:b4reservations,
14:u1reservations,
14:u3reservations,
6:*01765,
6:*21765,
6:u51765,
6:b41765,
6:u11765,
6:u31765,
17:*0flight-schedule,
17:*2flight-schedule,
17:u5flight-schedule,
17:b4flight-schedule,
5:*0f28,
17:u1flight-schedule,
5:*2f28,
17:u3flight-schedule,
5:u5f28,
5:b4f28,
5:u1f28,
5:u3f28,
20:*0air-taxi-operation,
20:*2air-taxi-operation,
20:u5air-taxi-operation,
36:*0philadelphia-international-airport,
36:*2philadelphia-international-airport,
20:b4air-taxi-operation,
20:u1air-taxi-operation,
20:u3air-taxi-operation,
36:u5philadelphia-international-airport,
4:*0pm,
4:*2pm,
4:u5pm,
4:b4pm,
4:u1pm,
4:u3pm,
9:*0serving,
9:*2serving,
9:u5serving,
9:b4serving,
9:u1serving,
9:u3serving,
11:b4breakfast,
11:u1breakfast,
11:u3breakfast,
8:b4served,
8:u1served,
8:u3served,
10:u5anything,
10:b4anything,
10:u1anything,
10:u3anything,
5:*0say,
5:*2say,
5:u5say,
10:*0mealtime,
10:*2mealtime,
5:b4say,
5:u1say,
5:u3say,
10:u5mealtime,
7:*0thank,
7:*2thank,
5:*0run,
5:*2run,
5:u5run,
5:b4run,
5:u1run,
5:u3run,
7:*0seats,
7:*2seats,
7:u5seats,
7:b4seats,
7:u1seats,
7:u3seats,
7:u1other,
7:u3other,
9:*0earlier,
9:*2earlier,
9:u5earlier,
6:*01017,
6:*21017,
9:b4earlier,
9:u1earlier,
9:u3earlier,
6:u51017,
6:b41017,
6:u11017,
6:u31017,
5:*0630,
5:*2630,
5:u5630,
14:*05-o'clock-pm,
14:*25-o'clock-pm,
14:u55-o'clock-pm,
14:*04-o'clock-pm,
14:*24-o'clock-pm,
14:u54-o'clock-pm,
7:*0later,
7:*2later,
7:u5later,
7:b4later,
7:u1later,
7:u3later,
14:*06-o'clock-pm,
14:*26-o'clock-pm,
14:u56-o'clock-pm,
5:b46pm,
5:u16pm,
5:u36pm,
10:*0serviced,
10:*2serviced,
10:u5serviced,
10:b4serviced,
10:u1serviced,
10:u3serviced,
5:*0dfw,
5:*2dfw,
5:u5dfw,
5:b4dfw,
5:u1dfw,
5:u3dfw,
8:*01133am,
8:*21133am,
8:u51133am,
6:*043pm,
6:*243pm,
8:b41133am,
8:u11133am,
8:u31133am,
6:u543pm,
10:*0provided,
10:*2provided,
10:u5provided,
10:b4provided,
10:u1provided,
10:u3provided,
4:u1by,
4:u3by,
10:*0provides,
10:*2provides,
10:u5provides,
10:b4provides,
10:u1provides,
10:u3provides,
6:*0both,
6:*2both,
6:u5both,
6:b4both,
6:u1both,
6:u3both,
7:*0meals,
7:*2meals,
7:u5meals,
7:b4meals,
7:u1meals,
7:u3meals,
10:*0airplane,
10:*2airplane,
10:u5airplane,
10:b4airplane,
10:u1airplane,
10:u3airplane,
11:*06-o'clock,
11:*26-o'clock,
8:*0sunday,
8:*2sunday,
11:u56-o'clock,
11:b46-o'clock,
8:u5sunday,
11:u16-o'clock,
11:u36-o'clock,
8:b4sunday,
6:*0mean,
6:*2mean,
6:u5mean,
3:b48,
3:u18,
3:u38,
14:b4twenty-ninth,
14:u1twenty-ninth,
14:u3twenty-ninth,
7:b4third,
7:u1third,
7:u3third,
12:*0american's,
12:*2american's,
12:u5american's,
12:b4american's,
12:u1american's,
12:u3american's,
5:*0bwi,
5:*2bwi,
5:u5bwi,
5:b4bwi,
5:u1bwi,
5:u3bwi,
7:*0still,
7:*2still,
7:u5still,
7:b4still,
7:u1still,
7:u3still,
7:*0cover,
7:*2cover,
7:u5cover,
7:b4cover,
7:u1cover,
7:u3cover,
6:*0less,
6:*2less,
6:u5less,
13:*0200-dollars,
13:*2200-dollars,
6:b4less,
6:u1less,
6:u3less,
13:u5200-dollars,
13:b4200-dollars,
5:*0oak,
5:*2oak,
5:u5oak,
5:*0atl,
5:*2atl,
5:b4oak,
5:u1oak,
5:u3oak,
5:u5atl,
9:*0qx-fare,
9:*2qx-fare,
9:u5qx-fare,
9:b4qx-fare,
9:u1qx-fare,
9:u3qx-fare,
14:*0lowest-price,
14:*2lowest-price,
14:u5lowest-price,
14:b4lowest-price,
14:u1lowest-price,
14:u3lowest-price,
4:*082,
4:*282,
4:u582,
4:b482,
5:*0139,
4:u182,
5:*2139,
4:u382,
5:u5139,
9:*0q-fares,
9:*2q-fares,
9:u5q-fares,
9:b4q-fares,
9:u1q-fares,
9:u3q-fares,
13:*0124-dollars,
13:*2124-dollars,
13:u5124-dollars,
13:b4124-dollars,
13:u1124-dollars,
13:u3124-dollars,
4:*0ls,
4:*2ls,
7:*0stand,
7:*2stand,
4:u5ls,
4:b4ls,
7:u5stand,
4:u1ls,
4:u3ls,
7:b4stand,
7:*0level,
7:*2level,
7:u5level,
9:*0carries,
9:*2carries,
9:u5carries,
9:b4carries,
9:u1carries,
9:u3carries,
12:*0passengers,
12:*2passengers,
12:u5passengers,
6:*01505,
6:*21505,
6:u51505,
6:b41505,
6:u11505,
6:u31505,
7:*0serve,
7:*2serve,
7:*0lunch,
7:*2lunch,
7:u5serve,
7:b4serve,
7:u5lunch,
11:*0itinerary,
11:*2itinerary,
11:u5itinerary,
11:b4itinerary,
11:u1itinerary,
11:u3itinerary,
12:b4connecting,
12:u1connecting,
12:u3connecting,
9:*0departs,
9:*2departs,
9:u5departs,
9:b4departs,
9:u1departs,
9:u3departs,
7:*0local,
7:*2local,
7:u5local,
7:b4local,
8:*0either,
8:*2either,
8:u5either,
8:b4either,
8:u1either,
8:u3either,
27:*0dallas-fort-worth-airport,
27:*2dallas-fort-worth-airport,
27:u5dallas-fort-worth-airport,
27:b4dallas-fort-worth-airport,
27:u1dallas-fort-worth-airport,
27:u3dallas-fort-worth-airport,
6:*01940,
6:*21940,
6:u51940,
12:b4passengers,
8:*0boeing,
12:u1passengers,
8:*2boeing,
12:u3passengers,
5:*0737,
5:*2737,
8:u5boeing,
6:*0hold,
6:*2hold,
8:b4boeing,
5:u5737,
8:u1boeing,
8:u3boeing,
5:b4737,
6:u5hold,
3:*06,
3:*26,
3:u56,
3:b46,
3:u16,
3:u36,
9:*0qualify,
9:*2qualify,
9:u5qualify,
9:b4qualify,
9:u1qualify,
9:u3qualify,
10:u5describe,
10:b4describe,
10:u1describe,
10:u3describe,
5:*0j31,
5:*2j31,
5:u5j31,
5:b4j31,
5:*0733,
5:*2733,
5:u5733,
5:*072s,
5:*272s,
5:u572s,
5:*0734,
5:*2734,
5:u5734,
5:*0100,
5:*2100,
5:u5100,
13:*0415-dollars,
13:*2415-dollars,
13:u5415-dollars,
5:*0705,
5:*2705,
5:u5705,
5:b4705,
5:u1705,
5:u3705,
4:*071,
4:*271,
4:u571,
4:b471,
4:u171,
4:u371,
10:*0directly,
10:*2directly,
10:u5directly,
10:b4directly,
10:u1directly,
10:u3directly,
11:*0scheduled,
11:*2scheduled,
11:u5scheduled,
10:*0december,
10:*2december,
11:b4scheduled,
11:u1scheduled,
11:u3scheduled,
10:u5december,
10:b4december,
11:*0turboprop,
11:*2turboprop,
11:u5turboprop,
11:b4turboprop,
11:u1turboprop,
11:u3turboprop,
9:*0doesn't,
9:*2doesn't,
9:u5doesn't,
7:*0catch,
7:*2catch,
7:u5catch,
7:b4catch,
7:u1catch,
7:u3catch,
20:*0lufthansa-airlines,
20:*2lufthansa-airlines,
20:u5lufthansa-airlines,
20:b4lufthansa-airlines,
20:u1lufthansa-airlines,
20:u3lufthansa-airlines,
10:u1saturday,
10:u3saturday,
7:*0logan,
7:*2logan,
7:u5logan,
7:b4logan,
7:u1logan,
7:u3logan,
11:*02-o'clock,
11:*22-o'clock,
11:u52-o'clock,
11:b42-o'clock,
11:u12-o'clock,
11:u32-o'clock,
10:*0distance,
10:*2distance,
10:u5distance,
10:b4distance,
10:u1distance,
10:u3distance,
10:*0tuesdays,
10:*2tuesdays,
10:u5tuesdays,
11:*0companies,
11:*2companies,
11:u5companies,
11:b4companies,
11:u1companies,
11:u3companies,
8:u1serves,
8:u3serves,
8:*0people,
8:*2people,
8:u5people,
8:b4people,
8:u1people,
8:u3people,
9:*0carried,
9:*2carried,
9:u5carried,
9:b4carried,
9:u1carried,
9:u3carried,
10:*0shortest,
10:*2shortest,
10:u5shortest,
10:b4shortest,
10:u1shortest,
10:u3shortest,
9:*0january,
9:*2january,
9:u5january,
9:b4january,
7:*0cheap,
7:*2cheap,
7:u5cheap,
7:b4cheap,
7:u1cheap,
7:u3cheap,
6:*0back,
6:*2back,
6:u5back,
9:*0reverse,
9:*2reverse,
9:u5reverse,
9:b4reverse,
9:u1reverse,
9:u3reverse,
10:*0airports,
10:*2airports,
10:u5airports,
10:b4airports,
10:u1airports,
10:u3airports,
12:*0everywhere,
12:*2everywhere,
12:u5everywhere,
12:b4everywhere,
12:u1everywhere,
12:u3everywhere,
10:*0day-time,
10:*2day-time,
10:u5day-time,
10:b4day-time,
10:u1day-time,
10:u3day-time,
6:*010pm,
6:*210pm,
6:u510pm,
6:b410pm,
6:u110pm,
6:u310pm,
17:*0midway-airlines,
17:*2midway-airlines,
17:u5midway-airlines,
17:b4midway-airlines,
17:u1midway-airlines,
17:u3midway-airlines,
7:u1tenth,
7:u3tenth,
8:*0twelve,
8:*2twelve,
8:u5twelve,
12:*0capacities,
12:*2capacities,
12:u5capacities,
12:b4capacities,
12:u1capacities,
12:u3capacities,
9:*0largest,
9:*2largest,
9:u5largest,
9:b4largest,
9:u1largest,
9:u3largest,
10:*0greatest,
10:*2greatest,
10:u5greatest,
10:b4greatest,
10:u1greatest,
10:u3greatest,
5:*0767,
5:*2767,
5:u5767,
8:*0dinner,
8:*2dinner,
8:u5dinner,
7:*0snack,
7:*2snack,
7:u5snack,
5:*03pm,
5:*23pm,
5:u53pm,
5:b43pm,
5:u13pm,
5:u33pm,
4:*012,
4:*212,
4:u512,
3:*02,
3:*22,
4:b412,
4:u112,
4:u312,
3:u52,
3:b42,
3:u12,
3:u32,
7:b4sixth,
7:u1sixth,
7:u3sixth,
12:*0car-rental,
12:*2car-rental,
12:u5car-rental,
12:b4car-rental,
12:u1car-rental,
12:u3car-rental,
6:*0limo,
6:*2limo,
6:u5limo,
6:b4limo,
6:u1limo,
6:u3limo,
8:*0coming,
8:*2coming,
7:b4ninth,
8:u5coming,
7:u1ninth,
7:u3ninth,
8:b4coming,
8:u1coming,
8:u3coming,
6:b4back,
6:u1back,
6:u3back,
5:*0fit,
5:*2fit,
5:u5fit,
5:b4fit,
5:u1fit,
5:u3fit,
5:b472s,
5:*0d9s,
5:*2d9s,
5:u5d9s,
5:*073s,
5:*273s,
5:u573s,
6:*0once,
6:*2once,
6:u5once,
6:b4once,
6:u1once,
6:u3once,
11:*0expensive,
11:*2expensive,
11:u5expensive,
11:b4expensive,
11:u1expensive,
11:u3expensive,
7:b4eight,
5:*0sfo,
5:*2sfo,
5:u5sfo,
9:*0charges,
9:*2charges,
9:u5charges,
9:b4charges,
9:u1charges,
9:u3charges,
4:*0no,
4:*2no,
4:u5no,
4:b4no,
4:u1no,
4:u3no,
5:*04pm,
5:*24pm,
5:u54pm,
4:*0so,
4:*2so,
4:u5so,
4:b4so,
4:u1so,
4:u3so,
6:*0here,
6:*2here,
6:u5here,
6:*011am,
6:*211am,
6:b4here,
6:u1here,
6:u3here,
6:u511am,
14:*0abbreviation,
14:*2abbreviation,
4:*0ua,
4:*2ua,
14:u5abbreviation,
14:b4abbreviation,
4:u5ua,
14:u1abbreviation,
14:u3abbreviation,
4:b4ua,
4:*0co,
4:*2co,
4:u5co,
4:b4co,
4:b4dl,
9:*0weekday,
9:*2weekday,
9:u5weekday,
3:*0y,
3:*2y,
3:u5y,
3:b4y,
12:*01300-hours,
12:*21300-hours,
12:u51300-hours,
12:*01600-hours,
12:*21600-hours,
12:u51600-hours,
5:*07am,
5:*27am,
5:u57am,
12:*01700-hours,
12:*21700-hours,
12:u51700-hours,
12:b41700-hours,
12:u11700-hours,
12:u31700-hours,
7:*0under,
7:*2under,
13:*0500-dollars,
13:*2500-dollars,
7:u5under,
7:b4under,
13:u5500-dollars,
7:u1under,
7:u3under,
13:b4500-dollars,
13:u1500-dollars,
13:u3500-dollars,
10:*0airfares,
10:*2airfares,
10:u5airfares,
10:b4airfares,
10:u1airfares,
10:u3airfares,
9:*0options,
9:*2options,
9:u5options,
9:b4options,
9:u1options,
9:u3options,
8:*0philly,
8:*2philly,
8:u5philly,
9:*0arrival,
9:*2arrival,
9:u5arrival,
9:b4arrival,
9:u1arrival,
9:u3arrival,
11:b41-o'clock,
11:u11-o'clock,
11:u31-o'clock,
11:*0regarding,
11:*2regarding,
23:*0san-francisco-airport,
23:*2san-francisco-airport,
11:u5regarding,
11:b4regarding,
23:u5san-francisco-airport,
15:b4twenty-eighth,
9:u5display,
9:b4display,
9:u1display,
9:u3display,
8:*0second,
8:*2second,
8:u5second,
7:*0seven,
7:*2seven,
7:u5seven,
6:*012pm,
6:*212pm,
6:u512pm,
6:b412pm,
6:u112pm,
6:u312pm,
10:*0economic,
10:*2economic,
10:u5economic,
10:b4economic,
4:*098,
4:*298,
4:u598,
4:*0us,
4:*2us,
5:*0345,
5:*2345,
4:u5us,
4:b4us,
5:u5345,
4:u1us,
4:u3us,
5:b4345,
5:u1345,
5:u3345,
6:*0rent,
6:*2rent,
6:u5rent,
5:*0car,
5:*2car,
6:b4rent,
6:u1rent,
6:u3rent,
5:u5car,
33:*0stapleton-international-airport,
33:*2stapleton-international-airport,
5:b4car,
5:u1car,
5:u3car,
33:u5stapleton-international-airport,
33:b4stapleton-international-airport,
33:u1stapleton-international-airport,
33:u3stapleton-international-airport,
8:u1sunday,
8:u3sunday,
6:*01083,
6:*21083,
6:u51083,
4:u1dl,
4:u3dl,
6:b41083,
6:u11083,
6:u31083,
11:*0saturdays,
11:*2saturdays,
11:u5saturdays,
5:*0201,
5:*2201,
5:u5201,
4:u1ua,
4:u3ua,
5:b4201,
5:u1201,
5:u3201,
5:*0343,
5:*2343,
5:u5343,
5:b4343,
5:u1343,
5:u3343,
5:*0323,
5:*2323,
5:u5323,
5:*0229,
5:*2229,
5:b4323,
5:u1323,
5:u3323,
5:u5229,
5:b4229,
5:u1229,
5:u3229,
6:b4week,
6:u1week,
6:u3week,
9:*0meaning,
9:*2meaning,
9:u5meaning,
9:b4meaning,
9:u1meaning,
9:u3meaning,
4:*0qw,
4:*2qw,
4:b4qx,
4:u1qx,
4:u3qx,
4:u5qw,
9:b4weekday,
9:u1weekday,
9:u3weekday,
10:u1tomorrow,
10:u3tomorrow,
7:*0costs,
7:*2costs,
7:u5costs,
7:b4costs,
7:u1costs,
7:u3costs,
24:*0the-day-after-tomorrow,
24:*2the-day-after-tomorrow,
24:u5the-day-after-tomorrow,
11:*0transport,
11:*2transport,
11:u5transport,
11:b4transport,
5:*0210,
5:*2210,
5:u5210,
13:*0car-rentals,
13:*2car-rentals,
13:u5car-rentals,
13:b4car-rentals,
13:u1car-rentals,
13:u3car-rentals,
11:b4saturdays,
11:u1saturdays,
11:u3saturdays,
5:*0d-s,
5:*2d-s,
5:u5d-s,
5:b4d-s,
5:u1d-s,
5:u3d-s,
7:u1stand,
7:u3stand,
5:*0106,
5:*2106,
5:u5106,
5:b4106,
5:u1106,
5:u3106,
9:*0grounds,
9:*2grounds,
9:u5grounds,
9:b4grounds,
9:u1grounds,
9:u3grounds,
7:*0again,
7:*2again,
5:*0838,
5:*2838,
5:u5838,
5:b4838,
5:u1838,
5:u3838,
13:*0reservation,
13:*2reservation,
13:u5reservation,
13:b4reservation,
13:u1reservation,
13:u3reservation,
12:u5requesting,
12:b4requesting,
12:u1requesting,
12:u3requesting,
12:*0requesting,
12:*2requesting,
10:*0starting,
10:*2starting,
10:u5starting,
10:b4starting,
10:u1starting,
10:u3starting,
12:*0afterwards,
12:*2afterwards,
12:u5afterwards,
5:*0402,
5:*2402,
5:u5402,
5:b4402,
5:u1402,
5:u3402,
5:*0270,
5:*2270,
5:u5270,
5:b4270,
5:u1270,
5:u3270,
5:*0297,
5:*2297,
5:u5297,
5:b4297,
5:u1297,
5:u3297,
5:*0281,
5:*2281,
5:u5281,
5:b4281,
5:u1281,
5:u3281,
12:*0wednesdays,
12:*2wednesdays,
10:b4tuesdays,
10:u1tuesdays,
10:u3tuesdays,
12:u5wednesdays,
11:*0thursdays,
11:*2thursdays,
11:u5thursdays,
12:*0fourteenth,
12:*2fourteenth,
12:u5fourteenth,
7:*0ap-80,
7:*2ap-80,
7:u5ap-80,
13:u1restriction,
13:u3restriction,
7:b4ap-80,
7:*0ap-57,
7:*2ap-57,
7:u5ap-57,
5:b44pm,
5:u14pm,
5:u34pm,
5:b48pm,
5:u18pm,
5:u38pm,
14:*02-o'clock-pm,
14:*22-o'clock-pm,
14:u52-o'clock-pm,
14:*09-o'clock-am,
14:*29-o'clock-am,
14:u59-o'clock-am,
14:b49-o'clock-am,
14:b45-o'clock-pm,
24:b4the-day-after-tomorrow,
24:u1the-day-after-tomorrow,
24:u3the-day-after-tomorrow,
14:*03-o'clock-pm,
14:*23-o'clock-pm,
14:u53-o'clock-pm,
14:b43-o'clock-pm,
14:u13-o'clock-pm,
14:u33-o'clock-pm,
14:*08-o'clock-pm,
14:*28-o'clock-pm,
14:u58-o'clock-pm,
14:*08-o'clock-am,
14:*28-o'clock-am,
14:u58-o'clock-am,
14:b48-o'clock-am,
14:u18-o'clock-am,
14:u38-o'clock-am,
14:u15-o'clock-pm,
14:u35-o'clock-pm,
7:u1serve,
7:u3serve,
13:*0us-airlines,
13:*2us-airlines,
13:u5us-airlines,
13:b4us-airlines,
13:u1us-airlines,
13:u3us-airlines,
15:*011-o'clock-am,
15:*211-o'clock-am,
15:u511-o'clock-am,
3:u1y,
3:u3y,
9:*0explain,
9:*2explain,
11:u1transport,
11:u3transport,
3:*0m,
3:*2m,
3:u5m,
3:b4m,
6:*0ap68,
6:*2ap68,
6:u5ap68,
12:*0continuing,
12:*2continuing,
12:u5continuing,
12:b4continuing,
12:u1continuing,
12:u3continuing,
12:*0limousines,
12:*2limousines,
12:u5limousines,
6:*0taxi,
6:*2taxi,
12:b4limousines,
12:u1limousines,
12:u3limousines,
6:u5taxi,
6:b4taxi,
6:u1taxi,
6:u3taxi,
6:*01209,
6:*21209,
6:u51209,
7:*0names,
7:*2names,
7:u5names,
7:b4names,
7:u1names,
7:u3names,
13:*0rental-cars,
13:*2rental-cars,
13:u5rental-cars,
4:b4qw,
4:u1qw,
4:u3qw,
6:*0sd-d,
6:*2sd-d,
6:u5sd-d,
8:*0listed,
8:*2listed,
8:u5listed,
6:*01055,
6:*21055,
8:b4listed,
8:u1listed,
8:u3listed,
6:u51055,
5:*0405,
5:*2405,
6:b41055,
6:u11055,
6:u31055,
5:u5405,
4:*0ea,
4:*2ea,
4:u5ea,
4:b4ea,
4:u1ea,
4:u3ea,
6:*0look,
6:*2look,
6:u5look,
6:b4look,
6:u1look,
6:u3look,
7:b4today,
7:u1today,
7:u3today,
9:u5what're,
9:b4what're,
9:u1what're,
9:u3what're,
8:b4second,
8:u1second,
8:u3second,
6:b411am,
6:u111am,
6:u311am,
8:u1during,
8:u3during,
12:*0eighteenth,
12:*2eighteenth,
12:u5eighteenth,
8:*01045am,
8:*21045am,
8:u51045am,
5:*0430,
5:*2430,
5:u5430,
7:*0530pm,
7:*2530pm,
5:b4430,
5:u1430,
5:u3430,
7:u5530pm,
8:*01145am,
8:*21145am,
8:u51145am,
7:*0838am,
7:*2838am,
7:u5838am,
7:b4838am,
7:u1838am,
7:u3838am,
5:u1via,
5:u3via,
8:u5thanks,
8:b4thanks,
8:u1thanks,
8:u3thanks,
6:*0near,
6:*2near,
6:u5near,
6:b4near,
6:u1near,
6:u3near,
5:b45pm,
5:u15pm,
5:u35pm,
7:*0close,
7:*2close,
7:u5close,
7:b4close,
7:u1close,
7:u3close,
6:*01110,
6:*21110,
6:u51110,
6:b41110,
6:u11110,
6:u31110,
23:b4san-francisco-airport,
23:u1san-francisco-airport,
23:u3san-francisco-airport,
9:*0fifteen,
9:*2fifteen,
9:u5fifteen,
7:u5while,
7:b4while,
7:u1while,
7:u3while,
8:*0wanted,
8:*2wanted,
8:u5wanted,
8:b4wanted,
8:u1wanted,
8:u3wanted,
12:*0afternoons,
12:*2afternoons,
12:u5afternoons,
9:*0maximum,
9:*2maximum,
9:u5maximum,
9:b4maximum,
9:u1maximum,
9:u3maximum,
7:*0spend,
7:*2spend,
7:u5spend,
7:b4spend,
7:u1spend,
7:u3spend,
9:*0lastest,
9:*2lastest,
9:u5lastest,
9:b4lastest,
9:u1lastest,
9:u3lastest,
9:*0longest,
9:*2longest,
9:u5longest,
9:b4longest,
9:u1longest,
9:u3longest,
5:*0but,
5:*2but,
5:u5but,
5:b4but,
5:u1but,
5:u3but,
8:u1within,
8:u3within,
6:*01059,
6:*21059,
6:u51059,
6:*0over,
6:*2over,
6:u5over,
6:b4over,
6:u1over,
6:u3over,
4:*021,
4:*221,
4:u521,
5:*0852,
5:*2852,
5:u5852,
5:b4852,
5:u1852,
5:u3852,
5:*0928,
5:*2928,
5:u5928,
5:b4928,
5:u1928,
5:u3928,
7:*0start,
7:*2start,
7:u5start,
7:b4start,
7:u1start,
7:u3start,
10:*0bay-area,
10:*2bay-area,
10:u5bay-area,
7:*0order,
7:*2order,
7:u5order,
6:*0it's,
6:*2it's,
6:u5it's,
6:b4it's,
5:*0445,
5:*2445,
5:u5445,
7:*0515pm,
7:*2515pm,
5:b4445,
5:u1445,
5:u3445,
7:u5515pm,
20:*0washington-airport,
20:*2washington-airport,
20:u5washington-airport,
20:b4washington-airport,
20:u1washington-airport,
20:u3washington-airport,
25:*0maximum-number-of-stops,
25:*2maximum-number-of-stops,
25:u5maximum-number-of-stops,
8:u5locate,
8:b4locate,
8:u1locate,
8:u3locate,
11:*0hartfield,
11:*2hartfield,
11:u5hartfield,
9:*0travels,
9:*2travels,
9:u5travels,
9:b4travels,
9:u1travels,
9:u3travels,
6:*0late,
6:*2late,
6:u5late,
6:b4late,
6:u1late,
6:u3late,
6:*0zone,
6:*2zone,
6:u5zone,
6:b4zone,
6:u1zone,
6:u3zone,
13:*0inexpensive,
13:*2inexpensive,
13:u5inexpensive,
13:b4inexpensive,
13:u1inexpensive,
13:u3inexpensive,
11:*0currently,
11:*2currently,
11:u5currently,
11:b4currently,
11:u1currently,
11:u3currently,
5:*0530,
5:*2530,
5:u5530,
6:*0must,
6:*2must,
6:u5must,
6:b4must,
6:u1must,
6:u3must,
10:*0midnight,
10:*2midnight,
10:u5midnight,
10:b4midnight,
10:u1midnight,
10:u3midnight,
6:*0land,
6:*2land,
6:u5land,
6:b4land,
6:u1land,
6:u3land,
7:*0place,
7:*2place,
7:u5place,
17:b4oakland-airport,
17:u1oakland-airport,
17:u3oakland-airport,
7:*0730pm,
7:*2730pm,
7:u5730pm,
18:*0transcontinental,
18:*2transcontinental,
18:u5transcontinental,
18:b4transcontinental,
18:u1transcontinental,
18:u3transcontinental,
8:*0across,
8:*2across,
8:u5across,
11:*0continent,
11:*2continent,
8:b4across,
8:u1across,
8:u3across,
11:u5continent,
11:b4continent,
11:u1continent,
11:u3continent,
7:*0430pm,
7:*2430pm,
7:u5430pm,
7:*0630pm,
7:*2630pm,
7:b4430pm,
7:u1430pm,
7:u3430pm,
7:u5630pm,
6:*0gets,
6:*2gets,
6:u5gets,
6:b4gets,
6:u1gets,
6:u3gets,
7:*0month,
7:*2month,
7:u5month,
7:b4month,
7:u1month,
7:u3month,
10:u1december,
10:u3december,
10:*0connects,
10:*2connects,
10:u5connects,
10:b4connects,
10:u1connects,
10:u3connects,
14:*07-o'clock-pm,
14:*27-o'clock-pm,
14:u57-o'clock-pm,
10:*0vicinity,
10:*2vicinity,
10:u5vicinity,
10:b4vicinity,
10:u1vicinity,
10:u3vicinity,
8:*0begins,
8:*2begins,
8:u5begins,
8:b4begins,
8:u1begins,
8:u3begins,
7:*0lands,
7:*2lands,
7:u5lands,
7:b4lands,
7:u1lands,
7:u3lands,
7:*0don't,
7:*2don't,
7:u5don't,
7:b4don't,
11:*0stopovers,
7:u1don't,
11:*2stopovers,
7:u3don't,
11:u5stopovers,
11:b4stopovers,
11:u1stopovers,
11:u3stopovers,
16:*0city-in-dallas,
16:*2city-in-dallas,
16:u5city-in-dallas,
5:*0757,
5:*2757,
5:u5757,
5:b4757,
5:u1757,
5:u3757,
6:*01992,
6:*21992,
9:u1january,
9:u3january,
6:u51992,
6:b41992,
6:u11992,
6:u31992,
9:u1october,
9:u3october,
15:*010-o'clock-pm,
15:*210-o'clock-pm,
14:b48-o'clock-pm,
14:u18-o'clock-pm,
14:u38-o'clock-pm,
15:u510-o'clock-pm,
8:u5define,
8:b4define,
8:u1define,
8:u3define,
4:*0fn,
4:*2fn,
4:u5fn,
7:*0ap-55,
7:*2ap-55,
7:u5ap-55,
11:*0sixteenth,
11:*2sixteenth,
11:u5sixteenth,
5:b4atl,
5:u1atl,
5:u3atl,
9:*0listing,
9:*2listing,
9:u5listing,
9:b4listing,
9:u1listing,
9:u3listing,
6:*02100,
6:*22100,
6:u52100,
11:*04-o'clock,
11:*24-o'clock,
11:u54-o'clock,
11:b44-o'clock,
11:u14-o'clock,
11:u34-o'clock,
15:*0twenty-fourth,
15:*2twenty-fourth,
15:u5twenty-fourth,
5:*0746,
5:*2746,
5:u5746,
5:b4746,
4:u5hi,
4:b4hi,
4:u1hi,
4:u3hi,
3:*0q,
3:*2q,
3:u5q,
11:*0overnight,
11:*2overnight,
11:u5overnight,
11:b4overnight,
11:u1overnight,
11:u3overnight,
9:*0without,
9:*2without,
9:u5without,
9:b4without,
9:u1without,
9:u3without,
14:b4pennsylvania,
14:u1pennsylvania,
14:u3pennsylvania,
12:b4wednesdays,
12:u1wednesdays,
12:u3wednesdays,
6:*01291,
6:*21291,
6:u51291,
6:b41291,
6:u11291,
6:u31291,
5:*0271,
5:*2271,
5:u5271,
5:b4271,
5:u1271,
5:u3271,
6:*0sort,
6:*2sort,
6:u5sort,
6:b4sort,
6:u1sort,
6:u3sort,
14:b46-o'clock-pm,
14:u16-o'clock-pm,
14:u36-o'clock-pm,
14:*07-o'clock-am,
14:*27-o'clock-am,
14:u57-o'clock-am,
14:b47-o'clock-am,
14:u17-o'clock-am,
14:u37-o'clock-am,
14:*05-o'clock-am,
14:*25-o'clock-am,
14:u55-o'clock-am,
14:b45-o'clock-am,
14:u15-o'clock-am,
14:u35-o'clock-am,
5:b47am,
5:u17am,
5:u37am,
14:*01500-dollars,
14:*21500-dollars,
14:u51500-dollars,
14:b41500-dollars,
14:*01100-dollars,
14:*21100-dollars,
14:u51100-dollars,
4:*0up,
4:*2up,
4:u5up,
4:b4up,
4:u1up,
4:u3up,
9:*0mondays,
9:*2mondays,
9:u5mondays,
15:*0only-weekdays,
15:*2only-weekdays,
15:u5only-weekdays,
15:b4only-weekdays,
15:u1only-weekdays,
15:u3only-weekdays,
4:*0ap,
4:*2ap,
4:u5ap,
4:b4ap,
6:*0area,
6:*2area,
6:u5area,
8:*0proper,
8:*2proper,
8:u5proper,
7:b4ap-57,
3:b4f,
3:u1f,
3:u3f,
4:b4fn,
13:b4rental-cars,
13:u1rental-cars,
13:u3rental-cars,
10:b4eleventh,
10:u1eleventh,
10:u3eleventh,
9:b4twelfth,
8:*0priced,
8:*2priced,
8:u5priced,
8:b4priced,
8:u1priced,
8:u3priced,
5:*0212,
5:*2212,
5:u5212,
5:b4212,
5:u1212,
5:u3212,
10:*0anywhere,
10:*2anywhere,
10:u5anywhere,
6:*01850,
6:*21850,
10:b4anywhere,
10:u1anywhere,
10:u3anywhere,
6:u51850,
6:b41850,
6:u11850,
6:u31850,
6:*01700,
6:*21700,
6:u51700,
6:b41700,
6:u11700,
6:u31700,
5:*0217,
5:*2217,
5:u5217,
5:b4217,
5:u1217,
5:u3217,
13:*0300-dollars,
13:*2300-dollars,
13:u5300-dollars,
13:*0400-dollars,
13:*2400-dollars,
13:u5400-dollars,
13:b4400-dollars,
13:u1400-dollars,
13:u3400-dollars,
6:*03357,
6:*23357,
6:u53357,
6:b43357,
6:u13357,
6:u33357,
5:b4sfo,
5:u1sfo,
5:u3sfo,
8:*0summer,
8:*2summer,
8:u5summer,
5:*0non,
5:*2non,
5:u5non,
5:b4non,
5:u1non,
5:u3non,
4:u1fn,
4:u3fn,
10:*0mornings,
10:*2mornings,
10:u5mornings,
4:b4yn,
11:b4sixteenth,
11:u1sixteenth,
11:u3sixteenth,
14:*01000-dollars,
14:*21000-dollars,
14:u51000-dollars,
6:*00900,
6:*20900,
6:u50900,
6:*03724,
6:*23724,
6:u53724,
6:b43724,
6:u13724,
6:u33724,
5:*0771,
5:*2771,
5:u5771,
5:b4771,
5:u1771,
5:u3771,
18:*0flight-schedules,
18:*2flight-schedules,
18:u5flight-schedules,
18:b4flight-schedules,
18:u1flight-schedules,
18:u3flight-schedules,
9:*0include,
9:*2include,
9:u5include,
9:b4include,
6:b4ap57,
14:b41000-dollars,
14:u11000-dollars,
14:u31000-dollars,
10:b4mornings,
10:u1mornings,
10:u3mornings,
9:*0whether,
9:*2whether,
9:u5whether,
9:u1include,
9:u3include,
9:b4whether,
9:*0offered,
9:u1whether,
9:*2offered,
9:u3whether,
9:u5offered,
9:b4offered,
9:u1offered,
9:u3offered,
13:*0round-trips,
13:*2round-trips,
13:u5round-trips,
13:b4round-trips,
13:u1round-trips,
13:u3round-trips,
9:*0toronto,
9:*2toronto,
9:u5toronto,
9:b4toronto,
9:u1toronto,
9:u3toronto,
4:*0ac,
4:*2ac,
4:u5ac,
4:b4ac,
4:u1ac,
4:u3ac,
10:*0new-york,
10:*2new-york,
10:u5new-york,
10:b4new-york,
10:u1new-york,
10:u3new-york,
15:*0new-york-city,
15:*2new-york-city,
15:u5new-york-city,
11:*0milwaukee,
11:*2milwaukee,
11:u5milwaukee,
9:*0orlando,
9:*2orlando,
11:b4milwaukee,
11:u1milwaukee,
11:u3milwaukee,
9:u5orlando,
9:b4orlando,
9:u1orlando,
9:u3orlando,
9:*0ontario,
9:*2ontario,
9:u5ontario,
8:*0tacoma,
8:*2tacoma,
9:b4ontario,
9:u1ontario,
9:u3ontario,
8:u5tacoma,
8:b4tacoma,
8:u1tacoma,
8:u3tacoma,
13:*0minneapolis,
13:*2minneapolis,
13:u5minneapolis,
11:*0san-diego,
11:*2san-diego,
13:b4minneapolis,
13:u1minneapolis,
13:u3minneapolis,
11:u5san-diego,
11:b4san-diego,
11:u1san-diego,
11:u3san-diego,
16:*0salt-lake-city,
16:*2salt-lake-city,
16:u5salt-lake-city,
12:*0cincinnati,
12:*2cincinnati,
16:b4salt-lake-city,
16:u1salt-lake-city,
16:u3salt-lake-city,
12:u5cincinnati,
12:b4cincinnati,
12:u1cincinnati,
12:u3cincinnati,
7:*0miami,
7:*2miami,
7:u5miami,
7:b4miami,
7:u1miami,
7:u3miami,
20:*0southwest-airlines,
20:*2southwest-airlines,
20:u5southwest-airlines,
20:b4southwest-airlines,
20:u1southwest-airlines,
20:u3southwest-airlines,
9:*0phoenix,
9:*2phoenix,
9:u5phoenix,
9:b4phoenix,
9:u1phoenix,
9:u3phoenix,
12:*0la-guardia,
12:*2la-guardia,
12:u5la-guardia,
12:b4la-guardia,
8:*0dulles,
8:*2dulles,
8:u5dulles,
8:b4dulles,
8:u1dulles,
8:u3dulles,
13:*0los-angeles,
13:*2los-angeles,
13:u5los-angeles,
11:*0las-vegas,
11:*2las-vegas,
11:u5las-vegas,
7:*0equal,
7:*2equal,
7:u5equal,
13:*0466-dollars,
13:*2466-dollars,
7:b4equal,
7:u1equal,
7:u3equal,
13:u5466-dollars,
13:b4466-dollars,
13:u1466-dollars,
13:u3466-dollars,
13:*0932-dollars,
13:*2932-dollars,
13:u5932-dollars,
7:*0along,
7:*2along,
7:u5along,
7:b4along,
7:u1along,
7:u3along,
14:*0indianapolis,
14:*2indianapolis,
14:u5indianapolis,
9:*0memphis,
9:*2memphis,
14:b4indianapolis,
14:u1indianapolis,
14:u3indianapolis,
9:u5memphis,
9:*0burbank,
9:*2burbank,
9:u5burbank,
9:b4burbank,
9:u1burbank,
9:u3burbank,
16:*0st.-petersburg,
16:*2st.-petersburg,
16:u5st.-petersburg,
16:b4st.-petersburg,
16:u1st.-petersburg,
16:u3st.-petersburg,
15:*0abbreviations,
15:*2abbreviations,
15:u5abbreviations,
10:*0san-jose,
10:*2san-jose,
10:u5san-jose,
10:b4san-jose,
10:u1san-jose,
10:u3san-jose,
24:*0salt-lake-city-airport,
24:*2salt-lake-city-airport,
24:u5salt-lake-city-airport,
24:b4salt-lake-city-airport,
24:u1salt-lake-city-airport,
24:u3salt-lake-city-airport,
7:*0tampa,
7:*2tampa,
7:u5tampa,
11:*0st.-louis,
11:*2st.-louis,
7:b4tampa,
7:u1tampa,
7:u3tampa,
11:u5st.-louis,
11:b4st.-louis,
11:u1st.-louis,
11:u3st.-louis,
9:*0houston,
9:*2houston,
9:u5houston,
9:b4houston,
9:u1houston,
9:u3houston,
9:*0symbols,
9:*2symbols,
9:u5symbols,
9:b4symbols,
9:u1symbols,
9:u3symbols,
4:u1yn,
4:u3yn,
4:*0hp,
4:*2hp,
4:u5hp,
17:*0orlando-airport,
17:*2orlando-airport,
17:u5orlando-airport,
17:b4orlando-airport,
17:u1orlando-airport,
17:u3orlando-airport,
23:*0orlando-international,
23:*2orlando-international,
23:u5orlando-international,
23:b4orlando-international,
23:u1orlando-international,
23:u3orlando-international,
5:*0417,
5:*2417,
5:u5417,
5:b4417,
5:u1417,
5:u3417,
7:*0718am,
7:*2718am,
7:u5718am,
13:b4los-angeles,
13:u1los-angeles,
13:u3los-angeles,
25:*0minimum-connection-time,
25:*2minimum-connection-time,
25:u5minimum-connection-time,
26:*0houston-intercontinental,
26:*2houston-intercontinental,
25:b4minimum-connection-time,
25:u1minimum-connection-time,
25:u3minimum-connection-time,
26:u5houston-intercontinental,
6:*04400,
6:*24400,
6:u54400,
6:b44400,
6:u14400,
6:u34400,
6:*01026,
6:*21026,
6:u51026,
8:*0o'hare,
8:*2o'hare,
8:u5o'hare,
8:b4o'hare,
8:u1o'hare,
8:u3o'hare,
7:b4718am,
9:*0chicago,
9:*2chicago,
9:u5chicago,
9:b4chicago,
9:u1chicago,
9:u3chicago,
10:*0montreal,
10:*2montreal,
10:u5montreal,
10:b4montreal,
13:*0150-dollars,
10:u1montreal,
13:*2150-dollars,
10:u3montreal,
13:u5150-dollars,
10:*0columbus,
10:*2columbus,
10:u5columbus,
10:b4columbus,
10:u1columbus,
10:u3columbus,
10:*0st.-paul,
10:*2st.-paul,
10:u5st.-paul,
8:*0newark,
8:*2newark,
8:u5newark,
11:*0cleveland,
11:*2cleveland,
8:b4newark,
8:u1newark,
8:u3newark,
11:u5cleveland,
11:b4cleveland,
11:u1cleveland,
11:u3cleveland,
12:*0new-jersey,
12:*2new-jersey,
12:u5new-jersey,
12:b4new-jersey,
12:u1new-jersey,
12:u3new-jersey,
5:*0jfk,
5:*2jfk,
5:u5jfk,
5:b4jfk,
5:u1jfk,
5:u3jfk,
12:u1la-guardia,
12:u3la-guardia,
11:*0nashville,
11:*2nashville,
11:u5nashville,
11:b4nashville,
11:u1nashville,
11:u3nashville,
10:*0weekdays,
10:*2weekdays,
10:u5weekdays,
20:*0westchester-county,
20:*2westchester-county,
20:u5westchester-county,
20:b4westchester-county,
20:u1westchester-county,
20:u3westchester-county,
11:b4las-vegas,
11:u1las-vegas,
11:u3las-vegas,
4:*0ff,
4:*2ff,
4:u5ff,
11:*0tower-air,
11:*2tower-air,
11:u5tower-air,
11:b4tower-air,
11:u1tower-air,
11:u3tower-air,
12:*0long-beach,
12:*2long-beach,
12:u5long-beach,
12:b4long-beach,
12:u1long-beach,
12:u3long-beach,
6:*0ohio,
6:*2ohio,
6:u5ohio,
4:*0sa,
4:*2sa,
4:u5sa,
9:*0seattle,
9:*2seattle,
9:u5seattle,
9:b4seattle,
9:u1seattle,
9:u3seattle,
6:*01993,
6:*21993,
6:u51993,
4:*0nw,
4:*2nw,
4:u5nw,
7:u5bring,
7:b4bring,
7:u1bring,
7:u3bring,
5:*0mco,
5:*2mco,
5:u5mco,
9:*0calling,
9:*2calling,
9:u5calling,
9:b4calling,
9:u1calling,
9:u3calling,
4:*0la,
4:*2la,
4:u5la,
5:b4mco,
5:u1mco,
5:u3mco,
9:b4memphis,
9:u1memphis,
9:u3memphis,
6:*0i've,
6:*2i've,
5:*0got,
5:*2got,
6:u5i've,
10:*0somebody,
10:*2somebody,
6:b4i've,
5:u5got,
6:*0else,
6:u1i've,
6:*2else,
6:u3i've,
5:b4got,
10:u5somebody,
5:u1got,
5:u3got,
10:b4somebody,
6:u5else,
7:*0wants,
10:u1somebody,
7:*2wants,
10:u3somebody,
6:b4else,
6:u1else,
6:u3else,
7:u5wants,
5:u1who,
5:u3who,
7:b4wants,
7:u1wants,
7:u3wants,
11:*0charlotte,
11:*2charlotte,
11:u5charlotte,
11:b4charlotte,
11:u1charlotte,
11:u3charlotte,
13:*0kansas-city,
13:*2kansas-city,
13:u5kansas-city,
3:b4q,
12:*0difference,
12:*2difference,
12:u5difference,
12:b4difference,
12:u1difference,
12:u3difference,
3:u1q,
3:u3q,
11:*0tennessee,
11:*2tennessee,
11:u5tennessee,
11:b4tennessee,
16:*0north-carolina,
11:u1tennessee,
16:*2north-carolina,
11:u3tennessee,
16:u5north-carolina,
4:*0qo,
4:*2qo,
4:u5qo,
4:b4qo,
4:b4ff,
5:*0ewr,
5:*2ewr,
5:u5ewr,
5:b4ewr,
5:*0bur,
5:*2bur,
5:u5bur,
7:u5train,
7:b4train,
7:u1train,
7:u3train,
8:*0laying,
8:*2laying,
8:u5laying,
8:b4laying,
8:u1laying,
8:u3laying,
12:*0air-canada,
12:*2air-canada,
12:u5air-canada,
12:b4air-canada,
12:u1air-canada,
12:u3air-canada,
11:*0minnesota,
11:*2minnesota,
11:u5minnesota,
8:*0stands,
8:*2stands,
8:u5stands,
8:b4stands,
8:u1stands,
8:u3stands,
13:b4kansas-city,
13:u1kansas-city,
13:u3kansas-city,
9:*0florida,
9:*2florida,
9:u5florida,
9:b4florida,
9:u1florida,
9:u3florida,
9:*0landing,
9:*2landing,
9:u5landing,
9:b4landing,
9:u1landing,
9:u3landing,
6:*0soon,
6:*2soon,
6:u5soon,
6:b4soon,
6:u1soon,
6:u3soon,
5:*0ten,
5:*2ten,
5:u5ten,
5:b4ten,
5:u1ten,
5:u3ten,
17:*0during-the-week,
17:*2during-the-week,
17:u5during-the-week,
18:*0during-week-days,
18:*2during-week-days,
18:u5during-week-days,
19:*0san-diego-airport,
19:*2san-diego-airport,
19:u5san-diego-airport,
19:b4san-diego-airport,
19:u1san-diego-airport,
19:u3san-diego-airport,
9:u5instead,
9:b4instead,
9:u1instead,
9:u3instead,
32:*0as-soon-thereafter-as-possible,
32:*2as-soon-thereafter-as-possible,
32:u5as-soon-thereafter-as-possible,
4:b4nw,
4:u1nw,
4:u3nw,
17:*0phoenix-airport,
17:*2phoenix-airport,
17:u5phoenix-airport,
17:b4phoenix-airport,
17:u1phoenix-airport,
17:u3phoenix-airport,
13:*0meal-code-s,
13:*2meal-code-s,
13:u5meal-code-s,
6:b4uses,
6:u1uses,
6:u3uses,
5:*0lax,
5:*2lax,
5:u5lax,
5:b4lax,
5:u1lax,
5:u3lax,
9:b4numbers,
9:u1numbers,
9:u3numbers,
6:b4ohio,
6:u1ohio,
6:u3ohio,
11:b4minnesota,
11:u1minnesota,
11:u3minnesota,
15:b4new-york-city,
8:*0canada,
15:u1new-york-city,
8:*2canada,
15:u3new-york-city,
8:u5canada,
8:b4canada,
8:u1canada,
8:u3canada,
10:*0listings,
10:*2listings,
10:u5listings,
10:b4listings,
10:u1listings,
10:u3listings,
10:*0missouri,
10:*2missouri,
10:u5missouri,
10:b4missouri,
6:*0utah,
10:u1missouri,
6:*2utah,
10:u3missouri,
6:u5utah,
6:b4utah,
6:u1utah,
6:u3utah,
6:*01222,
6:*21222,
6:u51222,
6:b41222,
6:u11222,
6:u31222,
12:*0preferably,
12:*2preferably,
12:u5preferably,
12:b4preferably,
12:u1preferably,
12:u3preferably,
8:*0497766,
8:*2497766,
8:u5497766,
8:b4497766,
8:u1497766,
8:u3497766,
7:*0810pm,
7:*2810pm,
7:u5810pm,
7:b4810pm,
7:u1810pm,
7:u3810pm,
16:b4north-carolina,
16:u1north-carolina,
16:u3north-carolina,
6:*0runs,
6:*2runs,
6:u5runs,
6:b4runs,
6:u1runs,
6:u3runs,
5:*0505,
5:*2505,
5:u5505,
5:b4505,
5:u1505,
5:u3505,
8:*0that's,
8:*2that's,
8:b4dinner,
8:u5that's,
8:u1dinner,
8:u3dinner,
8:b4that's,
8:u1that's,
8:u3that's,
5:*0163,
5:*2163,
5:u5163,
12:*0thirteenth,
12:*2thirteenth,
12:u5thirteenth,
8:b4eighth,
8:u1eighth,
8:u3eighth,
10:*0includes,
10:*2includes,
10:u5includes,
10:b4includes,
10:u1includes,
10:u3includes,
17:*0alaska-airlines,
17:*2alaska-airlines,
17:u5alaska-airlines,
17:b4alaska-airlines,
17:u1alaska-airlines,
17:u3alaska-airlines,
8:*0nevada,
8:*2nevada,
8:u5nevada,
8:b4nevada,
8:u1nevada,
8:u3nevada,
9:*0detroit,
9:*2detroit,
10:*0michigan,
10:*2michigan,
9:u5detroit,
9:b4detroit,
10:u5michigan,
9:u1detroit,
9:u3detroit,
10:b4michigan,
10:u1michigan,
10:u3michigan,
10:*0actually,
10:*2actually,
10:u5actually,
10:b4actually,
10:u1actually,
10:u3actually,
13:*0westchester,
13:*2westchester,
13:u5westchester,
13:b4westchester,
13:u1westchester,
13:u3westchester,
7:*0thing,
7:*2thing,
7:u5thing,
7:b4thing,
7:u1thing,
7:u3thing,
5:*0130,
5:*2130,
5:u5130,
5:b4130,
5:u1130,
5:u3130,
9:u1another,
9:u3another,
19:*0milwaukee-airport,
19:*2milwaukee-airport,
19:u5milwaukee-airport,
19:b4milwaukee-airport,
19:u1milwaukee-airport,
19:u3milwaukee-airport,
19:*0the-following-day,
19:*2the-following-day,
19:u5the-following-day,
12:*0twenty-six,
12:*2twenty-six,
12:u5twenty-six,
8:*0prefer,
8:*2prefer,
8:u5prefer,
8:b4prefer,
8:u1prefer,
8:u3prefer,
8:*0quebec,
8:*2quebec,
8:u5quebec,
8:b4quebec,
8:u1quebec,
8:u3quebec,
9:*0indiana,
9:*2indiana,
9:u5indiana,
9:b4indiana,
9:u1indiana,
9:u3indiana,
10:*0reaching,
10:*2reaching,
10:u5reaching,
10:b4reaching,
10:u1reaching,
10:u3reaching,
9:*0reaches,
9:*2reaches,
9:u5reaches,
9:b4reaches,
3:*07,
9:u1reaches,
3:*27,
9:u3reaches,
3:u57,
3:b47,
3:u17,
3:u37,
11:*0following,
11:*2following,
11:u5following,
11:b4following,
11:u1following,
11:u3following,
7:*0route,
7:*2route,
7:u5route,
13:b4seventeenth,
13:u1seventeenth,
13:u3seventeenth,
12:b4fourteenth,
12:u1fourteenth,
12:u3fourteenth,
12:b4thirteenth,
12:u1thirteenth,
12:u3thirteenth,
6:*0date,
6:*2date,
6:u5date,
6:b4date,
6:u1date,
6:u3date,
11:*0hopefully,
11:*2hopefully,
11:u5hopefully,
11:b4hopefully,
11:u1hopefully,
11:u3hopefully,
6:*0home,
6:*2home,
6:u5home,
20:*0northwest-airlines,
20:*2northwest-airlines,
20:u5northwest-airlines,
20:b4northwest-airlines,
20:u1northwest-airlines,
20:u3northwest-airlines,
6:*0days,
6:*2days,
6:u5days,
6:b4days,
6:u1days,
6:u3days,
5:*0415,
5:*2415,
5:u5415,
5:b4415,
5:u1415,
5:u3415,
9:*0arizona,
9:*2arizona,
9:u5arizona,
9:b4arizona,
9:u1arizona,
9:u3arizona,
10:b4st.-paul,
10:u1st.-paul,
10:u3st.-paul,
11:*0northwest,
11:*2northwest,
11:u5northwest,
11:b4northwest,
11:u1northwest,
11:u3northwest,
23:*0ontario-international,
23:*2ontario-international,
23:u5ontario-international,
23:b4ontario-international,
23:u1ontario-international,
23:u3ontario-international,
9:*0friends,
9:*2friends,
9:u5friends,
9:b4friends,
9:u1friends,
9:u3friends,
17:*0toronto-airport,
17:*2toronto-airport,
17:u5toronto-airport,
14:u1twenty-sixth,
14:u3twenty-sixth,
20:*0la-guardia-airport,
20:*2la-guardia-airport,
20:u5la-guardia-airport,
20:b4la-guardia-airport,
20:u1la-guardia-airport,
20:u3la-guardia-airport,
4:b4la,
4:u1la,
4:u3la,
8:*0single,
8:*2single,
8:u5single,
8:b4single,
8:u1single,
8:u3single,
12:b4eighteenth,
12:u1eighteenth,
12:u3eighteenth,
9:*0red-eye,
9:*2red-eye,
9:u5red-eye,
9:b4red-eye,
9:u1red-eye,
9:u3red-eye,
9:u1twelfth,
9:u3twelfth,
12:*0twenty-two,
12:*2twenty-two,
12:u5twenty-two,
14:*0america-west,
14:*2america-west,
14:u5america-west,
11:*0southwest,
11:*2southwest,
14:b4america-west,
14:u1america-west,
14:u3america-west,
11:u5southwest,
11:b4southwest,
11:u1southwest,
11:u3southwest,
12:b4twenty-two,
12:u1twenty-two,
12:u3twenty-two,
5:*0six,
5:*2six,
5:u5six,
5:b4six,
5:u1six,
5:u3six,
11:*0salt-lake,
11:*2salt-lake,
11:u5salt-lake,
9:*0tonight,
9:*2tonight,
9:u5tonight,
9:b4tonight,
9:u1tonight,
9:u3tonight,
7:*0visit,
7:*2visit,
7:u5visit,
7:b4visit,
7:u1visit,
7:u3visit,
6:*0them,
6:*2them,
7:*0lives,
7:*2lives,
6:u5them,
6:b4them,
7:u5lives,
6:u1them,
6:u3them,
7:b4lives,
7:u1lives,
7:u3lives,
5:b4530,
5:u1530,
5:u3530,
24:*0st.-petersburg-airport,
24:*2st.-petersburg-airport,
24:u5st.-petersburg-airport,
5:*0539,
5:*2539,
5:u5539,
21:*0trans-world-airline,
21:*2trans-world-airline,
21:u5trans-world-airline,
21:b4trans-world-airline,
21:u1trans-world-airline,
21:u3trans-world-airline,
8:*01030am,
8:*21030am,
8:u51030am,
8:*01130am,
8:*21130am,
8:b41030am,
8:u11030am,
8:u31030am,
8:u51130am,
8:*01115am,
8:*21115am,
8:u51115am,
8:*01245pm,
8:*21245pm,
8:b41115am,
8:u11115am,
8:u31115am,
8:u51245pm,
3:*09,
3:*29,
3:u59,
3:b49,
3:u19,
3:u39,
18:*0at-the-same-time,
18:*2at-the-same-time,
18:u5at-the-same-time,
12:*0new-york's,
12:*2new-york's,
12:u5new-york's,
12:b4new-york's,
31:*0toronto-international-airport,
31:*2toronto-international-airport,
31:u5toronto-international-airport,
31:b4toronto-international-airport,
31:u1toronto-international-airport,
31:u3toronto-international-airport,
35:*0los-angeles-international-airport,
35:*2los-angeles-international-airport,
35:u5los-angeles-international-airport,
35:b4los-angeles-international-airport,
35:u1los-angeles-international-airport,
35:u3los-angeles-international-airport,
37:*0san-francisco-international-airport,
37:*2san-francisco-international-airport,
37:u5san-francisco-international-airport,
37:b4san-francisco-international-airport,
37:u1san-francisco-international-airport,
37:u3san-francisco-international-airport,
9:*0closest,
9:*2closest,
9:u5closest,
9:b4closest,
9:u1closest,
9:u3closest,
4:*019,
4:*219,
4:u519,
4:b419,
4:u119,
4:u319,
5:*0845,
5:*2845,
5:u5845,
5:b4845,
5:u1845,
5:u3845,
7:*0230pm,
7:*2230pm,
7:u5230pm,
7:b4lunch,
8:*0supper,
8:*2supper,
8:u5supper,
8:b4supper,
5:*0823,
5:*2823,
5:u5823,
5:b4823,
5:u1823,
5:u3823,
6:*01024,
6:*21024,
6:u51024,
6:b41024,
6:u11024,
6:u31024,
6:*01205,
6:*21205,
6:u51205,
6:b41205,
6:u11205,
6:u31205,
5:*0305,
5:*2305,
5:u5305,
5:b4305,
5:u1305,
5:u3305,
7:*0723pm,
7:*2723pm,
7:u5723pm,
8:*01020pm,
8:*21020pm,
8:u51020pm,
8:*0nights,
8:*2nights,
8:u5nights,
9:*0fridays,
9:*2fridays,
9:u5fridays,
8:*01230pm,
8:*21230pm,
8:u51230pm,
7:*0934pm,
7:*2934pm,
7:u5934pm,
6:*02134,
6:*22134,
6:u52134,
8:*0taking,
8:*2taking,
8:u5taking,
8:b4taking,
8:u1taking,
8:u3taking,
5:*0311,
5:*2311,
5:u5311,
5:u1ewr,
5:u3ewr,
14:*09-o'clock-pm,
14:*29-o'clock-pm,
14:u59-o'clock-pm,
14:b49-o'clock-pm,
14:u19-o'clock-pm,
14:u39-o'clock-pm,
10:*0nonstops,
10:*2nonstops,
10:u5nonstops,
10:b4nonstops,
10:u1nonstops,
10:u3nonstops,
7:*0vegas,
7:*2vegas,
7:u5vegas,
7:b4vegas,
7:u1vegas,
7:u3vegas,
3:*0h,
3:*2h,
3:u5h,
12:*01200-hours,
12:*21200-hours,
12:u51200-hours,
10:*0sunday's,
10:*2sunday's,
10:u5sunday's,
10:b4sunday's,
10:u1sunday's,
10:u3sunday's,
13:*0wednesday's,
13:*2wednesday's,
13:u5wednesday's,
13:b4wednesday's,
13:u1wednesday's,
13:u3wednesday's,
10:u5friday's,
10:b4friday's,
10:u1friday's,
10:u3friday's,
15:u1twenty-eighth,
15:u3twenty-eighth,
17:b412-o'clock-noon,
17:u112-o'clock-noon,
17:u312-o'clock-noon,
5:*0mia,
5:*2mia,
5:u5mia,
5:*0bna,
5:*2bna,
5:u5bna,
5:*0ord,
5:*2ord,
5:u5ord,
5:b4ord,
6:*011pm,
6:*211pm,
6:u511pm,
10:*0february,
10:*2february,
10:u5february,
10:b4february,
21:*0continental-airline,
21:*2continental-airline,
21:u5continental-airline,
7:*0march,
7:*2march,
7:u5march,
7:b4march,
10:u1february,
10:u3february,
7:u1march,
7:u3march,
12:*0love-field,
12:*2love-field,
12:u5love-field,
19:*0northwest-airline,
19:*2northwest-airline,
19:u5northwest-airline,
19:b4northwest-airline,
19:u1northwest-airline,
19:u3northwest-airline,
5:*0iah,
5:*2iah,
5:u5iah,
5:b4iah,
5:*0hou,
5:*2hou,
5:u5hou,
5:b4hou,
12:b4love-field,
12:u1love-field,
12:u3love-field,
33:*0canadian-airlines-international,
33:*2canadian-airlines-international,
33:u5canadian-airlines-international,
4:*0cp,
4:*2cp,
4:u5cp,
4:b4cp,
19:*0canadian-airlines,
19:*2canadian-airlines,
19:u5canadian-airlines,
19:b4canadian-airlines,
9:*0choices,
9:*2choices,
9:u5choices,
9:b4choices,
9:u1choices,
9:u3choices,
7:u1718am,
7:u3718am,
12:*0dinnertime,
12:*2dinnertime,
12:u5dinnertime,
12:b4dinnertime,
6:*01288,
6:*21288,
6:u51288,
5:*0d10,
5:*2d10,
5:u5d10,
10:*0takeoffs,
10:*2takeoffs,
10:u5takeoffs,
10:*0landings,
10:*2landings,
10:b4takeoffs,
10:u1takeoffs,
10:u3takeoffs,
10:u5landings,
32:*0general-mitchell-international,
32:*2general-mitchell-international,
10:b4landings,
10:u1landings,
10:u3landings,
32:u5general-mitchell-international,
40:*0general-mitchell-international-airport,
40:*2general-mitchell-international-airport,
40:u5general-mitchell-international-airport,
5:*0off,
5:*2off,
5:u5off,
5:b4off,
5:u1off,
5:u3off,
9:*0takeoff,
9:*2takeoff,
9:u5takeoff,
9:b4takeoff,
9:u1takeoff,
9:u3takeoff,
26:*0general-mitchell-airport,
26:*2general-mitchell-airport,
26:u5general-mitchell-airport,
32:b4general-mitchell-international,
32:u1general-mitchell-international,
32:u3general-mitchell-international,
9:*0located,
9:*2located,
9:u5located,
18:*0general-mitchell,
18:*2general-mitchell,
18:u5general-mitchell,
12:*0lunch-time,
12:*2lunch-time,
12:u5lunch-time,
7:u1lunch,
7:u3lunch,
11:*0nationair,
11:*2nationair,
11:u5nationair,
11:b4nationair,
11:u1nationair,
11:u3nationair,
5:*0yyz,
5:*2yyz,
5:u5yyz,
24:*0lester-pearson-airport,
24:*2lester-pearson-airport,
24:u5lester-pearson-airport,
19:u1canadian-airlines,
19:u3canadian-airlines,
33:b4canadian-airlines-international,
33:u1canadian-airlines-international,
33:u3canadian-airlines-international,
9:*0midwest,
9:*2midwest,
9:*0express,
9:*2express,
9:u5midwest,
9:b4midwest,
9:u5express,
9:u1midwest,
9:u3midwest,
9:b4express,
9:u1express,
9:u3express,
7:*0720am,
7:*2720am,
7:u5720am,
9:*0highest,
9:*2highest,
9:u5highest,
9:b4highest,
9:u1highest,
9:u3highest,
0=0x1.c8ca38c5082ecp-3
81=0x1.32d47d570c17fp+0
1458=0x1.e61e067601e8ap-3
2349=0x1.a3620d3a75a22p-2
6642=0x1.59cc936ebe47bp+1
6644=0x1.599c3a6cf4764p-1
6647=0x1.0a7ad341889d2p-1
6648=0x1.40c71edad8857p-1
6650=0x1.ead66d39b4158p-2
6654=0x1.b84f65c0def57p-1
6658=0x1.b1735d9b655d4p-1
6670=0x1.069ac698a89b3p-2
6673=0x1.009490da4a4dfp+0
6691=0x1.eed04e3c2d2cap-2
6723=0x1.c8ca38c5082ecp-3
6804=0x1.32d47d570c17fp+0
8181=0x1.e61e067601e8ap-3
9072=0x1.a3620d3a75a22p-2
13365=0x1.59cc936ebe47bp+1
13367=0x1.599c3a6cf4764p-1
13370=0x1.0a7ad341889d2p-1
13371=0x1.40c71edad8857p-1
13373=0x1.ead66d39b4158p-2
13377=0x1.b84f65c0def57p-1
13381=0x1.b1735d9b655d4p-1
13393=0x1.069ac698a89b3p-2
13396=0x1.009490da4a4dfp+0
13414=0x1.eed04e3c2d2cap-2
20007=0x1.c1032fbd530e8p-1
20088=0x1.8b8fcedda19fap-2
20090=0x1.1c72e3bc543e6p+1
20091=0x1.09d58116ba1cbp-1
20092=-0x1.70f19dc8a9c67p-7
20093=0x1.47492138585f5p-7
20102=0x1.dc7fd68769ad1p-1
20103=0x1.0a5c42fb1f5c6p-1
20110=0x1.fdc85355f8da6p-2
20115=0x1.3b7c295b7b868p-8
20119=0x1.3d0481fc58eddp-1
20120=0x1.8c8f235128777p-5
20130=0x1.253a8675a7938p-3
20132=0x1.98c448266047bp-6
20137=0x1.e21926663d67cp-5
20148=0x1.d5a7b6dca95a4p-1
20150=0x1.08c1cc2adac04p-3
20152=-0x1.371d8524d767bp-7
20169=0x1.74f30f5855564p+0
20171=0x1.01a14d5c8eb6p-3
20172=0x1.25c1544b3d148p-1
20174=0x1.ccf9d66ea6fe5p-4
20184=0x1.5109e81c157c9p-1
20191=0x1.35e28c6462138p-1
20196=0x1.f622caac10c9p-2
20201=0x1.cc8693aeff534p-2
20211=0x1.0457f02637233p-3
20218=0x1.0a240dac38fe5p-1
20229=0x1.2a3658ca12c55p-1
20231=0x1.06c01aaf67261p-1
20331=0x1.43b849ffb1e98p+0
20333=-0x1.c5a2082b4982cp-1
20334=0x1.d9770a49acc88p-7
20345=0x1.c7724936ef8cbp+0
20493=0x1.08bb73c73d23fp-1
20495=-0x1.9216749abc97ep-3
20655=-0x1.b38ce8f986974p-9
21509=0x1.cd299423feeeep-3
21644=0x1.5069133d9a498p-3
22520=0x1.cf06e05def50fp-2
23004=0x1.f31b406ea63f7p-3
24707=-0x1.6d6029fe1c52fp-9
26320=0x1.ac36816214edp-3
26730=0x1.763649d3ae8eap+0
26734=-0x1.e78ffde191119p-2
26736=0x1.5164b5bfffad9p-2
26738=0x1.58c3f61b29c3p-1
26739=0x1.fad9715d15741p-2
26746=0x1.3a58e4d27431fp+0
26748=0x1.5660ffe9d7899p-3
26759=0x1.74f768d883d87p-1
26792=0x1.1ba9fef5a93cp-7
26811=0x1.8b8fcedda19fap-2
26813=0x1.1c72e3bc543e6p+1
26814=0x1.09d58116ba1cbp-1
26815=-0x1.70f19dc8a9c67p-7
26816=0x1.47492138585f5p-7
26825=0x1.dc7fd68769ad1p-1
26826=0x1.0a5c42fb1f5c6p-1
26833=0x1.fdc85355f8da6p-2
26838=0x1.3b7c295b7b868p-8
26842=0x1.3d0481fc58eddp-1
26843=0x1.8c8f235128777p-5
26853=0x1.253a8675a7938p-3
26855=0x1.98c448266047bp-6
26860=0x1.e21926663d67cp-5
26871=0x1.d5a7b6dca95a4p-1
26873=0x1.08c1cc2adac04p-3
26875=-0x1.371d8524d767bp-7
26892=0x1.74f30f5855564p+0
26894=0x1.01a14d5c8eb6p-3
26895=0x1.25c1544b3d148p-1
26897=0x1.ccf9d66ea6fe5p-4
26907=0x1.5109e81c157c9p-1
26914=0x1.35e28c6462138p-1
26919=0x1.f622caac10c9p-2
26924=0x1.cc8693aeff534p-2
26934=0x1.0457f02637233p-3
26941=0x1.0a240dac38fe5p-1
26952=0x1.2a3658ca12c55p-1
26954=0x1.06c01aaf67261p-1
27054=0x1.43b849ffb1e98p+0
27056=-0x1.c5a2082b4982cp-1
27057=0x1.d9770a49acc88p-7
27068=0x1.c7724936ef8cbp+0
27216=0x1.08bb73c73d23fp-1
27218=-0x1.9216749abc97ep-3
27378=-0x1.b38ce8f986974p-9
28232=0x1.cd299423feeeep-3
28367=0x1.5069133d9a498p-3
29243=0x1.cf06e05def50fp-2
29727=0x1.f31b406ea63f7p-3
31430=-0x1.6d6029fe1c52fp-9
33043=0x1.ac36816214edp-3
33453=0x1.763649d3ae8eap+0
33457=-0x1.e78ffde191119p-2
33459=0x1.5164b5bfffad9p-2
33461=0x1.58c3f61b29c3p-1
33462=0x1.fad9715d15741p-2
33469=0x1.3a58e4d27431fp+0
33471=0x1.5660ffe9d7899p-3
33482=0x1.74f768d883d87p-1
33515=0x1.1ba9fef5a93cp-7
33534=0x1.169fbba30bd91p+2
40095=0x1.2586f375a904cp-1
40180=0x1.08fd4642fc6c7p-6
40261=0x1.3200d5f5a8e7fp-6
40824=0x1.fe2b5e0395014p-2
46903=0x1.08fd4642fc6c7p-6
46984=0x1.3200d5f5a8e7fp-6
47547=0x1.fe2b5e0395014p-2
53622=0x1.896ca25fc0453p+1
60183=0x1.7df9099b3f739p+2
60264=0x1.741833423ce7p+0
60285=0x1.652b1c4f3dbbcp-2
60297=0x1.1dc6cdb3ede03p-4
60345=0x1.35f6bea21760ap-3
60363=0x1.4463f7e0a3ebp-5
60378=0x1.6312a0b9f43acp-3
61074=0x1.0d2d3467f9bbbp-1
61236=0x1.03421ee36f4efp-1
61317=-0x1.0f062563af933p-5
62046=0x1.6c13c65ed6105p-2
62127=0x1.6e547e872b12ep-2
62532=0x1.5b81647d08e13p-1
62937=0x1.b090f29635fbap-5
63018=0x1.1ff8182f3b55ep-2
63342=0x1.f8b01ce0f410fp-2
63585=0x1.1a648af07ada2p-1
65448=0x1.1323b76318b97p-1
65550=0x1.83603d8293e63p-3
65691=0x1.3a45596a17dcap-1
66906=0x1.8ab729c9075adp+0
66910=-0x1.1788c53f078adp+0
66912=0x1.53e6d6fac74b4p-2
66915=0x1.114cfc71ff773p+0
66922=0x1.2b250b65d6f2fp-2
66987=0x1.741833423ce7p+0
67008=0x1.652b1c4f3dbbcp-2
67020=0x1.1dc6cdb3ede03p-4
67068=0x1.35f6bea21760ap-3
67086=0x1.4463f7e0a3ebp-5
67101=0x1.6312a0b9f43acp-3
67797=0x1.0d2d3467f9bbbp-1
67959=0x1.03421ee36f4efp-1
68040=-0x1.0f062563af933p-5
68769=0x1.6c13c65ed6105p-2
68850=0x1.6e547e872b12ep-2
69255=0x1.5b81647d08e13p-1
69660=0x1.b090f29635fbap-5
69741=0x1.1ff8182f3b55ep-2
70065=0x1.f8b01ce0f410fp-2
70308=0x1.1a648af07ada2p-1
72171=0x1.1323b76318b97p-1
72273=0x1.83603d8293e63p-3
72414=0x1.3a45596a17dcap-1
73629=0x1.8ab729c9075adp+0
73633=-0x1.1788c53f078adp+0
73635=0x1.53e6d6fac74b4p-2
73638=0x1.114cfc71ff773p+0
73645=0x1.2b250b65d6f2fp-2
73710=0x1.9041bc7cf6b7dp+1
73712=-0x1.25854beaed4dcp-1
73714=0x1.e10a23203dd11p+2
73726=0x1.ced62be5fb0cbp-1
73736=0x1.45291d8f16df1p+1
73737=0x1.3e56e87429eacp-1
73748=0x1.1ffd8bb75bd43p-6
73755=0x1.f7713ab842717p-4
73758=0x1.1bbaf4f80a5abp+2
73771=0x1.82daa64ce84c7p+1
73774=0x1.2241cc08502bbp+1
80271=0x1.1d81cee9c248ep+0
80433=0x1.f1c172c5797dep-3
86994=0x1.6fd0efd7a9a86p+0
86995=0x1.4577420390ac9p-5
86997=-0x1.bee789ff70156p-4
86998=0x1.08a4626c231cp+0
86999=0x1.af816865faa1fp-1
87000=0x1.ff19a559a41ebp-5
87001=0x1.99f5580c4409ap-1
87002=0x1.973ec2dd055e9p-4
87004=0x1.6b7d26f6ebc86p-1
87008=-0x1.54f712ce3becp-8
87012=-0x1.4abeb3f114b98p-6
87013=0x1.2c7e5b4ac68c6p-2
87014=0x1.90a708716d69ap-2
87015=0x1.f88208eced0bdp-1
87017=0x1.3081c2ee0014ep-1
87020=0x1.a392848c18823p+0
87022=0x1.bf8fd7995ae4bp-4
87033=0x1.6256027cbac6fp-7
87036=-0x1.6a1e7f4a06403p-1
87042=0x1.2dd1629608c0dp-1
87045=0x1.4b0cb8f6d505cp-1
87048=-0x1.c5fa46a5464e9p-3
87049=-0x1.2bb69c4804bf8p-2
87058=0x1.2f6677d37e15p-2
87071=0x1.4805ed84ced39p-2
87156=0x1.f1c172c5797dep-3
93717=0x1.6fd0efd7a9a86p+0
93718=0x1.4577420390ac9p-5
93720=-0x1.bee789ff70156p-4
93721=0x1.08a4626c231cp+0
93722=0x1.af816865faa1fp-1
93723=0x1.ff19a559a41ebp-5
93724=0x1.99f5580c4409ap-1
93725=0x1.973ec2dd055e9p-4
93727=0x1.6b7d26f6ebc86p-1
93731=-0x1.54f712ce3becp-8
93735=-0x1.4abeb3f114b98p-6
93736=0x1.2c7e5b4ac68c6p-2
93737=0x1.90a708716d69ap-2
93738=0x1.f88208eced0bdp-1
93740=0x1.3081c2ee0014ep-1
93743=0x1.a392848c18823p+0
93745=0x1.bf8fd7995ae4bp-4
93756=0x1.6256027cbac6fp-7
93759=-0x1.6a1e7f4a06403p-1
93765=0x1.2dd1629608c0dp-1
93768=0x1.4b0cb8f6d505cp-1
93771=-0x1.c5fa46a5464e9p-3
93772=-0x1.2bb69c4804bf8p-2
93781=0x1.2f6677d37e15p-2
93794=0x1.4805ed84ced39p-2
93798=0x1.6dfac36fc7048p+1
100359=0x1.2bf1db36a7c07p+3
100440=0x1.a133f75890358p-3
100441=0x1.03c743993aa76p-2
100446=0x1.a088bc649b714p-1
100448=0x1.dc4211683f2c8p-1
100451=0x1.7872224141e81p+0
100452=0x1.2f151d2d04551p+0
100459=0x1.38528ea25df3bp-3
100461=-0x1.dc90fe5dd1726p-6
100521=0x1.d777ffa1e0172p-2
100522=0x1.1e4cbbd88301fp-2
100527=0x1.8ad47319ad3e6p-2
100532=0x1.b075caa38c5d4p-5
100533=0x1.50e748e7a60d7p-1
100534=0x1.01127f1cb4e7fp-1
100540=0x1.b1414a6567958p-5
100542=-0x1.a4aee770824bep-6
100554=-0x1.9fce79d1b413ep-2
101181=0x1.53f5b9c1d2bbp-2
101250=0x1.2e76480360c22p-2
101499=0x1.5159047160cfdp-2
101516=0x1.5abfba47c74adp-1
101526=0x1.1107cc8c68a41p-2
102708=0x1.d3b6434d1d67cp-7
104498=0x1.1848e9f23428ep-1
107082=0x1.5ae99e8aa08d6p+0
107163=0x1.a133f75890358p-3
107164=0x1.03c743993aa76p-2
107169=0x1.a088bc649b714p-1
107171=0x1.dc4211683f2c8p-1
107174=0x1.7872224141e81p+0
107175=0x1.2f151d2d04551p+0
107182=0x1.38528ea25df3bp-3
107184=-0x1.dc90fe5dd1726p-6
107244=0x1.d777ffa1e0172p-2
107245=0x1.1e4cbbd88301fp-2
107250=0x1.8ad47319ad3e6p-2
107255=0x1.b075caa38c5d4p-5
107256=0x1.50e748e7a60d7p-1
107257=0x1.01127f1cb4e7fp-1
107263=0x1.b1414a6567958p-5
107265=-0x1.a4aee770824bep-6
107277=-0x1.9fce79d1b413ep-2
107904=0x1.53f5b9c1d2bbp-2
107973=0x1.2e76480360c22p-2
108222=0x1.5159047160cfdp-2
108239=0x1.5abfba47c74adp-1
108249=0x1.1107cc8c68a41p-2
109431=0x1.d3b6434d1d67cp-7
111221=0x1.1848e9f23428ep-1
113805=0x1.5ae99e8aa08d6p+0
113886=0x1.fe1d698a91b7dp-1
113887=0x1.535d625fd7598p+1
113890=0x1.355fe65933929p-1
113892=0x1.e4133504cbd8ep+0
113893=0x1.4c07aa0d31e94p+0
113894=0x1.4fc5cbcbc20fbp-3
113895=0x1.ecb91a0c5185cp+0
113897=0x1.1e98af6728905p-3
113898=0x1.16a8394a67e5cp+1
113901=-0x1.af0db5081dda4p-3
113902=0x1.e491bae2c5bfp-3
113903=0x1.410f5a77ec2efp+1
113908=0x1.699d0e3ae6cp+0
113912=-0x1.62c54abda5fbdp-3
113915=-0x1.f112754bb25c5p-2
113916=0x1.c0a0a49af6f99p-1
113917=0x1.c45d7b1f6eb93p-1
113918=0x1.87b1ed81559bdp+0
113928=-0x1.573e94cdd7db4p-5
113935=0x1.44e2ef74d10a1p+1
113939=0x1.f316ccad4cf0ap-3
113941=-0x1.686b5868b869p-4
113965=0x1.596ba8e3dca28p-3
120448=0x1.e9e4ec039269dp+2
120528=0x1.6a6968e3f9c24p-1
120530=-0x1.16ba337c2427ep-1
120533=0x1.46f15c3cc2d45p-2
120534=0x1.8fa09ec9ff26dp-3
120536=0x1.4424298a55133p-3
120537=0x1.f4045f526a8efp-3
120539=0x1.c37d415911229p-3
120545=-0x1.a5ebe507124a1p-9
120551=0x1.4ecaaba4b56dap-2
120556=0x1.42590ea36152p-8
120557=0x1.aa80d6181cbfdp-1
120565=0x1.48b9d8a09e62cp-3
120566=0x1.c327617ab4dafp-2
120568=0x1.eb30d37be021ap-10
120579=0x1.1daa26baed46p-2
120609=0x1.40d93556a1f67p-1
120614=0x1.a3c0063aee057p-4
120615=0x1.671e67ef5a9dp-2
120617=0x1.4c554a47097e6p-1
120618=0x1.21b8c4eb13803p-2
120629=0x1.7449a7ad8975ap-1
120632=0x1.2122d6edd5fccp+0
120634=0x1.99bb482028fa1p-5
120637=0x1.3393007bc0c93p-4
120638=0x1.00e3dbd7cdebbp-3
120639=-0x1.3dde4c131915dp-3
120647=0x1.9027d6ea03472p-1
120657=0x1.ea20ee1f9a663p-2
120660=0x1.3e9e9b372f1dfp-2
120662=0x1.bdccc40420311p-7
120664=0x1.9cf6456ebb3d2p-3
120690=0x1.707e6f3ccd481p-2
121014=0x1.a10b0814efb5p-3
121020=0x1.00ff475e7ba99p+0
121095=0x1.43a7308a65409p-3
121181=0x1.d6e300b8d3f89p-1
121257=0x1.06bce0c3fbfbap-1
121286=0x1.3e20f09c9a3adp+0
121430=0x1.fa65a71ba741ep-1
121500=0x1.b9d0deb7af2cp-1
121581=0x1.97def688003fp-2
121691=0x1.9f4c43c01c53cp+0
121986=0x1.235c3c8af4316p-3
122020=0x1.22da2875fdc76p+0
122084=0x1.b8ed997e2128dp-1
122095=0x1.34703c350f004p-1
122148=0x1.6491a4a79833ep-1
122229=0x1.936df2958aedap-1
122877=0x1.d15eda86e517ep-4
122958=0x1.8afe935f459ccp-1
123282=0x1.3199fff5afdc5p-2
123808=0x1.8028b90e3d3a1p-1
124038=0x1.d07e45931fb4ep-5
124092=0x1.d480d6c3893f2p-4
124761=0x1.926c09cee60b2p-3
125070=-0x1.9a8dd73906749p-6
125094=0x1.0a32d14d4f7c8p+1
127170=0x1.54d44df1f1afep+0
127172=0x1.8490a512e102ap-6
127176=0x1.195309414c0cp-3
127177=0x1.51fae9c749a4p-2
127179=0x1.9eb3e399ad3eap-2
127182=0x1.d7581347c191fp-3
127195=0x1.3b122e64e2255p-2
127203=0x1.496424d538aa5p-2
127206=0x1.42e8e354280c3p-1
127207=0x1.3e938f219cfcfp-1
127212=-0x1.41241f59ef6f3p-3
127226=0x1.b955d50aca2f8p-2
127230=0x1.34030b928e808p-1
127241=0x1.ede575f2080b3p-1
127250=0x1.8380de463622ep-1
127251=0x1.6a6968e3f9c24p-1
127253=-0x1.16ba337c2427ep-1
127256=0x1.46f15c3cc2d45p-2
127257=0x1.8fa09ec9ff26dp-3
127259=0x1.4424298a55133p-3
127260=0x1.f4045f526a8efp-3
127262=0x1.c37d415911229p-3
127268=-0x1.a5ebe507124a1p-9
127274=0x1.4ecaaba4b56dap-2
127279=0x1.42590ea36152p-8
127280=0x1.aa80d6181cbfdp-1
127288=0x1.48b9d8a09e62cp-3
127289=0x1.c327617ab4dafp-2
127291=0x1.eb30d37be021ap-10
127302=0x1.1daa26baed46p-2
127332=0x1.40d93556a1f67p-1
127337=0x1.a3c0063aee057p-4
127338=0x1.671e67ef5a9dp-2
127340=0x1.4c554a47097e6p-1
127341=0x1.21b8c4eb13803p-2
127352=0x1.7449a7ad8975ap-1
127355=0x1.2122d6edd5fccp+0
127357=0x1.99bb482028fa1p-5
127360=0x1.3393007bc0c93p-4
127361=0x1.00e3dbd7cdebbp-3
127362=-0x1.3dde4c131915dp-3
127370=0x1.9027d6ea03472p-1
127380=0x1.ea20ee1f9a663p-2
127383=0x1.3e9e9b372f1dfp-2
127385=0x1.bdccc40420311p-7
127387=0x1.9cf6456ebb3d2p-3
127413=0x1.707e6f3ccd481p-2
127737=0x1.a10b0814efb5p-3
127743=0x1.00ff475e7ba99p+0
127818=0x1.43a7308a65409p-3
127904=0x1.d6e300b8d3f89p-1
127980=0x1.06bce0c3fbfbap-1
128009=0x1.3e20f09c9a3adp+0
128153=0x1.fa65a71ba741ep-1
128223=0x1.b9d0deb7af2cp-1
128304=0x1.97def688003fp-2
128414=0x1.9f4c43c01c53cp+0
128709=0x1.235c3c8af4316p-3
128743=0x1.22da2875fdc76p+0
128807=0x1.b8ed997e2128dp-1
128818=0x1.34703c350f004p-1
128871=0x1.6491a4a79833ep-1
128952=0x1.936df2958aedap-1
129600=0x1.d15eda86e517ep-4
129681=0x1.8afe935f459ccp-1
130005=0x1.3199fff5afdc5p-2
130531=0x1.8028b90e3d3a1p-1
130761=0x1.d07e45931fb4ep-5
130815=0x1.d480d6c3893f2p-4
131484=0x1.926c09cee60b2p-3
131793=-0x1.9a8dd73906749p-6
131817=0x1.0a32d14d4f7c8p+1
133893=0x1.54d44df1f1afep+0
133895=0x1.8490a512e102ap-6
133899=0x1.195309414c0cp-3
133900=0x1.51fae9c749a4p-2
133902=0x1.9eb3e399ad3eap-2
133905=0x1.d7581347c191fp-3
133918=0x1.3b122e64e2255p-2
133926=0x1.496424d538aa5p-2
133929=0x1.42e8e354280c3p-1
133930=0x1.3e938f219cfcfp-1
133935=-0x1.41241f59ef6f3p-3
133949=0x1.b955d50aca2f8p-2
133953=0x1.34030b928e808p-1
133964=0x1.ede575f2080b3p-1
133973=0x1.8380de463622ep-1
134055=0x1.072ce16ac4662p+1
134075=0x1.872fbe3f8d349p-1
140535=0x1.ab9c12b24343ep+2
140678=0x1.5985a5593a60cp-2
140697=0x1.c7083713fda1ap-2
140759=0x1.64b0662621e1cp-2
142560=0x1.bcff2584386aep-3
147258=0x1.2e1b9b1ee5e7ap-3
147401=0x1.5985a5593a60cp-2
147420=0x1.c7083713fda1ap-2
147482=0x1.64b0662621e1cp-2
149283=0x1.bcff2584386aep-3
153981=0x1.2e1b9b1ee5e7ap-3
154062=0x1.0c7ce58586995p+1
154070=0x1.1f49ba8fc6d25p-1
154072=0x1.fbb125d669dap-1
154075=0x1.0c82bc42be415p+1
154091=0x1.35b95c17805d3p+2
154113=0x1.a51a8de76a48p+0
160623=0x1.6c8dcd7114bbcp+2
160719=0x1.0d04055bdad8ap-3
160787=0x1.07f2065796156p-3
160789=-0x1.3cc518e941ecdp-6
160800=0x1.1e2afc2da5153p-3
160801=0x1.f2a1b795442dap-3
165325=0x1.8c77163a35293p-3
167346=0x1.08b0b7e473dfp-1
167348=0x1.e928ce683c3b1p-1
167351=0x1.1fe4cbfcec2d8p-4
167354=0x1.9bf397876eedfp-3
167357=0x1.2b2bce079f1f9p-3
167358=0x1.2405dfcc9b142p-7
167375=0x1.4418e53641f3p+0
167406=0x1.5a180c40247d9p-12
167442=0x1.0d04055bdad8ap-3
167510=0x1.07f2065796156p-3
167512=-0x1.3cc518e941ecdp-6
167523=0x1.1e2afc2da5153p-3
167524=0x1.f2a1b795442dap-3
172048=0x1.8c77163a35293p-3
174069=0x1.08b0b7e473dfp-1
174071=0x1.e928ce683c3b1p-1
174074=0x1.1fe4cbfcec2d8p-4
174077=0x1.9bf397876eedfp-3
174080=0x1.2b2bce079f1f9p-3
174081=0x1.2405dfcc9b142p-7
174098=0x1.4418e53641f3p+0
174129=0x1.5a180c40247d9p-12
174150=0x1.3d2c5059fe687p+0
174152=0x1.8b309f6dffdd3p+2
174153=0x1.914fda083964cp+0
174154=-0x1.2796cd84b189fp+0
174166=0x1.17c15b6bd7a0cp-1
174172=0x1.2dc569ce974a9p+2
174210=0x1.24ebba16aaca9p+1
180713=0x1.4b02b78a2043p+1
180715=0x1.473900f307479p+1
180727=0x1.2a726389e893bp+0
180737=0x1.f5f84845c2e84p+0
180792=0x1.384ec8a81e03ep+0
180795=0x1.a1b1a4f973dep-2
180796=-0x1.28db1a5553c5ep-1
180802=-0x1.a8e4f64795aa2p-2
180806=0x1.674872ae4786fp+0
180810=0x1.41f554825d378p-2
180814=0x1.d3ab040bf8f7dp+0
180834=0x1.a816589d9f795p-2
180847=0x1.0b7ff52ac5115p-5
180848=0x1.3d2aff48cff66p-4
180873=0x1.384ec8a81e03ep+0
180876=0x1.a1b1a4f973dep-2
180877=-0x1.28db1a5553c5ep-1
180883=-0x1.a8e4f64795aa2p-2
180887=0x1.674872ae4786fp+0
180891=0x1.41f554825d378p-2
180895=0x1.d3ab040bf8f7dp+0
180915=0x1.a816589d9f795p-2
180928=0x1.0b7ff52ac5115p-5
180929=0x1.3d2aff48cff66p-4
181116=0x1.6ed6912be6f9dp+0
181119=0x1.85cfeaf6ebed9p+1
181134=0x1.5fafa0440feffp-2
181278=0x1.24c0564284a59p-1
181281=-0x1.3718068ef6df6p-9
181299=0x1.0fd32600e98a1p-2
181342=0x1.12d53a703effap+2
182239=0x1.cd10b2ad2d593p+0
182294=0x1.40ff50ad828f6p+2
183060=0x1.2f39ca32a2533p-1
187515=-0x1.afbafbb66c6f9p-1
187517=-0x1.e438a300a291p+0
187518=0x1.5c5c210778138p+2
187519=-0x1.48f07f1fef076p+1
187530=-0x1.bbea3dcab299fp-2
187559=0x1.0a1bbf52cade5p+1
187579=0x1.81fdbff2df5ffp+2
187585=0x1.4d894bfa5fb55p+2
187677=0x1.16cf819318f63p-2
189864=0x1.24d8f39464bc8p-2
189945=0x1.2220cb8930662p-2
190755=0x1.198316c4376aep-3
192699=0x1.ba2ff5f4bccf2p-2
194238=0x1.68cd1d23287fep-1
194240=-0x1.0f4e492c99efcp-3
194242=0x1.47079235948a4p-1
194243=0x1.30263253394a2p-4
194255=0x1.0935ad9b27ef5p-3
194259=0x1.ed4f128f83861p-5
194265=0x1.1b3cc8a7a6ed2p-1
194400=0x1.16cf819318f63p-2
196587=0x1.24d8f39464bc8p-2
196668=0x1.2220cb8930662p-2
197478=0x1.198316c4376aep-3
199422=0x1.ba2ff5f4bccf2p-2
200961=0x1.68cd1d23287fep-1
200963=-0x1.0f4e492c99efcp-3
200965=0x1.47079235948a4p-1
200966=0x1.30263253394a2p-4
200978=0x1.0935ad9b27ef5p-3
200982=0x1.ed4f128f83861p-5
200988=0x1.1b3cc8a7a6ed2p-1
201204=-0x1.64d23ad46377p+0
201285=0x1.6015bb939c337p+1
201287=0x1.9c0df37b5649ap-3
201295=0x1.7bfcc7b3e7a9cp-3
204606=0x1.6acee2755762p-4
206226=0x1.b90b09c2005a9p+0
206247=0x1.6d23b76bb9db2p-3
206712=0x1.5c8b36c7308b4p-3
207603=0x1.af23116f7e9dcp-1
207604=-0x1.72b494deaca27p-6
207605=0x1.01a7b5840d0fbp-1
207606=-0x1.827184a6abe86p-4
207607=-0x1.0c759fd682054p-3
207608=0x1.3bbc929611b46p-1
207609=0x1.28ddd5cc0ce61p-1
207610=-0x1.07574cb502228p-5
207611=0x1.fd3c48649d276p-5
207614=0x1.63d3d39e895adp-2
207615=0x1.60784d29804b9p-2
207616=0x1.3ed723047c20fp-5
207618=0x1.0f7f1218b4743p-4
207619=0x1.cc9bf421abd28p-4
207620=0x1.3fe3b4615c8a6p-2
207622=0x1.b3fa59d52e716p-8
207623=0x1.31e32f22617dfp-2
207625=0x1.a182a8763413cp-4
207627=0x1.c088b4ba039f1p-5
207628=-0x1.f2bb5f05a33b4p-4
207629=0x1.d47a19cf3c945p-4
207630=0x1.d6f84de04661cp-2
207632=0x1.a8cd64010e2f3p-1
207633=0x1.5dc7b7b255b5ep-1
207635=0x1.c16426dff97e2p-4
207636=-0x1.6468ba4cebb69p-8
207641=0x1.26f008f630168p-2
207642=-0x1.ccbce56f8a853p-4
207643=0x1.f53c2226f231fp-5
207645=-0x1.4c178dcf12643p-2
207646=0x1.d1d34c01e016cp-7
207650=0x1.109e123e5e5p-4
207651=0x1.289b175301335p-3
207654=0x1.6a798f9c04793p-2
207656=0x1.88d4898e440fcp-6
207658=0x1.63d6625c391ddp-1
207662=0x1.be1eb38d9f23cp-4
207664=0x1.69c1944a30ad6p-11
207665=0x1.52c5e1c64fa9fp-4
207671=0x1.3ddd55ee2828ep-4
207674=0x1.531badb7e428cp-5
207684=0x1.8ed2a8f44e53bp-2
207686=0x1.8d17f36ce6155p-2
207688=0x1.13ea571e2df9ep+0
207689=0x1.a1e94db5a6c2p-2
207690=0x1.a1a1867941db2p-3
207692=0x1.ce271064d7224p-1
207694=0x1.247fec148bceap-2
207695=0x1.fb4f9332fdee2p-3
207696=0x1.32c81dd8280bap-1
207697=0x1.17d8fe69c0bc9p+0
207699=0x1.1bcb541b1ce57p+0
207700=0x1.9b9b4dc7572dfp+0
207701=0x1.76107f8e01332p-1
207702=0x1.591a6e9c72672p-2
207704=0x1.a600b68bdefd8p-3
207706=0x1.9b21c7fc08a9dp-1
207707=0x1.0b9e1ae14b8b4p+0
207709=0x1.514ac24e655dep+0
207710=0x1.51c96d1419a5bp-5
207711=0x1.ff22ee117c12dp-2
207712=0x1.417528793f1e9p-1
207713=0x1.6235d283cbc8p-13
207714=0x1.8887b0907d93cp-3
207715=0x1.142c0b0f85d29p-3
207716=0x1.59fd1f8160a1bp+0
207719=-0x1.b081cdf51536fp-5
207722=0x1.0528bbe959834p-2
207725=0x1.d4aacc05a323ep-2
207727=0x1.fde6b6b8729bap-1
207729=0x1.7d87ac6091005p-6
207732=0x1.23a3f1fc00d14p-1
207735=0x1.9f93feaaef6efp-3
207736=0x1.16eb851cdf793p-1
207737=0x1.f4b3345503dd2p-1
207739=0x1.c14fc9dff3782p-2
207741=0x1.196cb51568e4bp-1
207743=0x1.7d4aeddab1fd4p-1
207745=0x1.d273008718ab8p-1
207746=0x1.9254f5184f4bcp-1
207748=0x1.6f79f8d595532p-3
207750=0x1.5a932a35c44b3p-2
207753=0x1.949b9507c8d1ep-4
207755=0x1.fcec176e60381p-3
207756=0x1.ef0dd706eafc8p-3
207757=0x1.0e35bb003841fp-2
207803=0x1.e8175ebe78c4ap-3
207846=-0x1.42ba6eb58e922p-4
207848=0x1.5049ad98b1d6p+0
207860=0x1.198886c96a204p-1
207868=0x1.68f124d05191p-4
207897=0x1.812dc706e02c1p-3
207901=0x1.57272d10a0505p-2
208008=-0x1.5fa543f2060d1p-3
208013=0x1.cc5c36109272ep-2
208020=0x1.d181cf2d39287p-1
208027=0x1.6321fbf1ff9d4p-3
208028=0x1.46e1bbd6ff768p-7
208034=0x1.1e614a02696f4p+0
208056=0x1.341c087cf4ef3p-2
208059=0x1.0488b3db9b8cap-3
208089=-0x1.321aaffef11f9p-7
208095=0x1.1da7a11c23871p+0
208179=0x1.fc84e4376c8f2p-1
208221=0x1.5c60a92de9591p-2
208251=-0x1.0bb2c05ca0a3ap-7
208256=0x1.f9ffe727c61a5p-2
208332=0x1.cce5243e00c49p-7
208361=0x1.15d73791fcb23p+0
208381=0x1.c9c73de4135fcp-1
208494=0x1.7dbf45342d1a6p-1
208500=0x1.899c1a71b45c1p+0
208505=0x1.bf68bfc9e1386p+0
208575=0x1.68009a5db038fp-2
208580=0x1.81a8ba647ad24p-4
208625=0x1.737882b577685p-2
208626=0x1.234b9a0f574c7p-6
208737=0x1.0844ffc6f3dfbp-1
208766=0x1.70dc0336015d3p-1
208914=0x1.497bae299c2a1p-4
208980=0x1.bf63ac0798d4bp-1
209004=0x1.16588937705c7p+1
209011=0x1.d7501939ae3adp-2
209024=0x1.3e730087e4115p+0
209047=0x1.c2679937ba78cp-1
209072=0x1.a1805ce3c075p-4
209095=0x1.cb5ee40ad1391p+0
209159=0x1.e9f8a2c0fab4dp+0
209709=0x1.a92d6fbddf05fp-1
209922=-0x1.906182463973bp-2
209939=0x1.fc6f3c890be59p+0
209952=0x1.b9242a0e83d48p-2
209972=0x1.8cca70f2ee7f5p-4
210033=0x1.3b7f6598b221bp-2
210276=0x1.0c4215fdb4fc6p-2
210428=0x1.fb0469f66ee85p-1
210435=0x1.f81d4086fca1p-1
210637=0x1.3938f7c65d0e2p+0
210883=0x1.8db0fb0df084ep+1
211113=0x1.2244997a5443bp+1
211116=0x1.e261f42d0026bp-1
211129=0x1.5d69052b0674fp-2
211167=0x1.480a148b48dccp-2
211457=0x1.c45fcaa4afa72p+1
211821=0x1.d40161a58c4b8p-1
211896=0x1.71652129f9586p-1
211977=0x1.25905b0b4a326p-1
212113=0x1.9aa2aff06f9fcp+0
212145=-0x1.00a95d02fa909p-3
212169=0x1.fde44e95800d9p+0
212226=0x1.3206d1871f04fp-2
