#mdl#2#21276
#rdr#3/0/0
9:*0%x[1,0],
9:*1%x[1,0],
9:*2%x[1,0],
#qrk#81
1:O,
15:B-cost_relative,
19:B-fromloc.city_name,
20:B-fromloc.state_code,
17:B-toloc.city_name,
22:B-depart_date.day_name,
27:B-depart_time.period_of_day,
27:B-depart_date.date_relative,
14:B-airline_name,
13:B-flight_time,
27:B-depart_time.time_relative,
18:B-depart_time.time,
12:B-flight_mod,
14:B-airline_code,
20:B-fromloc.state_name,
19:B-stoploc.city_name,
11:B-city_name,
24:B-depart_date.day_number,
24:B-depart_date.month_name,
9:B-connect,
12:B-round_trip,
24:B-depart_time.period_mod,
22:B-fromloc.airport_name,
13:B-flight_stop,
12:B-state_name,
15:B-aircraft_code,
18:B-toloc.state_name,
18:B-arrive_time.time,
12:B-class_type,
15:B-flight_number,
27:B-arrive_time.period_of_day,
16:B-transport_type,
14:B-airport_name,
8:B-return,
18:B-depart_date.year,
15:B-period_of_day,
15:B-time_relative,
6:B-time,
13:B-fare_amount,
24:B-arrive_date.month_name,
24:B-arrive_date.day_number,
6:B-meal,
27:B-arrive_time.time_relative,
18:B-meal_description,
12:B-state_code,
9:B-economy,
24:B-return_date.month_name,
24:B-return_date.day_number,
20:B-toloc.airport_name,
5:B-mod,
13:B-flight_days,
28:B-depart_date.today_relative,
18:B-restriction_code,
17:B-fare_basis_code,
27:B-arrive_date.date_relative,
22:B-arrive_date.day_name,
4:B-or,
11:B-meal_code,
24:B-arrive_time.start_time,
22:B-arrive_time.end_time,
22:B-fromloc.airport_code,
20:B-toloc.airport_code,
14:B-airport_code,
24:B-arrive_time.period_mod,
18:B-toloc.state_code,
24:B-depart_time.start_time,
22:B-depart_time.end_time,
16:B-today_relative,
28:B-arrive_date.today_relative,
10:B-day_name,
20:B-stoploc.state_code,
27:B-return_date.date_relative,
22:B-stoploc.airport_name,
22:B-return_date.day_name,
11:B-days_code,
12:B-month_name,
12:B-day_number,
20:B-toloc.country_name,
28:B-return_date.today_relative,
24:B-return_time.period_mod,
27:B-return_time.period_of_day,
#qrk#3075
6:*0like,
6:*1like,
6:*2like,
4:*0to,
4:*1to,
4:*2to,
6:*0find,
6:*1find,
6:*2find,
5:*0the,
5:*1the,
5:*2the,
10:*0cheapest,
10:*1cheapest,
10:*2cheapest,
8:*0flight,
8:*1flight,
8:*2flight,
6:*0from,
6:*1from,
6:*2from,
12:*0washington,
12:*1washington,
12:*2washington,
4:*0dc,
4:*1dc,
4:*2dc,
9:*0atlanta,
9:*1atlanta,
9:*2atlanta,
6:*0_x+1,
6:*1_x+1,
6:*2_x+1,
11:*0traveling,
11:*1traveling,
11:*2traveling,
8:*0dallas,
8:*1dallas,
8:*2dallas,
14:*0philadelphia,
14:*1philadelphia,
14:*2philadelphia,
6:*0also,
6:*1also,
6:*2also,
6:*0need,
6:*1need,
6:*2need,
4:*0go,
4:*1go,
4:*2go,
15:*0san-francisco,
15:*1san-francisco,
15:*2san-francisco,
4:*0on,
4:*1on,
4:*2on,
11:*0wednesday,
11:*1wednesday,
11:*2wednesday,
9:*0evening,
9:*1evening,
9:*2evening,
5:*0you,
5:*1you,
5:*2you,
3:*0i,
3:*1i,
3:*2i,
8:*0travel,
8:*1travel,
8:*2travel,
6:*0next,
6:*1next,
6:*2next,
5:*0fly,
5:*1fly,
5:*2fly,
22:*0continental-airlines,
22:*1continental-airlines,
22:*2continental-airlines,
9:*0between,
9:*1between,
9:*2between,
8:*0boston,
8:*1boston,
8:*2boston,
5:*0and,
5:*1and,
5:*2and,
6:*0tell,
6:*1tell,
6:*2tell,
4:*0me,
4:*1me,
4:*2me,
9:*0flights,
9:*1flights,
9:*2flights,
10:*0thursday,
10:*1thursday,
10:*2thursday,
7:*0would,
7:*1would,
7:*2would,
6:*0fare,
6:*1fare,
6:*2fare,
3:*0a,
3:*1a,
3:*2a,
6:*0give,
6:*1give,
6:*2give,
14:*0flight-times,
14:*1flight-times,
14:*2flight-times,
11:*0baltimore,
11:*1baltimore,
11:*2baltimore,
4:*0in,
4:*1in,
4:*2in,
9:*0morning,
9:*1morning,
9:*2morning,
8:*0before,
8:*1before,
8:*2before,
3:*08,
3:*18,
3:*28,
8:*0please,
8:*1please,
8:*2please,
23:*0times-of-your-flights,
23:*1times-of-your-flights,
23:*2times-of-your-flights,
11:*08-o'clock,
11:*18-o'clock,
11:*28-o'clock,
9:*0leaving,
9:*1leaving,
9:*2leaving,
4:*0do,
4:*1do,
4:*2do,
6:*0have,
6:*1have,
6:*2have,
8:*0denver,
8:*1denver,
8:*2denver,
10:*0arriving,
10:*1arriving,
10:*2arriving,
4:*0is,
4:*1is,
4:*2is,
6:*0your,
6:*1your,
6:*2your,
6:*0last,
6:*1last,
6:*2last,
7:*0there,
7:*1there,
7:*2there,
19:*0american-airlines,
19:*1american-airlines,
19:*2american-airlines,
6:*0does,
6:*1does,
6:*2does,
6:*0time,
6:*1time,
6:*2time,
10:*0earliest,
10:*1earliest,
10:*2earliest,
4:*0of,
4:*1of,
4:*2of,
13:*0information,
13:*1information,
13:*2information,
12:*0concerning,
12:*1concerning,
12:*2concerning,
5:*0one,
5:*1one,
5:*2one,
4:*0as,
4:*1as,
4:*2as,
10:*0possible,
10:*1possible,
10:*2possible,
18:*0american-airline,
18:*1american-airline,
18:*2american-airline,
15:*0early-morning,
15:*1early-morning,
15:*2early-morning,
17:*0times-of-flight,
17:*1times-of-flight,
17:*2times-of-flight,
5:*0twa,
5:*1twa,
5:*2twa,
12:*0fort-worth,
12:*1fort-worth,
12:*2fort-worth,
7:*0texas,
7:*1texas,
7:*2texas,
12:*0interested,
12:*1interested,
12:*2interested,
6:*0that,
6:*1that,
6:*2that,
6:*0stop,
6:*1stop,
6:*2stop,
12:*0pittsburgh,
12:*1pittsburgh,
12:*2pittsburgh,
5:*0for,
5:*1for,
5:*2for,
6:*0want,
6:*1want,
6:*2want,
8:*0monday,
8:*1monday,
8:*2monday,
10:*0airlines,
10:*1airlines,
10:*2airlines,
8:*0ground,
8:*1ground,
8:*2ground,
16:*0transportation,
16:*1transportation,
16:*2transportation,
9:*0airport,
9:*1airport,
9:*2airport,
10:*0downtown,
10:*1downtown,
10:*2downtown,
9:*0tuesday,
9:*1tuesday,
9:*2tuesday,
14:*0twenty-first,
14:*1twenty-first,
14:*2twenty-first,
6:*010am,
6:*110am,
6:*210am,
6:*0what,
6:*1what,
6:*2what,
6:*0type,
6:*1type,
6:*2type,
10:*0aircraft,
10:*1aircraft,
10:*2aircraft,
6:*0used,
6:*1used,
6:*2used,
8:*0flying,
8:*1flying,
8:*2flying,
17:*0united-airlines,
17:*1united-airlines,
17:*2united-airlines,
7:*0right,
7:*1right,
7:*2right,
5:*0let,
5:*1let,
5:*2let,
6:*0know,
6:*1know,
6:*2know,
7:*0using,
7:*1using,
7:*2using,
6:*0they,
6:*1they,
6:*2they,
5:*0use,
5:*1use,
5:*2use,
7:*0these,
7:*1these,
7:*2these,
4:*010,
4:*110,
4:*210,
6:*0i'll,
6:*1i'll,
6:*2i'll,
5:*0try,
5:*1try,
5:*2try,
6:*0kind,
6:*1kind,
6:*2kind,
7:*0flies,
7:*1flies,
7:*2flies,
12:*010-o'clock,
12:*110-o'clock,
12:*210-o'clock,
11:*0september,
11:*1september,
11:*2september,
11:*0twentieth,
11:*1twentieth,
11:*2twentieth,
10:*0stopover,
10:*1stopover,
10:*2stopover,
5:*0are,
5:*1are,
5:*2are,
4:*0an,
4:*1an,
4:*2an,
12:*0connecting,
12:*1connecting,
12:*2connecting,
6:*0wish,
6:*1wish,
6:*2wish,
9:*0airline,
9:*1airline,
9:*2airline,
7:*0plane,
7:*1plane,
7:*2plane,
9:*0one-way,
9:*1one-way,
9:*2one-way,
11:*0available,
11:*1available,
11:*2available,
4:*0at,
4:*1at,
4:*2at,
10:*0noontime,
10:*1noontime,
10:*2noontime,
8:*0around,
8:*1around,
8:*2around,
16:*0delta-airlines,
16:*1delta-airlines,
16:*2delta-airlines,
18:*0eastern-airlines,
18:*1eastern-airlines,
18:*2eastern-airlines,
7:*0early,
7:*1early,
7:*2early,
5:*0day,
5:*1day,
5:*2day,
6:*0will,
6:*1will,
6:*2will,
8:*0arrive,
8:*1arrive,
8:*2arrive,
16:*0denver-airport,
16:*1denver-airport,
16:*2denver-airport,
9:*0nonstop,
9:*1nonstop,
9:*2nonstop,
8:*0repeat,
8:*1repeat,
8:*2repeat,
12:*0departures,
12:*1departures,
12:*2departures,
8:*0august,
8:*1august,
8:*2august,
12:*0nineteenth,
12:*1nineteenth,
12:*2nineteenth,
6:*0rate,
6:*1rate,
6:*2rate,
5:*0any,
5:*1any,
5:*2any,
8:*0us-air,
8:*1us-air,
8:*2us-air,
7:*0going,
7:*1going,
7:*2going,
5:*0819,
5:*1819,
5:*2819,
6:*0take,
6:*1take,
6:*2take,
11:*09-o'clock,
11:*19-o'clock,
11:*29-o'clock,
5:*0out,
5:*1out,
5:*2out,
4:*0be,
4:*1be,
4:*2be,
9:*0staying,
9:*1staying,
9:*2staying,
5:*0two,
5:*1two,
5:*2two,
7:*0hours,
7:*1hours,
7:*2hours,
7:*0could,
7:*1could,
7:*2could,
7:*0about,
7:*1about,
7:*2about,
6:*0city,
6:*1city,
6:*2city,
6:*0well,
6:*1well,
6:*2well,
5:*0i'm,
5:*1i'm,
5:*2i'm,
9:*0working,
9:*1working,
9:*2working,
10:*0scenario,
10:*1scenario,
10:*2scenario,
7:*0three,
7:*1three,
7:*2three,
5:*0727,
5:*1727,
5:*2727,
9:*0georgia,
9:*1georgia,
9:*2georgia,
4:*0am,
4:*1am,
4:*2am,
8:*0number,
8:*1number,
8:*2number,
8:*0return,
8:*1return,
8:*2return,
7:*0bound,
7:*1bound,
7:*2bound,
8:*0friday,
8:*1friday,
8:*2friday,
6:*0this,
6:*1this,
6:*2this,
6:*0week,
6:*1week,
6:*2week,
7:*0class,
7:*1class,
7:*2class,
9:*0service,
9:*1service,
9:*2service,
12:*0california,
12:*1california,
12:*2california,
14:*0pennsylvania,
14:*1pennsylvania,
14:*2pennsylvania,
5:*0get,
5:*1get,
5:*2get,
7:*0delta,
7:*1delta,
7:*2delta,
7:*0225pm,
7:*1225pm,
7:*2225pm,
8:*01158pm,
8:*11158pm,
8:*21158pm,
11:*0equipment,
11:*1equipment,
11:*2equipment,
9:*0looking,
9:*1looking,
9:*2looking,
10:*0stopping,
10:*1stopping,
10:*2stopping,
8:*0ticket,
8:*1ticket,
8:*2ticket,
10:*0colorado,
10:*1colorado,
10:*2colorado,
6:*0with,
6:*1with,
6:*2with,
13:*0coach-class,
13:*1coach-class,
13:*2coach-class,
6:*0seat,
6:*1seat,
6:*2seat,
4:*0or,
4:*1or,
4:*2or,
8:*0lowest,
8:*1lowest,
8:*2lowest,
5:*0buy,
5:*1buy,
5:*2buy,
11:*0afternoon,
11:*1afternoon,
11:*2afternoon,
5:*0230,
5:*1230,
5:*2230,
7:*0324pm,
7:*1324pm,
7:*2324pm,
5:*0324,
5:*1324,
5:*2324,
7:*0110pm,
7:*1110pm,
7:*2110pm,
13:*0seventeenth,
13:*1seventeenth,
13:*2seventeenth,
9:*0oakland,
9:*1oakland,
9:*2oakland,
10:*0american,
10:*1american,
10:*2american,
5:*0813,
5:*1813,
5:*2813,
6:*0goes,
6:*1goes,
6:*2goes,
10:*0straight,
10:*1straight,
10:*2straight,
9:*0through,
9:*1through,
9:*2through,
18:*0without-stopping,
18:*1without-stopping,
18:*2without-stopping,
9:*0another,
9:*1another,
9:*2another,
4:*0if,
4:*1if,
4:*2if,
9:*0enroute,
9:*1enroute,
9:*2enroute,
4:*0it,
4:*1it,
4:*2it,
6:*02153,
6:*12153,
6:*22153,
13:*0first-class,
13:*1first-class,
13:*2first-class,
6:*0list,
6:*1list,
6:*2list,
8:*0making,
8:*1making,
8:*2making,
13:*0continental,
13:*1continental,
13:*2continental,
7:*0leave,
7:*1leave,
7:*2leave,
7:*0after,
7:*1after,
7:*2after,
12:*012-o'clock,
12:*112-o'clock,
12:*212-o'clock,
7:*0which,
7:*1which,
7:*2which,
8:*0leaves,
8:*1leaves,
8:*2leaves,
8:*01220pm,
8:*11220pm,
8:*21220pm,
11:*05-o'clock,
11:*15-o'clock,
11:*25-o'clock,
13:*0lowest-cost,
13:*1lowest-cost,
13:*2lowest-cost,
7:*0645am,
7:*1645am,
7:*2645am,
5:*0has,
5:*1has,
5:*2has,
6:*0much,
6:*1much,
6:*2much,
12:*0round-trip,
12:*1round-trip,
12:*2round-trip,
6:*0long,
6:*1long,
6:*2long,
17:*0atlanta-airport,
17:*1atlanta-airport,
17:*2atlanta-airport,
6:*0into,
6:*1into,
6:*2into,
19:*0airport-limousine,
19:*1airport-limousine,
19:*2airport-limousine,
6:*0make,
6:*1make,
6:*2make,
6:*0trip,
6:*1trip,
6:*2trip,
5:*0how,
5:*1how,
5:*2how,
7:*0fares,
7:*1fares,
7:*2fares,
14:*0arrival-time,
14:*1arrival-time,
14:*2arrival-time,
7:*0755am,
7:*1755am,
7:*2755am,
8:*0latest,
8:*1latest,
8:*2latest,
5:*0755,
5:*1755,
5:*2755,
10:*0schedule,
10:*1schedule,
10:*2schedule,
5:*09pm,
5:*19pm,
5:*29pm,
14:*0twenty-ninth,
14:*1twenty-ninth,
14:*2twenty-ninth,
10:*0november,
10:*1november,
10:*2november,
14:*0twenty-third,
14:*1twenty-third,
14:*2twenty-third,
6:*0year,
6:*1year,
6:*2year,
6:*01991,
6:*11991,
6:*21991,
5:*0i'd,
5:*1i'd,
5:*2i'd,
6:*0just,
6:*1just,
6:*2just,
5:*08am,
5:*18am,
5:*28am,
7:*0let's,
7:*1let's,
7:*2let's,
5:*0see,
5:*1see,
5:*2see,
15:*0delta-airline,
15:*1delta-airline,
15:*2delta-airline,
7:*0stops,
7:*1stops,
7:*2stops,
5:*0way,
5:*1way,
5:*2way,
5:*0all,
5:*1all,
5:*2all,
8:*0united,
8:*1united,
8:*2united,
7:*0815am,
7:*1815am,
7:*2815am,
4:*0by,
4:*1by,
4:*2by,
16:*0united-airline,
16:*1united-airline,
16:*2united-airline,
17:*0eastern-airline,
17:*1eastern-airline,
17:*2eastern-airline,
6:*0some,
6:*1some,
6:*2some,
5:*09am,
5:*19am,
5:*29am,
16:*0dallas-airport,
16:*1dallas-airport,
16:*2dallas-airport,
14:*0arrangements,
14:*1arrangements,
14:*2arrangements,
16:*0boston-airport,
16:*1boston-airport,
16:*2boston-airport,
5:*0can,
5:*1can,
5:*2can,
11:*0departing,
11:*1departing,
11:*2departing,
9:*0airfare,
9:*1airfare,
9:*2airfare,
13:*0329-dollars,
13:*1329-dollars,
13:*2329-dollars,
6:*0cost,
6:*1cost,
6:*2cost,
5:*0air,
5:*1air,
5:*2air,
14:*0restrictions,
14:*1restrictions,
14:*2restrictions,
13:*0416-dollars,
13:*1416-dollars,
13:*2416-dollars,
6:*0book,
6:*1book,
6:*2book,
7:*0coach,
7:*1coach,
7:*2coach,
10:*0discount,
10:*1discount,
10:*2discount,
9:*0arrange,
9:*1arrange,
9:*2arrange,
6:*0july,
6:*1july,
6:*2july,
9:*0seventh,
9:*1seventh,
9:*2seventh,
11:*0determine,
11:*1determine,
11:*2determine,
6:*0meal,
6:*1meal,
6:*2meal,
7:*0being,
7:*1being,
7:*2being,
8:*0served,
8:*1served,
8:*2served,
6:*0such,
6:*1such,
6:*2such,
7:*0types,
7:*1types,
7:*2types,
6:*0dc10,
6:*1dc10,
6:*2dc10,
10:*0sometime,
10:*1sometime,
10:*2sometime,
8:*0direct,
8:*1direct,
8:*2direct,
9:*012-noon,
9:*112-noon,
9:*212-noon,
9:*0arrives,
9:*1arrives,
9:*2arrives,
15:*0approximately,
15:*1approximately,
15:*2approximately,
5:*01pm,
5:*11pm,
5:*21pm,
6:*0many,
6:*1many,
6:*2many,
7:*0where,
7:*1where,
7:*2where,
13:*0dinner-meal,
13:*1dinner-meal,
13:*2dinner-meal,
5:*0420,
5:*1420,
5:*2420,
3:*05,
3:*15,
3:*25,
4:*0my,
4:*1my,
4:*2my,
7:*0final,
7:*1final,
7:*2final,
13:*0destination,
13:*1destination,
13:*2destination,
11:*0originate,
11:*1originate,
11:*2originate,
22:*0latest-time-possible,
22:*1latest-time-possible,
22:*2latest-time-possible,
11:*0fifteenth,
11:*1fifteenth,
11:*2fifteenth,
8:*0during,
8:*1during,
8:*2during,
11:*0breakfast,
11:*1breakfast,
11:*2breakfast,
5:*0296,
5:*1296,
5:*2296,
8:*0serves,
8:*1serves,
8:*2serves,
17:*0early-afternoon,
17:*1early-afternoon,
17:*2early-afternoon,
8:*0should,
8:*1should,
8:*2should,
7:*0615pm,
7:*1615pm,
7:*2615pm,
7:*0their,
7:*1their,
7:*2their,
24:*0earliest-possible-time,
24:*1earliest-possible-time,
24:*2earliest-possible-time,
10:*0question,
10:*1question,
10:*2question,
6:*0live,
6:*1live,
6:*2live,
8:*0trying,
8:*1trying,
8:*2trying,
12:*0connection,
12:*1connection,
12:*2connection,
7:*0those,
7:*1those,
7:*2those,
11:*0thirtieth,
11:*1thirtieth,
11:*2thirtieth,
6:*0help,
6:*1help,
6:*2help,
6:*0very,
6:*1very,
6:*2very,
5:*0now,
5:*1now,
5:*2now,
5:*0747,
5:*1747,
5:*2747,
6:*0able,
6:*1able,
6:*2able,
5:*0put,
5:*1put,
5:*2put,
16:*0twenty-seventh,
16:*1twenty-seventh,
16:*2twenty-seventh,
7:*0first,
7:*1first,
7:*2first,
7:*0night,
7:*1night,
7:*2night,
5:*0650,
5:*1650,
5:*2650,
7:*0third,
7:*1third,
7:*2third,
7:*0rates,
7:*1rates,
7:*2rates,
17:*0least-expensive,
17:*1least-expensive,
17:*2least-expensive,
16:*0city-of-boston,
16:*1city-of-boston,
16:*2city-of-boston,
8:*0inform,
8:*1inform,
8:*2inform,
17:*012-o'clock-noon,
17:*112-o'clock-noon,
17:*212-o'clock-noon,
9:*0eastern,
9:*1eastern,
9:*2eastern,
5:*0825,
5:*1825,
5:*2825,
6:*0when,
6:*1when,
6:*2when,
5:*0555,
5:*1555,
5:*2555,
5:*06pm,
5:*16pm,
5:*26pm,
5:*05pm,
5:*15pm,
5:*25pm,
7:*0sorry,
7:*1sorry,
7:*2sorry,
14:*0thirty-first,
14:*1thirty-first,
14:*2thirty-first,
6:*0then,
6:*1then,
6:*2then,
8:*0fourth,
8:*1fourth,
8:*2fourth,
6:*0plan,
6:*1plan,
6:*2plan,
10:*0no-stops,
10:*1no-stops,
10:*2no-stops,
9:*0economy,
9:*1economy,
9:*2economy,
7:*0fifth,
7:*1fifth,
7:*2fifth,
15:*0twenty-eighth,
15:*1twenty-eighth,
15:*2twenty-eighth,
9:*0october,
9:*1october,
9:*2october,
9:*0twelfth,
9:*1twelfth,
9:*2twelfth,
9:*0numbers,
9:*1numbers,
9:*2numbers,
9:*0connect,
9:*1connect,
9:*2connect,
8:*0cities,
8:*1cities,
8:*2cities,
5:*0may,
5:*1may,
5:*2may,
10:*0planning,
10:*1planning,
10:*2planning,
5:*0269,
5:*1269,
5:*2269,
5:*0428,
5:*1428,
5:*2428,
7:*0times,
7:*1times,
7:*2times,
7:*0makes,
7:*1makes,
7:*2makes,
10:*0one-stop,
10:*1one-stop,
10:*2one-stop,
7:*0april,
7:*1april,
7:*2april,
11:*0beginning,
11:*1beginning,
11:*2beginning,
14:*0twenty-fifth,
14:*1twenty-fifth,
14:*2twenty-fifth,
11:*0returning,
11:*1returning,
11:*2returning,
7:*0sixth,
7:*1sixth,
7:*2sixth,
11:*07-o'clock,
11:*17-o'clock,
11:*27-o'clock,
9:*0sixteen,
9:*1sixteen,
9:*2sixteen,
11:*0seventeen,
11:*1seventeen,
11:*2seventeen,
8:*0twenty,
8:*1twenty,
8:*2twenty,
6:*0four,
6:*1four,
6:*2four,
6:*01039,
6:*11039,
6:*21039,
5:*0257,
5:*1257,
5:*2257,
7:*0we're,
7:*1we're,
7:*2we're,
8:*0depart,
8:*1depart,
8:*2depart,
8:*0sounds,
8:*1sounds,
8:*2sounds,
7:*0great,
7:*1great,
7:*2great,
12:*0twenty-one,
12:*1twenty-one,
12:*2twenty-one,
7:*0one's,
7:*1one's,
7:*2one's,
5:*0too,
5:*1too,
5:*2too,
15:*0twenty-second,
15:*1twenty-second,
15:*2twenty-second,
11:*0nighttime,
11:*1nighttime,
11:*2nighttime,
11:*0departure,
11:*1departure,
11:*2departure,
19:*0dallas-fort-worth,
19:*1dallas-fort-worth,
19:*2dallas-fort-worth,
29:*0san-francisco-international,
29:*1san-francisco-international,
29:*2san-francisco-international,
10:*0arrivals,
10:*1arrivals,
10:*2arrivals,
6:*0most,
6:*1most,
6:*2most,
13:*0connections,
13:*1connections,
13:*2connections,
7:*0tenth,
7:*1tenth,
7:*2tenth,
10:*0eleventh,
10:*1eleventh,
10:*2eleventh,
6:*0june,
6:*1june,
6:*2june,
16:*0business-class,
16:*1business-class,
16:*2business-class,
7:*0daily,
7:*1daily,
7:*2daily,
19:*0stapleton-airport,
19:*1stapleton-airport,
19:*2stapleton-airport,
10:*0tomorrow,
10:*1tomorrow,
10:*2tomorrow,
8:*0thrift,
8:*1thrift,
8:*2thrift,
13:*0restriction,
13:*1restriction,
13:*2restriction,
6:*0ap80,
6:*1ap80,
6:*2ap80,
6:*0code,
6:*1code,
6:*2code,
4:*0qx,
4:*1qx,
4:*2qx,
13:*0represented,
13:*1represented,
13:*2represented,
10:*0database,
10:*1database,
10:*2database,
5:*07pm,
5:*17pm,
5:*27pm,
5:*0315,
5:*1315,
5:*2315,
4:*0aa,
4:*1aa,
4:*2aa,
5:*0459,
5:*1459,
5:*2459,
5:*0m80,
5:*1m80,
5:*2m80,
9:*0besides,
9:*1besides,
9:*2besides,
9:*0provide,
9:*1provide,
9:*2provide,
5:*0jet,
5:*1jet,
5:*2jet,
6:*0only,
6:*1only,
6:*2only,
7:*0today,
7:*1today,
7:*2today,
4:*0dl,
4:*1dl,
4:*2dl,
11:*0different,
11:*1different,
11:*2different,
9:*0classes,
9:*1classes,
9:*2classes,
3:*0b,
3:*1b,
3:*2b,
6:*0same,
6:*1same,
6:*2same,
3:*0c,
3:*1c,
3:*2c,
9:*0booking,
9:*1booking,
9:*2booking,
4:*0yn,
4:*1yn,
4:*2yn,
15:*0no-later-than,
15:*1no-later-than,
15:*2no-later-than,
5:*02pm,
5:*12pm,
5:*22pm,
6:*0ap57,
6:*1ap57,
6:*2ap57,
7:*0codes,
7:*1codes,
7:*2codes,
8:*0belong,
8:*1belong,
8:*2belong,
15:*0economy-class,
15:*1economy-class,
15:*2economy-class,
5:*0via,
5:*1via,
5:*2via,
9:*0layover,
9:*1layover,
9:*2layover,
6:*0more,
6:*1more,
6:*2more,
6:*0than,
6:*1than,
6:*2than,
7:*0other,
7:*1other,
7:*2other,
16:*0late-afternoon,
16:*1late-afternoon,
16:*2late-afternoon,
11:*03-o'clock,
11:*13-o'clock,
11:*23-o'clock,
9:*0delta's,
9:*1delta's,
9:*2delta's,
12:*0rental-car,
12:*1rental-car,
12:*2rental-car,
5:*0far,
5:*1far,
5:*2far,
10:*0saturday,
10:*1saturday,
10:*2saturday,
6:*0come,
6:*1come,
6:*2come,
10:*0smallest,
10:*1smallest,
10:*2smallest,
9:*0seating,
9:*1seating,
9:*2seating,
10:*0capacity,
10:*1capacity,
10:*2capacity,
16:*0most-expensive,
16:*1most-expensive,
16:*2most-expensive,
9:*0tickets,
9:*1tickets,
9:*2tickets,
11:*0atlanta's,
11:*1atlanta's,
11:*2atlanta's,
6:*0noon,
6:*1noon,
6:*2noon,
13:*0originating,
13:*1originating,
13:*2originating,
7:*0210pm,
7:*1210pm,
7:*2210pm,
8:*0eighth,
8:*1eighth,
8:*2eighth,
7:*0ninth,
7:*1ninth,
7:*2ninth,
8:*0offers,
8:*1offers,
8:*2offers,
9:*0heading,
9:*1heading,
9:*2heading,
5:*0279,
5:*1279,
5:*2279,
8:*0137338,
8:*1137338,
8:*2137338,
7:*0630am,
7:*1630am,
7:*2630am,
3:*03,
3:*13,
3:*23,
11:*01-o'clock,
11:*11-o'clock,
11:*21-o'clock,
8:*0toward,
8:*1toward,
8:*2toward,
17:*0oakland-airport,
17:*1oakland-airport,
17:*2oakland-airport,
6:*0each,
6:*1each,
6:*2each,
3:*0k,
3:*1k,
3:*2k,
11:*0lufthansa,
11:*1lufthansa,
11:*2lufthansa,
14:*0twenty-sixth,
14:*1twenty-sixth,
14:*2twenty-sixth,
6:*0name,
6:*1name,
6:*2name,
22:*0philadelphia-airport,
22:*1philadelphia-airport,
22:*2philadelphia-airport,
3:*01,
3:*11,
3:*21,
3:*04,
3:*14,
3:*24,
16:*0departure-time,
16:*1departure-time,
16:*2departure-time,
11:*0limousine,
11:*1limousine,
11:*2limousine,
7:*0total,
7:*1total,
7:*2total,
12:*0advertises,
12:*1advertises,
12:*2advertises,
8:*0having,
8:*1having,
8:*2having,
3:*0f,
3:*1f,
3:*2f,
15:*0logan-airport,
15:*1logan-airport,
15:*2logan-airport,
20:*0pittsburgh-airport,
20:*1pittsburgh-airport,
20:*2pittsburgh-airport,
6:*0town,
6:*1town,
6:*2town,
7:*0kinds,
7:*1kinds,
7:*2kinds,
41:*0dallas-fort-worth-international-airport,
41:*1dallas-fort-worth-international-airport,
41:*2dallas-fort-worth-international-airport,
7:*0eight,
7:*1eight,
7:*2eight,
8:*0within,
8:*1within,
8:*2within,
22:*0schedule-for-flights,
22:*1schedule-for-flights,
22:*2schedule-for-flights,
4:*0s-,
4:*1s-,
4:*2s-,
11:*0designate,
11:*1designate,
11:*2designate,
7:*0takes,
7:*1takes,
7:*2takes,
7:*0least,
7:*1least,
7:*2least,
8:*0amount,
8:*1amount,
8:*2amount,
8:*0planes,
8:*1planes,
8:*2planes,
9:*0usa-air,
9:*1usa-air,
9:*2usa-air,
8:*0prices,
8:*1prices,
8:*2prices,
8:*0what's,
8:*1what's,
8:*2what's,
9:*0various,
9:*1various,
9:*2various,
11:*0airplanes,
11:*1airplanes,
11:*2airplanes,
6:*0uses,
6:*1uses,
6:*2uses,
5:*0who,
5:*1who,
5:*2who,
17:*0time-of-arrival,
17:*1time-of-arrival,
17:*2time-of-arrival,
17:*0departure-times,
17:*1departure-times,
17:*2departure-times,
5:*08pm,
5:*18pm,
5:*28pm,
19:*0baltimore-airport,
19:*1baltimore-airport,
19:*2baltimore-airport,
6:*0show,
6:*1show,
6:*2show,
11:*0including,
11:*1including,
11:*2including,
7:*0offer,
7:*1offer,
7:*2offer,
8:*0eleven,
8:*1eleven,
8:*2eleven,
9:*0any-day,
9:*1any-day,
9:*2any-day,
5:*0352,
5:*1352,
5:*2352,
7:*0price,
7:*1price,
7:*2price,
11:*0operating,
11:*1operating,
11:*2operating,
9:*0sundays,
9:*1sundays,
9:*2sundays,
10:*0services,
10:*1services,
10:*2services,
14:*0reservations,
14:*1reservations,
14:*2reservations,
6:*01765,
6:*11765,
6:*21765,
17:*0flight-schedule,
17:*1flight-schedule,
17:*2flight-schedule,
5:*0f28,
5:*1f28,
5:*2f28,
20:*0air-taxi-operation,
20:*1air-taxi-operation,
20:*2air-taxi-operation,
36:*0philadelphia-international-airport,
36:*1philadelphia-international-airport,
36:*2philadelphia-international-airport,
4:*0pm,
4:*1pm,
4:*2pm,
9:*0serving,
9:*1serving,
9:*2serving,
5:*0say,
5:*1say,
5:*2say,
10:*0mealtime,
10:*1mealtime,
10:*2mealtime,
7:*0thank,
7:*1thank,
7:*2thank,
5:*0run,
5:*1run,
5:*2run,
7:*0seats,
7:*1seats,
7:*2seats,
9:*0earlier,
9:*1earlier,
9:*2earlier,
6:*01017,
6:*11017,
6:*21017,
5:*0630,
5:*1630,
5:*2630,
14:*05-o'clock-pm,
14:*15-o'clock-pm,
14:*25-o'clock-pm,
14:*04-o'clock-pm,
14:*14-o'clock-pm,
14:*24-o'clock-pm,
7:*0later,
7:*1later,
7:*2later,
14:*06-o'clock-pm,
14:*16-o'clock-pm,
14:*26-o'clock-pm,
10:*0serviced,
10:*1serviced,
10:*2serviced,
5:*0dfw,
5:*1dfw,
5:*2dfw,
8:*01133am,
8:*11133am,
8:*21133am,
6:*043pm,
6:*143pm,
6:*243pm,
10:*0provided,
10:*1provided,
10:*2provided,
10:*0provides,
10:*1provides,
10:*2provides,
6:*0both,
6:*1both,
6:*2both,
7:*0meals,
7:*1meals,
7:*2meals,
10:*0airplane,
10:*1airplane,
10:*2airplane,
11:*06-o'clock,
11:*16-o'clock,
11:*26-o'clock,
8:*0sunday,
8:*1sunday,
8:*2sunday,
6:*0mean,
6:*1mean,
6:*2mean,
12:*0american's,
12:*1american's,
12:*2american's,
5:*0bwi,
5:*1bwi,
5:*2bwi,
7:*0still,
7:*1still,
7:*2still,
7:*0cover,
7:*1cover,
7:*2cover,
6:*0less,
6:*1less,
6:*2less,
13:*0200-dollars,
13:*1200-dollars,
13:*2200-dollars,
5:*0oak,
5:*1oak,
5:*2oak,
5:*0atl,
5:*1atl,
5:*2atl,
9:*0qx-fare,
9:*1qx-fare,
9:*2qx-fare,
14:*0lowest-price,
14:*1lowest-price,
14:*2lowest-price,
4:*082,
4:*182,
4:*282,
5:*0139,
5:*1139,
5:*2139,
9:*0q-fares,
9:*1q-fares,
9:*2q-fares,
13:*0124-dollars,
13:*1124-dollars,
13:*2124-dollars,
4:*0ls,
4:*1ls,
4:*2ls,
7:*0stand,
7:*1stand,
7:*2stand,
7:*0level,
7:*1level,
7:*2level,
9:*0carries,
9:*1carries,
9:*2carries,
12:*0passengers,
12:*1passengers,
12:*2passengers,
6:*01505,
6:*11505,
6:*21505,
7:*0serve,
7:*1serve,
7:*2serve,
7:*0lunch,
7:*1lunch,
7:*2lunch,
11:*0itinerary,
11:*1itinerary,
11:*2itinerary,
9:*0departs,
9:*1departs,
9:*2departs,
7:*0local,
7:*1local,
7:*2local,
8:*0either,
8:*1either,
8:*2either,
27:*0dallas-fort-worth-airport,
27:*1dallas-fort-worth-airport,
27:*2dallas-fort-worth-airport,
6:*01940,
6:*11940,
6:*21940,
8:*0boeing,
8:*1boeing,
8:*2boeing,
5:*0737,
5:*1737,
5:*2737,
6:*0hold,
6:*1hold,
6:*2hold,
3:*06,
3:*16,
3:*26,
9:*0qualify,
9:*1qualify,
9:*2qualify,
5:*0j31,
5:*1j31,
5:*2j31,
5:*0733,
5:*1733,
5:*2733,
5:*072s,
5:*172s,
5:*272s,
5:*0734,
5:*1734,
5:*2734,
5:*0100,
5:*1100,
5:*2100,
13:*0415-dollars,
13:*1415-dollars,
13:*2415-dollars,
5:*0705,
5:*1705,
5:*2705,
4:*071,
4:*171,
4:*271,
10:*0directly,
10:*1directly,
10:*2directly,
11:*0scheduled,
11:*1scheduled,
11:*2scheduled,
10:*0december,
10:*1december,
10:*2december,
11:*0turboprop,
11:*1turboprop,
11:*2turboprop,
9:*0doesn't,
9:*1doesn't,
9:*2doesn't,
7:*0catch,
7:*1catch,
7:*2catch,
20:*0lufthansa-airlines,
20:*1lufthansa-airlines,
20:*2lufthansa-airlines,
7:*0logan,
7:*1logan,
7:*2logan,
11:*02-o'clock,
11:*12-o'clock,
11:*22-o'clock,
10:*0distance,
10:*1distance,
10:*2distance,
10:*0tuesdays,
10:*1tuesdays,
10:*2tuesdays,
11:*0companies,
11:*1companies,
11:*2companies,
8:*0people,
8:*1people,
8:*2people,
9:*0carried,
9:*1carried,
9:*2carried,
10:*0shortest,
10:*1shortest,
10:*2shortest,
9:*0january,
9:*1january,
9:*2january,
7:*0cheap,
7:*1cheap,
7:*2cheap,
6:*0back,
6:*1back,
6:*2back,
9:*0reverse,
9:*1reverse,
9:*2reverse,
10:*0airports,
10:*1airports,
10:*2airports,
12:*0everywhere,
12:*1everywhere,
12:*2everywhere,
10:*0day-time,
10:*1day-time,
10:*2day-time,
6:*010pm,
6:*110pm,
6:*210pm,
17:*0midway-airlines,
17:*1midway-airlines,
17:*2midway-airlines,
8:*0twelve,
8:*1twelve,
8:*2twelve,
12:*0capacities,
12:*1capacities,
12:*2capacities,
9:*0largest,
9:*1largest,
9:*2largest,
10:*0greatest,
10:*1greatest,
10:*2greatest,
5:*0767,
5:*1767,
5:*2767,
8:*0dinner,
8:*1dinner,
8:*2dinner,
7:*0snack,
7:*1snack,
7:*2snack,
5:*03pm,
5:*13pm,
5:*23pm,
4:*012,
4:*112,
4:*212,
3:*02,
3:*12,
3:*22,
12:*0car-rental,
12:*1car-rental,
12:*2car-rental,
6:*0limo,
6:*1limo,
6:*2limo,
8:*0coming,
8:*1coming,
8:*2coming,
5:*0fit,
5:*1fit,
5:*2fit,
5:*0d9s,
5:*1d9s,
5:*2d9s,
5:*073s,
5:*173s,
5:*273s,
6:*0once,
6:*1once,
6:*2once,
11:*0expensive,
11:*1expensive,
11:*2expensive,
5:*0sfo,
5:*1sfo,
5:*2sfo,
9:*0charges,
9:*1charges,
9:*2charges,
4:*0no,
4:*1no,
4:*2no,
5:*04pm,
5:*14pm,
5:*24pm,
4:*0so,
4:*1so,
4:*2so,
6:*0here,
6:*1here,
6:*2here,
6:*011am,
6:*111am,
6:*211am,
14:*0abbreviation,
14:*1abbreviation,
14:*2abbreviation,
4:*0ua,
4:*1ua,
4:*2ua,
4:*0co,
4:*1co,
4:*2co,
9:*0weekday,
9:*1weekday,
9:*2weekday,
3:*0y,
3:*1y,
3:*2y,
12:*01300-hours,
12:*11300-hours,
12:*21300-hours,
12:*01600-hours,
12:*11600-hours,
12:*21600-hours,
5:*07am,
5:*17am,
5:*27am,
12:*01700-hours,
12:*11700-hours,
12:*21700-hours,
7:*0under,
7:*1under,
7:*2under,
13:*0500-dollars,
13:*1500-dollars,
13:*2500-dollars,
10:*0airfares,
10:*1airfares,
10:*2airfares,
9:*0options,
9:*1options,
9:*2options,
8:*0philly,
8:*1philly,
8:*2philly,
9:*0arrival,
9:*1arrival,
9:*2arrival,
11:*0regarding,
11:*1regarding,
11:*2regarding,
23:*0san-francisco-airport,
23:*1san-francisco-airport,
23:*2san-francisco-airport,
8:*0second,
8:*1second,
8:*2second,
7:*0seven,
7:*1seven,
7:*2seven,
6:*012pm,
6:*112pm,
6:*212pm,
10:*0economic,
10:*1economic,
10:*2economic,
4:*098,
4:*198,
4:*298,
4:*0us,
4:*1us,
4:*2us,
5:*0345,
5:*1345,
5:*2345,
6:*0rent,
6:*1rent,
6:*2rent,
5:*0car,
5:*1car,
5:*2car,
33:*0stapleton-international-airport,
33:*1stapleton-international-airport,
33:*2stapleton-international-airport,
6:*01083,
6:*11083,
6:*21083,
11:*0saturdays,
11:*1saturdays,
11:*2saturdays,
5:*0201,
5:*1201,
5:*2201,
5:*0343,
5:*1343,
5:*2343,
5:*0323,
5:*1323,
5:*2323,
5:*0229,
5:*1229,
5:*2229,
9:*0meaning,
9:*1meaning,
9:*2meaning,
4:*0qw,
4:*1qw,
4:*2qw,
7:*0costs,
7:*1costs,
7:*2costs,
24:*0the-day-after-tomorrow,
24:*1the-day-after-tomorrow,
24:*2the-day-after-tomorrow,
11:*0transport,
11:*1transport,
11:*2transport,
5:*0210,
5:*1210,
5:*2210,
13:*0car-rentals,
13:*1car-rentals,
13:*2car-rentals,
5:*0d-s,
5:*1d-s,
5:*2d-s,
5:*0106,
5:*1106,
5:*2106,
9:*0grounds,
9:*1grounds,
9:*2grounds,
7:*0again,
7:*1again,
7:*2again,
5:*0838,
5:*1838,
5:*2838,
13:*0reservation,
13:*1reservation,
13:*2reservation,
12:*0requesting,
12:*1requesting,
12:*2requesting,
10:*0starting,
10:*1starting,
10:*2starting,
12:*0afterwards,
12:*1afterwards,
12:*2afterwards,
5:*0402,
5:*1402,
5:*2402,
5:*0270,
5:*1270,
5:*2270,
5:*0297,
5:*1297,
5:*2297,
5:*0281,
5:*1281,
5:*2281,
12:*0wednesdays,
12:*1wednesdays,
12:*2wednesdays,
11:*0thursdays,
11:*1thursdays,
11:*2thursdays,
12:*0fourteenth,
12:*1fourteenth,
12:*2fourteenth,
7:*0ap-80,
7:*1ap-80,
7:*2ap-80,
7:*0ap-57,
7:*1ap-57,
7:*2ap-57,
14:*02-o'clock-pm,
14:*12-o'clock-pm,
14:*22-o'clock-pm,
14:*09-o'clock-am,
14:*19-o'clock-am,
14:*29-o'clock-am,
14:*03-o'clock-pm,
14:*13-o'clock-pm,
14:*23-o'clock-pm,
14:*08-o'clock-pm,
14:*18-o'clock-pm,
14:*28-o'clock-pm,
14:*08-o'clock-am,
14:*18-o'clock-am,
14:*28-o'clock-am,
13:*0us-airlines,
13:*1us-airlines,
13:*2us-airlines,
15:*011-o'clock-am,
15:*111-o'clock-am,
15:*211-o'clock-am,
9:*0explain,
9:*1explain,
9:*2explain,
3:*0m,
3:*1m,
3:*2m,
6:*0ap68,
6:*1ap68,
6:*2ap68,
12:*0continuing,
12:*1continuing,
12:*2continuing,
12:*0limousines,
12:*1limousines,
12:*2limousines,
6:*0taxi,
6:*1taxi,
6:*2taxi,
6:*01209,
6:*11209,
6:*21209,
7:*0names,
7:*1names,
7:*2names,
13:*0rental-cars,
13:*1rental-cars,
13:*2rental-cars,
6:*0sd-d,
6:*1sd-d,
6:*2sd-d,
8:*0listed,
8:*1listed,
8:*2listed,
6:*01055,
6:*11055,
6:*21055,
5:*0405,
5:*1405,
5:*2405,
4:*0ea,
4:*1ea,
4:*2ea,
6:*0look,
6:*1look,
6:*2look,
12:*0eighteenth,
12:*1eighteenth,
12:*2eighteenth,
8:*01045am,
8:*11045am,
8:*21045am,
5:*0430,
5:*1430,
5:*2430,
7:*0530pm,
7:*1530pm,
7:*2530pm,
8:*01145am,
8:*11145am,
8:*21145am,
7:*0838am,
7:*1838am,
7:*2838am,
6:*0near,
6:*1near,
6:*2near,
7:*0close,
7:*1close,
7:*2close,
6:*01110,
6:*11110,
6:*21110,
9:*0fifteen,
9:*1fifteen,
9:*2fifteen,
8:*0wanted,
8:*1wanted,
8:*2wanted,
12:*0afternoons,
12:*1afternoons,
12:*2afternoons,
9:*0maximum,
9:*1maximum,
9:*2maximum,
7:*0spend,
7:*1spend,
7:*2spend,
9:*0lastest,
9:*1lastest,
9:*2lastest,
9:*0longest,
9:*1longest,
9:*2longest,
5:*0but,
5:*1but,
5:*2but,
6:*01059,
6:*11059,
6:*21059,
6:*0over,
6:*1over,
6:*2over,
4:*021,
4:*121,
4:*221,
5:*0852,
5:*1852,
5:*2852,
5:*0928,
5:*1928,
5:*2928,
7:*0start,
7:*1start,
7:*2start,
10:*0bay-area,
10:*1bay-area,
10:*2bay-area,
7:*0order,
7:*1order,
7:*2order,
6:*0it's,
6:*1it's,
6:*2it's,
5:*0445,
5:*1445,
5:*2445,
7:*0515pm,
7:*1515pm,
7:*2515pm,
20:*0washington-airport,
20:*1washington-airport,
20:*2washington-airport,
25:*0maximum-number-of-stops,
25:*1maximum-number-of-stops,
25:*2maximum-number-of-stops,
11:*0hartfield,
11:*1hartfield,
11:*2hartfield,
9:*0travels,
9:*1travels,
9:*2travels,
6:*0late,
6:*1late,
6:*2late,
6:*0zone,
6:*1zone,
6:*2zone,
13:*0inexpensive,
13:*1inexpensive,
13:*2inexpensive,
11:*0currently,
11:*1currently,
11:*2currently,
5:*0530,
5:*1530,
5:*2530,
6:*0must,
6:*1must,
6:*2must,
10:*0midnight,
10:*1midnight,
10:*2midnight,
6:*0land,
6:*1land,
6:*2land,
7:*0place,
7:*1place,
7:*2place,
7:*0730pm,
7:*1730pm,
7:*2730pm,
18:*0transcontinental,
18:*1transcontinental,
18:*2transcontinental,
8:*0across,
8:*1across,
8:*2across,
11:*0continent,
11:*1continent,
11:*2continent,
7:*0430pm,
7:*1430pm,
7:*2430pm,
7:*0630pm,
7:*1630pm,
7:*2630pm,
6:*0gets,
6:*1gets,
6:*2gets,
7:*0month,
7:*1month,
7:*2month,
10:*0connects,
10:*1connects,
10:*2connects,
14:*07-o'clock-pm,
14:*17-o'clock-pm,
14:*27-o'clock-pm,
10:*0vicinity,
10:*1vicinity,
10:*2vicinity,
8:*0begins,
8:*1begins,
8:*2begins,
7:*0lands,
7:*1lands,
7:*2lands,
7:*0don't,
7:*1don't,
7:*2don't,
11:*0stopovers,
11:*1stopovers,
11:*2stopovers,
16:*0city-in-dallas,
16:*1city-in-dallas,
16:*2city-in-dallas,
5:*0757,
5:*1757,
5:*2757,
6:*01992,
6:*11992,
6:*21992,
15:*010-o'clock-pm,
15:*110-o'clock-pm,
15:*210-o'clock-pm,
4:*0fn,
4:*1fn,
4:*2fn,
7:*0ap-55,
7:*1ap-55,
7:*2ap-55,
11:*0sixteenth,
11:*1sixteenth,
11:*2sixteenth,
9:*0listing,
9:*1listing,
9:*2listing,
6:*02100,
6:*12100,
6:*22100,
11:*04-o'clock,
11:*14-o'clock,
11:*24-o'clock,
15:*0twenty-fourth,
15:*1twenty-fourth,
15:*2twenty-fourth,
5:*0746,
5:*1746,
5:*2746,
3:*0q,
3:*1q,
3:*2q,
11:*0overnight,
11:*1overnight,
11:*2overnight,
9:*0without,
9:*1without,
9:*2without,
6:*01291,
6:*11291,
6:*21291,
5:*0271,
5:*1271,
5:*2271,
6:*0sort,
6:*1sort,
6:*2sort,
14:*07-o'clock-am,
14:*17-o'clock-am,
14:*27-o'clock-am,
14:*05-o'clock-am,
14:*15-o'clock-am,
14:*25-o'clock-am,
14:*01500-dollars,
14:*11500-dollars,
14:*21500-dollars,
14:*01100-dollars,
14:*11100-dollars,
14:*21100-dollars,
4:*0up,
4:*1up,
4:*2up,
9:*0mondays,
9:*1mondays,
9:*2mondays,
15:*0only-weekdays,
15:*1only-weekdays,
15:*2only-weekdays,
4:*0ap,
4:*1ap,
4:*2ap,
6:*0area,
6:*1area,
6:*2area,
8:*0proper,
8:*1proper,
8:*2proper,
8:*0priced,
8:*1priced,
8:*2priced,
5:*0212,
5:*1212,
5:*2212,
10:*0anywhere,
10:*1anywhere,
10:*2anywhere,
6:*01850,
6:*11850,
6:*21850,
6:*01700,
6:*11700,
6:*21700,
5:*0217,
5:*1217,
5:*2217,
13:*0300-dollars,
13:*1300-dollars,
13:*2300-dollars,
13:*0400-dollars,
13:*1400-dollars,
13:*2400-dollars,
6:*03357,
6:*13357,
6:*23357,
8:*0summer,
8:*1summer,
8:*2summer,
5:*0non,
5:*1non,
5:*2non,
10:*0mornings,
10:*1mornings,
10:*2mornings,
14:*01000-dollars,
14:*11000-dollars,
14:*21000-dollars,
6:*00900,
6:*10900,
6:*20900,
6:*03724,
6:*13724,
6:*23724,
5:*0771,
5:*1771,
5:*2771,
18:*0flight-schedules,
18:*1flight-schedules,
18:*2flight-schedules,
9:*0include,
9:*1include,
9:*2include,
9:*0whether,
9:*1whether,
9:*2whether,
9:*0offered,
9:*1offered,
9:*2offered,
13:*0round-trips,
13:*1round-trips,
13:*2round-trips,
9:*0toronto,
9:*1toronto,
9:*2toronto,
4:*0ac,
4:*1ac,
4:*2ac,
10:*0new-york,
10:*1new-york,
10:*2new-york,
15:*0new-york-city,
15:*1new-york-city,
15:*2new-york-city,
11:*0milwaukee,
11:*1milwaukee,
11:*2milwaukee,
9:*0orlando,
9:*1orlando,
9:*2orlando,
9:*0ontario,
9:*1ontario,
9:*2ontario,
8:*0tacoma,
8:*1tacoma,
8:*2tacoma,
13:*0minneapolis,
13:*1minneapolis,
13:*2minneapolis,
11:*0san-diego,
11:*1san-diego,
11:*2san-diego,
16:*0salt-lake-city,
16:*1salt-lake-city,
16:*2salt-lake-city,
12:*0cincinnati,
12:*1cincinnati,
12:*2cincinnati,
7:*0miami,
7:*1miami,
7:*2miami,
20:*0southwest-airlines,
20:*1southwest-airlines,
20:*2southwest-airlines,
9:*0phoenix,
9:*1phoenix,
9:*2phoenix,
12:*0la-guardia,
12:*1la-guardia,
12:*2la-guardia,
8:*0dulles,
8:*1dulles,
8:*2dulles,
13:*0los-angeles,
13:*1los-angeles,
13:*2los-angeles,
11:*0las-vegas,
11:*1las-vegas,
11:*2las-vegas,
7:*0equal,
7:*1equal,
7:*2equal,
13:*0466-dollars,
13:*1466-dollars,
13:*2466-dollars,
13:*0932-dollars,
13:*1932-dollars,
13:*2932-dollars,
7:*0along,
7:*1along,
7:*2along,
14:*0indianapolis,
14:*1indianapolis,
14:*2indianapolis,
9:*0memphis,
9:*1memphis,
9:*2memphis,
9:*0burbank,
9:*1burbank,
9:*2burbank,
16:*0st.-petersburg,
16:*1st.-petersburg,
16:*2st.-petersburg,
15:*0abbreviations,
15:*1abbreviations,
15:*2abbreviations,
10:*0san-jose,
10:*1san-jose,
10:*2san-jose,
24:*0salt-lake-city-airport,
24:*1salt-lake-city-airport,
24:*2salt-lake-city-airport,
7:*0tampa,
7:*1tampa,
7:*2tampa,
11:*0st.-louis,
11:*1st.-louis,
11:*2st.-louis,
9:*0houston,
9:*1houston,
9:*2houston,
9:*0symbols,
9:*1symbols,
9:*2symbols,
4:*0hp,
4:*1hp,
4:*2hp,
17:*0orlando-airport,
17:*1orlando-airport,
17:*2orlando-airport,
23:*0orlando-international,
23:*1orlando-international,
23:*2orlando-international,
5:*0417,
5:*1417,
5:*2417,
7:*0718am,
7:*1718am,
7:*2718am,
25:*0minimum-connection-time,
25:*1minimum-connection-time,
25:*2minimum-connection-time,
26:*0houston-intercontinental,
26:*1houston-intercontinental,
26:*2houston-intercontinental,
6:*04400,
6:*14400,
6:*24400,
6:*01026,
6:*11026,
6:*21026,
8:*0o'hare,
8:*1o'hare,
8:*2o'hare,
9:*0chicago,
9:*1chicago,
9:*2chicago,
10:*0montreal,
10:*1montreal,
10:*2montreal,
13:*0150-dollars,
13:*1150-dollars,
13:*2150-dollars,
10:*0columbus,
10:*1columbus,
10:*2columbus,
10:*0st.-paul,
10:*1st.-paul,
10:*2st.-paul,
8:*0newark,
8:*1newark,
8:*2newark,
11:*0cleveland,
11:*1cleveland,
11:*2cleveland,
12:*0new-jersey,
12:*1new-jersey,
12:*2new-jersey,
5:*0jfk,
5:*1jfk,
5:*2jfk,
11:*0nashville,
11:*1nashville,
11:*2nashville,
10:*0weekdays,
10:*1weekdays,
10:*2weekdays,
20:*0westchester-county,
20:*1westchester-county,
20:*2westchester-county,
4:*0ff,
4:*1ff,
4:*2ff,
11:*0tower-air,
11:*1tower-air,
11:*2tower-air,
12:*0long-beach,
12:*1long-beach,
12:*2long-beach,
6:*0ohio,
6:*1ohio,
6:*2ohio,
4:*0sa,
4:*1sa,
4:*2sa,
9:*0seattle,
9:*1seattle,
9:*2seattle,
6:*01993,
6:*11993,
6:*21993,
4:*0nw,
4:*1nw,
4:*2nw,
5:*0mco,
5:*1mco,
5:*2mco,
9:*0calling,
9:*1calling,
9:*2calling,
4:*0la,
4:*1la,
4:*2la,
6:*0i've,
6:*1i've,
6:*2i've,
5:*0got,
5:*1got,
5:*2got,
10:*0somebody,
10:*1somebody,
10:*2somebody,
6:*0else,
6:*1else,
6:*2else,
7:*0wants,
7:*1wants,
7:*2wants,
11:*0charlotte,
11:*1charlotte,
11:*2charlotte,
13:*0kansas-city,
13:*1kansas-city,
13:*2kansas-city,
12:*0difference,
12:*1difference,
12:*2difference,
11:*0tennessee,
11:*1tennessee,
11:*2tennessee,
16:*0north-carolina,
16:*1north-carolina,
16:*2north-carolina,
4:*0qo,
4:*1qo,
4:*2qo,
5:*0ewr,
5:*1ewr,
5:*2ewr,
5:*0bur,
5:*1bur,
5:*2bur,
8:*0laying,
8:*1laying,
8:*2laying,
12:*0air-canada,
12:*1air-canada,
12:*2air-canada,
11:*0minnesota,
11:*1minnesota,
11:*2minnesota,
8:*0stands,
8:*1stands,
8:*2stands,
9:*0florida,
9:*1florida,
9:*2florida,
9:*0landing,
9:*1landing,
9:*2landing,
6:*0soon,
6:*1soon,
6:*2soon,
5:*0ten,
5:*1ten,
5:*2ten,
17:*0during-the-week,
17:*1during-the-week,
17:*2during-the-week,
18:*0during-week-days,
18:*1during-week-days,
18:*2during-week-days,
19:*0san-diego-airport,
19:*1san-diego-airport,
19:*2san-diego-airport,
32:*0as-soon-thereafter-as-possible,
32:*1as-soon-thereafter-as-possible,
32:*2as-soon-thereafter-as-possible,
17:*0phoenix-airport,
17:*1phoenix-airport,
17:*2phoenix-airport,
13:*0meal-code-s,
13:*1meal-code-s,
13:*2meal-code-s,
5:*0lax,
5:*1lax,
5:*2lax,
8:*0canada,
8:*1canada,
8:*2canada,
10:*0listings,
10:*1listings,
10:*2listings,
10:*0missouri,
10:*1missouri,
10:*2missouri,
6:*0utah,
6:*1utah,
6:*2utah,
6:*01222,
6:*11222,
6:*21222,
12:*0preferably,
12:*1preferably,
12:*2preferably,
8:*0497766,
8:*1497766,
8:*2497766,
7:*0810pm,
7:*1810pm,
7:*2810pm,
6:*0runs,
6:*1runs,
6:*2runs,
5:*0505,
5:*1505,
5:*2505,
8:*0that's,
8:*1that's,
8:*2that's,
5:*0163,
5:*1163,
5:*2163,
12:*0thirteenth,
12:*1thirteenth,
12:*2thirteenth,
10:*0includes,
10:*1includes,
10:*2includes,
17:*0alaska-airlines,
17:*1alaska-airlines,
17:*2alaska-airlines,
8:*0nevada,
8:*1nevada,
8:*2nevada,
9:*0detroit,
9:*1detroit,
9:*2detroit,
10:*0michigan,
10:*1michigan,
10:*2michigan,
10:*0actually,
10:*1actually,
10:*2actually,
13:*0westchester,
13:*1westchester,
13:*2westchester,
7:*0thing,
7:*1thing,
7:*2thing,
5:*0130,
5:*1130,
5:*2130,
19:*0milwaukee-airport,
19:*1milwaukee-airport,
19:*2milwaukee-airport,
19:*0the-following-day,
19:*1the-following-day,
19:*2the-following-day,
12:*0twenty-six,
12:*1twenty-six,
12:*2twenty-six,
8:*0prefer,
8:*1prefer,
8:*2prefer,
8:*0quebec,
8:*1quebec,
8:*2quebec,
9:*0indiana,
9:*1indiana,
9:*2indiana,
10:*0reaching,
10:*1reaching,
10:*2reaching,
9:*0reaches,
9:*1reaches,
9:*2reaches,
3:*07,
3:*17,
3:*27,
11:*0following,
11:*1following,
11:*2following,
7:*0route,
7:*1route,
7:*2route,
6:*0date,
6:*1date,
6:*2date,
11:*0hopefully,
11:*1hopefully,
11:*2hopefully,
6:*0home,
6:*1home,
6:*2home,
20:*0northwest-airlines,
20:*1northwest-airlines,
20:*2northwest-airlines,
6:*0days,
6:*1days,
6:*2days,
5:*0415,
5:*1415,
5:*2415,
9:*0arizona,
9:*1arizona,
9:*2arizona,
11:*0northwest,
11:*1northwest,
11:*2northwest,
23:*0ontario-international,
23:*1ontario-international,
23:*2ontario-international,
9:*0friends,
9:*1friends,
9:*2friends,
17:*0toronto-airport,
17:*1toronto-airport,
17:*2toronto-airport,
20:*0la-guardia-airport,
20:*1la-guardia-airport,
20:*2la-guardia-airport,
8:*0single,
8:*1single,
8:*2single,
9:*0red-eye,
9:*1red-eye,
9:*2red-eye,
12:*0twenty-two,
12:*1twenty-two,
12:*2twenty-two,
14:*0america-west,
14:*1america-west,
14:*2america-west,
11:*0southwest,
11:*1southwest,
11:*2southwest,
5:*0six,
5:*1six,
5:*2six,
11:*0salt-lake,
11:*1salt-lake,
11:*2salt-lake,
9:*0tonight,
9:*1tonight,
9:*2tonight,
7:*0visit,
7:*1visit,
7:*2visit,
6:*0them,
6:*1them,
6:*2them,
7:*0lives,
7:*1lives,
7:*2lives,
24:*0st.-petersburg-airport,
24:*1st.-petersburg-airport,
24:*2st.-petersburg-airport,
5:*0539,
5:*1539,
5:*2539,
21:*0trans-world-airline,
21:*1trans-world-airline,
21:*2trans-world-airline,
8:*01030am,
8:*11030am,
8:*21030am,
8:*01130am,
8:*11130am,
8:*21130am,
8:*01115am,
8:*11115am,
8:*21115am,
8:*01245pm,
8:*11245pm,
8:*21245pm,
3:*09,
3:*19,
3:*29,
18:*0at-the-same-time,
18:*1at-the-same-time,
18:*2at-the-same-time,
12:*0new-york's,
12:*1new-york's,
12:*2new-york's,
31:*0toronto-international-airport,
31:*1toronto-international-airport,
31:*2toronto-international-airport,
35:*0los-angeles-international-airport,
35:*1los-angeles-international-airport,
35:*2los-angeles-international-airport,
37:*0san-francisco-international-airport,
37:*1san-francisco-international-airport,
37:*2san-francisco-international-airport,
9:*0closest,
9:*1closest,
9:*2closest,
4:*019,
4:*119,
4:*219,
5:*0845,
5:*1845,
5:*2845,
7:*0230pm,
7:*1230pm,
7:*2230pm,
8:*0supper,
8:*1supper,
8:*2supper,
5:*0823,
5:*1823,
5:*2823,
6:*01024,
6:*11024,
6:*21024,
6:*01205,
6:*11205,
6:*21205,
5:*0305,
5:*1305,
5:*2305,
7:*0723pm,
7:*1723pm,
7:*2723pm,
8:*01020pm,
8:*11020pm,
8:*21020pm,
8:*0nights,
8:*1nights,
8:*2nights,
9:*0fridays,
9:*1fridays,
9:*2fridays,
8:*01230pm,
8:*11230pm,
8:*21230pm,
7:*0934pm,
7:*1934pm,
7:*2934pm,
6:*02134,
6:*12134,
6:*22134,
8:*0taking,
8:*1taking,
8:*2taking,
5:*0311,
5:*1311,
5:*2311,
14:*09-o'clock-pm,
14:*19-o'clock-pm,
14:*29-o'clock-pm,
10:*0nonstops,
10:*1nonstops,
10:*2nonstops,
7:*0vegas,
7:*1vegas,
7:*2vegas,
3:*0h,
3:*1h,
3:*2h,
12:*01200-hours,
12:*11200-hours,
12:*21200-hours,
10:*0sunday's,
10:*1sunday's,
10:*2sunday's,
13:*0wednesday's,
13:*1wednesday's,
13:*2wednesday's,
5:*0mia,
5:*1mia,
5:*2mia,
5:*0bna,
5:*1bna,
5:*2bna,
5:*0ord,
5:*1ord,
5:*2ord,
6:*011pm,
6:*111pm,
6:*211pm,
10:*0february,
10:*1february,
10:*2february,
21:*0continental-airline,
21:*1continental-airline,
21:*2continental-airline,
7:*0march,
7:*1march,
7:*2march,
12:*0love-field,
12:*1love-field,
12:*2love-field,
19:*0northwest-airline,
19:*1northwest-airline,
19:*2northwest-airline,
5:*0iah,
5:*1iah,
5:*2iah,
5:*0hou,
5:*1hou,
5:*2hou,
33:*0canadian-airlines-international,
33:*1canadian-airlines-international,
33:*2canadian-airlines-international,
4:*0cp,
4:*1cp,
4:*2cp,
19:*0canadian-airlines,
19:*1canadian-airlines,
19:*2canadian-airlines,
9:*0choices,
9:*1choices,
9:*2choices,
12:*0dinnertime,
12:*1dinnertime,
12:*2dinnertime,
6:*01288,
6:*11288,
6:*21288,
5:*0d10,
5:*1d10,
5:*2d10,
10:*0takeoffs,
10:*1takeoffs,
10:*2takeoffs,
10:*0landings,
10:*1landings,
10:*2landings,
32:*0general-mitchell-international,
32:*1general-mitchell-international,
32:*2general-mitchell-international,
40:*0general-mitchell-international-airport,
40:*1general-mitchell-international-airport,
40:*2general-mitchell-international-airport,
5:*0off,
5:*1off,
5:*2off,
9:*0takeoff,
9:*1takeoff,
9:*2takeoff,
26:*0general-mitchell-airport,
26:*1general-mitchell-airport,
26:*2general-mitchell-airport,
9:*0located,
9:*1located,
9:*2located,
18:*0general-mitchell,
18:*1general-mitchell,
18:*2general-mitchell,
12:*0lunch-time,
12:*1lunch-time,
12:*2lunch-time,
11:*0nationair,
11:*1nationair,
11:*2nationair,
5:*0yyz,
5:*1yyz,
5:*2yyz,
24:*0lester-pearson-airport,
24:*1lester-pearson-airport,
24:*2lester-pearson-airport,
9:*0midwest,
9:*1midwest,
9:*2midwest,
9:*0express,
9:*1express,
9:*2express,
7:*0720am,
7:*1720am,
7:*2720am,
9:*0highest,
9:*1highest,
9:*2highest,
0=0x1.47b98063ce96ep+1
81=0x1.b4c2c6e40874ap+0
243=0x1.266530f9c4ec6p-1
405=0x1.26378f2e1c074p-1
486=0x1.1453269630bfdp-1
1377=0x1.9cce1b6b248d2p-3
1458=0x1.55d3c6fde928bp-1
2349=0x1.9e8caeaf10d59p-3
3321=0x1.9e6987057f2ccp-3
6642=0x1.47b98063ce96ep+1
6723=0x1.b4c2c6e40874ap+0
6885=0x1.266530f9c4ec6p-1
7047=0x1.26378f2e1c074p-1
7128=0x1.1453269630bfdp-1
8019=0x1.9cce1b6b248d2p-3
8100=0x1.55d3c6fde928bp-1
8991=0x1.9e8caeaf10d59p-3
9963=0x1.9e6987057f2ccp-3
13284=0x1.47b98063ce96ep+1
13365=0x1.b4c2c6e40874ap+0
13527=0x1.266530f9c4ec6p-1
13689=0x1.26378f2e1c074p-1
13770=0x1.1453269630bfdp-1
14661=0x1.9cce1b6b248d2p-3
14742=0x1.55d3c6fde928bp-1
15633=0x1.9e8caeaf10d59p-3
16605=0x1.9e6987057f2ccp-3
19926=0x1.966a909be8e54p-1
19927=0x1.2bfa4d16a064ep-6
19928=0x1.076c9b3445ecfp+0
19929=0x1.abb5b371b4c4fp-2
19930=0x1.755c82dcfb9bdp-2
19931=0x1.b6bfd538d0dacp-2
19932=0x1.4249822cb8c84p-2
19934=0x1.2ac4b0977ae2cp-2
19935=-0x1.e1edd24bc84c1p-9
19937=0x1.52cf0b8042672p-7
19939=0x1.f68f6b40a490dp-7
19940=0x1.a9f8af9dbbaf1p-1
19941=0x1.5a121b8b63878p-3
19943=0x1.9ea3381754c83p-2
19948=0x1.4bc63c97a0b54p-1
19953=0x1.2df0646066434p-6
19955=-0x1.0b7094129232ep-11
19957=0x1.ce60afcafff28p-2
19958=0x1.2faca17a34d81p-6
19959=0x1.24eb07bedf2f8p-1
19968=0x1.97aa72645aee8p-2
19970=0x1.20c03804a9075p-5
19975=0x1.2ea0544a8531p-6
19982=0x1.1f93c0f89197dp-5
19986=0x1.1f57cc83a4e15p-1
19988=0x1.2f3c94a946264p-6
20002=0x1.2122e0c34a3a4p-5
20007=0x1.52acad4d3d739p+0
20008=0x1.3c0fb0977a8a6p-2
20009=0x1.ae7b57a37bae6p+0
20010=0x1.607d30d3488e3p-1
20011=0x1.38fdc8b65fa48p+0
20012=0x1.87ce1e47c4815p-1
20013=0x1.ab1ff0c0b02d4p-1
20015=0x1.691f2d3754577p-1
20020=0x1.1e46eebdeec71p-2
20021=-0x1.257af032cfcefp-2
20022=0x1.d2da851bb9329p-1
20029=0x1.284a798461c79p+0
20034=0x1.3bf0953754933p-2
20039=0x1.3c4b4d6382fe5p-2
20040=0x1.28f3bab152f58p-1
20049=0x1.d32c4911138f9p-2
20056=0x1.3c29e36caeaaep-2
20067=0x1.c1fb9e2b34f2fp-1
20069=0x1.3c41dce91a9f6p-2
20088=0x1.d605b6fde23dp-1
20169=0x1.973cc295b37dcp+0
20171=-0x1.c1fc8807c5e18p-5
20172=0x1.16f9289b0d7f5p+1
20183=0x1.0e55f6b5b458p+1
20191=0x1.5bc5f2125ecb2p-2
20331=0x1.2d5d51caeacbep-1
20333=0x1.8192e9e1a8236p-7
20364=0x1.84fed28fb3311p-2
20373=0x1.897938bcaa334p-2
20387=0x1.8c6eff4d44466p-2
20414=0x1.1c65485d9be54p-2
20493=0x1.e23d490478122p-1
20495=0x1.7e298e6eec047p-2
20655=0x1.85c27a85e5ca2p+0
20657=0x1.083e5a4a8026dp-1
20819=-0x1.256e16e6ca2c5p-12
20828=0x1.937a97fc29db6p-2
20898=0x1.49896eb3534bfp-3
20979=0x1.25a6d749280afp+0
21012=0x1.918df894184a9p-2
21222=0x1.47ceca7aecebp-3
21224=-0x1.200c46068d1f3p-11
21305=-0x1.c1d669e8b7f7cp-9
21347=0x1.93afcff926c46p-2
21386=0x1.bfef8fc0ce779p-1
21467=-0x1.0a41e511ddeb7p-8
21482=0x1.f39f21a5f5214p+0
21627=0x1.3a839740a7e45p-3
21629=0x1.bfb0074fa6504p-1
22275=0x1.3939dc037c399p-3
22358=0x1.fff8cc2aa4dfp-1
22518=0x1.43feb11f29e79p-3
22842=0x1.4cfcfd8613f33p-3
23330=0x1.e754a0ee239d4p-2
23652=0x1.4c9057fa64696p-3
24545=0x1.0d34c8e21d269p-1
24565=0x1.80520ba553892p-2
24603=0x1.918245e5a09b1p-2
26158=0x1.94059f91a5455p-2
26568=0x1.966a909be8e54p-1
26569=0x1.2bfa4d16a064ep-6
26570=0x1.076c9b3445ecfp+0
26571=0x1.abb5b371b4c4fp-2
26572=0x1.755c82dcfb9bdp-2
26573=0x1.b6bfd538d0dacp-2
26574=0x1.4249822cb8c84p-2
26576=0x1.2ac4b0977ae2cp-2
26577=-0x1.e1edd24bc84c1p-9
26579=0x1.52cf0b8042672p-7
26581=0x1.f68f6b40a490dp-7
26582=0x1.a9f8af9dbbaf1p-1
26583=0x1.5a121b8b63878p-3
26585=0x1.9ea3381754c83p-2
26590=0x1.4bc63c97a0b54p-1
26595=0x1.2df0646066434p-6
26597=-0x1.0b7094129232ep-11
26599=0x1.ce60afcafff28p-2
26600=0x1.2faca17a34d81p-6
26601=0x1.24eb07bedf2f8p-1
26610=0x1.97aa72645aee8p-2
26612=0x1.20c03804a9075p-5
26617=0x1.2ea0544a8531p-6
26624=0x1.1f93c0f89197dp-5
26628=0x1.1f57cc83a4e15p-1
26630=0x1.2f3c94a946264p-6
26644=0x1.2122e0c34a3a4p-5
26649=0x1.52acad4d3d739p+0
26650=0x1.3c0fb0977a8a6p-2
26651=0x1.ae7b57a37bae6p+0
26652=0x1.607d30d3488e3p-1
26653=0x1.38fdc8b65fa48p+0
26654=0x1.87ce1e47c4815p-1
26655=0x1.ab1ff0c0b02d4p-1
26657=0x1.691f2d3754577p-1
26662=0x1.1e46eebdeec71p-2
26663=-0x1.257af032cfcefp-2
26664=0x1.d2da851bb9329p-1
26671=0x1.284a798461c79p+0
26676=0x1.3bf0953754933p-2
26681=0x1.3c4b4d6382fe5p-2
26682=0x1.28f3bab152f58p-1
26691=0x1.d32c4911138f9p-2
26698=0x1.3c29e36caeaaep-2
26709=0x1.c1fb9e2b34f2fp-1
26711=0x1.3c41dce91a9f6p-2
26730=0x1.d605b6fde23dp-1
26811=0x1.973cc295b37dcp+0
26813=-0x1.c1fc8807c5e18p-5
26814=0x1.16f9289b0d7f5p+1
26825=0x1.0e55f6b5b458p+1
26833=0x1.5bc5f2125ecb2p-2
26973=0x1.2d5d51caeacbep-1
26975=0x1.8192e9e1a8236p-7
27006=0x1.84fed28fb3311p-2
27015=0x1.897938bcaa334p-2
27029=0x1.8c6eff4d44466p-2
27056=0x1.1c65485d9be54p-2
27135=0x1.e23d490478122p-1
27137=0x1.7e298e6eec047p-2
27297=0x1.85c27a85e5ca2p+0
27299=0x1.083e5a4a8026dp-1
27461=-0x1.256e16e6ca2c5p-12
27470=0x1.937a97fc29db6p-2
27540=0x1.49896eb3534bfp-3
27621=0x1.25a6d749280afp+0
27654=0x1.918df894184a9p-2
27864=0x1.47ceca7aecebp-3
27866=-0x1.200c46068d1f3p-11
27947=-0x1.c1d669e8b7f7cp-9
27989=0x1.93afcff926c46p-2
28028=0x1.bfef8fc0ce779p-1
28109=-0x1.0a41e511ddeb7p-8
28124=0x1.f39f21a5f5214p+0
28269=0x1.3a839740a7e45p-3
28271=0x1.bfb0074fa6504p-1
28917=0x1.3939dc037c399p-3
29000=0x1.fff8cc2aa4dfp-1
29160=0x1.43feb11f29e79p-3
29484=0x1.4cfcfd8613f33p-3
29972=0x1.e754a0ee239d4p-2
30294=0x1.4c9057fa64696p-3
31187=0x1.0d34c8e21d269p-1
31207=0x1.80520ba553892p-2
31245=0x1.918245e5a09b1p-2
32800=0x1.94059f91a5455p-2
33210=0x1.966a909be8e54p-1
33211=0x1.2bfa4d16a064ep-6
33212=0x1.076c9b3445ecfp+0
33213=0x1.abb5b371b4c4fp-2
33214=0x1.755c82dcfb9bdp-2
33215=0x1.b6bfd538d0dacp-2
33216=0x1.4249822cb8c84p-2
33218=0x1.2ac4b0977ae2cp-2
33219=-0x1.e1edd24bc84c1p-9
33221=0x1.52cf0b8042672p-7
33223=0x1.f68f6b40a490dp-7
33224=0x1.a9f8af9dbbaf1p-1
33225=0x1.5a121b8b63878p-3
33227=0x1.9ea3381754c83p-2
33232=0x1.4bc63c97a0b54p-1
33237=0x1.2df0646066434p-6
33239=-0x1.0b7094129232ep-11
33241=0x1.ce60afcafff28p-2
33242=0x1.2faca17a34d81p-6
33243=0x1.24eb07bedf2f8p-1
33252=0x1.97aa72645aee8p-2
33254=0x1.20c03804a9075p-5
33259=0x1.2ea0544a8531p-6
33266=0x1.1f93c0f89197dp-5
33270=0x1.1f57cc83a4e15p-1
33272=0x1.2f3c94a946264p-6
33286=0x1.2122e0c34a3a4p-5
33291=0x1.52acad4d3d739p+0
33292=0x1.3c0fb0977a8a6p-2
33293=0x1.ae7b57a37bae6p+0
33294=0x1.607d30d3488e3p-1
33295=0x1.38fdc8b65fa48p+0
33296=0x1.87ce1e47c4815p-1
33297=0x1.ab1ff0c0b02d4p-1
33299=0x1.691f2d3754577p-1
33304=0x1.1e46eebdeec71p-2
33305=-0x1.257af032cfcefp-2
33306=0x1.d2da851bb9329p-1
33313=0x1.284a798461c79p+0
33318=0x1.3bf0953754933p-2
33323=0x1.3c4b4d6382fe5p-2
33324=0x1.28f3bab152f58p-1
33333=0x1.d32c4911138f9p-2
33340=0x1.3c29e36caeaaep-2
33351=0x1.c1fb9e2b34f2fp-1
33353=0x1.3c41dce91a9f6p-2
33372=0x1.d605b6fde23dp-1
33453=0x1.973cc295b37dcp+0
33455=-0x1.c1fc8807c5e18p-5
33456=0x1.16f9289b0d7f5p+1
33467=0x1.0e55f6b5b458p+1
33475=0x1.5bc5f2125ecb2p-2
33615=0x1.2d5d51caeacbep-1
33617=0x1.8192e9e1a8236p-7
33648=0x1.84fed28fb3311p-2
33657=0x1.897938bcaa334p-2
33671=0x1.8c6eff4d44466p-2
33698=0x1.1c65485d9be54p-2
33777=0x1.e23d490478122p-1
33779=0x1.7e298e6eec047p-2
33939=0x1.85c27a85e5ca2p+0
33941=0x1.083e5a4a8026dp-1
34103=-0x1.256e16e6ca2c5p-12
34112=0x1.937a97fc29db6p-2
34182=0x1.49896eb3534bfp-3
34263=0x1.25a6d749280afp+0
34296=0x1.918df894184a9p-2
34506=0x1.47ceca7aecebp-3
34508=-0x1.200c46068d1f3p-11
34589=-0x1.c1d669e8b7f7cp-9
34631=0x1.93afcff926c46p-2
34670=0x1.bfef8fc0ce779p-1
34751=-0x1.0a41e511ddeb7p-8
34766=0x1.f39f21a5f5214p+0
34911=0x1.3a839740a7e45p-3
34913=0x1.bfb0074fa6504p-1
35559=0x1.3939dc037c399p-3
35642=0x1.fff8cc2aa4dfp-1
35802=0x1.43feb11f29e79p-3
36126=0x1.4cfcfd8613f33p-3
36614=0x1.e754a0ee239d4p-2
36936=0x1.4c9057fa64696p-3
37829=0x1.0d34c8e21d269p-1
37849=0x1.80520ba553892p-2
37887=0x1.918245e5a09b1p-2
39442=0x1.94059f91a5455p-2
39852=0x1.29ef1890075a4p+0
39856=0x1.7a3ce67a48da4p-4
39923=0x1.cb57fa2f82eadp-3
39933=0x1.58522f230c6e9p+0
39937=0x1.66b5520a9414ep-2
40004=0x1.a33aee8f575b9p-2
40095=-0x1.81fc27541a4e5p-1
40257=0x1.1355069efb837p-2
40500=0x1.97f9fcca01c13p-2
46494=0x1.29ef1890075a4p+0
46498=0x1.7a3ce67a48da4p-4
46565=0x1.cb57fa2f82eadp-3
46575=0x1.58522f230c6e9p+0
46579=0x1.66b5520a9414ep-2
46646=0x1.a33aee8f575b9p-2
46737=-0x1.81fc27541a4e5p-1
46899=0x1.1355069efb837p-2
47142=0x1.97f9fcca01c13p-2
53136=0x1.29ef1890075a4p+0
53140=0x1.7a3ce67a48da4p-4
53207=0x1.cb57fa2f82eadp-3
53217=0x1.58522f230c6e9p+0
53221=0x1.66b5520a9414ep-2
53288=0x1.a33aee8f575b9p-2
53379=-0x1.81fc27541a4e5p-1
53541=0x1.1355069efb837p-2
53784=0x1.97f9fcca01c13p-2
59778=0x1.1288057de2cb8p+1
59782=0x1.4a1563fdaca2ap-1
59783=0x1.92e1b8e7d992p-1
59787=0x1.249aee482dd42p-3
59791=0x1.72518ef0f890fp-3
59793=0x1.72191cf6f183cp-3
59796=0x1.3f8f773b6a7d8p-2
59799=0x1.a712f8f907fafp-1
59805=0x1.ac268bd9da5c6p-1
59811=0x1.33ace49f4c1a1p-1
59831=0x1.71820b88006e7p-3
59834=0x1.717abfe7d21a6p-3
59859=0x1.73a4b3d5abcd9p-1
59863=0x1.e50ddb5dc8d32p-1
59864=0x1.0aec4a401b9edp+0
59868=0x1.63763088cb7e1p-3
59872=0x1.8b01156801688p-3
59874=0x1.8ac0735926f4ap-3
59877=0x1.126707dcd2734p+0
59880=-0x1.ef86adc99d2d8p-11
59886=0x1.a39bb83ba7e2dp-4
59892=0x1.3757d90328a1cp-1
59912=0x1.8a851cc80c94p-3
59940=0x1.b4ff84660ef03p-8
60021=0x1.1a57c6a627a8dp-1
60102=-0x1.f9b9b1b2bf83bp-4
60183=0x1.61932542d51a4p-1
60264=0x1.1e7853b0a6b6dp-2
60345=0x1.063da8bd03d6ap-12
60426=-0x1.762d2d3987185p-3
60507=0x1.6d007d48146a1p-8
60588=0x1.801f1c38915bbp-1
60750=0x1.6ae4655257f75p-1
60831=0x1.23fc2ed595215p-10
60912=-0x1.98de9205e3271p-4
60993=-0x1.0976247b1b8d3p-3
61074=0x1.3cecae5897519p-1
61155=0x1.094e72c923873p-1
61236=0x1.de3ca55febc71p-2
61292=0x1.9b55585ee0487p-2
61317=-0x1.31a65493a6a28p-4
61398=-0x1.7a45a88ddf4f6p-3
61560=0x1.bc948f39f10a9p-1
61641=0x1.9cea92bd743a2p-1
61803=-0x1.30921c15ba55bp-4
61884=-0x1.32a4ae54fc029p-4
61965=0x1.f970afedd2302p-11
62046=0x1.1dac665b15e93p-1
62127=-0x1.e0e943e428e97p-4
62208=-0x1.f438bf3d6db2bp-4
62289=-0x1.fc34b7d745487p-4
62451=0x1.8986455ea4761p-8
62532=0x1.393b7ed4aaa27p-1
62613=0x1.90ad142332befp-8
62694=-0x1.3138513362ab3p-4
62775=-0x1.30921be96c3d9p-4
62856=0x1.be0e05f3cbddp-8
62937=-0x1.3360119c3d43cp-4
63018=-0x1.30903603d089p-4
63099=0x1.b2af550e4ab81p-3
63261=0x1.ce15453d9ff26p-12
63288=0x1.9bbe5e1d40f41p-2
63342=-0x1.3601655604391p-4
63423=-0x1.309d42fa5158bp-4
63504=-0x1.320d00065296p-4
63585=-0x1.3092196d23f2ap-4
63666=-0x1.30921c15ba55dp-4
63747=-0x1.36514b1d16d2bp-4
63828=-0x1.322c0c91ca5e2p-4
63909=-0x1.31383bae3aee7p-4
63990=0x1.3b43308ffae92p-13
64071=-0x1.3091ec9a52522p-4
64233=-0x1.327519a12934cp-4
64400=0x1.9a589195a7e02p-2
64416=0x1.9bad64ea4110ep-2
64476=-0x1.309214a7cf607p-4
64557=-0x1.03a0d61c11ab7p-3
64638=0x1.3f618ae844088p-8
64800=-0x1.31388c019edccp-4
64881=-0x1.309e889b80afap-4
64962=0x1.82773211f1cafp-3
65043=0x1.6a6191c45f7fdp-12
65064=0x1.9ba04feb46a7fp-2
65124=-0x1.2712ead1b3955p-3
65205=0x1.687b0cec6e30dp-1
65286=-0x1.30921c15ba55dp-4
65367=-0x1.30921c15ba55dp-4
65448=-0x1.30921b48ca9f8p-4
65529=-0x1.31c51105b7191p-4
65610=-0x1.3175a484c5437p-4
65691=-0x1.30921c15ba55dp-4
65772=-0x1.30921c15ba55dp-4
65853=-0x1.30921c15ba55dp-4
65934=-0x1.30921c0bbd4ecp-4
66096=-0x1.30a21cc09a9dfp-4
66177=-0x1.30921c15ba55dp-4
66258=-0x1.30921b40332cep-4
66339=-0x1.30dceb94422a5p-4
66420=0x1.1288057de2cb8p+1
66424=0x1.4a1563fdaca2ap-1
66425=0x1.92e1b8e7d992p-1
66429=0x1.249aee482dd42p-3
66433=0x1.72518ef0f890fp-3
66435=0x1.72191cf6f183cp-3
66438=0x1.3f8f773b6a7d8p-2
66441=0x1.a712f8f907fafp-1
66447=0x1.ac268bd9da5c6p-1
66453=0x1.33ace49f4c1a1p-1
66473=0x1.71820b88006e7p-3
66476=0x1.717abfe7d21a6p-3
66501=0x1.73a4b3d5abcd9p-1
66505=0x1.e50ddb5dc8d32p-1
66506=0x1.0aec4a401b9edp+0
66510=0x1.63763088cb7e1p-3
66514=0x1.8b01156801688p-3
66516=0x1.8ac0735926f4ap-3
66519=0x1.126707dcd2734p+0
66522=-0x1.ef86adc99d2d8p-11
66528=0x1.a39bb83ba7e2dp-4
66534=0x1.3757d90328a1cp-1
66554=0x1.8a851cc80c94p-3
66582=0x1.b4ff84660ef03p-8
66663=0x1.1a57c6a627a8dp-1
66744=-0x1.f9b9b1b2bf83bp-4
66825=0x1.61932542d51a4p-1
66906=0x1.1e7853b0a6b6dp-2
66987=0x1.063da8bd03d6ap-12
67068=-0x1.762d2d3987185p-3
67149=0x1.6d007d48146a1p-8
67230=0x1.801f1c38915bbp-1
67392=0x1.6ae4655257f75p-1
67473=0x1.23fc2ed595215p-10
67554=-0x1.98de9205e3271p-4
67635=-0x1.0976247b1b8d3p-3
67716=0x1.3cecae5897519p-1
67797=0x1.094e72c923873p-1
67878=0x1.de3ca55febc71p-2
67934=0x1.9b55585ee0487p-2
67959=-0x1.31a65493a6a28p-4
68040=-0x1.7a45a88ddf4f6p-3
68202=0x1.bc948f39f10a9p-1
68283=0x1.9cea92bd743a2p-1
68445=-0x1.30921c15ba55bp-4
68526=-0x1.32a4ae54fc029p-4
68607=0x1.f970afedd2302p-11
68688=0x1.1dac665b15e93p-1
68769=-0x1.e0e943e428e97p-4
68850=-0x1.f438bf3d6db2bp-4
68931=-0x1.fc34b7d745487p-4
69093=0x1.8986455ea4761p-8
69174=0x1.393b7ed4aaa27p-1
69255=0x1.90ad142332befp-8
69336=-0x1.3138513362ab3p-4
69417=-0x1.30921be96c3d9p-4
69498=0x1.be0e05f3cbddp-8
69579=-0x1.3360119c3d43cp-4
69660=-0x1.30903603d089p-4
69741=0x1.b2af550e4ab81p-3
69903=0x1.ce15453d9ff26p-12
69930=0x1.9bbe5e1d40f41p-2
69984=-0x1.3601655604391p-4
70065=-0x1.309d42fa5158bp-4
70146=-0x1.320d00065296p-4
70227=-0x1.3092196d23f2ap-4
70308=-0x1.30921c15ba55dp-4
70389=-0x1.36514b1d16d2bp-4
70470=-0x1.322c0c91ca5e2p-4
70551=-0x1.31383bae3aee7p-4
70632=0x1.3b43308ffae92p-13
70713=-0x1.3091ec9a52522p-4
70875=-0x1.327519a12934cp-4
71042=0x1.9a589195a7e02p-2
71058=0x1.9bad64ea4110ep-2
71118=-0x1.309214a7cf607p-4
71199=-0x1.03a0d61c11ab7p-3
71280=0x1.3f618ae844088p-8
71442=-0x1.31388c019edccp-4
71523=-0x1.309e889b80afap-4
71604=0x1.82773211f1cafp-3
71685=0x1.6a6191c45f7fdp-12
71706=0x1.9ba04feb46a7fp-2
71766=-0x1.2712ead1b3955p-3
71847=0x1.687b0cec6e30dp-1
71928=-0x1.30921c15ba55dp-4
72009=-0x1.30921c15ba55dp-4
72090=-0x1.30921b48ca9f8p-4
72171=-0x1.31c51105b7191p-4
72252=-0x1.3175a484c5437p-4
72333=-0x1.30921c15ba55dp-4
72414=-0x1.30921c15ba55dp-4
72495=-0x1.30921c15ba55dp-4
72576=-0x1.30921c0bbd4ecp-4
72738=-0x1.30a21cc09a9dfp-4
72819=-0x1.30921c15ba55dp-4
72900=-0x1.30921b40332cep-4
72981=-0x1.30dceb94422a5p-4
73062=0x1.1288057de2cb8p+1
73066=0x1.4a1563fdaca2ap-1
73067=0x1.92e1b8e7d992p-1
73071=0x1.249aee482dd42p-3
73075=0x1.72518ef0f890fp-3
73077=0x1.72191cf6f183cp-3
73080=0x1.3f8f773b6a7d8p-2
73083=0x1.a712f8f907fafp-1
73089=0x1.ac268bd9da5c6p-1
73095=0x1.33ace49f4c1a1p-1
73115=0x1.71820b88006e7p-3
73118=0x1.717abfe7d21a6p-3
73143=0x1.73a4b3d5abcd9p-1
73147=0x1.e50ddb5dc8d32p-1
73148=0x1.0aec4a401b9edp+0
73152=0x1.63763088cb7e1p-3
73156=0x1.8b01156801688p-3
73158=0x1.8ac0735926f4ap-3
73161=0x1.126707dcd2734p+0
73164=-0x1.ef86adc99d2d8p-11
73170=0x1.a39bb83ba7e2dp-4
73176=0x1.3757d90328a1cp-1
73196=0x1.8a851cc80c94p-3
73224=0x1.b4ff84660ef03p-8
73305=0x1.1a57c6a627a8dp-1
73386=-0x1.f9b9b1b2bf83bp-4
73467=0x1.61932542d51a4p-1
73548=0x1.1e7853b0a6b6dp-2
73629=0x1.063da8bd03d6ap-12
73710=-0x1.762d2d3987185p-3
73791=0x1.6d007d48146a1p-8
73872=0x1.801f1c38915bbp-1
74034=0x1.6ae4655257f75p-1
74115=0x1.23fc2ed595215p-10
74196=-0x1.98de9205e3271p-4
74277=-0x1.0976247b1b8d3p-3
74358=0x1.3cecae5897519p-1
74439=0x1.094e72c923873p-1
74520=0x1.de3ca55febc71p-2
74576=0x1.9b55585ee0487p-2
74601=-0x1.31a65493a6a28p-4
74682=-0x1.7a45a88ddf4f6p-3
74844=0x1.bc948f39f10a9p-1
74925=0x1.9cea92bd743a2p-1
75087=-0x1.30921c15ba55bp-4
75168=-0x1.32a4ae54fc029p-4
75249=0x1.f970afedd2302p-11
75330=0x1.1dac665b15e93p-1
75411=-0x1.e0e943e428e97p-4
75492=-0x1.f438bf3d6db2bp-4
75573=-0x1.fc34b7d745487p-4
75735=0x1.8986455ea4761p-8
75816=0x1.393b7ed4aaa27p-1
75897=0x1.90ad142332befp-8
75978=-0x1.3138513362ab3p-4
76059=-0x1.30921be96c3d9p-4
76140=0x1.be0e05f3cbddp-8
76221=-0x1.3360119c3d43cp-4
76302=-0x1.30903603d089p-4
76383=0x1.b2af550e4ab81p-3
76545=0x1.ce15453d9ff26p-12
76572=0x1.9bbe5e1d40f41p-2
76626=-0x1.3601655604391p-4
76707=-0x1.309d42fa5158bp-4
76788=-0x1.320d00065296p-4
76869=-0x1.3092196d23f2ap-4
76950=-0x1.30921c15ba55dp-4
77031=-0x1.36514b1d16d2bp-4
77112=-0x1.322c0c91ca5e2p-4
77193=-0x1.31383bae3aee7p-4
77274=0x1.3b43308ffae92p-13
77355=-0x1.3091ec9a52522p-4
77517=-0x1.327519a12934cp-4
77684=0x1.9a589195a7e02p-2
77700=0x1.9bad64ea4110ep-2
77760=-0x1.309214a7cf607p-4
77841=-0x1.03a0d61c11ab7p-3
77922=0x1.3f618ae844088p-8
78084=-0x1.31388c019edccp-4
78165=-0x1.309e889b80afap-4
78246=0x1.82773211f1cafp-3
78327=0x1.6a6191c45f7fdp-12
78348=0x1.9ba04feb46a7fp-2
78408=-0x1.2712ead1b3955p-3
78489=0x1.687b0cec6e30dp-1
78570=-0x1.30921c15ba55dp-4
78651=-0x1.30921c15ba55dp-4
78732=-0x1.30921b48ca9f8p-4
78813=-0x1.31c51105b7191p-4
78894=-0x1.3175a484c5437p-4
78975=-0x1.30921c15ba55dp-4
79056=-0x1.30921c15ba55dp-4
79137=-0x1.30921c15ba55dp-4
79218=-0x1.30921c0bbd4ecp-4
79380=-0x1.30a21cc09a9dfp-4
79461=-0x1.30921c15ba55dp-4
79542=-0x1.30921b40332cep-4
79623=-0x1.30dceb94422a5p-4
79704=0x1.a4a6c0e11bac1p+0
79785=0x1.289f201dd10abp+0
80109=0x1.4720d6ab9bcf2p-2
86346=0x1.a4a6c0e11bac1p+0
86427=0x1.289f201dd10abp+0
86751=0x1.4720d6ab9bcf2p-2
92988=0x1.a4a6c0e11bac1p+0
93069=0x1.289f201dd10abp+0
93393=0x1.4720d6ab9bcf2p-2
99630=0x1.b641577a108bep-1
99631=0x1.67a9539779ae8p-1
99632=0x1.625b092661c05p-6
99636=0x1.c5c7f53ce9edp-1
99637=-0x1.260eda487e856p-5
99638=0x1.ebc59e0c8ea85p-1
99640=-0x1.33bb9d6fadfd3p-2
99641=0x1.205ff6e990509p-1
99642=0x1.c762c238b6456p-1
99643=0x1.76047ba981f0fp-2
99647=-0x1.1eb8c97dcad4cp-11
99648=-0x1.5e0cc18565afp-2
99649=0x1.0f13d230b8dd4p-1
99650=0x1.f0e49c2268d6ep-2
99653=0x1.7e81c823d9b1dp-1
99658=0x1.51ae1c25ddb18p-1
99663=0x1.c54c87a21788ep-2
99672=-0x1.4da037a27bf0ep-3
99673=0x1.1aa0dc61fba2ap-1
99675=0x1.1a860911b1f3ep-1
99680=-0x1.77c46a8fa6b11p-4
99691=0x1.597a4c273727ep-3
99711=0x1.16d19e1c57796p+0
99712=0x1.16a67398eb648p+0
99713=0x1.13ad275d6cd0fp-3
99715=0x1.0e2902b7f5406p-1
99716=0x1.6ea790d347fdcp-7
99717=0x1.553cb038fe834p-1
99719=0x1.61895e373f8c3p-1
99722=0x1.422d3c8a15769p-1
99723=0x1.4247e953e30adp+0
99724=0x1.551bb8d5ea335p-1
99730=0x1.56cdc613b435dp-1
99731=0x1.c87274337e65dp-1
99734=0x1.4bba500c279a2p-1
99739=0x1.fdc806ca06868p-3
99744=-0x1.481d3f57ae51cp-11
99754=0x1.b6034eebd021ep-2
99772=0x1.3ee239e4d0bdep-3
99792=-0x1.76ab01143d37p-4
99798=-0x1.b97a46c86fab2p-8
99811=0x1.800baa4c9cac4p-2
99812=0x1.77eced43d925ep+0
99820=0x1.337492ade18e7p+0
99873=-0x1.4534182f5b63cp-6
100035=0x1.4ae761d04cafap-2
100036=-0x1.1576ce9f8b586p-9
100041=-0x1.2d59694f69b88p-5
100047=-0x1.77144a77284d1p-5
100055=-0x1.edaeb18aefaaep-10
100116=-0x1.3b22861103457p-2
100122=0x1.24557aba92284p-7
100124=-0x1.54ef4d2b27859p-8
100128=-0x1.f6a347d9931b8p-9
100197=0x1.019c140da0ca1p-7
100205=0x1.51e604b716395p-2
100208=0x1.9c2925af79f0ep-2
100209=0x1.066e3a284a39p+0
100216=0x1.99eef7906f087p-2
100220=0x1.83fc0df7ba5bfp-2
100225=0x1.905384847d709p-2
100359=0x1.a56daa15837b3p-6
100371=0x1.cdc342c47fe15p-3
100440=0x1.d882014e1a90ap-2
100602=0x1.7dc71c3d43ddbp-5
100683=0x1.6b5a5f6758d1p-1
100689=0x1.a23d7de0e89b5p+0
100691=0x1.8ca4e29aae7dep+0
100706=0x1.875b3972bf84cp+0
100711=0x1.9092b2f9ee25ep-2
100716=0x1.44a66600c02f5p+0
100726=0x1.e5a984b315bc2p+0
100926=0x1.b5559e6005448p-5
101169=-0x1.728a87540db37p-1
101170=-0x1.0d2a2797cd383p-8
101175=-0x1.a94eebd6af0eap-5
101177=-0x1.699fcf462b21bp-5
101181=-0x1.831632eab1462p-4
101189=-0x1.d8120a3e38e27p-10
101359=0x1.92464b8919f17p-2
101898=0x1.e615a04b2bf2bp-2
101921=0x1.89304f55d1bd2p-2
101987=0x1.2a4bff6994c72p+0
102024=0x1.44bb0993e7bbap+0
103688=0x1.5cc279eaee45ep-2
103784=0x1.89b98e9de2294p-2
106272=0x1.b641577a108bep-1
106273=0x1.67a9539779ae8p-1
106274=0x1.625b092661c05p-6
106278=0x1.c5c7f53ce9edp-1
106279=-0x1.260eda487e856p-5
106280=0x1.ebc59e0c8ea85p-1
106282=-0x1.33bb9d6fadfd3p-2
106283=0x1.205ff6e990509p-1
106284=0x1.c762c238b6456p-1
106285=0x1.76047ba981f0fp-2
106289=-0x1.1eb8c97dcad4cp-11
106290=-0x1.5e0cc18565afp-2
106291=0x1.0f13d230b8dd4p-1
106292=0x1.f0e49c2268d6ep-2
106295=0x1.7e81c823d9b1dp-1
106300=0x1.51ae1c25ddb18p-1
106305=0x1.c54c87a21788ep-2
106314=-0x1.4da037a27bf0ep-3
106315=0x1.1aa0dc61fba2ap-1
106317=0x1.1a860911b1f3ep-1
106322=-0x1.77c46a8fa6b11p-4
106333=0x1.597a4c273727ep-3
106353=0x1.16d19e1c57796p+0
106354=0x1.16a67398eb648p+0
106355=0x1.13ad275d6cd0fp-3
106357=0x1.0e2902b7f5406p-1
106358=0x1.6ea790d347fdcp-7
106359=0x1.553cb038fe834p-1
106361=0x1.61895e373f8c3p-1
106364=0x1.422d3c8a15769p-1
106365=0x1.4247e953e30adp+0
106366=0x1.551bb8d5ea335p-1
106372=0x1.56cdc613b435dp-1
106373=0x1.c87274337e65dp-1
106376=0x1.4bba500c279a2p-1
106381=0x1.fdc806ca06868p-3
106386=-0x1.481d3f57ae51cp-11
106396=0x1.b6034eebd021ep-2
106414=0x1.3ee239e4d0bdep-3
106434=-0x1.76ab01143d37p-4
106440=-0x1.b97a46c86fab2p-8
106453=0x1.800baa4c9cac4p-2
106454=0x1.77eced43d925ep+0
106462=0x1.337492ade18e7p+0
106515=-0x1.4534182f5b63cp-6
106677=0x1.4ae761d04cafap-2
106678=-0x1.1576ce9f8b586p-9
106683=-0x1.2d59694f69b88p-5
106689=-0x1.77144a77284d1p-5
106697=-0x1.edaeb18aefaaep-10
106758=-0x1.3b22861103457p-2
106764=0x1.24557aba92284p-7
106766=-0x1.54ef4d2b27859p-8
106770=-0x1.f6a347d9931b8p-9
106839=0x1.019c140da0ca1p-7
106847=0x1.51e604b716395p-2
106850=0x1.9c2925af79f0ep-2
106851=0x1.066e3a284a39p+0
106858=0x1.99eef7906f087p-2
106862=0x1.83fc0df7ba5bfp-2
106867=0x1.905384847d709p-2
107001=0x1.a56daa15837b3p-6
107013=0x1.cdc342c47fe15p-3
107082=0x1.d882014e1a90ap-2
107244=0x1.7dc71c3d43ddbp-5
107325=0x1.6b5a5f6758d1p-1
107331=0x1.a23d7de0e89b5p+0
107333=0x1.8ca4e29aae7dep+0
107348=0x1.875b3972bf84cp+0
107353=0x1.9092b2f9ee25ep-2
107358=0x1.44a66600c02f5p+0
107368=0x1.e5a984b315bc2p+0
107568=0x1.b5559e6005448p-5
107811=-0x1.728a87540db37p-1
107812=-0x1.0d2a2797cd383p-8
107817=-0x1.a94eebd6af0eap-5
107819=-0x1.699fcf462b21bp-5
107823=-0x1.831632eab1462p-4
107831=-0x1.d8120a3e38e27p-10
108001=0x1.92464b8919f17p-2
108540=0x1.e615a04b2bf2bp-2
108563=0x1.89304f55d1bd2p-2
108629=0x1.2a4bff6994c72p+0
108666=0x1.44bb0993e7bbap+0
110330=0x1.5cc279eaee45ep-2
110426=0x1.89b98e9de2294p-2
112914=0x1.b641577a108bep-1
112915=0x1.67a9539779ae8p-1
112916=0x1.625b092661c05p-6
112920=0x1.c5c7f53ce9edp-1
112921=-0x1.260eda487e856p-5
112922=0x1.ebc59e0c8ea85p-1
112924=-0x1.33bb9d6fadfd3p-2
112925=0x1.205ff6e990509p-1
112926=0x1.c762c238b6456p-1
112927=0x1.76047ba981f0fp-2
112931=-0x1.1eb8c97dcad4cp-11
112932=-0x1.5e0cc18565afp-2
112933=0x1.0f13d230b8dd4p-1
112934=0x1.f0e49c2268d6ep-2
112937=0x1.7e81c823d9b1dp-1
112942=0x1.51ae1c25ddb18p-1
112947=0x1.c54c87a21788ep-2
112956=-0x1.4da037a27bf0ep-3
112957=0x1.1aa0dc61fba2ap-1
112959=0x1.1a860911b1f3ep-1
112964=-0x1.77c46a8fa6b11p-4
112975=0x1.597a4c273727ep-3
112995=0x1.16d19e1c57796p+0
112996=0x1.16a67398eb648p+0
112997=0x1.13ad275d6cd0fp-3
112999=0x1.0e2902b7f5406p-1
113000=0x1.6ea790d347fdcp-7
113001=0x1.553cb038fe834p-1
113003=0x1.61895e373f8c3p-1
113006=0x1.422d3c8a15769p-1
113007=0x1.4247e953e30adp+0
113008=0x1.551bb8d5ea335p-1
113014=0x1.56cdc613b435dp-1
113015=0x1.c87274337e65dp-1
113018=0x1.4bba500c279a2p-1
113023=0x1.fdc806ca06868p-3
113028=-0x1.481d3f57ae51cp-11
113038=0x1.b6034eebd021ep-2
113056=0x1.3ee239e4d0bdep-3
113076=-0x1.76ab01143d37p-4
113082=-0x1.b97a46c86fab2p-8
113095=0x1.800baa4c9cac4p-2
113096=0x1.77eced43d925ep+0
113104=0x1.337492ade18e7p+0
113157=-0x1.4534182f5b63cp-6
113319=0x1.4ae761d04cafap-2
113320=-0x1.1576ce9f8b586p-9
113325=-0x1.2d59694f69b88p-5
113331=-0x1.77144a77284d1p-5
113339=-0x1.edaeb18aefaaep-10
113400=-0x1.3b22861103457p-2
113406=0x1.24557aba92284p-7
113408=-0x1.54ef4d2b27859p-8
113412=-0x1.f6a347d9931b8p-9
113481=0x1.019c140da0ca1p-7
113489=0x1.51e604b716395p-2
113492=0x1.9c2925af79f0ep-2
113493=0x1.066e3a284a39p+0
113500=0x1.99eef7906f087p-2
113504=0x1.83fc0df7ba5bfp-2
113509=0x1.905384847d709p-2
113643=0x1.a56daa15837b3p-6
113655=0x1.cdc342c47fe15p-3
113724=0x1.d882014e1a90ap-2
113886=0x1.7dc71c3d43ddbp-5
113967=0x1.6b5a5f6758d1p-1
113973=0x1.a23d7de0e89b5p+0
113975=0x1.8ca4e29aae7dep+0
113990=0x1.875b3972bf84cp+0
113995=0x1.9092b2f9ee25ep-2
114000=0x1.44a66600c02f5p+0
114010=0x1.e5a984b315bc2p+0
114210=0x1.b5559e6005448p-5
114453=-0x1.728a87540db37p-1
114454=-0x1.0d2a2797cd383p-8
114459=-0x1.a94eebd6af0eap-5
114461=-0x1.699fcf462b21bp-5
114465=-0x1.831632eab1462p-4
114473=-0x1.d8120a3e38e27p-10
114643=0x1.92464b8919f17p-2
115182=0x1.e615a04b2bf2bp-2
115205=0x1.89304f55d1bd2p-2
115271=0x1.2a4bff6994c72p+0
115308=0x1.44bb0993e7bbap+0
116972=0x1.5cc279eaee45ep-2
117068=0x1.89b98e9de2294p-2
119556=0x1.a8113c4ebdfap+0
119557=0x1.d4530e173774p-14
119558=-0x1.46f592db9038cp+0
119559=-0x1.377fe3f483ceep-2
119560=0x1.81dad7b11b028p-2
119561=0x1.c31f561465cb8p-1
119562=0x1.86a8ec6b1ec1dp-1
119564=0x1.ab1bd56abea0cp-1
119565=0x1.9bca322007833p-2
119567=0x1.505eb7409ee91p-1
119568=0x1.377b6733b804p-14
119569=0x1.9c5bb5956005p-2
119570=-0x1.4822be212e02dp-6
119571=-0x1.d3ed5fd00e5d8p-7
119572=0x1.c2a0aa6f6fc86p-4
119573=0x1.5aaf84af8eafcp-1
119574=0x1.e783655a1156p-14
119575=-0x1.3a7c8f0927c25p-3
119576=0x1.485cb7aa36887p-1
119577=0x1.2e81b98b46857p-5
119578=0x1.eb7a8297e2672p-18
119579=0x1.fd25a8517516bp-3
119581=0x1.2106ff84767ddp-3
119583=0x1.2c5a430406576p-5
119584=0x1.3921d0387d284p-1
119585=0x1.6259ab5d11234p-1
119586=0x1.85c440182baeep-3
119590=0x1.b31883866921ap-3
119593=0x1.d8dad5f54d12p-14
119594=0x1.ecfaa970bd1dbp-3
119596=0x1.a2e7113353ba8p-3
119597=0x1.cf57a0e34f06p-14
119601=0x1.ac5c2c10e30dcp-2
119604=0x1.5b025f27568cfp-2
119606=0x1.cf340cf4ccc6p-14
119607=0x1.1cece5f8f149dp-1
119609=0x1.d0b9193beb44p-14
119611=0x1.c81fb9f4a036cp-4
119616=-0x1.39d8ff2006975p-4
119620=0x1.eb47f09d35ap-14
119637=0x1.50ee350c3ef6ep+0
119638=0x1.3550cf140963fp-3
119641=0x1.ead752ca410b3p+0
119642=0x1.46e404c9430f4p+0
119643=0x1.6982df0b74d5ap-1
119645=0x1.78dfb0b3a3b37p+0
119646=0x1.024f1772f8448p+0
119648=0x1.c2fc0aaa18e46p-4
119649=0x1.346bc0579428bp-3
119650=0x1.2a2139b5e7cffp+0
119653=0x1.6710fbd65e744p+0
119654=-0x1.136ca9b1df1d8p-4
119655=0x1.357d5e265cbfp-3
119657=0x1.148ccf6c661bcp+0
119659=0x1.309e876b8b49dp-3
119660=0x1.2270c462e1a09p+0
119662=0x1.35b543f9532e4p+0
119665=0x1.895f94b6b3fb6p-1
119666=0x1.17821364c55bdp+0
119668=0x1.31b8fa736f1b4p-3
119670=0x1.293e1a522e44dp-3
119674=0x1.35510642bbf5p-3
119675=0x1.362bbf2beec78p+0
119678=0x1.351038fa0511ap-3
119682=0x1.d2f72722338eep-1
119685=0x1.2eb778f96fbf8p+0
119687=0x1.351adfca5ae7ap-3
119688=0x1.0070b6c51e5ep+0
119690=0x1.351d2985efc92p-3
119692=0x1.67d4d18b31526p+0
119718=0x1.d2a96158f175ap-1
119738=0x1.4573e1225914ep-2
119799=-0x1.f1ae5a60d8104p-8
119880=-0x1.2a21ecc0d18c7p-4
119961=0x1.5275af268b211p-2
120025=0x1.6c76a46123279p-2
120042=0x1.454b8b0491ee4p-1
120048=0x1.02bc892e61159p+1
120123=0x1.ae6a489b3ac9dp-1
120209=0x1.b557bbe8e11ecp+0
120285=0x1.6f020849bbf8fp-1
120290=-0x1.b10c17e4e8367p-7
120293=-0x1.5853cd693386fp-5
120302=-0x1.39310fbb2e921p-8
120305=0x1.2ee255185c07p-5
120313=0x1.5d7e641e4b049p-1
120314=0x1.e6d47cbf3dd3p-1
120336=0x1.a9775eba713cdp-3
120447=-0x1.d366f5cc053aep-2
120458=0x1.1431ba5d0da88p+1
120528=0x1.07394eb874ff9p-1
120609=0x1.bf6dae59cefe3p-1
120614=-0x1.57022af1f96f7p-8
120617=-0x1.5862fe978045p-6
120618=0x1.fba3c855d5534p-3
120638=-0x1.47438c2d35f18p-6
120690=0x1.0208525234fefp-1
120719=0x1.fbdea776b4c78p+0
120852=-0x1.4521280ea1895p-7
121014=0x1.1c33872016e7dp-3
121048=0x1.2067dadcf579cp+1
121095=-0x1.5708fae74d262p-1
121112=0x1.2629d6e405337p+1
121123=0x1.761b3e20a60bdp-2
121176=0x1.8f7836f6b32f2p-1
121257=0x1.1b294d6bda1dp+0
121389=0x1.37f01f8d4b8ecp+0
121500=0x1.9566ed47fb813p-1
121743=-0x1.af3f0b5da51b4p-9
121824=-0x1.ee65c2611aaf4p-9
121905=0x1.5c14466a2904ep-1
121925=0x1.d542b2b2368p-1
121986=0x1.0ed9b7eb9ba2cp-1
122067=0x1.c2943957eeed8p-3
122148=-0x1.5295537b72ab1p-2
122310=0x1.6f7cf9873c87ep-1
122715=-0x1.187da412cf484p-7
122796=-0x1.3030ff846d09fp-2
122836=0x1.39659cf1e1ea1p+0
122877=0x1.7bbf437c0cafp-19
122958=0x1.90ffeea37c869p-13
123039=-0x1.82236e630c0f1p-2
123066=0x1.83d4723517073p-2
123120=0x1.1b3e67b6148edp-1
123282=0x1.0289787f7ce51p-2
123687=0x1.273a475b73337p-1
123768=-0x1.83c1110daff87p-3
123774=0x1.dfec59523bb4ep+0
123789=0x1.841c623eb8262p-2
124092=-0x1.ef063f22615a5p-3
124122=0x1.39f91cdb0f297p+0
124173=-0x1.6d826f5341f74p-3
124177=0x1.5a5697643198ap-2
124178=0x1.599cd6e1b5b0fp-2
124218=0x1.81cc6fb0e903bp-2
124335=-0x1.f5b2a0d9c21c4p-3
124902=-0x1.f655b173cd0afp-3
126198=0x1.a8113c4ebdfap+0
126199=0x1.d4530e173774p-14
126200=-0x1.46f592db9038cp+0
126201=-0x1.377fe3f483ceep-2
126202=0x1.81dad7b11b028p-2
126203=0x1.c31f561465cb8p-1
126204=0x1.86a8ec6b1ec1dp-1
126206=0x1.ab1bd56abea0cp-1
126207=0x1.9bca322007833p-2
126209=0x1.505eb7409ee91p-1
126210=0x1.377b6733b804p-14
126211=0x1.9c5bb5956005p-2
126212=-0x1.4822be212e02dp-6
126213=-0x1.d3ed5fd00e5d8p-7
126214=0x1.c2a0aa6f6fc86p-4
126215=0x1.5aaf84af8eafcp-1
126216=0x1.e783655a1156p-14
126217=-0x1.3a7c8f0927c25p-3
126218=0x1.485cb7aa36887p-1
126219=0x1.2e81b98b46857p-5
126220=0x1.eb7a8297e2672p-18
126221=0x1.fd25a8517516bp-3
126223=0x1.2106ff84767ddp-3
126225=0x1.2c5a430406576p-5
126226=0x1.3921d0387d284p-1
126227=0x1.6259ab5d11234p-1
126228=0x1.85c440182baeep-3
126232=0x1.b31883866921ap-3
126235=0x1.d8dad5f54d12p-14
126236=0x1.ecfaa970bd1dbp-3
126238=0x1.a2e7113353ba8p-3
126239=0x1.cf57a0e34f06p-14
126243=0x1.ac5c2c10e30dcp-2
126246=0x1.5b025f27568cfp-2
126248=0x1.cf340cf4ccc6p-14
126249=0x1.1cece5f8f149dp-1
126251=0x1.d0b9193beb44p-14
126253=0x1.c81fb9f4a036cp-4
126258=-0x1.39d8ff2006975p-4
126262=0x1.eb47f09d35ap-14
126279=0x1.50ee350c3ef6ep+0
126280=0x1.3550cf140963fp-3
126283=0x1.ead752ca410b3p+0
126284=0x1.46e404c9430f4p+0
126285=0x1.6982df0b74d5ap-1
126287=0x1.78dfb0b3a3b37p+0
126288=0x1.024f1772f8448p+0
126290=0x1.c2fc0aaa18e46p-4
126291=0x1.346bc0579428bp-3
126292=0x1.2a2139b5e7cffp+0
126295=0x1.6710fbd65e744p+0
126296=-0x1.136ca9b1df1d8p-4
126297=0x1.357d5e265cbfp-3
126299=0x1.148ccf6c661bcp+0
126301=0x1.309e876b8b49dp-3
126302=0x1.2270c462e1a09p+0
126304=0x1.35b543f9532e4p+0
126307=0x1.895f94b6b3fb6p-1
126308=0x1.17821364c55bdp+0
126310=0x1.31b8fa736f1b4p-3
126312=0x1.293e1a522e44dp-3
126316=0x1.35510642bbf5p-3
126317=0x1.362bbf2beec78p+0
126320=0x1.351038fa0511ap-3
126324=0x1.d2f72722338eep-1
126327=0x1.2eb778f96fbf8p+0
126329=0x1.351adfca5ae7ap-3
126330=0x1.0070b6c51e5ep+0
126332=0x1.351d2985efc92p-3
126334=0x1.67d4d18b31526p+0
126360=0x1.d2a96158f175ap-1
126380=0x1.4573e1225914ep-2
126441=-0x1.f1ae5a60d8104p-8
126522=-0x1.2a21ecc0d18c7p-4
126603=0x1.5275af268b211p-2
126667=0x1.6c76a46123279p-2
126684=0x1.454b8b0491ee4p-1
126690=0x1.02bc892e61159p+1
126765=0x1.ae6a489b3ac9dp-1
126851=0x1.b557bbe8e11ecp+0
126927=0x1.6f020849bbf8fp-1
126932=-0x1.b10c17e4e8367p-7
126935=-0x1.5853cd693386fp-5
126944=-0x1.39310fbb2e921p-8
126947=0x1.2ee255185c07p-5
126955=0x1.5d7e641e4b049p-1
126956=0x1.e6d47cbf3dd3p-1
126978=0x1.a9775eba713cdp-3
127089=-0x1.d366f5cc053aep-2
127100=0x1.1431ba5d0da88p+1
127170=0x1.07394eb874ff9p-1
127251=0x1.bf6dae59cefe3p-1
127256=-0x1.57022af1f96f7p-8
127259=-0x1.5862fe978045p-6
127260=0x1.fba3c855d5534p-3
127280=-0x1.47438c2d35f18p-6
127332=0x1.0208525234fefp-1
127361=0x1.fbdea776b4c78p+0
127494=-0x1.4521280ea1895p-7
127656=0x1.1c33872016e7dp-3
127690=0x1.2067dadcf579cp+1
127737=-0x1.5708fae74d262p-1
127754=0x1.2629d6e405337p+1
127765=0x1.761b3e20a60bdp-2
127818=0x1.8f7836f6b32f2p-1
127899=0x1.1b294d6bda1dp+0
128031=0x1.37f01f8d4b8ecp+0
128142=0x1.9566ed47fb813p-1
128385=-0x1.af3f0b5da51b4p-9
128466=-0x1.ee65c2611aaf4p-9
128547=0x1.5c14466a2904ep-1
128567=0x1.d542b2b2368p-1
128628=0x1.0ed9b7eb9ba2cp-1
128709=0x1.c2943957eeed8p-3
128790=-0x1.5295537b72ab1p-2
128952=0x1.6f7cf9873c87ep-1
129357=-0x1.187da412cf484p-7
129438=-0x1.3030ff846d09fp-2
129478=0x1.39659cf1e1ea1p+0
129519=0x1.7bbf437c0cafp-19
129600=0x1.90ffeea37c869p-13
129681=-0x1.82236e630c0f1p-2
129708=0x1.83d4723517073p-2
129762=0x1.1b3e67b6148edp-1
129924=0x1.0289787f7ce51p-2
130329=0x1.273a475b73337p-1
130410=-0x1.83c1110daff87p-3
130416=0x1.dfec59523bb4ep+0
130431=0x1.841c623eb8262p-2
130734=-0x1.ef063f22615a5p-3
130764=0x1.39f91cdb0f297p+0
130815=-0x1.6d826f5341f74p-3
130819=0x1.5a5697643198ap-2
130820=0x1.599cd6e1b5b0fp-2
130860=0x1.81cc6fb0e903bp-2
130977=-0x1.f5b2a0d9c21c4p-3
131544=-0x1.f655b173cd0afp-3
132840=0x1.a8113c4ebdfap+0
132841=0x1.d4530e173774p-14
132842=-0x1.46f592db9038cp+0
132843=-0x1.377fe3f483ceep-2
132844=0x1.81dad7b11b028p-2
132845=0x1.c31f561465cb8p-1
132846=0x1.86a8ec6b1ec1dp-1
132848=0x1.ab1bd56abea0cp-1
132849=0x1.9bca322007833p-2
132851=0x1.505eb7409ee91p-1
132852=0x1.377b6733b804p-14
132853=0x1.9c5bb5956005p-2
132854=-0x1.4822be212e02dp-6
132855=-0x1.d3ed5fd00e5d8p-7
132856=0x1.c2a0aa6f6fc86p-4
132857=0x1.5aaf84af8eafcp-1
132858=0x1.e783655a1156p-14
132859=-0x1.3a7c8f0927c25p-3
132860=0x1.485cb7aa36887p-1
132861=0x1.2e81b98b46857p-5
132862=0x1.eb7a8297e2672p-18
132863=0x1.fd25a8517516bp-3
132865=0x1.2106ff84767ddp-3
132867=0x1.2c5a430406576p-5
132868=0x1.3921d0387d284p-1
132869=0x1.6259ab5d11234p-1
132870=0x1.85c440182baeep-3
132874=0x1.b31883866921ap-3
132877=0x1.d8dad5f54d12p-14
132878=0x1.ecfaa970bd1dbp-3
132880=0x1.a2e7113353ba8p-3
132881=0x1.cf57a0e34f06p-14
132885=0x1.ac5c2c10e30dcp-2
132888=0x1.5b025f27568cfp-2
132890=0x1.cf340cf4ccc6p-14
132891=0x1.1cece5f8f149dp-1
132893=0x1.d0b9193beb44p-14
132895=0x1.c81fb9f4a036cp-4
132900=-0x1.39d8ff2006975p-4
132904=0x1.eb47f09d35ap-14
132921=0x1.50ee350c3ef6ep+0
132922=0x1.3550cf140963fp-3
132925=0x1.ead752ca410b3p+0
132926=0x1.46e404c9430f4p+0
132927=0x1.6982df0b74d5ap-1
132929=0x1.78dfb0b3a3b37p+0
132930=0x1.024f1772f8448p+0
132932=0x1.c2fc0aaa18e46p-4
132933=0x1.346bc0579428bp-3
132934=0x1.2a2139b5e7cffp+0
132937=0x1.6710fbd65e744p+0
132938=-0x1.136ca9b1df1d8p-4
132939=0x1.357d5e265cbfp-3
132941=0x1.148ccf6c661bcp+0
132943=0x1.309e876b8b49dp-3
132944=0x1.2270c462e1a09p+0
132946=0x1.35b543f9532e4p+0
132949=0x1.895f94b6b3fb6p-1
132950=0x1.17821364c55bdp+0
132952=0x1.31b8fa736f1b4p-3
132954=0x1.293e1a522e44dp-3
132958=0x1.35510642bbf5p-3
132959=0x1.362bbf2beec78p+0
132962=0x1.351038fa0511ap-3
132966=0x1.d2f72722338eep-1
132969=0x1.2eb778f96fbf8p+0
132971=0x1.351adfca5ae7ap-3
132972=0x1.0070b6c51e5ep+0
132974=0x1.351d2985efc92p-3
132976=0x1.67d4d18b31526p+0
133002=0x1.d2a96158f175ap-1
133022=0x1.4573e1225914ep-2
133083=-0x1.f1ae5a60d8104p-8
133164=-0x1.2a21ecc0d18c7p-4
133245=0x1.5275af268b211p-2
133309=0x1.6c76a46123279p-2
133326=0x1.454b8b0491ee4p-1
133332=0x1.02bc892e61159p+1
133407=0x1.ae6a489b3ac9dp-1
133493=0x1.b557bbe8e11ecp+0
133569=0x1.6f020849bbf8fp-1
133574=-0x1.b10c17e4e8367p-7
133577=-0x1.5853cd693386fp-5
133586=-0x1.39310fbb2e921p-8
133589=0x1.2ee255185c07p-5
133597=0x1.5d7e641e4b049p-1
133598=0x1.e6d47cbf3dd3p-1
133620=0x1.a9775eba713cdp-3
133731=-0x1.d366f5cc053aep-2
133742=0x1.1431ba5d0da88p+1
133812=0x1.07394eb874ff9p-1
133893=0x1.bf6dae59cefe3p-1
133898=-0x1.57022af1f96f7p-8
133901=-0x1.5862fe978045p-6
133902=0x1.fba3c855d5534p-3
133922=-0x1.47438c2d35f18p-6
133974=0x1.0208525234fefp-1
134003=0x1.fbdea776b4c78p+0
134136=-0x1.4521280ea1895p-7
134298=0x1.1c33872016e7dp-3
134332=0x1.2067dadcf579cp+1
134379=-0x1.5708fae74d262p-1
134396=0x1.2629d6e405337p+1
134407=0x1.761b3e20a60bdp-2
134460=0x1.8f7836f6b32f2p-1
134541=0x1.1b294d6bda1dp+0
134673=0x1.37f01f8d4b8ecp+0
134784=0x1.9566ed47fb813p-1
135027=-0x1.af3f0b5da51b4p-9
135108=-0x1.ee65c2611aaf4p-9
135189=0x1.5c14466a2904ep-1
135209=0x1.d542b2b2368p-1
135270=0x1.0ed9b7eb9ba2cp-1
135351=0x1.c2943957eeed8p-3
135432=-0x1.5295537b72ab1p-2
135594=0x1.6f7cf9873c87ep-1
135999=-0x1.187da412cf484p-7
136080=-0x1.3030ff846d09fp-2
136120=0x1.39659cf1e1ea1p+0
136161=0x1.7bbf437c0cafp-19
136242=0x1.90ffeea37c869p-13
136323=-0x1.82236e630c0f1p-2
136350=0x1.83d4723517073p-2
136404=0x1.1b3e67b6148edp-1
136566=0x1.0289787f7ce51p-2
136971=0x1.273a475b73337p-1
137052=-0x1.83c1110daff87p-3
137058=0x1.dfec59523bb4ep+0
137073=0x1.841c623eb8262p-2
137376=-0x1.ef063f22615a5p-3
137406=0x1.39f91cdb0f297p+0
137457=-0x1.6d826f5341f74p-3
137461=0x1.5a5697643198ap-2
137462=0x1.599cd6e1b5b0fp-2
137502=0x1.81cc6fb0e903bp-2
137619=-0x1.f5b2a0d9c21c4p-3
138186=-0x1.f655b173cd0afp-3
139482=0x1.728983dd2143p+0
139484=0x1.032d34c1503d9p-6
139486=0x1.30ed4d94114a5p-1
139538=0x1.709d56ebaaa1bp-1
139544=0x1.edfb4bb322195p-2
139563=0x1.3e21efa158d2fp-1
139565=0x1.ff1da95c93f07p-6
139567=0x1.3f3d469a46f89p+0
139619=-0x1.99763cb52d786p-11
139625=0x1.729688b2f3d6ap-2
139725=0x1.1db8887b75afdp+0
139781=0x1.6d062c6c5a1b7p-3
139887=-0x1.209a093c83324p-4
139943=0x1.fc91743dd706bp-1
139968=0x1.33f90bc488812p-15
140049=-0x1.7ecb325777155p-5
140211=0x1.1f3fefa155363p-3
140454=0x1.0c7d99857fc6bp-3
140616=0x1.f3022fa25ec08p-5
140697=-0x1.5915317f0218ep-6
141183=0x1.1c2c61fda9ec6p-6
141345=-0x1.14906965c68d9p-6
141426=0x1.a34063f6b5fe3p-3
141588=0x1.ebe9761891dbbp-3
141750=0x1.55526f0235cdbp-7
141912=-0x1.2c5a29b09739ap-5
142074=0x1.01154f910f5b5p-4
144423=0x1.c91834bfceb22p-3
146124=0x1.728983dd2143p+0
146126=0x1.032d34c1503d9p-6
146128=0x1.30ed4d94114a5p-1
146180=0x1.709d56ebaaa1bp-1
146186=0x1.edfb4bb322195p-2
146205=0x1.3e21efa158d2fp-1
146207=0x1.ff1da95c93f07p-6
146209=0x1.3f3d469a46f89p+0
146261=-0x1.99763cb52d786p-11
146267=0x1.729688b2f3d6ap-2
146367=0x1.1db8887b75afdp+0
146423=0x1.6d062c6c5a1b7p-3
146529=-0x1.209a093c83324p-4
146585=0x1.fc91743dd706bp-1
146610=0x1.33f90bc488812p-15
146691=-0x1.7ecb325777155p-5
146853=0x1.1f3fefa155363p-3
147096=0x1.0c7d99857fc6bp-3
147258=0x1.f3022fa25ec08p-5
147339=-0x1.5915317f0218ep-6
147825=0x1.1c2c61fda9ec6p-6
147987=-0x1.14906965c68d9p-6
148068=0x1.a34063f6b5fe3p-3
148230=0x1.ebe9761891dbbp-3
148392=0x1.55526f0235cdbp-7
148554=-0x1.2c5a29b09739ap-5
148716=0x1.01154f910f5b5p-4
151065=0x1.c91834bfceb22p-3
152766=0x1.728983dd2143p+0
152768=0x1.032d34c1503d9p-6
152770=0x1.30ed4d94114a5p-1
152822=0x1.709d56ebaaa1bp-1
152828=0x1.edfb4bb322195p-2
152847=0x1.3e21efa158d2fp-1
152849=0x1.ff1da95c93f07p-6
152851=0x1.3f3d469a46f89p+0
152903=-0x1.99763cb52d786p-11
152909=0x1.729688b2f3d6ap-2
153009=0x1.1db8887b75afdp+0
153065=0x1.6d062c6c5a1b7p-3
153171=-0x1.209a093c83324p-4
153227=0x1.fc91743dd706bp-1
153252=0x1.33f90bc488812p-15
153333=-0x1.7ecb325777155p-5
153495=0x1.1f3fefa155363p-3
153738=0x1.0c7d99857fc6bp-3
153900=0x1.f3022fa25ec08p-5
153981=-0x1.5915317f0218ep-6
154467=0x1.1c2c61fda9ec6p-6
154629=-0x1.14906965c68d9p-6
154710=0x1.a34063f6b5fe3p-3
154872=0x1.ebe9761891dbbp-3
155034=0x1.55526f0235cdbp-7
155196=-0x1.2c5a29b09739ap-5
155358=0x1.01154f910f5b5p-4
157707=0x1.c91834bfceb22p-3
159408=0x1.8d68fea849e1bp-2
159410=0x1.880bd454215c1p-1
159412=0x1.e4c50c89e3f62p-1
159418=-0x1.bfa7722fde7a8p-5
159423=0x1.318170bc1a79cp-1
159424=0x1.8d37f15d5e8f7p-1
159489=0x1.bf01589f47121p-5
159491=0x1.bc97e16c8bf3ep-1
159493=0x1.007e489481159p+0
159504=0x1.6ce3fac42f0b9p-1
159505=0x1.a8e5fce09235ep-1
159651=0x1.3d49e435e8671p+0
159655=-0x1.39ac83ff3e8cap-7
159813=0x1.9de8799cd505dp-6
159815=-0x1.d0f1b0c13c2a6p-4
159817=-0x1.58cab6a3352b2p-9
160866=0x1.85900342e3a85p-2
164029=0x1.8023d393f8527p-1
166050=0x1.8d68fea849e1bp-2
166052=0x1.880bd454215c1p-1
166054=0x1.e4c50c89e3f62p-1
166060=-0x1.bfa7722fde7a8p-5
166065=0x1.318170bc1a79cp-1
166066=0x1.8d37f15d5e8f7p-1
166131=0x1.bf01589f47121p-5
166133=0x1.bc97e16c8bf3ep-1
166135=0x1.007e489481159p+0
166146=0x1.6ce3fac42f0b9p-1
166147=0x1.a8e5fce09235ep-1
166293=0x1.3d49e435e8671p+0
166297=-0x1.39ac83ff3e8cap-7
166455=0x1.9de8799cd505dp-6
166457=-0x1.d0f1b0c13c2a6p-4
166459=-0x1.58cab6a3352b2p-9
167508=0x1.85900342e3a85p-2
170671=0x1.8023d393f8527p-1
172692=0x1.8d68fea849e1bp-2
172694=0x1.880bd454215c1p-1
172696=0x1.e4c50c89e3f62p-1
172702=-0x1.bfa7722fde7a8p-5
172707=0x1.318170bc1a79cp-1
172708=0x1.8d37f15d5e8f7p-1
172773=0x1.bf01589f47121p-5
172775=0x1.bc97e16c8bf3ep-1
172777=0x1.007e489481159p+0
172788=0x1.6ce3fac42f0b9p-1
172789=0x1.a8e5fce09235ep-1
172935=0x1.3d49e435e8671p+0
172939=-0x1.39ac83ff3e8cap-7
173097=0x1.9de8799cd505dp-6
173099=-0x1.d0f1b0c13c2a6p-4
173101=-0x1.58cab6a3352b2p-9
174150=0x1.85900342e3a85p-2
177313=0x1.8023d393f8527p-1
179334=0x1.c22a07b670dcdp+0
179336=0x1.3c309d8ff1064p-1
179346=0x1.6477bb28d261ep-1
179351=0x1.645da42253575p-1
179415=0x1.3e8dcca8720aap-1
179417=0x1.b756c3e7b1d74p-5
179427=0x1.76c67a6672006p-2
179577=0x1.ed1dae368c6c7p-1
179658=0x1.b2d8307662924p-2
179739=0x1.caafecdd05dbp-5
179820=0x1.bf360205d7464p-4
179822=0x1.ac2615aa1dcdfp-2
179901=0x1.f400372694c79p-3
180063=0x1.6fda93226d432p-4
180144=-0x1.f84ab00f83ac4p-5
180387=0x1.7adb76a1e7753p-4
180468=0x1.44cff5cf9bd69p-3
180549=-0x1.39d1048bf20cep-5
180630=-0x1.ca5da95b2dbccp-13
180711=-0x1.6de513ee4b194p-10
180792=0x1.5afa83120bf02p-4
180873=0x1.aab927696e763p-5
180890=0x1.af90375ec076fp-2
180954=0x1.402432a28ea8ap-7
181035=0x1.068fc6be9a9f9p-4
181116=-0x1.268c7a392ee9ep-4
181197=-0x1.6964ab35ba9dep-9
181602=0x1.a2bc8889de047p-11
181683=0x1.7a944630d6cfbp-9
181764=0x1.4d2db73d3f355p-3
181926=-0x1.6bf4b200cc62bp-4
182088=0x1.0f2233794c346p-7
182493=0x1.27b6338b40bcfp-4
183303=-0x1.3a9f6c1d05922p-13
183546=0x1.37c9ea34b0727p-4
183870=-0x1.7622eed9daa7ap-11
184275=-0x1.293187c9915a6p-8
184437=0x1.a6e10a470262ep-4
185976=0x1.c22a07b670dcdp+0
185978=0x1.3c309d8ff1064p-1
185988=0x1.6477bb28d261ep-1
185993=0x1.645da42253575p-1
186057=0x1.3e8dcca8720aap-1
186059=0x1.b756c3e7b1d74p-5
186069=0x1.76c67a6672006p-2
186219=0x1.ed1dae368c6c7p-1
186300=0x1.b2d8307662924p-2
186381=0x1.caafecdd05dbp-5
186462=0x1.bf360205d7464p-4
186464=0x1.ac2615aa1dcdfp-2
186543=0x1.f400372694c79p-3
186705=0x1.6fda93226d432p-4
186786=-0x1.f84ab00f83ac4p-5
187029=0x1.7adb76a1e7753p-4
187110=0x1.44cff5cf9bd69p-3
187191=-0x1.39d1048bf20cep-5
187272=-0x1.ca5da95b2dbccp-13
187353=-0x1.6de513ee4b194p-10
187434=0x1.5afa83120bf02p-4
187515=0x1.aab927696e763p-5
187532=0x1.af90375ec076fp-2
187596=0x1.402432a28ea8ap-7
187677=0x1.068fc6be9a9f9p-4
187758=-0x1.268c7a392ee9ep-4
187839=-0x1.6964ab35ba9dep-9
188244=0x1.a2bc8889de047p-11
188325=0x1.7a944630d6cfbp-9
188406=0x1.4d2db73d3f355p-3
188568=-0x1.6bf4b200cc62bp-4
188730=0x1.0f2233794c346p-7
189135=0x1.27b6338b40bcfp-4
189945=-0x1.3a9f6c1d05922p-13
190188=0x1.37c9ea34b0727p-4
190512=-0x1.7622eed9daa7ap-11
190917=-0x1.293187c9915a6p-8
191079=0x1.a6e10a470262ep-4
192618=0x1.c22a07b670dcdp+0
192620=0x1.3c309d8ff1064p-1
192630=0x1.6477bb28d261ep-1
192635=0x1.645da42253575p-1
192699=0x1.3e8dcca8720aap-1
192701=0x1.b756c3e7b1d74p-5
192711=0x1.76c67a6672006p-2
192861=0x1.ed1dae368c6c7p-1
192942=0x1.b2d8307662924p-2
193023=0x1.caafecdd05dbp-5
193104=0x1.bf360205d7464p-4
193106=0x1.ac2615aa1dcdfp-2
193185=0x1.f400372694c79p-3
193347=0x1.6fda93226d432p-4
193428=-0x1.f84ab00f83ac4p-5
193671=0x1.7adb76a1e7753p-4
193752=0x1.44cff5cf9bd69p-3
193833=-0x1.39d1048bf20cep-5
193914=-0x1.ca5da95b2dbccp-13
193995=-0x1.6de513ee4b194p-10
194076=0x1.5afa83120bf02p-4
194157=0x1.aab927696e763p-5
194174=0x1.af90375ec076fp-2
194238=0x1.402432a28ea8ap-7
194319=0x1.068fc6be9a9f9p-4
194400=-0x1.268c7a392ee9ep-4
194481=-0x1.6964ab35ba9dep-9
194886=0x1.a2bc8889de047p-11
194967=0x1.7a944630d6cfbp-9
195048=0x1.4d2db73d3f355p-3
195210=-0x1.6bf4b200cc62bp-4
195372=0x1.0f2233794c346p-7
195777=0x1.27b6338b40bcfp-4
196587=-0x1.3a9f6c1d05922p-13
196830=0x1.37c9ea34b0727p-4
197154=-0x1.7622eed9daa7ap-11
197559=-0x1.293187c9915a6p-8
197721=0x1.a6e10a470262ep-4
199260=0x1.931a7361ece01p+0
199262=0x1.01f6ac969cbd7p-1
199264=0x1.6a9d242566504p-4
199265=0x1.651c50b4b35d8p-1
199266=0x1.fdb930031bd8ap-1
199267=-0x1.3a76a493e18cdp-3
199268=0x1.3c38a3ebb84ep-1
199269=0x1.2cf8313aad1d8p-4
199271=0x1.90bb3b0d6278p-1
199272=0x1.30bd2fead6c86p-3
199273=0x1.98f95caaa9d88p-2
199275=0x1.17280f9363117p-2
199276=0x1.05aaa4dae96dep-2
199277=0x1.fcc1e055378d5p-2
199278=0x1.95296c0914f65p-5
199279=0x1.2cc7b890561a9p-4
199280=0x1.851d2b9ad0662p-1
199281=-0x1.3a76a493e18cdp-3
199282=0x1.9b5bec737a3bcp-2
199283=0x1.94da1f77b4622p-1
199284=0x1.2c02df48fe838p-4
199285=0x1.4b9bd8d50062fp-4
199286=0x1.9acef684de436p-2
199287=0x1.5306bb5a545f6p-1
199288=0x1.03b95a988d7c6p-1
199289=0x1.261afcfe06aabp-1
199290=0x1.51e89f99298fbp-1
199291=0x1.1cc88555b3704p-3
199292=0x1.56c68352bf6ap-2
199294=0x1.93a2fa2693f51p-3
199295=0x1.2ccf9a04b47edp-4
199296=-0x1.3a76a493e18cdp-3
199298=0x1.b89c4c86f06c2p-2
199299=-0x1.3a76a493e18cdp-3
199300=0x1.13a1b47a87221p-2
199301=0x1.2a9e048d022fap-2
199302=-0x1.3a76a493e18cdp-3
199303=0x1.69e502e52faeap-2
199304=0x1.1cede5c38aadep-5
199305=0x1.1b1054b329acbp-2
199306=-0x1.3a76a493e18cdp-3
199307=0x1.d164968ea083dp-3
199308=0x1.223ca8791ad18p-2
199310=0x1.649bd0492cc98p-3
199311=0x1.97366b22a4673p-1
199312=0x1.28fdd59db478cp-3
199313=0x1.441567a03052cp-2
199314=-0x1.3a76a493e18cdp-3
199315=0x1.3e39910e20a3dp-1
199316=-0x1.3a76a493e18cdp-3
199318=-0x1.3a76a493e18cdp-3
199319=0x1.0e8245bddb98dp-2
199320=-0x1.3a76a493e18cdp-3
199321=0x1.95296c091ad25p-5
199322=0x1.28fdd59db2f3p-3
199323=-0x1.3a76a493e18cdp-3
199324=0x1.c4c6c96ec2285p-2
199325=-0x1.3a76a493e18cdp-3
199326=0x1.9088f52e4821p-3
199327=0x1.2cfdf211814b2p-4
199328=0x1.2c5180c478bc5p-4
199330=0x1.33f990de91128p-2
199331=0x1.95c98d1a4e94ap-3
199334=-0x1.ae8e4dc1965dep-6
199335=-0x1.3a76a493e18cdp-3
199336=-0x1.3a76a493e18cdp-3
199337=-0x1.3a76a493e18cdp-3
199339=-0x1.3a76a493e18cdp-3
199340=0x1.2c625c5fb8af3p-4
199341=0x1.598e60a8d7f18p-1
199342=0x1.fa0882c5f6972p-4
199343=0x1.76e6fbf4f7594p+0
199345=0x1.701e465e5d27cp+1
199346=0x1.a4ed723f8c666p+0
199347=0x1.01a607a05bfcfp+0
199349=0x1.7a8020ea49bc5p+0
199350=0x1.8323a01ec3c71p-4
199351=0x1.fa0882c5f6a25p-4
199352=0x1.51d6d5ad455f5p-1
199353=0x1.9402e9144463dp-1
199354=0x1.445750d9dae67p+0
199356=0x1.e45a037c8a6dbp+0
199357=0x1.ea9ec8030c4c9p+0
199358=0x1.c484d968f6ddcp-1
199359=0x1.3b76e79d668bdp+0
199360=0x1.83260e3ac99fcp-4
199361=0x1.35fa7b9e1b123p-4
199363=0x1.29eafc409c6ebp+0
199364=0x1.d0871562f3128p-2
199366=0x1.529ae69660d41p+0
199367=0x1.bed13f8706fd6p-5
199368=0x1.52dbc240d0f9dp-1
199369=0x1.b941cdc15dab4p-1
199370=0x1.08267f3f64598p-1
199371=0x1.bf110abb77b22p-1
199372=0x1.2750125d50d51p-1
199373=0x1.40c9e231b583bp+0
199374=0x1.4b4f1f26464cap-1
199375=-0x1.e92af3beca83fp-5
199379=0x1.1febace180e31p+0
199381=-0x1.dca81c2741d91p-4
199382=0x1.438609e665a6ap+0
199384=0x1.3da407dc2a53ap+0
199385=-0x1.4306dbc3efd0bp-9
199386=0x1.039634c3d1938p-1
199388=-0x1.9a9be9584acd4p-11
199389=0x1.3248af3c8932fp+0
199392=0x1.ed0e0b899e801p-2
199393=0x1.314358c37e9cfp+0
199394=0x1.5199d5a093dd3p+0
199396=0x1.f99a8b98ea2cdp-1
199398=0x1.4b4f1f2646345p-1
199400=0x1.20ec0853d0e96p+0
199402=0x1.3b76e79d66605p+0
199403=0x1.314358c37ec89p+0
199405=0x1.f23a75f7c1e35p-6
199407=0x1.142cc58fae9e3p+0
199408=0x1.8323ace14ccep-4
199410=0x1.fa0882c5f6ad8p-4
199411=0x1.90f785ff46f08p-7
199412=0x1.a15de1d7444f8p-1
199413=0x1.fa0882c5f6b3ap-4
199414=0x1.fa0882c5f6b2ap-4
199415=0x1.b8804a67f49f8p-1
199422=0x1.7e1a00c09eaa3p-1
199442=0x1.fc77a77bf5b7ap-3
199460=0x1.aada335b4455cp+0
199503=0x1.39c0a846a9319p-1
199505=0x1.66bd31670d7ep+0
199506=0x1.4fa10d67c4a7dp-2
199517=0x1.4fa10d67c4b4bp-2
199523=0x1.e13f6bc8eece5p-3
199525=0x1.0f72b331ebebdp-2
199554=0x1.1e7f9662f14eep+0
199558=0x1.7b1d5c7faf22dp-4
199584=-0x1.1994b2dd3cbdap-3
199665=0x1.c6f4d50894441p-1
199670=0x1.9501cff5099ccp+0
199671=0x1.72c0267789733p-3
199673=0x1.cf432b7a12059p-5
199676=-0x1.0800e3deabb97p-4
199677=0x1.1d4037d899144p+0
199678=0x1.29f837dd7d52p-4
199684=0x1.34236fc76af8ap-2
199685=0x1.4d97d69f76e14p+0
199688=0x1.4b00e5d78b5edp+0
199691=0x1.f27943f9d64ap+0
199693=0x1.06e75c38fda38p+0
199695=0x1.787ba51ab20c3p-5
199713=0x1.014090b4276b1p-2
199715=0x1.60ae5f541d5a4p+0
199716=0x1.1309320b968cdp+0
199720=0x1.be8ce16ad7de9p-5
199729=0x1.dc6c0838957b4p+0
199746=-0x1.3ad6d898fd035p-2
199751=-0x1.5bd56ce93db82p-4
199752=0x1.b0de0a36fc4f5p+0
199754=0x1.4d8b22fde9cdep-1
199757=-0x1.448913d976614p-4
199766=-0x1.9942791a4578ep-10
199769=0x1.29e922e364da5p-9
199773=-0x1.314f31758a736p-5
199774=0x1.4ad3f3dca5a7fp-3
199776=-0x1.94cd5468775fp-9
199797=-0x1.aba5656a7cb3bp-7
199827=0x1.4a0a5718fc2ebp-1
199836=0x1.5533b5ae05fe9p-2
199850=0x1.25636e806b84p+0
199878=0x1.102d43e1467f3p+0
199908=0x1.d48b2adbb9244p-2
199913=0x1.bd055f61a056ap+0
199989=0x1.e0c8c56427efp-1
200017=0x1.3b50c2ffb258bp-2
200018=0x1.8d57928d580f8p+0
200038=0x1.5628136ae475cp-2
200070=-0x1.4295157a5ed9bp-3
200157=0x1.3f06674e9077p-2
200162=0x1.2140b96e4e068p+1
200232=0x1.be775b9b80dd9p-2
200237=0x1.42c880464cef6p-1
200240=0x1.3763f386180c2p-3
200260=0x1.40489651cd6c2p-2
200282=0x1.51f8b432430b1p-2
200283=0x1.367b81fda30a6p+0
200313=0x1.26afbb805164p-1
200394=0x1.948fda16a316ap-1
200423=0x1.5fa674b87f005p+0
200475=-0x1.199b3d4dbb837p-3
200556=0x1.f88953ddaea15p-2
200571=0x1.11ccea782f348p-3
200626=0x1.2b595953b8697p+0
200637=0x1.6ba8b0f8720d9p-1
200661=0x1.2c2320492d87cp+0
200668=0x1.5282c67db146cp-2
200681=0x1.38708fbf91908p+1
200704=0x1.5545bc939456bp-2
200718=0x1.d7fc21cc7c7e7p-3
200724=-0x1.033b377f3c4a4p-5
200729=0x1.ac824a6d3bf82p-5
200752=0x1.16539864946a7p+1
200763=0x1.2923a6f19e2bep+0
200799=-0x1.446b42fcc48f7p-1
200805=-0x1.124323d6bdda9p-3
200810=-0x1.4bedc92b7db9p-8
200816=0x1.35cb9515bb4a9p+1
200850=-0x1.7529acc9c1957p-10
200880=-0x1.1b08d938aa425p-3
200961=0x1.72b4676eeeddep-1
201042=-0x1.1bc0a5660b186p-3
201047=0x1.06aa37351339cp-3
201048=0x1.02401b9446997p-4
201093=0x1.1c4d02877a918p+0
201123=-0x1.19b05d21fec3dp-3
201204=0x1.b937f0595965ep-1
201285=-0x1.1982d971cacb9p-3
201366=0x1.fa09b2b95b674p-2
201447=0x1.d6722c3e92a1p-4
201452=0x1.0705c850eebfdp-3
201453=0x1.03aaf59c572eap-4
201528=0x1.cd54f50293c5cp-4
201596=0x1.2c5f0f8f90138p+0
201609=0x1.2e05c59184688p+0
201629=0x1.1a5ed22be9322p+0
201690=0x1.dbe87571b5ca4p-4
201771=0x1.e62912cb652fap-10
201933=0x1.d33c747297ff4p-4
202014=0x1.5fcaa36ab7ae3p-10
202085=0x1.5191d18ce13d7p-2
202092=0x1.579f36ce76d82p-2
202095=-0x1.198e1fbc98efap-3
202176=-0x1.1988c11f68874p-3
202257=-0x1.1992d64936877p-3
202294=0x1.57a6598e92accp-2
202338=-0x1.1982d59730bcp-3
202419=-0x1.1ac4081119e4fp-3
202439=0x1.ae582d530de5p+0
202500=-0x1.04a964c3ffe63p-2
202540=0x1.324a33c65413ap+1
202581=-0x1.1980e82921ce8p-3
202662=-0x1.199b80a9c2cfp-3
202743=-0x1.73c6799eb9ac7p-2
202770=0x1.27d22d543e28ep+1
202773=0x1.ef194c4363dc8p-1
202786=0x1.226bf64171248p-2
202824=0x1.a99f0af1fb563p-1
202905=-0x1.1982dc31e170bp-3
202986=0x1.d7648624397b9p-1
203067=-0x1.1a107b2819121p-3
203114=0x1.2023166438p+1
203148=-0x1.1982d971cacbdp-3
203229=-0x1.1a13d0a23454fp-3
203252=0x1.1c96903294e17p+0
203310=-0x1.1a4f28cfd0692p-3
203391=-0x1.1aed66ded8952p-3
203402=0x1.c934b38eb800fp-4
203472=-0x1.b595a94086ceap-3
203478=0x1.5c21573ed1d3fp+0
203553=0x1.ae15175dd96f8p-1
203634=0x1.c1fbb9dd6977ep-1
203640=-0x1.e4dd061bbe165p-5
203715=-0x1.21a6357fe809p-3
203770=0x1.8fe55b2ea39a6p+0
203826=0x1.bbb17c8dc8116p+0
203879=0x1.9df4cd7a34119p+0
203881=0x1.3a46eaa998811p-1
203882=0x1.6189f29902b73p+0
203883=0x1.b8e2f238aeec1p-2
203885=0x1.32dfed9667861p-3
203906=0x1.404c16221c4cep-2
203958=-0x1.1982ce315d208p-3
204039=-0x1.1982da4b9a64ap-3
204120=-0x1.1984346b182d2p-3
204201=0x1.ed856b7e415dep-10
204282=-0x1.19a54ce33111fp-3
204363=0x1.307fae6e6847ep-1
204379=0x1.0d760c4ea10d5p-3
204444=-0x1.199a1444cb1dap-3
204525=0x1.cb8f0d56f6771p-10
204530=0x1.074119d31739bp-3
204548=0x1.261384c9abc7ap-2
204606=-0x1.1982da0908188p-3
204687=-0x1.198a1d2b2b1c1p-3
204768=-0x1.1982d971cacbfp-3
204849=-0x1.1982d971cacbfp-3
204930=-0x1.1a12ac4254c1fp-3
204965=0x1.2c6c39a4461fep+0
205011=-0x1.198440eacdd82p-3
205092=0x1.b8d420cbf73f3p-11
205173=-0x1.1982d971cacbfp-3
205254=-0x1.1982d971cacbfp-3
205335=-0x1.1982d971cacbfp-3
205416=-0x1.19920bc6578fdp-3
205497=-0x1.19836656a7216p-3
205578=-0x1.1982d505688adp-3
205659=-0x1.1982d971cacbfp-3
205740=-0x1.1abdd37fb0174p-3
205820=0x1.2c670b929c093p+0
205821=-0x1.1982d97238fb7p-3
205902=0x1.931a7361ece01p+0
205904=0x1.01f6ac969cbd7p-1
205906=0x1.6a9d242566504p-4
205907=0x1.651c50b4b35d8p-1
205908=0x1.fdb930031bd8ap-1
205909=-0x1.3a76a493e18cdp-3
205910=0x1.3c38a3ebb84ep-1
205911=0x1.2cf8313aad1d8p-4
205913=0x1.90bb3b0d6278p-1
205914=0x1.30bd2fead6c86p-3
205915=0x1.98f95caaa9d88p-2
205917=0x1.17280f9363117p-2
205918=0x1.05aaa4dae96dep-2
205919=0x1.fcc1e055378d5p-2
205920=0x1.95296c0914f65p-5
205921=0x1.2cc7b890561a9p-4
205922=0x1.851d2b9ad0662p-1
205923=-0x1.3a76a493e18cdp-3
205924=0x1.9b5bec737a3bcp-2
205925=0x1.94da1f77b4622p-1
205926=0x1.2c02df48fe838p-4
205927=0x1.4b9bd8d50062fp-4
205928=0x1.9acef684de436p-2
205929=0x1.5306bb5a545f6p-1
205930=0x1.03b95a988d7c6p-1
205931=0x1.261afcfe06aabp-1
205932=0x1.51e89f99298fbp-1
205933=0x1.1cc88555b3704p-3
205934=0x1.56c68352bf6ap-2
205936=0x1.93a2fa2693f51p-3
205937=0x1.2ccf9a04b47edp-4
205938=-0x1.3a76a493e18cdp-3
205940=0x1.b89c4c86f06c2p-2
205941=-0x1.3a76a493e18cdp-3
205942=0x1.13a1b47a87221p-2
205943=0x1.2a9e048d022fap-2
205944=-0x1.3a76a493e18cdp-3
205945=0x1.69e502e52faeap-2
205946=0x1.1cede5c38aadep-5
205947=0x1.1b1054b329acbp-2
205948=-0x1.3a76a493e18cdp-3
205949=0x1.d164968ea083dp-3
205950=0x1.223ca8791ad18p-2
205952=0x1.649bd0492cc98p-3
205953=0x1.97366b22a4673p-1
205954=0x1.28fdd59db478cp-3
205955=0x1.441567a03052cp-2
205956=-0x1.3a76a493e18cdp-3
205957=0x1.3e39910e20a3dp-1
205958=-0x1.3a76a493e18cdp-3
205960=-0x1.3a76a493e18cdp-3
205961=0x1.0e8245bddb98dp-2
205962=-0x1.3a76a493e18cdp-3
205963=0x1.95296c091ad25p-5
205964=0x1.28fdd59db2f3p-3
205965=-0x1.3a76a493e18cdp-3
205966=0x1.c4c6c96ec2285p-2
205967=-0x1.3a76a493e18cdp-3
205968=0x1.9088f52e4821p-3
205969=0x1.2cfdf211814b2p-4
205970=0x1.2c5180c478bc5p-4
205972=0x1.33f990de91128p-2
205973=0x1.95c98d1a4e94ap-3
205976=-0x1.ae8e4dc1965dep-6
205977=-0x1.3a76a493e18cdp-3
205978=-0x1.3a76a493e18cdp-3
205979=-0x1.3a76a493e18cdp-3
205981=-0x1.3a76a493e18cdp-3
205982=0x1.2c625c5fb8af3p-4
205983=0x1.598e60a8d7f18p-1
205984=0x1.fa0882c5f6972p-4
205985=0x1.76e6fbf4f7594p+0
205987=0x1.701e465e5d27cp+1
205988=0x1.a4ed723f8c666p+0
205989=0x1.01a607a05bfcfp+0
205991=0x1.7a8020ea49bc5p+0
205992=0x1.8323a01ec3c71p-4
205993=0x1.fa0882c5f6a25p-4
205994=0x1.51d6d5ad455f5p-1
205995=0x1.9402e9144463dp-1
205996=0x1.445750d9dae67p+0
205998=0x1.e45a037c8a6dbp+0
205999=0x1.ea9ec8030c4c9p+0
206000=0x1.c484d968f6ddcp-1
206001=0x1.3b76e79d668bdp+0
206002=0x1.83260e3ac99fcp-4
206003=0x1.35fa7b9e1b123p-4
206005=0x1.29eafc409c6ebp+0
206006=0x1.d0871562f3128p-2
206008=0x1.529ae69660d41p+0
206009=0x1.bed13f8706fd6p-5
206010=0x1.52dbc240d0f9dp-1
206011=0x1.b941cdc15dab4p-1
206012=0x1.08267f3f64598p-1
206013=0x1.bf110abb77b22p-1
206014=0x1.2750125d50d51p-1
206015=0x1.40c9e231b583bp+0
206016=0x1.4b4f1f26464cap-1
206017=-0x1.e92af3beca83fp-5
206021=0x1.1febace180e31p+0
206023=-0x1.dca81c2741d91p-4
206024=0x1.438609e665a6ap+0
206026=0x1.3da407dc2a53ap+0
206027=-0x1.4306dbc3efd0bp-9
206028=0x1.039634c3d1938p-1
206030=-0x1.9a9be9584acd4p-11
206031=0x1.3248af3c8932fp+0
206034=0x1.ed0e0b899e801p-2
206035=0x1.314358c37e9cfp+0
206036=0x1.5199d5a093dd3p+0
206038=0x1.f99a8b98ea2cdp-1
206040=0x1.4b4f1f2646345p-1
206042=0x1.20ec0853d0e96p+0
206044=0x1.3b76e79d66605p+0
206045=0x1.314358c37ec89p+0
206047=0x1.f23a75f7c1e35p-6
206049=0x1.142cc58fae9e3p+0
206050=0x1.8323ace14ccep-4
206052=0x1.fa0882c5f6ad8p-4
206053=0x1.90f785ff46f08p-7
206054=0x1.a15de1d7444f8p-1
206055=0x1.fa0882c5f6b3ap-4
206056=0x1.fa0882c5f6b2ap-4
206057=0x1.b8804a67f49f8p-1
206064=0x1.7e1a00c09eaa3p-1
206084=0x1.fc77a77bf5b7ap-3
206102=0x1.aada335b4455cp+0
206145=0x1.39c0a846a9319p-1
206147=0x1.66bd31670d7ep+0
206148=0x1.4fa10d67c4a7dp-2
206159=0x1.4fa10d67c4b4bp-2
206165=0x1.e13f6bc8eece5p-3
206167=0x1.0f72b331ebebdp-2
206196=0x1.1e7f9662f14eep+0
206200=0x1.7b1d5c7faf22dp-4
206226=-0x1.1994b2dd3cbdap-3
206307=0x1.c6f4d50894441p-1
206312=0x1.9501cff5099ccp+0
206313=0x1.72c0267789733p-3
206315=0x1.cf432b7a12059p-5
206318=-0x1.0800e3deabb97p-4
206319=0x1.1d4037d899144p+0
206320=0x1.29f837dd7d52p-4
206326=0x1.34236fc76af8ap-2
206327=0x1.4d97d69f76e14p+0
206330=0x1.4b00e5d78b5edp+0
206333=0x1.f27943f9d64ap+0
206335=0x1.06e75c38fda38p+0
206337=0x1.787ba51ab20c3p-5
206355=0x1.014090b4276b1p-2
206357=0x1.60ae5f541d5a4p+0
206358=0x1.1309320b968cdp+0
206362=0x1.be8ce16ad7de9p-5
206371=0x1.dc6c0838957b4p+0
206388=-0x1.3ad6d898fd035p-2
206393=-0x1.5bd56ce93db82p-4
206394=0x1.b0de0a36fc4f5p+0
206396=0x1.4d8b22fde9cdep-1
206399=-0x1.448913d976614p-4
206408=-0x1.9942791a4578ep-10
206411=0x1.29e922e364da5p-9
206415=-0x1.314f31758a736p-5
206416=0x1.4ad3f3dca5a7fp-3
206418=-0x1.94cd5468775fp-9
206439=-0x1.aba5656a7cb3bp-7
206469=0x1.4a0a5718fc2ebp-1
206478=0x1.5533b5ae05fe9p-2
206492=0x1.25636e806b84p+0
206520=0x1.102d43e1467f3p+0
206550=0x1.d48b2adbb9244p-2
206555=0x1.bd055f61a056ap+0
206631=0x1.e0c8c56427efp-1
206659=0x1.3b50c2ffb258bp-2
206660=0x1.8d57928d580f8p+0
206680=0x1.5628136ae475cp-2
206712=-0x1.4295157a5ed9bp-3
206799=0x1.3f06674e9077p-2
206804=0x1.2140b96e4e068p+1
206874=0x1.be775b9b80dd9p-2
206879=0x1.42c880464cef6p-1
206882=0x1.3763f386180c2p-3
206902=0x1.40489651cd6c2p-2
206924=0x1.51f8b432430b1p-2
206925=0x1.367b81fda30a6p+0
206955=0x1.26afbb805164p-1
207036=0x1.948fda16a316ap-1
207065=0x1.5fa674b87f005p+0
207117=-0x1.199b3d4dbb837p-3
207198=0x1.f88953ddaea15p-2
207213=0x1.11ccea782f348p-3
207268=0x1.2b595953b8697p+0
207279=0x1.6ba8b0f8720d9p-1
207303=0x1.2c2320492d87cp+0
207310=0x1.5282c67db146cp-2
207323=0x1.38708fbf91908p+1
207346=0x1.5545bc939456bp-2
207360=0x1.d7fc21cc7c7e7p-3
207366=-0x1.033b377f3c4a4p-5
