#mdl#2#28202
#rdr#5/0/0
9:*0%x[1,0],
9:*1%x[1,0],
9:*2%x[1,0],
10:u3%x[-2,0],
9:*4%x[1,0],
#qrk#81
1:O,
15:B-cost_relative,
19:B-fromloc.city_name,
20:B-fromloc.state_code,
17:B-toloc.city_name,
22:B-depart_date.day_name,
27:B-depart_time.period_of_day,
27:B-depart_date.date_relative,
14:B-airline_name,
13:B-flight_time,
27:B-depart_time.time_relative,
18:B-depart_time.time,
12:B-flight_mod,
14:B-airline_code,
20:B-fromloc.state_name,
19:B-stoploc.city_name,
11:B-city_name,
24:B-depart_date.day_number,
24:B-depart_date.month_name,
9:B-connect,
12:B-round_trip,
24:B-depart_time.period_mod,
22:B-fromloc.airport_name,
13:B-flight_stop,
12:B-state_name,
15:B-aircraft_code,
18:B-toloc.state_name,
18:B-arrive_time.time,
12:B-class_type,
15:B-flight_number,
27:B-arrive_time.period_of_day,
16:B-transport_type,
14:B-airport_name,
8:B-return,
18:B-depart_date.year,
15:B-period_of_day,
15:B-time_relative,
6:B-time,
13:B-fare_amount,
24:B-arrive_date.month_name,
24:B-arrive_date.day_number,
6:B-meal,
27:B-arrive_time.time_relative,
18:B-meal_description,
12:B-state_code,
9:B-economy,
24:B-return_date.month_name,
24:B-return_date.day_number,
20:B-toloc.airport_name,
5:B-mod,
13:B-flight_days,
28:B-depart_date.today_relative,
18:B-restriction_code,
17:B-fare_basis_code,
27:B-arrive_date.date_relative,
22:B-arrive_date.day_name,
4:B-or,
11:B-meal_code,
24:B-arrive_time.start_time,
22:B-arrive_time.end_time,
22:B-fromloc.airport_code,
20:B-toloc.airport_code,
14:B-airport_code,
24:B-arrive_time.period_mod,
18:B-toloc.state_code,
24:B-depart_time.start_time,
22:B-depart_time.end_time,
16:B-today_relative,
28:B-arrive_date.today_relative,
10:B-day_name,
20:B-stoploc.state_code,
27:B-return_date.date_relative,
22:B-stoploc.airport_name,
22:B-return_date.day_name,
11:B-days_code,
12:B-month_name,
12:B-day_number,
20:B-toloc.country_name,
28:B-return_date.today_relative,
24:B-return_time.period_mod,
27:B-return_time.period_of_day,
#qrk#4980
6:*0like,
6:*1like,
6:*2like,
6:u3_x-2,
6:*4like,
4:*0to,
4:*1to,
4:*2to,
6:u3_x-1,
4:*4to,
6:*0find,
6:*1find,
6:*2find,
5:u3i'd,
6:*4find,
5:*0the,
5:*1the,
5:*2the,
6:u3like,
5:*4the,
10:*0cheapest,
10:*1cheapest,
10:*2cheapest,
4:u3to,
10:*4cheapest,
8:*0flight,
8:*1flight,
8:*2flight,
6:u3find,
8:*4flight,
6:*0from,
6:*1from,
6:*2from,
5:u3the,
6:*4from,
12:*0washington,
12:*1washington,
12:*2washington,
10:u3cheapest,
12:*4washington,
4:*0dc,
4:*1dc,
4:*2dc,
8:u3flight,
4:*4dc,
6:u3from,
9:*0atlanta,
9:*1atlanta,
9:*2atlanta,
12:u3washington,
9:*4atlanta,
6:*0_x+1,
6:*1_x+1,
6:*2_x+1,
4:u3dc,
6:*4_x+1,
11:*0traveling,
11:*1traveling,
11:*2traveling,
11:*4traveling,
8:*0dallas,
8:*1dallas,
8:*2dallas,
5:u3i'm,
8:*4dallas,
11:u3traveling,
14:*0philadelphia,
14:*1philadelphia,
14:*2philadelphia,
14:*4philadelphia,
8:u3dallas,
6:*0also,
6:*1also,
6:*2also,
6:*4also,
6:*0need,
6:*1need,
6:*2need,
6:*4need,
3:u3i,
4:*0go,
4:*1go,
4:*2go,
6:u3also,
4:*4go,
6:u3need,
15:*0san-francisco,
15:*1san-francisco,
15:*2san-francisco,
15:*4san-francisco,
4:*0on,
4:*1on,
4:*2on,
4:u3go,
4:*4on,
11:*0wednesday,
11:*1wednesday,
11:*2wednesday,
11:*4wednesday,
9:*0evening,
9:*1evening,
9:*2evening,
15:u3san-francisco,
9:*4evening,
4:u3on,
11:u3wednesday,
9:u3evening,
5:*0you,
5:*1you,
5:*2you,
5:*4you,
3:*0i,
3:*1i,
3:*2i,
3:*4i,
7:u3thank,
5:u3you,
8:*0travel,
8:*1travel,
8:*2travel,
8:*4travel,
6:*0next,
6:*1next,
6:*2next,
6:*4next,
8:u3travel,
6:u3next,
5:*0fly,
5:*1fly,
5:*2fly,
5:*4fly,
22:*0continental-airlines,
22:*1continental-airlines,
22:*2continental-airlines,
22:*4continental-airlines,
9:*0between,
9:*1between,
9:*2between,
9:*4between,
8:*0boston,
8:*1boston,
8:*2boston,
5:u3fly,
8:*4boston,
5:*0and,
5:*1and,
5:*2and,
22:u3continental-airlines,
5:*4and,
9:u3between,
8:u3boston,
6:*0tell,
6:*1tell,
6:*2tell,
6:*4tell,
4:*0me,
4:*1me,
4:*2me,
4:*4me,
8:u3please,
9:*0flights,
9:*1flights,
9:*2flights,
6:u3tell,
9:*4flights,
4:u3me,
9:u3flights,
10:*0thursday,
10:*1thursday,
10:*2thursday,
5:u3and,
10:*4thursday,
14:u3philadelphia,
7:*0would,
7:*1would,
7:*2would,
7:*4would,
7:u3would,
6:*0fare,
6:*1fare,
6:*2fare,
6:*4fare,
6:u3fare,
9:u3atlanta,
3:*0a,
3:*1a,
3:*2a,
3:*4a,
3:u3a,
6:*0give,
6:*1give,
6:*2give,
6:*4give,
14:*0flight-times,
14:*1flight-times,
14:*2flight-times,
6:u3give,
14:*4flight-times,
14:u3flight-times,
11:*0baltimore,
11:*1baltimore,
11:*2baltimore,
11:*4baltimore,
4:*0in,
4:*1in,
4:*2in,
4:*4in,
9:*0morning,
9:*1morning,
9:*2morning,
11:u3baltimore,
9:*4morning,
8:*0before,
8:*1before,
8:*2before,
4:u3in,
8:*4before,
3:*08,
3:*18,
3:*28,
3:*48,
9:u3morning,
8:*0please,
8:*1please,
8:*2please,
8:*4please,
23:*0times-of-your-flights,
23:*1times-of-your-flights,
23:*2times-of-your-flights,
23:*4times-of-your-flights,
23:u3times-of-your-flights,
11:*08-o'clock,
11:*18-o'clock,
11:*28-o'clock,
11:*48-o'clock,
9:*0leaving,
9:*1leaving,
9:*2leaving,
9:*4leaving,
9:u3leaving,
4:*0do,
4:*1do,
4:*2do,
4:*4do,
6:u3what,
6:*0have,
6:*1have,
6:*2have,
6:*4have,
4:u3do,
8:*0denver,
8:*1denver,
8:*2denver,
8:*4denver,
6:u3have,
10:*0arriving,
10:*1arriving,
10:*2arriving,
10:*4arriving,
8:u3denver,
10:u3arriving,
4:*0is,
4:*1is,
4:*2is,
4:*4is,
6:*0your,
6:*1your,
6:*2your,
6:*4your,
6:*0last,
6:*1last,
6:*2last,
6:*4last,
4:u3is,
6:u3your,
6:u3last,
7:*0there,
7:*1there,
7:*2there,
7:*4there,
7:u3there,
19:*0american-airlines,
19:*1american-airlines,
19:*2american-airlines,
19:*4american-airlines,
6:u3does,
19:u3american-airlines,
6:*0does,
6:*1does,
6:*2does,
6:*4does,
6:*0time,
6:*1time,
6:*2time,
6:*4time,
10:*0earliest,
10:*1earliest,
10:*2earliest,
10:*4earliest,
6:u3time,
10:u3earliest,
4:*0of,
4:*1of,
4:*2of,
4:*4of,
4:u3of,
7:u3could,
13:*0information,
13:*1information,
13:*2information,
13:*4information,
12:*0concerning,
12:*1concerning,
12:*2concerning,
12:*4concerning,
13:u3information,
12:u3concerning,
5:*0one,
5:*1one,
5:*2one,
5:*4one,
5:u3one,
4:*0as,
4:*1as,
4:*2as,
4:*4as,
10:*0possible,
10:*1possible,
10:*2possible,
10:*4possible,
18:*0american-airline,
18:*1american-airline,
18:*2american-airline,
18:*4american-airline,
18:u3american-airline,
15:*0early-morning,
15:*1early-morning,
15:*2early-morning,
15:*4early-morning,
17:*0times-of-flight,
17:*1times-of-flight,
17:*2times-of-flight,
17:*4times-of-flight,
5:*0twa,
5:*1twa,
5:*2twa,
5:*4twa,
5:u3twa,
12:*0fort-worth,
12:*1fort-worth,
12:*2fort-worth,
12:*4fort-worth,
7:*0texas,
7:*1texas,
7:*2texas,
7:*4texas,
12:u3fort-worth,
7:u3texas,
12:u3interested,
12:*0interested,
12:*1interested,
12:*2interested,
12:*4interested,
6:*0that,
6:*1that,
6:*2that,
6:*4that,
6:*0stop,
6:*1stop,
6:*2stop,
6:*4stop,
6:u3that,
6:u3stop,
12:*0pittsburgh,
12:*1pittsburgh,
12:*2pittsburgh,
12:*4pittsburgh,
5:*0for,
5:*1for,
5:*2for,
5:*4for,
5:u3for,
12:u3pittsburgh,
6:*0want,
6:*1want,
6:*2want,
6:*4want,
6:u3want,
8:*0monday,
8:*1monday,
8:*2monday,
8:*4monday,
10:*0airlines,
10:*1airlines,
10:*2airlines,
10:*4airlines,
10:u3airlines,
8:*0ground,
8:*1ground,
8:*2ground,
8:*4ground,
16:*0transportation,
16:*1transportation,
16:*2transportation,
16:*4transportation,
8:u3ground,
16:u3transportation,
9:*0airport,
9:*1airport,
9:*2airport,
9:*4airport,
9:u3airport,
10:*0downtown,
10:*1downtown,
10:*2downtown,
10:*4downtown,
9:*0tuesday,
9:*1tuesday,
9:*2tuesday,
9:*4tuesday,
14:*0twenty-first,
14:*1twenty-first,
14:*2twenty-first,
14:*4twenty-first,
11:u3repeating,
6:*010am,
6:*110am,
6:*210am,
6:*410am,
6:*0what,
6:*1what,
6:*2what,
6:*4what,
6:*0type,
6:*1type,
6:*2type,
8:u3before,
6:*4type,
6:u310am,
10:*0aircraft,
10:*1aircraft,
10:*2aircraft,
10:*4aircraft,
6:u3type,
6:*0used,
6:*1used,
6:*2used,
6:*4used,
10:u3aircraft,
8:*0flying,
8:*1flying,
8:*2flying,
8:*4flying,
8:u3flying,
17:*0united-airlines,
17:*1united-airlines,
17:*2united-airlines,
17:*4united-airlines,
17:u3united-airlines,
7:*0right,
7:*1right,
7:*2right,
7:*4right,
5:u3all,
5:*0let,
5:*1let,
5:*2let,
7:u3right,
5:*4let,
6:*0know,
6:*1know,
6:*2know,
6:*4know,
5:u3let,
6:u3know,
7:*0using,
7:*1using,
7:*2using,
7:*4using,
7:u3using,
6:*0they,
6:*1they,
6:*2they,
6:*4they,
5:*0use,
5:*1use,
5:*2use,
5:*4use,
7:*0these,
7:*1these,
7:*2these,
6:u3they,
7:*4these,
5:u3use,
4:*010,
4:*110,
4:*210,
7:u3these,
4:*410,
4:u310,
6:*0i'll,
6:*1i'll,
6:*2i'll,
6:*4i'll,
5:*0try,
5:*1try,
5:*2try,
5:*4try,
6:u3well,
6:u3i'll,
5:u3try,
6:*0kind,
6:*1kind,
6:*2kind,
6:*4kind,
6:u3kind,
7:*0flies,
7:*1flies,
7:*2flies,
7:*4flies,
7:u3flies,
12:*010-o'clock,
12:*110-o'clock,
12:*210-o'clock,
12:*410-o'clock,
12:u310-o'clock,
11:*0september,
11:*1september,
11:*2september,
11:*4september,
11:*0twentieth,
11:*1twentieth,
11:*2twentieth,
11:*4twentieth,
11:u3september,
11:u3twentieth,
10:*0stopover,
10:*1stopover,
10:*2stopover,
10:*4stopover,
10:u3stopover,
5:*0are,
5:*1are,
5:*2are,
5:*4are,
5:u3are,
4:*0an,
4:*1an,
4:*2an,
4:*4an,
4:u3an,
12:*0connecting,
12:*1connecting,
12:*2connecting,
12:*4connecting,
6:*0wish,
6:*1wish,
6:*2wish,
6:*4wish,
6:u3wish,
9:*0airline,
9:*1airline,
9:*2airline,
9:*4airline,
9:u3airline,
7:*0plane,
7:*1plane,
7:*2plane,
7:*4plane,
7:u3plane,
9:*0one-way,
9:*1one-way,
9:*2one-way,
9:*4one-way,
9:u3one-way,
11:*0available,
11:*1available,
11:*2available,
11:*4available,
4:*0at,
4:*1at,
4:*2at,
4:*4at,
10:*0noontime,
10:*1noontime,
10:*2noontime,
10:*4noontime,
11:u3available,
4:u3at,
10:u3noontime,
8:*0around,
8:*1around,
8:*2around,
8:*4around,
8:u3around,
16:*0delta-airlines,
16:*1delta-airlines,
16:*2delta-airlines,
16:*4delta-airlines,
16:u3delta-airlines,
18:*0eastern-airlines,
18:*1eastern-airlines,
18:*2eastern-airlines,
18:*4eastern-airlines,
18:u3eastern-airlines,
7:*0early,
7:*1early,
7:*2early,
7:*4early,
4:u3as,
7:u3early,
5:*0day,
5:*1day,
5:*2day,
10:u3possible,
5:*4day,
5:u3day,
6:*0will,
6:*1will,
6:*2will,
6:*4will,
8:*0arrive,
8:*1arrive,
8:*2arrive,
8:*4arrive,
6:u3will,
8:u3arrive,
16:*0denver-airport,
16:*1denver-airport,
16:*2denver-airport,
16:*4denver-airport,
16:u3denver-airport,
9:*0nonstop,
9:*1nonstop,
9:*2nonstop,
9:*4nonstop,
9:u3nonstop,
8:*0repeat,
8:*1repeat,
8:*2repeat,
8:*4repeat,
12:*0departures,
12:*1departures,
12:*2departures,
8:u3repeat,
12:*4departures,
8:*0august,
8:*1august,
8:*2august,
12:u3departures,
8:*4august,
12:*0nineteenth,
12:*1nineteenth,
12:*2nineteenth,
12:*4nineteenth,
8:u3monday,
8:u3august,
12:u3nineteenth,
6:*0rate,
6:*1rate,
6:*2rate,
6:*4rate,
6:u3rate,
5:*0any,
5:*1any,
5:*2any,
5:*4any,
8:*0us-air,
8:*1us-air,
8:*2us-air,
5:u3any,
8:*4us-air,
8:u3us-air,
7:*0going,
7:*1going,
7:*2going,
7:*4going,
7:u3we're,
7:u3going,
5:*0819,
5:*1819,
5:*2819,
5:*4819,
5:u3819,
6:*0take,
6:*1take,
6:*2take,
6:*4take,
6:u3take,
11:*09-o'clock,
11:*19-o'clock,
11:*29-o'clock,
11:*49-o'clock,
11:u39-o'clock,
5:*0out,
5:*1out,
5:*2out,
5:*4out,
5:u3out,
4:*0be,
4:*1be,
4:*2be,
4:*4be,
9:*0staying,
9:*1staying,
9:*2staying,
9:*4staying,
4:u3be,
9:u3staying,
10:u3downtown,
5:*0two,
5:*1two,
5:*2two,
5:*4two,
7:*0hours,
7:*1hours,
7:*2hours,
7:*4hours,
7:*0could,
7:*1could,
7:*2could,
7:*4could,
5:u3two,
7:u3hours,
5:u3can,
7:*0about,
7:*1about,
7:*2about,
7:*4about,
7:u3about,
6:*0city,
6:*1city,
6:*2city,
6:*4city,
6:u3city,
6:*0well,
6:*1well,
6:*2well,
6:*4well,
5:*0i'm,
5:*1i'm,
5:*2i'm,
5:*4i'm,
9:*0working,
9:*1working,
9:*2working,
6:u3very,
9:*4working,
10:*0scenario,
10:*1scenario,
10:*2scenario,
10:*4scenario,
7:*0three,
7:*1three,
7:*2three,
9:u3working,
7:*4three,
10:u3scenario,
7:u3three,
5:*0727,
5:*1727,
5:*2727,
5:*4727,
5:u3727,
9:*0georgia,
9:*1georgia,
9:*2georgia,
9:*4georgia,
4:*0am,
4:*1am,
4:*2am,
4:*4am,
4:u3am,
8:*0number,
8:*1number,
8:*2number,
8:*4number,
8:u3number,
8:*0return,
8:*1return,
8:*2return,
8:*4return,
8:u3return,
7:*0bound,
7:*1bound,
7:*2bound,
7:*4bound,
7:u3bound,
8:*0friday,
8:*1friday,
8:*2friday,
8:*4friday,
6:*0this,
6:*1this,
6:*2this,
6:*4this,
6:*0week,
6:*1week,
6:*2week,
6:*4week,
8:u3friday,
7:*0class,
7:*1class,
7:*2class,
7:*4class,
9:*0service,
9:*1service,
9:*2service,
9:*4service,
7:u3class,
9:u3service,
12:*0california,
12:*1california,
12:*2california,
12:*4california,
14:*0pennsylvania,
14:*1pennsylvania,
14:*2pennsylvania,
12:u3california,
14:*4pennsylvania,
5:*0get,
5:*1get,
5:*2get,
5:*4get,
5:u3get,
7:*0delta,
7:*1delta,
7:*2delta,
5:u3yes,
7:*4delta,
7:u3delta,
7:*0225pm,
7:*1225pm,
7:*2225pm,
7:*4225pm,
8:*01158pm,
8:*11158pm,
8:*21158pm,
7:u3225pm,
8:*41158pm,
8:u31158pm,
11:*0equipment,
11:*1equipment,
11:*2equipment,
11:*4equipment,
11:u3equipment,
6:u3used,
9:*0looking,
9:*1looking,
9:*2looking,
9:*4looking,
9:u3looking,
10:*0stopping,
10:*1stopping,
10:*2stopping,
10:*4stopping,
10:u3stopping,
8:*0ticket,
8:*1ticket,
8:*2ticket,
8:*4ticket,
8:u3ticket,
10:*0colorado,
10:*1colorado,
10:*2colorado,
10:*4colorado,
10:u3colorado,
6:*0with,
6:*1with,
6:*2with,
6:*4with,
9:u3georgia,
6:u3with,
13:*0coach-class,
13:*1coach-class,
13:*2coach-class,
13:*4coach-class,
6:*0seat,
6:*1seat,
6:*2seat,
6:*4seat,
13:u3coach-class,
6:u3seat,
4:*0or,
4:*1or,
4:*2or,
4:*4or,
8:*0lowest,
8:*1lowest,
8:*2lowest,
8:*4lowest,
4:u3or,
8:u3lowest,
5:*0buy,
5:*1buy,
5:*2buy,
5:*4buy,
5:u3buy,
11:*0afternoon,
11:*1afternoon,
11:*2afternoon,
11:*4afternoon,
11:u3afternoon,
5:*0230,
5:*1230,
5:*2230,
5:*4230,
5:u3230,
7:*0324pm,
7:*1324pm,
7:*2324pm,
7:*4324pm,
5:*0324,
5:*1324,
5:*2324,
5:*4324,
5:u3324,
7:*0110pm,
7:*1110pm,
7:*2110pm,
7:*4110pm,
7:u3110pm,
13:*0seventeenth,
13:*1seventeenth,
13:*2seventeenth,
13:*4seventeenth,
9:*0oakland,
9:*1oakland,
9:*2oakland,
9:*4oakland,
10:*0american,
10:*1american,
10:*2american,
10:*4american,
5:*0813,
5:*1813,
5:*2813,
5:*4813,
10:u3american,
5:u3813,
9:u3oakland,
6:*0goes,
6:*1goes,
6:*2goes,
6:*4goes,
10:*0straight,
10:*1straight,
10:*2straight,
10:*4straight,
9:*0through,
9:*1through,
9:*2through,
9:*4through,
6:u3goes,
10:u3straight,
9:u3through,
18:*0without-stopping,
18:*1without-stopping,
18:*2without-stopping,
18:*4without-stopping,
9:*0another,
9:*1another,
9:*2another,
9:*4another,
18:u3without-stopping,
4:*0if,
4:*1if,
4:*2if,
4:*4if,
4:u3if,
9:*0enroute,
9:*1enroute,
9:*2enroute,
9:*4enroute,
9:u3enroute,
4:*0it,
4:*1it,
4:*2it,
4:*4it,
4:u3it,
5:u3may,
6:*02153,
6:*12153,
6:*22153,
6:*42153,
6:u32153,
13:*0first-class,
13:*1first-class,
13:*2first-class,
13:*4first-class,
13:u3first-class,
6:*0list,
6:*1list,
6:*2list,
6:*4list,
6:u3list,
8:*0making,
8:*1making,
8:*2making,
8:*4making,
8:u3making,
13:*0continental,
13:*1continental,
13:*2continental,
13:*4continental,
13:u3continental,
7:*0leave,
7:*1leave,
7:*2leave,
7:*4leave,
7:u3leave,
7:*0after,
7:*1after,
7:*2after,
7:*4after,
12:*012-o'clock,
12:*112-o'clock,
12:*212-o'clock,
12:*412-o'clock,
7:u3after,
12:u312-o'clock,
7:*0which,
7:*1which,
7:*2which,
7:*4which,
8:*0leaves,
8:*1leaves,
8:*2leaves,
8:*4leaves,
7:u3which,
8:*01220pm,
8:*11220pm,
8:*21220pm,
8:u3leaves,
8:*41220pm,
8:u31220pm,
11:*05-o'clock,
11:*15-o'clock,
11:*25-o'clock,
11:*45-o'clock,
11:u35-o'clock,
13:*0lowest-cost,
13:*1lowest-cost,
13:*2lowest-cost,
13:*4lowest-cost,
13:u3lowest-cost,
7:*0645am,
7:*1645am,
7:*2645am,
7:*4645am,
7:u3645am,
9:u3tuesday,
5:*0has,
5:*1has,
5:*2has,
5:*4has,
5:u3has,
6:*0much,
6:*1much,
6:*2much,
6:*4much,
5:u3how,
6:u3much,
12:*0round-trip,
12:*1round-trip,
12:*2round-trip,
12:*4round-trip,
12:u3round-trip,
6:*0long,
6:*1long,
6:*2long,
6:*4long,
6:u3long,
17:*0atlanta-airport,
17:*1atlanta-airport,
17:*2atlanta-airport,
17:*4atlanta-airport,
6:*0into,
6:*1into,
6:*2into,
6:*4into,
17:u3atlanta-airport,
6:u3into,
19:*0airport-limousine,
19:*1airport-limousine,
19:*2airport-limousine,
19:*4airport-limousine,
19:u3airport-limousine,
6:*0make,
6:*1make,
6:*2make,
6:*4make,
6:*0trip,
6:*1trip,
6:*2trip,
6:*4trip,
6:u3make,
6:u3trip,
7:u3again,
5:*0how,
5:*1how,
5:*2how,
5:*4how,
7:*0fares,
7:*1fares,
7:*2fares,
7:*4fares,
7:u3fares,
14:*0arrival-time,
14:*1arrival-time,
14:*2arrival-time,
14:*4arrival-time,
14:u3arrival-time,
7:*0755am,
7:*1755am,
7:*2755am,
7:*4755am,
7:u3755am,
8:*0latest,
8:*1latest,
8:*2latest,
8:*4latest,
8:u3latest,
5:*0755,
5:*1755,
5:*2755,
5:*4755,
5:u3755,
10:*0schedule,
10:*1schedule,
10:*2schedule,
10:*4schedule,
10:u3schedule,
5:*09pm,
5:*19pm,
5:*29pm,
5:*49pm,
5:u39pm,
14:*0twenty-ninth,
14:*1twenty-ninth,
14:*2twenty-ninth,
14:*4twenty-ninth,
10:*0november,
10:*1november,
10:*2november,
10:*4november,
14:*0twenty-third,
14:*1twenty-third,
14:*2twenty-third,
14:*4twenty-third,
10:u3november,
6:*0year,
6:*1year,
6:*2year,
14:u3twenty-third,
6:*4year,
6:*01991,
6:*11991,
6:*21991,
6:*41991,
5:*0i'd,
5:*1i'd,
5:*2i'd,
6:u3this,
5:*4i'd,
6:u3year,
6:u31991,
6:*0just,
6:*1just,
6:*2just,
6:*4just,
6:u3okay,
6:u3just,
5:*08am,
5:*18am,
5:*28am,
5:*48am,
7:u3hello,
7:*0let's,
7:*1let's,
7:*2let's,
7:*4let's,
5:*0see,
5:*1see,
5:*2see,
5:*4see,
7:u3let's,
5:u3see,
15:*0delta-airline,
15:*1delta-airline,
15:*2delta-airline,
15:*4delta-airline,
15:u3delta-airline,
7:*0stops,
7:*1stops,
7:*2stops,
7:*4stops,
7:u3stops,
5:*0way,
5:*1way,
5:*2way,
5:*4way,
5:u3way,
5:*0all,
5:*1all,
5:*2all,
5:*4all,
8:*0united,
8:*1united,
8:*2united,
8:*4united,
8:u3united,
7:*0815am,
7:*1815am,
7:*2815am,
7:*4815am,
4:*0by,
4:*1by,
4:*2by,
4:*4by,
16:*0united-airline,
16:*1united-airline,
16:*2united-airline,
16:*4united-airline,
16:u3united-airline,
4:u3oh,
17:*0eastern-airline,
17:*1eastern-airline,
17:*2eastern-airline,
17:*4eastern-airline,
17:u3eastern-airline,
6:*0some,
6:*1some,
6:*2some,
6:*4some,
6:u3some,
5:*09am,
5:*19am,
5:*29am,
5:*49am,
16:*0dallas-airport,
16:*1dallas-airport,
16:*2dallas-airport,
16:*4dallas-airport,
16:u3dallas-airport,
14:*0arrangements,
14:*1arrangements,
14:*2arrangements,
14:*4arrangements,
14:u3arrangements,
16:*0boston-airport,
16:*1boston-airport,
16:*2boston-airport,
16:*4boston-airport,
16:u3boston-airport,
5:*0can,
5:*1can,
5:*2can,
5:*4can,
11:*0departing,
11:*1departing,
11:*2departing,
11:*4departing,
11:u3departing,
9:*0airfare,
9:*1airfare,
9:*2airfare,
9:*4airfare,
9:u3airfare,
13:*0329-dollars,
13:*1329-dollars,
13:*2329-dollars,
13:*4329-dollars,
13:u3329-dollars,
6:*0cost,
6:*1cost,
6:*2cost,
6:*4cost,
6:u3cost,
5:*0air,
5:*1air,
5:*2air,
5:*4air,
14:*0restrictions,
14:*1restrictions,
14:*2restrictions,
14:*4restrictions,
5:u3air,
14:u3restrictions,
13:*0416-dollars,
13:*1416-dollars,
13:*2416-dollars,
13:*4416-dollars,
6:*0book,
6:*1book,
6:*2book,
6:*4book,
6:u3book,
7:*0coach,
7:*1coach,
7:*2coach,
7:*4coach,
10:*0discount,
10:*1discount,
10:*2discount,
10:*4discount,
7:u3coach,
9:*0arrange,
9:*1arrange,
9:*2arrange,
9:*4arrange,
9:u3arrange,
6:*0july,
6:*1july,
6:*2july,
6:*4july,
9:*0seventh,
9:*1seventh,
9:*2seventh,
9:*4seventh,
6:u3sure,
11:*0determine,
11:*1determine,
11:*2determine,
11:*4determine,
11:u3determine,
6:u3july,
9:u3seventh,
6:*0meal,
6:*1meal,
6:*2meal,
6:*4meal,
7:*0being,
7:*1being,
7:*2being,
7:*4being,
8:*0served,
8:*1served,
8:*2served,
8:*4served,
6:u3meal,
6:*0such,
6:*1such,
6:*2such,
5:u38am,
6:*4such,
6:u3such,
7:*0types,
7:*1types,
7:*2types,
7:*4types,
7:u3types,
6:*0dc10,
6:*1dc10,
6:*2dc10,
6:*4dc10,
10:*0sometime,
10:*1sometime,
10:*2sometime,
10:*4sometime,
10:u3sometime,
8:*0direct,
8:*1direct,
8:*2direct,
8:*4direct,
8:u3direct,
9:*012-noon,
9:*112-noon,
9:*212-noon,
9:*412-noon,
9:*0arrives,
9:*1arrives,
9:*2arrives,
9:*4arrives,
9:u3arrives,
15:u3early-morning,
15:*0approximately,
15:*1approximately,
15:*2approximately,
15:*4approximately,
5:*01pm,
5:*11pm,
5:*21pm,
5:*41pm,
6:*0many,
6:*1many,
6:*2many,
6:*4many,
6:u3many,
7:*0where,
7:*1where,
7:*2where,
7:*4where,
7:u3where,
13:*0dinner-meal,
13:*1dinner-meal,
13:*2dinner-meal,
13:*4dinner-meal,
5:*0420,
5:*1420,
5:*2420,
5:*4420,
5:u3420,
3:*05,
3:*15,
3:*25,
3:*45,
3:u35,
4:*0my,
4:*1my,
4:*2my,
4:*4my,
7:*0final,
7:*1final,
7:*2final,
7:*4final,
13:*0destination,
13:*1destination,
13:*2destination,
13:*4destination,
4:u3my,
7:u3final,
13:u3destination,
11:*0originate,
11:*1originate,
11:*2originate,
11:*4originate,
11:u3originate,
22:*0latest-time-possible,
22:*1latest-time-possible,
22:*2latest-time-possible,
22:*4latest-time-possible,
22:u3latest-time-possible,
11:*0fifteenth,
11:*1fifteenth,
11:*2fifteenth,
11:*4fifteenth,
8:*0during,
8:*1during,
8:*2during,
8:*4during,
11:*0breakfast,
11:*1breakfast,
11:*2breakfast,
11:*4breakfast,
5:*0296,
5:*1296,
5:*2296,
5:*4296,
8:*0serves,
8:*1serves,
8:*2serves,
8:*4serves,
5:u3296,
7:u3first,
17:*0early-afternoon,
17:*1early-afternoon,
17:*2early-afternoon,
17:*4early-afternoon,
8:*0should,
8:*1should,
8:*2should,
8:*4should,
8:u3should,
7:*0615pm,
7:*1615pm,
7:*2615pm,
7:*4615pm,
7:*0their,
7:*1their,
7:*2their,
7:*4their,
7:u3their,
24:*0earliest-possible-time,
24:*1earliest-possible-time,
24:*2earliest-possible-time,
24:*4earliest-possible-time,
10:*0question,
10:*1question,
10:*2question,
10:*4question,
10:u3question,
6:*0live,
6:*1live,
6:*2live,
6:*4live,
6:u3live,
8:*0trying,
8:*1trying,
8:*2trying,
8:*4trying,
8:u3trying,
12:*0connection,
12:*1connection,
12:*2connection,
12:*4connection,
12:u3connection,
7:*0those,
7:*1those,
7:*2those,
7:*4those,
11:*0thirtieth,
11:*1thirtieth,
11:*2thirtieth,
11:*4thirtieth,
11:u3thirtieth,
6:u3fine,
6:*0help,
6:*1help,
6:*2help,
6:*4help,
6:u3help,
6:*0very,
6:*1very,
6:*2very,
6:*4very,
5:*0now,
5:*1now,
5:*2now,
5:*4now,
5:u3now,
5:*0747,
5:*1747,
5:*2747,
5:*4747,
5:u3747,
6:*0able,
6:*1able,
6:*2able,
6:*4able,
5:*0put,
5:*1put,
5:*2put,
5:*4put,
6:u3able,
5:u3put,
16:*0twenty-seventh,
16:*1twenty-seventh,
16:*2twenty-seventh,
16:*4twenty-seventh,
16:u3twenty-seventh,
7:*0first,
7:*1first,
7:*2first,
7:*4first,
7:*0night,
7:*1night,
7:*2night,
7:*4night,
7:u3night,
7:u3630am,
5:*0650,
5:*1650,
5:*2650,
5:*4650,
7:*0third,
7:*1third,
7:*2third,
7:*4third,
7:*0rates,
7:*1rates,
7:*2rates,
7:*4rates,
7:u3rates,
17:*0least-expensive,
17:*1least-expensive,
17:*2least-expensive,
17:*4least-expensive,
17:u3least-expensive,
16:*0city-of-boston,
16:*1city-of-boston,
16:*2city-of-boston,
16:*4city-of-boston,
16:u3city-of-boston,
8:u3kindly,
8:*0inform,
8:*1inform,
8:*2inform,
8:*4inform,
8:u3inform,
17:*012-o'clock-noon,
17:*112-o'clock-noon,
17:*212-o'clock-noon,
17:*412-o'clock-noon,
9:*0eastern,
9:*1eastern,
9:*2eastern,
9:*4eastern,
5:*0825,
5:*1825,
5:*2825,
5:*4825,
9:u3eastern,
5:u3825,
6:*0when,
6:*1when,
6:*2when,
6:*4when,
6:u3when,
5:*0555,
5:*1555,
5:*2555,
5:*4555,
5:u3555,
5:*06pm,
5:*16pm,
5:*26pm,
5:*46pm,
5:*05pm,
5:*15pm,
5:*25pm,
5:*45pm,
7:*0sorry,
7:*1sorry,
7:*2sorry,
7:*4sorry,
7:u3sorry,
14:*0thirty-first,
14:*1thirty-first,
14:*2thirty-first,
14:*4thirty-first,
14:u3thirty-first,
6:*0then,
6:*1then,
6:*2then,
6:*4then,
6:u3then,
8:*0fourth,
8:*1fourth,
8:*2fourth,
8:*4fourth,
8:u3fourth,
6:*0plan,
6:*1plan,
6:*2plan,
6:*4plan,
6:u3plan,
10:*0no-stops,
10:*1no-stops,
10:*2no-stops,
10:*4no-stops,
10:u3no-stops,
9:*0economy,
9:*1economy,
9:*2economy,
9:*4economy,
9:u3economy,
7:*0fifth,
7:*1fifth,
7:*2fifth,
7:*4fifth,
10:u3thursday,
7:u3fifth,
15:*0twenty-eighth,
15:*1twenty-eighth,
15:*2twenty-eighth,
15:*4twenty-eighth,
9:*0october,
9:*1october,
9:*2october,
9:*4october,
9:*0twelfth,
9:*1twelfth,
9:*2twelfth,
9:*4twelfth,
9:*0numbers,
9:*1numbers,
9:*2numbers,
9:*4numbers,
9:*0connect,
9:*1connect,
9:*2connect,
9:*4connect,
9:u3connect,
8:*0cities,
8:*1cities,
8:*2cities,
8:*4cities,
7:u3those,
5:*0may,
5:*1may,
5:*2may,
5:*4may,
10:*0planning,
10:*1planning,
10:*2planning,
10:*4planning,
10:u3planning,
5:*0269,
5:*1269,
5:*2269,
5:*4269,
5:u3269,
5:*0428,
5:*1428,
5:*2428,
5:*4428,
5:u3428,
7:*0times,
7:*1times,
7:*2times,
7:*4times,
7:u3times,
7:*0makes,
7:*1makes,
7:*2makes,
7:*4makes,
7:u3makes,
10:*0one-stop,
10:*1one-stop,
10:*2one-stop,
10:*4one-stop,
10:u3one-stop,
7:*0april,
7:*1april,
7:*2april,
7:*4april,
7:u3april,
14:u3twenty-first,
11:*0beginning,
11:*1beginning,
11:*2beginning,
11:*4beginning,
14:*0twenty-fifth,
14:*1twenty-fifth,
14:*2twenty-fifth,
11:u3beginning,
14:*4twenty-fifth,
11:*0returning,
11:*1returning,
11:*2returning,
11:*4returning,
14:u3twenty-fifth,
7:*0sixth,
7:*1sixth,
7:*2sixth,
11:u3returning,
7:*4sixth,
11:*07-o'clock,
11:*17-o'clock,
11:*27-o'clock,
11:*47-o'clock,
11:u37-o'clock,
11:u3fifteenth,
9:*0sixteen,
9:*1sixteen,
9:*2sixteen,
9:*4sixteen,
9:u3sixteen,
11:*0seventeen,
11:*1seventeen,
11:*2seventeen,
11:*4seventeen,
11:u3seventeen,
8:*0twenty,
8:*1twenty,
8:*2twenty,
8:*4twenty,
8:u3twenty,
11:u38-o'clock,
6:*0four,
6:*1four,
6:*2four,
6:*4four,
6:u3four,
6:*01039,
6:*11039,
6:*21039,
6:*41039,
6:u31039,
5:*0257,
5:*1257,
5:*2257,
5:*4257,
7:*0we're,
7:*1we're,
7:*2we're,
7:*4we're,
7:u3great,
8:*0depart,
8:*1depart,
8:*2depart,
8:*4depart,
8:u3depart,
8:*0sounds,
8:*1sounds,
8:*2sounds,
8:*4sounds,
7:*0great,
7:*1great,
7:*2great,
7:*4great,
8:u3sounds,
12:*0twenty-one,
12:*1twenty-one,
12:*2twenty-one,
12:*4twenty-one,
12:u3twenty-one,
7:*0one's,
7:*1one's,
7:*2one's,
7:*4one's,
5:*0too,
5:*1too,
5:*2too,
5:*4too,
7:u3one's,
5:u3too,
15:*0twenty-second,
15:*1twenty-second,
15:*2twenty-second,
15:*4twenty-second,
15:u3twenty-second,
11:*0nighttime,
11:*1nighttime,
11:*2nighttime,
11:*4nighttime,
11:*0departure,
11:*1departure,
11:*2departure,
11:*4departure,
11:u3nighttime,
6:u3show,
19:*0dallas-fort-worth,
19:*1dallas-fort-worth,
19:*2dallas-fort-worth,
19:*4dallas-fort-worth,
29:*0san-francisco-international,
29:*1san-francisco-international,
29:*2san-francisco-international,
29:*4san-francisco-international,
19:u3dallas-fort-worth,
10:*0arrivals,
10:*1arrivals,
10:*2arrivals,
10:*4arrivals,
10:u3arrivals,
6:*0most,
6:*1most,
6:*2most,
6:*4most,
6:u3most,
13:*0connections,
13:*1connections,
13:*2connections,
13:*4connections,
13:u3connections,
7:*0tenth,
7:*1tenth,
7:*2tenth,
7:*4tenth,
10:*0eleventh,
10:*1eleventh,
10:*2eleventh,
10:*4eleventh,
6:*0june,
6:*1june,
6:*2june,
6:*4june,
6:u3june,
16:*0business-class,
16:*1business-class,
16:*2business-class,
16:*4business-class,
7:*0daily,
7:*1daily,
7:*2daily,
7:*4daily,
7:u3daily,
19:*0stapleton-airport,
19:*1stapleton-airport,
19:*2stapleton-airport,
19:*4stapleton-airport,
10:*0tomorrow,
10:*1tomorrow,
10:*2tomorrow,
10:*4tomorrow,
19:u3stapleton-airport,
8:*0thrift,
8:*1thrift,
8:*2thrift,
8:*4thrift,
8:u3thrift,
13:*0restriction,
13:*1restriction,
13:*2restriction,
13:*4restriction,
6:*0ap80,
6:*1ap80,
6:*2ap80,
6:*4ap80,
9:u3explain,
6:*0code,
6:*1code,
6:*2code,
6:*4code,
4:*0qx,
4:*1qx,
4:*2qx,
4:*4qx,
13:*0represented,
13:*1represented,
13:*2represented,
13:*4represented,
10:*0database,
10:*1database,
10:*2database,
13:u3represented,
10:*4database,
5:*07pm,
5:*17pm,
5:*27pm,
5:*47pm,
5:u37pm,
5:*0315,
5:*1315,
5:*2315,
5:*4315,
4:*0aa,
4:*1aa,
4:*2aa,
4:*4aa,
5:*0459,
5:*1459,
5:*2459,
5:*4459,
4:u3aa,
5:*0m80,
5:*1m80,
5:*2m80,
5:*4m80,
8:u3cities,
9:*0besides,
9:*1besides,
9:*2besides,
9:*4besides,
9:u3besides,
9:*0provide,
9:*1provide,
9:*2provide,
9:*4provide,
9:u3provide,
5:*0jet,
5:*1jet,
5:*2jet,
5:*4jet,
5:u3jet,
6:*0only,
6:*1only,
6:*2only,
6:*4only,
6:u3only,
7:*0today,
7:*1today,
7:*2today,
7:*4today,
4:*0dl,
4:*1dl,
4:*2dl,
4:*4dl,
11:*0different,
11:*1different,
11:*2different,
11:*4different,
9:*0classes,
9:*1classes,
9:*2classes,
9:*4classes,
11:u3different,
9:u3classes,
3:*0b,
3:*1b,
3:*2b,
3:*4b,
6:*0same,
6:*1same,
6:*2same,
6:u3code,
6:*4same,
3:u3b,
6:u3same,
3:*0c,
3:*1c,
3:*2c,
3:*4c,
9:*0booking,
9:*1booking,
9:*2booking,
9:*4booking,
9:u3booking,
4:*0yn,
4:*1yn,
4:*2yn,
4:*4yn,
15:*0no-later-than,
15:*1no-later-than,
15:*2no-later-than,
15:*4no-later-than,
5:*02pm,
5:*12pm,
5:*22pm,
5:*42pm,
15:u3no-later-than,
5:u32pm,
8:u3what's,
6:*0ap57,
6:*1ap57,
6:*2ap57,
6:*4ap57,
7:*0codes,
7:*1codes,
7:*2codes,
7:*4codes,
8:*0belong,
8:*1belong,
8:*2belong,
8:*4belong,
15:*0economy-class,
15:*1economy-class,
15:*2economy-class,
7:u3codes,
15:*4economy-class,
8:u3belong,
5:*0via,
5:*1via,
5:*2via,
5:*4via,
9:*0layover,
9:*1layover,
9:*2layover,
9:*4layover,
9:u3layover,
6:*0more,
6:*1more,
6:*2more,
6:*4more,
6:*0than,
6:*1than,
6:*2than,
6:u3more,
6:*4than,
16:u3business-class,
7:*0other,
7:*1other,
7:*2other,
7:*4other,
6:u3than,
15:u3economy-class,
16:*0late-afternoon,
16:*1late-afternoon,
16:*2late-afternoon,
16:*4late-afternoon,
16:u3late-afternoon,
5:u31pm,
11:*03-o'clock,
11:*13-o'clock,
11:*23-o'clock,
11:*43-o'clock,
11:u33-o'clock,
9:u312-noon,
9:*0delta's,
9:*1delta's,
9:*2delta's,
9:*4delta's,
9:u3delta's,
12:*0rental-car,
12:*1rental-car,
12:*2rental-car,
12:*4rental-car,
12:u3rental-car,
5:*0far,
5:*1far,
5:*2far,
5:*4far,
5:u3far,
10:*0saturday,
10:*1saturday,
10:*2saturday,
10:*4saturday,
6:*0come,
6:*1come,
6:*2come,
6:*4come,
6:u3come,
10:*0smallest,
10:*1smallest,
10:*2smallest,
10:*4smallest,
9:*0seating,
9:*1seating,
9:*2seating,
9:*4seating,
10:*0capacity,
10:*1capacity,
10:*2capacity,
10:*4capacity,
10:u3smallest,
16:*0most-expensive,
16:*1most-expensive,
16:*2most-expensive,
16:*4most-expensive,
9:*0tickets,
9:*1tickets,
9:*2tickets,
9:*4tickets,
16:u3most-expensive,
9:u3tickets,
11:*0atlanta's,
11:*1atlanta's,
11:*2atlanta's,
11:*4atlanta's,
6:*0noon,
6:*1noon,
6:*2noon,
6:*4noon,
6:u3noon,
13:*0originating,
13:*1originating,
13:*2originating,
13:*4originating,
13:u3originating,
7:*0210pm,
7:*1210pm,
7:*2210pm,
7:*4210pm,
8:*0eighth,
8:*1eighth,
8:*2eighth,
8:*4eighth,
7:*0ninth,
7:*1ninth,
7:*2ninth,
7:*4ninth,
8:*0offers,
8:*1offers,
8:*2offers,
8:*4offers,
8:u3offers,
9:*0heading,
9:*1heading,
9:*2heading,
9:*4heading,
9:u3heading,
5:*0279,
5:*1279,
5:*2279,
5:*4279,
5:u3279,
8:*0137338,
8:*1137338,
8:*2137338,
8:*4137338,
7:*0630am,
7:*1630am,
7:*2630am,
7:*4630am,
3:*03,
3:*13,
3:*23,
3:*43,
3:u33,
11:*01-o'clock,
11:*11-o'clock,
11:*21-o'clock,
11:*41-o'clock,
8:*0toward,
8:*1toward,
8:*2toward,
8:*4toward,
8:u3toward,
17:*0oakland-airport,
17:*1oakland-airport,
17:*2oakland-airport,
17:*4oakland-airport,
6:*0each,
6:*1each,
6:*2each,
6:*4each,
6:u3each,
3:*0k,
3:*1k,
3:*2k,
3:*4k,
11:*0lufthansa,
11:*1lufthansa,
11:*2lufthansa,
11:*4lufthansa,
11:u3lufthansa,
14:*0twenty-sixth,
14:*1twenty-sixth,
14:*2twenty-sixth,
14:*4twenty-sixth,
6:*0name,
6:*1name,
6:*2name,
6:*4name,
6:u3name,
22:*0philadelphia-airport,
22:*1philadelphia-airport,
22:*2philadelphia-airport,
22:*4philadelphia-airport,
22:u3philadelphia-airport,
3:*01,
3:*11,
3:*21,
3:*41,
3:u31,
3:*04,
3:*14,
3:*24,
3:*44,
3:u34,
16:*0departure-time,
16:*1departure-time,
16:*2departure-time,
16:*4departure-time,
16:u3departure-time,
17:u3early-afternoon,
11:*0limousine,
11:*1limousine,
11:*2limousine,
11:*4limousine,
7:*0total,
7:*1total,
7:*2total,
7:*4total,
7:u3total,
9:u3seating,
10:u3capacity,
12:*0advertises,
12:*1advertises,
12:*2advertises,
12:*4advertises,
8:*0having,
8:*1having,
8:*2having,
8:*4having,
12:u3advertises,
8:u3having,
3:*0f,
3:*1f,
3:*2f,
3:*4f,
15:*0logan-airport,
15:*1logan-airport,
15:*2logan-airport,
15:*4logan-airport,
11:u3departure,
20:*0pittsburgh-airport,
20:*1pittsburgh-airport,
20:*2pittsburgh-airport,
20:*4pittsburgh-airport,
6:*0town,
6:*1town,
6:*2town,
20:u3pittsburgh-airport,
6:*4town,
7:*0kinds,
7:*1kinds,
7:*2kinds,
7:*4kinds,
7:u3kinds,
41:*0dallas-fort-worth-international-airport,
41:*1dallas-fort-worth-international-airport,
41:*2dallas-fort-worth-international-airport,
41:*4dallas-fort-worth-international-airport,
11:u3limousine,
41:u3dallas-fort-worth-international-airport,
7:*0eight,
7:*1eight,
7:*2eight,
7:*4eight,
8:*0within,
8:*1within,
8:*2within,
8:*4within,
22:*0schedule-for-flights,
22:*1schedule-for-flights,
22:*2schedule-for-flights,
22:*4schedule-for-flights,
22:u3schedule-for-flights,
4:*0s-,
4:*1s-,
4:*2s-,
4:*4s-,
11:*0designate,
11:*1designate,
11:*2designate,
11:*4designate,
4:u3s-,
11:u3designate,
7:*0takes,
7:*1takes,
7:*2takes,
7:*4takes,
7:*0least,
7:*1least,
7:*2least,
7:*4least,
8:*0amount,
8:*1amount,
8:*2amount,
7:u3takes,
8:*4amount,
7:u3least,
8:u3amount,
8:*0planes,
8:*1planes,
8:*2planes,
8:*4planes,
8:u3planes,
9:*0usa-air,
9:*1usa-air,
9:*2usa-air,
9:*4usa-air,
9:u3usa-air,
8:*0prices,
8:*1prices,
8:*2prices,
8:*4prices,
8:u3prices,
8:*0what's,
8:*1what's,
8:*2what's,
8:*4what's,
9:*0various,
9:*1various,
9:*2various,
9:*4various,
11:*0airplanes,
11:*1airplanes,
11:*2airplanes,
11:*4airplanes,
9:u3various,
6:*0uses,
6:*1uses,
6:*2uses,
11:u3airplanes,
6:*4uses,
5:*0who,
5:*1who,
5:*2who,
5:*4who,
5:u39am,
17:*0time-of-arrival,
17:*1time-of-arrival,
17:*2time-of-arrival,
17:*4time-of-arrival,
17:u3time-of-arrival,
17:*0departure-times,
17:*1departure-times,
17:*2departure-times,
17:*4departure-times,
17:u3departure-times,
5:*08pm,
5:*18pm,
5:*28pm,
5:*48pm,
19:*0baltimore-airport,
19:*1baltimore-airport,
19:*2baltimore-airport,
19:*4baltimore-airport,
6:*0show,
6:*1show,
6:*2show,
6:*4show,
11:*0including,
11:*1including,
11:*2including,
11:*4including,
11:u3including,
7:*0offer,
7:*1offer,
7:*2offer,
7:*4offer,
7:u3offer,
6:u3dc10,
8:*0eleven,
8:*1eleven,
8:*2eleven,
8:*4eleven,
8:u3eleven,
9:*0any-day,
9:*1any-day,
9:*2any-day,
9:*4any-day,
9:u3any-day,
5:*0352,
5:*1352,
5:*2352,
5:*4352,
5:u3352,
7:*0price,
7:*1price,
7:*2price,
7:*4price,
7:u3price,
11:*0operating,
11:*1operating,
11:*2operating,
11:*4operating,
9:*0sundays,
9:*1sundays,
9:*2sundays,
9:*4sundays,
11:u3operating,
10:*0services,
10:*1services,
10:*2services,
10:*4services,
10:u3services,
14:*0reservations,
14:*1reservations,
14:*2reservations,
14:*4reservations,
14:u3reservations,
6:*01765,
6:*11765,
6:*21765,
6:*41765,
6:u31765,
17:*0flight-schedule,
17:*1flight-schedule,
17:*2flight-schedule,
17:*4flight-schedule,
5:*0f28,
5:*1f28,
5:*2f28,
17:u3flight-schedule,
5:*4f28,
5:u3f28,
20:*0air-taxi-operation,
20:*1air-taxi-operation,
20:*2air-taxi-operation,
20:*4air-taxi-operation,
36:*0philadelphia-international-airport,
36:*1philadelphia-international-airport,
36:*2philadelphia-international-airport,
36:*4philadelphia-international-airport,
20:u3air-taxi-operation,
4:*0pm,
4:*1pm,
4:*2pm,
4:*4pm,
4:u3pm,
9:*0serving,
9:*1serving,
9:*2serving,
9:*4serving,
9:u3serving,
11:u3breakfast,
8:u3served,
10:u3anything,
5:*0say,
5:*1say,
5:*2say,
5:*4say,
10:*0mealtime,
10:*1mealtime,
10:*2mealtime,
10:*4mealtime,
5:u3say,
7:*0thank,
7:*1thank,
7:*2thank,
7:*4thank,
5:*0run,
5:*1run,
5:*2run,
5:*4run,
5:u3run,
7:*0seats,
7:*1seats,
7:*2seats,
7:*4seats,
7:u3seats,
7:u3other,
9:*0earlier,
9:*1earlier,
9:*2earlier,
9:*4earlier,
6:*01017,
6:*11017,
6:*21017,
6:*41017,
9:u3earlier,
6:u31017,
5:*0630,
5:*1630,
5:*2630,
5:*4630,
14:*05-o'clock-pm,
14:*15-o'clock-pm,
14:*25-o'clock-pm,
14:*45-o'clock-pm,
14:*04-o'clock-pm,
14:*14-o'clock-pm,
14:*24-o'clock-pm,
14:*44-o'clock-pm,
7:*0later,
7:*1later,
7:*2later,
7:*4later,
7:u3later,
14:*06-o'clock-pm,
14:*16-o'clock-pm,
14:*26-o'clock-pm,
14:*46-o'clock-pm,
5:u36pm,
10:*0serviced,
10:*1serviced,
10:*2serviced,
10:*4serviced,
10:u3serviced,
5:*0dfw,
5:*1dfw,
5:*2dfw,
5:*4dfw,
5:u3dfw,
8:*01133am,
8:*11133am,
8:*21133am,
8:*41133am,
6:*043pm,
6:*143pm,
6:*243pm,
6:*443pm,
8:u31133am,
10:*0provided,
10:*1provided,
10:*2provided,
10:*4provided,
10:u3provided,
4:u3by,
10:*0provides,
10:*1provides,
10:*2provides,
10:*4provides,
10:u3provides,
6:*0both,
6:*1both,
6:*2both,
6:*4both,
6:u3both,
7:*0meals,
7:*1meals,
7:*2meals,
7:*4meals,
7:u3meals,
10:*0airplane,
10:*1airplane,
10:*2airplane,
10:*4airplane,
10:u3airplane,
11:*06-o'clock,
11:*16-o'clock,
11:*26-o'clock,
11:*46-o'clock,
8:*0sunday,
8:*1sunday,
8:*2sunday,
8:*4sunday,
11:u36-o'clock,
6:*0mean,
6:*1mean,
6:*2mean,
6:*4mean,
3:u38,
14:u3twenty-ninth,
7:u3third,
12:*0american's,
12:*1american's,
12:*2american's,
12:*4american's,
12:u3american's,
5:*0bwi,
5:*1bwi,
5:*2bwi,
5:*4bwi,
5:u3bwi,
7:*0still,
7:*1still,
7:*2still,
7:*4still,
7:u3still,
7:*0cover,
7:*1cover,
7:*2cover,
7:*4cover,
7:u3cover,
6:*0less,
6:*1less,
6:*2less,
6:*4less,
13:*0200-dollars,
13:*1200-dollars,
13:*2200-dollars,
13:*4200-dollars,
6:u3less,
5:*0oak,
5:*1oak,
5:*2oak,
5:*4oak,
5:*0atl,
5:*1atl,
5:*2atl,
5:*4atl,
5:u3oak,
9:*0qx-fare,
9:*1qx-fare,
9:*2qx-fare,
9:*4qx-fare,
9:u3qx-fare,
14:*0lowest-price,
14:*1lowest-price,
14:*2lowest-price,
14:*4lowest-price,
14:u3lowest-price,
4:*082,
4:*182,
4:*282,
4:*482,
5:*0139,
5:*1139,
5:*2139,
4:u382,
5:*4139,
9:*0q-fares,
9:*1q-fares,
9:*2q-fares,
9:*4q-fares,
9:u3q-fares,
13:*0124-dollars,
13:*1124-dollars,
13:*2124-dollars,
13:*4124-dollars,
13:u3124-dollars,
4:*0ls,
4:*1ls,
4:*2ls,
4:*4ls,
7:*0stand,
7:*1stand,
7:*2stand,
7:*4stand,
4:u3ls,
7:*0level,
7:*1level,
7:*2level,
7:*4level,
9:*0carries,
9:*1carries,
9:*2carries,
9:*4carries,
9:u3carries,
12:*0passengers,
12:*1passengers,
12:*2passengers,
12:*4passengers,
6:*01505,
6:*11505,
6:*21505,
6:*41505,
6:u31505,
7:*0serve,
7:*1serve,
7:*2serve,
7:*4serve,
7:*0lunch,
7:*1lunch,
7:*2lunch,
7:*4lunch,
11:*0itinerary,
11:*1itinerary,
11:*2itinerary,
11:*4itinerary,
11:u3itinerary,
12:u3connecting,
9:*0departs,
9:*1departs,
9:*2departs,
9:*4departs,
9:u3departs,
7:*0local,
7:*1local,
7:*2local,
7:*4local,
8:*0either,
8:*1either,
8:*2either,
8:*4either,
8:u3either,
27:*0dallas-fort-worth-airport,
27:*1dallas-fort-worth-airport,
27:*2dallas-fort-worth-airport,
27:*4dallas-fort-worth-airport,
27:u3dallas-fort-worth-airport,
6:*01940,
6:*11940,
6:*21940,
6:*41940,
8:*0boeing,
8:*1boeing,
8:*2boeing,
12:u3passengers,
8:*4boeing,
5:*0737,
5:*1737,
5:*2737,
5:*4737,
6:*0hold,
6:*1hold,
6:*2hold,
6:*4hold,
8:u3boeing,
3:*06,
3:*16,
3:*26,
3:*46,
3:u36,
9:*0qualify,
9:*1qualify,
9:*2qualify,
9:*4qualify,
9:u3qualify,
10:u3describe,
5:*0j31,
5:*1j31,
5:*2j31,
5:*4j31,
5:*0733,
5:*1733,
5:*2733,
5:*4733,
5:*072s,
5:*172s,
5:*272s,
5:*472s,
5:*0734,
5:*1734,
5:*2734,
5:*4734,
5:*0100,
5:*1100,
5:*2100,
5:*4100,
13:*0415-dollars,
13:*1415-dollars,
13:*2415-dollars,
13:*4415-dollars,
5:*0705,
5:*1705,
5:*2705,
5:*4705,
5:u3705,
4:*071,
4:*171,
4:*271,
4:*471,
4:u371,
10:*0directly,
10:*1directly,
10:*2directly,
10:*4directly,
10:u3directly,
11:*0scheduled,
11:*1scheduled,
11:*2scheduled,
11:*4scheduled,
10:*0december,
10:*1december,
10:*2december,
10:*4december,
11:u3scheduled,
11:*0turboprop,
11:*1turboprop,
11:*2turboprop,
11:*4turboprop,
11:u3turboprop,
9:*0doesn't,
9:*1doesn't,
9:*2doesn't,
9:*4doesn't,
7:*0catch,
7:*1catch,
7:*2catch,
7:*4catch,
7:u3catch,
20:*0lufthansa-airlines,
20:*1lufthansa-airlines,
20:*2lufthansa-airlines,
20:*4lufthansa-airlines,
20:u3lufthansa-airlines,
10:u3saturday,
7:*0logan,
7:*1logan,
7:*2logan,
7:*4logan,
7:u3logan,
11:*02-o'clock,
11:*12-o'clock,
11:*22-o'clock,
11:*42-o'clock,
11:u32-o'clock,
10:*0distance,
10:*1distance,
10:*2distance,
10:*4distance,
10:u3distance,
10:*0tuesdays,
10:*1tuesdays,
10:*2tuesdays,
10:*4tuesdays,
11:*0companies,
11:*1companies,
11:*2companies,
11:*4companies,
11:u3companies,
8:u3serves,
8:*0people,
8:*1people,
8:*2people,
8:*4people,
8:u3people,
9:*0carried,
9:*1carried,
9:*2carried,
9:*4carried,
9:u3carried,
10:*0shortest,
10:*1shortest,
10:*2shortest,
10:*4shortest,
10:u3shortest,
9:*0january,
9:*1january,
9:*2january,
9:*4january,
7:*0cheap,
7:*1cheap,
7:*2cheap,
7:*4cheap,
7:u3cheap,
6:*0back,
6:*1back,
6:*2back,
6:*4back,
9:*0reverse,
9:*1reverse,
9:*2reverse,
9:*4reverse,
9:u3reverse,
10:*0airports,
10:*1airports,
10:*2airports,
10:*4airports,
10:u3airports,
12:*0everywhere,
12:*1everywhere,
12:*2everywhere,
12:*4everywhere,
12:u3everywhere,
10:*0day-time,
10:*1day-time,
10:*2day-time,
10:*4day-time,
10:u3day-time,
6:*010pm,
6:*110pm,
6:*210pm,
6:*410pm,
6:u310pm,
17:*0midway-airlines,
17:*1midway-airlines,
17:*2midway-airlines,
17:*4midway-airlines,
17:u3midway-airlines,
7:u3tenth,
8:*0twelve,
8:*1twelve,
8:*2twelve,
8:*4twelve,
12:*0capacities,
12:*1capacities,
12:*2capacities,
12:*4capacities,
12:u3capacities,
9:*0largest,
9:*1largest,
9:*2largest,
9:*4largest,
9:u3largest,
10:*0greatest,
10:*1greatest,
10:*2greatest,
10:*4greatest,
10:u3greatest,
5:*0767,
5:*1767,
5:*2767,
5:*4767,
8:*0dinner,
8:*1dinner,
8:*2dinner,
8:*4dinner,
7:*0snack,
7:*1snack,
7:*2snack,
7:*4snack,
5:*03pm,
5:*13pm,
5:*23pm,
5:*43pm,
5:u33pm,
4:*012,
4:*112,
4:*212,
4:*412,
3:*02,
3:*12,
3:*22,
3:*42,
4:u312,
3:u32,
7:u3sixth,
12:*0car-rental,
12:*1car-rental,
12:*2car-rental,
12:*4car-rental,
12:u3car-rental,
6:*0limo,
6:*1limo,
6:*2limo,
6:*4limo,
6:u3limo,
8:*0coming,
8:*1coming,
8:*2coming,
8:*4coming,
7:u3ninth,
8:u3coming,
6:u3back,
5:*0fit,
5:*1fit,
5:*2fit,
5:*4fit,
5:u3fit,
5:*0d9s,
5:*1d9s,
5:*2d9s,
5:*4d9s,
5:*073s,
5:*173s,
5:*273s,
5:*473s,
6:*0once,
6:*1once,
6:*2once,
6:*4once,
6:u3once,
11:*0expensive,
11:*1expensive,
11:*2expensive,
11:*4expensive,
11:u3expensive,
5:*0sfo,
5:*1sfo,
5:*2sfo,
5:*4sfo,
9:*0charges,
9:*1charges,
9:*2charges,
9:*4charges,
9:u3charges,
4:*0no,
4:*1no,
4:*2no,
4:*4no,
4:u3no,
5:*04pm,
5:*14pm,
5:*24pm,
5:*44pm,
4:*0so,
4:*1so,
4:*2so,
4:*4so,
4:u3so,
6:*0here,
6:*1here,
6:*2here,
6:*4here,
6:*011am,
6:*111am,
6:*211am,
6:*411am,
6:u3here,
14:*0abbreviation,
14:*1abbreviation,
14:*2abbreviation,
14:*4abbreviation,
4:*0ua,
4:*1ua,
4:*2ua,
4:*4ua,
14:u3abbreviation,
4:*0co,
4:*1co,
4:*2co,
4:*4co,
9:*0weekday,
9:*1weekday,
9:*2weekday,
9:*4weekday,
3:*0y,
3:*1y,
3:*2y,
3:*4y,
12:*01300-hours,
12:*11300-hours,
12:*21300-hours,
12:*41300-hours,
12:*01600-hours,
12:*11600-hours,
12:*21600-hours,
12:*41600-hours,
5:*07am,
5:*17am,
5:*27am,
5:*47am,
12:*01700-hours,
12:*11700-hours,
12:*21700-hours,
12:*41700-hours,
12:u31700-hours,
7:*0under,
7:*1under,
7:*2under,
7:*4under,
13:*0500-dollars,
13:*1500-dollars,
13:*2500-dollars,
13:*4500-dollars,
7:u3under,
13:u3500-dollars,
10:*0airfares,
10:*1airfares,
10:*2airfares,
10:*4airfares,
10:u3airfares,
9:*0options,
9:*1options,
9:*2options,
9:*4options,
9:u3options,
8:*0philly,
8:*1philly,
8:*2philly,
8:*4philly,
9:*0arrival,
9:*1arrival,
9:*2arrival,
9:*4arrival,
9:u3arrival,
11:u31-o'clock,
11:*0regarding,
11:*1regarding,
11:*2regarding,
11:*4regarding,
23:*0san-francisco-airport,
23:*1san-francisco-airport,
23:*2san-francisco-airport,
23:*4san-francisco-airport,
9:u3display,
8:*0second,
8:*1second,
8:*2second,
8:*4second,
7:*0seven,
7:*1seven,
7:*2seven,
7:*4seven,
6:*012pm,
6:*112pm,
6:*212pm,
6:*412pm,
6:u312pm,
10:*0economic,
10:*1economic,
10:*2economic,
10:*4economic,
4:*098,
4:*198,
4:*298,
4:*498,
4:*0us,
4:*1us,
4:*2us,
4:*4us,
5:*0345,
5:*1345,
5:*2345,
5:*4345,
4:u3us,
5:u3345,
6:*0rent,
6:*1rent,
6:*2rent,
6:*4rent,
5:*0car,
5:*1car,
5:*2car,
5:*4car,
6:u3rent,
33:*0stapleton-international-airport,
33:*1stapleton-international-airport,
33:*2stapleton-international-airport,
33:*4stapleton-international-airport,
5:u3car,
33:u3stapleton-international-airport,
8:u3sunday,
6:*01083,
6:*11083,
6:*21083,
6:*41083,
4:u3dl,
6:u31083,
11:*0saturdays,
11:*1saturdays,
11:*2saturdays,
11:*4saturdays,
5:*0201,
5:*1201,
5:*2201,
5:*4201,
4:u3ua,
5:u3201,
5:*0343,
5:*1343,
5:*2343,
5:*4343,
5:u3343,
5:*0323,
5:*1323,
5:*2323,
5:*4323,
5:*0229,
5:*1229,
5:*2229,
5:*4229,
5:u3323,
5:u3229,
6:u3week,
9:*0meaning,
9:*1meaning,
9:*2meaning,
9:*4meaning,
9:u3meaning,
4:*0qw,
4:*1qw,
4:*2qw,
4:*4qw,
4:u3qx,
9:u3weekday,
10:u3tomorrow,
7:*0costs,
7:*1costs,
7:*2costs,
7:*4costs,
7:u3costs,
24:*0the-day-after-tomorrow,
24:*1the-day-after-tomorrow,
24:*2the-day-after-tomorrow,
24:*4the-day-after-tomorrow,
11:*0transport,
11:*1transport,
11:*2transport,
11:*4transport,
5:*0210,
5:*1210,
5:*2210,
5:*4210,
13:*0car-rentals,
13:*1car-rentals,
13:*2car-rentals,
13:*4car-rentals,
13:u3car-rentals,
11:u3saturdays,
5:*0d-s,
5:*1d-s,
5:*2d-s,
5:*4d-s,
5:u3d-s,
7:u3stand,
5:*0106,
5:*1106,
5:*2106,
5:*4106,
5:u3106,
9:*0grounds,
9:*1grounds,
9:*2grounds,
9:*4grounds,
9:u3grounds,
7:*0again,
7:*1again,
7:*2again,
7:*4again,
5:*0838,
5:*1838,
5:*2838,
5:*4838,
5:u3838,
13:*0reservation,
13:*1reservation,
13:*2reservation,
13:*4reservation,
13:u3reservation,
12:u3requesting,
12:*0requesting,
12:*1requesting,
12:*2requesting,
12:*4requesting,
10:*0starting,
10:*1starting,
10:*2starting,
10:*4starting,
10:u3starting,
12:*0afterwards,
12:*1afterwards,
12:*2afterwards,
12:*4afterwards,
5:*0402,
5:*1402,
5:*2402,
5:*4402,
5:u3402,
5:*0270,
5:*1270,
5:*2270,
5:*4270,
5:u3270,
5:*0297,
5:*1297,
5:*2297,
5:*4297,
5:u3297,
5:*0281,
5:*1281,
5:*2281,
5:*4281,
5:u3281,
12:*0wednesdays,
12:*1wednesdays,
12:*2wednesdays,
12:*4wednesdays,
10:u3tuesdays,
11:*0thursdays,
11:*1thursdays,
11:*2thursdays,
11:*4thursdays,
12:*0fourteenth,
12:*1fourteenth,
12:*2fourteenth,
12:*4fourteenth,
7:*0ap-80,
7:*1ap-80,
7:*2ap-80,
7:*4ap-80,
13:u3restriction,
7:*0ap-57,
7:*1ap-57,
7:*2ap-57,
7:*4ap-57,
5:u34pm,
5:u38pm,
14:*02-o'clock-pm,
14:*12-o'clock-pm,
14:*22-o'clock-pm,
14:*42-o'clock-pm,
14:*09-o'clock-am,
14:*19-o'clock-am,
14:*29-o'clock-am,
14:*49-o'clock-am,
24:u3the-day-after-tomorrow,
14:*03-o'clock-pm,
14:*13-o'clock-pm,
14:*23-o'clock-pm,
14:*43-o'clock-pm,
14:u33-o'clock-pm,
14:*08-o'clock-pm,
14:*18-o'clock-pm,
14:*28-o'clock-pm,
14:*48-o'clock-pm,
14:*08-o'clock-am,
14:*18-o'clock-am,
14:*28-o'clock-am,
14:*48-o'clock-am,
14:u38-o'clock-am,
14:u35-o'clock-pm,
7:u3serve,
13:*0us-airlines,
13:*1us-airlines,
13:*2us-airlines,
13:*4us-airlines,
13:u3us-airlines,
15:*011-o'clock-am,
15:*111-o'clock-am,
15:*211-o'clock-am,
15:*411-o'clock-am,
3:u3y,
9:*0explain,
9:*1explain,
9:*2explain,
9:*4explain,
11:u3transport,
3:*0m,
3:*1m,
3:*2m,
3:*4m,
6:*0ap68,
6:*1ap68,
6:*2ap68,
6:*4ap68,
12:*0continuing,
12:*1continuing,
12:*2continuing,
12:*4continuing,
12:u3continuing,
12:*0limousines,
12:*1limousines,
12:*2limousines,
12:*4limousines,
6:*0taxi,
6:*1taxi,
6:*2taxi,
6:*4taxi,
12:u3limousines,
6:u3taxi,
6:*01209,
6:*11209,
6:*21209,
6:*41209,
7:*0names,
7:*1names,
7:*2names,
7:*4names,
7:u3names,
13:*0rental-cars,
13:*1rental-cars,
13:*2rental-cars,
13:*4rental-cars,
4:u3qw,
6:*0sd-d,
6:*1sd-d,
6:*2sd-d,
6:*4sd-d,
8:*0listed,
8:*1listed,
8:*2listed,
8:*4listed,
6:*01055,
6:*11055,
6:*21055,
6:*41055,
8:u3listed,
5:*0405,
5:*1405,
5:*2405,
5:*4405,
6:u31055,
4:*0ea,
4:*1ea,
4:*2ea,
4:*4ea,
4:u3ea,
6:*0look,
6:*1look,
6:*2look,
6:*4look,
6:u3look,
7:u3today,
9:u3what're,
8:u3second,
6:u311am,
8:u3during,
12:*0eighteenth,
12:*1eighteenth,
12:*2eighteenth,
12:*4eighteenth,
8:*01045am,
8:*11045am,
8:*21045am,
8:*41045am,
5:*0430,
5:*1430,
5:*2430,
5:*4430,
7:*0530pm,
7:*1530pm,
7:*2530pm,
7:*4530pm,
5:u3430,
8:*01145am,
8:*11145am,
8:*21145am,
8:*41145am,
7:*0838am,
7:*1838am,
7:*2838am,
7:*4838am,
7:u3838am,
5:u3via,
8:u3thanks,
6:*0near,
6:*1near,
6:*2near,
6:*4near,
6:u3near,
5:u35pm,
7:*0close,
7:*1close,
7:*2close,
7:*4close,
7:u3close,
6:*01110,
6:*11110,
6:*21110,
6:*41110,
6:u31110,
23:u3san-francisco-airport,
9:*0fifteen,
9:*1fifteen,
9:*2fifteen,
9:*4fifteen,
7:u3while,
8:*0wanted,
8:*1wanted,
8:*2wanted,
8:*4wanted,
8:u3wanted,
12:*0afternoons,
12:*1afternoons,
12:*2afternoons,
12:*4afternoons,
9:*0maximum,
9:*1maximum,
9:*2maximum,
9:*4maximum,
9:u3maximum,
7:*0spend,
7:*1spend,
7:*2spend,
7:*4spend,
7:u3spend,
9:*0lastest,
9:*1lastest,
9:*2lastest,
9:*4lastest,
9:u3lastest,
9:*0longest,
9:*1longest,
9:*2longest,
9:*4longest,
9:u3longest,
5:*0but,
5:*1but,
5:*2but,
5:*4but,
5:u3but,
8:u3within,
6:*01059,
6:*11059,
6:*21059,
6:*41059,
6:*0over,
6:*1over,
6:*2over,
6:*4over,
6:u3over,
4:*021,
4:*121,
4:*221,
4:*421,
5:*0852,
5:*1852,
5:*2852,
5:*4852,
5:u3852,
5:*0928,
5:*1928,
5:*2928,
5:*4928,
5:u3928,
7:*0start,
7:*1start,
7:*2start,
7:*4start,
7:u3start,
10:*0bay-area,
10:*1bay-area,
10:*2bay-area,
10:*4bay-area,
7:*0order,
7:*1order,
7:*2order,
7:*4order,
6:*0it's,
6:*1it's,
6:*2it's,
6:*4it's,
5:*0445,
5:*1445,
5:*2445,
5:*4445,
7:*0515pm,
7:*1515pm,
7:*2515pm,
7:*4515pm,
5:u3445,
20:*0washington-airport,
20:*1washington-airport,
20:*2washington-airport,
20:*4washington-airport,
20:u3washington-airport,
25:*0maximum-number-of-stops,
25:*1maximum-number-of-stops,
25:*2maximum-number-of-stops,
25:*4maximum-number-of-stops,
8:u3locate,
11:*0hartfield,
11:*1hartfield,
11:*2hartfield,
11:*4hartfield,
9:*0travels,
9:*1travels,
9:*2travels,
9:*4travels,
9:u3travels,
6:*0late,
6:*1late,
6:*2late,
6:*4late,
6:u3late,
6:*0zone,
6:*1zone,
6:*2zone,
6:*4zone,
6:u3zone,
13:*0inexpensive,
13:*1inexpensive,
13:*2inexpensive,
13:*4inexpensive,
13:u3inexpensive,
11:*0currently,
11:*1currently,
11:*2currently,
11:*4currently,
11:u3currently,
5:*0530,
5:*1530,
5:*2530,
5:*4530,
6:*0must,
6:*1must,
6:*2must,
6:*4must,
6:u3must,
10:*0midnight,
10:*1midnight,
10:*2midnight,
10:*4midnight,
10:u3midnight,
6:*0land,
6:*1land,
6:*2land,
6:*4land,
6:u3land,
7:*0place,
7:*1place,
7:*2place,
7:*4place,
17:u3oakland-airport,
7:*0730pm,
7:*1730pm,
7:*2730pm,
7:*4730pm,
18:*0transcontinental,
18:*1transcontinental,
18:*2transcontinental,
18:*4transcontinental,
18:u3transcontinental,
8:*0across,
8:*1across,
8:*2across,
8:*4across,
11:*0continent,
11:*1continent,
11:*2continent,
11:*4continent,
8:u3across,
11:u3continent,
7:*0430pm,
7:*1430pm,
7:*2430pm,
7:*4430pm,
7:*0630pm,
7:*1630pm,
7:*2630pm,
7:*4630pm,
7:u3430pm,
6:*0gets,
6:*1gets,
6:*2gets,
6:*4gets,
6:u3gets,
7:*0month,
7:*1month,
7:*2month,
7:*4month,
7:u3month,
10:u3december,
10:*0connects,
10:*1connects,
10:*2connects,
10:*4connects,
10:u3connects,
14:*07-o'clock-pm,
14:*17-o'clock-pm,
14:*27-o'clock-pm,
14:*47-o'clock-pm,
10:*0vicinity,
10:*1vicinity,
10:*2vicinity,
10:*4vicinity,
10:u3vicinity,
8:*0begins,
8:*1begins,
8:*2begins,
8:*4begins,
8:u3begins,
7:*0lands,
7:*1lands,
7:*2lands,
7:*4lands,
7:u3lands,
7:*0don't,
7:*1don't,
7:*2don't,
7:*4don't,
11:*0stopovers,
11:*1stopovers,
11:*2stopovers,
7:u3don't,
11:*4stopovers,
11:u3stopovers,
16:*0city-in-dallas,
16:*1city-in-dallas,
16:*2city-in-dallas,
16:*4city-in-dallas,
5:*0757,
5:*1757,
5:*2757,
5:*4757,
5:u3757,
6:*01992,
6:*11992,
6:*21992,
6:*41992,
9:u3january,
6:u31992,
9:u3october,
15:*010-o'clock-pm,
15:*110-o'clock-pm,
15:*210-o'clock-pm,
15:*410-o'clock-pm,
14:u38-o'clock-pm,
8:u3define,
4:*0fn,
4:*1fn,
4:*2fn,
4:*4fn,
7:*0ap-55,
7:*1ap-55,
7:*2ap-55,
7:*4ap-55,
11:*0sixteenth,
11:*1sixteenth,
11:*2sixteenth,
11:*4sixteenth,
5:u3atl,
9:*0listing,
9:*1listing,
9:*2listing,
9:*4listing,
9:u3listing,
6:*02100,
6:*12100,
6:*22100,
6:*42100,
11:*04-o'clock,
11:*14-o'clock,
11:*24-o'clock,
11:*44-o'clock,
11:u34-o'clock,
15:*0twenty-fourth,
15:*1twenty-fourth,
15:*2twenty-fourth,
15:*4twenty-fourth,
5:*0746,
5:*1746,
5:*2746,
5:*4746,
4:u3hi,
3:*0q,
3:*1q,
3:*2q,
3:*4q,
11:*0overnight,
11:*1overnight,
11:*2overnight,
11:*4overnight,
11:u3overnight,
9:*0without,
9:*1without,
9:*2without,
9:*4without,
9:u3without,
14:u3pennsylvania,
12:u3wednesdays,
6:*01291,
6:*11291,
6:*21291,
6:*41291,
6:u31291,
5:*0271,
5:*1271,
5:*2271,
5:*4271,
5:u3271,
6:*0sort,
6:*1sort,
6:*2sort,
6:*4sort,
6:u3sort,
14:u36-o'clock-pm,
14:*07-o'clock-am,
14:*17-o'clock-am,
14:*27-o'clock-am,
14:*47-o'clock-am,
14:u37-o'clock-am,
14:*05-o'clock-am,
14:*15-o'clock-am,
14:*25-o'clock-am,
14:*45-o'clock-am,
14:u35-o'clock-am,
5:u37am,
14:*01500-dollars,
14:*11500-dollars,
14:*21500-dollars,
14:*41500-dollars,
14:*01100-dollars,
14:*11100-dollars,
14:*21100-dollars,
14:*41100-dollars,
4:*0up,
4:*1up,
4:*2up,
4:*4up,
4:u3up,
9:*0mondays,
9:*1mondays,
9:*2mondays,
9:*4mondays,
15:*0only-weekdays,
15:*1only-weekdays,
15:*2only-weekdays,
15:*4only-weekdays,
15:u3only-weekdays,
4:*0ap,
4:*1ap,
4:*2ap,
4:*4ap,
6:*0area,
6:*1area,
6:*2area,
6:*4area,
8:*0proper,
8:*1proper,
8:*2proper,
8:*4proper,
3:u3f,
13:u3rental-cars,
10:u3eleventh,
8:*0priced,
8:*1priced,
8:*2priced,
8:*4priced,
8:u3priced,
5:*0212,
5:*1212,
5:*2212,
5:*4212,
5:u3212,
10:*0anywhere,
10:*1anywhere,
10:*2anywhere,
10:*4anywhere,
6:*01850,
6:*11850,
6:*21850,
6:*41850,
10:u3anywhere,
6:u31850,
6:*01700,
6:*11700,
6:*21700,
6:*41700,
6:u31700,
5:*0217,
5:*1217,
5:*2217,
5:*4217,
5:u3217,
13:*0300-dollars,
13:*1300-dollars,
13:*2300-dollars,
13:*4300-dollars,
13:*0400-dollars,
13:*1400-dollars,
13:*2400-dollars,
13:*4400-dollars,
13:u3400-dollars,
6:*03357,
6:*13357,
6:*23357,
6:*43357,
6:u33357,
5:u3sfo,
8:*0summer,
8:*1summer,
8:*2summer,
8:*4summer,
5:*0non,
5:*1non,
5:*2non,
5:*4non,
5:u3non,
4:u3fn,
10:*0mornings,
10:*1mornings,
10:*2mornings,
10:*4mornings,
11:u3sixteenth,
14:*01000-dollars,
14:*11000-dollars,
14:*21000-dollars,
14:*41000-dollars,
6:*00900,
6:*10900,
6:*20900,
6:*40900,
6:*03724,
6:*13724,
6:*23724,
6:*43724,
6:u33724,
5:*0771,
5:*1771,
5:*2771,
5:*4771,
5:u3771,
18:*0flight-schedules,
18:*1flight-schedules,
18:*2flight-schedules,
18:*4flight-schedules,
18:u3flight-schedules,
9:*0include,
9:*1include,
9:*2include,
9:*4include,
14:u31000-dollars,
10:u3mornings,
9:*0whether,
9:*1whether,
9:*2whether,
9:*4whether,
9:u3include,
9:*0offered,
9:*1offered,
9:*2offered,
9:u3whether,
9:*4offered,
9:u3offered,
13:*0round-trips,
13:*1round-trips,
13:*2round-trips,
13:*4round-trips,
13:u3round-trips,
9:*0toronto,
9:*1toronto,
9:*2toronto,
9:*4toronto,
9:u3toronto,
4:*0ac,
4:*1ac,
4:*2ac,
4:*4ac,
4:u3ac,
10:*0new-york,
10:*1new-york,
10:*2new-york,
10:*4new-york,
10:u3new-york,
15:*0new-york-city,
15:*1new-york-city,
15:*2new-york-city,
15:*4new-york-city,
11:*0milwaukee,
11:*1milwaukee,
11:*2milwaukee,
11:*4milwaukee,
9:*0orlando,
9:*1orlando,
9:*2orlando,
9:*4orlando,
11:u3milwaukee,
9:u3orlando,
9:*0ontario,
9:*1ontario,
9:*2ontario,
9:*4ontario,
8:*0tacoma,
8:*1tacoma,
8:*2tacoma,
8:*4tacoma,
9:u3ontario,
8:u3tacoma,
13:*0minneapolis,
13:*1minneapolis,
13:*2minneapolis,
13:*4minneapolis,
11:*0san-diego,
11:*1san-diego,
11:*2san-diego,
11:*4san-diego,
13:u3minneapolis,
11:u3san-diego,
16:*0salt-lake-city,
16:*1salt-lake-city,
16:*2salt-lake-city,
16:*4salt-lake-city,
12:*0cincinnati,
12:*1cincinnati,
12:*2cincinnati,
12:*4cincinnati,
16:u3salt-lake-city,
12:u3cincinnati,
7:*0miami,
7:*1miami,
7:*2miami,
7:*4miami,
7:u3miami,
20:*0southwest-airlines,
20:*1southwest-airlines,
20:*2southwest-airlines,
20:*4southwest-airlines,
20:u3southwest-airlines,
9:*0phoenix,
9:*1phoenix,
9:*2phoenix,
9:*4phoenix,
9:u3phoenix,
12:*0la-guardia,
12:*1la-guardia,
12:*2la-guardia,
12:*4la-guardia,
8:*0dulles,
8:*1dulles,
8:*2dulles,
8:*4dulles,
8:u3dulles,
13:*0los-angeles,
13:*1los-angeles,
13:*2los-angeles,
13:*4los-angeles,
11:*0las-vegas,
11:*1las-vegas,
11:*2las-vegas,
11:*4las-vegas,
7:*0equal,
7:*1equal,
7:*2equal,
7:*4equal,
13:*0466-dollars,
13:*1466-dollars,
13:*2466-dollars,
13:*4466-dollars,
7:u3equal,
13:u3466-dollars,
13:*0932-dollars,
13:*1932-dollars,
13:*2932-dollars,
13:*4932-dollars,
7:*0along,
7:*1along,
7:*2along,
7:*4along,
7:u3along,
14:*0indianapolis,
14:*1indianapolis,
14:*2indianapolis,
14:*4indianapolis,
9:*0memphis,
9:*1memphis,
9:*2memphis,
9:*4memphis,
14:u3indianapolis,
9:*0burbank,
9:*1burbank,
9:*2burbank,
9:*4burbank,
9:u3burbank,
16:*0st.-petersburg,
16:*1st.-petersburg,
16:*2st.-petersburg,
16:*4st.-petersburg,
16:u3st.-petersburg,
15:*0abbreviations,
15:*1abbreviations,
15:*2abbreviations,
15:*4abbreviations,
10:*0san-jose,
10:*1san-jose,
10:*2san-jose,
10:*4san-jose,
10:u3san-jose,
24:*0salt-lake-city-airport,
24:*1salt-lake-city-airport,
24:*2salt-lake-city-airport,
24:*4salt-lake-city-airport,
24:u3salt-lake-city-airport,
7:*0tampa,
7:*1tampa,
7:*2tampa,
7:*4tampa,
11:*0st.-louis,
11:*1st.-louis,
11:*2st.-louis,
11:*4st.-louis,
7:u3tampa,
11:u3st.-louis,
9:*0houston,
9:*1houston,
9:*2houston,
9:*4houston,
9:u3houston,
9:*0symbols,
9:*1symbols,
9:*2symbols,
9:*4symbols,
9:u3symbols,
4:u3yn,
4:*0hp,
4:*1hp,
4:*2hp,
4:*4hp,
17:*0orlando-airport,
17:*1orlando-airport,
17:*2orlando-airport,
17:*4orlando-airport,
17:u3orlando-airport,
23:*0orlando-international,
23:*1orlando-international,
23:*2orlando-international,
23:*4orlando-international,
23:u3orlando-international,
5:*0417,
5:*1417,
5:*2417,
5:*4417,
5:u3417,
7:*0718am,
7:*1718am,
7:*2718am,
7:*4718am,
13:u3los-angeles,
25:*0minimum-connection-time,
25:*1minimum-connection-time,
25:*2minimum-connection-time,
25:*4minimum-connection-time,
26:*0houston-intercontinental,
26:*1houston-intercontinental,
26:*2houston-intercontinental,
26:*4houston-intercontinental,
25:u3minimum-connection-time,
6:*04400,
6:*14400,
6:*24400,
6:*44400,
6:u34400,
6:*01026,
6:*11026,
6:*21026,
6:*41026,
8:*0o'hare,
8:*1o'hare,
8:*2o'hare,
8:*4o'hare,
8:u3o'hare,
9:*0chicago,
9:*1chicago,
9:*2chicago,
9:*4chicago,
9:u3chicago,
10:*0montreal,
10:*1montreal,
10:*2montreal,
10:*4montreal,
13:*0150-dollars,
13:*1150-dollars,
13:*2150-dollars,
10:u3montreal,
13:*4150-dollars,
10:*0columbus,
10:*1columbus,
10:*2columbus,
10:*4columbus,
10:u3columbus,
10:*0st.-paul,
10:*1st.-paul,
10:*2st.-paul,
10:*4st.-paul,
8:*0newark,
8:*1newark,
8:*2newark,
8:*4newark,
11:*0cleveland,
11:*1cleveland,
11:*2cleveland,
11:*4cleveland,
8:u3newark,
11:u3cleveland,
12:*0new-jersey,
12:*1new-jersey,
12:*2new-jersey,
12:*4new-jersey,
12:u3new-jersey,
5:*0jfk,
5:*1jfk,
5:*2jfk,
5:*4jfk,
5:u3jfk,
12:u3la-guardia,
11:*0nashville,
11:*1nashville,
11:*2nashville,
11:*4nashville,
11:u3nashville,
10:*0weekdays,
10:*1weekdays,
10:*2weekdays,
10:*4weekdays,
20:*0westchester-county,
20:*1westchester-county,
20:*2westchester-county,
20:*4westchester-county,
20:u3westchester-county,
11:u3las-vegas,
4:*0ff,
4:*1ff,
4:*2ff,
4:*4ff,
11:*0tower-air,
11:*1tower-air,
11:*2tower-air,
11:*4tower-air,
11:u3tower-air,
12:*0long-beach,
12:*1long-beach,
12:*2long-beach,
12:*4long-beach,
12:u3long-beach,
6:*0ohio,
6:*1ohio,
6:*2ohio,
6:*4ohio,
4:*0sa,
4:*1sa,
4:*2sa,
4:*4sa,
9:*0seattle,
9:*1seattle,
9:*2seattle,
9:*4seattle,
9:u3seattle,
6:*01993,
6:*11993,
6:*21993,
6:*41993,
4:*0nw,
4:*1nw,
4:*2nw,
4:*4nw,
7:u3bring,
5:*0mco,
5:*1mco,
5:*2mco,
5:*4mco,
9:*0calling,
9:*1calling,
9:*2calling,
9:*4calling,
9:u3calling,
4:*0la,
4:*1la,
4:*2la,
4:*4la,
5:u3mco,
9:u3memphis,
6:*0i've,
6:*1i've,
6:*2i've,
6:*4i've,
5:*0got,
5:*1got,
5:*2got,
5:*4got,
10:*0somebody,
10:*1somebody,
10:*2somebody,
10:*4somebody,
6:*0else,
6:*1else,
6:*2else,
6:u3i've,
6:*4else,
5:u3got,
7:*0wants,
7:*1wants,
7:*2wants,
10:u3somebody,
7:*4wants,
6:u3else,
5:u3who,
7:u3wants,
11:*0charlotte,
11:*1charlotte,
11:*2charlotte,
11:*4charlotte,
11:u3charlotte,
13:*0kansas-city,
13:*1kansas-city,
13:*2kansas-city,
13:*4kansas-city,
12:*0difference,
12:*1difference,
12:*2difference,
12:*4difference,
12:u3difference,
3:u3q,
11:*0tennessee,
11:*1tennessee,
11:*2tennessee,
11:*4tennessee,
16:*0north-carolina,
16:*1north-carolina,
16:*2north-carolina,
11:u3tennessee,
16:*4north-carolina,
4:*0qo,
4:*1qo,
4:*2qo,
4:*4qo,
5:*0ewr,
5:*1ewr,
5:*2ewr,
5:*4ewr,
5:*0bur,
5:*1bur,
5:*2bur,
5:*4bur,
7:u3train,
8:*0laying,
8:*1laying,
8:*2laying,
8:*4laying,
8:u3laying,
12:*0air-canada,
12:*1air-canada,
12:*2air-canada,
12:*4air-canada,
12:u3air-canada,
11:*0minnesota,
11:*1minnesota,
11:*2minnesota,
11:*4minnesota,
8:*0stands,
8:*1stands,
8:*2stands,
8:*4stands,
8:u3stands,
13:u3kansas-city,
9:*0florida,
9:*1florida,
9:*2florida,
9:*4florida,
9:u3florida,
9:*0landing,
9:*1landing,
9:*2landing,
9:*4landing,
9:u3landing,
6:*0soon,
6:*1soon,
6:*2soon,
6:*4soon,
6:u3soon,
5:*0ten,
5:*1ten,
5:*2ten,
5:*4ten,
5:u3ten,
17:*0during-the-week,
17:*1during-the-week,
17:*2during-the-week,
17:*4during-the-week,
18:*0during-week-days,
18:*1during-week-days,
18:*2during-week-days,
18:*4during-week-days,
19:*0san-diego-airport,
19:*1san-diego-airport,
19:*2san-diego-airport,
19:*4san-diego-airport,
19:u3san-diego-airport,
9:u3instead,
32:*0as-soon-thereafter-as-possible,
32:*1as-soon-thereafter-as-possible,
32:*2as-soon-thereafter-as-possible,
32:*4as-soon-thereafter-as-possible,
4:u3nw,
17:*0phoenix-airport,
17:*1phoenix-airport,
17:*2phoenix-airport,
17:*4phoenix-airport,
17:u3phoenix-airport,
13:*0meal-code-s,
13:*1meal-code-s,
13:*2meal-code-s,
13:*4meal-code-s,
6:u3uses,
5:*0lax,
5:*1lax,
5:*2lax,
5:*4lax,
5:u3lax,
9:u3numbers,
6:u3ohio,
11:u3minnesota,
8:*0canada,
8:*1canada,
8:*2canada,
15:u3new-york-city,
8:*4canada,
8:u3canada,
10:*0listings,
10:*1listings,
10:*2listings,
10:*4listings,
10:u3listings,
10:*0missouri,
10:*1missouri,
10:*2missouri,
10:*4missouri,
6:*0utah,
6:*1utah,
6:*2utah,
10:u3missouri,
6:*4utah,
6:u3utah,
6:*01222,
6:*11222,
6:*21222,
6:*41222,
6:u31222,
12:*0preferably,
12:*1preferably,
12:*2preferably,
12:*4preferably,
12:u3preferably,
8:*0497766,
8:*1497766,
8:*2497766,
8:*4497766,
8:u3497766,
7:*0810pm,
7:*1810pm,
7:*2810pm,
7:*4810pm,
7:u3810pm,
16:u3north-carolina,
6:*0runs,
6:*1runs,
6:*2runs,
6:*4runs,
6:u3runs,
5:*0505,
5:*1505,
5:*2505,
5:*4505,
5:u3505,
8:*0that's,
8:*1that's,
8:*2that's,
8:*4that's,
8:u3dinner,
8:u3that's,
5:*0163,
5:*1163,
5:*2163,
5:*4163,
12:*0thirteenth,
12:*1thirteenth,
12:*2thirteenth,
12:*4thirteenth,
8:u3eighth,
10:*0includes,
10:*1includes,
10:*2includes,
10:*4includes,
10:u3includes,
17:*0alaska-airlines,
17:*1alaska-airlines,
17:*2alaska-airlines,
17:*4alaska-airlines,
17:u3alaska-airlines,
8:*0nevada,
8:*1nevada,
8:*2nevada,
8:*4nevada,
8:u3nevada,
9:*0detroit,
9:*1detroit,
9:*2detroit,
9:*4detroit,
10:*0michigan,
10:*1michigan,
10:*2michigan,
10:*4michigan,
9:u3detroit,
10:u3michigan,
10:*0actually,
10:*1actually,
10:*2actually,
10:*4actually,
10:u3actually,
13:*0westchester,
13:*1westchester,
13:*2westchester,
13:*4westchester,
13:u3westchester,
7:*0thing,
7:*1thing,
7:*2thing,
7:*4thing,
7:u3thing,
5:*0130,
5:*1130,
5:*2130,
5:*4130,
5:u3130,
9:u3another,
19:*0milwaukee-airport,
19:*1milwaukee-airport,
19:*2milwaukee-airport,
19:*4milwaukee-airport,
19:u3milwaukee-airport,
19:*0the-following-day,
19:*1the-following-day,
19:*2the-following-day,
19:*4the-following-day,
12:*0twenty-six,
12:*1twenty-six,
12:*2twenty-six,
12:*4twenty-six,
8:*0prefer,
8:*1prefer,
8:*2prefer,
8:*4prefer,
8:u3prefer,
8:*0quebec,
8:*1quebec,
8:*2quebec,
8:*4quebec,
8:u3quebec,
9:*0indiana,
9:*1indiana,
9:*2indiana,
9:*4indiana,
9:u3indiana,
10:*0reaching,
10:*1reaching,
10:*2reaching,
10:*4reaching,
10:u3reaching,
9:*0reaches,
9:*1reaches,
9:*2reaches,
9:*4reaches,
3:*07,
3:*17,
3:*27,
9:u3reaches,
3:*47,
3:u37,
11:*0following,
11:*1following,
11:*2following,
11:*4following,
11:u3following,
7:*0route,
7:*1route,
7:*2route,
7:*4route,
13:u3seventeenth,
12:u3fourteenth,
12:u3thirteenth,
6:*0date,
6:*1date,
6:*2date,
6:*4date,
6:u3date,
11:*0hopefully,
11:*1hopefully,
11:*2hopefully,
11:*4hopefully,
11:u3hopefully,
6:*0home,
6:*1home,
6:*2home,
6:*4home,
20:*0northwest-airlines,
20:*1northwest-airlines,
20:*2northwest-airlines,
20:*4northwest-airlines,
20:u3northwest-airlines,
6:*0days,
6:*1days,
6:*2days,
6:*4days,
6:u3days,
5:*0415,
5:*1415,
5:*2415,
5:*4415,
5:u3415,
9:*0arizona,
9:*1arizona,
9:*2arizona,
9:*4arizona,
9:u3arizona,
10:u3st.-paul,
11:*0northwest,
11:*1northwest,
11:*2northwest,
11:*4northwest,
11:u3northwest,
23:*0ontario-international,
23:*1ontario-international,
23:*2ontario-international,
23:*4ontario-international,
23:u3ontario-international,
9:*0friends,
9:*1friends,
9:*2friends,
9:*4friends,
9:u3friends,
17:*0toronto-airport,
17:*1toronto-airport,
17:*2toronto-airport,
17:*4toronto-airport,
14:u3twenty-sixth,
20:*0la-guardia-airport,
20:*1la-guardia-airport,
20:*2la-guardia-airport,
20:*4la-guardia-airport,
20:u3la-guardia-airport,
4:u3la,
8:*0single,
8:*1single,
8:*2single,
8:*4single,
8:u3single,
12:u3eighteenth,
9:*0red-eye,
9:*1red-eye,
9:*2red-eye,
9:*4red-eye,
9:u3red-eye,
9:u3twelfth,
12:*0twenty-two,
12:*1twenty-two,
12:*2twenty-two,
12:*4twenty-two,
14:*0america-west,
14:*1america-west,
14:*2america-west,
14:*4america-west,
11:*0southwest,
11:*1southwest,
11:*2southwest,
11:*4southwest,
14:u3america-west,
11:u3southwest,
12:u3twenty-two,
5:*0six,
5:*1six,
5:*2six,
5:*4six,
5:u3six,
11:*0salt-lake,
11:*1salt-lake,
11:*2salt-lake,
11:*4salt-lake,
9:*0tonight,
9:*1tonight,
9:*2tonight,
9:*4tonight,
9:u3tonight,
7:*0visit,
7:*1visit,
7:*2visit,
7:*4visit,
7:u3visit,
6:*0them,
6:*1them,
6:*2them,
6:*4them,
7:*0lives,
7:*1lives,
7:*2lives,
7:*4lives,
6:u3them,
7:u3lives,
5:u3530,
24:*0st.-petersburg-airport,
24:*1st.-petersburg-airport,
24:*2st.-petersburg-airport,
24:*4st.-petersburg-airport,
5:*0539,
5:*1539,
5:*2539,
5:*4539,
21:*0trans-world-airline,
21:*1trans-world-airline,
21:*2trans-world-airline,
21:*4trans-world-airline,
21:u3trans-world-airline,
8:*01030am,
8:*11030am,
8:*21030am,
8:*41030am,
8:*01130am,
8:*11130am,
8:*21130am,
8:*41130am,
8:u31030am,
8:*01115am,
8:*11115am,
8:*21115am,
8:*41115am,
8:*01245pm,
8:*11245pm,
8:*21245pm,
8:*41245pm,
8:u31115am,
3:*09,
3:*19,
3:*29,
3:*49,
3:u39,
18:*0at-the-same-time,
18:*1at-the-same-time,
18:*2at-the-same-time,
18:*4at-the-same-time,
12:*0new-york's,
12:*1new-york's,
12:*2new-york's,
12:*4new-york's,
31:*0toronto-international-airport,
31:*1toronto-international-airport,
31:*2toronto-international-airport,
31:*4toronto-international-airport,
31:u3toronto-international-airport,
35:*0los-angeles-international-airport,
35:*1los-angeles-international-airport,
35:*2los-angeles-international-airport,
35:*4los-angeles-international-airport,
35:u3los-angeles-international-airport,
37:*0san-francisco-international-airport,
37:*1san-francisco-international-airport,
37:*2san-francisco-international-airport,
37:*4san-francisco-international-airport,
37:u3san-francisco-international-airport,
9:*0closest,
9:*1closest,
9:*2closest,
9:*4closest,
9:u3closest,
4:*019,
4:*119,
4:*219,
4:*419,
4:u319,
5:*0845,
5:*1845,
5:*2845,
5:*4845,
5:u3845,
7:*0230pm,
7:*1230pm,
7:*2230pm,
7:*4230pm,
8:*0supper,
8:*1supper,
8:*2supper,
8:*4supper,
5:*0823,
5:*1823,
5:*2823,
5:*4823,
5:u3823,
6:*01024,
6:*11024,
6:*21024,
6:*41024,
6:u31024,
6:*01205,
6:*11205,
6:*21205,
6:*41205,
6:u31205,
5:*0305,
5:*1305,
5:*2305,
5:*4305,
5:u3305,
7:*0723pm,
7:*1723pm,
7:*2723pm,
7:*4723pm,
8:*01020pm,
8:*11020pm,
8:*21020pm,
8:*41020pm,
8:*0nights,
8:*1nights,
8:*2nights,
8:*4nights,
9:*0fridays,
9:*1fridays,
9:*2fridays,
9:*4fridays,
8:*01230pm,
8:*11230pm,
8:*21230pm,
8:*41230pm,
7:*0934pm,
7:*1934pm,
7:*2934pm,
7:*4934pm,
6:*02134,
6:*12134,
6:*22134,
6:*42134,
8:*0taking,
8:*1taking,
8:*2taking,
8:*4taking,
8:u3taking,
5:*0311,
5:*1311,
5:*2311,
5:*4311,
5:u3ewr,
14:*09-o'clock-pm,
14:*19-o'clock-pm,
14:*29-o'clock-pm,
14:*49-o'clock-pm,
14:u39-o'clock-pm,
10:*0nonstops,
10:*1nonstops,
10:*2nonstops,
10:*4nonstops,
10:u3nonstops,
7:*0vegas,
7:*1vegas,
7:*2vegas,
7:*4vegas,
7:u3vegas,
3:*0h,
3:*1h,
3:*2h,
3:*4h,
12:*01200-hours,
12:*11200-hours,
12:*21200-hours,
12:*41200-hours,
10:*0sunday's,
10:*1sunday's,
10:*2sunday's,
10:*4sunday's,
10:u3sunday's,
13:*0wednesday's,
13:*1wednesday's,
13:*2wednesday's,
13:*4wednesday's,
13:u3wednesday's,
10:u3friday's,
15:u3twenty-eighth,
17:u312-o'clock-noon,
5:*0mia,
5:*1mia,
5:*2mia,
5:*4mia,
5:*0bna,
5:*1bna,
5:*2bna,
5:*4bna,
5:*0ord,
5:*1ord,
5:*2ord,
5:*4ord,
6:*011pm,
6:*111pm,
6:*211pm,
6:*411pm,
10:*0february,
10:*1february,
10:*2february,
10:*4february,
21:*0continental-airline,
21:*1continental-airline,
21:*2continental-airline,
21:*4continental-airline,
7:*0march,
7:*1march,
7:*2march,
7:*4march,
10:u3february,
7:u3march,
12:*0love-field,
12:*1love-field,
12:*2love-field,
12:*4love-field,
19:*0northwest-airline,
19:*1northwest-airline,
19:*2northwest-airline,
19:*4northwest-airline,
19:u3northwest-airline,
5:*0iah,
5:*1iah,
5:*2iah,
5:*4iah,
5:*0hou,
5:*1hou,
5:*2hou,
5:*4hou,
12:u3love-field,
33:*0canadian-airlines-international,
33:*1canadian-airlines-international,
33:*2canadian-airlines-international,
33:*4canadian-airlines-international,
4:*0cp,
4:*1cp,
4:*2cp,
4:*4cp,
19:*0canadian-airlines,
19:*1canadian-airlines,
19:*2canadian-airlines,
19:*4canadian-airlines,
9:*0choices,
9:*1choices,
9:*2choices,
9:*4choices,
9:u3choices,
7:u3718am,
12:*0dinnertime,
12:*1dinnertime,
12:*2dinnertime,
12:*4dinnertime,
6:*01288,
6:*11288,
6:*21288,
6:*41288,
5:*0d10,
5:*1d10,
5:*2d10,
5:*4d10,
10:*0takeoffs,
10:*1takeoffs,
10:*2takeoffs,
10:*4takeoffs,
10:*0landings,
10:*1landings,
10:*2landings,
10:*4landings,
10:u3takeoffs,
32:*0general-mitchell-international,
32:*1general-mitchell-international,
32:*2general-mitchell-international,
32:*4general-mitchell-international,
10:u3landings,
40:*0general-mitchell-international-airport,
40:*1general-mitchell-international-airport,
40:*2general-mitchell-international-airport,
40:*4general-mitchell-international-airport,
5:*0off,
5:*1off,
5:*2off,
5:*4off,
5:u3off,
9:*0takeoff,
9:*1takeoff,
9:*2takeoff,
9:*4takeoff,
9:u3takeoff,
26:*0general-mitchell-airport,
26:*1general-mitchell-airport,
26:*2general-mitchell-airport,
26:*4general-mitchell-airport,
32:u3general-mitchell-international,
9:*0located,
9:*1located,
9:*2located,
9:*4located,
18:*0general-mitchell,
18:*1general-mitchell,
18:*2general-mitchell,
18:*4general-mitchell,
12:*0lunch-time,
12:*1lunch-time,
12:*2lunch-time,
12:*4lunch-time,
7:u3lunch,
11:*0nationair,
11:*1nationair,
11:*2nationair,
11:*4nationair,
11:u3nationair,
5:*0yyz,
5:*1yyz,
5:*2yyz,
5:*4yyz,
24:*0lester-pearson-airport,
24:*1lester-pearson-airport,
24:*2lester-pearson-airport,
24:*4lester-pearson-airport,
19:u3canadian-airlines,
33:u3canadian-airlines-international,
9:*0midwest,
9:*1midwest,
9:*2midwest,
9:*4midwest,
9:*0express,
9:*1express,
9:*2express,
9:*4express,
9:u3midwest,
9:u3express,
7:*0720am,
7:*1720am,
7:*2720am,
7:*4720am,
9:*0highest,
9:*1highest,
9:*2highest,
9:*4highest,
9:u3highest,
0=0x1.3c803685db4dfp+0
81=0x1.ae1a4f11c5a14p-1
243=0x1.fdb5c50da5927p-3
405=0x1.bd4d22c6336bbp-9
486=0x1.f58141d7d1df2p-2
1377=0x1.c92266c93c65bp-3
1458=0x1.23b3ce524c0c3p-1
2349=0x1.597178129beb3p-2
3321=0x1.b608e8603fe7p-3
6642=0x1.3c803685db4dfp+0
6723=0x1.ae1a4f11c5a14p-1
6885=0x1.fdb5c50da5927p-3
7047=0x1.bd4d22c6336bbp-9
7128=0x1.f58141d7d1df2p-2
8019=0x1.c92266c93c65bp-3
8100=0x1.23b3ce524c0c3p-1
8991=0x1.597178129beb3p-2
9963=0x1.b608e8603fe7p-3
13284=0x1.3c803685db4dfp+0
13365=0x1.ae1a4f11c5a14p-1
13527=0x1.fdb5c50da5927p-3
13689=0x1.bd4d22c6336bbp-9
13770=0x1.f58141d7d1df2p-2
14661=0x1.c92266c93c65bp-3
14742=0x1.23b3ce524c0c3p-1
15633=0x1.597178129beb3p-2
16605=0x1.b608e8603fe7p-3
19926=0x1.2b0cc80975b23p+2
19927=0x1.033efd48d7316p+1
19928=0x1.018b3e075651ep+1
19929=-0x1.b0b91c7bd2a77p-1
19930=-0x1.8652c6a634cfcp+0
19931=0x1.d99fe8f1ae859p-2
19932=0x1.1cb2c6c6eb71dp-2
19934=0x1.802034f68b00dp+0
19935=-0x1.7b779c3b14366p-2
19936=0x1.cdfff0e391aa9p-16
19937=-0x1.92d00d74f6ea5p-3
19938=0x1.8ec688154d18bp+0
19939=0x1.4154239fc761cp-1
19940=-0x1.cac086286473bp-2
19941=-0x1.5165c7897c8ecp-2
19942=0x1.f7448ac4c1c12p-1
19943=-0x1.35f99e9d5257ep+0
19945=-0x1.4a35554d0da07p+0
19946=0x1.6f74467b95285p+0
19947=-0x1.539e3360f147p+0
19948=-0x1.33d1fe6fe509bp+0
19949=0x1.6e8888267bbc1p-3
19951=-0x1.61d5b93bd2a76p-2
19952=-0x1.2dc686b61b2a5p-2
19953=-0x1.4a80b1cc47b37p-1
19954=0x1.41538cc6becf2p-2
19955=-0x1.6869ab56778fcp-1
19956=-0x1.50e8c9e611187p-1
19957=0x1.942cdd70bd577p+0
19959=-0x1.2f33e17ae3a54p+0
19961=-0x1.fdb7bf9950639p-3
19964=-0x1.13f38a2aaf1bep-3
19965=-0x1.152f36cc9ad66p-3
19966=-0x1.d20182752723ap-2
19967=-0x1.d09484bc5045bp-2
19969=-0x1.2d50a90e35dfap+0
19971=-0x1.e78af7b4682c2p-4
19974=-0x1.af225872fd23ap-2
19976=-0x1.16d3d3c216402p-2
19977=-0x1.a5db437021d05p-1
19979=-0x1.63ad955455ba7p-2
19981=-0x1.21d0cce62a236p-1
19982=-0x1.2e6fa9854f8cep-2
19989=-0x1.11ad481102bb9p-3
19990=-0x1.2dc06320d5781p-2
19992=-0x1.989caa48da2eep-2
20007=0x1.3c803685db4dfp+0
20088=0x1.ae1a4f11c5a14p-1
20250=0x1.fdb5c50da5927p-3
20412=0x1.bd4d22c6336bbp-9
20493=0x1.f58141d7d1df2p-2
21384=0x1.c92266c93c65bp-3
21465=0x1.23b3ce524c0c3p-1
22356=0x1.597178129beb3p-2
23328=0x1.b608e8603fe7p-3
26649=0x1.7f0f5eb276de5p-3
26650=0x1.fc9f7177262bdp-5
26651=0x1.ca001ff014671p-1
26652=0x1.9f58d773b8fc9p-2
26653=0x1.ba8f644acc1fcp-3
26654=0x1.dc3bb524ae1a2p-3
26657=0x1.7c81f0a11661ap-6
26660=0x1.814b3a1a7fc42p-9
26662=0x1.21d8b5e0f53ap-5
26663=0x1.10fe853e6eefp-2
26664=0x1.99e674eff9416p-4
26665=-0x1.7db14f81bdca1p-4
26666=0x1.d60abaa2da765p-3
26669=-0x1.78ba22f08d653p-5
26671=0x1.28555d4157d92p-2
26676=0x1.403177ed1d322p-3
26679=-0x1.28a5235e279d2p-4
26680=0x1.b6c0dec162ecep-3
26681=0x1.c62c2befc00c4p-4
26682=0x1.fc066afc43453p-2
26691=0x1.6330905733d34p-4
26693=0x1.11348a73d69b8p-4
26698=0x1.3ac6a578c4724p-3
26702=-0x1.c92de8230204bp-4
26705=0x1.c4f274e4b04a7p-4
26709=0x1.b3bef35288a04p-2
26711=0x1.403ab6e4040eap-3
26725=0x1.59ed078cbb12fp-3
26730=0x1.050b2f74f4019p+0
26731=0x1.e95a0e910cabap-3
26732=0x1.e3de117fb9f7ep-1
26733=0x1.5e648ae842994p-2
26734=0x1.41d87eaea3c2dp-1
26735=0x1.2439f60927b96p-1
26736=0x1.146a9e019fc34p-1
26738=0x1.c3415f7652c98p-2
26743=0x1.5769fa0c0097p-4
26744=-0x1.dd615ae9b5fcfp-4
26745=0x1.8357324249ffcp-2
26747=-0x1.1a91e3b6889b1p-9
26752=0x1.987035c70391p-1
26757=0x1.f514573b2a511p-3
26761=-0x1.c24f7b9c89dadp-9
26762=0x1.f4a007850437cp-3
26763=0x1.46ca086a5548dp-2
26772=0x1.354bcebb34322p-1
26779=0x1.f7a8199c6dc91p-3
26790=0x1.26701e8360ae7p-1
26792=0x1.f52af46233b2p-3
26811=0x1.3af84c3d481bp-1
26892=0x1.28e939d7a7654p+0
26894=-0x1.e1e8aa3ada4a5p-2
26895=0x1.0df8b0f26b869p+0
26906=0x1.5c4e2c2113884p+0
26914=0x1.0cda88ef4278ep-3
27054=0x1.1473d2c43b0a4p-1
27087=0x1.c50daa1f57186p-2
27096=0x1.1d1db9665e423p-3
27110=0x1.4b7de95ecfe16p-1
27137=0x1.a77b1d9793aa1p-6
27216=0x1.fb8d523e3cdb2p-2
27378=0x1.ebbc13f2622a3p-1
27380=0x1.211f7c466552ap-3
27542=-0x1.8ab18fe71a8a3p-5
27551=0x1.4fc3ee17f6f99p-1
27621=0x1.208846f0b4facp-2
27702=0x1.42b6e62a642dep-1
27704=-0x1.9f445bd35caa2p-5
27735=0x1.3c471a0752ff3p-1
27945=0x1.388fab19ac40cp-2
28028=-0x1.637bf9b2d3232p-5
28070=0x1.e64e6b816df5p-2
28109=0x1.b5be7b628b4c4p-2
28205=0x1.58bedb023cb7dp+0
28350=0x1.21038540877b4p-2
28352=0x1.8b88016a191f6p-2
28998=0x1.43bf7aa419579p-3
29081=0x1.ff79caeb9ee7ep-2
29241=0x1.236eea84f9b39p-2
29565=0x1.4b0e33668e1a1p-2
30053=0x1.d4625f1280724p-4
30375=0x1.481d83d545848p-2
31268=0x1.0f7cb296fc72bp-2
31288=0x1.c16624aee1d79p-2
31326=0x1.512330cb1c8fp-1
32881=0x1.5546ae2e1563p-1
33291=0x1.7f0f5eb276de5p-3
33292=0x1.fc9f7177262bdp-5
33293=0x1.ca001ff014671p-1
33294=0x1.9f58d773b8fc9p-2
33295=0x1.ba8f644acc1fcp-3
33296=0x1.dc3bb524ae1a2p-3
33299=0x1.7c81f0a11661ap-6
33302=0x1.814b3a1a7fc42p-9
33304=0x1.21d8b5e0f53ap-5
33305=0x1.10fe853e6eefp-2
33306=0x1.99e674eff9416p-4
33307=-0x1.7db14f81bdca1p-4
33308=0x1.d60abaa2da765p-3
33311=-0x1.78ba22f08d653p-5
33313=0x1.28555d4157d92p-2
33318=0x1.403177ed1d322p-3
33321=-0x1.28a5235e279d2p-4
33322=0x1.b6c0dec162ecep-3
33323=0x1.c62c2befc00c4p-4
33324=0x1.fc066afc43453p-2
33333=0x1.6330905733d34p-4
33335=0x1.11348a73d69b8p-4
33340=0x1.3ac6a578c4724p-3
33344=-0x1.c92de8230204bp-4
33347=0x1.c4f274e4b04a7p-4
33351=0x1.b3bef35288a04p-2
33353=0x1.403ab6e4040eap-3
33367=0x1.59ed078cbb12fp-3
33372=0x1.050b2f74f4019p+0
33373=0x1.e95a0e910cabap-3
33374=0x1.e3de117fb9f7ep-1
33375=0x1.5e648ae842994p-2
33376=0x1.41d87eaea3c2dp-1
33377=0x1.2439f60927b96p-1
33378=0x1.146a9e019fc34p-1
33380=0x1.c3415f7652c98p-2
33385=0x1.5769fa0c0097p-4
33386=-0x1.dd615ae9b5fcfp-4
33387=0x1.8357324249ffcp-2
33389=-0x1.1a91e3b6889b1p-9
33394=0x1.987035c70391p-1
33399=0x1.f514573b2a511p-3
33403=-0x1.c24f7b9c89dadp-9
33404=0x1.f4a007850437cp-3
33405=0x1.46ca086a5548dp-2
33414=0x1.354bcebb34322p-1
33421=0x1.f7a8199c6dc91p-3
33432=0x1.26701e8360ae7p-1
33434=0x1.f52af46233b2p-3
33453=0x1.3af84c3d481bp-1
33534=0x1.28e939d7a7654p+0
33536=-0x1.e1e8aa3ada4a5p-2
33537=0x1.0df8b0f26b869p+0
33548=0x1.5c4e2c2113884p+0
33556=0x1.0cda88ef4278ep-3
33696=0x1.1473d2c43b0a4p-1
33729=0x1.c50daa1f57186p-2
33738=0x1.1d1db9665e423p-3
33752=0x1.4b7de95ecfe16p-1
33779=0x1.a77b1d9793aa1p-6
33858=0x1.fb8d523e3cdb2p-2
34020=0x1.ebbc13f2622a3p-1
34022=0x1.211f7c466552ap-3
34184=-0x1.8ab18fe71a8a3p-5
34193=0x1.4fc3ee17f6f99p-1
34263=0x1.208846f0b4facp-2
34344=0x1.42b6e62a642dep-1
34346=-0x1.9f445bd35caa2p-5
34377=0x1.3c471a0752ff3p-1
34587=0x1.388fab19ac40cp-2
34670=-0x1.637bf9b2d3232p-5
34712=0x1.e64e6b816df5p-2
34751=0x1.b5be7b628b4c4p-2
34847=0x1.58bedb023cb7dp+0
34992=0x1.21038540877b4p-2
34994=0x1.8b88016a191f6p-2
35640=0x1.43bf7aa419579p-3
35723=0x1.ff79caeb9ee7ep-2
35883=0x1.236eea84f9b39p-2
36207=0x1.4b0e33668e1a1p-2
36695=0x1.d4625f1280724p-4
37017=0x1.481d83d545848p-2
37910=0x1.0f7cb296fc72bp-2
37930=0x1.c16624aee1d79p-2
37968=0x1.512330cb1c8fp-1
39523=0x1.5546ae2e1563p-1
39933=0x1.7f0f5eb276de5p-3
39934=0x1.fc9f7177262bdp-5
39935=0x1.ca001ff014671p-1
39936=0x1.9f58d773b8fc9p-2
39937=0x1.ba8f644acc1fcp-3
39938=0x1.dc3bb524ae1a2p-3
39941=0x1.7c81f0a11661ap-6
39944=0x1.814b3a1a7fc42p-9
39946=0x1.21d8b5e0f53ap-5
39947=0x1.10fe853e6eefp-2
39948=0x1.99e674eff9416p-4
39949=-0x1.7db14f81bdca1p-4
39950=0x1.d60abaa2da765p-3
39953=-0x1.78ba22f08d653p-5
39955=0x1.28555d4157d92p-2
39960=0x1.403177ed1d322p-3
39963=-0x1.28a5235e279d2p-4
39964=0x1.b6c0dec162ecep-3
39965=0x1.c62c2befc00c4p-4
39966=0x1.fc066afc43453p-2
39975=0x1.6330905733d34p-4
39977=0x1.11348a73d69b8p-4
39982=0x1.3ac6a578c4724p-3
39986=-0x1.c92de8230204bp-4
39989=0x1.c4f274e4b04a7p-4
39993=0x1.b3bef35288a04p-2
39995=0x1.403ab6e4040eap-3
40009=0x1.59ed078cbb12fp-3
40014=0x1.050b2f74f4019p+0
40015=0x1.e95a0e910cabap-3
40016=0x1.e3de117fb9f7ep-1
40017=0x1.5e648ae842994p-2
40018=0x1.41d87eaea3c2dp-1
40019=0x1.2439f60927b96p-1
40020=0x1.146a9e019fc34p-1
40022=0x1.c3415f7652c98p-2
40027=0x1.5769fa0c0097p-4
40028=-0x1.dd615ae9b5fcfp-4
40029=0x1.8357324249ffcp-2
40031=-0x1.1a91e3b6889b1p-9
40036=0x1.987035c70391p-1
40041=0x1.f514573b2a511p-3
40045=-0x1.c24f7b9c89dadp-9
40046=0x1.f4a007850437cp-3
40047=0x1.46ca086a5548dp-2
40056=0x1.354bcebb34322p-1
40063=0x1.f7a8199c6dc91p-3
40074=0x1.26701e8360ae7p-1
40076=0x1.f52af46233b2p-3
40095=0x1.3af84c3d481bp-1
40176=0x1.28e939d7a7654p+0
40178=-0x1.e1e8aa3ada4a5p-2
40179=0x1.0df8b0f26b869p+0
40190=0x1.5c4e2c2113884p+0
40198=0x1.0cda88ef4278ep-3
40338=0x1.1473d2c43b0a4p-1
40371=0x1.c50daa1f57186p-2
40380=0x1.1d1db9665e423p-3
40394=0x1.4b7de95ecfe16p-1
40421=0x1.a77b1d9793aa1p-6
40500=0x1.fb8d523e3cdb2p-2
40662=0x1.ebbc13f2622a3p-1
40664=0x1.211f7c466552ap-3
40826=-0x1.8ab18fe71a8a3p-5
40835=0x1.4fc3ee17f6f99p-1
40905=0x1.208846f0b4facp-2
40986=0x1.42b6e62a642dep-1
40988=-0x1.9f445bd35caa2p-5
41019=0x1.3c471a0752ff3p-1
41229=0x1.388fab19ac40cp-2
41312=-0x1.637bf9b2d3232p-5
41354=0x1.e64e6b816df5p-2
41393=0x1.b5be7b628b4c4p-2
41489=0x1.58bedb023cb7dp+0
41634=0x1.21038540877b4p-2
41636=0x1.8b88016a191f6p-2
42282=0x1.43bf7aa419579p-3
42365=0x1.ff79caeb9ee7ep-2
42525=0x1.236eea84f9b39p-2
42849=0x1.4b0e33668e1a1p-2
43337=0x1.d4625f1280724p-4
43659=0x1.481d83d545848p-2
44552=0x1.0f7cb296fc72bp-2
44572=0x1.c16624aee1d79p-2
44610=0x1.512330cb1c8fp-1
46165=0x1.5546ae2e1563p-1
46575=0x1.ddb93becb6d73p+1
46576=0x1.41f4dc741e4a6p-5
46577=0x1.802c3d5c687dp-2
46578=-0x1.3826d67e66637p-3
46579=-0x1.24bab5a4f8d24p+1
46580=0x1.0c5260e8e5034p-1
46581=0x1.b5f0104fae993p-1
46583=0x1.8381e55e6ee52p+0
46584=0x1.6af475053131ep+0
46585=-0x1.f6422f2b30e0dp-2
46587=0x1.88b2643e3f5fep-3
46588=0x1.11a2574edcabcp-1
46589=-0x1.26a322093501p-3
46590=-0x1.0824d7bde9debp-1
46591=0x1.b274412cc2228p+0
46593=0x1.2fa35b488dd2fp+0
46594=-0x1.0a408a47bccfdp+1
46595=0x1.03fe99c9d7678p-2
46596=-0x1.3967eef549295p-2
46597=-0x1.521d9d7e7084ap-1
46598=0x1.1575006aab36cp+0
46599=-0x1.36aa9c4c3c0a5p-3
46600=-0x1.27619b5e70a29p-3
46601=-0x1.24c6bac775e68p-3
46602=-0x1.5069a623d9e6dp-1
46603=0x1.abd51264bbc8fp-4
46604=0x1.b322309bd54bdp+0
46605=-0x1.d6c33db9c7494p-3
46606=0x1.64c63411a61ddp-2
46608=-0x1.451089dd9d966p-1
46609=-0x1.36ee72d243724p-3
46610=-0x1.4865bf3256e47p-3
46611=-0x1.3486543f15c52p-3
46612=-0x1.3561fe03edceep-3
46613=-0x1.0e5e665c8c683p-7
46615=-0x1.3d5d3eee0419ep-3
46617=-0x1.2d0bbfe33dd1dp-3
46618=0x1.18538f12c6214p-5
46619=-0x1.37bc5f18b0cbep-3
46620=0x1.2ca69e133bd7fp-4
46621=-0x1.37fadbeeec7e9p-3
46622=-0x1.34f148ab6d635p-3
46623=-0x1.4703318336e53p-2
46624=-0x1.cbe2b3cac5073p-3
46625=0x1.aae340da16833p+0
46626=-0x1.0283d57f5fa6fp-1
46627=-0x1.7b839b878f747p-2
46628=-0x1.dcf4f5ffe6e76p-2
46629=-0x1.374c86eacebbfp-3
46630=-0x1.294af437738c9p-3
46631=0x1.f7445f4966dd6p-3
46632=-0x1.17f2ba9c9eaccp+0
46633=-0x1.be094764c035p-2
46634=-0x1.37d7945b52058p-3
46636=-0x1.186ce6bc580a9p-3
46637=0x1.d83475d2479a6p-7
46638=-0x1.36e127f77ce42p-3
46639=-0x1.20d767f9e7336p-3
46640=-0x1.eb22dbe84e0e6p-4
46641=-0x1.2020df502de89p-3
46642=-0x1.34b187fe4a639p-3
46643=-0x1.349ef7ad49996p-3
46644=-0x1.34fba7824f344p-3
46645=-0x1.35176056d2888p-3
46646=-0x1.37363ad67f753p-3
46647=-0x1.3499f5d3b812bp-3
46648=-0x1.3499f4edf2972p-3
46649=-0x1.34d6515d611abp-3
46650=-0x1.349f1ad935219p-3
46651=-0x1.353e571803e7ep-3
46652=-0x1.35691dfb4a7bp-3
46653=-0x1.34921fd41c341p-3
46654=-0x1.34fee2dc8f703p-3
46655=-0x1.34c268defbb21p-3
46656=0x1.7f0f5eb276de5p-3
46657=0x1.fc9f7177262bdp-5
46658=0x1.ca001ff014671p-1
46659=0x1.9f58d773b8fc9p-2
46660=0x1.ba8f644acc1fcp-3
46661=0x1.dc3bb524ae1a2p-3
46664=0x1.7c81f0a11661ap-6
46667=0x1.814b3a1a7fc42p-9
46669=0x1.21d8b5e0f53ap-5
46670=0x1.10fe853e6eefp-2
46671=0x1.99e674eff9416p-4
46672=-0x1.7db14f81bdca1p-4
46673=0x1.d60abaa2da765p-3
46676=-0x1.78ba22f08d653p-5
46678=0x1.28555d4157d92p-2
46683=0x1.403177ed1d322p-3
46686=-0x1.28a5235e279d2p-4
46687=0x1.b6c0dec162ecep-3
46688=0x1.c62c2befc00c4p-4
46689=0x1.fc066afc43453p-2
46698=0x1.6330905733d34p-4
46700=0x1.11348a73d69b8p-4
46705=0x1.3ac6a578c4724p-3
46709=-0x1.c92de8230204bp-4
46712=0x1.c4f274e4b04a7p-4
46716=0x1.b3bef35288a04p-2
46718=0x1.403ab6e4040eap-3
46732=0x1.59ed078cbb12fp-3
46737=0x1.050b2f74f4019p+0
46738=0x1.e95a0e910cabap-3
46739=0x1.e3de117fb9f7ep-1
46740=0x1.5e648ae842994p-2
46741=0x1.41d87eaea3c2dp-1
46742=0x1.2439f60927b96p-1
46743=0x1.146a9e019fc34p-1
46745=0x1.c3415f7652c98p-2
46750=0x1.5769fa0c0097p-4
46751=-0x1.dd615ae9b5fcfp-4
46752=0x1.8357324249ffcp-2
46754=-0x1.1a91e3b6889b1p-9
46759=0x1.987035c70391p-1
46764=0x1.f514573b2a511p-3
46768=-0x1.c24f7b9c89dadp-9
46769=0x1.f4a007850437cp-3
46770=0x1.46ca086a5548dp-2
46779=0x1.354bcebb34322p-1
46786=0x1.f7a8199c6dc91p-3
46797=0x1.26701e8360ae7p-1
46799=0x1.f52af46233b2p-3
46818=0x1.3af84c3d481bp-1
46899=0x1.28e939d7a7654p+0
46901=-0x1.e1e8aa3ada4a5p-2
46902=0x1.0df8b0f26b869p+0
46913=0x1.5c4e2c2113884p+0
46921=0x1.0cda88ef4278ep-3
47061=0x1.1473d2c43b0a4p-1
47094=0x1.c50daa1f57186p-2
47103=0x1.1d1db9665e423p-3
47117=0x1.4b7de95ecfe16p-1
47144=0x1.a77b1d9793aa1p-6
47223=0x1.fb8d523e3cdb2p-2
47385=0x1.ebbc13f2622a3p-1
47387=0x1.211f7c466552ap-3
47549=-0x1.8ab18fe71a8a3p-5
47558=0x1.4fc3ee17f6f99p-1
47628=0x1.208846f0b4facp-2
47709=0x1.42b6e62a642dep-1
47711=-0x1.9f445bd35caa2p-5
47742=0x1.3c471a0752ff3p-1
47952=0x1.388fab19ac40cp-2
48035=-0x1.637bf9b2d3232p-5
48077=0x1.e64e6b816df5p-2
48116=0x1.b5be7b628b4c4p-2
48212=0x1.58bedb023cb7dp+0
48357=0x1.21038540877b4p-2
48359=0x1.8b88016a191f6p-2
49005=0x1.43bf7aa419579p-3
49088=0x1.ff79caeb9ee7ep-2
49248=0x1.236eea84f9b39p-2
49572=0x1.4b0e33668e1a1p-2
50060=0x1.d4625f1280724p-4
50382=0x1.481d83d545848p-2
51275=0x1.0f7cb296fc72bp-2
51295=0x1.c16624aee1d79p-2
51333=0x1.512330cb1c8fp-1
52888=0x1.5546ae2e1563p-1
53298=0x1.86d30d5287224p-2
53302=0x1.97ec73049b949p-3
53369=0x1.0695af60c1628p-1
53379=0x1.0eb061fd0a542p-1
53383=0x1.ab2b71a01e242p-2
53450=0x1.34784e222c4eep-1
53541=-0x1.64c7f2096a54fp-2
53703=0x1.e320b4e72e48fp-3
53946=0x1.4ccf6ec3fcb1p-1
59940=0x1.86d30d5287224p-2
59944=0x1.97ec73049b949p-3
60011=0x1.0695af60c1628p-1
60021=0x1.0eb061fd0a542p-1
60025=0x1.ab2b71a01e242p-2
60092=0x1.34784e222c4eep-1
60183=-0x1.64c7f2096a54fp-2
60345=0x1.e320b4e72e48fp-3
60588=0x1.4ccf6ec3fcb1p-1
66582=0x1.86d30d5287224p-2
66586=0x1.97ec73049b949p-3
66653=0x1.0695af60c1628p-1
66663=0x1.0eb061fd0a542p-1
66667=0x1.ab2b71a01e242p-2
66734=0x1.34784e222c4eep-1
66825=-0x1.64c7f2096a54fp-2
66987=0x1.e320b4e72e48fp-3
67230=0x1.4ccf6ec3fcb1p-1
73224=0x1.6d625fd156c7ep+2
73232=0x1.33bc0a1fcf42dp-6
73236=-0x1.1349654df652ap-1
73266=0x1.3bdf9e32bf16bp-2
73305=0x1.86d30d5287224p-2
73309=0x1.97ec73049b949p-3
73376=0x1.0695af60c1628p-1
73386=0x1.0eb061fd0a542p-1
73390=0x1.ab2b71a01e242p-2
73457=0x1.34784e222c4eep-1
73548=-0x1.64c7f2096a54fp-2
73710=0x1.e320b4e72e48fp-3
73953=0x1.4ccf6ec3fcb1p-1
79947=0x1.5cae33a10ae02p+0
79951=0x1.1052afabe2aa4p-2
79952=0x1.1eefbb8110cbfp-1
79956=0x1.471e053609632p-5
79960=0x1.c3381043a67b4p-3
79962=0x1.f1bb570ea465fp-4
79963=-0x1.5e8668d3e953ep-6
79965=0x1.023ab1d31701fp-4
79968=0x1.d7de954d2049ep-2
79974=0x1.03dc2af60d2f5p-3
79980=0x1.fe5e3eeec0b74p-3
80003=0x1.581e47360f6abp-2
80028=0x1.4110f29c7b69ep-2
80032=0x1.de450e5c5b21cp-2
80033=0x1.3149b3e8151e6p-1
80037=0x1.392ad2e67a2ebp-4
80041=0x1.b5234fbaadc0ep-3
80043=0x1.d48241fc273c4p-4
80044=-0x1.9b815c2faeeb3p-9
80046=0x1.fdd6d221a38e6p-5
80049=-0x1.1cd7bcf22502dp-6
80055=0x1.b45adafa5cf4ap-6
80061=0x1.b4eff4cf98f6dp-2
80081=0x1.b25e68e875f06p-3
80190=0x1.cbe7a537de881p-2
80352=0x1.31b0d84e9a0dap-1
80433=0x1.1d7bbe3a972a9p-3
80595=-0x1.183c585c8d067p-4
80676=0x1.605034b8484cbp-9
80757=0x1.103531b0f6129p-1
80919=0x1.0e3a7e50c136dp-1
81081=-0x1.89f9702b52a5bp-4
81243=0x1.16d8b513ef6a6p-2
81324=0x1.f73f956b33f4dp-3
81405=0x1.ae009126bb332p-3
81461=0x1.4658fdbf9420cp-1
81567=-0x1.87fa1f6fc671p-3
81729=0x1.70d580c563bbap-1
81810=0x1.2ef1eaf1c11e3p-1
82134=0x1.e168e282ceb45p-9
82215=0x1.c2a1187163059p-2
82458=-0x1.2e5ed7f58e4efp-7
82539=-0x1.260d8bf510bb1p-8
82620=0x1.2256ba85e12dfp-5
82701=0x1.fee143dbbf8ddp-2
83025=0x1.1067865513f89p-4
83268=0x1.c60b25086465cp-2
83349=0x1.7b894eacd6914p-5
83430=0x1.9c1f9cd1a3fa4p-6
83457=0x1.e21110473cf33p-2
84564=0x1.25fb09582599cp-7
84569=0x1.54a86bc0db69cp-1
84585=0x1.56ef20ca33ff9p-1
84726=-0x1.1d554c14222ecp-8
84807=0x1.cb35fdee3dbecp-5
85131=0x1.1f91fc6e26adp-2
85233=0x1.575846f4fac75p-1
85374=0x1.37577e1a90ce1p-2
86589=0x1.5cae33a10ae02p+0
86593=0x1.1052afabe2aa4p-2
86594=0x1.1eefbb8110cbfp-1
86598=0x1.471e053609632p-5
86602=0x1.c3381043a67b4p-3
86604=0x1.f1bb570ea465fp-4
86605=-0x1.5e8668d3e953ep-6
86607=0x1.023ab1d31701fp-4
86610=0x1.d7de954d2049ep-2
86616=0x1.03dc2af60d2f5p-3
86622=0x1.fe5e3eeec0b74p-3
86645=0x1.581e47360f6abp-2
86670=0x1.4110f29c7b69ep-2
86674=0x1.de450e5c5b21cp-2
86675=0x1.3149b3e8151e6p-1
86679=0x1.392ad2e67a2ebp-4
86683=0x1.b5234fbaadc0ep-3
86685=0x1.d48241fc273c4p-4
86686=-0x1.9b815c2faeeb3p-9
86688=0x1.fdd6d221a38e6p-5
86691=-0x1.1cd7bcf22502dp-6
86697=0x1.b45adafa5cf4ap-6
86703=0x1.b4eff4cf98f6dp-2
86723=0x1.b25e68e875f06p-3
86832=0x1.cbe7a537de881p-2
86994=0x1.31b0d84e9a0dap-1
87075=0x1.1d7bbe3a972a9p-3
87237=-0x1.183c585c8d067p-4
87318=0x1.605034b8484cbp-9
87399=0x1.103531b0f6129p-1
87561=0x1.0e3a7e50c136dp-1
87723=-0x1.89f9702b52a5bp-4
87885=0x1.16d8b513ef6a6p-2
87966=0x1.f73f956b33f4dp-3
88047=0x1.ae009126bb332p-3
88103=0x1.4658fdbf9420cp-1
88209=-0x1.87fa1f6fc671p-3
88371=0x1.70d580c563bbap-1
88452=0x1.2ef1eaf1c11e3p-1
88776=0x1.e168e282ceb45p-9
88857=0x1.c2a1187163059p-2
89100=-0x1.2e5ed7f58e4efp-7
89181=-0x1.260d8bf510bb1p-8
89262=0x1.2256ba85e12dfp-5
89343=0x1.fee143dbbf8ddp-2
89667=0x1.1067865513f89p-4
89910=0x1.c60b25086465cp-2
89991=0x1.7b894eacd6914p-5
90072=0x1.9c1f9cd1a3fa4p-6
90099=0x1.e21110473cf33p-2
91206=0x1.25fb09582599cp-7
91211=0x1.54a86bc0db69cp-1
91227=0x1.56ef20ca33ff9p-1
91368=-0x1.1d554c14222ecp-8
91449=0x1.cb35fdee3dbecp-5
91773=0x1.1f91fc6e26adp-2
91875=0x1.575846f4fac75p-1
92016=0x1.37577e1a90ce1p-2
93231=0x1.5cae33a10ae02p+0
93235=0x1.1052afabe2aa4p-2
93236=0x1.1eefbb8110cbfp-1
93240=0x1.471e053609632p-5
93244=0x1.c3381043a67b4p-3
93246=0x1.f1bb570ea465fp-4
93247=-0x1.5e8668d3e953ep-6
93249=0x1.023ab1d31701fp-4
93252=0x1.d7de954d2049ep-2
93258=0x1.03dc2af60d2f5p-3
93264=0x1.fe5e3eeec0b74p-3
93287=0x1.581e47360f6abp-2
93312=0x1.4110f29c7b69ep-2
93316=0x1.de450e5c5b21cp-2
93317=0x1.3149b3e8151e6p-1
93321=0x1.392ad2e67a2ebp-4
93325=0x1.b5234fbaadc0ep-3
93327=0x1.d48241fc273c4p-4
93328=-0x1.9b815c2faeeb3p-9
93330=0x1.fdd6d221a38e6p-5
93333=-0x1.1cd7bcf22502dp-6
93339=0x1.b45adafa5cf4ap-6
93345=0x1.b4eff4cf98f6dp-2
93365=0x1.b25e68e875f06p-3
93474=0x1.cbe7a537de881p-2
93636=0x1.31b0d84e9a0dap-1
93717=0x1.1d7bbe3a972a9p-3
93879=-0x1.183c585c8d067p-4
93960=0x1.605034b8484cbp-9
94041=0x1.103531b0f6129p-1
94203=0x1.0e3a7e50c136dp-1
94365=-0x1.89f9702b52a5bp-4
94527=0x1.16d8b513ef6a6p-2
94608=0x1.f73f956b33f4dp-3
94689=0x1.ae009126bb332p-3
94745=0x1.4658fdbf9420cp-1
94851=-0x1.87fa1f6fc671p-3
95013=0x1.70d580c563bbap-1
95094=0x1.2ef1eaf1c11e3p-1
95418=0x1.e168e282ceb45p-9
95499=0x1.c2a1187163059p-2
95742=-0x1.2e5ed7f58e4efp-7
95823=-0x1.260d8bf510bb1p-8
95904=0x1.2256ba85e12dfp-5
95985=0x1.fee143dbbf8ddp-2
96309=0x1.1067865513f89p-4
96552=0x1.c60b25086465cp-2
96633=0x1.7b894eacd6914p-5
96714=0x1.9c1f9cd1a3fa4p-6
96741=0x1.e21110473cf33p-2
97848=0x1.25fb09582599cp-7
97853=0x1.54a86bc0db69cp-1
97869=0x1.56ef20ca33ff9p-1
98010=-0x1.1d554c14222ecp-8
98091=0x1.cb35fdee3dbecp-5
98415=0x1.1f91fc6e26adp-2
98517=0x1.575846f4fac75p-1
98658=0x1.37577e1a90ce1p-2
99873=0x1.3df83ca4fd787p+1
99874=0x1.b0ac51c743fa1p-1
99875=-0x1.c5b65d23d3cd6p+1
99877=-0x1.4e28bdda76aacp+1
99878=-0x1.7871a94d593efp+0
99879=0x1.589df5cde8edcp+0
99881=-0x1.01e92345db1ebp-5
99882=0x1.1e9273dc32456p+1
99884=-0x1.64f9f8434c7efp-3
99885=0x1.313491f7606d3p-2
99886=0x1.f719b3d51de3ap-1
99889=0x1.0bd0efb26be7bp+0
99890=-0x1.0f8c8e9a02e16p-6
99892=-0x1.e82d611059ef8p-4
99893=-0x1.b282f0a61938dp-1
99896=0x1.5f741d9fc9cc8p+0
99901=0x1.b6a3e729bd239p-2
99902=-0x1.bf71b0313209bp-5
99904=0x1.9d668acb52fb9p-2
99914=0x1.2fad584081543p-2
99916=-0x1.87c847dabdc11p-7
99923=-0x1.d5dc68e4797d5p-6
99924=-0x1.cb5e4870a9479p-4
99954=0x1.5cae33a10ae02p+0
99958=0x1.1052afabe2aa4p-2
99959=0x1.1eefbb8110cbfp-1
99963=0x1.471e053609632p-5
99967=0x1.c3381043a67b4p-3
99969=0x1.f1bb570ea465fp-4
99970=-0x1.5e8668d3e953ep-6
99972=0x1.023ab1d31701fp-4
99975=0x1.d7de954d2049ep-2
99981=0x1.03dc2af60d2f5p-3
99987=0x1.fe5e3eeec0b74p-3
100010=0x1.581e47360f6abp-2
100035=0x1.4110f29c7b69ep-2
100039=0x1.de450e5c5b21cp-2
100040=0x1.3149b3e8151e6p-1
100044=0x1.392ad2e67a2ebp-4
100048=0x1.b5234fbaadc0ep-3
100050=0x1.d48241fc273c4p-4
100051=-0x1.9b815c2faeeb3p-9
100053=0x1.fdd6d221a38e6p-5
100056=-0x1.1cd7bcf22502dp-6
100062=0x1.b45adafa5cf4ap-6
100068=0x1.b4eff4cf98f6dp-2
100088=0x1.b25e68e875f06p-3
100197=0x1.cbe7a537de881p-2
100359=0x1.31b0d84e9a0dap-1
100440=0x1.1d7bbe3a972a9p-3
100602=-0x1.183c585c8d067p-4
100683=0x1.605034b8484cbp-9
100764=0x1.103531b0f6129p-1
100926=0x1.0e3a7e50c136dp-1
101088=-0x1.89f9702b52a5bp-4
101250=0x1.16d8b513ef6a6p-2
101331=0x1.f73f956b33f4dp-3
101412=0x1.ae009126bb332p-3
101468=0x1.4658fdbf9420cp-1
101574=-0x1.87fa1f6fc671p-3
101736=0x1.70d580c563bbap-1
101817=0x1.2ef1eaf1c11e3p-1
102141=0x1.e168e282ceb45p-9
102222=0x1.c2a1187163059p-2
102465=-0x1.2e5ed7f58e4efp-7
102546=-0x1.260d8bf510bb1p-8
102627=0x1.2256ba85e12dfp-5
102708=0x1.fee143dbbf8ddp-2
103032=0x1.1067865513f89p-4
103275=0x1.c60b25086465cp-2
103356=0x1.7b894eacd6914p-5
103437=0x1.9c1f9cd1a3fa4p-6
103464=0x1.e21110473cf33p-2
104571=0x1.25fb09582599cp-7
104576=0x1.54a86bc0db69cp-1
104592=0x1.56ef20ca33ff9p-1
104733=-0x1.1d554c14222ecp-8
104814=0x1.cb35fdee3dbecp-5
105138=0x1.1f91fc6e26adp-2
105240=0x1.575846f4fac75p-1
105381=0x1.37577e1a90ce1p-2
106596=0x1.b2329a66fe56ep-1
106677=0x1.106fc927d5782p-1
107001=0x1.9a6a2f4ec729p-2
113238=0x1.b2329a66fe56ep-1
113319=0x1.106fc927d5782p-1
113643=0x1.9a6a2f4ec729p-2
119880=0x1.b2329a66fe56ep-1
119961=0x1.106fc927d5782p-1
120285=0x1.9a6a2f4ec729p-2
126522=0x1.61b1ac35029c9p+1
126523=-0x1.8e006b25b5e1bp-7
126524=0x1.c225173e3a075p-2
126525=-0x1.9807fc182488cp-2
126526=0x1.cb8323450cd54p-1
126527=0x1.63edc05cb993dp+0
126528=-0x1.bb14f2ae6d7ddp-3
126529=0x1.f7d93b93cbbadp+0
126530=0x1.b8fc6265df1c1p-5
126531=-0x1.039b77b5bb4ecp+0
126532=0x1.0589e1de4f87ep+1
126533=-0x1.3854e783ceec2p-1
126534=-0x1.b38903ed8edc9p+0
126535=-0x1.6604b9f6b0c05p-3
126536=-0x1.e919fd8976352p-3
126537=-0x1.567fb9644cbe8p+0
126538=-0x1.45fa7fdb988fap-2
126539=-0x1.871648f5801cp+0
126541=0x1.24ed6d0bb98bap-1
126542=0x1.61e1febad2f9ap+0
126543=0x1.00bfe61faff1cp+1
126545=0x1.710781c4791fap+0
126546=-0x1.58e14b9bf8b27p-2
126547=-0x1.9e0ec4c7a0d7ep-1
126548=0x1.6d1b1965ff2b9p+1
126549=-0x1.87bd06ecc5e46p+0
126550=0x1.c7a54939282d1p-1
126551=-0x1.09d7924435025p+0
126552=-0x1.1431d59c8446dp+0
126553=-0x1.032345745b0f5p+0
126554=-0x1.0c31a2ecd92c9p+0
126556=-0x1.c1c4d2ecf60d8p-8
126557=-0x1.643ef6db95ff1p-2
126558=-0x1.54046cb3976e5p-2
126559=-0x1.5591b85a23e2bp-2
126560=-0x1.0e9a12bd36794p+0
126561=0x1.fa71bbfd2c3b2p-6
126562=-0x1.ad024c95f9a87p-2
126563=-0x1.6901f9ae56a7p-1
126564=-0x1.8527113d738c8p-2
126565=-0x1.06b506f9e406dp+0
126566=-0x1.fd07e59d34c78p-1
126568=-0x1.e29972988288ep-2
126569=-0x1.9461d96d4faf4p-2
126570=0x1.1598a4ce7f164p-3
126572=0x1.4c15c6d8d7fedp+0
126573=0x1.a058486926de7p+0
126574=-0x1.e83a32235d52ap-3
126575=-0x1.b4255eb16d3acp-1
126576=-0x1.c6967bdc8ef3cp-1
126577=-0x1.4f24776b93d58p+0
126578=0x1.0ce87e4e29356p+0
126579=-0x1.5842d80e7d6dbp-2
126580=-0x1.0c570dd880dbfp-7
126581=-0x1.9869565175cd7p-2
126582=-0x1.3a0e5122da126p-2
126583=-0x1.e8347f912832cp-3
126584=-0x1.e7ca3372de1d2p-3
126585=-0x1.57b0eee5541b8p-2
126586=0x1.65a31bc848505p+1
126587=-0x1.e3891d090f542p-3
126588=-0x1.99bed5f1ee531p-2
126589=-0x1.57db387ed6c23p-2
126590=-0x1.58a408289915fp-2
126591=-0x1.62f0648a111b9p-2
126592=-0x1.c7ac1e1a4c926p-3
126593=-0x1.eb4fa7d8eedddp-3
126594=-0x1.557ef32d3c87p-2
126595=-0x1.557ef2bf5bf34p-2
126596=-0x1.58e123091f238p-2
126597=0x1.a4c11b0597676p-3
126598=-0x1.5476e32062f7p-2
126599=0x1.51ee9ea598e1ap-2
126600=-0x1.555c4595929bbp-2
126601=-0x1.552ee1d28334fp-2
126602=-0x1.58210e477c84dp-2
126603=0x1.b2329a66fe56ep-1
126684=0x1.106fc927d5782p-1
127008=0x1.9a6a2f4ec729p-2
133245=0x1.fec1d8fe2a4e6p-3
133246=0x1.f1404fdcdb60bp-2
133247=0x1.a63f8afe202cfp-4
133249=0x1.126f334ceae19p-4
133250=0x1.9bee7794e0e0ep-5
133251=0x1.c8761fee9d6f3p-1
133253=0x1.92d40530121bbp-1
133255=-0x1.5e17d7cbd4802p-5
133256=0x1.5d609ad07d82ap-1
133257=0x1.8c7a0be8491d3p-1
133258=0x1.823496a52ba89p-3
133264=0x1.6bf6da4902ac8p-1
133265=0x1.a6900ded7ee77p-2
133268=0x1.7a0cf0fb1c3c4p-1
133273=0x1.669ea06e50854p-1
133278=0x1.11caa2ead1272p-3
133288=0x1.0ef63c2bc989cp-1
133290=0x1.271f9c55085ffp-1
133298=-0x1.aa9ad3fc88e7p-7
133306=0x1.76362d06e8cdcp-2
133326=0x1.689ab2c179c02p-1
133327=0x1.6245a1210f6b7p-1
133328=0x1.d590723e28423p-3
133330=0x1.47405ebe207acp-3
133331=0x1.efee1392fab92p-5
133332=0x1.2ff97bb7c73aep-2
133334=0x1.d7760d03e5142p-2
133337=0x1.4c0ad7b4ba49dp-2
133338=0x1.5c434ab8a09dap-1
133339=0x1.64ff2f503ee63p-1
133345=0x1.a1757f4f1d52ep-3
133346=0x1.f9acc7e4aed2ap-2
133349=0x1.15de40d4244c7p-2
133359=-0x1.14b6784ed1e84p-8
133369=0x1.8250114fbf737p-2
133371=-0x1.274a21f2cbe4fp-7
133379=-0x1.84cf4dbbcd613p-14
133387=0x1.6e7a4b3170409p-3
133413=-0x1.26d74f8af2aep-6
133426=0x1.04d4a7fb07bc1p-2
133427=0x1.cd23b978d022ap-1
133435=0x1.64a80e263b4dp-1
133650=0x1.59547b0e637c5p-1
133658=0x1.06ced90923087p-2
133737=0x1.179f274f5498dp-3
133812=0x1.4d104340ac2e3p-9
133820=0x1.2a6083c7fb8b6p-1
133823=0x1.560f30f613c9fp-1
133824=0x1.bc10558456234p-1
133831=0x1.51452dc125732p-1
133835=0x1.3f86dda57b159p-1
133840=0x1.3a0015efba698p-1
133974=0x1.cc89b7140539ap-3
133986=0x1.48b746d9aeb45p-2
134055=0x1.97dd298a00fbcp-1
134217=0x1.f67e65264be3bp-3
134298=0x1.2bbbb931cc981p-1
134304=0x1.296855290a38bp+0
134306=0x1.21a04fe86305ap+0
134321=0x1.3578dd81cdda9p+0
134326=0x1.4478509079db7p-1
134331=0x1.7b73b3289df2cp+0
134341=0x1.889884ed41d0ep+0
134541=0x1.066bb49ea244fp-2
134974=0x1.4dcbb03ad6da5p-1
135513=0x1.aead71be9755ap-1
135536=0x1.4b90a2a03cb8ep-1
135602=0x1.0f40ff3c92e2fp+0
135639=0x1.75add4a45b1b2p+0
137303=0x1.37840d42640cap-1
137399=0x1.4bf0ffad4bdcbp-1
139887=0x1.fec1d8fe2a4e6p-3
139888=0x1.f1404fdcdb60bp-2
139889=0x1.a63f8afe202cfp-4
139891=0x1.126f334ceae19p-4
139892=0x1.9bee7794e0e0ep-5
139893=0x1.c8761fee9d6f3p-1
139895=0x1.92d40530121bbp-1
139897=-0x1.5e17d7cbd4802p-5
139898=0x1.5d609ad07d82ap-1
139899=0x1.8c7a0be8491d3p-1
139900=0x1.823496a52ba89p-3
139906=0x1.6bf6da4902ac8p-1
139907=0x1.a6900ded7ee77p-2
139910=0x1.7a0cf0fb1c3c4p-1
139915=0x1.669ea06e50854p-1
139920=0x1.11caa2ead1272p-3
139930=0x1.0ef63c2bc989cp-1
139932=0x1.271f9c55085ffp-1
139940=-0x1.aa9ad3fc88e7p-7
139948=0x1.76362d06e8cdcp-2
139968=0x1.689ab2c179c02p-1
139969=0x1.6245a1210f6b7p-1
139970=0x1.d590723e28423p-3
139972=0x1.47405ebe207acp-3
139973=0x1.efee1392fab92p-5
139974=0x1.2ff97bb7c73aep-2
139976=0x1.d7760d03e5142p-2
139979=0x1.4c0ad7b4ba49dp-2
139980=0x1.5c434ab8a09dap-1
139981=0x1.64ff2f503ee63p-1
139987=0x1.a1757f4f1d52ep-3
139988=0x1.f9acc7e4aed2ap-2
139991=0x1.15de40d4244c7p-2
140001=-0x1.14b6784ed1e84p-8
140011=0x1.8250114fbf737p-2
140013=-0x1.274a21f2cbe4fp-7
140021=-0x1.84cf4dbbcd613p-14
140029=0x1.6e7a4b3170409p-3
140055=-0x1.26d74f8af2aep-6
140068=0x1.04d4a7fb07bc1p-2
140069=0x1.cd23b978d022ap-1
140077=0x1.64a80e263b4dp-1
140292=0x1.59547b0e637c5p-1
140300=0x1.06ced90923087p-2
140379=0x1.179f274f5498dp-3
140454=0x1.4d104340ac2e3p-9
140462=0x1.2a6083c7fb8b6p-1
140465=0x1.560f30f613c9fp-1
140466=0x1.bc10558456234p-1
140473=0x1.51452dc125732p-1
140477=0x1.3f86dda57b159p-1
140482=0x1.3a0015efba698p-1
140616=0x1.cc89b7140539ap-3
140628=0x1.48b746d9aeb45p-2
140697=0x1.97dd298a00fbcp-1
140859=0x1.f67e65264be3bp-3
140940=0x1.2bbbb931cc981p-1
140946=0x1.296855290a38bp+0
140948=0x1.21a04fe86305ap+0
140963=0x1.3578dd81cdda9p+0
140968=0x1.4478509079db7p-1
140973=0x1.7b73b3289df2cp+0
140983=0x1.889884ed41d0ep+0
141183=0x1.066bb49ea244fp-2
141616=0x1.4dcbb03ad6da5p-1
142155=0x1.aead71be9755ap-1
142178=0x1.4b90a2a03cb8ep-1
142244=0x1.0f40ff3c92e2fp+0
142281=0x1.75add4a45b1b2p+0
143945=0x1.37840d42640cap-1
144041=0x1.4bf0ffad4bdcbp-1
146529=0x1.fec1d8fe2a4e6p-3
146530=0x1.f1404fdcdb60bp-2
146531=0x1.a63f8afe202cfp-4
146533=0x1.126f334ceae19p-4
146534=0x1.9bee7794e0e0ep-5
146535=0x1.c8761fee9d6f3p-1
146537=0x1.92d40530121bbp-1
146539=-0x1.5e17d7cbd4802p-5
146540=0x1.5d609ad07d82ap-1
146541=0x1.8c7a0be8491d3p-1
146542=0x1.823496a52ba89p-3
146548=0x1.6bf6da4902ac8p-1
146549=0x1.a6900ded7ee77p-2
146552=0x1.7a0cf0fb1c3c4p-1
146557=0x1.669ea06e50854p-1
146562=0x1.11caa2ead1272p-3
146572=0x1.0ef63c2bc989cp-1
146574=0x1.271f9c55085ffp-1
146582=-0x1.aa9ad3fc88e7p-7
146590=0x1.76362d06e8cdcp-2
146610=0x1.689ab2c179c02p-1
146611=0x1.6245a1210f6b7p-1
146612=0x1.d590723e28423p-3
146614=0x1.47405ebe207acp-3
146615=0x1.efee1392fab92p-5
146616=0x1.2ff97bb7c73aep-2
146618=0x1.d7760d03e5142p-2
146621=0x1.4c0ad7b4ba49dp-2
146622=0x1.5c434ab8a09dap-1
146623=0x1.64ff2f503ee63p-1
146629=0x1.a1757f4f1d52ep-3
146630=0x1.f9acc7e4aed2ap-2
146633=0x1.15de40d4244c7p-2
146643=-0x1.14b6784ed1e84p-8
146653=0x1.8250114fbf737p-2
146655=-0x1.274a21f2cbe4fp-7
146663=-0x1.84cf4dbbcd613p-14
146671=0x1.6e7a4b3170409p-3
146697=-0x1.26d74f8af2aep-6
146710=0x1.04d4a7fb07bc1p-2
146711=0x1.cd23b978d022ap-1
146719=0x1.64a80e263b4dp-1
146934=0x1.59547b0e637c5p-1
146942=0x1.06ced90923087p-2
147021=0x1.179f274f5498dp-3
147096=0x1.4d104340ac2e3p-9
147104=0x1.2a6083c7fb8b6p-1
147107=0x1.560f30f613c9fp-1
147108=0x1.bc10558456234p-1
147115=0x1.51452dc125732p-1
147119=0x1.3f86dda57b159p-1
147124=0x1.3a0015efba698p-1
147258=0x1.cc89b7140539ap-3
147270=0x1.48b746d9aeb45p-2
147339=0x1.97dd298a00fbcp-1
147501=0x1.f67e65264be3bp-3
147582=0x1.2bbbb931cc981p-1
147588=0x1.296855290a38bp+0
147590=0x1.21a04fe86305ap+0
147605=0x1.3578dd81cdda9p+0
147610=0x1.4478509079db7p-1
147615=0x1.7b73b3289df2cp+0
147625=0x1.889884ed41d0ep+0
147825=0x1.066bb49ea244fp-2
148258=0x1.4dcbb03ad6da5p-1
148797=0x1.aead71be9755ap-1
148820=0x1.4b90a2a03cb8ep-1
148886=0x1.0f40ff3c92e2fp+0
148923=0x1.75add4a45b1b2p+0
150587=0x1.37840d42640cap-1
150683=0x1.4bf0ffad4bdcbp-1
153171=0x1.4a3515954537cp+1
153172=0x1.beafc52acd62ap+0
153175=-0x1.15de667eb68fap+0
153177=-0x1.588162ff09427p-1
153179=-0x1.26934e492b8fdp-4
153183=0x1.8d8bd089f836cp-1
153191=-0x1.a4873e35370d1p-1
153194=0x1.95b5a9bc23883p+0
153252=0x1.fec1d8fe2a4e6p-3
153253=0x1.f1404fdcdb60bp-2
153254=0x1.a63f8afe202cfp-4
153256=0x1.126f334ceae19p-4
153257=0x1.9bee7794e0e0ep-5
153258=0x1.c8761fee9d6f3p-1
153260=0x1.92d40530121bbp-1
153262=-0x1.5e17d7cbd4802p-5
153263=0x1.5d609ad07d82ap-1
153264=0x1.8c7a0be8491d3p-1
153265=0x1.823496a52ba89p-3
153271=0x1.6bf6da4902ac8p-1
153272=0x1.a6900ded7ee77p-2
153275=0x1.7a0cf0fb1c3c4p-1
153280=0x1.669ea06e50854p-1
153285=0x1.11caa2ead1272p-3
153295=0x1.0ef63c2bc989cp-1
153297=0x1.271f9c55085ffp-1
153305=-0x1.aa9ad3fc88e7p-7
153313=0x1.76362d06e8cdcp-2
153333=0x1.689ab2c179c02p-1
153334=0x1.6245a1210f6b7p-1
153335=0x1.d590723e28423p-3
153337=0x1.47405ebe207acp-3
153338=0x1.efee1392fab92p-5
153339=0x1.2ff97bb7c73aep-2
153341=0x1.d7760d03e5142p-2
