#mdl#2#13282
#rdr#7/0/0
10:u0%x[-2,0],
10:b1%x[-1,0],
9:*2%x[1,0],
9:*3%x[1,0],
10:u4%x[-2,0],
10:b5%x[-1,0],
10:u6%x[-2,0],
#qrk#81
1:O,
15:B-cost_relative,
19:B-fromloc.city_name,
20:B-fromloc.state_code,
17:B-toloc.city_name,
22:B-depart_date.day_name,
27:B-depart_time.period_of_day,
27:B-depart_date.date_relative,
14:B-airline_name,
13:B-flight_time,
27:B-depart_time.time_relative,
18:B-depart_time.time,
12:B-flight_mod,
14:B-airline_code,
20:B-fromloc.state_name,
19:B-stoploc.city_name,
11:B-city_name,
24:B-depart_date.day_number,
24:B-depart_date.month_name,
9:B-connect,
12:B-round_trip,
24:B-depart_time.period_mod,
22:B-fromloc.airport_name,
13:B-flight_stop,
12:B-state_name,
15:B-aircraft_code,
18:B-toloc.state_name,
18:B-arrive_time.time,
12:B-class_type,
15:B-flight_number,
27:B-arrive_time.period_of_day,
16:B-transport_type,
14:B-airport_name,
8:B-return,
18:B-depart_date.year,
15:B-period_of_day,
15:B-time_relative,
6:B-time,
13:B-fare_amount,
24:B-arrive_date.month_name,
24:B-arrive_date.day_number,
6:B-meal,
27:B-arrive_time.time_relative,
18:B-meal_description,
12:B-state_code,
9:B-economy,
24:B-return_date.month_name,
24:B-return_date.day_number,
20:B-toloc.airport_name,
5:B-mod,
13:B-flight_days,
28:B-depart_date.today_relative,
18:B-restriction_code,
17:B-fare_basis_code,
27:B-arrive_date.date_relative,
22:B-arrive_date.day_name,
4:B-or,
11:B-meal_code,
24:B-arrive_time.start_time,
22:B-arrive_time.end_time,
22:B-fromloc.airport_code,
20:B-toloc.airport_code,
14:B-airport_code,
24:B-arrive_time.period_mod,
18:B-toloc.state_code,
24:B-depart_time.start_time,
22:B-depart_time.end_time,
16:B-today_relative,
28:B-arrive_date.today_relative,
10:B-day_name,
20:B-stoploc.state_code,
27:B-return_date.date_relative,
22:B-stoploc.airport_name,
22:B-return_date.day_name,
11:B-days_code,
12:B-month_name,
12:B-day_number,
20:B-toloc.country_name,
28:B-return_date.today_relative,
24:B-return_time.period_mod,
27:B-return_time.period_of_day,
#qrk#6512
6:u0_x-2,
6:b1_x-1,
6:*2like,
6:*3like,
6:u4_x-2,
6:b5_x-1,
6:u6_x-2,
6:u0_x-1,
5:b1i'd,
4:*2to,
4:*3to,
6:u4_x-1,
5:b5i'd,
6:u6_x-1,
5:u0i'd,
6:b1like,
6:*2find,
6:*3find,
5:u4i'd,
6:b5like,
5:u6i'd,
6:u0like,
4:b1to,
5:*2the,
5:*3the,
6:u4like,
4:b5to,
6:u6like,
4:u0to,
6:b1find,
10:*2cheapest,
10:*3cheapest,
4:u4to,
6:b5find,
4:u6to,
6:u0find,
5:b1the,
8:*2flight,
8:*3flight,
6:u4find,
5:b5the,
6:u6find,
5:u0the,
10:b1cheapest,
6:*2from,
6:*3from,
5:u4the,
10:b5cheapest,
5:u6the,
10:u0cheapest,
8:b1flight,
12:*2washington,
12:*3washington,
10:u4cheapest,
8:b5flight,
10:u6cheapest,
8:u0flight,
6:b1from,
4:*2dc,
4:*3dc,
8:u4flight,
6:b5from,
8:u6flight,
6:u0from,
12:b1washington,
6:u4from,
12:b5washington,
6:u6from,
12:u0washington,
4:b1dc,
9:*2atlanta,
9:*3atlanta,
12:u4washington,
4:b5dc,
12:u6washington,
4:u0dc,
6:*2_x+1,
6:*3_x+1,
4:u4dc,
4:u6dc,
11:*2traveling,
11:*3traveling,
5:b1i'm,
5:b5i'm,
5:u0i'm,
11:b1traveling,
8:*2dallas,
8:*3dallas,
5:u4i'm,
11:b5traveling,
5:u6i'm,
11:u0traveling,
11:u4traveling,
11:u6traveling,
8:b1dallas,
14:*2philadelphia,
14:*3philadelphia,
8:b5dallas,
8:u0dallas,
8:u4dallas,
8:u6dallas,
6:*2also,
6:*3also,
3:b1i,
6:*2need,
6:*3need,
3:b5i,
3:u0i,
6:b1also,
3:u4i,
6:b5also,
3:u6i,
6:u0also,
6:b1need,
4:*2go,
4:*3go,
6:u4also,
6:b5need,
6:u6also,
6:u0need,
6:u4need,
6:u6need,
4:b1go,
15:*2san-francisco,
15:*3san-francisco,
4:b5go,
4:u0go,
4:*2on,
4:*3on,
4:u4go,
4:u6go,
15:b1san-francisco,
11:*2wednesday,
11:*3wednesday,
15:b5san-francisco,
15:u0san-francisco,
4:b1on,
9:*2evening,
9:*3evening,
15:u4san-francisco,
4:b5on,
15:u6san-francisco,
4:u0on,
11:b1wednesday,
4:u4on,
11:b5wednesday,
4:u6on,
11:u0wednesday,
9:b1evening,
11:u4wednesday,
9:b5evening,
11:u6wednesday,
9:u0evening,
9:u4evening,
9:u6evening,
5:*2you,
5:*3you,
7:b1thank,
3:*2i,
3:*3i,
7:b5thank,
7:u0thank,
5:b1you,
7:u4thank,
5:b5you,
7:u6thank,
5:u0you,
5:u4you,
5:u6you,
8:*2travel,
8:*3travel,
6:*2next,
6:*3next,
8:b1travel,
8:b5travel,
8:u0travel,
6:b1next,
8:u4travel,
6:b5next,
8:u6travel,
6:u0next,
6:u4next,
6:u6next,
5:*2fly,
5:*3fly,
22:*2continental-airlines,
22:*3continental-airlines,
5:b1fly,
9:*2between,
9:*3between,
5:b5fly,
5:u0fly,
22:b1continental-airlines,
8:*2boston,
8:*3boston,
5:u4fly,
22:b5continental-airlines,
5:u6fly,
22:u0continental-airlines,
9:b1between,
5:*2and,
5:*3and,
22:u4continental-airlines,
9:b5between,
22:u6continental-airlines,
9:u0between,
8:b1boston,
9:u4between,
8:b5boston,
9:u6between,
8:u0boston,
5:b1and,
8:u4boston,
5:b5and,
8:u6boston,
6:*2tell,
6:*3tell,
8:b1please,
4:*2me,
4:*3me,
8:b5please,
8:u0please,
6:b1tell,
8:u4please,
6:b5tell,
8:u6please,
6:u0tell,
4:b1me,
9:*2flights,
9:*3flights,
6:u4tell,
4:b5me,
6:u6tell,
4:u0me,
4:u4me,
4:u6me,
9:b1flights,
9:b5flights,
9:u0flights,
9:u4flights,
9:u6flights,
5:u0and,
14:b1philadelphia,
10:*2thursday,
10:*3thursday,
5:u4and,
14:b5philadelphia,
5:u6and,
14:u0philadelphia,
14:u4philadelphia,
14:u6philadelphia,
7:*2would,
7:*3would,
7:b1would,
7:b5would,
7:u0would,
7:u4would,
7:u6would,
6:*2fare,
6:*3fare,
6:b1fare,
6:b5fare,
6:u0fare,
6:u4fare,
6:u6fare,
9:b1atlanta,
9:b5atlanta,
9:u0atlanta,
9:u4atlanta,
9:u6atlanta,
3:*2a,
3:*3a,
3:b1a,
3:b5a,
3:u0a,
3:u4a,
3:u6a,
6:*2give,
6:*3give,
6:b1give,
6:b5give,
6:u0give,
14:*2flight-times,
14:*3flight-times,
6:u4give,
6:u6give,
14:b1flight-times,
14:b5flight-times,
14:u0flight-times,
14:u4flight-times,
14:u6flight-times,
11:*2baltimore,
11:*3baltimore,
4:*2in,
4:*3in,
11:b1baltimore,
11:b5baltimore,
11:u0baltimore,
4:b1in,
9:*2morning,
9:*3morning,
11:u4baltimore,
4:b5in,
11:u6baltimore,
4:u0in,
8:*2before,
8:*3before,
4:u4in,
4:u6in,
9:b1morning,
3:*28,
3:*38,
9:b5morning,
9:u0morning,
8:b1before,
9:u4morning,
8:b5before,
9:u6morning,
8:*2please,
8:*3please,
23:*2times-of-your-flights,
23:*3times-of-your-flights,
23:b1times-of-your-flights,
23:b5times-of-your-flights,
23:u0times-of-your-flights,
23:u4times-of-your-flights,
23:u6times-of-your-flights,
11:*28-o'clock,
11:*38-o'clock,
9:*2leaving,
9:*3leaving,
9:b1leaving,
9:b5leaving,
9:u0leaving,
9:u4leaving,
9:u6leaving,
6:b1what,
4:*2do,
4:*3do,
6:b5what,
6:u0what,
6:u4what,
6:u6what,
4:b1do,
6:*2have,
6:*3have,
4:b5do,
4:u0do,
4:u4do,
4:u6do,
6:b1have,
8:*2denver,
8:*3denver,
6:b5have,
6:u0have,
6:u4have,
6:u6have,
8:b1denver,
10:*2arriving,
10:*3arriving,
8:b5denver,
8:u0denver,
8:u4denver,
8:u6denver,
10:b1arriving,
10:b5arriving,
10:u0arriving,
10:u4arriving,
10:u6arriving,
4:*2is,
4:*3is,
6:*2your,
6:*3your,
4:b1is,
6:*2last,
6:*3last,
4:b5is,
4:u0is,
6:b1your,
4:u4is,
6:b5your,
4:u6is,
6:u0your,
6:b1last,
6:u4your,
6:b5last,
6:u6your,
6:u0last,
6:u4last,
6:u6last,
7:*2there,
7:*3there,
7:b1there,
7:b5there,
7:u0there,
7:u4there,
7:u6there,
19:*2american-airlines,
19:*3american-airlines,
6:b1does,
6:b5does,
6:u0does,
19:b1american-airlines,
6:u4does,
19:b5american-airlines,
6:u6does,
19:u0american-airlines,
19:u4american-airlines,
19:u6american-airlines,
6:*2does,
6:*3does,
6:*2time,
6:*3time,
6:b1time,
10:*2earliest,
10:*3earliest,
6:b5time,
6:u0time,
6:u4time,
6:u6time,
10:b1earliest,
10:b5earliest,
10:u0earliest,
10:u4earliest,
10:u6earliest,
4:*2of,
4:*3of,
4:b1of,
4:b5of,
4:u0of,
4:u4of,
4:u6of,
7:b1could,
7:b5could,
7:u0could,
7:u4could,
7:u6could,
13:*2information,
13:*3information,
12:*2concerning,
12:*3concerning,
13:b1information,
13:b5information,
13:u0information,
12:b1concerning,
13:u4information,
12:b5concerning,
13:u6information,
12:u0concerning,
12:u4concerning,
12:u6concerning,
5:*2one,
5:*3one,
5:b1one,
5:b5one,
5:u0one,
5:u4one,
5:u6one,
4:*2as,
4:*3as,
10:*2possible,
10:*3possible,
4:b1as,
4:b5as,
18:*2american-airline,
18:*3american-airline,
18:b1american-airline,
18:b5american-airline,
18:u0american-airline,
18:u4american-airline,
18:u6american-airline,
15:*2early-morning,
15:*3early-morning,
17:*2times-of-flight,
17:*3times-of-flight,
15:b1early-morning,
15:b5early-morning,
5:*2twa,
5:*3twa,
5:b1twa,
5:b5twa,
5:u0twa,
5:u4twa,
5:u6twa,
12:*2fort-worth,
12:*3fort-worth,
7:*2texas,
7:*3texas,
12:b1fort-worth,
12:b5fort-worth,
12:u0fort-worth,
7:b1texas,
12:u4fort-worth,
7:b5texas,
12:u6fort-worth,
7:u0texas,
7:u4texas,
7:u6texas,
12:b1interested,
12:b5interested,
12:u0interested,
12:u4interested,
12:u6interested,
12:*2interested,
12:*3interested,
6:*2that,
6:*3that,
6:b1that,
6:*2stop,
6:*3stop,
6:b5that,
6:u0that,
6:u4that,
6:u6that,
6:b1stop,
6:b5stop,
6:u0stop,
6:u4stop,
6:u6stop,
12:*2pittsburgh,
12:*3pittsburgh,
5:*2for,
5:*3for,
5:b1for,
5:b5for,
5:u0for,
5:u4for,
5:u6for,
12:b1pittsburgh,
12:b5pittsburgh,
12:u0pittsburgh,
12:u4pittsburgh,
12:u6pittsburgh,
6:*2want,
6:*3want,
6:b1want,
6:b5want,
6:u0want,
6:u4want,
6:u6want,
8:*2monday,
8:*3monday,
10:*2airlines,
10:*3airlines,
10:b1airlines,
10:b5airlines,
10:u0airlines,
10:u4airlines,
10:u6airlines,
8:*2ground,
8:*3ground,
16:*2transportation,
16:*3transportation,
8:b1ground,
8:b5ground,
8:u0ground,
16:b1transportation,
8:u4ground,
16:b5transportation,
8:u6ground,
16:u0transportation,
16:u4transportation,
16:u6transportation,
9:*2airport,
9:*3airport,
9:b1airport,
9:b5airport,
9:u0airport,
9:u4airport,
9:u6airport,
10:*2downtown,
10:*3downtown,
9:*2tuesday,
9:*3tuesday,
14:*2twenty-first,
14:*3twenty-first,
11:b1repeating,
11:b5repeating,
11:u0repeating,
11:u4repeating,
11:u6repeating,
6:*210am,
6:*310am,
6:*2what,
6:*3what,
8:u0before,
6:b110am,
6:*2type,
6:*3type,
8:u4before,
6:b510am,
8:u6before,
6:u010am,
6:u410am,
6:u610am,
6:b1type,
10:*2aircraft,
10:*3aircraft,
6:b5type,
6:u0type,
6:u4type,
6:u6type,
10:b1aircraft,
6:*2used,
6:*3used,
10:b5aircraft,
10:u0aircraft,
10:u4aircraft,
10:u6aircraft,
8:*2flying,
8:*3flying,
8:b1flying,
8:b5flying,
8:u0flying,
8:u4flying,
8:u6flying,
17:*2united-airlines,
17:*3united-airlines,
17:b1united-airlines,
17:b5united-airlines,
17:u0united-airlines,
17:u4united-airlines,
17:u6united-airlines,
7:*2right,
7:*3right,
5:b1all,
5:b5all,
5:u0all,
7:b1right,
5:u4all,
7:b5right,
5:u6all,
7:u0right,
5:*2let,
5:*3let,
7:u4right,
7:u6right,
5:b1let,
6:*2know,
6:*3know,
5:b5let,
5:u0let,
5:u4let,
5:u6let,
6:b1know,
6:b5know,
6:u0know,
6:u4know,
6:u6know,
7:*2using,
7:*3using,
7:b1using,
7:b5using,
7:u0using,
7:u4using,
7:u6using,
6:*2they,
6:*3they,
5:*2use,
5:*3use,
6:b1they,
6:b5they,
6:u0they,
5:b1use,
7:*2these,
7:*3these,
6:u4they,
5:b5use,
6:u6they,
5:u0use,
5:u4use,
5:u6use,
7:b1these,
7:b5these,
7:u0these,
4:*210,
4:*310,
7:u4these,
7:u6these,
4:b110,
4:b510,
4:u010,
4:u410,
4:u610,
6:*2i'll,
6:*3i'll,
6:b1well,
5:*2try,
5:*3try,
6:b5well,
6:u0well,
6:b1i'll,
6:u4well,
6:b5i'll,
6:u6well,
6:u0i'll,
5:b1try,
6:u4i'll,
5:b5try,
6:u6i'll,
5:u0try,
5:u4try,
5:u6try,
6:*2kind,
6:*3kind,
6:b1kind,
6:b5kind,
6:u0kind,
6:u4kind,
6:u6kind,
7:*2flies,
7:*3flies,
7:b1flies,
7:b5flies,
7:u0flies,
7:u4flies,
7:u6flies,
12:*210-o'clock,
12:*310-o'clock,
12:b110-o'clock,
12:b510-o'clock,
12:u010-o'clock,
12:u410-o'clock,
12:u610-o'clock,
11:*2september,
11:*3september,
11:*2twentieth,
11:*3twentieth,
11:b1september,
11:b5september,
11:u0september,
11:b1twentieth,
11:u4september,
11:b5twentieth,
11:u6september,
11:u0twentieth,
11:u4twentieth,
11:u6twentieth,
10:*2stopover,
10:*3stopover,
10:b1stopover,
10:b5stopover,
10:u0stopover,
10:u4stopover,
10:u6stopover,
5:*2are,
5:*3are,
5:b1are,
5:b5are,
5:u0are,
5:u4are,
5:u6are,
4:*2an,
4:*3an,
4:b1an,
4:b5an,
4:u0an,
4:u4an,
4:u6an,
12:*2connecting,
12:*3connecting,
6:*2wish,
6:*3wish,
6:b1wish,
6:b5wish,
6:u0wish,
6:u4wish,
6:u6wish,
9:*2airline,
9:*3airline,
9:b1airline,
9:b5airline,
9:u0airline,
9:u4airline,
9:u6airline,
7:*2plane,
7:*3plane,
7:b1plane,
7:b5plane,
7:u0plane,
7:u4plane,
7:u6plane,
9:*2one-way,
9:*3one-way,
9:b1one-way,
9:b5one-way,
9:u0one-way,
9:u4one-way,
9:u6one-way,
11:*2available,
11:*3available,
4:*2at,
4:*3at,
11:b1available,
10:*2noontime,
10:*3noontime,
11:b5available,
11:u0available,
4:b1at,
11:u4available,
4:b5at,
11:u6available,
4:u0at,
10:b1noontime,
4:u4at,
10:b5noontime,
4:u6at,
10:u0noontime,
10:u4noontime,
10:u6noontime,
8:*2around,
8:*3around,
8:b1around,
8:b5around,
8:u0around,
8:u4around,
8:u6around,
16:*2delta-airlines,
16:*3delta-airlines,
16:b1delta-airlines,
16:b5delta-airlines,
16:u0delta-airlines,
16:u4delta-airlines,
16:u6delta-airlines,
18:*2eastern-airlines,
18:*3eastern-airlines,
18:b1eastern-airlines,
18:b5eastern-airlines,
18:u0eastern-airlines,
18:u4eastern-airlines,
18:u6eastern-airlines,
7:*2early,
7:*3early,
4:u0as,
7:b1early,
4:u4as,
7:b5early,
4:u6as,
7:u0early,
7:u4early,
7:u6early,
10:b1possible,
10:b5possible,
10:u0possible,
5:*2day,
5:*3day,
10:u4possible,
10:u6possible,
5:b1day,
5:b5day,
5:u0day,
5:u4day,
5:u6day,
6:*2will,
6:*3will,
8:*2arrive,
8:*3arrive,
6:b1will,
6:b5will,
6:u0will,
8:b1arrive,
6:u4will,
8:b5arrive,
6:u6will,
8:u0arrive,
8:u4arrive,
8:u6arrive,
16:*2denver-airport,
16:*3denver-airport,
16:b1denver-airport,
16:b5denver-airport,
16:u0denver-airport,
16:u4denver-airport,
16:u6denver-airport,
10:b1downtown,
10:b5downtown,
9:*2nonstop,
9:*3nonstop,
9:b1nonstop,
9:b5nonstop,
9:u0nonstop,
9:u4nonstop,
9:u6nonstop,
8:*2repeat,
8:*3repeat,
8:b1repeat,
8:b5repeat,
8:u0repeat,
12:*2departures,
12:*3departures,
8:u4repeat,
8:u6repeat,
12:b1departures,
12:b5departures,
12:u0departures,
8:*2august,
8:*3august,
12:u4departures,
12:u6departures,
8:b1monday,
12:*2nineteenth,
12:*3nineteenth,
8:b5monday,
8:u0monday,
8:b1august,
8:u4monday,
8:b5august,
8:u6monday,
8:u0august,
12:b1nineteenth,
8:u4august,
12:b5nineteenth,
8:u6august,
12:u0nineteenth,
12:u4nineteenth,
12:u6nineteenth,
6:*2rate,
6:*3rate,
6:b1rate,
6:b5rate,
6:u0rate,
6:u4rate,
6:u6rate,
5:*2any,
5:*3any,
5:b1any,
5:b5any,
5:u0any,
8:*2us-air,
8:*3us-air,
5:u4any,
5:u6any,
8:b1us-air,
8:b5us-air,
8:u0us-air,
8:u4us-air,
8:u6us-air,
7:*2going,
7:*3going,
7:b1we're,
7:b5we're,
7:u0we're,
7:b1going,
7:u4we're,
7:b5going,
7:u6we're,
7:u0going,
7:u4going,
7:u6going,
5:*2819,
5:*3819,
5:b1819,
5:b5819,
5:u0819,
5:u4819,
5:u6819,
6:*2take,
6:*3take,
6:b1take,
6:b5take,
6:u0take,
6:u4take,
6:u6take,
11:*29-o'clock,
11:*39-o'clock,
11:b19-o'clock,
11:b59-o'clock,
11:u09-o'clock,
11:u49-o'clock,
11:u69-o'clock,
5:*2out,
5:*3out,
5:b1out,
5:b5out,
5:u0out,
5:u4out,
5:u6out,
4:*2be,
4:*3be,
9:*2staying,
9:*3staying,
4:b1be,
4:b5be,
4:u0be,
9:b1staying,
4:u4be,
9:b5staying,
4:u6be,
9:u0staying,
9:u4staying,
9:u6staying,
10:u0downtown,
10:u4downtown,
10:u6downtown,
5:*2two,
5:*3two,
7:*2hours,
7:*3hours,
5:b1two,
7:*2could,
7:*3could,
5:b5two,
5:u0two,
7:b1hours,
5:u4two,
7:b5hours,
5:u6two,
7:u0hours,
7:u4hours,
7:u6hours,
5:b1can,
5:b5can,
5:u0can,
5:u4can,
5:u6can,
7:*2about,
7:*3about,
7:b1about,
7:b5about,
7:u0about,
7:u4about,
7:u6about,
6:*2city,
6:*3city,
6:b1city,
6:b5city,
6:u0city,
6:u4city,
6:u6city,
6:*2well,
6:*3well,
6:b1very,
5:*2i'm,
5:*3i'm,
6:b5very,
6:u0very,
9:*2working,
9:*3working,
6:u4very,
6:u6very,
9:b1working,
10:*2scenario,
10:*3scenario,
9:b5working,
9:u0working,
7:*2three,
7:*3three,
9:u4working,
9:u6working,
10:b1scenario,
10:b5scenario,
10:u0scenario,
7:b1three,
10:u4scenario,
7:b5three,
10:u6scenario,
7:u0three,
7:u4three,
7:u6three,
5:*2727,
5:*3727,
5:b1727,
5:b5727,
5:u0727,
5:u4727,
5:u6727,
9:*2georgia,
9:*3georgia,
4:*2am,
4:*3am,
4:b1am,
4:b5am,
4:u0am,
4:u4am,
4:u6am,
8:*2number,
8:*3number,
8:b1number,
8:b5number,
8:u0number,
8:u4number,
8:u6number,
8:*2return,
8:*3return,
8:b1return,
8:b5return,
8:u0return,
8:u4return,
8:u6return,
7:*2bound,
7:*3bound,
7:b1bound,
7:b5bound,
7:u0bound,
7:u4bound,
7:u6bound,
8:*2friday,
8:*3friday,
6:*2this,
6:*3this,
8:b1friday,
6:*2week,
6:*3week,
8:b5friday,
8:u0friday,
6:b1this,
8:u4friday,
6:b5this,
8:u6friday,
7:*2class,
7:*3class,
9:*2service,
9:*3service,
7:b1class,
7:b5class,
7:u0class,
9:b1service,
7:u4class,
9:b5service,
7:u6class,
9:u0service,
9:u4service,
9:u6service,
12:*2california,
12:*3california,
12:b1california,
12:b5california,
12:u0california,
14:*2pennsylvania,
14:*3pennsylvania,
12:u4california,
12:u6california,
5:*2get,
5:*3get,
5:b1get,
5:b5get,
5:u0get,
5:u4get,
5:u6get,
5:b1yes,
5:b5yes,
5:u0yes,
7:*2delta,
7:*3delta,
5:u4yes,
5:u6yes,
7:b1delta,
7:b5delta,
7:u0delta,
7:u4delta,
7:u6delta,
7:*2225pm,
7:*3225pm,
7:b1225pm,
7:b5225pm,
7:u0225pm,
8:*21158pm,
8:*31158pm,
7:u4225pm,
7:u6225pm,
8:b11158pm,
8:b51158pm,
8:u01158pm,
8:u41158pm,
8:u61158pm,
11:*2equipment,
11:*3equipment,
11:b1equipment,
11:b5equipment,
11:u0equipment,
11:u4equipment,
11:u6equipment,
6:b1used,
6:b5used,
6:u0used,
6:u4used,
6:u6used,
9:*2looking,
9:*3looking,
9:b1looking,
9:b5looking,
9:u0looking,
9:u4looking,
9:u6looking,
10:*2stopping,
10:*3stopping,
10:b1stopping,
10:b5stopping,
10:u0stopping,
10:u4stopping,
10:u6stopping,
8:*2ticket,
8:*3ticket,
8:b1ticket,
8:b5ticket,
8:u0ticket,
8:u4ticket,
8:u6ticket,
10:*2colorado,
10:*3colorado,
10:b1colorado,
10:b5colorado,
10:u0colorado,
10:u4colorado,
10:u6colorado,
6:*2with,
6:*3with,
9:b1georgia,
9:b5georgia,
9:u0georgia,
6:b1with,
9:u4georgia,
6:b5with,
9:u6georgia,
6:u0with,
6:u4with,
6:u6with,
13:*2coach-class,
13:*3coach-class,
6:*2seat,
6:*3seat,
13:b1coach-class,
13:b5coach-class,
13:u0coach-class,
6:b1seat,
13:u4coach-class,
6:b5seat,
13:u6coach-class,
6:u0seat,
6:u4seat,
6:u6seat,
4:*2or,
4:*3or,
8:*2lowest,
8:*3lowest,
4:b1or,
4:b5or,
4:u0or,
8:b1lowest,
4:u4or,
8:b5lowest,
4:u6or,
8:u0lowest,
8:u4lowest,
8:u6lowest,
5:*2buy,
5:*3buy,
5:b1buy,
5:b5buy,
5:u0buy,
5:u4buy,
5:u6buy,
11:*2afternoon,
11:*3afternoon,
11:b1afternoon,
11:b5afternoon,
11:u0afternoon,
11:u4afternoon,
11:u6afternoon,
5:*2230,
5:*3230,
5:b1230,
5:b5230,
5:u0230,
5:u4230,
5:u6230,
7:*2324pm,
7:*3324pm,
5:*2324,
5:*3324,
5:b1324,
5:b5324,
5:u0324,
5:u4324,
5:u6324,
7:*2110pm,
7:*3110pm,
7:b1110pm,
7:b5110pm,
7:u0110pm,
7:u4110pm,
7:u6110pm,
13:*2seventeenth,
13:*3seventeenth,
9:*2oakland,
9:*3oakland,
10:*2american,
10:*3american,
10:b1american,
5:*2813,
5:*3813,
10:b5american,
10:u0american,
10:u4american,
10:u6american,
5:b1813,
5:b5813,
5:u0813,
5:u4813,
5:u6813,
9:b1oakland,
9:b5oakland,
9:u0oakland,
9:u4oakland,
9:u6oakland,
6:*2goes,
6:*3goes,
10:*2straight,
10:*3straight,
6:b1goes,
9:*2through,
9:*3through,
6:b5goes,
6:u0goes,
10:b1straight,
6:u4goes,
10:b5straight,
6:u6goes,
10:u0straight,
9:b1through,
10:u4straight,
9:b5through,
10:u6straight,
9:u0through,
9:u4through,
9:u6through,
18:*2without-stopping,
18:*3without-stopping,
18:b1without-stopping,
9:*2another,
9:*3another,
18:b5without-stopping,
18:u0without-stopping,
18:u4without-stopping,
18:u6without-stopping,
9:b1another,
9:b5another,
4:*2if,
4:*3if,
4:b1if,
4:b5if,
4:u0if,
4:u4if,
4:u6if,
9:*2enroute,
9:*3enroute,
9:b1enroute,
9:b5enroute,
9:u0enroute,
9:u4enroute,
9:u6enroute,
4:*2it,
4:*3it,
4:b1it,
4:b5it,
4:u0it,
4:u4it,
4:u6it,
5:b1may,
5:b5may,
5:u0may,
5:u4may,
5:u6may,
6:*22153,
6:*32153,
6:b12153,
6:b52153,
6:u02153,
6:u42153,
6:u62153,
13:*2first-class,
13:*3first-class,
13:b1first-class,
13:b5first-class,
13:u0first-class,
13:u4first-class,
13:u6first-class,
6:*2list,
6:*3list,
6:b1list,
6:b5list,
6:u0list,
6:u4list,
6:u6list,
8:*2making,
8:*3making,
8:b1making,
8:b5making,
8:u0making,
8:u4making,
8:u6making,
13:*2continental,
13:*3continental,
13:b1continental,
13:b5continental,
13:u0continental,
13:u4continental,
13:u6continental,
7:*2leave,
7:*3leave,
7:b1leave,
7:b5leave,
7:u0leave,
7:u4leave,
7:u6leave,
7:*2after,
7:*3after,
12:*212-o'clock,
12:*312-o'clock,
7:b1after,
7:b5after,
7:u0after,
12:b112-o'clock,
7:u4after,
12:b512-o'clock,
7:u6after,
12:u012-o'clock,
12:u412-o'clock,
12:u612-o'clock,
7:*2which,
7:*3which,
8:*2leaves,
8:*3leaves,
7:b1which,
7:b5which,
7:u0which,
8:b1leaves,
7:u4which,
8:b5leaves,
7:u6which,
8:u0leaves,
8:*21220pm,
8:*31220pm,
8:u4leaves,
8:u6leaves,
8:b11220pm,
8:b51220pm,
8:u01220pm,
8:u41220pm,
8:u61220pm,
11:*25-o'clock,
11:*35-o'clock,
11:b15-o'clock,
11:b55-o'clock,
11:u05-o'clock,
11:u45-o'clock,
11:u65-o'clock,
13:*2lowest-cost,
13:*3lowest-cost,
13:b1lowest-cost,
13:b5lowest-cost,
13:u0lowest-cost,
13:u4lowest-cost,
13:u6lowest-cost,
7:*2645am,
7:*3645am,
7:b1645am,
7:b5645am,
7:u0645am,
7:u4645am,
7:u6645am,
9:b1tuesday,
9:b5tuesday,
9:u0tuesday,
9:u4tuesday,
9:u6tuesday,
5:*2has,
5:*3has,
5:b1has,
5:b5has,
5:u0has,
5:u4has,
5:u6has,
6:*2much,
6:*3much,
5:b1how,
5:b5how,
5:u0how,
6:b1much,
5:u4how,
6:b5much,
5:u6how,
6:u0much,
6:u4much,
6:u6much,
12:*2round-trip,
12:*3round-trip,
12:b1round-trip,
12:b5round-trip,
12:u0round-trip,
12:u4round-trip,
12:u6round-trip,
6:*2long,
6:*3long,
6:b1long,
6:b5long,
6:u0long,
6:u4long,
6:u6long,
17:*2atlanta-airport,
17:*3atlanta-airport,
6:*2into,
6:*3into,
17:b1atlanta-airport,
17:b5atlanta-airport,
17:u0atlanta-airport,
6:b1into,
17:u4atlanta-airport,
6:b5into,
17:u6atlanta-airport,
6:u0into,
6:u4into,
6:u6into,
19:*2airport-limousine,
19:*3airport-limousine,
19:b1airport-limousine,
19:b5airport-limousine,
19:u0airport-limousine,
19:u4airport-limousine,
19:u6airport-limousine,
6:*2make,
6:*3make,
6:b1make,
6:*2trip,
6:*3trip,
6:b5make,
6:u0make,
6:u4make,
6:u6make,
6:b1trip,
6:b5trip,
6:u0trip,
6:u4trip,
6:u6trip,
7:b1again,
7:b5again,
7:u0again,
7:u4again,
7:u6again,
5:*2how,
5:*3how,
7:*2fares,
7:*3fares,
7:b1fares,
7:b5fares,
7:u0fares,
7:u4fares,
7:u6fares,
14:*2arrival-time,
14:*3arrival-time,
14:b1arrival-time,
14:b5arrival-time,
14:u0arrival-time,
14:u4arrival-time,
14:u6arrival-time,
7:*2755am,
7:*3755am,
7:b1755am,
7:b5755am,
7:u0755am,
7:u4755am,
7:u6755am,
8:*2latest,
8:*3latest,
8:b1latest,
8:b5latest,
8:u0latest,
8:u4latest,
8:u6latest,
5:*2755,
5:*3755,
5:b1755,
5:b5755,
5:u0755,
5:u4755,
5:u6755,
10:*2schedule,
10:*3schedule,
10:b1schedule,
10:b5schedule,
10:u0schedule,
10:u4schedule,
10:u6schedule,
5:*29pm,
5:*39pm,
5:b19pm,
5:b59pm,
5:u09pm,
5:u49pm,
5:u69pm,
14:*2twenty-ninth,
14:*3twenty-ninth,
10:*2november,
10:*3november,
14:*2twenty-third,
14:*3twenty-third,
10:b1november,
10:b5november,
10:u0november,
14:b1twenty-third,
10:u4november,
14:b5twenty-third,
10:u6november,
14:u0twenty-third,
6:*2year,
6:*3year,
14:u4twenty-third,
14:u6twenty-third,
6:*21991,
6:*31991,
6:u0this,
6:b1year,
5:*2i'd,
5:*3i'd,
6:u4this,
6:b5year,
6:u6this,
6:u0year,
6:b11991,
6:u4year,
6:b51991,
6:u6year,
6:u01991,
6:u41991,
6:u61991,
6:*2just,
6:*3just,
6:b1okay,
6:b5okay,
6:u0okay,
6:b1just,
6:u4okay,
6:b5just,
6:u6okay,
6:u0just,
6:u4just,
6:u6just,
5:*28am,
5:*38am,
7:b1hello,
7:b5hello,
7:u0hello,
7:u4hello,
7:u6hello,
7:*2let's,
7:*3let's,
5:*2see,
5:*3see,
7:b1let's,
7:b5let's,
7:u0let's,
5:b1see,
7:u4let's,
5:b5see,
7:u6let's,
5:u0see,
5:u4see,
5:u6see,
15:*2delta-airline,
15:*3delta-airline,
15:b1delta-airline,
15:b5delta-airline,
15:u0delta-airline,
15:u4delta-airline,
15:u6delta-airline,
7:*2stops,
7:*3stops,
7:b1stops,
7:b5stops,
7:u0stops,
7:u4stops,
7:u6stops,
5:*2way,
5:*3way,
5:b1way,
5:b5way,
5:u0way,
5:u4way,
5:u6way,
5:*2all,
5:*3all,
8:*2united,
8:*3united,
8:b1united,
8:b5united,
8:u0united,
8:u4united,
8:u6united,
7:*2815am,
7:*3815am,
4:*2by,
4:*3by,
16:*2united-airline,
16:*3united-airline,
4:b1by,
4:b5by,
16:b1united-airline,
16:b5united-airline,
16:u0united-airline,
16:u4united-airline,
16:u6united-airline,
4:b1oh,
4:b5oh,
4:u0oh,
4:u4oh,
4:u6oh,
17:*2eastern-airline,
17:*3eastern-airline,
17:b1eastern-airline,
17:b5eastern-airline,
17:u0eastern-airline,
17:u4eastern-airline,
17:u6eastern-airline,
6:*2some,
6:*3some,
6:b1some,
6:b5some,
6:u0some,
6:u4some,
6:u6some,
5:*29am,
5:*39am,
16:*2dallas-airport,
16:*3dallas-airport,
16:b1dallas-airport,
16:b5dallas-airport,
16:u0dallas-airport,
16:u4dallas-airport,
16:u6dallas-airport,
14:*2arrangements,
14:*3arrangements,
14:b1arrangements,
14:b5arrangements,
14:u0arrangements,
14:u4arrangements,
14:u6arrangements,
16:*2boston-airport,
16:*3boston-airport,
16:b1boston-airport,
16:b5boston-airport,
16:u0boston-airport,
16:u4boston-airport,
16:u6boston-airport,
5:*2can,
5:*3can,
11:*2departing,
11:*3departing,
11:b1departing,
11:b5departing,
11:u0departing,
11:u4departing,
11:u6departing,
9:*2airfare,
9:*3airfare,
9:b1airfare,
9:b5airfare,
9:u0airfare,
9:u4airfare,
9:u6airfare,
13:*2329-dollars,
13:*3329-dollars,
13:b1329-dollars,
13:b5329-dollars,
13:u0329-dollars,
13:u4329-dollars,
13:u6329-dollars,
6:*2cost,
6:*3cost,
6:b1cost,
6:b5cost,
6:u0cost,
6:u4cost,
6:u6cost,
5:*2air,
5:*3air,
14:*2restrictions,
14:*3restrictions,
5:b1air,
5:b5air,
5:u0air,
14:b1restrictions,
5:u4air,
14:b5restrictions,
5:u6air,
14:u0restrictions,
14:u4restrictions,
14:u6restrictions,
13:*2416-dollars,
13:*3416-dollars,
6:*2book,
6:*3book,
6:b1book,
6:b5book,
6:u0book,
6:u4book,
6:u6book,
7:*2coach,
7:*3coach,
10:*2discount,
10:*3discount,
7:b1coach,
7:b5coach,
7:u0coach,
10:b1discount,
7:u4coach,
10:b5discount,
7:u6coach,
9:*2arrange,
9:*3arrange,
9:b1arrange,
9:b5arrange,
9:u0arrange,
9:u4arrange,
9:u6arrange,
6:*2july,
6:*3july,
9:*2seventh,
9:*3seventh,
6:b1july,
6:b5july,
6:b1sure,
6:b5sure,
6:u0sure,
6:u4sure,
6:u6sure,
11:*2determine,
11:*3determine,
11:b1determine,
11:b5determine,
11:u0determine,
11:u4determine,
11:u6determine,
6:u0july,
9:b1seventh,
6:u4july,
9:b5seventh,
6:u6july,
9:u0seventh,
9:u4seventh,
9:u6seventh,
6:*2meal,
6:*3meal,
7:*2being,
7:*3being,
6:b1meal,
8:*2served,
8:*3served,
6:b5meal,
6:u0meal,
7:b1being,
6:u4meal,
7:b5being,
6:u6meal,
5:b18am,
5:b58am,
5:u08am,
6:*2such,
6:*3such,
5:u48am,
5:u68am,
6:b1such,
6:b5such,
6:u0such,
6:u4such,
6:u6such,
7:*2types,
7:*3types,
7:b1types,
7:b5types,
7:u0types,
7:u4types,
7:u6types,
6:*2dc10,
6:*3dc10,
10:*2sometime,
10:*3sometime,
10:b1sometime,
10:b5sometime,
10:u0sometime,
10:u4sometime,
10:u6sometime,
8:*2direct,
8:*3direct,
8:b1direct,
8:b5direct,
8:u0direct,
8:u4direct,
8:u6direct,
9:*212-noon,
9:*312-noon,
9:*2arrives,
9:*3arrives,
9:b1arrives,
9:b5arrives,
9:u0arrives,
9:u4arrives,
9:u6arrives,
15:u0early-morning,
15:u4early-morning,
15:u6early-morning,
15:*2approximately,
15:*3approximately,
5:*21pm,
5:*31pm,
15:b1approximately,
15:b5approximately,
6:*2many,
6:*3many,
6:b1many,
6:b5many,
6:u0many,
6:u4many,
6:u6many,
7:*2where,
7:*3where,
7:b1where,
7:b5where,
7:u0where,
7:u4where,
7:u6where,
13:*2dinner-meal,
13:*3dinner-meal,
5:*2420,
5:*3420,
5:b1420,
5:b5420,
5:u0420,
5:u4420,
5:u6420,
3:*25,
3:*35,
3:b15,
3:b55,
3:u05,
3:u45,
3:u65,
4:*2my,
4:*3my,
7:*2final,
7:*3final,
4:b1my,
13:*2destination,
13:*3destination,
4:b5my,
4:u0my,
7:b1final,
4:u4my,
7:b5final,
4:u6my,
7:u0final,
13:b1destination,
7:u4final,
13:b5destination,
7:u6final,
13:u0destination,
13:u4destination,
13:u6destination,
11:*2originate,
11:*3originate,
11:b1originate,
11:b5originate,
11:u0originate,
11:u4originate,
11:u6originate,
22:*2latest-time-possible,
22:*3latest-time-possible,
22:b1latest-time-possible,
22:b5latest-time-possible,
22:u0latest-time-possible,
22:u4latest-time-possible,
22:u6latest-time-possible,
11:*2fifteenth,
11:*3fifteenth,
8:*2during,
8:*3during,
11:*2breakfast,
11:*3breakfast,
8:b1during,
8:b5during,
5:*2296,
5:*3296,
8:*2serves,
8:*3serves,
5:b1296,
5:b5296,
5:u0296,
8:b1serves,
5:u4296,
8:b5serves,
5:u6296,
7:b1first,
7:b5first,
7:u0first,
7:u4first,
7:u6first,
17:*2early-afternoon,
17:*3early-afternoon,
8:*2should,
8:*3should,
8:b1should,
8:b5should,
8:u0should,
8:u4should,
8:u6should,
7:*2615pm,
7:*3615pm,
7:*2their,
7:*3their,
7:b1their,
7:b5their,
7:u0their,
7:u4their,
7:u6their,
24:*2earliest-possible-time,
24:*3earliest-possible-time,
10:*2question,
10:*3question,
10:b1question,
10:b5question,
10:u0question,
10:u4question,
10:u6question,
6:*2live,
6:*3live,
6:b1live,
6:b5live,
6:u0live,
6:u4live,
6:u6live,
8:*2trying,
8:*3trying,
8:b1trying,
8:b5trying,
8:u0trying,
8:u4trying,
8:u6trying,
12:*2connection,
12:*3connection,
12:b1connection,
12:b5connection,
12:u0connection,
12:u4connection,
12:u6connection,
7:*2those,
7:*3those,
7:b1those,
7:b5those,
11:*2thirtieth,
11:*3thirtieth,
11:b1thirtieth,
11:b5thirtieth,
11:u0thirtieth,
11:u4thirtieth,
11:u6thirtieth,
6:b1fine,
6:b5fine,
6:u0fine,
6:u4fine,
6:u6fine,
6:*2help,
6:*3help,
6:b1help,
6:b5help,
6:u0help,
6:u4help,
6:u6help,
6:*2very,
6:*3very,
5:*2now,
5:*3now,
5:b1now,
5:b5now,
5:u0now,
5:u4now,
5:u6now,
5:*2747,
5:*3747,
5:b1747,
5:b5747,
5:u0747,
5:u4747,
5:u6747,
6:*2able,
6:*3able,
6:b1able,
5:*2put,
5:*3put,
6:b5able,
6:u0able,
6:u4able,
6:u6able,
5:b1put,
5:b5put,
5:u0put,
5:u4put,
5:u6put,
16:*2twenty-seventh,
16:*3twenty-seventh,
16:b1twenty-seventh,
16:b5twenty-seventh,
16:u0twenty-seventh,
16:u4twenty-seventh,
16:u6twenty-seventh,
7:*2first,
7:*3first,
7:*2night,
7:*3night,
7:b1night,
7:b5night,
7:u0night,
7:u4night,
7:u6night,
7:b1630am,
7:b5630am,
7:u0630am,
7:u4630am,
7:u6630am,
5:*2650,
5:*3650,
7:*2third,
7:*3third,
7:*2rates,
7:*3rates,
7:b1rates,
7:b5rates,
7:u0rates,
7:u4rates,
7:u6rates,
17:*2least-expensive,
17:*3least-expensive,
17:b1least-expensive,
17:b5least-expensive,
17:u0least-expensive,
17:u4least-expensive,
17:u6least-expensive,
16:*2city-of-boston,
16:*3city-of-boston,
16:b1city-of-boston,
16:b5city-of-boston,
16:u0city-of-boston,
16:u4city-of-boston,
16:u6city-of-boston,
8:b1kindly,
8:b5kindly,
8:u0kindly,
8:u4kindly,
8:u6kindly,
8:*2inform,
8:*3inform,
8:b1inform,
8:b5inform,
8:u0inform,
8:u4inform,
8:u6inform,
17:*212-o'clock-noon,
17:*312-o'clock-noon,
9:*2eastern,
9:*3eastern,
9:b1eastern,
5:*2825,
5:*3825,
9:b5eastern,
9:u0eastern,
9:u4eastern,
9:u6eastern,
5:b1825,
5:b5825,
5:u0825,
5:u4825,
5:u6825,
6:*2when,
6:*3when,
6:b1when,
6:b5when,
6:u0when,
6:u4when,
6:u6when,
5:*2555,
5:*3555,
5:b1555,
5:b5555,
5:u0555,
5:u4555,
5:u6555,
5:*26pm,
5:*36pm,
5:*25pm,
5:*35pm,
7:*2sorry,
7:*3sorry,
7:b1sorry,
7:b5sorry,
7:u0sorry,
7:u4sorry,
7:u6sorry,
14:*2thirty-first,
14:*3thirty-first,
14:b1thirty-first,
14:b5thirty-first,
14:u0thirty-first,
14:u4thirty-first,
14:u6thirty-first,
6:*2then,
6:*3then,
6:b1then,
6:b5then,
6:u0then,
6:u4then,
6:u6then,
8:*2fourth,
8:*3fourth,
8:b1fourth,
8:b5fourth,
8:u0fourth,
8:u4fourth,
8:u6fourth,
6:*2plan,
6:*3plan,
6:b1plan,
6:b5plan,
6:u0plan,
6:u4plan,
6:u6plan,
10:*2no-stops,
10:*3no-stops,
10:b1no-stops,
10:b5no-stops,
10:u0no-stops,
10:u4no-stops,
10:u6no-stops,
9:*2economy,
9:*3economy,
9:b1economy,
9:b5economy,
9:u0economy,
9:u4economy,
9:u6economy,
10:b1thursday,
7:*2fifth,
7:*3fifth,
10:b5thursday,
10:u0thursday,
10:u4thursday,
10:u6thursday,
7:b1fifth,
7:b5fifth,
7:u0fifth,
7:u4fifth,
7:u6fifth,
15:*2twenty-eighth,
15:*3twenty-eighth,
9:*2october,
9:*3october,
9:b1october,
9:b5october,
9:*2twelfth,
9:*3twelfth,
9:*2numbers,
9:*3numbers,
9:*2connect,
9:*3connect,
9:b1connect,
9:b5connect,
9:u0connect,
9:u4connect,
9:u6connect,
8:*2cities,
8:*3cities,
7:u0those,
7:u4those,
7:u6those,
5:*2may,
5:*3may,
10:*2planning,
10:*3planning,
10:b1planning,
10:b5planning,
10:u0planning,
10:u4planning,
10:u6planning,
5:*2269,
5:*3269,
5:b1269,
5:b5269,
5:u0269,
5:u4269,
5:u6269,
5:*2428,
5:*3428,
5:b1428,
5:b5428,
5:u0428,
5:u4428,
5:u6428,
7:*2times,
7:*3times,
7:b1times,
7:b5times,
7:u0times,
7:u4times,
7:u6times,
7:*2makes,
7:*3makes,
7:b1makes,
7:b5makes,
7:u0makes,
7:u4makes,
7:u6makes,
10:*2one-stop,
10:*3one-stop,
10:b1one-stop,
10:b5one-stop,
10:u0one-stop,
10:u4one-stop,
10:u6one-stop,
7:*2april,
7:*3april,
7:b1april,
7:b5april,
7:u0april,
14:b1twenty-first,
7:u4april,
14:b5twenty-first,
7:u6april,
14:u0twenty-first,
14:u4twenty-first,
14:u6twenty-first,
11:*2beginning,
11:*3beginning,
11:b1beginning,
11:b5beginning,
11:u0beginning,
14:*2twenty-fifth,
14:*3twenty-fifth,
11:u4beginning,
11:u6beginning,
14:b1twenty-fifth,
11:*2returning,
11:*3returning,
14:b5twenty-fifth,
14:u0twenty-fifth,
14:u4twenty-fifth,
14:u6twenty-fifth,
11:b1returning,
11:b5returning,
11:u0returning,
7:*2sixth,
7:*3sixth,
11:u4returning,
11:u6returning,
11:*27-o'clock,
11:*37-o'clock,
11:b17-o'clock,
11:b57-o'clock,
11:u07-o'clock,
11:u47-o'clock,
11:u67-o'clock,
11:b1fifteenth,
11:b5fifteenth,
11:u0fifteenth,
11:u4fifteenth,
11:u6fifteenth,
9:*2sixteen,
9:*3sixteen,
9:b1sixteen,
9:b5sixteen,
9:u0sixteen,
9:u4sixteen,
9:u6sixteen,
11:*2seventeen,
11:*3seventeen,
11:b1seventeen,
11:b5seventeen,
11:u0seventeen,
11:u4seventeen,
11:u6seventeen,
8:*2twenty,
8:*3twenty,
8:b1twenty,
8:b5twenty,
8:u0twenty,
8:u4twenty,
8:u6twenty,
11:b18-o'clock,
11:b58-o'clock,
11:u08-o'clock,
11:u48-o'clock,
11:u68-o'clock,
6:*2four,
6:*3four,
6:b1four,
6:b5four,
6:u0four,
6:u4four,
6:u6four,
6:*21039,
6:*31039,
6:b11039,
6:b51039,
6:u01039,
6:u41039,
6:u61039,
5:*2257,
5:*3257,
7:*2we're,
7:*3we're,
7:b1great,
7:b5great,
7:u0great,
7:u4great,
7:u6great,
8:*2depart,
8:*3depart,
8:b1depart,
8:b5depart,
8:u0depart,
8:u4depart,
8:u6depart,
8:*2sounds,
8:*3sounds,
7:*2great,
7:*3great,
8:b1sounds,
8:b5sounds,
8:u0sounds,
8:u4sounds,
8:u6sounds,
12:*2twenty-one,
12:*3twenty-one,
12:b1twenty-one,
12:b5twenty-one,
12:u0twenty-one,
12:u4twenty-one,
12:u6twenty-one,
7:*2one's,
7:*3one's,
7:b1one's,
5:*2too,
5:*3too,
7:b5one's,
7:u0one's,
7:u4one's,
7:u6one's,
5:b1too,
5:b5too,
5:u0too,
5:u4too,
5:u6too,
15:*2twenty-second,
15:*3twenty-second,
15:b1twenty-second,
15:b5twenty-second,
15:u0twenty-second,
15:u4twenty-second,
15:u6twenty-second,
11:*2nighttime,
11:*3nighttime,
11:*2departure,
11:*3departure,
11:b1nighttime,
11:b5nighttime,
11:u0nighttime,
11:b1departure,
11:u4nighttime,
11:b5departure,
11:u6nighttime,
6:b1show,
6:b5show,
6:u0show,
6:u4show,
6:u6show,
19:*2dallas-fort-worth,
19:*3dallas-fort-worth,
19:b1dallas-fort-worth,
29:*2san-francisco-international,
29:*3san-francisco-international,
19:b5dallas-fort-worth,
19:u0dallas-fort-worth,
19:u4dallas-fort-worth,
19:u6dallas-fort-worth,
10:*2arrivals,
10:*3arrivals,
10:b1arrivals,
10:b5arrivals,
10:u0arrivals,
10:u4arrivals,
10:u6arrivals,
6:*2most,
6:*3most,
6:b1most,
6:b5most,
6:u0most,
6:u4most,
6:u6most,
13:*2connections,
13:*3connections,
13:b1connections,
13:b5connections,
13:u0connections,
13:u4connections,
13:u6connections,
7:*2tenth,
7:*3tenth,
7:b1tenth,
7:b5tenth,
10:*2eleventh,
10:*3eleventh,
6:*2june,
6:*3june,
6:b1june,
6:b5june,
6:u0june,
6:u4june,
6:u6june,
16:*2business-class,
16:*3business-class,
7:*2daily,
7:*3daily,
7:b1daily,
7:b5daily,
7:u0daily,
7:u4daily,
7:u6daily,
19:*2stapleton-airport,
19:*3stapleton-airport,
19:b1stapleton-airport,
10:*2tomorrow,
10:*3tomorrow,
19:b5stapleton-airport,
19:u0stapleton-airport,
19:u4stapleton-airport,
19:u6stapleton-airport,
10:b1tomorrow,
10:b5tomorrow,
8:*2thrift,
8:*3thrift,
8:b1thrift,
8:b5thrift,
8:u0thrift,
8:u4thrift,
8:u6thrift,
13:*2restriction,
13:*3restriction,
9:b1explain,
6:*2ap80,
6:*3ap80,
9:b5explain,
9:u0explain,
13:b1restriction,
9:u4explain,
13:b5restriction,
9:u6explain,
6:*2code,
6:*3code,
4:*2qx,
4:*3qx,
6:b1code,
6:b5code,
13:*2represented,
13:*3represented,
13:b1represented,
13:b5represented,
13:u0represented,
10:*2database,
10:*3database,
13:u4represented,
13:u6represented,
5:*27pm,
5:*37pm,
5:b17pm,
5:b57pm,
5:u07pm,
5:u47pm,
5:u67pm,
5:*2315,
5:*3315,
4:*2aa,
4:*3aa,
5:*2459,
5:*3459,
4:b1aa,
4:b5aa,
4:u0aa,
5:b1459,
4:u4aa,
5:b5459,
4:u6aa,
5:*2m80,
5:*3m80,
8:b1cities,
8:b5cities,
8:u0cities,
8:u4cities,
8:u6cities,
9:*2besides,
9:*3besides,
9:b1besides,
9:b5besides,
9:u0besides,
9:u4besides,
9:u6besides,
9:*2provide,
9:*3provide,
9:b1provide,
9:b5provide,
9:u0provide,
9:u4provide,
9:u6provide,
5:*2jet,
5:*3jet,
5:b1jet,
5:b5jet,
5:u0jet,
5:u4jet,
5:u6jet,
6:*2only,
6:*3only,
6:b1only,
6:b5only,
6:u0only,
6:u4only,
6:u6only,
7:*2today,
7:*3today,
4:*2dl,
4:*3dl,
11:*2different,
11:*3different,
11:b1different,
9:*2classes,
9:*3classes,
11:b5different,
11:u0different,
11:u4different,
11:u6different,
9:b1classes,
9:b5classes,
9:u0classes,
9:u4classes,
9:u6classes,
3:*2b,
3:*3b,
6:u0code,
3:b1b,
6:*2same,
6:*3same,
6:u4code,
3:b5b,
6:u6code,
3:u0b,
3:u4b,
3:u6b,
6:b1same,
6:b5same,
6:u0same,
6:u4same,
6:u6same,
3:*2c,
3:*3c,
9:*2booking,
9:*3booking,
9:b1booking,
9:b5booking,
9:u0booking,
9:u4booking,
9:u6booking,
4:*2yn,
4:*3yn,
15:*2no-later-than,
15:*3no-later-than,
5:*22pm,
5:*32pm,
15:b1no-later-than,
15:b5no-later-than,
15:u0no-later-than,
5:b12pm,
15:u4no-later-than,
5:b52pm,
15:u6no-later-than,
5:u02pm,
5:u42pm,
5:u62pm,
8:b1what's,
8:b5what's,
8:u0what's,
8:u4what's,
8:u6what's,
6:*2ap57,
6:*3ap57,
7:*2codes,
7:*3codes,
8:*2belong,
8:*3belong,
7:b1codes,
7:b5codes,
7:u0codes,
8:b1belong,
15:*2economy-class,
15:*3economy-class,
7:u4codes,
8:b5belong,
7:u6codes,
8:u0belong,
8:u4belong,
8:u6belong,
5:*2via,
5:*3via,
5:b1via,
5:b5via,
9:*2layover,
9:*3layover,
9:b1layover,
9:b5layover,
9:u0layover,
9:u4layover,
9:u6layover,
6:*2more,
6:*3more,
6:b1more,
6:b5more,
6:u0more,
16:b1business-class,
6:*2than,
6:*3than,
6:u4more,
16:b5business-class,
6:u6more,
16:u0business-class,
16:u4business-class,
16:u6business-class,
6:b1than,
7:*2other,
7:*3other,
6:b5than,
6:u0than,
6:u4than,
6:u6than,
7:b1other,
7:b5other,
15:b1economy-class,
15:b5economy-class,
15:u0economy-class,
15:u4economy-class,
15:u6economy-class,
16:*2late-afternoon,
16:*3late-afternoon,
16:b1late-afternoon,
16:b5late-afternoon,
16:u0late-afternoon,
16:u4late-afternoon,
16:u6late-afternoon,
5:b11pm,
5:b51pm,
5:u01pm,
5:u41pm,
5:u61pm,
11:*23-o'clock,
11:*33-o'clock,
11:b13-o'clock,
11:b53-o'clock,
11:u03-o'clock,
11:u43-o'clock,
11:u63-o'clock,
9:b112-noon,
9:b512-noon,
9:u012-noon,
9:u412-noon,
9:u612-noon,
9:*2delta's,
9:*3delta's,
9:b1delta's,
9:b5delta's,
9:u0delta's,
9:u4delta's,
9:u6delta's,
12:*2rental-car,
12:*3rental-car,
12:b1rental-car,
12:b5rental-car,
12:u0rental-car,
12:u4rental-car,
12:u6rental-car,
5:*2far,
5:*3far,
5:b1far,
5:b5far,
5:u0far,
5:u4far,
5:u6far,
10:*2saturday,
10:*3saturday,
10:b1saturday,
10:b5saturday,
6:*2come,
6:*3come,
6:b1come,
6:b5come,
6:u0come,
6:u4come,
6:u6come,
10:*2smallest,
10:*3smallest,
9:*2seating,
9:*3seating,
10:b1smallest,
10:*2capacity,
10:*3capacity,
10:b5smallest,
10:u0smallest,
9:b1seating,
10:u4smallest,
9:b5seating,
10:u6smallest,
16:*2most-expensive,
16:*3most-expensive,
16:b1most-expensive,
9:*2tickets,
9:*3tickets,
16:b5most-expensive,
16:u0most-expensive,
16:u4most-expensive,
16:u6most-expensive,
9:b1tickets,
9:b5tickets,
9:u0tickets,
9:u4tickets,
9:u6tickets,
11:*2atlanta's,
11:*3atlanta's,
11:b1atlanta's,
11:b5atlanta's,
6:*2noon,
6:*3noon,
6:b1noon,
6:b5noon,
6:u0noon,
6:u4noon,
6:u6noon,
13:*2originating,
13:*3originating,
13:b1originating,
13:b5originating,
13:u0originating,
13:u4originating,
13:u6originating,
7:*2210pm,
7:*3210pm,
8:*2eighth,
8:*3eighth,
7:*2ninth,
7:*3ninth,
8:*2offers,
8:*3offers,
8:b1offers,
8:b5offers,
8:u0offers,
8:u4offers,
8:u6offers,
9:*2heading,
9:*3heading,
9:b1heading,
9:b5heading,
9:u0heading,
9:u4heading,
9:u6heading,
5:*2279,
5:*3279,
5:b1279,
5:b5279,
5:u0279,
5:u4279,
5:u6279,
8:*2137338,
8:*3137338,
7:*2630am,
7:*3630am,
3:*23,
3:*33,
3:b13,
3:b53,
3:u03,
3:u43,
3:u63,
11:*21-o'clock,
11:*31-o'clock,
8:*2toward,
8:*3toward,
8:b1toward,
8:b5toward,
8:u0toward,
8:u4toward,
8:u6toward,
17:*2oakland-airport,
17:*3oakland-airport,
6:*2each,
6:*3each,
6:b1each,
6:b5each,
6:u0each,
6:u4each,
6:u6each,
3:*2k,
3:*3k,
11:*2lufthansa,
11:*3lufthansa,
11:b1lufthansa,
11:b5lufthansa,
11:u0lufthansa,
11:u4lufthansa,
11:u6lufthansa,
14:*2twenty-sixth,
14:*3twenty-sixth,
14:b1twenty-sixth,
14:b5twenty-sixth,
6:*2name,
6:*3name,
6:b1name,
6:b5name,
6:u0name,
6:u4name,
6:u6name,
22:*2philadelphia-airport,
22:*3philadelphia-airport,
22:b1philadelphia-airport,
22:b5philadelphia-airport,
22:u0philadelphia-airport,
22:u4philadelphia-airport,
22:u6philadelphia-airport,
3:*21,
3:*31,
3:b11,
3:b51,
3:u01,
3:u41,
3:u61,
3:*24,
3:*34,
3:b14,
3:b54,
3:u04,
3:u44,
3:u64,
16:*2departure-time,
16:*3departure-time,
16:b1departure-time,
16:b5departure-time,
16:u0departure-time,
16:u4departure-time,
16:u6departure-time,
17:b1early-afternoon,
17:b5early-afternoon,
17:u0early-afternoon,
17:u4early-afternoon,
17:u6early-afternoon,
11:*2limousine,
11:*3limousine,
7:*2total,
7:*3total,
7:b1total,
7:b5total,
7:u0total,
7:u4total,
7:u6total,
9:u0seating,
10:b1capacity,
9:u4seating,
10:b5capacity,
9:u6seating,
10:u0capacity,
10:u4capacity,
10:u6capacity,
12:*2advertises,
12:*3advertises,
8:*2having,
8:*3having,
12:b1advertises,
12:b5advertises,
12:u0advertises,
8:b1having,
12:u4advertises,
8:b5having,
12:u6advertises,
8:u0having,
8:u4having,
8:u6having,
3:*2f,
3:*3f,
15:*2logan-airport,
15:*3logan-airport,
11:u0departure,
11:u4departure,
11:u6departure,
20:*2pittsburgh-airport,
20:*3pittsburgh-airport,
20:b1pittsburgh-airport,
20:b5pittsburgh-airport,
20:u0pittsburgh-airport,
6:*2town,
6:*3town,
20:u4pittsburgh-airport,
20:u6pittsburgh-airport,
7:*2kinds,
7:*3kinds,
7:b1kinds,
7:b5kinds,
7:u0kinds,
7:u4kinds,
7:u6kinds,
11:b1limousine,
41:*2dallas-fort-worth-international-airport,
41:*3dallas-fort-worth-international-airport,
11:b5limousine,
11:u0limousine,
11:u4limousine,
11:u6limousine,
41:b1dallas-fort-worth-international-airport,
41:b5dallas-fort-worth-international-airport,
41:u0dallas-fort-worth-international-airport,
41:u4dallas-fort-worth-international-airport,
41:u6dallas-fort-worth-international-airport,
7:*2eight,
7:*3eight,
8:*2within,
8:*3within,
8:b1within,
8:b5within,
22:*2schedule-for-flights,
22:*3schedule-for-flights,
22:b1schedule-for-flights,
22:b5schedule-for-flights,
22:u0schedule-for-flights,
22:u4schedule-for-flights,
22:u6schedule-for-flights,
4:*2s-,
4:*3s-,
11:*2designate,
11:*3designate,
4:b1s-,
4:b5s-,
4:u0s-,
11:b1designate,
4:u4s-,
11:b5designate,
4:u6s-,
11:u0designate,
11:u4designate,
11:u6designate,
7:*2takes,
7:*3takes,
7:b1takes,
7:*2least,
7:*3least,
7:b5takes,
7:u0takes,
8:*2amount,
8:*3amount,
7:u4takes,
7:u6takes,
7:b1least,
7:b5least,
7:u0least,
8:b1amount,
7:u4least,
8:b5amount,
7:u6least,
8:u0amount,
8:u4amount,
8:u6amount,
8:*2planes,
8:*3planes,
8:b1planes,
8:b5planes,
8:u0planes,
8:u4planes,
8:u6planes,
9:*2usa-air,
9:*3usa-air,
9:b1usa-air,
9:b5usa-air,
9:u0usa-air,
9:u4usa-air,
9:u6usa-air,
8:*2prices,
8:*3prices,
8:b1prices,
8:b5prices,
8:u0prices,
8:u4prices,
8:u6prices,
8:*2what's,
8:*3what's,
9:*2various,
9:*3various,
11:*2airplanes,
11:*3airplanes,
9:b1various,
9:b5various,
9:u0various,
11:b1airplanes,
9:u4various,
11:b5airplanes,
9:u6various,
11:u0airplanes,
6:*2uses,
6:*3uses,
11:u4airplanes,
11:u6airplanes,
5:*2who,
5:*3who,
5:b1who,
5:b5who,
5:b19am,
5:b59am,
5:u09am,
5:u49am,
5:u69am,
17:*2time-of-arrival,
17:*3time-of-arrival,
17:b1time-of-arrival,
17:b5time-of-arrival,
17:u0time-of-arrival,
17:u4time-of-arrival,
17:u6time-of-arrival,
17:*2departure-times,
17:*3departure-times,
17:b1departure-times,
17:b5departure-times,
17:u0departure-times,
17:u4departure-times,
17:u6departure-times,
5:*28pm,
5:*38pm,
19:*2baltimore-airport,
19:*3baltimore-airport,
6:*2show,
6:*3show,
11:*2including,
11:*3including,
11:b1including,
11:b5including,
11:u0including,
11:u4including,
11:u6including,
7:*2offer,
7:*3offer,
7:b1offer,
7:b5offer,
7:u0offer,
6:b1dc10,
7:u4offer,
6:b5dc10,
7:u6offer,
6:u0dc10,
6:u4dc10,
6:u6dc10,
8:*2eleven,
8:*3eleven,
8:b1eleven,
8:b5eleven,
8:u0eleven,
8:u4eleven,
8:u6eleven,
9:*2any-day,
9:*3any-day,
9:b1any-day,
9:b5any-day,
9:u0any-day,
9:u4any-day,
9:u6any-day,
5:*2352,
5:*3352,
5:b1352,
5:b5352,
5:u0352,
5:u4352,
5:u6352,
7:*2price,
7:*3price,
7:b1price,
7:b5price,
7:u0price,
7:u4price,
7:u6price,
11:*2operating,
11:*3operating,
11:b1operating,
9:*2sundays,
9:*3sundays,
11:b5operating,
11:u0operating,
11:u4operating,
11:u6operating,
10:*2services,
10:*3services,
10:b1services,
10:b5services,
10:u0services,
10:u4services,
10:u6services,
14:*2reservations,
14:*3reservations,
14:b1reservations,
14:b5reservations,
14:u0reservations,
14:u4reservations,
14:u6reservations,
6:*21765,
6:*31765,
6:b11765,
6:b51765,
6:u01765,
6:u41765,
6:u61765,
17:*2flight-schedule,
17:*3flight-schedule,
17:b1flight-schedule,
17:b5flight-schedule,
17:u0flight-schedule,
5:*2f28,
5:*3f28,
17:u4flight-schedule,
17:u6flight-schedule,
5:b1f28,
5:b5f28,
5:u0f28,
5:u4f28,
5:u6f28,
20:*2air-taxi-operation,
20:*3air-taxi-operation,
20:b1air-taxi-operation,
36:*2philadelphia-international-airport,
36:*3philadelphia-international-airport,
20:b5air-taxi-operation,
20:u0air-taxi-operation,
20:u4air-taxi-operation,
20:u6air-taxi-operation,
4:*2pm,
4:*3pm,
4:b1pm,
4:b5pm,
4:u0pm,
4:u4pm,
4:u6pm,
9:*2serving,
9:*3serving,
9:b1serving,
9:b5serving,
9:u0serving,
9:u4serving,
9:u6serving,
11:b1breakfast,
11:b5breakfast,
11:u0breakfast,
8:b1served,
11:u4breakfast,
8:b5served,
11:u6breakfast,
8:u0served,
8:u4served,
8:u6served,
10:b1anything,
10:b5anything,
10:u0anything,
10:u4anything,
10:u6anything,
5:*2say,
5:*3say,
5:b1say,
10:*2mealtime,
10:*3mealtime,
5:b5say,
5:u0say,
5:u4say,
5:u6say,
7:*2thank,
7:*3thank,
5:*2run,
5:*3run,
5:b1run,
5:b5run,
5:u0run,
5:u4run,
5:u6run,
7:*2seats,
7:*3seats,
7:b1seats,
7:b5seats,
7:u0seats,
7:u4seats,
7:u6seats,
7:u0other,
7:u4other,
7:u6other,
9:*2earlier,
9:*3earlier,
9:b1earlier,
6:*21017,
6:*31017,
9:b5earlier,
9:u0earlier,
9:u4earlier,
9:u6earlier,
6:b11017,
6:b51017,
6:u01017,
6:u41017,
6:u61017,
5:*2630,
5:*3630,
14:*25-o'clock-pm,
14:*35-o'clock-pm,
14:*24-o'clock-pm,
14:*34-o'clock-pm,
7:*2later,
7:*3later,
7:b1later,
7:b5later,
7:u0later,
7:u4later,
7:u6later,
14:*26-o'clock-pm,
14:*36-o'clock-pm,
5:b16pm,
5:b56pm,
5:u06pm,
5:u46pm,
5:u66pm,
10:*2serviced,
10:*3serviced,
10:b1serviced,
10:b5serviced,
10:u0serviced,
10:u4serviced,
10:u6serviced,
5:*2dfw,
5:*3dfw,
5:b1dfw,
5:b5dfw,
5:u0dfw,
5:u4dfw,
5:u6dfw,
8:*21133am,
8:*31133am,
8:b11133am,
6:*243pm,
6:*343pm,
8:b51133am,
8:u01133am,
8:u41133am,
8:u61133am,
10:*2provided,
10:*3provided,
10:b1provided,
10:b5provided,
10:u0provided,
10:u4provided,
10:u6provided,
4:u0by,
4:u4by,
4:u6by,
10:*2provides,
10:*3provides,
10:b1provides,
10:b5provides,
10:u0provides,
10:u4provides,
10:u6provides,
6:*2both,
6:*3both,
6:b1both,
6:b5both,
6:u0both,
6:u4both,
6:u6both,
7:*2meals,
7:*3meals,
7:b1meals,
7:b5meals,
7:u0meals,
7:u4meals,
7:u6meals,
10:*2airplane,
10:*3airplane,
10:b1airplane,
10:b5airplane,
10:u0airplane,
10:u4airplane,
10:u6airplane,
11:*26-o'clock,
11:*36-o'clock,
8:*2sunday,
8:*3sunday,
11:b16-o'clock,
11:b56-o'clock,
11:u06-o'clock,
8:b1sunday,
11:u46-o'clock,
8:b5sunday,
11:u66-o'clock,
6:*2mean,
6:*3mean,
3:b18,
3:b58,
3:u08,
3:u48,
3:u68,
14:b1twenty-ninth,
14:b5twenty-ninth,
14:u0twenty-ninth,
14:u4twenty-ninth,
14:u6twenty-ninth,
7:b1third,
7:b5third,
7:u0third,
7:u4third,
7:u6third,
12:*2american's,
12:*3american's,
12:b1american's,
12:b5american's,
12:u0american's,
12:u4american's,
12:u6american's,
5:*2bwi,
5:*3bwi,
5:b1bwi,
5:b5bwi,
5:u0bwi,
5:u4bwi,
5:u6bwi,
7:*2still,
7:*3still,
7:b1still,
7:b5still,
7:u0still,
7:u4still,
7:u6still,
7:*2cover,
7:*3cover,
7:b1cover,
7:b5cover,
7:u0cover,
7:u4cover,
7:u6cover,
6:*2less,
6:*3less,
6:b1less,
13:*2200-dollars,
13:*3200-dollars,
6:b5less,
6:u0less,
6:u4less,
6:u6less,
13:b1200-dollars,
13:b5200-dollars,
5:*2oak,
5:*3oak,
5:b1oak,
5:*2atl,
5:*3atl,
5:b5oak,
5:u0oak,
5:u4oak,
5:u6oak,
9:*2qx-fare,
9:*3qx-fare,
9:b1qx-fare,
9:b5qx-fare,
9:u0qx-fare,
9:u4qx-fare,
9:u6qx-fare,
14:*2lowest-price,
14:*3lowest-price,
14:b1lowest-price,
14:b5lowest-price,
14:u0lowest-price,
14:u4lowest-price,
14:u6lowest-price,
4:*282,
4:*382,
4:b182,
4:b582,
4:u082,
5:*2139,
5:*3139,
4:u482,
4:u682,
9:*2q-fares,
9:*3q-fares,
9:b1q-fares,
9:b5q-fares,
9:u0q-fares,
9:u4q-fares,
9:u6q-fares,
13:*2124-dollars,
13:*3124-dollars,
13:b1124-dollars,
13:b5124-dollars,
13:u0124-dollars,
13:u4124-dollars,
13:u6124-dollars,
4:*2ls,
4:*3ls,
7:*2stand,
7:*3stand,
4:b1ls,
4:b5ls,
4:u0ls,
7:b1stand,
4:u4ls,
7:b5stand,
4:u6ls,
7:*2level,
7:*3level,
9:*2carries,
9:*3carries,
9:b1carries,
9:b5carries,
9:u0carries,
9:u4carries,
9:u6carries,
12:*2passengers,
12:*3passengers,
6:*21505,
6:*31505,
6:b11505,
6:b51505,
6:u01505,
6:u41505,
6:u61505,
7:*2serve,
7:*3serve,
7:*2lunch,
7:*3lunch,
7:b1serve,
7:b5serve,
11:*2itinerary,
11:*3itinerary,
11:b1itinerary,
11:b5itinerary,
11:u0itinerary,
11:u4itinerary,
11:u6itinerary,
12:b1connecting,
12:b5connecting,
12:u0connecting,
12:u4connecting,
12:u6connecting,
9:*2departs,
9:*3departs,
9:b1departs,
9:b5departs,
9:u0departs,
9:u4departs,
9:u6departs,
7:*2local,
7:*3local,
7:b1local,
7:b5local,
8:*2either,
8:*3either,
8:b1either,
8:b5either,
8:u0either,
8:u4either,
8:u6either,
27:*2dallas-fort-worth-airport,
27:*3dallas-fort-worth-airport,
27:b1dallas-fort-worth-airport,
27:b5dallas-fort-worth-airport,
27:u0dallas-fort-worth-airport,
27:u4dallas-fort-worth-airport,
27:u6dallas-fort-worth-airport,
6:*21940,
6:*31940,
12:b1passengers,
12:b5passengers,
12:u0passengers,
8:*2boeing,
8:*3boeing,
12:u4passengers,
12:u6passengers,
5:*2737,
5:*3737,
8:b1boeing,
6:*2hold,
6:*3hold,
8:b5boeing,
8:u0boeing,
5:b1737,
8:u4boeing,
5:b5737,
8:u6boeing,
3:*26,
3:*36,
3:b16,
3:b56,
3:u06,
3:u46,
3:u66,
9:*2qualify,
9:*3qualify,
9:b1qualify,
9:b5qualify,
9:u0qualify,
9:u4qualify,
9:u6qualify,
10:b1describe,
10:b5describe,
10:u0describe,
10:u4describe,
10:u6describe,
5:*2j31,
5:*3j31,
5:b1j31,
5:b5j31,
5:*2733,
5:*3733,
5:*272s,
5:*372s,
5:*2734,
5:*3734,
5:*2100,
5:*3100,
13:*2415-dollars,
13:*3415-dollars,
5:*2705,
5:*3705,
5:b1705,
5:b5705,
5:u0705,
5:u4705,
5:u6705,
4:*271,
4:*371,
4:b171,
4:b571,
4:u071,
4:u471,
4:u671,
10:*2directly,
10:*3directly,
10:b1directly,
10:b5directly,
10:u0directly,
10:u4directly,
10:u6directly,
11:*2scheduled,
11:*3scheduled,
11:b1scheduled,
10:*2december,
10:*3december,
11:b5scheduled,
11:u0scheduled,
11:u4scheduled,
11:u6scheduled,
10:b1december,
10:b5december,
11:*2turboprop,
11:*3turboprop,
11:b1turboprop,
11:b5turboprop,
11:u0turboprop,
11:u4turboprop,
11:u6turboprop,
9:*2doesn't,
9:*3doesn't,
7:*2catch,
7:*3catch,
7:b1catch,
7:b5catch,
7:u0catch,
7:u4catch,
7:u6catch,
20:*2lufthansa-airlines,
20:*3lufthansa-airlines,
20:b1lufthansa-airlines,
20:b5lufthansa-airlines,
20:u0lufthansa-airlines,
20:u4lufthansa-airlines,
20:u6lufthansa-airlines,
10:u0saturday,
10:u4saturday,
10:u6saturday,
7:*2logan,
7:*3logan,
7:b1logan,
7:b5logan,
7:u0logan,
7:u4logan,
7:u6logan,
11:*22-o'clock,
11:*32-o'clock,
11:b12-o'clock,
11:b52-o'clock,
11:u02-o'clock,
11:u42-o'clock,
11:u62-o'clock,
10:*2distance,
10:*3distance,
10:b1distance,
10:b5distance,
10:u0distance,
10:u4distance,
10:u6distance,
10:*2tuesdays,
10:*3tuesdays,
11:*2companies,
11:*3companies,
11:b1companies,
11:b5companies,
11:u0companies,
11:u4companies,
11:u6companies,
8:u0serves,
8:u4serves,
8:u6serves,
8:*2people,
8:*3people,
8:b1people,
8:b5people,
8:u0people,
8:u4people,
8:u6people,
9:*2carried,
9:*3carried,
9:b1carried,
9:b5carried,
9:u0carried,
9:u4carried,
9:u6carried,
10:*2shortest,
10:*3shortest,
10:b1shortest,
10:b5shortest,
10:u0shortest,
10:u4shortest,
10:u6shortest,
9:*2january,
9:*3january,
9:b1january,
9:b5january,
7:*2cheap,
7:*3cheap,
7:b1cheap,
7:b5cheap,
7:u0cheap,
7:u4cheap,
7:u6cheap,
6:*2back,
6:*3back,
9:*2reverse,
9:*3reverse,
9:b1reverse,
9:b5reverse,
9:u0reverse,
9:u4reverse,
9:u6reverse,
10:*2airports,
10:*3airports,
10:b1airports,
10:b5airports,
10:u0airports,
10:u4airports,
10:u6airports,
12:*2everywhere,
12:*3everywhere,
12:b1everywhere,
12:b5everywhere,
12:u0everywhere,
12:u4everywhere,
12:u6everywhere,
10:*2day-time,
10:*3day-time,
10:b1day-time,
10:b5day-time,
10:u0day-time,
10:u4day-time,
10:u6day-time,
6:*210pm,
6:*310pm,
6:b110pm,
6:b510pm,
6:u010pm,
6:u410pm,
6:u610pm,
17:*2midway-airlines,
17:*3midway-airlines,
17:b1midway-airlines,
17:b5midway-airlines,
17:u0midway-airlines,
17:u4midway-airlines,
17:u6midway-airlines,
7:u0tenth,
7:u4tenth,
7:u6tenth,
8:*2twelve,
8:*3twelve,
12:*2capacities,
12:*3capacities,
12:b1capacities,
12:b5capacities,
12:u0capacities,
12:u4capacities,
12:u6capacities,
9:*2largest,
9:*3largest,
9:b1largest,
9:b5largest,
9:u0largest,
9:u4largest,
9:u6largest,
10:*2greatest,
10:*3greatest,
10:b1greatest,
10:b5greatest,
10:u0greatest,
10:u4greatest,
10:u6greatest,
5:*2767,
5:*3767,
8:*2dinner,
8:*3dinner,
7:*2snack,
7:*3snack,
5:*23pm,
5:*33pm,
5:b13pm,
5:b53pm,
5:u03pm,
5:u43pm,
5:u63pm,
4:*212,
4:*312,
4:b112,
3:*22,
3:*32,
4:b512,
4:u012,
4:u412,
4:u612,
3:b12,
3:b52,
3:u02,
3:u42,
3:u62,
7:b1sixth,
7:b5sixth,
7:u0sixth,
7:u4sixth,
7:u6sixth,
12:*2car-rental,
12:*3car-rental,
12:b1car-rental,
12:b5car-rental,
12:u0car-rental,
12:u4car-rental,
12:u6car-rental,
6:*2limo,
6:*3limo,
6:b1limo,
6:b5limo,
6:u0limo,
6:u4limo,
6:u6limo,
8:*2coming,
8:*3coming,
7:b1ninth,
7:b5ninth,
7:u0ninth,
8:b1coming,
7:u4ninth,
8:b5coming,
7:u6ninth,
8:u0coming,
6:b1back,
8:u4coming,
6:b5back,
8:u6coming,
6:u0back,
6:u4back,
6:u6back,
5:*2fit,
5:*3fit,
5:b1fit,
5:b5fit,
5:u0fit,
5:u4fit,
5:u6fit,
5:b172s,
5:b572s,
5:*2d9s,
5:*3d9s,
5:*273s,
5:*373s,
6:*2once,
6:*3once,
6:b1once,
6:b5once,
6:u0once,
6:u4once,
6:u6once,
11:*2expensive,
11:*3expensive,
11:b1expensive,
11:b5expensive,
11:u0expensive,
11:u4expensive,
11:u6expensive,
7:b1eight,
7:b5eight,
5:*2sfo,
5:*3sfo,
9:*2charges,
9:*3charges,
9:b1charges,
9:b5charges,
9:u0charges,
9:u4charges,
9:u6charges,
4:*2no,
4:*3no,
4:b1no,
4:b5no,
4:u0no,
4:u4no,
4:u6no,
5:*24pm,
5:*34pm,
4:*2so,
4:*3so,
4:b1so,
4:b5so,
4:u0so,
4:u4so,
4:u6so,
6:*2here,
6:*3here,
6:b1here,
6:*211am,
6:*311am,
6:b5here,
6:u0here,
6:u4here,
6:u6here,
14:*2abbreviation,
14:*3abbreviation,
4:*2ua,
4:*3ua,
14:b1abbreviation,
14:b5abbreviation,
14:u0abbreviation,
4:b1ua,
14:u4abbreviation,
4:b5ua,
14:u6abbreviation,
4:*2co,
4:*3co,
4:b1co,
4:b5co,
4:b1dl,
4:b5dl,
9:*2weekday,
9:*3weekday,
3:*2y,
3:*3y,
3:b1y,
3:b5y,
12:*21300-hours,
12:*31300-hours,
12:*21600-hours,
12:*31600-hours,
5:*27am,
5:*37am,
12:*21700-hours,
12:*31700-hours,
12:b11700-hours,
12:b51700-hours,
12:u01700-hours,
12:u41700-hours,
12:u61700-hours,
7:*2under,
7:*3under,
13:*2500-dollars,
13:*3500-dollars,
7:b1under,
7:b5under,
7:u0under,
13:b1500-dollars,
7:u4under,
13:b5500-dollars,
7:u6under,
13:u0500-dollars,
13:u4500-dollars,
13:u6500-dollars,
10:*2airfares,
10:*3airfares,
10:b1airfares,
10:b5airfares,
10:u0airfares,
10:u4airfares,
10:u6airfares,
9:*2options,
9:*3options,
9:b1options,
9:b5options,
9:u0options,
9:u4options,
9:u6options,
8:*2philly,
8:*3philly,
9:*2arrival,
9:*3arrival,
9:b1arrival,
9:b5arrival,
9:u0arrival,
9:u4arrival,
9:u6arrival,
11:b11-o'clock,
11:b51-o'clock,
11:u01-o'clock,
11:u41-o'clock,
11:u61-o'clock,
11:*2regarding,
11:*3regarding,
23:*2san-francisco-airport,
23:*3san-francisco-airport,
11:b1regarding,
11:b5regarding,
15:b1twenty-eighth,
15:b5twenty-eighth,
9:b1display,
9:b5display,
9:u0display,
9:u4display,
9:u6display,
8:*2second,
8:*3second,
7:*2seven,
7:*3seven,
6:*212pm,
6:*312pm,
6:b112pm,
6:b512pm,
6:u012pm,
6:u412pm,
6:u612pm,
10:*2economic,
10:*3economic,
10:b1economic,
10:b5economic,
4:*298,
4:*398,
4:*2us,
4:*3us,
5:*2345,
5:*3345,
4:b1us,
4:b5us,
4:u0us,
5:b1345,
4:u4us,
5:b5345,
4:u6us,
5:u0345,
5:u4345,
5:u6345,
6:*2rent,
6:*3rent,
6:b1rent,
5:*2car,
5:*3car,
6:b5rent,
6:u0rent,
6:u4rent,
6:u6rent,
5:b1car,
33:*2stapleton-international-airport,
33:*3stapleton-international-airport,
5:b5car,
5:u0car,
5:u4car,
5:u6car,
33:b1stapleton-international-airport,
33:b5stapleton-international-airport,
33:u0stapleton-international-airport,
33:u4stapleton-international-airport,
33:u6stapleton-international-airport,
8:u0sunday,
8:u4sunday,
8:u6sunday,
6:*21083,
6:*31083,
4:u0dl,
6:b11083,
4:u4dl,
6:b51083,
4:u6dl,
6:u01083,
6:u41083,
6:u61083,
11:*2saturdays,
11:*3saturdays,
5:*2201,
5:*3201,
4:u0ua,
5:b1201,
4:u4ua,
5:b5201,
4:u6ua,
5:u0201,
5:u4201,
5:u6201,
5:*2343,
5:*3343,
5:b1343,
5:b5343,
5:u0343,
5:u4343,
5:u6343,
5:*2323,
5:*3323,
5:b1323,
5:*2229,
5:*3229,
5:b5323,
5:u0323,
5:u4323,
5:u6323,
5:b1229,
5:b5229,
5:u0229,
5:u4229,
5:u6229,
6:b1week,
6:b5week,
6:u0week,
6:u4week,
6:u6week,
9:*2meaning,
9:*3meaning,
9:b1meaning,
9:b5meaning,
9:u0meaning,
9:u4meaning,
9:u6meaning,
4:b1qx,
4:*2qw,
4:*3qw,
4:b5qx,
4:u0qx,
4:u4qx,
4:u6qx,
9:b1weekday,
9:b5weekday,
9:u0weekday,
9:u4weekday,
9:u6weekday,
10:u0tomorrow,
10:u4tomorrow,
10:u6tomorrow,
7:*2costs,
7:*3costs,
7:b1costs,
7:b5costs,
7:u0costs,
7:u4costs,
7:u6costs,
24:*2the-day-after-tomorrow,
24:*3the-day-after-tomorrow,
11:*2transport,
11:*3transport,
11:b1transport,
11:b5transport,
5:*2210,
5:*3210,
13:*2car-rentals,
13:*3car-rentals,
13:b1car-rentals,
13:b5car-rentals,
13:u0car-rentals,
13:u4car-rentals,
13:u6car-rentals,
11:b1saturdays,
11:b5saturdays,
11:u0saturdays,
11:u4saturdays,
11:u6saturdays,
5:*2d-s,
5:*3d-s,
5:b1d-s,
5:b5d-s,
5:u0d-s,
5:u4d-s,
5:u6d-s,
7:u0stand,
7:u4stand,
7:u6stand,
5:*2106,
5:*3106,
5:b1106,
5:b5106,
5:u0106,
5:u4106,
5:u6106,
9:*2grounds,
9:*3grounds,
9:b1grounds,
9:b5grounds,
9:u0grounds,
9:u4grounds,
9:u6grounds,
7:*2again,
7:*3again,
5:*2838,
5:*3838,
5:b1838,
5:b5838,
5:u0838,
5:u4838,
5:u6838,
13:*2reservation,
13:*3reservation,
13:b1reservation,
13:b5reservation,
13:u0reservation,
13:u4reservation,
13:u6reservation,
12:b1requesting,
12:b5requesting,
12:u0requesting,
12:u4requesting,
12:u6requesting,
12:*2requesting,
12:*3requesting,
10:*2starting,
10:*3starting,
10:b1starting,
10:b5starting,
10:u0starting,
10:u4starting,
10:u6starting,
12:*2afterwards,
12:*3afterwards,
5:*2402,
5:*3402,
5:b1402,
5:b5402,
5:u0402,
5:u4402,
5:u6402,
5:*2270,
5:*3270,
5:b1270,
5:b5270,
5:u0270,
5:u4270,
5:u6270,
5:*2297,
5:*3297,
5:b1297,
5:b5297,
5:u0297,
5:u4297,
5:u6297,
5:*2281,
5:*3281,
5:b1281,
5:b5281,
5:u0281,
5:u4281,
5:u6281,
10:b1tuesdays,
12:*2wednesdays,
12:*3wednesdays,
10:b5tuesdays,
10:u0tuesdays,
10:u4tuesdays,
10:u6tuesdays,
11:*2thursdays,
11:*3thursdays,
12:*2fourteenth,
12:*3fourteenth,
7:*2ap-80,
7:*3ap-80,
13:u0restriction,
7:b1ap-80,
13:u4restriction,
7:b5ap-80,
13:u6restriction,
7:*2ap-57,
7:*3ap-57,
5:b14pm,
5:b54pm,
5:u04pm,
5:u44pm,
5:u64pm,
5:b18pm,
5:b58pm,
5:u08pm,
5:u48pm,
5:u68pm,
14:*22-o'clock-pm,
14:*32-o'clock-pm,
14:*29-o'clock-am,
14:*39-o'clock-am,
14:b19-o'clock-am,
14:b59-o'clock-am,
14:b15-o'clock-pm,
14:b55-o'clock-pm,
24:b1the-day-after-tomorrow,
24:b5the-day-after-tomorrow,
24:u0the-day-after-tomorrow,
24:u4the-day-after-tomorrow,
24:u6the-day-after-tomorrow,
14:*23-o'clock-pm,
14:*33-o'clock-pm,
14:b13-o'clock-pm,
14:b53-o'clock-pm,
14:u03-o'clock-pm,
14:u43-o'clock-pm,
14:u63-o'clock-pm,
14:*28-o'clock-pm,
14:*38-o'clock-pm,
14:*28-o'clock-am,
14:*38-o'clock-am,
14:b18-o'clock-am,
14:b58-o'clock-am,
14:u08-o'clock-am,
14:u48-o'clock-am,
14:u68-o'clock-am,
14:u05-o'clock-pm,
14:u45-o'clock-pm,
14:u65-o'clock-pm,
7:u0serve,
7:u4serve,
7:u6serve,
13:*2us-airlines,
13:*3us-airlines,
13:b1us-airlines,
13:b5us-airlines,
13:u0us-airlines,
13:u4us-airlines,
13:u6us-airlines,
15:*211-o'clock-am,
15:*311-o'clock-am,
3:u0y,
3:u4y,
3:u6y,
9:*2explain,
9:*3explain,
11:u0transport,
11:u4transport,
11:u6transport,
3:*2m,
3:*3m,
3:b1m,
3:b5m,
6:*2ap68,
6:*3ap68,
12:*2continuing,
12:*3continuing,
12:b1continuing,
12:b5continuing,
12:u0continuing,
12:u4continuing,
12:u6continuing,
12:*2limousines,
12:*3limousines,
12:b1limousines,
6:*2taxi,
6:*3taxi,
12:b5limousines,
12:u0limousines,
12:u4limousines,
12:u6limousines,
6:b1taxi,
6:b5taxi,
6:u0taxi,
6:u4taxi,
6:u6taxi,
6:*21209,
6:*31209,
7:*2names,
7:*3names,
7:b1names,
7:b5names,
7:u0names,
7:u4names,
7:u6names,
13:*2rental-cars,
13:*3rental-cars,
4:b1qw,
4:b5qw,
4:u0qw,
4:u4qw,
4:u6qw,
6:*2sd-d,
6:*3sd-d,
8:*2listed,
8:*3listed,
8:b1listed,
6:*21055,
6:*31055,
8:b5listed,
8:u0listed,
8:u4listed,
8:u6listed,
6:b11055,
5:*2405,
5:*3405,
6:b51055,
6:u01055,
6:u41055,
6:u61055,
4:*2ea,
4:*3ea,
4:b1ea,
4:b5ea,
4:u0ea,
4:u4ea,
4:u6ea,
6:*2look,
6:*3look,
6:b1look,
6:b5look,
6:u0look,
6:u4look,
6:u6look,
7:b1today,
7:b5today,
7:u0today,
7:u4today,
7:u6today,
9:b1what're,
9:b5what're,
9:u0what're,
9:u4what're,
9:u6what're,
8:b1second,
8:b5second,
8:u0second,
8:u4second,
8:u6second,
6:b111am,
6:b511am,
6:u011am,
6:u411am,
6:u611am,
8:u0during,
8:u4during,
8:u6during,
12:*2eighteenth,
12:*3eighteenth,
8:*21045am,
8:*31045am,
5:*2430,
5:*3430,
5:b1430,
7:*2530pm,
7:*3530pm,
5:b5430,
5:u0430,
5:u4430,
5:u6430,
8:*21145am,
8:*31145am,
7:*2838am,
7:*3838am,
7:b1838am,
7:b5838am,
7:u0838am,
7:u4838am,
7:u6838am,
5:u0via,
5:u4via,
5:u6via,
8:b1thanks,
8:b5thanks,
8:u0thanks,
8:u4thanks,
8:u6thanks,
6:*2near,
6:*3near,
6:b1near,
6:b5near,
6:u0near,
5:b15pm,
6:u4near,
5:b55pm,
6:u6near,
5:u05pm,
5:u45pm,
5:u65pm,
7:*2close,
7:*3close,
7:b1close,
7:b5close,
7:u0close,
7:u4close,
7:u6close,
6:*21110,
6:*31110,
6:b11110,
6:b51110,
6:u01110,
6:u41110,
6:u61110,
23:b1san-francisco-airport,
23:b5san-francisco-airport,
23:u0san-francisco-airport,
23:u4san-francisco-airport,
23:u6san-francisco-airport,
9:*2fifteen,
9:*3fifteen,
7:b1while,
7:b5while,
7:u0while,
7:u4while,
7:u6while,
8:*2wanted,
8:*3wanted,
8:b1wanted,
8:b5wanted,
8:u0wanted,
8:u4wanted,
8:u6wanted,
12:*2afternoons,
12:*3afternoons,
9:*2maximum,
9:*3maximum,
9:b1maximum,
9:b5maximum,
9:u0maximum,
9:u4maximum,
9:u6maximum,
7:*2spend,
7:*3spend,
7:b1spend,
7:b5spend,
7:u0spend,
7:u4spend,
7:u6spend,
9:*2lastest,
9:*3lastest,
9:b1lastest,
9:b5lastest,
9:u0lastest,
9:u4lastest,
9:u6lastest,
9:*2longest,
9:*3longest,
9:b1longest,
9:b5longest,
9:u0longest,
9:u4longest,
9:u6longest,
5:*2but,
5:*3but,
5:b1but,
5:b5but,
5:u0but,
5:u4but,
5:u6but,
8:u0within,
8:u4within,
8:u6within,
6:*21059,
6:*31059,
6:*2over,
6:*3over,
6:b1over,
6:b5over,
6:u0over,
6:u4over,
6:u6over,
4:*221,
4:*321,
5:*2852,
5:*3852,
5:b1852,
5:b5852,
5:u0852,
5:u4852,
5:u6852,
5:*2928,
5:*3928,
5:b1928,
5:b5928,
5:u0928,
5:u4928,
5:u6928,
7:*2start,
7:*3start,
7:b1start,
7:b5start,
7:u0start,
7:u4start,
7:u6start,
10:*2bay-area,
10:*3bay-area,
7:*2order,
7:*3order,
6:*2it's,
6:*3it's,
6:b1it's,
6:b5it's,
5:*2445,
5:*3445,
5:b1445,
7:*2515pm,
7:*3515pm,
5:b5445,
5:u0445,
5:u4445,
5:u6445,
20:*2washington-airport,
20:*3washington-airport,
20:b1washington-airport,
20:b5washington-airport,
20:u0washington-airport,
20:u4washington-airport,
20:u6washington-airport,
25:*2maximum-number-of-stops,
25:*3maximum-number-of-stops,
8:b1locate,
8:b5locate,
8:u0locate,
8:u4locate,
8:u6locate,
11:*2hartfield,
11:*3hartfield,
9:*2travels,
9:*3travels,
9:b1travels,
9:b5travels,
9:u0travels,
9:u4travels,
9:u6travels,
6:*2late,
6:*3late,
6:b1late,
6:b5late,
6:u0late,
6:u4late,
6:u6late,
6:*2zone,
6:*3zone,
6:b1zone,
6:b5zone,
6:u0zone,
6:u4zone,
6:u6zone,
13:*2inexpensive,
13:*3inexpensive,
13:b1inexpensive,
13:b5inexpensive,
13:u0inexpensive,
13:u4inexpensive,
13:u6inexpensive,
11:*2currently,
11:*3currently,
11:b1currently,
11:b5currently,
11:u0currently,
11:u4currently,
11:u6currently,
5:*2530,
5:*3530,
6:*2must,
6:*3must,
6:b1must,
6:b5must,
6:u0must,
6:u4must,
6:u6must,
10:*2midnight,
10:*3midnight,
10:b1midnight,
10:b5midnight,
10:u0midnight,
10:u4midnight,
10:u6midnight,
6:*2land,
6:*3land,
6:b1land,
6:b5land,
6:u0land,
6:u4land,
6:u6land,
7:*2place,
7:*3place,
17:b1oakland-airport,
17:b5oakland-airport,
17:u0oakland-airport,
17:u4oakland-airport,
17:u6oakland-airport,
7:*2730pm,
7:*3730pm,
18:*2transcontinental,
18:*3transcontinental,
18:b1transcontinental,
18:b5transcontinental,
18:u0transcontinental,
18:u4transcontinental,
18:u6transcontinental,
8:*2across,
8:*3across,
8:b1across,
11:*2continent,
11:*3continent,
8:b5across,
8:u0across,
8:u4across,
8:u6across,
11:b1continent,
11:b5continent,
11:u0continent,
11:u4continent,
11:u6continent,
7:*2430pm,
7:*3430pm,
7:b1430pm,
7:*2630pm,
7:*3630pm,
7:b5430pm,
7:u0430pm,
7:u4430pm,
7:u6430pm,
6:*2gets,
6:*3gets,
6:b1gets,
6:b5gets,
6:u0gets,
6:u4gets,
6:u6gets,
7:*2month,
7:*3month,
7:b1month,
7:b5month,
7:u0month,
7:u4month,
7:u6month,
10:u0december,
10:u4december,
10:u6december,
10:*2connects,
10:*3connects,
10:b1connects,
10:b5connects,
10:u0connects,
10:u4connects,
10:u6connects,
14:*27-o'clock-pm,
14:*37-o'clock-pm,
10:*2vicinity,
10:*3vicinity,
10:b1vicinity,
10:b5vicinity,
10:u0vicinity,
10:u4vicinity,
10:u6vicinity,
8:*2begins,
8:*3begins,
8:b1begins,
8:b5begins,
8:u0begins,
8:u4begins,
8:u6begins,
7:*2lands,
7:*3lands,
7:b1lands,
7:b5lands,
7:u0lands,
7:u4lands,
7:u6lands,
7:*2don't,
7:*3don't,
7:b1don't,
7:b5don't,
7:u0don't,
11:*2stopovers,
11:*3stopovers,
7:u4don't,
7:u6don't,
11:b1stopovers,
11:b5stopovers,
11:u0stopovers,
11:u4stopovers,
11:u6stopovers,
16:*2city-in-dallas,
16:*3city-in-dallas,
5:*2757,
5:*3757,
5:b1757,
5:b5757,
5:u0757,
5:u4757,
5:u6757,
6:*21992,
6:*31992,
9:u0january,
9:u4january,
9:u6january,
6:b11992,
6:b51992,
6:u01992,
6:u41992,
6:u61992,
9:u0october,
9:u4october,
9:u6october,
14:b18-o'clock-pm,
15:*210-o'clock-pm,
15:*310-o'clock-pm,
14:b58-o'clock-pm,
14:u08-o'clock-pm,
14:u48-o'clock-pm,
14:u68-o'clock-pm,
8:b1define,
8:b5define,
8:u0define,
8:u4define,
8:u6define,
4:*2fn,
4:*3fn,
7:*2ap-55,
7:*3ap-55,
11:*2sixteenth,
11:*3sixteenth,
5:b1atl,
5:b5atl,
5:u0atl,
5:u4atl,
5:u6atl,
9:*2listing,
9:*3listing,
9:b1listing,
9:b5listing,
9:u0listing,
9:u4listing,
9:u6listing,
6:*22100,
6:*32100,
11:*24-o'clock,
11:*34-o'clock,
11:b14-o'clock,
11:b54-o'clock,
11:u04-o'clock,
11:u44-o'clock,
11:u64-o'clock,
15:*2twenty-fourth,
15:*3twenty-fourth,
5:*2746,
5:*3746,
5:b1746,
5:b5746,
4:b1hi,
4:b5hi,
4:u0hi,
4:u4hi,
4:u6hi,
3:*2q,
3:*3q,
11:*2overnight,
11:*3overnight,
11:b1overnight,
11:b5overnight,
11:u0overnight,
11:u4overnight,
11:u6overnight,
9:*2without,
9:*3without,
9:b1without,
9:b5without,
9:u0without,
9:u4without,
9:u6without,
14:b1pennsylvania,
14:b5pennsylvania,
14:u0pennsylvania,
14:u4pennsylvania,
14:u6pennsylvania,
12:b1wednesdays,
12:b5wednesdays,
12:u0wednesdays,
12:u4wednesdays,
12:u6wednesdays,
6:*21291,
6:*31291,
6:b11291,
6:b51291,
6:u01291,
6:u41291,
6:u61291,
5:*2271,
5:*3271,
5:b1271,
5:b5271,
5:u0271,
5:u4271,
5:u6271,
6:*2sort,
6:*3sort,
6:b1sort,
6:b5sort,
6:u0sort,
6:u4sort,
6:u6sort,
14:b16-o'clock-pm,
14:b56-o'clock-pm,
14:u06-o'clock-pm,
14:u46-o'clock-pm,
14:u66-o'clock-pm,
14:*27-o'clock-am,
14:*37-o'clock-am,
14:b17-o'clock-am,
14:b57-o'clock-am,
14:u07-o'clock-am,
14:u47-o'clock-am,
14:u67-o'clock-am,
14:*25-o'clock-am,
14:*35-o'clock-am,
14:b15-o'clock-am,
14:b55-o'clock-am,
14:u05-o'clock-am,
14:u45-o'clock-am,
14:u65-o'clock-am,
5:b17am,
5:b57am,
5:u07am,
5:u47am,
5:u67am,
14:*21500-dollars,
14:*31500-dollars,
14:b11500-dollars,
14:b51500-dollars,
14:*21100-dollars,
14:*31100-dollars,
4:*2up,
4:*3up,
4:b1up,
4:b5up,
4:u0up,
4:u4up,
4:u6up,
9:*2mondays,
9:*3mondays,
15:*2only-weekdays,
15:*3only-weekdays,
15:b1only-weekdays,
15:b5only-weekdays,
15:u0only-weekdays,
15:u4only-weekdays,
15:u6only-weekdays,
4:*2ap,
4:*3ap,
4:b1ap,
4:b5ap,
6:*2area,
6:*3area,
8:*2proper,
8:*3proper,
7:b1ap-57,
7:b5ap-57,
3:b1f,
3:b5f,
3:u0f,
3:u4f,
3:u6f,
4:b1fn,
4:b5fn,
13:b1rental-cars,
13:b5rental-cars,
13:u0rental-cars,
13:u4rental-cars,
13:u6rental-cars,
10:b1eleventh,
10:b5eleventh,
10:u0eleventh,
10:u4eleventh,
10:u6eleventh,
9:b1twelfth,
9:b5twelfth,
8:*2priced,
8:*3priced,
8:b1priced,
8:b5priced,
8:u0priced,
8:u4priced,
8:u6priced,
5:*2212,
5:*3212,
5:b1212,
5:b5212,
5:u0212,
5:u4212,
5:u6212,
10:*2anywhere,
10:*3anywhere,
10:b1anywhere,
6:*21850,
6:*31850,
10:b5anywhere,
10:u0anywhere,
10:u4anywhere,
10:u6anywhere,
6:b11850,
6:b51850,
6:u01850,
6:u41850,
6:u61850,
6:*21700,
6:*31700,
6:b11700,
6:b51700,
6:u01700,
6:u41700,
6:u61700,
5:*2217,
5:*3217,
5:b1217,
5:b5217,
5:u0217,
5:u4217,
5:u6217,
13:*2300-dollars,
13:*3300-dollars,
13:*2400-dollars,
13:*3400-dollars,
13:b1400-dollars,
13:b5400-dollars,
13:u0400-dollars,
13:u4400-dollars,
13:u6400-dollars,
6:*23357,
6:*33357,
6:b13357,
6:b53357,
6:u03357,
6:u43357,
6:u63357,
5:b1sfo,
5:b5sfo,
5:u0sfo,
5:u4sfo,
5:u6sfo,
8:*2summer,
8:*3summer,
5:*2non,
5:*3non,
5:b1non,
5:b5non,
5:u0non,
5:u4non,
5:u6non,
4:u0fn,
4:u4fn,
4:u6fn,
10:*2mornings,
10:*3mornings,
4:b1yn,
4:b5yn,
11:b1sixteenth,
11:b5sixteenth,
11:u0sixteenth,
11:u4sixteenth,
11:u6sixteenth,
14:*21000-dollars,
14:*31000-dollars,
6:*20900,
6:*30900,
6:*23724,
6:*33724,
6:b13724,
6:b53724,
6:u03724,
6:u43724,
6:u63724,
5:*2771,
5:*3771,
5:b1771,
5:b5771,
5:u0771,
5:u4771,
5:u6771,
18:*2flight-schedules,
18:*3flight-schedules,
18:b1flight-schedules,
18:b5flight-schedules,
18:u0flight-schedules,
18:u4flight-schedules,
18:u6flight-schedules,
9:*2include,
9:*3include,
9:b1include,
9:b5include,
6:b1ap57,
6:b5ap57,
14:b11000-dollars,
14:b51000-dollars,
14:u01000-dollars,
14:u41000-dollars,
14:u61000-dollars,
10:b1mornings,
10:b5mornings,
10:u0mornings,
10:u4mornings,
10:u6mornings,
9:*2whether,
9:*3whether,
9:u0include,
9:b1whether,
9:u4include,
9:b5whether,
9:u6include,
9:u0whether,
9:*2offered,
9:*3offered,
9:u4whether,
9:u6whether,
9:b1offered,
9:b5offered,
9:u0offered,
9:u4offered,
9:u6offered,
13:*2round-trips,
13:*3round-trips,
13:b1round-trips,
13:b5round-trips,
13:u0round-trips,
13:u4round-trips,
13:u6round-trips,
9:*2toronto,
9:*3toronto,
9:b1toronto,
9:b5toronto,
9:u0toronto,
9:u4toronto,
9:u6toronto,
4:*2ac,
4:*3ac,
4:b1ac,
4:b5ac,
4:u0ac,
4:u4ac,
4:u6ac,
10:*2new-york,
10:*3new-york,
10:b1new-york,
10:b5new-york,
10:u0new-york,
10:u4new-york,
10:u6new-york,
15:*2new-york-city,
15:*3new-york-city,
11:*2milwaukee,
11:*3milwaukee,
11:b1milwaukee,
9:*2orlando,
9:*3orlando,
11:b5milwaukee,
11:u0milwaukee,
11:u4milwaukee,
11:u6milwaukee,
9:b1orlando,
9:b5orlando,
9:u0orlando,
9:u4orlando,
9:u6orlando,
9:*2ontario,
9:*3ontario,
9:b1ontario,
8:*2tacoma,
8:*3tacoma,
9:b5ontario,
9:u0ontario,
9:u4ontario,
9:u6ontario,
8:b1tacoma,
8:b5tacoma,
8:u0tacoma,
8:u4tacoma,
8:u6tacoma,
13:*2minneapolis,
13:*3minneapolis,
13:b1minneapolis,
11:*2san-diego,
11:*3san-diego,
13:b5minneapolis,
13:u0minneapolis,
13:u4minneapolis,
13:u6minneapolis,
11:b1san-diego,
11:b5san-diego,
11:u0san-diego,
11:u4san-diego,
11:u6san-diego,
16:*2salt-lake-city,
16:*3salt-lake-city,
16:b1salt-lake-city,
12:*2cincinnati,
12:*3cincinnati,
16:b5salt-lake-city,
16:u0salt-lake-city,
16:u4salt-lake-city,
16:u6salt-lake-city,
12:b1cincinnati,
12:b5cincinnati,
12:u0cincinnati,
12:u4cincinnati,
12:u6cincinnati,
7:*2miami,
7:*3miami,
7:b1miami,
7:b5miami,
7:u0miami,
7:u4miami,
7:u6miami,
20:*2southwest-airlines,
20:*3southwest-airlines,
20:b1southwest-airlines,
20:b5southwest-airlines,
20:u0southwest-airlines,
20:u4southwest-airlines,
20:u6southwest-airlines,
9:*2phoenix,
9:*3phoenix,
9:b1phoenix,
9:b5phoenix,
9:u0phoenix,
9:u4phoenix,
9:u6phoenix,
12:*2la-guardia,
12:*3la-guardia,
12:b1la-guardia,
12:b5la-guardia,
8:*2dulles,
8:*3dulles,
8:b1dulles,
8:b5dulles,
8:u0dulles,
8:u4dulles,
8:u6dulles,
13:*2los-angeles,
13:*3los-angeles,
11:*2las-vegas,
11:*3las-vegas,
7:*2equal,
7:*3equal,
7:b1equal,
13:*2466-dollars,
13:*3466-dollars,
7:b5equal,
7:u0equal,
7:u4equal,
7:u6equal,
13:b1466-dollars,
13:b5466-dollars,
13:u0466-dollars,
13:u4466-dollars,
13:u6466-dollars,
13:*2932-dollars,
13:*3932-dollars,
7:*2along,
7:*3along,
7:b1along,
7:b5along,
7:u0along,
7:u4along,
7:u6along,
14:*2indianapolis,
14:*3indianapolis,
14:b1indianapolis,
9:*2memphis,
9:*3memphis,
14:b5indianapolis,
14:u0indianapolis,
14:u4indianapolis,
14:u6indianapolis,
9:*2burbank,
9:*3burbank,
9:b1burbank,
9:b5burbank,
9:u0burbank,
9:u4burbank,
9:u6burbank,
16:*2st.-petersburg,
16:*3st.-petersburg,
16:b1st.-petersburg,
16:b5st.-petersburg,
16:u0st.-petersburg,
16:u4st.-petersburg,
16:u6st.-petersburg,
15:*2abbreviations,
15:*3abbreviations,
10:*2san-jose,
10:*3san-jose,
10:b1san-jose,
10:b5san-jose,
10:u0san-jose,
10:u4san-jose,
10:u6san-jose,
24:*2salt-lake-city-airport,
24:*3salt-lake-city-airport,
24:b1salt-lake-city-airport,
24:b5salt-lake-city-airport,
24:u0salt-lake-city-airport,
24:u4salt-lake-city-airport,
24:u6salt-lake-city-airport,
7:*2tampa,
7:*3tampa,
7:b1tampa,
11:*2st.-louis,
11:*3st.-louis,
7:b5tampa,
7:u0tampa,
7:u4tampa,
7:u6tampa,
11:b1st.-louis,
11:b5st.-louis,
11:u0st.-louis,
11:u4st.-louis,
11:u6st.-louis,
9:*2houston,
9:*3houston,
9:b1houston,
9:b5houston,
9:u0houston,
9:u4houston,
9:u6houston,
9:*2symbols,
9:*3symbols,
9:b1symbols,
9:b5symbols,
9:u0symbols,
9:u4symbols,
9:u6symbols,
4:u0yn,
4:u4yn,
4:u6yn,
4:*2hp,
4:*3hp,
17:*2orlando-airport,
17:*3orlando-airport,
17:b1orlando-airport,
17:b5orlando-airport,
17:u0orlando-airport,
17:u4orlando-airport,
17:u6orlando-airport,
23:*2orlando-international,
23:*3orlando-international,
23:b1orlando-international,
23:b5orlando-international,
23:u0orlando-international,
23:u4orlando-international,
23:u6orlando-international,
5:*2417,
5:*3417,
5:b1417,
5:b5417,
5:u0417,
5:u4417,
5:u6417,
7:*2718am,
7:*3718am,
13:b1los-angeles,
13:b5los-angeles,
13:u0los-angeles,
13:u4los-angeles,
13:u6los-angeles,
25:*2minimum-connection-time,
25:*3minimum-connection-time,
25:b1minimum-connection-time,
26:*2houston-intercontinental,
26:*3houston-intercontinental,
25:b5minimum-connection-time,
25:u0minimum-connection-time,
25:u4minimum-connection-time,
25:u6minimum-connection-time,
6:*24400,
6:*34400,
6:b14400,
6:b54400,
6:u04400,
6:u44400,
6:u64400,
6:*21026,
6:*31026,
8:*2o'hare,
8:*3o'hare,
8:b1o'hare,
8:b5o'hare,
8:u0o'hare,
8:u4o'hare,
8:u6o'hare,
7:b1718am,
7:b5718am,
9:*2chicago,
9:*3chicago,
9:b1chicago,
9:b5chicago,
9:u0chicago,
9:u4chicago,
9:u6chicago,
10:*2montreal,
10:*3montreal,
10:b1montreal,
10:b5montreal,
10:u0montreal,
13:*2150-dollars,
13:*3150-dollars,
10:u4montreal,
10:u6montreal,
10:*2columbus,
10:*3columbus,
10:b1columbus,
10:b5columbus,
10:u0columbus,
10:u4columbus,
10:u6columbus,
10:*2st.-paul,
10:*3st.-paul,
8:*2newark,
8:*3newark,
8:b1newark,
11:*2cleveland,
11:*3cleveland,
8:b5newark,
8:u0newark,
8:u4newark,
8:u6newark,
11:b1cleveland,
11:b5cleveland,
11:u0cleveland,
11:u4cleveland,
11:u6cleveland,
12:*2new-jersey,
12:*3new-jersey,
12:b1new-jersey,
12:b5new-jersey,
12:u0new-jersey,
12:u4new-jersey,
12:u6new-jersey,
5:*2jfk,
5:*3jfk,
5:b1jfk,
5:b5jfk,
5:u0jfk,
5:u4jfk,
5:u6jfk,
12:u0la-guardia,
12:u4la-guardia,
12:u6la-guardia,
11:*2nashville,
11:*3nashville,
11:b1nashville,
11:b5nashville,
11:u0nashville,
11:u4nashville,
11:u6nashville,
10:*2weekdays,
10:*3weekdays,
20:*2westchester-county,
20:*3westchester-county,
20:b1westchester-county,
20:b5westchester-county,
20:u0westchester-county,
20:u4westchester-county,
20:u6westchester-county,
11:b1las-vegas,
11:b5las-vegas,
11:u0las-vegas,
11:u4las-vegas,
11:u6las-vegas,
4:*2ff,
4:*3ff,
11:*2tower-air,
11:*3tower-air,
11:b1tower-air,
11:b5tower-air,
11:u0tower-air,
11:u4tower-air,
11:u6tower-air,
12:*2long-beach,
12:*3long-beach,
12:b1long-beach,
12:b5long-beach,
12:u0long-beach,
12:u4long-beach,
12:u6long-beach,
6:*2ohio,
6:*3ohio,
4:*2sa,
4:*3sa,
9:*2seattle,
9:*3seattle,
9:b1seattle,
9:b5seattle,
9:u0seattle,
9:u4seattle,
9:u6seattle,
6:*21993,
6:*31993,
4:*2nw,
4:*3nw,
7:b1bring,
7:b5bring,
7:u0bring,
7:u4bring,
7:u6bring,
5:*2mco,
5:*3mco,
9:*2calling,
9:*3calling,
9:b1calling,
9:b5calling,
9:u0calling,
9:u4calling,
9:u6calling,
4:*2la,
4:*3la,
5:b1mco,
5:b5mco,
5:u0mco,
5:u4mco,
5:u6mco,
9:b1memphis,
9:b5memphis,
9:u0memphis,
9:u4memphis,
9:u6memphis,
6:*2i've,
6:*3i've,
5:*2got,
5:*3got,
6:b1i've,
10:*2somebody,
10:*3somebody,
6:b5i've,
6:u0i've,
5:b1got,
6:*2else,
6:*3else,
6:u4i've,
5:b5got,
6:u6i've,
5:u0got,
10:b1somebody,
5:u4got,
10:b5somebody,
5:u6got,
10:u0somebody,
6:b1else,
7:*2wants,
7:*3wants,
10:u4somebody,
6:b5else,
10:u6somebody,
6:u0else,
6:u4else,
6:u6else,
5:u0who,
7:b1wants,
5:u4who,
7:b5wants,
5:u6who,
7:u0wants,
7:u4wants,
7:u6wants,
11:*2charlotte,
11:*3charlotte,
11:b1charlotte,
11:b5charlotte,
11:u0charlotte,
11:u4charlotte,
11:u6charlotte,
13:*2kansas-city,
13:*3kansas-city,
3:b1q,
3:b5q,
12:*2difference,
12:*3difference,
12:b1difference,
12:b5difference,
12:u0difference,
12:u4difference,
12:u6difference,
3:u0q,
3:u4q,
3:u6q,
11:*2tennessee,
11:*3tennessee,
11:b1tennessee,
11:b5tennessee,
11:u0tennessee,
16:*2north-carolina,
16:*3north-carolina,
11:u4tennessee,
11:u6tennessee,
4:*2qo,
4:*3qo,
4:b1qo,
4:b5qo,
4:b1ff,
4:b5ff,
5:*2ewr,
5:*3ewr,
5:b1ewr,
5:b5ewr,
5:*2bur,
5:*3bur,
7:b1train,
7:b5train,
7:u0train,
7:u4train,
7:u6train,
8:*2laying,
8:*3laying,
8:b1laying,
8:b5laying,
8:u0laying,
8:u4laying,
8:u6laying,
12:*2air-canada,
12:*3air-canada,
12:b1air-canada,
12:b5air-canada,
12:u0air-canada,
12:u4air-canada,
12:u6air-canada,
11:*2minnesota,
11:*3minnesota,
8:*2stands,
8:*3stands,
8:b1stands,
8:b5stands,
8:u0stands,
8:u4stands,
8:u6stands,
13:b1kansas-city,
13:b5kansas-city,
13:u0kansas-city,
13:u4kansas-city,
13:u6kansas-city,
9:*2florida,
9:*3florida,
9:b1florida,
9:b5florida,
9:u0florida,
9:u4florida,
9:u6florida,
9:*2landing,
9:*3landing,
9:b1landing,
9:b5landing,
9:u0landing,
9:u4landing,
9:u6landing,
6:*2soon,
6:*3soon,
6:b1soon,
6:b5soon,
6:u0soon,
6:u4soon,
6:u6soon,
5:*2ten,
5:*3ten,
5:b1ten,
5:b5ten,
5:u0ten,
5:u4ten,
5:u6ten,
17:*2during-the-week,
17:*3during-the-week,
18:*2during-week-days,
18:*3during-week-days,
19:*2san-diego-airport,
19:*3san-diego-airport,
19:b1san-diego-airport,
19:b5san-diego-airport,
19:u0san-diego-airport,
19:u4san-diego-airport,
19:u6san-diego-airport,
9:b1instead,
9:b5instead,
9:u0instead,
9:u4instead,
9:u6instead,
32:*2as-soon-thereafter-as-possible,
32:*3as-soon-thereafter-as-possible,
4:b1nw,
4:b5nw,
4:u0nw,
4:u4nw,
4:u6nw,
17:*2phoenix-airport,
17:*3phoenix-airport,
17:b1phoenix-airport,
17:b5phoenix-airport,
17:u0phoenix-airport,
17:u4phoenix-airport,
17:u6phoenix-airport,
13:*2meal-code-s,
13:*3meal-code-s,
6:b1uses,
6:b5uses,
6:u0uses,
6:u4uses,
6:u6uses,
5:*2lax,
5:*3lax,
5:b1lax,
5:b5lax,
5:u0lax,
5:u4lax,
5:u6lax,
9:b1numbers,
9:b5numbers,
9:u0numbers,
9:u4numbers,
9:u6numbers,
6:b1ohio,
6:b5ohio,
6:u0ohio,
6:u4ohio,
6:u6ohio,
11:b1minnesota,
11:b5minnesota,
11:u0minnesota,
11:u4minnesota,
11:u6minnesota,
15:b1new-york-city,
15:b5new-york-city,
15:u0new-york-city,
8:*2canada,
8:*3canada,
15:u4new-york-city,
15:u6new-york-city,
8:b1canada,
8:b5canada,
8:u0canada,
8:u4canada,
8:u6canada,
10:*2listings,
10:*3listings,
10:b1listings,
10:b5listings,
10:u0listings,
10:u4listings,
10:u6listings,
10:*2missouri,
10:*3missouri,
10:b1missouri,
10:b5missouri,
10:u0missouri,
6:*2utah,
6:*3utah,
10:u4missouri,
10:u6missouri,
6:b1utah,
6:b5utah,
6:u0utah,
6:u4utah,
6:u6utah,
6:*21222,
6:*31222,
6:b11222,
6:b51222,
6:u01222,
6:u41222,
6:u61222,
12:*2preferably,
12:*3preferably,
12:b1preferably,
12:b5preferably,
12:u0preferably,
12:u4preferably,
12:u6preferably,
8:*2497766,
8:*3497766,
8:b1497766,
8:b5497766,
8:u0497766,
8:u4497766,
8:u6497766,
7:*2810pm,
7:*3810pm,
7:b1810pm,
7:b5810pm,
7:u0810pm,
7:u4810pm,
7:u6810pm,
16:b1north-carolina,
16:b5north-carolina,
16:u0north-carolina,
16:u4north-carolina,
16:u6north-carolina,
6:*2runs,
6:*3runs,
6:b1runs,
6:b5runs,
6:u0runs,
6:u4runs,
6:u6runs,
5:*2505,
5:*3505,
5:b1505,
5:b5505,
5:u0505,
5:u4505,
5:u6505,
8:*2that's,
8:*3that's,
8:b1dinner,
8:b5dinner,
8:u0dinner,
8:b1that's,
8:u4dinner,
8:b5that's,
8:u6dinner,
8:u0that's,
8:u4that's,
8:u6that's,
5:*2163,
5:*3163,
12:*2thirteenth,
12:*3thirteenth,
8:b1eighth,
8:b5eighth,
8:u0eighth,
8:u4eighth,
8:u6eighth,
10:*2includes,
10:*3includes,
10:b1includes,
10:b5includes,
10:u0includes,
10:u4includes,
10:u6includes,
17:*2alaska-airlines,
17:*3alaska-airlines,
17:b1alaska-airlines,
17:b5alaska-airlines,
17:u0alaska-airlines,
17:u4alaska-airlines,
17:u6alaska-airlines,
8:*2nevada,
8:*3nevada,
8:b1nevada,
8:b5nevada,
8:u0nevada,
8:u4nevada,
8:u6nevada,
9:*2detroit,
9:*3detroit,
10:*2michigan,
10:*3michigan,
9:b1detroit,
9:b5detroit,
9:u0detroit,
10:b1michigan,
9:u4detroit,
10:b5michigan,
9:u6detroit,
10:u0michigan,
10:u4michigan,
10:u6michigan,
10:*2actually,
10:*3actually,
10:b1actually,
10:b5actually,
10:u0actually,
10:u4actually,
10:u6actually,
13:*2westchester,
13:*3westchester,
13:b1westchester,
13:b5westchester,
13:u0westchester,
13:u4westchester,
13:u6westchester,
7:*2thing,
7:*3thing,
7:b1thing,
7:b5thing,
7:u0thing,
7:u4thing,
7:u6thing,
5:*2130,
5:*3130,
5:b1130,
5:b5130,
5:u0130,
5:u4130,
5:u6130,
9:u0another,
9:u4another,
9:u6another,
19:*2milwaukee-airport,
19:*3milwaukee-airport,
19:b1milwaukee-airport,
19:b5milwaukee-airport,
19:u0milwaukee-airport,
19:u4milwaukee-airport,
19:u6milwaukee-airport,
19:*2the-following-day,
19:*3the-following-day,
12:*2twenty-six,
12:*3twenty-six,
8:*2prefer,
8:*3prefer,
8:b1prefer,
8:b5prefer,
8:u0prefer,
8:u4prefer,
8:u6prefer,
8:*2quebec,
8:*3quebec,
8:b1quebec,
8:b5quebec,
8:u0quebec,
8:u4quebec,
8:u6quebec,
9:*2indiana,
9:*3indiana,
9:b1indiana,
9:b5indiana,
9:u0indiana,
9:u4indiana,
9:u6indiana,
10:*2reaching,
10:*3reaching,
10:b1reaching,
10:b5reaching,
10:u0reaching,
10:u4reaching,
10:u6reaching,
9:*2reaches,
9:*3reaches,
9:b1reaches,
9:b5reaches,
9:u0reaches,
3:*27,
3:*37,
9:u4reaches,
9:u6reaches,
3:b17,
3:b57,
3:u07,
3:u47,
3:u67,
11:*2following,
11:*3following,
11:b1following,
11:b5following,
11:u0following,
11:u4following,
11:u6following,
7:*2route,
7:*3route,
13:b1seventeenth,
13:b5seventeenth,
13:u0seventeenth,
13:u4seventeenth,
13:u6seventeenth,
12:b1fourteenth,
12:b5fourteenth,
12:u0fourteenth,
12:u4fourteenth,
12:u6fourteenth,
12:b1thirteenth,
12:b5thirteenth,
12:u0thirteenth,
12:u4thirteenth,
12:u6thirteenth,
6:*2date,
6:*3date,
6:b1date,
6:b5date,
6:u0date,
6:u4date,
6:u6date,
11:*2hopefully,
11:*3hopefully,
11:b1hopefully,
11:b5hopefully,
11:u0hopefully,
11:u4hopefully,
11:u6hopefully,
6:*2home,
6:*3home,
20:*2northwest-airlines,
20:*3northwest-airlines,
20:b1northwest-airlines,
20:b5northwest-airlines,
20:u0northwest-airlines,
20:u4northwest-airlines,
20:u6northwest-airlines,
6:*2days,
6:*3days,
6:b1days,
6:b5days,
6:u0days,
6:u4days,
6:u6days,
5:*2415,
5:*3415,
5:b1415,
5:b5415,
5:u0415,
5:u4415,
5:u6415,
9:*2arizona,
9:*3arizona,
9:b1arizona,
9:b5arizona,
9:u0arizona,
9:u4arizona,
9:u6arizona,
10:b1st.-paul,
10:b5st.-paul,
10:u0st.-paul,
10:u4st.-paul,
10:u6st.-paul,
11:*2northwest,
11:*3northwest,
11:b1northwest,
11:b5northwest,
11:u0northwest,
11:u4northwest,
11:u6northwest,
23:*2ontario-international,
23:*3ontario-international,
23:b1ontario-international,
23:b5ontario-international,
23:u0ontario-international,
23:u4ontario-international,
23:u6ontario-international,
9:*2friends,
9:*3friends,
9:b1friends,
9:b5friends,
9:u0friends,
9:u4friends,
9:u6friends,
17:*2toronto-airport,
17:*3toronto-airport,
14:u0twenty-sixth,
14:u4twenty-sixth,
14:u6twenty-sixth,
20:*2la-guardia-airport,
20:*3la-guardia-airport,
20:b1la-guardia-airport,
20:b5la-guardia-airport,
20:u0la-guardia-airport,
20:u4la-guardia-airport,
20:u6la-guardia-airport,
4:b1la,
4:b5la,
4:u0la,
4:u4la,
4:u6la,
8:*2single,
8:*3single,
8:b1single,
8:b5single,
8:u0single,
8:u4single,
8:u6single,
12:b1eighteenth,
12:b5eighteenth,
12:u0eighteenth,
12:u4eighteenth,
12:u6eighteenth,
9:*2red-eye,
9:*3red-eye,
9:b1red-eye,
9:b5red-eye,
9:u0red-eye,
9:u4red-eye,
9:u6red-eye,
9:u0twelfth,
9:u4twelfth,
9:u6twelfth,
12:*2twenty-two,
12:*3twenty-two,
14:*2america-west,
14:*3america-west,
14:b1america-west,
11:*2southwest,
11:*3southwest,
14:b5america-west,
14:u0america-west,
14:u4america-west,
14:u6america-west,
11:b1southwest,
11:b5southwest,
11:u0southwest,
11:u4southwest,
11:u6southwest,
12:b1twenty-two,
12:b5twenty-two,
12:u0twenty-two,
12:u4twenty-two,
12:u6twenty-two,
5:*2six,
5:*3six,
5:b1six,
5:b5six,
5:u0six,
5:u4six,
5:u6six,
11:*2salt-lake,
11:*3salt-lake,
9:*2tonight,
9:*3tonight,
9:b1tonight,
9:b5tonight,
9:u0tonight,
9:u4tonight,
9:u6tonight,
7:*2visit,
7:*3visit,
7:b1visit,
7:b5visit,
7:u0visit,
7:u4visit,
7:u6visit,
6:*2them,
6:*3them,
7:*2lives,
7:*3lives,
6:b1them,
6:b5them,
6:u0them,
7:b1lives,
6:u4them,
7:b5lives,
6:u6them,
7:u0lives,
7:u4lives,
7:u6lives,
5:b1530,
5:b5530,
5:u0530,
5:u4530,
5:u6530,
24:*2st.-petersburg-airport,
24:*3st.-petersburg-airport,
5:*2539,
5:*3539,
21:*2trans-world-airline,
21:*3trans-world-airline,
21:b1trans-world-airline,
21:b5trans-world-airline,
21:u0trans-world-airline,
21:u4trans-world-airline,
21:u6trans-world-airline,
8:*21030am,
8:*31030am,
8:b11030am,
8:*21130am,
8:*31130am,
8:b51030am,
8:u01030am,
8:u41030am,
8:u61030am,
8:*21115am,
8:*31115am,
8:b11115am,
8:*21245pm,
8:*31245pm,
8:b51115am,
8:u01115am,
8:u41115am,
8:u61115am,
3:*29,
3:*39,
3:b19,
3:b59,
3:u09,
3:u49,
3:u69,
18:*2at-the-same-time,
18:*3at-the-same-time,
12:*2new-york's,
12:*3new-york's,
12:b1new-york's,
12:b5new-york's,
31:*2toronto-international-airport,
31:*3toronto-international-airport,
31:b1toronto-international-airport,
31:b5toronto-international-airport,
31:u0toronto-international-airport,
31:u4toronto-international-airport,
31:u6toronto-international-airport,
35:*2los-angeles-international-airport,
35:*3los-angeles-international-airport,
35:b1los-angeles-international-airport,
35:b5los-angeles-international-airport,
35:u0los-angeles-international-airport,
35:u4los-angeles-international-airport,
35:u6los-angeles-international-airport,
37:*2san-francisco-international-airport,
37:*3san-francisco-international-airport,
37:b1san-francisco-international-airport,
37:b5san-francisco-international-airport,
37:u0san-francisco-international-airport,
37:u4san-francisco-international-airport,
37:u6san-francisco-international-airport,
9:*2closest,
9:*3closest,
9:b1closest,
9:b5closest,
9:u0closest,
9:u4closest,
9:u6closest,
4:*219,
4:*319,
4:b119,
4:b519,
4:u019,
4:u419,
4:u619,
5:*2845,
5:*3845,
5:b1845,
5:b5845,
5:u0845,
5:u4845,
5:u6845,
7:*2230pm,
7:*3230pm,
7:b1lunch,
7:b5lunch,
8:*2supper,
8:*3supper,
8:b1supper,
8:b5supper,
5:*2823,
5:*3823,
5:b1823,
5:b5823,
5:u0823,
5:u4823,
5:u6823,
6:*21024,
6:*31024,
6:b11024,
6:b51024,
6:u01024,
6:u41024,
6:u61024,
6:*21205,
6:*31205,
6:b11205,
6:b51205,
6:u01205,
6:u41205,
6:u61205,
5:*2305,
5:*3305,
5:b1305,
5:b5305,
5:u0305,
5:u4305,
5:u6305,
7:*2723pm,
7:*3723pm,
8:*21020pm,
8:*31020pm,
8:*2nights,
8:*3nights,
9:*2fridays,
9:*3fridays,
8:*21230pm,
8:*31230pm,
7:*2934pm,
7:*3934pm,
6:*22134,
6:*32134,
8:*2taking,
8:*3taking,
8:b1taking,
8:b5taking,
8:u0taking,
8:u4taking,
8:u6taking,
5:*2311,
5:*3311,
5:u0ewr,
5:u4ewr,
5:u6ewr,
14:*29-o'clock-pm,
14:*39-o'clock-pm,
14:b19-o'clock-pm,
14:b59-o'clock-pm,
14:u09-o'clock-pm,
14:u49-o'clock-pm,
14:u69-o'clock-pm,
10:*2nonstops,
10:*3nonstops,
10:b1nonstops,
10:b5nonstops,
10:u0nonstops,
10:u4nonstops,
10:u6nonstops,
7:*2vegas,
7:*3vegas,
7:b1vegas,
7:b5vegas,
7:u0vegas,
7:u4vegas,
7:u6vegas,
3:*2h,
3:*3h,
12:*21200-hours,
12:*31200-hours,
10:*2sunday's,
10:*3sunday's,
10:b1sunday's,
10:b5sunday's,
10:u0sunday's,
10:u4sunday's,
10:u6sunday's,
13:*2wednesday's,
13:*3wednesday's,
13:b1wednesday's,
13:b5wednesday's,
13:u0wednesday's,
13:u4wednesday's,
13:u6wednesday's,
10:b1friday's,
10:b5friday's,
10:u0friday's,
10:u4friday's,
10:u6friday's,
15:u0twenty-eighth,
15:u4twenty-eighth,
15:u6twenty-eighth,
17:b112-o'clock-noon,
17:b512-o'clock-noon,
17:u012-o'clock-noon,
17:u412-o'clock-noon,
17:u612-o'clock-noon,
5:*2mia,
5:*3mia,
5:*2bna,
5:*3bna,
5:*2ord,
5:*3ord,
5:b1ord,
5:b5ord,
6:*211pm,
6:*311pm,
10:*2february,
10:*3february,
10:b1february,
10:b5february,
21:*2continental-airline,
21:*3continental-airline,
7:*2march,
7:*3march,
7:b1march,
7:b5march,
10:u0february,
10:u4february,
10:u6february,
7:u0march,
7:u4march,
7:u6march,
12:*2love-field,
12:*3love-field,
19:*2northwest-airline,
19:*3northwest-airline,
19:b1northwest-airline,
19:b5northwest-airline,
19:u0northwest-airline,
19:u4northwest-airline,
19:u6northwest-airline,
5:*2iah,
5:*3iah,
5:b1iah,
5:b5iah,
5:*2hou,
5:*3hou,
5:b1hou,
5:b5hou,
12:b1love-field,
12:b5love-field,
12:u0love-field,
12:u4love-field,
12:u6love-field,
33:*2canadian-airlines-international,
33:*3canadian-airlines-international,
4:*2cp,
4:*3cp,
4:b1cp,
4:b5cp,
19:*2canadian-airlines,
19:*3canadian-airlines,
19:b1canadian-airlines,
19:b5canadian-airlines,
9:*2choices,
9:*3choices,
9:b1choices,
9:b5choices,
9:u0choices,
9:u4choices,
9:u6choices,
7:u0718am,
7:u4718am,
7:u6718am,
12:*2dinnertime,
12:*3dinnertime,
12:b1dinnertime,
12:b5dinnertime,
6:*21288,
6:*31288,
5:*2d10,
5:*3d10,
10:*2takeoffs,
10:*3takeoffs,
10:b1takeoffs,
10:*2landings,
10:*3landings,
10:b5takeoffs,
10:u0takeoffs,
10:u4takeoffs,
10:u6takeoffs,
10:b1landings,
32:*2general-mitchell-international,
32:*3general-mitchell-international,
10:b5landings,
10:u0landings,
10:u4landings,
10:u6landings,
40:*2general-mitchell-international-airport,
40:*3general-mitchell-international-airport,
5:*2off,
5:*3off,
5:b1off,
5:b5off,
5:u0off,
5:u4off,
5:u6off,
9:*2takeoff,
9:*3takeoff,
9:b1takeoff,
9:b5takeoff,
9:u0takeoff,
9:u4takeoff,
9:u6takeoff,
26:*2general-mitchell-airport,
26:*3general-mitchell-airport,
32:b1general-mitchell-international,
32:b5general-mitchell-international,
32:u0general-mitchell-international,
32:u4general-mitchell-international,
32:u6general-mitchell-international,
9:*2located,
9:*3located,
18:*2general-mitchell,
18:*3general-mitchell,
12:*2lunch-time,
12:*3lunch-time,
7:u0lunch,
7:u4lunch,
7:u6lunch,
11:*2nationair,
11:*3nationair,
11:b1nationair,
11:b5nationair,
11:u0nationair,
11:u4nationair,
11:u6nationair,
5:*2yyz,
5:*3yyz,
24:*2lester-pearson-airport,
24:*3lester-pearson-airport,
19:u0canadian-airlines,
19:u4canadian-airlines,
19:u6canadian-airlines,
33:b1canadian-airlines-international,
33:b5canadian-airlines-international,
33:u0canadian-airlines-international,
33:u4canadian-airlines-international,
33:u6canadian-airlines-international,
9:*2midwest,
9:*3midwest,
9:*2express,
9:*3express,
9:b1midwest,
9:b5midwest,
9:u0midwest,
9:b1express,
9:u4midwest,
9:b5express,
9:u6midwest,
9:u0express,
9:u4express,
9:u6express,
7:*2720am,
7:*3720am,
9:*2highest,
9:*3highest,
9:b1highest,
9:b5highest,
9:u0highest,
9:u4highest,
9:u6highest,
0=0x1.fd693cc696e72p+0
1=0x1.1907ff6ebfe1dp-2
2=0x1.0fd5544eabb42p-1
5=0x1.d7eebf8c7bd76p-2
6=0x1.7c85b1afb4c6cp-2
8=0x1.205e790f02331p-1
9=0x1.75ef2069e1228p-5
12=0x1.24610234939c6p-1
13=0x1.91137fe261c3p-2
16=0x1.0ddbcf7618d53p-1
20=0x1.acd87808c510cp-2
23=0x1.20316d4f4de2dp-5
28=0x1.1cfcad8edaf1dp-2
31=0x1.3a8718ab001d6p-1
49=0x1.817a895fb84fcp-3
6642=0x1.5aa62684db392p-2
6723=0x1.02193b7634143p+0
7128=0x1.76dccc978391cp-4
7695=-0x1.2b959e0b0e7bcp-7
8100=0x1.670617935658dp-2
8991=0x1.a85a36793c787p-2
13284=0x1.5aa62684db392p-2
13365=0x1.02193b7634143p+0
13770=0x1.76dccc978391cp-4
14337=-0x1.2b959e0b0e7bcp-7
14742=0x1.670617935658dp-2
15633=0x1.a85a36793c787p-2
19926=0x1.fd693cc696e72p+0
19927=0x1.1907ff6ebfe1dp-2
19928=0x1.0fd5544eabb42p-1
19931=0x1.d7eebf8c7bd76p-2
19932=0x1.7c85b1afb4c6cp-2
19934=0x1.205e790f02331p-1
19935=0x1.75ef2069e1228p-5
19938=0x1.24610234939c6p-1
19939=0x1.91137fe261c3p-2
19942=0x1.0ddbcf7618d53p-1
19946=0x1.acd87808c510cp-2
19949=0x1.20316d4f4de2dp-5
19954=0x1.1cfcad8edaf1dp-2
19957=0x1.3a8718ab001d6p-1
19975=0x1.817a895fb84fcp-3
26568=0x1.fd693cc696e72p+0
26569=0x1.1907ff6ebfe1dp-2
26570=0x1.0fd5544eabb42p-1
26573=0x1.d7eebf8c7bd76p-2
26574=0x1.7c85b1afb4c6cp-2
26576=0x1.205e790f02331p-1
26577=0x1.75ef2069e1228p-5
26580=0x1.24610234939c6p-1
26581=0x1.91137fe261c3p-2
26584=0x1.0ddbcf7618d53p-1
26588=0x1.acd87808c510cp-2
26591=0x1.20316d4f4de2dp-5
26596=0x1.1cfcad8edaf1dp-2
26599=0x1.3a8718ab001d6p-1
26617=0x1.817a895fb84fcp-3
26649=0x1.be008edc2f97bp-1
26650=0x1.4168fc11042a8p-5
26653=-0x1.0ae33cfaa9913p-2
26655=0x1.3739929795567p-2
26657=0x1.ce3148074a429p-2
26658=0x1.1bc2b03414eb7p-1
26662=0x1.33fe50647cde4p-3
26665=0x1.9b61395153761p-1
26667=0x1.a7805dadb461cp-3
26678=0x1.69671951756f3p-1
26681=0x1.118a03d4072c4p-2
26694=0x1.bad46b15b5e57p-3
26705=0x1.04d3c23742155p-1
26711=0x1.b3233fb0e6358p-3
26730=0x1.5fb99defd5229p+1
33291=0x1.812b066353c5bp-4
33293=0x1.05b8461cccda2p+1
33294=0x1.8ed0ba8fbea1cp-2
33305=0x1.f9174d99f199dp-1
33306=0x1.a774136b0c32fp-2
33313=0x1.2fdfc26047d0dp-1
33318=0x1.62369bf4fddb2p-2
33322=0x1.a3ef36e1e7d96p-2
33323=0x1.f23e83501d21ap-2
33333=0x1.3e0aa306b9bdfp-2
33340=0x1.64519773baea2p-2
33351=0x1.457d9e167a8bp+0
33353=0x1.103aa353d6346p-1
33367=0x1.75924192cfd72p-2
33372=0x1.5badb484fbc52p+0
33374=0x1.0092ffdcf298p-1
33375=0x1.52dc0881d2c09p+0
33376=0x1.ef1b7b54168ebp-3
33377=0x1.9702a85fb5355p-3
33387=0x1.a92959894581fp-1
33394=0x1.aaac23af4ab6ep-1
33399=0x1.f13a51a335849p-2
33404=0x1.5e900703c2907p-1
33405=0x1.3feb9ddb6be64p-3
33414=0x1.24700e18583bfp-2
33421=0x1.5bb7d32546e0cp-1
33432=0x1.359f8224fa51bp-1
33434=0x1.6d9eef33cada6p-1
33534=0x1.21fa76510d7acp+0
33536=-0x1.0527e255db4d1p-1
33548=0x1.e306014552cbap+0
33696=0x1.1604fd046039bp-1
33698=-0x1.15ebd35d37c7bp-6
33729=0x1.531f15371fe75p-4
33752=0x1.fcacd06985d34p-4
33860=0x1.83b6a57faa896p-3
34020=0x1.661b8cb6dfa5ap-1
34022=0x1.a4380bde4aa51p-1
34751=0x1.7671fbd41c6fcp-2
34994=0x1.30698d2212967p+0
35723=0x1.4e656fedf9caep-1
36207=0x1.b90718b08eb2fp-1
36695=0x1.2765ad38501d7p-1
37930=0x1.072f0492cb35bp+0
37968=0x1.3e418af164784p-1
39523=0x1.cebf5d3f1d5bp-2
39933=0x1.812b066353c5bp-4
39935=0x1.05b8461cccda2p+1
39936=0x1.8ed0ba8fbea1cp-2
39947=0x1.f9174d99f199dp-1
39948=0x1.a774136b0c32fp-2
39955=0x1.2fdfc26047d0dp-1
39960=0x1.62369bf4fddb2p-2
39964=0x1.a3ef36e1e7d96p-2
39965=0x1.f23e83501d21ap-2
39975=0x1.3e0aa306b9bdfp-2
39982=0x1.64519773baea2p-2
39993=0x1.457d9e167a8bp+0
39995=0x1.103aa353d6346p-1
40009=0x1.75924192cfd72p-2
40014=0x1.5badb484fbc52p+0
40016=0x1.0092ffdcf298p-1
40017=0x1.52dc0881d2c09p+0
40018=0x1.ef1b7b54168ebp-3
40019=0x1.9702a85fb5355p-3
40029=0x1.a92959894581fp-1
40036=0x1.aaac23af4ab6ep-1
40041=0x1.f13a51a335849p-2
40046=0x1.5e900703c2907p-1
40047=0x1.3feb9ddb6be64p-3
40056=0x1.24700e18583bfp-2
40063=0x1.5bb7d32546e0cp-1
40074=0x1.359f8224fa51bp-1
40076=0x1.6d9eef33cada6p-1
40176=0x1.21fa76510d7acp+0
40178=-0x1.0527e255db4d1p-1
40190=0x1.e306014552cbap+0
40338=0x1.1604fd046039bp-1
40340=-0x1.15ebd35d37c7bp-6
40371=0x1.531f15371fe75p-4
40394=0x1.fcacd06985d34p-4
40502=0x1.83b6a57faa896p-3
40662=0x1.661b8cb6dfa5ap-1
40664=0x1.a4380bde4aa51p-1
41393=0x1.7671fbd41c6fcp-2
41636=0x1.30698d2212967p+0
42365=0x1.4e656fedf9caep-1
42849=0x1.b90718b08eb2fp-1
43337=0x1.2765ad38501d7p-1
44572=0x1.072f0492cb35bp+0
44610=0x1.3e418af164784p-1
46165=0x1.cebf5d3f1d5bp-2
46575=0x1.be008edc2f979p-1
46576=0x1.4168fc11042a8p-5
46579=-0x1.0ae33cfaa9913p-2
46581=0x1.3739929795567p-2
46583=0x1.ce3148074a429p-2
46584=0x1.1bc2b03414eb7p-1
46588=0x1.33fe50647cde4p-3
46591=0x1.9b61395153761p-1
46593=0x1.a7805dadb461cp-3
46604=0x1.69671951756f3p-1
46607=0x1.118a03d4072c4p-2
46620=0x1.bad46b15b5e57p-3
46631=0x1.04d3c23742155p-1
46637=0x1.b3233fb0e6358p-3
46656=0x1.5fb99defd5229p+1
53217=0x1.be008edc2f979p-1
53218=0x1.4168fc11042a8p-5
53221=-0x1.0ae33cfaa9913p-2
53223=0x1.3739929795567p-2
53225=0x1.ce3148074a429p-2
53226=0x1.1bc2b03414eb7p-1
53230=0x1.33fe50647cde4p-3
53233=0x1.9b61395153761p-1
53235=0x1.a7805dadb461cp-3
53246=0x1.69671951756f3p-1
53249=0x1.118a03d4072c4p-2
53262=0x1.bad46b15b5e57p-3
53273=0x1.04d3c23742155p-1
53279=0x1.b3233fb0e6358p-3
53298=0x1.af0ff7dcc158ap-3
53379=0x1.21bff89356542p+1
53398=0x1.9e92eff188e21p-3
59944=0x1.abb46c2910f42p-5
60025=0x1.de5ecdc3ce428p-5
60588=0x1.4b4dd78a4171ep-2
66586=0x1.abb46c2910f42p-5
66667=0x1.de5ecdc3ce428p-5
67230=0x1.4b4dd78a4171ep-2
73224=0x1.af0ff7dcc158ap-3
73305=0x1.21bff89356542p+1
73324=0x1.9e92eff188e21p-3
79866=0x1.af0ff7dcc158ap-3
79947=0x1.652c102b864d2p-1
79951=-0x1.073fd6d75c7b2p+0
79953=0x1.e9bb0d6739ef9p-2
79956=0x1.3ad555bb5ed1dp-1
79963=0x1.618fa77c89a0fp-1
79967=-0x1.5aa72faaea39p-4
79975=0x1.34729d0e20bfp-2
80028=0x1.524ede391841fp+1
80030=0x1.d132ebcc949fbp-4
80032=0x1.19cd5b83f3fbp+2
80043=0x1.0a7b8768d70b3p-2
80044=0x1.ea94621abb21ep-1
80054=0x1.94d0b32f8e31bp+0
80055=0x1.ca17349f1d7eep-1
80066=0x1.e3dde687c631p-2
80073=0x1.30d59cc103ec3p+0
80076=0x1.1d7b64bb12cdfp+1
80089=0x1.15b66c06f992bp+1
80092=0x1.d2e0e53b0afeap+0
80097=0x1.4e22acbb133f7p-1
86589=0x1.600788a80bfa7p+0
86594=0x1.236f43f11b075p-4
86607=0x1.4ad4f8f71af66p-2
86610=0x1.495edabb41ba5p-1
86616=0x1.6d027ca33ba2fp-3
86670=0x1.4611f8d554ba6p-3
86674=0x1.a56db11255129p-3
86675=0x1.978866fb323fcp-2
86688=0x1.9f4cba173b5e7p-2
86703=0x1.a24ac7fb92fa3p-2
86832=-0x1.07d678d2ad444p-7
86994=0x1.6c0cc98707dd8p-2
87399=0x1.019777f03e0e3p-1
87561=0x1.1b316f6c388edp-1
87642=-0x1.6c73032219aedp-10
87885=0x1.208bb879717bap-4
88047=0x1.1a7f04751a55ep-3
88371=0x1.2538eb64cd8cp-1
88452=0x1.22d6312cc828p-1
88776=0x1.21be1e3a7b7e2p-4
88857=0x1.2a6a8e3e73dc9p-1
89100=-0x1.c8c6acd656f39p-6
89262=0x1.26208fa054426p-3
89343=0x1.82afdc8539537p-2
89667=0x1.ccd253545c9cp-2
89910=0x1.1447d90b8a5e2p-1
90801=0x1.dbb86a6898bc6p-5
91773=0x1.1bc29adff915cp-1
91854=-0x1.c509bc6678861p-2
91875=0x1.7baaf7d4019ep-2
92016=0x1.5181d1246eccep-1
93231=0x1.600788a80bfa7p+0
93236=0x1.236f43f11b075p-4
93249=0x1.4ad4f8f71af66p-2
93252=0x1.495edabb41ba5p-1
93258=0x1.6d027ca33ba2fp-3
93312=0x1.4611f8d554ba6p-3
93316=0x1.a56db11255129p-3
93317=0x1.978866fb323fcp-2
93330=0x1.9f4cba173b5e7p-2
93345=0x1.a24ac7fb92fa3p-2
93474=-0x1.07d678d2ad444p-7
93636=0x1.6c0cc98707dd8p-2
94041=0x1.019777f03e0e3p-1
94203=0x1.1b316f6c388edp-1
94284=-0x1.6c73032219aedp-10
94527=0x1.208bb879717bap-4
94689=0x1.1a7f04751a55ep-3
95013=0x1.2538eb64cd8cp-1
95094=0x1.22d6312cc828p-1
95418=0x1.21be1e3a7b7e2p-4
95499=0x1.2a6a8e3e73dc9p-1
95742=-0x1.c8c6acd656f39p-6
95904=0x1.26208fa054426p-3
95985=0x1.82afdc8539537p-2
96309=0x1.ccd253545c9cp-2
96552=0x1.1447d90b8a5e2p-1
97443=0x1.dbb86a6898bc6p-5
98415=0x1.1bc29adff915cp-1
98496=-0x1.c509bc6678861p-2
98517=0x1.7baaf7d4019ep-2
98658=0x1.5181d1246eccep-1
99873=0x1.652c102b864d2p-1
99877=-0x1.073fd6d75c7b2p+0
99879=0x1.e9bb0d6739ef9p-2
99882=0x1.3ad555bb5ed1dp-1
99889=0x1.618fa77c89a0fp-1
99893=-0x1.5aa72faaea39p-4
99901=0x1.34729d0e20bfp-2
99954=0x1.524ede391841fp+1
99956=0x1.d132ebcc949fbp-4
99958=0x1.19cd5b83f3fbp+2
99969=0x1.0a7b8768d70b3p-2
99970=0x1.ea94621abb21ep-1
99980=0x1.94d0b32f8e31bp+0
99981=0x1.ca17349f1d7eep-1
99992=0x1.e3dde687c631p-2
99999=0x1.30d59cc103ec3p+0
100002=0x1.1d7b64bb12cdfp+1
100015=0x1.15b66c06f992bp+1
100018=0x1.d2e0e53b0afeap+0
100023=0x1.4e22acbb133f7p-1
106515=0x1.652c102b864d2p-1
106519=-0x1.073fd6d75c7b2p+0
106521=0x1.e9bb0d6739ef9p-2
106524=0x1.3ad555bb5ed1dp-1
106531=0x1.618fa77c89a0fp-1
106535=-0x1.5aa72faaea39p-4
106543=0x1.34729d0e20bfp-2
106596=0x1.0f83caa6f4a53p+0
106597=0x1.3b7855b110aaap-4
106598=0x1.3330bd79948d6p-3
106600=0x1.c58cb132d5fd1p-1
106601=0x1.6530783298e1cp-1
106602=0x1.2c5fa073a51c7p-2
106603=0x1.68ca5a8deaf67p-1
106604=0x1.dc3e5eed3d548p-3
106606=0x1.66e7b26986819p-1
106609=0x1.6f910b6301536p-4
106612=0x1.24d9d6dcb4064p-3
106614=0x1.dd68df5ce9f7p-6
106615=0x1.e096363d04c35p-3
106616=0x1.22291d9647bf1p-1
106617=0x1.5929c976dde1bp-1
106619=0x1.5df945e32c63cp-1
106622=0x1.026d90a9ac222p+0
106624=0x1.1d5c1dd1c87f7p-1
106626=-0x1.1ad4aa4aa0d54p-4
106635=0x1.0cf47e59101a6p-4
106638=-0x1.11ee83a6753cp-1
106644=0x1.0b0aa91e94ef9p-1
106645=0x1.2646d54740bc8p-6
106646=0x1.202057b7a3c1ap-1
106647=0x1.3bc2f7494f772p-1
106650=-0x1.237556dcc9d59p-3
106651=-0x1.832017c190f96p-4
106652=0x1.083451557c04p-1
106660=0x1.706e08604c06dp-3
106671=0x1.d85ba54a99cecp-3
106673=0x1.bc7ffb5e02dfp-3
106677=0x1.00194f381230bp+1
113319=0x1.1ac233758016ep-1
119961=0x1.1ac233758016ep-1
126522=0x1.0f83caa6f4a53p+0
126523=0x1.3b7855b110aaap-4
126524=0x1.3330bd79948d6p-3
126526=0x1.c58cb132d5fd1p-1
126527=0x1.6530783298e1cp-1
126528=0x1.2c5fa073a51c7p-2
126529=0x1.68ca5a8deaf67p-1
126530=0x1.dc3e5eed3d548p-3
126532=0x1.66e7b26986819p-1
126535=0x1.6f910b6301536p-4
126538=0x1.24d9d6dcb4064p-3
126540=0x1.dd68df5ce9f7p-6
126541=0x1.e096363d04c35p-3
126542=0x1.22291d9647bf1p-1
126543=0x1.5929c976dde1bp-1
126545=0x1.5df945e32c63cp-1
126548=0x1.026d90a9ac222p+0
126550=0x1.1d5c1dd1c87f7p-1
126552=-0x1.1ad4aa4aa0d54p-4
126561=0x1.0cf47e59101a6p-4
126564=-0x1.11ee83a6753cp-1
126570=0x1.0b0aa91e94ef9p-1
126571=0x1.2646d54740bc8p-6
126572=0x1.202057b7a3c1ap-1
126573=0x1.3bc2f7494f772p-1
126576=-0x1.237556dcc9d59p-3
126577=-0x1.832017c190f96p-4
126578=0x1.083451557c04p-1
126586=0x1.706e08604c06dp-3
126597=0x1.d85ba54a99cecp-3
126599=0x1.bc7ffb5e02dfp-3
126603=0x1.00194f381230bp+1
133164=0x1.0f83caa6f4a53p+0
133165=0x1.3b7855b110aaap-4
133166=0x1.3330bd79948d6p-3
133168=0x1.c58cb132d5fd1p-1
133169=0x1.6530783298e1cp-1
133170=0x1.2c5fa073a51c7p-2
133171=0x1.68ca5a8deaf67p-1
133172=0x1.dc3e5eed3d548p-3
133174=0x1.66e7b26986819p-1
133177=0x1.6f910b6301536p-4
133180=0x1.24d9d6dcb4064p-3
133182=0x1.dd68df5ce9f7p-6
133183=0x1.e096363d04c35p-3
133184=0x1.22291d9647bf1p-1
133185=0x1.5929c976dde1bp-1
133187=0x1.5df945e32c63cp-1
133190=0x1.026d90a9ac222p+0
133192=0x1.1d5c1dd1c87f7p-1
133194=-0x1.1ad4aa4aa0d54p-4
133203=0x1.0cf47e59101a6p-4
133206=-0x1.11ee83a6753cp-1
133212=0x1.0b0aa91e94ef9p-1
133213=0x1.2646d54740bc8p-6
133214=0x1.202057b7a3c1ap-1
133215=0x1.3bc2f7494f772p-1
133218=-0x1.237556dcc9d59p-3
133219=-0x1.832017c190f96p-4
