#mdl#2#5138
#rdr#2/0/0
9:*0%x[1,0],
10:b1%x[-1,0],
#qrk#81
1:O,
15:B-cost_relative,
19:B-fromloc.city_name,
20:B-fromloc.state_code,
17:B-toloc.city_name,
22:B-depart_date.day_name,
27:B-depart_time.period_of_day,
27:B-depart_date.date_relative,
14:B-airline_name,
13:B-flight_time,
27:B-depart_time.time_relative,
18:B-depart_time.time,
12:B-flight_mod,
14:B-airline_code,
20:B-fromloc.state_name,
19:B-stoploc.city_name,
11:B-city_name,
24:B-depart_date.day_number,
24:B-depart_date.month_name,
9:B-connect,
12:B-round_trip,
24:B-depart_time.period_mod,
22:B-fromloc.airport_name,
13:B-flight_stop,
12:B-state_name,
15:B-aircraft_code,
18:B-toloc.state_name,
18:B-arrive_time.time,
12:B-class_type,
15:B-flight_number,
27:B-arrive_time.period_of_day,
16:B-transport_type,
14:B-airport_name,
8:B-return,
18:B-depart_date.year,
15:B-period_of_day,
15:B-time_relative,
6:B-time,
13:B-fare_amount,
24:B-arrive_date.month_name,
24:B-arrive_date.day_number,
6:B-meal,
27:B-arrive_time.time_relative,
18:B-meal_description,
12:B-state_code,
9:B-economy,
24:B-return_date.month_name,
24:B-return_date.day_number,
20:B-toloc.airport_name,
5:B-mod,
13:B-flight_days,
28:B-depart_date.today_relative,
18:B-restriction_code,
17:B-fare_basis_code,
27:B-arrive_date.date_relative,
22:B-arrive_date.day_name,
4:B-or,
11:B-meal_code,
24:B-arrive_time.start_time,
22:B-arrive_time.end_time,
22:B-fromloc.airport_code,
20:B-toloc.airport_code,
14:B-airport_code,
24:B-arrive_time.period_mod,
18:B-toloc.state_code,
24:B-depart_time.start_time,
22:B-depart_time.end_time,
16:B-today_relative,
28:B-arrive_date.today_relative,
10:B-day_name,
20:B-stoploc.state_code,
27:B-return_date.date_relative,
22:B-stoploc.airport_name,
22:B-return_date.day_name,
11:B-days_code,
12:B-month_name,
12:B-day_number,
20:B-toloc.country_name,
28:B-return_date.today_relative,
24:B-return_time.period_mod,
27:B-return_time.period_of_day,
#qrk#1936
6:*0like,
6:b1_x-1,
4:*0to,
5:b1i'd,
6:*0find,
6:b1like,
5:*0the,
4:b1to,
10:*0cheapest,
6:b1find,
8:*0flight,
5:b1the,
6:*0from,
10:b1cheapest,
12:*0washington,
8:b1flight,
4:*0dc,
6:b1from,
12:b1washington,
9:*0atlanta,
4:b1dc,
6:*0_x+1,
11:*0traveling,
5:b1i'm,
8:*0dallas,
11:b1traveling,
14:*0philadelphia,
8:b1dallas,
6:*0also,
6:*0need,
3:b1i,
6:b1also,
4:*0go,
6:b1need,
15:*0san-francisco,
4:b1go,
4:*0on,
11:*0wednesday,
15:b1san-francisco,
9:*0evening,
4:b1on,
11:b1wednesday,
9:b1evening,
5:*0you,
3:*0i,
7:b1thank,
5:b1you,
8:*0travel,
6:*0next,
8:b1travel,
6:b1next,
5:*0fly,
22:*0continental-airlines,
9:*0between,
5:b1fly,
8:*0boston,
22:b1continental-airlines,
5:*0and,
9:b1between,
8:b1boston,
5:b1and,
6:*0tell,
4:*0me,
8:b1please,
6:b1tell,
9:*0flights,
4:b1me,
9:b1flights,
10:*0thursday,
14:b1philadelphia,
7:*0would,
7:b1would,
6:*0fare,
6:b1fare,
9:b1atlanta,
3:*0a,
3:b1a,
6:*0give,
6:b1give,
14:*0flight-times,
14:b1flight-times,
11:*0baltimore,
4:*0in,
11:b1baltimore,
9:*0morning,
4:b1in,
8:*0before,
3:*08,
9:b1morning,
8:b1before,
8:*0please,
23:*0times-of-your-flights,
23:b1times-of-your-flights,
11:*08-o'clock,
9:*0leaving,
9:b1leaving,
4:*0do,
6:b1what,
6:*0have,
4:b1do,
8:*0denver,
6:b1have,
10:*0arriving,
8:b1denver,
10:b1arriving,
4:*0is,
6:*0your,
6:*0last,
4:b1is,
6:b1your,
6:b1last,
7:*0there,
7:b1there,
19:*0american-airlines,
6:b1does,
19:b1american-airlines,
6:*0does,
6:*0time,
10:*0earliest,
6:b1time,
10:b1earliest,
4:*0of,
4:b1of,
7:b1could,
13:*0information,
12:*0concerning,
13:b1information,
12:b1concerning,
5:*0one,
5:b1one,
4:*0as,
10:*0possible,
4:b1as,
18:*0american-airline,
18:b1american-airline,
15:*0early-morning,
17:*0times-of-flight,
15:b1early-morning,
5:*0twa,
5:b1twa,
12:*0fort-worth,
7:*0texas,
12:b1fort-worth,
7:b1texas,
12:b1interested,
12:*0interested,
6:*0that,
6:*0stop,
6:b1that,
6:b1stop,
12:*0pittsburgh,
5:*0for,
5:b1for,
12:b1pittsburgh,
6:*0want,
6:b1want,
8:*0monday,
10:*0airlines,
10:b1airlines,
8:*0ground,
16:*0transportation,
8:b1ground,
16:b1transportation,
9:*0airport,
9:b1airport,
10:*0downtown,
9:*0tuesday,
14:*0twenty-first,
11:b1repeating,
6:*010am,
6:*0what,
6:*0type,
6:b110am,
10:*0aircraft,
6:b1type,
6:*0used,
10:b1aircraft,
8:*0flying,
8:b1flying,
17:*0united-airlines,
17:b1united-airlines,
7:*0right,
5:b1all,
7:b1right,
5:*0let,
6:*0know,
5:b1let,
6:b1know,
7:*0using,
7:b1using,
6:*0they,
5:*0use,
6:b1they,
7:*0these,
5:b1use,
7:b1these,
4:*010,
4:b110,
6:*0i'll,
5:*0try,
6:b1well,
6:b1i'll,
5:b1try,
6:*0kind,
6:b1kind,
7:*0flies,
7:b1flies,
12:*010-o'clock,
12:b110-o'clock,
11:*0september,
11:*0twentieth,
11:b1september,
11:b1twentieth,
10:*0stopover,
10:b1stopover,
5:*0are,
5:b1are,
4:*0an,
4:b1an,
12:*0connecting,
6:*0wish,
6:b1wish,
9:*0airline,
9:b1airline,
7:*0plane,
7:b1plane,
9:*0one-way,
9:b1one-way,
11:*0available,
4:*0at,
10:*0noontime,
11:b1available,
4:b1at,
10:b1noontime,
8:*0around,
8:b1around,
16:*0delta-airlines,
16:b1delta-airlines,
18:*0eastern-airlines,
18:b1eastern-airlines,
7:*0early,
7:b1early,
10:b1possible,
5:*0day,
5:b1day,
6:*0will,
8:*0arrive,
6:b1will,
8:b1arrive,
16:*0denver-airport,
16:b1denver-airport,
10:b1downtown,
9:*0nonstop,
9:b1nonstop,
8:*0repeat,
8:b1repeat,
12:*0departures,
12:b1departures,
8:*0august,
12:*0nineteenth,
8:b1monday,
8:b1august,
12:b1nineteenth,
6:*0rate,
6:b1rate,
5:*0any,
5:b1any,
8:*0us-air,
8:b1us-air,
7:*0going,
7:b1we're,
7:b1going,
5:*0819,
5:b1819,
6:*0take,
6:b1take,
11:*09-o'clock,
11:b19-o'clock,
5:*0out,
5:b1out,
4:*0be,
9:*0staying,
4:b1be,
9:b1staying,
5:*0two,
7:*0hours,
7:*0could,
5:b1two,
7:b1hours,
5:b1can,
7:*0about,
7:b1about,
6:*0city,
6:b1city,
6:*0well,
5:*0i'm,
6:b1very,
9:*0working,
10:*0scenario,
9:b1working,
7:*0three,
10:b1scenario,
7:b1three,
5:*0727,
5:b1727,
9:*0georgia,
4:*0am,
4:b1am,
8:*0number,
8:b1number,
8:*0return,
8:b1return,
7:*0bound,
7:b1bound,
8:*0friday,
6:*0this,
6:*0week,
8:b1friday,
6:b1this,
7:*0class,
9:*0service,
7:b1class,
9:b1service,
12:*0california,
12:b1california,
14:*0pennsylvania,
5:*0get,
5:b1get,
5:b1yes,
7:*0delta,
7:b1delta,
7:*0225pm,
7:b1225pm,
8:*01158pm,
8:b11158pm,
11:*0equipment,
11:b1equipment,
6:b1used,
9:*0looking,
9:b1looking,
10:*0stopping,
10:b1stopping,
8:*0ticket,
8:b1ticket,
10:*0colorado,
10:b1colorado,
6:*0with,
9:b1georgia,
6:b1with,
13:*0coach-class,
6:*0seat,
13:b1coach-class,
6:b1seat,
4:*0or,
8:*0lowest,
4:b1or,
8:b1lowest,
5:*0buy,
5:b1buy,
11:*0afternoon,
11:b1afternoon,
5:*0230,
5:b1230,
7:*0324pm,
5:*0324,
5:b1324,
7:*0110pm,
7:b1110pm,
13:*0seventeenth,
9:*0oakland,
10:*0american,
5:*0813,
10:b1american,
5:b1813,
9:b1oakland,
6:*0goes,
10:*0straight,
9:*0through,
6:b1goes,
10:b1straight,
9:b1through,
18:*0without-stopping,
9:*0another,
18:b1without-stopping,
9:b1another,
4:*0if,
4:b1if,
9:*0enroute,
9:b1enroute,
4:*0it,
4:b1it,
5:b1may,
6:*02153,
6:b12153,
13:*0first-class,
13:b1first-class,
6:*0list,
6:b1list,
8:*0making,
8:b1making,
13:*0continental,
13:b1continental,
7:*0leave,
7:b1leave,
7:*0after,
12:*012-o'clock,
7:b1after,
12:b112-o'clock,
7:*0which,
8:*0leaves,
7:b1which,
8:b1leaves,
8:*01220pm,
8:b11220pm,
11:*05-o'clock,
11:b15-o'clock,
13:*0lowest-cost,
13:b1lowest-cost,
7:*0645am,
7:b1645am,
9:b1tuesday,
5:*0has,
5:b1has,
6:*0much,
5:b1how,
6:b1much,
12:*0round-trip,
12:b1round-trip,
6:*0long,
6:b1long,
17:*0atlanta-airport,
6:*0into,
17:b1atlanta-airport,
6:b1into,
19:*0airport-limousine,
19:b1airport-limousine,
6:*0make,
6:*0trip,
6:b1make,
6:b1trip,
7:b1again,
5:*0how,
7:*0fares,
7:b1fares,
14:*0arrival-time,
14:b1arrival-time,
7:*0755am,
7:b1755am,
8:*0latest,
8:b1latest,
5:*0755,
5:b1755,
10:*0schedule,
10:b1schedule,
5:*09pm,
5:b19pm,
14:*0twenty-ninth,
10:*0november,
14:*0twenty-third,
10:b1november,
14:b1twenty-third,
6:*0year,
6:*01991,
5:*0i'd,
6:b1year,
6:b11991,
6:*0just,
6:b1okay,
6:b1just,
5:*08am,
7:b1hello,
7:*0let's,
5:*0see,
7:b1let's,
5:b1see,
15:*0delta-airline,
15:b1delta-airline,
7:*0stops,
7:b1stops,
5:*0way,
5:b1way,
5:*0all,
8:*0united,
8:b1united,
7:*0815am,
4:*0by,
16:*0united-airline,
4:b1by,
16:b1united-airline,
4:b1oh,
17:*0eastern-airline,
17:b1eastern-airline,
6:*0some,
6:b1some,
5:*09am,
16:*0dallas-airport,
16:b1dallas-airport,
14:*0arrangements,
14:b1arrangements,
16:*0boston-airport,
16:b1boston-airport,
5:*0can,
11:*0departing,
11:b1departing,
9:*0airfare,
9:b1airfare,
13:*0329-dollars,
13:b1329-dollars,
6:*0cost,
6:b1cost,
5:*0air,
14:*0restrictions,
5:b1air,
14:b1restrictions,
13:*0416-dollars,
6:*0book,
6:b1book,
7:*0coach,
10:*0discount,
7:b1coach,
10:b1discount,
9:*0arrange,
9:b1arrange,
6:*0july,
9:*0seventh,
6:b1july,
6:b1sure,
11:*0determine,
11:b1determine,
9:b1seventh,
6:*0meal,
7:*0being,
8:*0served,
6:b1meal,
7:b1being,
5:b18am,
6:*0such,
6:b1such,
7:*0types,
7:b1types,
6:*0dc10,
10:*0sometime,
10:b1sometime,
8:*0direct,
8:b1direct,
9:*012-noon,
9:*0arrives,
9:b1arrives,
15:*0approximately,
5:*01pm,
15:b1approximately,
6:*0many,
6:b1many,
7:*0where,
7:b1where,
13:*0dinner-meal,
5:*0420,
5:b1420,
3:*05,
3:b15,
4:*0my,
7:*0final,
13:*0destination,
4:b1my,
7:b1final,
13:b1destination,
11:*0originate,
11:b1originate,
22:*0latest-time-possible,
22:b1latest-time-possible,
11:*0fifteenth,
8:*0during,
11:*0breakfast,
8:b1during,
5:*0296,
8:*0serves,
5:b1296,
8:b1serves,
7:b1first,
17:*0early-afternoon,
8:*0should,
8:b1should,
7:*0615pm,
7:*0their,
7:b1their,
24:*0earliest-possible-time,
10:*0question,
10:b1question,
6:*0live,
6:b1live,
8:*0trying,
8:b1trying,
12:*0connection,
12:b1connection,
7:*0those,
7:b1those,
11:*0thirtieth,
11:b1thirtieth,
6:b1fine,
6:*0help,
6:b1help,
6:*0very,
5:*0now,
5:b1now,
5:*0747,
5:b1747,
6:*0able,
5:*0put,
6:b1able,
5:b1put,
16:*0twenty-seventh,
16:b1twenty-seventh,
7:*0first,
7:*0night,
7:b1night,
7:b1630am,
5:*0650,
7:*0third,
7:*0rates,
7:b1rates,
17:*0least-expensive,
17:b1least-expensive,
16:*0city-of-boston,
16:b1city-of-boston,
8:b1kindly,
8:*0inform,
8:b1inform,
17:*012-o'clock-noon,
9:*0eastern,
5:*0825,
9:b1eastern,
5:b1825,
6:*0when,
6:b1when,
5:*0555,
5:b1555,
5:*06pm,
5:*05pm,
7:*0sorry,
7:b1sorry,
14:*0thirty-first,
14:b1thirty-first,
6:*0then,
6:b1then,
8:*0fourth,
8:b1fourth,
6:*0plan,
6:b1plan,
10:*0no-stops,
10:b1no-stops,
9:*0economy,
9:b1economy,
7:*0fifth,
10:b1thursday,
7:b1fifth,
15:*0twenty-eighth,
9:*0october,
9:b1october,
9:*0twelfth,
9:*0numbers,
9:*0connect,
9:b1connect,
8:*0cities,
5:*0may,
10:*0planning,
10:b1planning,
5:*0269,
5:b1269,
5:*0428,
5:b1428,
7:*0times,
7:b1times,
7:*0makes,
7:b1makes,
10:*0one-stop,
10:b1one-stop,
7:*0april,
7:b1april,
14:b1twenty-first,
11:*0beginning,
11:b1beginning,
14:*0twenty-fifth,
11:*0returning,
14:b1twenty-fifth,
11:b1returning,
7:*0sixth,
11:*07-o'clock,
11:b17-o'clock,
11:b1fifteenth,
9:*0sixteen,
9:b1sixteen,
11:*0seventeen,
11:b1seventeen,
8:*0twenty,
8:b1twenty,
11:b18-o'clock,
6:*0four,
6:b1four,
6:*01039,
6:b11039,
5:*0257,
7:*0we're,
7:b1great,
8:*0depart,
8:b1depart,
8:*0sounds,
7:*0great,
8:b1sounds,
12:*0twenty-one,
12:b1twenty-one,
7:*0one's,
5:*0too,
7:b1one's,
5:b1too,
15:*0twenty-second,
15:b1twenty-second,
11:*0nighttime,
11:*0departure,
11:b1nighttime,
11:b1departure,
6:b1show,
19:*0dallas-fort-worth,
29:*0san-francisco-international,
19:b1dallas-fort-worth,
10:*0arrivals,
10:b1arrivals,
6:*0most,
6:b1most,
13:*0connections,
13:b1connections,
7:*0tenth,
7:b1tenth,
10:*0eleventh,
6:*0june,
6:b1june,
16:*0business-class,
7:*0daily,
7:b1daily,
19:*0stapleton-airport,
10:*0tomorrow,
19:b1stapleton-airport,
10:b1tomorrow,
8:*0thrift,
8:b1thrift,
13:*0restriction,
6:*0ap80,
9:b1explain,
13:b1restriction,
6:*0code,
4:*0qx,
6:b1code,
13:*0represented,
13:b1represented,
10:*0database,
5:*07pm,
5:b17pm,
5:*0315,
4:*0aa,
5:*0459,
4:b1aa,
5:b1459,
5:*0m80,
8:b1cities,
9:*0besides,
9:b1besides,
9:*0provide,
9:b1provide,
5:*0jet,
5:b1jet,
6:*0only,
6:b1only,
7:*0today,
4:*0dl,
11:*0different,
9:*0classes,
11:b1different,
9:b1classes,
3:*0b,
6:*0same,
3:b1b,
6:b1same,
3:*0c,
9:*0booking,
9:b1booking,
4:*0yn,
15:*0no-later-than,
5:*02pm,
15:b1no-later-than,
5:b12pm,
8:b1what's,
6:*0ap57,
7:*0codes,
8:*0belong,
7:b1codes,
15:*0economy-class,
8:b1belong,
5:*0via,
5:b1via,
9:*0layover,
9:b1layover,
6:*0more,
6:b1more,
6:*0than,
16:b1business-class,
7:*0other,
6:b1than,
7:b1other,
15:b1economy-class,
16:*0late-afternoon,
16:b1late-afternoon,
5:b11pm,
11:*03-o'clock,
11:b13-o'clock,
9:b112-noon,
9:*0delta's,
9:b1delta's,
12:*0rental-car,
12:b1rental-car,
5:*0far,
5:b1far,
10:*0saturday,
10:b1saturday,
6:*0come,
6:b1come,
10:*0smallest,
9:*0seating,
10:*0capacity,
10:b1smallest,
9:b1seating,
16:*0most-expensive,
9:*0tickets,
16:b1most-expensive,
9:b1tickets,
11:*0atlanta's,
11:b1atlanta's,
6:*0noon,
6:b1noon,
13:*0originating,
13:b1originating,
7:*0210pm,
8:*0eighth,
7:*0ninth,
8:*0offers,
8:b1offers,
9:*0heading,
9:b1heading,
5:*0279,
5:b1279,
8:*0137338,
7:*0630am,
3:*03,
3:b13,
11:*01-o'clock,
8:*0toward,
8:b1toward,
17:*0oakland-airport,
6:*0each,
6:b1each,
3:*0k,
11:*0lufthansa,
11:b1lufthansa,
14:*0twenty-sixth,
14:b1twenty-sixth,
6:*0name,
6:b1name,
22:*0philadelphia-airport,
22:b1philadelphia-airport,
3:*01,
3:b11,
3:*04,
3:b14,
16:*0departure-time,
16:b1departure-time,
17:b1early-afternoon,
11:*0limousine,
7:*0total,
7:b1total,
10:b1capacity,
12:*0advertises,
8:*0having,
12:b1advertises,
8:b1having,
3:*0f,
15:*0logan-airport,
20:*0pittsburgh-airport,
20:b1pittsburgh-airport,
6:*0town,
7:*0kinds,
7:b1kinds,
41:*0dallas-fort-worth-international-airport,
11:b1limousine,
41:b1dallas-fort-worth-international-airport,
7:*0eight,
8:*0within,
8:b1within,
22:*0schedule-for-flights,
22:b1schedule-for-flights,
4:*0s-,
11:*0designate,
4:b1s-,
11:b1designate,
7:*0takes,
7:*0least,
7:b1takes,
8:*0amount,
7:b1least,
8:b1amount,
8:*0planes,
8:b1planes,
9:*0usa-air,
9:b1usa-air,
8:*0prices,
8:b1prices,
8:*0what's,
9:*0various,
11:*0airplanes,
9:b1various,
11:b1airplanes,
6:*0uses,
5:*0who,
5:b1who,
5:b19am,
17:*0time-of-arrival,
17:b1time-of-arrival,
17:*0departure-times,
17:b1departure-times,
5:*08pm,
19:*0baltimore-airport,
6:*0show,
11:*0including,
11:b1including,
7:*0offer,
7:b1offer,
6:b1dc10,
8:*0eleven,
8:b1eleven,
9:*0any-day,
9:b1any-day,
5:*0352,
5:b1352,
7:*0price,
7:b1price,
11:*0operating,
9:*0sundays,
11:b1operating,
10:*0services,
10:b1services,
14:*0reservations,
14:b1reservations,
6:*01765,
6:b11765,
17:*0flight-schedule,
17:b1flight-schedule,
5:*0f28,
5:b1f28,
20:*0air-taxi-operation,
36:*0philadelphia-international-airport,
20:b1air-taxi-operation,
4:*0pm,
4:b1pm,
9:*0serving,
9:b1serving,
11:b1breakfast,
8:b1served,
10:b1anything,
5:*0say,
10:*0mealtime,
5:b1say,
7:*0thank,
5:*0run,
5:b1run,
7:*0seats,
7:b1seats,
9:*0earlier,
6:*01017,
9:b1earlier,
6:b11017,
5:*0630,
14:*05-o'clock-pm,
14:*04-o'clock-pm,
7:*0later,
7:b1later,
14:*06-o'clock-pm,
5:b16pm,
10:*0serviced,
10:b1serviced,
5:*0dfw,
5:b1dfw,
8:*01133am,
6:*043pm,
8:b11133am,
10:*0provided,
10:b1provided,
10:*0provides,
10:b1provides,
6:*0both,
6:b1both,
7:*0meals,
7:b1meals,
10:*0airplane,
10:b1airplane,
11:*06-o'clock,
8:*0sunday,
11:b16-o'clock,
8:b1sunday,
6:*0mean,
3:b18,
14:b1twenty-ninth,
7:b1third,
12:*0american's,
12:b1american's,
5:*0bwi,
5:b1bwi,
7:*0still,
7:b1still,
7:*0cover,
7:b1cover,
6:*0less,
13:*0200-dollars,
6:b1less,
13:b1200-dollars,
5:*0oak,
5:*0atl,
5:b1oak,
9:*0qx-fare,
9:b1qx-fare,
14:*0lowest-price,
14:b1lowest-price,
4:*082,
4:b182,
5:*0139,
9:*0q-fares,
9:b1q-fares,
13:*0124-dollars,
13:b1124-dollars,
4:*0ls,
7:*0stand,
4:b1ls,
7:b1stand,
7:*0level,
9:*0carries,
9:b1carries,
12:*0passengers,
6:*01505,
6:b11505,
7:*0serve,
7:*0lunch,
7:b1serve,
11:*0itinerary,
11:b1itinerary,
12:b1connecting,
9:*0departs,
9:b1departs,
7:*0local,
7:b1local,
8:*0either,
8:b1either,
27:*0dallas-fort-worth-airport,
27:b1dallas-fort-worth-airport,
6:*01940,
12:b1passengers,
8:*0boeing,
5:*0737,
6:*0hold,
8:b1boeing,
5:b1737,
3:*06,
3:b16,
9:*0qualify,
9:b1qualify,
10:b1describe,
5:*0j31,
5:b1j31,
5:*0733,
5:*072s,
5:*0734,
5:*0100,
13:*0415-dollars,
5:*0705,
5:b1705,
4:*071,
4:b171,
10:*0directly,
10:b1directly,
11:*0scheduled,
10:*0december,
11:b1scheduled,
10:b1december,
11:*0turboprop,
11:b1turboprop,
9:*0doesn't,
7:*0catch,
7:b1catch,
20:*0lufthansa-airlines,
20:b1lufthansa-airlines,
7:*0logan,
7:b1logan,
11:*02-o'clock,
11:b12-o'clock,
10:*0distance,
10:b1distance,
10:*0tuesdays,
11:*0companies,
11:b1companies,
8:*0people,
8:b1people,
9:*0carried,
9:b1carried,
10:*0shortest,
10:b1shortest,
9:*0january,
9:b1january,
7:*0cheap,
7:b1cheap,
6:*0back,
9:*0reverse,
9:b1reverse,
10:*0airports,
10:b1airports,
12:*0everywhere,
12:b1everywhere,
10:*0day-time,
10:b1day-time,
6:*010pm,
6:b110pm,
17:*0midway-airlines,
17:b1midway-airlines,
8:*0twelve,
12:*0capacities,
12:b1capacities,
9:*0largest,
9:b1largest,
10:*0greatest,
10:b1greatest,
5:*0767,
8:*0dinner,
7:*0snack,
5:*03pm,
5:b13pm,
4:*012,
3:*02,
4:b112,
3:b12,
7:b1sixth,
12:*0car-rental,
12:b1car-rental,
6:*0limo,
6:b1limo,
8:*0coming,
7:b1ninth,
8:b1coming,
6:b1back,
5:*0fit,
5:b1fit,
5:b172s,
5:*0d9s,
5:*073s,
6:*0once,
6:b1once,
11:*0expensive,
11:b1expensive,
7:b1eight,
5:*0sfo,
9:*0charges,
9:b1charges,
4:*0no,
4:b1no,
5:*04pm,
4:*0so,
4:b1so,
6:*0here,
6:*011am,
6:b1here,
14:*0abbreviation,
4:*0ua,
14:b1abbreviation,
4:b1ua,
4:*0co,
4:b1co,
4:b1dl,
9:*0weekday,
3:*0y,
3:b1y,
12:*01300-hours,
12:*01600-hours,
5:*07am,
12:*01700-hours,
12:b11700-hours,
7:*0under,
13:*0500-dollars,
7:b1under,
13:b1500-dollars,
10:*0airfares,
10:b1airfares,
9:*0options,
9:b1options,
8:*0philly,
9:*0arrival,
9:b1arrival,
11:b11-o'clock,
11:*0regarding,
23:*0san-francisco-airport,
11:b1regarding,
15:b1twenty-eighth,
9:b1display,
8:*0second,
7:*0seven,
6:*012pm,
6:b112pm,
10:*0economic,
10:b1economic,
4:*098,
4:*0us,
5:*0345,
4:b1us,
5:b1345,
6:*0rent,
5:*0car,
6:b1rent,
33:*0stapleton-international-airport,
5:b1car,
33:b1stapleton-international-airport,
6:*01083,
6:b11083,
11:*0saturdays,
5:*0201,
5:b1201,
5:*0343,
5:b1343,
5:*0323,
5:*0229,
5:b1323,
5:b1229,
6:b1week,
9:*0meaning,
9:b1meaning,
4:*0qw,
4:b1qx,
9:b1weekday,
7:*0costs,
7:b1costs,
24:*0the-day-after-tomorrow,
11:*0transport,
11:b1transport,
5:*0210,
13:*0car-rentals,
13:b1car-rentals,
11:b1saturdays,
5:*0d-s,
5:b1d-s,
5:*0106,
5:b1106,
9:*0grounds,
9:b1grounds,
7:*0again,
5:*0838,
5:b1838,
13:*0reservation,
13:b1reservation,
12:b1requesting,
12:*0requesting,
10:*0starting,
10:b1starting,
12:*0afterwards,
5:*0402,
5:b1402,
5:*0270,
5:b1270,
5:*0297,
5:b1297,
5:*0281,
5:b1281,
12:*0wednesdays,
10:b1tuesdays,
11:*0thursdays,
12:*0fourteenth,
7:*0ap-80,
7:b1ap-80,
7:*0ap-57,
5:b14pm,
5:b18pm,
14:*02-o'clock-pm,
14:*09-o'clock-am,
14:b19-o'clock-am,
14:b15-o'clock-pm,
24:b1the-day-after-tomorrow,
14:*03-o'clock-pm,
14:b13-o'clock-pm,
14:*08-o'clock-pm,
14:*08-o'clock-am,
14:b18-o'clock-am,
13:*0us-airlines,
13:b1us-airlines,
15:*011-o'clock-am,
9:*0explain,
3:*0m,
3:b1m,
6:*0ap68,
12:*0continuing,
12:b1continuing,
12:*0limousines,
6:*0taxi,
12:b1limousines,
6:b1taxi,
6:*01209,
7:*0names,
7:b1names,
13:*0rental-cars,
4:b1qw,
6:*0sd-d,
8:*0listed,
6:*01055,
8:b1listed,
5:*0405,
6:b11055,
4:*0ea,
4:b1ea,
6:*0look,
6:b1look,
7:b1today,
9:b1what're,
8:b1second,
6:b111am,
12:*0eighteenth,
8:*01045am,
5:*0430,
7:*0530pm,
5:b1430,
8:*01145am,
7:*0838am,
7:b1838am,
8:b1thanks,
6:*0near,
6:b1near,
5:b15pm,
7:*0close,
7:b1close,
6:*01110,
6:b11110,
23:b1san-francisco-airport,
9:*0fifteen,
7:b1while,
8:*0wanted,
8:b1wanted,
12:*0afternoons,
9:*0maximum,
9:b1maximum,
7:*0spend,
7:b1spend,
9:*0lastest,
9:b1lastest,
9:*0longest,
9:b1longest,
5:*0but,
5:b1but,
6:*01059,
6:*0over,
6:b1over,
4:*021,
5:*0852,
5:b1852,
5:*0928,
5:b1928,
7:*0start,
7:b1start,
10:*0bay-area,
7:*0order,
6:*0it's,
6:b1it's,
5:*0445,
7:*0515pm,
5:b1445,
20:*0washington-airport,
20:b1washington-airport,
25:*0maximum-number-of-stops,
8:b1locate,
11:*0hartfield,
9:*0travels,
9:b1travels,
6:*0late,
6:b1late,
6:*0zone,
6:b1zone,
13:*0inexpensive,
13:b1inexpensive,
11:*0currently,
11:b1currently,
5:*0530,
6:*0must,
6:b1must,
10:*0midnight,
10:b1midnight,
6:*0land,
6:b1land,
7:*0place,
17:b1oakland-airport,
7:*0730pm,
18:*0transcontinental,
18:b1transcontinental,
8:*0across,
11:*0continent,
8:b1across,
11:b1continent,
7:*0430pm,
7:*0630pm,
7:b1430pm,
6:*0gets,
6:b1gets,
7:*0month,
7:b1month,
10:*0connects,
10:b1connects,
14:*07-o'clock-pm,
10:*0vicinity,
10:b1vicinity,
8:*0begins,
8:b1begins,
7:*0lands,
7:b1lands,
7:*0don't,
7:b1don't,
11:*0stopovers,
11:b1stopovers,
16:*0city-in-dallas,
5:*0757,
5:b1757,
6:*01992,
6:b11992,
15:*010-o'clock-pm,
14:b18-o'clock-pm,
8:b1define,
4:*0fn,
7:*0ap-55,
11:*0sixteenth,
5:b1atl,
9:*0listing,
9:b1listing,
6:*02100,
11:*04-o'clock,
11:b14-o'clock,
15:*0twenty-fourth,
5:*0746,
5:b1746,
4:b1hi,
3:*0q,
11:*0overnight,
11:b1overnight,
9:*0without,
9:b1without,
14:b1pennsylvania,
12:b1wednesdays,
6:*01291,
6:b11291,
5:*0271,
5:b1271,
6:*0sort,
6:b1sort,
14:b16-o'clock-pm,
14:*07-o'clock-am,
14:b17-o'clock-am,
14:*05-o'clock-am,
14:b15-o'clock-am,
5:b17am,
14:*01500-dollars,
14:b11500-dollars,
14:*01100-dollars,
4:*0up,
4:b1up,
9:*0mondays,
15:*0only-weekdays,
15:b1only-weekdays,
4:*0ap,
4:b1ap,
6:*0area,
8:*0proper,
7:b1ap-57,
3:b1f,
4:b1fn,
13:b1rental-cars,
10:b1eleventh,
9:b1twelfth,
8:*0priced,
8:b1priced,
5:*0212,
5:b1212,
10:*0anywhere,
6:*01850,
10:b1anywhere,
6:b11850,
6:*01700,
6:b11700,
5:*0217,
5:b1217,
13:*0300-dollars,
13:*0400-dollars,
13:b1400-dollars,
6:*03357,
6:b13357,
5:b1sfo,
8:*0summer,
5:*0non,
5:b1non,
10:*0mornings,
4:b1yn,
11:b1sixteenth,
14:*01000-dollars,
6:*00900,
6:*03724,
6:b13724,
5:*0771,
5:b1771,
18:*0flight-schedules,
18:b1flight-schedules,
9:*0include,
9:b1include,
6:b1ap57,
14:b11000-dollars,
10:b1mornings,
9:*0whether,
9:b1whether,
9:*0offered,
9:b1offered,
13:*0round-trips,
13:b1round-trips,
9:*0toronto,
9:b1toronto,
4:*0ac,
4:b1ac,
10:*0new-york,
10:b1new-york,
15:*0new-york-city,
11:*0milwaukee,
9:*0orlando,
11:b1milwaukee,
9:b1orlando,
9:*0ontario,
8:*0tacoma,
9:b1ontario,
8:b1tacoma,
13:*0minneapolis,
11:*0san-diego,
13:b1minneapolis,
11:b1san-diego,
16:*0salt-lake-city,
12:*0cincinnati,
16:b1salt-lake-city,
12:b1cincinnati,
7:*0miami,
7:b1miami,
20:*0southwest-airlines,
20:b1southwest-airlines,
9:*0phoenix,
9:b1phoenix,
12:*0la-guardia,
12:b1la-guardia,
8:*0dulles,
8:b1dulles,
13:*0los-angeles,
11:*0las-vegas,
7:*0equal,
13:*0466-dollars,
7:b1equal,
13:b1466-dollars,
13:*0932-dollars,
7:*0along,
7:b1along,
14:*0indianapolis,
9:*0memphis,
14:b1indianapolis,
9:*0burbank,
9:b1burbank,
16:*0st.-petersburg,
16:b1st.-petersburg,
15:*0abbreviations,
10:*0san-jose,
10:b1san-jose,
24:*0salt-lake-city-airport,
24:b1salt-lake-city-airport,
7:*0tampa,
11:*0st.-louis,
7:b1tampa,
11:b1st.-louis,
9:*0houston,
9:b1houston,
9:*0symbols,
9:b1symbols,
4:*0hp,
17:*0orlando-airport,
17:b1orlando-airport,
23:*0orlando-international,
23:b1orlando-international,
5:*0417,
5:b1417,
7:*0718am,
13:b1los-angeles,
25:*0minimum-connection-time,
26:*0houston-intercontinental,
25:b1minimum-connection-time,
6:*04400,
6:b14400,
6:*01026,
8:*0o'hare,
8:b1o'hare,
7:b1718am,
9:*0chicago,
9:b1chicago,
10:*0montreal,
10:b1montreal,
13:*0150-dollars,
10:*0columbus,
10:b1columbus,
10:*0st.-paul,
8:*0newark,
11:*0cleveland,
8:b1newark,
11:b1cleveland,
12:*0new-jersey,
12:b1new-jersey,
5:*0jfk,
5:b1jfk,
11:*0nashville,
11:b1nashville,
10:*0weekdays,
20:*0westchester-county,
20:b1westchester-county,
11:b1las-vegas,
4:*0ff,
11:*0tower-air,
11:b1tower-air,
12:*0long-beach,
12:b1long-beach,
6:*0ohio,
4:*0sa,
9:*0seattle,
9:b1seattle,
6:*01993,
4:*0nw,
7:b1bring,
5:*0mco,
9:*0calling,
9:b1calling,
4:*0la,
5:b1mco,
9:b1memphis,
6:*0i've,
5:*0got,
10:*0somebody,
6:b1i've,
6:*0else,
5:b1got,
10:b1somebody,
7:*0wants,
6:b1else,
7:b1wants,
11:*0charlotte,
11:b1charlotte,
13:*0kansas-city,
3:b1q,
12:*0difference,
12:b1difference,
11:*0tennessee,
11:b1tennessee,
16:*0north-carolina,
4:*0qo,
4:b1qo,
4:b1ff,
5:*0ewr,
5:b1ewr,
5:*0bur,
7:b1train,
8:*0laying,
8:b1laying,
12:*0air-canada,
12:b1air-canada,
11:*0minnesota,
8:*0stands,
8:b1stands,
13:b1kansas-city,
9:*0florida,
9:b1florida,
9:*0landing,
9:b1landing,
6:*0soon,
6:b1soon,
5:*0ten,
5:b1ten,
17:*0during-the-week,
18:*0during-week-days,
19:*0san-diego-airport,
19:b1san-diego-airport,
9:b1instead,
32:*0as-soon-thereafter-as-possible,
4:b1nw,
17:*0phoenix-airport,
17:b1phoenix-airport,
13:*0meal-code-s,
6:b1uses,
5:*0lax,
5:b1lax,
9:b1numbers,
6:b1ohio,
11:b1minnesota,
15:b1new-york-city,
8:*0canada,
8:b1canada,
10:*0listings,
10:b1listings,
10:*0missouri,
10:b1missouri,
6:*0utah,
6:b1utah,
6:*01222,
6:b11222,
12:*0preferably,
12:b1preferably,
8:*0497766,
8:b1497766,
7:*0810pm,
7:b1810pm,
16:b1north-carolina,
6:*0runs,
6:b1runs,
5:*0505,
5:b1505,
8:*0that's,
8:b1dinner,
8:b1that's,
5:*0163,
12:*0thirteenth,
8:b1eighth,
10:*0includes,
10:b1includes,
17:*0alaska-airlines,
17:b1alaska-airlines,
8:*0nevada,
8:b1nevada,
9:*0detroit,
10:*0michigan,
9:b1detroit,
10:b1michigan,
10:*0actually,
10:b1actually,
13:*0westchester,
13:b1westchester,
7:*0thing,
7:b1thing,
5:*0130,
5:b1130,
19:*0milwaukee-airport,
19:b1milwaukee-airport,
19:*0the-following-day,
12:*0twenty-six,
8:*0prefer,
8:b1prefer,
8:*0quebec,
8:b1quebec,
9:*0indiana,
9:b1indiana,
10:*0reaching,
10:b1reaching,
9:*0reaches,
9:b1reaches,
3:*07,
3:b17,
11:*0following,
11:b1following,
7:*0route,
13:b1seventeenth,
12:b1fourteenth,
12:b1thirteenth,
6:*0date,
6:b1date,
11:*0hopefully,
11:b1hopefully,
6:*0home,
20:*0northwest-airlines,
20:b1northwest-airlines,
6:*0days,
6:b1days,
5:*0415,
5:b1415,
9:*0arizona,
9:b1arizona,
10:b1st.-paul,
11:*0northwest,
11:b1northwest,
23:*0ontario-international,
23:b1ontario-international,
9:*0friends,
9:b1friends,
17:*0toronto-airport,
20:*0la-guardia-airport,
20:b1la-guardia-airport,
4:b1la,
8:*0single,
8:b1single,
12:b1eighteenth,
9:*0red-eye,
9:b1red-eye,
12:*0twenty-two,
14:*0america-west,
11:*0southwest,
14:b1america-west,
11:b1southwest,
12:b1twenty-two,
5:*0six,
5:b1six,
11:*0salt-lake,
9:*0tonight,
9:b1tonight,
7:*0visit,
7:b1visit,
6:*0them,
7:*0lives,
6:b1them,
7:b1lives,
5:b1530,
24:*0st.-petersburg-airport,
5:*0539,
21:*0trans-world-airline,
21:b1trans-world-airline,
8:*01030am,
8:*01130am,
8:b11030am,
8:*01115am,
8:*01245pm,
8:b11115am,
3:*09,
3:b19,
18:*0at-the-same-time,
12:*0new-york's,
12:b1new-york's,
31:*0toronto-international-airport,
31:b1toronto-international-airport,
35:*0los-angeles-international-airport,
35:b1los-angeles-international-airport,
37:*0san-francisco-international-airport,
37:b1san-francisco-international-airport,
9:*0closest,
9:b1closest,
4:*019,
4:b119,
5:*0845,
5:b1845,
7:*0230pm,
7:b1lunch,
8:*0supper,
8:b1supper,
5:*0823,
5:b1823,
6:*01024,
6:b11024,
6:*01205,
6:b11205,
5:*0305,
5:b1305,
7:*0723pm,
8:*01020pm,
8:*0nights,
9:*0fridays,
8:*01230pm,
7:*0934pm,
6:*02134,
8:*0taking,
8:b1taking,
5:*0311,
14:*09-o'clock-pm,
14:b19-o'clock-pm,
10:*0nonstops,
10:b1nonstops,
7:*0vegas,
7:b1vegas,
3:*0h,
12:*01200-hours,
10:*0sunday's,
10:b1sunday's,
13:*0wednesday's,
13:b1wednesday's,
10:b1friday's,
17:b112-o'clock-noon,
5:*0mia,
5:*0bna,
5:*0ord,
5:b1ord,
6:*011pm,
10:*0february,
10:b1february,
21:*0continental-airline,
7:*0march,
7:b1march,
12:*0love-field,
19:*0northwest-airline,
19:b1northwest-airline,
5:*0iah,
5:b1iah,
5:*0hou,
5:b1hou,
12:b1love-field,
33:*0canadian-airlines-international,
4:*0cp,
4:b1cp,
19:*0canadian-airlines,
19:b1canadian-airlines,
9:*0choices,
9:b1choices,
12:*0dinnertime,
12:b1dinnertime,
6:*01288,
5:*0d10,
10:*0takeoffs,
10:*0landings,
10:b1takeoffs,
32:*0general-mitchell-international,
10:b1landings,
40:*0general-mitchell-international-airport,
5:*0off,
5:b1off,
9:*0takeoff,
9:b1takeoff,
26:*0general-mitchell-airport,
32:b1general-mitchell-international,
9:*0located,
18:*0general-mitchell,
12:*0lunch-time,
11:*0nationair,
11:b1nationair,
5:*0yyz,
24:*0lester-pearson-airport,
33:b1canadian-airlines-international,
9:*0midwest,
9:*0express,
9:b1midwest,
9:b1express,
7:*0720am,
9:*0highest,
9:b1highest,
0=0x1.f8fc82a22464bp+1
81=0x1.e46b0088abc8cp+1
1377=0x1.d22b5254d9ad6p-2
1458=0x1.0a23806929063p+0
2349=0x1.d5473b93104ffp-1
3321=0x1.12685c5639d46p-6
13203=0x1.1b2e8c60361a1p+1
13205=0x1.076e6a70455ecp+2
13206=0x1.72b447d98310ep+0
13207=0x1.377f0b41183aep-6
13211=0x1.d16a20e9a26a4p-3
13217=0x1.42972077c96a3p+1
13218=0x1.f2256b5395d41p-2
13225=0x1.bf8018d27a7eep+0
13230=0x1.ea3b0accaedcap-1
13234=0x1.7af6b7dbf945ep-1
13235=0x1.46216c75a277cp+0
13236=-0x1.0dd214afac649p-3
13245=0x1.9acad33c3332p-1
13247=0x1.00d75e0238c9p+0
13252=0x1.e4fb2b230fe3ep-1
13263=0x1.177820f9b31e5p+1
13265=0x1.50a21cb375868p+0
13279=0x1.f58c36605830fp-1
13284=0x1.1d95e5be9bb8ep+1
13286=0x1.881ba17c4921fp+0
13287=0x1.491b1c6b05aa7p+1
13288=0x1.0bd7429c44b48p+0
13289=0x1.10aabaeb7e9cep+0
13292=0x1.f2635c8631803p-2
13299=0x1.2f5a7ba262112p+0
13306=0x1.394df2c806b48p+1
13311=0x1.1f15e3086339bp+0
13316=0x1.a89f2a8f68d55p+0
13317=0x1.12bd2f925f49fp-2
13326=0x1.cff0654708fbdp-1
13333=0x1.3af3f48142d57p+0
13344=0x1.ce26a393aba38p+0
13346=0x1.b90f4cc6f0842p+0
13446=0x1.b1954fbc2cefcp+0
13448=-0x1.6991bfb9cf92dp+0
13460=0x1.092bec1055cf9p+2
13479=-0x1.02b4e3f95582ep-5
13608=0x1.b1695e2b0bd4p-2
13610=-0x1.81dda6c08fd0dp-3
13664=0x1.c4f2c0fcacf0fp-3
13772=0x1.d2dae485cf85ep-4
13932=0x1.0bfade83a3cf5p-1
13934=0x1.5743305876d12p+0
14624=0x1.0ae38a217224bp+0
14663=0x1.10a55df996de4p+0
14906=0x1.71a673331669p+0
15635=0x1.586141c043219p+0
16119=0x1.c2464e705e6a4p+0
16607=0x1.95606ca3746e9p-2
17842=0x1.121a219a8ca16p+1
17880=0x1.1eda1e54f946cp+1
19435=0x1.058cc6b81ed94p+0
19845=0x1.4dfcefdb263e1p+2
26406=0x1.0cbfc9bcd519dp-1
26410=0x1.c7a91ef3bb36p-6
26487=0x1.3008556c9a11fp-4
26491=0x1.3be4b88230575p-5
27054=0x1.366d728478bcfp-1
33048=0x1.5638bdb89ef2cp+2
33067=0x1.472c0985698fp+0
39609=0x1.04ff9b6a26015p+2
39614=0x1.6c6c34ef18e3p-1
39622=0x1.3c0a91985377ep-5
39625=-0x1.4a64e5d38cf5ep-3
39627=0x1.263bef0d00621p-1
39630=0x1.e52734be531aap+0
39636=0x1.5dcddbed68197p+0
39642=0x1.27dab8f87c7cfp-1
39690=0x1.fc38739011e6dp-2
39694=0x1.3ad95eb6d7b66p-2
39695=0x1.07632390188cfp+0
39703=0x1.0853b61ed633cp-3
39706=-0x1.197731f81ee66p-4
39708=0x1.77cc7154c87cdp-1
39717=0x1.2a50a0ff770c7p-1
39723=0x1.9aa6e06aecd95p-2
39743=0x1.895b3c619db46p-10
40095=0x1.27dbcda98988ap-6
40419=0x1.3c53979041631p+0
40581=0x1.d2cb7fbb27d65p-1
40662=-0x1.47f97743630fbp-9
40905=0x1.949f0010457d5p-1
40986=0x1.c9f34d0a3aaa5p-1
41067=0x1.026d99ce1fff8p-1
41123=0x1.7d83d427f6319p-2
41229=-0x1.3468b99730c1p-3
41391=0x1.50a4eabbe5b21p+0
41472=0x1.ae8d120aac828p+0
41796=0x1.2b3a4c67074a9p-3
41877=0x1.02bf5e7f785d8p+0
42120=-0x1.80e0028b74b3ep-3
42282=0x1.cb9ce65f24553p-2
42363=0x1.61b9c08eb23aap-1
42687=0x1.6e22f70dd3afcp-1
42930=0x1.df4ce425e15bdp+0
43092=0x1.c79c5da59f585p-4
43821=0x1.41d28555f1782p-3
44247=0x1.e8bcc94bad742p-2
44469=0x1.16fd8f4bf87d5p-3
44793=0x1.1c0969dfe16a4p+0
44874=-0x1.35356f9752a0dp+0
44895=0x1.0b096b26f9193p+0
45036=0x1.2f3f24cb0265ap+0
46251=0x1.508998cf4e7b6p+2
46253=0x1.a8d2b33db6adcp-1
46255=0x1.2eff6747f8de1p+3
46266=0x1.076d1402174cap-1
46267=0x1.19ef270eae444p+1
46277=0x1.da5b98bf05d1dp+1
46278=0x1.85ecb6affdcfdp+1
46289=0x1.819b76b7bab4dp+0
46296=0x1.2bc94b1fe760dp+1
46299=0x1.439ff79255356p+2
46312=0x1.544bebcdafe86p+2
46315=0x1.2349d8ad24d1ep+2
46320=0x1.d9651703d6c84p-1
52812=0x1.0809d54098ae8p-1
52893=0x1.3364f2fc835d2p+0
59454=0x1.87e036c6d948cp+2
66015=0x1.24f113f4bfa76p+1
66016=0x1.6fbca8f76908ap-2
66017=0x1.a5225f7f6ccc8p-5
66021=0x1.7220694b911f7p+0
66023=0x1.04ba116285edep+1
66026=0x1.0a01cbb03724p+1
66027=0x1.100e94f813b45p+1
66028=0x1.865119266f9p-2
66034=0x1.fb0724d4ae94dp-1
66038=0x1.279ca72479c8bp+0
66058=0x1.0628c2d7a915cp+0
66096=0x1.fbc2c11fa5f7ap-1
66097=0x1.1ac7a8aae980cp+1
66098=0x1.07efcb8cd2e08p-1
66102=0x1.2894e16328eccp+0
66104=0x1.ba4315a81c202p+0
66107=0x1.3c2ddf95b29e5p+1
66108=0x1.d9609776061efp+0
66109=0x1.802c438bc858ap+0
66115=0x1.5664b72c741b2p+0
66116=0x1.3bfa6cede5da4p+0
66119=0x1.046f7f49f63efp+0
66129=-0x1.f9e8044419f78p-7
66139=0x1.f512bbfdea2fp-3
66157=0x1.7f06cf3db7196p-3
66196=0x1.a7cadc5c3df45p-1
66420=-0x1.8a4813c81a782p-5
66582=-0x1.3828e46cb1af7p-1
66593=0x1.30af555af788ep+0
66594=0x1.6bd4df5622e01p+1
66601=0x1.17713b2b9356ep-2
66610=0x1.47ecf56bea77dp-1
66756=0x1.160a2c6271029p+0
66825=0x1.04059053db537p+0
66987=0x1.ae52c25c220ebp-3
67074=0x1.74b008a6c4d8bp+1
67076=0x1.840093de08c9bp+1
67091=0x1.d911964f3aa7dp+1
67096=0x1.f29677265bb66p-1
67101=0x1.fb2749169e27bp-1
67111=0x1.b85b655911df1p+1
68283=0x1.483420d245164p+0
68306=0x1.2886560f93ad3p-2
68372=0x1.7b051d253b7bep+0
68409=0x1.1bd3a814cff4ap-6
70073=0x1.5b210bb7e2af7p-2
70169=0x1.83408d1d9d26p+0
72657=0x1.3853c340abee7p+2
72658=0x1.825c9955dd69bp+2
72659=0x1.6e0191404b824p-1
72661=0x1.13cdd3e0888a1p+1
72662=0x1.1b987793d2476p+1
72663=0x1.8e250c381e748p+2
72664=0x1.d2ce6c38216f9p+1
72665=0x1.242470b131fc4p+1
72666=0x1.3be3563be03e4p+2
72668=0x1.33a7707f0417cp+1
72669=0x1.64a3c0e4b428dp+2
72673=0x1.767a0b8428168p+0
72674=0x1.564a33ce1da2cp+2
72676=0x1.634f2dec1afa4p+0
72677=0x1.2bcd216abc92dp+1
72678=0x1.30a582721b933p+1
72679=0x1.d2711c81abbfcp+1
72680=0x1.d8fc2aa8d833p+0
72682=0x1.176041c5443p+1
72684=0x1.755eb7969610dp+0
72685=0x1.468a401b6c67bp+1
72687=0x1.686d29f4fb837p+2
72688=0x1.76ee2c73de6b4p+1
72689=0x1.f772823bb2101p+1
72690=0x1.3dd81711305d4p+0
72692=0x1.f9df2d6daded9p+1
72699=0x1.09a6d229a4dabp+1
72700=0x1.acec25529a3b9p-3
72702=0x1.c252d5784aa32p+0
72705=0x1.1c44ba243291cp+0
72706=0x1.3d33ec9819898p+2
72707=0x1.d4a3608bac4f5p-1
72709=0x1.7415e70a96483p+0
72710=0x1.2dfe0187ab90cp+1
72728=0x1.2686ddd07dc0ap+1
72736=0x1.4431ec4be2822p+1
72737=0x1.9faecb243b908p+0
72819=-0x1.0bb24d7a7335dp-1
72833=-0x1.efbb09d6f2445p-3
72981=-0x1.dc2b1c6b2343bp-4
72986=-0x1.39d2355a55c45p-2
73007=-0x1.d314c22be1dd2p-8
73062=-0x1.754c4ac74e002p-2
73068=-0x1.2aa9555462257p-3
73305=-0x1.28398871d3f69p+0
73953=-0x1.585701cd7ab55p-2
74277=-0x1.798cfd95446a8p-7
74925=-0x1.eabc72a270d9p-8
79218=0x1.40f6791c952acp+1
79219=0x1.097dcfcc5de09p-2
79220=-0x1.cfcb029be1d74p+0
79221=-0x1.7f4895e46aeap-7
79222=0x1.aeb262950514cp-2
79223=0x1.ce38ca0c5c0f9p-1
79224=0x1.99ddc98c3cc1dp-1
79226=0x1.b50bf33555d5dp-2
79227=0x1.0c5d83de35635p+0
79229=0x1.be4f6ecd1d2d9p-1
79233=-0x1.782b566b8eb1dp+0
79234=0x1.5e68d4d34f5a9p-5
79237=-0x1.b948425fa9f9cp-3
79238=0x1.be5220d4d62f7p-3
79239=0x1.2a0c93e93e591p-1
79241=0x1.5e018538f36c3p-1
79243=0x1.c3203e4b0a6ep-4
79246=0x1.49a19ad22c255p+0
79247=0x1.31b3703813ff4p+1
79248=0x1.f3f3088abdb58p-2
79251=-0x1.1584eb33908dcp-6
79252=0x1.1f5c21b5ecd2bp-1
79255=0x1.faf2fb2d76462p-1
79256=0x1.8928de16a7cdfp+0
79258=0x1.c68e9b0aceadcp-4
79263=0x1.4e4e42c0dbe2ep-1
79266=0x1.fdbfc964f8b5ap-1
79269=0x1.f5c77cc0273f9p-1
79271=0x1.c66f730c25ed5p-3
79273=0x1.a2dd827875b99p-2
79299=0x1.95aa7dd644e6bp+0
79300=0x1.ca3611d0b09a5p-3
79301=-0x1.a731707792b32p-5
79303=0x1.60e8504ec3886p-1
79304=0x1.3219f983b5c52p-1
79305=0x1.ce41e0b462abep-2
79307=0x1.59260b23987f4p+1
79308=0x1.a8e4e73ffca51p+0
79310=0x1.8c3cf15995c2ep-8
79312=0x1.28d403c7a85cep+0
79314=-0x1.090087b21be39p-1
79315=0x1.4a667f3ed48eap-1
79319=0x1.4346fd9b046cbp+1
79321=0x1.48065d5ab2376p-5
79322=0x1.6734c57e2a4a1p+1
79324=0x1.265f33115bdabp+1
79327=0x1.6892ccabec4d6p-1
79328=0x1.68d3fc80a774fp+0
79329=-0x1.0048f67d4f007p-4
79330=0x1.00bcc3567e21dp-1
79332=0x1.80416a6ae3353p+0
79336=0x1.c36ec76608212p+0
79337=0x1.7af07fec03dbp+1
79344=0x1.94ed5b10b5245p+0
79347=0x1.f6f1d7a3d9fcbp+0
79350=0x1.e3de724c5cfe9p+0
79352=0x1.521edb80628c4p+0
79354=0x1.46777a3fa9fb6p+0
79380=0x1.d07d1f669c2b4p-1
79643=-0x1.24267a1ef02f4p+0
79687=0x1.01b391a27cc1cp-9
79704=0x1.55674b8747a81p-1
79710=0x1.103877903e9c2p+0
79785=0x1.14051900fea0fp-1
79866=0x1.48c20327531f9p-3
79871=0x1.42748c32e7d28p+1
79947=0x1.471d5d9c69be9p-1
79967=0x1.1e177784f3f75p+0
79975=0x1.765d48a46d9eep-1
79976=0x1.610c7fe89afdcp+1
79998=0x1.3fbfa6ab4cf0cp-1
80120=0x1.1e66b52b7d0d9p+1
80190=0x1.f95a0f198b94dp+0
80271=0x1.a5c0dfb2e021p-1
80280=0x1.87aa2a97486ap+0
80352=0x1.45d5db55f2a0bp-2
80381=0x1.363da80c0a1b2p+2
80676=0x1.a6fbbadd12722p-2
80710=0x1.dbe6b741fae3dp+1
80757=-0x1.93a7280b9fe04p-5
80774=0x1.2b0054583487fp+1
80785=0x1.0d38aab7083d1p+0
80838=0x1.e8a92cbc9ecf7p+0
80919=0x1.3752b76ee46bep+0
81162=0x1.6105e2291797ep-2
81567=0x1.2fca71055be28p-1
81587=0x1.233eeb98c7446p-5
81648=0x1.307eca35b8b12p+0
81972=0x1.523583e99b337p+0
82498=0x1.9d1a28c34291dp-1
82782=0x1.bff0393c68817p-1
83349=0x1.6dc979f8884d8p-6
83430=-0x1.0151d3f94f724p-6
83451=0x1.2300db66c7fap+1
83784=0x1.9e63e4691fdf1p+1
83880=0x1.58fd6dac6a711p+0
85860=-0x1.8586c0a2e1556p-1
85941=0x1.c5e28d2825768p+2
85960=0x1.4c9d140185518p+0
85961=0x1.b9346299f2867p+2
85964=0x1.15c8c3b315a8dp+1
85969=0x1.dfb1496a48648p+1
92421=0x1.714bc71835507p-1
92425=0x1.69fd1c84f4b78p-10
92477=0x1.5a949c6fa1695p+0
92483=0x1.52dfc067a1b1bp+0
92502=0x1.beb0d09a62c1bp-1
92506=0x1.9866270cc248ep-9
92564=0x1.4da5dc6986d88p+0
92664=0x1.7a6d76cd16885p-3
92826=-0x1.7aaf1fea9297ap-3
92882=0x1.4d319a0570b52p-1
95013=0x1.a118fac808441p-3
99063=0x1.74aff66ee69c4p+2
99064=0x1.bdc52370663aep-4
99068=0x1.f3bec9acc9bc7p+0
99071=0x1.d1dd357a8fe9ap+1
99073=0x1.f07a7bc3b0648p+1
99076=0x1.1017e88a8c541p+2
99092=0x1.c879e78bae1dap+2
99096=0x1.80cf76b08e8a6p+1
99104=0x1.f40a95d37733p+1
99114=0x1.1617c96eaae2ap+2
105624=0x1.396923bd25b4ep-1
105628=0x1.a2a297870a412p-2
105639=0x1.456c0c9062991p+0
105640=0x1.32c9e10b53a7ep+0
105707=0x1.e6257cd7cf04fp+0
105720=0x1.6131498a8c675p+0
105721=0x1.7308d03ca8b02p+0
110245=0x1.5c934bcc7a8c6p+0
112266=0x1.c0d99b01bb6cbp+1
112268=0x1.ca0a213b530efp+2
112269=0x1.3f4d2b4842614p+1
112282=0x1.17fb8128f2f7ap-1
112288=0x1.4e6a7bd93c607p+2
112317=0x1.2943fd8aa033bp+0
112326=0x1.e5dc26b19c545p+1
118827=-0x1.69313429469ap-7
118989=0x1.ca19745339effp+1
118992=0x1.40eb950b4d289p+2
118999=0x1.ff68a30ff6ccap+0
119007=0x1.1c4a7c032e588p+0
119151=0x1.b42db71fabb4ap+1
119172=0x1.1dd7bc9a6e068p+1
119179=0x1.1d1fd8819a75ep+1
119215=0x1.b1604539fe938p+2
120042=-0x1.747db8326b833p-5
120112=0x1.f1c560139111cp+1
120167=0x1.7839019ace2bp+2
120933=0x1.474ff6caf0f5p+1
125388=0x1.681b7f691b4c1p+1
125390=0x1.63ee3e031fe3fp+1
125400=0x1.5da0af7017c91p-8
125405=0x1.dab861cd82b4p-3
125469=0x1.503cf34f97871p-2
125481=0x1.91015d3af8e42p-6
125631=0x1.c25ca498c0176p-6
125876=0x1.b652b7a610595p+0
125955=0x1.7ff66a0d1d14p-1
126117=0x1.2d89bd2b05aeap-6
126765=-0x1.75e6b8c6c65f8p-9
126944=0x1.06b122a4bc08fp-3
127656=0x1.82fe542dfea9bp-2
127737=0x1.cac12c4a241eap-2
128547=0x1.6721d5663078fp-3
130491=0x1.1ff539383866ap+0
132030=-0x1.5a759b784f898p+0
132034=-0x1.d140b89d2aab3p-3
132192=-0x1.6d4c83117179p+1
132273=0x1.68039acc7fbb2p+2
132275=0x1.b33f22c762b4fp+0
132283=0x1.226cdcec8d35fp+1
132354=-0x1.343096665fe5p+1
135594=0x1.ba7a9e45ab1dap-1
137214=0x1.3327ad95374fp+2
137218=0x1.a5eb6ad77267cp+0
137219=0x1.4c4a86cc56b85p+1
137224=0x1.7c8a437819424p+0
137235=0x1.09f1947002198p+0
137237=0x1.538a3f1d51e7p+1
137700=0x1.8bdb6de0b8601p+1
138591=0x1.b23d1817f5908p+1
138592=-0x1.1867d4ab4e42ep-2
138593=0x1.1f3f44baf40d6p+0
138595=0x1.58486f614a804p-1
138596=0x1.0c452b014ef28p+1
138597=0x1.1704412d4e829p+1
138598=-0x1.4809482cb1b78p-1
138599=-0x1.81bee03a35ecbp-5
138600=0x1.8ce27ed96cebp-3
138602=0x1.ab8543a6a4e3dp-2
138603=0x1.20a95a284418p-3
138604=0x1.a40bdaeee2ac7p-1
138606=-0x1.5c8025af2fe71p-3
138607=0x1.7473888dbf8eep-2
138608=0x1.99cdcadc20216p-1
138609=-0x1.a31db03d591d1p-11
138610=0x1.c55fd4cc96736p-2
138611=0x1.f0de27e41d941p+0
138612=-0x1.7d19845545dc9p-2
138613=0x1.c2c5712e65243p-2
138614=0x1.b55d3c4367f6ep+0
138615=-0x1.caf748d127c86p-2
138616=0x1.42c7c131ed9ccp-6
138617=0x1.6de2b41a396dep-1
138618=0x1.6bca1134ae609p-1
138619=0x1.7dc30f5f5d034p+0
138620=0x1.21507747e6f91p+0
138621=0x1.3c7f3732b9d0cp+0
138622=0x1.72fa667eba0bbp-2
138623=0x1.3925a7f297ccep-1
138624=-0x1.8e567ba8835bep-9
138625=0x1.62266a3c0c12cp-4
138626=0x1.03631e8a86f09p-2
138627=-0x1.271b811db475ep-2
138628=-0x1.84afde32a92abp-11
138629=0x1.267691faa7976p-3
138630=-0x1.cc4a66724a56ep-1
138631=0x1.a73e38eb7d522p-5
138632=0x1.6b7ffb77ff0b6p-2
138633=-0x1.0293a16e72827p+0
138634=0x1.e4a171f99de64p-2
138635=-0x1.31561b8fcfdf5p-2
138636=0x1.8fd6ce6cf7adep-2
138637=-0x1.5bf28aeb40997p-2
138638=-0x1.479c4bcc0e09fp-1
138639=0x1.0506e838408c6p-1
138640=-0x1.9c2cd5df3a672p-10
138641=0x1.85221c767a403p-2
138642=0x1.e682fd43a39bdp+0
138644=0x1.a6982b9a3cac4p-2
138645=-0x1.5af962b1c97d6p-2
138646=0x1.32c6128711ff9p-1
138647=-0x1.7282af3d85563p-2
138649=-0x1.271c1e1cf32aap-2
138650=0x1.b306c3aae37b5p-6
138651=-0x1.7488887fd1aacp-2
138652=0x1.20553796d858ap-2
138653=0x1.bbcc96ee5e346p-4
138654=-0x1.56d5553f9a254p-2
138655=0x1.d66c80bcea28cp-3
138656=-0x1.271c5ae0ebb1ep-2
138657=0x1.a952c2e440ab2p-6
138658=0x1.1e8a2a4a2e0dbp-1
138660=-0x1.1d2dd00daa03fp-6
138661=0x1.ad689f2e6f15bp-2
138662=0x1.2f262b1b2a2a9p-4
138665=-0x1.4870a1dab6892p-4
138666=-0x1.271f397451d12p-2
138667=-0x1.272d04eae9d3fp-2
138668=-0x1.2b7420389ea9bp-2
138670=-0x1.5c9e4caed50d6p-2
138671=0x1.ce3377cb6e58dp-7
138672=0x1.077d6c64d68e5p-3
138674=0x1.2da1dfb7cc2e8p+1
138676=0x1.8e98fe7879856p+1
138677=0x1.26c5cf8128986p+1
138678=0x1.e8db3b4df5d56p+0
138680=0x1.de44f87352d3ap+1
138681=0x1.180d50faa7ce5p-7
138682=0x1.5dfff4c7cb6c5p-2
138683=0x1.cd4f9bc42e158p+0
138684=0x1.55aec346e9ac1p+0
138685=0x1.8f408b8aeabefp+1
138687=0x1.01425c60862e2p+2
138688=0x1.1909f2271324p+2
138689=0x1.15333c9f09a2dp+1
138690=0x1.5ba3e1b197707p+0
138691=0x1.d133cf55eb972p-1
138692=0x1.17c0f829dbb53p-2
138694=0x1.9dfbc71629094p+1
138695=0x1.e6e3228498264p+0
138697=0x1.bf5c4eadc226fp+1
138698=0x1.fa26ac389124p-1
138699=0x1.255a2eadb1a39p+1
138700=0x1.f2501041e22f6p+0
138701=0x1.a0010db0fba18p+0
138702=0x1.101a08e63199fp+1
138703=0x1.97ef34374d95dp+0
138704=0x1.a1a282b706988p+1
138705=0x1.213653a9f60e2p-2
138707=-0x1.e4cefbc9780f5p-7
138710=0x1.35b6ab1eda40ep+1
138713=0x1.ad2ddb1142e6fp+1
138715=0x1.96a37294983f8p+1
138717=0x1.0646b461f1deap+1
138720=0x1.517de2096371fp+1
138721=-0x1.5852bcd62ff3ep-5
138723=0x1.ab54e180f80ffp+0
138724=0x1.867238fb8c7bp-3
138725=0x1.3ae82cac1fa4ep+1
138727=0x1.30189fa37f0d5p+1
138729=0x1.28989c5733a2fp+1
138731=0x1.5e456021d2a4p+1
138733=0x1.1d8877c93081fp+1
138734=0x1.77fef98c6204fp+1
138736=0x1.ae7227ebb27acp-1
138738=0x1.0cd481fedd718p+1
138739=0x1.411f68bdefda4p-1
138741=0x1.bc0af91b03f01p-2
138742=0x1.0d9ff3ac4d16p-1
138743=0x1.34bb48486e43fp+0
138744=0x1.6b0fdde674f99p+0
138745=0x1.6aeb5d68e2653p+0
138746=0x1.3e5b2ca7c1322p+1
138753=0x1.7cb5eb9b49518p-1
138791=0x1.d5522f690cde2p+0
138834=-0x1.9733f195cdc94p-1
138836=0x1.c7a246ecd5c78p+1
138837=0x1.49be95dff535dp+0
138848=0x1.e23aed79eb34ap+0
138854=0x1.577c035f10814p+0
138856=0x1.803cfd3121186p+1
138885=0x1.ded44c8c9957p+0
138889=0x1.fc3e306948437p+0
138996=-0x1.a5713211da9dp-2
138998=-0x1.8dea6c2ef6e2fp-3
139001=0x1.598b5cb835eb5p+1
139002=0x1.a5cc78bd105f4p-6
139004=0x1.87fac9e4f0c0cp+0
139008=0x1.20055790d7fa1p+1
139009=0x1.4985f053449a8p-1
139015=0x1.1a6dd1e6ab087p+0
139016=0x1.087e5035cf148p+1
139019=0x1.50f61aed402fap+1
139022=0x1.e8d491cfdde32p+1
139024=0x1.8911ec8b2ae28p+0
139026=0x1.19c7ea49b1ae5p-6
139044=0x1.757e643cf3764p-1
139046=0x1.126acc0b14affp+1
139047=0x1.1fffd47e35873p+1
139051=0x1.4aa82367db1b1p-1
139060=0x1.181846a279143p+1
139077=-0x1.2d8f57705b0d4p+1
139083=0x1.98bac6d0d2cddp+1
139085=0x1.4b39f97d2d736p+1
139100=0x1.1cb312affdb3bp+0
139105=0x1.4093985d45b05p+0
139158=-0x1.f7892ffe837a5p-5
139167=0x1.d5c81565ab414p+1
139181=0x1.67e81d513e878p+1
139209=0x1.7e68aba14759ep+1
139239=0x1.b9fc355f3c271p+0
139244=0x1.98e008fdd873cp+1
139320=0x1.d9588977bb355p-3
139348=0x1.82298746e0eb8p-1
139349=0x1.79184579a15acp+1
139369=0x1.cae1bcd9bec7cp+1
139482=0x1.9d815a68a15bcp+0
139488=0x1.409c69617befdp+1
139493=0x1.009eedfcc067p+2
139563=0x1.5003e4eaa8594p-1
139568=0x1.ba17f608ace17p+0
139571=0x1.1005d1b3ae7f6p+1
139591=0x1.add8109eb4c6fp-1
139613=0x1.e5ba0e4d2d202p+0
139614=0x1.b2259cc26dcdbp+0
139644=0x1.28133b1cf569bp-2
139725=0x1.443033b852385p+1
139754=0x1.35ed6e86fed04p+1
139887=0x1.6e6a8255ad966p-4
139902=0x1.039420ff66918p+0
139957=0x1.2e05b3d35e339p+1
139968=0x1.a9f7cf3f91a95p+0
139992=0x1.35844867df23p+2
139999=0x1.3e6a582418b7ap+1
140012=0x1.b761cff9e657cp+1
140035=0x1.c90abfb9d2a2cp+1
140049=0x1.3da860787567cp-2
140060=0x1.0c2c06b49dc88p+1
140083=0x1.6bdc706770888p+2
140094=0x1.9172657cde619p+1
140130=-0x1.0b93a731db88cp-2
140147=0x1.4478d09e5b6a1p+2
140292=0x1.052b7cd2ef5afp-2
140373=-0x1.1feb463f53ce3p-2
140378=0x1.83a37ee60671dp-1
140379=0x1.0ba7b8d39246ap+0
140424=0x1.7c4c91e76f9cfp+1
140535=0x1.aa86b71e3c47dp-3
140697=0x1.37bd9cb4f5686p+1
140778=0x1.11e5b4f5006abp-2
140783=0x1.8e40fe47506b3p+0
140784=0x1.6e9ac642a39bbp+0
140859=0x1.c072cc544d19p-3
140927=0x1.16041cd7078c8p+2
140940=0x1.7e0c44cf4f14ap+0
140960=0x1.d198944f882c3p+1
141021=0x1.f041bf14b7c65p+0
141102=0x1.2ad695d58e27bp-4
141264=0x1.2c97c4ab69e92p+0
141345=-0x1.665184a714aecp-5
141416=0x1.dc44aa4ca1545p+1
141423=0x1.e56bc86d971f8p+1
141625=0x1.e79486c80247fp+1
141750=-0x1.17f69c46da106p-5
141770=0x1.de79bd9468c7bp+1
141871=0x1.ad218ea6142bap+2
142101=0x1.465ba71da124cp+2
142104=0x1.d373b5c2e62e1p+1
142117=0x1.a7c97a55a3b65p+1
142155=0x1.cad0e275df529p+0
142317=0x1.d9addd5193097p-3
142445=0x1.c9a5f71c90ec7p+2
142583=0x1.68d57b516f2bap+1
142722=-0x1.3abea9ce24deap+1
142733=0x1.640617b55ab44p+1
142803=-0x1.a55518f4060d3p-2
142809=0x1.cf2b14f37c02bp+1
142884=0x1.5f6cf139a58eap+1
142965=0x1.5e75da61c3893p+1
143101=0x1.c151c5c691cc4p+1
143157=0x1.ba9d1a72f74d2p+1
143210=0x1.74bb233a47b82p+0
143212=0x1.e0004ac2425eap+0
143213=0x1.115277ce245ffp+0
143214=0x1.4af62a08d9bbep+1
143216=0x1.a9bfdc0910698p+0
143237=0x1.c3f3341af2024p+1
143532=0x1.14b8b42b2ea51p+0
143694=0x1.f95c11d4b9289p+0
143710=0x1.7d58d6b84cf67p+1
143856=-0x1.6050e52c74f0cp+0
143861=0x1.0a11e2cf8dd85p+0
143879=0x1.412073672a9a3p+0
144296=0x1.40d65e7814892p+2
144423=0x1.b5a6ff6a92a6ep-3
145151=0x1.a6205f3c3d189p+1
151875=0x1.fb07e95b5dcbfp+2
158436=0x1.4fbf9417f8341p+1
158440=0x1.16411615c9d2bp-2
158441=0x1.caf0f2ef495ddp-1
158451=0x1.3c3b57622d7f9p-1
158492=0x1.2bddc3762898p-2
158517=0x1.6db4e22dc01f9p-3
158521=0x1.1c250b14c6621p-1
158522=0x1.89c280dbbfcadp-1
158532=0x1.e0b797b0f2694p-1
158598=0x1.b9f9e6e97f3p-2
158679=-0x1.cfd22d53ceb0bp-3
158735=0x1.10b6915d0f93p+0
158760=0x1.1b629c3016872p-2
158841=0x1.5517a7cac187fp-4
159570=0x1.843951b4f33c6p-1
160056=0x1.096afe00ec619p+0
160299=0x1.dd647ad871708p-2
160866=0x1.4638a832c0601p-1
165078=0x1.7cbb814917a93p+0
171639=0x1.96eb9a7a26ea7p+0
171720=0x1.4b8efa3c08ed4p-1
171722=0x1.763c5370459d2p-3
171882=0x1.0ac5ccd901b5ap-1
171938=0x1.b13c6f2ce9167p-6
172125=0x1.8ec36a16d1876p-1
172611=0x1.1dee53ef14526p-3
173583=0x1.061bafe50382ap-1
178281=-0x1.d346551c5db12p-3
178283=-0x1.9810e5d58c8d8p+0
178443=0x1.1d82e5f93907bp+2
178445=0x1.fbab96472e037p+0
178464=0x1.b02848cb25166p-5
178605=0x1.c34e8fca4744ep+1
178607=0x1.9e4514672a3f6p+0
178609=0x1.f837ac00e8fcbp-1
178610=0x1.012362dbea107p-4
178615=0x1.166218132e0c7p-1
178624=0x1.9ab14f1d5d598p-6
178625=0x1.e11e711a18024p+0
178633=0x1.2faa38376da45p+0
178647=0x1.2e58a195d8e09p+0
179496=0x1.177171a196ee9p+2
179577=0x1.e5ca8cd183e1p+1
179644=0x1.07cc2e86048c5p+2
184842=0x1.ba986f9111a71p-2
184923=0x1.6ec1206550aecp-4
191484=0x1.10c7bf7b84dc1p+1
191565=0x1.e64f00c436956p-3
192861=0x1.7b79f3a7fd217p-1
198126=0x1.0e94200ae4924p+3
198132=0x1.01b13e7d94227p+1
204687=0x1.fd3909b7795efp+1
211329=0x1.6472337e387bfp-1
211977=0x1.3bb2f28b29354p-3
217890=0x1.093318b697223p+2
217902=0x1.825495396bfddp-1
224451=0x1.585cf1b7e274bp+1
224453=0x1.0239693478e7cp+1
224454=0x1.267dbfc46d477p-3
224532=0x1.28614873d2c3fp+0
224694=0x1.b7eda3695eef2p-3
224697=0x1.bc5b3267dbdddp-5
224937=0x1.25df5ed78a0eep-1
225018=-0x1.d2aad3a21b129p-3
226152=-0x1.dbef90e665549p-1
226154=0x1.67f0163ecc8dep+0
226314=0x1.2080ca9424468p-1
226881=0x1.b7be874b8cd9ap-2
226962=0x1.b285acd11d851p-1
228987=0x1.884f993891a03p-1
231093=0x1.77a3fc696fd89p+2
231417=-0x1.31a886da3b756p-2
237654=0x1.10babb98690e7p+1
237656=0x1.69c4cffc3a2ffp-3
237658=-0x1.377203ace5e6cp-7
237660=0x1.256094bd55162p-6
237662=0x1.480f50444a9b3p-3
237665=0x1.0310a33407171p+0
237669=0x1.53aa346d9daacp-1
237670=0x1.b8f90d1ce634dp-4
237680=0x1.6ebdd74529a0ep+0
237681=0x1.22552aa6f515cp+0
237682=0x1.8e257de61ebe8p-3
237683=0x1.c7793e7206b7fp-2
237689=0x1.1d809972a0ee3p-1
237713=0x1.edce4f6195428p-2
237717=0x1.08020eff95dap-1
237718=0x1.3fc468487e729p-7
237720=0x1.97ec1209e5e4fp-2
237724=0x1.8b65f45a23de7p+0
237735=0x1.39355ede2e776p+0
237737=0x1.3324f21582d32p+0
237739=0x1.1a21e90e1065cp+1
237741=0x1.6d185a2e7ac5cp-4
237750=0x1.594a0179e74f5p+0
237751=0x1.d8691e29ec6f2p-2
237764=0x1.61430be032ab3p+0
237765=-0x1.a2a2e92562284p-2
237768=0x1.9b344fbee4627p-1
237770=0x1.4eb6ccb906473p-1
237776=0x1.312e2030d217dp+0
237783=0x1.016dda29430a2p-1
237786=0x1.86b00b6e6a8aap-1
237794=0x1.70b90c923c7dcp-1
237799=0x1.3d37941a2377ap+0
237801=0x1.2cfeff6419d8ap+0
237805=0x1.8dcc1ce170c83p-1
238059=0x1.513df6336b96dp+0
238079=0x1.9c4cc356c3fa4p-5
238085=0x1.26bc7d6bd3f4cp+1
238087=0x1.ded1449d075f2p-1
238122=0x1.19e83113b1184p+0
238556=0x1.e2d465c2546ep+0
238626=0x1.32f6d164545f5p-1
239020=0x1.05bc615e8e626p-2
239210=0x1.9f3c6d20ca686p+1
239274=0x1.2708ed588aba7p-2
239442=0x1.92908373c32e5p-1
239598=0x1.0a4a4cc327d1ap-1
240003=0x1.03abfa3b4b3ddp-4
241164=0x1.bb4d4135b72aep+1
242220=0x1.4c32226ea886p+0
242923=0x1.a4523026e888ep+0
243972=0x1.39bef90f1a195p-1
244296=0x1.2fb9ae626b92cp+1
244300=0x1.086f82c2afae9p+0
244301=0x1.67774c5ad3514p-6
244303=0x1.ae579d878bac7p-1
244323=0x1.055836f93eaeep+0
244350=0x1.09a6dd10275d5p-5
244377=-0x1.69b17582e97ap-7
244381=0x1.599c2e15160dap+0
244384=0x1.703bbc276a126p+0
244404=0x1.1180d23f1932fp+0
244708=0x1.50e49a45ed1efp+0
244787=0x1.1944a41baa8f6p+1
244863=-0x1.df8afd967956dp-1
244944=0x1.374facf69970bp+1
245032=0x1.0c18ab96e7a07p+1
245268=0x1.13d4a88e32614p-1
245349=0x1.7cf2ca09a3fd1p-1
246564=-0x1.72222c5740a0ap-4
246618=0x1.18b4d58eef391p+0
247212=0x1.f015da042f3bcp+0
247806=0x1.359644f130982p-1
250533=0x1.be6590636f0cep-1
250938=-0x1.8081d8aade692p+1
250940=-0x1.a33008001ea3cp+0
250969=-0x1.1278748d720f5p-3
251100=0x1.28745c73f69d7p+2
251102=0x1.ce61d5bcb5b7ep+0
251105=0x1.0ade4db180ebcp-2
251110=0x1.d808a4eef83c1p+0
251114=0x1.dc8430c7d1624p+1
251262=0x1.c952753ee572ap+1
251264=0x1.bd8d9a10c68b1p+0
251267=0x1.8b4e883d08c3cp+0
251268=0x1.3a69958bc849p+0
251269=0x1.ff9da007be8f7p-2
251272=0x1.e70c5fb888223p+0
251274=0x1.86351bb73fdf5p-1
251282=0x1.6793645677821p-1
251285=0x1.f482076afd587p-2
251290=0x1.1990c9e344bd4p-1
251304=0x1.0f32966a6033bp-1
251311=0x1.4df8f43ed9d55p+0
251312=0x1.7aa9c03ad238fp-1
251313=-0x1.d8f012d9f838ep-2
251318=0x1.3cd6abc5972d3p+0
252153=0x1.94b34d5065545p-5
252234=0x1.44709b419c855p-1
252265=0x1.282f876b5eeep+1
257499=0x1.72548ba8554bfp-1
257504=0x1.44478137e27e7p+0
257509=-0x1.d6a3586433c85p-3
257520=0x1.4c3301edcf827p-1
257541=0x1.97f7a45549ea6p-5
257550=0x1.1435b54a02d57p+0
257555=0x1.53d2b1ceaf4fp-1
257568=0x1.7e574116003fcp+0
257578=0x1.4df4cc468184p+1
257580=0x1.d171f066d3e94p+0
257585=0x1.a0e6a9bd3040ap-1
257601=0x1.821e587d2f606p+0
257631=0x1.aca3f1330af05p-1
257649=0x1.11b0b77bb5ba7p+1
257659=0x1.84332caae400ap+1
257909=0x1.11248440fb876p+0
257946=0x1.3354dd85b3ef5p-1
257955=0x1.821302c8ae483p-2
257959=0x1.037caeb44e9abp+0
258122=0x1.21d7d77e8dedfp-1
262009=0x1.ebef1be51199dp-1
264141=0x1.1e28ab9438dfbp+2
264146=0x1.d39f91236b1d7p+2
264147=0x1.1e3d902486b09p-1
264148=0x1.3a77c864a6f79p+1
264149=0x1.ae2140914177ap+2
264152=0x1.661d7714855f8p+0
264153=0x1.99a549d08954ep+1
264154=0x1.e44ced1401d4dp+1
264158=0x1.4fe59cb2121adp+1
264159=0x1.7e23cdb7a684ep+2
264162=0x1.93f0f5344b09cp-2
264163=0x1.35d70b8c823aep+0
264168=0x1.d1921590685cdp-1
264169=0x1.3d2fdd325f964p+1
264180=0x1.4e2a712cb5107p+2
264187=0x1.9ec84f5650bd8p-1
264196=0x1.836e3793ddd51p+2
264197=0x1.3eff4ffd3a2d4p+0
264210=0x1.33c7116234eaep+2
264214=0x1.8fe8ec07bb72bp+1
270702=-0x1.45bb4dc94f307p+1
270708=-0x1.e46c31ae6d811p-4
270874=-0x1.a51046385a0d6p-5
271107=0x1.362579faa56fcp+2
271112=0x1.76bf72fdf3632p+0
271113=0x1.45bdecce6bc62p+2
271114=0x1.61699989ec194p-2
271115=0x1.e4ba50262104cp+0
271117=0x1.dfc6d6ad94c46p+1
271125=0x1.0e096741e67fcp+1
271140=0x1.58c0169feffap+0
271163=0x1.6d20caee81d56p+1
271350=-0x1.91e606c9480cp-3
273051=-0x1.27dd4ee65c64dp-4
275157=0x1.7b4e2d968b831p-1
275187=0x1.2c9ca21595cf6p+2
275196=0x1.bf916bdd88501p+1
275199=0x1.dec433cd51638p+1
276366=0x1.bac62f707d7bdp+0
277263=-0x1.0dec3435dfdd3p+1
277749=0x1.220a1da96088cp+2
277754=0x1.1d1600643a8cfp+0
277756=0x1.3c9b126a3d907p+0
277758=0x1.d586e2c5b6e9ep-1
277767=0x1.69f7b82cc42d3p-2
277800=0x1.5d6199d2b1298p+1
277805=0x1.8f952a17497c5p+1
278235=-0x1.f050ce8ce2993p-4
278640=-0x1.35ea11df41802p-4
279693=0x1.08d71ccb0ff2ep+2
280098=0x1.3da608a1be7aap+0
283743=0x1.3976ecd47c93ep+1
283824=0x1.65f4121017dd5p+2
283905=0x1.ee64236083652p+0
284229=-0x1.8b8858bcaecaap-3
284391=-0x1.4c69c029e34d4p-10
285120=0x1.f3155ab04a241p-2
286335=0x1.a18b18cb9aa0dp+0
286497=0x1.7bc3c47c5fec8p-1
290466=0x1.1ee634cdc315bp+2
290470=0x1.3af8a75a94bc2p-5
290481=-0x1.193fb3f0ea76p-2
290482=0x1.5eeb98ceb83ddp-1
290483=0x1.f3e70e84f3f18p-3
290491=0x1.3c63899102b12p-1
290492=0x1.453670cf08e5ap+0
290547=0x1.05c9af0e2d034p-3
290549=0x1.2b398325cf911p-1
290551=0x1.66004d0d4b371p-1
290562=-0x1.903e427394d92p-3
290563=0x1.6b73aa59fe0c8p+0
290572=0x1.09206b073500dp+0
290709=0x1.e5b3972eb9311p-2
290871=-0x1.69c16d819ca7ap+0
290897=0x1.f7a44f267bab3p+0
291762=0x1.1c1845e9a3c0ep-2
292022=0x1.8e2f30d11faa1p+0
297108=0x1.61aebb6db99cbp+2
303669=0x1.8693b1e66b8a3p+2
310230=0x1.7db35dce65b84p+0
316872=0x1.be2bc260ba7c5p+0
316874=0x1.99bb4f1417308p-2
316876=0x1.3df6505e71b82p-2
316877=0x1.2657c54425becp+0
316879=0x1.8ce5ffbecf13fp-1
316880=0x1.780e297045564p-2
316883=0x1.188b72679e6cap-2
316887=-0x1.a1b3369d02065p-3
316898=0x1.54e51b64fbd0dp-1
316899=0x1.0acf3431aa4a9p+1
316920=0x1.37b2733e87464p-1
316953=0x1.218fd9f45d9eap-3
316955=0x1.711d25bc90c34p+0
316957=0x1.6d7d0ef89a1f1p-2
316958=-0x1.b82403bea2f7ep-3
316959=0x1.96bbfba78f42cp-4
316960=0x1.ddf03cba336d9p+0
316968=-0x1.b5c5cd21d45cbp-5
316980=0x1.07e679083ac37p-1
317001=0x1.49d0fae24a91p+0
317277=0x1.4ef98864983dp-5
317303=0x1.2a858bfd73823p+0
317358=0x1.a50f72467631bp+0
317601=-0x1.c7006ba948ab9p-4
317606=0x1.f787c07680148p+0
317774=0x1.d3a6a2e93dd5ep+0
319626=0x1.7048c0c00286p+0
320382=0x1.ac9e35093ad85p+0
323514=0x1.4342199ad6cadp+2
323521=0x1.957cfa408d17ap+1
323838=-0x1.e5a5cfba88ff9p-1
323845=-0x1.1483c5f8113f2p-1
330075=0x1.c87b08a40670bp-5
330642=0x1.60e9e40ed7c49p+2
330647=0x1.c8c04d2db86edp+2
331047=0x1.02cf6334c3194p-3
334504=0x1.dd395c209bb2p+2
335826=0x1.c2d63cf214adap+1
336636=0x1.78668459cb3b3p-1
336644=0x1.22847fae43a2cp+0
336717=0x1.0180454620a77p+1
336725=0x1.6754ae86fe5c5p+1
336879=0x1.0b4b27914c319p-3
343278=0x1.75b53650d99efp+0
349920=0x1.6c6a4c5f6696dp+1
349924=0x1.05cf752a8da32p-1
349928=0x1.4b096e436385ep-6
349929=0x1.843fcbf19513ap+0
349939=0x1.7c31047095b03p-2
349986=0x1.9fd52be1554c1p-1
350001=0x1.f3e85adc28346p-2
350005=0x1.6d0d115bfdc68p+0
350009=0x1.fb1bead151c0cp-1
350017=0x1.3e5568145dbc2p-1
350020=0x1.3634181ea67f5p+0
350067=0x1.e123fb771c7ccp-1
350406=0x1.8489a2b144fa6p+0
350649=0x1.caf9eebad429ap-2
352026=0x1.ad769857f9b51p-1
352269=0x1.6efb564c2c1b4p-2
354060=0x1.6ab1f1e06a6f3p+1
354294=0x1.74a473bf6797p+0
356562=0x1.271bc1d2fd73ep+2
356564=0x1.14a58cb7906ebp+1
356570=0x1.777fda4140495p+1
356575=0x1.86d233838be8ep-1
356582=0x1.3096df6814da3p-3
356583=0x1.acc5418b1efb9p+1
356585=0x1.9475bf7341a07p+1
356587=0x1.fb4a4aa3fd11bp+1
356590=0x1.fe92b257467cep-1
356886=-0x1.35309f9259b77p+1
356888=-0x1.fb890d246fd6fp-2
356906=-0x1.660b7cf48acffp-4
363123=0x1.1b975532cfef7p+1
363125=0x1.8b0bc3d6ae52cp-1
363129=0x1.3ca76673d25d6p-2
363131=0x1.01437a44b4f67p+1
363135=0x1.7c84eef2a167cp-2
363204=0x1.89ea7891891d3p-1
363206=0x1.6baa10811cfe2p+0
363212=0x1.d736447f5d32bp+0
363216=0x1.30fdedb71d834p-2
363366=0x1.fa24226035be9p-2
363528=0x1.c14576bb6a74cp-1
363609=-0x1.34c5775492cf9p+0
363615=0x1.dfa5c2271f252p-1
363690=0x1.07be221792efp-6
363852=0x1.4609b5026111fp-4
363933=0x1.19652e607110ap+0
364095=0x1.5809724ee7211p-2
364419=-0x1.a538248220473p-1
364500=0x1.1c03491b251fep-5
364581=0x1.fadd499c53db6p-5
364743=0x1.43ff5d7952aefp-2
364986=0x1.813caa29769eap-2
365553=0x1.337a70abc9544p-1
365715=0x1.d9159476d82f4p-3
365877=0x1.7eeb13e91dff1p-2
365958=0x1.d21234077d47bp-4
367497=0x1.2e2ec38f1995cp+0
370413=0x1.5601ce19f1e5fp+2
376326=0x1.9285114351781p+0
376328=0x1.6c86bc2e92fa1p+0
376330=0x1.fb218dceb9e94p-3
376331=0x1.752c27c93a528p+0
376332=-0x1.3de1c7b22931ap-3
376334=0x1.19c7a2324fd33p-3
376337=0x1.7323c54bda388p-1
376338=-0x1.c62b487ee856ep-2
376339=0x1.b9c5c1cbea3dap-1
376340=0x1.c1b91643b5eccp-1
376341=0x1.1dd3b3db1e189p-2
376342=0x1.0262de3395c7bp-3
376343=0x1.078a6a50a5573p+0
376345=-0x1.c1507f86fbbbap-2
376348=0x1.76535a35d5bafp-1
376353=0x1.36a56602e0739p-4
376355=0x1.58dc8ac8dfb0dp-1
376356=0x1.6ba5e83177dc2p-2
376366=0x1.15a0d88be49e6p-1
376377=0x1.442c37bd7f556p-2
376381=0x1.5a70462261f59p-1
376384=0x1.6d88dbdb4d585p+0
376386=0x1.3d0da29fcf44ep-1
376391=0x1.0e9b388ef0bbfp-1
376407=0x1.43f695cbcead6p+0
376409=0x1.bbbb9ced39e41p+0
376411=0x1.5aaafed8f50cap+0
376412=0x1.9cfc964fd5498p-1
376413=-0x1.6f2a064e84c43p-5
376415=0x1.d3f29a5cd2f35p+0
376416=0x1.81e413b3d2354p-5
376418=0x1.282fd0effd71ep+1
376420=0x1.7d4c3927df3a6p-2
376422=0x1.ec4e5d76a3029p-1
376423=0x1.1f0598bde95cp+0
376429=0x1.2129a42c4e53bp+1
376430=0x1.7171c947ffec6p+0
376437=0x1.9895d06231725p+0
376458=0x1.a4428bb4aee28p-2
376460=0x1.0e9d412d99eedp+1
376462=0x1.00af98f57b147p-1
376465=0x1.2e335a98dbfcfp+1
376467=0x1.426603b6ef902p+0
376472=0x1.0807af2953fcep+1
376478=0x1.226bf9b14d9eep-3
376569=0x1.806d8b3e14074p+0
376571=0x1.1ec4f62cb06ep-1
376572=0x1.382846e0cc261p+1
376583=0x1.b47ed8d35e34p+0
376620=0x1.04f8a2fea0f72p-3
376733=0x1.dc367068103fap-2
376735=0x1.a40b4a9d57d04p+1
376757=0x1.99e341f043f38p-2
376817=0x1.cac21e38c28b6p+0
376818=0x1.1b04a559a11d2p+0
377084=0x1.5484e5a02b6cfp+0
377303=0x1.04df558bc4704p-4
377882=0x1.6882991407a64p+1
378683=0x1.cee234d4c0b7ep-2
379606=0x1.111837844c556p+1
379836=0x1.3d68569ed9fb2p+1
382968=0x1.5d65959535db9p+1
382970=0x1.299775f36b9a6p+2
382990=0x1.3a65311a7fb06p+1
383026=0x1.d66ae3473a481p+1
383028=0x1.92d3b76912068p+1
383033=0x1.2241e42787ea3p+2
389529=-0x1.56b00b82a30c8p+1
389533=0x1.7dadb362cde3p-1
389691=0x1.5be03a299924dp+2
389693=0x1.9eae5b8055b9cp+1
389694=0x1.508109580b54ap-1
389701=0x1.1de313d1d6347p-5
389733=0x1.0cfb82c80f3dep+1
389742=0x1.183462b049bdp+2
389853=0x1.ef47e75ed5878p+1
389857=0x1.4b102abfee56ap+1
389858=0x1.0670d97094441p+1
389863=0x1.fe162031697d2p+0
389876=0x1.389bc49fece4dp+0
389879=-0x1.7f8116c596cb2p-6
389883=0x1.89ee58392a232p+1
389901=0x1.9e31ccac8f102p+1
389904=0x1.8fe40e95b68b7p+0
390825=0x1.b944a6760833bp+1
396090=0x1.3c4129139672fp+2
396092=0x1.7c0db6662b38ap+1
396094=0x1.b682054a14281p+2
396095=0x1.cecdbba9ede01p+1
396098=0x1.9a313099c3dccp+1
396099=0x1.2fc3fcb1d73bp+1
396100=0x1.fc8d983462bdep+1
396103=0x1.14d97edacf804p+0
396106=0x1.5dcecb5d0e6b4p-5
396107=0x1.7db195479b1a9p+0
396110=0x1.b3b8ecd2be2b5p+1
396118=0x1.5e51c67edc289p+0
396120=0x1.551c4e2528b9p+0
396123=0x1.7bf10c85ef246p+2
396132=0x1.102db840dd37p+1
396143=0x1.4edfa2c4c332fp+1
396149=0x1.5f554d53e3912p+2
396151=0x1.0824e9805d742p+2
396154=0x1.9760437892f59p+1
396156=0x1.7a3161b930431p+2
402651=0x1.1005dc5539f41p-1
402732=0x1.4e332643e0a7bp+0
403553=0x1.e5c288aee2907p-6
409293=0x1.a63136ba92d5ap+2
409374=0x1.ed95fab14f489p+1
409698=0x1.5a0e09ce97682p-6
409860=-0x1.35a2b14f9d70ep-2
411804=0x1.316936c5bf5a3p-1
415935=0x1.8cdefc3876de6p+2
415978=0x1.507775a0df3a1p-1
422496=0x1.91ef9b15aeffdp+1
429057=0x1.09b3f75754f08p+1
429062=0x1.0f9f8c6fb01a3p+1
429063=0x1.dcc1760fbfcd3p+0
429065=0x1.ab8f892268286p+0
429067=0x1.1a1943697ff6cp-2
429069=0x1.1da67e2a0bb96p+0
429070=0x1.90f454eb84765p-2
429074=0x1.4a555c7f1df87p-5
429076=0x1.f30b39f25f6b5p-2
429078=0x1.4bc666d6e3aaep-2
429085=0x1.2a01a7fff3615p-1
429092=0x1.0cbec3f97cb99p-2
429106=0x1.da9b8b84198d5p-4
429107=0x1.b5dfdaa9a68e4p-2
429110=0x1.1b7ad24930016p-1
429138=0x1.7e4bef248e895p-2
429142=0x1.b4eb615b69bc7p-2
429143=0x1.a1700c8487815p+0
429144=0x1.c47bf85c21391p-1
429146=0x1.7086838e8c426p+1
429148=0x1.8a71e0ea6c916p-1
429149=0x1.65e3e87c78352p-1
429150=0x1.25f83efddb8cbp-1
429151=0x1.b46954dd69245p-2
429155=0x1.28720b0aeb739p-2
429157=0x1.47c430826e7c7p+0
429158=0x1.7e56af02a942p+1
429159=0x1.89fe80ead8ad8p-1
429161=0x1.0b544a5338279p+1
429166=0x1.d1383746fbd99p-1
429168=-0x1.c57a7a2f6e62fp-3
429171=0x1.5751396886119p-3
429173=0x1.b15430b94858p+0
429181=0x1.52b2a341d999bp+0
429183=0x1.43e363d42add4p+0
429187=0x1.180407fc8f156p-1
429188=0x1.774710301406dp+1
429191=0x1.b41abdcfe5eabp+0
429242=0x1.5b1eff97d27eap-1
429462=-0x1.defd9334eeafp-1
429468=0x1.a35bbc707fa6dp-1
429549=0x1.c948e2667fddep-1
429551=0x1.65ce1a6dcb67ap+0
429566=0x1.5be40c6e7bcaep-1
429792=0x1.5b31e2491c8d6p+0
429809=0x1.427d82799200bp+0
429867=0x1.f39d816c1534p+0
430110=0x1.59c03072d4f34p-6
430683=0x1.62c84d9f621d5p+0
430705=0x1.01485c9672a0fp+1
430786=0x1.d1d2edffe78f3p-2
430808=0x1.0cf3c86c94ac5p+0
431001=-0x1.2163ba53e2588p-2
431031=0x1.a64dc7db7eb54p+1
431451=0x1.7dce69e4c0cb3p-2
433115=0x1.4289bf315d768p-1
433135=0x1.ddc795262a50ap+0
433196=0x1.654546360e873p+0
433693=0x1.a496174e089efp+0
435699=0x1.09009ffc57d13p+2
435704=0x1.a308903a02b31p-1
435705=0x1.5cad2f909844fp-1
435707=0x1.2ced20f754ef7p-1
435708=0x1.a32ace40fcc5fp+0
435715=0x1.024da5b86b2p-2
435718=0x1.baa833347072dp-3
435719=0x1.a708aed1c4ea5p+0
435734=0x1.8ccc5be38bb4p+1
435744=0x1.b31d6bd61bfc6p+0
442260=0x1.99b99c6370bd7p+2
442262=0x1.a8e18420243cap-1
442264=0x1.1277f1582aff5p+2
442265=0x1.ece1116db01c3p+0
442267=0x1.8b50f60c24113p+0
442268=0x1.fc9edc3f21852p-1
442270=0x1.9d4b4429668bbp+1
442272=0x1.65c6d29a7ea34p+2
442279=0x1.288ce96ee8d16p-5
442280=0x1.2e823f29e8f53p+1
442288=0x1.4470169738fd8p-2
442311=0x1.354bd00f5c0a7p+2
442323=0x1.871f59dc5f806p+1
444609=-0x1.bd2dd8d76d73cp-6
448821=0x1.84d877f9985ap+0
448826=0x1.df6854efd99fcp-2
448828=0x1.8854c2322cffep-2
448877=0x1.52c056d216cf4p+0
448909=0x1.5a537e8998863p-2
449233=0x1.9cc15c6a66918p-7
449312=0x1.6a4cb48830db4p+1
449395=0x1.3af8300394259p+0
449793=0x1.02d1f6daf43f8p+1
450198=0x1.10406a9b69956p+1
450335=0x1.8689cb7a11c74p-2
450603=0x1.2a1f969bb0f3ap-1
451089=-0x1.3c75167d25ea7p-5
451143=0x1.98e14e31c92d1p-4
455139=0x1.e9c4738822724p-3
455463=-0x1.ae0b3abc97049p-3
455625=0x1.425b22fbdd27ep+2
455635=0x1.05026863fae51p+0
455681=0x1.2452c8c7caa0bp+0
455787=0x1.f28fa9a154952p+1
455788=0x1.f895a67b54a6p+0
455792=0x1.3ce25d39b9167p+0
455793=0x1.6833842043768p-1
455794=0x1.47c801bfcd025p+1
455807=-0x1.b4290cbdacfp-2
455808=0x1.1d6993a61c01p-3
455810=0x1.4bcc47b1a6ffbp-1
455814=0x1.37acc03263f38p+0
455829=0x1.22518020fe015p+1
455838=-0x1.382915cd119dep-2
455842=0x1.433f8464d2acbp+1
456759=0x1.5bbaeff4b3d79p+1
462024=0x1.c1456e2b44529p-3
462105=-0x1.cd0ce0f9a4b78p-12
462267=0x1.2df57fa82b31cp-1
462429=-0x1.759547ba379b6p-4
463320=-0x1.d8c4951983687p-3
463401=0x1.70f032f278889p-1
463482=0x1.87ded72ef5541p-2
464130=0x1.9f1dadd533c92p-1
464211=0x1.acd103aa68352p-1
468666=0x1.980f5b62e90b3p+1
468697=0x1.0fb26ce090816p-2
475227=0x1.ace399b62e2e6p+0
475228=0x1.55914a697c8dep+1
475247=0x1.2120caa17cf54p+0
475255=0x1.6f17e39e96bb7p+1
475272=0x1.3b505ca2143b6p-3
475308=0x1.d306530dc2286p-1
475309=0x1.4d81f7c652063p+0
475328=0x1.3a3b2f791853ep-1
475389=0x1.d179f1acbed4cp-1
475409=0x1.cb5c7c723f07cp+0
475633=0x1.8fa5d5656981p-3
475660=0x1.00f41f5d92f0bp+0
476956=0x1.76b3aba8ddbecp+0
477576=0x1.54efa641db519p-6
478981=0x1.eba68918f5153p+1
479601=0x1.1f78e2043bcb7p+1
481869=0x1.90a669608b9adp+2
481879=0x1.85c96221f4383p+0
481889=0x1.0da8b9086683ep+2
488430=-0x1.0f900d3fbf5d8p+1
488592=0x1.40aecd0e9eb45p+2
488610=0x1.b5f4781b171c7p-1
488625=0x1.ad08f7b73fed8p+0
488754=0x1.c38b8e0212db9p+1
488759=0x1.26444010bc91p-3
488760=0x1.8c87ac6b7c124p-1
488761=0x1.9c0c3bcbae871p-3
488764=0x1.76a6250f78795p+0
488774=0x1.406e311df8186p+0
488780=0x1.150987f686de5p+1
488796=0x1.3d5faf3f9f587p+0
488805=0x1.769d56fc4a1b9p-1
489655=0x1.1168958ff5fcap+1
489726=0x1.602aacf4a7981p+1
494991=0x1.fd1962c027a18p+1
495000=0x1.6260e090d0103p-1
495072=0x1.cfc2af8a86df6p+0
495081=0x1.14c5d8f8456aap-1
495396=0x1.9178a34d8e7ep-1
495477=0x1.1fbd8122163c2p-2
495720=0x1.935b7921b18b4p-11
496287=0x1.a2641a11f4bcep+0
497178=0x1.a1032200a78e5p-4
497259=0x1.80113d98f0223p-1
497421=0x1.a42f6d8fb7eddp-7
501633=0x1.36e6b62da0bd8p+2
501635=0x1.4569f1d5e617fp+1
501638=0x1.80822f831ab4fp+2
501639=0x1.716e2946c0298p+1
501641=0x1.aaca4835f2644p+0
501642=0x1.9376a382ce5cp+0
501644=0x1.225cbd428d3f3p-1
501645=0x1.10e972a9d1f61p+2
501652=0x1.700ece1737db1p+0
501653=0x1.9652ddc7b5a6bp+1
501656=0x1.284d7eef9ffadp+1
501658=0x1.3f120daa534ecp+2
501661=0x1.aa3e5833ccc1cp+1
501664=0x1.3a3a1351cab09p+2
501671=0x1.98f17b5542528p+0
501674=0x1.869372c89a5a1p+2
501676=0x1.eebd929398207p+1
501688=0x1.6e77917a8998ap+2
502044=-0x1.215bd1f2a4135p-1
502281=-0x1.d46a71fcf93f6p+0
502524=-0x1.1939e12a800b6p-2
502605=-0x1.0c845d0a8c06ep-5
504832=-0x1.ef1f4dd63aba1p-3
508194=0x1.83346eab5b0aep+0
508275=0x1.e917aa134f31cp-2
509490=0x1.4b59c70c68e74p-17
514836=0x1.252940763953bp+2
528039=-0x1.39032409b1d3ep-1
528768=0x1.51c4cd2ca8db9p+2
534600=0x1.2b5d48c819e2fp+1
534629=0x1.17af944ac97d4p+0
534664=0x1.c5e7a00a119cfp+0
534681=0x1.b72a9601dfd9bp-1
534745=0x1.5e7cc2e7eeb0dp+0
534843=0x1.b35b26b699234p-1
535005=0x1.bbfd87496cd5bp-2
535410=0x1.090211c658cdep-1
535763=0x1.439c3ec912b5ep+0
535977=-0x1.0784872e224ebp-4
537192=0x1.27d883c38729cp-1
538326=0x1.670b6ab4b8705p+0
539136=0x1.2c0dfa2290681p+1
541242=0x1.491746dc06fb8p+1
541246=0x1.e50354c37a666p-5
541248=-0x1.5958c1400fd7bp-1
541252=-0x1.f23804605e078p-6
541253=0x1.00545539ca6bdp+0
541258=0x1.654b398fb18c6p-9
541261=0x1.9c39900e17cd3p+0
541263=0x1.02fa4fe733153p+0
541269=0x1.ef7dfcb75c9d2p-1
541272=0x1.23c8ef4601b6p-2
541273=0x1.f89bb45be980fp+0
541284=0x1.afcfc019d7e56p-1
541293=0x1.2d26121666372p-1
541298=0x1.46d89bfb9e796p-1
541301=0x1.d82ca5ae998a2p-2
541302=0x1.02f96a91ee5d9p+0
541305=0x1.73e7724a330adp-1
541308=0x1.46a0b7d9c6be7p-1
541318=0x1.9838f926b278cp-3
541323=0x1.7f4bd5c6d76b5p+0
541325=0x1.2b696614b8b65p-6
541327=0x1.ba2d949b65216p-1
541328=0x1.51f8306ba8fdbp-1
541329=-0x1.341b4bdd70bd5p-3
541332=0x1.e4c30411d2cefp+0
541334=0x1.27855fc16409p-1
541335=0x1.f7c1de1b907f8p-1
541339=0x1.1a01313732c77p-1
541342=0x1.b7e5b92810348p+0
541344=0x1.0df7bfdabe3b7p-1
541345=0x1.f74afddc62189p-1
541350=0x1.14e8bb28d0abap-1
541353=0x1.4bdb37ebf6e2ep-1
541354=0x1.a56a965bbcc91p+0
541356=0x1.063f7a30118ccp+0
541374=0x1.733ad14918637p+0
541382=0x1.5fbcd7445043ap-1
541383=0x1.2d0ad2e6d0b1bp+1
541386=0x1.8c926b94c0673p+0
541389=0x1.3f2a87e38dacdp+0
541485=-0x1.33d861ee9f14cp-6
541506=0x1.4185db30d89dp-6
541566=0x1.8c326bf74b0aap-6
541647=0x1.3a82389b1db25p-3
541666=0x1.3043f772a125cp-2
541668=0x1.5cb455582da97p-1
541689=0x1.2f3aa593898d8p+1
541728=0x1.9fd3ad1b2db92p-3
541865=0x1.9f3984b8a1631p+0
542144=0x1.d0cc35fd95253p+1
542295=0x1.aa9c797b8ba9dp-1
542619=0x1.04e84c9409fa9p+0
542798=0x1.08278b59736cfp-1
543429=0x1.39cf267b0841cp+0
543565=0x1.180950209f914p+0
543834=0x1.fc69a3a6822dcp+0
543996=0x1.906259fc25ce4p-2
544522=0x1.9afec4e6d60c1p-3
544752=0x1.bc0a3c1e3e7e9p+1
545292=0x1.7557fd3bc1c56p-2
547474=0x1.6204503441d6bp+0
547884=-0x1.c2e1673b3c617p+0
547886=-0x1.830b2048bc95ep-4
548046=0x1.d3eb1853034bap+1
548048=0x1.579b0eb78f4f3p-2
548068=0x1.99e87c5595f5ep+0
548102=0x1.f068c2a29326fp+0
548208=0x1.187576b79a4a8p+2
548212=0x1.0627e63078453p-2
548213=0x1.2b14dd1ddd6f9p+0
548218=0x1.10c21bf368324p-1
548234=0x1.edef16dbdb1f5p-1
548236=0x1.77da91dc61fbbp-5
548247=0x1.0bb4640e08351p-2
548250=0x1.15f1cab81159p+1
548259=0x1.58e97bf40e3a7p+0
548264=0x1.386e1cc3c28e7p-2
549666=-0x1.5de32fd3fb575p-5
554445=0x1.8f475dd969c71p+0
554449=-0x1.33f30798ed9fep-4
554450=0x1.391b089c5342ep+1
554457=0x1.48c9e4b658457p+0
554460=-0x1.3208b80bb723ap-2
554461=-0x1.8a53cc529b739p-2
554464=0x1.1f31c1430513cp+0
554496=0x1.53ecad998bd0fp-1
554500=0x1.7a566b8f94cb4p+1
554514=0x1.5497648c5cd61p+0
554526=0x1.25a3391bb0ecfp-1
554530=-0x1.e84ff2b1a1201p-6
554531=0x1.283425694f1e4p-1
554541=-0x1.df0be8f09e978p-3
554542=-0x1.0a3a447b6ca19p-2
554545=0x1.5dd35c70eba5ap+0
554577=0x1.7fe292b81f70dp+0
554581=0x1.f1e44f5154d54p-2
554595=0x1.e5b77e8193f2ap+0
554855=0x1.2ccd017c6c435p+0
554901=0x1.135be9080717bp-1
555255=0x1.2260a36100d44p-1
556232=0x1.a724ea2ae4971p+1
556768=0x1.2bdabfe6bb586p+2
559684=0x1.236798b318b47p+1
561087=0x1.07f95019cb33fp+2
561089=0x1.f633b5aa57d86p+1
561091=0x1.8d9a2a3ad6832p+2
561093=0x1.3edc4c3098a1cp+0
561102=0x1.d0bb91f13373ep+2
561103=0x1.8e82b56d3cd47p+2
561115=0x1.a50dd7ab519b1p+1
561119=0x1.891d1b0560c9ep+0
561129=0x1.fedc31d2c4e1bp+0
561132=0x1.0769ac065a606p+1
561157=0x1.0a4e954c74bcbp+2
561159=0x1.a7c7217bda2abp+1
567648=0x1.4082e5c93e73fp+1
567650=0x1.6d2d4e988a6a8p-2
567652=0x1.11f899712dcf6p+0
567653=0x1.14d8bd7736e7bp+0
567654=0x1.e9132da48dbe6p-5
567663=0x1.9220c90309becp-5
567703=0x1.f261bd66b050bp+0
567704=0x1.118bfedd1df15p-1
567729=0x1.0b28e9fca80aep-2
567731=0x1.80a278c4b4067p-1
567733=0x1.1bca07a980237p+1
567734=0x1.37fc0288868f8p+0
568053=0x1.6bf8862ca117fp-3
568108=0x1.29186ee69ee0cp+0
568190=0x1.e5f121adeab35p-1
568620=0x1.dd91ddef4ae9p+0
569204=0x1.c4555348bf4b7p-3
569916=0x1.3637568140994p+0
572158=0x1.43111bd3f5928p-10
574300=0x1.44840bc9ceecap-1
574867=0x1.26bf1c01b9da3p-1
580932=-0x1.312b679816405p+1
580942=-0x1.6840fa29941bp-3
581418=0x1.852858efd0249p+2
581420=0x1.da8ddaa5dcf2cp-1
581428=0x1.cd0b49d86f552p+1
581429=0x1.02491fd21a475p+1
581430=0x1.0f9a8c0baa21fp+0
581441=0x1.471f010d1e24fp+2
581474=0x1.1283971d50f7cp+1
581580=-0x1.0006b3771bad8p-3
583362=0x1.b93134170454dp+0
583767=0x1.93600516eac45p+1
583803=0x1.6d99434457125p+1
588303=0x1.74f506002114p+1
588314=0x1.055acc85db0d9p+3
590895=0x1.9989160e1f259p-2
590922=0x1.9d49b9941a5b3p+2
590925=0x1.1c09489dba691p+1
590951=0x1.03f484a76788fp+0
594058=0x1.320de25a349f6p-5
594069=0x1.0e74250f00763p+0
594070=0x1.f054fc18e9e72p-4
594080=0x1.bb93d12bf1fc2p-1
594081=0x1.a97627a6eb261p-1
594135=0x1.4d94888e68403p-2
594139=0x1.a0b4bf864b624p-3
594150=0x1.4187cd19b7b27p-3
594151=0x1.5ba291c6890d5p-2
594162=0x1.0c530a7dd3e77p+0
594254=0x1.8717856f677bap-2
594485=0x1.2c85b9d934a75p+1
595610=0x1.681d020b0be8ap-1
607338=-0x1.38e9efc61f472p-3
608067=0x1.bdda192c00219p+0
613909=0x1.0d21da0152f75p+1
614476=0x1.a6ee43e3136bep-1
620541=0x1.b7e95a9c12896p+0
620545=0x1.c0420c0fb3abcp+0
620546=0x1.6a24526a7e9b8p-4
620549=0x1.1c06850bb125dp-2
620552=0x1.89768febee757p-2
620567=0x1.9f36ca623d8ffp+0
620570=0x1.e432dbfd46678p-1
620581=0x1.87679cd621081p-1
620618=0x1.f6c7f33d4f208p-2
620622=0x1.b63f83594e05bp-2
620627=0x1.7ee9e7956775fp-2
620630=0x1.090b6187faa2p+0
620633=0x1.c3c3df4822382p-3
620650=-0x1.86320e932a615p-3
620946=-0x1.8057f4746bbe9p-2
620972=0x1.57173aa223606p+1
621023=0x1.a5f683fbfb365p-1
621108=0x1.498ad7b4d4e43p-1
621270=0x1.3e4c3eeb3a3b2p-4
621274=0x1.cceb376a3cd9cp+0
621299=0x1.28af0aa0fb94cp-2
621513=0x1.65c64a14fe1d6p+1
622513=0x1.abbeab235b61cp+0
623821=0x1.10eec5b62fefcp+0
627183=0x1.d2be798330aaap+1
627185=0x1.83ec2eaaaf638p+2
627186=0x1.4ed1a22d4b57ep+1
627188=0x1.df91fc31b14bp+1
627189=0x1.020ce9597618bp+0
627190=0x1.414d15137b21dp+1
627193=0x1.a2559d28cba52p+1
627201=0x1.55ef4ea935242p+1
627204=0x1.0f5365eb80cf9p+1
627225=0x1.746574c94f3cbp-2
627234=0x1.b98dc52f8e825p+1
633744=0x1.6e6508ac1e7b2p+0
634311=0x1.2b7388f724755p-1
640386=0x1.02598c5be698p+3
640392=0x1.56ababb972848p+2
640394=0x1.35eee08bcabbap+2
640395=0x1.852b553d5d4e7p+2
640406=0x1.07824d39a7d6fp+1
640409=0x1.19411e77d176fp+2
640414=0x1.bec44988e8012p+1
640417=0x1.3225e98e48692p+2
640431=0x1.ac3428afd9381p+0
646955=0x1.b4b7d076c6f2p-2
646963=0x1.982436461d7dp+0
646979=0x1.fd2e66eff84b6p+0
647028=0x1.1867fdac2e1dfp-1
647036=0x1.4ab913c75df1ap+0
647044=0x1.e149f6913e4cap+0
647060=0x1.6d11625d31303p+1
652779=0x1.5faf2991ec99ep-2
653589=0x1.6f541dd228014p+2
660150=0x1.fd0f42f5e5374p+0
660152=0x1.bba81622ab16bp+0
660154=0x1.47d16e17ac76bp-3
660179=0x1.bf0dbb0801616p-5
660206=0x1.06917efd3748dp+0
660231=0x1.de97b1ef33397p-1
660235=0x1.f11dacb0c65a1p-3
660393=0x1.b9632638940aep-1
660636=0x1.10e236cf0e5e1p-3
660960=0x1.5b617464336d5p-4
661122=0x1.4c946f75235a5p-9
661124=0x1.1a77514113bfep-2
661203=0x1.0b01bbc8e9abdp+1
661313=0x1.5fc7b5b5e069ep-4
662013=0x1.5ce1a91e256cp-6
662418=-0x1.ab7d7b2c2e168p-4
662580=0x1.053a87773ab24p-1
662600=0x1.02a6e0f707fdbp+0
662661=0x1.61bc1a36c1029p-2
662985=0x1.5245375de837fp-1
663309=0x1.ef13b0265f2c8p-3
664200=0x1.e2e045d1a57d5p-1
666792=0x1.0cc0d226b14e9p+2
666815=0x1.41d58c9be0babp+0
666820=0x1.0bc92656c5d5cp+2
666843=0x1.b99b375bd632fp+1
673353=0x1.40cc6f5039781p+0
673357=0x1.87f75daa37de3p-7
673368=0x1.824679e0b71b6p-9
673370=0x1.2c2905ee1df55p+0
673378=0x1.16347df40e353p-2
673438=0x1.5685a6e9e3e56p-3
673444=0x1.986a7090baa4ep-1
673449=0x1.0e3b5dc8d0662p-2
673459=0x1.beffadc8f40fcp-2
674325=-0x1.550e866e564f8p-4
674573=0x1.0e98bbcf18c33p+0
674649=0x1.b60a16ee93639p-2
674909=0x1.e420b436695dfp+0
675621=0x1.0c473e07df08bp+1
675864=0x1.e9f2eda19ac8ap-9
679995=-0x1.1972c05f8a102p+1
679997=-0x1.67ee21653d205p-2
680003=-0x1.fdd4847a76a75p-3
680014=0x1.9f4673fc2f3d1p-3
680051=0x1.1fcb42c790116p-1
680157=0x1.32115c5b39131p+2
680159=0x1.3ec4f4393b8dfp+1
680167=0x1.cbaf0ef67ff97p+1
680171=0x1.66047ba149428p+0
680175=0x1.28ec42abdd6cap+1
680213=0x1.60fa58e8c0eeep+1
680319=0x1.9d63ded9715bap+1
680323=0x1.ae346688d7cf8p-2
680324=0x1.32f436b508dfbp+0
680329=0x1.4259e6d3c75d8p+0
680338=0x1.3be925874cf2cp-5
680339=0x1.4127b9d3595bep+0
680340=0x1.996d672b8bd6cp-1
680342=-0x1.3c39fd345f3fep-3
680345=0x1.a15ec4a5fdc1p+0
680347=0x1.34b6f90ac04cbp+0
680361=0x1.34a43c0eedbfep-3
680370=0x1.4173857734dd6p-8
680374=0x1.36424fc6ad669p+0
681210=0x1.88ede92d60d02p+1
681220=0x1.0686b03358f75p+1
681291=0x1.3eb036c773f5p+0
681315=0x1.a9899b369ae02p+0
681322=0x1.f53121289ccdp+1
686556=0x1.24f7a1fbfb724p+2
686560=0x1.53a89ba752e4p+2
686566=-0x1.a8904d5c4c4aap-1
686595=0x1.c723fce75c229p+1
686598=0x1.75982294e27f2p+2
687528=0x1.6cfbcc7b9729fp+1
693117=0x1.721b57c95bf72p+1
693119=0x1.78522f318ddcp-5
693125=0x1.7a38e95894456p-3
693126=0x1.97892386f326ep-6
693133=0x1.b8d531bc64cd3p-3
693173=0x1.8dee84ef3fe99p-3
693198=0x1.4304be65f3639p-1
693200=0x1.924d71cdd074p-3
693206=0x1.c8b7b50c6a4b5p-3
693207=0x1.1386add389b2bp-3
693211=0x1.a769ae2e3853p-1
693213=0x1.119dae2ce4a6p-4
693214=0x1.8159bcecf5f9bp-3
693220=0x1.15e61e6d4b399p+0
693927=-0x1.8c0c1abdcd5fap-3
695061=0x1.63eec59d2b3ddp+0
695603=0x1.49dad7cf48e01p-2
699759=0x1.eab0c025d97b9p-4
706401=0x1.6a3638333b42cp-1
706409=0x1.e454655cd201bp-2
706482=0x1.3eff93f90e263p-1
706490=0x1.5cfcddae877fdp+0
713043=0x1.1d60d8d7368fdp+2
713044=0x1.0ba5f1375258ep+0
713045=0x1.a395bfd6042d3p-2
713047=0x1.cf544b7d0ca9p-6
713051=0x1.1b9e968ea65bcp+1
713056=0x1.0f66355c49f95p+2
713059=0x1.13ba7906ff0efp-6
713065=0x1.c658a6bdb589p-3
713066=0x1.2416fdca8fd33p+1
713075=0x1.df23f083eb603p+0
713092=0x1.160cfd7a96c8dp+1
713105=0x1.40fe324d04aaap+2
713117=0x1.f6ec88dd9e851p+1
719604=0x1.a7c4a83f68a7ep+0
719616=0x1.928d66dcceca2p+0
727137=0x1.63df9a2de3d5fp+2
727160=0x1.d0b4ac60a03f5p-1
732726=0x1.3cac7d6f89678p+2
734103=0x1.bf358c6b20a96p-2
739368=0x1.2be6f2c60df3cp+2
739373=0x1.324b21bf7e06ep-2
739378=0x1.9164f792ac943p+0
739399=0x1.1ea7795685829p-1
745929=0x1.1178b45049ad5p+1
745933=0x1.a413ed073eff9p-5
745934=0x1.69afa20bd37a8p-2
745971=-0x1.9727637a289ccp-7
745978=0x1.318fe646acc39p-2
746014=0x1.ae781319ec705p-1
746038=0x1.025e9ddfbaed6p+0
746052=-0x1.a9f230f229decp-11
746059=0x1.3b45edaa1d04p+0
746901=0x1.23bbc0d0a184ap-2
748197=-0x1.df3f56fef10a7p-2
750546=-0x1.393cb41ec961ep-6
750551=0x1.d5949dac47945p-2
752571=0x1.c8c5daf75951cp+1
752579=0x1.3e01f00ceaf37p+2
752584=0x1.aef42c5dcb1p+1
752587=0x1.5b9aecc75ed1ap+0
752623=0x1.1ce70d68e5109p-5
752624=0x1.884c0e524d497p+1
752628=0x1.cb40311ca4ee4p+0
752633=0x1.cc21b43e6ecf4p+1
759132=-0x1.5f13c4b135bd1p+0
759780=0x1.e64f5260229d1p+2
759785=0x1.f85239b0e199cp+0
759831=0x1.736e271ce7f56p+0
765693=0x1.3a5262eb51662p+1
765702=0x1.f1d583f87bff3p+0
765716=0x1.c2633b1b02d3cp-1
765774=0x1.d3e7cbaba1416p-2
765783=0x1.72c4bded9c2d7p-3
765797=0x1.26526795cb9bdp+0
772335=0x1.c848dd00aa365p+1
772416=0x1.1920a3c9c1eb6p+2
778977=0x1.46ef050f4dea6p+1
779058=0x1.0250c5507254cp+0
785619=0x1.2856a92a4ec62p-1
786348=0x1.7e280a721d688p+2
788616=0x1.5f217b32a8deap+1
792180=-0x1.5ea6e0846d4d6p+0
792188=-0x1.1f10a2ebdd244p-1
792666=-0x1.8e1e19ac91731p-4
793152=0x1.73e777366daacp+2
793154=0x1.dc3b5c9fafc6ap+0
793158=0x1.4c07bb48075cp+0
793160=0x1.01a14a754c713p+1
793161=0x1.1d9c93bcb5d2bp+1
793175=0x1.bc15d5a71219ep-2
793195=0x1.4effdd7e4b64dp+1
797283=0x1.b7d5aa8962e84p+0
798741=0x1.60964181b74dap+1
798745=0x1.ee696041a1d73p-2
798746=0x1.582e9cb8cda53p-3
798747=0x1.86b277e543f81p-2
798750=0x1.acbf181080cbdp+0
798758=0x1.b41698348850bp+0
798783=0x1.cacf160934f94p-1
798790=0x1.3b46bf010c945p+0
798821=0x1.e8b359636afdep+0
798822=0x1.769f4496490b1p+1
798826=0x1.67385c6ca3baep+0
798827=0x1.a236fb5333a25p-2
798828=0x1.4514980cdb9f2p+0
798831=0x1.7186a1785e56cp+0
798839=0x1.2d620b7e1f178p+1
798864=0x1.e9b07ac57d314p+1
798902=0x1.5cf55bef12cbcp+1
799308=-0x1.1621b8cba60dep-2
799317=0x1.b9270e45afe8ap-1
799470=0x1.107e20a9337a8p-1
799479=0x1.78ef939bd8175p+0
801252=0x1.4c5e1146eeafdp-1
802791=0x1.41c9c1f6f276dp+0
805383=0x1.227e8d1cdf2d1p+2
805385=0x1.0ae903f16cc43p+2
805387=0x1.da20021e8fe1fp+0
805388=0x1.2d7e3e33bf3aap-8
805389=0x1.452afeec02eefp+0
805390=0x1.18710a7677b81p+1
805391=0x1.1b60f39c8ea4fp+1
805398=0x1.f32c861488131p+1
805399=0x1.085f910d45c84p+1
805401=0x1.9fa8051984e56p+2
805405=0x1.44de0f4ba971dp+1
805410=0x1.02ecb9f2ff75p+1
805411=0x1.d6c34af7ea852p-1
805414=0x1.bee4c4917da24p+0
805421=0x1.6d12fc82122e9p+1
805424=0x1.d2bb279f29546p-3
805429=0x1.3cf33b8238f77p+1
805440=0x1.425e9849f3facp+1
811944=0x1.7ebeffb1645e1p+1
818505=0x1.c92e89ff6be73p-1
818586=0x1.ce9b09619a031p+1
831789=0x1.784e728120182p+2
844917=-0x1.d158c5bd49165p-5
844929=0x1.1ffd68b17651fp-1
844941=0x1.cd4f2d96c3826p-1
844953=0x1.1c21020c357d1p-1
844992=0x1.7fe3ad54b075cp+0
845358=0x1.cf5a2c7e890a7p+0
845380=0x1.3480c65db1828p-5
845403=-0x1.140eddcc189f6p-7
849477=0x1.a4b7ad7d93bc5p+0
851553=0x1.e187196b5d7c6p+0
852444=0x1.c3f55f705e0a2p+0
858114=0x1.401ba7d5f3c39p+1
858126=0x1.ae551a2d13fd6p-2
858135=-0x1.d37d394e91733p-5
858163=0x1.a62cebe109f93p-1
858195=0x1.9259e5f26573ep-3
858207=0x1.c997488186303p-1
858244=0x1.fa366c8dbc42bp-1
859248=0x1.ce3ef2fe88ff9p+0
862812=0x1.ffeb6a1feca54p-1
864756=0x1.24c4a4c0e0143p+1
864768=0x1.834f5320ed3p+0
864837=0x1.47929eea26dc9p+0
864849=0x1.117da7391211ap+1
865809=0x1.90bb521986fe3p-1
866538=-0x1.56cf45bf0633bp-5
871398=0x1.209b966be40f7p+2
871402=0x1.f7dd624aa0d96p+0
871410=0x1.0c8b78a8bd9e4p+0
871426=0x1.3d4e80f76a9bdp+1
877964=0x1.29ce59a573747p+0
878045=0x1.8cb4465e3df8p+0
885249=0x1.1c13f9a362ec4p+2
891188=0x1.5a3e58f066dc7p-4
891243=0x1.374c79027c1fp+0
891593=0x1.c36a8a77430d8p-4
897810=0x1.d297e4029a5e4p+0
898215=0x1.d4fb59fe3ef68p+0
904446=0x1.68a338dd0af39p-2
904932=0x1.8f1cd53cc2f36p+1
904940=0x1.f5f58de02a413p-1
904941=0x1.01ff9d507b734p+2
904951=0x1.b95b058ad9c82p+0
904955=0x1.84e153e8648b2p-2
911007=0x1.6179d39ef4332p+1
911030=0x1.ba275dd11cebp-3
911063=0x1.220b6faff4428p-2
911088=0x1.a7336479c8e13p-2
911111=0x1.93db06aff6f15p+0
911736=-0x1.f32b3b062b497p-4
911792=0x1.6e0e03f4d00a3p+0
912303=0x1.3cef041f26827p-1
915057=0x1.22dfd82d67cdap+1
917649=-0x1.424af13f51fe3p+0
918702=0x1.51c07240dd667p+3
918710=0x1.28afba80c734fp+1
930868=0x1.c620ea3f65f41p-2
930949=0x1.db4f6cefc5fep-2
937860=0x1.9a2c0d914933ap-2
938724=0x1.33cb4f16e99dbp+2
938814=0x1.269acefd3cac4p+1
950616=0x1.658c3f3cdc3eep+1
957177=0x1.273779f6423b7p-1
957183=0x1.90f5a81a8c0dap-1
957258=0x1.376cb2adc300fp-4
957264=0x1.024ba18ccb8eap+1
963819=0x1.1e1c9cd3a0fa9p+1
963821=0x1.0e58d080cdcfap-2
963823=0x1.ea0c39c2638f5p-1
963824=-0x1.fb337b45bf8c3p-8
963827=0x1.4fe5477449d2ep-2
963838=-0x1.fe74723282a01p-4
963845=0x1.86ca4de6c6aa4p+0
963874=0x1.204192c04c95ap-3
963880=0x1.02db96201374fp-1
963900=0x1.528824c856da3p+0
963902=0x1.428a681a4e6ddp-2
963904=0x1.7045c81b09086p-1
963905=-0x1.2139897cd847cp-7
963908=0x1.8649095e6d0ap-1
963955=0x1.19ff8660a0903p-2
963961=0x1.5b6c87162f87fp-1
964250=0x1.4057c06d38da6p+1
965375=0x1.dda509c11fa6cp-4
968440=0x1.d0f2f638bdaa1p-1
970461=0x1.42ef72978aacp+0
970464=0x1.86f1a2211d809p-4
970542=0x1.8c58141873717p-4
970707=0x1.a2c8226ccd3dfp+0
977103=0x1.bf7bce82db19ap+2
977110=0x1.434ac0cfb8273p+1
977111=0x1.bf7e9e1eb6459p+1
977116=0x1.57369651dd863p+0
977122=0x1.1956c96f07cdap+0
977126=0x1.d334ca6fab3b8p+1
977131=0x1.d8d9073244419p+1
983664=0x1.e840107266a95p+1
983679=0x1.34f6ca605e5e6p+2
990225=0x1.1aa08dead09a6p+1
990227=0x1.a24d2910f3819p+0
990254=0x1.5a51cd3c48197p-2
990281=0x1.ffd3beba4717p+0
990306=0x1.3b05da1278f17p+0
990308=0x1.befcfafa8fa58p+0
990362=0x1.1396e99d0e40bp-1
990468=0x1.6213bb0fca15bp-7
990524=0x1.07cc44160b2a7p+1
990630=-0x1.560c28f932153p-1
991035=0x1.18f0df725eadcp+0
991197=0x1.76017f07baf54p+0
991388=0x1.4cb303e1b08d1p-1
991440=0x1.4876d1d446519p-1
991845=0x1.8d7f3265fa101p-1
992331=0x1.1dd4e35d2382dp+1
995652=0x1.a92a42f413947p-1
996867=0x1.35812fe926b6ap+1
996869=0x1.30949dbc5153ep-6
996876=0x1.564acfde35cf3p-3
996879=0x1.e51ee12b47dap-2
996883=0x1.6f80e0fa159f1p-1
996889=0x1.17f70d3708146p-1
996893=0x1.7ff99fbf8578bp-2
996915=0x1.52261f70f432cp-2
996948=0x1.90ce5df2854ccp-1
996950=0x1.99f96c6a0b297p-1
996957=0x1.54cb876e656fp+1
996960=0x1.53e043e9a37e7p-1
996964=0x1.e8e1c57ee4619p-1
996970=0x1.fc565fe9f0d1ap-1
996996=0x1.67bdf5cd90c78p-1
997110=0x1.bd79dadc2c039p+0
997298=0x1.d571f82725444p+0
997764=0x1.082c8c2457c0cp+0
997769=0x1.958a935a111edp-2
998001=0x1.29e3c88500fc1p+0
1001565=0x1.290deb424f97cp+0
1001970=0x1.1a13cd254d55p-1
1003509=0x1.bfa079b289d0bp+1
1003510=0x1.e8d5ab85fe2e8p-4
1003511=0x1.2bfe12828bee5p-1
1003513=0x1.2b840d03ce6dap+2
1003514=0x1.9f98aa2bcd15bp+1
1003516=0x1.cb315dc0ad823p-1
1003517=0x1.dbaedb2147132p+1
1003522=0x1.18ec4ec76411ep+1
1003525=0x1.6a5028d2e1c8cp+1
1003527=0x1.8ee0a246397a1p+1
1003537=0x1.8567e9ba4f9bap+0
1003541=0x1.ee7038b6ea3e7p+0
1003550=0x1.d3713151fe274p-1
1003560=0x1.7997d4499fc19p+1
1003564=0x1.d6c4c3f0a06d4p+0
1003576=0x1.7775d35ea5cdbp+1
1003578=0x1.541b5e14233e6p-1
1010070=-0x1.e2fddc86a92d1p+0
1010089=-0x1.e0d7f8a3cfeb5p-4
1010232=0x1.26c34a60ddc27p+2
1010242=0x1.faf9a7c16cb3p+0
1010250=0x1.0301b4832852ap+1
1010251=0x1.163f18361306cp-5
1010252=0x1.ff83ba28cf0ddp+1
1010283=0x1.2fa9181552f6cp-3
1010394=0x1.49eb847737181p+1
1010399=0x1.365085e950a12p+0
1010404=0x1.a7641d404b4d9p-1
1010414=0x1.c7c5fb7be147ep-1
1010417=0x1.0154d351e0b75p-2
1010420=0x1.a390ff5a23bep+0
1010422=0x1.36ecdbde132d8p-3
1010436=0x1.1fb2b4e994a7fp+0
1010444=0x1.67abce795fcbfp-1
1010448=0x1.ffa4e8dee1aabp+0
1010449=0x1.a736c4c43fa6p-1
1010961=-0x1.62bc01d0e611dp-3
1011285=0x1.0d1d1041fc6e3p+0
1011366=0x1.eec47e2086e12p-1
1016631=0x1.4213659ee42b8p-2
1016712=0x1.3e9cf45a4fc04p+0
1023273=0x1.874b15b1f8dacp+1
1023316=0x1.c4504fc0c02b1p+1
1029834=0x1.38fb89fe7f9dep+0
1029838=0x1.92fff2b2e7e5p-6
1029841=0x1.3490644a9a19cp+0
1029860=0x1.ecfc9dcc0f01ap-2
1029888=0x1.0730acf212b5bp+0
1029915=0x1.1d5e7241f7be4p-8
1029919=0x1.4ef484789e117p-1
1029922=0x1.da6a06c26863bp-2
1030239=0x1.42226c49d3b2ep-1
1030246=0x1.a374a0640275bp-2
1030265=0x1.a5ae49c02d87ap-1
1030293=0x1.5cbfbcc87c9p-3
1031211=0x1.bab488127f06dp+0
1032021=0x1.84ac9bdfb8d87p-1
1032028=0x1.4d9396810974fp+0
1032156=0x1.79a6fbd69097ep+1
1036476=0x1.1d0de57c7a979p+1
1036557=0x1.ebc5ecc5de8e3p-4
1037043=-0x1.f71cc506af3d7p-4
1038987=0x1.e3abfdce140e6p-3
1043118=0x1.bbdf78cb2ff6p+2
1049679=0x1.8201c13312362p+0
1049695=0x1.4e3a5f79892b1p+1
1049760=0x1.db63ac2119297p-3
1049776=0x1.e7134c1075137p-2
1051056=0x1.0b984c97af3bdp-3
1056321=0x1.e1de43dd25994p+0
1056402=0x1.76d0221b9abe8p+1
1057698=0x1.89de53bc0e82bp+0
1062963=0x1.9c8745c57065cp+2
1062979=0x1.4e7e02f0dbaep+1
1069524=0x1.b3eaf3c1e009p+1
1069533=-0x1.206b466bda604p+0
1069540=0x1.2f350f910e893p+2
1069561=0x1.52b0c30b77a44p+1
1069586=0x1.7ab0af719768ep+0
1076085=0x1.8daff22c23a95p+0
1076087=0x1.0c2836f68bd64p-4
1076089=0x1.4e54efddb4661p-1
1076166=0x1.24b5051eb74fbp-6
1076168=0x1.19312690e9e3bp-4
1076170=0x1.7b29ff614c6d3p-1
1077462=0x1.9a489779a8371p+1
1082727=0x1.6b00d21b328fap+2
1082787=0x1.08294bd42f214p+2
1082889=-0x1.405bdfd8ca46bp-1
1084509=-0x1.39da90b545b84p+0
1089288=0x1.8ff21f564236ap+0
1089292=0x1.f0959eec63c3cp-5
1089369=0x1.b465925e9167ep-4
1089373=0x1.22194f9a3493ap-2
1089531=0x1.032342b649112p-2
1089612=-0x1.f32654be5b328p-4
1089693=-0x1.31cc5623d9788p-5
1090584=-0x1.817617569a401p-2
1091151=0x1.f34f69ac8969ep+1
1092933=0x1.f9876d2991d92p-1
1093257=0x1.dbcd666402e96p+1
1093338=0x1.c19f856cb559bp+0
1095930=0x1.b66e8ee0459a9p+0
1095935=-0x1.759d818195e0ap-3
1095937=0x1.692899a959216p+0
1095944=0x1.af84738fb3953p-2
1095984=0x1.c5da5684eec43p-1
1095993=0x1.45dab8d5acca7p+0
1096011=0x1.1e025d0b676dfp-4
1096018=0x1.9e2205c633198p+0
1096074=0x1.a571dbbcf0836p+0
1096180=0x1.f4b68ca306accp-3
1096187=0x1.58f0d2c6c9cadp-1
1096335=0x1.046db2ce1141dp-2
1096342=0x1.8db91321fad0ep+0
1096909=0x1.36ac9b0691fdcp-2
1098205=-0x1.fe0f53fbdb22ep-2
1098252=0x1.574db1a7e2b45p+0
1098441=0x1.9421ac3799ac9p-1
1100568=0x1.397fa5b4bc21p-2
1100790=0x1.70ccc4ec3144ep+0
1102590=0x1.0dece316dcd6fp-1
1102671=0x1.0b3e922ea9ddap-2
1109214=0x1.fff978f8cc9b8p+0
1115785=0x1.dd371fd652bc6p-1
1115817=0x1.fd0dd1952f513p-1
1115866=0x1.a7af412d15b38p-1
1116222=0x1.ec299fe554b8ap-2
1117243=0x1.89cdf5802ae2dp-1
1122417=0x1.5fef6688d1325p+1
1122428=0x1.853f759ec7c5ep+0
1122433=0x1.6811d5c8c862dp+0
1122434=0x1.d62bcd300997ap-3
1122444=0x1.5d36a684d0c9ep-1
1122498=0x1.ac01e1bb03f21p-2
1122509=0x1.2d19c0fbe89ep+0
1122514=0x1.b24c6d908fc78p+0
1122822=-0x1.60c97592afe46p-5
1122849=0x1.2a53d6c5200b3p+1
1123227=0x1.27903fd9cff25p-1
1123973=0x1.91d8aa47e8cddp-1
1124205=0x1.bf11bf20999cap+0
1129140=0x1.8790d8d633ef4p-3
1130031=0x1.68b5190127bd7p-1
1131327=0x1.1e7391c466a36p+0
1135701=0x1.cd551fb343fc5p-5
1136592=0x1.3fa23303d2b4fp-2
1136594=0x1.0e71cde9a285fp-2
1136620=0x1.17be90c542a99p+1
1140966=0x1.7b733c982fd7fp+1
1142262=0x1.713b67e16ae1ap-1
1142287=0x1.2a1d41b030543p+0
1142343=0x1.ba1a7958220ddp+0
1142368=0x1.4f56eaf68cf15p+0
1148904=0x1.4dcdb30bedf13p+1
1155546=0x1.41d564ea562edp+1
1162107=0x1.3909f6c2e3f9p+2
1162115=0x1.0c041a1a28161p+0
1175310=0x1.8db740bf4ba62p+1
1175318=0x1.1e646969ddf08p-1
1181871=0x1.4f70303df67f8p+1
1181952=0x1.22baa80a3e204p-1
1182843=-0x1.86e80334ed287p-7
1184139=0x1.5a624c3235df9p-6
1188513=-0x1.b9fc5fd76624ep+0
1189161=0x1.ec15ec42ad65fp+2
1189189=0x1.b46f9c0aee6efp+2
1195074=0x1.56761d5fdc40fp+1
1201716=0x1.4da2299b8917dp+2
1201721=0x1.12b47680a479cp+0
1201722=0x1.115f903ca7c4p-4
1201724=0x1.4199d88ee1d55p+1
1201728=0x1.22ce5ffaf965ap+2
1201735=0x1.b643103dbeb1ep-1
1201736=0x1.1d078aa05ef1ap+1
1201739=0x1.e975a2a99e25p+0
1201757=0x1.52502f729146fp-2
1201766=0x1.545c103690a5ap-1
1202364=-0x1.b9cb28e452081p-2
1208277=0x1.452896820891fp-1
1221480=0x1.06a227307aa52p-1
1221561=0x1.b3111ed56fb09p-1
1234683=0x1.201602002ef71p+2
1235007=-0x1.9369a6983da0ap-3
1241248=0x1.b2f6655a5c761p-4
1241329=0x1.4a72efbe0cd8ap-3
1247886=0x1.9b69e3e2f98fcp-1
1247894=0x1.4b74a245d050bp+2
1247899=0x1.ab3ebb8bf9c46p+1
1247911=0x1.2491e3b2dca83p+1
1267731=0x1.66dbc01d76d76p+0
1274373=0x1.9f5c474f9b367p-1
1280934=0x1.a25b54624ad7fp-1
1280944=0x1.47e13e3394b6bp-3
1280966=0x1.d61a37b4be732p+1
1287495=0x1.76c751754993ap+2
1307259=0x1.7964ef93b4d0dp+0
1307275=0x1.86ba7e4791c0fp-1
1307356=0x1.b032e9c8179b8p-1
1313982=0x1.63111e04c5926p-1
1320543=0x1.1d4f44e14ccaap+2
1327104=0x1.7676428c23c47p+1
1341603=0x1.268956379a16bp-2
1346868=0x1.2ce549f771052p+1
1353437=0x1.888c0b458068bp-1
1355535=0x1.72edb72773bc2p-4
1357487=0x1.0ad8600a5cde3p+0
1360071=0x1.9613ed58474ffp+1
1374165=0x1.fdf74a5eed6b3p-1
1379835=0x1.e937b906301a2p-1
1379921=0x1.62fb43da0763p-4
1380240=0x1.091ceed1cfb02p+0
1381131=0x1.0bf63ce1338c3p-2
1386495=0x1.388a3e7512b87p+0
1386576=0x1.1d49b35ecc888p-3
1386738=0x1.dc895e450c5e9p-2
1394594=0x1.066d9b6f44f28p+3
1401057=0x1.4407f52062f4cp+0
1406241=0x1.433501cf22cefp-1
1406243=0x1.97133827a15f8p+0
1406322=0x1.41a98e8315788p-1
1406324=0x1.9f70972701ecdp+0
1412883=0x1.3343274004fe2p+2
1419444=0x1.1bb5fbba92c85p+1
1419467=0x1.245ee7c71fe2cp-1
1419525=0x1.b1d1d84f6e62fp-2
1419534=0x1.a67ac48018b68p-1
1419548=0x1.fa036f0052e26p-1
1419556=0x1.e7049d923dac8p-2
1419566=0x1.351558e4fc3dbp-1
1419849=0x1.d6a1eee3958ddp-5
1426086=0x1.405cf0086ea5ap+2
1426099=0x1.5484322651692p+0
1426105=0x1.2c9bed24719dcp-3
1426109=0x1.a033ea122e5adp+0
1426114=0x1.08791d319ffc8p+2
1426131=0x1.efa4fc1b78ccp-5
1432647=0x1.77ad19caab385p+1
1432728=0x1.c6afc1858309dp+0
1439289=0x1.035ee748434a2p+1
1439291=0x1.1596f73f318c1p-2
1439295=0x1.f48434dc4b84ap+1
1439297=0x1.4dd084027f5f9p-1
1439301=0x1.d6e1d43b19644p+0
1439314=0x1.44280e5cbfc07p+2
1439320=0x1.bfdc3c5820b3cp-1
1441565=-0x1.09377296c6918p-4
1445850=0x1.a1985acb1c983p-5
1445854=0x1.57f85c98d4a6dp-4
1445906=0x1.8fec931ee4166p+0
1445931=0x1.641536074fap+1
1445935=0x1.6c321a847f89ep-6
1447470=-0x1.4f48b6b6e10a3p-8
1447794=-0x1.425f633290085p-1
1447850=0x1.6d8df8d8d2627p+1
1465695=0x1.16c09206fbd3dp+2
1465776=0x1.bf0795259388dp+0
1467153=0x1.0daf21d9786fp-2
1472337=0x1.47de757d2f824p+2
1472350=0x1.6b8b30f3122d1p+2
1472386=0x1.987a619c5f8d7p+1
1478979=0x1.13507e6f63d0cp-3
1479028=0x1.da293715a6e8dp-1
1485540=0x1.b981dfb21f7f5p+1
1492101=0x1.0468be6728e94p+1
1492102=0x1.9e421602e57dep+0
1492105=0x1.a492da0e9ddc4p-4
1492129=0x1.65308395f816ep-1
1492146=0x1.7b91af3841bd9p-1
1492182=-0x1.08e2020eadfadp-6
1492183=0x1.184d0a23258cbp+1
1492186=0x1.b12341cdd2bb2p-3
1492220=0x1.77e63ad1e1c45p-4
1492227=0x1.aca1b8969827dp-1
1492534=0x1.3e39f92adf609p-3
1492668=0x1.cb1ec809c40ap+0
1498743=-0x1.2978d2dc5daep+1
1498771=-0x1.a2806d171cec3p-1
1500363=0x1.1e45f575b846ep+3
1500365=0x1.d8c81c642e0f8p+1
1500391=0x1.4c8c7c16f0adfp+2
1500408=0x1.8d145b6264b3p+1
1505304=0x1.8f104a4be263cp+1
1507815=0x1.722f1cc569d7cp-1
1507896=0x1.24f14f6de71e1p+1
1511946=0x1.a56b2b5bc9229p+1
1511948=0x1.c8d1552ffd5a5p-2
1511950=0x1.5191b44055d28p+0
1511957=0x1.0e1518bb34cddp-2
1511963=0x1.00ffa0edb9274p-2
1511969=0x1.0fff6910aa64cp-2
1511977=0x1.124d652a0797cp+1
1512027=0x1.531a27666dba5p+0
1512029=0x1.01d9401de8bbep+0
1512031=0x1.a6931b410530ap+0
1512038=0x1.639c7cc447213p-2
1512058=0x1.6c4ff8488db59p+1
1512351=0x1.5703610ea4991p-3
1512374=0x1.43b27065d0812p+0
1512999=0x1.2b331711f84a8p+1
1513404=0x1.b7297d0a295f9p-4
1513502=0x1.09d798872d20fp-1
1514538=0x1.ca8c4b0d6adfap-1
1518679=0x1.b6adc1455233fp-5
1525230=0x1.a47ee28f374e7p+1
1525235=0x1.7664f14dd222ap+1
1525240=0x1.05c3853ba057bp+0
1525258=0x1.709aa28ce0eb1p-3
1525271=0x1.9b9d156c49c3fp+1
1525281=0x1.a87b27ee0cb5dp-3
1531791=0x1.2822039fc877dp+1
1531795=0x1.b6d1dffbb644bp+1
1531797=0x1.328fc57cf9bd2p-1
1531801=0x1.1da526695000bp+1
1531802=0x1.a8ec8a22e4412p+2
1531806=0x1.bb9684798f7ddp+1
1531807=0x1.ef5b09f73e7c3p+1
1531813=0x1.d33cbb8ef59c2p+1
1531818=0x1.60c32429a53fp+2
1531823=0x1.391f5112b78b1p+2
1531829=0x1.bbd777f0d8ddap-1
1531833=0x1.7e421cfb2c296p+1
1531839=0x1.44c0d51127ba4p+2
1531840=0x1.85ed08869fcb6p-1
1535220=-0x1.5b2885ed076c2p-2
1539243=0x1.4b93c75bf404bp+0
1544913=0x1.8889c5a775153p+1
1544915=0x1.14ca456d23f01p+0
1544917=0x1.851cef41fe87p+0
1544940=-0x1.d18a036107ab3p-3
1544948=0x1.34f55a0dfd7c3p+0
1544969=0x1.24c0cd128f4b9p-1
1544996=0x1.3cc1d21cb208cp+0
1544998=0x1.c402536cccef1p+0
1545029=0x1.b31aa443f6c3fp+0
1545318=0x1.24910591ca25p-2
1548452=0x1.08718b0000f33p+0
1552371=0x1.941a564028598p+1
1552376=0x1.cc00be734f93ap+2
1554508=0x1.01bcfa9599fc4p+2
1554984=0x1.8b1ab6dc39745p+2
1554987=0x1.57481cc9b137ep+0
1558116=0x1.3eefdb4c05975p+0
1558122=0x1.834a5bb964f0cp-1
1558197=0x1.7f6b3c426ca2ep-1
1558203=0x1.bb59d84871be1p-1
1563867=0x1.065a1f35b42dfp+0
1565406=0x1.405ac0aea7fbap+2
1565408=0x1.ace5ac995b334p+0
1571319=0x1.61acf01c4b034p-3
1578609=0x1.38734aabb577cp+2
1584522=0x1.32d78a0969849p+1
1584524=0x1.6a2926d307d9ep-1
1584526=0x1.6921a60b504a1p-2
1584578=0x1.3e9494d3b428bp+0
1584603=0x1.ad9f28e734fdp-3
1584605=0x1.da146b00d5a71p-1
1584607=0x1.196989ee30638p-1
1584927=0x1.503cee54c2f21p+0
1585145=0x1.2258867c8578p-2
1586036=0x1.04b3fae25bfffp+0
1591164=-0x1.09a05a6d0a5fp+0
1591169=-0x1.4a696d360b248p+0
1592136=0x1.29d6b510dc35dp+2
1592865=0x1.88538fc5ad3f7p+2
1592870=0x1.2992f745af0e5p+2
1592871=0x1.99dbe5d9be434p+2
1592916=0x1.31c6c32a7ea2dp+2
1596267=0x1.8b3228dabc487p+1
1596322=0x1.24bc52a07d8b7p+1
1597725=0x1.51bed20fde81bp+1
1597745=0x1.dc8eee2e7df3dp+0
1604286=0x1.4fc4315783e0dp+0
1604293=0x1.0dd69c40bbf55p-3
1604357=0x1.807e1b46a7ff5p+1
1604367=0x1.7136708e74cbfp+0
1604374=0x1.01dcec63c5d1ap-2
1604438=0x1.9098aa3f338b9p+1
1610928=0x1.c774611d8c443p+0
1610935=0x1.461f10f424e5p+1
1616679=0x1.747c45c6e6de6p+0
1617489=0x1.741b85ecfd578p-5
1617570=0x1.e85f66ae110d8p-2
1624131=0x1.4347a09847fc2p+0
1624536=0x1.9ddc832ee1bccp-1
1625103=0x1.4ef0674c14269p-4
1625346=0x1.56d155e390699p-2
1628343=0x1.e71857021feebp-3
1630773=0x1.1267c3f377e36p+2
1637334=0x1.23f8bce8735c8p+2
1637338=0x1.6d79653ef683dp+0
1637344=-0x1.2824a81fc8bfep-2
1637361=0x1.973fa7d6ece4ep+1
1637376=0x1.86fa59667a3e3p+2
1637388=0x1.9fd887de7b3a1p-1
1637397=0x1.89683e0fdd1fbp+1
1643895=0x1.fbeb7840bb65ap-2
1643976=0x1.35df83d3cd729p-2
1650868=-0x1.214dc34fa90c5p-2
1654432=0x1.6599fa0628cf1p+1
1657098=0x1.2530a6e0bebbcp+2
1657100=0x1.54d4c8316a4bep+2
1657102=0x1.c8663deeb181ep+2
1657422=-0x1.48fd3e3329a67p-5
1663659=0x1.eed58d67ddb6bp+0
1663660=0x1.433699f2a221dp-3
1663663=0x1.0721bbfb144bap-3
1663664=0x1.cf40ebbfa728dp+0
1663665=0x1.973a692014f88p+0
1663667=0x1.5eaf916688e94p-1
1663671=0x1.342c165c16e14p-1
1663707=0x1.4f441655e588p-3
1663709=0x1.f2b7c64081fd7p-2
1663740=-0x1.ba5fdef3a7d3fp-2
1663741=0x1.da144928157e4p-3
1663744=0x1.977ebe018c4a1p-2
1663745=0x1.b463dc3eca9e5p-1
1663746=0x1.7ac18cb9ee52cp-2
1663748=0x1.2c88468cc664fp+0
1663788=0x1.1d7779d0b798ep-2
1664114=0x1.4704c444f4524p+0
1664151=0x1.8b47a6975f23fp-6
1670301=-0x1.803d0f9801738p+0
1670307=-0x1.9ac4adb4c2222p-2
1670329=-0x1.e840cf9368593p-3
1672164=0x1.37481d0d3f4b7p+3
1672177=0x1.8936e05a895d9p+2
1672192=0x1.ad1ff0a317ba1p+0
1672194=0x1.b1e8a0a95e911p+2
1672220=0x1.6d17576aaaf9p+1
1690065=0x1.213bc575ff3f4p-6
1690114=0x1.9f5429e4f1738p-2
1690195=0x1.04f2bac5a8634p-1
1696707=0x1.247fe320003ddp+1
1703268=0x1.f2adfff072d64p+0
1703270=0x1.78adabeb16ca9p-2
1703294=0x1.0ac65babe0a77p+0
1703301=0x1.521a69c29581ep-1
1703349=-0x1.08397a830881fp+0
1703351=0x1.046ff2197126p-1
1703354=0x1.1dacee2fbce8p-4
1703382=0x1.b59bdeb93ae25p-1
1703511=0x1.a742ee1872d24p-7
1703673=-0x1.a4da0e390475bp-3
1703699=0x1.58bf0bbb2e0e6p+0
1703835=0x1.306e9cdbf1444p-1
1704240=0x1.4439124aec873p-2
1704564=-0x1.3df85983c44b1p+0
1704726=0x1.02be8ea163469p-1
1705698=0x1.8988158b8dda3p-5
1708290=0x1.16898fc4d92aap-1
1708695=0x1.fc077dcca7dacp-2
1709928=0x1.48d6374bc1533p-2
1716552=-0x1.b94a310e766edp+0
1716957=0x1.2094ee97cac08p+2
1716962=0x1.ad0889ccab407p+0
1716963=0x1.10a121fc10bf9p+2
1716967=0x1.b2866cd2308b8p-4
1716975=0x1.39764c7b91f1cp+2
1721007=0x1.a3e045f74ed1ep+0
1721037=0x1.513c705d37d57p+1
1721049=0x1.7e39d1783a853p+1
1722159=-0x1.7fd6756be95ccp-5
1722176=0x1.2da8fb9636385p+1
1723113=-0x1.81c6bf5eb65f5p-5
1724571=0x1.68ba3277f25c4p+0
1724588=0x1.bc64b28142273p+2
1726312=0x1.ffd172b77df7cp+1
1726886=0x1.1a01acb02f6a8p+0
1731051=0x1.404860ef1ea16p+0
1749438=0x1.2019b3fbdfd83p+1
1749519=0x1.9aacd51b46cdap-2
1756080=0x1.42f8fc21f335fp+2
1756090=0x1.0a54faa13d661p+0
1756091=0x1.f0a9cf57285c7p-1
1756099=0x1.14c1d54218f26p-5
1756101=0x1.091a8efa4202ep+0
1756108=0x1.48fcb5f912ddp+0
1756111=0x1.4d65eaeaff953p+0
1756728=-0x1.8206ab6bf7e13p-3
1762641=0x1.aa32313af3f1cp+0
1762691=0x1.bd327c4378448p-1
1762722=0x1.586f446f33fe7p-1
1762772=0x1.c04c7b9bfcc49p+0
1764099=0x1.c13932718c0adp-3
1769283=-0x1.ccb8096f6003ep+0
1769285=-0x1.65272de4ae42ap-3
1769931=0x1.95977c8ab180dp+2
1769933=0x1.16745904e1734p+1
1769935=0x1.e4bc6f30ffb19p+0
1769938=0x1.19eb170c8643p+1
1769941=0x1.eab2e9721cd0fp-1
1769951=0x1.eba2a4cb436c1p+0
1769959=0x1.9e6602c397055p-1
1769960=0x1.824a922067ba3p+2
1775844=0x1.9eadce0b2713dp+0
1775846=0x1.7d46dcc893c63p-2
1775848=-0x1.2b40a3f0d8f01p-4
1775861=0x1.9fcc414139ec4p-1
1775927=0x1.511eebbcdf1a7p-1
1775929=-0x1.9ad2cd4fc150ap-6
1775936=0x1.7c544344ffbfep-3
1777400=0x1.053ef1179f4ecp+0
1782486=0x1.7153ff26b0355p+0
1789047=0x1.11acc76f0ca79p+2
1789067=0x1.425ecdba57857p-2
1803141=0x1.d2b441200b20fp+0
1808892=0x1.45b5f341fd003p+1
1815453=0x1.c865487589badp+1
1822419=0x1.210fd7958c20ap+0
1823482=0x1.195de79495e92p-2
1826673=0x1.08cb0e42e11edp-1
1829547=0x1.552073f52b59p+1
1829552=0x1.5894335ae3cafp-3
1830898=0x1.f95cb2b9d6181p+0
1835225=0x1.13ef2c1b702a5p-1
1835298=0x1.96b8d13c6a3f8p-1
1835306=0x1.1f52eeadbbeb3p-1
1841859=0x1.7c8e382d0c194p+1
1848420=0x1.6238bb73321f5p+1
1848501=0x1.09e3ac642425cp-1
1849878=0x1.40115c2bdf8ffp-5
1861704=0x1.12ba5e789f703p+2
1861727=0x1.029e1bc134bcp+2
1874826=0x1.cf80c6aa9826bp-2
1874833=0x1.e14b11408a076p-2
1874907=0x1.485816b7114bp+0
1874914=0x1.def90285a6cbdp-1
1876203=0x1.b84c55a446afep-4
1881468=0x1.81840dc6342bp-1
1881479=0x1.00891cdb975a1p+0
1881549=0x1.a3d73d6a0bbbep+0
1881560=0x1.0d4231c927b2bp+0
1888110=0x1.436ab99175187p+0
1888221=0x1.c2cd2345e4606p-7
1889007=0x1.1bfc99829a62p+0
1894752=0x1.07248c916ce51p+2
1894760=-0x1.2ab06cfc02c57p-1
1895319=0x1.1af2b552f394bp+1
1895324=0x1.1dcf99a26edbep-1
1898729=0x1.19346106d58ebp+1
1901313=0x1.00d2b1ec623p+0
1901323=0x1.eace47897c653p-1
1907874=0x1.f1223ab4358fp+1
1914435=0x1.106a1ec9f0a8bp+1
1914439=0x1.2eb6cfd574939p-1
1914440=0x1.0f6809299af5ap-7
1914516=0x1.4890b51636876p-2
1914520=0x1.3de6c0399ebe9p+0
1914521=0x1.15485611735e3p-4
1921077=0x1.13f44d14fd56p+1
1921898=0x1.0d89ce8e14526p+2
1924506=0x1.617c2b96f3e19p+2
1927638=0x1.8a26589500509p+0
1927719=0x1.dbcba62b2d2c9p+1
1934280=0x1.41d79417e5954p+2
1940841=0x1.a9f777f46ae78p-1
1947483=0x1.5cd94f55bbb8p+2
1947564=0x1.980dfceee124p+1
1954125=0x1.9cebd09b55f06p-2
1980531=0x1.2152e8038b69dp-2
1980612=0x1.10b474e763c3dp+0
1987173=0x1.d9b8373b9d34ap-3
2000295=0x1.2cca6daecc4dep-2
2000376=0x1.50ce1dfcd38d5p-2
2008962=0x1.1882762b10e32p+2
2020140=0x1.854972f1f267fp+1
2020161=0x1.4d0146891ffcdp+1
2020242=0x1.ee2b3ec4ef081p-1
2022327=0x1.cc77b6c78c993p-2
2026782=0x1.1c2789943969dp-2
2027268=0x1.3b7b9d19b7c85p+2
2033343=0x1.69d0b5200fceep-2
2033392=0x1.0a6e8c4fab01bp-2
2033424=0x1.24eec9a8e6f93p+1
2033473=0x1.214811e3beff6p-2
2039985=0x1.3297a9ef8bad1p+1
2040010=0x1.089047c527563p+0
2040014=0x1.5256c649f82bcp+0
2046546=0x1.457b915c020c6p+0
2046548=0x1.62c60129e3a03p+0
2046558=0x1.d38dd764196e3p+0
2046627=0x1.4edb3044fc1a1p+1
2046639=0x1.0ea937f5e4181p+1
2046951=0x1.a42fbeec52924p-1
2047601=0x1.29c88f1df15bcp+1
2053188=0x1.da9e8395fe4eep-2
2053198=0x1.e7ecc2fb0f068p-4
2053674=-0x1.3ea26c37650d6p-1
2054160=-0x1.311916ab4c13fp+0
2054808=0x1.019516d3cfe97p+2
2055861=0x1.9a3a7ba0ffc75p+2
2072952=0x1.186f6363f8d72p+0
2073008=0x1.f35679862bfe7p-3
2073357=0x1.19da15ae1e193p-3
2073364=0x1.177fad742f5a5p-5
2073575=0x1.6a6728c7b38b8p-2
2074734=-0x1.2751a35ff30a2p-4
2078136=0x1.4834a325da846p+0
2078379=0x1.f0eca159b0359p-1
2079594=0x1.373f9dfb38e48p+1
2079675=0x1.87f910e888febp-1
2080890=0x1.04b27f8b7fe35p+2
2086236=0x1.5282375442036p-3
2086243=0x1.33ef4c8d2d556p+1
2086324=0x1.82316c4b93f23p-3
2086729=0x1.7d2ec30466d5bp+1
2092878=-0x1.2c5c3dc4eeee3p+0
2093283=0x1.4a2d463e915dep+2
2093289=0x1.41795ffec6ccap+2
2093301=0x1.fe915c5a026c4p+1
2097333=0x1.6c4f7761bfb7fp+1
2099439=0x1.398c3a8424299p+2
2099444=0x1.a4714406f24d6p+1
2099445=0x1.c34a8c6e0f039p+0
2099473=0x1.5a6ac23b36ffcp+0
2100006=0x1.6c1b9511d4278p+0
2100011=0x1.283ec29a1af37p+1
2103576=0x1.fd8f92ac0d38p+0
2106000=0x1.2ba7a6d8712aap+0
2106028=0x1.be46c6d06f1b7p-1
2106081=0x1.725e297504098p-2
2106109=0x1.dd5d1102f6399p-1
2112667=0x1.0001ffd18c5d6p+0
2112673=0x1.df19d6d836ce7p+0
2112723=0x1.dddc89651eafcp-1
2112748=0x1.44c15cf82d076p+0
2112754=0x1.c98383e64dcb2p+0
2114050=0x1.adc96a280ed8ap+0
2116374=0x1.62914eb379613p+0
2119284=0x1.d3208c3ad752ap-1
2119337=0x1.7d07e6941f44dp+2
